svm_type c_svc
kernel_type linear
nr_class 6
total_sv 1769
rho 0.16091341463217554 -0.1781241366954368 0.22470530513890338 -0.64987893235673 0.2526077350248001 -0.3318164998713141 0.36193106306191497 0.15953935397102847 -0.0640569091521144 0.24721908192733785 -1.5678088535229353 0.5508381020001357 -0.8079144947681305 0.13465746870016787 1.2890956137452432
label 1 2 3 4 5 6
probA -1.9396072166742457 -2.668330854722631 -2.2099335361564183 -1.6097586455060096 -2.299083707195825 -2.4025809102065354 -2.333156799376434 -1.525711055642566 -2.145138431819051 -1.3430684490262468 -1.521502265566805 -2.722441681895055 -1.508774969020627 -1.7958057578716 -1.616748705275258
probB 0.1817462550252499 -0.6805832908898263 -0.2827252982965289 -0.5736396835138854 0.5639149658911167 -0.41587974142354805 -0.2646035082025222 -0.8978835347799071 0.35127388737999343 0.32812433747396824 -1.1640256840343617 0.47627487626778 -1.2400564971178047 0.08530706835306166 0.7869851081551344
nr_sv 182 303 346 575 35 328
SV
0.11131660759293074 0.22958729088417765 0.4911852491145397 0.0 0.6000113370232268 1:1.0 2:1.0 3:1.0 4:1.0 5:2.0 6:3.0 7:7.0 8:4.0 9:1.0 10:1.0 
1.5942116727628883 0.9347764461116432 2.0 0.0 2.0 4:1.0 5:2.0 6:1.0 7:6.0 8:6.0 10:1.0 15:1.0 
2.0 2.0 2.0 2.0 0.0 4:1.0 5:2.0 6:2.0 7:5.0 8:4.0 10:1.0 17:1.0 
0.0 2.0 2.0 0.6694740086781672 0.0 4:1.0 5:2.0 6:1.0 7:18.0 8:10.0 10:6.0 17:1.0 20:3.0 
0.22593368220780632 0.0 0.0 0.0 0.0 5:2.0 6:4.0 7:7.0 8:4.0 10:1.0 14:1.0 21:1.0 
2.0 2.0 2.0 0.0 0.0 4:1.0 5:2.0 6:1.0 7:6.0 8:6.0 10:1.0 17:1.0 
0.0 0.11882384295631362 0.006289447765634998 0.0 0.10155676099168068 5:2.0 6:5.0 7:14.0 8:7.0 10:3.0 16:1.0 23:1.0 25:1.0 26:1.0 27:1.0 28:1.0 
2.0 2.0 2.0 2.0 0.0 4:1.0 5:2.0 6:1.0 7:4.0 8:4.0 10:1.0 17:1.0 
0.0 0.051330426828386434 0.15995939762696876 0.0 0.07817941017813165 1:1.0 4:1.0 5:2.0 6:3.0 7:17.0 8:11.0 10:5.0 29:1.0 30:1.0 31:1.0 32:1.0 33:1.0 34:1.0 35:1.0 
0.061035478667669674 0.0 0.08355637049696223 0.0 0.19686887008234016 4:1.0 5:2.0 6:7.0 7:10.0 8:4.0 10:1.0 25:1.0 36:1.0 37:1.0 
2.0 2.0 2.0 0.0 0.0 4:1.0 5:2.0 6:1.0 7:7.0 8:7.0 10:1.0 17:1.0 
1.6775835735331677 0.7411752209689366 2.0 0.14287224091559256 2.0 1:1.0 4:1.0 5:2.0 6:2.0 7:6.0 8:2.0 9:1.0 10:2.0 20:1.0 33:1.0 
0.0 2.0 2.0 0.0 0.0 4:1.0 5:2.0 6:1.0 7:16.0 8:14.0 10:1.0 17:1.0 20:2.0 
0.10421783334085924 0.0 0.0 0.0 0.0 5:2.0 6:3.0 7:5.0 8:3.0 10:1.0 14:1.0 47:1.0 
2.0 2.0 2.0 0.0 2.0 4:1.0 5:2.0 6:3.0 7:6.0 8:4.0 10:1.0 17:1.0 
2.0 2.0 2.0 0.0 0.0 4:1.0 5:2.0 6:1.0 7:7.0 8:7.0 10:1.0 17:1.0 
0.0 0.0 0.25228924359290716 0.0 0.8225708552479692 5:2.0 6:2.0 7:9.0 8:8.0 10:1.0 23:1.0 25:1.0 48:1.0 49:1.0 
0.0 0.0 0.08345037284446265 0.0 0.15712807252939162 4:1.0 5:2.0 6:1.0 7:8.0 8:8.0 10:1.0 25:1.0 50:1.0 51:1.0 
1.0005454569281764 2.0 2.0 0.0 2.0 4:1.0 5:2.0 6:9.0 7:24.0 8:8.0 10:9.0 17:1.0 
2.0 2.0 2.0 0.0 0.0 4:1.0 5:2.0 6:1.0 7:7.0 8:7.0 10:1.0 17:1.0 
0.42407542233741463 0.1435672104214195 0.3006564955702613 0.0 0.30839686913154396 4:1.0 5:2.0 6:7.0 7:14.0 8:6.0 10:2.0 16:1.0 38:1.0 39:1.0 40:1.0 41:1.0 42:1.0 
1.228478102759009 0.053772380251547416 0.6031002257329715 0.0 0.6120059155737259 4:1.0 5:2.0 6:4.0 7:9.0 8:6.0 10:1.0 15:1.0 52:1.0 53:1.0 
2.0 2.0 2.0 2.0 0.0 4:1.0 5:2.0 6:1.0 7:5.0 8:5.0 10:1.0 17:1.0 
2.0 2.0 2.0 0.0 0.0 4:1.0 5:2.0 6:1.0 7:7.0 8:7.0 10:1.0 17:1.0 
2.0 2.0 2.0 0.0 2.0 4:1.0 5:2.0 6:3.0 7:10.0 8:8.0 10:1.0 17:1.0 
0.0 1.0376142066004335 0.26551921743944723 0.0 0.0 5:2.0 6:2.0 7:3.0 8:2.0 10:1.0 14:1.0 47:1.0 
2.0 0.0 0.0 0.0 0.555498129921413 5:2.0 6:5.0 7:16.0 8:11.0 10:1.0 11:1.0 12:1.0 54:1.0 
2.0 2.0 2.0 0.0 0.0 4:1.0 5:2.0 6:1.0 7:7.0 8:7.0 10:1.0 17:1.0 
0.0 0.0 0.1025947097607002 0.0 0.29564453925033657 5:2.0 6:5.0 7:11.0 8:7.0 10:1.0 23:1.0 25:1.0 55:1.0 56:1.0 57:1.0 
0.0 1.0365414040106269 0.265548665148197 0.0 0.0 5:2.0 6:3.0 7:18.0 8:15.0 10:2.0 14:1.0 60:1.0 
0.23460418867568794 0.5652799374724601 1.474625450070052 0.0 1.2206987204865751 1:1.0 4:1.0 5:2.0 6:1.0 7:11.0 8:9.0 10:3.0 61:1.0 62:1.0 
0.0 1.28177299004176E-4 0.6389444734727543 0.0 0.11006377093072806 5:2.0 6:3.0 7:7.0 8:4.0 10:1.0 11:1.0 12:1.0 63:1.0 
1.4419801088891113 0.7348460064451657 2.0 0.06977134254732752 1.5411520185276661 5:2.0 6:3.0 7:8.0 8:5.0 10:1.0 13:1.0 16:1.0 23:1.0 32:1.0 
0.0 0.0 0.0 0.0 2.0 5:2.0 6:6.0 7:10.0 8:2.0 10:4.0 11:1.0 12:1.0 
2.0 2.0 2.0 0.0 0.0 4:1.0 5:2.0 6:1.0 7:7.0 8:7.0 10:1.0 17:1.0 
0.0 0.0 0.278353218853782 0.0 0.18522663217288965 4:1.0 5:2.0 6:3.0 7:9.0 8:6.0 10:2.0 25:1.0 64:1.0 65:1.0 
0.0 0.0 0.16731246323031498 0.0 0.2578792390563914 4:1.0 5:2.0 6:2.0 7:4.0 8:3.0 10:1.0 25:1.0 66:1.0 
0.0 0.0 0.08009321914338983 0.0 0.21601214337903832 4:1.0 5:2.0 6:5.0 7:13.0 8:6.0 10:4.0 23:1.0 25:1.0 67:1.0 68:1.0 69:1.0 
0.0 2.0 2.0 0.0 0.11505207928946364 4:1.0 5:2.0 6:1.0 7:16.0 8:15.0 10:1.0 17:1.0 20:1.0 
2.0 2.0 2.0 2.0 2.0 4:1.0 5:2.0 6:1.0 7:11.0 8:10.0 10:1.0 16:1.0 17:1.0 
0.0 1.63626507703764E-4 0.0 0.0 0.0 5:2.0 6:2.0 7:8.0 8:7.0 10:1.0 23:1.0 25:1.0 66:1.0 70:1.0 71:1.0 
0.09411573212838456 0.0 0.26538592665209026 0.0 0.0 5:2.0 6:2.0 7:4.0 8:4.0 14:1.0 72:1.0 
2.0 2.0 2.0 0.0 0.0 4:1.0 5:2.0 6:1.0 7:6.0 8:6.0 10:1.0 17:1.0 
2.0 2.0 2.0 0.0 0.0 4:1.0 5:2.0 6:2.0 7:7.0 8:7.0 17:1.0 
0.0 0.0 0.0 0.0 0.47274242263155214 4:1.0 5:2.0 6:3.0 7:9.0 8:6.0 10:2.0 25:1.0 73:1.0 74:1.0 
0.0 1.037349326803708 0.2653362408229081 0.0 0.0 5:2.0 6:1.0 7:4.0 8:4.0 10:1.0 14:1.0 75:1.0 
2.0 2.0 2.0 0.0 2.0 4:1.0 5:2.0 6:1.0 7:9.0 8:9.0 10:1.0 17:1.0 
2.0 2.0 2.0 1.2878645888254376 2.0 4:1.0 5:2.0 6:3.0 7:7.0 8:4.0 10:2.0 17:1.0 
0.0 0.30265215692134084 0.0 0.0 0.0 5:2.0 6:1.0 7:14.0 8:11.0 10:4.0 13:1.0 14:1.0 23:1.0 
2.0 2.0 2.0 0.0 0.0 4:1.0 5:2.0 6:1.0 7:7.0 8:7.0 10:1.0 17:1.0 
2.0 2.0 2.0 0.0 2.0 4:1.0 5:2.0 6:4.0 7:11.0 8:8.0 10:1.0 17:1.0 
0.0 0.0 0.006496862054101238 0.0 0.1599039364620253 5:2.0 6:1.0 7:13.0 8:12.0 10:1.0 23:1.0 25:1.0 58:1.0 76:1.0 77:1.0 78:1.0 
0.0 0.0 0.0 2.0 0.0 5:2.0 6:1.0 7:6.0 8:4.0 10:2.0 11:1.0 12:1.0 16:1.0 
2.0 2.0 2.0 0.0 2.0 4:1.0 5:2.0 6:1.0 7:10.0 8:10.0 10:1.0 17:1.0 
0.3877170551416082 0.5973415304682687 0.9031577817398531 0.0 0.40306461424472184 4:1.0 5:2.0 6:2.0 7:8.0 8:7.0 10:1.0 29:1.0 79:1.0 80:1.0 81:1.0 
2.0 2.0 2.0 0.0 2.0 4:1.0 5:2.0 6:1.0 7:13.0 8:13.0 10:1.0 17:1.0 
0.5717319725278713 0.5331191008994729 0.8573443518832955 0.0 1.355619906967994 5:2.0 6:3.0 7:9.0 8:5.0 10:3.0 23:1.0 82:1.0 83:1.0 
0.0 0.0 0.08350247097598021 0.0 0.15684854164318626 4:1.0 5:2.0 6:3.0 7:7.0 8:5.0 10:1.0 25:1.0 84:1.0 85:1.0 
0.0 0.8328922354262133 2.0 0.0 0.0 4:1.0 5:2.0 6:3.0 7:10.0 8:8.0 10:1.0 86:1.0 
2.0 2.0 2.0 1.4614300822812525 0.0 4:1.0 5:2.0 6:1.0 7:8.0 8:7.0 10:1.0 17:1.0 54:1.0 
0.022066975700835642 0.0 0.0 0.0 0.0 5:2.0 6:3.0 7:7.0 8:5.0 10:1.0 14:1.0 75:1.0 
2.0 2.0 2.0 2.0 0.583029616078169 4:1.0 5:2.0 6:1.0 7:5.0 8:4.0 10:1.0 16:1.0 17:1.0 
0.0 0.0 0.26182309970876305 0.0 0.0 5:2.0 6:1.0 7:10.0 8:10.0 10:1.0 14:1.0 87:1.0 
2.0 2.0 2.0 0.0 0.2856499637555792 4:1.0 5:2.0 6:1.0 7:7.0 8:7.0 10:1.0 17:1.0 
0.0 1.0368470476977276 0.0031873086884675952 0.0 0.0 5:2.0 6:2.0 7:6.0 8:5.0 10:1.0 14:1.0 87:1.0 
0.2839079544753852 0.4542320534474731 0.517827478655448 0.4025985569134107 0.43271093230720215 4:1.0 5:2.0 6:1.0 7:9.0 8:7.0 10:2.0 16:1.0 22:1.0 29:1.0 74:1.0 88:1.0 
2.0 2.0 2.0 0.0 2.0 4:1.0 5:2.0 6:4.0 7:8.0 8:5.0 10:1.0 17:1.0 
2.0 2.0 2.0 0.0 2.0 4:1.0 5:2.0 6:5.0 7:15.0 8:11.0 10:1.0 17:1.0 
0.3037342239726694 0.09107384359763797 0.2523569903287885 0.0 0.24024771024080258 5:2.0 6:3.0 7:7.0 8:4.0 10:2.0 22:1.0 23:1.0 89:1.0 90:1.0 
0.0 0.0 1.1578854680237423 0.0 0.0 1:1.0 4:1.0 5:2.0 6:1.0 7:8.0 8:7.0 10:2.0 25:1.0 29:1.0 91:1.0 
0.0 0.0 0.08338560147490821 0.0 0.3099329229584239 4:1.0 5:2.0 6:2.0 7:11.0 8:8.0 10:3.0 25:1.0 92:1.0 93:1.0 
0.0 0.016184282299799426 0.1021403135484086 0.0 0.3166823767822706 5:2.0 6:1.0 7:12.0 8:11.0 10:2.0 15:1.0 23:1.0 94:1.0 95:1.0 96:1.0 
2.0 2.0 2.0 0.670370523026222 2.0 4:1.0 5:2.0 6:3.0 7:7.0 8:4.0 10:2.0 17:1.0 
0.0 1.042762947011892 1.6554348144941786 0.0 0.026278726543753052 5:2.0 6:1.0 7:7.0 8:7.0 10:1.0 11:1.0 12:1.0 23:1.0 
0.0 0.7182477766533137 0.541042401507398 0.0 0.20743813147248996 1:1.0 4:1.0 5:2.0 6:1.0 7:11.0 8:8.0 10:3.0 29:1.0 59:1.0 97:1.0 98:1.0 99:1.0 
2.0 2.0 2.0 2.0 2.0 4:1.0 5:2.0 6:3.0 7:6.0 8:3.0 10:2.0 17:1.0 
2.0 2.0 2.0 0.0 2.0 4:1.0 5:2.0 6:4.0 7:10.0 8:6.0 10:2.0 17:1.0 
2.0 2.0 2.0 0.0 0.0039883260252637056 4:1.0 5:2.0 6:3.0 7:6.0 8:4.0 10:1.0 17:1.0 
0.2900514613115524 0.28695950685278393 0.6323837427468875 0.0 0.43925969501203777 4:1.0 5:2.0 6:2.0 7:8.0 8:7.0 10:1.0 38:1.0 100:1.0 101:1.0 
0.1206485580834954 0.3026011127281517 0.2504776720608298 0.0 0.11010900444455185 4:1.0 5:2.0 6:3.0 7:10.0 8:7.0 10:2.0 22:1.0 29:1.0 102:1.0 103:1.0 104:1.0 
2.0 2.0 2.0 0.0 2.0 4:1.0 5:2.0 6:1.0 7:7.0 8:7.0 10:1.0 17:1.0 
0.1032064560180597 1.0364828113232014 0.26498724090235865 0.0 0.0 5:2.0 6:4.0 7:10.0 8:7.0 10:1.0 14:1.0 105:1.0 
0.0 1.037347800992687 0.26536329208538373 0.0 0.0 5:2.0 6:1.0 7:4.0 8:4.0 10:1.0 14:1.0 106:1.0 
0.1591340365579701 0.4952674907926895 0.42208641933146784 0.0 0.4219357203352444 4:1.0 5:2.0 6:1.0 7:13.0 8:13.0 10:1.0 29:1.0 43:1.0 44:1.0 45:1.0 46:1.0 
2.0 2.0 2.0 0.0 2.0 4:1.0 5:2.0 6:1.0 7:10.0 8:10.0 10:1.0 17:1.0 
2.0 2.0 2.0 0.6530796457343383 2.0 4:1.0 5:2.0 6:3.0 7:7.0 8:4.0 10:2.0 17:1.0 
0.5784580512271836 0.0 0.08347478603616071 0.0 0.3116382318755638 4:1.0 5:2.0 6:4.0 7:9.0 8:6.0 10:1.0 25:1.0 107:1.0 108:1.0 
0.0 2.3032228375598962E-5 0.0 0.0 0.0 5:2.0 6:5.0 7:15.0 8:7.0 10:5.0 13:1.0 14:1.0 23:1.0 109:1.0 
0.0 0.656304265768404 0.7115034041905967 0.0 0.24537894654681802 4:1.0 5:2.0 6:2.0 7:11.0 8:9.0 9:1.0 10:1.0 29:1.0 110:1.0 111:1.0 112:1.0 
2.0 2.0 2.0 0.0 2.0 4:1.0 5:2.0 6:1.0 7:10.0 8:10.0 10:1.0 17:1.0 
2.0 2.0 2.0 0.0 2.0 4:1.0 5:2.0 6:4.0 7:14.0 8:11.0 10:1.0 17:1.0 
0.696380906072386 0.3984150218890419 0.5886116848455125 0.0 0.434897786445856 4:1.0 5:2.0 6:1.0 7:6.0 8:6.0 10:1.0 30:1.0 115:1.0 116:1.0 
0.7772623995261241 0.0 0.0 0.0 0.0 5:2.0 6:4.0 7:8.0 8:4.0 10:1.0 11:1.0 12:1.0 16:1.0 
0.0 0.20853195786991047 0.07304368105990702 0.0 0.11358829572717045 5:2.0 6:3.0 7:8.0 8:6.0 10:1.0 23:1.0 25:1.0 70:1.0 71:1.0 
2.0 2.0 2.0 0.0 0.0 4:1.0 5:2.0 6:1.0 7:6.0 8:6.0 10:1.0 17:1.0 
2.0 2.0 2.0 0.0 2.0 4:1.0 5:2.0 6:1.0 7:9.0 8:9.0 10:1.0 17:1.0 
2.0 2.0 2.0 0.0 2.0 4:1.0 5:2.0 6:1.0 7:13.0 8:13.0 10:1.0 17:1.0 
0.0018858897833197211 0.30518212384611315 0.5170905943665549 0.0 0.36601144539170954 1:1.0 4:1.0 5:2.0 6:1.0 7:10.0 8:9.0 10:2.0 117:1.0 118:1.0 119:1.0 
0.06225534301768536 0.03630539234296851 0.18955175760879092 0.0 0.1603417336706114 5:2.0 6:4.0 7:23.0 8:20.0 10:1.0 22:1.0 23:1.0 120:1.0 121:1.0 122:1.0 123:1.0 124:1.0 
0.0 3.510885342570839E-4 0.0 0.00274924511358416 0.0 5:2.0 6:1.0 7:4.0 8:3.0 10:1.0 11:1.0 12:1.0 16:1.0 
0.0 0.0 0.0 0.0 0.00706338675623363 1:1.0 4:1.0 5:2.0 6:7.0 7:23.0 8:16.0 10:2.0 25:1.0 70:1.0 125:1.0 126:1.0 127:1.0 128:1.0 129:1.0 
0.0 2.0 2.0 0.0 2.0 4:1.0 5:2.0 6:2.0 7:12.0 8:10.0 9:1.0 10:1.0 17:1.0 
2.0 2.0 2.0 0.0 2.0 4:1.0 5:2.0 6:1.0 7:7.0 8:7.0 10:1.0 17:1.0 
0.0 0.0 0.004915629713016141 0.0 0.04598698375082866 5:2.0 6:4.0 7:12.0 8:9.0 10:1.0 23:1.0 25:1.0 130:1.0 131:1.0 132:1.0 133:1.0 
0.0 0.003991146781336639 0.0 0.0 0.0 5:2.0 6:2.0 7:6.0 8:4.0 10:1.0 14:1.0 16:1.0 18:1.0 
0.48181960159124426 0.010718559254359045 0.0 0.0 0.3490675759505994 4:1.0 5:2.0 6:2.0 7:6.0 8:5.0 10:1.0 30:1.0 97:1.0 
2.0 2.0 2.0 2.0 0.0 4:1.0 5:2.0 6:1.0 7:5.0 8:4.0 10:1.0 16:1.0 17:1.0 
2.0 2.0 2.0 0.0 2.0 4:1.0 5:2.0 6:2.0 7:11.0 8:9.0 10:2.0 17:1.0 
2.0 2.0 2.0 0.0 0.0 4:1.0 5:2.0 6:1.0 7:6.0 8:6.0 10:1.0 17:1.0 
0.0 0.0 0.019577357369746858 0.0 0.0873211560605084 5:2.0 6:2.0 7:7.0 8:6.0 10:1.0 23:1.0 25:1.0 134:1.0 
0.0 0.0 0.07907911384828858 0.0 1.4563238121084272 5:2.0 6:1.0 7:11.0 8:9.0 10:2.0 14:1.0 18:1.0 135:1.0 
0.5376664733467572 1.0114970447152738 0.8761550468093198 0.04539768147732914 0.5593182891303201 4:1.0 5:2.0 6:2.0 7:9.0 8:7.0 10:2.0 29:1.0 136:1.0 137:1.0 138:1.0 
0.6435056287940769 0.839191712121989 0.0 0.0 0.0 5:2.0 6:2.0 7:7.0 8:4.0 10:1.0 14:1.0 18:1.0 54:1.0 63:1.0 
0.5063760217203985 0.6179113618812474 0.7980494445997366 0.0 0.5838963671022565 5:2.0 6:2.0 7:7.0 8:6.0 10:1.0 23:1.0 29:1.0 139:1.0 140:1.0 141:1.0 
2.0 2.0 2.0 0.0 0.0 4:1.0 5:2.0 6:1.0 7:7.0 8:7.0 10:1.0 17:1.0 
2.0 2.0 2.0 0.0 2.0 4:1.0 5:2.0 6:3.0 7:7.0 8:5.0 10:1.0 17:1.0 
0.0 0.0 0.019639383775573116 0.0 0.06340997195575009 5:2.0 6:1.0 7:6.0 8:6.0 10:1.0 23:1.0 25:1.0 142:1.0 
0.1535411997121908 0.2871595434985864 0.3745196894872578 0.0 0.432008243230217 5:2.0 6:1.0 7:13.0 8:9.0 10:3.0 20:1.0 23:1.0 143:1.0 144:1.0 145:1.0 146:1.0 
0.0 1.0374615888681487 0.2654139634680705 0.0 0.0 5:2.0 6:3.0 7:4.0 8:2.0 10:1.0 14:1.0 21:1.0 
0.06605068123658851 0.16735478813375226 0.19521183186017543 0.0 0.1318017182852698 4:1.0 5:2.0 6:2.0 7:6.0 8:5.0 10:1.0 30:1.0 147:1.0 148:1.0 
1.8763298210180528 2.0 2.0 0.0 2.0 4:1.0 5:2.0 6:3.0 7:16.0 8:11.0 10:2.0 16:1.0 17:1.0 58:1.0 
1.2236638532630575 1.671018011807071 1.7174558295863058 0.7921671529007008 1.2026949974383363 4:1.0 5:2.0 6:1.0 7:3.0 8:2.0 10:1.0 29:1.0 149:1.0 
2.0 2.0 2.0 0.0 0.0 4:1.0 5:2.0 6:1.0 7:7.0 8:7.0 10:1.0 17:1.0 
2.0 2.0 2.0 0.0 2.0 4:1.0 5:2.0 6:1.0 7:7.0 8:7.0 10:1.0 17:1.0 
2.0 2.0 2.0 0.0 2.0 4:1.0 5:2.0 6:3.0 7:9.0 8:7.0 10:1.0 17:1.0 
0.89771877369214 0.33484262429311074 0.6207502496565438 0.0 0.7313333577182375 4:1.0 5:2.0 6:1.0 7:10.0 8:10.0 10:1.0 151:1.0 152:1.0 153:1.0 
0.0 0.0 0.35462013758090233 0.0 0.18136132296161442 4:1.0 5:2.0 6:3.0 7:7.0 8:3.0 10:3.0 25:1.0 154:1.0 155:1.0 
0.0 0.0030716700732336412 0.0 1.1758919080711132 0.16956809254084096 5:2.0 6:1.0 7:27.0 8:18.0 10:5.0 14:1.0 16:5.0 19:1.0 23:1.0 156:1.0 
0.0 0.0 0.0 0.592816485571532 0.0 5:2.0 7:5.0 8:5.0 10:1.0 16:1.0 23:1.0 25:1.0 88:1.0 
1.0823778696238584 2.0 2.0 0.11269346435987508 1.1531646320100797 4:1.0 5:2.0 6:1.0 7:5.0 8:5.0 10:1.0 29:1.0 157:1.0 
0.0 0.505951492805322 0.0 0.0 0.0 5:2.0 6:1.0 7:8.0 8:7.0 10:2.0 14:1.0 19:1.0 
0.3666328302255187 1.5435193973541153 2.0 0.0 0.7145982372287912 4:1.0 5:2.0 6:1.0 7:11.0 8:11.0 10:1.0 29:1.0 158:1.0 159:1.0 160:1.0 
0.0 0.0 0.0 0.37060350408632703 0.0 5:2.0 6:1.0 7:4.0 8:3.0 10:1.0 11:1.0 12:1.0 16:1.0 
0.0 0.1675512131345612 0.3330377380549047 0.05650040222839157 0.17612218348270306 4:1.0 5:2.0 6:1.0 7:10.0 8:9.0 10:1.0 16:1.0 30:1.0 161:1.0 162:1.0 
2.0 2.0 2.0 0.0 2.0 4:1.0 5:2.0 6:1.0 7:8.0 8:8.0 10:1.0 17:1.0 
0.0 2.0 2.0 0.0 0.4163169996821908 4:1.0 5:2.0 6:1.0 7:14.0 8:9.0 10:2.0 17:1.0 20:3.0 58:1.0 
2.0 2.0 2.0 0.0 1.330615897410781 4:1.0 5:2.0 6:1.0 7:7.0 8:7.0 10:1.0 17:1.0 
0.0 0.16728290649047642 0.195196565942538 0.0 0.16024093264194658 4:1.0 5:2.0 6:1.0 7:10.0 8:10.0 10:1.0 30:1.0 163:1.0 164:1.0 
0.0 0.0 0.5629562769115933 0.0 0.0 5:2.0 6:3.0 7:3.0 8:1.0 10:1.0 11:1.0 12:1.0 
2.0 2.0 2.0 0.0 2.0 4:1.0 5:2.0 6:4.0 7:9.0 8:4.0 10:2.0 17:1.0 58:1.0 
0.0 1.0376251276078603 0.2654616367705942 0.0 0.0 5:2.0 6:1.0 7:3.0 8:3.0 10:1.0 14:1.0 165:1.0 
1.768225032322857 2.0 2.0 0.0 2.0 4:1.0 5:2.0 6:1.0 7:14.0 8:14.0 10:1.0 17:1.0 
0.5377673567186347 0.162234403273001 0.7722665048506772 0.0 0.3427010393238735 4:1.0 5:2.0 6:1.0 7:10.0 8:8.0 10:2.0 20:1.0 45:1.0 91:1.0 167:1.0 
2.0 2.0 2.0 0.0 2.0 4:1.0 5:2.0 6:1.0 7:8.0 8:8.0 10:1.0 17:1.0 
0.0 0.0 0.10254701936961809 0.0 0.0 5:2.0 6:1.0 7:15.0 8:15.0 10:1.0 14:1.0 18:1.0 
0.0 0.0 0.1670618021244066 0.0 0.28195721616902064 4:1.0 5:2.0 6:1.0 7:6.0 8:6.0 10:1.0 25:1.0 168:1.0 
0.0806817316187153 0.005709234479058438 0.0 0.0 0.02262271027932434 4:1.0 5:2.0 6:3.0 7:10.0 8:8.0 10:1.0 29:1.0 169:1.0 170:1.0 
2.0 2.0 2.0 0.2375498185412421 0.0 4:1.0 5:2.0 6:1.0 7:8.0 8:7.0 10:1.0 17:1.0 54:1.0 
1.4976854611581794 0.1713764105402803 2.0 0.0 1.7228132280968205 4:1.0 5:2.0 6:4.0 7:13.0 8:10.0 10:1.0 86:1.0 
2.0 2.0 2.0 2.0 2.0 4:1.0 5:2.0 6:3.0 7:9.0 8:5.0 10:2.0 17:1.0 54:1.0 
2.0 2.0 2.0 0.0 2.0 4:1.0 5:2.0 6:3.0 7:8.0 8:5.0 10:2.0 17:1.0 
0.0 0.010018613483902957 0.0 0.0 0.0 5:2.0 6:2.0 7:4.0 8:3.0 10:1.0 14:1.0 72:1.0 
0.0 1.0273090406445498 0.0 0.0 0.0 5:2.0 6:1.0 7:4.0 8:4.0 10:1.0 14:1.0 72:1.0 
0.0 0.5278711220287255 0.0 0.0 0.0 5:2.0 6:1.0 7:6.0 8:6.0 10:1.0 14:1.0 19:1.0 
2.0 2.0 2.0 0.0 0.0 4:1.0 5:2.0 6:1.0 7:6.0 8:6.0 10:1.0 17:1.0 
0.15857815774396877 0.8650562905438234 0.9245301956629873 0.011910850313850129 0.6846229644039531 4:1.0 5:2.0 6:1.0 7:6.0 8:5.0 9:1.0 10:1.0 29:1.0 172:1.0 173:1.0 
0.3774902161009457 0.7582637930280228 0.8582693715758766 0.0 0.42456682240726157 4:1.0 5:2.0 6:3.0 7:10.0 8:7.0 10:2.0 29:1.0 174:1.0 175:1.0 176:1.0 
0.0 0.0 0.26635935920199333 0.0 0.0 5:2.0 6:4.0 7:22.0 8:19.0 10:1.0 14:1.0 19:1.0 
0.736371455924906 0.2916031686790918 0.6869229659502059 0.0 0.6527777662155695 1:1.0 5:2.0 6:4.0 7:9.0 8:5.0 10:1.0 16:1.0 23:1.0 177:1.0 178:1.0 
0.7210054609900554 0.17367428710458746 0.4454326360912548 0.0 0.7216413201198408 5:2.0 6:2.0 7:13.0 8:11.0 9:1.0 10:1.0 23:1.0 112:1.0 179:1.0 
2.0 2.0 2.0 2.0 2.0 4:1.0 5:2.0 6:3.0 7:7.0 8:4.0 10:2.0 17:1.0 
0.0 0.0 0.019608327599213816 0.0 0.09515730118491339 5:2.0 6:3.0 7:7.0 8:5.0 10:1.0 23:1.0 25:1.0 180:1.0 
1.4702642122542673 0.503788188936885 2.0 0.0 0.8368988441903212 4:1.0 5:2.0 6:3.0 7:6.0 8:4.0 10:1.0 25:1.0 181:1.0 
2.0 2.0 2.0 0.0 0.0 4:1.0 5:2.0 6:1.0 7:6.0 8:6.0 10:1.0 17:1.0 
0.0 0.0 0.0 0.0 0.1387772515217065 1:1.0 4:1.0 5:2.0 6:3.0 7:14.0 8:11.0 10:2.0 45:1.0 182:1.0 183:1.0 184:1.0 
0.8593741228679486 0.8902197203707585 1.0522895119987221 0.0 0.8439590832860144 4:1.0 5:2.0 6:3.0 7:10.0 8:8.0 10:1.0 29:1.0 169:1.0 170:1.0 
2.0 2.0 2.0 0.0 2.0 4:1.0 5:2.0 6:2.0 7:8.0 8:7.0 10:1.0 17:1.0 
2.0 2.0 2.0 0.0 2.0 4:1.0 5:2.0 6:3.0 7:9.0 8:7.0 10:1.0 17:1.0 
2.0 2.0 2.0 1.5111545832757343 0.0 4:1.0 5:2.0 6:2.0 7:5.0 8:4.0 10:1.0 17:1.0 
0.0 0.0 0.16692607074382898 0.0 0.3136969272480941 4:1.0 5:2.0 6:3.0 7:7.0 8:5.0 10:1.0 25:1.0 185:1.0 
0.0 0.0 0.009627840350425455 0.0 0.0707180968445032 5:2.0 6:3.0 7:10.0 8:7.0 10:1.0 23:1.0 25:1.0 59:1.0 186:1.0 187:1.0 
0.0 0.0 0.08342719400073736 0.0 0.19333568261943837 4:1.0 5:2.0 6:4.0 7:8.0 8:3.0 10:3.0 25:1.0 188:1.0 189:1.0 
1.1621454791926837 0.8966234671119785 0.9805779130118328 0.9335663383662732 0.608665557717406 4:1.0 5:2.0 6:2.0 7:5.0 8:2.0 10:2.0 16:1.0 29:1.0 193:1.0 194:1.0 
0.0 0.19418477085244984 0.08373604453869152 0.0 0.0 5:2.0 6:1.0 7:4.0 8:4.0 10:1.0 14:1.0 18:1.0 
0.0 0.0 0.0835095602332189 0.0 0.38526874682347717 4:1.0 5:2.0 6:6.0 7:10.0 8:5.0 10:1.0 25:1.0 195:1.0 196:1.0 
2.0 2.0 2.0 0.06697793229114 2.0 4:1.0 5:2.0 6:4.0 7:10.0 8:4.0 10:3.0 17:1.0 58:1.0 
0.0 1.0369029498220477 0.2649921798351979 0.0 0.0 5:2.0 6:1.0 7:6.0 8:6.0 10:1.0 14:1.0 190:1.0 
0.6616984278479613 0.535580819460905 0.25139775650256696 0.0 0.28027989881723225 4:1.0 5:2.0 6:2.0 7:12.0 8:8.0 10:2.0 20:1.0 29:1.0 54:1.0 91:1.0 197:1.0 198:1.0 199:1.0 
0.0 0.3884937887809109 0.76718752072516 0.0 0.0 4:1.0 5:2.0 6:2.0 7:9.0 8:7.0 10:2.0 25:1.0 29:1.0 91:1.0 200:1.0 
0.0 2.0 2.0 0.0 0.0 4:1.0 5:2.0 6:1.0 7:16.0 8:14.0 10:1.0 17:1.0 20:2.0 
0.49198425346661095 0.3499765093375151 0.6601778509703782 0.0 0.6900603708937874 5:2.0 6:1.0 7:10.0 8:9.0 10:2.0 23:1.0 94:1.0 114:1.0 201:1.0 
2.0 2.0 2.0 0.0 2.0 4:1.0 5:2.0 6:3.0 7:8.0 8:5.0 10:2.0 17:1.0 
-0.0 0.0 0.0 0.0 0.4578892273520865 5:2.0 6:3.0 7:10.0 8:7.0 10:1.0 32:1.0 54:1.0 204:1.0 205:1.0 206:1.0 
-0.0 0.054947033194433725 0.0 0.0 0.0 5:2.0 6:1.0 7:6.0 8:6.0 10:1.0 144:1.0 207:1.0 208:1.0 
-0.06371418874580848 0.45858492050361827 0.0 0.0 0.0 4:1.0 5:2.0 6:2.0 7:9.0 8:7.0 10:2.0 29:1.0 91:1.0 209:1.0 210:1.0 
-0.0 0.0 1.2300544206181376 0.0 0.30721335271155387 4:1.0 5:2.0 6:4.0 7:8.0 8:5.0 10:1.0 53:1.0 211:1.0 212:1.0 
-0.0 0.0 0.0 0.39590260096847807 0.0 5:2.0 6:1.0 7:6.0 8:4.0 10:1.0 16:2.0 192:1.0 208:1.0 213:1.0 214:1.0 
-0.0 0.10969185948623915 0.0 0.0 0.0 5:2.0 6:1.0 7:5.0 8:4.0 10:1.0 58:1.0 208:1.0 215:1.0 
-2.0 2.0 2.0 0.0 2.0 4:1.0 5:2.0 6:1.0 7:10.0 8:10.0 10:1.0 17:1.0 
-2.0 2.0 2.0 0.0 2.0 4:1.0 5:2.0 6:3.0 7:11.0 8:9.0 10:1.0 17:1.0 
-2.0 2.0 2.0 0.2257559935270202 2.0 4:1.0 5:2.0 6:5.0 7:15.0 8:7.0 10:4.0 16:1.0 17:1.0 
-2.0 2.0 2.0 0.26498032799957943 0.0 4:1.0 5:2.0 6:3.0 7:11.0 8:8.0 10:1.0 16:1.0 17:1.0 
-0.19357857909668277 0.2771016462753662 0.9389207875669693 0.0 0.5756912879728178 5:2.0 6:3.0 7:5.0 8:3.0 10:1.0 23:1.0 220:1.0 221:1.0 
-0.0 0.1107012209535145 0.0 0.0 0.0 5:2.0 6:1.0 7:4.0 8:4.0 10:1.0 208:1.0 225:1.0 
-2.0 2.0 2.0 0.0 2.0 4:1.0 5:2.0 6:1.0 7:9.0 8:9.0 10:1.0 17:1.0 
-0.0 0.31185952829539404 0.0 0.0 0.0 5:2.0 6:2.0 7:5.0 8:4.0 10:1.0 208:1.0 226:1.0 
-0.1296394140945601 0.0 0.504289481301157 0.0 0.22627095077531584 5:2.0 6:2.0 7:12.0 8:10.0 10:1.0 20:1.0 23:1.0 227:1.0 228:1.0 229:1.0 230:1.0 
-0.0 0.03612051918247017 0.0 0.0 0.0 5:2.0 6:3.0 7:6.0 8:4.0 10:1.0 208:1.0 231:1.0 232:1.0 
-2.0 2.0 2.0 0.0 2.0 4:1.0 5:2.0 6:2.0 7:8.0 8:7.0 10:1.0 17:1.0 
-0.25718970895451465 0.0 0.03498956991260966 0.0 0.17256295472368421 4:1.0 5:2.0 6:2.0 7:10.0 8:8.0 9:1.0 10:1.0 53:1.0 233:1.0 234:1.0 235:1.0 
-0.2792034159504403 0.8704627062684938 1.0757724504098223 0.0 0.8276600263296481 4:1.0 5:2.0 6:2.0 7:13.0 8:11.0 10:2.0 29:1.0 236:1.0 237:1.0 238:1.0 
-0.23189463564925428 0.0 0.5134622822665983 0.0 1.0515259760398343 4:1.0 5:2.0 6:5.0 7:12.0 8:6.0 10:2.0 58:1.0 210:1.0 239:1.0 240:1.0 
-2.0 2.0 2.0 0.0 2.0 4:1.0 5:2.0 6:1.0 7:9.0 8:9.0 10:1.0 17:1.0 
-0.0 0.10919447794670434 0.0 0.0 0.0 5:2.0 6:3.0 7:4.0 8:2.0 10:1.0 208:1.0 241:1.0 
-0.28827187208813193 0.0 0.0 0.0 0.0 1:1.0 4:1.0 5:2.0 6:3.0 7:8.0 8:5.0 10:2.0 53:1.0 243:1.0 244:1.0 
-0.0 0.3285566400279101 1.767495908738729 0.0 0.0 4:1.0 5:2.0 6:1.0 7:11.0 8:11.0 10:1.0 29:1.0 49:1.0 216:1.0 246:1.0 
-2.0 2.0 2.0 0.0 2.0 4:1.0 5:2.0 6:2.0 7:8.0 8:7.0 10:1.0 17:1.0 
-0.0 0.0 0.015200442861554222 0.0 0.0 5:2.0 6:2.0 7:2.0 8:1.0 10:1.0 208:1.0 230:1.0 247:1.0 
-0.011574722523197908 0.15028130710394394 1.244999119352431 0.0 2.0 4:1.0 5:2.0 6:5.0 7:10.0 8:4.0 10:3.0 242:1.0 248:1.0 
-0.0 0.0 0.0 0.0 0.006609417022118329 4:1.0 5:2.0 6:5.0 7:10.0 8:6.0 10:1.0 53:1.0 250:1.0 251:1.0 
-0.0 0.0 0.13890000675799602 0.0 0.6409392975347804 4:1.0 5:2.0 6:6.0 7:11.0 8:6.0 10:1.0 252:1.0 253:1.0 
-2.0 2.0 1.0983974181231013 0.0 2.0 4:1.0 5:2.0 6:3.0 7:10.0 8:6.0 10:2.0 17:1.0 54:1.0 
-0.0 0.05417664148723916 0.0 0.0 0.0 5:2.0 6:3.0 7:6.0 8:4.0 10:1.0 208:1.0 256:1.0 257:1.0 
-0.2682598152204911 0.0 0.0 0.0 0.2921749361463031 4:1.0 5:2.0 6:2.0 7:8.0 8:6.0 10:1.0 58:1.0 151:1.0 258:1.0 
-0.0 0.0 0.0 0.0 0.3653480235448085 4:1.0 5:2.0 6:7.0 7:13.0 8:5.0 10:3.0 259:1.0 260:1.0 261:1.0 262:1.0 263:1.0 
-0.0 2.0 1.194926873124128 0.0 0.0 4:1.0 5:2.0 6:3.0 7:7.0 8:5.0 10:1.0 29:1.0 53:1.0 264:1.0 
-2.0 2.0 2.0 0.0 2.0 4:1.0 5:2.0 6:3.0 7:8.0 8:6.0 10:1.0 17:1.0 
-2.0 2.0 2.0 0.0 0.0 4:1.0 5:2.0 6:2.0 7:6.0 8:5.0 10:1.0 17:1.0 
-0.0 0.0 0.0 0.0 0.10272048991544067 5:2.0 6:4.0 7:10.0 8:6.0 10:2.0 23:1.0 53:1.0 266:1.0 267:1.0 
-0.04197335328083113 0.0 0.0 0.0 0.0 4:1.0 5:2.0 6:2.0 7:4.0 8:3.0 10:1.0 270:1.0 271:1.0 
-0.0 0.0 0.0 0.0 0.8614695040112975 4:1.0 5:2.0 6:2.0 7:6.0 8:4.0 10:1.0 54:1.0 107:1.0 272:1.0 
-0.0 0.0 0.8483022140591774 0.0 0.9919412410776203 4:1.0 5:2.0 6:7.0 7:12.0 8:6.0 10:1.0 115:1.0 157:1.0 273:1.0 
-2.0 2.0 2.0 2.0 0.0 4:1.0 5:2.0 6:1.0 7:7.0 8:6.0 10:1.0 17:1.0 54:1.0 
-2.0 2.0 2.0 0.6564739321702971 0.0 4:1.0 5:2.0 6:2.0 7:5.0 8:4.0 10:1.0 17:1.0 
-2.0 2.0 2.0 2.0 2.0 4:1.0 5:2.0 6:6.0 7:14.0 8:5.0 10:3.0 16:2.0 17:1.0 
-0.0 0.7862761864821055 0.0 0.0 0.0 5:2.0 6:1.0 7:9.0 8:8.0 10:1.0 23:1.0 29:1.0 49:1.0 54:1.0 254:1.0 
-0.0 0.09132141053540657 0.0 0.0 0.0 4:1.0 5:2.0 6:6.0 7:9.0 8:4.0 10:1.0 29:1.0 53:1.0 243:1.0 
-0.0 0.11041373532959 0.0 0.0 0.0 5:2.0 6:2.0 7:3.0 8:2.0 10:1.0 208:1.0 278:1.0 
-0.3165028252098013 0.8518772442103254 0.9237780366333168 0.0 0.560649380059071 4:1.0 5:2.0 6:3.0 7:8.0 8:6.0 10:1.0 29:1.0 279:1.0 280:1.0 
-0.0 0.4259011526321155 0.0736508825332325 0.0 0.017141963865493787 4:1.0 5:2.0 6:3.0 7:9.0 8:7.0 10:1.0 29:1.0 107:2.0 
-0.0 0.0 0.606985634277034 0.0 0.0018658900631418633 4:1.0 5:2.0 6:2.0 7:5.0 8:4.0 10:1.0 254:1.0 282:1.0 
-0.0993695897104455 0.11465751412594094 0.4650065185316531 0.0 0.4686885742832258 4:1.0 5:2.0 6:4.0 7:8.0 8:5.0 10:1.0 283:1.0 284:1.0 285:1.0 
-2.0 2.0 2.0 0.0 2.0 4:1.0 5:2.0 6:3.0 7:6.0 8:4.0 10:1.0 17:1.0 
-0.0 0.16576508104869184 0.0 0.0 0.5256916397143052 4:1.0 5:2.0 6:3.0 7:12.0 8:9.0 10:1.0 54:1.0 286:1.0 287:1.0 
-2.0 2.0 2.0 0.0 0.0 4:1.0 5:2.0 6:1.0 7:14.0 8:13.0 10:1.0 17:1.0 54:1.0 
-0.0 0.3320270697781151 0.06974157229194147 0.0 0.12249404369832882 4:1.0 5:2.0 6:4.0 7:11.0 8:8.0 10:1.0 29:1.0 74:1.0 270:1.0 288:1.0 289:1.0 
-0.2582947646823911 0.3020413977388495 0.9115871642317314 0.0 0.8660490780318643 2:1.0 4:1.0 5:2.0 6:4.0 7:12.0 8:7.0 10:3.0 46:1.0 277:1.0 290:1.0 
-2.0 2.0 2.0 0.0 2.0 4:1.0 5:2.0 6:2.0 7:7.0 8:6.0 10:1.0 17:1.0 
-0.0 0.0 0.1759545541778332 0.0 0.11474272699534964 4:1.0 5:2.0 6:2.0 7:7.0 8:6.0 10:1.0 294:1.0 295:1.0 296:1.0 297:1.0 
-0.0 0.0 0.0 0.24215229090784793 0.0 5:2.0 6:1.0 7:8.0 8:6.0 10:1.0 16:2.0 192:1.0 208:1.0 298:1.0 299:1.0 
-0.26274147776857987 0.3173798959248188 1.3058532743546 0.0 1.112837713253857 4:1.0 5:2.0 6:3.0 7:10.0 8:8.0 10:1.0 158:1.0 300:1.0 301:1.0 
-0.23143838447601384 0.1164500953305031 0.5484701912310819 0.0 0.35820596350086625 4:1.0 5:2.0 6:2.0 7:4.0 8:3.0 10:1.0 302:1.0 303:1.0 
-2.0 2.0 2.0 0.0 0.0 4:1.0 5:2.0 6:2.0 7:6.0 8:5.0 10:1.0 17:1.0 
-0.0 0.5663523440379841 0.48662052882836443 0.0 0.29515921763661057 4:1.0 5:2.0 6:4.0 7:7.0 8:4.0 10:1.0 29:1.0 268:1.0 304:1.0 
-0.04864792902089316 0.0 0.3306914662959652 0.0 0.36300171843298723 4:1.0 5:2.0 6:4.0 7:7.0 8:4.0 10:1.0 305:1.0 306:1.0 
-0.0 0.0 1.7213416177663152 0.0 0.0 4:1.0 5:2.0 6:3.0 7:7.0 8:5.0 10:1.0 210:1.0 307:1.0 
-0.0 0.0 0.0 0.0 0.044364753316481834 4:1.0 5:2.0 6:2.0 7:7.0 8:6.0 10:1.0 254:1.0 308:1.0 
-0.0 0.0 0.09387993149509309 0.0 0.2519688082644033 5:2.0 6:2.0 7:6.0 8:4.0 10:1.0 53:1.0 58:1.0 206:1.0 309:1.0 310:1.0 
-0.15634271372916028 0.26953793983580504 1.0083525834504945 0.0 0.42718213905716435 4:1.0 5:2.0 6:4.0 7:13.0 8:9.0 10:2.0 29:1.0 39:1.0 136:1.0 236:1.0 311:1.0 312:1.0 
-2.0 2.0 2.0 0.0 0.0 4:1.0 5:2.0 6:2.0 7:5.0 8:4.0 10:1.0 17:1.0 
-0.0 0.04400555385666776 0.5886015780511445 0.0 0.0 4:1.0 5:2.0 6:1.0 7:10.0 8:8.0 10:1.0 20:2.0 33:1.0 201:1.0 318:1.0 319:1.0 
-0.01380092832885001 0.0 0.10862062865097474 0.0 0.2222290362509461 4:1.0 5:2.0 6:3.0 7:7.0 8:4.0 10:2.0 320:1.0 321:1.0 322:1.0 
-2.0 2.0 2.0 2.0 2.0 4:1.0 5:2.0 6:2.0 7:5.0 8:3.0 10:2.0 17:1.0 
-0.0 0.0 0.0 0.0 0.8798625228854345 4:1.0 5:2.0 6:2.0 7:8.0 8:6.0 10:1.0 54:1.0 151:1.0 323:1.0 
-0.4136826595000737 0.2823363066157286 1.982592588308502 0.0 1.4439534244141738 5:2.0 6:2.0 7:11.0 8:10.0 10:1.0 23:1.0 61:1.0 324:1.0 
-2.0 2.0 2.0 2.0 0.0 4:1.0 5:2.0 6:2.0 7:4.0 8:3.0 10:1.0 17:1.0 
-0.15605061447268595 0.0 0.0 0.0 0.01754652811812341 5:2.0 6:2.0 7:11.0 8:10.0 10:1.0 45:1.0 53:1.0 130:1.0 206:1.0 327:1.0 
-0.0 0.5159985223982867 0.0 0.0 0.0 5:2.0 6:3.0 7:6.0 8:3.0 9:1.0 10:1.0 208:1.0 328:1.0 
-0.3084531582306624 0.5844371895795107 1.8772598363134747 0.0 0.006752828419104083 4:1.0 5:2.0 6:2.0 7:7.0 8:5.0 10:2.0 29:1.0 91:1.0 330:1.0 331:1.0 
-2.0 2.0 2.0 0.0 2.0 4:1.0 5:2.0 6:3.0 7:8.0 8:6.0 10:1.0 17:1.0 
-0.0 0.0 0.015297815955034282 0.0 0.0 5:2.0 6:2.0 7:3.0 8:2.0 10:1.0 208:1.0 230:1.0 332:1.0 
-0.0 0.0 0.25820201066493964 0.0 0.16774767619645709 4:1.0 5:2.0 6:3.0 7:12.0 8:10.0 10:1.0 56:1.0 151:1.0 333:1.0 334:1.0 
-0.0 0.0756502893117567 0.0 0.0 0.0 5:2.0 6:3.0 7:8.0 8:5.0 10:1.0 63:1.0 208:1.0 335:1.0 336:1.0 
-0.0 0.1021564990018527 0.19370977848481752 0.0 0.0037754831515193752 5:2.0 6:3.0 7:13.0 8:9.0 9:1.0 10:1.0 16:1.0 46:1.0 192:1.0 208:1.0 337:1.0 338:1.0 339:1.0 340:1.0 
-1.0439641395992194 2.0 2.0 0.0 2.0 4:1.0 5:2.0 6:4.0 7:7.0 8:3.0 10:1.0 17:1.0 135:1.0 
-2.0 2.0 2.0 0.0 2.0 4:1.0 5:2.0 6:2.0 7:9.0 8:8.0 10:1.0 17:1.0 
-1.4890393043608856 2.0 0.0 0.0 0.0 5:2.0 6:1.0 7:5.0 8:5.0 10:1.0 17:1.0 208:1.0 
-2.0 2.0 2.0 0.0 2.0 4:1.0 5:2.0 6:3.0 7:21.0 8:16.0 10:1.0 16:2.0 17:1.0 58:1.0 
-0.0 0.0 0.1345229600175548 0.0 0.018760585998534696 4:1.0 5:2.0 6:3.0 7:5.0 8:3.0 10:1.0 320:1.0 343:1.0 
-2.0 2.0 2.0 0.0 2.0 4:1.0 5:2.0 6:3.0 7:8.0 8:6.0 10:1.0 17:1.0 
-0.2494307021368596 0.3035192671211969 0.36449590663146547 0.0 0.0 4:1.0 5:2.0 6:2.0 7:7.0 8:5.0 10:2.0 29:1.0 91:1.0 270:1.0 344:1.0 
-0.03935655312326403 0.0 0.11818245940595491 0.0 0.00964051153948642 4:1.0 5:2.0 6:2.0 7:7.0 8:6.0 10:1.0 320:1.0 345:1.0 346:1.0 
-0.0 0.0 0.015199233759103987 0.0 0.0 5:2.0 6:2.0 7:2.0 8:1.0 10:1.0 208:1.0 230:1.0 347:1.0 
-0.0 0.0 0.0 0.0 0.3133115399181108 5:2.0 6:2.0 7:5.0 8:4.0 10:1.0 23:1.0 313:1.0 348:1.0 
-0.0 0.22955436690578618 0.0 0.0 0.2887279401792438 5:2.0 6:3.0 7:7.0 8:2.0 9:1.0 10:3.0 131:1.0 208:1.0 349:1.0 
-0.0 0.49466200020977036 0.5013848192444416 0.0 0.5935276925888787 5:2.0 6:2.0 7:7.0 8:6.0 10:1.0 23:1.0 115:1.0 259:1.0 350:1.0 
-1.650136068101401 0.0 0.0 0.0 0.0 4:1.0 5:2.0 6:1.0 7:9.0 8:7.0 10:2.0 15:1.0 20:1.0 33:1.0 216:1.0 
-2.0 2.0 2.0 0.0 0.0 4:1.0 5:2.0 6:2.0 7:6.0 8:5.0 10:1.0 17:1.0 
-2.0 2.0 2.0 0.0 2.0 4:1.0 5:2.0 6:2.0 7:8.0 8:7.0 10:1.0 17:1.0 
-0.0 0.03611701530760056 0.0 0.0 0.0 5:2.0 6:3.0 7:6.0 8:4.0 10:1.0 208:1.0 232:1.0 355:1.0 
-2.0 2.0 2.0 0.0 2.0 4:1.0 5:2.0 6:4.0 7:12.0 8:8.0 10:2.0 17:1.0 
-0.0 0.4733236478403208 0.0 0.0 0.23970577290400782 5:2.0 6:3.0 7:10.0 8:6.0 10:3.0 46:1.0 208:1.0 357:1.0 
-0.0 0.05601091112879508 0.0 0.0 0.27207617428047953 5:2.0 6:3.0 7:8.0 8:4.0 10:3.0 208:1.0 359:1.0 360:1.0 
-0.32320984670336944 0.09244881664151507 0.44324543009610023 0.0 0.7766561543527649 5:2.0 6:2.0 7:14.0 8:12.0 10:2.0 139:1.0 206:1.0 361:1.0 362:1.0 363:1.0 
-0.0 0.0 0.1345279809704898 0.0 0.0 4:1.0 5:2.0 6:3.0 7:5.0 8:3.0 10:1.0 258:1.0 320:1.0 
-0.0 0.10731454222683894 0.0 0.0 0.0 5:2.0 6:4.0 7:7.0 8:4.0 10:1.0 208:1.0 364:1.0 
-0.36958447644551196 0.007761079792092223 0.7571924403342192 0.0 0.2154319104075255 4:1.0 5:2.0 6:1.0 7:6.0 8:6.0 10:1.0 307:1.0 365:1.0 
-0.0 0.0 0.0 0.0 0.5629228113597863 4:1.0 5:2.0 6:5.0 7:8.0 8:4.0 10:1.0 53:1.0 366:1.0 
-0.0 0.06481821434067098 0.0 0.0 0.0 5:2.0 6:1.0 7:7.0 8:6.0 10:1.0 16:1.0 46:1.0 192:1.0 208:1.0 367:1.0 
-1.1183803844832068 0.0 0.7652775124390427 0.0 0.0 4:1.0 5:2.0 6:1.0 7:5.0 8:5.0 10:1.0 151:1.0 
-0.0 0.0 0.0 0.0 0.6336233197528702 1:1.0 4:1.0 5:2.0 6:1.0 7:7.0 8:5.0 10:2.0 135:1.0 216:1.0 369:1.0 370:1.0 
-0.03757483030922263 0.0 0.5288987071045065 0.0 0.0 4:1.0 5:2.0 6:2.0 7:6.0 8:5.0 10:1.0 320:1.0 371:1.0 
-0.0 0.0 0.0 0.047428903166658945 0.0 5:2.0 6:1.0 7:6.0 8:4.0 10:1.0 16:1.0 54:1.0 192:1.0 208:1.0 373:1.0 
-2.0 2.0 2.0 0.0 2.0 4:1.0 5:2.0 6:3.0 7:8.0 8:6.0 10:1.0 17:1.0 
-0.2177120102642758 0.2449129856211962 0.0 0.0 0.5549454294332763 4:1.0 5:2.0 6:2.0 7:7.0 8:6.0 10:1.0 242:1.0 259:1.0 378:1.0 
-1.3061159372618946E-5 0.0 0.6520048280356517 0.0 0.3749009640501831 5:2.0 6:1.0 7:6.0 8:6.0 10:1.0 205:1.0 206:1.0 379:1.0 
-0.0 0.022268278318309086 0.0 0.0 0.11943025742604078 5:2.0 6:5.0 7:22.0 8:16.0 10:3.0 56:1.0 208:1.0 380:1.0 381:1.0 382:1.0 383:1.0 384:1.0 385:1.0 
-0.33799445937132583 0.3853386107655889 0.3772795449455935 0.0 0.0 1:1.0 5:2.0 6:4.0 7:11.0 8:8.0 10:1.0 23:1.0 115:1.0 205:1.0 
-0.5171330973721237 0.1072389781763799 0.06277845419716548 0.0 8.507324158146781E-4 4:1.0 5:2.0 6:1.0 7:13.0 8:12.0 9:1.0 10:1.0 29:1.0 53:1.0 108:1.0 115:1.0 386:1.0 
-0.0 0.11003478719152081 0.0 0.0 0.0 5:2.0 6:2.0 7:4.0 8:3.0 10:1.0 208:1.0 387:1.0 
-0.0 0.22389220335745588 1.1556580567507344 0.0 0.24081890414015547 4:1.0 5:2.0 6:4.0 7:7.0 8:4.0 10:1.0 318:1.0 388:1.0 
-2.0 2.0 2.0 0.0 2.0 4:1.0 5:2.0 6:4.0 7:8.0 8:5.0 10:1.0 17:1.0 
-0.15993166266528652 0.3931710169005719 0.9518557310092605 0.0 0.6588515510877421 4:1.0 5:2.0 6:3.0 7:7.0 8:5.0 10:1.0 248:1.0 305:1.0 
-0.0 0.6771516972660615 1.0077919700899647 0.0 0.0 4:1.0 5:2.0 6:3.0 7:6.0 8:4.0 10:1.0 29:1.0 313:1.0 348:1.0 
-0.22373623562027495 0.0 0.0 0.0 0.0 5:2.0 6:1.0 7:10.0 8:9.0 10:1.0 20:1.0 23:1.0 254:1.0 264:1.0 
-0.0 0.109485076188375 0.0 0.0 0.0 5:2.0 6:1.0 7:7.0 8:7.0 10:1.0 208:1.0 389:1.0 
-0.0 0.109194403928049 0.0 0.0 0.0 5:2.0 6:3.0 7:4.0 8:2.0 10:1.0 208:1.0 392:1.0 
-0.0 0.0 0.0 0.0 0.04400089023680016 4:1.0 5:2.0 6:3.0 7:5.0 8:3.0 10:1.0 254:1.0 393:1.0 
-0.2100026865886092 0.17277371868319596 1.0099640457219525 0.0 0.6607666021852305 4:1.0 5:2.0 6:3.0 7:6.0 8:4.0 10:1.0 394:1.0 395:1.0 
-0.08732863713982698 0.0 0.10507539689431242 0.0 0.0 4:1.0 5:2.0 6:1.0 7:6.0 8:6.0 10:1.0 53:1.0 129:1.0 
-0.0 0.0 0.0 0.0 0.09512716443754657 5:2.0 6:3.0 7:4.0 8:1.0 10:2.0 208:1.0 230:1.0 396:1.0 397:1.0 
-0.29135680620032134 0.4346256178384479 0.9916521429246513 0.0 0.8428320317483603 4:1.0 5:2.0 6:2.0 7:5.0 8:4.0 10:1.0 398:1.0 399:1.0 
-0.0 2.0 0.0 0.0 0.0 5:2.0 6:1.0 7:4.0 8:4.0 10:1.0 17:1.0 208:1.0 
-0.8765921739946786 1.7067718940069432 2.0 0.4134267974065194 0.9523376520770195 4:1.0 5:2.0 6:1.0 7:4.0 8:4.0 10:1.0 29:1.0 400:1.0 
-0.0 0.054179259310443664 0.0 0.0 0.0 5:2.0 6:3.0 7:6.0 8:4.0 10:1.0 208:1.0 234:1.0 401:1.0 
-0.47729536874290857 0.0 0.30867985912652995 0.0 0.33883018942390475 4:1.0 5:2.0 6:1.0 7:7.0 8:6.0 10:1.0 53:1.0 58:1.0 402:1.0 
-0.0 0.0 0.0 0.0 0.7319097207150526 4:1.0 5:2.0 6:5.0 7:8.0 8:3.0 10:1.0 54:1.0 61:1.0 254:1.0 
-0.12079556113477534 0.0 0.8002593393070078 0.0 1.258749075340075 5:2.0 6:1.0 7:7.0 8:7.0 10:1.0 23:1.0 236:1.0 403:1.0 404:1.0 
-0.2787803758577425 0.09424056478402508 0.13973961337126692 0.0 0.24777749918303346 4:1.0 5:2.0 6:2.0 7:10.0 8:5.0 9:1.0 10:2.0 20:1.0 151:1.0 405:1.0 406:1.0 407:1.0 
-0.08071998997713845 0.0 1.3845164505945748 0.0 0.7593206388669335 4:1.0 5:2.0 6:2.0 7:9.0 8:8.0 10:1.0 209:1.0 248:1.0 
-0.0 0.0 0.0 0.0 0.04399543094099368 4:1.0 5:2.0 6:3.0 7:5.0 8:3.0 10:1.0 254:1.0 408:1.0 
-0.012384370438165706 0.0 0.0 0.0 0.11120033259267151 4:1.0 5:2.0 6:3.0 7:11.0 8:8.0 10:2.0 53:1.0 275:1.0 409:1.0 410:1.0 
-2.0 2.0 2.0 0.0 0.0 4:1.0 5:2.0 6:1.0 7:8.0 8:8.0 10:1.0 17:1.0 
-0.0 0.11040894056147366 0.0 0.0 0.0 5:2.0 6:2.0 7:3.0 8:2.0 10:1.0 208:1.0 411:1.0 
-0.0 0.005912791479633537 0.0 0.0 0.0 5:2.0 6:3.0 7:4.0 8:2.0 10:1.0 208:1.0 412:1.0 
-2.0 2.0 2.0 0.0 2.0 4:1.0 5:2.0 6:1.0 7:13.0 8:11.0 10:3.0 17:1.0 
-0.0 0.0 0.0 0.0 0.03214273045652923 5:2.0 6:2.0 7:6.0 8:3.0 10:1.0 16:1.0 135:1.0 192:1.0 208:1.0 413:1.0 
-0.0 0.0 0.01520381389430673 0.0 0.0 5:2.0 6:2.0 7:2.0 8:1.0 10:1.0 208:1.0 230:1.0 414:1.0 
-0.0 0.0 0.1216572957832459 0.0 0.0 5:2.0 6:1.0 7:10.0 8:8.0 10:1.0 20:2.0 32:1.0 115:1.0 208:1.0 291:1.0 
-0.0 0.0 0.0 0.0 0.08867511158569846 4:1.0 5:2.0 6:4.0 7:10.0 8:5.0 10:2.0 54:1.0 254:1.0 415:1.0 416:1.0 
-2.0 2.0 2.0 0.0 2.0 4:1.0 5:2.0 6:3.0 7:6.0 8:4.0 10:1.0 17:1.0 
-0.0 0.0 0.003257392834177446 0.0 0.0 4:1.0 5:2.0 6:2.0 7:5.0 8:4.0 10:1.0 53:1.0 417:1.0 
-1.084034190255483 0.0 0.7765471364565814 0.0 0.6872738077194903 4:1.0 5:2.0 6:1.0 7:7.0 8:7.0 10:1.0 107:1.0 179:1.0 
-0.0 0.04443233771047401 0.0 0.0 0.0 5:2.0 6:3.0 7:6.0 8:4.0 10:1.0 208:1.0 418:1.0 419:1.0 
-0.3961568681784196 0.07080700029265918 1.1329658594509733 0.0 2.0 4:1.0 5:2.0 6:5.0 7:15.0 8:7.0 9:1.0 10:3.0 20:1.0 33:1.0 74:1.0 318:1.0 420:1.0 
-2.0 2.0 2.0 0.3236371566624801 0.0 4:1.0 5:2.0 6:1.0 7:7.0 8:7.0 10:1.0 17:1.0 
-2.0 2.0 2.0 0.0 2.0 4:1.0 5:2.0 6:1.0 7:9.0 8:9.0 10:1.0 17:1.0 
-0.23917794863950326 1.4417644704557306 1.7160784708322658 0.0 1.09466721376514 5:2.0 6:4.0 7:9.0 8:6.0 10:1.0 23:1.0 29:1.0 342:1.0 423:1.0 
-0.0024481939591616915 0.0 0.0 0.0 0.007757703255200275 5:2.0 6:2.0 7:5.0 8:4.0 10:1.0 23:1.0 229:1.0 270:1.0 
-0.044136826674612675 0.3205830637633294 0.0 0.0 0.10153248218311205 4:1.0 5:2.0 6:3.0 7:8.0 8:6.0 10:1.0 307:1.0 388:1.0 
-0.0 0.0 0.0 0.0 0.011655056913399858 5:2.0 6:2.0 7:8.0 8:6.0 10:2.0 206:1.0 216:1.0 425:1.0 426:1.0 
-2.0 2.0 2.0 0.0 1.9122925589684323 4:1.0 5:2.0 6:2.0 7:6.0 8:5.0 10:1.0 17:1.0 
-0.2434642501469615 0.0377278726561328 1.433793944084239 0.0 1.1969159366455968 4:1.0 5:2.0 6:1.0 7:8.0 8:8.0 10:1.0 61:1.0 84:1.0 430:1.0 
-0.0 0.0 0.01346011737428844 0.0 0.0 4:1.0 5:2.0 6:4.0 7:14.0 8:11.0 10:1.0 254:1.0 431:1.0 432:1.0 433:1.0 434:1.0 
-0.0 0.0 0.6922045481280368 0.0 0.0 4:1.0 5:2.0 6:1.0 7:8.0 8:7.0 10:2.0 29:1.0 91:1.0 115:1.0 270:1.0 
-0.4941210270591476 0.0 0.3318345096512356 0.0 0.1350979032391334 4:1.0 5:2.0 6:3.0 7:7.0 8:4.0 10:1.0 63:1.0 178:1.0 254:1.0 
-0.0 0.0 0.6628405401750626 0.0 0.0 4:1.0 5:2.0 6:1.0 7:12.0 8:11.0 10:1.0 54:1.0 70:1.0 254:1.0 316:1.0 
-0.0 0.0 0.2825754837448148 0.0 0.06888013323648526 4:1.0 5:2.0 6:3.0 7:12.0 8:8.0 10:3.0 53:1.0 236:1.0 277:1.0 438:1.0 
-0.0 0.0 0.23621363132790613 0.0 0.0 4:1.0 5:2.0 6:2.0 7:4.0 8:3.0 10:1.0 320:1.0 440:1.0 
-0.0 0.03170754278822089 0.0 0.0 0.0 5:2.0 6:4.0 7:14.0 8:10.0 10:1.0 20:1.0 201:1.0 208:1.0 380:1.0 441:1.0 442:1.0 443:1.0 
-0.5948775211279018 0.03752182691505324 0.47498051430145005 0.0 1.2125637168269987 4:1.0 5:2.0 6:4.0 7:7.0 8:4.0 10:1.0 170:1.0 294:1.0 
-2.0 2.0 2.0 0.0 1.3128761219750928 4:1.0 5:2.0 6:1.0 7:8.0 8:8.0 10:1.0 17:1.0 
-0.0 0.05451838752029031 0.0 0.0 0.0 5:2.0 6:2.0 7:6.0 8:5.0 10:1.0 208:1.0 445:1.0 446:1.0 
-0.040959855274088006 0.0 0.15731866468153338 0.0 0.36187128331608226 4:1.0 5:2.0 6:2.0 7:4.0 8:3.0 10:1.0 270:1.0 271:1.0 
-0.0 0.06454110782106767 0.0 0.0 0.0 5:2.0 6:1.0 7:8.0 8:7.0 10:1.0 16:1.0 46:1.0 192:1.0 208:1.0 449:1.0 
-2.0 2.0 2.0 0.0 2.0 4:1.0 5:2.0 6:1.0 7:8.0 8:8.0 10:1.0 17:1.0 
-2.0 2.0 2.0 0.0 2.0 4:1.0 5:2.0 6:2.0 7:10.0 8:9.0 10:1.0 17:1.0 
-0.0 0.11041396900668 0.0 0.0 0.0 5:2.0 6:2.0 7:3.0 8:2.0 10:1.0 208:1.0 451:1.0 
-0.0 0.10765648472528963 0.0 0.0 0.0 5:2.0 6:3.0 7:8.0 8:6.0 10:1.0 208:1.0 452:1.0 
-0.0 0.005224947145669985 0.45187982483982114 0.0 0.3628293607291804 4:1.0 5:2.0 6:4.0 7:7.0 8:4.0 10:1.0 307:1.0 453:1.0 
-0.2895468280271132 0.11548238525044122 0.5667812763673273 0.0 0.3440922575370647 4:1.0 5:2.0 6:1.0 7:7.0 8:7.0 10:1.0 456:1.0 457:1.0 
-2.0 2.0 2.0 0.043714024289135046 2.0 5:2.0 6:1.0 7:4.0 8:4.0 10:1.0 23:1.0 181:1.0 
-0.0 0.11111434936902305 0.0 0.0 0.0 5:2.0 6:1.0 7:3.0 8:3.0 10:1.0 208:1.0 293:1.0 
-0.0 0.10877105592648945 0.0 0.0 0.0 5:2.0 6:3.0 7:5.0 8:3.0 10:1.0 208:1.0 459:1.0 
-0.0 0.0 0.13367892842109008 0.0 0.0 4:1.0 5:2.0 6:2.0 7:11.0 8:10.0 10:1.0 216:1.0 460:1.0 461:1.0 462:1.0 
-0.0 0.05399117734880815 0.0 0.0 0.0 5:2.0 6:3.0 7:7.0 8:5.0 10:1.0 183:1.0 208:1.0 463:1.0 
-0.16116485124213495 0.09624119677459446 1.6715622715461944 0.0 0.7543940880664213 5:2.0 6:1.0 7:10.0 8:8.0 9:1.0 10:1.0 54:1.0 206:1.0 316:1.0 465:1.0 466:1.0 
-0.0 0.0 0.0 0.0 0.0018941107920404582 4:1.0 5:2.0 6:2.0 7:5.0 8:4.0 10:1.0 254:1.0 467:1.0 
-0.0 0.0 0.0 0.0 0.09127454052223159 5:2.0 6:1.0 7:16.0 8:10.0 10:5.0 16:2.0 192:2.0 208:1.0 470:1.0 
-2.0 2.0 2.0 2.0 2.0 4:1.0 5:2.0 6:1.0 7:7.0 8:6.0 10:2.0 17:1.0 
-0.474286875319903 0.8535140285547342 1.0159906593674013 0.026887776866689164 0.5380091201669036 4:1.0 5:2.0 6:2.0 7:7.0 8:5.0 10:2.0 29:1.0 260:1.0 475:1.0 
-2.0 2.0 2.0 1.2569431085030767 0.0 4:1.0 5:2.0 6:2.0 7:5.0 8:4.0 10:1.0 17:1.0 
-2.0 2.0 2.0 0.0 2.0 4:1.0 5:2.0 6:2.0 7:11.0 8:10.0 10:1.0 17:1.0 
-0.35691250976378486 0.8527843988067626 0.9746060647279383 0.0 0.5078105353432956 4:1.0 5:2.0 6:2.0 7:5.0 8:4.0 10:1.0 29:1.0 476:1.0 477:1.0 
-2.0 2.0 2.0 0.0 1.6307451452035102 4:1.0 5:2.0 6:2.0 7:6.0 8:5.0 10:1.0 17:1.0 
-0.0 0.0 0.06741996421944123 0.0 0.05201391845842684 4:1.0 5:2.0 6:3.0 7:9.0 8:7.0 10:1.0 203:1.0 320:1.0 479:1.0 
-2.0 2.0 2.0 0.0 2.0 4:1.0 5:2.0 6:3.0 7:8.0 8:6.0 10:1.0 17:1.0 
-0.4905327747408117 0.10529736135371551 0.3696962437491387 0.05037029139656897 0.5622203478790971 4:1.0 5:2.0 6:1.0 7:6.0 8:4.0 10:1.0 58:1.0 201:1.0 480:1.0 481:1.0 
-0.0 0.0 0.0 0.0 0.0651476216124893 4:1.0 5:2.0 6:3.0 7:6.0 8:4.0 10:1.0 254:1.0 482:1.0 
-0.09140546332389621 0.0 0.2423601772409274 0.0 0.449257639073302 4:1.0 5:2.0 6:2.0 7:5.0 8:4.0 10:1.0 330:1.0 483:1.0 484:1.0 
-0.1621048461978691 0.0024241650623053205 0.37048514729148396 1.0024652894429709 0.0373308998091732 4:1.0 5:2.0 6:2.0 7:17.0 8:8.0 10:4.0 16:5.0 41:1.0 301:1.0 470:1.0 485:1.0 486:1.0 
-0.0 0.0 0.09568587498836288 0.0 0.0 5:2.0 6:4.0 7:6.0 8:3.0 10:1.0 208:1.0 230:1.0 423:1.0 
-0.0 0.22212087454309634 0.0 0.0 0.4954300841337502 4:1.0 5:2.0 6:5.0 7:18.0 8:12.0 9:1.0 10:1.0 29:1.0 135:1.0 216:1.0 328:1.0 487:1.0 488:1.0 
-0.0788802675004067 0.0 0.5014595834695988 0.0 0.5204045865790808 4:1.0 5:2.0 6:2.0 7:14.0 8:12.0 10:2.0 182:1.0 236:1.0 302:1.0 489:1.0 
-0.0 0.0 1.769466458545326 0.0 0.0 5:2.0 6:2.0 7:9.0 8:7.0 10:1.0 16:1.0 192:1.0 208:1.0 490:1.0 491:1.0 
-0.0036434885917933204 0.06105604155297128 0.1054955482475713 0.0 0.0 4:1.0 5:2.0 6:2.0 7:9.0 8:7.0 10:2.0 29:1.0 91:1.0 151:1.0 441:1.0 
-2.0 2.0 2.0 0.0 2.0 4:1.0 5:2.0 6:1.0 7:17.0 8:17.0 10:1.0 17:1.0 
-0.0 0.0 0.0 0.0 0.14621480290163189 4:1.0 5:2.0 6:7.0 7:15.0 8:6.0 10:2.0 20:1.0 53:1.0 407:1.0 492:1.0 493:1.0 
-0.0 0.19369853429335007 0.13668207806599578 0.0 0.0 5:2.0 6:1.0 7:13.0 8:12.0 10:2.0 32:1.0 46:1.0 208:1.0 248:1.0 494:1.0 
-0.0 0.0793972423172975 0.0 0.0 0.5191136003796653 5:2.0 6:6.0 7:13.0 8:6.0 10:3.0 61:1.0 208:1.0 495:1.0 496:1.0 
-2.0 2.0 2.0 0.0 0.0 4:1.0 5:2.0 6:2.0 7:9.0 8:7.0 10:1.0 17:1.0 54:1.0 
-2.0 2.0 2.0 0.0 2.0 4:1.0 5:2.0 6:3.0 7:8.0 8:6.0 10:1.0 17:1.0 
-0.0 0.031671440838041034 0.0 0.0 0.0 5:2.0 6:2.0 7:10.0 8:8.0 10:1.0 16:1.0 46:1.0 192:1.0 208:1.0 437:1.0 499:1.0 
-0.0 0.21821492561475567 0.0 0.0 0.0 5:2.0 6:1.0 7:4.0 8:3.0 10:1.0 20:1.0 208:1.0 500:1.0 
-2.0 2.0 2.0 0.5252649532017177 0.0 4:1.0 5:2.0 6:2.0 7:5.0 8:4.0 10:1.0 17:1.0 
-0.4719753544929061 1.184530645447811 1.8502466019869068 0.42698844457149343 1.1940436368755658 4:1.0 5:2.0 6:1.0 7:8.0 8:6.0 10:3.0 29:1.0 115:1.0 136:1.0 501:1.0 
-0.0 0.22265791434784268 0.0 0.0 0.0 5:2.0 6:3.0 7:7.0 8:5.0 10:1.0 208:1.0 351:1.0 504:1.0 
-0.0 0.0 0.0 0.0 0.006237024760573575 5:2.0 6:4.0 7:17.0 8:11.0 10:2.0 16:1.0 58:1.0 192:1.0 208:1.0 210:1.0 505:1.0 506:1.0 
-2.0 2.0 2.0 0.0 0.0 4:1.0 5:2.0 6:2.0 7:5.0 8:4.0 10:1.0 17:1.0 
-0.0 0.0 0.0 0.6714990563114623 0.0 4:1.0 5:2.0 6:1.0 7:6.0 8:4.0 10:1.0 16:1.0 54:1.0 254:1.0 507:1.0 
-0.004265618570937498 0.31035747192961577 0.283797073864521 0.0 0.16559410989307657 4:1.0 5:2.0 6:5.0 7:12.0 8:6.0 10:2.0 16:1.0 29:1.0 46:1.0 91:1.0 508:2.0 509:1.0 
-2.0 2.0 2.0 0.06300255981276721 2.0 4:1.0 5:2.0 6:3.0 7:7.0 8:3.0 10:2.0 17:1.0 58:1.0 
-0.0 0.11069297516058545 0.0 0.0 0.0 5:2.0 6:1.0 7:4.0 8:4.0 10:1.0 208:1.0 369:1.0 
-0.0 0.10998206824945145 0.0 0.0 0.0 5:2.0 6:2.0 7:4.0 8:3.0 10:1.0 208:1.0 512:1.0 
-0.0 0.0 0.0 0.08018370788603073 0.0 4:1.0 5:2.0 6:2.0 7:8.0 8:6.0 10:1.0 16:1.0 252:1.0 515:1.0 516:1.0 
-2.0 2.0 2.0 2.0 0.0 4:1.0 5:2.0 6:1.0 7:7.0 8:6.0 10:1.0 17:1.0 54:1.0 
-2.0 0.8573401458240127 2.0 0.0 2.0 5:2.0 6:2.0 7:13.0 8:11.0 10:2.0 11:1.0 12:1.0 
-0.0 0.0 0.0 0.0 0.09127039606791097 4:1.0 5:2.0 6:6.0 7:13.0 8:6.0 10:2.0 16:1.0 32:1.0 216:1.0 518:1.0 519:1.0 
-0.0 2.0 0.0 0.0 0.0 5:2.0 6:2.0 7:3.0 8:2.0 10:1.0 208:1.0 
-0.0 0.11040863531543725 0.0 0.0 0.0 5:2.0 6:2.0 7:3.0 8:2.0 10:1.0 208:1.0 511:1.0 
-0.0 0.11413506398579183 0.0 0.0 0.0 4:1.0 5:2.0 6:3.0 7:8.0 8:6.0 10:1.0 239:1.0 302:1.0 
-0.0 0.4076478029273721 0.12679396930364886 0.0 0.0 5:2.0 6:2.0 7:3.0 8:2.0 10:1.0 208:1.0 230:1.0 522:1.0 
-0.0 0.0 0.0 0.0 0.22624270383067024 4:1.0 5:2.0 6:4.0 7:14.0 8:10.0 10:1.0 20:1.0 115:1.0 456:1.0 523:1.0 524:1.0 
-0.07536752068175735 0.0 0.04255536477536486 0.0 0.0020959612835221484 4:1.0 5:2.0 6:1.0 7:7.0 8:7.0 10:1.0 254:1.0 525:1.0 
-0.0 0.06623320459119872 0.0 0.0 0.0 5:2.0 6:1.0 7:9.0 8:8.0 10:1.0 16:1.0 111:1.0 192:1.0 208:1.0 455:1.0 
-0.1375474178920905 0.009329465864693907 0.32970010313813014 0.0 0.29264034253976307 4:1.0 5:2.0 6:1.0 7:10.0 8:7.0 10:2.0 20:2.0 115:1.0 201:1.0 526:1.0 527:1.0 
-0.0 0.16032281916039523 0.06306029647076507 0.0 0.0 5:2.0 6:1.0 7:5.0 8:5.0 10:1.0 208:1.0 528:1.0 529:1.0 
-0.3774277712191957 0.27679919357912597 0.943387039661583 0.0 1.6355314978702313 5:2.0 6:2.0 7:9.0 8:8.0 10:1.0 23:1.0 531:1.0 532:1.0 
-0.0 0.11205188266998968 0.0 0.0 0.20709037082822024 5:2.0 6:5.0 7:12.0 8:6.0 10:3.0 208:1.0 351:1.0 533:1.0 534:1.0 
-0.0 0.0 0.26297691412442903 0.631159528186508 0.0 4:1.0 5:2.0 6:1.0 7:9.0 8:4.0 10:3.0 20:3.0 216:1.0 267:1.0 
-0.34994220367011764 0.0212274831923129 0.0 0.0 0.26300547899586846 4:1.0 5:2.0 6:2.0 7:13.0 8:11.0 10:2.0 97:1.0 209:1.0 273:1.0 537:1.0 
-0.0 0.597412811934559 0.0 0.0 0.0 4:1.0 5:2.0 6:2.0 7:14.0 8:12.0 9:1.0 10:1.0 29:1.0 158:1.0 216:1.0 538:1.0 539:1.0 
-0.0 0.0 0.20669811635992022 0.0 0.0 5:2.0 6:1.0 7:11.0 8:10.0 10:1.0 16:1.0 192:1.0 208:1.0 338:1.0 540:1.0 541:1.0 542:1.0 
-0.007404971937145269 0.2693136573230976 0.4765980581691158 0.0 0.4081088424984474 4:1.0 5:2.0 6:3.0 7:11.0 8:9.0 10:1.0 294:1.0 432:1.0 543:1.0 544:1.0 
-0.27459563690297556 0.0 0.01470423085511273 0.0 0.1728470985750251 1:1.0 4:1.0 5:2.0 6:2.0 7:9.0 8:6.0 9:1.0 10:2.0 216:1.0 546:1.0 547:1.0 
-0.12099029748480764 0.0 0.1847572508885179 0.0 0.09990641440185984 4:1.0 5:2.0 6:2.0 7:11.0 8:10.0 10:1.0 320:1.0 548:1.0 549:1.0 
-2.0 2.0 2.0 0.0 2.0 4:1.0 5:2.0 6:1.0 7:9.0 8:9.0 10:1.0 17:1.0 
-0.0 0.054521161759885306 0.0 0.0 0.0 5:2.0 6:1.0 7:9.0 8:9.0 10:1.0 208:1.0 550:1.0 551:1.0 
-1.2660677006617005 1.9983871356405787 1.8732024313922448 0.4450067902305256 0.3284601178967783 4:1.0 5:2.0 6:2.0 7:5.0 8:3.0 10:2.0 17:1.0 23:1.0 552:1.0 
-0.15430631843816606 0.0 1.4808705340948622 0.0 0.37084085379203574 4:1.0 5:2.0 6:1.0 7:12.0 8:11.0 10:1.0 59:1.0 318:1.0 455:1.0 553:1.0 
-2.0 2.0 2.0 0.0 2.0 4:1.0 5:2.0 6:1.0 7:14.0 8:12.0 10:3.0 17:1.0 
-0.0 0.10946113067769349 0.0 0.0 0.0 5:2.0 6:2.0 7:5.0 8:4.0 10:1.0 184:1.0 208:1.0 
-0.4561815319480515 0.5868029396202059 0.7534920079597824 0.0 0.0 4:1.0 5:2.0 6:2.0 7:12.0 8:10.0 10:2.0 29:1.0 91:1.0 252:1.0 554:1.0 
-0.0 0.0 0.01523985283079587 0.0 0.0 5:2.0 6:2.0 7:3.0 8:2.0 10:1.0 208:1.0 230:1.0 556:1.0 
-0.01515832581025043 0.6904235627371413 0.4316254291174536 0.22141906702139735 0.0 4:1.0 5:2.0 6:2.0 7:6.0 8:4.0 10:2.0 29:1.0 136:1.0 151:1.0 557:1.0 
-0.2913664395063788 0.17330311129235798 0.7992499916492319 0.0 0.6291590292408216 4:1.0 5:2.0 6:2.0 7:5.0 8:4.0 10:1.0 561:1.0 562:1.0 
-0.0 0.05513609437618687 0.0 0.0 0.0 5:2.0 6:1.0 7:5.0 8:5.0 10:1.0 208:1.0 566:1.0 567:1.0 
-0.0 0.0 0.0 0.0 0.06517696156933334 4:1.0 5:2.0 6:3.0 7:6.0 8:4.0 10:1.0 254:1.0 568:1.0 
-0.12663439163568352 0.11450496231796385 0.5470925243831363 0.0 0.482942501737217 4:1.0 5:2.0 6:4.0 7:10.0 8:7.0 10:1.0 76:1.0 514:1.0 570:1.0 
-0.0 0.1834685762729366 0.11323539922427932 0.0 0.0 5:2.0 6:2.0 7:8.0 8:7.0 10:1.0 160:1.0 208:1.0 571:1.0 
-0.12402883552355237 0.0 0.15730601973596997 0.0 0.383040033251239 4:1.0 5:2.0 6:2.0 7:5.0 8:4.0 10:1.0 270:1.0 572:1.0 
-0.0 0.20174640199615582 0.0 0.0 0.0 5:2.0 6:4.0 7:8.0 8:4.0 10:1.0 16:1.0 192:1.0 208:1.0 543:1.0 573:1.0 
-2.0 2.0 2.0 0.0 2.0 4:1.0 5:2.0 6:3.0 7:13.0 8:11.0 10:1.0 17:1.0 
-2.0 2.0 2.0 2.0 0.0 4:1.0 5:2.0 6:1.0 7:4.0 8:4.0 10:1.0 17:1.0 
-0.0 0.0 0.0 0.0 0.06520385283740315 4:1.0 5:2.0 6:3.0 7:6.0 8:4.0 10:1.0 254:1.0 576:1.0 
-0.0 0.0 0.06397970316181421 0.0 0.2536992389691945 4:1.0 5:2.0 6:4.0 7:12.0 8:7.0 10:2.0 54:1.0 294:1.0 316:1.0 586:1.0 587:1.0 
-0.5510012251250318 1.7044620189751707 2.0 0.0 1.0787831715796758 4:1.0 5:2.0 6:3.0 7:6.0 8:4.0 10:1.0 29:1.0 127:1.0 
-2.0 2.0 2.0 1.1573526255831506 0.0 4:1.0 5:2.0 6:1.0 7:7.0 8:7.0 10:1.0 17:1.0 
-2.0 2.0 2.0 2.0 0.0 4:1.0 5:2.0 6:1.0 7:6.0 8:6.0 10:1.0 17:1.0 
-0.0 0.22840991754012052 0.0 0.0 0.02828764651170059 5:2.0 6:1.0 7:11.0 8:9.0 10:1.0 135:1.0 208:1.0 351:1.0 407:1.0 591:1.0 592:1.0 
-0.7546394745156965 0.3501668228208681 1.8318094829148854 0.0 0.6819442072553106 4:1.0 5:2.0 6:1.0 7:14.0 8:14.0 10:1.0 29:1.0 32:1.0 313:1.0 516:1.0 
-0.5007654692059564 0.34743469913549146 1.5984452731402243 0.0 1.2156708068011763 4:1.0 5:2.0 6:2.0 7:3.0 8:2.0 10:1.0 593:1.0 
-0.18828074347873175 0.12724857332080916 0.7993405602276218 0.0 0.6504084883196547 4:1.0 5:2.0 6:2.0 7:7.0 8:6.0 10:1.0 243:1.0 594:1.0 
-0.0 0.11109160428791318 0.0 0.0 0.0 5:2.0 6:1.0 7:3.0 8:3.0 10:1.0 208:1.0 595:1.0 
-0.0 0.0 0.8001943552504934 0.4197339392179825 0.4142132103501738 4:1.0 5:2.0 6:2.0 7:7.0 8:4.0 10:2.0 16:1.0 23:1.0 53:1.0 596:1.0 
-0.0 0.1124322242075269 0.0 0.0 0.0 5:2.0 6:2.0 7:3.0 8:1.0 10:2.0 208:1.0 597:1.0 
-0.0 0.035914992585436734 0.0 0.0 0.0 5:2.0 6:4.0 7:14.0 8:10.0 10:2.0 100:1.0 208:1.0 598:1.0 599:1.0 
-0.17292516812321976 0.0 0.0 0.0 0.17386974305747677 1:1.0 4:1.0 5:2.0 6:4.0 7:11.0 8:7.0 10:2.0 53:1.0 205:1.0 600:1.0 
-0.37396235194789373 0.8521790233738211 0.8524511888153233 0.0 0.680203095866346 4:1.0 5:2.0 6:2.0 7:9.0 8:8.0 10:1.0 29:1.0 228:1.0 353:1.0 
-2.0 2.0 2.0 0.0 0.0 4:1.0 5:2.0 6:2.0 7:6.0 8:5.0 10:1.0 17:1.0 
-0.0 0.10328627840123883 0.0 0.0 0.0 5:2.0 6:3.0 7:4.0 8:2.0 10:1.0 208:1.0 412:1.0 
-0.0 0.05314972302799471 0.0 0.0 0.0 5:2.0 6:3.0 7:7.0 8:4.0 10:2.0 23:1.0 208:1.0 601:1.0 602:1.0 
-0.0 0.0 0.0 0.0 1.4114732665945369 4:1.0 5:2.0 6:1.0 7:6.0 8:6.0 10:1.0 216:1.0 604:1.0 
-0.0 0.0 0.11050127672498027 0.0 0.0 5:2.0 6:4.0 7:10.0 8:7.0 10:1.0 53:1.0 181:1.0 206:1.0 605:1.0 
-0.0 0.0 2.0 0.0 0.0 4:1.0 5:2.0 6:2.0 7:4.0 8:3.0 10:1.0 320:1.0 
-0.0 0.0 0.015215123149876903 0.0 0.0 5:2.0 6:2.0 7:3.0 8:2.0 10:1.0 208:1.0 230:1.0 606:1.0 
-0.0 0.11190330716852244 0.0 0.0 0.0 5:2.0 6:4.0 7:8.0 8:4.0 10:2.0 208:1.0 351:1.0 607:1.0 608:1.0 
-0.0 0.0 0.3650327259562159 0.0 0.0 5:2.0 6:3.0 7:7.0 8:5.0 10:1.0 32:1.0 208:1.0 
-0.044122113914847674 0.005555049800683268 0.5536976656744236 0.0 0.342145375742954 4:1.0 5:2.0 6:3.0 7:8.0 8:6.0 10:1.0 307:1.0 610:1.0 
-0.0 0.0 0.1914529700753471 0.0 0.6574653719229344 4:1.0 5:2.0 6:3.0 7:5.0 8:3.0 10:1.0 330:1.0 611:1.0 
-0.3540668328748093 0.4695063085383334 0.8148515448736559 0.0 0.35699996610950346 4:1.0 5:2.0 6:2.0 7:7.0 8:5.0 10:2.0 29:1.0 91:1.0 295:1.0 612:1.0 
-2.0 2.0 2.0 0.0 2.0 4:1.0 5:2.0 6:1.0 7:8.0 8:8.0 10:1.0 17:1.0 
-0.0 0.410854425672992 0.0 0.0 0.7146150507009916 5:2.0 6:6.0 7:17.0 8:8.0 10:5.0 23:1.0 29:1.0 236:1.0 252:1.0 320:1.0 613:1.0 
-0.004383257865818817 0.0 0.0 0.0 0.14371238705435763 5:2.0 6:1.0 7:14.0 8:9.0 10:5.0 16:1.0 108:1.0 192:1.0 208:1.0 224:1.0 614:1.0 
-1.0143862263640093 0.5707198208816165 0.7726728892695156 0.18066622326809337 0.5518540925311816 4:1.0 5:2.0 6:2.0 7:5.0 8:3.0 10:2.0 29:1.0 193:1.0 304:1.0 
-2.0 2.0 2.0 0.6578746947171458 0.0 4:1.0 5:2.0 6:2.0 7:5.0 8:4.0 10:1.0 17:1.0 
-0.4631140477369569 0.0 0.6043963508973031 0.0 0.0 1:1.0 5:2.0 6:1.0 7:7.0 8:6.0 10:2.0 32:1.0 208:1.0 356:1.0 
-0.3744039003802402 0.019485656165155553 0.24006636092528397 0.0 0.27643152948503313 1:1.0 4:1.0 5:2.0 6:3.0 7:13.0 8:10.0 10:2.0 320:1.0 419:1.0 616:1.0 617:1.0 
-0.0 0.41489996119050904 1.3751309445766013 0.0777723613944184 0.5736583790506041 4:1.0 5:2.0 6:2.0 7:9.0 8:6.0 10:2.0 29:1.0 54:1.0 91:1.0 316:1.0 618:1.0 
-2.0 2.0 2.0 0.0 2.0 4:1.0 5:2.0 6:3.0 7:7.0 8:5.0 10:1.0 17:1.0 
-0.08574531260882899 0.10737871071050972 0.5426580258798175 0.0 0.6860896636737748 4:1.0 5:2.0 6:4.0 7:7.0 8:4.0 10:1.0 385:1.0 619:1.0 620:1.0 
-0.2895046666068834 0.11553868470710141 0.5668032467596371 0.0 0.3441063542969001 4:1.0 5:2.0 6:1.0 7:7.0 8:7.0 10:1.0 456:1.0 621:1.0 
-0.0 0.0 0.0 0.0 0.17869224854571522 4:1.0 5:2.0 6:6.0 7:16.0 8:8.0 10:3.0 20:1.0 53:1.0 622:1.0 623:1.0 624:1.0 625:1.0 626:1.0 
-2.0 2.0 2.0 2.0 0.0 4:1.0 5:2.0 6:2.0 7:5.0 8:4.0 10:1.0 17:1.0 
-0.0 0.0 0.1607422037464811 0.0 0.0 4:1.0 5:2.0 6:6.0 7:12.0 8:7.0 10:1.0 181:1.0 252:1.0 273:1.0 627:1.0 
-2.0 -2.0 2.0 0.0 0.0 4:1.0 5:2.0 6:2.0 7:7.0 8:6.0 10:1.0 17:1.0 
-0.0 -2.0 1.3623410106950167 0.0 0.0 5:2.0 6:3.0 7:9.0 8:7.0 10:1.0 17:1.0 208:1.0 
-0.1351380214983523 -0.0 0.9200271024793045 0.0 0.26920492956122144 4:1.0 5:2.0 6:3.0 7:8.0 8:5.0 9:1.0 10:1.0 29:1.0 629:1.0 630:1.0 
-0.10405745489723398 -0.14897675657823403 0.7040015373624507 0.0 0.22351164575548316 4:1.0 5:2.0 6:5.0 7:9.0 8:5.0 10:1.0 29:1.0 204:1.0 631:1.0 
-0.011657305277718114 -0.0 0.0 0.0 0.0 4:1.0 5:2.0 6:2.0 7:5.0 8:3.0 10:1.0 29:1.0 135:1.0 632:1.0 
-1.6655769800735194 -2.0 2.0 0.0 2.0 4:1.0 5:2.0 6:1.0 7:11.0 8:11.0 10:1.0 17:1.0 
-0.0 -0.0 2.0 0.0 0.0 4:1.0 5:2.0 6:2.0 7:4.0 8:3.0 10:1.0 17:1.0 
-0.0 -0.0 2.0 0.0 0.0 4:1.0 5:2.0 6:1.0 7:4.0 8:4.0 10:1.0 17:1.0 
-0.20725150368693437 -0.2932097057546625 0.9917877473881537 0.00957437021926944 0.2901971580652278 4:1.0 5:2.0 6:1.0 7:4.0 8:4.0 10:1.0 29:1.0 635:1.0 
-0.06929003537042261 -0.09800209625255106 0.6068350846542861 0.0 0.09712357614762131 4:1.0 5:2.0 6:3.0 7:8.0 8:5.0 10:2.0 29:1.0 637:1.0 638:1.0 639:1.0 
-1.0202090420162258 -0.0 0.0 0.0 0.0 5:2.0 6:3.0 7:13.0 8:10.0 9:1.0 10:1.0 11:1.0 628:1.0 
-0.0 -0.0 2.0 0.0 0.0 4:1.0 5:2.0 6:1.0 7:4.0 8:4.0 10:1.0 17:1.0 
-0.10374173543723338 -0.14507527207838056 0.3243689994336679 0.0 0.1791201362700997 4:1.0 5:2.0 6:1.0 7:7.0 8:5.0 10:3.0 29:1.0 640:1.0 641:1.0 
-0.0 -0.0 0.0 0.0 1.92626572561073 4:1.0 5:2.0 6:3.0 7:3.0 8:1.0 10:1.0 17:1.0 
-0.06935339446994274 -0.09881490048205586 0.5621878662410299 0.0 0.10891746048314409 4:1.0 5:2.0 6:3.0 7:9.0 8:7.0 10:1.0 29:1.0 642:1.0 643:1.0 644:1.0 
-0.3339116899558208 -0.12710794292282268 1.4450925303729796 0.0 0.4827057693283676 4:1.0 5:2.0 6:3.0 7:11.0 8:8.0 10:1.0 20:1.0 29:1.0 33:1.0 528:1.0 645:1.0 
-0.1079766716447763 -0.7157263146305914 2.0 0.0 0.26251527778163714 4:1.0 5:2.0 6:2.0 7:8.0 8:6.0 9:1.0 10:1.0 29:1.0 53:1.0 646:1.0 647:1.0 
-0.20676066428722065 -0.29244560679503695 0.6144968672932628 0.09597862965948202 0.2900823456658699 4:1.0 5:2.0 6:1.0 7:2.0 8:2.0 10:1.0 29:1.0 648:1.0 
-0.0 -0.240301526681474 0.165743413287865 0.09252102908177534 0.0 4:1.0 5:2.0 6:6.0 7:11.0 8:4.0 10:2.0 29:1.0 54:1.0 136:1.0 649:1.0 650:1.0 
-0.060440639087046256 -0.8267190707816965 1.6126451275278486 0.0 1.2919430176875786 4:1.0 5:2.0 6:2.0 7:8.0 8:6.0 10:2.0 29:1.0 46:1.0 136:1.0 236:1.0 652:1.0 
-0.27994376327550213 -1.8688923440048337 2.0 0.0 2.0 4:1.0 5:2.0 6:2.0 7:26.0 8:23.0 10:3.0 17:1.0 
-0.09654853534103548 -0.0 2.0 0.0 0.0 4:1.0 5:2.0 6:1.0 7:7.0 8:7.0 10:1.0 17:1.0 
-0.0 -0.0 2.0 0.0 0.0 4:1.0 5:2.0 6:1.0 7:4.0 8:4.0 10:1.0 17:1.0 
-0.0 -0.0 0.8005505634358814 0.0 0.0 4:1.0 5:2.0 6:1.0 7:10.0 8:10.0 10:1.0 653:1.0 
-0.0 -0.7340532492529608 0.0 0.0 0.0 4:1.0 5:2.0 6:3.0 7:4.0 8:2.0 10:1.0 17:1.0 
-0.0 -0.0 0.0 0.45479690861279226 0.0 4:1.0 5:2.0 6:2.0 7:5.0 8:4.0 10:1.0 653:1.0 
-0.0 -0.0 2.0 0.0 0.0 4:1.0 5:2.0 6:1.0 7:4.0 8:4.0 10:1.0 17:1.0 
-0.0 -0.0 2.0 0.0 0.0 5:2.0 6:1.0 7:22.0 8:22.0 10:1.0 11:1.0 628:1.0 
-1.473473583855576 -2.0 0.0 0.0 2.0 4:1.0 5:2.0 6:9.0 7:17.0 8:6.0 10:4.0 17:1.0 
-2.0 -2.0 2.0 0.0 0.0 4:1.0 5:2.0 6:1.0 7:8.0 8:8.0 10:1.0 17:1.0 
-0.0 -0.0 0.0 0.0 2.0 4:1.0 5:2.0 6:3.0 7:3.0 8:1.0 10:1.0 17:1.0 
-0.0 -0.0 2.0 0.0 0.0 4:1.0 5:2.0 6:1.0 7:4.0 8:4.0 10:1.0 17:1.0 
-0.20698738091337313 -0.2927835403624731 0.8030634609029166 0.052658182076844806 0.29022611075396804 4:1.0 5:2.0 6:1.0 7:3.0 8:3.0 10:1.0 29:1.0 654:1.0 
-0.0 -0.0 2.0 0.0 0.0 4:1.0 5:2.0 6:1.0 7:4.0 8:4.0 10:1.0 17:1.0 
-0.0 -0.0 0.0 2.0 0.0 4:1.0 5:2.0 6:2.0 7:3.0 8:2.0 10:1.0 653:1.0 
-0.14979970456144895 -0.08849110958540303 1.3953047701231522 0.3302786071435872 0.5364020747029784 4:1.0 5:2.0 6:4.0 7:14.0 8:6.0 9:1.0 10:2.0 16:2.0 20:1.0 29:1.0 32:1.0 596:1.0 655:1.0 
-0.6677681902423127 -0.2584680646268113 0.7390329123084541 0.29130817538767056 0.23000941759284546 1:1.0 4:1.0 5:2.0 6:4.0 7:12.0 8:6.0 10:3.0 16:1.0 29:1.0 136:1.0 160:1.0 509:1.0 656:1.0 
-2.0 -2.0 2.0 0.0 2.0 4:1.0 5:2.0 6:1.0 7:12.0 8:12.0 10:1.0 17:1.0 
-0.5098840311859107 -1.0602034736537398 0.9196852018436399 0.0 0.13582867280517977 4:1.0 5:2.0 6:2.0 7:5.0 8:3.0 10:2.0 27:1.0 29:1.0 91:1.0 
-0.06095721775015457 -0.0 0.0 0.0 0.024561783190807176 5:2.0 6:3.0 7:9.0 8:5.0 10:1.0 14:1.0 24:2.0 636:1.0 
-0.0 -0.0 2.0 0.0 0.0 4:1.0 5:2.0 6:1.0 7:5.0 8:5.0 10:1.0 17:1.0 
-0.0 -0.0 0.0 1.0847911105013721 0.0 4:1.0 5:2.0 6:2.0 7:5.0 8:4.0 10:1.0 653:1.0 
-0.0 -0.49075755082410916 0.0 1.725792062471868 0.0 4:1.0 5:2.0 6:1.0 7:3.0 8:2.0 10:2.0 17:1.0 23:1.0 
-0.0 -0.11162459639916641 0.0 0.0 0.0 5:2.0 6:2.0 7:12.0 8:10.0 10:1.0 14:1.0 16:1.0 657:1.0 
-0.0 -1.3698204439994461 0.0 0.0 0.0 4:1.0 5:2.0 6:3.0 7:4.0 8:2.0 10:1.0 17:1.0 
-0.0 -0.0 2.0 0.0 0.0 4:1.0 5:2.0 6:2.0 7:13.0 8:9.0 10:4.0 17:1.0 23:1.0 
-2.0 -2.0 2.0 0.0 2.0 4:1.0 5:2.0 6:1.0 7:15.0 8:15.0 10:1.0 17:1.0 
-0.16596785643710374 -0.2760462092837796 0.504196630723788 0.0 0.2936929515548465 4:1.0 5:2.0 6:3.0 7:13.0 8:11.0 10:1.0 658:1.0 659:2.0 660:1.0 
-0.20676669967853264 -0.292444303052419 0.6144930694082152 0.09611805155565513 0.29008596350108695 4:1.0 5:2.0 6:1.0 7:2.0 8:2.0 10:1.0 29:1.0 661:1.0 
-0.0 -2.0 2.0 0.0 2.0 4:1.0 5:2.0 6:2.0 7:7.0 8:5.0 10:1.0 17:1.0 135:1.0 
-2.0 -2.0 2.0 0.0 0.0 4:1.0 5:2.0 6:1.0 7:8.0 8:8.0 10:1.0 17:1.0 
-0.8463037553580599 -0.0 0.04118817341484465 0.0 0.0 5:2.0 6:1.0 7:13.0 8:11.0 10:1.0 14:1.0 20:2.0 633:1.0 
-0.0 -2.0 0.0 0.0 2.0 4:1.0 5:2.0 6:4.0 7:5.0 8:2.0 10:1.0 17:1.0 
-0.0 -0.0 2.0 0.0 0.0 4:1.0 5:2.0 6:1.0 7:5.0 8:5.0 10:1.0 17:1.0 
-0.20561946252218272 -0.0 0.0867357786771246 0.0 0.10119237195731534 4:1.0 5:2.0 6:2.0 7:10.0 8:5.0 10:4.0 29:1.0 146:1.0 662:1.0 663:1.0 
-0.0 -9.914845946910702E-4 0.4930954325826535 0.0 4.6642507133614746E-4 4:1.0 5:2.0 6:1.0 7:9.0 8:9.0 10:1.0 29:1.0 158:1.0 664:1.0 665:1.0 
-0.0 -0.4235238768661291 0.0 0.0 0.0 4:1.0 5:2.0 6:3.0 7:4.0 8:2.0 10:1.0 17:1.0 
-0.0 -0.0 2.0 0.0 0.0 4:1.0 5:2.0 6:1.0 7:6.0 8:6.0 10:1.0 17:1.0 
-1.3559610311222994 -0.0 0.0 1.372668581966639 0.0 4:1.0 5:2.0 6:1.0 7:7.0 8:3.0 10:3.0 16:1.0 17:1.0 20:1.0 
-0.0 -0.0 2.0 0.0 0.0 4:1.0 5:2.0 6:1.0 7:6.0 8:6.0 10:1.0 17:1.0 
-0.20759727261695415 -0.2936128535682035 0.0 0.0 0.0 4:1.0 5:2.0 6:1.0 7:5.0 8:5.0 10:1.0 29:1.0 666:1.0 
-1.330613783370492 -0.0 2.0 0.0 0.0 4:1.0 5:2.0 6:1.0 7:7.0 8:7.0 10:1.0 17:1.0 
-0.0 -2.0 2.0 0.0 0.0 4:1.0 5:2.0 6:2.0 7:5.0 8:4.0 10:1.0 17:1.0 
-0.20784555969149313 -1.0339580738854277 1.7896788158838786 0.0 0.4724718557592852 4:1.0 5:2.0 6:1.0 7:7.0 8:7.0 10:1.0 29:1.0 259:1.0 
-0.0 -2.0 2.0 0.0 0.0 4:1.0 5:2.0 6:3.0 7:5.0 8:3.0 10:1.0 17:1.0 
-0.0 -0.0 0.0 0.5824955106126899 0.0 4:1.0 5:2.0 6:1.0 7:8.0 8:8.0 10:1.0 653:1.0 
-0.20829854336166642 -0.1863595014132363 0.9517942543356596 0.0 0.1975714319661423 4:1.0 5:2.0 6:2.0 7:4.0 8:2.0 10:1.0 20:1.0 29:1.0 327:1.0 
-2.0 -2.0 2.0 0.0 0.38378345329212765 4:1.0 5:2.0 6:3.0 7:7.0 8:5.0 10:1.0 17:1.0 
-0.20733210946269606 -0.29151476983847036 0.7258317011674748 0.0 0.28994436651796185 4:1.0 5:2.0 6:1.0 7:5.0 8:4.0 10:2.0 29:1.0 667:1.0 
-0.0 -0.0 2.0 0.0 0.04992491026526754 4:1.0 5:2.0 6:1.0 7:8.0 8:7.0 10:2.0 29:1.0 158:1.0 
-0.0 -0.2194014806241108 0.19647929158451974 0.0 0.0 4:1.0 5:2.0 6:3.0 7:11.0 8:8.0 10:2.0 29:1.0 91:1.0 125:1.0 492:1.0 668:1.0 
-0.0 -0.0 2.0 0.0 0.0 5:2.0 6:2.0 7:17.0 8:16.0 10:1.0 14:1.0 633:1.0 
-2.0 -0.17426254522080759 2.0 0.0 0.0 4:1.0 5:2.0 6:1.0 7:7.0 8:7.0 10:1.0 17:1.0 
-2.0 -0.0 2.0 0.0 0.0 4:1.0 5:2.0 6:1.0 7:7.0 8:7.0 10:1.0 17:1.0 
-0.7587407384865982 -2.0 2.0 0.0 0.0 4:1.0 5:2.0 6:2.0 7:7.0 8:6.0 10:1.0 17:1.0 
-2.0 -0.0 2.0 0.0 1.9999457510633503 4:1.0 5:2.0 6:1.0 7:5.0 8:4.0 10:1.0 17:1.0 58:1.0 
-0.49766354601061563 -0.8265515292783034 1.0227487739963617 0.0 0.8796002909413485 4:1.0 5:2.0 6:1.0 7:6.0 8:6.0 10:1.0 669:1.0 670:1.0 
-0.7215847461733791 -2.0 2.0 0.0 0.0 4:1.0 5:2.0 6:1.0 7:9.0 8:9.0 10:1.0 17:1.0 
-0.18681746868622612 -0.2814696102292566 0.21196138301214779 0.0 0.3118577882152168 5:2.0 6:3.0 7:10.0 8:8.0 10:1.0 23:1.0 673:1.0 674:1.0 675:1.0 
-0.9631573274141877 -0.10565287641165962 0.0 0.0 0.08435355850852373 5:2.0 6:1.0 7:7.0 8:7.0 10:1.0 14:1.0 676:1.0 
-0.0 -0.0 0.0 0.04005485953171434 0.007630969171436924 5:2.0 6:4.0 7:12.0 8:7.0 10:1.0 14:1.0 16:1.0 54:1.0 633:1.0 
-0.0 -0.11565762241606714 0.0 1.0214563459928425 0.0 5:2.0 6:1.0 7:16.0 8:14.0 10:1.0 14:1.0 16:2.0 634:1.0 
-0.0 -0.0 0.6334340938935926 0.0 0.0 4:1.0 5:2.0 6:1.0 7:3.0 8:3.0 10:1.0 17:1.0 
-2.0 -2.0 2.0 0.0 0.0 4:1.0 5:2.0 6:2.0 7:7.0 8:6.0 10:1.0 17:1.0 
-0.0 -0.0 0.4853668496271885 0.0 0.0 5:2.0 6:1.0 7:10.0 8:6.0 10:3.0 14:1.0 58:2.0 651:1.0 
-0.39413052059201487 -0.1969116213431083 0.4814346900998355 0.0 0.04866033440341574 4:1.0 5:2.0 6:3.0 7:13.0 8:9.0 10:3.0 29:1.0 62:1.0 97:1.0 119:1.0 136:1.0 290:1.0 
-0.0 -0.0 2.0 0.0 0.0 4:1.0 5:2.0 6:1.0 7:6.0 8:6.0 10:1.0 17:1.0 
-0.11674748209473036 -0.18735120003393751 0.4562243899610566 0.0 0.20822258807559843 5:2.0 6:5.0 7:21.0 8:14.0 10:4.0 23:1.0 380:1.0 677:1.0 678:2.0 679:1.0 680:1.0 
-0.20701449742907177 -0.29277813196268054 0.803076763905375 0.052616315392800685 0.29013738455474597 4:1.0 5:2.0 6:1.0 7:3.0 8:3.0 10:1.0 29:1.0 681:1.0 
-0.0 -2.0 0.0 0.0 2.0 4:1.0 5:2.0 6:4.0 7:5.0 8:2.0 10:1.0 17:1.0 
-0.8397502647309523 -0.0 1.6558213197454754 0.0 0.3290316967204152 4:1.0 5:2.0 6:1.0 7:6.0 8:3.0 10:3.0 17:1.0 59:1.0 
-0.2072283876124452 -0.29390895070313394 1.7600109106959976 0.0 0.6255690913915319 4:1.0 5:2.0 6:3.0 7:5.0 8:3.0 10:1.0 29:1.0 682:1.0 
-0.0 -0.0 2.0 0.0 0.0 4:1.0 5:2.0 6:1.0 7:6.0 8:6.0 10:1.0 17:1.0 
-0.20698135758870048 -0.2935138903432868 0.6230161689910612 0.0 0.2907139756936408 4:1.0 5:2.0 6:2.0 7:3.0 8:2.0 10:1.0 29:1.0 683:1.0 
-0.1708300294531485 -0.972418457730449 1.1687386290451025 0.0 0.6397049544527107 4:1.0 5:2.0 6:5.0 7:10.0 8:7.0 46:1.0 158:1.0 342:1.0 543:1.0 684:1.0 
-0.10402877509934126 -0.14847829642475 0.6030386639659427 0.0 0.21176454193343638 4:1.0 5:2.0 6:4.0 7:8.0 8:5.0 10:1.0 29:1.0 685:1.0 686:1.0 
-0.46299745478629356 -0.1473223628597006 1.348106167576899 0.0 0.1454021277987795 4:1.0 5:2.0 6:1.0 7:8.0 8:8.0 10:1.0 29:1.0 99:1.0 687:1.0 
-0.18683382405915244 -0.2818513914868748 0.1218896941352589 0.0 0.26186119255436363 5:2.0 6:4.0 7:10.0 8:7.0 10:1.0 23:1.0 377:1.0 673:1.0 688:1.0 
-0.0 -0.0 2.0 0.0 0.0 4:1.0 5:2.0 6:1.0 7:3.0 8:3.0 10:1.0 17:1.0 
-2.0 -0.0 2.0 0.0 2.0 4:1.0 5:2.0 6:1.0 7:13.0 8:12.0 10:2.0 17:1.0 
-0.0 -0.0 2.0 0.0 0.0 4:1.0 5:2.0 6:1.0 7:3.0 8:3.0 10:1.0 17:1.0 
-0.0 -0.0 2.0 0.0 0.0 4:1.0 5:2.0 6:1.0 7:3.0 8:3.0 10:1.0 17:1.0 
-2.0 -2.0 1.7127544488851505 2.0 0.0 4:1.0 5:2.0 6:2.0 7:10.0 8:7.0 10:2.0 17:1.0 54:1.0 
-0.41294567989725 -0.4300889869527519 0.9507971911667976 0.0 0.440052887200597 4:1.0 5:2.0 6:1.0 7:10.0 8:10.0 10:1.0 111:1.0 689:1.0 690:1.0 691:1.0 
-0.0 -0.0 2.0 0.0 0.0 4:1.0 5:2.0 6:1.0 7:3.0 8:3.0 10:1.0 17:1.0 
-2.0 -0.0 2.0 0.0 0.0 4:1.0 5:2.0 6:1.0 7:7.0 8:7.0 10:1.0 17:1.0 
-0.0 -0.0 2.0 0.0 0.0 4:1.0 5:2.0 6:1.0 7:4.0 8:4.0 10:1.0 17:1.0 
-2.0 -2.0 2.0 0.0 2.0 4:1.0 5:2.0 6:3.0 7:9.0 8:7.0 10:1.0 17:1.0 
-0.0 -0.3454562908540326 0.19545887146601781 0.0 0.0 4:1.0 5:2.0 6:1.0 7:10.0 8:7.0 10:4.0 29:1.0 136:1.0 351:1.0 692:1.0 
-0.2072075565008519 -0.29468008336609663 0.6316057387076891 0.0 0.2914657878590342 4:1.0 5:2.0 6:3.0 7:4.0 8:2.0 10:1.0 29:1.0 693:1.0 
-0.0 -0.0 0.0 2.0 0.0 4:1.0 5:2.0 6:2.0 7:5.0 8:4.0 10:1.0 653:1.0 
-0.0 -2.0 2.0 0.0 0.0 4:1.0 5:2.0 6:3.0 7:5.0 8:3.0 10:1.0 17:1.0 
-0.0 -0.0 2.0 0.0 0.0 5:2.0 6:1.0 7:16.0 8:16.0 10:1.0 14:1.0 633:1.0 
-2.0 -0.0 2.0 0.0 0.0 4:1.0 5:2.0 6:1.0 7:7.0 8:7.0 10:1.0 17:1.0 
-0.9026298845696606 -0.1098243411783096 0.0 0.0 0.0631857504422278 5:2.0 6:5.0 7:12.0 8:8.0 10:1.0 14:1.0 636:1.0 
-2.0 -0.0 2.0 0.0 0.0 4:1.0 5:2.0 6:1.0 7:4.0 8:3.0 10:1.0 17:1.0 20:1.0 
-2.0 -2.0 2.0 0.0 2.0 4:1.0 5:2.0 6:3.0 7:11.0 8:8.0 10:2.0 17:1.0 
-0.0 -0.0 1.0771295992881957 0.0 0.0 4:1.0 5:2.0 6:3.0 7:12.0 8:10.0 10:1.0 29:1.0 318:1.0 673:1.0 694:1.0 
-2.0 -0.0 2.0 0.0 0.0 4:1.0 5:2.0 6:2.0 7:7.0 8:5.0 10:1.0 17:1.0 20:1.0 
-0.0 -0.0 0.0 2.0 0.0 4:1.0 5:2.0 6:1.0 7:6.0 8:6.0 10:1.0 653:1.0 
-0.1040490073354991 -0.14930199753126405 0.5173503874949628 0.0 0.2708102343381913 4:1.0 5:2.0 6:6.0 7:9.0 8:4.0 10:1.0 29:1.0 696:1.0 697:1.0 
-0.0 -0.0 2.0 0.0 0.0 4:1.0 5:2.0 6:2.0 7:10.0 8:7.0 10:3.0 17:1.0 
-0.20701333728644344 -0.29280230025290865 2.0 0.05263273741450668 0.2901844815284479 4:1.0 5:2.0 6:1.0 7:3.0 8:3.0 10:1.0 29:1.0 698:1.0 
-0.0 -2.0 2.0 2.0 2.0 4:1.0 5:2.0 6:1.0 7:9.0 8:8.0 10:1.0 16:1.0 17:1.0 
-2.0 -2.0 2.0 0.0 2.0 4:1.0 5:2.0 6:1.0 7:12.0 8:12.0 10:1.0 17:1.0 
-0.12006522505372523 -0.10537617942717611 0.8308729855118464 0.9074622029532321 0.0 4:1.0 5:2.0 6:1.0 7:6.0 8:4.0 10:2.0 16:1.0 29:1.0 46:1.0 136:1.0 699:1.0 
-0.23353599914416381 -0.4442593835788136 0.42944887917037644 0.0 0.38185835096961307 5:2.0 6:5.0 7:13.0 8:8.0 10:2.0 23:1.0 351:1.0 700:1.0 701:1.0 702:1.0 
-0.5713191493991562 -0.0 2.0 0.0 1.9922187728527974 4:1.0 5:2.0 6:1.0 7:3.0 8:2.0 10:1.0 17:1.0 58:1.0 
-2.0 -2.0 2.0 0.0 2.0 4:1.0 5:2.0 6:4.0 7:8.0 8:5.0 10:1.0 17:1.0 
-0.24894328582356207 -0.5226745095296461 1.4517628373726945 0.0 0.5507265818784705 4:1.0 5:2.0 6:3.0 7:12.0 8:10.0 10:1.0 398:1.0 703:1.0 704:1.0 705:1.0 
-0.2067629777389875 -0.29244375428986774 0.6144914221502294 0.09598582010104895 0.29008667767366053 4:1.0 5:2.0 6:1.0 7:2.0 8:2.0 10:1.0 29:1.0 706:1.0 
-0.20761234619385116 -0.2936209551124792 1.1803655910571782 0.0 0.2902727605272472 4:1.0 5:2.0 6:1.0 7:5.0 8:5.0 10:1.0 29:1.0 707:1.0 
-0.5712378633266767 -0.8866809346364831 2.0 0.0 1.5792354055495583 5:2.0 6:3.0 7:8.0 8:5.0 10:2.0 23:1.0 70:1.0 246:1.0 
-0.0 -0.0 2.0 0.0 0.0 4:1.0 5:2.0 6:1.0 7:3.0 8:3.0 10:1.0 17:1.0 
-0.30671492748745693 -2.0 2.0 0.0 0.0 4:1.0 5:2.0 6:1.0 7:9.0 8:9.0 10:1.0 17:1.0 
-2.0 -0.0 2.0 0.0 0.0 4:1.0 5:2.0 6:3.0 7:14.0 8:7.0 10:3.0 17:1.0 20:3.0 
-1.0254060977646058 -0.0 0.0 0.0 0.3315189276705896 5:2.0 6:2.0 7:7.0 8:5.0 9:1.0 10:1.0 14:1.0 651:1.0 
-1.7642395235414285 -0.0 2.0 0.0 0.0 4:1.0 5:2.0 6:2.0 7:9.0 8:6.0 10:3.0 17:1.0 
-2.0 -2.0 2.0 0.0 2.0 4:1.0 5:2.0 6:3.0 7:12.0 8:10.0 10:1.0 17:1.0 
-0.20895035703807688 -0.2968185607510879 1.8767292234621775 0.0 0.29285048128483526 4:1.0 5:2.0 6:3.0 7:8.0 8:5.0 10:1.0 29:1.0 58:1.0 708:1.0 
-2.0 -0.0 2.0 2.0 0.0 4:1.0 5:2.0 6:1.0 7:6.0 8:4.0 10:1.0 16:1.0 17:1.0 20:1.0 
-0.0 -0.0 2.0 0.0 0.0 4:1.0 5:2.0 6:1.0 7:3.0 8:3.0 10:1.0 17:1.0 
-0.10403448777486445 -0.14812028820927375 0.693154432919346 0.0 0.145913509168564 4:1.0 5:2.0 6:3.0 7:8.0 8:6.0 10:1.0 29:1.0 709:1.0 710:1.0 
-0.20781014749553325 -0.2955412163885391 1.008930568007327 0.0 0.2915572637192354 4:1.0 5:2.0 6:3.0 7:6.0 8:4.0 10:1.0 29:1.0 711:1.0 
-0.0 -0.0 2.0 0.0 0.0 4:1.0 5:2.0 6:1.0 7:3.0 8:3.0 10:1.0 17:1.0 
-0.0 -2.0 2.0 0.0 0.0 4:1.0 5:2.0 6:3.0 7:5.0 8:3.0 10:1.0 17:1.0 
-0.06932446729298573 -0.09854763374826495 0.5850397196264924 0.0 0.09722687180489867 4:1.0 5:2.0 6:2.0 7:9.0 8:8.0 10:1.0 29:1.0 712:1.0 713:1.0 714:1.0 
-0.20761218677786974 -2.0 2.0 0.0 0.2902708308427754 4:1.0 5:2.0 6:1.0 7:5.0 8:5.0 10:1.0 29:1.0 264:1.0 
-0.2644840355623694 -0.3272089480581358 0.7404921293640387 0.0 0.5020677017355325 4:1.0 5:2.0 6:2.0 7:13.0 8:11.0 9:1.0 10:1.0 715:1.0 716:1.0 717:1.0 718:1.0 
-2.0 -0.0 2.0 0.0 0.0 4:1.0 5:2.0 6:1.0 7:7.0 8:7.0 10:1.0 17:1.0 
-2.0 -0.0 2.0 0.0 0.0 4:1.0 5:2.0 6:1.0 7:7.0 8:7.0 10:1.0 17:1.0 
-0.2067671656707004 -0.2931880577521113 0.43430305248912726 0.0 0.290675949518934 4:1.0 5:2.0 6:2.0 7:2.0 8:1.0 10:1.0 29:1.0 719:1.0 
-0.9623268782409065 -0.06473096663775843 0.0 0.0 0.08287108398151562 5:2.0 6:4.0 7:9.0 8:5.0 10:1.0 14:1.0 63:1.0 720:1.0 
-1.8482326152599091 -0.0 2.0 0.0 0.0 4:1.0 5:2.0 6:2.0 7:7.0 8:5.0 10:2.0 17:1.0 
-2.0 -0.0 2.0 0.0 0.0 4:1.0 5:2.0 6:1.0 7:7.0 8:7.0 10:1.0 17:1.0 
-0.0 -0.0 1.0753643157918362 0.0 0.0 4:1.0 5:2.0 6:1.0 7:3.0 8:3.0 10:1.0 17:1.0 
-0.21497309767572328 -0.12860320092404182 0.33936444343673816 0.0 0.3083469211437799 4:1.0 5:2.0 6:3.0 7:14.0 8:7.0 9:1.0 10:3.0 16:1.0 20:1.0 29:1.0 32:1.0 61:1.0 125:1.0 192:1.0 668:1.0 
-0.0 -2.0 2.0 2.0 0.5042019196456049 4:1.0 5:2.0 6:1.0 7:5.0 8:4.0 10:1.0 16:1.0 17:1.0 
-0.0 -2.0 2.0 2.0 5.490145734392878E-4 4:1.0 5:2.0 6:1.0 7:6.0 8:5.0 10:1.0 16:1.0 17:1.0 
-2.0 -2.0 2.0 0.0 0.5254767182185661 4:1.0 5:2.0 6:2.0 7:9.0 8:8.0 10:1.0 17:1.0 
-2.0 -0.0 2.0 0.0 0.0 4:1.0 5:2.0 6:3.0 7:10.0 8:6.0 10:3.0 17:1.0 
-0.0 -0.0 2.0 0.0 0.0 4:1.0 5:2.0 6:1.0 7:6.0 8:6.0 10:1.0 17:1.0 
-0.0 -0.0 2.0 0.0 0.0 4:1.0 5:2.0 6:1.0 7:6.0 8:6.0 10:1.0 17:1.0 
-0.9329747091292353 -1.4450148622563928 1.221936294468046 0.0 2.0 5:2.0 6:3.0 7:3.0 8:1.0 10:1.0 23:1.0 721:1.0 
-0.10393685218052519 -0.14719072225726992 0.7788954445771916 0.0 0.14527672711345677 4:1.0 5:2.0 6:1.0 7:7.0 8:7.0 10:1.0 29:1.0 722:1.0 723:1.0 
-0.0 -0.5010590728246885 0.0 0.0 0.0 5:2.0 6:1.0 7:8.0 8:5.0 10:3.0 17:1.0 208:1.0 407:1.0 
-0.3923008560492313 -0.0 1.0686246734297649 0.0 0.3688311980559722 1:1.0 4:1.0 5:2.0 6:3.0 7:16.0 8:8.0 9:1.0 10:4.0 20:2.0 29:1.0 32:1.0 724:1.0 725:1.0 
-0.0 -0.0 2.0 0.0 0.0 4:1.0 5:2.0 6:1.0 7:5.0 8:5.0 10:1.0 17:1.0 
-0.23035084189847316 -0.22982333006179081 0.5741237714862332 0.0 0.19039396775592093 1:1.0 4:1.0 5:2.0 6:1.0 7:8.0 8:7.0 10:2.0 29:1.0 331:1.0 726:1.0 727:1.0 
-2.0 -2.0 2.0 0.0 2.0 4:1.0 5:2.0 6:1.0 7:10.0 8:9.0 10:1.0 17:1.0 58:1.0 
-0.0 -0.0 2.0 0.0 0.29039781336502013 4:1.0 5:2.0 6:1.0 7:10.0 8:10.0 10:1.0 29:1.0 248:1.0 666:1.0 
-0.001691761721065083 -0.0 0.0 0.0 0.0 5:2.0 6:2.0 7:1.0 8:1.0 14:1.0 728:1.0 
-0.0 -0.0 2.0 0.0 0.0 4:1.0 5:2.0 6:1.0 7:9.0 8:7.0 10:3.0 17:1.0 
-0.0 -0.0 2.0 0.0 0.2215783632267409 4:1.0 5:2.0 6:1.0 7:15.0 8:13.0 10:3.0 653:1.0 
-0.05202541796309162 -0.07375094154361518 0.4216891756837096 0.0 0.09147656471439522 4:1.0 5:2.0 6:3.0 7:12.0 8:9.0 10:2.0 29:1.0 427:1.0 729:1.0 730:1.0 731:1.0 
-0.4539551620846897 -0.11082227723755277 0.25426584167783944 0.0 0.08685211860824915 5:2.0 6:1.0 7:12.0 8:11.0 10:1.0 14:1.0 16:1.0 732:1.0 
-0.0 -0.0 2.0 0.0 0.0 4:1.0 5:2.0 6:1.0 7:7.0 8:6.0 10:2.0 17:1.0 
-0.3442800960852543 -0.0 2.0 0.0 2.0 4:1.0 5:2.0 6:1.0 7:14.0 8:12.0 10:3.0 17:1.0 
-2.0 -0.0 2.0 0.0 0.0 4:1.0 5:2.0 6:1.0 7:7.0 8:7.0 10:1.0 17:1.0 
-0.0 -2.0 0.0 0.0 0.0 5:2.0 6:1.0 7:6.0 8:6.0 10:1.0 17:1.0 208:1.0 
-0.0 -0.0 2.0 0.0 0.0 4:1.0 5:2.0 6:1.0 7:7.0 8:6.0 10:2.0 17:1.0 
-0.0 -1.1849288162030533 2.0 0.0 0.0 4:1.0 5:2.0 6:2.0 7:5.0 8:4.0 10:1.0 17:1.0 
-0.0 -0.0 0.0 0.17228582357248898 0.0 4:1.0 5:2.0 6:1.0 7:8.0 8:8.0 10:1.0 653:1.0 
-0.10388513183584568 -0.14701179618659266 1.2629853566944527 0.0 0.27309476124493376 4:1.0 5:2.0 6:1.0 7:6.0 8:6.0 10:1.0 29:1.0 733:1.0 734:1.0 
-0.0 -1.1559822897651078 0.0 0.0 0.0 5:2.0 6:2.0 7:8.0 8:6.0 10:1.0 11:1.0 54:1.0 628:1.0 
-0.0 -0.0 0.0 0.07040309550469165 0.0 4:1.0 5:2.0 6:1.0 7:2.0 8:2.0 10:1.0 17:1.0 
-0.20698848439180909 -0.2934822648952809 0.6230195763612426 0.0 0.2906938247265277 4:1.0 5:2.0 6:2.0 7:3.0 8:2.0 10:1.0 29:1.0 735:1.0 
-0.0 -0.23330017904924316 0.0 0.0526624268262069 1.3192246216763444 4:1.0 5:2.0 6:1.0 7:3.0 8:3.0 10:1.0 29:1.0 158:1.0 
-2.0 -1.6847438376428145 2.0 0.0 0.0 4:1.0 5:2.0 6:1.0 7:7.0 8:7.0 10:1.0 17:1.0 
-2.0 -2.0 2.0 0.0 0.0 4:1.0 5:2.0 6:1.0 7:7.0 8:7.0 10:1.0 17:1.0 
-0.0 -0.0 2.0 0.0 2.0 4:1.0 5:2.0 6:1.0 7:13.0 8:11.0 10:3.0 17:1.0 
-2.0 -2.0 2.0 0.0 2.0 4:1.0 5:2.0 6:3.0 7:8.0 8:6.0 10:1.0 17:1.0 
-2.0 -0.0 0.0 0.0 0.0 5:2.0 6:1.0 7:5.0 8:4.0 10:1.0 14:1.0 16:1.0 158:1.0 
-0.0 -0.0 0.32515753727625013 0.0 0.0 4:1.0 5:2.0 6:1.0 7:3.0 8:3.0 10:1.0 17:1.0 
-2.0 -0.0 0.0 0.0 2.0 4:1.0 5:2.0 6:4.0 7:10.0 8:5.0 10:3.0 17:1.0 
-0.0 -2.0 2.0 2.0 0.7501040518085226 4:1.0 5:2.0 6:1.0 7:5.0 8:4.0 10:1.0 16:1.0 17:1.0 
-2.0 -2.0 2.0 0.0 0.0 4:1.0 5:2.0 6:1.0 7:8.0 8:8.0 10:1.0 17:1.0 
-2.0 -2.0 2.0 0.0 2.0 4:1.0 5:2.0 6:8.0 7:15.0 8:7.0 10:2.0 17:1.0 
-0.33162722109398635 -0.5525254372491838 0.7371758975782058 0.38908685413339295 0.5868309261349071 4:1.0 5:2.0 6:1.0 7:7.0 8:6.0 10:1.0 16:1.0 736:1.0 737:1.0 738:1.0 
-1.4623631021316323 -0.0 2.0 0.0 2.0 4:1.0 5:2.0 6:1.0 7:17.0 8:16.0 10:2.0 17:1.0 
-0.0 -0.9135444529303427 0.0 0.0 0.0 4:1.0 5:2.0 6:3.0 7:4.0 8:2.0 10:1.0 17:1.0 
-1.496423905202342 -2.0 0.0 2.0 0.0 4:1.0 5:2.0 6:2.0 7:5.0 8:3.0 10:1.0 17:1.0 54:1.0 
-0.20815526344031768 -0.7048753905132239 2.0 0.0 0.2925018649134276 4:1.0 5:2.0 6:4.0 7:9.0 8:6.0 10:1.0 29:1.0 522:1.0 
-0.31988472991562816 -0.0 2.0 0.0 0.0 4:1.0 5:2.0 6:1.0 7:6.0 8:6.0 10:1.0 17:1.0 
-0.962374695995216 -0.10890625738074611 0.0 0.0 0.08509947792405138 5:2.0 6:1.0 7:5.0 8:4.0 10:1.0 14:1.0 16:1.0 739:1.0 
-0.0 -0.0 2.0 0.0 0.0 4:1.0 5:2.0 6:1.0 7:4.0 8:4.0 10:1.0 17:1.0 
-0.0 -0.0 2.0 0.0 0.0 4:1.0 5:2.0 6:1.0 7:5.0 8:5.0 10:1.0 17:1.0 
-0.0 -0.0 0.0 0.0 1.3438412749922206 5:2.0 6:5.0 7:25.0 8:14.0 9:1.0 10:5.0 11:1.0 16:2.0 628:1.0 
-0.0 -0.0 2.0 0.0 0.0 4:1.0 5:2.0 6:1.0 7:4.0 8:4.0 10:1.0 17:1.0 
-0.0 -0.0 2.0 0.0 0.0 4:1.0 5:2.0 6:1.0 7:8.0 8:6.0 10:3.0 17:1.0 
-0.38998916701840675 -1.067871802257626 1.770339206633519 0.0 0.720107953196213 4:1.0 5:2.0 6:1.0 7:9.0 8:7.0 9:1.0 10:2.0 29:1.0 91:1.0 115:1.0 740:1.0 
-0.1991600544467018 -0.33111359071144625 0.9147755557176231 0.0 0.3526293617842407 4:1.0 5:2.0 6:4.0 7:16.0 8:12.0 10:2.0 741:1.0 742:1.0 743:1.0 744:1.0 745:1.0 
-0.0 -0.13578708328257003 0.0 0.0 0.0 4:1.0 5:2.0 6:3.0 7:4.0 8:2.0 10:1.0 17:1.0 
-0.9637297694325142 -0.0 0.4119745096465395 0.0 0.08900035101757157 5:2.0 6:5.0 7:16.0 8:12.0 10:1.0 14:1.0 657:1.0 
-0.0 -0.0 0.0 2.0 0.02532046486582219 4:1.0 5:2.0 6:3.0 7:10.0 8:5.0 10:3.0 16:1.0 653:1.0 
-0.20734498265000037 -0.2963694900730098 0.45998674453028865 0.0 0.2926652829181356 4:1.0 5:2.0 6:5.0 7:5.0 8:1.0 10:1.0 29:1.0 746:1.0 
-0.0 -0.0 0.0 2.0 0.0 4:1.0 5:2.0 6:1.0 7:3.0 8:3.0 10:1.0 653:1.0 
-0.18682318657286517 -0.32115173729535945 0.3268336039133368 0.0 0.42899452750567973 5:2.0 6:3.0 7:10.0 8:8.0 10:1.0 23:1.0 282:1.0 496:1.0 673:1.0 
-2.0 -2.0 2.0 2.0 0.002128253302296102 4:1.0 5:2.0 6:2.0 7:10.0 8:7.0 10:2.0 17:1.0 54:1.0 
-1.966577794468029 -0.0 2.0 0.0 0.0 4:1.0 5:2.0 6:1.0 7:6.0 8:6.0 10:1.0 17:1.0 
-0.0 -0.6321691889425439 0.0 0.0 0.14591099266881383 4:1.0 5:2.0 6:3.0 7:4.0 8:2.0 10:1.0 17:1.0 
-1.8920000751891692 -0.0 2.0 0.0 0.0 4:1.0 5:2.0 6:1.0 7:8.0 8:7.0 10:2.0 17:1.0 
-0.0 -2.0 2.0 0.0 0.0 4:1.0 5:2.0 6:3.0 7:5.0 8:3.0 10:1.0 17:1.0 
-2.0 -2.0 2.0 0.0 1.9999092166058547 4:1.0 5:2.0 6:1.0 7:10.0 8:10.0 10:1.0 17:1.0 
-0.0 -0.0 2.0 0.0 0.0 4:1.0 5:2.0 6:1.0 7:5.0 8:5.0 10:1.0 17:1.0 
-0.9604622266340285 -0.10850703837666094 0.0 0.0 0.08503784674968101 5:2.0 6:1.0 7:4.0 8:3.0 10:1.0 14:1.0 16:1.0 728:1.0 
-0.2927271946863103 -0.07412379106961095 0.5655783945785651 0.0 0.10188116562378573 4:1.0 5:2.0 6:4.0 7:16.0 8:12.0 10:2.0 29:1.0 30:1.0 747:1.0 748:1.0 749:1.0 
-0.20676148115864124 -0.29244312836212843 0.6144940871226939 0.0959819431413528 0.29008584784833547 4:1.0 5:2.0 6:1.0 7:2.0 8:2.0 10:1.0 29:1.0 750:1.0 
-2.0 -0.0 1.0659672923486583 0.0 0.0 4:1.0 5:2.0 6:3.0 7:6.0 8:2.0 10:1.0 17:1.0 20:2.0 
-2.0 -0.0 2.0 0.0 2.0 4:1.0 5:2.0 6:2.0 7:14.0 8:11.0 10:3.0 17:1.0 
-0.0 -0.0 1.5871982665520012 0.0 0.0 4:1.0 5:2.0 6:1.0 7:3.0 8:3.0 10:1.0 17:1.0 
-1.02532953205717 -0.0 0.9912254571293859 0.0 0.3364052914882216 5:2.0 6:3.0 7:19.0 8:15.0 9:1.0 10:1.0 14:1.0 16:1.0 634:1.0 
-0.3372167967671226 -0.5516383169630606 1.2930048793280766 0.0 0.7194503655033838 4:1.0 5:2.0 6:3.0 7:7.0 8:5.0 10:1.0 95:1.0 600:1.0 751:1.0 
-0.0 -0.35995221581086867 0.0 0.0 0.0014950987889817597 4:1.0 5:2.0 6:3.0 7:4.0 8:2.0 10:1.0 17:1.0 
-0.20700660967297052 -0.2927882712990509 0.8030883189012954 0.05267081007229479 0.29014473803682556 4:1.0 5:2.0 6:1.0 7:3.0 8:3.0 10:1.0 29:1.0 753:1.0 
-0.11195936203715355 -2.0 2.0 0.0 0.0 4:1.0 5:2.0 6:1.0 7:9.0 8:9.0 10:1.0 17:1.0 
-0.0 -0.0 1.7640128297417534 0.0 0.0 4:1.0 5:2.0 6:1.0 7:3.0 8:3.0 10:1.0 17:1.0 
-0.20724725473184116 -0.29394930142497594 0.8116989908064274 0.0 0.2907496361191154 4:1.0 5:2.0 6:2.0 7:4.0 8:3.0 10:1.0 29:1.0 754:1.0 
-0.002665075834752328 -0.07369616576973546 0.6026209225620092 0.0 0.22915775677452863 4:1.0 5:2.0 6:4.0 7:16.0 8:12.0 10:2.0 29:1.0 34:1.0 91:1.0 125:1.0 668:1.0 755:1.0 756:1.0 
-0.0 -0.0 2.0 0.0 0.24528750843084637 4:1.0 5:2.0 6:1.0 7:15.0 8:11.0 10:5.0 17:1.0 
-0.10387140392990364 -0.145381207718325 0.7007202303337529 0.0 0.14510532114548122 4:1.0 5:2.0 6:1.0 7:9.0 8:7.0 10:3.0 29:1.0 292:1.0 757:1.0 
-0.0 -0.0 0.0 2.0 0.0 4:1.0 5:2.0 6:1.0 7:3.0 8:3.0 10:1.0 653:1.0 
-0.0 -0.0 0.42614216138311223 0.0 0.7889811628133938 4:1.0 5:2.0 6:7.0 7:14.0 8:5.0 10:3.0 17:1.0 63:1.0 
-2.0 -2.0 2.0 0.0 0.0 4:1.0 5:2.0 6:1.0 7:9.0 8:9.0 10:1.0 17:1.0 
-0.4583473887591899 -2.0 2.0 0.0 0.0 4:1.0 5:2.0 6:2.0 7:7.0 8:6.0 10:1.0 17:1.0 
-2.0 -2.0 2.0 2.0 1.9460966390122871 4:1.0 5:2.0 6:1.0 7:10.0 8:9.0 10:1.0 17:1.0 54:1.0 
-0.0 -0.08321915605273655 0.27625484750960966 0.0 0.04733683399214343 4:1.0 5:2.0 6:6.0 7:14.0 8:9.0 10:1.0 29:1.0 528:1.0 758:1.0 759:1.0 760:1.0 
-0.10398466761049939 -0.14751439004773528 1.06207814578091 0.0 0.1457382154777623 4:1.0 5:2.0 6:1.0 7:10.0 8:10.0 10:1.0 29:1.0 761:1.0 762:1.0 
-2.0 -2.0 2.0 0.0 2.0 4:1.0 5:2.0 6:1.0 7:10.0 8:10.0 10:1.0 17:1.0 
-0.0 -2.0 0.0 0.0 0.0 5:2.0 6:1.0 7:4.0 8:4.0 10:1.0 17:1.0 208:1.0 
-0.0 -0.0 2.0 0.0 0.0 4:1.0 5:2.0 6:1.0 7:4.0 8:4.0 10:1.0 17:1.0 
-0.0 -0.0 2.0 0.0 0.0 4:1.0 5:2.0 6:1.0 7:4.0 8:4.0 10:1.0 17:1.0 
-0.11919177560360221 -0.0 0.0 0.0 0.08076378035942135 5:2.0 6:1.0 7:9.0 8:7.0 10:1.0 14:1.0 16:1.0 407:1.0 633:1.0 
-0.5090494386302168 -0.0 0.0 0.0 0.0 5:2.0 6:1.0 7:8.0 8:8.0 10:1.0 14:1.0 732:1.0 
-0.0 -0.0 2.0 0.0 0.0 4:1.0 5:2.0 6:2.0 7:4.0 8:3.0 10:1.0 17:1.0 
-0.0 -0.0 0.0 2.0 0.0 4:1.0 5:2.0 6:1.0 7:5.0 8:5.0 10:1.0 653:1.0 
-0.0 -0.0 2.0 0.0 0.0 4:1.0 5:2.0 6:1.0 7:3.0 8:3.0 10:1.0 17:1.0 
-0.0 -0.0 2.0 0.0 0.0 4:1.0 5:2.0 6:1.0 7:3.0 8:3.0 10:1.0 17:1.0 
-0.10380603449798312 -0.1468019841254798 0.5901883485445848 0.0 0.14513901575977595 4:1.0 5:2.0 6:1.0 7:5.0 8:5.0 10:1.0 29:1.0 763:1.0 764:1.0 
-0.9967963055953709 -0.0 0.0 0.0 0.0 4:1.0 5:2.0 6:3.0 7:11.0 8:8.0 10:1.0 20:1.0 653:1.0 
-0.2070429310962965 -0.2927888147038653 0.8030884124435569 0.052651467921271226 0.2901745592000208 4:1.0 5:2.0 6:1.0 7:3.0 8:3.0 10:1.0 29:1.0 765:1.0 
-0.0 -0.0 0.0 2.0 0.0 5:2.0 6:1.0 7:10.0 8:6.0 10:2.0 11:1.0 16:3.0 628:1.0 
-0.06932742198735699 -0.2022981319074069 0.8875695390518159 0.0 0.2612826779751157 4:1.0 5:2.0 6:1.0 7:10.0 8:10.0 10:1.0 29:1.0 226:1.0 766:1.0 767:1.0 
-1.4937159090967238 -2.0 2.0 0.0 0.03448058557072062 4:1.0 5:2.0 6:3.0 7:6.0 8:4.0 10:1.0 17:1.0 
-0.0 -0.0 0.0 0.0 0.986636065155353 4:1.0 5:2.0 6:3.0 7:3.0 8:1.0 10:1.0 17:1.0 
-0.20700584015537035 -0.29278339331349995 0.803211261225243 0.05267201886251575 0.2901698668683539 4:1.0 5:2.0 6:1.0 7:3.0 8:3.0 10:1.0 29:1.0 768:1.0 
-0.0 -1.6573801660069387 0.0 2.0 1.5005197394359329 4:1.0 5:2.0 6:1.0 7:5.0 8:3.0 10:1.0 16:1.0 58:1.0 653:1.0 
-2.0 -1.7062875853130162 2.0 0.0 0.0 4:1.0 5:2.0 6:1.0 7:7.0 8:7.0 10:1.0 17:1.0 
-0.0 -0.0 2.0 0.0 0.0 4:1.0 5:2.0 6:2.0 7:4.0 8:3.0 10:1.0 17:1.0 
-0.0 -0.0 2.0 0.0 0.0 4:1.0 5:2.0 6:1.0 7:5.0 8:5.0 10:1.0 17:1.0 
-0.0 -2.0 0.0 0.0 0.0 5:2.0 6:1.0 7:6.0 8:4.0 10:3.0 17:1.0 208:1.0 
-2.6166410465194054E-4 -0.0011248207936454808 0.008475602380303527 0.0 7.765322729903919E-4 4:1.0 5:2.0 6:4.0 7:6.0 8:3.0 10:1.0 29:1.0 130:1.0 682:1.0 
-2.0 -2.0 2.0 0.0 2.0 4:1.0 5:2.0 6:1.0 7:10.0 8:10.0 10:1.0 17:1.0 
-1.2665903079190612 -0.0 2.0 0.0 2.0 4:1.0 5:2.0 6:4.0 7:13.0 8:8.0 10:3.0 17:1.0 
-2.0 -0.13008584134364462 2.0 0.0 0.23957322158111966 4:1.0 5:2.0 6:3.0 7:9.0 8:6.0 10:2.0 17:1.0 
-0.0 -0.0 2.0 0.0 0.0 4:1.0 5:2.0 6:1.0 7:8.0 8:6.0 10:3.0 17:1.0 
-2.0 -0.0 2.0 0.0 0.0 4:1.0 5:2.0 6:1.0 7:6.0 8:5.0 10:1.0 17:1.0 20:1.0 
-0.10397337282728089 -0.14795457752024066 0.5987618944591956 0.0 0.14583288408751027 4:1.0 5:2.0 6:3.0 7:7.0 8:5.0 10:1.0 29:1.0 309:1.0 769:1.0 
-0.20718055991483406 -0.29468287486842204 0.63161101974939 0.0 0.2914481473394639 4:1.0 5:2.0 6:3.0 7:4.0 8:2.0 10:1.0 29:1.0 770:1.0 
-2.0 -2.0 2.0 0.0 2.0 4:1.0 5:2.0 6:5.0 7:10.0 8:6.0 10:1.0 17:1.0 
-1.5007731695524278 -0.0 2.0 0.0 0.0 4:1.0 5:2.0 6:1.0 7:6.0 8:6.0 10:1.0 17:1.0 
-0.0 -0.11119536680495352 0.0 0.0 0.0 5:2.0 6:3.0 7:7.0 8:4.0 10:1.0 14:1.0 16:1.0 651:1.0 
-0.10423624088945073 -0.14708639423745992 0.8354497706935167 0.0 0.1457132479904474 4:1.0 5:2.0 6:1.0 7:5.0 8:4.0 10:1.0 29:1.0 58:1.0 771:1.0 772:1.0 
-0.0 -0.2828547781612869 0.3188941762511382 0.0 0.0 5:2.0 6:2.0 7:19.0 8:17.0 10:2.0 14:1.0 23:1.0 328:1.0 633:1.0 662:1.0 
-0.0 -0.0 2.0 0.0 0.0 4:1.0 5:2.0 6:1.0 7:4.0 8:4.0 10:1.0 17:1.0 
-0.0 -0.0 2.0 0.0 0.0 4:1.0 5:2.0 6:1.0 7:5.0 8:5.0 10:1.0 17:1.0 
-0.06917007714931947 -0.09613245972254016 0.13854704335075152 0.0 0.0981215510543845 4:1.0 5:2.0 6:3.0 7:13.0 8:6.0 10:5.0 29:1.0 135:1.0 773:1.0 774:1.0 775:1.0 
-0.0 -9.320868291416158E-4 0.5438209847244765 0.0 0.1383388171456844 4:1.0 5:2.0 6:2.0 7:9.0 8:8.0 10:1.0 29:1.0 158:1.0 255:1.0 776:1.0 777:1.0 
-0.0 -2.0 0.0 0.0 0.0 5:2.0 6:1.0 7:4.0 8:4.0 10:1.0 17:1.0 208:1.0 
-0.42285667446315456 -0.0 2.0 0.0 2.0 4:1.0 5:2.0 6:3.0 7:13.0 8:9.0 10:3.0 17:1.0 
-0.4828567866956665 -0.14721794142358408 0.5002069217490849 0.0 0.14546931142505976 4:1.0 5:2.0 6:2.0 7:5.0 8:4.0 10:1.0 29:1.0 174:1.0 778:1.0 
-0.4381727443028304 -0.0 0.9780376440077465 0.0 0.12352172173208961 1:1.0 5:2.0 6:4.0 7:23.0 8:15.0 10:5.0 16:1.0 23:1.0 29:1.0 157:1.0 484:1.0 490:1.0 779:1.0 780:1.0 781:1.0 
-0.0 -0.0 2.0 0.0 0.0 4:1.0 5:2.0 6:1.0 7:8.0 8:6.0 10:3.0 17:1.0 
-0.0 -0.0 2.0 0.0 0.0 4:1.0 5:2.0 6:1.0 7:10.0 8:8.0 10:3.0 17:1.0 
-0.20759738541454562 -0.29443655484071746 1.0003510420098027 0.0 0.2908028789886396 4:1.0 5:2.0 6:2.0 7:5.0 8:4.0 10:1.0 29:1.0 782:1.0 
-0.0 -0.0 0.0 0.32475315863566667 0.0 4:1.0 5:2.0 6:1.0 7:2.0 8:2.0 10:1.0 17:1.0 
-0.0 -0.0 0.0 2.0 0.0 4:1.0 5:2.0 6:1.0 7:5.0 8:3.0 10:3.0 653:1.0 
-2.0 -2.0 2.0 0.0 0.0 4:1.0 5:2.0 6:1.0 7:9.0 8:9.0 10:1.0 17:1.0 
-0.3319158747808114 -0.5524110328015923 0.7608011037334104 0.0 0.7433744486147142 4:1.0 5:2.0 6:5.0 7:10.0 8:6.0 10:1.0 783:1.0 784:1.0 785:1.0 
-0.0 -0.0 0.0 0.28844247762317343 0.0 4:1.0 5:2.0 6:1.0 7:2.0 8:2.0 10:1.0 17:1.0 
-0.0 -0.0 0.1306554950673721 0.0 0.0 5:2.0 6:1.0 7:16.0 8:15.0 10:2.0 11:1.0 628:1.0 
-0.20700144505775778 -0.29278105176200836 0.8030757644197364 0.052620207994618404 0.2902414202936435 4:1.0 5:2.0 6:1.0 7:3.0 8:3.0 10:1.0 29:1.0 786:1.0 
-2.0 -0.0 2.0 0.0 2.0 4:1.0 5:2.0 6:1.0 7:10.0 8:8.0 10:2.0 17:1.0 58:1.0 
-0.9631833685456664 -0.10590325866280896 0.0 0.0 0.084591218670017 5:2.0 6:1.0 7:8.0 8:8.0 10:1.0 14:1.0 752:1.0 
-0.0721137520551599 -0.7594505636207783 0.9436513189853168 0.0 0.3142033557892264 4:1.0 5:2.0 6:1.0 7:8.0 8:8.0 10:1.0 29:1.0 115:1.0 238:1.0 787:1.0 
-0.0 -0.0 2.0 0.0 0.0 4:1.0 5:2.0 6:1.0 7:3.0 8:3.0 10:1.0 17:1.0 
-0.19563372091375933 -0.5388015297608093 1.219313053428472 0.0 0.4409393277735568 4:1.0 5:2.0 6:5.0 7:19.0 8:15.0 10:1.0 248:1.0 314:1.0 388:1.0 632:1.0 788:1.0 
-0.6905512573164992 -0.10402089492580395 1.1563787033189348 0.0 0.5706712667657611 1:1.0 4:1.0 5:2.0 6:1.0 7:5.0 8:4.0 10:2.0 29:1.0 789:1.0 
-0.7188527811213127 -1.7229394244889478 1.8950367212652806 0.0 1.5814631973923872 5:2.0 6:2.0 7:7.0 8:6.0 10:1.0 23:1.0 181:1.0 695:1.0 
-0.0 -0.0 0.0 0.22200090162960376 0.013694536986037098 4:1.0 5:2.0 6:1.0 7:5.0 8:2.0 10:3.0 135:1.0 653:1.0 
-0.2078256643022307 -0.29440714971857257 1.5578005459102495 0.0 0.2905770436716577 4:1.0 5:2.0 6:1.0 7:7.0 8:7.0 10:1.0 29:1.0 790:1.0 
-1.2365789671425864 -0.05855520714799542 2.0 0.0 0.0 4:1.0 5:2.0 6:1.0 7:7.0 8:4.0 10:3.0 17:1.0 23:1.0 58:1.0 
-0.0 -0.0 2.0 0.0 0.0 4:1.0 5:2.0 6:1.0 7:10.0 8:8.0 10:3.0 17:1.0 
-2.0 -0.0 2.0 0.0 0.0 4:1.0 5:2.0 6:1.0 7:6.0 8:6.0 10:1.0 17:1.0 
-0.0 -0.0 0.0 0.0 4.969236846102389E-4 4:1.0 5:2.0 6:4.0 7:7.0 8:2.0 10:3.0 17:1.0 
-0.2069884505756927 -0.2927952818407226 0.8030863933954835 0.05263598330113288 0.290153792113874 4:1.0 5:2.0 6:1.0 7:3.0 8:3.0 10:1.0 29:1.0 791:1.0 
-0.0 -0.0 2.0 0.0 0.0 4:1.0 5:2.0 6:1.0 7:3.0 8:3.0 10:1.0 17:1.0 
-0.0 -0.0 0.0 0.0 2.0 4:1.0 5:2.0 6:3.0 7:3.0 8:1.0 10:1.0 17:1.0 
-0.0 -2.0 0.0 0.0 0.0 5:2.0 6:1.0 7:6.0 8:6.0 10:1.0 17:1.0 208:1.0 
-0.0 -0.0 2.0 0.0 0.0 4:1.0 5:2.0 6:1.0 7:3.0 8:3.0 10:1.0 17:1.0 
-2.0 -0.0 2.0 0.0 0.0 4:1.0 5:2.0 6:1.0 7:6.0 8:6.0 10:1.0 17:1.0 
-0.10388350921055983 -0.1477684153009047 2.0 0.0 0.14576949760938884 4:1.0 5:2.0 6:3.0 7:6.0 8:4.0 10:1.0 29:1.0 792:1.0 793:1.0 
-0.110245682179879 -0.04399343282664909 1.0884486723507245 0.0 0.07007862040585926 4:1.0 5:2.0 6:1.0 7:6.0 8:4.0 10:1.0 20:1.0 29:1.0 794:1.0 795:1.0 796:1.0 
-2.0 -2.0 2.0 0.0 2.0 4:1.0 5:2.0 6:3.0 7:13.0 8:10.0 10:2.0 17:1.0 
-2.0 -0.0 2.0 0.0 0.0 4:1.0 5:2.0 6:1.0 7:6.0 8:6.0 10:1.0 17:1.0 
-0.06935905165238798 -0.09881489640467388 0.16594268403774912 0.0 0.2540168665777727 4:1.0 5:2.0 6:3.0 7:9.0 8:7.0 10:1.0 29:1.0 694:1.0 797:1.0 798:1.0 
-0.0 -0.0 2.0 0.0 0.0 4:1.0 5:2.0 6:1.0 7:3.0 8:3.0 10:1.0 17:1.0 
-0.020679118956674323 -0.15022079458509002 2.0 0.0 2.0 4:1.0 5:2.0 6:2.0 7:9.0 8:6.0 10:1.0 17:1.0 135:2.0 
-0.0 -0.0 0.0 1.7743068523732168 0.0 4:1.0 5:2.0 6:1.0 7:2.0 8:2.0 10:1.0 17:1.0 
-0.20676028044267725 -0.29244526141777116 0.6144974112209114 0.09611403164833689 0.2900860548523004 4:1.0 5:2.0 6:1.0 7:2.0 8:2.0 10:1.0 29:1.0 799:1.0 
-0.10399211100953652 -0.6466569595752243 0.8775565903286825 0.0 0.22203188053149017 4:1.0 5:2.0 6:2.0 7:9.0 8:8.0 10:1.0 29:1.0 252:1.0 800:1.0 
-0.0 -1.133319726869955 0.0 2.0 0.0 4:1.0 5:2.0 6:1.0 7:8.0 8:5.0 10:3.0 16:1.0 17:1.0 
-2.0 -0.0 2.0 0.0 0.0 4:1.0 5:2.0 6:1.0 7:7.0 8:7.0 10:1.0 17:1.0 
-0.006142234555386306 -0.2464992720083867 1.227789782622094 0.0 0.2897370546564269 4:1.0 5:2.0 6:1.0 7:8.0 8:8.0 10:1.0 29:1.0 248:1.0 801:1.0 
-2.0 -0.0 2.0 0.0 0.0 4:1.0 5:2.0 6:1.0 7:7.0 8:7.0 10:1.0 17:1.0 
-1.9896423474434928 -2.0 2.0 0.0 0.0 4:1.0 5:2.0 6:2.0 7:7.0 8:6.0 10:1.0 17:1.0 
-0.0 -0.0 0.20737097905716945 0.0 0.0 4:1.0 5:2.0 6:1.0 7:11.0 8:11.0 10:1.0 29:1.0 158:2.0 802:1.0 803:1.0 
-2.0 -2.0 2.0 0.0 0.0 4:1.0 5:2.0 6:1.0 7:7.0 8:7.0 10:1.0 17:1.0 
-0.0 -0.0 2.0 0.0 0.0 4:1.0 5:2.0 6:1.0 7:5.0 8:5.0 10:1.0 17:1.0 
-0.0 -0.0 2.0 0.0 0.0 4:1.0 5:2.0 6:1.0 7:3.0 8:3.0 10:1.0 17:1.0 
-0.0 -0.0 0.0 0.23471252966737985 0.0 4:1.0 5:2.0 6:2.0 7:5.0 8:2.0 10:3.0 653:1.0 
-0.0 -2.0 2.0 0.0 0.0 4:1.0 5:2.0 6:3.0 7:5.0 8:3.0 10:1.0 17:1.0 
-0.0 -0.0 2.0 0.0 0.0 4:1.0 5:2.0 6:2.0 7:10.0 8:7.0 10:3.0 17:1.0 
-0.0 -2.0 0.0 2.0 0.9577376060274281 4:1.0 5:2.0 6:5.0 7:15.0 8:6.0 10:5.0 17:1.0 23:1.0 54:1.0 
-0.0 -2.0 2.0 0.0 0.0 4:1.0 5:2.0 6:3.0 7:5.0 8:3.0 10:1.0 17:1.0 
-0.0 -0.0 2.0 0.0 0.0 4:1.0 5:2.0 6:1.0 7:7.0 8:6.0 10:2.0 17:1.0 
-0.25110156717911036 -0.0 -0.0 0.0 0.6219847932125236 1:1.0 4:1.0 5:2.0 6:2.0 7:8.0 8:6.0 10:2.0 29:1.0 236:1.0 804:1.0 
-0.004359809041515466 -0.0 -0.0 0.0 0.2783180554422719 4:1.0 5:2.0 6:3.0 7:7.0 8:4.0 10:1.0 58:1.0 805:1.0 806:1.0 807:1.0 
-0.0 -1.2710482859960304 -0.0 0.0 0.0 4:1.0 5:2.0 6:1.0 7:8.0 8:8.0 10:1.0 29:1.0 301:1.0 
-2.0 -2.0 -2.0 0.0 2.0 4:1.0 5:2.0 6:2.0 7:7.0 8:5.0 10:2.0 17:1.0 
-0.02752708757464553 -0.3764447353404769 -0.0 0.0 0.16476188827746427 4:1.0 5:2.0 6:2.0 7:9.0 8:8.0 10:1.0 455:1.0 808:1.0 809:1.0 
-2.0 -0.0 -2.0 0.0 2.0 4:1.0 5:2.0 6:2.0 7:11.0 8:8.0 10:3.0 17:1.0 
-0.0 -0.0 -0.8180115814178464 0.0 0.25335777057299663 4:1.0 5:2.0 6:2.0 7:7.0 8:5.0 9:1.0 10:1.0 646:1.0 647:1.0 810:1.0 
-0.03834207456664796 -0.1526024222216983 -2.0 0.0 0.5832119530512254 4:1.0 5:2.0 6:3.0 7:6.0 8:4.0 10:1.0 29:1.0 704:1.0 
-0.6328479948784165 -0.0 -0.0 0.0 0.0 4:1.0 5:2.0 6:1.0 7:10.0 8:8.0 10:2.0 15:1.0 29:1.0 58:1.0 91:1.0 811:1.0 
-0.031683527903965246 -0.03524428810478774 -0.044885695827774304 0.0 0.060106957557947954 4:1.0 5:2.0 6:2.0 7:6.0 8:5.0 10:1.0 515:1.0 812:1.0 813:1.0 
-0.0 -0.10418092746698257 -2.0 0.0 0.0 4:1.0 5:2.0 6:1.0 7:4.0 8:4.0 10:1.0 17:1.0 
-1.6828448470260688 -2.0 -2.0 0.0 2.0 4:1.0 5:2.0 6:5.0 7:11.0 8:7.0 10:1.0 17:1.0 
-0.13802572563178037 -0.6317915334903664 -0.8583896991425767 0.0 0.0 4:1.0 5:2.0 6:2.0 7:8.0 8:6.0 9:1.0 10:1.0 53:1.0 646:1.0 647:1.0 814:1.0 
-2.0 -0.0 -2.0 0.0 0.0 4:1.0 5:2.0 6:1.0 7:7.0 8:7.0 10:1.0 17:1.0 
-0.0 -2.0 -2.0 2.0 0.0 4:1.0 5:2.0 6:2.0 7:4.0 8:3.0 10:1.0 17:1.0 
-0.014533430633653331 -0.8960911923004589 -0.0 0.15203943121030458 0.5005863381779092 4:1.0 5:2.0 6:1.0 7:8.0 8:7.0 10:1.0 54:1.0 74:1.0 316:1.0 742:1.0 
-0.0 -0.4247107427238774 -0.0 0.0 0.6901442060485103 4:1.0 5:2.0 6:2.0 7:7.0 8:5.0 10:1.0 20:1.0 33:1.0 815:1.0 
-0.0 -0.02676898404479196 -0.5341561415700105 0.0 0.0 4:1.0 5:2.0 6:3.0 7:8.0 8:5.0 10:2.0 29:1.0 816:1.0 817:1.0 
-0.0 -0.0 -0.1150436482677713 0.16118658904482358 0.7521815744182363 4:1.0 5:2.0 6:3.0 7:7.0 8:4.0 10:1.0 16:1.0 461:1.0 565:1.0 
-0.03800394553909349 -0.0 -1.008237226030091 0.0 0.0 4:1.0 5:2.0 6:1.0 7:4.0 8:4.0 10:1.0 29:1.0 818:1.0 
-0.0 -0.132483225657032 -0.0 0.0 0.07367207935443346 5:2.0 6:1.0 7:14.0 8:13.0 10:1.0 58:1.0 206:1.0 220:1.0 549:1.0 819:1.0 820:1.0 821:1.0 
-0.03801056100220411 -0.0 -1.0082202258334767 0.0 0.0 4:1.0 5:2.0 6:1.0 7:4.0 8:4.0 10:1.0 29:1.0 822:1.0 
-0.0 -0.0 -1.1258085836340337 0.0 0.0701124612246021 4:1.0 5:2.0 6:3.0 7:8.0 8:4.0 10:3.0 29:1.0 314:1.0 582:1.0 
-0.1416192199545548 -0.6641993153991995 -0.0 0.0 0.2532699737370855 4:1.0 5:2.0 6:2.0 7:8.0 8:6.0 10:1.0 20:1.0 296:1.0 307:1.0 823:1.0 
-0.0 -0.06689647314439481 -0.0 0.0 0.07504161008151909 4:1.0 5:2.0 6:2.0 7:7.0 8:6.0 10:1.0 328:1.0 579:1.0 824:1.0 
-0.021221571914546437 -0.0 -0.0 0.0 0.2959198057026221 4:1.0 5:2.0 6:3.0 7:13.0 8:9.0 10:1.0 20:1.0 135:1.0 461:1.0 825:1.0 826:1.0 827:1.0 
-0.0 -0.09261686270648366 -0.7116854328765585 0.0 0.0 4:1.0 5:2.0 6:1.0 7:6.0 8:5.0 10:2.0 29:1.0 91:1.0 828:1.0 
-0.04982704635510037 -0.03435628009424688 -0.1421296002602367 0.0 0.0 4:1.0 5:2.0 6:5.0 7:13.0 8:6.0 9:1.0 10:1.0 29:1.0 63:2.0 829:1.0 830:1.0 831:1.0 
-0.026791108248890583 -0.026828037517092788 -0.07543544952928802 0.0 0.0619695341416878 4:1.0 5:2.0 6:1.0 7:8.0 8:6.0 10:3.0 832:1.0 833:2.0 
-0.0 -0.0 -0.0 0.0 0.43146097980822123 4:1.0 5:2.0 6:3.0 7:13.0 8:11.0 10:1.0 29:1.0 236:1.0 834:1.0 835:1.0 836:1.0 
-0.01282130737026205 -0.029242107119893484 -0.3159819860522842 0.0 0.06744283993230363 4:1.0 5:2.0 6:4.0 7:12.0 8:7.0 10:3.0 29:1.0 222:1.0 837:1.0 838:1.0 
-0.0 -0.050394158715772325 -0.0 0.0 0.5671710060021498 4:1.0 5:2.0 6:4.0 7:18.0 8:15.0 10:1.0 29:1.0 366:1.0 702:1.0 839:1.0 840:1.0 841:1.0 
-0.0 -0.0 -0.4546312132566473 0.0 0.5017945922308432 4:1.0 5:2.0 6:2.0 7:8.0 8:7.0 10:1.0 29:1.0 46:1.0 842:1.0 
-0.034418338672086345 -0.06326788330324488 -0.0 0.0 0.6322232921990607 4:1.0 5:2.0 6:3.0 7:16.0 8:11.0 10:4.0 381:1.0 535:1.0 843:1.0 844:1.0 
-0.0 -0.0 -0.0 0.0 0.7518771005488799 5:2.0 6:1.0 7:6.0 8:5.0 10:2.0 56:1.0 206:1.0 847:1.0 
-2.0 -0.5033361805826753 -0.31461715961821485 0.0 0.8837618374923918 4:1.0 5:2.0 6:3.0 7:6.0 8:4.0 10:1.0 86:1.0 
-0.06885831611535086 -0.3024913153191875 -0.05875507709724982 0.0 0.5034873405525526 4:1.0 5:2.0 6:4.0 7:8.0 8:5.0 10:1.0 848:1.0 849:1.0 
-0.017309422159887986 -0.0 -0.0 0.0 0.09832586450300249 4:1.0 5:2.0 6:1.0 7:7.0 8:6.0 10:1.0 58:1.0 824:1.0 850:1.0 851:1.0 
-0.019081206138681424 -0.07630269679780514 -0.589847242074838 0.0 0.017827485605387806 4:1.0 5:2.0 6:3.0 7:5.0 8:3.0 10:1.0 29:1.0 854:1.0 855:1.0 
-0.07550825221452265 -0.0 -0.23489283526892482 0.0 0.3518123072995248 4:1.0 5:2.0 6:2.0 7:9.0 8:7.0 9:1.0 10:1.0 29:1.0 368:1.0 856:1.0 
-0.4977060091980874 -0.0 -0.0 0.0 0.0 4:1.0 5:2.0 6:1.0 7:9.0 8:9.0 10:1.0 86:1.0 
-0.18750428323282436 -0.0 -2.0 0.0 0.0 4:1.0 5:2.0 6:1.0 7:7.0 8:6.0 10:1.0 17:1.0 58:1.0 
-0.32774067682692076 -0.2806855857015055 -0.0 0.0 0.378650366286767 5:2.0 6:1.0 7:8.0 8:8.0 10:1.0 61:1.0 121:1.0 176:1.0 206:1.0 
-2.0 -2.0 -2.0 0.0 2.0 4:1.0 5:2.0 6:4.0 7:8.0 8:5.0 10:1.0 17:1.0 
-0.13736656568543582 -2.0 -0.5118955912487331 0.0 2.0 4:1.0 5:2.0 6:2.0 7:4.0 8:3.0 10:1.0 423:1.0 
-0.0 -0.11161483579468366 -0.11764512867861843 0.0 0.0 4:1.0 5:2.0 6:1.0 7:14.0 8:10.0 10:5.0 127:1.0 522:1.0 680:1.0 858:1.0 859:1.0 860:1.0 
-0.004588322068379338 -0.1688035549752202 -0.5175021414642984 0.0 0.4995104686713915 4:1.0 5:2.0 6:3.0 7:7.0 8:3.0 10:3.0 426:1.0 861:1.0 
-0.0 -0.0 -2.0 0.0 0.0 4:1.0 5:2.0 6:1.0 7:5.0 8:5.0 10:1.0 17:1.0 
-0.20098596528012155 -0.12503101909532077 -0.11191900220596157 0.0 0.38762802967360227 1:1.0 4:1.0 5:2.0 6:8.0 7:15.0 8:7.0 10:2.0 145:1.0 528:1.0 862:1.0 863:1.0 864:1.0 
-0.0 -0.020362030292156604 -2.0 0.0 0.0 4:1.0 5:2.0 6:1.0 7:6.0 8:6.0 10:1.0 17:1.0 
-0.0 -0.0 -2.0 0.0 2.0 4:1.0 5:2.0 6:1.0 7:29.0 8:22.0 10:8.0 17:1.0 
-0.0 -0.15442269621989443 -0.0 0.0 0.8423719763539049 4:1.0 5:2.0 6:3.0 7:8.0 8:6.0 10:1.0 430:1.0 534:1.0 865:1.0 
-0.07171328475945675 -0.08701946031262618 -0.0 0.5137526591461059 0.21673931815662964 1:1.0 5:2.0 6:1.0 7:12.0 8:5.0 10:3.0 16:5.0 206:1.0 866:1.0 867:1.0 868:1.0 869:1.0 
-0.0 -0.0 -2.0 0.0 0.0 4:1.0 5:2.0 6:1.0 7:10.0 8:10.0 10:1.0 17:1.0 
-0.0 -0.01040862436013095 -2.0 0.0 0.0 4:1.0 5:2.0 6:1.0 7:9.0 8:9.0 10:1.0 17:1.0 
-0.8071752895304083 -2.0 -2.0 0.0 2.0 4:1.0 5:2.0 6:3.0 7:6.0 8:4.0 10:1.0 17:1.0 
-0.0 -0.0 -2.0 0.0 0.0 4:1.0 5:2.0 6:1.0 7:4.0 8:4.0 10:1.0 17:1.0 
-2.0 -0.555241971417886 -2.0 0.0 0.0 4:1.0 5:2.0 6:1.0 7:7.0 8:7.0 10:1.0 17:1.0 
-0.022416218482342137 -0.2928115070458333 -0.0 0.0 0.4191072090233574 4:1.0 5:2.0 6:1.0 7:15.0 8:14.0 10:1.0 16:1.0 61:1.0 371:1.0 461:1.0 873:1.0 
-2.0 -0.0 -2.0 0.0 0.0 4:1.0 5:2.0 6:1.0 7:8.0 8:7.0 10:2.0 17:1.0 
-0.0 -0.0 -0.0784493447506892 0.0 1.5363350119858903 4:1.0 5:2.0 6:2.0 7:9.0 8:8.0 10:1.0 29:1.0 31:1.0 878:1.0 
-0.03802677332178113 -0.0 -1.0081957528793228 0.0 0.0 4:1.0 5:2.0 6:1.0 7:4.0 8:4.0 10:1.0 29:1.0 879:1.0 
-0.0 -0.17187695992699598 -0.0 0.0 0.5326140626922983 5:2.0 6:2.0 7:9.0 8:8.0 10:1.0 206:1.0 880:1.0 881:1.0 
-0.03446517992547873 -0.10499788004827572 -0.003611952608803777 0.0 0.22846942292884645 4:1.0 5:2.0 6:3.0 7:10.0 8:7.0 10:2.0 882:1.0 883:1.0 884:1.0 885:1.0 
-0.0 -0.0 -2.0 0.0 0.0 4:1.0 5:2.0 6:1.0 7:5.0 8:5.0 10:1.0 17:1.0 
-0.0 -0.0 -2.0 0.0 0.0 4:1.0 5:2.0 6:1.0 7:8.0 8:8.0 10:1.0 17:1.0 
-0.0 -0.04609127342559082 -2.0 0.0 0.0 4:1.0 5:2.0 6:1.0 7:8.0 8:8.0 10:1.0 17:1.0 
-0.0 -0.0 -0.0 0.0 0.33973533940651646 4:1.0 5:2.0 6:4.0 7:18.0 8:13.0 9:1.0 10:2.0 29:1.0 66:1.0 236:1.0 886:1.0 887:1.0 888:1.0 889:1.0 
-0.06915629905503562 -0.2223499120400839 -0.03870581428363269 0.14482596320030763 0.34281397857686424 4:1.0 5:2.0 6:1.0 7:6.0 8:5.0 10:1.0 16:1.0 892:1.0 893:1.0 
-0.012691630506483453 -0.22011724507475167 -0.25315244285800537 0.0 0.2119195089699754 4:1.0 5:2.0 6:8.0 7:12.0 8:5.0 10:1.0 29:1.0 894:1.0 895:1.0 896:1.0 
-0.06885090986634165 -0.14981475593168853 -0.0 0.0 0.33268870490858754 4:1.0 5:2.0 6:1.0 7:7.0 8:7.0 10:1.0 897:1.0 898:1.0 
-0.0 -0.18947868741067758 -0.0 0.054214564888151386 0.18985165301428714 5:2.0 6:1.0 7:10.0 8:8.0 10:2.0 16:1.0 23:1.0 192:1.0 901:1.0 902:1.0 
-0.22626043342936947 -0.37013854239417016 -0.0 0.0 0.20173217196507484 1:1.0 4:1.0 5:2.0 6:2.0 7:12.0 8:10.0 10:2.0 553:1.0 761:1.0 878:1.0 904:1.0 
-0.0 -0.0 -0.0 0.0 0.8649355721096326 4:1.0 5:2.0 6:3.0 7:13.0 8:9.0 10:2.0 20:1.0 236:1.0 805:1.0 880:1.0 905:1.0 
-0.0 -0.11034472297465184 -2.0 0.0 0.0 4:1.0 5:2.0 6:1.0 7:6.0 8:6.0 10:1.0 17:1.0 
-0.09509788204571827 -0.3541919615388565 -0.6787108671850939 0.03339135488442917 0.39534680172402276 5:2.0 6:4.0 7:9.0 8:4.0 10:3.0 23:1.0 301:1.0 629:1.0 906:1.0 
-0.0 -0.07633330297510156 -0.24118709528336388 0.0 0.2005426380761228 4:1.0 5:2.0 6:2.0 7:7.0 8:5.0 10:2.0 29:1.0 91:1.0 236:1.0 907:1.0 
-0.3350639440364212 -0.0 -0.8478686952504403 0.0 0.0 4:1.0 5:2.0 6:2.0 7:6.0 8:2.0 9:1.0 10:2.0 20:1.0 29:1.0 33:1.0 815:1.0 
-0.0 -0.8967725173828152 -0.11991419920478454 0.0 1.5223750359436892 4:1.0 5:2.0 6:3.0 7:10.0 8:6.0 10:3.0 29:1.0 236:1.0 277:1.0 
-0.0 -0.01910797404757498 -2.0 0.2382641399636729 2.0 4:1.0 5:2.0 6:1.0 7:4.0 8:3.0 10:1.0 17:1.0 135:1.0 
-0.01279545212745726 -0.02143073699301451 -0.3752449460732872 0.0 0.0 4:1.0 5:2.0 6:3.0 7:9.0 8:7.0 10:1.0 29:1.0 292:1.0 908:1.0 909:1.0 
-3.1970701763509024E-4 -2.0 -2.0 0.0 0.0 4:1.0 5:2.0 6:2.0 7:7.0 8:6.0 10:1.0 17:1.0 
-0.0 -0.0 -0.6661715844379767 0.0 0.0 4:1.0 5:2.0 6:1.0 7:4.0 8:4.0 10:1.0 29:1.0 911:1.0 
-2.4309938369552567E-4 -0.2836204464941367 -2.0 0.0 0.0 4:1.0 5:2.0 6:1.0 7:8.0 8:8.0 10:1.0 17:1.0 
-0.2956690955915505 -0.18418207944748238 -0.0 0.0 0.4783477478794776 4:1.0 5:2.0 6:4.0 7:6.0 8:3.0 10:1.0 159:1.0 912:1.0 
-0.14248656442469082 -0.3383926904707522 -0.24034196419314893 0.0 0.5028314822097618 5:2.0 6:3.0 7:6.0 8:4.0 10:1.0 23:1.0 382:1.0 913:1.0 
-2.0 -2.0 -2.0 0.0 2.0 4:1.0 5:2.0 6:2.0 7:7.0 8:5.0 10:2.0 17:1.0 
-0.0 -0.0 -0.0 0.0 0.3199141784871688 5:2.0 6:2.0 7:17.0 8:9.0 10:5.0 20:3.0 32:2.0 33:1.0 56:1.0 206:1.0 914:1.0 915:1.0 
-0.0 -0.0 -0.0 0.0 0.29737822364669403 4:1.0 5:2.0 6:1.0 7:10.0 8:9.0 9:1.0 10:1.0 29:1.0 917:1.0 918:1.0 919:1.0 
-0.04963624105331124 -0.013825402552709436 -0.32073871300267953 0.0 0.35344808575102143 4:1.0 5:2.0 6:3.0 7:10.0 8:7.0 9:1.0 10:1.0 226:1.0 677:1.0 725:1.0 920:1.0 
-0.42462106427508667 -0.11795210949969884 -0.9971667727242495 0.0 0.3932820675274269 4:1.0 5:2.0 6:2.0 7:6.0 8:3.0 10:3.0 111:1.0 921:1.0 
-0.06663060756114354 -0.0 -0.0 0.0 0.5452466877045086 1:1.0 4:1.0 5:2.0 6:4.0 7:16.0 8:11.0 10:3.0 366:1.0 668:1.0 874:1.0 922:1.0 923:1.0 
-0.034398679974150456 -0.15099952252908277 -0.0 0.0 0.17260558547157112 4:1.0 5:2.0 6:4.0 7:12.0 8:9.0 10:1.0 887:1.0 924:1.0 925:1.0 926:1.0 
-0.06889329795612877 -0.14983241022925672 -0.0 0.0 0.33555384261043797 4:1.0 5:2.0 6:1.0 7:8.0 8:8.0 10:1.0 927:1.0 928:1.0 
-2.0 -0.44342449776498477 -2.0 0.0 0.0 4:1.0 5:2.0 6:1.0 7:7.0 8:7.0 10:1.0 17:1.0 
-0.05087060407072293 -0.0 -0.003937042320651583 0.0 0.06959493130179979 4:1.0 5:2.0 6:4.0 7:14.0 8:9.0 10:1.0 20:1.0 63:1.0 528:1.0 805:1.0 931:1.0 932:1.0 933:1.0 
-0.10048104987915386 -0.0 -0.0 0.0 0.3235971065162597 1:1.0 4:1.0 5:2.0 6:5.0 7:21.0 8:15.0 10:2.0 16:1.0 32:1.0 588:1.0 934:1.0 935:1.0 936:1.0 937:1.0 
-0.0 -0.01147392744373028 -0.0 0.0 0.46737072692866916 4:1.0 5:2.0 6:1.0 7:12.0 8:12.0 10:1.0 236:1.0 660:1.0 938:1.0 939:1.0 940:1.0 
-0.0 -2.0 -0.0 0.0 2.0 4:1.0 5:2.0 6:2.0 7:19.0 8:18.0 10:1.0 17:1.0 
-0.0 -0.9771187155190199 -0.0 0.0 0.0 4:1.0 5:2.0 6:1.0 7:11.0 8:11.0 10:1.0 29:1.0 39:1.0 56:1.0 318:1.0 331:1.0 
-0.05501111228091117 -0.1567092465809378 -0.0 0.0 0.5352482190649424 4:1.0 5:2.0 6:2.0 7:7.0 8:6.0 10:1.0 941:1.0 942:1.0 
-0.027591865102382516 -0.0879118231436569 -0.13062345158024072 0.0 0.3302384173340847 4:1.0 5:2.0 6:3.0 7:8.0 8:5.0 10:2.0 941:1.0 943:1.0 944:1.0 
-0.6480940614048282 -0.6517939043864979 -0.11960724076585032 0.1123613858169037 1.7529255867658489 4:1.0 5:2.0 6:5.0 7:11.0 8:6.0 10:1.0 54:1.0 160:1.0 945:1.0 946:1.0 947:1.0 
-2.0 -2.0 -2.0 2.0 2.0 4:1.0 5:2.0 6:3.0 7:9.0 8:6.0 10:1.0 16:1.0 17:1.0 
-0.0 -0.0 -0.0 0.0 0.07559402966268639 4:1.0 5:2.0 6:2.0 7:8.0 8:6.0 9:1.0 10:1.0 181:1.0 948:1.0 949:1.0 
-0.32500541156511226 -0.0 -1.1396260428149934 0.0 2.0 4:1.0 5:2.0 6:1.0 7:11.0 8:10.0 10:1.0 17:1.0 58:1.0 
-0.22705536959385278 -0.08913950645596178 -0.15676621479719202 0.10011817636211616 0.24612948461926748 5:2.0 6:1.0 7:10.0 8:7.0 10:3.0 20:1.0 23:2.0 950:1.0 951:1.0 952:1.0 
-0.0 -0.12806918078791363 -0.0 0.0 0.15108594258183342 4:1.0 5:2.0 6:5.0 7:13.0 8:8.0 10:2.0 46:1.0 115:1.0 211:1.0 759:1.0 
-0.0 -0.16100662534658128 -2.0 0.0 0.0 4:1.0 5:2.0 6:1.0 7:9.0 8:9.0 10:1.0 17:1.0 
-0.01737167708222129 -0.0 -0.1901384224545344 0.0 1.147470095664576 4:1.0 5:2.0 6:4.0 7:7.0 8:3.0 10:2.0 953:1.0 954:1.0 955:1.0 956:1.0 
-0.0 -0.0 -0.06497407716994189 0.0 0.09775969615983393 4:1.0 5:2.0 6:3.0 7:9.0 8:6.0 10:2.0 29:1.0 236:1.0 382:1.0 957:1.0 
-0.0 -0.0 -2.0 0.0 0.0 4:1.0 5:2.0 6:1.0 7:5.0 8:5.0 10:1.0 17:1.0 
-0.0 -0.16700641094181476 -0.8255501676298902 0.013915349693289778 0.6449339491848305 4:1.0 5:2.0 6:5.0 7:9.0 8:4.0 10:1.0 16:1.0 29:1.0 596:1.0 776:1.0 959:1.0 
-0.0 -0.10648623670999341 -0.0 0.0 0.0 4:1.0 5:2.0 6:1.0 7:7.0 8:7.0 10:1.0 23:1.0 430:1.0 960:1.0 961:1.0 
-0.04589036706103037 -0.09986299036154181 -0.0 0.0 0.2198652071328651 4:1.0 5:2.0 6:1.0 7:6.0 8:6.0 10:1.0 962:1.0 963:1.0 
-0.1387513219210981 -0.0 -0.5430527743515594 0.0 0.12182165313410313 4:1.0 5:2.0 6:1.0 7:10.0 8:4.0 9:3.0 10:2.0 29:1.0 58:2.0 248:1.0 964:1.0 
-0.14253090612229247 -0.30975751672153895 -0.11214886098184854 0.0 1.5749023145446313 5:2.0 6:2.0 7:7.0 8:6.0 10:1.0 23:1.0 967:1.0 968:1.0 
-0.0 -0.2537283886398525 -2.0 0.0 0.0 4:1.0 5:2.0 6:1.0 7:9.0 8:9.0 10:1.0 17:1.0 
