svm_type c_svc
kernel_type linear
nr_class 6
total_sv 1806
rho 2.1128646967414886 3.2109246119457135 1.7058621365422406 1.6035898476067993 0.8049712955543465 0.21293224443725106 0.6771900399106466 0.00880146821812454 0.2312421938144055 0.26713868727233003 -0.057384008352393254 -0.14302638416603866 -0.033951973497990125 0.13899688688024409 -0.1893190156058455
label 1 2 3 4 5 6
probA -1.379616347962794 -2.2082710345098824 -2.0234405641119766 -1.4545992703673838 -1.7293853172830491 -1.4765923878570624 -2.960602601776106 -2.53972739750654 -2.6086174653777094 -1.9394151651972942 -2.2404881015728115 -2.1369541184573193 -2.0941808862171842 -2.3424066388123137 -2.2364404735106533
probB 0.95069328107791 0.755420220679505 0.3513328054293026 0.6833250184942163 0.29597753208386096 0.4025239203536838 0.37883736008939994 0.34418877213368054 0.6275920388068057 0.06677326867589037 0.21180948127283905 0.33397724177947097 -0.24740754035194124 -0.5389949967365273 -0.4297394969992833
nr_sv 38 379 583 326 282 198
SV
2.0 1.016506742931509 0.0 0.0 0.07830952974141886 1:1.0 2:1.0 3:2.0 4:1.0 5:5.0 6:4.0 7:2.0 8:1.0 
2.0 0.0 0.6991324785745536 2.0 2.0 2:1.0 3:2.0 4:2.0 5:10.0 6:6.0 7:2.0 9:1.0 10:2.0 
2.0 0.0 0.0 0.0 0.0 1:1.0 2:1.0 3:2.0 4:1.0 5:4.0 6:3.0 7:1.0 10:1.0 
2.0 2.0 2.0 2.0 2.0 2:1.0 3:2.0 4:3.0 5:6.0 6:4.0 7:1.0 9:1.0 
0.762453182973173 0.6805501819727302 0.46672556899209494 0.4374317556428299 0.4664332897716826 2:1.0 3:2.0 4:1.0 5:6.0 6:5.0 7:2.0 12:1.0 13:1.0 14:1.0 15:1.0 
2.0 2.0 2.0 2.0 2.0 2:1.0 3:2.0 4:4.0 5:10.0 6:7.0 7:1.0 9:1.0 
2.0 2.0 2.0 2.0 2.0 2:1.0 3:2.0 4:1.0 5:9.0 6:6.0 7:3.0 9:1.0 11:1.0 
2.0 0.5982329985431727 0.0 0.0 0.0 1:1.0 2:1.0 3:2.0 4:1.0 5:4.0 6:3.0 7:1.0 10:1.0 
2.0 2.0 2.0 2.0 2.0 2:1.0 3:2.0 4:4.0 5:9.0 6:6.0 7:1.0 9:1.0 
2.0 0.0 0.0 0.0 0.0 2:1.0 3:2.0 4:1.0 5:2.0 6:1.0 7:1.0 9:1.0 11:1.0 
0.9623859091782219 0.6809522664305023 0.5741956629074265 0.5817467692714675 0.6521411953237649 2:1.0 3:2.0 4:1.0 5:7.0 6:6.0 7:2.0 12:1.0 13:1.0 14:1.0 16:1.0 
0.0 0.0 0.0 0.0 0.22520406396365647 3:2.0 5:5.0 6:5.0 7:1.0 8:1.0 11:1.0 12:1.0 14:1.0 17:1.0 
2.0 0.0 0.0 0.0 0.0 2:1.0 3:2.0 4:1.0 5:2.0 6:1.0 7:1.0 9:1.0 11:1.0 
2.0 0.0 1.7367706251787884 0.0 0.1094276780899434 1:1.0 2:1.0 3:2.0 4:1.0 5:6.0 6:3.0 7:3.0 11:1.0 
2.0 2.0 2.0 2.0 2.0 2:1.0 3:2.0 4:1.0 5:5.0 6:5.0 7:1.0 9:1.0 
2.0 0.0 0.0 0.0 0.0 2:1.0 3:2.0 4:1.0 5:2.0 6:1.0 7:1.0 9:1.0 11:1.0 
2.0 0.0 0.0 0.0 0.0 1:1.0 2:1.0 3:2.0 4:1.0 5:6.0 6:5.0 7:1.0 11:1.0 
2.0 0.0 0.0 0.0 0.0 1:1.0 2:1.0 3:2.0 4:1.0 5:9.0 6:7.0 7:1.0 11:1.0 18:1.0 
2.0 0.0 0.0 0.0 0.0 1:1.0 2:1.0 3:2.0 4:1.0 5:6.0 6:5.0 7:1.0 11:1.0 
1.1882582399448665 0.0 0.0 0.0 0.0 1:1.0 2:1.0 3:2.0 4:1.0 5:4.0 6:3.0 7:1.0 11:1.0 
2.0 0.0 0.0 0.0 0.0 1:1.0 2:1.0 3:2.0 4:1.0 5:6.0 6:5.0 7:1.0 11:1.0 
2.0 0.0 0.0 1.4176294026965448 0.0 2:1.0 3:2.0 4:1.0 5:2.0 6:1.0 7:1.0 9:1.0 11:1.0 
2.0 2.0 2.0 2.0 2.0 2:1.0 3:2.0 4:4.0 5:7.0 6:4.0 7:1.0 9:1.0 
0.3597688570518823 0.0 0.0 1.4566305238013904 0.0 1:1.0 2:1.0 3:2.0 4:2.0 5:11.0 6:7.0 7:2.0 10:2.0 
2.0 2.0 2.0 2.0 2.0 2:1.0 3:2.0 4:1.0 5:5.0 6:4.0 7:1.0 9:1.0 11:1.0 
2.0 0.7399522257146925 0.0 2.0 1.5294890873690088 2:1.0 3:2.0 4:1.0 5:2.0 6:1.0 7:1.0 9:1.0 11:1.0 
2.0 2.0 2.0 2.0 2.0 2:1.0 3:2.0 4:1.0 5:14.0 6:14.0 7:1.0 9:1.0 
2.0 2.0 0.6238953890123274 2.0 1.9976130919754733 2:1.0 3:2.0 4:1.0 5:2.0 6:1.0 7:1.0 9:1.0 11:1.0 
2.0 0.5191973899269572 0.0 0.0 1.058639017240733 1:1.0 2:1.0 3:2.0 4:1.0 5:5.0 6:2.0 7:3.0 10:1.0 
2.0 0.0 0.0 0.0 0.0 1:1.0 2:1.0 3:2.0 4:1.0 5:4.0 6:3.0 7:1.0 11:1.0 
2.0 2.0 2.0 2.0 2.0 2:1.0 3:2.0 4:3.0 5:7.0 6:4.0 7:2.0 9:1.0 
2.0 2.0 2.0 2.0 2.0 2:1.0 3:2.0 4:1.0 5:6.0 6:6.0 7:1.0 8:1.0 9:1.0 
1.578763082979698 2.0 0.23510573991066236 0.37268281698391603 0.2682116773314027 1:1.0 2:1.0 3:2.0 4:1.0 5:4.0 6:3.0 7:1.0 19:1.0 
2.0 0.0 0.0 0.0 0.0 1:1.0 2:1.0 3:2.0 4:1.0 5:4.0 6:3.0 7:1.0 11:1.0 
1.9456743805786605 0.0 0.0 0.0 0.0 1:1.0 2:1.0 3:2.0 4:1.0 5:4.0 6:3.0 7:1.0 11:1.0 
2.0 2.0 1.7530693245353854 1.8367109849791483 1.9797204440962628 2:1.0 3:2.0 4:1.0 5:2.0 6:1.0 7:1.0 9:1.0 11:1.0 
2.0 2.0 2.0 2.0 2.0 2:1.0 3:2.0 4:4.0 5:10.0 6:7.0 7:1.0 9:1.0 
2.0 2.0 2.0 2.0 2.0 2:1.0 3:2.0 4:1.0 5:7.0 6:6.0 7:1.0 9:1.0 11:1.0 
-0.0 0.0 0.0 0.8206363604572849 0.0 3:2.0 4:1.0 5:8.0 6:5.0 7:3.0 9:1.0 21:1.0 22:1.0 
-0.0 2.0 0.0 0.0 0.0 2:1.0 3:2.0 4:1.0 5:9.0 6:7.0 7:3.0 9:1.0 
-0.0 0.0 0.0 0.0 0.593752434594224 2:1.0 3:2.0 4:3.0 5:3.0 6:1.0 7:1.0 9:1.0 
-0.0 0.5047074117010713 0.3793130168480619 0.28437511525340164 2.0 3:2.0 4:3.0 5:19.0 6:15.0 7:1.0 11:1.0 26:1.0 27:1.0 28:1.0 
-0.26380563856174477 0.0 1.6911398612112527 0.0 2.0 2:1.0 3:2.0 4:2.0 5:2.0 6:1.0 7:1.0 9:1.0 
-2.0 0.0 0.0 0.0 0.0 1:1.0 2:1.0 3:2.0 4:2.0 5:3.0 6:2.0 7:1.0 
-0.0 2.0 0.0 0.0 0.0 3:2.0 4:2.0 5:15.0 6:13.0 7:2.0 25:1.0 26:1.0 
-0.0 2.0 0.0 0.0 0.0 2:1.0 3:2.0 4:1.0 5:7.0 6:6.0 7:2.0 9:1.0 
-0.0 2.0 0.0 0.0 1.9048417647714155 2:1.0 3:2.0 4:1.0 5:7.0 6:7.0 7:1.0 9:1.0 
-0.0 1.8725085578664589 0.0 0.0 0.0 2:1.0 3:2.0 4:1.0 5:8.0 6:6.0 7:3.0 9:1.0 
-0.0 0.0 2.0 0.0 0.0 2:1.0 3:2.0 4:4.0 5:10.0 6:5.0 7:3.0 9:1.0 
-0.0 0.0 0.192927279792964 0.26628451693126903 0.0 2:1.0 3:2.0 4:4.0 5:12.0 6:5.0 7:4.0 11:1.0 12:1.0 29:1.0 30:1.0 31:1.0 32:1.0 
-0.0 0.4949667982728432 0.10734951927488663 0.11124052279324328 0.043891220881813776 2:1.0 3:2.0 4:5.0 5:8.0 6:4.0 7:1.0 12:1.0 33:1.0 34:1.0 
-0.0 2.0 0.0 0.0 0.0 2:1.0 3:2.0 4:1.0 5:9.0 6:7.0 7:3.0 9:1.0 
-0.0 2.0 0.0 0.0 0.0 3:2.0 4:2.0 5:17.0 6:16.0 7:1.0 25:1.0 26:1.0 
-0.0 2.0 0.0 0.5780315799917366 0.0 2:1.0 3:2.0 4:3.0 5:5.0 6:3.0 7:1.0 9:1.0 
-0.0 1.3415811297067985 0.03138368886802994 0.1098197932133875 0.39824378354637213 2:1.0 3:2.0 4:1.0 5:8.0 6:8.0 7:1.0 12:1.0 35:1.0 36:1.0 
-0.0 2.0 0.0 0.0 0.0 2:1.0 3:2.0 4:2.0 5:5.0 6:4.0 7:1.0 9:1.0 
-0.0 0.0898519695915335 0.026620477787886128 0.11815060103721549 0.05943180670652921 3:2.0 4:3.0 5:9.0 6:5.0 7:1.0 26:1.0 37:1.0 38:2.0 
-0.0 2.0 2.0 2.0 2.0 2:1.0 3:2.0 4:3.0 5:10.0 6:8.0 7:1.0 9:1.0 
-2.0 0.0 0.0 0.0 0.0 1:1.0 2:1.0 3:2.0 4:3.0 5:4.0 6:2.0 7:1.0 
-0.0 1.7251610048076214 1.2849309709380323 0.0 0.0025219328228225464 2:1.0 3:2.0 4:2.0 5:9.0 6:6.0 7:1.0 9:1.0 39:2.0 
-0.0 0.7834849587427895 0.5785583862742244 0.38852226769377246 0.3314651968078298 3:2.0 4:3.0 5:10.0 6:8.0 7:1.0 8:1.0 40:1.0 41:1.0 42:1.0 
-0.0 2.0 2.0 0.0 0.0 2:1.0 3:2.0 4:5.0 5:12.0 6:6.0 7:3.0 9:1.0 
-0.09849594692901062 0.04692698777912924 0.008327569707000586 0.23202280188388813 0.19309177240853034 2:1.0 3:2.0 4:6.0 5:11.0 6:4.0 7:2.0 10:1.0 12:1.0 13:1.0 43:1.0 44:1.0 
-0.0 2.0 1.5687540240172873 1.1613467551498098 0.993444323754548 3:2.0 4:1.0 5:1.0 6:1.0 7:1.0 8:1.0 45:1.0 
-0.0 2.0 1.0760554847090231 0.5557882173702208 0.8486020260106107 3:2.0 4:3.0 5:8.0 6:5.0 7:2.0 8:1.0 46:1.0 47:1.0 
-0.0 2.0 0.0 0.0 0.0 2:1.0 3:2.0 4:1.0 5:3.0 6:3.0 7:1.0 9:1.0 
-0.0 2.0 0.0 2.0 2.0 2:1.0 3:2.0 4:1.0 5:9.0 6:9.0 7:1.0 9:1.0 
-0.0 0.49714422057429153 0.21377339063703227 0.2185797873507571 0.08734652024665697 2:1.0 3:2.0 4:2.0 5:2.0 6:1.0 7:1.0 12:1.0 51:1.0 
-0.0 0.7856675392110422 0.21307155086365348 0.21772860804056116 0.08719877928514895 2:1.0 3:2.0 4:1.0 5:3.0 6:3.0 7:1.0 12:1.0 52:1.0 
-0.08280004537630775 0.2305212651659145 0.107113849361403 0.2055998055666545 0.043622831500547604 2:1.0 3:2.0 4:3.0 5:9.0 6:5.0 7:2.0 10:1.0 12:1.0 53:1.0 54:1.0 
-1.322691516733106 0.0 0.0 0.0 0.0 1:1.0 2:1.0 3:2.0 4:2.0 5:5.0 6:4.0 7:1.0 
-0.21430608267461193 0.0 0.0 0.0 2.0 2:1.0 3:2.0 4:2.0 5:2.0 6:1.0 7:1.0 9:1.0 
-0.0 2.0 0.0 0.0 0.0 2:1.0 3:2.0 4:1.0 5:3.0 6:3.0 7:1.0 9:1.0 
-0.0 2.0 2.0 0.0 0.0 2:1.0 3:2.0 4:1.0 5:15.0 6:11.0 7:5.0 9:1.0 
-2.0 0.0 0.0 0.0 0.0 2:1.0 3:2.0 4:1.0 5:5.0 6:4.0 7:1.0 9:1.0 11:1.0 
-0.0 2.0 0.0 0.0 0.0 2:1.0 3:2.0 4:1.0 5:6.0 6:6.0 7:1.0 9:1.0 
-0.0 0.21118478903173557 0.0 0.0 0.0 2:1.0 3:2.0 4:1.0 5:11.0 6:11.0 7:1.0 12:1.0 55:2.0 56:1.0 57:1.0 
-2.0 0.0 0.0 0.0 0.0 2:1.0 3:2.0 4:1.0 5:4.0 6:3.0 7:1.0 9:1.0 11:1.0 
-0.0 0.21995778478425676 0.08837397736319125 0.08232519712482096 0.06844453636209462 2:1.0 3:2.0 4:5.0 5:14.0 6:8.0 7:3.0 12:1.0 58:1.0 59:1.0 60:1.0 61:1.0 62:1.0 
-0.0 2.0 0.0 0.0 0.0 2:1.0 3:2.0 4:1.0 5:4.0 6:4.0 7:1.0 9:1.0 
-0.0 2.0 0.13063065660283324 0.38463488598561224 0.04391956098622932 2:1.0 3:2.0 4:1.0 5:8.0 6:8.0 7:1.0 12:1.0 63:1.0 64:1.0 
-0.0 2.0 0.0 0.0 0.0 2:1.0 3:2.0 4:1.0 5:4.0 6:4.0 7:1.0 9:1.0 
-0.0 2.0 0.0 0.0 0.0 2:1.0 3:2.0 4:1.0 5:9.0 6:7.0 7:3.0 9:1.0 
-0.0 0.9661146447905394 0.4535844053507241 0.14683889557611285 0.3397203854390926 2:1.0 3:2.0 4:3.0 5:7.0 6:5.0 7:1.0 12:1.0 65:1.0 66:1.0 
-0.0 2.0 0.0 2.0 1.9998897844640058 2:1.0 3:2.0 4:3.0 5:7.0 6:5.0 7:1.0 9:1.0 
-0.0 2.0 0.0 0.0 0.0 2:1.0 3:2.0 4:1.0 5:6.0 6:6.0 7:1.0 9:1.0 
-0.0 0.0 2.0 0.0 2.0 2:1.0 3:2.0 4:9.0 5:17.0 6:6.0 7:4.0 9:1.0 
-0.0 1.733957601049941 0.2132710529860621 0.21767299120160535 0.08720392424761522 2:1.0 3:2.0 4:1.0 5:2.0 6:2.0 7:1.0 12:1.0 67:1.0 
-0.0 0.0 0.8270747907708208 0.0 2.0 2:1.0 3:2.0 4:3.0 5:3.0 6:1.0 7:1.0 9:1.0 
-0.0 0.7856762021401631 0.21306985163361072 0.2177288104287352 0.08719560093646123 2:1.0 3:2.0 4:1.0 5:3.0 6:3.0 7:1.0 12:1.0 68:1.0 
-1.19657807300106 0.0 0.0 0.04877991769674479 0.24125488453698232 2:1.0 3:2.0 4:1.0 5:8.0 6:5.0 7:2.0 10:2.0 12:1.0 13:1.0 47:1.0 69:1.0 
-0.0 0.7836137486925998 0.8134911418385691 0.11090344910280202 0.04406196110641944 2:1.0 3:2.0 4:3.0 5:10.0 6:8.0 7:1.0 12:1.0 70:1.0 71:1.0 
-0.0 2.0 0.0 0.0 0.0 2:1.0 3:2.0 4:1.0 5:6.0 6:6.0 7:1.0 9:1.0 
-0.0 1.3758853955634112 0.26192580506968216 0.0 1.034318313081329 2:1.0 3:2.0 4:1.0 5:10.0 6:9.0 7:1.0 12:1.0 28:1.0 72:1.0 73:1.0 74:1.0 
-0.0 2.0 0.0 0.0 0.0 2:1.0 3:2.0 4:1.0 5:6.0 6:6.0 7:1.0 9:1.0 
-0.0 1.5568742109412868 0.2142802201782708 0.22208727906455167 0.08786811507639194 2:1.0 3:2.0 4:4.0 5:9.0 6:6.0 7:1.0 12:1.0 75:1.0 
-0.0 2.0 0.0 0.0 2.0 2:1.0 3:2.0 4:1.0 5:7.0 6:7.0 7:1.0 9:1.0 
-0.0 2.0 0.0 2.0 2.0 2:1.0 3:2.0 4:1.0 5:10.0 6:10.0 7:1.0 9:1.0 
-0.0 0.5179352391667765 0.07122970841460564 0.07356950645696375 0.029318661905408754 2:1.0 3:2.0 4:2.0 5:9.0 6:8.0 7:1.0 12:1.0 77:1.0 78:1.0 79:1.0 
-0.0 2.0 0.0 2.0 1.8213178486742356 2:1.0 3:2.0 4:1.0 5:5.0 6:4.0 7:1.0 9:1.0 49:1.0 
-0.0 0.6347598567353872 0.21326739652503038 0.21767454296106825 0.08720585123360051 2:1.0 3:2.0 4:1.0 5:2.0 6:2.0 7:1.0 12:1.0 80:1.0 
-2.0 0.0 0.0 0.0 0.0 1:1.0 2:1.0 3:2.0 4:1.0 5:3.0 6:3.0 7:1.0 
-0.0 0.7856716051470541 0.21307093726210252 0.21772826934937875 0.0871959561712898 2:1.0 3:2.0 4:1.0 5:3.0 6:3.0 7:1.0 12:1.0 81:1.0 
-0.0 2.0 0.0 0.0 2.0 2:1.0 3:2.0 4:1.0 5:7.0 6:7.0 7:1.0 9:1.0 
-0.0 1.2383174197504279 0.21301386301986508 0.21877457246954995 0.08733678111599852 2:1.0 3:2.0 4:1.0 5:6.0 6:6.0 7:1.0 12:1.0 82:1.0 
-0.0 2.0 0.0 0.0 0.0 2:1.0 3:2.0 4:2.0 5:7.0 6:6.0 7:1.0 9:1.0 
-0.0 1.997319252710115 0.21300433704463723 0.20990550422243703 0.08606234935376542 2:1.0 3:2.0 4:1.0 5:5.0 6:3.0 7:3.0 12:1.0 83:1.0 
-0.0 1.0873833373622586 0.0 0.2183416601061119 0.08723247885656273 2:1.0 3:2.0 4:1.0 5:5.0 6:5.0 7:1.0 12:1.0 84:1.0 
-0.0 1.0149781772028807 0.07214948224088745 0.0 0.030063239166469323 2:1.0 3:2.0 4:5.0 5:14.0 6:9.0 7:1.0 12:1.0 85:1.0 86:1.0 87:1.0 88:1.0 
-0.0 0.9917062010024382 1.7510476715387466 2.0 0.2075968497721892 2:1.0 3:2.0 4:3.0 5:5.0 6:2.0 7:2.0 12:1.0 89:1.0 90:1.0 
-0.0 2.0 0.0 0.0 0.0 2:1.0 3:2.0 4:1.0 5:3.0 6:3.0 7:1.0 9:1.0 
-0.0 0.0 0.0 0.12035699252400285 0.0 2:1.0 3:2.0 4:3.0 5:4.0 6:2.0 7:1.0 9:1.0 
-0.0 2.0 0.0 0.0 1.1071698480219772 2:1.0 3:2.0 4:3.0 5:8.0 6:4.0 7:1.0 9:1.0 22:2.0 
-0.0 0.8297617854790752 0.22789924257936914 0.1985858118698087 0.5437112433859987 2:1.0 3:2.0 4:3.0 5:8.0 6:5.0 7:1.0 12:1.0 28:1.0 91:1.0 92:1.0 
-0.0 0.6191516230487638 0.10650815609888631 0.10937562259968589 0.04371107056027624 2:1.0 3:2.0 4:1.0 5:6.0 6:6.0 7:1.0 12:1.0 93:1.0 94:1.0 
-0.0 0.43838416817104825 0.11916358163096628 0.07685034254468441 0.0 2:1.0 3:2.0 4:4.0 5:16.0 6:12.0 7:2.0 12:1.0 89:1.0 95:1.0 96:1.0 97:1.0 98:1.0 99:1.0 
-0.0 2.0 0.0 0.0 0.0 2:1.0 3:2.0 4:1.0 5:4.0 6:4.0 7:1.0 9:1.0 
-2.0 0.0 0.0 0.0 0.0 1:1.0 2:1.0 3:2.0 4:2.0 5:3.0 6:2.0 7:1.0 
-0.0 2.0 0.0 0.0 0.0 2:1.0 3:2.0 4:2.0 5:7.0 6:5.0 7:2.0 9:1.0 
-0.0 2.0 0.0 0.0 0.0 2:1.0 3:2.0 4:1.0 5:9.0 6:7.0 7:3.0 8:1.0 9:1.0 
-0.0 2.0 0.0 0.0 0.0 2:1.0 3:2.0 4:1.0 5:4.0 6:4.0 7:1.0 9:1.0 
-0.0 1.2676518007552866 0.5997635427381418 0.49785992358423037 0.21975477184225817 2:1.0 3:2.0 4:3.0 5:12.0 6:10.0 7:1.0 32:1.0 100:1.0 101:1.0 102:1.0 
-0.0 2.0 0.0 2.0 0.0 2:1.0 3:2.0 4:3.0 5:5.0 6:3.0 7:1.0 9:1.0 
-0.0 0.5436748129841692 0.10649518785129945 0.10918118990411683 0.04362721895912204 2:1.0 3:2.0 4:1.0 5:5.0 6:5.0 7:1.0 12:1.0 103:1.0 104:1.0 
-0.0 2.0 0.0 0.0 0.0 3:2.0 4:1.0 5:12.0 6:12.0 7:1.0 25:1.0 26:1.0 
-0.0 2.0 0.0 0.0 0.0 2:1.0 3:2.0 4:1.0 5:4.0 6:4.0 7:1.0 9:1.0 
-0.0 0.9498889228061007 0.6713972650824505 0.21915349085191005 0.08728978574487394 2:1.0 3:2.0 4:2.0 5:5.0 6:4.0 7:1.0 12:1.0 105:1.0 
-0.0 2.0 0.0 0.0 0.0 2:1.0 3:2.0 4:1.0 5:3.0 6:3.0 7:1.0 9:1.0 
-0.6210158738344546 0.0 0.5040404717638229 0.0 0.006348212910795418 1:1.0 2:1.0 3:2.0 4:1.0 5:3.0 6:2.0 7:1.0 88:1.0 
-0.0 2.0 0.27061460661591263 0.0 0.0 2:1.0 3:2.0 4:3.0 5:14.0 6:7.0 7:3.0 9:1.0 22:3.0 
-0.0 2.0 0.0 0.0 0.0 2:1.0 3:2.0 4:1.0 5:3.0 6:3.0 7:1.0 9:1.0 
-0.0 0.6748228020008458 0.2143183691464199 0.2206501406092676 0.0874995390738641 2:1.0 3:2.0 4:4.0 5:5.0 6:2.0 7:1.0 12:1.0 106:1.0 
-0.0 2.0 0.0 0.0 0.0 2:1.0 3:2.0 4:2.0 5:4.0 6:3.0 7:1.0 9:1.0 
-0.0 2.0 0.6402354430928261 0.0 0.0 2:1.0 3:2.0 4:3.0 5:10.0 6:6.0 7:3.0 9:1.0 
-0.0 0.0 0.0 2.0 0.0 3:2.0 4:1.0 5:6.0 6:4.0 7:3.0 9:1.0 21:1.0 
-0.0 2.0 0.0 2.0 2.0 2:1.0 3:2.0 4:2.0 5:9.0 6:8.0 7:1.0 9:1.0 
-0.0 2.0 0.0 2.0 2.0 2:1.0 3:2.0 4:1.0 5:10.0 6:10.0 7:1.0 9:1.0 
-0.0 2.0 2.0 2.0 2.0 2:1.0 3:2.0 4:1.0 5:11.0 6:11.0 7:1.0 9:1.0 
-0.0 2.0 0.0 0.0 2.0 2:1.0 3:2.0 4:1.0 5:7.0 6:7.0 7:1.0 9:1.0 
-0.0 2.0 0.0 0.0 0.0 2:1.0 3:2.0 4:1.0 5:4.0 6:4.0 7:1.0 9:1.0 
-2.0 0.0 0.0 0.0 0.0 1:1.0 2:1.0 3:2.0 4:1.0 5:3.0 6:3.0 7:1.0 
-0.0 2.0 0.0 0.0 0.0 2:1.0 3:2.0 4:2.0 5:4.0 6:3.0 7:1.0 9:1.0 
-2.0 2.0 1.4405098123338413 1.1477900856075056 2.0 2:1.0 3:2.0 4:1.0 5:9.0 6:8.0 7:1.0 9:1.0 11:1.0 
-0.0 2.0 0.0 0.0 0.0 2:1.0 3:2.0 4:1.0 5:4.0 6:4.0 7:1.0 9:1.0 
-0.0 0.8662835405150093 0.07128930354831786 0.07053132520005252 0.27129207119196264 2:1.0 3:2.0 4:3.0 5:6.0 6:3.0 7:2.0 12:1.0 107:1.0 108:1.0 
-2.0 0.0 0.0 0.0 0.0 2:1.0 3:2.0 4:1.0 5:2.0 6:2.0 7:1.0 9:1.0 
-0.0 0.0 0.0 0.8867644750333071 0.0 3:2.0 4:2.0 5:8.0 6:6.0 7:1.0 10:1.0 23:1.0 24:1.0 
-0.0 2.0 0.2695551906868847 0.8681301488730774 0.39269594824981274 2:1.0 3:2.0 4:1.0 5:9.0 6:8.0 7:2.0 12:1.0 13:1.0 109:1.0 110:1.0 
-0.0 0.35609864510187755 0.0 0.04279979155246166 0.0 2:1.0 3:2.0 4:3.0 5:9.0 6:7.0 7:1.0 12:1.0 111:1.0 112:1.0 113:1.0 
-0.0 0.6602496928508939 0.0 0.0 0.0 2:1.0 3:2.0 4:2.0 5:5.0 6:3.0 7:2.0 12:1.0 89:1.0 114:1.0 
-0.0 0.24419578626181754 0.0 0.0 1.137605880427604 3:2.0 4:1.0 5:10.0 6:10.0 7:1.0 26:1.0 48:1.0 
-0.4398975742746409 0.0 0.0 0.0 0.0 2:1.0 3:2.0 4:1.0 5:2.0 6:2.0 7:1.0 9:1.0 
-0.0 2.0 2.0 0.0 1.9982832139249413 2:1.0 3:2.0 4:3.0 5:13.0 6:9.0 7:3.0 9:1.0 
-0.0 2.0 0.0 0.0 0.0 2:1.0 3:2.0 4:1.0 5:6.0 6:6.0 7:1.0 9:1.0 
-0.0 0.0 0.009030642056059562 0.0 0.0 2:1.0 3:2.0 4:3.0 5:5.0 6:1.0 7:3.0 9:1.0 
-0.0 2.0 0.0 0.0 2.0 2:1.0 3:2.0 4:1.0 5:7.0 6:7.0 7:1.0 9:1.0 
-0.0 0.36852902127560844 0.05357771471492624 0.054575760163435925 0.021980513542810783 2:1.0 3:2.0 4:3.0 5:12.0 6:9.0 7:2.0 12:1.0 115:1.0 116:1.0 117:1.0 118:1.0 
-0.0 2.0 0.0 0.0 0.0 2:1.0 3:2.0 4:1.0 5:5.0 6:5.0 7:1.0 9:1.0 
-0.0 2.0 0.0 0.0 0.0 2:1.0 3:2.0 4:2.0 5:9.0 6:6.0 7:3.0 9:1.0 
-0.0 2.0 0.0 2.0 2.0 2:1.0 3:2.0 4:1.0 5:8.0 6:8.0 7:1.0 9:1.0 
-0.0 2.0 0.7202696237529921 1.4612889396159983 1.0170352295721268 2:1.0 3:2.0 4:1.0 5:9.0 6:7.0 7:2.0 12:1.0 28:1.0 89:1.0 119:1.0 120:1.0 
-0.2847399244409628 0.0 0.0 0.0 0.0 3:2.0 4:2.0 5:15.0 6:11.0 7:1.0 11:3.0 25:1.0 26:1.0 
-0.0 2.0 2.0 2.0 2.0 2:1.0 3:2.0 4:4.0 5:8.0 6:5.0 7:1.0 9:1.0 
-0.0 0.0032321894645734577 0.0 0.0 0.0 3:2.0 4:1.0 5:9.0 6:9.0 7:1.0 26:1.0 37:1.0 
-0.0 2.0 0.0 0.0 0.0 2:1.0 3:2.0 4:1.0 5:4.0 6:4.0 7:1.0 9:1.0 
-0.0 2.0 0.0 2.0 0.0 2:1.0 3:2.0 4:3.0 5:5.0 6:3.0 7:1.0 9:1.0 
-0.0 2.0 0.5187142155163703 1.3171420848313788 0.08755857802235 2:1.0 3:2.0 4:1.0 5:7.0 6:7.0 7:1.0 12:1.0 121:1.0 
-0.0 0.2696386592215752 0.12774468757661686 0.14299183230284843 0.16123112984764168 2:1.0 3:2.0 4:3.0 5:15.0 6:10.0 7:4.0 12:1.0 13:1.0 66:1.0 109:1.0 122:2.0 
-0.0 0.4662032553109065 0.35116962096880466 0.32702905958205497 0.2728618446755324 2:1.0 3:2.0 4:1.0 5:5.0 6:4.0 7:2.0 12:1.0 59:1.0 123:1.0 
-0.0 0.0 0.0 2.0 0.0 2:1.0 3:2.0 4:3.0 5:4.0 6:2.0 7:1.0 9:1.0 
-0.0 2.0 0.0 0.0 0.0 2:1.0 3:2.0 4:1.0 5:11.0 6:9.0 7:3.0 9:1.0 
-0.0 0.0 0.0 0.0 0.18712589160726992 2:1.0 3:2.0 4:2.0 5:2.0 6:1.0 7:1.0 9:1.0 
-0.0 1.0122033714547225 0.7997082346319493 0.7859103456232428 0.4387696413121904 2:1.0 3:2.0 4:1.0 5:6.0 6:6.0 7:1.0 124:1.0 125:1.0 
-0.0 2.0 2.0 0.0 2.0 2:1.0 3:2.0 4:1.0 5:14.0 6:12.0 7:3.0 9:1.0 
-0.0 0.46621906403717517 0.35117444035310885 0.32700303416895427 0.27271166855302387 2:1.0 3:2.0 4:1.0 5:5.0 6:4.0 7:2.0 12:1.0 59:1.0 126:1.0 
-0.0 1.6692356890562277 2.0 0.21799625462841946 0.08720801623732262 2:1.0 3:2.0 4:1.0 5:4.0 6:4.0 7:1.0 12:1.0 127:1.0 
-0.0 0.3427162849445843 0.6778077018296631 0.19661183772546476 0.5434091936556785 2:1.0 3:2.0 4:3.0 5:9.0 6:5.0 7:2.0 12:1.0 28:1.0 128:1.0 129:1.0 
-0.0 2.0 2.0 2.0 2.0 2:1.0 3:2.0 4:5.0 5:10.0 6:6.0 7:1.0 9:1.0 
-0.0 2.0 0.0 0.0 0.0 2:1.0 3:2.0 4:2.0 5:10.0 6:7.0 7:3.0 9:1.0 
-0.0 2.0 0.0 0.0 0.0 2:1.0 3:2.0 4:2.0 5:7.0 6:5.0 7:1.0 9:1.0 22:1.0 
-0.0 2.0 0.0 2.0 2.0 2:1.0 3:2.0 4:1.0 5:9.0 6:9.0 7:1.0 9:1.0 
-0.0 1.0774703240460952 0.0 0.0 0.0 2:1.0 3:2.0 4:1.0 5:8.0 6:6.0 7:3.0 9:1.0 
-0.0 2.0 0.0 0.0 0.0 2:1.0 3:2.0 4:1.0 5:4.0 6:4.0 7:1.0 9:1.0 
-0.0 0.6748170078389915 0.2143132373613455 0.220678507862204 0.08746834305948704 2:1.0 3:2.0 4:4.0 5:5.0 6:2.0 7:1.0 12:1.0 131:1.0 
-0.0 0.28386820604172186 0.34853532024888956 0.28554403130556577 1.0433660265954752 2:1.0 3:2.0 4:1.0 5:6.0 6:4.0 7:1.0 12:1.0 28:2.0 132:1.0 133:1.0 
-0.0 0.4690420517296743 1.170941419601523 0.7864438707426974 0.4388366243938698 2:1.0 3:2.0 4:3.0 5:5.0 6:3.0 7:1.0 114:1.0 134:1.0 
-2.0 0.0 0.0 0.0 0.0 2:1.0 3:2.0 4:1.0 5:5.0 6:4.0 7:1.0 9:1.0 11:1.0 
-0.0 0.9999908150920853 0.13576023414279054 0.1054344855500951 1.1389465353542818 3:2.0 4:1.0 5:15.0 6:15.0 7:1.0 26:1.0 76:1.0 
-0.0 0.0 2.0 0.0 2.0 2:1.0 3:2.0 4:3.0 5:3.0 6:1.0 7:1.0 9:1.0 
-2.0 0.8217898649133178 0.0 0.0 0.0 2:1.0 3:2.0 4:1.0 5:6.0 6:5.0 7:1.0 9:1.0 11:1.0 
-0.0 2.0 0.0 0.0 0.0 2:1.0 3:2.0 4:2.0 5:7.0 6:5.0 7:1.0 9:1.0 39:1.0 
-2.0 0.0 0.0 0.0 0.0 1:1.0 2:1.0 3:2.0 4:2.0 5:3.0 6:2.0 7:1.0 
-0.0 2.0 0.0 0.526802297621425 2.0 2:1.0 3:2.0 4:1.0 5:8.0 6:8.0 7:1.0 9:1.0 
-0.0 0.0 5.154898366382266E-4 0.0 0.0 3:2.0 4:1.0 5:4.0 6:3.0 7:1.0 11:1.0 26:1.0 135:1.0 
-0.0 0.0498905935276217 0.0536779500111566 0.053507348720652693 0.021606428812845323 2:1.0 3:2.0 4:5.0 5:8.0 6:2.0 7:3.0 12:1.0 136:1.0 137:1.0 138:1.0 139:1.0 
-0.0 0.0 0.10986791171605449 0.0 1.0784629624074404 3:2.0 4:5.0 5:12.0 6:8.0 7:1.0 26:1.0 37:1.0 
-0.0 0.560949858857793 0.45350873483511867 0.10717120936071231 0.11463240269311742 2:1.0 3:2.0 4:3.0 5:10.0 6:8.0 7:1.0 12:1.0 140:1.0 141:1.0 142:1.0 
-0.0 2.0 0.0 0.0 0.0 2:1.0 3:2.0 4:1.0 5:9.0 6:7.0 7:3.0 9:1.0 
-2.0 0.0 1.9439915060203965 0.0 0.02670333091481394 2:1.0 3:2.0 4:2.0 5:5.0 6:3.0 7:1.0 9:1.0 11:1.0 
-0.0 2.0 0.0 0.0 0.0 2:1.0 3:2.0 4:1.0 5:4.0 6:4.0 7:1.0 9:1.0 
-0.0 1.0874016617178954 0.21300363292662977 0.21833510254313687 0.08723494159357956 2:1.0 3:2.0 4:1.0 5:5.0 6:5.0 7:1.0 12:1.0 143:1.0 
-0.0 0.4183321085100013 0.319847422031743 0.31448410195583565 0.1755332475098382 2:1.0 3:2.0 4:1.0 5:7.0 6:7.0 7:1.0 144:1.0 145:1.0 146:1.0 
-0.0 0.0 0.0 2.0 0.0 3:2.0 4:1.0 5:8.0 6:5.0 7:3.0 9:1.0 21:1.0 22:1.0 
-0.0 2.0 0.0 0.0 0.0 2:1.0 3:2.0 4:1.0 5:3.0 6:3.0 7:1.0 9:1.0 
-0.0 0.4665620572235295 0.0 0.0 0.0 1:1.0 2:1.0 3:2.0 4:1.0 5:9.0 6:8.0 7:1.0 22:1.0 
-0.0 2.0 2.0 2.0 2.0 2:1.0 3:2.0 4:8.0 5:15.0 6:7.0 7:2.0 9:1.0 
-0.0 0.0 0.0 2.0 0.0 2:1.0 3:2.0 4:3.0 5:4.0 6:2.0 7:1.0 9:1.0 
-0.0 2.0 0.0 0.0 0.0 2:1.0 3:2.0 4:1.0 5:3.0 6:3.0 7:1.0 9:1.0 
-0.0 0.619144358745008 0.10651122413726681 0.10936977358431363 0.0437063276266168 2:1.0 3:2.0 4:1.0 5:6.0 6:6.0 7:1.0 12:1.0 147:1.0 148:1.0 
-0.0 2.0 0.0 2.0 0.0 2:1.0 3:2.0 4:3.0 5:5.0 6:3.0 7:1.0 9:1.0 
-0.0 2.0 0.0 0.0 0.0 2:1.0 3:2.0 4:1.0 5:3.0 6:3.0 7:1.0 9:1.0 
-0.0 2.0 0.0 0.0 1.7841201473130626 2:1.0 3:2.0 4:3.0 5:6.0 6:2.0 7:1.0 9:1.0 22:2.0 
-0.0 2.0 0.5190113708125625 2.0 0.08724393452534472 2:1.0 3:2.0 4:1.0 5:5.0 6:5.0 7:1.0 12:1.0 149:1.0 
-0.0 0.38066195310629597 0.15200608674957722 0.1299392237300894 0.36219055095691505 2:1.0 3:2.0 4:3.0 5:11.0 6:6.0 7:3.0 12:1.0 28:1.0 150:1.0 151:1.0 152:1.0 
-0.0 0.0 2.0 0.0 2.0 2:1.0 3:2.0 4:3.0 5:3.0 6:1.0 7:1.0 9:1.0 
-2.0 0.0 0.0 0.0 0.0 1:1.0 2:1.0 3:2.0 4:2.0 5:3.0 6:2.0 7:1.0 
-0.0 1.1208851395363677 0.10680898706692624 0.2192470439224853 0.0441745483507627 2:1.0 3:2.0 4:1.0 5:10.0 6:10.0 7:1.0 12:1.0 153:1.0 154:1.0 
-0.0 0.0 0.0 2.0 0.0 3:2.0 4:1.0 5:10.0 6:8.0 7:3.0 9:1.0 21:1.0 
-0.0 2.0 0.0 1.5734699797676663 0.499861557523248 1:1.0 2:1.0 3:2.0 4:1.0 5:10.0 6:10.0 7:1.0 
-0.0 2.0 0.0 2.0 2.0 2:1.0 3:2.0 4:1.0 5:10.0 6:10.0 7:1.0 9:1.0 
-0.0 0.48889139396658704 0.05383626357851543 0.055215956798478384 0.2835133149835345 2:1.0 3:2.0 4:4.0 5:16.0 6:12.0 7:2.0 12:1.0 155:1.0 156:1.0 157:1.0 158:1.0 
-0.0 2.0 0.0 0.0 0.0 2:1.0 3:2.0 4:1.0 5:5.0 6:5.0 7:1.0 9:1.0 
-0.0 2.0 0.0 0.0 0.0 2:1.0 3:2.0 4:1.0 5:5.0 6:5.0 7:1.0 9:1.0 
-0.0 2.0 0.0 2.0 2.0 2:1.0 3:2.0 4:2.0 5:9.0 6:8.0 7:1.0 9:1.0 
-0.0 0.0 2.0 1.1450638919481082 1.7765347072279494 2:1.0 3:2.0 4:3.0 5:3.0 6:1.0 7:1.0 9:1.0 
-0.0 0.0 0.10645261477249421 0.0 0.5454259361894935 3:2.0 4:4.0 5:9.0 6:5.0 7:1.0 26:1.0 159:1.0 160:1.0 
-0.0 0.5671109946010559 0.1505580452458212 0.0 0.0 3:2.0 4:1.0 5:3.0 6:3.0 7:1.0 8:1.0 12:1.0 35:1.0 
-0.0 2.0 2.0 2.0 2.0 2:1.0 3:2.0 4:2.0 5:11.0 6:10.0 7:1.0 9:1.0 
-0.0 0.3953420531133122 0.0 0.0 0.0 3:2.0 4:1.0 5:11.0 6:11.0 7:1.0 25:1.0 26:1.0 
-0.0 2.0 0.0 0.0 2.0 2:1.0 3:2.0 4:1.0 5:7.0 6:7.0 7:1.0 9:1.0 
-0.0 2.0 0.0 2.0 0.1138971778619007 2:1.0 3:2.0 4:2.0 5:7.0 6:6.0 7:1.0 9:1.0 
-0.0 0.4817386958359904 0.3198540576139435 0.31447680487108576 0.17558686553016406 2:1.0 3:2.0 4:1.0 5:7.0 6:7.0 7:1.0 144:1.0 161:1.0 162:1.0 
-0.0 2.0 0.0 0.0 0.0 3:2.0 4:1.0 5:11.0 6:11.0 7:1.0 25:1.0 26:1.0 
-0.0 0.6035915383838273 1.2523037927942676E-4 0.001474727497153064 2.648567674754615E-4 2:1.0 3:2.0 4:1.0 5:7.0 6:7.0 7:1.0 12:1.0 55:1.0 163:1.0 
-0.0 2.0 2.0 0.4034383274131267 2.0 2:1.0 3:2.0 4:2.0 5:26.0 6:23.0 7:3.0 9:1.0 
-0.0 2.0 0.0 0.0 0.0 2:1.0 3:2.0 4:1.0 5:6.0 6:6.0 7:1.0 9:1.0 
-2.0 0.0 0.0 0.0 0.0 2:1.0 3:2.0 4:1.0 5:5.0 6:4.0 7:1.0 9:1.0 11:1.0 
-0.0 2.0 0.0 0.0 0.0 2:1.0 3:2.0 4:1.0 5:6.0 6:6.0 7:1.0 9:1.0 
-1.8454982169286098 2.0 0.456446665510937 2.0 2.0 2:1.0 3:2.0 4:1.0 5:10.0 6:9.0 7:1.0 9:1.0 10:1.0 
-2.0 2.0 2.0 2.0 2.0 2:1.0 3:2.0 4:1.0 5:11.0 6:10.0 7:1.0 9:1.0 11:1.0 
-0.0 1.360997717789437 0.6596768085223386 0.5245358829566397 0.6532733633714859 2:1.0 3:2.0 4:3.0 5:7.0 6:5.0 7:1.0 164:1.0 165:1.0 166:1.0 
-0.0 2.0 0.0 0.0 0.0 2:1.0 3:2.0 4:1.0 5:3.0 6:3.0 7:1.0 9:1.0 
-0.0 0.6880849842812299 0.32182837354345123 0.0 0.31377437410543435 2:1.0 3:2.0 4:5.0 5:21.0 6:13.0 7:2.0 12:1.0 22:1.0 28:2.0 95:1.0 96:1.0 167:1.0 168:1.0 169:1.0 170:1.0 
-0.0 0.0 2.0 0.0 0.0 2:1.0 3:2.0 4:5.0 5:19.0 6:10.0 7:6.0 9:1.0 
-0.08205603528233926 0.9352749153927127 0.7841335555161834 0.5811261933203978 0.49672249409089597 3:2.0 4:1.0 5:5.0 6:5.0 7:1.0 8:1.0 14:1.0 171:1.0 
-2.0 1.688602890151173 0.0 0.0 0.0 2:1.0 3:2.0 4:1.0 5:6.0 6:5.0 7:1.0 9:1.0 11:1.0 
-0.0 2.0 0.0 0.0 0.0 2:1.0 3:2.0 4:1.0 5:5.0 6:5.0 7:1.0 9:1.0 
-0.0 0.7856705253148228 0.21309249873837238 0.21772955886491185 0.08719856386572267 2:1.0 3:2.0 4:1.0 5:3.0 6:3.0 7:1.0 12:1.0 172:1.0 
-0.0 2.0 0.015289484743591849 0.0 0.0 2:1.0 3:2.0 4:1.0 5:8.0 6:7.0 7:2.0 12:1.0 55:1.0 
-0.0 2.0 0.0 2.0 2.0 2:1.0 3:2.0 4:1.0 5:10.0 6:10.0 7:1.0 9:1.0 
-0.0 0.0 0.1377136126121208 0.0 1.1399898082434994 3:2.0 4:1.0 5:20.0 6:17.0 7:1.0 11:3.0 25:1.0 26:1.0 
-0.0 2.0 0.0 2.0 0.005744609479639755 2:1.0 3:2.0 4:3.0 5:6.0 6:4.0 7:1.0 9:1.0 
-0.0 2.0 1.2047843016751365 0.0 0.45839915244336277 2:1.0 3:2.0 4:1.0 5:10.0 6:8.0 7:2.0 9:1.0 49:1.0 
-0.0 2.0 0.0 0.0 2.0 2:1.0 3:2.0 4:1.0 5:7.0 6:7.0 7:1.0 9:1.0 
-0.0 0.24855124126642453 0.0715717875866171 0.40655492313455005 0.029083087141516174 2:1.0 3:2.0 4:5.0 5:9.0 6:4.0 7:2.0 12:1.0 173:1.0 174:1.0 175:1.0 
-0.0 2.0 0.0 0.0 0.0 2:1.0 3:2.0 4:2.0 5:4.0 6:3.0 7:1.0 9:1.0 
-0.0 0.0 0.0 1.043569498025805 2.0 2:1.0 3:2.0 4:1.0 5:3.0 6:2.0 7:1.0 9:1.0 49:1.0 
-2.0 0.0 0.0 0.0 0.0 2:1.0 3:2.0 4:1.0 5:7.0 6:4.0 7:3.0 9:1.0 11:1.0 
-2.0 0.0 0.0 0.0 0.0 1:1.0 2:1.0 3:2.0 4:1.0 5:5.0 6:3.0 7:1.0 11:1.0 49:1.0 
-0.28110131036847513 0.0 0.0 0.0 0.0 3:2.0 4:1.0 5:6.0 6:4.0 7:1.0 11:2.0 26:1.0 27:1.0 
-0.0 2.0 0.0 0.0 0.0 2:1.0 3:2.0 4:1.0 5:4.0 6:4.0 7:1.0 9:1.0 
-0.0 0.8351957695653482 0.32034405420433343 0.314774849939226 0.2696208712667194 2:1.0 3:2.0 4:4.0 5:16.0 6:12.0 7:2.0 176:1.0 177:1.0 178:1.0 179:1.0 180:1.0 
-0.0 2.0 0.0 0.0 0.0 2:1.0 3:2.0 4:1.0 5:3.0 6:3.0 7:1.0 9:1.0 
-0.0 1.1899246402577275 0.0 0.0 0.0 2:1.0 3:2.0 4:7.0 5:14.0 6:5.0 7:3.0 9:1.0 160:1.0 
-0.0 1.1970620080241237 1.073309045273957 0.6367705027991055 0.11456194814171726 2:1.0 3:2.0 4:1.0 5:7.0 6:6.0 7:1.0 39:1.0 167:1.0 181:1.0 182:1.0 
-0.0 0.28481770880542395 0.2353664956871407 0.09361748551808506 0.4142915191234696 2:1.0 3:2.0 4:1.0 5:12.0 6:10.0 7:1.0 9:1.0 183:2.0 
-0.0 0.0 0.13463174331354055 0.1023627886101499 1.1369190482619618 3:2.0 4:1.0 5:8.0 6:8.0 7:1.0 26:1.0 130:1.0 
-0.0 2.0 0.0 0.0 0.0 2:1.0 3:2.0 4:1.0 5:6.0 6:6.0 7:1.0 9:1.0 
-0.0 2.0 0.0 0.0 2.0 2:1.0 3:2.0 4:1.0 5:7.0 6:7.0 7:1.0 9:1.0 
-0.0 2.0 0.0 0.0 2.0 2:1.0 3:2.0 4:1.0 5:7.0 6:7.0 7:1.0 9:1.0 
-0.0 2.0 0.0 0.0 0.0 2:1.0 3:2.0 4:1.0 5:3.0 6:3.0 7:1.0 9:1.0 
-2.0 0.6128828577989633 0.4107777159013094 2.0 0.6056754917401808 2:1.0 3:2.0 4:2.0 5:10.0 6:7.0 7:2.0 9:1.0 10:1.0 
-0.0 0.6347577335621933 0.21326738603477086 0.2176655764364802 0.087239885396254 2:1.0 3:2.0 4:1.0 5:2.0 6:2.0 7:1.0 12:1.0 184:1.0 
-0.0 2.0 0.0 0.0 0.0 2:1.0 3:2.0 4:1.0 5:3.0 6:3.0 7:1.0 9:1.0 
-0.0 1.021284096399176 0.21306538999642124 0.21773295217029198 0.0871993400488542 2:1.0 3:2.0 4:1.0 5:3.0 6:3.0 7:1.0 12:1.0 185:1.0 
-0.1023028739363203 0.0 0.0 0.0 0.0 2:1.0 3:2.0 4:1.0 5:2.0 6:2.0 7:1.0 9:1.0 
-0.0 2.0 0.0 2.0 2.0 2:1.0 3:2.0 4:1.0 5:9.0 6:9.0 7:1.0 9:1.0 
-0.0 2.0 0.0 0.0 0.0 2:1.0 3:2.0 4:1.0 5:3.0 6:3.0 7:1.0 9:1.0 
-0.0 0.8310307955441898 0.5331707735851408 0.5636663204546007 0.2925736297837241 2:1.0 3:2.0 4:1.0 5:7.0 6:7.0 7:1.0 186:1.0 187:1.0 188:1.0 
-0.0 1.7433828338386013 0.052423849940925984 0.8891350223220026 0.0 2:1.0 3:2.0 4:2.0 5:8.0 6:6.0 7:1.0 12:1.0 28:1.0 72:1.0 73:1.0 189:1.0 
-0.0 2.0 1.8103572377248385 1.649625972629116 2.0 2:1.0 3:2.0 4:2.0 5:10.0 6:7.0 7:2.0 50:1.0 190:1.0 
-0.0 2.0 0.0 0.0 0.0 2:1.0 3:2.0 4:1.0 5:3.0 6:3.0 7:1.0 9:1.0 
-0.0 0.0 0.10317319744022391 0.0 0.0 3:2.0 4:3.0 5:7.0 6:4.0 7:1.0 11:1.0 26:1.0 48:1.0 
-0.0 2.0 2.0 0.0 2.0 2:1.0 3:2.0 4:3.0 5:13.0 6:10.0 7:2.0 9:1.0 
-0.0 0.634765299459238 0.21328060166323723 0.21767283402982296 0.08720082745042637 2:1.0 3:2.0 4:1.0 5:2.0 6:2.0 7:1.0 12:1.0 191:1.0 
-0.0 0.0 0.0 0.12581984108860403 0.0 3:2.0 4:4.0 5:9.0 6:4.0 7:1.0 10:1.0 26:1.0 48:1.0 160:1.0 
-0.0 0.5637273101764384 0.17249754645653617 0.14141265222201543 0.043870041107072155 2:1.0 3:2.0 4:4.0 5:8.0 6:5.0 7:1.0 12:1.0 192:1.0 193:1.0 
-0.0 0.9445098207045666 0.486744176880258 1.8361924986021756 0.31495577187030455 2:1.0 3:2.0 4:1.0 5:3.0 6:3.0 7:1.0 12:1.0 55:1.0 
-0.0 2.0 0.0 0.0 0.0 2:1.0 3:2.0 4:1.0 5:4.0 6:4.0 7:1.0 9:1.0 
-0.0 2.0 0.0 0.0 0.0 2:1.0 3:2.0 4:2.0 5:4.0 6:3.0 7:1.0 9:1.0 
-0.0 2.0 0.0 2.0 2.0 2:1.0 3:2.0 4:1.0 5:9.0 6:9.0 7:1.0 9:1.0 
-0.0 2.0 0.04779057686660942 0.0 0.0 2:1.0 3:2.0 4:1.0 5:10.0 6:7.0 7:3.0 9:1.0 49:1.0 
-0.0 2.0 0.3224940545764003 0.4621872205431859 0.04391984954524453 2:1.0 3:2.0 4:1.0 5:8.0 6:8.0 7:1.0 12:1.0 194:1.0 195:1.0 
-0.0 0.3049947834014792 0.23240756639639487 0.1884118334673935 0.0 2:1.0 3:2.0 4:3.0 5:14.0 6:7.0 7:3.0 11:1.0 12:1.0 22:1.0 28:1.0 95:1.0 96:1.0 170:1.0 196:1.0 197:1.0 
-0.0 2.0 0.0 0.0 2.0 2:1.0 3:2.0 4:1.0 5:7.0 6:7.0 7:1.0 9:1.0 
-0.0 2.0 0.0 0.0 0.0 2:1.0 3:2.0 4:1.0 5:4.0 6:4.0 7:1.0 9:1.0 
-0.0 0.6927159123957695 0.6882297764479247 0.5254464400153449 0.2927815553044401 2:1.0 3:2.0 4:5.0 5:10.0 6:6.0 7:1.0 198:1.0 199:1.0 200:1.0 
-0.0 1.459204633441186 0.0 0.0 0.0 2:1.0 3:2.0 4:1.0 5:8.0 6:6.0 7:3.0 9:1.0 
-0.0 1.3815249284706823 0.31879070761916534 0.5920040780604751 0.2889626542294782 2:1.0 3:2.0 4:1.0 5:9.0 6:8.0 7:2.0 59:1.0 201:1.0 202:1.0 203:1.0 
-0.0 2.0 0.0 0.0 0.0 2:1.0 3:2.0 4:1.0 5:3.0 6:3.0 7:1.0 9:1.0 
-0.0 0.6522423134299088 0.4883266027178162 0.44114819782627535 0.46974397893155845 2:1.0 3:2.0 4:2.0 5:13.0 6:11.0 7:1.0 28:1.0 204:1.0 205:1.0 206:1.0 207:1.0 
-0.0 0.5436671089431868 0.10650213036149643 0.11829213762162377 0.04362592159252235 2:1.0 3:2.0 4:1.0 5:5.0 6:5.0 7:1.0 12:1.0 208:1.0 209:1.0 
-2.0 2.0 0.0 0.0 1.683750959929619 2:1.0 3:2.0 4:1.0 5:7.0 6:6.0 7:1.0 9:1.0 11:1.0 
-0.0 0.0 0.0 0.3589532965383944 0.0 3:2.0 4:1.0 5:10.0 6:9.0 7:2.0 8:1.0 23:1.0 24:1.0 210:1.0 211:1.0 
-0.0 2.0 0.0 0.0 2.0 2:1.0 3:2.0 4:1.0 5:7.0 6:7.0 7:1.0 9:1.0 
-0.0 2.0 0.0 0.0 0.0 2:1.0 3:2.0 4:1.0 5:6.0 6:6.0 7:1.0 9:1.0 
-0.0 0.0 0.1346423557697019 0.10545336970367673 1.1371051132630083 3:2.0 4:2.0 5:1.0 6:1.0 26:1.0 135:1.0 
-0.0 0.26185327994462326 0.0 0.0 0.12789007745085657 2:1.0 3:2.0 4:1.0 5:8.0 6:6.0 7:3.0 12:1.0 47:1.0 59:1.0 212:1.0 
-0.0 0.0 0.0 2.0 0.0 3:2.0 4:1.0 5:7.0 6:7.0 7:1.0 9:1.0 21:1.0 
-0.0 0.0 0.0 2.0 0.0 2:1.0 3:2.0 4:3.0 5:4.0 6:2.0 7:1.0 9:1.0 
-0.0 0.0 0.3512383106586197 0.31931625591966817 0.2716559950409116 2:1.0 3:2.0 4:1.0 5:7.0 6:4.0 7:4.0 12:1.0 59:1.0 214:1.0 
-0.0 2.0 0.2130671290415612 0.21773551744125458 0.08719053621249895 2:1.0 3:2.0 4:1.0 5:3.0 6:3.0 7:1.0 12:1.0 215:1.0 
-0.0 0.6572389312216648 0.10661049631623848 0.10571347422945976 0.0432588253833143 2:1.0 3:2.0 4:1.0 5:9.0 6:7.0 7:3.0 12:1.0 216:1.0 217:1.0 
-0.0 0.0 0.6373850351199074 0.5630695366940491 1.7597298920564253 2:1.0 3:2.0 4:1.0 5:3.0 6:2.0 7:1.0 9:1.0 49:1.0 
-0.0 2.0 0.0 0.0 0.0 2:1.0 3:2.0 4:1.0 5:3.0 6:3.0 7:1.0 9:1.0 
-0.0 0.0 0.032399514050306874 0.0 0.0 3:2.0 4:3.0 5:10.0 6:8.0 7:1.0 26:1.0 48:1.0 
-0.0 2.0 0.21309859466908032 0.21773130560713932 0.08719561120004327 2:1.0 3:2.0 4:1.0 5:3.0 6:3.0 7:1.0 12:1.0 218:1.0 
-0.0 2.0 0.0 0.0 0.0 2:1.0 3:2.0 4:1.0 5:4.0 6:4.0 7:1.0 9:1.0 
-0.0 0.9323211371774753 0.10693258541082808 0.11028961155082942 0.043779239696971645 2:1.0 3:2.0 4:3.0 5:7.0 6:5.0 7:1.0 12:1.0 219:1.0 220:1.0 
-0.0 2.0 0.0 0.0 2.0 2:1.0 3:2.0 4:1.0 5:7.0 6:7.0 7:1.0 9:1.0 
-0.0 0.7856776382836796 0.21310033538335205 0.21773108887231454 0.08719655060947186 2:1.0 3:2.0 4:1.0 5:3.0 6:3.0 7:1.0 12:1.0 221:1.0 
-0.0 0.7231057674800777 0.3713676003137974 0.01022074873918749 0.31969151168726945 2:1.0 3:2.0 4:3.0 5:16.0 6:8.0 7:4.0 12:1.0 22:2.0 28:1.0 59:1.0 170:1.0 222:1.0 223:1.0 
-0.0 2.0 0.0 0.19928086853482405 2.0 2:1.0 3:2.0 4:1.0 5:8.0 6:8.0 7:1.0 9:1.0 
-0.0 2.0 0.0 0.0 0.0 2:1.0 3:2.0 4:1.0 5:5.0 6:5.0 7:1.0 9:1.0 
-0.0 1.1337603505179699 0.2131860845152484 0.0 0.08721025425298255 2:1.0 3:2.0 4:2.0 5:4.0 6:2.0 7:1.0 12:1.0 22:1.0 224:1.0 
-0.0 0.6347579368667678 0.21326913666119282 0.21767306327309388 0.08726604469211058 2:1.0 3:2.0 4:1.0 5:2.0 6:2.0 7:1.0 12:1.0 225:1.0 
-0.0 1.018883050967831 0.7998911184036251 0.7864317319249841 0.4388284238954747 2:1.0 3:2.0 4:2.0 5:7.0 6:6.0 7:1.0 226:1.0 227:1.0 
-0.0 1.2614236399239778 0.0712909228623695 0.07480754797645647 0.27208305993683807 2:1.0 3:2.0 4:3.0 5:6.0 6:4.0 7:1.0 12:1.0 108:1.0 228:1.0 
-0.0 0.7990057125161536 0.2133905046853295 0.21888796809246389 0.08727300265602637 2:1.0 3:2.0 4:2.0 5:4.0 6:3.0 7:1.0 12:1.0 229:1.0 
-0.0 2.0 0.0 0.0 0.0 2:1.0 3:2.0 4:2.0 5:5.0 6:4.0 7:1.0 9:1.0 
-0.0 2.0 0.0 0.0 0.0 2:1.0 3:2.0 4:1.0 5:3.0 6:3.0 7:1.0 9:1.0 
-0.0 0.6946363947624832 0.10654182024731036 0.1095997079432893 0.04377006669139811 2:1.0 3:2.0 4:1.0 5:7.0 6:7.0 7:1.0 12:1.0 230:1.0 231:1.0 
-0.6035537210403484 0.0 0.0 0.0 2.0 2:1.0 3:2.0 4:1.0 5:2.0 6:2.0 7:1.0 9:1.0 
-2.0 0.0 0.05322830618653484 0.0 0.11925362463336575 2:1.0 3:2.0 4:1.0 5:3.0 6:2.0 7:1.0 9:1.0 18:1.0 
-0.0 2.0 0.0 2.0 0.0 2:1.0 3:2.0 4:3.0 5:5.0 6:3.0 7:1.0 9:1.0 
-0.0 0.5729878597294621 0.14368154888152604 0.394655019128036 0.2199409846939669 3:2.0 4:5.0 5:13.0 6:8.0 7:2.0 8:1.0 181:1.0 232:1.0 233:1.0 234:1.0 
-0.0 2.0 0.0 0.0 2.0 2:1.0 3:2.0 4:1.0 5:7.0 6:7.0 7:1.0 9:1.0 
-0.0 0.4105642210187451 0.433107054456544 0.1045704675157613 0.04323728004728627 2:1.0 3:2.0 4:2.0 5:12.0 6:8.0 7:4.0 12:1.0 235:1.0 236:1.0 
-0.0 2.0 0.0 0.0 0.0 2:1.0 3:2.0 4:1.0 5:10.0 6:8.0 7:3.0 9:1.0 
-0.0 2.0 0.0 1.994189905971406 0.0 2:1.0 3:2.0 4:2.0 5:7.0 6:6.0 7:1.0 9:1.0 
-0.0 0.0 0.0 0.0 1.385960798755737 2:1.0 3:2.0 4:1.0 5:2.0 6:2.0 7:1.0 9:1.0 
-0.0 1.9853275633246976 0.9010674330010164 0.8490947239981625 0.1967295573896131 2:1.0 3:2.0 4:6.0 5:13.0 6:8.0 7:1.0 196:1.0 202:1.0 237:1.0 
-0.0 0.6480976488662452 0.21351262207644564 0.21868507974699608 0.08726760807153303 2:1.0 3:2.0 4:2.0 5:3.0 6:2.0 7:1.0 12:1.0 238:1.0 
-0.0 2.0 0.0 0.0 0.0 2:1.0 3:2.0 4:1.0 5:7.0 6:6.0 7:2.0 9:1.0 
-0.16919322093873096 0.0 0.0 0.0 0.0 1:1.0 2:1.0 3:2.0 4:2.0 5:5.0 6:4.0 7:1.0 
-0.0 0.6347557705353204 0.213273361794771 0.2176656667697024 0.08720640817127258 2:1.0 3:2.0 4:1.0 5:2.0 6:2.0 7:1.0 12:1.0 239:1.0 
-0.0 2.0 0.0 0.0 0.0 2:1.0 3:2.0 4:1.0 5:3.0 6:3.0 7:1.0 9:1.0 
-0.9248055063225114 0.0 0.0 0.0 0.0 3:2.0 4:1.0 5:10.0 6:6.0 7:2.0 11:3.0 23:1.0 24:1.0 
-0.0 0.24148551051493589 0.1630179887161894 0.04650352204022753 0.16547524396142582 2:1.0 3:2.0 4:3.0 5:11.0 6:7.0 7:1.0 12:1.0 28:1.0 111:1.0 112:1.0 160:1.0 240:1.0 
-0.0 2.0 2.0 2.0 2.0 2:1.0 3:2.0 4:1.0 5:10.0 6:9.0 7:1.0 9:1.0 49:1.0 
-0.0 0.9468582342469234 0.18221702000815904 0.0 0.2032443956446022 3:2.0 4:2.0 5:5.0 6:4.0 7:1.0 8:1.0 12:1.0 241:1.0 
-0.0 0.30633245260745845 0.11711317356781972 0.5824982059186146 0.09107869247301313 2:1.0 3:2.0 4:1.0 5:8.0 6:7.0 7:2.0 12:1.0 59:1.0 242:1.0 243:1.0 244:1.0 
-0.0 1.4063141900150709 0.6900499818152999 0.6863050516391996 0.2927898681073735 2:1.0 3:2.0 4:3.0 5:10.0 6:8.0 7:1.0 245:1.0 246:1.0 247:1.0 
-0.0 0.0 2.0 1.781800572716111 1.3756105069234887 2:1.0 3:2.0 4:3.0 5:3.0 6:1.0 7:1.0 9:1.0 
-0.0 0.0 0.21371576734492007 0.0 0.0 2:1.0 3:2.0 4:2.0 5:5.0 6:3.0 7:1.0 12:1.0 39:1.0 84:1.0 
-2.0 0.0 0.0 0.0 0.0 1:1.0 2:1.0 3:2.0 4:2.0 5:3.0 6:2.0 7:1.0 
-0.0 0.0 1.0747203797545907E-4 0.0 0.0 3:2.0 4:2.0 5:12.0 6:10.0 7:1.0 11:1.0 26:1.0 76:1.0 
-0.0 0.0 0.13452141065879786 0.10194900476403129 1.1366800001285462 3:2.0 4:1.0 5:7.0 6:7.0 7:1.0 26:1.0 248:1.0 
-1.2245329746641755 0.0 0.0 0.0 0.008379893256405247 2:1.0 3:2.0 4:1.0 5:6.0 6:4.0 7:1.0 9:1.0 11:1.0 22:1.0 
-0.0 2.0 0.0 0.0 0.0 2:1.0 3:2.0 4:1.0 5:3.0 6:3.0 7:1.0 9:1.0 
-0.0 2.0 2.0 2.0 2.0 2:1.0 3:2.0 4:4.0 5:21.0 6:16.0 7:2.0 9:1.0 11:1.0 
-2.0 0.0 0.006806269814522552 0.0 0.0 1:1.0 2:1.0 3:2.0 4:3.0 5:10.0 6:5.0 7:3.0 11:1.0 
-0.0 2.0 0.0 0.0 0.0 2:1.0 3:2.0 4:2.0 5:6.0 6:5.0 7:1.0 9:1.0 
-0.0 0.5193889676495507 0.0 2.0 0.4077614123235837 3:2.0 4:3.0 5:9.0 6:7.0 7:1.0 9:1.0 21:1.0 
-2.0 0.0 0.0 0.0 3.9529950503583216E-4 2:1.0 3:2.0 4:1.0 5:3.0 6:2.0 7:2.0 8:1.0 9:1.0 
-0.0 2.0 0.0 0.0 2.0 2:1.0 3:2.0 4:1.0 5:8.0 6:8.0 7:1.0 9:1.0 
-0.0 0.0 0.0 0.0 1.7383060542794095 2:1.0 3:2.0 4:1.0 5:2.0 6:2.0 7:1.0 9:1.0 
-0.0 0.9365891677116388 0.2130270248753493 0.21800082076929048 0.08720754994279432 2:1.0 3:2.0 4:1.0 5:4.0 6:4.0 7:1.0 12:1.0 249:1.0 
-0.0 2.0 0.0 0.0 0.0 2:1.0 3:2.0 4:3.0 5:9.0 6:6.0 7:2.0 9:1.0 
-0.0 2.0 2.0 0.0 2.0 2:1.0 3:2.0 4:1.0 5:17.0 6:14.0 7:4.0 9:1.0 
-0.0 1.085791069775368 0.21444377354663677 0.222757183602824 0.08780240507251379 2:1.0 3:2.0 4:3.0 5:8.0 6:5.0 7:1.0 12:1.0 49:1.0 250:1.0 
-0.0 2.0 0.0 2.0 2.0 2:1.0 3:2.0 4:1.0 5:10.0 6:10.0 7:1.0 9:1.0 
-0.13960187477939573 0.17387687337343152 0.3200774412579429 0.31427716157650065 0.17553070169420118 2:1.0 3:2.0 4:1.0 5:7.0 6:6.0 7:1.0 11:1.0 144:1.0 251:1.0 252:1.0 
-0.0 0.5076423250474579 0.0 0.0 0.0 2:1.0 3:2.0 4:3.0 5:7.0 6:5.0 7:1.0 12:1.0 101:1.0 144:1.0 
-0.0 2.0 0.0 0.0 0.0 3:2.0 4:2.0 5:18.0 6:16.0 7:1.0 11:1.0 25:1.0 26:1.0 
-0.0 2.0 2.0 2.0 2.0 2:1.0 3:2.0 4:1.0 5:15.0 6:15.0 7:1.0 9:1.0 
-0.0 2.0 0.0 0.0 2.0 2:1.0 3:2.0 4:1.0 5:7.0 6:7.0 7:1.0 9:1.0 
-0.0 0.5702876851371922 0.2668477376881699 0.26271585838104106 0.14653892972788385 2:1.0 3:2.0 4:3.0 5:13.0 6:11.0 7:1.0 253:1.0 254:2.0 255:1.0 
-0.0 2.0 1.4713575467393365 2.0 2.0 2:1.0 3:2.0 4:3.0 5:9.0 6:7.0 7:1.0 9:1.0 
-0.15624994947701762 0.0 0.0 0.0 0.0 1:1.0 2:1.0 3:2.0 4:2.0 5:5.0 6:2.0 7:3.0 
-0.0 0.0 0.0 0.48702016889543437 0.08175487505617376 3:2.0 4:1.0 5:8.0 6:5.0 7:3.0 9:1.0 21:1.0 88:1.0 
-0.0 2.0 0.0 0.0 0.0 2:1.0 3:2.0 4:1.0 5:5.0 6:5.0 7:1.0 9:1.0 
-0.0 2.0 0.0 0.0 0.0 2:1.0 3:2.0 4:2.0 5:9.0 6:6.0 7:3.0 9:1.0 
-0.0 0.0 0.0 2.0 0.0 3:2.0 4:1.0 5:4.0 6:4.0 7:1.0 9:1.0 21:1.0 
-0.0 0.0 0.0 0.0 2.0 2:1.0 3:2.0 4:1.0 5:2.0 6:2.0 7:1.0 9:1.0 
-0.0 2.0 0.0 0.0 0.0 2:1.0 3:2.0 4:1.0 5:4.0 6:4.0 7:1.0 9:1.0 
-0.0 2.0 1.0820383031203655 0.0 0.37239087034784185 1:1.0 2:1.0 3:2.0 4:1.0 5:15.0 6:13.0 7:3.0 
-0.0 2.0 1.1912430530682536 0.0 1.000570046591173 3:2.0 4:1.0 5:22.0 6:22.0 7:1.0 23:1.0 24:1.0 
-0.0 0.0 0.0 0.0 1.0443390449430985 2:1.0 3:2.0 4:1.0 5:2.0 6:2.0 7:1.0 9:1.0 
-0.0 2.0 0.0 0.0 0.0 2:1.0 3:2.0 4:1.0 5:3.0 6:3.0 7:1.0 9:1.0 
-0.0 0.785677144148963 0.21309564725710559 0.21775110243520698 0.0871957891151552 2:1.0 3:2.0 4:1.0 5:3.0 6:3.0 7:1.0 12:1.0 256:1.0 
-0.0 2.0 2.0 2.0 2.0 2:1.0 3:2.0 4:4.0 5:8.0 6:5.0 7:1.0 9:1.0 
-0.0 0.34662433322714353 0.05410610792002804 0.07272669712908977 0.0 2:1.0 3:2.0 4:6.0 5:14.0 6:9.0 7:1.0 12:1.0 141:1.0 257:1.0 258:1.0 259:1.0 
-0.0 0.9631166558210218 0.21384896907250495 0.22017275633198038 0.08750415730380225 2:1.0 3:2.0 4:3.0 5:6.0 6:4.0 7:1.0 12:1.0 260:1.0 
-0.0 2.0 0.0 0.0 0.12878253233989617 2:1.0 3:2.0 4:2.0 5:13.0 6:9.0 7:4.0 8:1.0 9:1.0 
-2.0 0.0 0.0 0.0 0.0 2:1.0 3:2.0 4:1.0 5:5.0 6:4.0 7:1.0 9:1.0 11:1.0 
-0.0 0.7094598081962826 0.22789954372307394 0.19857189610336742 0.5437278153223047 2:1.0 3:2.0 4:3.0 5:8.0 6:5.0 7:1.0 12:1.0 28:1.0 261:1.0 262:1.0 
-1.8212288092675681 0.0 0.0 0.0 0.0 1:1.0 2:1.0 3:2.0 4:2.0 5:5.0 6:4.0 7:1.0 
-0.0 0.0 0.0 0.29993820653556025 0.0 3:2.0 4:4.0 5:12.0 6:7.0 7:1.0 10:1.0 11:1.0 25:1.0 26:1.0 
-0.0 2.0 0.0 0.0 0.0 2:1.0 3:2.0 4:1.0 5:3.0 6:3.0 7:1.0 9:1.0 
-0.0 2.0 0.0 2.0 0.0 2:1.0 3:2.0 4:3.0 5:6.0 6:4.0 7:1.0 9:1.0 
-0.9228484838751135 0.0 1.157757863998378 0.6681817140213313 4.3845666262637927E-4 2:1.0 3:2.0 4:5.0 5:15.0 6:6.0 7:5.0 8:1.0 9:1.0 10:1.0 
-0.0 2.0 0.0 0.0 0.0 2:1.0 3:2.0 4:1.0 5:3.0 6:3.0 7:1.0 9:1.0 
-0.0 2.0 0.0 0.0 0.0 2:1.0 3:2.0 4:1.0 5:6.0 6:6.0 7:1.0 9:1.0 
-0.0 2.0 0.0 0.0 0.0 2:1.0 3:2.0 4:1.0 5:11.0 6:9.0 7:3.0 9:1.0 
-2.0 0.0 0.0 2.0 1.8958287587672957 2:1.0 3:2.0 4:2.0 5:5.0 6:3.0 7:1.0 9:1.0 10:1.0 
-0.0 2.0 0.0 0.0 0.0 2:1.0 3:2.0 4:1.0 5:4.0 6:4.0 7:1.0 9:1.0 
-0.0 2.0 0.0 0.0 0.0 2:1.0 3:2.0 4:1.0 5:4.0 6:4.0 7:1.0 9:1.0 
-0.0 0.6913235221932782 0.1422489099962854 0.3743851606756873 0.0 2:1.0 3:2.0 4:1.0 5:8.0 6:8.0 7:1.0 12:1.0 119:1.0 264:1.0 265:1.0 
-0.0 2.0 0.0 2.0 2.0 2:1.0 3:2.0 4:1.0 5:9.0 6:9.0 7:1.0 9:1.0 
-0.0 1.0873426237699921 0.8654289235965584 0.2183332006083005 0.08724336621018973 2:1.0 3:2.0 4:1.0 5:5.0 6:5.0 7:1.0 12:1.0 266:1.0 
-0.0 0.6921728714743411 0.2129904498173101 0.2140947782314789 0.08661758230152315 2:1.0 3:2.0 4:1.0 5:5.0 6:4.0 7:2.0 12:1.0 267:1.0 
-0.0 2.0 0.0 2.0 2.0 2:1.0 3:2.0 4:2.0 5:8.0 6:7.0 7:1.0 9:1.0 
-2.0 0.0 0.007846357584463073 0.0 0.0 1:1.0 2:1.0 3:2.0 4:2.0 5:12.0 6:9.0 7:2.0 11:1.0 
-0.0 2.0 1.7629453477943717 2.0 2.0 2:1.0 3:2.0 4:3.0 5:9.0 6:7.0 7:1.0 9:1.0 
-0.0 2.0 0.0 0.0 0.0 2:1.0 3:2.0 4:2.0 5:4.0 6:3.0 7:1.0 9:1.0 
-0.0 2.0 2.0 2.0 2.0 2:1.0 3:2.0 4:3.0 5:12.0 6:10.0 7:1.0 9:1.0 
-0.0 -0.0 0.044794055580953805 0.0 0.0 2:1.0 3:2.0 4:3.0 5:14.0 6:9.0 7:3.0 22:1.0 268:1.0 269:1.0 270:1.0 271:1.0 
-0.0 -2.0 2.0 2.0 0.8391207416829536 2:1.0 3:2.0 4:4.0 5:8.0 6:4.0 7:2.0 9:1.0 
-0.0 -1.2137754251703117 0.2531885851487482 0.6508128077315914 0.0876908311936077 2:1.0 3:2.0 4:2.0 5:8.0 6:6.0 7:1.0 28:1.0 72:1.0 73:1.0 189:1.0 274:1.0 
-0.1283389083557175 -0.0032517046379700663 0.0 0.8095855143048653 0.11917207934871203 2:1.0 3:2.0 4:1.0 5:7.0 6:5.0 7:2.0 11:1.0 275:1.0 276:1.0 277:1.0 
-0.0 -0.0 0.13839359274578808 0.0 0.7226876484745901 2:1.0 3:2.0 4:2.0 5:8.0 6:7.0 7:1.0 74:1.0 245:1.0 278:1.0 
-0.0 -0.0 0.7000606276208569 0.27036420853740367 0.0 2:1.0 3:2.0 4:3.0 5:14.0 6:11.0 7:2.0 97:1.0 167:1.0 196:1.0 279:1.0 
-0.0 -0.3456708655098952 0.0 0.11060065084191893 0.20176843004777967 2:1.0 3:2.0 4:2.0 5:13.0 6:8.0 7:2.0 12:1.0 22:2.0 28:1.0 224:1.0 280:1.0 281:1.0 282:1.0 283:1.0 
-0.0 -0.21638571186487293 0.32425187719290877 0.06204131376469903 0.1585800879171065 2:1.0 3:2.0 4:3.0 5:11.0 6:7.0 7:3.0 12:1.0 13:1.0 284:1.0 285:1.0 286:1.0 
-0.0 -0.2007694828103284 0.0 0.2331694893152378 0.026940552777758617 2:1.0 3:2.0 4:3.0 5:5.0 6:3.0 7:1.0 289:1.0 290:1.0 
-0.0 -0.3150207377406218 0.0 0.047497291953796775 0.11319988345715212 2:1.0 3:2.0 4:1.0 5:11.0 6:8.0 7:3.0 12:1.0 49:1.0 109:1.0 291:1.0 292:1.0 
-0.0 -1.3385645472163943 0.173737364643973 0.19471913975343197 0.0 2:1.0 3:2.0 4:3.0 5:4.0 6:2.0 7:1.0 12:1.0 293:1.0 
-0.0 -0.48844904050974153 0.6579889644292592 2.0 1.0163905028257936 2:1.0 3:2.0 4:1.0 5:4.0 6:3.0 7:1.0 11:1.0 197:1.0 294:1.0 
-0.12914338605256429 -2.0 0.0 0.0 1.4759461403066263 2:1.0 3:2.0 4:1.0 5:4.0 6:3.0 7:1.0 9:1.0 39:1.0 
-0.0 -0.0 0.0 0.09206390840711319 0.0 2:1.0 3:2.0 4:1.0 5:6.0 6:6.0 7:1.0 295:1.0 296:1.0 
-0.0 -0.0 0.09749904729144182 0.06001172789210825 0.0 2:1.0 3:2.0 4:3.0 5:13.0 6:11.0 7:1.0 12:1.0 284:1.0 297:1.0 298:1.0 299:1.0 
-0.0 -0.4891921780405786 0.9782498535253039 0.20520790716007398 0.0 2:1.0 3:2.0 4:3.0 5:11.0 6:6.0 7:4.0 12:1.0 300:1.0 301:1.0 302:1.0 
-0.0 -0.19406833386473327 0.4621118522499594 0.2531090118425599 0.02702751453184352 2:1.0 3:2.0 4:4.0 5:6.0 6:3.0 7:1.0 303:1.0 304:1.0 
-0.0 -2.0 0.0 0.0 0.0 2:1.0 3:2.0 4:1.0 5:7.0 6:7.0 7:1.0 9:1.0 
-0.0 -2.0 0.0 0.0 0.0 2:1.0 3:2.0 4:1.0 5:5.0 6:5.0 7:1.0 9:1.0 
-0.0 -0.0 0.34238395177889974 0.0 0.0 2:1.0 3:2.0 4:1.0 5:7.0 6:6.0 7:1.0 22:1.0 167:1.0 308:1.0 309:1.0 
-0.0 -2.0 0.0 0.0 2.0 2:1.0 3:2.0 4:1.0 5:10.0 6:10.0 7:1.0 9:1.0 
-0.0 -0.0 0.08516942605791938 0.049621928034276126 0.0 2:1.0 3:2.0 4:3.0 5:14.0 6:12.0 7:1.0 316:1.0 317:1.0 318:1.0 319:1.0 320:1.0 
-0.0 -0.0 0.3114482968614695 0.045723654511779864 0.3160303436312234 3:2.0 4:1.0 5:10.0 6:8.0 7:3.0 55:1.0 321:1.0 322:1.0 323:1.0 
-0.3094862605551264 -1.0991910313904762 0.4073759449142007 0.22335889990808477 0.2528134540776179 2:1.0 3:2.0 4:1.0 5:6.0 6:5.0 7:1.0 11:1.0 67:1.0 324:1.0 
-0.0 -0.21035657816575895 0.0 0.0 0.0 2:1.0 3:2.0 4:1.0 5:8.0 6:7.0 7:2.0 12:1.0 89:1.0 203:1.0 325:1.0 
-0.0 -2.0 0.0 0.0 0.0 2:1.0 3:2.0 4:1.0 5:6.0 6:6.0 7:1.0 9:1.0 
-0.0 -0.2618744179521141 0.6665859887883866 0.0 0.0 2:1.0 3:2.0 4:3.0 5:7.0 6:5.0 7:1.0 167:1.0 326:1.0 
-0.0 -0.45632744752028964 0.006176766673680179 0.05742123704100803 0.3337896547143769 2:1.0 3:2.0 4:1.0 5:5.0 6:5.0 7:1.0 12:1.0 327:1.0 328:1.0 
-0.0 -0.14136314536587663 0.10589088731748407 0.1075444818586144 0.11197637615479472 3:2.0 4:2.0 5:4.0 6:3.0 7:1.0 8:1.0 272:1.0 329:1.0 
-0.0 -0.0 0.1481814040675787 0.017862891702425956 0.0 2:1.0 3:2.0 4:3.0 5:7.0 6:5.0 7:1.0 245:1.0 330:1.0 331:1.0 
-0.0 -2.0 0.0 0.0 0.0 2:1.0 3:2.0 4:1.0 5:13.0 6:11.0 7:3.0 9:1.0 
-0.0 -0.3675096086806188 0.0 0.9835563642520245 0.0 2:1.0 3:2.0 4:2.0 5:9.0 6:6.0 7:2.0 12:1.0 13:1.0 22:1.0 170:1.0 332:1.0 
-0.0 -0.0 0.18269138496754986 0.0867098122506318 0.0 2:1.0 3:2.0 4:1.0 5:9.0 6:8.0 7:2.0 333:1.0 334:1.0 335:1.0 336:1.0 
-0.0 -0.18055954454540574 0.24680851572607618 0.0 0.0 2:1.0 3:2.0 4:3.0 5:23.0 6:14.0 7:8.0 8:1.0 167:1.0 168:1.0 337:1.0 338:1.0 339:1.0 
-0.0 -0.0 0.1058732660320325 0.0 0.0 2:1.0 3:2.0 4:3.0 5:9.0 6:7.0 7:1.0 110:1.0 167:1.0 340:1.0 
-0.0 -0.8335810874817029 0.12288840864300984 0.01344504600036663 0.0 2:1.0 3:2.0 4:1.0 5:5.0 6:5.0 7:1.0 45:1.0 245:1.0 341:1.0 
-0.0 -2.0 0.0 0.0 0.0 2:1.0 3:2.0 4:1.0 5:9.0 6:7.0 7:3.0 9:1.0 
-0.04566737308899094 -2.0 0.0 2.0 0.0 2:1.0 3:2.0 4:2.0 5:6.0 6:5.0 7:1.0 9:1.0 
-0.0 -2.0 2.0 2.0 2.0 2:1.0 3:2.0 4:3.0 5:6.0 6:4.0 7:1.0 9:1.0 
-0.0 -0.0 0.0 0.08674713828583665 0.0 2:1.0 3:2.0 4:4.0 5:11.0 6:7.0 7:1.0 28:1.0 342:1.0 343:1.0 344:1.0 345:1.0 
-0.0 -0.0 0.3444091151903876 0.19315007306382612 0.026809272047877676 2:1.0 3:2.0 4:1.0 5:8.0 6:8.0 7:1.0 346:1.0 347:1.0 
-0.0 -0.0 0.0 0.16938175174944886 0.0 2:1.0 3:2.0 4:1.0 5:7.0 6:7.0 7:1.0 109:1.0 278:1.0 348:1.0 
-0.0 -1.970372973501689 0.0 0.0 0.0 2:1.0 3:2.0 4:1.0 5:8.0 6:8.0 7:1.0 12:1.0 63:1.0 
-0.0 -0.4410770268112309 0.5776292747540868 0.0 0.007947561679346586 2:1.0 3:2.0 4:4.0 5:16.0 6:11.0 7:3.0 59:1.0 95:1.0 127:1.0 315:1.0 349:1.0 350:1.0 
-0.0 -2.0 0.0 0.0 0.0 2:1.0 3:2.0 4:1.0 5:5.0 6:5.0 7:1.0 9:1.0 
-0.17281933340610078 -0.44928993264607864 1.592339118566717 0.01759510624773626 0.13699003726279155 2:1.0 3:2.0 4:5.0 5:9.0 6:4.0 7:1.0 11:1.0 12:1.0 351:1.0 352:1.0 353:1.0 
-0.0 -0.0168212176580021 0.0 0.0 0.0 2:1.0 3:2.0 4:1.0 5:10.0 6:8.0 7:3.0 12:1.0 89:1.0 168:1.0 287:1.0 354:1.0 
-0.0 -1.2259288795254668 0.0 2.0 2.0 2:1.0 3:2.0 4:1.0 5:16.0 6:16.0 7:1.0 9:1.0 
-0.0 -0.0 0.8544694607177059 0.051014714135243625 0.0 3:2.0 4:5.0 5:9.0 6:5.0 7:1.0 8:1.0 119:1.0 170:1.0 355:1.0 
-0.0 -0.21521365570028253 0.42083569462962295 0.03545419539445932 0.17370195026395924 2:1.0 3:2.0 4:3.0 5:9.0 6:3.0 7:2.0 22:1.0 28:1.0 160:1.0 309:1.0 356:1.0 
-0.0 -0.4892624732788847 0.44796979470995507 0.13674083065605855 0.11173604323022313 3:2.0 4:4.0 5:9.0 6:4.0 7:3.0 8:1.0 63:1.0 261:1.0 357:1.0 
-0.0 -0.014724446691088727 0.043919768288811556 0.1793524283686328 0.0 2:1.0 3:2.0 4:2.0 5:6.0 6:5.0 7:1.0 358:1.0 359:1.0 360:1.0 
-0.15415827044780675 -0.05161585582334586 0.3064534398616705 0.0 0.0 2:1.0 3:2.0 4:6.0 5:12.0 6:6.0 7:1.0 11:1.0 151:1.0 361:1.0 362:1.0 363:1.0 
-0.0 -0.1057169470003425 0.09025107761872789 0.09802425431904745 0.01793118649273091 2:1.0 3:2.0 4:5.0 5:10.0 6:5.0 7:2.0 364:1.0 365:1.0 366:1.0 
-0.0 -0.9155655621792367 0.0 0.0 0.23355887933970032 3:2.0 4:1.0 5:5.0 6:5.0 7:1.0 8:1.0 12:1.0 367:1.0 
-0.0 -0.0 1.0106626495336481 1.4087718807879812 0.0 2:1.0 3:2.0 4:1.0 5:7.0 6:7.0 7:1.0 177:1.0 368:1.0 
-0.0 -0.0 0.27082660776863815 0.1314378549462821 0.0 2:1.0 3:2.0 4:3.0 5:9.0 6:6.0 7:1.0 28:1.0 245:1.0 369:1.0 370:1.0 371:1.0 
-0.0 -2.0 2.0 2.0 0.0 2:1.0 3:2.0 4:3.0 5:9.0 6:6.0 7:2.0 9:1.0 
-0.0 -2.0 0.0 0.0 2.0 2:1.0 3:2.0 4:1.0 5:11.0 6:11.0 7:1.0 9:1.0 
-0.0 -0.2953185287369961 0.0701870008335676 0.06492374619032112 0.0 2:1.0 3:2.0 4:3.0 5:7.0 6:5.0 7:1.0 12:1.0 305:1.0 306:1.0 372:1.0 
-0.0 -0.06159520522681025 0.16351494573136446 0.0 0.08523017667061467 2:1.0 3:2.0 4:3.0 5:7.0 6:4.0 7:1.0 49:1.0 333:1.0 373:1.0 374:1.0 
-0.01802290660786306 -2.0 0.0 2.0 2.0 2:1.0 3:2.0 4:2.0 5:5.0 6:4.0 7:1.0 9:1.0 
-0.0 -1.0634223851665645 0.0 0.11488439851529582 0.0 2:1.0 3:2.0 4:1.0 5:4.0 6:4.0 7:1.0 12:1.0 375:1.0 
-0.0 -2.0 0.0 0.0 0.0 2:1.0 3:2.0 4:1.0 5:9.0 6:9.0 7:1.0 9:1.0 
-0.0 -0.4179194059740233 0.4855420931970698 0.6102598005633973 0.7462161021527912 2:1.0 3:2.0 4:3.0 5:11.0 6:7.0 7:3.0 12:1.0 376:1.0 377:1.0 
-0.0 -0.0 0.0 0.015384610918327768 0.0 3:2.0 4:1.0 5:6.0 6:5.0 7:1.0 39:1.0 323:1.0 343:1.0 378:1.0 
-0.0 -2.0 0.0 0.0 2.0 2:1.0 3:2.0 4:1.0 5:10.0 6:10.0 7:1.0 9:1.0 
-0.0 -0.0 0.0 0.36192717918849165 0.0 2:1.0 3:2.0 4:1.0 5:9.0 6:9.0 7:1.0 55:1.0 194:1.0 373:1.0 
-0.0 -0.0 0.3793734278116504 0.0 0.0 2:1.0 3:2.0 4:1.0 5:11.0 6:11.0 7:1.0 12:1.0 167:1.0 284:1.0 379:1.0 
-0.0 -0.0 0.356756701479584 0.10656858091567689 0.47191462820997443 2:1.0 3:2.0 4:4.0 5:11.0 6:7.0 7:1.0 28:1.0 380:1.0 381:1.0 382:1.0 383:1.0 384:1.0 
-0.0 -2.0 0.0 2.0 2.0 2:1.0 3:2.0 4:1.0 5:12.0 6:12.0 7:1.0 9:1.0 
-0.0 -2.0 0.0 0.0 0.0 2:1.0 3:2.0 4:1.0 5:5.0 6:5.0 7:1.0 9:1.0 
-0.0 -0.0 0.5052393011549515 0.03148120802581952 0.0 2:1.0 3:2.0 4:1.0 5:17.0 6:14.0 7:4.0 112:1.0 385:1.0 386:1.0 387:1.0 
-2.0 -2.0 2.0 2.0 2.0 2:1.0 3:2.0 4:1.0 5:11.0 6:10.0 7:1.0 9:1.0 11:1.0 
-0.0 -2.0 0.0 0.0 0.0 2:1.0 3:2.0 4:1.0 5:6.0 6:6.0 7:1.0 9:1.0 
-0.0 -2.0 0.8373088231266489 0.46616689932796657 2.0 2:1.0 3:2.0 4:3.0 5:6.0 6:4.0 7:1.0 190:1.0 
-0.0 -0.0 0.37417436645085306 0.14582650535697111 0.24720805512095442 2:1.0 3:2.0 4:3.0 5:8.0 6:5.0 7:1.0 19:1.0 66:1.0 388:1.0 
-0.0 -0.0 0.0 0.024958915404151384 0.0 2:1.0 3:2.0 4:2.0 5:10.0 6:8.0 7:1.0 49:1.0 307:1.0 389:1.0 390:1.0 
-0.0 -2.0 0.0 0.0 0.0 2:1.0 3:2.0 4:1.0 5:5.0 6:5.0 7:1.0 9:1.0 
-0.0 -2.0 0.0 0.0 0.0 2:1.0 3:2.0 4:1.0 5:7.0 6:7.0 7:1.0 9:1.0 
-0.006635732052616126 -0.12301814667090312 0.4788946671127379 0.33005139837374425 0.0 3:2.0 4:6.0 5:14.0 6:6.0 7:4.0 8:2.0 391:1.0 392:1.0 393:1.0 
-0.0 -2.0 0.5645880524372004 0.19465874836684494 0.0 2:1.0 3:2.0 4:3.0 5:6.0 6:4.0 7:1.0 12:1.0 101:1.0 
-0.0 -0.20965510678498667 0.10600457069501051 0.0 0.0 2:1.0 3:2.0 4:4.0 5:11.0 6:8.0 7:1.0 12:1.0 394:1.0 395:1.0 
-0.0 -2.0 0.0 0.0 0.0 2:1.0 3:2.0 4:1.0 5:5.0 6:5.0 7:1.0 9:1.0 
-0.0 -0.0 0.04454249128847886 0.0 0.0 2:1.0 3:2.0 4:3.0 5:6.0 6:4.0 7:1.0 245:1.0 342:1.0 396:1.0 
-0.0 -0.0 0.31834447738018995 0.0649788233220964 0.0 2:1.0 3:2.0 4:4.0 5:16.0 6:13.0 7:1.0 62:1.0 397:1.0 398:1.0 399:1.0 400:1.0 401:1.0 
-0.0 -0.0 0.6307429475285564 0.048349687450862225 0.0 2:1.0 3:2.0 4:8.0 5:13.0 6:6.0 7:1.0 119:1.0 151:1.0 402:1.0 
-0.0 -0.0 0.17043930851482883 0.10671925170006591 0.013358106673697703 2:1.0 3:2.0 4:3.0 5:10.0 6:7.0 7:2.0 403:1.0 404:1.0 405:1.0 406:1.0 
-0.0 -0.0 0.0 0.0 0.0060175783390769184 2:1.0 3:2.0 4:3.0 5:6.0 6:4.0 7:1.0 164:1.0 407:1.0 408:1.0 
-0.0 -0.0 0.0908411488181412 0.03571422662469883 0.23680413297396383 2:1.0 3:2.0 4:3.0 5:12.0 6:7.0 7:2.0 22:1.0 28:1.0 297:1.0 309:1.0 409:1.0 410:1.0 
-0.0 -1.2172271596249897 0.14299449140131282 1.806423454542967 2.0 3:2.0 4:1.0 5:3.0 6:3.0 7:1.0 8:1.0 12:1.0 411:1.0 
-0.0 -0.0 0.5643996640582933 0.0 0.11568181420216309 2:1.0 3:2.0 4:2.0 5:14.0 6:12.0 7:1.0 12:1.0 183:1.0 412:1.0 413:1.0 414:1.0 
-0.0 -0.0 0.06461371497010386 0.0 0.0 2:1.0 3:2.0 4:2.0 5:8.0 6:7.0 7:1.0 66:1.0 245:1.0 415:1.0 
-0.0 -0.42033314144458755 1.0733768825449133 1.0815670955817691 0.716858470294889 3:2.0 4:3.0 5:8.0 6:5.0 7:1.0 8:1.0 10:1.0 151:1.0 416:1.0 
-0.0 -2.0 0.0 0.0 0.0 2:1.0 3:2.0 4:1.0 5:5.0 6:5.0 7:1.0 9:1.0 
-0.37617694144490443 -0.6566026110717641 0.0 0.0 0.0 3:2.0 5:6.0 6:6.0 7:1.0 8:1.0 11:1.0 12:1.0 245:1.0 417:1.0 
-0.0 -0.0 0.43072156867867434 0.0 0.0 2:1.0 3:2.0 4:3.0 5:11.0 6:9.0 7:1.0 12:1.0 66:1.0 117:1.0 284:1.0 
-0.0 -1.0368853633636606 0.19816130894995107 0.1946556989599976 0.0 2:1.0 3:2.0 4:3.0 5:6.0 6:4.0 7:1.0 12:1.0 418:1.0 
-0.0 -2.0 0.0 0.0 0.0 2:1.0 3:2.0 4:1.0 5:6.0 6:6.0 7:1.0 9:1.0 
-0.0 -0.0 0.9460756782421907 0.0 0.0 3:2.0 4:3.0 5:18.0 6:16.0 7:1.0 8:1.0 170:1.0 273:1.0 314:1.0 419:1.0 420:1.0 421:1.0 
-0.0 -0.3151392797777007 0.0 0.500177360662566 0.03624420702843329 2:1.0 3:2.0 4:1.0 5:10.0 6:8.0 7:2.0 12:1.0 49:1.0 89:1.0 119:1.0 422:1.0 
-0.0 -0.0 0.2172490358152338 0.0 0.05204651988908736 2:1.0 3:2.0 4:4.0 5:13.0 6:8.0 7:3.0 59:1.0 167:1.0 194:1.0 423:1.0 424:1.0 
-0.0 -1.0034600941944483 2.0 2.0 2.0 3:2.0 4:1.0 5:12.0 6:10.0 7:3.0 23:1.0 425:1.0 
-0.0 -0.0 0.6978684147617452 0.5729068992571689 0.0 2:1.0 3:2.0 4:6.0 5:9.0 6:4.0 7:1.0 194:1.0 426:1.0 
-0.0 -0.0 0.09867472635966261 0.01053982530365981 0.0980014379880629 2:1.0 3:2.0 4:1.0 5:9.0 6:8.0 7:1.0 28:1.0 245:1.0 427:1.0 428:1.0 429:1.0 
-0.0 -0.0 0.0 0.0 0.09073451608453953 3:2.0 4:3.0 5:16.0 6:12.0 7:3.0 8:1.0 59:1.0 300:1.0 301:1.0 315:1.0 342:2.0 
-0.0 -1.0634190819736717 0.0 0.114878674634849 0.0 2:1.0 3:2.0 4:1.0 5:4.0 6:4.0 7:1.0 12:1.0 430:1.0 
-0.0 -0.0 1.6909701804605908 0.38989375040759144 0.0 3:2.0 4:1.0 5:6.0 6:6.0 7:1.0 8:1.0 284:1.0 367:1.0 
-0.0 -0.0 0.19303255615611659 0.0 0.0 2:1.0 3:2.0 4:2.0 5:7.0 6:6.0 7:1.0 359:1.0 431:1.0 
-0.0 -2.0 2.0 2.0 0.0 2:1.0 3:2.0 4:1.0 5:3.0 6:3.0 7:1.0 12:1.0 196:1.0 
-0.0 -0.3382947398706432 0.3896748094573942 0.20796355727022828 0.0 2:1.0 3:2.0 4:3.0 5:11.0 6:8.0 7:2.0 55:1.0 340:1.0 432:1.0 
-0.16874683556370743 -0.0 1.3471358321138596 0.30751153480266036 0.0 2:1.0 3:2.0 4:1.0 5:9.0 6:8.0 7:1.0 11:1.0 196:1.0 433:1.0 434:1.0 
-0.0 -0.0 0.46801428585932286 0.0 0.0 2:1.0 3:2.0 4:3.0 5:13.0 6:11.0 7:1.0 98:1.0 297:1.0 435:1.0 436:1.0 
-0.0 -0.15658386130426605 0.36941361891416913 0.15365191632881414 0.026217355089579366 2:1.0 3:2.0 4:1.0 5:9.0 6:7.0 7:3.0 437:1.0 438:1.0 
-0.0 -2.0 0.0 2.0 2.0 2:1.0 3:2.0 4:1.0 5:4.0 6:4.0 7:1.0 9:1.0 
-0.0 -2.0 2.0 2.0 2.0 2:1.0 3:2.0 4:4.0 5:6.0 6:3.0 7:1.0 9:1.0 
-0.0 -0.0 0.3337188636868446 0.16167914947132014 0.0 2:1.0 3:2.0 4:3.0 5:9.0 6:6.0 7:2.0 12:1.0 284:1.0 439:1.0 440:1.0 
-0.0 -0.0 0.0 0.0 1.784987263305198 2:1.0 3:2.0 4:3.0 5:9.0 6:4.0 7:4.0 301:1.0 307:1.0 441:1.0 
-0.0 -0.0 0.45095882217269895 0.1287824267658286 0.01783272237993815 2:1.0 3:2.0 4:1.0 5:7.0 6:7.0 7:1.0 442:1.0 443:1.0 444:1.0 
-0.0 -0.14425433506757623 0.0158543106724459 0.03213322143068845 0.2336940430420774 2:1.0 3:2.0 4:3.0 5:10.0 6:8.0 7:1.0 12:1.0 445:1.0 446:1.0 447:1.0 
-0.0 -1.1258971638633777 0.0 0.0 0.0 2:1.0 3:2.0 4:1.0 5:9.0 6:8.0 7:1.0 12:1.0 35:1.0 88:1.0 448:1.0 
-0.0 -2.0 0.0 0.0 0.0 2:1.0 3:2.0 4:1.0 5:7.0 6:7.0 7:1.0 9:1.0 
-0.12820110856768266 -1.4923330780512623 0.15379948483827582 0.15917429966908817 0.26038853112776483 2:1.0 3:2.0 4:2.0 5:8.0 6:6.0 7:1.0 9:1.0 449:1.0 
-0.0 -0.2282857948901818 0.5524788809228725 0.11746992591730694 0.0 2:1.0 3:2.0 4:4.0 5:10.0 6:7.0 7:1.0 12:1.0 450:1.0 451:1.0 
-0.0 -0.0 0.0 0.10117301984797475 0.0 2:1.0 3:2.0 4:1.0 5:17.0 6:13.0 7:5.0 119:1.0 307:1.0 452:1.0 453:1.0 454:1.0 455:1.0 
-0.0 -0.12676523530089612 0.4917144385685313 0.31251669110316926 0.026735933537016754 2:1.0 3:2.0 4:1.0 5:7.0 6:7.0 7:1.0 162:1.0 456:1.0 
-0.0 -2.0 0.0 0.0 2.0 2:1.0 3:2.0 4:1.0 5:10.0 6:10.0 7:1.0 9:1.0 
-0.0 -0.38085567870119164 1.0123627311186052 0.057415655685524786 0.0 2:1.0 3:2.0 4:1.0 5:6.0 6:6.0 7:1.0 12:1.0 457:1.0 458:1.0 
-0.0 -1.0368902918923346 0.19816886943029574 0.19465159852617214 0.0 2:1.0 3:2.0 4:3.0 5:6.0 6:4.0 7:1.0 12:1.0 459:1.0 
-0.0 -0.18316868826670266 0.19098240426479254 0.539971927746192 0.8003375702847599 2:1.0 3:2.0 4:5.0 5:15.0 6:9.0 7:1.0 10:1.0 12:1.0 28:1.0 108:1.0 460:1.0 461:1.0 462:1.0 
-0.0 -2.0 0.0 0.0 0.0 2:1.0 3:2.0 4:1.0 5:5.0 6:5.0 7:1.0 9:1.0 
-0.0 -2.0 0.0 0.0 0.0 2:1.0 3:2.0 4:1.0 5:5.0 6:5.0 7:1.0 9:1.0 
-0.0 -3.4767556998536515E-4 0.0 0.0 0.0 2:1.0 3:2.0 4:2.0 5:7.0 6:5.0 7:2.0 12:1.0 89:1.0 463:1.0 464:1.0 
-0.0 -0.306921087483771 0.1336202894414272 0.0 0.1492514923980522 2:1.0 3:2.0 4:2.0 5:16.0 6:10.0 7:6.0 8:1.0 153:1.0 386:1.0 465:1.0 466:1.0 
-0.0 -2.0 2.0 2.0 2.0 2:1.0 3:2.0 4:3.0 5:6.0 6:4.0 7:1.0 9:1.0 
-0.0 -2.0 0.0 0.0 0.0 2:1.0 3:2.0 4:1.0 5:9.0 6:9.0 7:1.0 9:1.0 
-0.0 -2.0 0.0 0.0 0.0 2:1.0 3:2.0 4:1.0 5:8.0 6:6.0 7:3.0 9:1.0 
-0.0 -2.0 0.0 0.0 0.0 2:1.0 3:2.0 4:1.0 5:9.0 6:9.0 7:1.0 9:1.0 
-0.0 -0.0 0.15280751686929173 0.013814097115368483 0.0 3:2.0 4:1.0 5:20.0 6:19.0 7:2.0 85:1.0 323:1.0 386:1.0 467:2.0 468:1.0 469:1.0 
-0.0 -2.0 0.0 0.0 0.0 2:1.0 3:2.0 4:1.0 5:7.0 6:7.0 7:1.0 9:1.0 
-0.0 -2.0 2.0 0.7851482293769771 2.0 2:1.0 3:2.0 4:2.0 5:13.0 6:11.0 7:1.0 9:1.0 49:1.0 
-0.0 -0.6326144463868276 0.0 0.07034140989220664 0.47309097666347094 2:1.0 3:2.0 4:1.0 5:9.0 6:7.0 7:2.0 12:1.0 28:1.0 59:1.0 343:1.0 471:1.0 
-0.0 -2.0 0.0 0.0 0.0 2:1.0 3:2.0 4:1.0 5:5.0 6:5.0 7:1.0 9:1.0 
-0.0 -0.6527972108823078 0.8507633444704807 0.09049756826204561 0.017513183632717005 2:1.0 3:2.0 4:2.0 5:8.0 6:5.0 7:3.0 96:1.0 472:1.0 473:1.0 
-0.0 -2.0 0.0 0.0 0.0 2:1.0 3:2.0 4:1.0 5:7.0 6:7.0 7:1.0 9:1.0 
-0.0 -0.0 0.42386610577629613 0.014123535078670034 0.0 2:1.0 3:2.0 4:2.0 5:7.0 6:6.0 7:1.0 414:1.0 475:1.0 
-0.0 -2.0 0.0 0.0 0.0 2:1.0 3:2.0 4:1.0 5:5.0 6:5.0 7:1.0 9:1.0 
-2.0 -2.0 0.8373101981177928 0.46618564135513785 0.05389252286351027 1:1.0 2:1.0 3:2.0 4:3.0 5:6.0 6:4.0 7:1.0 
-0.0 -0.23179625234397316 0.25111486161926866 0.0 0.0 2:1.0 3:2.0 4:1.0 5:10.0 6:10.0 7:1.0 12:1.0 168:1.0 476:1.0 
-0.0 -0.09222842469612832 0.0 0.0 0.0 3:2.0 4:1.0 5:5.0 6:5.0 7:1.0 153:1.0 323:1.0 463:1.0 
-0.0 -0.0 0.10567423399391618 0.1185103494863076 0.0 2:1.0 3:2.0 4:2.0 5:9.0 6:8.0 7:1.0 477:1.0 478:1.0 479:1.0 
-0.0 -0.0 0.20064328142393612 0.09850952646418051 0.1861025347660662 2:1.0 3:2.0 4:2.0 5:7.0 6:6.0 7:1.0 447:1.0 480:1.0 481:1.0 482:1.0 
-0.0 -0.0 0.6067314103737984 0.03670452575848002 0.0 2:1.0 3:2.0 4:2.0 5:9.0 6:8.0 7:1.0 278:1.0 483:1.0 484:1.0 485:1.0 
-0.0 -0.0 0.422104185282713 0.184748829842431 0.1679293845160842 3:2.0 4:1.0 5:8.0 6:8.0 7:1.0 8:1.0 486:1.0 487:1.0 
-0.0 -0.0748682127797705 0.18023789842743496 0.07565695408513322 0.0 2:1.0 3:2.0 4:3.0 5:10.0 6:8.0 7:1.0 96:1.0 488:1.0 489:1.0 
-0.0 -0.0 0.6638780902904486 0.3863408710783099 0.05342525943188863 2:1.0 3:2.0 4:1.0 5:6.0 6:6.0 7:1.0 490:1.0 
-0.0 -0.0 0.25243506171177243 0.4858636183762554 0.11678514318194945 2:1.0 3:2.0 4:1.0 5:4.0 6:4.0 7:1.0 109:1.0 491:1.0 
-0.0 -2.0 0.0 0.0 2.0 2:1.0 3:2.0 4:1.0 5:16.0 6:15.0 7:2.0 9:1.0 
-0.0 -0.0 0.017555707825144814 0.38614081578260984 0.0 2:1.0 3:2.0 4:2.0 5:8.0 6:6.0 7:1.0 49:1.0 358:1.0 414:1.0 492:1.0 
-0.0 -2.0 0.0 0.0 0.0 2:1.0 3:2.0 4:1.0 5:9.0 6:9.0 7:1.0 9:1.0 
-0.0 -0.0 0.0 0.0 0.010840100813817317 2:1.0 3:2.0 4:1.0 5:7.0 6:6.0 7:1.0 49:1.0 367:1.0 493:1.0 
-0.0 -0.3143445009361168 0.9908310973185581 0.4938188206335692 0.07719671135491914 2:1.0 3:2.0 4:6.0 5:12.0 6:4.0 7:4.0 494:1.0 495:1.0 496:1.0 
-0.0 -1.2009932163872703 0.08676583318384781 0.15485947708584985 0.0 2:1.0 3:2.0 4:2.0 5:4.0 6:3.0 7:1.0 12:1.0 497:1.0 
-0.0 -2.0 2.0 2.0 2.0 2:1.0 3:2.0 4:3.0 5:8.0 6:6.0 7:1.0 9:1.0 
-0.0 -0.5184447496409882 0.09906875350912565 0.09734783614917861 0.1620603524772047 2:1.0 3:2.0 4:3.0 5:6.0 6:4.0 7:1.0 12:1.0 498:1.0 499:1.0 
-0.0 -0.7616861476847276 0.024695444947000385 0.11481866416144056 0.0 2:1.0 3:2.0 4:1.0 5:6.0 6:6.0 7:1.0 12:1.0 500:1.0 
-0.0 -0.18451579349570962 0.0 0.0 0.09398178524206878 2:1.0 3:2.0 4:1.0 5:13.0 6:12.0 7:2.0 12:1.0 13:1.0 110:1.0 168:1.0 501:1.0 502:1.0 
-0.0 -0.1719482587386097 0.2971745793981551 0.0 0.016751013586628175 2:1.0 3:2.0 4:4.0 5:14.0 6:5.0 7:7.0 8:1.0 503:1.0 504:1.0 505:1.0 
-0.0 -2.0 2.0 2.0 2.0 2:1.0 3:2.0 4:4.0 5:9.0 6:6.0 7:1.0 9:1.0 
-0.0 -0.27358609443483545 0.25483561570595686 0.0 0.0 3:2.0 4:1.0 5:10.0 6:9.0 7:2.0 140:1.0 254:1.0 314:1.0 323:1.0 506:1.0 
-0.0 -0.4772718850648448 0.6913424407513382 0.20333923304498466 0.3177442140303669 2:1.0 3:2.0 4:4.0 5:9.0 6:5.0 7:2.0 12:1.0 13:1.0 284:1.0 507:1.0 
-0.0 -0.5690390593749711 0.048133302726066564 0.06898442562114762 0.0 2:1.0 3:2.0 4:2.0 5:7.0 6:5.0 7:2.0 12:1.0 89:1.0 508:1.0 
-0.0 -0.7298551860033367 0.2560894523317596 0.0802301814702296 0.04067705472606003 2:1.0 3:2.0 4:2.0 5:9.0 6:5.0 7:3.0 49:1.0 91:1.0 509:1.0 
-0.0 -0.0 0.01128778037933001 0.0 0.0 2:1.0 3:2.0 4:2.0 5:7.0 6:6.0 7:1.0 288:1.0 510:1.0 
-0.0 -2.0 0.0 2.0 2.0 2:1.0 3:2.0 4:1.0 5:13.0 6:13.0 7:1.0 9:1.0 
-0.0 -0.1886473050247576 0.9677635908611447 0.0 0.0 2:1.0 3:2.0 4:2.0 5:13.0 6:9.0 7:4.0 98:1.0 109:1.0 141:1.0 511:1.0 512:1.0 513:1.0 
-0.0 -0.0 0.5178750794959872 0.10745196952510123 0.0 3:2.0 4:3.0 5:9.0 6:7.0 7:1.0 323:1.0 514:1.0 515:1.0 516:1.0 
-0.0 -2.0 2.0 2.0 2.0 2:1.0 3:2.0 4:2.0 5:11.0 6:10.0 7:1.0 9:1.0 
-0.0 -0.0 0.0 0.050347702138584166 0.0 2:1.0 3:2.0 4:1.0 5:5.0 6:5.0 7:1.0 307:1.0 517:1.0 
-0.33581632541873785 -2.0 0.0 0.0 0.0 2:1.0 3:2.0 4:1.0 5:5.0 6:5.0 7:1.0 9:1.0 
-0.0 -0.0 0.040163258479893604 0.061925787957239534 0.0 2:1.0 3:2.0 4:2.0 5:9.0 6:8.0 7:1.0 147:1.0 518:1.0 519:1.0 
-0.0 -0.0 0.31388419924221195 0.9091274448431756 0.07789975337211236 2:1.0 3:2.0 4:3.0 5:9.0 6:7.0 7:1.0 520:1.0 521:1.0 
-0.0 -1.2009851798744484 0.08686499549213988 0.15482583470573366 0.0 2:1.0 3:2.0 4:2.0 5:4.0 6:3.0 7:1.0 12:1.0 523:1.0 
-0.2884694462992398 -0.09422646117393338 0.22426756609823878 0.0 0.0 2:1.0 3:2.0 4:4.0 5:20.0 6:10.0 7:7.0 8:1.0 11:1.0 197:1.0 314:1.0 333:1.0 405:1.0 524:1.0 
-0.0 -2.0 0.6738745380177953 0.0 0.15733967279082353 3:2.0 4:1.0 5:12.0 6:8.0 7:4.0 11:1.0 25:1.0 26:1.0 
-0.0 -1.0634149405362527 0.0 0.4783404264993263 0.28861569254772496 2:1.0 3:2.0 4:1.0 5:4.0 6:4.0 7:1.0 12:1.0 525:1.0 
-0.6611771713797425 -2.0 0.0 1.862090997346957 2.0 2:1.0 3:2.0 4:1.0 5:4.0 6:4.0 7:1.0 9:1.0 
-0.0 -0.0 0.6153064698958258 0.08402915859964658 0.0 2:1.0 3:2.0 4:1.0 5:8.0 6:8.0 7:1.0 400:1.0 526:1.0 527:1.0 
-0.0 -0.0 1.6990973119376644 0.552042062495458 0.0 2:1.0 3:2.0 4:5.0 5:13.0 6:5.0 7:2.0 22:1.0 28:1.0 49:1.0 170:1.0 277:1.0 528:1.0 
-0.0 -0.0 1.1383404365968028 0.44661619357783966 0.0 2:1.0 3:2.0 4:2.0 5:6.0 6:5.0 7:1.0 284:1.0 529:1.0 
-0.0 -0.1350243946277435 0.08800017993487134 0.06636127941101355 0.0 2:1.0 3:2.0 4:3.0 5:8.0 6:6.0 7:1.0 112:1.0 272:1.0 530:1.0 
-0.0 -0.37579065965991787 0.22654822148159823 0.0 0.0 2:1.0 3:2.0 4:2.0 5:14.0 6:9.0 7:5.0 8:1.0 55:1.0 334:1.0 531:1.0 532:1.0 
-0.0 -0.0 0.20775576870794588 0.0 0.0 2:1.0 3:2.0 4:4.0 5:14.0 6:11.0 7:1.0 55:1.0 275:1.0 373:1.0 533:1.0 
-0.0 -0.0 0.4131431708155744 0.22737345001073786 0.017895879343587884 2:1.0 3:2.0 4:2.0 5:8.0 6:7.0 7:1.0 534:1.0 535:1.0 536:1.0 
-0.0 -0.0 0.36673710689467687 0.2591143594593409 0.31052112480860633 2:1.0 3:2.0 4:1.0 5:11.0 6:10.0 7:1.0 28:1.0 343:1.0 371:1.0 537:1.0 538:1.0 
-0.0 -0.0 0.3524480514046559 0.8978217286336099 0.5059857460556973 2:1.0 3:2.0 4:1.0 5:7.0 6:7.0 7:1.0 119:1.0 539:1.0 
-0.0 -0.23495019480005433 0.6286316468683585 0.0 0.03478971042529792 2:1.0 3:2.0 4:2.0 5:7.0 6:4.0 7:2.0 12:1.0 49:1.0 89:1.0 414:1.0 540:1.0 
-0.0 -0.34455701555376156 0.2232602907408807 1.0051131681633525 0.5405254011033599 2:1.0 3:2.0 4:1.0 5:9.0 6:7.0 7:2.0 10:1.0 12:1.0 89:1.0 541:1.0 542:1.0 
-0.0 -2.0 0.0 2.0 0.009764446339550691 2:1.0 3:2.0 4:2.0 5:7.0 6:6.0 7:1.0 9:1.0 
-0.0 -0.0 2.0 2.0 2.0 2:1.0 3:2.0 4:2.0 5:19.0 6:18.0 7:1.0 9:1.0 
-0.0 -0.817990816346845 0.0 0.0 0.0 2:1.0 3:2.0 4:1.0 5:8.0 6:7.0 7:2.0 12:1.0 89:1.0 202:1.0 543:1.0 
-0.0 -0.0 2.0 0.023984606422153765 0.0 3:2.0 4:1.0 5:6.0 6:5.0 7:2.0 282:1.0 314:1.0 323:1.0 
-0.0 -2.0 0.0 2.0 1.1095090514762622 2:1.0 3:2.0 4:2.0 5:8.0 6:7.0 7:1.0 9:1.0 
-0.0 -0.4701091810422219 0.014878308449459376 0.07163609618277933 0.0 2:1.0 3:2.0 4:5.0 5:9.0 6:4.0 7:1.0 12:1.0 160:1.0 544:1.0 545:1.0 
-0.0 -0.5798048808848848 0.6980334482908935 0.0 0.07520833265665859 3:2.0 4:2.0 5:4.0 6:3.0 7:1.0 8:1.0 167:1.0 546:1.0 
-0.0 -0.0 0.18927025007486642 0.33021205965872263 0.2555891701499912 2:1.0 3:2.0 4:1.0 5:13.0 6:10.0 7:2.0 10:1.0 12:1.0 28:1.0 395:1.0 549:1.0 550:1.0 551:1.0 
-0.0 -2.0 0.0 0.0 0.0 2:1.0 3:2.0 4:1.0 5:9.0 6:7.0 7:3.0 9:1.0 
-0.0 -2.0 0.0 0.0 0.0 2:1.0 3:2.0 4:1.0 5:8.0 6:8.0 7:1.0 9:1.0 
-0.0 -0.5343439669278172 0.8385147280811198 2.0 0.0 2:1.0 3:2.0 4:4.0 5:5.0 6:2.0 7:1.0 189:1.0 552:1.0 
-0.0 -0.6714223980325479 0.3316673813681523 0.0 0.0 3:2.0 4:3.0 5:10.0 6:6.0 7:2.0 8:1.0 12:1.0 22:1.0 32:1.0 59:1.0 170:1.0 553:1.0 
-0.0 -0.0 0.0 0.050419625134156855 0.0 2:1.0 3:2.0 4:1.0 5:4.0 6:4.0 7:1.0 307:1.0 554:1.0 
-0.0 -0.08504445732307402 0.0 0.07534971040586913 0.10415467946068849 3:2.0 4:1.0 5:4.0 6:4.0 7:1.0 8:1.0 295:1.0 555:1.0 
-0.0 -2.0 0.0 0.0 0.0 2:1.0 3:2.0 4:1.0 5:5.0 6:5.0 7:1.0 9:1.0 
-0.0 -0.0 0.32110558046869214 0.008430597484762648 0.0 2:1.0 3:2.0 4:1.0 5:8.0 6:7.0 7:1.0 11:1.0 109:1.0 197:1.0 556:1.0 
-0.0 -2.0 0.0 0.0 0.0 2:1.0 3:2.0 4:1.0 5:5.0 6:5.0 7:1.0 9:1.0 
-0.0 -0.0 0.38777166212249153 0.6212367524245588 0.026829055431502453 2:1.0 3:2.0 4:2.0 5:8.0 6:7.0 7:1.0 557:1.0 558:1.0 
-0.0 -0.0 1.0243307277707243 0.0 0.0 2:1.0 3:2.0 4:2.0 5:19.0 6:17.0 7:2.0 146:1.0 295:1.0 559:1.0 
-0.0 -0.0 0.0 0.0752801146269255 0.10402430631697002 3:2.0 4:1.0 5:5.0 6:5.0 7:1.0 8:1.0 295:1.0 560:1.0 
-0.0 -0.8915515685247807 0.0 0.11488774040419061 0.0 2:1.0 3:2.0 4:1.0 5:4.0 6:4.0 7:1.0 12:1.0 504:1.0 
-0.0 -0.03313473902269968 0.1596768258617712 0.054913811698391116 0.0 2:1.0 3:2.0 4:2.0 5:6.0 6:5.0 7:1.0 278:1.0 561:1.0 562:1.0 
-0.0 -0.0 0.5829913111571616 0.0 0.5898931497212239 2:1.0 3:2.0 4:3.0 5:8.0 6:5.0 7:1.0 49:1.0 196:1.0 510:1.0 563:1.0 
-0.0 -0.4563331219353265 0.006152036243430055 0.05741968198477096 0.0 2:1.0 3:2.0 4:1.0 5:5.0 6:5.0 7:1.0 12:1.0 567:1.0 568:1.0 
-0.0 -0.0 0.5430146010481953 0.45347770222672074 0.0 2:1.0 3:2.0 4:4.0 5:9.0 6:5.0 7:2.0 194:1.0 569:1.0 
-0.0 -0.0 0.8451675602251415 0.08069988898757555 0.9018363397354606 2:1.0 3:2.0 4:2.0 5:7.0 6:5.0 7:1.0 74:1.0 88:1.0 448:1.0 
-0.2338034048106263 -0.6990467607723422 0.0815717189255996 0.0 0.14758209532190997 2:1.0 3:2.0 4:1.0 5:5.0 6:4.0 7:1.0 11:1.0 12:1.0 276:1.0 570:1.0 
-0.0 -0.2510785529188804 1.2129744381344936 0.2541710023338676 0.025645069231511733 2:1.0 3:2.0 4:2.0 5:8.0 6:7.0 7:1.0 12:1.0 109:1.0 571:1.0 
-0.0 -0.750587650841487 0.0 0.0 0.0 2:1.0 3:2.0 4:2.0 5:7.0 6:5.0 7:2.0 12:1.0 89:1.0 219:1.0 307:1.0 
-0.0 -0.0 0.0 0.6387471810420334 0.0 2:1.0 3:2.0 4:4.0 5:9.0 6:5.0 7:1.0 12:1.0 28:1.0 189:1.0 245:1.0 315:1.0 572:1.0 
-0.0 -0.048008343984182855 0.3243347979962452 0.0 0.4336451880164454 3:2.0 4:3.0 5:16.0 6:12.0 7:3.0 8:1.0 12:1.0 74:1.0 564:1.0 573:1.0 574:1.0 575:1.0 
-0.0 -0.9126101510673876 0.012299168489437509 0.11483219675693414 0.0 2:1.0 3:2.0 4:1.0 5:5.0 6:5.0 7:1.0 12:1.0 576:1.0 
-0.0 -0.3176996640736305 0.08044788243931414 0.06212582216036372 0.0 2:1.0 3:2.0 4:3.0 5:7.0 6:4.0 7:2.0 188:1.0 518:1.0 577:1.0 
-0.0 -0.0 0.524353498859193 0.033643026040800585 0.22937867854656482 2:1.0 3:2.0 4:1.0 5:16.0 6:15.0 7:2.0 12:1.0 89:1.0 400:1.0 537:1.0 578:1.0 579:1.0 
-0.0 -2.0 0.0 0.0 0.0 2:1.0 3:2.0 4:1.0 5:5.0 6:5.0 7:1.0 9:1.0 
-0.0 -1.111135257168655 0.0 0.0 0.2335241848674231 3:2.0 4:1.0 5:7.0 6:7.0 7:1.0 8:1.0 12:1.0 177:1.0 
-0.0 -0.1402022938519074 0.10859082662449873 0.0 0.0 2:1.0 3:2.0 4:1.0 5:8.0 6:7.0 7:2.0 12:1.0 89:1.0 580:1.0 581:1.0 
-0.0 -2.0 2.0 2.0 2.0 2:1.0 3:2.0 4:5.0 5:12.0 6:7.0 7:2.0 9:1.0 
-0.0 -0.0 0.331943528078234 0.19316416685941296 0.02671420694069911 2:1.0 3:2.0 4:1.0 5:6.0 6:6.0 7:1.0 582:1.0 583:1.0 
-0.0 -0.09284373487749958 0.1452659039324893 0.0614384507172226 0.010478923911319656 2:1.0 3:2.0 4:1.0 5:8.0 6:6.0 7:3.0 584:1.0 585:2.0 
-1.0269302592567529 -2.0 1.6129451621318254 2.0 2.0 2:1.0 3:2.0 4:3.0 5:4.0 6:2.0 7:1.0 9:1.0 
-0.0 -2.0 0.0 0.0 0.0 2:1.0 3:2.0 4:1.0 5:8.0 6:8.0 7:1.0 9:1.0 
-0.6159181631884401 -0.06413896610733823 2.0 2.0 2.0 2:1.0 3:2.0 4:4.0 5:14.0 6:9.0 7:2.0 11:1.0 190:1.0 
-0.0 -0.17709281943019584 0.12270672748665021 0.0 0.23776227832278632 2:1.0 3:2.0 4:1.0 5:11.0 6:10.0 7:2.0 12:1.0 13:1.0 110:1.0 587:1.0 588:1.0 
-0.0 -0.0 0.18932256429277317 0.0 0.0 3:2.0 4:2.0 5:17.0 6:9.0 7:5.0 22:3.0 170:2.0 309:1.0 314:1.0 323:1.0 589:1.0 590:1.0 
-2.0 -2.0 0.0 2.0 2.0 2:1.0 3:2.0 4:2.0 5:4.0 6:3.0 7:1.0 9:1.0 
-0.0 -0.0 0.7026088208689056 0.0 0.0 3:2.0 4:1.0 5:10.0 6:10.0 7:1.0 8:1.0 170:1.0 315:1.0 591:1.0 
-0.0 -0.0 0.0 0.20938624208576379 0.0 2:1.0 3:2.0 4:1.0 5:18.0 6:18.0 7:1.0 12:1.0 35:1.0 119:1.0 592:1.0 593:1.0 
-0.0 -0.0 0.6246619601909646 0.07078198775026469 0.14055099853513336 2:1.0 3:2.0 4:3.0 5:16.0 6:13.0 7:1.0 28:1.0 141:1.0 477:1.0 594:1.0 595:1.0 596:1.0 
-0.0 -0.23652449240201626 0.6897502286898918 0.41560132358823915 0.0 2:1.0 3:2.0 4:1.0 5:9.0 6:6.0 7:3.0 49:1.0 167:1.0 377:1.0 
-0.0 -0.0 0.1931220993640771 0.01327217705159876 0.08034424435381388 3:2.0 4:2.0 5:16.0 6:14.0 7:1.0 28:1.0 314:1.0 323:1.0 597:1.0 598:1.0 599:1.0 600:1.0 601:1.0 
-0.0 -2.0 0.0 0.0 0.0 2:1.0 3:2.0 4:1.0 5:7.0 6:6.0 7:1.0 9:1.0 22:1.0 
-0.0 -0.40673021314041397 0.47280292069296626 0.1436989507148089 0.5503541011278956 2:1.0 3:2.0 4:3.0 5:12.0 6:8.0 7:1.0 28:1.0 49:1.0 165:1.0 602:1.0 603:1.0 
-0.0 -0.08000261018980581 0.49406821324095407 0.006942510225745824 0.7152618557305012 3:2.0 4:2.0 5:13.0 6:11.0 7:2.0 8:1.0 12:1.0 383:1.0 604:1.0 605:1.0 
-0.0 -2.0 0.0 2.0 0.0 2:1.0 3:2.0 4:4.0 5:8.0 6:4.0 7:2.0 12:1.0 194:1.0 
-0.0 -2.0 0.0 0.0 0.0 2:1.0 3:2.0 4:1.0 5:5.0 6:5.0 7:1.0 9:1.0 
-0.0 -0.0 0.3132536533886657 0.06928848628561451 0.06049374692885924 2:1.0 3:2.0 4:3.0 5:18.0 6:13.0 7:4.0 606:1.0 607:1.0 608:1.0 609:1.0 610:1.0 
-0.0 -0.0 0.3194944572124237 0.24471108458194812 0.1262338258022796 3:2.0 4:1.0 5:16.0 6:13.0 7:1.0 49:1.0 183:1.0 323:1.0 612:1.0 613:1.0 614:1.0 615:1.0 616:1.0 617:1.0 
-0.26925352634455685 -0.18298333594528945 0.5290106285991146 0.0 0.0 3:2.0 4:3.0 5:10.0 6:7.0 7:1.0 8:1.0 11:1.0 12:1.0 170:1.0 618:1.0 
-0.0 -0.0 0.8079269655179424 0.0 0.0 3:2.0 4:3.0 5:13.0 6:9.0 7:3.0 8:1.0 315:1.0 619:1.0 620:1.0 621:1.0 
-0.0 -0.13951484881987652 0.940158011478276 0.188423311415532 0.2238177578593266 2:1.0 3:2.0 4:3.0 5:7.0 6:4.0 7:1.0 49:1.0 622:1.0 623:1.0 
-0.0 -2.0 0.0 0.0 2.0 2:1.0 3:2.0 4:1.0 5:11.0 6:11.0 7:1.0 9:1.0 
-0.0 -2.0 0.0 0.0 0.0 2:1.0 3:2.0 4:1.0 5:9.0 6:9.0 7:1.0 9:1.0 
-0.0 -2.0 0.0 0.0 0.0 2:1.0 3:2.0 4:2.0 5:12.0 6:10.0 7:1.0 9:1.0 22:1.0 
-0.0 -2.0 0.0 0.0 0.0 2:1.0 3:2.0 4:1.0 5:7.0 6:7.0 7:1.0 9:1.0 
-0.0 -0.519707313903277 0.42551674999270533 0.0 0.4406174980592264 2:1.0 3:2.0 4:5.0 5:8.0 6:4.0 7:1.0 66:2.0 624:1.0 
-0.0 -0.0 0.8087586030871093 0.10759069603411271 0.11200256639951393 3:2.0 4:2.0 5:8.0 6:7.0 7:1.0 8:1.0 272:1.0 625:1.0 
-0.0 -1.06349213197939 0.0 0.1148801116440302 0.0 2:1.0 3:2.0 4:1.0 5:4.0 6:4.0 7:1.0 12:1.0 626:1.0 
-0.0 -0.38424224320448275 0.0 0.0 0.0 2:1.0 3:2.0 4:3.0 5:5.0 6:3.0 7:1.0 202:1.0 315:1.0 
-0.0 -2.0 0.0 0.0 0.0 2:1.0 3:2.0 4:1.0 5:7.0 6:7.0 7:1.0 9:1.0 
-0.0 -0.9126630453512339 0.012352583922710514 0.11485035259819136 0.0 2:1.0 3:2.0 4:1.0 5:5.0 6:5.0 7:1.0 12:1.0 627:1.0 
-0.0 -2.0 0.0 0.0 0.0 2:1.0 3:2.0 4:1.0 5:7.0 6:7.0 7:1.0 9:1.0 
-0.0 -1.1830535981551993 0.0 0.0 0.0 2:1.0 3:2.0 4:2.0 5:5.0 6:3.0 7:2.0 12:1.0 86:1.0 431:1.0 
-0.0 -1.3385580133812476 0.17373551351925398 0.1947237816985525 0.0 2:1.0 3:2.0 4:3.0 5:4.0 6:2.0 7:1.0 12:1.0 628:1.0 
-0.0 -2.0 0.0 0.0 0.0 2:1.0 3:2.0 4:1.0 5:7.0 6:7.0 7:1.0 9:1.0 
-0.0 -1.1903365321803705 0.0 2.0 2.0 2:1.0 3:2.0 4:1.0 5:16.0 6:16.0 7:1.0 9:1.0 
-0.0 -0.0 0.3815408894289382 0.21309738446108262 0.026811519721178116 2:1.0 3:2.0 4:2.0 5:7.0 6:6.0 7:1.0 629:1.0 630:1.0 
-0.14621136567041262 -0.0 1.2296470029343196 0.0 1.1391412358844053 3:2.0 4:3.0 5:10.0 6:7.0 7:1.0 8:1.0 11:1.0 74:1.0 170:1.0 631:1.0 
-0.0 -0.547109269708827 0.014192494826407009 0.05188338112666617 0.0 2:1.0 3:2.0 4:1.0 5:9.0 6:9.0 7:1.0 12:1.0 55:1.0 632:1.0 633:1.0 
-0.0 -1.3053670484704756 0.0 0.05740575646178188 0.0 2:1.0 3:2.0 4:1.0 5:7.0 6:7.0 7:1.0 12:1.0 46:1.0 634:1.0 
-0.0 -2.0 0.0 2.0 2.0 2:1.0 3:2.0 4:2.0 5:10.0 6:9.0 7:1.0 9:1.0 
-0.0 -0.1305209932210767 0.7176565177042338 0.626290179573993 0.7717927028070828 2:1.0 3:2.0 4:3.0 5:8.0 6:6.0 7:1.0 74:1.0 393:1.0 636:1.0 
-0.0 -0.060941140101058236 1.507354834507027 0.1510703840660999 0.0 3:2.0 4:3.0 5:5.0 6:3.0 7:1.0 323:1.0 637:1.0 638:1.0 
-0.0 -0.16093665096047846 0.3975071815877135 0.0 0.0 2:1.0 3:2.0 4:5.0 5:14.0 6:8.0 7:3.0 12:1.0 202:1.0 284:1.0 639:1.0 640:1.0 641:1.0 
-0.0 -2.0 0.0 0.0 0.0 2:1.0 3:2.0 4:1.0 5:4.0 6:4.0 7:1.0 12:1.0 108:1.0 
-0.0 -0.0 0.0 0.29658277467942556 0.1730006779724622 3:2.0 4:1.0 5:15.0 6:11.0 7:5.0 8:2.0 59:1.0 168:1.0 509:1.0 643:1.0 644:1.0 
-0.0 -0.0 0.0 0.050308583188040865 0.0 2:1.0 3:2.0 4:1.0 5:6.0 6:6.0 7:1.0 307:1.0 645:1.0 
-0.0 -0.0 0.0 0.4464580827884481 0.0 2:1.0 3:2.0 4:1.0 5:12.0 6:11.0 7:2.0 12:1.0 89:1.0 110:1.0 646:1.0 647:1.0 
-0.0 -2.0 0.0 2.0 2.0 2:1.0 3:2.0 4:1.0 5:4.0 6:4.0 7:1.0 9:1.0 
-0.0 -0.0 0.1764619116661582 0.0 0.0 2:1.0 3:2.0 4:1.0 5:11.0 6:8.0 7:4.0 168:1.0 509:1.0 648:1.0 
-0.0 -0.05279981646110703 0.1350400258979571 0.023776732954804227 0.0 2:1.0 3:2.0 4:5.0 5:14.0 6:9.0 7:2.0 12:1.0 456:1.0 639:1.0 649:1.0 650:1.0 
-0.0 -0.34778416647487603 0.15968943686414663 0.09322437742744333 0.203469101477018 2:1.0 3:2.0 4:5.0 5:10.0 6:5.0 7:1.0 12:1.0 28:1.0 651:1.0 652:1.0 653:1.0 
-0.0 -0.885958743802201 0.21431289640744172 0.194668069925942 0.0 2:1.0 3:2.0 4:3.0 5:7.0 6:5.0 7:1.0 12:1.0 654:1.0 
-0.0 -2.0 0.0 0.0 0.0 2:1.0 3:2.0 4:1.0 5:5.0 6:5.0 7:1.0 9:1.0 
-0.0 -0.0 0.16081147309136626 0.09484357678647458 0.0 2:1.0 3:2.0 4:3.0 5:11.0 6:9.0 7:1.0 509:1.0 642:1.0 655:1.0 656:1.0 
-0.0 -0.19013557758155034 0.11160632136262229 0.23962902586765822 0.0 2:1.0 3:2.0 4:4.0 5:10.0 6:7.0 7:1.0 12:1.0 657:1.0 658:1.0 659:1.0 
-0.0 -2.0 0.0 0.0 0.9426476773547399 2:1.0 3:2.0 4:1.0 5:9.0 6:9.0 7:1.0 9:1.0 
-0.0 -2.0 0.0 0.0 0.0 2:1.0 3:2.0 4:1.0 5:5.0 6:5.0 7:1.0 9:1.0 
-0.0 -0.30844580781773495 0.07380123807366268 0.17493827411061846 0.0 2:1.0 3:2.0 4:2.0 5:5.0 6:4.0 7:1.0 12:1.0 170:1.0 660:1.0 
-0.0 -2.0 0.0 0.0 0.0 2:1.0 3:2.0 4:1.0 5:7.0 6:7.0 7:1.0 9:1.0 
-0.0 -2.0 0.0 0.0 0.0 2:1.0 3:2.0 4:1.0 5:5.0 6:5.0 7:1.0 9:1.0 
-0.0 -0.0 0.3773558741698164 0.08793525076073518 0.0 2:1.0 3:2.0 4:3.0 5:11.0 6:8.0 7:2.0 12:1.0 284:1.0 662:1.0 663:1.0 
-0.0 -1.063432186651274 0.0 0.114878226684685 0.0 2:1.0 3:2.0 4:1.0 5:4.0 6:4.0 7:1.0 12:1.0 664:1.0 
-0.0 -0.0 0.1574532893259329 0.0 0.0 3:2.0 4:1.0 5:7.0 6:7.0 7:1.0 323:1.0 510:1.0 642:1.0 
-0.0 -0.36160286338832864 0.0 0.0 0.0 3:2.0 4:1.0 5:12.0 6:7.0 7:4.0 8:1.0 11:1.0 12:1.0 22:1.0 245:1.0 665:1.0 666:1.0 667:1.0 
-0.0 -0.0 0.33195772745446106 0.19317385795357536 0.4397469431552723 2:1.0 3:2.0 4:1.0 5:6.0 6:6.0 7:1.0 668:1.0 669:1.0 
-0.0 -0.0 1.2791216922252442 0.0 0.023577190572104608 2:1.0 3:2.0 4:4.0 5:10.0 6:6.0 7:1.0 28:1.0 315:1.0 559:1.0 670:1.0 
-0.0 -2.0 0.0 0.0 0.0 2:1.0 3:2.0 4:1.0 5:9.0 6:8.0 7:1.0 9:1.0 22:1.0 
-0.0 -0.07769124257221642 0.2557633458792187 0.012488306242357543 0.12284770423211984 2:1.0 3:2.0 4:5.0 5:18.0 6:11.0 7:2.0 12:1.0 22:1.0 28:1.0 152:1.0 671:1.0 672:1.0 673:1.0 674:2.0 
-0.0 -2.0 1.060356883520113 0.5909994673942227 0.399898798581277 2:1.0 3:2.0 4:1.0 5:7.0 6:5.0 7:3.0 47:1.0 149:1.0 
-0.0 -0.2986584745451378 0.06820903580723196 0.09077038726212536 0.0 2:1.0 3:2.0 4:2.0 5:8.0 6:7.0 7:1.0 12:1.0 675:1.0 676:1.0 
-1.0394016824628818 -2.0 0.0 1.816433821085199 1.962030420669127 2:1.0 3:2.0 4:1.0 5:3.0 6:3.0 7:1.0 9:1.0 
-0.0 -0.0 2.0 0.14887186076752387 0.15859669114966965 2:1.0 3:2.0 4:3.0 5:10.0 6:7.0 7:2.0 59:1.0 489:1.0 677:1.0 678:1.0 
-0.0 -0.9099266360567526 0.0 0.0 0.0 2:1.0 3:2.0 4:3.0 5:9.0 6:7.0 7:1.0 12:1.0 119:1.0 170:1.0 
-0.0 -0.3053586753913015 0.01856038446319365 0.20721887190934293 0.0 2:1.0 3:2.0 4:1.0 5:7.0 6:7.0 7:1.0 12:1.0 679:1.0 680:1.0 
-0.0 -0.0 0.5094753155011408 0.10183896533718714 0.0 2:1.0 3:2.0 4:1.0 5:12.0 6:12.0 7:1.0 255:1.0 284:1.0 682:1.0 683:1.0 684:1.0 
-0.0 -2.0 0.0 0.0 0.0 2:1.0 3:2.0 4:1.0 5:5.0 6:5.0 7:1.0 9:1.0 
-0.03345284381303378 -0.0 0.45350421284134707 0.0 0.0 3:2.0 4:1.0 5:10.0 6:8.0 7:2.0 8:1.0 11:1.0 197:1.0 685:1.0 686:1.0 
-0.0 -0.0 1.0278475569953511 0.0 0.0 2:1.0 3:2.0 4:1.0 5:9.0 6:9.0 7:1.0 12:1.0 170:1.0 525:1.0 
-0.0 -0.0 0.0 0.041940905488028986 0.0 2:1.0 3:2.0 4:1.0 5:8.0 6:8.0 7:1.0 518:1.0 687:1.0 688:1.0 
-0.0 -2.0 0.0 2.0 2.0 2:1.0 3:2.0 4:1.0 5:14.0 6:14.0 7:1.0 9:1.0 
-0.21535296658434266 -0.8499244132013766 0.3340393405524769 0.24267174404398875 0.28007551255135843 2:1.0 3:2.0 4:6.0 5:14.0 6:5.0 7:3.0 11:1.0 12:1.0 49:1.0 194:1.0 689:1.0 
-0.0 -0.2355796537839606 0.0 0.0 0.10909276184943989 2:1.0 3:2.0 4:1.0 5:15.0 6:14.0 7:2.0 12:1.0 13:1.0 110:1.0 185:1.0 386:1.0 690:1.0 
-0.0 -2.0 0.0 0.0 0.0 2:1.0 3:2.0 4:1.0 5:5.0 6:5.0 7:1.0 9:1.0 
-0.0 -2.0 2.0 0.0 0.0 2:1.0 3:2.0 4:2.0 5:9.0 6:5.0 7:3.0 9:1.0 39:1.0 
-0.0 -2.0 0.0 0.0 0.0 2:1.0 3:2.0 4:1.0 5:5.0 6:5.0 7:1.0 9:1.0 
-0.0 -2.0 0.0 0.0 0.0 2:1.0 3:2.0 4:1.0 5:5.0 6:5.0 7:1.0 9:1.0 
-0.0 -0.19638740421554393 0.3758145168651186 0.12423085513208315 0.33730540892474375 2:1.0 3:2.0 4:5.0 5:14.0 6:6.0 7:2.0 28:2.0 39:1.0 310:1.0 691:1.0 692:1.0 693:1.0 
-0.0 -0.0 0.24982265477159643 0.12669184874392864 0.013641999708434965 2:1.0 3:2.0 4:4.0 5:12.0 6:9.0 7:1.0 694:1.0 695:1.0 696:1.0 697:1.0 
-0.1116065292902622 -0.0 0.5967113322782279 0.2169209721413685 0.0 2:1.0 3:2.0 4:1.0 5:15.0 6:14.0 7:1.0 11:1.0 167:1.0 196:1.0 698:1.0 699:1.0 
-0.0 -2.0 0.0 0.0 0.0 2:1.0 3:2.0 4:1.0 5:7.0 6:7.0 7:1.0 9:1.0 
-1.1047773111385788 -2.0 2.0 2.0 0.0 2:1.0 3:2.0 4:3.0 5:7.0 6:4.0 7:2.0 9:1.0 
-0.0 -0.04838475024158759 1.0627312374231574 0.08605848703447072 0.4307585378582012 2:1.0 3:2.0 4:3.0 5:8.0 6:6.0 7:1.0 66:1.0 700:1.0 701:1.0 
-2.0 -2.0 2.0 0.9658402012363095 2.0 2:1.0 3:2.0 4:4.0 5:15.0 6:9.0 7:2.0 9:1.0 11:1.0 22:1.0 
-0.0 -0.0720909356353254 0.0 0.0 0.0 2:1.0 3:2.0 4:2.0 5:10.0 6:9.0 7:1.0 12:1.0 592:1.0 702:1.0 703:1.0 
-0.0 -0.0 0.2576963330893908 0.0 0.0 2:1.0 3:2.0 4:1.0 5:10.0 6:8.0 7:1.0 10:1.0 22:1.0 170:1.0 518:1.0 550:1.0 704:1.0 
-0.0 -0.0 0.39402704564516144 0.4047338598091159 0.02690199412313048 2:1.0 3:2.0 4:2.0 5:9.0 6:8.0 7:1.0 705:1.0 706:1.0 
-0.0 -0.0070465408446810625 0.0 0.0 0.0 2:1.0 3:2.0 4:3.0 5:13.0 6:10.0 7:2.0 12:1.0 89:1.0 97:1.0 325:1.0 707:1.0 708:1.0 
-0.0 -0.0 0.4062568456293255 0.11573314152097236 0.01789570564737174 2:1.0 3:2.0 4:1.0 5:12.0 6:11.0 7:2.0 474:1.0 709:1.0 710:1.0 
-0.0 -0.5627224457957096 0.49335054287582614 0.20659025950978968 0.0 2:1.0 3:2.0 4:1.0 5:7.0 6:7.0 7:1.0 12:1.0 574:1.0 
-0.0 -2.0 0.0 0.0 0.0 2:1.0 3:2.0 4:1.0 5:5.0 6:5.0 7:1.0 9:1.0 
-0.0 -0.0 0.08743421704120587 0.0 0.021147957675113252 3:2.0 4:1.0 5:19.0 6:15.0 7:3.0 8:1.0 11:1.0 22:1.0 99:1.0 153:1.0 168:1.0 529:1.0 711:1.0 712:1.0 713:1.0 
-0.0 -0.0 0.6971570413993965 0.1283988800337073 0.0 2:1.0 3:2.0 4:5.0 5:8.0 6:4.0 7:1.0 572:1.0 714:1.0 715:1.0 
-0.0 -0.0 0.0 0.0 2.0 2:1.0 3:2.0 4:1.0 5:9.0 6:9.0 7:1.0 190:1.0 
-0.0 -0.0 0.011878008599755244 0.0 0.06966797930128717 2:1.0 3:2.0 4:2.0 5:15.0 6:11.0 7:4.0 12:1.0 59:1.0 268:1.0 572:1.0 716:1.0 
-0.0 -2.0 0.0 0.0 2.0 2:1.0 3:2.0 4:1.0 5:7.0 6:6.0 7:1.0 9:1.0 49:1.0 
-0.0 -2.0 0.0 0.0 0.0 2:1.0 3:2.0 4:1.0 5:6.0 6:6.0 7:1.0 9:1.0 
-0.0 -0.3622221633495653 0.05706480680138467 0.0 0.0 2:1.0 3:2.0 4:1.0 5:7.0 6:7.0 7:1.0 202:1.0 427:1.0 
-0.0 -1.0500846764447422 2.0 0.3869027359821967 0.0 2:1.0 3:2.0 4:2.0 5:5.0 6:4.0 7:1.0 12:1.0 717:1.0 
-0.0 -0.0 0.3160225846342152 0.32884446359519814 0.0 3:2.0 4:1.0 5:9.0 6:7.0 7:3.0 323:1.0 377:1.0 718:1.0 719:1.0 
-0.0 -0.0 0.33813502002705587 0.19317695485945052 0.0 2:1.0 3:2.0 4:1.0 5:7.0 6:7.0 7:1.0 547:1.0 720:1.0 
-0.0 -0.0 0.0 0.5999990465030366 0.47287428300749074 2:1.0 3:2.0 4:1.0 5:8.0 6:8.0 7:1.0 12:1.0 294:1.0 721:1.0 
-0.0 -0.0983651765533056 0.0 0.0 0.0 2:1.0 3:2.0 4:2.0 5:10.0 6:9.0 7:1.0 12:1.0 434:1.0 722:1.0 723:1.0 
-0.0 -0.0 0.2334542286945525 0.026920245630566452 0.0 2:1.0 3:2.0 4:1.0 5:4.0 6:4.0 7:1.0 245:1.0 724:1.0 
-1.3565785268483082 -2.0 0.0 2.0 1.9391615512310663 2:1.0 3:2.0 4:1.0 5:3.0 6:3.0 7:1.0 9:1.0 
-0.5274129865014229 -2.0 2.0 2.0 2.0 2:1.0 3:2.0 4:3.0 5:6.0 6:4.0 7:1.0 9:1.0 
-0.0 -0.476123245340104 0.8689376391978257 0.4096242785611603 0.33591387993606137 3:2.0 4:2.0 5:3.0 6:2.0 7:1.0 8:1.0 463:1.0 
-0.0 -2.0 0.0 0.0 0.0 2:1.0 3:2.0 4:1.0 5:5.0 6:5.0 7:1.0 9:1.0 
-0.0 -2.0 0.0 0.0 0.0 2:1.0 3:2.0 4:2.0 5:7.0 6:5.0 7:1.0 9:1.0 22:1.0 
-0.0 -0.0 0.0 0.0 0.4859192745988187 2:1.0 3:2.0 4:4.0 5:13.0 6:9.0 7:1.0 28:1.0 315:1.0 484:1.0 563:1.0 725:1.0 
-0.0 -2.0 1.430691143964544 2.0 2.0 2:1.0 3:2.0 4:2.0 5:11.0 6:10.0 7:1.0 9:1.0 
-0.0 -0.20072415788459264 0.19054230687210372 0.0 0.0 2:1.0 3:2.0 4:3.0 5:11.0 6:8.0 7:2.0 12:1.0 489:1.0 726:1.0 727:1.0 
-0.0 -2.0 0.0 0.0 0.0 2:1.0 3:2.0 4:1.0 5:10.0 6:8.0 7:3.0 9:1.0 
-0.0 -0.022808223453019395 0.3493745493099093 0.040767622349719874 0.5147186469814956 2:1.0 3:2.0 4:4.0 5:11.0 6:8.0 7:1.0 74:1.0 728:1.0 729:1.0 730:1.0 
-0.0 -0.0 1.1253759966443195 0.0 0.0 2:1.0 3:2.0 4:1.0 5:10.0 6:8.0 7:3.0 478:1.0 717:1.0 731:1.0 
-0.0 -0.06332377548095354 0.09644253712128904 0.0233482988069626 0.0 2:1.0 3:2.0 4:3.0 5:16.0 6:12.0 7:3.0 12:1.0 591:1.0 732:1.0 733:1.0 734:1.0 735:1.0 
-0.0 -2.0 0.0 0.0 1.5738494953332143 2:1.0 3:2.0 4:1.0 5:5.0 6:5.0 7:1.0 9:1.0 
-0.0 -2.0 0.0 0.0 0.0 2:1.0 3:2.0 4:1.0 5:8.0 6:8.0 7:1.0 9:1.0 
-0.0 -2.0 0.0 0.0 0.0 3:2.0 4:2.0 5:10.0 6:7.0 7:3.0 25:1.0 26:1.0 
-0.0 -2.0 0.012315843033376909 0.11483100900920047 0.0 2:1.0 3:2.0 4:1.0 5:5.0 6:5.0 7:1.0 12:1.0 218:1.0 
-0.0 -2.0 2.0 2.0 2.0 2:1.0 3:2.0 4:4.0 5:6.0 6:3.0 7:1.0 9:1.0 
-0.0 -2.0 0.0 0.0 1.5922413854064803 2:1.0 3:2.0 4:1.0 5:5.0 6:5.0 7:1.0 9:1.0 
-0.0 -1.307784699164977 0.031175662950058695 0.07533201413324547 0.0 2:1.0 3:2.0 4:1.0 5:5.0 6:4.0 7:2.0 12:1.0 736:1.0 
-0.0 -0.0 0.0 0.10088679492921138 0.0 2:1.0 3:2.0 4:1.0 5:9.0 6:7.0 7:3.0 531:1.0 731:1.0 737:1.0 
-0.0 -2.0 0.0 0.0 1.2382727168235383 2:1.0 3:2.0 4:1.0 5:5.0 6:5.0 7:1.0 9:1.0 
-0.0 -0.0 0.4953549142566351 0.8986011486662204 0.34227538335322705 2:1.0 3:2.0 4:1.0 5:9.0 6:6.0 7:2.0 10:1.0 12:1.0 49:1.0 89:1.0 550:1.0 738:1.0 
-0.0 -0.0 0.0 0.0 0.12375534919438531 2:1.0 3:2.0 4:3.0 5:11.0 6:9.0 7:1.0 66:1.0 739:1.0 740:1.0 
-0.0 -2.0 0.0 0.0 0.0 2:1.0 3:2.0 4:1.0 5:6.0 6:6.0 7:1.0 9:1.0 
-0.0 -2.0 0.0 0.0 2.0 2:1.0 3:2.0 4:1.0 5:5.0 6:5.0 7:1.0 9:1.0 
-0.0 -0.0 0.5605830094668822 0.168855676960647 0.01812177290770598 2:1.0 3:2.0 4:4.0 5:11.0 6:8.0 7:1.0 580:1.0 741:1.0 742:1.0 
-0.0 -0.0 0.6187564459618357 0.0 0.0 2:1.0 3:2.0 4:3.0 5:8.0 6:6.0 7:1.0 300:1.0 315:1.0 745:1.0 
-0.0 -2.0 2.0 0.0 2.0 2:1.0 3:2.0 4:3.0 5:17.0 6:13.0 7:1.0 9:1.0 22:1.0 28:1.0 
-0.0 -0.0 0.687793160689063 0.2039041687275306 0.2339567779094644 2:1.0 3:2.0 4:3.0 5:12.0 6:9.0 7:1.0 28:1.0 746:1.0 747:1.0 748:1.0 
-0.0 -2.0 0.0 2.0 2.0 2:1.0 3:2.0 4:1.0 5:13.0 6:13.0 7:1.0 9:1.0 
-0.38553665969763495 -0.0 0.1447931352275589 0.0 0.0 2:1.0 3:2.0 4:1.0 5:9.0 6:8.0 7:1.0 8:1.0 11:1.0 197:1.0 456:1.0 749:1.0 750:1.0 
-0.0 -2.0 0.0 0.6526467045217247 2.0 2:1.0 3:2.0 4:1.0 5:11.0 6:11.0 7:1.0 9:1.0 
-0.07617133423332915 -0.0 1.4485367563040246 0.38590318312244815 0.004159074214597336 2:1.0 3:2.0 4:1.0 5:11.0 6:10.0 7:1.0 11:1.0 194:1.0 352:1.0 751:1.0 
-0.0 -0.0 0.3619911225280636 0.049019975834451786 0.007152647305241309 2:1.0 3:2.0 4:3.0 5:16.0 6:11.0 7:4.0 622:1.0 752:1.0 753:1.0 754:1.0 
-0.0 -0.0 0.03354337420106255 0.0 0.0 3:2.0 4:2.0 5:16.0 6:14.0 7:2.0 8:1.0 279:1.0 431:1.0 612:1.0 755:1.0 756:1.0 757:1.0 
-0.0 -0.11376071018330586 0.0 0.0 0.0 2:1.0 3:2.0 4:3.0 5:7.0 6:4.0 7:2.0 12:1.0 315:1.0 451:1.0 
-0.0 -0.4143130218877992 0.7821579745261259 0.0 0.12655314552314165 3:2.0 4:1.0 5:3.0 6:3.0 7:1.0 8:1.0 287:1.0 
-0.0 -0.0 0.679507030895445 0.06285125441679837 0.0 2:1.0 3:2.0 4:3.0 5:10.0 6:8.0 7:1.0 12:1.0 284:1.0 386:1.0 760:1.0 
-0.0 -0.19692834366493736 0.097419005717328 0.1170498269267618 0.4056184808265332 2:1.0 3:2.0 4:3.0 5:8.0 6:4.0 7:2.0 12:1.0 49:1.0 59:1.0 273:1.0 761:1.0 
-0.0 -0.23089503641657327 0.3544375521971189 0.19560583995141018 0.3504759524086321 2:1.0 3:2.0 4:1.0 5:5.0 6:4.0 7:1.0 28:1.0 762:1.0 763:1.0 
-0.0 -2.0 0.0 0.0 2.0 2:1.0 3:2.0 4:1.0 5:11.0 6:11.0 7:1.0 9:1.0 
-0.0 -0.0 0.12917051632580606 0.04654245920729162 0.008975406795262627 2:1.0 3:2.0 4:1.0 5:10.0 6:10.0 7:1.0 764:2.0 765:1.0 766:1.0 
-0.0 -0.5651290625127311 0.0 0.03562976620131313 0.0 2:1.0 3:2.0 4:3.0 5:8.0 6:5.0 7:2.0 12:1.0 526:1.0 767:1.0 
-0.0 -0.0 0.2219987211780248 0.0 0.0 2:1.0 3:2.0 4:3.0 5:7.0 6:5.0 7:1.0 245:1.0 769:1.0 770:1.0 
-0.0 -2.0 0.0 0.0 0.0 2:1.0 3:2.0 4:1.0 5:9.0 6:9.0 7:1.0 9:1.0 
-0.0 -0.07869147411640444 0.037303991956562955 0.10024599307229796 0.0 2:1.0 3:2.0 4:1.0 5:10.0 6:10.0 7:1.0 12:1.0 771:1.0 772:1.0 
-0.0 -2.0 0.0 0.0 0.0 2:1.0 3:2.0 4:1.0 5:6.0 6:6.0 7:1.0 9:1.0 
-0.0 -1.0634397625645458 0.0 0.11487925056534015 0.0 2:1.0 3:2.0 4:1.0 5:4.0 6:4.0 7:1.0 12:1.0 773:1.0 
-0.0 -0.0 2.0 0.0 0.0 2:1.0 3:2.0 4:3.0 5:5.0 6:3.0 7:1.0 167:1.0 273:1.0 
-0.0 -0.2916074693805671 0.7607025735221273 0.15551493052294904 0.01539600367382716 2:1.0 3:2.0 4:3.0 5:10.0 6:8.0 7:1.0 127:1.0 774:1.0 775:1.0 
-0.0 -0.6338946182776586 0.7078305328046623 0.09760244409127959 0.0 2:1.0 3:2.0 4:4.0 5:8.0 6:4.0 7:2.0 12:1.0 776:1.0 777:1.0 
-0.0 -2.0 0.0 0.0 0.0 2:1.0 3:2.0 4:1.0 5:8.0 6:6.0 7:3.0 9:1.0 
-0.0 -2.0 0.0 0.0 2.0 2:1.0 3:2.0 4:1.0 5:5.0 6:5.0 7:1.0 9:1.0 
-0.0 -0.11026805106258264 0.0 0.05162351819993873 0.02352903941488126 2:1.0 3:2.0 4:1.0 5:5.0 6:4.0 7:1.0 49:1.0 295:1.0 778:1.0 
-0.0 -2.0 0.0 0.0 0.0 2:1.0 3:2.0 4:1.0 5:6.0 6:6.0 7:1.0 9:1.0 
-0.0 -2.0 0.0 0.0 2.0 2:1.0 3:2.0 4:1.0 5:5.0 6:5.0 7:1.0 9:1.0 
-0.0 -2.0 0.0 0.0 2.0 2:1.0 3:2.0 4:1.0 5:5.0 6:5.0 7:1.0 9:1.0 
-0.11724556373295744 -0.06900834153611572 0.4083354317921782 0.10368671431800426 0.5870494806752256 2:1.0 3:2.0 4:1.0 5:11.0 6:9.0 7:2.0 11:1.0 12:1.0 89:1.0 358:1.0 779:1.0 780:1.0 
-0.0 -0.19436402893548207 0.31505904187764255 0.0 0.0 2:1.0 3:2.0 4:1.0 5:7.0 6:6.0 7:1.0 39:1.0 167:1.0 781:1.0 782:1.0 
-0.0 -2.0 0.0 0.0 2.0 2:1.0 3:2.0 4:1.0 5:5.0 6:5.0 7:1.0 9:1.0 
-0.0 -2.0 0.0 0.0 0.0 2:1.0 3:2.0 4:1.0 5:7.0 6:6.0 7:1.0 9:1.0 22:1.0 
-0.0 -0.0 0.9320368107082603 0.0 0.0 3:2.0 4:3.0 5:9.0 6:7.0 7:1.0 164:1.0 323:1.0 783:1.0 784:1.0 
-0.0 -0.0 0.3199825544976466 0.0 0.0 3:2.0 4:2.0 5:7.0 6:6.0 7:1.0 167:1.0 323:1.0 785:1.0 786:1.0 
-0.0 -0.12320607934416272 0.0 0.0 0.15246881607797694 2:1.0 3:2.0 4:1.0 5:10.0 6:9.0 7:1.0 12:1.0 28:1.0 547:1.0 787:1.0 788:1.0 789:1.0 
-0.0 -0.0 0.36572424666394576 0.0 0.0 2:1.0 3:2.0 4:5.0 5:17.0 6:11.0 7:3.0 12:1.0 168:1.0 284:1.0 790:1.0 791:1.0 792:1.0 793:1.0 
-0.30830925900078143 -0.0 0.0 0.0 1.0331898761944842 2:1.0 3:2.0 4:1.0 5:11.0 6:10.0 7:1.0 11:1.0 465:1.0 518:1.0 
-0.0 -1.4640960004008374 0.4003804747715413 0.0 0.0 2:1.0 3:2.0 4:3.0 5:8.0 6:4.0 7:3.0 12:1.0 110:1.0 794:1.0 
-0.0 -0.0 0.0 1.5984690238151946 0.0 2:1.0 3:2.0 4:1.0 5:6.0 6:6.0 7:1.0 277:1.0 795:1.0 
-0.0 -0.0 0.17865527515761004 0.6729299117598966 0.0 2:1.0 3:2.0 4:2.0 5:7.0 6:6.0 7:1.0 245:1.0 796:1.0 797:1.0 
-0.0 -0.3297541506329324 0.6549606663563886 1.1141582552770462 0.5757757412995983 2:1.0 3:2.0 4:3.0 5:7.0 6:4.0 7:1.0 10:1.0 798:1.0 799:1.0 
-0.0 -0.0 0.25252052445182344 0.48587295295971955 0.11678626075928986 2:1.0 3:2.0 4:1.0 5:4.0 6:4.0 7:1.0 109:1.0 800:1.0 
-0.30912509255461373 -0.08121934665305906 0.3771813351267664 0.19851954865764398 0.25286740007847675 2:1.0 3:2.0 4:1.0 5:8.0 6:7.0 7:1.0 11:1.0 316:1.0 801:1.0 
-0.0 -0.0 2.0 0.0 0.0 3:2.0 4:1.0 5:6.0 6:6.0 7:1.0 46:1.0 98:1.0 307:1.0 802:1.0 
-0.0 -0.06781180170090181 0.23740264711564957 0.12166693967109446 0.013585889325277689 2:1.0 3:2.0 4:4.0 5:11.0 6:8.0 7:1.0 253:1.0 803:1.0 804:1.0 
-0.0 -0.0 2.0 1.7367704012587764 0.0 2:1.0 3:2.0 4:4.0 5:12.0 6:8.0 7:2.0 32:1.0 284:1.0 739:1.0 
-0.0 -2.0 0.0 0.0 0.0 2:1.0 3:2.0 4:1.0 5:8.0 6:7.0 7:2.0 9:1.0 
-0.0 -0.0 0.13474776303289282 0.020477596499869397 0.0 2:1.0 3:2.0 4:7.0 5:14.0 6:7.0 7:2.0 272:1.0 273:1.0 318:1.0 805:1.0 
-0.04449062778904435 -0.0 0.12565110868757778 0.0 0.0 2:1.0 3:2.0 4:5.0 5:15.0 6:10.0 7:1.0 11:1.0 170:1.0 343:1.0 806:1.0 807:1.0 
-0.0 -0.0 0.38594346569300675 0.0 0.21436656794636474 2:1.0 3:2.0 4:2.0 5:17.0 6:16.0 7:1.0 74:1.0 412:1.0 808:1.0 809:1.0 810:1.0 
-0.0 -0.0 0.19318916855102808 0.4286037037817695 0.0 2:1.0 3:2.0 4:3.0 5:9.0 6:7.0 7:1.0 245:1.0 811:1.0 812:1.0 
-0.0 -0.017502815009364653 0.21911722409765164 0.0 0.0 2:1.0 3:2.0 4:1.0 5:16.0 6:8.0 7:5.0 22:3.0 170:1.0 183:1.0 813:1.0 814:1.0 
-0.0 -0.0850583995195048 0.0 0.12847447201818987 0.046734458809332496 2:1.0 3:2.0 4:1.0 5:7.0 6:6.0 7:2.0 12:1.0 89:1.0 109:1.0 815:1.0 
-0.0 -2.0 2.0 2.0 2.0 2:1.0 3:2.0 4:3.0 5:8.0 6:6.0 7:1.0 9:1.0 
-0.0 -0.298057360589 2.0 0.4939538372698374 0.355912738579244 3:2.0 4:3.0 5:7.0 6:3.0 7:2.0 59:1.0 98:1.0 160:1.0 802:1.0 816:1.0 
-0.0 -0.20888745269616038 2.0 1.389012456066502 0.13315677639430354 3:2.0 4:2.0 5:4.0 6:3.0 7:1.0 8:1.0 268:1.0 817:1.0 
-0.0 -0.21411229321583164 0.31340070975371576 0.19327022917797124 0.026771997611928874 2:1.0 3:2.0 4:1.0 5:3.0 6:3.0 7:1.0 818:1.0 819:1.0 
-0.0 -2.0 2.0 2.0 0.07891647644459174 2:1.0 3:2.0 4:4.0 5:9.0 6:5.0 7:2.0 9:1.0 
-2.0 -1.807470678487402 0.0 0.0 0.013095718074824158 2:1.0 3:2.0 4:1.0 5:5.0 6:4.0 7:1.0 9:1.0 19:1.0 
-0.0 -0.0 0.3294576585913275 0.030817126335649 0.0 2:1.0 3:2.0 4:2.0 5:9.0 6:8.0 7:1.0 518:1.0 820:1.0 821:1.0 
-2.0 -2.0 2.0 2.0 2.0 2:1.0 3:2.0 4:3.0 5:6.0 6:4.0 7:1.0 9:1.0 
-0.0 -2.0 1.916349045401244 0.0 0.0 2:1.0 3:2.0 4:2.0 5:8.0 6:5.0 7:3.0 9:1.0 
-0.0 -2.0 0.0 0.0 0.0 2:1.0 3:2.0 4:1.0 5:8.0 6:8.0 7:1.0 9:1.0 
-0.0 -0.0 0.3536066674952434 0.18214677760423917 0.018131588234656857 2:1.0 3:2.0 4:5.0 5:10.0 6:6.0 7:1.0 823:1.0 824:1.0 825:1.0 
-0.0 -0.0 0.3035725853647108 0.08632509507954564 0.1238419180228445 2:1.0 3:2.0 4:3.0 5:12.0 6:10.0 7:1.0 66:1.0 826:1.0 827:1.0 
-0.0 -2.0 0.0 0.0 0.0 2:1.0 3:2.0 4:1.0 5:7.0 6:7.0 7:1.0 9:1.0 
-0.0 -0.0 0.23899671512449563 0.3729882936184072 0.0 2:1.0 3:2.0 4:1.0 5:7.0 6:7.0 7:1.0 194:1.0 828:1.0 
-0.8538390208420279 -2.0 0.0 0.0 1.922220017658659 2:1.0 3:2.0 4:1.0 5:4.0 6:4.0 7:1.0 9:1.0 
-0.0 -0.48815341674125773 0.5879599783202976 0.0 0.0 2:1.0 3:2.0 4:3.0 5:7.0 6:4.0 7:2.0 12:1.0 572:1.0 829:1.0 
-0.0 -0.0 0.301273251637543 0.08032101740373435 0.2261100621936598 2:1.0 3:2.0 4:5.0 5:15.0 6:9.0 7:1.0 28:1.0 49:1.0 830:1.0 831:1.0 832:1.0 833:1.0 
-0.0 -0.0788040201217194 0.0 0.0 0.0 2:1.0 3:2.0 4:1.0 5:9.0 6:9.0 7:1.0 12:1.0 478:1.0 703:1.0 834:1.0 
-0.0 -0.3047844791922663 0.0 0.0 0.26713427506601856 2:1.0 3:2.0 4:3.0 5:9.0 6:4.0 7:2.0 12:1.0 28:1.0 160:1.0 572:1.0 816:1.0 
-0.0 -0.0 0.1446769157388715 0.09066943724962627 0.013485907449395653 2:1.0 3:2.0 4:1.0 5:10.0 6:10.0 7:1.0 649:1.0 835:1.0 836:1.0 837:1.0 
-0.0 -2.0 0.0 0.0 0.0 3:2.0 4:2.0 5:8.0 6:5.0 7:3.0 25:1.0 26:1.0 
-0.0 -2.0 2.0 0.0 0.700685793356398 2:1.0 3:2.0 4:1.0 5:29.0 6:22.0 7:8.0 9:1.0 
-0.0 -0.0 1.2416073373708836 0.08060993112894456 0.0 2:1.0 3:2.0 4:3.0 5:11.0 6:7.0 7:1.0 22:1.0 49:1.0 309:1.0 412:1.0 840:1.0 
-0.0 -0.0 0.6539661482280392 0.0 0.0 2:1.0 3:2.0 4:3.0 5:14.0 6:12.0 7:1.0 12:1.0 98:1.0 119:1.0 841:1.0 842:1.0 
-0.0 -0.09422293918361922 0.16624645636294194 1.4085282106930455 0.33435265266151293 2:1.0 3:2.0 4:1.0 5:12.0 6:11.0 7:1.0 10:1.0 64:1.0 431:1.0 779:1.0 843:1.0 
-0.0 -1.0634201534641632 0.0 0.11487844103470249 0.0 2:1.0 3:2.0 4:1.0 5:4.0 6:4.0 7:1.0 12:1.0 844:1.0 
-0.0 -0.0 0.0 0.34475860919023527 0.0 2:1.0 3:2.0 4:5.0 5:13.0 6:8.0 7:2.0 109:1.0 119:1.0 258:1.0 552:1.0 
-0.0 -0.6472155037999044 0.06517405188220828 0.057614317484495484 0.41811683424299684 2:1.0 3:2.0 4:2.0 5:6.0 6:4.0 7:2.0 12:1.0 845:1.0 846:1.0 
-0.0 -2.0 2.0 0.0 2.0 2:1.0 3:2.0 4:3.0 5:22.0 6:17.0 7:4.0 9:1.0 
-0.0 -0.2783550949026511 0.0 0.011807351092222241 0.0 2:1.0 3:2.0 4:1.0 5:14.0 6:10.0 7:5.0 75:1.0 279:1.0 330:1.0 414:1.0 847:1.0 848:1.0 
-0.0 -0.16596610182061908 0.06215583227837702 0.32088243646901127 0.0 2:1.0 3:2.0 4:3.0 5:6.0 6:3.0 7:1.0 160:1.0 440:1.0 849:1.0 
-0.0 -0.4628369954421759 0.0 0.19031271710244607 0.0 2:1.0 3:2.0 4:1.0 5:4.0 6:3.0 7:1.0 12:1.0 38:1.0 830:1.0 850:1.0 
-0.0 -0.2604778404996007 0.1464830084637118 0.0 0.0 2:1.0 3:2.0 4:3.0 5:9.0 6:7.0 7:1.0 12:1.0 203:1.0 851:1.0 852:1.0 
-0.0 -2.0 2.0 2.0 2.0 2:1.0 3:2.0 4:4.0 5:8.0 6:5.0 7:1.0 9:1.0 
-0.0 -0.0 0.9484500453312649 0.4731129933365829 0.0 2:1.0 3:2.0 4:5.0 5:14.0 6:9.0 7:1.0 10:1.0 12:1.0 284:1.0 315:1.0 853:1.0 854:1.0 
-0.0 -0.0 0.0 0.028955901134097545 0.0 2:1.0 3:2.0 4:1.0 5:11.0 6:11.0 7:1.0 12:1.0 203:1.0 243:1.0 314:1.0 855:1.0 
-0.0 -2.0 2.0 2.0 2.0 2:1.0 3:2.0 4:3.0 5:15.0 6:12.0 7:2.0 9:1.0 
-0.0 -0.0 0.12726582800693492 0.0 0.023028896414781556 2:1.0 3:2.0 4:2.0 5:9.0 6:6.0 7:2.0 28:1.0 315:1.0 856:1.0 857:1.0 
-0.0 -0.0 0.0 0.0 0.005825199041254767 2:1.0 3:2.0 4:1.0 5:7.0 6:7.0 7:1.0 164:1.0 858:1.0 859:1.0 
-0.0 -0.0 0.08257487461502812 0.0 0.0 2:1.0 3:2.0 4:1.0 5:11.0 6:9.0 7:3.0 245:1.0 811:1.0 860:1.0 
-0.0 -2.0 0.0 2.0 2.0 2:1.0 3:2.0 4:2.0 5:5.0 6:4.0 7:1.0 9:1.0 
-0.02194837531532249 -0.0 0.2581276433982001 0.0 0.0 2:1.0 3:2.0 4:5.0 5:21.0 6:15.0 7:2.0 11:1.0 59:1.0 170:1.0 764:1.0 861:1.0 862:1.0 863:1.0 864:1.0 
-0.0 -0.17742248645844563 0.47273619747562734 0.22498457860655705 0.16816217190927404 3:2.0 4:4.0 5:7.0 6:4.0 7:1.0 8:1.0 203:1.0 865:1.0 
-0.0 -0.014479704930713226 0.09101309624961176 0.8939226068265459 1.7011980705024008 2:1.0 3:2.0 4:1.0 5:10.0 6:9.0 7:1.0 22:1.0 119:1.0 157:1.0 855:1.0 
-0.0 -2.0 0.0 0.0 2.0 2:1.0 3:2.0 4:1.0 5:5.0 6:5.0 7:1.0 9:1.0 
-0.0 -2.0 2.0 2.0 2.0 2:1.0 3:2.0 4:3.0 5:10.0 6:8.0 7:1.0 9:1.0 
-0.0 -0.7392939308785856 0.27027154186652275 0.0 1.0500855024704552 2:1.0 3:2.0 4:5.0 5:10.0 6:5.0 7:1.0 12:1.0 28:1.0 74:1.0 866:1.0 867:1.0 
-0.0 -0.2321154807285404 0.36315290779997383 0.15360200937246313 0.026186755765828997 2:1.0 3:2.0 4:1.0 5:8.0 6:6.0 7:3.0 868:1.0 869:1.0 
-0.0 -0.0 0.25012227693654654 0.05536930128926067 0.0 2:1.0 3:2.0 4:3.0 5:12.0 6:9.0 7:2.0 278:1.0 870:1.0 871:1.0 
-0.0 -0.22847359711969953 0.26490418945458033 0.5288054483486958 0.13348907772503138 2:1.0 3:2.0 4:1.0 5:8.0 6:7.0 7:2.0 59:1.0 167:1.0 643:1.0 872:1.0 
-0.0 -2.0 0.0 2.0 1.2706913408752782 2:1.0 3:2.0 4:2.0 5:8.0 6:7.0 7:1.0 9:1.0 
-0.0 -0.24284032645953113 0.23815448620022708 0.0 0.0 2:1.0 3:2.0 4:5.0 5:14.0 6:8.0 7:3.0 108:1.0 144:1.0 588:1.0 873:1.0 874:1.0 875:1.0 
-0.0 -0.0 0.8089008577614761 0.21282015291761788 0.0 3:2.0 4:2.0 5:9.0 6:8.0 7:1.0 323:1.0 364:1.0 534:1.0 
-0.0 -0.4137019790019611 0.14770235705935553 0.05900734634610505 0.0 2:1.0 3:2.0 4:3.0 5:9.0 6:7.0 7:1.0 12:1.0 217:1.0 331:1.0 876:1.0 
-0.0 -0.419455098591584 0.6388630219040224 0.2642459212638194 0.0 2:1.0 3:2.0 4:2.0 5:8.0 6:6.0 7:2.0 12:1.0 196:1.0 877:1.0 878:1.0 
-0.0 -0.0 0.8604072020124116 0.0 0.0 2:1.0 3:2.0 4:5.0 5:10.0 6:6.0 7:1.0 98:1.0 289:1.0 299:1.0 879:1.0 
-0.0 -0.9022230875612808 0.1792412221733855 0.13781034466347875 0.22323696324282893 3:2.0 4:2.0 5:6.0 6:5.0 7:1.0 8:1.0 12:1.0 712:1.0 
-0.0 -0.0 0.0 0.05361870324181243 0.0 2:1.0 3:2.0 4:1.0 5:12.0 6:10.0 7:3.0 413:1.0 764:1.0 880:1.0 881:1.0 
-0.0 -0.04153626184087864 0.3425341106010588 0.044420999968762954 0.0 2:1.0 3:2.0 4:3.0 5:9.0 6:6.0 7:2.0 12:1.0 284:1.0 342:1.0 882:1.0 
-0.0 -1.7003863895608804 0.1550405459215777 0.06079268630475685 0.0 2:1.0 3:2.0 4:1.0 5:9.0 6:5.0 7:5.0 83:1.0 215:1.0 321:1.0 
-0.0 -0.0 0.5058197076547027 0.03771372560609678 0.0 3:2.0 4:2.0 5:8.0 6:7.0 7:1.0 323:1.0 343:1.0 883:1.0 884:1.0 
-0.0 -0.7961402050783397 0.0 0.010441249978072793 0.0 2:1.0 3:2.0 4:5.0 5:9.0 6:5.0 7:1.0 12:1.0 203:1.0 885:1.0 
-0.0 -0.0 0.02570363088253554 0.0 0.023361084545910606 2:1.0 3:2.0 4:3.0 5:8.0 6:5.0 7:1.0 28:1.0 315:1.0 886:1.0 887:1.0 
-0.0 -2.0 0.0 0.0 2.0 2:1.0 3:2.0 4:1.0 5:5.0 6:5.0 7:1.0 9:1.0 
-0.0 -0.24391036629420376 0.0 0.0025569464973930174 0.35213817772241757 2:1.0 3:2.0 4:1.0 5:9.0 6:8.0 7:1.0 12:1.0 49:1.0 608:1.0 888:1.0 
-0.0 -2.0 0.0 0.0 0.0 2:1.0 3:2.0 4:1.0 5:8.0 6:7.0 7:2.0 9:1.0 
-0.0 -0.5840090942635349 0.5467884770484235 0.14563290458071987 0.6544031546999014 2:1.0 3:2.0 4:3.0 5:12.0 6:7.0 7:2.0 28:2.0 36:1.0 889:1.0 890:1.0 
-0.0 -2.0 0.0 0.07578186849124069 0.0 2:1.0 3:2.0 4:2.0 5:7.0 6:5.0 7:2.0 9:1.0 
-0.0 -0.0 0.0 0.021692518975011517 0.0 2:1.0 3:2.0 4:1.0 5:7.0 6:6.0 7:1.0 49:1.0 518:1.0 891:1.0 892:1.0 
-0.0 -1.1416173506232365 0.45895344410987254 0.05719569048289291 0.0 2:1.0 3:2.0 4:3.0 5:4.0 6:2.0 7:1.0 12:1.0 273:1.0 
-0.0 -0.20074214483918507 0.41249424468451557 1.7230858109546963 0.02694852317502687 2:1.0 3:2.0 4:3.0 5:5.0 6:3.0 7:1.0 895:1.0 896:1.0 
-0.0 -2.0 2.0 2.0 2.0 2:1.0 3:2.0 4:3.0 5:10.0 6:8.0 7:1.0 9:1.0 
-0.0 -2.0 0.0 0.0 0.0 2:1.0 3:2.0 4:1.0 5:7.0 6:7.0 7:1.0 9:1.0 
-0.0 -2.0 1.4935707757531707 0.0 0.0 2:1.0 3:2.0 4:1.0 5:7.0 6:6.0 7:1.0 9:1.0 39:1.0 
-0.0 -0.0 0.0 0.0 0.010847227377987512 2:1.0 3:2.0 4:1.0 5:7.0 6:6.0 7:1.0 49:1.0 177:1.0 897:1.0 
-0.0 -0.06319897339456484 0.0 0.25276348910143803 0.02463869597163537 2:1.0 3:2.0 4:1.0 5:5.0 6:5.0 7:1.0 751:1.0 769:1.0 
-0.0 -1.1038509993969114 0.06596495997196959 1.644280884427393 0.3426930618489388 2:1.0 3:2.0 4:1.0 5:11.0 6:8.0 7:2.0 10:1.0 12:1.0 49:1.0 89:1.0 202:1.0 550:1.0 
-0.0 -2.0 2.0 2.0 2.0 2:1.0 3:2.0 4:4.0 5:8.0 6:5.0 7:1.0 9:1.0 
-0.0 -2.0 0.0 2.0 2.0 2:1.0 3:2.0 4:1.0 5:13.0 6:13.0 7:1.0 9:1.0 
-0.0 -0.0 0.27446689969656646 0.1416075840632549 0.013606567610844736 2:1.0 3:2.0 4:5.0 5:10.0 6:6.0 7:1.0 803:1.0 898:1.0 899:1.0 
-0.0 -2.0 2.0 2.0 2.0 2:1.0 3:2.0 4:3.0 5:10.0 6:8.0 7:1.0 9:1.0 
-0.0 -2.0 0.0 0.0 0.0 2:1.0 3:2.0 4:1.0 5:6.0 6:6.0 7:1.0 9:1.0 
-0.0 -2.0 2.0 2.0 2.0 2:1.0 3:2.0 4:3.0 5:7.0 6:5.0 7:1.0 9:1.0 
-0.0 -0.0 0.0 0.0 0.2905612081738806 2:1.0 3:2.0 4:1.0 5:11.0 6:11.0 7:1.0 465:1.0 704:1.0 904:1.0 
-0.0 -0.0 0.19476151246069465 0.04420085015150398 0.0 3:2.0 4:3.0 5:7.0 6:5.0 7:1.0 323:1.0 637:1.0 760:1.0 905:1.0 
-0.0 -0.0 0.16772659429234207 0.0 0.0 3:2.0 4:5.0 5:9.0 6:5.0 7:1.0 8:1.0 315:1.0 906:1.0 907:1.0 
-0.0 -0.6781227900151194 0.5335162784578967 0.10165544278394378 0.225416450679552 2:1.0 3:2.0 4:3.0 5:8.0 6:5.0 7:2.0 12:1.0 59:1.0 677:1.0 908:1.0 
-0.0 -0.0 0.8540483062927898 0.0 0.0 2:1.0 3:2.0 4:1.0 5:11.0 6:8.0 7:4.0 284:1.0 531:1.0 592:1.0 
-0.0 -2.0 0.0 0.0 1.537735842649774 2:1.0 3:2.0 4:1.0 5:5.0 6:5.0 7:1.0 9:1.0 
-0.0 -0.40156607220703505 0.0 0.007895273050785889 0.3051995230589043 2:1.0 3:2.0 4:1.0 5:10.0 6:8.0 7:3.0 12:1.0 13:1.0 909:1.0 910:1.0 911:1.0 
-0.0 -0.0 0.0 0.05889263326665058 0.0 2:1.0 3:2.0 4:1.0 5:6.0 6:6.0 7:1.0 307:1.0 642:1.0 
-0.0 -0.0 0.5738147711063428 0.09864542223420927 0.0 2:1.0 3:2.0 4:5.0 5:14.0 6:10.0 7:1.0 12:1.0 284:1.0 913:1.0 914:1.0 915:1.0 
-0.0 -2.0 0.0 0.0 2.0 2:1.0 3:2.0 4:1.0 5:5.0 6:5.0 7:1.0 9:1.0 
-0.0 -0.9126627483777469 0.012312213034645865 0.11482922189764891 0.0 2:1.0 3:2.0 4:1.0 5:5.0 6:5.0 7:1.0 12:1.0 916:1.0 
-0.0 -0.04151429916751654 0.26540975650058396 0.0 0.0 2:1.0 3:2.0 4:8.0 5:13.0 6:5.0 7:1.0 160:1.0 167:1.0 917:1.0 918:1.0 919:1.0 
-0.0 -2.0 0.7322579744564177 2.0 0.0 2:1.0 3:2.0 4:1.0 5:4.0 6:4.0 7:1.0 12:1.0 
-1.1604435784757285 -2.0 0.0 0.0 0.0 2:1.0 3:2.0 4:1.0 5:6.0 6:6.0 7:1.0 9:1.0 
-0.0 -0.0 0.3257324511762499 0.187279807410042 0.02678263115636139 2:1.0 3:2.0 4:1.0 5:5.0 6:5.0 7:1.0 847:1.0 921:1.0 
-0.39492308146994415 -2.0 0.0 0.0 0.0 2:1.0 3:2.0 4:1.0 5:7.0 6:5.0 7:3.0 9:1.0 
-0.0 -0.0 0.3204966327466956 0.22636535678513842 0.018032216555646824 2:1.0 3:2.0 4:4.0 5:9.0 6:6.0 7:1.0 922:1.0 923:1.0 924:1.0 
-0.0 -0.5938033571647685 0.09290502274795835 0.09734707987011783 0.0 2:1.0 3:2.0 4:3.0 5:5.0 6:3.0 7:1.0 12:1.0 925:1.0 926:1.0 
-0.0 -0.0 0.13315948343170592 0.0 0.0 2:1.0 3:2.0 4:1.0 5:11.0 6:11.0 7:1.0 55:2.0 431:1.0 927:1.0 
-1.8840329230290023 -2.0 0.0 0.9284176764613802 1.9438407000786257 2:1.0 3:2.0 4:1.0 5:3.0 6:3.0 7:1.0 9:1.0 
-0.0 -0.1475132451576572 0.0 0.0 0.0 2:1.0 3:2.0 4:1.0 5:6.0 6:6.0 7:1.0 55:1.0 177:1.0 928:1.0 
-0.0 -2.0 0.0 0.402567765803539 2.0 3:2.0 4:2.0 5:8.0 6:6.0 7:1.0 11:1.0 25:1.0 26:1.0 
-0.0 -2.0 0.0 0.0 2.0 2:1.0 3:2.0 4:1.0 5:10.0 6:10.0 7:1.0 9:1.0 
-0.0 -0.0 0.393980905303024 0.22422502906736652 0.0 2:1.0 3:2.0 4:2.0 5:8.0 6:6.0 7:2.0 59:1.0 245:1.0 893:1.0 
-0.5684597267483604 -2.0 0.0 2.0 1.4289352035882106 2:1.0 3:2.0 4:1.0 5:4.0 6:4.0 7:1.0 9:1.0 
-0.02721890284158353 -2.0 0.0 0.0 1.6961185813693622 2:1.0 3:2.0 4:1.0 5:5.0 6:5.0 7:1.0 9:1.0 
-0.0 -0.19019717552257986 0.0 0.0 0.0 3:2.0 4:1.0 5:26.0 6:8.0 7:10.0 8:1.0 12:1.0 22:9.0 177:1.0 309:1.0 929:1.0 930:1.0 
-0.0 -0.010580397004174751 0.20218374265440844 0.0 0.11080702904820305 3:2.0 4:1.0 5:10.0 6:7.0 7:3.0 8:2.0 22:1.0 931:1.0 932:1.0 933:1.0 
-0.0 -1.7760620911889249 0.0 0.47468732077806375 0.2901636111629729 2:1.0 3:2.0 4:1.0 5:6.0 6:6.0 7:1.0 55:1.0 109:1.0 164:1.0 
-0.0 -0.013776441786697118 0.06859811259241654 0.0 0.0 2:1.0 3:2.0 4:5.0 5:11.0 6:5.0 7:3.0 245:1.0 278:1.0 934:1.0 935:1.0 936:1.0 937:1.0 
