svm_type c_svc
kernel_type linear
nr_class 6
total_sv 1718
rho 0.43901790829992815 -0.03907371709284208 0.21960652947451795 -0.8031148967910475 -0.4702988954820122 0.042485869564450406 0.19928914176387086 -1.584723074180633 -0.24720824235026004 -0.32267404960034096 -1.2835556180218641 0.3475805599699053 -0.9022561227867066 0.2663893746595424 0.38568313286255634
label 1 2 3 4 5 6
probA -2.6209444505248998 -2.9993024498569993 -2.4877708390255457 -2.156533017507505 -2.2945077619341983 -2.668238259879983 -2.4334093996383173 -1.8131593785431497 -2.2755678432158217 -1.6023772033830823 -1.3451230217693904 -2.797699668722288 -2.343357827359254 -1.8728414922639192 -1.673818177757397
probB -0.37568188160658045 -0.7301277393146756 -0.4169324102768457 7.830755636564285E-4 0.562715838660947 -0.6374776848962599 -0.3489094083138285 -0.8264550000980674 0.33885011156600175 0.39037213147886046 -0.9347974425737812 0.4524957253283333 -0.4636543855886339 0.07427549705833666 0.8773134783429349
nr_sv 167 257 358 583 39 314
SV
1.0 1.0 1.0 0.0 0.0 1:1.0 2:1.0 3:2.0 4:1.0 5:10.0 6:10.0 7:1.0 
0.0 0.0 0.0 0.0 1.0 3:2.0 4:5.0 5:13.0 6:7.0 7:3.0 8:1.0 9:1.0 
0.2036949319805314 0.05322867123988299 5.2029366737327294E-5 0.0 0.0 3:2.0 4:3.0 5:4.0 6:2.0 7:1.0 11:1.0 12:1.0 
0.17952894951596612 0.5794531004353289 1.0 0.0 0.6055954472555211 2:1.0 3:2.0 4:2.0 5:10.0 6:8.0 7:1.0 14:1.0 15:1.0 16:1.0 17:1.0 
1.0 0.5454755553254138 1.0 0.0 1.0 3:2.0 4:5.0 5:9.0 6:4.0 7:2.0 18:1.0 19:1.0 20:1.0 
1.0 1.0 1.0 0.31126404998530943 1.0 1:1.0 2:1.0 3:2.0 4:3.0 5:7.0 6:5.0 7:1.0 
0.0 0.0 0.0 0.4317365605375933 0.0 3:2.0 4:4.0 5:13.0 6:8.0 7:1.0 8:1.0 9:1.0 21:2.0 
1.0 1.0 1.0 0.0 1.0 1:1.0 2:1.0 3:2.0 4:4.0 5:10.0 6:6.0 7:2.0 
1.0 1.0 1.0 0.0 1.0 1:1.0 2:1.0 3:2.0 4:3.0 5:10.0 6:8.0 7:1.0 
1.0 1.0 1.0 0.03670072377647345 0.0 1:1.0 2:1.0 3:2.0 4:1.0 5:6.0 6:6.0 7:1.0 
0.0 0.0 0.21101377883408928 0.0 0.19543207954280595 3:2.0 4:3.0 5:7.0 6:5.0 7:1.0 20:1.0 23:1.0 24:1.0 
0.7043923241303021 0.31604431670124866 0.6635536334957525 0.18427185063996837 0.754366454737698 2:1.0 3:2.0 4:1.0 5:10.0 6:9.0 7:1.0 21:1.0 25:1.0 26:1.0 27:1.0 
1.0 1.0 1.0 0.0 1.0 1:1.0 2:1.0 3:2.0 4:5.0 5:9.0 6:4.0 7:2.0 
0.0 0.0 0.0 0.0 0.09778099856083697 3:2.0 4:3.0 5:8.0 6:6.0 7:1.0 20:1.0 23:1.0 28:1.0 29:1.0 
0.605064243878455 1.0 1.0 0.0 1.0 3:2.0 4:3.0 5:11.0 6:9.0 7:1.0 20:1.0 30:1.0 31:1.0 
1.0 1.0 1.0 0.0 0.509715170218101 1:1.0 2:1.0 3:2.0 4:1.0 5:10.0 6:10.0 7:1.0 
1.0 1.0 1.0 1.0 1.0 1:1.0 2:1.0 3:2.0 4:2.0 5:5.0 6:4.0 7:1.0 
1.0 1.0 1.0 1.0 1.0 1:1.0 2:1.0 3:2.0 4:2.0 5:5.0 6:4.0 7:1.0 
0.36177556668557753 0.0 0.21126525855957987 0.0 0.9355553903269348 3:2.0 4:2.0 5:9.0 6:6.0 7:3.0 20:1.0 23:1.0 32:1.0 
1.0 1.0 1.0 0.0 1.0 1:1.0 2:1.0 3:2.0 4:2.0 5:8.0 6:7.0 7:1.0 
0.0 0.16706805041958486 0.32942796871175417 0.0 0.5446318519026564 3:2.0 4:3.0 5:16.0 6:11.0 7:4.0 20:1.0 33:1.0 34:1.0 35:1.0 36:1.0 37:1.0 
1.0 1.0 1.0 0.0 1.0 1:1.0 2:1.0 3:2.0 4:1.0 5:14.0 6:14.0 7:1.0 
0.010083897234871058 0.0 0.0 0.0 0.0 3:2.0 4:3.0 5:6.0 6:2.0 7:3.0 8:1.0 9:1.0 
1.0 1.0 1.0 0.33950957106635343 0.0 1:1.0 2:1.0 3:2.0 4:1.0 5:6.0 6:6.0 7:1.0 
0.8279776077230409 0.0 0.0 0.0 0.0 3:2.0 4:1.0 5:9.0 6:8.0 7:1.0 41:1.0 45:1.0 46:1.0 47:1.0 48:1.0 
0.3565464020240654 0.6345645810324949 0.6564529011847179 0.0 0.7674732871007913 2:1.0 3:2.0 4:1.0 5:9.0 6:8.0 7:2.0 14:1.0 49:1.0 50:1.0 51:1.0 
1.0 1.0 1.0 0.0 1.0 1:1.0 2:1.0 3:2.0 4:3.0 5:10.0 6:8.0 7:1.0 
1.0 1.0 1.0 0.4295303582888037 1.0 1:1.0 2:1.0 3:2.0 4:2.0 5:7.0 6:5.0 7:1.0 41:1.0 
0.0 0.0 0.0 0.0 0.21166260721426344 3:2.0 4:1.0 5:12.0 6:12.0 7:1.0 20:1.0 56:1.0 57:1.0 58:1.0 59:1.0 
0.6301853422085207 0.4477703387332237 0.7280772262318149 0.0 0.7645576792765562 2:1.0 3:2.0 4:3.0 5:7.0 6:5.0 7:1.0 60:1.0 61:1.0 62:1.0 
1.0 1.0 1.0 0.0 0.0 1:1.0 2:1.0 3:2.0 4:1.0 5:7.0 6:7.0 7:1.0 
1.0 1.0 1.0 0.0 1.0 2:1.0 3:2.0 4:1.0 5:5.0 6:5.0 7:1.0 14:1.0 64:1.0 
0.17850576816808073 0.2975965705034405 0.9372845708716289 0.0 0.6296882314674622 2:1.0 3:2.0 4:2.0 5:17.0 6:15.0 7:2.0 65:1.0 66:1.0 67:1.0 68:1.0 
1.0 1.0 1.0 1.0 1.0 1:1.0 2:1.0 3:2.0 4:2.0 5:5.0 6:4.0 7:1.0 
0.0 0.055820123809955866 0.07034230790958612 0.0 0.4118859359458463 3:2.0 4:4.0 5:9.0 6:6.0 7:1.0 20:1.0 23:1.0 70:1.0 71:1.0 72:1.0 
0.0 0.1081078743108848 0.45115787976447086 0.0 0.19121479370369762 2:1.0 3:2.0 4:1.0 5:9.0 6:9.0 7:1.0 23:1.0 75:1.0 
0.6720269947090551 0.3199357241586731 0.6256321012644731 0.0 0.5290811265629997 2:1.0 3:2.0 4:3.0 5:12.0 6:9.0 7:1.0 38:1.0 76:1.0 77:1.0 78:1.0 79:1.0 
0.42486698781696985 0.579628296045127 0.8762373456472697 0.0 0.6162193113062305 2:1.0 3:2.0 4:3.0 5:7.0 6:4.0 7:1.0 14:1.0 17:1.0 80:1.0 81:1.0 
1.0 1.0 1.0 0.0 1.0 1:1.0 2:1.0 3:2.0 4:2.0 5:9.0 6:7.0 7:1.0 41:1.0 
0.0 0.0 0.5135214900274877 0.0 0.8336454087070742 3:2.0 4:7.0 5:24.0 6:12.0 7:4.0 10:1.0 11:1.0 21:1.0 53:2.0 
0.5734115227265579 0.9516124122645739 1.0 0.0 0.6502439018629276 2:1.0 3:2.0 4:4.0 5:11.0 6:8.0 7:1.0 14:1.0 84:1.0 85:1.0 
0.37815223214589927 0.0 0.0 0.0 1.0 3:2.0 4:8.0 5:13.0 6:4.0 7:3.0 8:1.0 9:1.0 
0.14712234268113125 0.538606485995394 0.6553451512546983 0.0 0.3656716286906048 2:1.0 3:2.0 4:1.0 5:13.0 6:13.0 7:1.0 14:1.0 25:1.0 86:1.0 87:1.0 88:1.0 
1.0 1.0 1.0 0.0 1.0 1:1.0 2:1.0 3:2.0 4:2.0 5:13.0 6:12.0 7:1.0 
0.19749188230478765 0.08958803046016629 0.4517516532044527 0.0 0.3018977058622714 2:1.0 3:2.0 4:2.0 5:4.0 6:3.0 7:1.0 23:1.0 89:1.0 
0.2978093199566622 0.6344822481915846 0.8499619766610814 0.0 0.19347523186659274 2:1.0 3:2.0 4:1.0 5:10.0 6:10.0 7:1.0 14:1.0 57:1.0 58:1.0 59:1.0 
0.2150060063884605 0.7700111213104414 0.15948237249632882 0.0 0.0 3:2.0 4:3.0 5:5.0 6:3.0 7:1.0 11:1.0 90:1.0 
0.3673838309609669 0.6344310783348598 0.6564558932603217 0.0 0.3980607901493287 2:1.0 3:2.0 4:3.0 5:10.0 6:8.0 7:1.0 14:1.0 91:1.0 92:1.0 93:1.0 
0.014951635947470286 0.0 0.0 0.0 0.0 3:2.0 4:3.0 5:4.0 6:2.0 7:1.0 11:1.0 63:1.0 
1.0 1.0 1.0 1.0 1.0 1:1.0 2:1.0 3:2.0 4:2.0 5:5.0 6:4.0 7:1.0 
0.48962471474695723 0.43122708461235315 0.9231772243137208 0.0 0.391085960457073 2:1.0 3:2.0 4:2.0 5:12.0 6:8.0 7:2.0 14:1.0 41:1.0 42:1.0 53:1.0 94:1.0 95:1.0 96:1.0 
0.5441435096933431 0.49650935911459676 0.5554014291920091 0.0 0.5322954227371781 2:1.0 3:2.0 4:2.0 5:11.0 6:8.0 7:2.0 14:1.0 53:1.0 97:1.0 98:1.0 99:1.0 100:1.0 
0.0 0.0 0.21114381829896295 0.0 0.08935009904736126 3:2.0 4:2.0 5:5.0 6:4.0 7:1.0 20:1.0 23:1.0 101:1.0 
0.0 0.22684134803125278 0.4013493941431409 0.0 0.0 3:2.0 4:3.0 5:5.0 6:2.0 7:1.0 8:1.0 9:1.0 102:1.0 
0.0 0.7701634914089751 0.1591735084857199 0.0 0.0 3:2.0 4:2.0 5:6.0 6:4.0 7:2.0 11:1.0 103:1.0 
0.0 0.0 0.10762818009431889 0.0 0.0 2:1.0 3:2.0 4:1.0 5:8.0 6:6.0 7:1.0 14:1.0 17:1.0 41:1.0 104:1.0 105:1.0 
0.0 0.04420750065278237 1.0 0.0 0.3106051975864847 2:1.0 3:2.0 4:5.0 5:12.0 6:8.0 7:1.0 23:1.0 106:1.0 107:1.0 
0.0 0.10953274033916963 0.41839026814352703 0.0 0.0980611783734119 2:1.0 3:2.0 4:1.0 5:10.0 6:10.0 7:1.0 23:1.0 108:1.0 109:1.0 
1.0 1.0 1.0 0.0 1.0 1:1.0 2:1.0 3:2.0 4:2.0 5:7.0 6:6.0 7:1.0 
0.0 0.0 0.37598697595507696 0.0 0.0 3:2.0 4:1.0 5:16.0 6:15.0 7:1.0 11:1.0 40:1.0 53:1.0 
1.0 1.0 1.0 0.0 1.0 1:1.0 2:1.0 3:2.0 4:1.0 5:12.0 6:12.0 7:1.0 
1.0 1.0 1.0 0.0 0.0 1:1.0 2:1.0 3:2.0 4:1.0 5:7.0 6:7.0 7:1.0 
1.0 1.0 1.0 0.0 0.0 1:1.0 2:1.0 3:2.0 4:1.0 5:8.0 6:8.0 7:1.0 
0.0 0.7702287681383636 0.15941404389124642 0.0 0.0 3:2.0 4:1.0 5:4.0 6:4.0 7:1.0 11:1.0 22:1.0 
1.0 1.0 1.0 0.0 1.0 1:1.0 2:1.0 3:2.0 4:2.0 5:7.0 6:6.0 7:1.0 
0.4530482412875531 0.35449534590879245 0.8698302820180611 0.0 0.42377217381381177 2:1.0 3:2.0 4:1.0 5:9.0 6:8.0 7:2.0 14:1.0 42:1.0 43:1.0 44:1.0 
1.0 1.0 1.0 0.6667208779219654 0.0 1:1.0 2:1.0 3:2.0 4:1.0 5:16.0 6:15.0 7:1.0 21:1.0 
1.0 1.0 1.0 0.0 1.0 1:1.0 2:1.0 3:2.0 4:4.0 5:10.0 6:6.0 7:2.0 
0.2632486111620746 0.6578327285290538 0.21440264382518465 0.0 0.6954282298539614 2:1.0 3:2.0 4:1.0 5:9.0 6:8.0 7:2.0 14:1.0 43:1.0 112:1.0 113:1.0 
0.8341196941395299 1.0 1.0 0.0 0.04443870812400598 1:1.0 2:1.0 3:2.0 4:1.0 5:10.0 6:8.0 7:1.0 17:2.0 
1.0 1.0 1.0 1.0 1.0 1:1.0 2:1.0 3:2.0 4:1.0 5:5.0 6:5.0 7:1.0 
1.0 1.0 1.0 0.0 1.0 1:1.0 2:1.0 3:2.0 4:1.0 5:12.0 6:12.0 7:1.0 
0.16199577914664937 0.21813939752898615 0.39773721806483503 0.0 0.46855693290717654 3:2.0 4:3.0 5:13.0 6:10.0 7:2.0 20:1.0 114:1.0 115:1.0 116:1.0 117:1.0 118:1.0 
0.39895064313500217 0.08905877186428633 1.0 0.0 0.5794732251560001 2:1.0 3:2.0 4:1.0 5:6.0 6:6.0 7:1.0 23:1.0 119:1.0 
0.0 0.09752497745979379 0.37225578286967037 0.21304529569144123 0.5542488088961365 3:2.0 5:8.0 6:7.0 7:2.0 20:1.0 21:1.0 121:1.0 122:1.0 123:1.0 
0.0 0.0 0.2624374500702564 0.0 0.0 3:2.0 4:2.0 5:6.0 6:5.0 7:1.0 20:1.0 23:1.0 29:1.0 
0.0 0.14916071565363231 0.0 0.0 0.0 3:2.0 4:1.0 5:5.0 6:4.0 7:1.0 10:1.0 11:1.0 54:1.0 
0.13029736260006886 0.43049268534038854 0.45151255220243375 0.0 0.4080245874687311 2:1.0 3:2.0 4:3.0 5:6.0 6:4.0 7:1.0 23:1.0 124:1.0 
0.5904081611805018 0.17910363484686564 0.22562827484914216 0.0 0.15097855181190126 2:1.0 3:2.0 4:2.0 5:6.0 6:5.0 7:1.0 23:1.0 125:1.0 126:1.0 
1.0 1.0 1.0 1.0 1.0 1:1.0 2:1.0 3:2.0 4:2.0 5:5.0 6:4.0 7:1.0 
0.3746682409120142 0.11064255603219694 0.14616216863786485 0.0 0.09148055320448892 2:1.0 3:2.0 4:3.0 5:14.0 6:10.0 7:3.0 33:1.0 34:1.0 35:1.0 37:1.0 127:1.0 
0.08454364635043995 0.023026207348774023 0.1715291768214433 0.0 0.29534264172729313 2:1.0 3:2.0 4:1.0 5:10.0 6:9.0 7:2.0 61:1.0 128:1.0 129:1.0 130:1.0 
0.0030767310449484717 0.7704091233974076 0.15954501651092728 0.0 0.0 3:2.0 4:1.0 5:3.0 6:3.0 7:1.0 11:1.0 73:1.0 
1.0 0.11565931787565155 0.32581131009291725 0.0 0.30041833353775776 2:1.0 3:2.0 4:3.0 5:8.0 6:4.0 7:3.0 14:1.0 112:1.0 132:1.0 133:1.0 134:1.0 
1.0 1.0 1.0 1.0 1.0 1:1.0 2:1.0 3:2.0 4:1.0 5:10.0 6:8.0 7:2.0 21:1.0 
0.13027256028290837 0.08906457425000547 0.45153292781532395 0.0 0.40800190696721705 2:1.0 3:2.0 4:3.0 5:6.0 6:4.0 7:1.0 23:1.0 135:1.0 
0.21293002216549056 0.5795750799711775 0.8761380601498162 0.0 0.4908361177411339 2:1.0 3:2.0 4:1.0 5:8.0 6:7.0 7:1.0 14:1.0 17:1.0 136:1.0 137:1.0 
0.0605910814316875 0.525685774010028 0.0 0.0 0.0 3:2.0 4:3.0 5:4.0 6:2.0 7:1.0 11:1.0 39:1.0 
0.09206696720154342 0.7699966266580606 0.0 0.0 0.0 3:2.0 4:3.0 5:5.0 6:3.0 7:1.0 11:1.0 40:1.0 
0.16527947240472293 0.23527683748599174 0.6926728938229637 0.0 0.33407247200200424 3:2.0 4:3.0 5:9.0 6:7.0 7:1.0 20:1.0 61:1.0 138:1.0 139:1.0 140:1.0 
1.0 1.0 1.0 0.0 1.0 1:1.0 2:1.0 3:2.0 4:3.0 5:16.0 6:14.0 7:1.0 
0.0 0.0 0.09719620483699502 0.0 0.0 3:2.0 4:4.0 5:10.0 6:7.0 7:1.0 11:1.0 141:1.0 
1.0 1.0 1.0 1.0 1.0 1:1.0 2:1.0 3:2.0 4:3.0 5:7.0 6:5.0 7:1.0 
0.10859840532203287 0.3835230829216172 0.395144723185044 0.0 0.46496666370850653 2:1.0 3:2.0 4:1.0 5:16.0 6:12.0 7:5.0 14:1.0 42:1.0 61:1.0 142:1.0 143:1.0 144:1.0 145:1.0 
0.0 0.7702291477085429 0.15941250515666922 0.0 0.0 3:2.0 4:1.0 5:4.0 6:4.0 7:1.0 11:1.0 69:1.0 
0.0 0.18156879585943972 0.4222145063169871 0.3270294389438298 0.18738020619828022 2:1.0 3:2.0 4:1.0 5:6.0 6:5.0 7:1.0 21:1.0 23:1.0 146:1.0 
0.0 0.0 0.0 0.26463490219353053 0.0 3:2.0 4:2.0 5:4.0 6:2.0 7:1.0 10:1.0 11:1.0 21:1.0 
0.24193558043768193 0.08934740945676058 0.45169841432316593 0.0 0.4080456067649534 2:1.0 3:2.0 4:3.0 5:5.0 6:3.0 7:1.0 23:1.0 149:1.0 
0.0 0.0 0.21150475934701796 0.0 0.3124459920441318 3:2.0 4:3.0 5:9.0 6:7.0 7:1.0 20:1.0 23:1.0 114:1.0 150:1.0 
1.0 1.0 1.0 0.0 1.0 2:1.0 3:2.0 4:4.0 5:11.0 6:8.0 7:1.0 151:1.0 
0.0 0.0 0.0 0.04992659411866017 0.0 3:2.0 4:3.0 5:6.0 6:3.0 7:1.0 11:1.0 21:1.0 40:1.0 
1.0 1.0 1.0 0.0 1.0 1:1.0 2:1.0 3:2.0 4:1.0 5:8.0 6:7.0 7:1.0 38:1.0 
1.0 1.0 1.0 1.0 1.0 1:1.0 2:1.0 3:2.0 4:2.0 5:5.0 6:4.0 7:1.0 
0.033398643001661274 0.0 0.0 0.0 0.0 3:2.0 4:3.0 5:4.0 6:2.0 7:1.0 11:1.0 63:1.0 
1.0 1.0 1.0 0.0 1.0 1:1.0 2:1.0 3:2.0 4:3.0 5:13.0 6:11.0 7:1.0 
0.021674332805472762 0.5143943409997543 0.39633264795789985 0.0 0.4138692416239155 3:2.0 4:3.0 5:14.0 6:10.0 7:2.0 20:1.0 41:1.0 99:1.0 152:1.0 153:1.0 154:1.0 
0.004877096146308289 0.07483499774715019 0.0 0.0 0.0 3:2.0 4:3.0 5:6.0 6:2.0 7:3.0 8:1.0 9:1.0 
0.48405356463467675 0.4267622976704208 0.8962996442358931 0.0 0.5037772297528047 2:1.0 3:2.0 4:2.0 5:8.0 6:7.0 7:1.0 155:1.0 156:1.0 157:1.0 
0.0 0.0 1.0 0.0 0.0 2:1.0 3:2.0 4:2.0 5:7.0 6:5.0 7:1.0 23:1.0 35:1.0 53:1.0 61:1.0 
1.0 1.0 1.0 1.0 1.0 1:1.0 2:1.0 3:2.0 4:4.0 5:17.0 6:8.0 7:5.0 21:2.0 
1.0 1.0 1.0 0.0 1.0 1:1.0 2:1.0 3:2.0 4:3.0 5:9.0 6:7.0 7:1.0 
0.27283288907592496 0.24575306975913072 0.42311207804239503 0.0 0.3135061695204561 2:1.0 3:2.0 4:1.0 5:9.0 6:7.0 7:1.0 14:1.0 17:1.0 120:1.0 127:1.0 159:1.0 160:1.0 
0.4147956147484139 1.0 1.0 0.0 0.0 2:1.0 3:2.0 4:2.0 5:6.0 6:4.0 7:2.0 14:1.0 112:1.0 132:1.0 134:1.0 
0.29599568962333156 0.19224091866766171 0.25930374750143814 0.0 0.5783934223406342 2:1.0 3:2.0 4:3.0 5:7.0 6:4.0 7:2.0 123:1.0 161:1.0 162:1.0 
1.0 1.0 1.0 1.0 1.0 1:1.0 2:1.0 3:2.0 4:3.0 5:6.0 6:3.0 7:2.0 
1.0 1.0 1.0 0.0 0.0 1:1.0 2:1.0 3:2.0 4:1.0 5:7.0 6:7.0 7:1.0 
1.0 1.0 1.0 1.0 0.05813136806418583 1:1.0 2:1.0 3:2.0 4:1.0 5:5.0 6:5.0 7:1.0 
0.0 0.0 0.37548964742753516 0.0 0.0 3:2.0 4:1.0 5:10.0 6:9.0 7:1.0 11:1.0 13:1.0 53:1.0 
0.5481835530938673 0.36353304643632023 0.5809844115636973 0.0 0.6908225149757119 3:2.0 4:3.0 5:10.0 6:8.0 7:1.0 20:1.0 163:1.0 164:1.0 165:1.0 
1.0 1.0 1.0 0.6637506534768826 0.0 1:1.0 2:1.0 3:2.0 4:1.0 5:6.0 6:6.0 7:1.0 
1.0 1.0 1.0 0.0 1.0 1:1.0 2:1.0 3:2.0 4:1.0 5:13.0 6:13.0 7:1.0 
0.0 0.42167871007037566 0.0 0.0 0.0 3:2.0 4:2.0 5:3.0 6:2.0 7:1.0 8:1.0 9:1.0 
0.0 0.0 0.0 0.0 0.7193694809421991 3:2.0 4:5.0 5:19.0 6:11.0 7:5.0 11:1.0 13:1.0 
0.24886052665716019 0.5063946456475937 0.5993009430713288 0.0 0.6304221228799135 2:1.0 3:2.0 4:1.0 5:11.0 6:8.0 7:3.0 14:1.0 61:1.0 83:1.0 166:1.0 167:1.0 168:1.0 
1.0 1.0 1.0 1.0 1.0 1:1.0 2:1.0 3:2.0 4:3.0 5:6.0 6:3.0 7:2.0 
0.0 0.08946510574226496 0.4224594396791928 0.4700740999567488 0.18734238616553087 2:1.0 3:2.0 4:1.0 5:5.0 6:4.0 7:1.0 21:1.0 23:1.0 169:1.0 
0.45638380196594724 0.0 0.0 0.0 0.0 3:2.0 4:1.0 5:4.0 6:4.0 10:1.0 11:1.0 53:1.0 
0.290191075783417 0.5455496075442099 0.7804983431930853 0.42557175868938646 0.8176448094369869 3:2.0 5:7.0 6:7.0 7:1.0 20:1.0 21:1.0 170:1.0 171:1.0 
1.0 1.0 1.0 0.0 1.0 1:1.0 2:1.0 3:2.0 4:4.0 5:10.0 6:7.0 7:1.0 
0.0 0.7702281766735685 0.15943253566586213 0.0 0.0 3:2.0 4:1.0 5:4.0 6:4.0 7:1.0 11:1.0 55:1.0 
0.0 0.8521254641640199 0.0 0.0 0.0 3:2.0 4:1.0 5:15.0 6:11.0 7:3.0 11:1.0 13:1.0 53:1.0 172:1.0 
0.0 0.0 0.07876806358319592 0.0 0.0 3:2.0 4:2.0 5:14.0 6:12.0 7:1.0 11:1.0 39:1.0 53:1.0 
0.9819906848387937 0.43178823032474967 0.3394524940802404 0.0 0.20963289155911952 3:2.0 4:1.0 5:9.0 6:8.0 7:1.0 41:1.0 45:1.0 46:1.0 47:1.0 48:1.0 
1.0 1.0 1.0 0.0 1.0 1:1.0 2:1.0 3:2.0 4:1.0 5:13.0 6:13.0 7:1.0 
1.0 1.0 1.0 0.0 1.0 1:1.0 2:1.0 3:2.0 4:1.0 5:11.0 6:11.0 7:1.0 
0.0 0.6361332159669508 0.0 0.0 0.0 3:2.0 4:2.0 5:6.0 6:5.0 7:1.0 20:1.0 23:1.0 100:1.0 
0.14305514916846065 0.24461198871601836 0.2970107030394358 0.0 0.2679862329631244 3:2.0 4:4.0 5:14.0 6:11.0 7:1.0 20:1.0 39:1.0 153:1.0 173:1.0 174:1.0 175:1.0 
1.0 1.0 1.0 0.0 1.0 1:1.0 2:1.0 3:2.0 4:4.0 5:8.0 6:5.0 7:1.0 
0.0 0.3320871675383145 0.0 0.0 1.0 3:2.0 4:2.0 5:10.0 6:6.0 7:3.0 8:1.0 9:1.0 54:1.0 
0.0 0.0 0.09127413487686165 0.0 0.15197231813944143 3:2.0 4:3.0 5:10.0 6:7.0 7:1.0 20:1.0 21:1.0 23:1.0 114:1.0 176:1.0 177:1.0 
0.8592927197570699 0.9522656778316093 0.9704674884028952 0.5839929594185274 0.7154271308944931 2:1.0 3:2.0 4:2.0 5:5.0 6:2.0 7:2.0 14:1.0 21:1.0 180:1.0 181:1.0 
1.0 1.0 1.0 1.0 0.419742206899863 1:1.0 2:1.0 3:2.0 4:1.0 5:4.0 6:4.0 7:1.0 
0.0 0.0 0.16393122529380608 0.0 0.0 2:1.0 3:2.0 4:2.0 5:7.0 6:5.0 7:1.0 17:1.0 23:1.0 31:1.0 182:1.0 
0.0 0.073582961341229 0.0 0.0 0.10893456522246116 3:2.0 4:1.0 5:10.0 6:9.0 7:2.0 20:1.0 61:1.0 65:1.0 75:1.0 183:1.0 
1.0 0.6064355237214031 0.8252172703227213 0.0 0.0 2:1.0 3:2.0 4:3.0 5:4.0 6:2.0 7:1.0 61:1.0 123:1.0 
0.7357905068624251 0.17245726178275758 1.0 0.0 0.37338788429295505 2:1.0 3:2.0 4:2.0 5:11.0 6:9.0 7:2.0 61:1.0 65:1.0 66:1.0 184:1.0 185:1.0 
0.0 0.0 0.48373860126861096 0.0 0.1514807330245348 3:2.0 4:3.0 5:9.0 6:7.0 7:1.0 20:1.0 23:1.0 186:1.0 187:1.0 
0.5284052152212197 0.8265423373205844 1.0 0.0 0.36025921801986666 2:1.0 3:2.0 4:3.0 5:9.0 6:7.0 7:1.0 14:1.0 130:1.0 188:1.0 
0.38243026919168727 0.0 0.24133527142315375 0.0 0.0 3:2.0 4:1.0 5:4.0 6:3.0 7:1.0 8:1.0 9:1.0 38:1.0 
0.15530879351897658 0.7703099044401686 0.0 0.0 0.0 3:2.0 4:3.0 5:4.0 6:2.0 7:1.0 11:1.0 63:1.0 
1.0 1.0 1.0 0.0 0.0 1:1.0 2:1.0 3:2.0 4:1.0 5:7.0 6:7.0 7:1.0 
0.0 0.4626459536382618 1.0 0.0 1.0 2:1.0 3:2.0 4:1.0 5:14.0 6:12.0 7:1.0 17:1.0 41:1.0 151:1.0 
0.0 0.0 0.0 0.0 0.8706279092234047 3:2.0 4:5.0 5:10.0 6:4.0 7:3.0 8:1.0 9:1.0 
0.0 0.7694563630893427 0.06185885791913656 0.0 0.0 3:2.0 4:1.0 5:9.0 6:9.0 7:1.0 11:1.0 141:1.0 
0.7960762168604618 1.0 1.0 0.0 1.0 2:1.0 3:2.0 4:1.0 5:14.0 6:13.0 7:2.0 151:1.0 
1.0 1.0 1.0 0.0 0.3733882077054285 1:1.0 2:1.0 3:2.0 4:1.0 5:10.0 6:8.0 7:1.0 17:2.0 
0.0 0.7170744212182906 0.15948139875426992 0.0 0.0 3:2.0 4:1.0 5:3.0 6:3.0 7:1.0 11:1.0 12:1.0 
1.0 1.0 1.0 0.0 0.0 1:1.0 2:1.0 3:2.0 4:1.0 5:8.0 6:8.0 7:1.0 
1.0 1.0 1.0 0.9689360329995659 1.0 1:1.0 2:1.0 3:2.0 4:3.0 5:7.0 6:5.0 7:1.0 
0.8935264151754474 0.6403489497293258 0.9152584788796967 0.0 0.7556375786770156 2:1.0 3:2.0 4:2.0 5:5.0 6:4.0 7:1.0 190:1.0 191:1.0 
0.0 0.0 0.2536702997524916 0.0 0.17406897334450344 3:2.0 4:6.0 5:11.0 6:5.0 7:2.0 11:1.0 20:1.0 63:1.0 192:1.0 
1.0 1.0 1.0 0.0 0.0 1:1.0 2:1.0 3:2.0 4:1.0 5:8.0 6:8.0 7:1.0 
1.0 0.22728252955150863 1.0 0.06267725854664735 1.0 2:1.0 3:2.0 4:3.0 5:4.0 6:2.0 7:1.0 188:1.0 193:1.0 
0.08540412146505677 0.7561771032701727 1.0 0.0 0.44296424146166374 2:1.0 3:2.0 4:1.0 5:8.0 6:6.0 7:1.0 14:1.0 17:1.0 41:1.0 104:1.0 105:1.0 
0.7466241020507391 0.9518953821334903 0.984710332445412 0.0 0.9867985361852823 2:1.0 3:2.0 4:3.0 5:8.0 6:5.0 7:2.0 14:1.0 194:1.0 195:1.0 
0.0 0.6216748787894449 0.051560368478861 0.0 0.0 3:2.0 4:1.0 5:10.0 6:8.0 7:2.0 10:1.0 11:1.0 14:1.0 20:1.0 21:1.0 28:1.0 
0.0 0.0 0.04221431400070015 0.0 0.31836259116976906 2:1.0 3:2.0 4:5.0 5:14.0 6:7.0 7:3.0 21:1.0 23:1.0 61:1.0 110:1.0 196:1.0 197:1.0 198:1.0 
-0.0 0.0 0.0 0.0 0.07505904801833102 2:1.0 3:2.0 4:4.0 5:11.0 6:7.0 7:2.0 196:1.0 199:1.0 200:1.0 201:1.0 
-0.16462266350881027 0.025249332293697843 0.008764183129260875 0.26988002552335316 0.06279681492762376 3:2.0 4:3.0 5:9.0 6:6.0 7:1.0 20:1.0 21:1.0 199:1.0 203:1.0 204:1.0 
-1.0 1.0 1.0 0.0 0.0 1:1.0 2:1.0 3:2.0 4:2.0 5:6.0 6:5.0 7:1.0 
-0.03581572528599213 0.07664255716534953 0.9286381950730027 0.0 0.23633571651082375 2:1.0 3:2.0 4:3.0 5:10.0 6:8.0 7:1.0 106:1.0 208:1.0 209:1.0 
-0.2621323159704965 0.5610798949120671 0.626695683894596 0.01665169700741948 0.4110987825712885 2:1.0 3:2.0 4:3.0 5:9.0 6:7.0 7:1.0 14:1.0 214:1.0 215:1.0 216:1.0 
-0.0 0.029341863650232877 0.0 0.0 0.0 3:2.0 4:2.0 5:8.0 6:6.0 7:1.0 21:1.0 26:1.0 48:1.0 88:1.0 217:1.0 
-0.2881571018875237 0.43895382123014887 1.0 0.004553345936590136 0.9488526557147996 2:1.0 3:2.0 4:2.0 5:9.0 6:7.0 7:2.0 14:1.0 112:1.0 218:1.0 221:1.0 222:1.0 
-0.11580955402002881 0.0 0.574462696747832 0.0 0.40895850552557805 2:1.0 3:2.0 4:1.0 5:7.0 6:6.0 7:1.0 41:1.0 223:1.0 224:1.0 
-0.015639761099574177 0.35475079639246226 0.5161298504672761 0.0 0.3586202862618521 2:1.0 3:2.0 4:1.0 5:5.0 6:5.0 7:1.0 228:1.0 229:1.0 
-0.0 0.0 1.0 9.562299438323385E-4 0.6887289453429208 2:1.0 3:2.0 4:3.0 5:9.0 6:6.0 7:2.0 14:1.0 61:1.0 66:1.0 76:1.0 
-1.0 1.0 1.0 0.0 1.0 1:1.0 2:1.0 3:2.0 4:2.0 5:10.0 6:7.0 7:1.0 21:1.0 53:1.0 
-0.04133257077917121 0.0 0.0 0.0 0.0 3:2.0 4:3.0 5:13.0 6:10.0 7:1.0 21:1.0 26:1.0 48:1.0 237:1.0 238:1.0 239:1.0 
-1.0 1.0 1.0 0.0 0.0 1:1.0 2:1.0 3:2.0 4:2.0 5:6.0 6:5.0 7:1.0 
-0.9277409973854001 0.09599902293559867 0.0 0.0 0.0 3:2.0 4:1.0 5:10.0 6:8.0 7:3.0 32:1.0 48:1.0 188:1.0 
-1.0 1.0 1.0 0.0 1.0 1:1.0 2:1.0 3:2.0 4:2.0 5:11.0 6:10.0 7:1.0 
-0.0 0.01488550568397767 1.0 0.0 0.0 2:1.0 3:2.0 4:6.0 5:10.0 6:5.0 7:1.0 14:1.0 199:1.0 242:1.0 
-0.0 0.034452384788268266 0.017520331312932853 0.0 0.023676390561606673 3:2.0 4:3.0 5:7.0 6:5.0 7:1.0 20:1.0 199:1.0 243:1.0 
-0.03291322359221845 0.21474099541230454 1.0 0.0 0.5232818388575037 2:1.0 3:2.0 4:1.0 5:8.0 6:7.0 7:1.0 245:1.0 246:1.0 247:1.0 
-0.13035877028701912 0.08307624427257919 0.5795873121297525 0.0 0.5007358300325091 2:1.0 3:2.0 4:2.0 5:8.0 6:6.0 7:1.0 41:1.0 245:1.0 248:1.0 249:1.0 
-1.0 1.0 1.0 0.0 1.0 1:1.0 2:1.0 3:2.0 4:1.0 5:10.0 6:8.0 7:1.0 17:1.0 41:1.0 
-1.0 1.0 1.0 0.0 1.0 1:1.0 2:1.0 3:2.0 4:3.0 5:7.0 6:4.0 7:2.0 
-0.6462162331068929 0.33914240907428406 0.4858543661044193 0.0 0.5101280216901726 2:1.0 3:2.0 4:3.0 5:14.0 6:10.0 7:2.0 17:1.0 61:1.0 250:1.0 251:1.0 252:1.0 
-1.0 1.0 1.0 0.0 1.0 1:1.0 2:1.0 3:2.0 4:3.0 5:7.0 6:4.0 7:2.0 
-0.0 0.0 0.057555686833507716 0.0 0.0 3:2.0 4:1.0 5:6.0 6:5.0 7:1.0 38:1.0 48:1.0 254:1.0 255:1.0 
-1.0 1.0 1.0 1.0 1.0 1:1.0 2:1.0 3:2.0 4:1.0 5:7.0 6:6.0 7:2.0 
-0.29927852860218657 0.555581972993078 0.6267499852017491 0.016558791221393653 0.42157000119426963 2:1.0 3:2.0 4:3.0 5:10.0 6:8.0 7:1.0 14:1.0 256:1.0 257:1.0 258:1.0 
-0.1067041879104328 0.0 0.0 0.0 0.0 3:2.0 4:1.0 5:11.0 6:10.0 7:1.0 21:1.0 26:1.0 48:1.0 259:1.0 260:1.0 
-0.0 0.02335061031556679 0.0 0.0 0.0 3:2.0 4:4.0 5:11.0 6:6.0 7:2.0 21:1.0 26:1.0 48:1.0 88:1.0 262:1.0 263:1.0 264:1.0 
-0.0 0.13186002816735565 0.49903175261952043 0.0 0.6192046819546333 2:1.0 3:2.0 4:5.0 5:9.0 6:5.0 7:1.0 265:1.0 266:1.0 267:1.0 
-0.1803462366072581 0.3357305171924295 0.1726359009848698 0.07244514899975457 0.35095427161594683 3:2.0 4:2.0 5:5.0 6:4.0 7:1.0 20:1.0 244:1.0 269:1.0 
-0.0 0.0 0.15294704494271946 0.0 0.0 3:2.0 4:2.0 5:9.0 6:7.0 7:1.0 21:1.0 26:1.0 48:1.0 271:1.0 272:1.0 
-0.0 0.0 0.0 0.022567186140980144 0.0 3:2.0 4:1.0 5:6.0 6:4.0 7:2.0 21:1.0 48:1.0 112:1.0 276:1.0 
-1.0 0.6505115659596502 0.13847118704609976 0.004654347529936121 0.0 2:1.0 3:2.0 4:2.0 5:6.0 6:4.0 7:2.0 14:1.0 76:1.0 112:1.0 133:1.0 
-0.19215243877808158 0.9006327464043216 1.0 0.026248116219215793 0.5202854478290919 2:1.0 3:2.0 4:2.0 5:4.0 6:3.0 7:1.0 14:1.0 281:1.0 282:1.0 
-0.653573877667297 1.0 1.0 0.14617626830965466 1.0 3:2.0 4:1.0 5:3.0 6:3.0 7:1.0 20:1.0 283:1.0 
-0.0 0.0 0.25459364242714605 0.0 0.06741714724971747 2:1.0 3:2.0 4:4.0 5:8.0 6:4.0 7:1.0 41:1.0 199:1.0 284:1.0 285:1.0 
-0.0 0.0 0.010606020267603426 0.7358781734719644 0.17546107538934458 2:1.0 3:2.0 4:2.0 5:14.0 6:5.0 7:2.0 21:6.0 53:1.0 205:1.0 286:1.0 287:1.0 288:1.0 289:1.0 
-0.0 0.0 0.013982210996129426 0.0 0.0 2:1.0 3:2.0 4:3.0 5:6.0 6:4.0 7:1.0 199:1.0 290:1.0 
-0.0 0.377797463742474 1.0 0.0 0.9969063531094969 2:1.0 3:2.0 4:2.0 5:4.0 6:3.0 7:1.0 291:1.0 292:1.0 
-1.0 1.0 1.0 0.0 0.8483234604474743 1:1.0 2:1.0 3:2.0 4:2.0 5:7.0 6:6.0 7:1.0 
-0.0 0.0 0.08388369437730764 0.0 0.0 2:1.0 3:2.0 4:2.0 5:8.0 6:7.0 7:1.0 199:1.0 293:1.0 294:1.0 
-1.0 1.0 1.0 0.0 1.0 1:1.0 2:1.0 3:2.0 4:2.0 5:7.0 6:6.0 7:1.0 
-1.0 1.0 1.0 0.0 1.0 1:1.0 2:1.0 3:2.0 4:3.0 5:6.0 6:4.0 7:1.0 
-1.0 1.0 1.0 0.0 0.0 1:1.0 2:1.0 3:2.0 4:1.0 5:8.0 6:8.0 7:1.0 
-1.0 1.0 1.0 0.0 1.0 1:1.0 2:1.0 3:2.0 4:2.0 5:9.0 6:8.0 7:1.0 
-0.0 0.009382032342967644 0.0 0.0 0.0 3:2.0 4:2.0 5:4.0 6:3.0 7:1.0 48:1.0 300:1.0 301:1.0 
-1.0 1.0 1.0 0.0 1.0 1:1.0 2:1.0 3:2.0 4:2.0 5:14.0 6:13.0 7:1.0 
-0.25234491460329245 1.0 1.0 0.017555212185164547 0.6568712673189029 2:1.0 3:2.0 4:3.0 5:6.0 6:4.0 7:1.0 14:1.0 274:1.0 
-0.0 0.0 0.0 0.0 0.749924160166844 3:2.0 4:1.0 5:8.0 6:7.0 7:2.0 48:1.0 221:1.0 302:1.0 
-1.0 1.0 1.0 1.0 0.0 1:1.0 2:1.0 3:2.0 4:1.0 5:6.0 6:6.0 7:1.0 
-0.39602312881387375 0.1492784128538259 0.3564914550487048 0.0 0.8992307569122596 2:1.0 3:2.0 4:1.0 5:27.0 6:22.0 7:6.0 242:1.0 308:1.0 309:1.0 310:1.0 311:1.0 
-0.0 0.0 0.11483063154734402 0.0 0.0 2:1.0 3:2.0 4:1.0 5:6.0 6:4.0 7:1.0 38:1.0 41:1.0 126:1.0 312:1.0 
-0.0 0.0 0.09723797670543169 0.0 0.13571533636007466 2:1.0 3:2.0 4:3.0 5:6.0 6:4.0 7:1.0 274:1.0 314:1.0 
-0.15361640776649454 1.0 1.1366074286529449E-4 0.0 0.0 1:1.0 3:2.0 4:3.0 5:11.0 6:9.0 7:1.0 48:1.0 
-0.0 0.0 0.0 0.0 0.24246933814306584 3:2.0 4:3.0 5:8.0 6:4.0 7:3.0 205:1.0 299:1.0 316:1.0 
-0.0 0.17728822938212604 0.0 0.0 0.0 2:1.0 3:2.0 4:1.0 5:8.0 6:5.0 7:2.0 53:2.0 126:1.0 317:1.0 318:1.0 
-0.0 0.00843754351318346 0.10718324637171872 0.0 0.1421345061089799 2:1.0 3:2.0 4:2.0 5:5.0 6:4.0 7:1.0 244:1.0 319:1.0 
-1.0 1.0 1.0 1.0 1.0 1:1.0 2:1.0 3:2.0 4:1.0 5:10.0 6:9.0 7:2.0 
-0.0 0.0 0.0 0.0 0.12044131691750516 2:1.0 3:2.0 4:3.0 5:7.0 6:5.0 7:1.0 244:1.0 321:1.0 322:1.0 
-0.25506917952492064 0.34322322221030177 0.5401585336627607 0.0014838154812521606 0.2537842165554073 2:1.0 3:2.0 4:5.0 5:10.0 6:4.0 7:2.0 14:1.0 61:1.0 120:1.0 324:1.0 325:1.0 326:1.0 
-0.26211906965864573 0.0 0.0 0.0 0.0 3:2.0 4:1.0 5:12.0 6:12.0 7:1.0 48:1.0 327:1.0 328:1.0 
-1.0 1.0 1.0 0.0 1.0 1:1.0 2:1.0 3:2.0 4:2.0 5:9.0 6:8.0 7:1.0 
-0.09600361182986837 0.0 0.0 0.0 0.0 3:2.0 4:5.0 5:13.0 6:7.0 7:1.0 17:1.0 21:1.0 26:1.0 48:1.0 233:1.0 336:1.0 337:1.0 338:1.0 
-0.0 0.06356003883546683 0.0 0.0 0.0 3:2.0 4:3.0 5:10.0 6:5.0 7:3.0 21:1.0 26:1.0 48:1.0 339:1.0 340:1.0 
-0.3038922544033524 0.883718232869482 0.9400919625998694 0.02573860149711194 0.5515506124758883 2:1.0 3:2.0 4:2.0 5:6.0 6:5.0 7:1.0 14:1.0 220:1.0 341:1.0 
-0.3548793386450046 0.4534572408712108 0.811233181696748 0.07198648506712549 1.0 3:2.0 4:3.0 5:6.0 6:4.0 7:1.0 20:1.0 349:1.0 350:1.0 
-1.0 1.0 1.0 0.30956731289170347 0.0 1:1.0 2:1.0 3:2.0 4:1.0 5:7.0 6:7.0 7:1.0 
-0.0 0.026831860049255224 0.0 0.0 0.0 3:2.0 4:1.0 5:11.0 6:8.0 7:2.0 21:1.0 26:1.0 48:1.0 53:1.0 352:1.0 353:1.0 
-0.0 0.046120286143872515 0.0 0.0 0.0 3:2.0 4:2.0 5:7.0 6:5.0 7:1.0 21:1.0 26:1.0 48:1.0 88:1.0 354:1.0 
-0.0 1.0 1.0 0.0 0.0 1:1.0 2:1.0 3:2.0 4:1.0 5:9.0 6:8.0 7:1.0 53:1.0 
-0.3936814277876615 0.386106196512233 1.0 0.0 0.17841282779183895 2:1.0 3:2.0 4:2.0 5:7.0 6:5.0 7:2.0 14:1.0 42:1.0 185:1.0 244:1.0 
-0.0 0.0 0.0 0.0 0.2180550071052341 3:2.0 4:5.0 5:8.0 6:4.0 7:1.0 48:1.0 71:1.0 161:1.0 333:1.0 
-0.0 0.0 0.0 0.0 0.008818908244705463 2:1.0 3:2.0 4:4.0 5:10.0 6:6.0 7:1.0 53:1.0 199:1.0 362:1.0 363:1.0 
-0.2428945940837691 0.0 0.46001974649186805 0.0 0.20318418960980233 2:1.0 3:2.0 4:1.0 5:8.0 6:7.0 7:1.0 41:1.0 126:1.0 175:1.0 276:1.0 
-1.0 1.0 1.0 1.0 0.0 1:1.0 2:1.0 3:2.0 4:1.0 5:4.0 6:4.0 7:1.0 
-0.3788576022557909 0.0 0.0 0.0 0.0 2:1.0 3:2.0 4:3.0 5:9.0 6:6.0 7:2.0 47:1.0 199:1.0 245:1.0 291:1.0 
-0.30391927083494313 0.8837315707000597 1.0 0.025725256859724384 0.5514569491864093 2:1.0 3:2.0 4:2.0 5:6.0 6:5.0 7:1.0 14:1.0 29:1.0 367:1.0 
-0.178964203387833 0.26654928291511054 0.7126145535298105 0.0 0.25631684861895726 2:1.0 3:2.0 4:1.0 5:6.0 6:6.0 7:1.0 261:1.0 368:1.0 
-0.0 1.0 0.0 0.0 0.0 1:1.0 3:2.0 4:3.0 5:8.0 6:6.0 7:1.0 48:1.0 
-0.0 0.0 0.08244268993557753 0.0 0.0 2:1.0 3:2.0 4:2.0 5:10.0 6:9.0 7:1.0 205:1.0 254:1.0 369:1.0 
-0.0 0.0 0.0 0.0 0.05263368079863404 2:1.0 3:2.0 4:6.0 5:9.0 6:4.0 7:1.0 199:1.0 359:1.0 371:1.0 372:1.0 
-1.0 1.0 1.0 0.6811670067877349 1.0 1:1.0 2:1.0 3:2.0 4:3.0 5:7.0 6:4.0 7:2.0 
-0.0 0.02476567137052378 0.0 0.0 0.0 3:2.0 4:2.0 5:7.0 6:5.0 7:2.0 48:1.0 373:1.0 374:1.0 
-1.0 1.0 1.0 0.0 1.0 1:1.0 2:1.0 3:2.0 4:3.0 5:13.0 6:11.0 7:1.0 
-1.0 1.0 1.0 1.0 1.0 1:1.0 2:1.0 3:2.0 4:3.0 5:7.0 6:4.0 7:2.0 
-1.0 1.0 1.0 0.0 1.0 2:1.0 3:2.0 4:4.0 5:9.0 6:5.0 7:1.0 17:1.0 151:1.0 
-1.0 1.0 1.0 0.7075520318445402 0.0 1:1.0 2:1.0 3:2.0 4:2.0 5:6.0 6:5.0 7:1.0 
-0.06267852624535451 0.11178737219372911 0.48430191795332517 0.0 0.3958417229961183 2:1.0 3:2.0 4:4.0 5:8.0 6:5.0 7:1.0 19:1.0 375:1.0 
-0.0 0.0 0.32170840986256194 0.0 0.8734106811960135 2:1.0 3:2.0 4:3.0 5:9.0 6:6.0 7:1.0 71:1.0 102:1.0 199:1.0 290:1.0 
-0.24840895690115006 0.22308131434305636 0.8168850106919044 0.028308737995291412 0.6446389971746704 3:2.0 4:3.0 5:7.0 6:5.0 7:1.0 20:1.0 347:1.0 379:1.0 380:1.0 
-1.0 1.0 1.0 0.608886426590951 1.0 1:1.0 2:1.0 3:2.0 4:3.0 5:6.0 6:4.0 7:1.0 
-0.0 0.9246986927465305 0.0 0.0 0.0 3:2.0 4:3.0 5:3.0 6:1.0 7:1.0 48:1.0 345:1.0 
-1.0 1.0 1.0 0.0 1.0 1:1.0 2:1.0 3:2.0 4:3.0 5:11.0 6:9.0 7:1.0 
-0.0 0.027502908241908843 0.0 0.0 0.06363839471247969 3:2.0 4:5.0 5:14.0 6:7.0 7:3.0 21:1.0 26:1.0 48:1.0 175:1.0 302:1.0 382:1.0 383:1.0 
-0.0 0.0 0.0 0.0 0.029431147839093015 3:2.0 4:3.0 5:6.0 6:4.0 7:1.0 20:1.0 205:1.0 359:1.0 
-0.04326429918588233 0.17240657282654584 0.031783422351459714 0.0 0.37990039325114383 2:1.0 3:2.0 4:5.0 5:12.0 6:7.0 7:1.0 14:1.0 17:1.0 205:1.0 385:1.0 386:1.0 
-0.19727314854476455 0.20712619603041207 0.664931657850655 0.0 0.8892100120744616 2:1.0 3:2.0 4:6.0 5:14.0 6:9.0 7:1.0 388:1.0 389:1.0 390:1.0 
-0.0 0.14103815075971035 0.0 0.0 0.0 3:2.0 4:2.0 5:6.0 6:5.0 7:1.0 48:1.0 189:1.0 392:1.0 
-0.13205598344289338 0.0 0.35364993999925887 0.033737396475882524 0.0 3:2.0 4:4.0 5:6.0 6:3.0 7:1.0 20:1.0 114:1.0 265:1.0 274:1.0 
-0.022144013036252574 0.02665295564663337 0.0 0.0 0.0 3:2.0 4:3.0 5:12.0 6:9.0 7:2.0 48:1.0 394:1.0 395:1.0 
-0.0 0.0 0.2739816898669858 0.0 1.0 2:1.0 3:2.0 4:5.0 5:7.0 6:3.0 7:1.0 232:1.0 397:1.0 
-1.0 1.0 1.0 0.0 1.0 1:1.0 2:1.0 3:2.0 4:3.0 5:11.0 6:9.0 7:1.0 
-0.24135993144952664 0.20140594651333119 0.7690382865607723 0.0 0.5374718725411085 3:2.0 4:1.0 5:5.0 6:5.0 7:1.0 299:1.0 398:1.0 399:1.0 
-0.8501135140938731 1.0 1.0 0.33110359598877515 0.42178915194423056 1:1.0 2:1.0 3:2.0 4:1.0 5:8.0 6:6.0 7:1.0 21:1.0 53:1.0 
-1.0 1.0 1.0 1.0 0.0 1:1.0 2:1.0 3:2.0 4:2.0 5:5.0 6:4.0 7:1.0 
-0.0509863224293095 0.0 0.0 0.0 0.0 3:2.0 4:1.0 5:10.0 6:9.0 7:1.0 21:1.0 26:1.0 48:1.0 403:1.0 404:1.0 
-0.15674294203283132 0.14224001733630165 0.19844217060840266 0.0 0.004980480472864197 2:1.0 3:2.0 4:2.0 5:4.0 6:3.0 7:1.0 132:1.0 406:1.0 
-0.0 1.0 0.23837382574521543 0.0 0.0 1:1.0 3:2.0 4:1.0 5:4.0 6:4.0 7:1.0 48:1.0 
-0.28287952983246684 0.001051224147267555 0.0 0.0 0.0 3:2.0 4:1.0 5:12.0 6:10.0 7:2.0 21:1.0 25:1.0 26:1.0 48:1.0 407:1.0 408:1.0 
-0.9315187568466509 1.0 1.0 1.0 0.0 1:1.0 2:1.0 3:2.0 4:2.0 5:4.0 6:3.0 7:1.0 
-0.1022744286299639 0.0 0.0 0.0 0.0 2:1.0 3:2.0 4:3.0 5:9.0 6:5.0 7:2.0 41:1.0 61:1.0 199:1.0 312:1.0 345:1.0 
-0.1039640844173957 0.235242232491087 0.35429304442113513 0.0 0.585733636010265 2:1.0 3:2.0 4:4.0 5:15.0 6:8.0 7:3.0 17:1.0 53:1.0 410:1.0 411:1.0 412:1.0 413:1.0 414:1.0 
-0.06266002569453692 0.11174774152366444 1.0 0.0 0.3958430572166606 2:1.0 3:2.0 4:4.0 5:8.0 6:5.0 7:1.0 19:1.0 418:1.0 
-1.0 1.0 1.0 0.0 1.0 1:1.0 2:1.0 3:2.0 4:3.0 5:9.0 6:6.0 7:2.0 
-1.0 1.0 1.0 1.0 1.0 1:1.0 2:1.0 3:2.0 4:3.0 5:7.0 6:4.0 7:2.0 
-0.015024980465170663 0.0 0.0 0.0 0.020774974448129053 2:1.0 3:2.0 4:3.0 5:18.0 6:15.0 7:2.0 31:1.0 205:1.0 233:1.0 419:1.0 420:1.0 421:1.0 
-0.2346113890069894 0.24065480374584716 0.6302889871285378 0.0 0.5702766009186772 2:1.0 3:2.0 4:1.0 5:8.0 6:8.0 7:1.0 422:1.0 423:1.0 424:1.0 
-0.045179767272195255 0.1592446376485406 0.1984310799077574 0.0 0.0 2:1.0 3:2.0 4:2.0 5:3.0 6:2.0 7:1.0 132:1.0 400:1.0 
-0.09503020319095959 0.0 0.0 0.0 0.0 3:2.0 4:1.0 5:9.0 6:9.0 7:1.0 48:1.0 425:1.0 426:1.0 
-0.0 1.0 0.9903638895186515 0.0 0.0 1:1.0 3:2.0 4:1.0 5:4.0 6:4.0 7:1.0 48:1.0 
-0.0 0.05336813606743198 0.0 0.0 0.0 3:2.0 4:2.0 5:6.0 6:5.0 7:1.0 20:1.0 205:1.0 427:1.0 
-0.06142315567596769 0.06535133034620619 0.1841102052865028 0.0 0.7480081734047869 2:1.0 3:2.0 4:3.0 5:7.0 6:4.0 7:1.0 318:1.0 428:1.0 429:1.0 
-0.0 0.3441815419359997 0.0 0.0 0.0 3:2.0 4:3.0 5:6.0 6:3.0 7:2.0 48:1.0 225:1.0 296:1.0 430:1.0 
-0.0 0.7663781416604887 0.0 0.0 0.0 3:2.0 4:3.0 5:7.0 6:5.0 7:1.0 48:1.0 201:1.0 431:1.0 
-0.0 0.15930491974016459 0.0018879852117751356 0.0 0.0 2:1.0 3:2.0 4:3.0 5:6.0 6:4.0 7:1.0 126:1.0 432:1.0 
-0.0 0.2710313259791391 0.6045772396723781 0.02516119327372162 1.0 3:2.0 4:5.0 5:8.0 6:4.0 7:1.0 20:1.0 114:1.0 126:1.0 335:1.0 
-0.0 0.1525470331598731 0.11413396527132676 0.0 0.029766252368962364 2:1.0 3:2.0 4:1.0 5:9.0 6:9.0 7:1.0 205:1.0 433:1.0 434:1.0 435:1.0 
-1.0 1.0 1.0 0.0 0.0 1:1.0 2:1.0 3:2.0 4:1.0 5:8.0 6:8.0 7:1.0 
-0.5811881113817057 0.1902276883986347 0.06612475272240366 0.0 0.0 3:2.0 4:1.0 5:10.0 6:10.0 7:1.0 20:1.0 45:1.0 205:1.0 360:1.0 
-0.0 0.0 0.10595506131870572 0.0 0.03148772219121769 2:1.0 3:2.0 4:5.0 5:11.0 6:7.0 7:1.0 329:1.0 436:1.0 437:1.0 438:1.0 
-0.09194240178402138 0.0 0.5709809931715573 0.0 0.5188279852625998 2:1.0 3:2.0 4:3.0 5:12.0 6:10.0 7:1.0 66:1.0 440:1.0 441:1.0 
-0.1772616927721706 0.5095145882504325 1.0 0.012196548546370187 0.8447225070208069 2:1.0 3:2.0 4:1.0 5:9.0 6:8.0 7:2.0 14:1.0 42:1.0 66:1.0 442:1.0 
-0.0 0.09070231690011465 0.0 0.0 0.6056496605462551 3:2.0 4:5.0 5:19.0 6:10.0 7:5.0 21:1.0 26:1.0 48:1.0 238:1.0 443:1.0 444:1.0 445:1.0 
-0.0 0.0 0.10738295486915489 0.0 0.17854221502945639 2:1.0 3:2.0 4:3.0 5:5.0 6:3.0 7:1.0 244:1.0 393:1.0 
-0.0 0.0 0.0 0.0 0.05092396399517271 2:1.0 3:2.0 4:1.0 5:7.0 6:6.0 7:2.0 205:1.0 232:1.0 452:1.0 
-1.0 1.0 1.0 0.0 1.0 1:1.0 2:1.0 3:2.0 4:2.0 5:11.0 6:10.0 7:1.0 
-0.0 0.05132601078216768 0.87793448668236 0.0 0.0 3:2.0 4:3.0 5:6.0 6:4.0 7:1.0 20:1.0 199:1.0 323:1.0 
-0.0 1.0 1.0 0.0 1.0 1:1.0 2:1.0 3:2.0 4:3.0 5:7.0 6:3.0 7:2.0 38:1.0 
-0.4633446353342468 0.5742584974971467 1.0 0.0 1.0 2:1.0 3:2.0 4:1.0 5:10.0 6:10.0 7:1.0 335:1.0 456:1.0 
-0.0 0.3294310601307331 0.516209703572817 0.0 0.8797336243873202 2:1.0 3:2.0 4:3.0 5:7.0 6:3.0 7:3.0 457:1.0 458:1.0 459:1.0 
-0.003367368685598641 0.1706889764904999 0.6132400522589354 0.0 0.20598615519646557 2:1.0 3:2.0 4:3.0 5:8.0 6:6.0 7:1.0 301:1.0 329:1.0 461:1.0 
-0.0 0.0 0.36284711286249643 0.0 0.2672446351936427 2:1.0 3:2.0 4:3.0 5:8.0 6:4.0 7:2.0 38:1.0 61:1.0 398:1.0 462:1.0 463:1.0 
-1.0 1.0 1.0 0.0 1.0 1:1.0 2:1.0 3:2.0 4:3.0 5:10.0 6:8.0 7:1.0 
-0.14542371306776566 0.26088854973314235 0.6260913134458227 0.0 0.6222267678654515 2:1.0 3:2.0 4:2.0 5:7.0 6:6.0 7:1.0 372:1.0 466:1.0 467:1.0 
-0.0 0.0 0.0 0.0 0.044306232909275996 2:1.0 3:2.0 4:4.0 5:9.0 6:6.0 7:1.0 266:1.0 274:1.0 468:1.0 
-0.10077931696486246 0.35835837118271685 0.1384699586617401 0.004624989797211977 0.0 2:1.0 3:2.0 4:2.0 5:6.0 6:4.0 7:2.0 14:1.0 76:1.0 112:1.0 210:1.0 
-0.0 0.30305442116546366 1.0 0.0 0.44605061886750613 2:1.0 3:2.0 4:3.0 5:9.0 6:6.0 7:1.0 53:1.0 87:1.0 428:1.0 
-0.034641542236035716 0.05614369448911593 0.05998967793396323 0.0 0.0 3:2.0 4:1.0 5:16.0 6:11.0 7:3.0 21:1.0 26:1.0 48:1.0 82:2.0 316:1.0 357:1.0 470:1.0 
-0.4374559861872584 0.5206129541231543 0.6730981553862352 0.0 0.6390284224321995 2:1.0 3:2.0 4:2.0 5:8.0 6:6.0 7:1.0 14:1.0 17:1.0 208:1.0 359:1.0 471:1.0 
-0.0 0.0 0.4126829249014976 0.0 0.0 2:1.0 3:2.0 4:1.0 5:8.0 6:6.0 7:2.0 14:1.0 38:1.0 61:1.0 66:1.0 274:1.0 
-0.0 1.0 0.0 0.0 0.0 1:1.0 3:2.0 4:3.0 5:8.0 6:6.0 7:1.0 48:1.0 
-0.17638616061298118 0.0 0.0 0.0 0.0 2:1.0 3:2.0 4:3.0 5:8.0 6:5.0 7:1.0 17:1.0 180:1.0 205:1.0 478:1.0 479:1.0 
-0.08176502166758745 0.0 2.3672886007295447E-6 0.0 0.0 2:1.0 3:2.0 4:4.0 5:16.0 6:13.0 7:1.0 108:1.0 199:1.0 480:1.0 481:1.0 
-0.0 0.0 0.1823643481570529 0.0 0.0 2:1.0 3:2.0 4:3.0 5:7.0 6:4.0 7:1.0 17:1.0 31:1.0 205:1.0 482:1.0 
-0.6436167190813301 0.0 0.3483170157152651 0.0 0.4393549515658013 2:1.0 3:2.0 4:5.0 5:12.0 6:7.0 7:2.0 19:1.0 61:1.0 484:1.0 
-1.0 1.0 1.0 0.0 1.0 1:1.0 2:1.0 3:2.0 4:2.0 5:7.0 6:6.0 7:1.0 
-0.05214841151297566 0.0 0.3207254035010811 0.0 0.4557197475659477 2:1.0 3:2.0 4:3.0 5:10.0 6:8.0 7:1.0 485:1.0 486:1.0 487:1.0 
-1.0 1.0 1.0 0.0 1.0 1:1.0 2:1.0 3:2.0 4:3.0 5:16.0 6:14.0 7:1.0 
-0.19230572713474733 0.0 0.1785764528549788 0.0 0.0841006840670352 2:1.0 3:2.0 4:5.0 5:11.0 6:6.0 7:1.0 17:1.0 126:1.0 294:1.0 489:1.0 
-0.0 0.0 0.035282465587058776 0.0 0.0 2:1.0 3:2.0 4:4.0 5:8.0 6:5.0 7:1.0 196:1.0 199:1.0 227:1.0 
-0.26075694859243226 0.27782726554195214 0.1795705919794685 0.03363932368346279 0.0 3:2.0 4:1.0 5:7.0 6:7.0 20:1.0 38:1.0 126:1.0 491:1.0 
-0.0 0.0 0.21266979715198936 0.0 0.0 2:1.0 3:2.0 4:2.0 5:16.0 6:14.0 7:2.0 14:1.0 112:1.0 199:1.0 221:1.0 321:1.0 360:1.0 492:1.0 
-0.0 0.0 0.0 0.0 1.0 2:1.0 3:2.0 4:4.0 5:8.0 6:4.0 7:2.0 242:1.0 244:1.0 
-0.21967081140996184 0.0 0.0 0.0 0.0 2:1.0 3:2.0 4:4.0 5:10.0 6:6.0 7:1.0 41:1.0 126:1.0 185:1.0 493:1.0 
-0.0697576199248197 0.26597514032920083 0.7488250096696062 0.0 0.7414778771779543 2:1.0 3:2.0 4:5.0 5:15.0 6:7.0 7:3.0 17:1.0 35:1.0 53:1.0 122:1.0 208:1.0 494:1.0 
-0.8665532519787539 1.0 1.0 0.02400060767121549 1.0 2:1.0 3:2.0 4:4.0 5:7.0 6:4.0 7:1.0 14:1.0 61:1.0 232:1.0 
-1.0 1.0 1.0 0.0 1.0 1:1.0 2:1.0 3:2.0 4:2.0 5:8.0 6:7.0 7:1.0 
-1.0 1.0 1.0 0.0 1.0 1:1.0 2:1.0 3:2.0 4:1.0 5:9.0 6:8.0 7:1.0 38:1.0 
-1.0 1.0 1.0 0.6483704592076435 1.0 1:1.0 2:1.0 3:2.0 4:3.0 5:11.0 6:7.0 7:3.0 
-0.0 0.0123057141742398 0.0 0.0 0.0 3:2.0 4:3.0 5:7.0 6:4.0 7:1.0 21:1.0 26:1.0 27:1.0 48:1.0 88:1.0 
-6.585537135470167E-4 0.10850635292842802 0.19842481037608337 0.0 0.041388100693019216 2:1.0 3:2.0 4:3.0 5:4.0 6:2.0 7:1.0 132:1.0 334:1.0 
-1.0 1.0 1.0 0.0 0.0 1:1.0 2:1.0 3:2.0 4:1.0 5:8.0 6:7.0 7:1.0 41:1.0 
-0.0 0.23721441009248875 0.0 0.0 0.38927539233069014 3:2.0 4:1.0 5:9.0 6:8.0 7:1.0 20:1.0 38:1.0 205:1.0 507:1.0 508:1.0 
-1.0 1.0 1.0 1.0 0.0 1:1.0 2:1.0 3:2.0 4:2.0 5:5.0 6:4.0 7:1.0 
-1.0 1.0 1.0 1.0 1.0 1:1.0 2:1.0 3:2.0 4:1.0 5:7.0 6:6.0 7:1.0 21:1.0 
-0.07482815130735208 0.1741345326668122 0.3495982992811739 0.0 0.5581143748820485 2:1.0 3:2.0 4:3.0 5:8.0 6:6.0 7:1.0 266:1.0 515:1.0 516:1.0 
-1.0 1.0 1.0 0.0 0.0 1:1.0 2:1.0 3:2.0 4:1.0 5:7.0 6:7.0 7:1.0 
-0.0 0.0 0.0019014307832732641 0.0 0.0 2:1.0 3:2.0 4:4.0 5:7.0 6:3.0 7:1.0 41:1.0 126:1.0 518:1.0 
-1.0 1.0 1.0 1.0 0.0 1:1.0 2:1.0 3:2.0 4:2.0 5:6.0 6:5.0 7:1.0 
-0.0 0.0 0.0 0.0 0.38857659738629724 3:2.0 4:4.0 5:8.0 6:5.0 7:1.0 20:1.0 199:1.0 522:1.0 
-0.03353238536555849 0.10228550009941668 0.19390027333846818 0.0 0.2817980121093384 2:1.0 3:2.0 4:3.0 5:11.0 6:9.0 7:1.0 14:1.0 192:1.0 283:1.0 326:1.0 
-0.0 1.0 1.0 0.0 0.3183133043172988 2:1.0 3:2.0 4:3.0 5:5.0 6:3.0 7:1.0 329:1.0 526:1.0 
-0.10327518682223251 0.06366722701123481 0.3576590453070315 0.0 0.4079177279809892 2:1.0 3:2.0 4:4.0 5:13.0 6:9.0 7:1.0 53:1.0 59:1.0 132:1.0 189:1.0 527:1.0 528:1.0 
-1.0 1.0 1.0 0.0 1.0 1:1.0 2:1.0 3:2.0 4:3.0 5:17.0 6:14.0 7:1.0 38:1.0 
-0.4624615999424756 0.3521572209560873 0.3371231192119349 0.0 0.5701338462574795 2:1.0 3:2.0 4:4.0 5:8.0 6:4.0 7:2.0 31:1.0 46:1.0 99:1.0 
-0.22146741794449612 0.3165320985319476 0.38863574596935907 0.005137122269680874 0.25983504358140624 2:1.0 3:2.0 4:4.0 5:15.0 6:11.0 7:1.0 14:1.0 83:1.0 534:1.0 535:1.0 536:1.0 537:1.0 538:1.0 
-0.3497438897536596 0.08860892875052148 0.12903471978216277 0.014749467805802111 0.3048814316292032 3:2.0 4:3.0 5:17.0 6:12.0 7:4.0 20:2.0 23:1.0 205:1.0 227:1.0 505:1.0 539:1.0 540:1.0 541:1.0 
-0.5810566581098103 0.09646103139959566 1.0 0.0 0.08654979643885947 2:1.0 3:2.0 4:1.0 5:6.0 6:6.0 7:1.0 46:1.0 119:1.0 
-0.7639530084263721 1.0 1.0 0.05177270221921844 1.0 2:1.0 3:2.0 4:1.0 5:6.0 6:6.0 7:1.0 14:1.0 472:1.0 
-0.0 0.0 0.04858318326774053 0.0 0.09911763449371667 2:1.0 3:2.0 4:3.0 5:8.0 6:6.0 7:1.0 274:1.0 544:1.0 545:1.0 
-0.0 0.02864079075907598 0.0 0.0 0.15944920256036632 2:1.0 3:2.0 4:3.0 5:6.0 6:4.0 7:1.0 46:1.0 548:1.0 
-0.002728282407311396 0.23020812189117162 0.387178750559026 0.0 0.4756182925806072 2:1.0 3:2.0 4:4.0 5:9.0 6:4.0 7:3.0 549:1.0 550:1.0 551:1.0 552:1.0 
-1.0 1.0 1.0 0.0 1.0 1:1.0 2:1.0 3:2.0 4:2.0 5:7.0 6:6.0 7:1.0 
-0.0 0.0 1.0 0.0 0.0 2:1.0 3:2.0 4:1.0 5:7.0 6:6.0 7:1.0 53:1.0 205:1.0 287:1.0 
-0.2179663721309793 0.0 0.0 0.0 0.0 3:2.0 4:1.0 5:13.0 6:12.0 7:1.0 21:1.0 26:1.0 48:1.0 202:1.0 554:1.0 
-0.19902819020872445 0.9019398426345147 0.8324670320763332 8.507564457950953E-4 0.171904461758803 2:1.0 3:2.0 4:1.0 5:9.0 6:7.0 7:3.0 14:1.0 66:1.0 112:1.0 555:1.0 
-0.0 0.0 0.0 0.0 0.3531279777633088 2:1.0 3:2.0 4:4.0 5:6.0 6:2.0 7:1.0 41:1.0 126:1.0 232:1.0 
-0.013887856769303883 0.07609640608428465 0.0 0.0 0.0 3:2.0 4:2.0 5:10.0 6:9.0 7:1.0 48:1.0 411:1.0 557:1.0 558:1.0 
-0.0 0.0 0.0019811674898716058 0.09447966395898402 0.29030772678180095 2:1.0 3:2.0 4:4.0 5:14.0 6:9.0 7:2.0 21:1.0 158:1.0 189:1.0 199:1.0 560:1.0 
-0.05811309874681527 0.004293394915708786 0.0 0.0 0.15872147389453853 3:2.0 4:5.0 5:18.0 6:12.0 7:3.0 48:1.0 302:1.0 561:1.0 562:1.0 563:1.0 
-0.0 0.4365876657820245 0.9492679076123923 0.0 1.0 2:1.0 3:2.0 4:4.0 5:12.0 6:7.0 7:3.0 108:1.0 242:1.0 565:1.0 
-0.06709397563230095 0.02449040327414187 0.538446696693089 0.0 0.20351155843095237 2:1.0 3:2.0 4:3.0 5:9.0 6:6.0 7:2.0 14:1.0 42:1.0 274:1.0 566:1.0 
-0.004260886092062203 0.0 0.574455714315304 0.0 0.37770555101143743 2:1.0 3:2.0 4:1.0 5:6.0 6:5.0 7:1.0 41:1.0 223:1.0 567:1.0 
-1.0 1.0 1.0 0.6676382218323013 0.0 1:1.0 2:1.0 3:2.0 4:1.0 5:7.0 6:7.0 7:1.0 
-0.35960498492349624 0.8485477774065631 0.5198667680639856 0.013210832381254816 0.6413132202696781 2:1.0 3:2.0 4:1.0 5:8.0 6:7.0 7:2.0 14:1.0 42:1.0 565:1.0 570:1.0 
-0.21877721350305118 0.1457459303682767 0.4843249820161431 0.0 0.35945472789101585 2:1.0 3:2.0 4:3.0 5:8.0 6:6.0 7:1.0 19:1.0 571:1.0 
-0.20643556231200239 0.0 0.0 0.0 0.0 3:2.0 4:1.0 5:11.0 6:11.0 7:1.0 48:1.0 573:1.0 574:1.0 
-0.007646121364565575 0.24277440325241267 0.5161244263691266 0.0 0.563451839916222 2:1.0 3:2.0 4:5.0 5:9.0 6:4.0 7:2.0 575:1.0 576:1.0 577:1.0 
-0.0 0.0 0.05353034899977792 0.0 0.13862656764648715 2:1.0 3:2.0 4:4.0 5:7.0 6:4.0 7:1.0 244:1.0 517:1.0 578:1.0 
-1.0 1.0 1.0 0.9343187094785689 1.0 1:1.0 2:1.0 3:2.0 4:3.0 5:6.0 6:4.0 7:1.0 
-1.0 1.0 1.0 0.0 1.0 1:1.0 2:1.0 3:2.0 4:3.0 5:9.0 6:7.0 7:1.0 
-0.020591645821151063 0.08512504038100231 0.017794048761583473 0.0 0.0 3:2.0 4:2.0 5:6.0 6:5.0 7:1.0 20:1.0 199:1.0 303:1.0 
-0.0 0.0 0.18824109694503127 0.0 0.03343091459512201 3:2.0 4:3.0 5:5.0 6:3.0 7:1.0 299:1.0 329:1.0 487:1.0 
-0.8005364269578831 0.03138376756303899 0.0 0.0 0.07459956722516063 2:1.0 3:2.0 4:1.0 5:8.0 6:8.0 7:1.0 46:1.0 127:1.0 163:1.0 
-0.2926931037694188 0.35292769389582024 1.0 0.0 0.47164184198169495 2:1.0 3:2.0 4:3.0 5:9.0 6:7.0 7:1.0 66:1.0 184:1.0 376:1.0 
-0.0 0.0 0.1019468644154004 0.0 0.0 2:1.0 3:2.0 4:5.0 5:8.0 6:3.0 7:1.0 21:1.0 205:1.0 585:1.0 586:1.0 
-0.0 0.14034949589275847 0.0 0.0 0.0 3:2.0 4:3.0 5:8.0 6:6.0 7:1.0 31:1.0 48:1.0 301:1.0 587:1.0 
-0.1975732738756931 0.0906791408552397 0.1983034769225275 0.3249049965015918 0.17943679047333894 2:1.0 3:2.0 4:4.0 5:6.0 6:2.0 7:1.0 21:1.0 132:1.0 588:1.0 
-0.0 0.108499320640158 0.3732626719454772 0.0 1.0 2:1.0 3:2.0 4:4.0 5:8.0 6:4.0 7:2.0 350:1.0 591:1.0 592:1.0 
-0.1433918995494078 0.0 0.028464758334808694 0.0 0.0 2:1.0 3:2.0 4:2.0 5:16.0 6:14.0 7:1.0 17:1.0 205:1.0 595:1.0 596:1.0 597:1.0 598:1.0 599:1.0 
-1.0 1.0 1.0 0.0 1.0 1:1.0 2:1.0 3:2.0 4:1.0 5:9.0 6:9.0 7:1.0 
-0.15964989333453194 0.0 0.14392439755160602 0.0 0.0 3:2.0 4:1.0 5:17.0 6:17.0 7:1.0 48:1.0 407:1.0 603:1.0 604:1.0 605:1.0 606:1.0 
-0.0 0.2338287315793324 0.19803807591415185 0.0 0.16960466528353788 2:1.0 3:2.0 4:3.0 5:9.0 6:7.0 7:1.0 72:1.0 118:1.0 436:1.0 607:1.0 
-0.07640816874459527 0.3293016981967865 0.0 0.05856025068398812 0.0 3:2.0 4:2.0 5:4.0 6:3.0 7:1.0 20:1.0 380:1.0 398:1.0 
-0.16727171493155357 0.0 0.0 0.0 0.0 3:2.0 4:3.0 5:10.0 6:7.0 7:1.0 17:1.0 48:1.0 515:1.0 610:1.0 611:1.0 
-0.14695792410013014 0.03982379341815641 0.25325401934770825 0.0 0.05890430800840898 2:1.0 3:2.0 4:1.0 5:7.0 6:7.0 7:1.0 46:1.0 446:1.0 612:1.0 
-0.08481806169656556 0.0 0.0 0.09998239289099968 0.0 3:2.0 4:4.0 5:18.0 6:10.0 7:3.0 17:1.0 21:2.0 26:2.0 48:1.0 88:1.0 613:1.0 614:1.0 
-0.0 0.0 0.0 0.0 0.023637830430888275 3:2.0 4:3.0 5:7.0 6:5.0 7:1.0 20:1.0 199:1.0 323:1.0 
-0.8067436340032357 0.0 0.6497116050260744 0.0 0.6592614885953061 2:1.0 3:2.0 4:1.0 5:11.0 6:11.0 7:1.0 45:1.0 66:1.0 436:1.0 
-6.683817051898588E-4 0.10853127084641438 0.19842541093285818 0.0 0.04138193735972216 2:1.0 3:2.0 4:3.0 5:4.0 6:2.0 7:1.0 132:1.0 477:1.0 
-0.03397847718165261 0.0 0.0 0.0 0.0 3:2.0 4:1.0 5:10.0 6:9.0 7:1.0 21:1.0 26:1.0 48:1.0 617:1.0 618:1.0 619:1.0 
-0.09116102124767274 0.04823497860917165 0.007966126172261596 0.0 0.0433213951882016 2:1.0 3:2.0 4:1.0 5:6.0 6:6.0 7:1.0 46:1.0 620:1.0 621:1.0 
-0.0 0.2540386478473242 0.71464390625447 0.0 0.3110590998946297 2:1.0 3:2.0 4:2.0 5:6.0 6:5.0 7:1.0 208:1.0 625:1.0 
-0.0971570647143384 0.7531275171342056 0.2847260815661265 0.0 0.0 2:1.0 3:2.0 4:2.0 5:9.0 6:8.0 7:1.0 14:1.0 199:1.0 626:1.0 
-1.0 1.0 1.0 1.0 1.0 1:1.0 2:1.0 3:2.0 4:1.0 5:7.0 6:6.0 7:1.0 21:1.0 
-0.0361693453019927 0.0 0.0 0.0 0.0 3:2.0 4:1.0 5:9.0 6:9.0 7:1.0 48:1.0 108:1.0 627:1.0 628:1.0 
-1.0 1.0 1.0 1.0 0.0 1:1.0 2:1.0 3:2.0 4:1.0 5:4.0 6:4.0 7:1.0 
-0.45821257491494966 0.7597484804886359 0.397550068724188 0.025097684510892816 0.0 2:1.0 3:2.0 4:1.0 5:8.0 6:7.0 7:1.0 14:1.0 41:1.0 223:1.0 487:1.0 
-0.0 0.1837006004567207 0.0 0.0 0.25057984599802496 3:2.0 4:3.0 5:8.0 6:3.0 7:3.0 48:1.0 54:1.0 631:1.0 632:1.0 
-0.0 0.10141389290080391 0.1152829347267393 0.0 0.1402285066486376 2:1.0 3:2.0 4:1.0 5:9.0 6:8.0 7:2.0 110:1.0 189:1.0 205:1.0 
-0.12276874202875884 0.22254741020765556 0.3783536702288077 0.0 0.6899430573425043 2:1.0 3:2.0 4:2.0 5:12.0 6:8.0 7:2.0 38:1.0 83:1.0 90:1.0 261:1.0 
-0.855276002719636 0.9402963560582688 1.0 0.0 0.49634073321376704 2:1.0 3:2.0 4:1.0 5:14.0 6:14.0 7:1.0 14:1.0 132:1.0 287:1.0 634:1.0 
-1.0 1.0 1.0 0.0 1.0 1:1.0 2:1.0 3:2.0 4:3.0 5:12.0 6:9.0 7:2.0 
-0.0 0.0 0.0 0.028484482458209802 0.0 3:2.0 4:4.0 5:9.0 6:5.0 7:1.0 21:1.0 48:1.0 635:1.0 636:1.0 
-0.3816439306822818 0.0012986976709464936 0.886818997000132 0.323479969479084 0.6810217699563105 2:1.0 3:2.0 4:5.0 5:13.0 6:8.0 7:1.0 21:1.0 329:1.0 637:1.0 
-1.0 1.0 1.0 0.0 1.0 1:1.0 2:1.0 3:2.0 4:2.0 5:9.0 6:8.0 7:1.0 
-0.337864019698158 0.06296219343620962 0.5158175427869552 0.0 0.4540997539510697 2:1.0 3:2.0 4:2.0 5:7.0 6:5.0 7:1.0 41:1.0 212:1.0 228:1.0 
-0.0 0.0 0.0019155710113053696 0.0 0.0 2:1.0 3:2.0 4:3.0 5:6.0 6:3.0 7:1.0 41:1.0 126:1.0 638:1.0 
-0.1533449915469783 0.024199811850284317 1.0 0.0 0.5498862580496399 2:1.0 3:2.0 4:3.0 5:10.0 6:6.0 7:2.0 14:1.0 41:1.0 42:1.0 223:1.0 639:1.0 
-0.041347194626463815 0.2123860517114493 1.0 0.0 0.4476604073246018 2:1.0 3:2.0 4:4.0 5:7.0 6:4.0 7:1.0 640:1.0 641:1.0 642:1.0 
-0.026217826349442544 0.06246917900319917 0.0 0.0 0.12300303601629671 2:1.0 3:2.0 4:2.0 5:6.0 6:5.0 7:1.0 46:1.0 643:1.0 
-0.11965351219290431 0.003008932279515766 0.001940738566682949 0.0 0.0 2:1.0 3:2.0 4:1.0 5:6.0 6:5.0 7:1.0 41:1.0 126:1.0 644:1.0 
-0.4689137389058987 1.0 1.0 0.0 0.7196050264942793 2:1.0 3:2.0 4:1.0 5:7.0 6:7.0 7:1.0 14:1.0 88:1.0 645:1.0 
-0.18523880429825915 0.13926972442732544 0.504190123114939 0.0 0.9248308328673939 3:2.0 4:3.0 5:6.0 6:4.0 7:1.0 19:1.0 299:1.0 330:1.0 
-0.1713705465330666 0.0 9.683014561306403E-4 0.0 0.0 2:1.0 3:2.0 4:1.0 5:8.0 6:7.0 7:1.0 41:1.0 126:1.0 648:1.0 649:1.0 
-0.43776828976388915 0.8922280156043212 1.0 0.025681659165704532 0.5489697640268457 2:1.0 3:2.0 4:1.0 5:7.0 6:7.0 7:1.0 14:1.0 650:1.0 651:1.0 
-0.0 0.0 0.15470413153096715 0.0 1.0 3:2.0 4:5.0 5:9.0 6:5.0 7:1.0 20:1.0 114:1.0 199:1.0 522:1.0 
-0.11478289554604997 -0.05138245445508545 0.0 0.0 0.0 2:1.0 3:2.0 4:1.0 5:9.0 6:6.0 7:2.0 14:1.0 21:1.0 38:1.0 100:1.0 112:1.0 652:1.0 653:1.0 
-0.0 -0.0 1.0 0.0 0.0 1:1.0 2:1.0 3:2.0 4:1.0 5:4.0 6:4.0 7:1.0 
-0.28601296294727996 -0.2834859967609362 0.5928544820370216 0.015546181875072515 0.22620255419384463 1:1.0 2:1.0 3:2.0 4:1.0 5:12.0 6:10.0 7:1.0 83:2.0 
-0.09529520407629735 -0.13102268294996627 0.5665502391549393 0.0 0.14831174540869152 2:1.0 3:2.0 4:1.0 5:2.0 6:2.0 7:1.0 14:1.0 654:1.0 
-0.0 -0.0 1.0 0.0 0.0 1:1.0 2:1.0 3:2.0 4:1.0 5:9.0 6:7.0 7:3.0 
-0.2801624137022082 -0.08599735460865841 0.5331504078493636 0.0 0.21928805434668228 2:1.0 3:2.0 4:3.0 5:11.0 6:6.0 7:3.0 14:1.0 17:1.0 656:1.0 657:1.0 658:1.0 
-0.0 -0.0 1.0 0.0 0.0 1:1.0 2:1.0 3:2.0 4:1.0 5:4.0 6:4.0 7:1.0 
-1.0 -1.0 1.0 0.0 0.0 1:1.0 2:1.0 3:2.0 4:1.0 5:8.0 6:8.0 7:1.0 
-0.18676249935243797 -0.0 0.1259681822612541 0.0 0.1536035196599406 2:1.0 3:2.0 4:1.0 5:6.0 6:5.0 7:2.0 14:1.0 33:1.0 234:1.0 
-0.0 -1.0 1.0 0.0 0.7229796302459972 1:1.0 2:1.0 3:2.0 4:1.0 5:3.0 6:2.0 7:1.0 38:1.0 
-2.598513660976145E-4 -0.0 0.0 0.0 0.11954192416947507 3:2.0 4:3.0 5:5.0 6:3.0 7:1.0 11:1.0 20:2.0 659:1.0 660:1.0 
-0.3891814135438561 -1.0 1.0 0.0 1.0 1:1.0 2:1.0 3:2.0 4:3.0 5:6.0 6:4.0 7:1.0 
-0.0480255619242023 -0.07917893956508806 0.4000464113275843 0.0 0.18140701530937065 2:1.0 3:2.0 4:4.0 5:7.0 6:3.0 7:2.0 14:1.0 662:1.0 663:1.0 
-0.43514524206596383 -0.2893302863928714 0.0 0.0 0.0 3:2.0 4:3.0 5:9.0 6:6.0 7:1.0 11:1.0 41:1.0 664:1.0 
-0.09237628456473074 -0.0 0.1113096277745393 0.0 0.10902700156031332 2:1.0 3:2.0 4:4.0 5:7.0 6:2.0 7:3.0 14:1.0 146:1.0 665:1.0 666:1.0 
-1.0 -1.0 1.0 0.0 0.0 1:1.0 2:1.0 3:2.0 4:1.0 5:8.0 6:8.0 7:1.0 
-0.23032139264345214 -0.0 0.0 0.0 0.0 3:2.0 4:1.0 5:9.0 6:9.0 7:1.0 11:1.0 659:1.0 
-0.0 -0.0 1.0 0.0 0.0 1:1.0 2:1.0 3:2.0 4:2.0 5:4.0 6:3.0 7:1.0 
-0.09529065274524627 -0.1310262153905852 0.5665443208155475 0.0 0.14830393121855556 2:1.0 3:2.0 4:1.0 5:2.0 6:2.0 7:1.0 14:1.0 667:1.0 
-0.0 -0.0 0.0 1.0 0.0 1:1.0 2:1.0 3:2.0 4:1.0 5:5.0 6:4.0 7:1.0 21:1.0 
-0.0 -1.0 1.0 0.0 0.0 1:1.0 2:1.0 3:2.0 4:3.0 5:4.0 6:2.0 7:1.0 
-0.6056000518777215 -1.0 0.2677609341533459 0.0 0.2598376567266792 2:1.0 3:2.0 4:4.0 5:9.0 6:3.0 7:4.0 14:1.0 132:1.0 431:1.0 
-0.0 -0.0 1.0 0.0 0.0 1:1.0 2:1.0 3:2.0 4:1.0 5:9.0 6:7.0 7:3.0 
-0.036743960232568984 -0.06644919086241141 0.0 0.0 0.0 2:1.0 3:2.0 4:1.0 5:2.0 6:2.0 7:1.0 14:1.0 668:1.0 
-1.0 -0.06444887836083443 0.0 0.0 0.0 3:2.0 4:2.0 5:11.0 6:10.0 7:1.0 11:1.0 659:1.0 
-0.30296181117546384 -0.0 1.0 0.0 0.6225885288614956 3:2.0 4:2.0 5:17.0 6:14.0 7:1.0 11:1.0 41:1.0 54:1.0 669:1.0 
-0.5692941167408487 -0.13152580293762656 1.0 0.0 0.20218018049878883 3:2.0 4:2.0 5:18.0 6:16.0 7:1.0 11:1.0 21:1.0 661:1.0 
-1.0 -1.0 1.0 0.0 0.0 1:1.0 2:1.0 3:2.0 4:2.0 5:7.0 6:6.0 7:1.0 
-0.0 -0.0 1.0 0.0 0.0 1:1.0 2:1.0 3:2.0 4:1.0 5:5.0 6:5.0 7:1.0 
-0.0 -0.0 0.7342735301704448 0.0 0.0 3:2.0 4:1.0 5:19.0 6:18.0 7:1.0 11:1.0 21:1.0 664:1.0 
-0.0 -0.0 1.0 0.0 1.0 2:1.0 3:2.0 4:1.0 5:5.0 6:5.0 7:1.0 14:1.0 434:1.0 
-0.14986233134829877 -0.3881641971266332 1.0 0.0 0.8729450719620017 2:1.0 3:2.0 4:1.0 5:7.0 6:6.0 7:1.0 54:1.0 301:1.0 434:1.0 672:1.0 
-1.0 -1.0 1.0 0.0 0.0 1:1.0 2:1.0 3:2.0 4:1.0 5:9.0 6:9.0 7:1.0 
-0.04810783732564591 -0.09935345910145499 0.6488238796254006 0.0 0.10948980058403984 2:1.0 3:2.0 4:1.0 5:6.0 6:6.0 7:1.0 14:1.0 673:1.0 674:1.0 
-0.0 -0.0 1.0 0.0 0.0 1:1.0 2:1.0 3:2.0 4:1.0 5:3.0 6:3.0 7:1.0 
-0.0 -0.0 0.0 1.0 0.0 2:1.0 3:2.0 4:1.0 5:4.0 6:4.0 7:1.0 675:1.0 
-0.0 -1.0 0.0 0.0 0.0 1:1.0 3:2.0 4:1.0 5:10.0 6:8.0 7:3.0 48:1.0 
-1.0 -1.0 1.0 0.0 0.0 1:1.0 2:1.0 3:2.0 4:1.0 5:9.0 6:9.0 7:1.0 
-0.06456682310193487 -0.0 0.0 1.0 0.0 1:1.0 2:1.0 3:2.0 4:1.0 5:3.0 6:2.0 7:1.0 676:1.0 
-0.0 -0.0 1.0 0.0 0.0 3:2.0 4:1.0 5:11.0 6:11.0 7:1.0 11:1.0 661:1.0 
-0.30133486602333975 -0.4970961070156792 1.0 0.0 0.0 2:1.0 3:2.0 4:1.0 5:9.0 6:8.0 7:2.0 14:1.0 88:1.0 112:1.0 677:1.0 
-0.03265720027670626 -0.14371102385833562 0.8860501161279706 0.0 0.2464113235676618 2:1.0 3:2.0 4:5.0 5:14.0 6:9.0 7:1.0 14:1.0 82:1.0 678:1.0 679:1.0 680:1.0 
-0.0 -0.0 1.0 0.0 0.0 1:1.0 2:1.0 3:2.0 4:1.0 5:3.0 6:3.0 7:1.0 
-0.0 -0.21022659908546706 0.7086303069345212 2.4309796048362977E-5 0.0 1:1.0 2:1.0 3:2.0 4:1.0 5:2.0 6:1.0 7:1.0 38:1.0 
-0.20960286804771086 -0.7372689560601888 1.0 0.0 0.4025954979399688 2:1.0 3:2.0 4:1.0 5:11.0 6:11.0 7:1.0 14:1.0 66:1.0 88:1.0 681:1.0 
-0.0 -0.0 1.0 0.0 0.0 1:1.0 2:1.0 3:2.0 4:1.0 5:3.0 6:3.0 7:1.0 
-0.0 -0.0 0.0 1.0 0.0 2:1.0 3:2.0 4:1.0 5:3.0 6:3.0 7:1.0 675:1.0 
-0.058549573633422364 -0.06457731447244669 0.5665547621270043 0.0 0.14830914147454316 2:1.0 3:2.0 4:1.0 5:2.0 6:2.0 7:1.0 14:1.0 668:1.0 
-0.09573644382183527 -1.0 0.932168100352442 0.0 0.183617952373196 2:1.0 3:2.0 4:1.0 5:4.0 6:4.0 7:1.0 14:1.0 345:1.0 
-0.0954686699021883 -0.14791604527485497 1.0 0.0 0.16603376811775233 2:1.0 3:2.0 4:1.0 5:3.0 6:3.0 7:1.0 14:1.0 682:1.0 
-0.792396179515147 -0.3242176745339443 0.4592718309558425 0.0 0.2973750168330522 2:1.0 3:2.0 4:1.0 5:6.0 6:4.0 7:1.0 14:1.0 17:2.0 147:1.0 683:1.0 
-1.0 -1.0 1.0 0.0 0.0 1:1.0 2:1.0 3:2.0 4:1.0 5:10.0 6:10.0 7:1.0 
-0.8682399083209599 -0.0 0.0 0.0 0.33458576173294347 3:2.0 4:3.0 5:16.0 6:11.0 7:3.0 11:1.0 41:1.0 664:1.0 
-0.0 -0.0 0.0 1.0 0.0 1:1.0 2:1.0 3:2.0 4:1.0 5:4.0 6:3.0 7:1.0 21:1.0 
-0.0 -0.0 0.0 0.3784064340138675 0.0 2:1.0 3:2.0 4:2.0 5:5.0 6:4.0 7:1.0 675:1.0 
-0.3749401549311062 -0.4824082256665454 0.11910711972279012 0.3554200299113588 0.08095289209888515 2:1.0 3:2.0 4:1.0 5:8.0 6:5.0 7:2.0 14:1.0 41:2.0 100:1.0 112:1.0 684:1.0 
-0.2801797635445566 -0.1424067555502349 0.663141995961547 0.0 0.2312776212657588 2:1.0 3:2.0 4:3.0 5:11.0 6:7.0 7:1.0 14:1.0 17:1.0 102:1.0 685:1.0 686:1.0 687:1.0 
-0.0 -0.0 1.0 0.0 0.0 1:1.0 2:1.0 3:2.0 4:1.0 5:3.0 6:3.0 7:1.0 
-0.0 -0.0 1.0 0.0 0.0 1:1.0 2:1.0 3:2.0 4:1.0 5:7.0 6:7.0 7:1.0 
-0.05618303885722304 -0.028847724594093415 0.07753604993219515 0.0 0.0 2:1.0 3:2.0 4:3.0 5:15.0 6:10.0 7:4.0 14:1.0 31:1.0 88:1.0 112:1.0 688:2.0 
-0.3596420194051859 -0.8172151910358174 0.7513493353596122 0.0 1.0 2:1.0 3:2.0 4:3.0 5:5.0 6:3.0 7:1.0 251:1.0 670:1.0 
-0.0 -0.0 0.0 1.0 0.0 1:1.0 2:1.0 3:2.0 4:1.0 5:4.0 6:3.0 7:1.0 21:1.0 
-0.0 -0.0 1.0 0.0 0.0 1:1.0 2:1.0 3:2.0 4:1.0 5:9.0 6:7.0 7:3.0 
-0.0 -0.16883992907728776 0.6107643705651506 0.0 0.06353048839543343 2:1.0 3:2.0 4:2.0 5:10.0 6:9.0 7:1.0 14:1.0 234:1.0 388:1.0 689:1.0 
-1.0 -0.0972532282835518 0.6745013201978541 0.0 0.08375860059711653 3:2.0 4:1.0 5:15.0 6:15.0 7:1.0 11:1.0 690:1.0 
-0.0 -0.0 1.0 0.0 0.0 1:1.0 2:1.0 3:2.0 4:1.0 5:6.0 6:6.0 7:1.0 
-0.048170445647460654 -0.12109581585343325 1.0 0.0 0.11837515964100245 2:1.0 3:2.0 4:1.0 5:7.0 6:7.0 7:1.0 14:1.0 395:1.0 691:1.0 
-0.0 -0.0 1.0 0.0 0.0 1:1.0 2:1.0 3:2.0 4:1.0 5:3.0 6:3.0 7:1.0 
-0.04561621978522483 -0.0 0.0 0.0 0.0 3:2.0 4:1.0 5:5.0 6:5.0 7:1.0 11:1.0 692:1.0 
-0.09529045588927443 -0.131017078472221 0.9265189595721842 0.0 0.14831187347047772 2:1.0 3:2.0 4:1.0 5:2.0 6:2.0 7:1.0 14:1.0 693:1.0 
-0.0 -0.0 1.0 0.0 0.0 1:1.0 2:1.0 3:2.0 4:1.0 5:3.0 6:3.0 7:1.0 
-0.26912344803904176 -0.35994499023487586 1.0 0.0 0.46689815444669913 2:1.0 3:2.0 4:5.0 5:21.0 6:13.0 7:2.0 14:1.0 17:2.0 53:1.0 126:1.0 287:1.0 360:1.0 434:1.0 694:1.0 695:1.0 
-0.90788717603836 -0.8325511995135231 0.8074095717694911 0.0 1.0 3:2.0 4:1.0 5:1.0 6:1.0 7:1.0 20:1.0 696:1.0 
-0.0 -0.0 1.0 0.0 0.0 1:1.0 2:1.0 3:2.0 4:1.0 5:6.0 6:6.0 7:1.0 
-0.0 -0.0 1.0 0.0 0.0 1:1.0 2:1.0 3:2.0 4:2.0 5:4.0 6:3.0 7:1.0 
-1.0 -0.19302923503880556 1.0 0.0 0.33594890379125514 2:1.0 3:2.0 4:1.0 5:10.0 6:9.0 7:1.0 14:1.0 17:1.0 23:1.0 697:1.0 698:1.0 
-1.0 -1.0 1.0 0.0 1.0 1:1.0 2:1.0 3:2.0 4:3.0 5:9.0 6:7.0 7:1.0 
-0.6323957260872866 -1.0 1.0 0.0 1.0 2:1.0 3:2.0 4:3.0 5:5.0 6:2.0 7:2.0 14:1.0 42:1.0 565:1.0 
-0.020088624972260657 -0.050847089535191826 0.9275409496519671 0.0 0.08871030957329466 2:1.0 3:2.0 4:3.0 5:7.0 6:5.0 7:1.0 14:1.0 31:1.0 699:1.0 
-0.02391878233935627 -0.012575261852532948 0.11135186209634342 0.0 0.09975330025301246 2:1.0 3:2.0 4:5.0 5:8.0 6:2.0 7:3.0 14:1.0 700:1.0 701:1.0 702:1.0 703:1.0 
-0.09529259622892257 -0.13102460275546432 0.5665551390434953 0.0 0.14831100434263458 2:1.0 3:2.0 4:1.0 5:2.0 6:2.0 7:1.0 14:1.0 704:1.0 
-0.0 -1.0 0.0 0.0 0.0 1:1.0 3:2.0 4:1.0 5:8.0 6:5.0 7:3.0 48:1.0 53:1.0 
-0.9078945737687496 -0.8664266417091705 0.7359948033210992 0.0 1.0 3:2.0 4:2.0 5:1.0 7:1.0 20:1.0 705:1.0 
-0.031681879356355275 -0.0 0.0 0.6883520143110349 0.0 2:1.0 3:2.0 4:1.0 5:3.0 6:2.0 7:1.0 82:1.0 675:1.0 
-0.7146120995296911 -1.0 1.0 0.0 1.0 1:1.0 2:1.0 3:2.0 4:2.0 5:5.0 6:3.0 7:1.0 38:1.0 
-0.008082613266760184 -0.0 0.0 0.0 0.0 2:1.0 3:2.0 4:1.0 5:2.0 6:1.0 7:1.0 14:1.0 54:1.0 708:1.0 
-0.0 -0.0 1.0 0.0 0.0 1:1.0 2:1.0 3:2.0 4:1.0 5:9.0 6:7.0 7:3.0 
-0.09549915163462284 -0.14791581906373696 0.7493575072445008 0.0 0.16604035121401414 2:1.0 3:2.0 4:1.0 5:3.0 6:3.0 7:1.0 14:1.0 709:1.0 
-0.08646437485723572 -0.0 0.8394641876592224 0.0 0.4006118259029318 2:1.0 3:2.0 4:1.0 5:2.0 6:1.0 7:1.0 14:1.0 54:1.0 708:1.0 
-1.0 -1.0 1.0 0.0 1.0 1:1.0 2:1.0 3:2.0 4:3.0 5:8.0 6:6.0 7:1.0 
-0.0 -0.0 1.0 0.0 0.0 1:1.0 2:1.0 3:2.0 4:1.0 5:6.0 6:6.0 7:1.0 
-1.0 -0.9673016362230292 1.0 1.0 0.367657390490618 1:1.0 2:1.0 3:2.0 4:1.0 5:11.0 6:10.0 7:1.0 21:1.0 
-0.09604115717765303 -0.1818036546035216 1.0 0.0 0.2012337567238372 2:1.0 3:2.0 4:1.0 5:5.0 6:5.0 7:1.0 14:1.0 710:1.0 
-0.0 -0.0 1.0 0.0 0.0 1:1.0 2:1.0 3:2.0 4:1.0 5:5.0 6:5.0 7:1.0 
-0.0 -0.0 1.0 0.0 0.0 1:1.0 2:1.0 3:2.0 4:2.0 5:4.0 6:3.0 7:1.0 
-0.09525297902244372 -0.0 0.11107836543800689 0.0 0.18367097028086754 2:1.0 3:2.0 4:2.0 5:5.0 6:2.0 7:3.0 14:1.0 711:1.0 
-0.23986614613089471 -0.4204326612377279 0.8221295831929467 0.0 0.4916006974317007 2:1.0 3:2.0 4:1.0 5:7.0 6:7.0 7:1.0 337:1.0 712:1.0 713:1.0 
-0.8992087199789938 -0.0 1.0 1.0 0.0 1:1.0 2:1.0 3:2.0 4:1.0 5:14.0 6:11.0 7:3.0 21:1.0 
-0.09529310639473759 -0.13103237797420242 0.5665444007137803 0.0 0.14830679986195602 2:1.0 3:2.0 4:1.0 5:2.0 6:2.0 7:1.0 14:1.0 714:1.0 
-0.0 -0.0 1.0 0.0 0.0 1:1.0 2:1.0 3:2.0 4:1.0 5:4.0 6:4.0 7:1.0 
-1.0 -0.0 1.0 0.0 0.0 1:1.0 2:1.0 3:2.0 4:1.0 5:7.0 6:7.0 7:1.0 
-0.0 -1.0 1.0 0.0 0.0 1:1.0 2:1.0 3:2.0 4:3.0 5:4.0 6:2.0 7:1.0 
-0.23995702640158964 -0.5394593945001902 0.9511742859445619 0.08675654436864116 0.6498777646485052 2:1.0 3:2.0 4:2.0 5:11.0 6:9.0 7:1.0 21:1.0 189:1.0 715:1.0 716:1.0 
-1.0 -0.5295824812470818 0.0 0.0 0.4460533756034152 3:2.0 4:2.0 5:7.0 6:3.0 7:2.0 8:1.0 17:2.0 655:1.0 
-0.09529350901351569 -0.13102634098831684 1.0 0.0 0.1483043585083179 2:1.0 3:2.0 4:1.0 5:2.0 6:2.0 7:1.0 14:1.0 717:1.0 
-0.0 -0.0 0.716073090693973 1.0 0.5823494913354534 2:1.0 3:2.0 4:2.0 5:12.0 6:9.0 7:2.0 21:1.0 675:1.0 
-0.23986349474747673 -0.42044249949611967 0.8999580944258834 0.0 0.526158030804356 2:1.0 3:2.0 4:1.0 5:7.0 6:7.0 7:1.0 718:1.0 719:1.0 720:1.0 
-0.07066233184407243 -0.2921144933036617 0.36483416218797854 0.0 0.1507721874539687 2:1.0 3:2.0 4:5.0 5:9.0 6:4.0 7:2.0 14:1.0 133:1.0 721:1.0 722:1.0 
-0.9080144744217467 -1.0 0.8474708650463947 0.0 1.0 3:2.0 4:3.0 5:2.0 7:1.0 20:1.0 430:1.0 
-0.0 -0.0 1.0 0.0 0.0 1:1.0 2:1.0 3:2.0 4:1.0 5:10.0 6:8.0 7:3.0 
-0.0 -0.0 1.0 0.0 0.0 1:1.0 2:1.0 3:2.0 4:1.0 5:6.0 6:6.0 7:1.0 
-1.0 -1.0 1.0 0.0 1.0 1:1.0 2:1.0 3:2.0 4:2.0 5:9.0 6:8.0 7:1.0 
-0.0 -0.0 0.0 0.0 1.0 1:1.0 2:1.0 3:2.0 4:4.0 5:6.0 6:1.0 7:3.0 
-0.0 -0.0 1.0 0.0 0.0 1:1.0 2:1.0 3:2.0 4:1.0 5:7.0 6:7.0 7:1.0 
-0.0 -0.0 1.0 0.0 0.0 1:1.0 2:1.0 3:2.0 4:1.0 5:4.0 6:4.0 7:1.0 
-0.0 -0.0 1.0 0.0 0.0 1:1.0 2:1.0 3:2.0 4:2.0 5:10.0 6:7.0 7:3.0 
-1.0 -1.0 1.0 0.0 1.0 1:1.0 2:1.0 3:2.0 4:5.0 5:9.0 6:5.0 7:1.0 
-1.0 -1.0 1.0 0.0 1.0 1:1.0 2:1.0 3:2.0 4:4.0 5:15.0 6:11.0 7:2.0 
-0.09548455516741342 -0.14791320359824495 0.7493554950665243 0.0 0.1660195981878136 2:1.0 3:2.0 4:1.0 5:3.0 6:3.0 7:1.0 14:1.0 723:1.0 
-0.1419081480136843 -0.5919663500447105 1.0 0.0 1.0 2:1.0 3:2.0 4:6.0 5:13.0 6:8.0 7:1.0 152:1.0 335:1.0 494:1.0 
-0.09278475968804403 -0.12174527172316497 0.9397822871665232 0.0 0.7485570083217432 2:1.0 3:2.0 4:3.0 5:10.0 6:8.0 7:1.0 14:1.0 75:1.0 302:1.0 724:1.0 
-1.0 -0.0 1.0 0.0 1.0 1:1.0 2:1.0 3:2.0 4:3.0 5:9.0 6:6.0 7:2.0 
-0.2855095863395384 -0.0 0.9366329143973029 0.0 0.25423735545865284 3:2.0 4:2.0 5:5.0 6:4.0 7:1.0 14:1.0 20:1.0 725:1.0 
-0.05736381566550481 -0.012739800201129513 0.05245489371300449 0.0 0.0 2:1.0 3:2.0 4:1.0 5:9.0 6:8.0 7:2.0 14:1.0 100:1.0 112:1.0 726:2.0 
-0.47481805237531954 -0.0 0.5436744668119624 0.0 0.46048616511578605 3:2.0 4:3.0 5:13.0 6:9.0 7:2.0 20:1.0 41:1.0 152:1.0 153:1.0 727:1.0 
-0.0 -0.0 1.0 0.0 0.0 1:1.0 2:1.0 3:2.0 4:2.0 5:4.0 6:3.0 7:1.0 
-0.12208092552303276 -0.0 0.8189958457774388 0.0 0.0 3:2.0 4:1.0 5:14.0 6:13.0 7:1.0 11:1.0 21:1.0 661:1.0 
-1.0 -0.10330355370325038 1.0 0.0 0.0 1:1.0 2:1.0 3:2.0 4:1.0 5:8.0 6:8.0 7:1.0 
-0.0 -0.0 1.0 0.0 0.0 1:1.0 2:1.0 3:2.0 4:1.0 5:4.0 6:4.0 7:1.0 
-0.09527505298286318 -0.0 1.0 0.0 0.1297135338039253 2:1.0 3:2.0 4:1.0 5:5.0 6:3.0 7:3.0 14:1.0 728:1.0 
-0.0 -0.0 0.0 1.0 0.0 2:1.0 3:2.0 4:2.0 5:3.0 6:2.0 7:1.0 675:1.0 
-0.09548630452763128 -0.14791228902276154 0.7493477206592346 0.0 0.16603301338511947 2:1.0 3:2.0 4:1.0 5:3.0 6:3.0 7:1.0 14:1.0 729:1.0 
-0.027455667522130356 -0.1257714996831509 0.8820453334766931 0.0 0.19273845371228643 2:1.0 3:2.0 4:1.0 5:11.0 6:11.0 7:1.0 14:1.0 108:2.0 605:1.0 730:1.0 
-0.0 -0.0 0.0 0.0 0.13229566107040028 2:1.0 3:2.0 4:4.0 5:9.0 6:6.0 7:1.0 14:1.0 694:1.0 695:1.0 731:1.0 
-0.0 -0.0 0.0 0.4158028326045464 0.0 3:2.0 4:1.0 5:6.0 6:4.0 7:1.0 11:1.0 21:2.0 664:1.0 
-0.09567588483405247 -0.23254084148352225 0.7892594980064376 0.0 0.2916464583618083 2:1.0 3:2.0 4:3.0 5:4.0 6:2.0 7:1.0 14:1.0 732:1.0 
-0.45437607679319747 -0.44998312917688965 1.0 0.0 0.8660794838020166 3:2.0 4:1.0 5:5.0 6:5.0 7:1.0 20:1.0 733:1.0 734:1.0 
-0.016448378772980055 -0.0 1.0 0.0 0.0 1:1.0 2:1.0 3:2.0 4:1.0 5:7.0 6:7.0 7:1.0 
-0.6880254214902995 -0.0 1.0 0.0 1.0 2:1.0 3:2.0 4:3.0 5:10.0 6:7.0 7:2.0 675:1.0 
-0.0 -0.0 0.0 1.0 0.0 1:1.0 2:1.0 3:2.0 4:1.0 5:8.0 6:6.0 7:2.0 21:1.0 
-0.0 -0.0 1.0 0.0 0.0 1:1.0 2:1.0 3:2.0 4:1.0 5:5.0 6:5.0 7:1.0 
-0.0 -0.0 1.0 0.0 0.0 1:1.0 2:1.0 3:2.0 4:1.0 5:4.0 6:4.0 7:1.0 
-0.2849653011834553 -0.0 1.0 0.0 0.1944339671893768 3:2.0 4:1.0 5:3.0 6:3.0 7:1.0 14:1.0 20:1.0 735:1.0 
-0.0 -0.0 1.0 0.0 0.0 1:1.0 2:1.0 3:2.0 4:1.0 5:3.0 6:3.0 7:1.0 
-1.0 -0.0 0.0 0.0 0.0 3:2.0 4:1.0 5:7.0 6:6.0 7:1.0 11:1.0 21:1.0 736:1.0 
-0.0 -0.0 0.0 1.0 0.0 1:1.0 2:1.0 3:2.0 4:2.0 5:5.0 6:3.0 7:1.0 21:1.0 
-0.0 -0.0 1.0 0.0 0.0 1:1.0 2:1.0 3:2.0 4:1.0 5:5.0 6:5.0 7:1.0 
-0.7758028608181315 -0.0 0.0 0.0 0.0 3:2.0 4:2.0 5:5.0 6:4.0 7:1.0 11:1.0 692:1.0 
-0.09599440434702051 -0.2832555606433745 0.900619680438659 0.0 0.3633393072531989 2:1.0 3:2.0 4:4.0 5:5.0 6:2.0 7:1.0 14:1.0 737:1.0 
-0.2153189564274729 -0.0 0.0 1.0 0.0 3:2.0 4:2.0 5:15.0 6:11.0 7:1.0 11:1.0 21:3.0 661:1.0 
-0.0 -1.0 0.0 0.0 0.0 1:1.0 3:2.0 4:3.0 5:5.0 6:3.0 7:1.0 48:1.0 
-0.048233038193137116 -0.18382356891559756 0.688889794839554 0.0 0.23523299491876065 2:1.0 3:2.0 4:5.0 5:8.0 6:4.0 7:1.0 14:1.0 738:1.0 739:1.0 
-0.2292480519679164 -0.03418723948572471 0.02686328744054533 0.0 0.0 2:1.0 3:2.0 4:1.0 5:8.0 6:7.0 7:2.0 14:1.0 100:1.0 112:1.0 740:1.0 
-0.0 -0.0 1.0 0.0 0.0 1:1.0 2:1.0 3:2.0 4:1.0 5:3.0 6:3.0 7:1.0 
-0.061955890607452345 -0.0 0.0 0.0 0.0 3:2.0 4:2.0 5:9.0 6:8.0 7:1.0 11:1.0 690:1.0 
-0.0 -0.0 1.0 0.0 0.0 1:1.0 2:1.0 3:2.0 4:1.0 5:4.0 6:4.0 7:1.0 
-0.0 -0.0 0.0 1.0 0.0 2:1.0 3:2.0 4:2.0 5:3.0 6:2.0 7:1.0 675:1.0 
-0.6403169210966219 -0.0 1.0 0.0 0.7646570432218405 1:1.0 2:1.0 3:2.0 4:1.0 5:9.0 6:7.0 7:3.0 20:1.0 
-0.0 -0.0 1.0 0.0 0.0 1:1.0 2:1.0 3:2.0 4:1.0 5:4.0 6:4.0 7:1.0 
-0.0 -0.0 1.0 0.0 0.0 1:1.0 2:1.0 3:2.0 4:1.0 5:4.0 6:4.0 7:1.0 
-1.0 -1.0 1.0 0.0 1.0 1:1.0 2:1.0 3:2.0 4:4.0 5:8.0 6:5.0 7:1.0 
-0.0 -0.0 1.0 0.0 0.0 1:1.0 2:1.0 3:2.0 4:1.0 5:3.0 6:3.0 7:1.0 
-0.0 -0.0 1.0 0.0 0.0 1:1.0 2:1.0 3:2.0 4:2.0 5:6.0 6:4.0 7:2.0 
-0.06074441570830255 -0.0 0.0 0.0 0.0 2:1.0 3:2.0 4:1.0 5:5.0 6:3.0 7:3.0 14:1.0 741:1.0 
-0.0 -0.0 1.0 0.0 0.0 1:1.0 2:1.0 3:2.0 4:1.0 5:6.0 6:6.0 7:1.0 
-0.0 -0.0 1.0 0.0 0.0 1:1.0 2:1.0 3:2.0 4:1.0 5:4.0 6:4.0 7:1.0 
-0.012574178106349788 -0.0 0.7794074437199666 0.0 0.052193711103378976 2:1.0 3:2.0 4:3.0 5:10.0 6:7.0 7:1.0 14:1.0 102:1.0 153:1.0 290:1.0 742:1.0 
-0.0 -1.0 1.0 0.0 1.0 1:1.0 2:1.0 3:2.0 4:3.0 5:5.0 6:3.0 7:1.0 
-0.09529062729978761 -0.13101753896314064 0.5665489194986981 0.0 0.14831140464505152 2:1.0 3:2.0 4:1.0 5:2.0 6:2.0 7:1.0 14:1.0 743:1.0 
-0.09550363202881215 -0.14791545626606117 0.7493505487176031 0.0 0.1660337458494917 2:1.0 3:2.0 4:1.0 5:3.0 6:3.0 7:1.0 14:1.0 744:1.0 
-0.0 -0.0 1.0 0.0 0.0 1:1.0 2:1.0 3:2.0 4:1.0 5:4.0 6:4.0 7:1.0 
-0.0 -0.0 1.0 1.0 1.0 1:1.0 2:1.0 3:2.0 4:5.0 5:16.0 6:8.0 7:4.0 21:1.0 
-0.0 -0.27837755344977955 1.0 0.0 0.0 2:1.0 3:2.0 4:2.0 5:6.0 6:5.0 7:1.0 675:1.0 
-0.04803181007101868 -0.13628217090001873 0.5574101437059585 0.0 0.10061613269566332 2:1.0 3:2.0 4:1.0 5:5.0 6:5.0 7:1.0 14:1.0 444:1.0 745:1.0 
-1.0 -1.0 1.0 0.0 1.0 2:1.0 3:2.0 4:7.0 5:15.0 6:6.0 7:3.0 21:1.0 151:1.0 
-0.0 -1.0 0.0 0.0 1.0 1:1.0 2:1.0 3:2.0 4:4.0 5:4.0 6:1.0 7:1.0 
-0.0 -0.0 1.0 0.0 0.0 1:1.0 2:1.0 3:2.0 4:1.0 5:9.0 6:7.0 7:3.0 
-0.1648753389792271 -0.35018792628692874 0.35188301737860883 0.0 0.061175712873860776 2:1.0 3:2.0 4:3.0 5:8.0 6:5.0 7:2.0 14:1.0 112:1.0 746:1.0 747:1.0 
-0.0 -1.0 0.0 0.0 0.0 1:1.0 3:2.0 4:1.0 5:9.0 6:7.0 7:3.0 48:1.0 
-0.0 -0.0 1.0 0.0 0.0 1:1.0 2:1.0 3:2.0 4:1.0 5:4.0 6:4.0 7:1.0 
-0.09529393708685295 -0.13102201401825891 0.5665432129023931 0.0 0.14831039593609782 2:1.0 3:2.0 4:1.0 5:2.0 6:2.0 7:1.0 14:1.0 748:1.0 
-0.0 -0.0 1.0 0.0 0.0 3:2.0 4:2.0 5:15.0 6:13.0 7:2.0 11:1.0 661:1.0 
-0.0 -0.0 1.0 0.0 0.0 1:1.0 2:1.0 3:2.0 4:1.0 5:5.0 6:5.0 7:1.0 
-0.0 -0.0 0.0 1.0 0.0 2:1.0 3:2.0 4:2.0 5:5.0 6:4.0 7:1.0 675:1.0 
-1.0 -1.0 1.0 0.0 1.0 1:1.0 2:1.0 3:2.0 4:2.0 5:11.0 6:10.0 7:1.0 
-0.0 -0.0 1.0 0.0 0.0 1:1.0 2:1.0 3:2.0 4:1.0 5:3.0 6:3.0 7:1.0 
-0.0 -0.0 1.0 0.0 0.0 1:1.0 2:1.0 3:2.0 4:1.0 5:11.0 6:9.0 7:3.0 
-0.1817836418278444 -0.0 1.0 0.0 0.0 1:1.0 2:1.0 3:2.0 4:1.0 5:7.0 6:7.0 7:1.0 
-0.0 -0.0 1.0 0.0 0.0 1:1.0 2:1.0 3:2.0 4:1.0 5:6.0 6:6.0 7:1.0 
-0.0 -0.0 1.0 0.0 0.0 1:1.0 2:1.0 3:2.0 4:2.0 5:9.0 6:6.0 7:3.0 
-0.0 -0.0 0.5722124771810028 0.0 0.0 3:2.0 4:1.0 5:10.0 6:9.0 7:1.0 8:1.0 53:1.0 655:1.0 
-0.0 -0.0 0.0 1.0 0.0 2:1.0 3:2.0 4:2.0 5:5.0 6:4.0 7:1.0 675:1.0 
-0.0 -0.0 0.0 1.0 0.0 1:1.0 2:1.0 3:2.0 4:1.0 5:5.0 6:4.0 7:1.0 21:1.0 
-1.0 -0.9909883802391553 1.0 0.0 0.0 1:1.0 2:1.0 3:2.0 4:1.0 5:8.0 6:8.0 7:1.0 
-0.26824998498054703 -0.2976424436852584 0.5042098704090997 0.0 0.24625753438383563 2:1.0 3:2.0 4:2.0 5:6.0 6:4.0 7:2.0 14:1.0 61:1.0 72:1.0 749:1.0 
-0.0 -0.0 1.0 0.0 0.0 1:1.0 2:1.0 3:2.0 4:1.0 5:3.0 6:3.0 7:1.0 
-0.0 -1.0 1.0 0.0 0.0 1:1.0 2:1.0 3:2.0 4:1.0 5:3.0 6:2.0 7:1.0 38:1.0 
-0.4204378298004272 -0.26251052677491504 1.0 0.0 0.2751561505638149 2:1.0 3:2.0 4:3.0 5:8.0 6:5.0 7:1.0 14:1.0 17:1.0 750:1.0 751:1.0 
-1.0 -1.0 1.0 0.0 0.275469889324936 1:1.0 2:1.0 3:2.0 4:2.0 5:8.0 6:7.0 7:1.0 
-2.2829724928302513E-6 -1.0 1.0 0.0 1.0 1:1.0 2:1.0 3:2.0 4:1.0 5:29.0 6:27.0 7:3.0 
-0.09576088094381247 -0.16478456251616153 1.0 0.0 1.0 2:1.0 3:2.0 4:1.0 5:4.0 6:4.0 7:1.0 14:1.0 207:1.0 
-0.0 -0.0 0.8880408949833123 0.0 0.0 2:1.0 3:2.0 4:3.0 5:7.0 6:5.0 7:1.0 14:1.0 752:1.0 753:1.0 
-0.0 -0.13882965328360075 0.6473683765601945 0.0 0.2638457609600107 2:1.0 3:2.0 4:5.0 5:17.0 6:10.0 7:3.0 14:1.0 38:1.0 335:1.0 754:1.0 755:1.0 756:1.0 
-0.16472584433635712 -0.31641617880548434 0.20471997012523002 0.0 0.01645284720144771 2:1.0 3:2.0 4:2.0 5:6.0 6:4.0 7:2.0 14:1.0 112:1.0 757:1.0 758:1.0 
-0.0952951993942137 -0.13102255265816332 0.5665502794663099 0.0 0.14830903630940842 2:1.0 3:2.0 4:1.0 5:2.0 6:2.0 7:1.0 14:1.0 759:1.0 
-0.0 -0.0 0.0 1.0 0.0 2:1.0 3:2.0 4:1.0 5:4.0 6:4.0 7:1.0 675:1.0 
-0.0 -0.3403304079511737 1.0 0.0 0.0 1:1.0 2:1.0 3:2.0 4:3.0 5:4.0 6:2.0 7:1.0 
-0.4801803169228426 -0.027180160604177293 0.3303160889705799 0.0 0.38459698264790854 2:1.0 3:2.0 4:1.0 5:7.0 6:4.0 7:4.0 14:1.0 61:1.0 760:1.0 
-0.0 -0.0 1.0 0.0 0.9677178453864622 1:1.0 2:1.0 3:2.0 4:1.0 5:17.0 6:14.0 7:4.0 
-0.0 -0.0 1.0 0.0 0.0 1:1.0 2:1.0 3:2.0 4:1.0 5:4.0 6:4.0 7:1.0 
-0.35978263464332244 -0.6475847247098258 0.9698085203823769 0.0 0.7643498096980399 2:1.0 3:2.0 4:2.0 5:7.0 6:6.0 7:1.0 761:1.0 762:1.0 
-0.1686358783082184 -0.0 0.0 0.0 0.0 3:2.0 4:1.0 5:10.0 6:10.0 7:1.0 11:1.0 690:1.0 
-0.0 -0.0 1.0 0.0 0.0 1:1.0 2:1.0 3:2.0 4:3.0 5:4.0 6:2.0 7:1.0 
-0.0754860762584021 -0.20027201990954055 0.8504734342934159 0.0 0.15181468460520126 2:1.0 3:2.0 4:1.0 5:7.0 6:7.0 7:1.0 14:1.0 108:1.0 763:1.0 
-0.028599829282997362 -0.0 0.0 0.0 0.0 3:2.0 4:3.0 5:12.0 6:9.0 7:1.0 11:1.0 21:1.0 661:1.0 
-0.07649128355569565 -0.01754612385312996 0.16346642825565277 0.5035237270032189 0.04564851166467533 2:1.0 3:2.0 4:2.0 5:16.0 6:11.0 7:2.0 14:1.0 21:3.0 100:1.0 112:1.0 764:1.0 765:1.0 766:1.0 
-1.0 -1.0 1.0 0.0 7.976342702558385E-4 1:1.0 2:1.0 3:2.0 4:1.0 5:11.0 6:11.0 7:1.0 
-0.0 -0.0 0.0018541901073079487 0.0 0.0 1:1.0 2:1.0 3:2.0 4:1.0 5:3.0 6:3.0 7:1.0 
-0.16988992752916307 -1.0 1.0 0.5364135603844822 1.0 1:1.0 2:1.0 3:2.0 4:4.0 5:21.0 6:16.0 7:2.0 21:1.0 
-0.0 -0.0 1.0 0.0 0.0 1:1.0 2:1.0 3:2.0 4:1.0 5:3.0 6:3.0 7:1.0 
-1.0 -0.0 1.0 0.0 1.0 1:1.0 2:1.0 3:2.0 4:3.0 5:12.0 6:9.0 7:2.0 
-0.0 -0.0 0.0 0.12088323329529127 0.0 3:2.0 4:2.0 5:14.0 6:10.0 7:2.0 8:2.0 21:2.0 655:2.0 
-0.0 -0.07787884359478334 0.46526636501024976 0.0 0.0 2:1.0 3:2.0 4:1.0 5:12.0 6:12.0 7:1.0 14:1.0 372:1.0 494:1.0 767:1.0 
-0.031880732015509464 -0.0 0.1492763009823823 0.0 0.054993879227902304 2:1.0 3:2.0 4:1.0 5:9.0 6:6.0 7:4.0 14:1.0 768:1.0 769:1.0 770:1.0 
-0.0 -0.0 1.0 0.0 0.0 1:1.0 2:1.0 3:2.0 4:1.0 5:3.0 6:3.0 7:1.0 
-1.0 -1.0 1.0 0.0 1.0 1:1.0 2:1.0 3:2.0 4:3.0 5:10.0 6:8.0 7:1.0 
-0.08812784931749754 -0.6207003324118461 0.7871547246759469 0.0 0.13583169525996844 2:1.0 3:2.0 4:7.0 5:15.0 6:9.0 7:1.0 14:1.0 47:1.0 329:1.0 526:2.0 
-0.09570184488997038 -0.23255155232450653 0.7892477369605039 0.0 0.29163641362146203 2:1.0 3:2.0 4:3.0 5:4.0 6:2.0 7:1.0 14:1.0 771:1.0 
-1.0 -1.0 1.0 0.0 0.0 1:1.0 2:1.0 3:2.0 4:2.0 5:7.0 6:6.0 7:1.0 
-0.454077758462512 -0.6226852090644883 0.5151554379687313 0.0 1.0 3:2.0 4:3.0 5:3.0 6:1.0 7:1.0 20:1.0 411:1.0 772:1.0 
-1.0 -1.0 1.0 0.0 1.0 1:1.0 2:1.0 3:2.0 4:1.0 5:15.0 6:15.0 7:1.0 
-0.0 -0.0 1.0 0.0 0.0 1:1.0 2:1.0 3:2.0 4:1.0 5:5.0 6:5.0 7:1.0 
-0.023978139791991437 -0.0 0.027558940867502636 0.0 0.3546857428277337 2:1.0 3:2.0 4:4.0 5:12.0 6:5.0 7:4.0 14:1.0 21:1.0 336:1.0 532:1.0 773:1.0 774:1.0 
-0.0 -0.0 1.0 0.0 0.0 1:1.0 2:1.0 3:2.0 4:1.0 5:4.0 6:4.0 7:1.0 
-0.3413328573234669 -0.3153080936502785 0.28081307531419814 0.0 0.4421583433965346 2:1.0 3:2.0 4:1.0 5:7.0 6:7.0 7:1.0 124:1.0 752:1.0 775:1.0 
-0.0 -1.0 0.5659212332687663 0.0 0.0 1:1.0 3:2.0 4:1.0 5:8.0 6:5.0 7:3.0 48:1.0 53:1.0 
-0.0 -1.0 1.0 0.0 1.0 1:1.0 2:1.0 3:2.0 4:3.0 5:5.0 6:3.0 7:1.0 
-0.0 -0.0 1.0 0.0 0.0 1:1.0 2:1.0 3:2.0 4:1.0 5:3.0 6:3.0 7:1.0 
-0.0 -0.0 1.0 0.0 0.0 1:1.0 2:1.0 3:2.0 4:2.0 5:4.0 6:3.0 7:1.0 
-0.21135515641660182 -0.0 1.0 1.0 0.0 1:1.0 2:1.0 3:2.0 4:1.0 5:7.0 6:6.0 7:1.0 21:1.0 
-0.6208284794790238 -1.0 0.0 0.0 0.0 1:1.0 3:2.0 4:1.0 5:7.0 6:7.0 7:1.0 48:1.0 
-0.0 -0.0 1.0 0.0 0.0 1:1.0 2:1.0 3:2.0 4:1.0 5:3.0 6:3.0 7:1.0 
-0.0 -0.0 1.0 0.0 0.0 1:1.0 2:1.0 3:2.0 4:1.0 5:6.0 6:6.0 7:1.0 
-0.2063318795986229 -0.33033100677300475 1.0 0.05146364218134381 1.0 2:1.0 3:2.0 4:3.0 5:10.0 6:7.0 7:1.0 14:1.0 21:1.0 26:1.0 417:1.0 
-1.0 -0.0 1.0 0.0 0.0 1:1.0 2:1.0 3:2.0 4:1.0 5:7.0 6:7.0 7:1.0 
-1.0 -1.0 1.0 0.0 1.0 1:1.0 2:1.0 3:2.0 4:3.0 5:6.0 6:4.0 7:1.0 
-0.0 -0.0 1.0 0.0 0.0 1:1.0 2:1.0 3:2.0 4:1.0 5:5.0 6:5.0 7:1.0 
-1.0 -0.5907393739676045 1.0 0.0 1.0 2:1.0 3:2.0 4:2.0 5:10.0 6:7.0 7:2.0 151:1.0 172:1.0 
-1.0 -0.0 1.0 0.0 0.0 1:1.0 2:1.0 3:2.0 4:1.0 5:7.0 6:7.0 7:1.0 
-0.42163929114353366 -0.0 1.0 0.0 1.0 1:1.0 2:1.0 3:2.0 4:1.0 5:10.0 6:7.0 7:3.0 38:1.0 
-1.0 -0.0 1.0 0.0 0.0 1:1.0 2:1.0 3:2.0 4:1.0 5:7.0 6:7.0 7:1.0 
-0.0 -0.0 1.0 0.0 0.0 1:1.0 2:1.0 3:2.0 4:1.0 5:4.0 6:4.0 7:1.0 
-0.12032594894785952 -0.10954993891996703 0.49623285046979404 0.0 0.1902512477677362 2:1.0 3:2.0 4:5.0 5:14.0 6:8.0 7:3.0 14:1.0 61:1.0 776:1.0 777:1.0 778:1.0 779:1.0 
-1.0 -0.4143831612492922 0.0 0.0 0.0 3:2.0 4:3.0 5:7.0 6:5.0 11:1.0 41:1.0 669:1.0 
-0.0 -0.0 1.0 0.0 0.0 1:1.0 2:1.0 3:2.0 4:1.0 5:4.0 6:4.0 7:1.0 
-1.0 -1.0 1.0 0.0 1.0 1:1.0 2:1.0 3:2.0 4:2.0 5:9.0 6:8.0 7:1.0 
-0.0 -0.0 0.0 0.0 0.010542970946744827 3:2.0 4:1.0 5:23.0 6:19.0 7:5.0 11:1.0 690:1.0 
-0.8119835155397556 -1.0 1.0 0.0 1.0 1:1.0 2:1.0 3:2.0 4:3.0 5:6.0 6:4.0 7:1.0 
-0.0 -0.0 1.0 0.0 0.0 1:1.0 2:1.0 3:2.0 4:1.0 5:11.0 6:9.0 7:3.0 
-1.0 -1.0 1.0 0.0 1.0 1:1.0 2:1.0 3:2.0 4:1.0 5:17.0 6:17.0 7:1.0 
-0.0 -0.0 1.0 0.0 1.0 1:1.0 2:1.0 3:2.0 4:5.0 5:19.0 6:10.0 7:6.0 
-0.0 -0.0 0.0 0.31206113978316447 0.0 1:1.0 2:1.0 3:2.0 4:2.0 5:4.0 6:2.0 7:1.0 172:1.0 
-0.0 -0.0 0.0 1.0 0.0 2:1.0 3:2.0 4:2.0 5:3.0 6:2.0 7:1.0 675:1.0 
-0.0 -0.0 0.5936814563378934 0.004882687810984413 0.0 2:1.0 3:2.0 4:2.0 5:11.0 6:9.0 7:1.0 14:1.0 41:1.0 706:1.0 780:1.0 
-0.0 -0.0 1.0 0.0 0.0 1:1.0 2:1.0 3:2.0 4:1.0 5:3.0 6:3.0 7:1.0 
-0.7646624699599346 -1.0 1.0 0.0 0.0 1:1.0 2:1.0 3:2.0 4:2.0 5:6.0 6:5.0 7:1.0 
-0.012292536108910056 -0.1520907181941682 1.0 0.6091334166341938 0.6779564372308713 1:1.0 2:1.0 3:2.0 4:3.0 5:8.0 6:4.0 7:1.0 53:2.0 
-0.0 -1.0 0.0 0.0 0.0 1:1.0 3:2.0 4:1.0 5:4.0 6:4.0 7:1.0 48:1.0 
-0.19024183802798672 -0.0 1.0 0.0 1.0 1:1.0 2:1.0 3:2.0 4:5.0 5:12.0 6:6.0 7:3.0 
-0.0 -0.0 1.0 0.0 0.0 1:1.0 2:1.0 3:2.0 4:1.0 5:5.0 6:5.0 7:1.0 
-0.0 -0.0 0.0 1.0 0.0 2:1.0 3:2.0 4:1.0 5:3.0 6:3.0 7:1.0 675:1.0 
-0.09622271286201414 -0.19871807473140043 1.0 0.0 0.21897781991030843 2:1.0 3:2.0 4:1.0 5:6.0 6:6.0 7:1.0 14:1.0 781:1.0 
-0.0 -0.23045817612131092 0.21924138653836925 0.5002584559078738 0.0 1:1.0 2:1.0 3:2.0 4:1.0 5:2.0 6:1.0 7:1.0 38:1.0 
-0.0 -0.0 0.0 1.0 0.0 2:1.0 3:2.0 4:1.0 5:5.0 6:5.0 7:1.0 675:1.0 
-1.0 -1.0 1.0 0.0 0.0 1:1.0 2:1.0 3:2.0 4:2.0 5:7.0 6:6.0 7:1.0 
-0.09546956278171845 -0.14790264869890637 0.749356832650049 0.0 0.16602219213517105 2:1.0 3:2.0 4:1.0 5:3.0 6:3.0 7:1.0 14:1.0 782:1.0 
-0.0 -0.0 1.0 0.0 0.0 1:1.0 2:1.0 3:2.0 4:1.0 5:4.0 6:4.0 7:1.0 
-0.0 -0.0 1.0 0.0 0.0 1:1.0 2:1.0 3:2.0 4:1.0 5:3.0 6:3.0 7:1.0 
-1.0 -1.0 1.0 0.0 1.0 1:1.0 2:1.0 3:2.0 4:4.0 5:9.0 6:6.0 7:1.0 
-1.0 -1.0 1.0 0.0 0.5430112759880718 1:1.0 2:1.0 3:2.0 4:1.0 5:11.0 6:11.0 7:1.0 
-1.0 -1.0 1.0 0.0 1.0 1:1.0 2:1.0 3:2.0 4:3.0 5:9.0 6:7.0 7:1.0 
-0.0 -0.0 1.0 0.0 0.0 1:1.0 2:1.0 3:2.0 4:2.0 5:5.0 6:4.0 7:1.0 
-1.0 -1.0 1.0 0.0 0.0 1:1.0 2:1.0 3:2.0 4:2.0 5:7.0 6:6.0 7:1.0 
-1.0 -1.0 1.0 0.0 0.0 1:1.0 2:1.0 3:2.0 4:1.0 5:10.0 6:10.0 7:1.0 
-0.0 -0.46591533916417016 1.0 0.051183745307274216 0.847712537886362 2:1.0 3:2.0 4:5.0 5:10.0 6:5.0 7:1.0 14:1.0 21:1.0 287:1.0 783:1.0 
-0.16131005755925995 -0.0 1.0 0.0 0.0 3:2.0 4:1.0 5:12.0 6:12.0 7:1.0 11:1.0 661:1.0 
-0.0 -0.0 1.0 0.0 0.0 1:1.0 2:1.0 3:2.0 4:1.0 5:4.0 6:4.0 7:1.0 
-1.0 -0.0 1.0 0.0 0.0 1:1.0 2:1.0 3:2.0 4:1.0 5:7.0 6:7.0 7:1.0 
-0.0 -0.0 0.0 1.0 0.0 2:1.0 3:2.0 4:2.0 5:3.0 6:2.0 7:1.0 675:1.0 
-0.3963728080755941 -0.730399448745488 1.0 0.0 0.8932263047670107 2:1.0 3:2.0 4:2.0 5:13.0 6:10.0 7:2.0 41:1.0 706:1.0 784:1.0 
-0.0 -0.0 1.0 0.0 0.0 1:1.0 2:1.0 3:2.0 4:1.0 5:5.0 6:5.0 7:1.0 
-0.0 -0.0 1.0 0.0 0.0 1:1.0 2:1.0 3:2.0 4:3.0 5:4.0 6:2.0 7:1.0 
-0.0 -0.0 1.0 0.0 0.0 1:1.0 2:1.0 3:2.0 4:1.0 5:9.0 6:7.0 7:3.0 
-0.0 -0.0 1.0 0.0 0.0 1:1.0 2:1.0 3:2.0 4:1.0 5:3.0 6:3.0 7:1.0 
-0.04798905097386648 -0.0 0.4626628381908521 0.0 0.6362551473223389 2:1.0 3:2.0 4:2.0 5:12.0 6:8.0 7:4.0 14:1.0 785:1.0 786:1.0 
-0.0 -0.0 1.0 0.0 0.8966363979277758 3:2.0 4:1.0 5:35.0 6:32.0 7:4.0 8:1.0 655:1.0 
-0.09606688468270683 -0.18179024325597545 1.0 0.0 0.2012308078071051 2:1.0 3:2.0 4:1.0 5:5.0 6:5.0 7:1.0 14:1.0 787:1.0 
-1.0 -1.0 1.0 0.0 0.0 1:1.0 2:1.0 3:2.0 4:1.0 5:9.0 6:9.0 7:1.0 
-0.048347232474731494 -0.16664579562856965 0.9433770053915774 0.0 0.4340486654878002 2:1.0 3:2.0 4:3.0 5:10.0 6:8.0 7:1.0 14:1.0 788:1.0 789:1.0 
-0.12608638737976718 -0.3153373454705057 0.28079122768845816 0.0 0.44215573390219465 2:1.0 3:2.0 4:1.0 5:7.0 6:7.0 7:1.0 752:1.0 790:1.0 791:1.0 
-1.0 -1.0 1.0 0.0 0.0 1:1.0 2:1.0 3:2.0 4:2.0 5:6.0 6:5.0 7:1.0 
-0.13405768293802758 -0.0 0.0 0.0 0.0 3:2.0 4:1.0 5:9.0 6:8.0 7:1.0 11:1.0 38:1.0 661:1.0 
-1.0 -0.0 1.0 0.0 1.0 1:1.0 2:1.0 3:2.0 4:3.0 5:11.0 6:8.0 7:2.0 
-0.0 -1.0 1.0 0.0 0.0 1:1.0 2:1.0 3:2.0 4:3.0 5:4.0 6:2.0 7:1.0 
-0.7187455200191445 -1.0 1.0 0.0 1.0 2:1.0 3:2.0 4:1.0 5:3.0 6:3.0 7:1.0 792:1.0 
-0.0 -0.0 1.0 0.0 0.0 1:1.0 2:1.0 3:2.0 4:1.0 5:6.0 6:6.0 7:1.0 
-0.0 -1.0 1.0 0.0 1.0 1:1.0 2:1.0 3:2.0 4:3.0 5:5.0 6:3.0 7:1.0 
-0.0 -0.0 1.0 0.0 0.0 1:1.0 2:1.0 3:2.0 4:1.0 5:5.0 6:5.0 7:1.0 
-1.0 -1.0 1.0 0.0 0.0 1:1.0 2:1.0 3:2.0 4:1.0 5:11.0 6:10.0 7:1.0 53:1.0 
-0.09606199995580367 -0.1817887137330925 1.0 0.0 0.20126410561338173 2:1.0 3:2.0 4:1.0 5:5.0 6:5.0 7:1.0 14:1.0 793:1.0 
-0.018636055926496715 -0.11341866001645316 0.0 0.0 0.0 3:2.0 4:3.0 5:9.0 6:6.0 7:1.0 8:1.0 41:1.0 655:1.0 
-1.0 -1.0 1.0 0.0 0.0 1:1.0 2:1.0 3:2.0 4:1.0 5:9.0 6:9.0 7:1.0 
-0.3340218792128875 -0.6496643452923782 1.0 0.0 0.3672460977049247 2:1.0 3:2.0 4:1.0 5:9.0 6:8.0 7:2.0 61:1.0 152:1.0 208:1.0 794:1.0 
-0.09600697053521356 -0.2832151453237398 0.9006226092004438 0.0 0.3633332661444045 2:1.0 3:2.0 4:4.0 5:5.0 6:2.0 7:1.0 14:1.0 795:1.0 
-1.0 -1.0 1.0 0.0 1.0 1:1.0 2:1.0 3:2.0 4:3.0 5:7.0 6:5.0 7:1.0 
-0.0 -0.0 0.0 1.0 0.0 2:1.0 3:2.0 4:2.0 5:3.0 6:2.0 7:1.0 675:1.0 
-0.0 -0.0 0.0 0.023280046314779472 0.0 1:1.0 2:1.0 3:2.0 4:1.0 5:2.0 6:2.0 7:1.0 
-0.03454805814960372 -0.13102935149090358 0.5665444469099546 0.0 0.14831105678730458 2:1.0 3:2.0 4:1.0 5:2.0 6:2.0 7:1.0 14:1.0 741:1.0 
-0.0 -0.0 1.0 0.0 0.0 1:1.0 2:1.0 3:2.0 4:1.0 5:10.0 6:8.0 7:3.0 
-0.0 -0.0 0.0 1.0 0.0 1:1.0 2:1.0 3:2.0 4:1.0 5:6.0 6:5.0 7:1.0 21:1.0 
-1.0 -1.0 1.0 0.0 0.0 1:1.0 2:1.0 3:2.0 4:2.0 5:6.0 6:5.0 7:1.0 
-1.0 -0.6451732243553818 1.0 0.0 1.0 2:1.0 3:2.0 4:3.0 5:4.0 6:2.0 7:1.0 14:1.0 31:1.0 
-0.2399817142868906 -0.5387872492123869 1.0 0.0 0.7919267053144798 2:1.0 3:2.0 4:3.0 5:10.0 6:8.0 7:1.0 508:1.0 796:1.0 797:1.0 
-0.0 -0.0 1.0 0.0 0.0 1:1.0 2:1.0 3:2.0 4:1.0 5:4.0 6:4.0 7:1.0 
-1.0 -1.0 1.0 0.0 0.0 1:1.0 2:1.0 3:2.0 4:1.0 5:9.0 6:9.0 7:1.0 
-1.0 -1.0 1.0 0.0 1.0 1:1.0 2:1.0 3:2.0 4:2.0 5:9.0 6:8.0 7:1.0 
-0.3426346226691212 -0.19115883891602134 0.0 0.036518178802008985 0.14711088554730098 2:1.0 3:2.0 4:3.0 5:9.0 6:5.0 7:2.0 14:1.0 41:1.0 153:1.0 173:1.0 
-0.0 -0.0 0.0 0.014750081312917905 0.0 1:1.0 2:1.0 3:2.0 4:1.0 5:2.0 6:2.0 7:1.0 
-0.0 -0.0 0.0 1.0 0.0 2:1.0 3:2.0 4:2.0 5:5.0 6:4.0 7:1.0 675:1.0 
-0.0 -0.0 1.0 0.0 0.0 1:1.0 2:1.0 3:2.0 4:1.0 5:3.0 6:3.0 7:1.0 
-0.0 -0.0 1.0 0.0 0.0 1:1.0 2:1.0 3:2.0 4:1.0 5:3.0 6:3.0 7:1.0 
-0.11897282934011388 -0.41977971659130875 0.6570648078493335 0.0 0.3258518375454277 2:1.0 3:2.0 4:1.0 5:8.0 6:8.0 7:1.0 14:1.0 66:1.0 798:1.0 799:1.0 
-0.0 -0.0 0.0 1.0 0.0 1:1.0 2:1.0 3:2.0 4:1.0 5:7.0 6:4.0 7:3.0 21:1.0 
-0.42036693763455457 -0.1915789128030815 0.5238688365045455 0.0 0.7661629363402079 2:1.0 3:2.0 4:3.0 5:9.0 6:5.0 7:2.0 14:1.0 17:1.0 800:1.0 801:1.0 
-0.0 -0.0 1.0 0.0 0.0 1:1.0 2:1.0 3:2.0 4:1.0 5:3.0 6:3.0 7:1.0 
-0.09573948563173897 -0.1648077109940293 0.9321444085233735 0.0 0.18360780413316274 2:1.0 3:2.0 4:1.0 5:4.0 6:4.0 7:1.0 14:1.0 802:1.0 
-0.0 -0.0 0.2983931873187671 0.0 0.04844042791869027 2:1.0 3:2.0 4:4.0 5:12.0 6:8.0 7:2.0 14:1.0 100:1.0 803:1.0 804:1.0 805:1.0 
-0.0 -0.0 0.0 0.009482910554733553 0.0 3:2.0 4:1.0 5:20.0 6:17.0 7:1.0 11:1.0 21:3.0 661:1.0 
-0.0 -0.0 0.9843391904939439 1.0 0.0 1:1.0 2:1.0 3:2.0 4:1.0 5:3.0 6:2.0 7:2.0 20:1.0 
-0.0 -0.0 0.0 1.0 0.0 2:1.0 3:2.0 4:1.0 5:4.0 6:4.0 7:1.0 675:1.0 
-0.38021993136907145 -0.0 0.1596626156495282 0.0 0.13155432819287693 2:1.0 3:2.0 4:1.0 5:8.0 6:6.0 7:3.0 14:1.0 61:1.0 100:1.0 806:1.0 
-0.0 -0.0 0.0 1.0 0.0 2:1.0 3:2.0 4:1.0 5:3.0 6:3.0 7:1.0 675:1.0 
-0.13444850322425098 -0.6757456299677832 0.8318122401490111 0.0 0.12728187427798465 2:1.0 3:2.0 4:1.0 5:8.0 6:8.0 7:1.0 14:1.0 184:1.0 201:1.0 
-0.0 -0.0 0.0 0.018721397211884157 0.0 1:1.0 2:1.0 3:2.0 4:1.0 5:2.0 6:2.0 7:1.0 
-0.48060511966457037 -0.3107661549354023 0.8971080054621475 0.0 0.42082243021203725 2:1.0 3:2.0 4:1.0 5:5.0 6:4.0 7:2.0 14:1.0 61:1.0 807:1.0 
-0.0 -0.0 1.0 0.0355147342517953 0.0 1:1.0 2:1.0 3:2.0 4:1.0 5:7.0 6:5.0 7:3.0 20:1.0 
-0.42602009558222037 -0.053849591390843984 0.34432211277002195 0.0 0.14555363448623132 2:1.0 3:2.0 4:3.0 5:6.0 6:3.0 7:2.0 14:1.0 104:1.0 808:1.0 
-1.0 -1.0 1.0 0.0 0.0 1:1.0 2:1.0 3:2.0 4:1.0 5:8.0 6:8.0 7:1.0 
-0.0 -0.0 0.0 1.0 0.0 1:1.0 2:1.0 3:2.0 4:1.0 5:5.0 6:4.0 7:1.0 21:1.0 
-0.0 -0.0 1.0 0.0 0.0 1:1.0 2:1.0 3:2.0 4:2.0 5:5.0 6:4.0 7:1.0 
-0.5515412636348501 -0.6136857230187311 1.0 0.0 0.7238424015621044 2:1.0 3:2.0 4:1.0 5:7.0 6:6.0 7:1.0 53:1.0 142:1.0 809:1.0 
-1.0 -1.0 1.0 0.0 0.0 1:1.0 2:1.0 3:2.0 4:1.0 5:9.0 6:9.0 7:1.0 
-0.0 -0.0 0.0 0.13340449218916486 0.0 1:1.0 2:1.0 3:2.0 4:2.0 5:2.0 6:1.0 7:1.0 
-0.0 -1.0 0.0 0.0 0.0 2:1.0 3:2.0 4:3.0 5:5.0 6:3.0 7:1.0 675:1.0 
-1.0 -0.0 0.0 0.0 0.0 3:2.0 4:1.0 5:3.0 6:3.0 7:1.0 11:1.0 810:1.0 
-0.40865160663189476 -0.0 0.0 0.0 0.041762874467691266 3:2.0 4:3.0 5:6.0 6:3.0 7:1.0 11:1.0 21:1.0 692:1.0 
-0.0 -0.0 1.0 0.0 0.0 1:1.0 2:1.0 3:2.0 4:1.0 5:3.0 6:3.0 7:1.0 
-0.3244739134770196 -0.0 1.0 0.0 1.0 1:1.0 2:1.0 3:2.0 4:5.0 5:9.0 6:4.0 7:2.0 
-0.08477495271486989 -0.22562424218333277 -0.27769496235398283 0.0 0.391833167811707 2:1.0 3:2.0 4:1.0 5:9.0 6:7.0 7:3.0 811:1.0 812:1.0 
-0.0 -0.38072320672504645 -0.564260965922701 0.0 0.4354790493545223 2:1.0 3:2.0 4:3.0 5:7.0 6:4.0 7:2.0 14:1.0 122:1.0 813:1.0 
-0.0 -0.0 -0.0 0.0 0.33647994043809765 2:1.0 3:2.0 4:1.0 5:17.0 6:14.0 7:4.0 686:1.0 814:1.0 815:1.0 816:1.0 
-0.002379790879279348 -0.07098449660763553 -0.0 0.0 0.13199309693774958 2:1.0 3:2.0 4:1.0 5:10.0 6:9.0 7:2.0 817:1.0 818:1.0 819:1.0 
-0.012243791706758341 -0.0 -0.0 0.0 0.0 3:2.0 4:1.0 5:15.0 6:11.0 7:5.0 20:2.0 61:1.0 360:1.0 817:1.0 820:1.0 821:1.0 
-0.04256123115021625 -0.3040885859414009 -0.0 0.0 0.08356259369613313 2:1.0 3:2.0 4:1.0 5:10.0 6:8.0 7:2.0 14:1.0 38:1.0 42:1.0 66:1.0 822:1.0 
-0.010030695093474819 -0.03979011043193976 -0.0 0.0 0.18220699312496372 2:1.0 3:2.0 4:6.0 5:13.0 6:8.0 7:1.0 14:1.0 823:1.0 824:1.0 825:1.0 
-0.0 -0.23351626181829493 -0.0 0.0 0.5537211038917546 2:1.0 3:2.0 4:1.0 5:17.0 6:16.0 7:2.0 14:1.0 277:1.0 291:1.0 372:1.0 826:1.0 827:1.0 
-0.0 -0.0 -0.0 0.0 0.05827808958553908 2:1.0 3:2.0 4:1.0 5:10.0 6:7.0 7:2.0 17:1.0 53:1.0 122:1.0 186:1.0 287:1.0 
-0.0 -0.0 -0.0 0.0 0.5284352900096208 2:1.0 3:2.0 4:3.0 5:8.0 6:6.0 7:1.0 254:1.0 828:1.0 829:1.0 
-0.0 -0.0 -1.0 0.0 0.0 1:1.0 2:1.0 3:2.0 4:1.0 5:6.0 6:6.0 7:1.0 
-0.13569361024767415 -0.03376011107185676 -0.0 0.0 0.2630334167188344 2:1.0 3:2.0 4:5.0 5:15.0 6:9.0 7:1.0 17:1.0 38:1.0 174:1.0 830:1.0 831:1.0 832:1.0 
-0.0 -0.0 -1.0 0.0 0.0 1:1.0 2:1.0 3:2.0 4:1.0 5:5.0 6:5.0 7:1.0 
-0.02010564744396268 -0.0 -1.0 0.0 0.0 1:1.0 2:1.0 3:2.0 4:1.0 5:7.0 6:7.0 7:1.0 
-0.0 -0.0 -1.0 0.0 0.0 1:1.0 2:1.0 3:2.0 4:1.0 5:7.0 6:7.0 7:1.0 
-0.0 -0.0 -0.0 0.0 0.4414103081952343 2:1.0 3:2.0 4:3.0 5:9.0 6:6.0 7:2.0 14:1.0 221:1.0 834:1.0 835:1.0 
-0.15280112021572662 -0.0 -0.0 0.0 0.6711174266579454 2:1.0 3:2.0 4:3.0 5:13.0 6:10.0 7:2.0 14:1.0 164:1.0 837:1.0 839:1.0 840:1.0 
-0.0 -0.07876113924575183 -0.1895931733781526 0.0 0.16486913338598833 2:1.0 3:2.0 4:3.0 5:5.0 6:3.0 7:1.0 836:1.0 841:1.0 
-1.0 -1.0 -1.0 0.0 0.3765766461849128 1:1.0 2:1.0 3:2.0 4:3.0 5:7.0 6:5.0 7:1.0 
-0.0 -1.0 -1.0 0.0 1.0 1:1.0 2:1.0 3:2.0 4:4.0 5:6.0 6:3.0 7:1.0 
-0.08481486888444066 -0.22596882400078186 -0.0 0.0 0.34762641472724465 2:1.0 3:2.0 4:1.0 5:7.0 6:7.0 7:1.0 842:1.0 843:1.0 
-0.0 -0.0 -0.15505073869773708 0.027850120016233788 0.0 3:2.0 4:1.0 5:12.0 6:7.0 7:4.0 14:1.0 20:1.0 21:1.0 53:1.0 796:1.0 844:1.0 845:1.0 846:1.0 
-0.0 -0.05524328060852583 -0.10996232136828979 0.0 0.0 2:1.0 3:2.0 4:1.0 5:5.0 6:5.0 7:1.0 254:1.0 455:1.0 
-0.08458713081267466 -1.0 -0.24864949641674058 0.0 0.39789111358938994 2:1.0 3:2.0 4:3.0 5:5.0 6:3.0 7:1.0 274:1.0 847:1.0 
-0.12023639808821167 -0.0 -0.4418058162204178 0.0 0.0 2:1.0 3:2.0 4:1.0 5:9.0 6:8.0 7:2.0 14:1.0 61:1.0 379:1.0 605:1.0 
-1.0 -1.0 -1.0 0.0 1.0 1:1.0 2:1.0 3:2.0 4:4.0 5:11.0 6:8.0 7:1.0 
-0.0 -0.0 -1.0 0.0 0.0 1:1.0 2:1.0 3:2.0 4:1.0 5:7.0 6:7.0 7:1.0 
-0.0 -0.0 -1.0 0.0 0.0 1:1.0 2:1.0 3:2.0 4:1.0 5:5.0 6:5.0 7:1.0 
-0.0 -0.0 -1.0 0.0 0.9683592543437269 1:1.0 2:1.0 3:2.0 4:2.0 5:9.0 6:5.0 7:3.0 54:1.0 
-1.0 -0.0 -1.0 0.062381598836280715 0.0 3:2.0 4:1.0 5:12.0 6:8.0 7:4.0 11:1.0 21:1.0 661:1.0 
-0.030645039973014813 -0.11974350454402996 -1.0 0.0 0.061929319393855806 2:1.0 3:2.0 4:1.0 5:5.0 6:5.0 7:1.0 14:1.0 682:1.0 
-0.020673812481314537 -0.041215909316274134 -0.0 0.0 0.08369715366770154 2:1.0 3:2.0 4:6.0 5:22.0 6:12.0 7:3.0 17:1.0 35:1.0 53:2.0 84:1.0 254:1.0 291:1.0 513:1.0 848:1.0 
-0.0 -0.2782136417822548 -0.31419046273055606 0.14091347216092534 0.877377105743557 2:1.0 3:2.0 4:1.0 5:9.0 6:8.0 7:1.0 21:1.0 335:1.0 849:1.0 850:1.0 
-0.025915605873036797 -0.0 -0.0 0.0 0.0 2:1.0 3:2.0 4:1.0 5:7.0 6:7.0 7:1.0 67:1.0 189:1.0 851:1.0 
-0.0 -0.0 -0.5706545631431071 0.0 0.0 2:1.0 3:2.0 4:1.0 5:8.0 6:8.0 7:1.0 14:1.0 434:1.0 852:1.0 
-0.4092684853726659 -0.0 -0.8982851961756843 0.0 0.8950506082787778 3:2.0 4:2.0 5:3.0 6:2.0 7:1.0 20:1.0 272:1.0 
-0.0 -0.0 -0.0613221065273294 0.0 0.002460903477508021 2:1.0 3:2.0 4:2.0 5:8.0 6:6.0 7:2.0 452:1.0 796:1.0 853:1.0 854:1.0 
-0.21950173495606742 -0.11373322695919658 -0.8839645227776115 0.4285979396777508 0.46912578459331666 3:2.0 4:1.0 5:7.0 6:6.0 7:1.0 20:1.0 21:1.0 717:1.0 855:1.0 
-0.0368382513184108 -0.04698311761527718 -1.0 0.0 0.0 1:1.0 2:1.0 3:2.0 4:1.0 5:7.0 6:7.0 7:1.0 
-0.0 -0.0 -1.0 0.0 0.0 1:1.0 2:1.0 3:2.0 4:1.0 5:5.0 6:5.0 7:1.0 
-0.0 -0.24146567214838177 -0.0 0.0 0.08928862819465876 2:1.0 3:2.0 4:4.0 5:11.0 6:6.0 7:2.0 38:1.0 326:1.0 336:1.0 558:1.0 856:1.0 
-0.0 -0.24578270121917792 -0.49281043798843144 0.0 0.06744266206944738 2:1.0 3:2.0 4:1.0 5:7.0 6:6.0 7:2.0 14:1.0 242:1.0 857:1.0 
-0.0 -0.058170616377929425 -0.0 0.0 0.6684615941968558 3:2.0 4:1.0 5:6.0 6:5.0 7:1.0 54:1.0 299:1.0 859:1.0 860:1.0 
-0.0 -0.0 -1.0 0.0 1.0 1:1.0 2:1.0 3:2.0 4:3.0 5:15.0 6:12.0 7:2.0 
-0.014975431057949552 -0.05887308808118719 -0.643120577204117 0.0 0.15542560884498766 2:1.0 3:2.0 4:1.0 5:13.0 6:9.0 7:5.0 14:1.0 861:1.0 862:1.0 
-0.0 -0.0 -1.0 0.0 1.0 1:1.0 2:1.0 3:2.0 4:1.0 5:13.0 6:11.0 7:3.0 
-0.0 -0.23488008566591692 -0.16894182947622918 0.0 0.19918474971220546 2:1.0 3:2.0 4:3.0 5:10.0 6:8.0 7:1.0 323:1.0 695:1.0 863:1.0 
-0.0033935385145385565 -0.036771747613890196 -0.1429692207445465 0.0 0.0362635367336109 2:1.0 3:2.0 4:1.0 5:8.0 6:8.0 7:1.0 14:1.0 227:1.0 864:1.0 
-0.0 -0.0 -0.0 0.0 0.3083607038312998 2:1.0 3:2.0 4:2.0 5:7.0 6:6.0 7:1.0 452:1.0 865:1.0 
-0.0 -0.07890574825083194 -0.11817598551091126 0.0 0.09676134489390797 2:1.0 3:2.0 4:2.0 5:5.0 6:4.0 7:1.0 836:1.0 866:1.0 
-0.06128767772627838 -0.0 -0.024173979146375722 0.0 0.0 2:1.0 3:2.0 4:1.0 5:10.0 6:9.0 7:1.0 14:1.0 17:1.0 818:1.0 867:1.0 868:1.0 869:1.0 
-0.0662336075160454 -0.0 -0.0 0.006123077664791161 0.24218159224051608 2:1.0 3:2.0 4:1.0 5:7.0 6:6.0 7:1.0 21:1.0 543:1.0 765:1.0 858:1.0 
-0.0 -0.0 -0.0 0.0 0.23343052819787088 3:2.0 4:1.0 5:10.0 6:10.0 7:1.0 299:1.0 870:1.0 871:1.0 
-0.0 -0.1838270746924375 -1.0 0.0 0.0 3:2.0 4:2.0 5:6.0 6:4.0 7:1.0 11:1.0 53:1.0 661:1.0 
-0.012346181836951384 -0.0 -1.0 0.0 0.0 1:1.0 2:1.0 3:2.0 4:1.0 5:10.0 6:10.0 7:1.0 
-0.0 -0.046721244355684796 -0.0 0.0 1.0 2:1.0 3:2.0 4:3.0 5:5.0 6:3.0 7:1.0 434:1.0 872:1.0 
-0.0 -0.0 -0.0 0.0 0.22156274234367118 2:1.0 3:2.0 4:7.0 5:14.0 6:7.0 7:2.0 872:1.0 873:1.0 874:1.0 875:1.0 
-0.0 -0.01143201812609226 -0.08872064154670124 0.0 0.059540095300755415 2:1.0 3:2.0 4:4.0 5:10.0 6:6.0 7:2.0 434:1.0 876:1.0 877:1.0 878:1.0 879:1.0 
-0.0016763155948384917 -0.0 -0.0 0.0 0.040093266934087934 2:1.0 3:2.0 4:2.0 5:8.0 6:5.0 7:2.0 14:1.0 38:1.0 42:1.0 880:1.0 881:1.0 
-0.016476346393523557 -0.0 -0.1892820478738301 0.0 0.031219438137921558 2:1.0 3:2.0 4:1.0 5:8.0 6:8.0 7:1.0 152:1.0 882:1.0 883:1.0 
-0.015386793027820521 -0.059908241641057555 -0.20398442548962328 0.0 0.09186190525737203 2:1.0 3:2.0 4:2.0 5:8.0 6:7.0 7:1.0 14:1.0 884:1.0 885:1.0 
-0.0 -0.25401085970224846 -0.8118919030892389 0.0 0.47804436581197046 2:1.0 3:2.0 4:2.0 5:8.0 6:3.0 7:4.0 14:1.0 38:1.0 359:1.0 886:1.0 
-0.8252491278651588 -0.0 -1.0 0.0 0.0 1:1.0 2:1.0 3:2.0 4:1.0 5:13.0 6:13.0 7:1.0 
-0.0 -0.0 -1.0 0.0 0.0 1:1.0 2:1.0 3:2.0 4:1.0 5:6.0 6:6.0 7:1.0 
-0.0 -0.0 -0.0 0.0 0.06649681298923156 2:1.0 3:2.0 4:3.0 5:16.0 6:12.0 7:3.0 14:1.0 887:1.0 888:1.0 889:1.0 890:1.0 891:1.0 
-0.02861817929611072 -0.09615634972178527 -0.20398950435419075 0.0 0.0 2:1.0 3:2.0 4:3.0 5:8.0 6:6.0 7:1.0 686:1.0 873:1.0 892:1.0 
-0.03061175836409264 -0.11974756246532699 -0.8851845198607451 0.0 0.061922280935645564 2:1.0 3:2.0 4:1.0 5:5.0 6:5.0 7:1.0 14:1.0 893:1.0 
-0.19325719355410528 -0.0507807788074828 -1.0 0.0 0.0 1:1.0 2:1.0 3:2.0 4:1.0 5:10.0 6:10.0 7:1.0 
-0.05915114335480124 -0.5317708095466366 -0.0 0.0 0.505814454431328 2:1.0 3:2.0 4:1.0 5:9.0 6:9.0 7:1.0 108:1.0 242:1.0 894:1.0 
-0.08790835778857942 -0.0 -0.0 0.0 0.0 1:1.0 2:1.0 3:2.0 4:1.0 5:14.0 6:14.0 7:1.0 
-1.0 -1.0 -1.0 0.0 1.0 1:1.0 2:1.0 3:2.0 4:4.0 5:8.0 6:5.0 7:1.0 
-1.0 -1.0 -1.0 0.0 0.0 1:1.0 2:1.0 3:2.0 4:1.0 5:8.0 6:8.0 7:1.0 
-0.02864391857011277 -0.0 -0.11167733959297639 0.0 0.1523598903942763 2:1.0 3:2.0 4:4.0 5:20.0 6:10.0 7:7.0 20:1.0 21:1.0 26:1.0 114:1.0 870:1.0 897:1.0 898:1.0 
-0.013766528694811523 -0.0 -1.0 0.0 0.0 2:1.0 3:2.0 4:1.0 5:5.0 6:5.0 7:1.0 14:1.0 735:1.0 
-0.010505831239787015 -0.04321684069794901 -0.0 0.0 0.21728364736299657 2:1.0 3:2.0 4:3.0 5:7.0 6:5.0 7:1.0 238:1.0 899:1.0 900:1.0 
-0.8339563669831064 -0.0 -0.0 0.0 0.9284325655028156 1:1.0 2:1.0 3:2.0 4:3.0 5:17.0 6:13.0 7:1.0 17:1.0 53:1.0 
-0.1695350588424539 -0.4521858906560004 -1.0 1.0 0.8136791558269348 2:1.0 3:2.0 4:3.0 5:6.0 6:4.0 7:1.0 675:1.0 
-0.0 -0.2085026818619924 -0.1219086949543878 0.0 0.21622847119187028 2:1.0 3:2.0 4:3.0 5:11.0 6:7.0 7:3.0 14:1.0 112:1.0 221:1.0 497:1.0 901:1.0 
-0.03036698608973421 -0.11979965979604816 -0.9565945536324935 0.0 0.13008903432961866 2:1.0 3:2.0 4:2.0 5:5.0 6:4.0 7:1.0 14:1.0 905:1.0 
-0.2728246933073882 -0.6374983245818374 -1.0 0.0 0.0 1:1.0 2:1.0 3:2.0 4:1.0 5:9.0 6:9.0 7:1.0 
-0.0 -1.0 -1.0 0.0 1.0 1:1.0 2:1.0 3:2.0 4:4.0 5:7.0 6:4.0 7:1.0 
-0.0 -0.3524907741160021 -0.0 0.0 0.0 2:1.0 3:2.0 4:1.0 5:10.0 6:8.0 7:1.0 41:1.0 53:1.0 223:1.0 287:1.0 902:1.0 906:1.0 
-0.0 -0.11978647824932585 -0.7023599904723474 0.0 1.0 2:1.0 3:2.0 4:1.0 5:6.0 6:6.0 7:1.0 14:1.0 907:1.0 
-0.0 -0.0 -0.5584418222569263 0.4725018019796915 1.0 1:1.0 2:1.0 3:2.0 4:4.0 5:15.0 6:9.0 7:2.0 21:1.0 53:1.0 
-0.0 -0.004009268918311236 -1.0 0.33103774062572655 0.0 1:1.0 2:1.0 3:2.0 4:1.0 5:5.0 6:5.0 7:1.0 
-0.5714731297251007 -0.0 -0.0 0.0 0.04879693791380905 2:1.0 3:2.0 4:1.0 5:9.0 6:7.0 7:2.0 14:1.0 41:1.0 42:1.0 84:1.0 910:1.0 
-1.0 -0.0 -0.36450397435662696 0.0 0.1546714028845836 3:2.0 4:5.0 5:8.0 6:4.0 7:1.0 14:1.0 20:1.0 106:1.0 107:1.0 
-0.0 -0.0 -0.48457297137116095 0.0 0.04910685472374203 2:1.0 3:2.0 4:1.0 5:9.0 6:9.0 7:1.0 14:1.0 189:1.0 434:1.0 911:1.0 
-0.0 -0.019101001812661098 -1.0 0.013399009620658243 0.0 1:1.0 2:1.0 3:2.0 4:1.0 5:5.0 6:5.0 7:1.0 
-0.022957572194103572 -0.051217646797178426 -0.7220717201864411 0.0 0.4535099877859691 2:1.0 3:2.0 4:2.0 5:9.0 6:5.0 7:3.0 38:1.0 750:1.0 817:1.0 
-1.0 -0.09018375154727877 -0.2719121853660586 0.0 0.0 2:1.0 3:2.0 4:2.0 5:6.0 6:2.0 7:2.0 14:1.0 17:1.0 35:1.0 53:1.0 
-0.05598413159343939 -0.5754565548438968 -1.0 0.0 0.0 1:1.0 2:1.0 3:2.0 4:1.0 5:7.0 6:7.0 7:1.0 
-0.0 -0.05391007602299661 -0.0 0.0 1.0 2:1.0 3:2.0 4:3.0 5:10.0 6:8.0 7:1.0 221:1.0 774:1.0 912:1.0 
-0.07337741302708467 -0.0731044182842447 -0.3509125769573072 0.07207472951886093 0.12388525841780584 2:1.0 3:2.0 4:1.0 5:12.0 6:9.0 7:3.0 21:1.0 108:1.0 316:1.0 915:1.0 916:1.0 
-0.0756919355165337 -0.32934662464661385 -0.0 0.0 0.048329836529447355 2:1.0 3:2.0 4:7.0 5:13.0 6:6.0 7:2.0 14:1.0 61:1.0 218:1.0 254:1.0 917:1.0 
-0.0 -0.009171121035580834 -1.0 0.0 0.0 1:1.0 2:1.0 3:2.0 4:1.0 5:6.0 6:6.0 7:1.0 
-0.0 -0.0 -0.17599120770960833 0.0 0.0 2:1.0 3:2.0 4:1.0 5:10.0 6:10.0 7:1.0 14:1.0 360:1.0 918:1.0 
-0.015315573361546103 -0.05987550595203022 -0.4425877074604956 0.0 0.030952354226348386 2:1.0 3:2.0 4:1.0 5:5.0 6:5.0 7:1.0 14:1.0 919:1.0 920:1.0 
-0.030025446441299668 -0.11955771164065566 -1.0 0.0 1.0 2:1.0 3:2.0 4:5.0 5:6.0 6:2.0 7:1.0 14:1.0 417:1.0 
-0.0 -0.0 -0.0887240315108939 0.0 0.0 2:1.0 3:2.0 4:3.0 5:9.0 6:7.0 7:1.0 14:1.0 922:1.0 923:1.0 924:1.0 
-0.3899350448892931 -0.0995775017634512 -0.0 0.0 0.8782691179498967 2:1.0 3:2.0 4:3.0 5:14.0 6:11.0 7:1.0 23:1.0 82:1.0 273:1.0 522:1.0 925:1.0 
-0.06592488806301523 -0.030059870865519055 -0.05602744062290831 0.19529689850628207 0.279536327316636 2:1.0 3:2.0 4:1.0 5:9.0 6:8.0 7:1.0 20:1.0 21:1.0 26:1.0 928:1.0 929:1.0 930:1.0 
-0.12016349245325839 -0.1890283090144874 -0.45984350009943553 0.3643966988385419 1.0 2:1.0 3:2.0 4:4.0 5:6.0 6:2.0 7:1.0 21:1.0 110:1.0 931:1.0 
-0.0 -0.0 -0.21470799271747557 0.0 0.0 2:1.0 3:2.0 4:1.0 5:6.0 6:5.0 7:1.0 14:1.0 54:1.0 859:1.0 860:1.0 
-0.02297540386937705 -0.0054043863249665204 -0.0 0.0 0.02253975628130492 2:1.0 3:2.0 4:1.0 5:7.0 6:6.0 7:2.0 14:1.0 42:1.0 932:1.0 933:1.0 
-0.0 -0.44855688155563084 -0.0 0.0 0.0 2:1.0 3:2.0 4:1.0 5:11.0 6:8.0 7:3.0 38:1.0 175:1.0 245:1.0 914:1.0 
-0.20323280632711774 -0.1007385578543983 -0.3079450225533745 0.0 0.21703198442729105 2:1.0 3:2.0 4:1.0 5:12.0 6:11.0 7:1.0 14:1.0 21:1.0 26:1.0 934:1.0 935:1.0 
-1.0 -0.0 -1.0 0.0 0.0 1:1.0 2:1.0 3:2.0 4:1.0 5:12.0 6:12.0 7:1.0 
-0.0 -0.0 -0.005976739901827673 0.0 0.0 2:1.0 3:2.0 4:1.0 5:6.0 6:6.0 7:1.0 796:1.0 936:1.0 937:1.0 
-0.08484847741272086 -0.2260684202406379 -0.030196049037209686 0.0 0.6451968100560794 2:1.0 3:2.0 4:2.0 5:7.0 6:6.0 7:1.0 938:1.0 939:1.0 
-0.9090254420107077 -0.0 -0.4383720333768774 0.1319177185004178 0.9094029305939624 3:2.0 4:3.0 5:10.0 6:7.0 7:1.0 20:1.0 21:1.0 23:1.0 287:1.0 307:1.0 
-0.0 -2.826724220100475E-5 -1.0 1.0 0.0 1:1.0 2:1.0 3:2.0 4:1.0 5:3.0 6:3.0 7:1.0 
-0.14489181048167232 -0.059939840407886504 -0.4225890071836867 0.0 0.3597729786206572 2:1.0 3:2.0 4:3.0 5:6.0 6:4.0 7:1.0 14:1.0 161:1.0 940:1.0 
-0.0 -0.2791705098344062 -0.0 0.0 0.0 2:1.0 3:2.0 4:4.0 5:9.0 6:5.0 7:1.0 14:1.0 17:1.0 186:1.0 199:1.0 238:1.0 796:1.0 
-0.14651291534845765 -0.19781682504703998 -0.0 0.0 0.0 2:1.0 3:2.0 4:2.0 5:8.0 6:3.0 7:3.0 14:1.0 35:2.0 42:1.0 53:2.0 61:1.0 
-0.0 -0.0 -0.6330255846097528 0.3803097189526319 0.0 2:1.0 3:2.0 4:1.0 5:5.0 6:4.0 7:1.0 14:1.0 21:1.0 765:1.0 941:1.0 
-0.026659530631239867 -0.017966513785971378 -0.0 0.025045489406938657 0.0 2:1.0 3:2.0 4:1.0 5:11.0 6:10.0 7:1.0 21:1.0 488:1.0 873:1.0 942:1.0 943:1.0 
-0.3250632449048054 -0.0 -0.0 0.0 0.21996655078061175 2:1.0 3:2.0 4:1.0 5:11.0 6:11.0 7:1.0 64:1.0 906:1.0 944:1.0 
-0.1363874844159742 -0.07371650311898702 -0.2755706464669988 0.0 0.24622690006105424 3:2.0 4:1.0 5:4.0 6:4.0 7:1.0 20:1.0 913:1.0 945:1.0 
-0.14628072747192922 -0.12890030177936526 -0.030059146044031548 0.1068145505123004 1.0 3:2.0 4:3.0 5:11.0 6:8.0 7:1.0 20:1.0 21:1.0 924:1.0 947:1.0 948:1.0 
-0.0 -0.0 -0.0 0.0 0.24485657350947945 2:1.0 3:2.0 4:5.0 5:17.0 6:11.0 7:3.0 14:1.0 221:1.0 360:1.0 522:1.0 949:1.0 950:1.0 951:1.0 
-1.0 -1.0 -1.0 0.0 0.0 1:1.0 2:1.0 3:2.0 4:2.0 5:7.0 6:6.0 7:1.0 
-0.010377340110374665 -0.043199388880585915 -0.0 0.0 0.29446835481736666 2:1.0 3:2.0 4:5.0 5:8.0 6:4.0 7:1.0 238:1.0 952:1.0 953:1.0 
-0.0 -0.0 -0.12771942601758263 0.0 0.0 2:1.0 3:2.0 4:2.0 5:8.0 6:7.0 7:1.0 31:1.0 796:1.0 954:1.0 
-0.0 -0.9891231025003482 -1.0 0.0 0.0 1:1.0 2:1.0 3:2.0 4:3.0 5:7.0 6:4.0 7:1.0 53:1.0 
-0.0 -0.0 -0.0 0.0 0.13433959454574987 2:1.0 3:2.0 4:4.0 5:11.0 6:8.0 7:1.0 14:1.0 955:1.0 956:1.0 
-0.0015326635458071873 -0.0 -1.0 0.0 0.0 1:1.0 2:1.0 3:2.0 4:1.0 5:6.0 6:6.0 7:1.0 
-0.0 -0.0 -0.0 0.0 0.07674638494990242 2:1.0 3:2.0 4:1.0 5:9.0 6:8.0 7:1.0 17:1.0 796:1.0 957:1.0 958:1.0 959:1.0 
-0.001760739253974357 -0.5567479253101119 -0.0088243225615461 0.0 0.15686742164394488 2:1.0 3:2.0 4:3.0 5:9.0 6:7.0 7:1.0 329:1.0 960:1.0 961:1.0 
-0.03056170167672954 -0.11988774579093495 -0.8451702174257262 0.0 0.21609175984061776 2:1.0 3:2.0 4:3.0 5:6.0 6:4.0 7:1.0 14:1.0 962:1.0 
-0.0 -0.0 -0.0 0.0 0.03559622147712499 2:1.0 3:2.0 4:5.0 5:13.0 6:9.0 7:1.0 186:1.0 294:1.0 963:1.0 964:1.0 965:1.0 
-0.0 -1.0 -1.0 0.0 1.0 1:1.0 2:1.0 3:2.0 4:3.0 5:7.0 6:4.0 7:2.0 
-0.3868825550038274 -0.02127048713280108 -0.0 0.0 0.2688670000941427 2:1.0 3:2.0 4:7.0 5:19.0 6:12.0 7:2.0 23:1.0 966:1.0 967:1.0 968:1.0 969:1.0 
-0.0 -0.0 -0.0 0.0 0.477592753219867 2:1.0 3:2.0 4:3.0 5:8.0 6:6.0 7:1.0 435:1.0 796:1.0 970:1.0 
-0.04716681144960996 -1.0 -1.0 0.0 1.0 1:1.0 2:1.0 3:2.0 4:2.0 5:11.0 6:10.0 7:1.0 
-0.0 -0.0 -0.22413570104274985 0.04374133936470168 0.13989370224244038 2:1.0 3:2.0 4:3.0 5:14.0 6:7.0 7:4.0 14:1.0 17:1.0 21:1.0 221:1.0 971:1.0 972:1.0 973:1.0 
-0.0 -0.11160672309071364 -0.0 0.0 0.47487114347630177 2:1.0 3:2.0 4:3.0 5:9.0 6:7.0 7:1.0 859:1.0 974:1.0 975:1.0 
-0.015217188663425557 -0.9532955699647799 -0.6744971716553266 0.0 0.20308485319840444 2:1.0 3:2.0 4:5.0 5:9.0 6:5.0 7:1.0 14:1.0 208:1.0 976:1.0 
-0.0 -0.0 -0.0 0.0 0.49072235542079884 2:1.0 3:2.0 4:2.0 5:12.0 6:11.0 7:1.0 221:1.0 677:1.0 977:1.0 
-0.0 -0.043964911813912363 -0.0 0.0 0.3424553209987691 2:1.0 3:2.0 4:1.0 5:10.0 6:10.0 7:1.0 604:2.0 620:1.0 978:1.0 
-0.0 -0.32338193604681076 -0.0 0.0 0.13580094940993276 2:1.0 3:2.0 4:2.0 5:7.0 6:6.0 7:1.0 651:1.0 796:1.0 979:1.0 
-0.0 -0.07119045731275081 -1.0 0.0 1.0 1:1.0 2:1.0 3:2.0 4:4.0 5:8.0 6:4.0 7:2.0 
-0.6675949524641289 -0.6794154812295722 -1.0 0.0 0.0 1:1.0 2:1.0 3:2.0 4:1.0 5:9.0 6:9.0 7:1.0 
-0.043182652339737386 -0.0 -0.013406633829465626 0.0 0.13857072454144476 2:1.0 3:2.0 4:2.0 5:16.0 6:10.0 7:6.0 20:1.0 64:1.0 815:1.0 980:1.0 981:1.0 
-0.24223279221339522 -0.0 -0.0 0.0 0.0 2:1.0 3:2.0 4:1.0 5:9.0 6:7.0 7:2.0 14:1.0 17:1.0 61:1.0 859:1.0 982:1.0 
-0.2337587815179829 -0.1427762295265885 -0.4416124643746508 0.0 0.0 2:1.0 3:2.0 4:1.0 5:11.0 6:10.0 7:2.0 14:1.0 112:1.0 572:1.0 677:1.0 983:1.0 
-0.015200193416073834 -0.05963935788156142 -0.6199672637173405 0.0 0.08711967085772748 2:1.0 3:2.0 4:2.0 5:6.0 6:4.0 7:2.0 14:1.0 622:1.0 984:1.0 
-0.2049380850587579 -0.19335673989542945 -0.2306994527462608 0.0 0.4313718779329382 3:2.0 4:1.0 5:5.0 6:5.0 7:1.0 20:1.0 985:1.0 986:1.0 
-0.0 -0.05360411428209262 -1.0 0.0 0.0 1:1.0 2:1.0 3:2.0 4:1.0 5:6.0 6:6.0 7:1.0 
-0.0 -0.0 -0.7364367873935684 0.0 0.0 2:1.0 3:2.0 4:3.0 5:9.0 6:4.0 7:2.0 14:1.0 17:1.0 102:1.0 238:1.0 290:1.0 
-0.0 -0.0 -1.0 1.0 0.0 1:1.0 2:1.0 3:2.0 4:2.0 5:5.0 6:3.0 7:2.0 
-0.0 -0.0 -0.3702224817874472 0.0 0.0 2:1.0 3:2.0 4:1.0 5:8.0 6:7.0 7:2.0 14:1.0 42:1.0 152:1.0 987:1.0 
-0.20883467747544426 -0.8584437964239263 -0.40977642587769275 0.0 0.7990808836838574 2:1.0 3:2.0 4:2.0 5:7.0 6:6.0 7:1.0 66:1.0 988:1.0 
-0.0 -0.11982224233488674 -0.9565993025306339 0.0 1.0 2:1.0 3:2.0 4:2.0 5:5.0 6:4.0 7:1.0 14:1.0 445:1.0 
-0.13927881807250408 -0.12723737935703572 -0.9498611612111457 0.0 0.9061473643957256 3:2.0 4:2.0 5:4.0 6:3.0 7:1.0 20:1.0 434:1.0 989:1.0 
-0.12375315405825338 -0.037188319249340816 -0.4259345426944518 0.0 0.11236671676404314 2:1.0 3:2.0 4:3.0 5:7.0 6:4.0 7:1.0 14:1.0 17:1.0 990:1.0 991:1.0 
-0.8918133835513984 -0.0 -0.0 0.0 0.0872205733069437 2:1.0 3:2.0 4:3.0 5:15.0 6:13.0 7:1.0 14:1.0 23:1.0 61:1.0 370:1.0 992:1.0 
-0.0 -0.609337749244856 -0.0 0.0 1.0 2:1.0 3:2.0 4:5.0 5:13.0 6:5.0 7:2.0 17:1.0 38:1.0 53:1.0 287:1.0 329:1.0 993:1.0 
-0.015260102126801435 -0.33677917283984304 -0.0 0.0 0.07043788398567603 2:1.0 3:2.0 4:2.0 5:11.0 6:8.0 7:3.0 14:1.0 42:1.0 376:1.0 381:1.0 994:1.0 
-0.19325586252227647 -0.0 -0.21639436234371454 0.0 0.013785969774409898 2:1.0 3:2.0 4:2.0 5:6.0 6:4.0 7:1.0 17:1.0 995:1.0 996:1.0 
-1.0 -1.0 -1.0 0.0 0.0 1:1.0 2:1.0 3:2.0 4:1.0 5:8.0 6:8.0 7:1.0 
-0.030513480075390155 -0.11987878370715854 -0.8451660309428574 0.0 0.21609352847928553 2:1.0 3:2.0 4:3.0 5:6.0 6:4.0 7:1.0 14:1.0 997:1.0 
-0.0 -0.0 -0.0 0.0 0.20557223180157902 2:1.0 3:2.0 4:6.0 5:12.0 6:7.0 7:1.0 186:1.0 998:1.0 999:1.0 
-0.0 -0.0 -0.027412081341051393 0.0 0.0 2:1.0 3:2.0 4:1.0 5:4.0 6:4.0 7:1.0 682:1.0 902:1.0 
-0.1668620876751556 -1.0 -1.0 0.0 0.0 1:1.0 2:1.0 3:2.0 4:2.0 5:8.0 6:7.0 7:1.0 
-0.0 -0.13908624219595736 -0.0 0.0 0.07860572855197444 2:1.0 3:2.0 4:1.0 5:6.0 6:6.0 7:1.0 913:1.0 1000:1.0 
-0.4048623008406541 -0.2560640950496371 -0.8087565236089375 0.0 0.14420773205401918 2:1.0 3:2.0 4:2.0 5:7.0 6:5.0 7:2.0 14:1.0 61:1.0 1001:1.0 
-0.3111284169328302 -0.9946268737023523 -0.37309685333919035 0.0 0.0 2:1.0 3:2.0 4:1.0 5:8.0 6:7.0 7:2.0 61:1.0 66:1.0 1002:1.0 
-0.08635400888098393 -0.13752961385611295 -0.0 0.0 0.3514761850425146 2:1.0 3:2.0 4:3.0 5:12.0 6:9.0 7:1.0 17:1.0 294:1.0 1003:1.0 1004:1.0 
-0.0 -0.3388904422508162 -1.0 0.0 0.0 1:1.0 2:1.0 3:2.0 4:1.0 5:7.0 6:7.0 7:1.0 
-0.0 -0.0 -0.11285485275585865 0.0 1.0 2:1.0 3:2.0 4:1.0 5:9.0 6:6.0 7:3.0 38:1.0 316:1.0 434:1.0 
-0.3109346715041044 -0.1053529147474818 -0.28051122656913985 0.0 0.051436497710426084 2:1.0 3:2.0 4:1.0 5:9.0 6:7.0 7:2.0 14:1.0 17:1.0 61:1.0 1005:1.0 1006:1.0 
