svm_type c_svc
kernel_type linear
nr_class 6
total_sv 1710
rho 0.5563366036489982 0.008623925779078726 0.2618835584606637 -1.147949235465259 -0.2954113496100511 -0.003701724308457821 0.2001308811349025 -2.4150730126691777 -0.30066456048204127 -0.3395080758656079 -1.5671374571361691 0.4911718379909551 -2.2503560418543813 0.29604378074980686 0.8873787954472172
label 1 2 3 4 5 6
probA -1.8616482544276438 -2.9765991737918207 -2.307098789559553 -1.4853605536008683 -2.108948525349075 -2.5685218951681783 -2.37773428078736 -1.732979807342245 -2.1076577058273847 -1.416636257769811 -1.5068336843425292 -2.730004026431202 -1.8210597978760177 -1.776800986820611 -1.315477895192722
probB -0.010655345829588499 -0.7559509459170242 -0.29272917908749063 -0.6264042578520573 0.5530622338341223 -0.5477839642737589 -0.29368267740482495 -0.769207706899132 0.29048749122328166 0.33148224466647574 -0.9403843541334388 0.4092623822834499 -1.0024484509702676 0.10787997065083134 1.0317947223931738
nr_sv 168 256 351 582 37 316
SV
2.0 2.0 2.0 0.0 0.0 1:1.0 2:1.0 3:2.0 4:1.0 5:10.0 6:10.0 7:1.0 
0.0 0.0 0.0 0.0 1.336700254842501 3:2.0 4:5.0 5:13.0 6:7.0 7:3.0 8:1.0 9:1.0 
0.2190606152105027 0.3221265025468572 0.0011147479565096101 0.0 0.0 3:2.0 4:3.0 5:4.0 6:2.0 7:1.0 11:1.0 12:1.0 
0.18331458232600112 0.4920470329987031 1.1908890537864212 0.0 0.5239471679359591 2:1.0 3:2.0 4:2.0 5:10.0 6:8.0 7:1.0 14:1.0 15:1.0 16:1.0 17:1.0 
1.5383004212377085 0.5570224115783428 2.0 0.0 1.961222682987272 3:2.0 4:5.0 5:9.0 6:4.0 7:2.0 18:1.0 19:1.0 20:1.0 
2.0 2.0 2.0 2.0 2.0 1:1.0 2:1.0 3:2.0 4:3.0 5:7.0 6:5.0 7:1.0 
0.0 0.0 0.0 0.4856720929849656 0.0 3:2.0 4:4.0 5:13.0 6:8.0 7:1.0 8:1.0 9:1.0 21:2.0 
2.0 2.0 2.0 0.0 2.0 1:1.0 2:1.0 3:2.0 4:4.0 5:10.0 6:6.0 7:2.0 
2.0 2.0 2.0 0.0 2.0 1:1.0 2:1.0 3:2.0 4:3.0 5:10.0 6:8.0 7:1.0 
2.0 2.0 2.0 0.0 0.0 1:1.0 2:1.0 3:2.0 4:1.0 5:6.0 6:6.0 7:1.0 
0.0 0.2488748066560427 0.0 0.0 0.0 3:2.0 4:1.0 5:3.0 6:3.0 7:1.0 8:1.0 9:1.0 
0.0 0.0 0.14518126054085442 0.0 0.19874883746187802 3:2.0 4:3.0 5:7.0 6:5.0 7:1.0 20:1.0 23:1.0 24:1.0 
0.6228387879563357 0.3282190223850721 0.576340646903284 0.263321380394203 0.7620776029229255 2:1.0 3:2.0 4:1.0 5:10.0 6:9.0 7:1.0 21:1.0 25:1.0 26:1.0 27:1.0 
2.0 2.0 2.0 0.0 2.0 1:1.0 2:1.0 3:2.0 4:5.0 5:9.0 6:4.0 7:2.0 
0.0 0.0 0.0 0.0 0.09036805110597401 3:2.0 4:3.0 5:8.0 6:6.0 7:1.0 20:1.0 23:1.0 28:1.0 29:1.0 
0.5033671925888932 1.1953902224452948 2.0 0.0 1.3478981208293264 3:2.0 4:3.0 5:11.0 6:9.0 7:1.0 20:1.0 30:1.0 31:1.0 
2.0 2.0 2.0 0.0 0.0 1:1.0 2:1.0 3:2.0 4:1.0 5:10.0 6:10.0 7:1.0 
2.0 2.0 2.0 2.0 2.0 1:1.0 2:1.0 3:2.0 4:2.0 5:5.0 6:4.0 7:1.0 
2.0 2.0 2.0 2.0 2.0 1:1.0 2:1.0 3:2.0 4:2.0 5:5.0 6:4.0 7:1.0 
0.3533053183454662 0.0 0.1452403794348409 0.0 1.0633274292629957 3:2.0 4:2.0 5:9.0 6:6.0 7:3.0 20:1.0 23:1.0 32:1.0 
2.0 2.0 2.0 0.0 2.0 1:1.0 2:1.0 3:2.0 4:2.0 5:8.0 6:7.0 7:1.0 
0.0 0.14379620918364122 0.36602971086613767 0.0 0.5696998592299549 3:2.0 4:3.0 5:16.0 6:11.0 7:4.0 20:1.0 33:1.0 34:1.0 35:1.0 36:1.0 37:1.0 
2.0 2.0 2.0 0.0 2.0 1:1.0 2:1.0 3:2.0 4:1.0 5:14.0 6:14.0 7:1.0 
2.0 2.0 2.0 0.4367344158001122 0.0 1:1.0 2:1.0 3:2.0 4:1.0 5:6.0 6:6.0 7:1.0 
0.3383148396396155 0.6392013416904144 0.6665151599756554 0.0 0.7962900715663574 2:1.0 3:2.0 4:1.0 5:9.0 6:8.0 7:2.0 14:1.0 49:1.0 50:1.0 51:1.0 
2.0 2.0 2.0 0.0 2.0 1:1.0 2:1.0 3:2.0 4:3.0 5:10.0 6:8.0 7:1.0 
2.0 2.0 2.0 0.21966273842940814 2.0 1:1.0 2:1.0 3:2.0 4:2.0 5:7.0 6:5.0 7:1.0 41:1.0 
0.0 0.0 0.0 0.0 0.18208537417328485 3:2.0 4:1.0 5:12.0 6:12.0 7:1.0 20:1.0 56:1.0 57:1.0 58:1.0 59:1.0 
0.6017104685663693 0.4545686220338704 0.6751029058564282 0.0 0.7272966426245406 2:1.0 3:2.0 4:3.0 5:7.0 6:5.0 7:1.0 60:1.0 61:1.0 62:1.0 
2.0 2.0 2.0 0.0 0.0 1:1.0 2:1.0 3:2.0 4:1.0 5:7.0 6:7.0 7:1.0 
1.351730311048746 1.9177944843747572 2.0 0.0 1.7676013328533506 2:1.0 3:2.0 4:1.0 5:5.0 6:5.0 7:1.0 14:1.0 64:1.0 
0.1338301298359999 0.3081193509901771 0.9048612602276839 0.0 0.7100420044400534 2:1.0 3:2.0 4:2.0 5:17.0 6:15.0 7:2.0 65:1.0 66:1.0 67:1.0 68:1.0 
2.0 2.0 2.0 2.0 2.0 1:1.0 2:1.0 3:2.0 4:2.0 5:5.0 6:4.0 7:1.0 
0.0 0.05307560299629225 0.04845047488824159 0.0 0.40329332935714934 3:2.0 4:4.0 5:9.0 6:6.0 7:1.0 20:1.0 23:1.0 70:1.0 71:1.0 72:1.0 
0.0 0.10203390943141001 0.3035471373119516 0.0 0.3528953998768175 2:1.0 3:2.0 4:1.0 5:9.0 6:9.0 7:1.0 23:1.0 75:1.0 
0.7552771136549536 0.3278262900457912 0.5829448410915524 0.0 0.5490560219845295 2:1.0 3:2.0 4:3.0 5:12.0 6:9.0 7:1.0 38:1.0 76:1.0 77:1.0 78:1.0 79:1.0 
0.4842529748667656 0.4921708665517721 0.8506859926819808 0.0 0.6036785951265682 2:1.0 3:2.0 4:3.0 5:7.0 6:4.0 7:1.0 14:1.0 17:1.0 80:1.0 81:1.0 
2.0 2.0 2.0 0.0 1.0923448413403773 1:1.0 2:1.0 3:2.0 4:2.0 5:9.0 6:7.0 7:1.0 41:1.0 
0.45046376787697884 0.1715856175609997 0.7279847219997038 0.0 1.086947418796203 3:2.0 4:7.0 5:24.0 6:12.0 7:4.0 10:1.0 11:1.0 21:1.0 53:2.0 
0.5538272647551137 0.9585607375874202 1.3926604640811526 0.0 0.6142180722336439 2:1.0 3:2.0 4:4.0 5:11.0 6:8.0 7:1.0 14:1.0 84:1.0 85:1.0 
0.0 0.0 0.0 0.1275982606337863 0.0 3:2.0 4:1.0 5:10.0 6:8.0 7:2.0 10:1.0 11:1.0 14:1.0 20:1.0 21:1.0 28:1.0 
0.0 0.0 0.030695525600082423 0.0 2.0 3:2.0 4:8.0 5:13.0 6:4.0 7:3.0 8:1.0 9:1.0 
0.10239209123020301 0.5328792317625384 0.6822801872301233 0.0 0.34220079747263726 2:1.0 3:2.0 4:1.0 5:13.0 6:13.0 7:1.0 14:1.0 25:1.0 86:1.0 87:1.0 88:1.0 
2.0 2.0 2.0 0.0 2.0 1:1.0 2:1.0 3:2.0 4:2.0 5:13.0 6:12.0 7:1.0 
0.22733493524901421 0.08924757714476568 0.3039763108709794 0.0 0.37788994006777393 2:1.0 3:2.0 4:2.0 5:4.0 6:3.0 7:1.0 23:1.0 89:1.0 
0.24976198079148848 0.6391022397215478 0.8614673713905022 0.0 0.21373352704092777 2:1.0 3:2.0 4:1.0 5:10.0 6:10.0 7:1.0 14:1.0 57:1.0 58:1.0 59:1.0 
0.08225696373884886 0.7889473006382983 0.1312848502618001 0.0 0.0 3:2.0 4:3.0 5:5.0 6:3.0 7:1.0 11:1.0 90:1.0 
0.35074721506491363 0.639085941238884 0.6665873499576307 0.0 0.37936721922283495 2:1.0 3:2.0 4:3.0 5:10.0 6:8.0 7:1.0 14:1.0 91:1.0 92:1.0 93:1.0 
2.0 2.0 2.0 2.0 2.0 1:1.0 2:1.0 3:2.0 4:2.0 5:5.0 6:4.0 7:1.0 
0.5237274746175153 0.383215877294303 0.9679252974909467 0.0 0.4326958924647511 2:1.0 3:2.0 4:2.0 5:12.0 6:8.0 7:2.0 14:1.0 41:1.0 42:1.0 53:1.0 94:1.0 95:1.0 96:1.0 
0.551134134902513 0.5123216848436267 0.592935213195004 0.0 0.5446977986997394 2:1.0 3:2.0 4:2.0 5:11.0 6:8.0 7:2.0 14:1.0 53:1.0 97:1.0 98:1.0 99:1.0 100:1.0 
0.0 0.0 0.14541638849761604 0.0 0.10855236207800024 3:2.0 4:2.0 5:5.0 6:4.0 7:1.0 20:1.0 23:1.0 101:1.0 
0.0 0.2847902640640874 0.4723540862079834 0.0 0.0 3:2.0 4:3.0 5:5.0 6:2.0 7:1.0 8:1.0 9:1.0 102:1.0 
0.0 0.7890756430445169 0.13090726136009898 0.0 0.0 3:2.0 4:2.0 5:6.0 6:4.0 7:2.0 11:1.0 103:1.0 
0.0 0.0 0.0 0.0 0.007116751004879989 2:1.0 3:2.0 4:1.0 5:8.0 6:6.0 7:1.0 14:1.0 17:1.0 41:1.0 104:1.0 105:1.0 
0.0 0.04405334540264684 2.0 0.0 0.32445351374982084 2:1.0 3:2.0 4:5.0 5:12.0 6:8.0 7:1.0 23:1.0 106:1.0 107:1.0 
0.0 0.10378517039934511 0.301703071282345 0.0 0.14389199452906332 2:1.0 3:2.0 4:1.0 5:10.0 6:10.0 7:1.0 23:1.0 108:1.0 109:1.0 
2.0 2.0 2.0 0.0 2.0 1:1.0 2:1.0 3:2.0 4:2.0 5:7.0 6:6.0 7:1.0 
0.0 0.0 0.4289834596856202 0.0 0.0 3:2.0 4:1.0 5:16.0 6:15.0 7:1.0 11:1.0 40:1.0 53:1.0 
2.0 2.0 2.0 0.0 2.0 1:1.0 2:1.0 3:2.0 4:1.0 5:12.0 6:12.0 7:1.0 
2.0 2.0 2.0 0.0 0.0 1:1.0 2:1.0 3:2.0 4:1.0 5:7.0 6:7.0 7:1.0 
2.0 2.0 2.0 0.0 0.0 1:1.0 2:1.0 3:2.0 4:1.0 5:8.0 6:8.0 7:1.0 
0.0 0.7891833035661132 0.1311297170049728 0.0 0.0 3:2.0 4:1.0 5:4.0 6:4.0 7:1.0 11:1.0 22:1.0 
2.0 2.0 2.0 0.0 2.0 1:1.0 2:1.0 3:2.0 4:2.0 5:7.0 6:6.0 7:1.0 
0.4192976821850462 0.3592635257142265 0.9546465349743932 0.0 0.3866003514760114 2:1.0 3:2.0 4:1.0 5:9.0 6:8.0 7:2.0 14:1.0 42:1.0 43:1.0 44:1.0 
0.6694273544076456 2.0 2.0 2.0 0.0 1:1.0 2:1.0 3:2.0 4:1.0 5:16.0 6:15.0 7:1.0 21:1.0 
2.0 2.0 2.0 0.0 2.0 1:1.0 2:1.0 3:2.0 4:4.0 5:10.0 6:6.0 7:2.0 
0.273604329975193 0.6776791410398919 0.057945841948485136 0.0 0.737636310580297 2:1.0 3:2.0 4:1.0 5:9.0 6:8.0 7:2.0 14:1.0 43:1.0 112:1.0 113:1.0 
0.5808052747603814 2.0 2.0 0.005772299193494234 0.12992884760310675 1:1.0 2:1.0 3:2.0 4:1.0 5:10.0 6:8.0 7:1.0 17:2.0 
2.0 2.0 2.0 2.0 0.0 1:1.0 2:1.0 3:2.0 4:1.0 5:5.0 6:5.0 7:1.0 
2.0 2.0 2.0 0.0 2.0 1:1.0 2:1.0 3:2.0 4:1.0 5:12.0 6:12.0 7:1.0 
0.1318733713346754 0.22275908192412558 0.4100633004516158 0.0 0.465304633627404 3:2.0 4:3.0 5:13.0 6:10.0 7:2.0 20:1.0 114:1.0 115:1.0 116:1.0 117:1.0 118:1.0 
0.3793730425462153 0.08869830616346264 2.0 0.0 0.7114150168062663 2:1.0 3:2.0 4:1.0 5:6.0 6:6.0 7:1.0 23:1.0 119:1.0 
0.0 0.1022317700209383 0.5279592261865924 0.302251758825873 0.5451279173755548 3:2.0 5:8.0 6:7.0 7:2.0 20:1.0 21:1.0 121:1.0 122:1.0 123:1.0 
0.0 0.0 0.18894224821986874 0.0 0.018174353427681762 3:2.0 4:2.0 5:6.0 6:5.0 7:1.0 20:1.0 23:1.0 29:1.0 
0.0 0.014221314924472607 0.0 0.0 0.0 3:2.0 4:1.0 5:5.0 6:4.0 7:1.0 10:1.0 11:1.0 54:1.0 
0.1457959813847336 0.4171371610258717 0.30388227334961443 0.0 0.4681109632902446 2:1.0 3:2.0 4:3.0 5:6.0 6:4.0 7:1.0 23:1.0 124:1.0 
0.5663238080986672 0.21506660616181145 0.15186298572318752 0.0 0.1888901108193345 2:1.0 3:2.0 4:2.0 5:6.0 6:5.0 7:1.0 23:1.0 125:1.0 126:1.0 
2.0 2.0 2.0 2.0 2.0 1:1.0 2:1.0 3:2.0 4:2.0 5:5.0 6:4.0 7:1.0 
0.346960216600035 0.14519776771278503 0.11475439314441398 0.0 0.06300629926406213 2:1.0 3:2.0 4:3.0 5:14.0 6:10.0 7:3.0 33:1.0 34:1.0 35:1.0 37:1.0 127:1.0 
0.09118883031415476 0.029487074718332642 0.0 0.0 0.34124556401632267 2:1.0 3:2.0 4:1.0 5:10.0 6:9.0 7:2.0 61:1.0 128:1.0 129:1.0 130:1.0 
0.0 0.7894539004033124 0.1312119379149984 0.0 0.0 3:2.0 4:1.0 5:3.0 6:3.0 7:1.0 11:1.0 73:1.0 
1.44347163279362 0.04154877613503155 0.028448122418024906 0.0 0.316286304061246 2:1.0 3:2.0 4:3.0 5:8.0 6:4.0 7:3.0 14:1.0 112:1.0 132:1.0 133:1.0 134:1.0 
2.0 2.0 2.0 2.0 2.0 1:1.0 2:1.0 3:2.0 4:1.0 5:10.0 6:8.0 7:2.0 21:1.0 
0.14579053850733978 0.08866914108627089 0.3038677342688228 0.0 0.4680491509232257 2:1.0 3:2.0 4:3.0 5:6.0 6:4.0 7:1.0 23:1.0 135:1.0 
0.22387576715650154 0.4921361398764036 0.8505879229362637 0.0 0.4788055554962367 2:1.0 3:2.0 4:1.0 5:8.0 6:7.0 7:1.0 14:1.0 17:1.0 136:1.0 137:1.0 
0.11679525206001376 0.4626855364599797 0.0 0.0 0.0 3:2.0 4:3.0 5:4.0 6:2.0 7:1.0 11:1.0 39:1.0 
0.0821934556875667 0.6547896639004033 0.0 0.0 0.0 3:2.0 4:3.0 5:5.0 6:3.0 7:1.0 11:1.0 40:1.0 
0.11205964501878289 0.23694248908083385 0.6835849885024743 0.0 0.2802022745048774 3:2.0 4:3.0 5:9.0 6:7.0 7:1.0 20:1.0 61:1.0 138:1.0 139:1.0 140:1.0 
2.0 2.0 2.0 0.0 2.0 1:1.0 2:1.0 3:2.0 4:3.0 5:16.0 6:14.0 7:1.0 
0.0 0.09230570763998328 0.13104777535261045 0.0 0.0 3:2.0 4:4.0 5:10.0 6:7.0 7:1.0 11:1.0 141:1.0 
0.03019946616428734 0.0 0.0 0.0 0.0 3:2.0 4:3.0 5:13.0 6:8.0 7:2.0 11:1.0 13:1.0 38:1.0 83:1.0 
2.0 2.0 2.0 2.0 2.0 1:1.0 2:1.0 3:2.0 4:3.0 5:7.0 6:5.0 7:1.0 
0.06508100182816927 0.3821182300911029 0.37335439050968927 0.0 0.5120428028242683 2:1.0 3:2.0 4:1.0 5:16.0 6:12.0 7:5.0 14:1.0 42:1.0 61:1.0 142:1.0 143:1.0 144:1.0 145:1.0 
0.0 0.7891837627180674 0.13114544197400876 0.0 0.0 3:2.0 4:1.0 5:4.0 6:4.0 7:1.0 11:1.0 69:1.0 
0.0 0.17398766460297066 0.3029234131950798 0.36509990556161936 0.25934407909976354 2:1.0 3:2.0 4:1.0 5:6.0 6:5.0 7:1.0 21:1.0 23:1.0 146:1.0 
0.0 0.0 0.0 0.04972069824691801 0.0 3:2.0 4:2.0 5:4.0 6:2.0 7:1.0 10:1.0 11:1.0 21:1.0 
0.2826181119496186 0.08901013330845357 0.3040452219116681 0.0 0.46811059907254066 2:1.0 3:2.0 4:3.0 5:5.0 6:3.0 7:1.0 23:1.0 149:1.0 
0.0 0.0 0.11906874995876819 0.0 0.307214446970182 3:2.0 4:3.0 5:9.0 6:7.0 7:1.0 20:1.0 23:1.0 114:1.0 150:1.0 
2.0 2.0 2.0 0.0 2.0 2:1.0 3:2.0 4:4.0 5:11.0 6:8.0 7:1.0 151:1.0 
0.0 0.13407215327131053 0.0 0.01694802917601279 0.0 3:2.0 4:3.0 5:6.0 6:3.0 7:1.0 11:1.0 21:1.0 40:1.0 
2.0 2.0 2.0 0.01994755776388286 2.0 1:1.0 2:1.0 3:2.0 4:1.0 5:8.0 6:7.0 7:1.0 38:1.0 
2.0 2.0 2.0 2.0 2.0 1:1.0 2:1.0 3:2.0 4:2.0 5:5.0 6:4.0 7:1.0 
0.04583597669336087 0.0 0.0 0.0 0.0 3:2.0 4:3.0 5:4.0 6:2.0 7:1.0 11:1.0 63:1.0 
2.0 2.0 2.0 0.0 2.0 1:1.0 2:1.0 3:2.0 4:3.0 5:13.0 6:11.0 7:1.0 
0.0 0.4903210926765751 0.42125578534729907 0.0 0.396827281985148 3:2.0 4:3.0 5:14.0 6:10.0 7:2.0 20:1.0 41:1.0 99:1.0 152:1.0 153:1.0 154:1.0 
0.0 0.10294167489264054 0.0 0.0 0.0 3:2.0 4:3.0 5:6.0 6:2.0 7:3.0 8:1.0 9:1.0 
0.4669903040966021 0.4373307125154573 0.8616862715861601 0.0 0.49964221950505056 2:1.0 3:2.0 4:2.0 5:8.0 6:7.0 7:1.0 155:1.0 156:1.0 157:1.0 
0.0 0.0 2.0 0.0 0.0 2:1.0 3:2.0 4:2.0 5:7.0 6:5.0 7:1.0 23:1.0 35:1.0 53:1.0 61:1.0 
2.0 2.0 2.0 2.0 2.0 1:1.0 2:1.0 3:2.0 4:4.0 5:17.0 6:8.0 7:5.0 21:2.0 
2.0 2.0 2.0 0.0 2.0 1:1.0 2:1.0 3:2.0 4:3.0 5:9.0 6:7.0 7:1.0 
0.0 0.0 0.0 0.0 0.004267263864219081 2:1.0 3:2.0 4:1.0 5:8.0 6:8.0 7:1.0 23:1.0 60:1.0 158:1.0 
0.2974296766546699 0.19645590284852066 0.4096274965766736 0.0 0.3432871176859856 2:1.0 3:2.0 4:1.0 5:9.0 6:7.0 7:1.0 14:1.0 17:1.0 120:1.0 127:1.0 159:1.0 160:1.0 
0.039555463956937265 1.1289034373562998 2.0 0.0 0.0 2:1.0 3:2.0 4:2.0 5:6.0 6:4.0 7:2.0 14:1.0 112:1.0 132:1.0 134:1.0 
0.1629250604859287 0.20123604599684689 0.3158849747895074 0.0 0.6001996443474424 2:1.0 3:2.0 4:3.0 5:7.0 6:4.0 7:2.0 123:1.0 161:1.0 162:1.0 
2.0 2.0 2.0 0.43682400754120493 2.0 1:1.0 2:1.0 3:2.0 4:3.0 5:6.0 6:3.0 7:2.0 
2.0 2.0 2.0 0.0 0.0 1:1.0 2:1.0 3:2.0 4:1.0 5:7.0 6:7.0 7:1.0 
2.0 2.0 2.0 2.0 0.8325468724383642 1:1.0 2:1.0 3:2.0 4:1.0 5:5.0 6:5.0 7:1.0 
0.0 0.0 0.42868327270484974 0.0 0.0 3:2.0 4:1.0 5:10.0 6:9.0 7:1.0 11:1.0 13:1.0 53:1.0 
0.5214360920645137 0.37124606732991167 0.6058354402541064 0.0 0.6724372557682342 3:2.0 4:3.0 5:10.0 6:8.0 7:1.0 20:1.0 163:1.0 164:1.0 165:1.0 
2.0 2.0 2.0 0.0 0.0 1:1.0 2:1.0 3:2.0 4:1.0 5:6.0 6:6.0 7:1.0 
2.0 2.0 2.0 0.0 2.0 1:1.0 2:1.0 3:2.0 4:1.0 5:13.0 6:13.0 7:1.0 
0.0 0.7933223179419565 0.0 0.0 0.0 3:2.0 4:2.0 5:3.0 6:2.0 7:1.0 8:1.0 9:1.0 
0.0 0.0 0.0 0.0 0.8129148336494414 3:2.0 4:5.0 5:19.0 6:11.0 7:5.0 11:1.0 13:1.0 
0.19904749585816076 0.505006628824204 0.5890280370852086 0.0 0.6676107926449197 2:1.0 3:2.0 4:1.0 5:11.0 6:8.0 7:3.0 14:1.0 61:1.0 83:1.0 166:1.0 167:1.0 168:1.0 
2.0 2.0 2.0 0.3986460875827022 2.0 1:1.0 2:1.0 3:2.0 4:3.0 5:6.0 6:3.0 7:2.0 
0.0 0.08908062544603115 0.3030128739275711 0.4852608884098918 0.2593448686253879 2:1.0 3:2.0 4:1.0 5:5.0 6:4.0 7:1.0 21:1.0 23:1.0 169:1.0 
0.08258341632542272 0.0 0.0 0.0 0.0 3:2.0 4:1.0 5:4.0 6:4.0 10:1.0 11:1.0 53:1.0 
0.19530187526187137 0.5570788953731602 0.8326816198969114 0.592962064906601 0.7460111220877261 3:2.0 5:7.0 6:7.0 7:1.0 20:1.0 21:1.0 170:1.0 171:1.0 
2.0 2.0 2.0 0.0 2.0 1:1.0 2:1.0 3:2.0 4:4.0 5:10.0 6:7.0 7:1.0 
0.0 0.7891678242530359 0.13113287390321807 0.0 0.0 3:2.0 4:1.0 5:4.0 6:4.0 7:1.0 11:1.0 55:1.0 
0.0 1.367906570087661 0.0 0.0 0.0 3:2.0 4:1.0 5:15.0 6:11.0 7:3.0 11:1.0 13:1.0 53:1.0 172:1.0 
0.0 0.0 0.12160403003606875 0.0 0.0 3:2.0 4:2.0 5:14.0 6:12.0 7:1.0 11:1.0 39:1.0 53:1.0 
1.8914779990949493 0.3808867564179974 0.36900459503953525 0.0 0.23217841752222884 3:2.0 4:1.0 5:9.0 6:8.0 7:1.0 41:1.0 45:1.0 46:1.0 47:1.0 48:1.0 
2.0 2.0 2.0 0.0 2.0 1:1.0 2:1.0 3:2.0 4:1.0 5:13.0 6:13.0 7:1.0 
2.0 2.0 2.0 0.0 1.821728962268475 1:1.0 2:1.0 3:2.0 4:1.0 5:11.0 6:11.0 7:1.0 
0.0 0.7894436681409415 0.0 0.0 0.0 3:2.0 4:2.0 5:6.0 6:5.0 7:1.0 20:1.0 23:1.0 100:1.0 
0.10221223154268838 0.3265722061333296 0.3072596381210499 0.0 0.2547603410320331 3:2.0 4:4.0 5:14.0 6:11.0 7:1.0 20:1.0 39:1.0 153:1.0 173:1.0 174:1.0 175:1.0 
2.0 2.0 2.0 0.8363175294451735 2.0 1:1.0 2:1.0 3:2.0 4:4.0 5:8.0 6:5.0 7:1.0 
0.0 0.12779370508849963 0.034083325360120244 0.0 2.0 3:2.0 4:2.0 5:10.0 6:6.0 7:3.0 8:1.0 9:1.0 54:1.0 
0.0 0.0 0.05929104352427316 0.053917851588964345 0.13951274828457785 3:2.0 4:3.0 5:10.0 6:7.0 7:1.0 20:1.0 21:1.0 23:1.0 114:1.0 176:1.0 177:1.0 
0.0 0.0 0.0 0.0 0.002160742840021774 2:1.0 3:2.0 4:1.0 5:8.0 6:8.0 7:1.0 23:1.0 60:1.0 178:1.0 179:1.0 
0.8554392921558672 0.9592433239481345 0.9996974239964306 0.5311693883561757 0.7259543223465399 2:1.0 3:2.0 4:2.0 5:5.0 6:2.0 7:2.0 14:1.0 21:1.0 180:1.0 181:1.0 
2.0 2.0 2.0 2.0 0.0 1:1.0 2:1.0 3:2.0 4:1.0 5:4.0 6:4.0 7:1.0 
0.0 0.07227218130860075 0.0 0.0 0.0 3:2.0 4:1.0 5:10.0 6:9.0 7:2.0 20:1.0 61:1.0 65:1.0 75:1.0 183:1.0 
1.4509036633780514 0.6064145014871322 0.5069325099808775 0.0 0.0 2:1.0 3:2.0 4:3.0 5:4.0 6:2.0 7:1.0 61:1.0 123:1.0 
0.6918640585596205 0.1698669725536291 0.9465805986002499 0.0 0.42004241531906883 2:1.0 3:2.0 4:2.0 5:11.0 6:9.0 7:2.0 61:1.0 65:1.0 66:1.0 184:1.0 185:1.0 
0.0 0.0 0.4293189268660342 0.0 0.17026694584858867 3:2.0 4:3.0 5:9.0 6:7.0 7:1.0 20:1.0 23:1.0 186:1.0 187:1.0 
0.3463235013425269 0.8208896576403509 2.0 0.0 0.238902734503879 2:1.0 3:2.0 4:3.0 5:9.0 6:7.0 7:1.0 14:1.0 130:1.0 188:1.0 
0.8886769765223014 0.0 0.10259826819108019 0.0 0.0 3:2.0 4:1.0 5:4.0 6:3.0 7:1.0 8:1.0 9:1.0 38:1.0 
0.17331853750241344 0.7892799831973436 0.0 0.0 0.0 3:2.0 4:3.0 5:4.0 6:2.0 7:1.0 11:1.0 63:1.0 
2.0 2.0 2.0 0.0 0.0 1:1.0 2:1.0 3:2.0 4:1.0 5:7.0 6:7.0 7:1.0 
0.0 0.13181348619531247 2.0 0.0 2.0 2:1.0 3:2.0 4:1.0 5:14.0 6:12.0 7:1.0 17:1.0 41:1.0 151:1.0 
0.0 0.6961035190925171 0.0 0.0 0.0 3:2.0 4:1.0 5:9.0 6:9.0 7:1.0 11:1.0 141:1.0 
0.5999141104050322 2.0 2.0 0.0 2.0 2:1.0 3:2.0 4:1.0 5:14.0 6:13.0 7:2.0 151:1.0 
2.0 2.0 2.0 0.004330882033318683 1.4857615233711525 1:1.0 2:1.0 3:2.0 4:1.0 5:10.0 6:8.0 7:1.0 17:2.0 
0.0 0.46715086396228994 0.1301622845173804 0.0 0.0 3:2.0 4:1.0 5:3.0 6:3.0 7:1.0 11:1.0 12:1.0 
2.0 2.0 2.0 0.0 0.0 1:1.0 2:1.0 3:2.0 4:1.0 5:8.0 6:8.0 7:1.0 
0.0 0.0 0.0 0.0 0.09843111938572502 2:1.0 3:2.0 4:1.0 5:7.0 6:7.0 7:1.0 23:1.0 60:1.0 189:1.0 
2.0 2.0 2.0 2.0 2.0 1:1.0 2:1.0 3:2.0 4:3.0 5:7.0 6:5.0 7:1.0 
0.9056342104263765 0.6562030408213273 0.9122751699436608 0.0 0.7494675971983513 2:1.0 3:2.0 4:2.0 5:5.0 6:4.0 7:1.0 190:1.0 191:1.0 
0.0 0.0 0.2598728712593477 0.0 0.041016880312946015 3:2.0 4:6.0 5:11.0 6:5.0 7:2.0 11:1.0 20:1.0 63:1.0 192:1.0 
2.0 2.0 2.0 0.0 0.0 1:1.0 2:1.0 3:2.0 4:1.0 5:8.0 6:8.0 7:1.0 
1.388497331792619 0.2459818922959512 1.912558478571686 0.07524037086935963 1.031251441970588 2:1.0 3:2.0 4:3.0 5:4.0 6:2.0 7:1.0 188:1.0 193:1.0 
0.10820839798919753 0.5191023276830725 1.1063361904772773 0.0 0.4267777037408727 2:1.0 3:2.0 4:1.0 5:8.0 6:6.0 7:1.0 14:1.0 17:1.0 41:1.0 104:1.0 105:1.0 
0.7677709695558941 0.958849315120323 0.99986923098473 0.0 0.9990679980494891 2:1.0 3:2.0 4:3.0 5:8.0 6:5.0 7:2.0 14:1.0 194:1.0 195:1.0 
0.0 0.6038731507242906 0.0 0.0 0.0 3:2.0 4:1.0 5:10.0 6:8.0 7:2.0 10:1.0 11:1.0 14:1.0 20:1.0 21:1.0 28:1.0 
0.0 0.0 0.0 0.0 0.3605250854364387 2:1.0 3:2.0 4:5.0 5:14.0 6:7.0 7:3.0 21:1.0 23:1.0 61:1.0 110:1.0 196:1.0 197:1.0 198:1.0 
-0.0 0.0 0.0 0.0 0.1263335166877144 2:1.0 3:2.0 4:4.0 5:11.0 6:7.0 7:2.0 196:1.0 199:1.0 200:1.0 201:1.0 
-0.19933406759694933 0.002769688235370333 0.03175142021228817 0.49879014371998065 0.008165863583124332 3:2.0 4:3.0 5:9.0 6:6.0 7:1.0 20:1.0 21:1.0 199:1.0 203:1.0 204:1.0 
-2.0 2.0 2.0 0.0 0.0 1:1.0 2:1.0 3:2.0 4:2.0 5:6.0 6:5.0 7:1.0 
-0.08508254432935508 0.08783745343004676 1.1632383283177599 0.0 0.21301117359294014 2:1.0 3:2.0 4:3.0 5:10.0 6:8.0 7:1.0 106:1.0 208:1.0 209:1.0 
-0.270399635349143 0.573849926045795 0.63006296970624 0.0 0.39099955835493655 2:1.0 3:2.0 4:3.0 5:9.0 6:7.0 7:1.0 14:1.0 214:1.0 215:1.0 216:1.0 
-0.2805223686685545 0.4721889072141812 1.1251628349955305 0.0 0.9415754176555681 2:1.0 3:2.0 4:2.0 5:9.0 6:7.0 7:2.0 14:1.0 112:1.0 218:1.0 221:1.0 222:1.0 
-0.14009880273664652 0.0 0.5733919353654593 0.0 0.35653878946874995 2:1.0 3:2.0 4:1.0 5:7.0 6:6.0 7:1.0 41:1.0 223:1.0 224:1.0 
-0.022556966675596545 0.32896443454801083 0.5216034093457343 0.0 0.3561178077202063 2:1.0 3:2.0 4:1.0 5:5.0 6:5.0 7:1.0 228:1.0 229:1.0 
-0.0 0.0 1.2405191521539016 0.0 0.5010411460403285 2:1.0 3:2.0 4:3.0 5:9.0 6:6.0 7:2.0 14:1.0 61:1.0 66:1.0 76:1.0 
-2.0 2.0 2.0 0.0 2.0 1:1.0 2:1.0 3:2.0 4:2.0 5:10.0 6:7.0 7:1.0 21:1.0 53:1.0 
-0.04951921759859461 0.0 0.0 0.0 0.0 3:2.0 4:3.0 5:13.0 6:10.0 7:1.0 21:1.0 26:1.0 48:1.0 237:1.0 238:1.0 239:1.0 
-2.0 2.0 2.0 0.06750369292828566 0.0 1:1.0 2:1.0 3:2.0 4:2.0 5:6.0 6:5.0 7:1.0 
-0.983543207549731 0.13072158489058747 0.0 0.0 0.02811420387156681 3:2.0 4:1.0 5:10.0 6:8.0 7:3.0 32:1.0 48:1.0 188:1.0 
-2.0 2.0 2.0 0.0 2.0 1:1.0 2:1.0 3:2.0 4:2.0 5:11.0 6:10.0 7:1.0 
-0.0 0.0 2.0 0.0 0.0 2:1.0 3:2.0 4:6.0 5:10.0 6:5.0 7:1.0 14:1.0 199:1.0 242:1.0 
-0.0 0.03654157472450719 0.06417319346612083 0.0 0.0 3:2.0 4:3.0 5:7.0 6:5.0 7:1.0 20:1.0 199:1.0 243:1.0 
-0.042645301852384514 0.1668982554432112 1.1508423488159745 0.0 0.5363179073548062 2:1.0 3:2.0 4:1.0 5:8.0 6:7.0 7:1.0 245:1.0 246:1.0 247:1.0 
-0.13607548469935943 0.0 0.5753272446781488 0.0 0.4569223822935877 2:1.0 3:2.0 4:2.0 5:8.0 6:6.0 7:1.0 41:1.0 245:1.0 248:1.0 249:1.0 
-2.0 2.0 2.0 0.0 2.0 1:1.0 2:1.0 3:2.0 4:1.0 5:10.0 6:8.0 7:1.0 17:1.0 41:1.0 
-2.0 2.0 2.0 0.0 2.0 1:1.0 2:1.0 3:2.0 4:3.0 5:7.0 6:4.0 7:2.0 
-0.6788035821411263 0.21417673407158175 0.4560380974984403 0.0 0.5262812536063222 2:1.0 3:2.0 4:3.0 5:14.0 6:10.0 7:2.0 17:1.0 61:1.0 250:1.0 251:1.0 252:1.0 
-2.0 2.0 2.0 0.0 2.0 1:1.0 2:1.0 3:2.0 4:3.0 5:7.0 6:4.0 7:2.0 
-2.0 2.0 2.0 2.0 2.0 1:1.0 2:1.0 3:2.0 4:1.0 5:7.0 6:6.0 7:2.0 
-0.31591544302383234 0.568734568262093 0.6300944050144212 0.0 0.40211772466817175 2:1.0 3:2.0 4:3.0 5:10.0 6:8.0 7:1.0 14:1.0 256:1.0 257:1.0 258:1.0 
-0.12964336638072652 0.0 0.0 0.0 0.0 3:2.0 4:1.0 5:11.0 6:10.0 7:1.0 21:1.0 26:1.0 48:1.0 259:1.0 260:1.0 
-0.0 0.11767888248676653 0.4627311333722439 0.0 0.6084496813549194 2:1.0 3:2.0 4:5.0 5:9.0 6:5.0 7:1.0 265:1.0 266:1.0 267:1.0 
-0.22980997204323836 0.28460235788515553 0.22090151053352708 0.029715746593455626 0.200950693936883 3:2.0 4:2.0 5:5.0 6:4.0 7:1.0 20:1.0 244:1.0 269:1.0 
-0.0 0.0 0.40791487165472234 0.0 0.0 3:2.0 4:2.0 5:9.0 6:7.0 7:1.0 21:1.0 26:1.0 48:1.0 271:1.0 272:1.0 
-1.3150060716321517 0.6783421021564054 0.06430876436797567 0.0 0.0 2:1.0 3:2.0 4:2.0 5:6.0 6:4.0 7:2.0 14:1.0 76:1.0 112:1.0 133:1.0 
-0.15973521417430772 0.9113004439936346 1.6399761760737308 0.0 0.4868723408436006 2:1.0 3:2.0 4:2.0 5:4.0 6:3.0 7:1.0 14:1.0 281:1.0 282:1.0 
-0.6295325935428104 1.0427029985135943 1.6961043802268916 0.060075608420498104 2.0 3:2.0 4:1.0 5:3.0 6:3.0 7:1.0 20:1.0 283:1.0 
-0.0 0.0 0.21927452412102127 0.0 0.05192498611844203 2:1.0 3:2.0 4:4.0 5:8.0 6:4.0 7:1.0 41:1.0 199:1.0 284:1.0 285:1.0 
-0.0 0.0 0.0 1.4231010720677526 0.22308949655576485 2:1.0 3:2.0 4:2.0 5:14.0 6:5.0 7:2.0 21:6.0 53:1.0 205:1.0 286:1.0 287:1.0 288:1.0 289:1.0 
-0.0 0.2856870179093229 1.2711232569766893 0.0 0.9793361757825079 2:1.0 3:2.0 4:2.0 5:4.0 6:3.0 7:1.0 291:1.0 292:1.0 
-2.0 2.0 2.0 0.0 0.0 1:1.0 2:1.0 3:2.0 4:2.0 5:7.0 6:6.0 7:1.0 
-0.0 0.0 0.07954228144448726 0.0 0.0 2:1.0 3:2.0 4:2.0 5:8.0 6:7.0 7:1.0 199:1.0 293:1.0 294:1.0 
-2.0 2.0 2.0 0.0 0.0 1:1.0 2:1.0 3:2.0 4:2.0 5:7.0 6:6.0 7:1.0 
-2.0 2.0 2.0 1.8684304842687696 1.3755616480616795 1:1.0 2:1.0 3:2.0 4:3.0 5:6.0 6:4.0 7:1.0 
-2.0 2.0 2.0 0.0 2.0 1:1.0 2:1.0 3:2.0 4:1.0 5:8.0 6:8.0 7:1.0 
-2.0 2.0 2.0 0.0 2.0 1:1.0 2:1.0 3:2.0 4:2.0 5:9.0 6:8.0 7:1.0 
-0.0 0.09392560899224198 0.0 0.0 0.0 3:2.0 4:2.0 5:4.0 6:3.0 7:1.0 48:1.0 300:1.0 301:1.0 
-2.0 2.0 2.0 0.4065795509244033 2.0 1:1.0 2:1.0 3:2.0 4:2.0 5:14.0 6:13.0 7:1.0 
-0.16167461155274618 1.7678393198367799 2.0 0.0 0.1710961893529371 2:1.0 3:2.0 4:3.0 5:6.0 6:4.0 7:1.0 14:1.0 274:1.0 
-0.0 0.0 0.0 0.0 0.3936141190729215 3:2.0 4:1.0 5:8.0 6:7.0 7:2.0 48:1.0 221:1.0 302:1.0 
-2.0 2.0 2.0 2.0 0.0 1:1.0 2:1.0 3:2.0 4:1.0 5:6.0 6:6.0 7:1.0 
-0.0 0.0 0.0 0.0 0.20623017515966544 2:1.0 3:2.0 4:5.0 5:10.0 6:5.0 7:2.0 126:1.0 266:1.0 307:1.0 
-0.4669227773964427 0.09986861320127821 0.3359421222403202 0.0 1.0959328949729925 2:1.0 3:2.0 4:1.0 5:27.0 6:22.0 7:6.0 242:1.0 308:1.0 309:1.0 310:1.0 311:1.0 
-0.0 0.0 0.006682573954820245 0.0 0.0 2:1.0 3:2.0 4:1.0 5:6.0 6:4.0 7:1.0 38:1.0 41:1.0 126:1.0 312:1.0 
-0.0 0.03259656802360056 0.0 0.0 0.0 3:2.0 4:1.0 5:3.0 6:3.0 7:1.0 48:1.0 313:1.0 
-0.0 0.0 0.14066605041580485 0.0 0.19297650969539687 2:1.0 3:2.0 4:3.0 5:6.0 6:4.0 7:1.0 274:1.0 314:1.0 
-0.4260706441113923 2.0 0.0 0.0 0.0 1:1.0 3:2.0 4:3.0 5:11.0 6:9.0 7:1.0 48:1.0 
-0.0 0.0325753812943636 0.0 0.0 0.0 3:2.0 4:1.0 5:3.0 6:3.0 7:1.0 48:1.0 315:1.0 
-0.0 0.0 0.0 0.0 0.4753519139413914 3:2.0 4:3.0 5:8.0 6:4.0 7:3.0 205:1.0 299:1.0 316:1.0 
-0.0 0.15107397924076912 0.0 0.0 0.0 2:1.0 3:2.0 4:1.0 5:8.0 6:5.0 7:2.0 53:2.0 126:1.0 317:1.0 318:1.0 
-0.0 0.0 0.08972028772301703 0.0 0.07143507770401784 2:1.0 3:2.0 4:2.0 5:5.0 6:4.0 7:1.0 244:1.0 319:1.0 
-2.0 2.0 2.0 1.6525237258493712 2.0 1:1.0 2:1.0 3:2.0 4:1.0 5:10.0 6:9.0 7:2.0 
-0.0 0.0 0.0 0.0 0.08535266218805462 2:1.0 3:2.0 4:3.0 5:7.0 6:5.0 7:1.0 244:1.0 321:1.0 322:1.0 
-0.2394984584491826 0.33020052803813965 0.5898600059200821 0.0 0.3050341671774425 2:1.0 3:2.0 4:5.0 5:10.0 6:4.0 7:2.0 14:1.0 61:1.0 120:1.0 324:1.0 325:1.0 326:1.0 
-0.28600472993789905 0.0 0.0 0.0 0.0 3:2.0 4:1.0 5:12.0 6:12.0 7:1.0 48:1.0 327:1.0 328:1.0 
-2.0 2.0 2.0 0.0 2.0 1:1.0 2:1.0 3:2.0 4:2.0 5:9.0 6:8.0 7:1.0 
-0.050874158360861774 0.0 0.0 0.0 0.0 3:2.0 4:5.0 5:13.0 6:7.0 7:1.0 17:1.0 21:1.0 26:1.0 48:1.0 233:1.0 336:1.0 337:1.0 338:1.0 
-0.0 0.09224100712044235 0.0 0.0 0.0 3:2.0 4:3.0 5:10.0 6:5.0 7:3.0 21:1.0 26:1.0 48:1.0 339:1.0 340:1.0 
-0.2965467790105966 0.8956795170859171 0.9451560356832318 0.0 0.5201137698232874 2:1.0 3:2.0 4:2.0 5:6.0 6:5.0 7:1.0 14:1.0 220:1.0 341:1.0 
-0.0 0.009093202335894536 0.0 0.0 0.0 3:2.0 4:2.0 5:3.0 6:2.0 7:1.0 48:1.0 343:1.0 
-0.363731033808004 0.4910565776754551 0.8404182854693081 0.029383609346079757 1.7525616155220947 3:2.0 4:3.0 5:6.0 6:4.0 7:1.0 20:1.0 349:1.0 350:1.0 
-2.0 2.0 2.0 0.006256866101427189 0.0 1:1.0 2:1.0 3:2.0 4:1.0 5:7.0 6:7.0 7:1.0 
-0.0 0.03939414360261094 0.0 0.0 0.0 3:2.0 4:1.0 5:11.0 6:8.0 7:2.0 21:1.0 26:1.0 48:1.0 53:1.0 352:1.0 353:1.0 
-0.0 2.0 2.0 0.0 0.6445836988491035 1:1.0 2:1.0 3:2.0 4:1.0 5:9.0 6:8.0 7:1.0 53:1.0 
-0.0 0.01700876560799943 0.0 0.0 0.0 3:2.0 4:1.0 5:4.0 6:4.0 7:1.0 48:1.0 356:1.0 
-0.32332346493738745 0.5247288588924639 1.0296663882402874 0.0 0.31328908303920655 2:1.0 3:2.0 4:2.0 5:7.0 6:5.0 7:2.0 14:1.0 42:1.0 185:1.0 244:1.0 
-0.0 0.0 0.0 0.0 0.1723726682362995 3:2.0 4:5.0 5:8.0 6:4.0 7:1.0 48:1.0 71:1.0 161:1.0 333:1.0 
-0.25605462362592907 0.0 0.5224834638876827 0.0 0.2967711680263716 2:1.0 3:2.0 4:1.0 5:8.0 6:7.0 7:1.0 41:1.0 126:1.0 175:1.0 276:1.0 
-2.0 2.0 2.0 2.0 0.0 1:1.0 2:1.0 3:2.0 4:1.0 5:4.0 6:4.0 7:1.0 
-0.3794920437314345 0.07851118235610112 0.0 0.0 0.0 2:1.0 3:2.0 4:3.0 5:9.0 6:6.0 7:2.0 47:1.0 199:1.0 245:1.0 291:1.0 
-0.29651174339885666 0.8956917344315949 1.2704341627711857 0.0 0.5201126792238289 2:1.0 3:2.0 4:2.0 5:6.0 6:5.0 7:1.0 14:1.0 29:1.0 367:1.0 
-0.25879430916158436 0.20983043093093692 0.7638201893628748 0.0 0.22947462201367563 2:1.0 3:2.0 4:1.0 5:6.0 6:6.0 7:1.0 261:1.0 368:1.0 
-0.0 2.0 0.0 0.0 0.0 1:1.0 3:2.0 4:3.0 5:8.0 6:6.0 7:1.0 48:1.0 
-0.0 0.0 0.06212194509365826 0.0 0.0 2:1.0 3:2.0 4:2.0 5:10.0 6:9.0 7:1.0 205:1.0 254:1.0 369:1.0 
-0.0 0.0 0.0 0.0 0.12602789738477982 2:1.0 3:2.0 4:6.0 5:9.0 6:4.0 7:1.0 199:1.0 359:1.0 371:1.0 372:1.0 
-2.0 2.0 2.0 0.10350451335367915 2.0 1:1.0 2:1.0 3:2.0 4:3.0 5:7.0 6:4.0 7:2.0 
-0.0 0.05772292758409557 0.0 0.0 0.0 3:2.0 4:2.0 5:7.0 6:5.0 7:2.0 48:1.0 373:1.0 374:1.0 
-2.0 2.0 2.0 0.0 2.0 1:1.0 2:1.0 3:2.0 4:3.0 5:13.0 6:11.0 7:1.0 
-2.0 2.0 2.0 0.5594623739613821 2.0 1:1.0 2:1.0 3:2.0 4:3.0 5:7.0 6:4.0 7:2.0 
-2.0 2.0 2.0 0.0 2.0 2:1.0 3:2.0 4:4.0 5:9.0 6:5.0 7:1.0 17:1.0 151:1.0 
-2.0 2.0 2.0 2.0 0.0 1:1.0 2:1.0 3:2.0 4:2.0 5:6.0 6:5.0 7:1.0 
-0.13336371000610997 0.07810455862039656 0.513866266623205 0.0 0.4406680286458719 2:1.0 3:2.0 4:4.0 5:8.0 6:5.0 7:1.0 19:1.0 375:1.0 
-0.0 0.0 0.0 0.0 0.295823497557093 2:1.0 3:2.0 4:4.0 5:11.0 6:7.0 7:2.0 199:1.0 266:1.0 359:1.0 376:1.0 
-0.0 0.0 0.0 0.0 0.0034458725752018198 2:1.0 3:2.0 4:4.0 5:11.0 6:6.0 7:3.0 66:1.0 205:1.0 377:1.0 378:1.0 
-0.0 0.0 0.3211863498166685 0.0 0.9060271140127151 2:1.0 3:2.0 4:3.0 5:9.0 6:6.0 7:1.0 71:1.0 102:1.0 199:1.0 290:1.0 
-0.26491222638313977 0.23268903259350507 0.8622444131851912 0.011451802209504496 0.6007139183484969 3:2.0 4:3.0 5:7.0 6:5.0 7:1.0 20:1.0 347:1.0 379:1.0 380:1.0 
-2.0 2.0 2.0 2.0 2.0 1:1.0 2:1.0 3:2.0 4:3.0 5:6.0 6:4.0 7:1.0 
-0.0 1.9855300173235415 0.0 0.0 0.0 3:2.0 4:3.0 5:3.0 6:1.0 7:1.0 48:1.0 345:1.0 
-0.0 0.0170007672306596 0.0 0.0 0.0 3:2.0 4:1.0 5:4.0 6:4.0 7:1.0 48:1.0 381:1.0 
-2.0 2.0 2.0 0.0 2.0 1:1.0 2:1.0 3:2.0 4:3.0 5:11.0 6:9.0 7:1.0 
-0.0 0.04175010834691325 0.0 0.0 0.0530834823438515 3:2.0 4:5.0 5:14.0 6:7.0 7:3.0 21:1.0 26:1.0 48:1.0 175:1.0 302:1.0 382:1.0 383:1.0 
-0.0 0.1006760178862552 0.0 0.0 0.4554490532124306 2:1.0 3:2.0 4:5.0 5:12.0 6:7.0 7:1.0 14:1.0 17:1.0 205:1.0 385:1.0 386:1.0 
-0.2168066225691627 0.18438454555953765 0.6689562312181279 0.0 0.8859826918327127 2:1.0 3:2.0 4:6.0 5:14.0 6:9.0 7:1.0 388:1.0 389:1.0 390:1.0 
-0.0 0.22291481020926085 0.0 0.0 0.0 3:2.0 4:2.0 5:6.0 6:5.0 7:1.0 48:1.0 189:1.0 392:1.0 
-0.13316439503120933 0.0 0.5166599868536718 0.015767781503350134 0.0 3:2.0 4:4.0 5:6.0 6:3.0 7:1.0 20:1.0 114:1.0 265:1.0 274:1.0 
-0.0 0.0 0.0 0.0 0.061876856535337976 2:1.0 3:2.0 4:7.0 5:11.0 6:3.0 7:3.0 205:1.0 393:3.0 
-0.0 0.07684419495069644 0.0 0.0 0.0 3:2.0 4:3.0 5:12.0 6:9.0 7:2.0 48:1.0 394:1.0 395:1.0 
-0.0 0.0 0.0 0.0 2.0 2:1.0 3:2.0 4:5.0 5:7.0 6:3.0 7:1.0 232:1.0 397:1.0 
-2.0 2.0 2.0 0.0 2.0 1:1.0 2:1.0 3:2.0 4:3.0 5:11.0 6:9.0 7:1.0 
-0.24182205004271043 0.19422105685672267 0.7798878499608887 0.0 0.5746928347029151 3:2.0 4:1.0 5:5.0 6:5.0 7:1.0 299:1.0 398:1.0 399:1.0 
-0.6739119452016752 2.0 2.0 0.420289783227518 0.0 1:1.0 2:1.0 3:2.0 4:1.0 5:8.0 6:6.0 7:1.0 21:1.0 53:1.0 
-2.0 2.0 2.0 2.0 0.0 1:1.0 2:1.0 3:2.0 4:2.0 5:5.0 6:4.0 7:1.0 
-0.06135431789262283 0.0 0.0 0.0 0.0 3:2.0 4:1.0 5:10.0 6:9.0 7:1.0 21:1.0 26:1.0 48:1.0 403:1.0 404:1.0 
-0.1376447334486885 0.1516342036917646 0.18277431033371822 0.0 0.0 2:1.0 3:2.0 4:2.0 5:4.0 6:3.0 7:1.0 132:1.0 406:1.0 
-0.0 2.0 0.0 0.0 0.0 1:1.0 3:2.0 4:1.0 5:4.0 6:4.0 7:1.0 48:1.0 
-0.23581250915157895 0.010777477712752932 0.0 0.0 0.0 3:2.0 4:1.0 5:12.0 6:10.0 7:2.0 21:1.0 25:1.0 26:1.0 48:1.0 407:1.0 408:1.0 
-0.20217565139215019 2.0 2.0 2.0 0.0 1:1.0 2:1.0 3:2.0 4:2.0 5:4.0 6:3.0 7:1.0 
-0.09164911569000754 0.0 0.0 0.0 0.0 2:1.0 3:2.0 4:3.0 5:9.0 6:5.0 7:2.0 41:1.0 61:1.0 199:1.0 312:1.0 345:1.0 
-0.0644422165130475 0.17034205789402038 0.35151460943952123 0.0 0.7518648965521182 2:1.0 3:2.0 4:4.0 5:15.0 6:8.0 7:3.0 17:1.0 53:1.0 410:1.0 411:1.0 412:1.0 413:1.0 414:1.0 
-0.13337286988915245 0.0781221444776927 1.8708829998845018 0.0 0.44067548899002246 2:1.0 3:2.0 4:4.0 5:8.0 6:5.0 7:1.0 19:1.0 418:1.0 
-2.0 2.0 2.0 0.0 2.0 1:1.0 2:1.0 3:2.0 4:3.0 5:9.0 6:6.0 7:2.0 
-2.0 2.0 2.0 2.0 2.0 1:1.0 2:1.0 3:2.0 4:3.0 5:7.0 6:4.0 7:2.0 
-0.05497065254817568 0.0 0.0 0.0 0.019218729133613822 2:1.0 3:2.0 4:3.0 5:18.0 6:15.0 7:2.0 31:1.0 205:1.0 233:1.0 419:1.0 420:1.0 421:1.0 
-0.2636631525065851 0.20384889389703467 0.6502293346967253 0.0 0.5610311501344132 2:1.0 3:2.0 4:1.0 5:8.0 6:8.0 7:1.0 422:1.0 423:1.0 424:1.0 
-9.913262218850646E-4 0.16717511865323717 0.18288383746889342 0.0 0.0 2:1.0 3:2.0 4:2.0 5:3.0 6:2.0 7:1.0 132:1.0 400:1.0 
-0.08122300787669767 0.0 0.0 0.0 0.0 3:2.0 4:1.0 5:9.0 6:9.0 7:1.0 48:1.0 425:1.0 426:1.0 
-0.0 2.0 1.1675278492832069 0.0 0.0 1:1.0 3:2.0 4:1.0 5:4.0 6:4.0 7:1.0 48:1.0 
-0.0 0.08278198889591405 0.0 0.0 0.0 3:2.0 4:2.0 5:6.0 6:5.0 7:1.0 20:1.0 205:1.0 427:1.0 
-0.04099604569804359 0.042545177125357034 0.15760620860552746 0.0 1.1904769813372764 2:1.0 3:2.0 4:3.0 5:7.0 6:4.0 7:1.0 318:1.0 428:1.0 429:1.0 
-0.0 0.4951291388735725 0.0 0.0 0.0 3:2.0 4:3.0 5:6.0 6:3.0 7:2.0 48:1.0 225:1.0 296:1.0 430:1.0 
-0.0 1.001382474655932 0.0 0.0 0.0 3:2.0 4:3.0 5:7.0 6:5.0 7:1.0 48:1.0 201:1.0 431:1.0 
-0.0 0.09753810243754858 0.006201839039691127 0.0 0.0 2:1.0 3:2.0 4:3.0 5:6.0 6:4.0 7:1.0 126:1.0 432:1.0 
-0.0 0.3591736164234831 0.7108274926604661 0.011740356585993487 0.7647686454096952 3:2.0 4:5.0 5:8.0 6:4.0 7:1.0 20:1.0 114:1.0 126:1.0 335:1.0 
-0.0 0.151952059880228 0.07854824308638593 0.0 0.009151417343443272 2:1.0 3:2.0 4:1.0 5:9.0 6:9.0 7:1.0 205:1.0 433:1.0 434:1.0 435:1.0 
-2.0 2.0 2.0 0.0 2.0 1:1.0 2:1.0 3:2.0 4:1.0 5:8.0 6:8.0 7:1.0 
-0.6545011078571924 0.24077952187902568 0.22384749968416864 0.0 0.0 3:2.0 4:1.0 5:10.0 6:10.0 7:1.0 20:1.0 45:1.0 205:1.0 360:1.0 
-0.0 0.0 0.08653943904985767 0.0 0.05711509621230045 2:1.0 3:2.0 4:5.0 5:11.0 6:7.0 7:1.0 329:1.0 436:1.0 437:1.0 438:1.0 
-0.1211958695407151 0.0 0.5402312391052865 0.0 0.5074212087771404 2:1.0 3:2.0 4:3.0 5:12.0 6:10.0 7:1.0 66:1.0 440:1.0 441:1.0 
-0.17693874854357514 0.6926222711792933 2.0 0.0 1.024359937980936 2:1.0 3:2.0 4:1.0 5:9.0 6:8.0 7:2.0 14:1.0 42:1.0 66:1.0 442:1.0 
-0.0 0.12031929863250536 0.0 0.0 0.7917689252159775 3:2.0 4:5.0 5:19.0 6:10.0 7:5.0 21:1.0 26:1.0 48:1.0 238:1.0 443:1.0 444:1.0 445:1.0 
-0.0 0.0 0.08975763342019027 0.0 0.0 2:1.0 3:2.0 4:3.0 5:5.0 6:3.0 7:1.0 244:1.0 393:1.0 
-2.0 2.0 2.0 0.0 2.0 1:1.0 2:1.0 3:2.0 4:2.0 5:11.0 6:10.0 7:1.0 
-0.0 0.05203014626458723 0.9066713855983572 0.0 0.0 3:2.0 4:3.0 5:6.0 6:4.0 7:1.0 20:1.0 199:1.0 323:1.0 
-0.0 2.0 2.0 0.0 2.0 1:1.0 2:1.0 3:2.0 4:3.0 5:7.0 6:3.0 7:2.0 38:1.0 
-0.532032893235076 0.46083161093559555 2.0 0.0 2.0 2:1.0 3:2.0 4:1.0 5:10.0 6:10.0 7:1.0 335:1.0 456:1.0 
-0.0 0.3056805758050352 0.5217654263926155 0.0 0.9888957186835835 2:1.0 3:2.0 4:3.0 5:7.0 6:3.0 7:3.0 457:1.0 458:1.0 459:1.0 
-0.0 0.0 0.5706159579942948 0.0 0.21052402621514066 2:1.0 3:2.0 4:3.0 5:8.0 6:6.0 7:1.0 301:1.0 329:1.0 461:1.0 
-0.0 0.0 0.2637706114419312 0.0 0.16776661169526652 2:1.0 3:2.0 4:3.0 5:8.0 6:4.0 7:2.0 38:1.0 61:1.0 398:1.0 462:1.0 463:1.0 
-2.0 2.0 2.0 0.0 2.0 1:1.0 2:1.0 3:2.0 4:3.0 5:10.0 6:8.0 7:1.0 
-0.15412390653283697 0.21207973522494428 0.6451319296469654 0.0 0.5863597828325903 2:1.0 3:2.0 4:2.0 5:7.0 6:6.0 7:1.0 372:1.0 466:1.0 467:1.0 
-0.0 0.0 0.0 0.0 0.11109279748442735 2:1.0 3:2.0 4:4.0 5:9.0 6:6.0 7:1.0 266:1.0 274:1.0 468:1.0 
-0.0 0.3998765545792809 0.06432961985410561 0.0 0.0 2:1.0 3:2.0 4:2.0 5:6.0 6:4.0 7:2.0 14:1.0 76:1.0 112:1.0 210:1.0 
-0.0 0.2688204837459045 1.0835022395873577 0.0 0.2224671807801057 2:1.0 3:2.0 4:3.0 5:9.0 6:6.0 7:1.0 53:1.0 87:1.0 428:1.0 
-0.03245061266794357 0.04869991245121765 0.0 0.0 0.0 3:2.0 4:1.0 5:16.0 6:11.0 7:3.0 21:1.0 26:1.0 48:1.0 82:2.0 316:1.0 357:1.0 470:1.0 
-0.4250240729285322 0.48565611210390125 0.688097620167901 0.0 0.8412119696856224 2:1.0 3:2.0 4:2.0 5:8.0 6:6.0 7:1.0 14:1.0 17:1.0 208:1.0 359:1.0 471:1.0 
-0.0 2.0 0.0 0.0 0.0 1:1.0 3:2.0 4:3.0 5:8.0 6:6.0 7:1.0 48:1.0 
-0.12630732041399706 0.0 0.0 0.0 0.0 2:1.0 3:2.0 4:3.0 5:8.0 6:5.0 7:1.0 17:1.0 180:1.0 205:1.0 478:1.0 479:1.0 
-0.1293888348286083 0.0 0.01552378236706264 0.0 0.0 2:1.0 3:2.0 4:4.0 5:16.0 6:13.0 7:1.0 108:1.0 199:1.0 480:1.0 481:1.0 
-0.0 0.0 0.11032422073275693 0.0 0.0 2:1.0 3:2.0 4:3.0 5:7.0 6:4.0 7:1.0 17:1.0 31:1.0 205:1.0 482:1.0 
-0.8038411998466787 0.0 0.3172135732228922 0.0 0.3863344049868778 2:1.0 3:2.0 4:5.0 5:12.0 6:7.0 7:2.0 19:1.0 61:1.0 484:1.0 
-2.0 2.0 2.0 0.0 1.2439357940760645 1:1.0 2:1.0 3:2.0 4:2.0 5:7.0 6:6.0 7:1.0 
-0.06811893162005621 0.0 0.332755023723497 0.0 0.4639002812919803 2:1.0 3:2.0 4:3.0 5:10.0 6:8.0 7:1.0 485:1.0 486:1.0 487:1.0 
-2.0 2.0 2.0 0.0 2.0 1:1.0 2:1.0 3:2.0 4:3.0 5:16.0 6:14.0 7:1.0 
-0.15710824257928563 0.0 0.15300267044745613 0.0 0.20134485786600173 2:1.0 3:2.0 4:5.0 5:11.0 6:6.0 7:1.0 17:1.0 126:1.0 294:1.0 489:1.0 
-0.0 0.0 0.00419417198903695 0.0 0.0 2:1.0 3:2.0 4:4.0 5:8.0 6:5.0 7:1.0 196:1.0 199:1.0 227:1.0 
-0.18621260455961372 0.3420893619595881 0.13736577367782113 0.007392259655218869 0.0 3:2.0 4:1.0 5:7.0 6:7.0 20:1.0 38:1.0 126:1.0 491:1.0 
-0.0 0.015157402691669503 0.19804609153336597 0.0 0.0 2:1.0 3:2.0 4:2.0 5:16.0 6:14.0 7:2.0 14:1.0 112:1.0 199:1.0 221:1.0 321:1.0 360:1.0 492:1.0 
-0.0 0.0 0.0 0.0 2.0 2:1.0 3:2.0 4:4.0 5:8.0 6:4.0 7:2.0 242:1.0 244:1.0 
-0.23789283755803092 0.0 0.0 0.0 0.0 2:1.0 3:2.0 4:4.0 5:10.0 6:6.0 7:1.0 41:1.0 126:1.0 185:1.0 493:1.0 
-0.0 0.20619910376313513 0.7142734987280112 0.0 0.8942295704871414 2:1.0 3:2.0 4:5.0 5:15.0 6:7.0 7:3.0 17:1.0 35:1.0 53:1.0 122:1.0 208:1.0 494:1.0 
-0.8718745402893752 1.360169963221818 1.69288129451714 0.0 2.0 2:1.0 3:2.0 4:4.0 5:7.0 6:4.0 7:1.0 14:1.0 61:1.0 232:1.0 
-2.0 2.0 2.0 0.0 2.0 1:1.0 2:1.0 3:2.0 4:2.0 5:8.0 6:7.0 7:1.0 
-2.0 2.0 2.0 0.0 1.7976912622675718 1:1.0 2:1.0 3:2.0 4:1.0 5:9.0 6:8.0 7:1.0 38:1.0 
-2.0 2.0 2.0 1.4477911877711107 2.0 1:1.0 2:1.0 3:2.0 4:3.0 5:11.0 6:7.0 7:3.0 
-0.0 0.12816934022981688 0.18288094696933144 0.0 0.02453099129140241 2:1.0 3:2.0 4:3.0 5:4.0 6:2.0 7:1.0 132:1.0 334:1.0 
-2.0 2.0 2.0 0.0 0.3044026275112487 1:1.0 2:1.0 3:2.0 4:1.0 5:8.0 6:7.0 7:1.0 41:1.0 
-0.0 0.2823809295591056 0.0 0.0 0.0 3:2.0 4:1.0 5:9.0 6:8.0 7:1.0 20:1.0 38:1.0 205:1.0 507:1.0 508:1.0 
-2.0 2.0 2.0 2.0 0.0 1:1.0 2:1.0 3:2.0 4:2.0 5:5.0 6:4.0 7:1.0 
-2.0 2.0 2.0 2.0 1.4134530684668534 1:1.0 2:1.0 3:2.0 4:1.0 5:7.0 6:6.0 7:1.0 21:1.0 
-0.10152882128305615 0.14888842653862377 0.36723663136252954 0.0 0.558955644722295 2:1.0 3:2.0 4:3.0 5:8.0 6:6.0 7:1.0 266:1.0 515:1.0 516:1.0 
-2.0 2.0 2.0 0.5459387469951985 0.0 1:1.0 2:1.0 3:2.0 4:1.0 5:7.0 6:7.0 7:1.0 
-0.0 0.0 0.006145546266811297 0.0 0.0 2:1.0 3:2.0 4:4.0 5:7.0 6:3.0 7:1.0 41:1.0 126:1.0 518:1.0 
-2.0 2.0 2.0 2.0 0.0 1:1.0 2:1.0 3:2.0 4:2.0 5:6.0 6:5.0 7:1.0 
-0.0 0.0 0.09637054262256466 0.0 0.1587105131801202 3:2.0 4:4.0 5:8.0 6:5.0 7:1.0 20:1.0 199:1.0 522:1.0 
-0.07175776917197153 0.10598960693103704 0.0 0.0 0.02234148462606552 2:1.0 3:2.0 4:3.0 5:11.0 6:9.0 7:1.0 14:1.0 192:1.0 283:1.0 326:1.0 
-0.0 0.017013250943138596 0.0 0.0 0.0 3:2.0 4:1.0 5:4.0 6:4.0 7:1.0 48:1.0 523:1.0 
-0.0 1.7653580792516337 1.7372069343471261 0.0 0.32120729113558016 2:1.0 3:2.0 4:3.0 5:5.0 6:3.0 7:1.0 329:1.0 526:1.0 
-0.0808438159523562 0.0857977602676267 0.3667911196553129 0.0 0.4300673077037002 2:1.0 3:2.0 4:4.0 5:13.0 6:9.0 7:1.0 53:1.0 59:1.0 132:1.0 189:1.0 527:1.0 528:1.0 
-2.0 2.0 2.0 0.0 2.0 1:1.0 2:1.0 3:2.0 4:3.0 5:17.0 6:14.0 7:1.0 38:1.0 
-0.36250015088871945 0.3398780791951655 0.07263024809027754 0.0 0.5918478655671092 2:1.0 3:2.0 4:4.0 5:8.0 6:4.0 7:2.0 31:1.0 46:1.0 99:1.0 
-0.25333955515376533 0.32884367125222974 0.39222179573887206 0.0 0.2588103419655109 2:1.0 3:2.0 4:4.0 5:15.0 6:11.0 7:1.0 14:1.0 83:1.0 534:1.0 535:1.0 536:1.0 537:1.0 538:1.0 
-0.3798323238279308 0.1077022603213942 0.1466595541188211 0.00867045083621609 0.39875438089854665 3:2.0 4:3.0 5:17.0 6:12.0 7:4.0 20:2.0 23:1.0 205:1.0 227:1.0 505:1.0 539:1.0 540:1.0 541:1.0 
-0.6175463515253309 0.0720616432648025 1.7123317592227 0.0 0.08365350564561758 2:1.0 3:2.0 4:1.0 5:6.0 6:6.0 7:1.0 46:1.0 119:1.0 
-0.7849925515118731 1.8149195717687416 1.8902527004205734 0.0 1.0073588054166487 2:1.0 3:2.0 4:1.0 5:6.0 6:6.0 7:1.0 14:1.0 472:1.0 
-0.003073545882566881 0.0 0.0703195613732079 0.0 0.1297256454698269 2:1.0 3:2.0 4:3.0 5:8.0 6:6.0 7:1.0 274:1.0 544:1.0 545:1.0 
-0.0 0.024959148002721362 0.0 0.0 0.1492931516219637 2:1.0 3:2.0 4:3.0 5:6.0 6:4.0 7:1.0 46:1.0 548:1.0 
-0.0 0.21565986644728166 0.39133923286697114 0.0 0.5622285382630666 2:1.0 3:2.0 4:4.0 5:9.0 6:4.0 7:3.0 549:1.0 550:1.0 551:1.0 552:1.0 
-2.0 2.0 2.0 0.0 1.7464796855824345 1:1.0 2:1.0 3:2.0 4:2.0 5:7.0 6:6.0 7:1.0 
-0.0 0.0 1.2192519478338972 0.0 0.0 2:1.0 3:2.0 4:1.0 5:7.0 6:6.0 7:1.0 53:1.0 205:1.0 287:1.0 
-0.26609778664033307 0.0 0.0 0.0 0.0 3:2.0 4:1.0 5:13.0 6:12.0 7:1.0 21:1.0 26:1.0 48:1.0 202:1.0 554:1.0 
-0.11265005373064038 0.989638233773011 0.7894385414196865 0.0 0.2965145289127201 2:1.0 3:2.0 4:1.0 5:9.0 6:7.0 7:3.0 14:1.0 66:1.0 112:1.0 555:1.0 
-0.01424951995507988 0.10589163927095098 0.0 0.0 0.0 3:2.0 4:2.0 5:10.0 6:9.0 7:1.0 48:1.0 411:1.0 557:1.0 558:1.0 
-0.0015648548370372035 0.0 0.0 0.10905269984080025 0.37728137627916203 2:1.0 3:2.0 4:4.0 5:14.0 6:9.0 7:2.0 21:1.0 158:1.0 189:1.0 199:1.0 560:1.0 
-0.05083391522122761 0.031231482766518118 0.0 0.0 0.2229187884324272 3:2.0 4:5.0 5:18.0 6:12.0 7:3.0 48:1.0 302:1.0 561:1.0 562:1.0 563:1.0 
-0.0 0.6635241792303909 0.8977699902735257 0.0 1.8608167549551158 2:1.0 3:2.0 4:4.0 5:12.0 6:7.0 7:3.0 108:1.0 242:1.0 565:1.0 
-0.10303313782762977 0.0 0.5554663558109663 0.0 0.46820178928513356 2:1.0 3:2.0 4:3.0 5:9.0 6:6.0 7:2.0 14:1.0 42:1.0 274:1.0 566:1.0 
-0.0033490265973519355 0.0 0.5734880818590821 0.0 0.3233060067478949 2:1.0 3:2.0 4:1.0 5:6.0 6:5.0 7:1.0 41:1.0 223:1.0 567:1.0 
-2.0 2.0 2.0 0.106082672096501 0.0 1:1.0 2:1.0 3:2.0 4:1.0 5:7.0 6:7.0 7:1.0 
-0.37563316070617897 1.3393475812318458 0.5407475048304664 0.0 0.4253865624667685 2:1.0 3:2.0 4:1.0 5:8.0 6:7.0 7:2.0 14:1.0 42:1.0 565:1.0 570:1.0 
-0.325373736202402 0.10166079306248352 0.5139086758809259 0.0 0.4078546520334388 2:1.0 3:2.0 4:3.0 5:8.0 6:6.0 7:1.0 19:1.0 571:1.0 
-0.21779846830447172 0.0 0.0 0.0 0.0 3:2.0 4:1.0 5:11.0 6:11.0 7:1.0 48:1.0 573:1.0 574:1.0 
-0.0 0.22350115521473898 0.5216633220388 0.0 0.6189011516193753 2:1.0 3:2.0 4:5.0 5:9.0 6:4.0 7:2.0 575:1.0 576:1.0 577:1.0 
-0.0 0.0 0.0448127933925248 0.0 0.10179726053628883 2:1.0 3:2.0 4:4.0 5:7.0 6:4.0 7:1.0 244:1.0 517:1.0 578:1.0 
-2.0 2.0 2.0 2.0 1.4871103069812965 1:1.0 2:1.0 3:2.0 4:3.0 5:6.0 6:4.0 7:1.0 
-2.0 2.0 2.0 0.0 2.0 1:1.0 2:1.0 3:2.0 4:3.0 5:9.0 6:7.0 7:1.0 
-0.011536609016775872 0.0755874222295879 0.06421371333964628 0.0 0.0 3:2.0 4:2.0 5:6.0 6:5.0 7:1.0 20:1.0 199:1.0 303:1.0 
-0.0 0.0 0.0 0.0 0.007461725136119619 3:2.0 4:3.0 5:5.0 6:3.0 7:1.0 299:1.0 329:1.0 487:1.0 
-0.8385561493419631 0.02059145733270023 0.0 0.0 0.0751061009582247 2:1.0 3:2.0 4:1.0 5:8.0 6:8.0 7:1.0 46:1.0 127:1.0 163:1.0 
-0.26229226789680865 0.34901472629070396 1.004934540328205 0.0 0.309387015848321 2:1.0 3:2.0 4:3.0 5:9.0 6:7.0 7:1.0 66:1.0 184:1.0 376:1.0 
-0.0 0.0 0.0 0.0 0.008147214110603736 2:1.0 3:2.0 4:5.0 5:10.0 6:5.0 7:2.0 205:1.0 579:1.0 580:1.0 581:1.0 582:1.0 
-0.0 0.0 0.08373103812692632 0.0 0.0 2:1.0 3:2.0 4:5.0 5:8.0 6:3.0 7:1.0 21:1.0 205:1.0 585:1.0 586:1.0 
-0.0 0.20908287282985472 0.0 0.0 0.0 3:2.0 4:3.0 5:8.0 6:6.0 7:1.0 31:1.0 48:1.0 301:1.0 587:1.0 
-0.19636095266825312 0.07338911535124358 0.18186518937409396 0.46803868051555586 0.156544809842918 2:1.0 3:2.0 4:4.0 5:6.0 6:2.0 7:1.0 21:1.0 132:1.0 588:1.0 
-0.0 0.03259348291187735 0.0 0.0 0.0 3:2.0 4:1.0 5:3.0 6:3.0 7:1.0 48:1.0 589:1.0 
-0.0 0.07278969830380305 0.3548004825707403 0.0 1.4564129202670881 2:1.0 3:2.0 4:4.0 5:8.0 6:4.0 7:2.0 350:1.0 591:1.0 592:1.0 
-0.0 7.136490085602925E-4 0.0 0.0 0.0 3:2.0 4:1.0 5:5.0 6:5.0 7:1.0 48:1.0 593:1.0 594:1.0 
-0.16154041339173075 0.0 7.990463185975332E-4 0.0 0.0 2:1.0 3:2.0 4:2.0 5:16.0 6:14.0 7:1.0 17:1.0 205:1.0 595:1.0 596:1.0 597:1.0 598:1.0 599:1.0 
-2.0 2.0 2.0 0.20423179116938542 2.0 1:1.0 2:1.0 3:2.0 4:1.0 5:9.0 6:9.0 7:1.0 
-0.20374170810790665 0.0 0.07754930802956086 0.0 0.0 3:2.0 4:1.0 5:17.0 6:17.0 7:1.0 48:1.0 407:1.0 603:1.0 604:1.0 605:1.0 606:1.0 
-0.0 0.21522844193734114 0.22348579550902012 0.0 0.17408805405079783 2:1.0 3:2.0 4:3.0 5:9.0 6:7.0 7:1.0 72:1.0 118:1.0 436:1.0 607:1.0 
-0.06962760038663231 0.34138504398246017 0.0 0.02413184901606465 0.0 3:2.0 4:2.0 5:4.0 6:3.0 7:1.0 20:1.0 380:1.0 398:1.0 
-0.10250609836131687 0.0 0.0 0.0 0.0 3:2.0 4:3.0 5:10.0 6:7.0 7:1.0 17:1.0 48:1.0 515:1.0 610:1.0 611:1.0 
-0.18738467384404792 0.028261710600535207 0.09507392006090631 0.0 0.05849282486018065 2:1.0 3:2.0 4:1.0 5:7.0 6:7.0 7:1.0 46:1.0 446:1.0 612:1.0 
-0.05081205443023276 0.0 0.0 0.1891236167146735 0.0 3:2.0 4:4.0 5:18.0 6:10.0 7:3.0 17:1.0 21:2.0 26:2.0 48:1.0 88:1.0 613:1.0 614:1.0 
-0.86339605341192 0.0 0.5840423515061647 0.0 0.612346100561804 2:1.0 3:2.0 4:1.0 5:11.0 6:11.0 7:1.0 45:1.0 66:1.0 436:1.0 
-0.0 0.12816969915081391 0.1828823750005335 0.0 0.024534741837924576 2:1.0 3:2.0 4:3.0 5:4.0 6:2.0 7:1.0 132:1.0 477:1.0 
-0.04091866533577227 0.0 0.0 0.0 0.0 3:2.0 4:1.0 5:10.0 6:9.0 7:1.0 21:1.0 26:1.0 48:1.0 617:1.0 618:1.0 619:1.0 
-0.11906721863645073 0.036040701342742024 0.0 0.0 0.041769664394057306 2:1.0 3:2.0 4:1.0 5:6.0 6:6.0 7:1.0 46:1.0 620:1.0 621:1.0 
-0.0 0.2608236673552702 0.6903089802413892 0.0 0.25980302847241377 2:1.0 3:2.0 4:2.0 5:6.0 6:5.0 7:1.0 208:1.0 625:1.0 
-0.09498398697523845 0.7422749916078383 0.2586151143784182 0.0 0.0 2:1.0 3:2.0 4:2.0 5:9.0 6:8.0 7:1.0 14:1.0 199:1.0 626:1.0 
-2.0 2.0 2.0 2.0 2.0 1:1.0 2:1.0 3:2.0 4:1.0 5:7.0 6:6.0 7:1.0 21:1.0 
-0.011039966453328508 0.0 0.0 0.0 0.0 3:2.0 4:1.0 5:9.0 6:9.0 7:1.0 48:1.0 108:1.0 627:1.0 628:1.0 
-2.0 2.0 2.0 2.0 0.0 1:1.0 2:1.0 3:2.0 4:1.0 5:4.0 6:4.0 7:1.0 
-0.47591451294841103 0.573422850873437 0.5663770329096244 0.0 0.0 2:1.0 3:2.0 4:1.0 5:8.0 6:7.0 7:1.0 14:1.0 41:1.0 223:1.0 487:1.0 
-0.0 0.20539775014904432 0.0 0.0 0.6126526849625004 3:2.0 4:3.0 5:8.0 6:3.0 7:3.0 48:1.0 54:1.0 631:1.0 632:1.0 
-0.0 0.029557735125098485 0.0 0.0 0.20299620343012653 2:1.0 3:2.0 4:1.0 5:9.0 6:8.0 7:2.0 110:1.0 189:1.0 205:1.0 
-0.0 0.22270981325942749 0.31043512680643054 0.0 0.7412353884524465 2:1.0 3:2.0 4:2.0 5:12.0 6:8.0 7:2.0 38:1.0 83:1.0 90:1.0 261:1.0 
-0.981550629615284 1.0601463404454494 1.5938930401967097 0.0 0.5392850673352034 2:1.0 3:2.0 4:1.0 5:14.0 6:14.0 7:1.0 14:1.0 132:1.0 287:1.0 634:1.0 
-2.0 2.0 2.0 0.0 2.0 1:1.0 2:1.0 3:2.0 4:3.0 5:12.0 6:9.0 7:2.0 
-0.43750685750446205 0.0 0.8056525244969143 0.4673953507509138 0.6862703393619075 2:1.0 3:2.0 4:5.0 5:13.0 6:8.0 7:1.0 21:1.0 329:1.0 637:1.0 
-2.0 2.0 2.0 0.0 2.0 1:1.0 2:1.0 3:2.0 4:2.0 5:9.0 6:8.0 7:1.0 
-0.33563945468306244 0.0 0.521420700069705 0.0 0.4547536023240081 2:1.0 3:2.0 4:2.0 5:7.0 6:5.0 7:1.0 41:1.0 212:1.0 228:1.0 
-0.0 0.0 0.006277208971857425 0.0 0.0 2:1.0 3:2.0 4:3.0 5:6.0 6:3.0 7:1.0 41:1.0 126:1.0 638:1.0 
-0.126324691010411 0.05373668216158608 0.988226886048371 0.0 0.6975000217151777 2:1.0 3:2.0 4:3.0 5:10.0 6:6.0 7:2.0 14:1.0 41:1.0 42:1.0 223:1.0 639:1.0 
-0.026119576962608925 0.1854267888644139 1.0672298153024484 0.0 0.444026132966716 2:1.0 3:2.0 4:4.0 5:7.0 6:4.0 7:1.0 640:1.0 641:1.0 642:1.0 
-0.04595241588866715 0.04856924038611188 0.0 0.0 0.11641142788172676 2:1.0 3:2.0 4:2.0 5:6.0 6:5.0 7:1.0 46:1.0 643:1.0 
-0.1365771702024143 0.0 0.006284570491250813 0.0 0.0 2:1.0 3:2.0 4:1.0 5:6.0 6:5.0 7:1.0 41:1.0 126:1.0 644:1.0 
-0.48670115360427135 1.7236471221431364 1.6853279562296428 0.0 0.7002327202752253 2:1.0 3:2.0 4:1.0 5:7.0 6:7.0 7:1.0 14:1.0 88:1.0 645:1.0 
-0.22405511709493403 0.20481814432814346 0.5695035304161274 0.0 0.8723528162553472 3:2.0 4:3.0 5:6.0 6:4.0 7:1.0 19:1.0 299:1.0 330:1.0 
-0.20497755426863876 0.0 0.003093921083500349 0.0 0.0 2:1.0 3:2.0 4:1.0 5:8.0 6:7.0 7:1.0 41:1.0 126:1.0 648:1.0 649:1.0 
-0.4609364021391461 0.8997316823844667 1.0947598726436845 0.0 0.5202822813717485 2:1.0 3:2.0 4:1.0 5:7.0 6:7.0 7:1.0 14:1.0 650:1.0 651:1.0 
-0.0 0.0 0.044205610235608685 0.0 2.0 3:2.0 4:5.0 5:9.0 6:5.0 7:1.0 20:1.0 114:1.0 199:1.0 522:1.0 
-0.08817689460195928 -0.0 0.0 0.0 0.0 2:1.0 3:2.0 4:1.0 5:9.0 6:6.0 7:2.0 14:1.0 21:1.0 38:1.0 100:1.0 112:1.0 652:1.0 653:1.0 
-0.0 -0.0 2.0 0.0 0.0 1:1.0 2:1.0 3:2.0 4:1.0 5:4.0 6:4.0 7:1.0 
-0.27918688462079644 -0.31104827322469575 0.6299238314863193 0.12749333042019992 0.27033034855230703 1:1.0 2:1.0 3:2.0 4:1.0 5:12.0 6:10.0 7:1.0 83:2.0 
-0.08134874800152313 -0.12281494587251066 0.508506299102411 0.0 0.1831864705223112 2:1.0 3:2.0 4:1.0 5:2.0 6:2.0 7:1.0 14:1.0 654:1.0 
-0.0 -0.0 2.0 0.0 0.0 1:1.0 2:1.0 3:2.0 4:1.0 5:9.0 6:7.0 7:3.0 
-0.3385032536034512 -0.13443317499514876 0.5720186061835904 0.0 0.22628869302789242 2:1.0 3:2.0 4:3.0 5:11.0 6:6.0 7:3.0 14:1.0 17:1.0 656:1.0 657:1.0 658:1.0 
-0.0 -0.0 2.0 0.0 0.0 1:1.0 2:1.0 3:2.0 4:1.0 5:4.0 6:4.0 7:1.0 
-0.09348488866880587 -2.0 2.0 0.0 0.0 1:1.0 2:1.0 3:2.0 4:1.0 5:8.0 6:8.0 7:1.0 
-0.18551226634149123 -0.0 0.08027637403620068 0.0 0.1924601056842085 2:1.0 3:2.0 4:1.0 5:6.0 6:5.0 7:2.0 14:1.0 33:1.0 234:1.0 
-0.0 -2.0 2.0 0.0 0.07132469145158388 1:1.0 2:1.0 3:2.0 4:1.0 5:3.0 6:2.0 7:1.0 38:1.0 
-0.0 -0.0 0.0 0.0 0.033933525612319826 3:2.0 4:3.0 5:5.0 6:3.0 7:1.0 11:1.0 20:2.0 659:1.0 660:1.0 
-1.1129724510347883 -2.0 2.0 0.0 2.0 1:1.0 2:1.0 3:2.0 4:3.0 5:6.0 6:4.0 7:1.0 
-0.041094348069907735 -0.051238806587772044 0.37767748593713235 0.0 0.14485379502228285 2:1.0 3:2.0 4:4.0 5:7.0 6:3.0 7:2.0 14:1.0 662:1.0 663:1.0 
-0.3353120261830292 -0.4717284796449371 0.0 0.0 0.0 3:2.0 4:3.0 5:9.0 6:6.0 7:1.0 11:1.0 41:1.0 664:1.0 
-0.0852161878701802 -0.0 0.0677925861845544 0.0 0.09185442639340412 2:1.0 3:2.0 4:4.0 5:7.0 6:2.0 7:3.0 14:1.0 146:1.0 665:1.0 666:1.0 
-1.545368383603545 -2.0 2.0 0.0 0.0 1:1.0 2:1.0 3:2.0 4:1.0 5:8.0 6:8.0 7:1.0 
-0.0 -0.0 2.0 0.0 0.0 1:1.0 2:1.0 3:2.0 4:2.0 5:4.0 6:3.0 7:1.0 
-0.08135157567922217 -0.1228101510310171 0.508503786930679 0.0 0.18318399342946218 2:1.0 3:2.0 4:1.0 5:2.0 6:2.0 7:1.0 14:1.0 667:1.0 
-0.0 -0.0 0.0 2.0 0.0 1:1.0 2:1.0 3:2.0 4:1.0 5:5.0 6:4.0 7:1.0 21:1.0 
-0.0 -1.1609793762248508 2.0 0.0 0.0 1:1.0 2:1.0 3:2.0 4:3.0 5:4.0 6:2.0 7:1.0 
-0.6260428169579209 -1.2960714062707759 0.13146191657464742 0.0 0.22646133907961852 2:1.0 3:2.0 4:4.0 5:9.0 6:3.0 7:4.0 14:1.0 132:1.0 431:1.0 
-0.0 -0.0 2.0 0.0 0.0 1:1.0 2:1.0 3:2.0 4:1.0 5:9.0 6:7.0 7:3.0 
-0.04169481312519551 -0.021180880514233752 0.0 0.0 0.0 2:1.0 3:2.0 4:1.0 5:2.0 6:2.0 7:1.0 14:1.0 668:1.0 
-1.211780921971741 -0.0 0.0 0.0 0.0 3:2.0 4:2.0 5:11.0 6:10.0 7:1.0 11:1.0 659:1.0 
-0.0 -0.0 1.9095601478194402 0.0 0.820282780468478 3:2.0 4:2.0 5:17.0 6:14.0 7:1.0 11:1.0 41:1.0 54:1.0 669:1.0 
-0.0 -0.0 2.0 0.0 0.08332984459877868 3:2.0 4:2.0 5:18.0 6:16.0 7:1.0 11:1.0 21:1.0 661:1.0 
-2.0 -2.0 2.0 0.0 0.0 1:1.0 2:1.0 3:2.0 4:2.0 5:7.0 6:6.0 7:1.0 
-0.0 -0.0 2.0 0.0 0.0 1:1.0 2:1.0 3:2.0 4:1.0 5:5.0 6:5.0 7:1.0 
-0.0 -0.0 0.5616589123522665 0.0 0.0 3:2.0 4:1.0 5:19.0 6:18.0 7:1.0 11:1.0 21:1.0 664:1.0 
-0.0 -0.0 2.0 0.0 2.0 2:1.0 3:2.0 4:1.0 5:5.0 6:5.0 7:1.0 14:1.0 434:1.0 
-0.11520332194242357 -0.40338964394674864 1.4271103935957914 0.0 0.8777839910793408 2:1.0 3:2.0 4:1.0 5:7.0 6:6.0 7:1.0 54:1.0 301:1.0 434:1.0 672:1.0 
-2.0 -2.0 2.0 0.0 0.0 1:1.0 2:1.0 3:2.0 4:1.0 5:9.0 6:9.0 7:1.0 
-0.04118405800585112 -0.0925313202331573 0.6539631992781574 0.0 0.11082045665511915 2:1.0 3:2.0 4:1.0 5:6.0 6:6.0 7:1.0 14:1.0 673:1.0 674:1.0 
-0.0 -0.0 0.0 2.0 0.0 2:1.0 3:2.0 4:1.0 5:4.0 6:4.0 7:1.0 675:1.0 
-0.0 -2.0 0.0 0.0 0.0 1:1.0 3:2.0 4:1.0 5:10.0 6:8.0 7:3.0 48:1.0 
-0.0 -0.0 0.0 0.0 0.41801521212393733 3:2.0 4:2.0 5:12.0 6:8.0 7:2.0 11:1.0 21:1.0 54:1.0 664:1.0 
-2.0 -2.0 2.0 0.0 0.0 1:1.0 2:1.0 3:2.0 4:1.0 5:9.0 6:9.0 7:1.0 
-0.0522827422209394 -0.0 0.016962083110682046 2.0 0.027010790727831396 1:1.0 2:1.0 3:2.0 4:1.0 5:3.0 6:2.0 7:1.0 676:1.0 
-0.0 -0.0 2.0 0.0 0.0 3:2.0 4:1.0 5:11.0 6:11.0 7:1.0 11:1.0 661:1.0 
-0.2755928110114395 -0.6204604649070892 1.3356162060851868 0.0 0.0 2:1.0 3:2.0 4:1.0 5:9.0 6:8.0 7:2.0 14:1.0 88:1.0 112:1.0 677:1.0 
-0.028049411082131954 -0.13300362656995302 1.0577015151094757 0.0 0.20249668192133405 2:1.0 3:2.0 4:5.0 5:14.0 6:9.0 7:1.0 14:1.0 82:1.0 678:1.0 679:1.0 680:1.0 
-0.0 -0.5592956130599908 0.0 0.0 0.0 1:1.0 2:1.0 3:2.0 4:1.0 5:2.0 6:1.0 7:1.0 38:1.0 
-0.21851252369196345 -0.971952214722013 1.359501038073569 0.0 0.38853808316733573 2:1.0 3:2.0 4:1.0 5:11.0 6:11.0 7:1.0 14:1.0 66:1.0 88:1.0 681:1.0 
-0.0 -0.0 0.7768318215784681 0.0 0.0 1:1.0 2:1.0 3:2.0 4:1.0 5:3.0 6:3.0 7:1.0 
-0.0 -0.0 0.0 2.0 0.0 2:1.0 3:2.0 4:1.0 5:3.0 6:3.0 7:1.0 675:1.0 
-0.03965613757031629 -0.10162787473021163 0.5085275177780085 0.0 0.1831878775560185 2:1.0 3:2.0 4:1.0 5:2.0 6:2.0 7:1.0 14:1.0 668:1.0 
-0.08201449389974329 -2.0 0.9082055692372213 0.0 0.20233771744537318 2:1.0 3:2.0 4:1.0 5:4.0 6:4.0 7:1.0 14:1.0 345:1.0 
-0.08156893766171211 -0.13834934720125813 2.0 0.0 0.19278990319717462 2:1.0 3:2.0 4:1.0 5:3.0 6:3.0 7:1.0 14:1.0 682:1.0 
-0.9742382209852022 -0.5236927735045253 0.5585163580865729 0.0 0.38150903687737886 2:1.0 3:2.0 4:1.0 5:6.0 6:4.0 7:1.0 14:1.0 17:2.0 147:1.0 683:1.0 
-2.0 -2.0 2.0 0.0 0.0 1:1.0 2:1.0 3:2.0 4:1.0 5:10.0 6:10.0 7:1.0 
-1.1229026170632206 -0.0 0.0 0.0 0.0 3:2.0 4:3.0 5:16.0 6:11.0 7:3.0 11:1.0 41:1.0 664:1.0 
-0.0 -0.0 0.0 2.0 0.0 1:1.0 2:1.0 3:2.0 4:1.0 5:4.0 6:3.0 7:1.0 21:1.0 
-0.6690539892589975 -0.8481078478701309 0.5219657104951121 0.2009480277650685 0.24271988655641322 2:1.0 3:2.0 4:1.0 5:8.0 6:5.0 7:2.0 14:1.0 41:2.0 100:1.0 112:1.0 684:1.0 
-0.3384911908907857 -0.1931902293091693 0.7106991749628062 0.0 0.24170332273721612 2:1.0 3:2.0 4:3.0 5:11.0 6:7.0 7:1.0 14:1.0 17:1.0 102:1.0 685:1.0 686:1.0 687:1.0 
-0.0 -0.0 2.0 0.0 0.0 1:1.0 2:1.0 3:2.0 4:1.0 5:3.0 6:3.0 7:1.0 
-0.006415814162129722 -0.0 2.0 0.0 0.0 1:1.0 2:1.0 3:2.0 4:1.0 5:7.0 6:7.0 7:1.0 
-0.048469947116587024 -0.05543267967910143 0.0 0.0 0.0 2:1.0 3:2.0 4:3.0 5:15.0 6:10.0 7:4.0 14:1.0 31:1.0 88:1.0 112:1.0 688:2.0 
-0.343777220648693 -0.8016655108650093 0.7645450943927329 0.0 1.0170363603592625 2:1.0 3:2.0 4:3.0 5:5.0 6:3.0 7:1.0 251:1.0 670:1.0 
-0.0 -0.0 0.0 2.0 0.0 1:1.0 2:1.0 3:2.0 4:1.0 5:4.0 6:3.0 7:1.0 21:1.0 
-0.0 -0.0 2.0 0.0 0.0 1:1.0 2:1.0 3:2.0 4:1.0 5:9.0 6:7.0 7:3.0 
-0.0 -0.1515242719022911 0.6535527823212871 0.0 0.030780951230895366 2:1.0 3:2.0 4:2.0 5:10.0 6:9.0 7:1.0 14:1.0 234:1.0 388:1.0 689:1.0 
-1.2118410448698382 -0.0 0.48759855620836995 0.0 0.0 3:2.0 4:1.0 5:15.0 6:15.0 7:1.0 11:1.0 690:1.0 
-0.0 -0.0 2.0 0.0 0.0 1:1.0 2:1.0 3:2.0 4:1.0 5:6.0 6:6.0 7:1.0 
-0.04124582284894751 -0.1386858865184959 1.1721661250343063 0.0 0.11564241016998748 2:1.0 3:2.0 4:1.0 5:7.0 6:7.0 7:1.0 14:1.0 395:1.0 691:1.0 
-0.0 -0.0 2.0 0.0 0.0 1:1.0 2:1.0 3:2.0 4:1.0 5:3.0 6:3.0 7:1.0 
-0.1176689457801621 -0.0 0.0 0.0 0.0 3:2.0 4:1.0 5:5.0 6:5.0 7:1.0 11:1.0 692:1.0 
-0.0813584059232222 -0.12281193651009907 0.81984700040413 0.0 0.18318571089505423 2:1.0 3:2.0 4:1.0 5:2.0 6:2.0 7:1.0 14:1.0 693:1.0 
-0.0 -0.0 2.0 0.0 0.0 1:1.0 2:1.0 3:2.0 4:1.0 5:3.0 6:3.0 7:1.0 
-0.34142612009015033 -0.4520856509057347 1.3070995425832403 0.0 0.45753967305445037 2:1.0 3:2.0 4:5.0 5:21.0 6:13.0 7:2.0 14:1.0 17:2.0 53:1.0 126:1.0 287:1.0 360:1.0 434:1.0 694:1.0 695:1.0 
-0.8847227880280137 -0.8202871591848133 0.7519992326237622 0.0 1.3602930900649013 3:2.0 4:1.0 5:1.0 6:1.0 7:1.0 20:1.0 696:1.0 
-0.0 -0.0 2.0 0.0 0.0 1:1.0 2:1.0 3:2.0 4:1.0 5:6.0 6:6.0 7:1.0 
-0.0 -0.0 2.0 0.0 0.0 1:1.0 2:1.0 3:2.0 4:2.0 5:4.0 6:3.0 7:1.0 
-1.1197082502938127 -0.2618624731661024 1.8995595929491393 0.0 0.3697741899378545 2:1.0 3:2.0 4:1.0 5:10.0 6:9.0 7:1.0 14:1.0 17:1.0 23:1.0 697:1.0 698:1.0 
-2.0 -2.0 2.0 0.0 2.0 1:1.0 2:1.0 3:2.0 4:3.0 5:9.0 6:7.0 7:1.0 
-0.6031228104142675 -2.0 1.4670558408386976 0.0 1.3976723406724278 2:1.0 3:2.0 4:3.0 5:5.0 6:2.0 7:2.0 14:1.0 42:1.0 565:1.0 
-7.667504553743382E-4 -0.0468116974912186 0.94419913005651 0.0 0.02883398397606923 2:1.0 3:2.0 4:3.0 5:7.0 6:5.0 7:1.0 14:1.0 31:1.0 699:1.0 
-0.02044411128761036 -0.0 0.08414993121411518 0.0 0.07735596536553888 2:1.0 3:2.0 4:5.0 5:8.0 6:2.0 7:3.0 14:1.0 700:1.0 701:1.0 702:1.0 703:1.0 
-0.08135260011346067 -0.1228104518894322 0.5084806047416293 0.0 0.18319097025283151 2:1.0 3:2.0 4:1.0 5:2.0 6:2.0 7:1.0 14:1.0 704:1.0 
-0.0 -2.0 0.12355737885442886 0.0 0.0 1:1.0 3:2.0 4:1.0 5:8.0 6:5.0 7:3.0 48:1.0 53:1.0 
-0.8847257588959645 -0.843825706147153 0.685259417206496 0.0 2.0 3:2.0 4:2.0 5:1.0 7:1.0 20:1.0 705:1.0 
-0.024065103517109217 -0.0 0.42641495927893636 0.5438843594844948 0.0 2:1.0 3:2.0 4:1.0 5:3.0 6:2.0 7:1.0 82:1.0 675:1.0 
-1.7568021361426238 -2.0 2.0 0.0 2.0 1:1.0 2:1.0 3:2.0 4:2.0 5:5.0 6:3.0 7:1.0 38:1.0 
-0.07261998251471886 -0.0 0.0 0.0 0.0 2:1.0 3:2.0 4:1.0 5:2.0 6:1.0 7:1.0 14:1.0 54:1.0 708:1.0 
-0.0 -0.0 2.0 0.0 0.0 1:1.0 2:1.0 3:2.0 4:1.0 5:9.0 6:7.0 7:3.0 
-0.08158826044208677 -0.13834448289918683 0.7083203618876472 0.0 0.19276084201301483 2:1.0 3:2.0 4:1.0 5:3.0 6:3.0 7:1.0 14:1.0 709:1.0 
-0.008033885050553882 -0.0 1.2094946633929973 0.0 0.591467321332546 2:1.0 3:2.0 4:1.0 5:2.0 6:1.0 7:1.0 14:1.0 54:1.0 708:1.0 
-2.0 -2.0 2.0 0.0 2.0 1:1.0 2:1.0 3:2.0 4:3.0 5:8.0 6:6.0 7:1.0 
-0.19272894408967195 -0.0 2.0 0.0 0.0 1:1.0 2:1.0 3:2.0 4:1.0 5:6.0 6:6.0 7:1.0 
-2.0 -2.0 2.0 2.0 0.0 1:1.0 2:1.0 3:2.0 4:1.0 5:11.0 6:10.0 7:1.0 21:1.0 
-0.08221673119185587 -0.1695265105531053 2.0 0.0 0.21188229410354026 2:1.0 3:2.0 4:1.0 5:5.0 6:5.0 7:1.0 14:1.0 710:1.0 
-0.0 -0.0 2.0 0.0 0.0 1:1.0 2:1.0 3:2.0 4:1.0 5:5.0 6:5.0 7:1.0 
-0.0 -0.0 2.0 0.0 0.0 1:1.0 2:1.0 3:2.0 4:2.0 5:4.0 6:3.0 7:1.0 
-0.08133299691818466 -0.0 0.0 0.0 0.20759342427802316 2:1.0 3:2.0 4:2.0 5:5.0 6:2.0 7:3.0 14:1.0 711:1.0 
-0.22929736617648955 -0.45769722535834245 0.8462756240073062 0.0 0.5048151325293363 2:1.0 3:2.0 4:1.0 5:7.0 6:7.0 7:1.0 337:1.0 712:1.0 713:1.0 
-1.993627363410579 -0.0 2.0 2.0 0.0 1:1.0 2:1.0 3:2.0 4:1.0 5:14.0 6:11.0 7:3.0 21:1.0 
-0.08135244756216245 -0.12281517956358753 0.5084809430486005 0.0 0.18318448396554174 2:1.0 3:2.0 4:1.0 5:2.0 6:2.0 7:1.0 14:1.0 714:1.0 
-0.0 -0.0 2.0 0.0 0.0 1:1.0 2:1.0 3:2.0 4:1.0 5:4.0 6:4.0 7:1.0 
-0.007204324708468485 -0.0 2.0 0.0 0.0 1:1.0 2:1.0 3:2.0 4:1.0 5:7.0 6:7.0 7:1.0 
-0.0 -2.0 2.0 0.0 0.0 1:1.0 2:1.0 3:2.0 4:3.0 5:4.0 6:2.0 7:1.0 
-0.22939210757331396 -0.5988786871984156 1.0141241709628666 0.1705308125745933 0.6224183425965714 2:1.0 3:2.0 4:2.0 5:11.0 6:9.0 7:1.0 21:1.0 189:1.0 715:1.0 716:1.0 
-2.0 -0.8096290927165373 0.0 0.0 1.4730564803516695 3:2.0 4:2.0 5:7.0 6:3.0 7:2.0 8:1.0 17:2.0 655:1.0 
-0.08135516942758937 -0.12282224129775879 1.7920057885945768 0.0 0.1831933203378487 2:1.0 3:2.0 4:1.0 5:2.0 6:2.0 7:1.0 14:1.0 717:1.0 
-0.07559687209848236 -0.0 0.0 2.0 0.0 2:1.0 3:2.0 4:2.0 5:12.0 6:9.0 7:2.0 21:1.0 675:1.0 
-0.2292793057250682 -0.4576949329312654 0.8982703799799878 0.0 0.5361893562321122 2:1.0 3:2.0 4:1.0 5:7.0 6:7.0 7:1.0 718:1.0 719:1.0 720:1.0 
-0.04134843806492128 -0.27844314663659264 0.36278944177072786 0.0 0.1111018010405269 2:1.0 3:2.0 4:5.0 5:9.0 6:4.0 7:2.0 14:1.0 133:1.0 721:1.0 722:1.0 
-0.8848893662694322 -1.377940197555759 0.8183494857263971 0.0 1.4184174273694876 3:2.0 4:3.0 5:2.0 7:1.0 20:1.0 430:1.0 
-0.0 -0.0 2.0 0.0 0.0 1:1.0 2:1.0 3:2.0 4:1.0 5:10.0 6:8.0 7:3.0 
-0.4446896331601048 -0.0 2.0 0.0 0.0 1:1.0 2:1.0 3:2.0 4:1.0 5:6.0 6:6.0 7:1.0 
-2.0 -2.0 2.0 0.0 2.0 1:1.0 2:1.0 3:2.0 4:2.0 5:9.0 6:8.0 7:1.0 
-0.0 -0.0 0.0 0.0 2.0 1:1.0 2:1.0 3:2.0 4:4.0 5:6.0 6:1.0 7:3.0 
-0.0073742264947499496 -0.0 2.0 0.0 0.0 1:1.0 2:1.0 3:2.0 4:1.0 5:7.0 6:7.0 7:1.0 
-0.0 -0.0 2.0 0.0 0.0 1:1.0 2:1.0 3:2.0 4:1.0 5:4.0 6:4.0 7:1.0 
-0.0 -0.0 2.0 0.0 0.0 1:1.0 2:1.0 3:2.0 4:2.0 5:10.0 6:7.0 7:3.0 
-2.0 -2.0 2.0 0.0 2.0 1:1.0 2:1.0 3:2.0 4:5.0 5:9.0 6:5.0 7:1.0 
-2.0 -2.0 2.0 0.0 2.0 1:1.0 2:1.0 3:2.0 4:4.0 5:15.0 6:11.0 7:2.0 
-0.08158666374280765 -0.13834755407253155 0.7083036923667977 0.0 0.19278228220088042 2:1.0 3:2.0 4:1.0 5:3.0 6:3.0 7:1.0 14:1.0 723:1.0 
-0.11767582843830779 -0.5969158865524515 1.682377517197998 0.0 1.013790120096867 2:1.0 3:2.0 4:6.0 5:13.0 6:8.0 7:1.0 152:1.0 335:1.0 494:1.0 
-0.08569328350967402 -0.12225981588260172 0.9709243752763554 0.0 0.7245588295819211 2:1.0 3:2.0 4:3.0 5:10.0 6:8.0 7:1.0 14:1.0 75:1.0 302:1.0 724:1.0 
-2.0 -0.0 2.0 0.0 2.0 1:1.0 2:1.0 3:2.0 4:3.0 5:9.0 6:6.0 7:2.0 
-0.28028747032258416 -0.0 0.929722197969533 0.0 0.139857520483336 3:2.0 4:2.0 5:5.0 6:4.0 7:1.0 14:1.0 20:1.0 725:1.0 
-0.0439727941566137 -0.0 0.0 0.0 0.0 2:1.0 3:2.0 4:1.0 5:9.0 6:8.0 7:2.0 14:1.0 100:1.0 112:1.0 726:2.0 
-0.506989311414051 -0.0 0.5919889815488553 0.0 0.4351650738787011 3:2.0 4:3.0 5:13.0 6:9.0 7:2.0 20:1.0 41:1.0 152:1.0 153:1.0 727:1.0 
-0.0 -0.0 2.0 0.0 0.0 1:1.0 2:1.0 3:2.0 4:2.0 5:4.0 6:3.0 7:1.0 
-0.0 -0.0 1.5614706112752796 0.0 0.0 3:2.0 4:1.0 5:14.0 6:13.0 7:1.0 11:1.0 21:1.0 661:1.0 
-2.0 -2.0 2.0 0.0 0.0 1:1.0 2:1.0 3:2.0 4:1.0 5:8.0 6:8.0 7:1.0 
-0.0 -0.0 2.0 0.0 0.0 1:1.0 2:1.0 3:2.0 4:1.0 5:4.0 6:4.0 7:1.0 
-0.08136394610128969 -0.0 0.7001701259246819 0.0 0.18330644017308326 2:1.0 3:2.0 4:1.0 5:5.0 6:3.0 7:3.0 14:1.0 728:1.0 
-0.0 -0.0 0.0 2.0 0.0 2:1.0 3:2.0 4:2.0 5:3.0 6:2.0 7:1.0 675:1.0 
-0.08159350915022726 -0.13834634871488358 0.7082468281103332 0.0 0.1927533402773798 2:1.0 3:2.0 4:1.0 5:3.0 6:3.0 7:1.0 14:1.0 729:1.0 
-0.026011272931709874 -0.18122859836956876 0.8874393743491212 0.0 0.20576417075571474 2:1.0 3:2.0 4:1.0 5:11.0 6:11.0 7:1.0 14:1.0 108:2.0 605:1.0 730:1.0 
-0.0 -0.0 0.0 0.0 0.11482461740020564 2:1.0 3:2.0 4:4.0 5:9.0 6:6.0 7:1.0 14:1.0 694:1.0 695:1.0 731:1.0 
-0.0 -0.0 0.0 0.043899982496590086 0.0 3:2.0 4:1.0 5:6.0 6:4.0 7:1.0 11:1.0 21:2.0 664:1.0 
-0.08177171598543674 -0.20087922374409267 0.7747544926484391 0.0 0.25074819051198927 2:1.0 3:2.0 4:3.0 5:4.0 6:2.0 7:1.0 14:1.0 732:1.0 
-0.44284911494548596 -0.44122897912172493 1.1006486026478295 0.0 0.8558523423837371 3:2.0 4:1.0 5:5.0 6:5.0 7:1.0 20:1.0 733:1.0 734:1.0 
-0.0 -0.0 2.0 0.0 0.0 1:1.0 2:1.0 3:2.0 4:1.0 5:7.0 6:7.0 7:1.0 
-0.5882866681343976 -0.0 2.0 0.0 1.5776798491270314 2:1.0 3:2.0 4:3.0 5:10.0 6:7.0 7:2.0 675:1.0 
-0.0 -0.0 0.0 2.0 0.0 1:1.0 2:1.0 3:2.0 4:1.0 5:8.0 6:6.0 7:2.0 21:1.0 
-0.0 -0.0 2.0 0.0 0.0 1:1.0 2:1.0 3:2.0 4:1.0 5:5.0 6:5.0 7:1.0 
-0.0 -0.0 2.0 0.0 0.0 1:1.0 2:1.0 3:2.0 4:1.0 5:4.0 6:4.0 7:1.0 
-0.2796881985614713 -0.0 2.0 0.0 0.09647754719108328 3:2.0 4:1.0 5:3.0 6:3.0 7:1.0 14:1.0 20:1.0 735:1.0 
-0.0 -0.0 2.0 0.0 0.0 1:1.0 2:1.0 3:2.0 4:1.0 5:3.0 6:3.0 7:1.0 
-1.211370195744762 -0.0 0.0 0.0 0.0 3:2.0 4:1.0 5:7.0 6:6.0 7:1.0 11:1.0 21:1.0 736:1.0 
-0.0 -0.0 0.0 2.0 0.0 1:1.0 2:1.0 3:2.0 4:2.0 5:5.0 6:3.0 7:1.0 21:1.0 
-0.0 -0.0 2.0 0.0 0.0 1:1.0 2:1.0 3:2.0 4:1.0 5:5.0 6:5.0 7:1.0 
-0.8116198720451545 -0.0 0.0 0.0 0.0 3:2.0 4:2.0 5:5.0 6:4.0 7:1.0 11:1.0 692:1.0 
-0.08213142591253764 -0.239987815934572 0.9077110577955095 0.0 0.2846083429741667 2:1.0 3:2.0 4:4.0 5:5.0 6:2.0 7:1.0 14:1.0 737:1.0 
-0.4862642165524042 -0.0 0.0 1.6321727336676215 0.0 3:2.0 4:2.0 5:15.0 6:11.0 7:1.0 11:1.0 21:3.0 661:1.0 
-0.0 -2.0 0.0 0.0 0.0 1:1.0 3:2.0 4:3.0 5:5.0 6:3.0 7:1.0 48:1.0 
-0.04130320498049772 -0.15506043290694402 0.7202612979346376 0.0 0.16895323694824887 2:1.0 3:2.0 4:5.0 5:8.0 6:4.0 7:1.0 14:1.0 738:1.0 739:1.0 
-0.17580054873975695 -0.0 0.0 0.0 0.0 2:1.0 3:2.0 4:1.0 5:8.0 6:7.0 7:2.0 14:1.0 100:1.0 112:1.0 740:1.0 
-0.0 -0.0 2.0 0.0 0.0 1:1.0 2:1.0 3:2.0 4:1.0 5:3.0 6:3.0 7:1.0 
-0.0 -0.0 2.0 0.0 0.0 1:1.0 2:1.0 3:2.0 4:1.0 5:4.0 6:4.0 7:1.0 
-0.0 -0.0 0.0 2.0 0.0 2:1.0 3:2.0 4:2.0 5:3.0 6:2.0 7:1.0 675:1.0 
-1.1148519612019425 -0.0 2.0 0.0 1.109425620886019 1:1.0 2:1.0 3:2.0 4:1.0 5:9.0 6:7.0 7:3.0 20:1.0 
-0.0 -0.0 2.0 0.0 0.0 1:1.0 2:1.0 3:2.0 4:1.0 5:4.0 6:4.0 7:1.0 
-0.0 -0.0 2.0 0.0 0.0 1:1.0 2:1.0 3:2.0 4:1.0 5:4.0 6:4.0 7:1.0 
-2.0 -2.0 2.0 0.0 2.0 1:1.0 2:1.0 3:2.0 4:4.0 5:8.0 6:5.0 7:1.0 
-0.0 -0.0 2.0 0.0 0.0 1:1.0 2:1.0 3:2.0 4:1.0 5:3.0 6:3.0 7:1.0 
-0.08134895001315205 -0.0 0.0 0.0 0.07457341753581223 2:1.0 3:2.0 4:1.0 5:5.0 6:3.0 7:3.0 14:1.0 741:1.0 
-0.20690435615016373 -0.0 2.0 0.0 0.0 1:1.0 2:1.0 3:2.0 4:1.0 5:6.0 6:6.0 7:1.0 
-0.0 -0.0 2.0 0.0 0.0 1:1.0 2:1.0 3:2.0 4:1.0 5:4.0 6:4.0 7:1.0 
-0.0 -0.0 0.690672466715208 0.0 0.03247986237692008 2:1.0 3:2.0 4:3.0 5:10.0 6:7.0 7:1.0 14:1.0 102:1.0 153:1.0 290:1.0 742:1.0 
-0.0 -2.0 2.0 0.0 0.0 1:1.0 2:1.0 3:2.0 4:3.0 5:5.0 6:3.0 7:1.0 
-0.0813489471311485 -0.12281028153549428 0.5085142459094861 0.0 0.1831925209387871 2:1.0 3:2.0 4:1.0 5:2.0 6:2.0 7:1.0 14:1.0 743:1.0 
-0.08158904278034848 -0.13835034663212364 0.708275631988365 0.0 0.19277253312277007 2:1.0 3:2.0 4:1.0 5:3.0 6:3.0 7:1.0 14:1.0 744:1.0 
-0.0 -0.0 2.0 0.0 0.0 1:1.0 2:1.0 3:2.0 4:1.0 5:4.0 6:4.0 7:1.0 
-0.11826126547027759 -0.0 0.0 1.9981570619812494 2.0 1:1.0 2:1.0 3:2.0 4:5.0 5:16.0 6:8.0 7:4.0 21:1.0 
-0.0 -0.0 1.3692871860145894 0.0 0.0 2:1.0 3:2.0 4:2.0 5:6.0 6:5.0 7:1.0 675:1.0 
-0.041100374859294936 -0.14492798662778392 0.5539830032868769 0.0 0.10593474841226337 2:1.0 3:2.0 4:1.0 5:5.0 6:5.0 7:1.0 14:1.0 444:1.0 745:1.0 
-2.0 -2.0 2.0 0.0 2.0 2:1.0 3:2.0 4:7.0 5:15.0 6:6.0 7:3.0 21:1.0 151:1.0 
-0.0 -2.0 0.9633541413676102 0.0 2.0 1:1.0 2:1.0 3:2.0 4:4.0 5:4.0 6:1.0 7:1.0 
-0.0 -0.0 2.0 0.0 0.0 1:1.0 2:1.0 3:2.0 4:1.0 5:9.0 6:7.0 7:3.0 
-0.14268571553355747 -0.288228782525518 0.2659584161239833 0.0 0.01080853746947773 2:1.0 3:2.0 4:3.0 5:8.0 6:5.0 7:2.0 14:1.0 112:1.0 746:1.0 747:1.0 
-0.0 -2.0 0.0 0.0 0.0 1:1.0 3:2.0 4:1.0 5:9.0 6:7.0 7:3.0 48:1.0 
-0.0 -0.0 2.0 0.0 0.0 1:1.0 2:1.0 3:2.0 4:1.0 5:4.0 6:4.0 7:1.0 
-0.08134882432463647 -0.12281035370614028 0.5085087778747721 0.0 0.1831911394454048 2:1.0 3:2.0 4:1.0 5:2.0 6:2.0 7:1.0 14:1.0 748:1.0 
-0.0 -0.0 2.0 0.0 0.0 3:2.0 4:2.0 5:15.0 6:13.0 7:2.0 11:1.0 661:1.0 
-0.0 -0.0 2.0 0.0 0.0 1:1.0 2:1.0 3:2.0 4:1.0 5:5.0 6:5.0 7:1.0 
-2.0 -2.0 2.0 0.0 2.0 1:1.0 2:1.0 3:2.0 4:2.0 5:11.0 6:10.0 7:1.0 
-0.0 -0.0 2.0 0.0 0.0 1:1.0 2:1.0 3:2.0 4:1.0 5:3.0 6:3.0 7:1.0 
-0.0 -0.0 2.0 0.0 0.0 1:1.0 2:1.0 3:2.0 4:1.0 5:11.0 6:9.0 7:3.0 
-0.0 -0.0 2.0 0.0 0.0 1:1.0 2:1.0 3:2.0 4:1.0 5:7.0 6:7.0 7:1.0 
-2.0 -0.0 2.0 0.0 0.0 1:1.0 2:1.0 3:2.0 4:1.0 5:6.0 6:6.0 7:1.0 
-0.0 -0.0 2.0 0.0 0.0 1:1.0 2:1.0 3:2.0 4:2.0 5:9.0 6:6.0 7:3.0 
-0.0 -0.0 0.0 0.008966049609735521 0.0 2:1.0 3:2.0 4:2.0 5:5.0 6:4.0 7:1.0 675:1.0 
-0.0 -0.0 0.0 2.0 0.0 1:1.0 2:1.0 3:2.0 4:1.0 5:5.0 6:4.0 7:1.0 21:1.0 
-2.0 -2.0 2.0 0.0 0.0 1:1.0 2:1.0 3:2.0 4:1.0 5:8.0 6:8.0 7:1.0 
-0.269041746845735 -0.31187552742370866 0.53220176351233 0.0 0.2733683777393691 2:1.0 3:2.0 4:2.0 5:6.0 6:4.0 7:2.0 14:1.0 61:1.0 72:1.0 749:1.0 
-0.0 -0.0 2.0 0.0 0.0 1:1.0 2:1.0 3:2.0 4:1.0 5:3.0 6:3.0 7:1.0 
-0.0 -2.0 2.0 0.0 0.02824929568475663 1:1.0 2:1.0 3:2.0 4:1.0 5:3.0 6:2.0 7:1.0 38:1.0 
-0.5078909850936357 -0.3471819059043086 1.199482168362954 0.0 0.28005948795716423 2:1.0 3:2.0 4:3.0 5:8.0 6:5.0 7:1.0 14:1.0 17:1.0 750:1.0 751:1.0 
-2.0 -2.0 2.0 0.0 2.0 1:1.0 2:1.0 3:2.0 4:2.0 5:8.0 6:7.0 7:1.0 
-0.1171891897161797 -0.16411193163122895 2.0 0.0 2.0 1:1.0 2:1.0 3:2.0 4:1.0 5:29.0 6:27.0 7:3.0 
-0.08200941430144337 -0.1539144453709117 1.0979375219316556 0.0 2.0 2:1.0 3:2.0 4:1.0 5:4.0 6:4.0 7:1.0 14:1.0 207:1.0 
-0.0 -0.0 1.5619184474707557 0.0 0.0 2:1.0 3:2.0 4:3.0 5:7.0 6:5.0 7:1.0 14:1.0 752:1.0 753:1.0 
-0.0 -0.10308335348199375 0.6826861849592409 0.0 0.19430029868306356 2:1.0 3:2.0 4:5.0 5:17.0 6:10.0 7:3.0 14:1.0 38:1.0 335:1.0 754:1.0 755:1.0 756:1.0 
-0.14253260626396588 -0.26098457344308307 0.09945008354807783 0.0 0.0 2:1.0 3:2.0 4:2.0 5:6.0 6:4.0 7:2.0 14:1.0 112:1.0 757:1.0 758:1.0 
-0.08135294218882767 -0.12281602530569352 0.5084818210162496 0.0 0.18318148670843046 2:1.0 3:2.0 4:1.0 5:2.0 6:2.0 7:1.0 14:1.0 759:1.0 
-0.0 -0.0 0.0 2.0 0.0 2:1.0 3:2.0 4:1.0 5:4.0 6:4.0 7:1.0 675:1.0 
-0.0 -0.0 2.0 0.0 0.0 1:1.0 2:1.0 3:2.0 4:3.0 5:4.0 6:2.0 7:1.0 
-0.4843142510131563 -0.06346076405641828 0.22721007671749358 0.0 0.5037942991951183 2:1.0 3:2.0 4:1.0 5:7.0 6:4.0 7:4.0 14:1.0 61:1.0 760:1.0 
-0.0 -0.0 2.0 0.0 2.0 1:1.0 2:1.0 3:2.0 4:1.0 5:17.0 6:14.0 7:4.0 
-0.0 -0.0 0.0 1.2068324833581796E-5 0.0 1:1.0 2:1.0 3:2.0 4:1.0 5:2.0 6:2.0 7:1.0 
-0.0 -0.0 2.0 0.0 0.0 1:1.0 2:1.0 3:2.0 4:1.0 5:4.0 6:4.0 7:1.0 
-0.34395784355502634 -0.6983455678843522 0.9977999553888791 0.0 0.7693307943683761 2:1.0 3:2.0 4:2.0 5:7.0 6:6.0 7:1.0 761:1.0 762:1.0 
-0.0 -2.0 2.0 0.0 0.0 1:1.0 2:1.0 3:2.0 4:3.0 5:4.0 6:2.0 7:1.0 
-0.0671016232286621 -0.25080069361995727 0.84691560198063 0.0 0.18885680191721477 2:1.0 3:2.0 4:1.0 5:7.0 6:7.0 7:1.0 14:1.0 108:1.0 763:1.0 
-7.390724102746834E-4 -0.0 0.0 0.0 0.0 3:2.0 4:3.0 5:12.0 6:9.0 7:1.0 11:1.0 21:1.0 661:1.0 
-0.05875281318482796 -0.0 0.060874736535774306 0.60955091677712 0.0 2:1.0 3:2.0 4:2.0 5:16.0 6:11.0 7:2.0 14:1.0 21:3.0 100:1.0 112:1.0 764:1.0 765:1.0 766:1.0 
-2.0 -2.0 2.0 0.0 2.0 1:1.0 2:1.0 3:2.0 4:1.0 5:11.0 6:11.0 7:1.0 
-0.0 -0.0 2.0 0.0 0.0 1:1.0 2:1.0 3:2.0 4:1.0 5:3.0 6:3.0 7:1.0 
-0.2847797680805981 -2.0 2.0 2.0 2.0 1:1.0 2:1.0 3:2.0 4:4.0 5:21.0 6:16.0 7:2.0 21:1.0 
-0.0 -0.0 2.0 0.0 0.0 1:1.0 2:1.0 3:2.0 4:1.0 5:3.0 6:3.0 7:1.0 
-2.0 -0.0 2.0 0.0 2.0 1:1.0 2:1.0 3:2.0 4:3.0 5:12.0 6:9.0 7:2.0 
-0.0 -0.0 0.0 0.11632855441618971 0.0 3:2.0 4:2.0 5:14.0 6:10.0 7:2.0 8:2.0 21:2.0 655:2.0 
-0.0 -0.03287860160406073 0.2752350861838189 0.0 0.0 2:1.0 3:2.0 4:1.0 5:12.0 6:12.0 7:1.0 14:1.0 372:1.0 494:1.0 767:1.0 
-0.027211465142737166 -0.0 0.08384026498710812 0.0 0.06932583080004252 2:1.0 3:2.0 4:1.0 5:9.0 6:6.0 7:4.0 14:1.0 768:1.0 769:1.0 770:1.0 
-0.0 -0.0 2.0 0.0 0.0 1:1.0 2:1.0 3:2.0 4:1.0 5:3.0 6:3.0 7:1.0 
-2.0 -2.0 2.0 0.0 2.0 1:1.0 2:1.0 3:2.0 4:3.0 5:10.0 6:8.0 7:1.0 
-0.07733417919247555 -0.9732230037393519 0.8236973778898119 0.0 0.09759134175514081 2:1.0 3:2.0 4:7.0 5:15.0 6:9.0 7:1.0 14:1.0 47:1.0 329:1.0 526:2.0 
-0.08175909317209665 -0.20098904216594488 0.7747697693542916 0.0 0.25074702982755603 2:1.0 3:2.0 4:3.0 5:4.0 6:2.0 7:1.0 14:1.0 771:1.0 
-2.0 -2.0 2.0 0.0 0.0 1:1.0 2:1.0 3:2.0 4:2.0 5:7.0 6:6.0 7:1.0 
-0.44251524683334026 -0.5872607575512115 0.5090615507414162 0.0 1.046001202549551 3:2.0 4:3.0 5:3.0 6:1.0 7:1.0 20:1.0 411:1.0 772:1.0 
-2.0 -2.0 2.0 0.0 2.0 1:1.0 2:1.0 3:2.0 4:1.0 5:15.0 6:15.0 7:1.0 
-0.0 -0.0 2.0 0.0 0.0 1:1.0 2:1.0 3:2.0 4:1.0 5:5.0 6:5.0 7:1.0 
-0.020524179222579316 -0.0 0.0 0.0 0.3299446077945479 2:1.0 3:2.0 4:4.0 5:12.0 6:5.0 7:4.0 14:1.0 21:1.0 336:1.0 532:1.0 773:1.0 774:1.0 
-0.0 -0.0 2.0 0.0 0.0 1:1.0 2:1.0 3:2.0 4:1.0 5:4.0 6:4.0 7:1.0 
-0.3284020213992728 -0.3432720906903068 0.12515066205229916 0.0 0.45685208547769823 2:1.0 3:2.0 4:1.0 5:7.0 6:7.0 7:1.0 124:1.0 752:1.0 775:1.0 
-0.0 -2.0 0.31752351235572135 0.0 0.0 1:1.0 3:2.0 4:1.0 5:8.0 6:5.0 7:3.0 48:1.0 53:1.0 
-0.0 -2.0 2.0 0.0 1.363774331799198 1:1.0 2:1.0 3:2.0 4:3.0 5:5.0 6:3.0 7:1.0 
-0.0 -0.0 0.16072642682268726 0.0 0.0 1:1.0 2:1.0 3:2.0 4:1.0 5:3.0 6:3.0 7:1.0 
-0.0 -0.0 2.0 0.0 0.0 1:1.0 2:1.0 3:2.0 4:2.0 5:4.0 6:3.0 7:1.0 
-1.0277230287729209 -1.0324653423134933 2.0 2.0 0.0 1:1.0 2:1.0 3:2.0 4:1.0 5:7.0 6:6.0 7:1.0 21:1.0 
-0.5784910504374909 -2.0 0.0 0.0 0.0 1:1.0 3:2.0 4:1.0 5:7.0 6:7.0 7:1.0 48:1.0 
-0.0 -0.0 2.0 0.0 0.0 1:1.0 2:1.0 3:2.0 4:1.0 5:3.0 6:3.0 7:1.0 
-2.0 -0.0 2.0 0.0 0.0 1:1.0 2:1.0 3:2.0 4:1.0 5:6.0 6:6.0 7:1.0 
-0.2054910450476761 -0.3236079429436744 2.0 0.11970639757646295 1.798381265413027 2:1.0 3:2.0 4:3.0 5:10.0 6:7.0 7:1.0 14:1.0 21:1.0 26:1.0 417:1.0 
-2.0 -0.0 2.0 0.0 0.0 1:1.0 2:1.0 3:2.0 4:1.0 5:7.0 6:7.0 7:1.0 
-1.9481862974373418 -2.0 2.0 0.0 2.0 1:1.0 2:1.0 3:2.0 4:3.0 5:6.0 6:4.0 7:1.0 
-0.0 -0.0 2.0 0.0 0.0 1:1.0 2:1.0 3:2.0 4:1.0 5:5.0 6:5.0 7:1.0 
-2.0 -0.6532678321051056 1.5244337573749678 0.0 1.8172385743196036 2:1.0 3:2.0 4:2.0 5:10.0 6:7.0 7:2.0 151:1.0 172:1.0 
-2.0 -0.0 2.0 0.0 0.0 1:1.0 2:1.0 3:2.0 4:1.0 5:7.0 6:7.0 7:1.0 
-0.5284025872233064 -0.0 2.0 0.0 2.0 1:1.0 2:1.0 3:2.0 4:1.0 5:10.0 6:7.0 7:3.0 38:1.0 
-2.0 -0.0 2.0 0.0 0.0 1:1.0 2:1.0 3:2.0 4:1.0 5:7.0 6:7.0 7:1.0 
-0.0 -0.0 2.0 0.0 0.0 1:1.0 2:1.0 3:2.0 4:1.0 5:4.0 6:4.0 7:1.0 
-0.12138837729177741 -0.10846525859633314 0.5318844448557127 0.0 0.17082541200911816 2:1.0 3:2.0 4:5.0 5:14.0 6:8.0 7:3.0 14:1.0 61:1.0 776:1.0 777:1.0 778:1.0 779:1.0 
-1.4584210628835488 -0.6094032779351681 0.0 0.0 0.0 3:2.0 4:3.0 5:7.0 6:5.0 11:1.0 41:1.0 669:1.0 
-0.0 -0.0 2.0 0.0 0.0 1:1.0 2:1.0 3:2.0 4:1.0 5:4.0 6:4.0 7:1.0 
-2.0 -2.0 2.0 0.0 2.0 1:1.0 2:1.0 3:2.0 4:2.0 5:9.0 6:8.0 7:1.0 
-0.0 -0.0 0.0 0.0 0.06198050836169528 3:2.0 4:1.0 5:23.0 6:19.0 7:5.0 11:1.0 690:1.0 
-1.987533227909806 -2.0 2.0 0.0 2.0 1:1.0 2:1.0 3:2.0 4:3.0 5:6.0 6:4.0 7:1.0 
-0.0 -0.0 2.0 0.0 0.0 1:1.0 2:1.0 3:2.0 4:1.0 5:11.0 6:9.0 7:3.0 
-2.0 -2.0 2.0 0.0 2.0 1:1.0 2:1.0 3:2.0 4:1.0 5:17.0 6:17.0 7:1.0 
-0.0 -0.0 2.0 0.0 2.0 1:1.0 2:1.0 3:2.0 4:5.0 5:19.0 6:10.0 7:6.0 
-0.0 -0.0 0.0 0.3781961283338983 0.0 1:1.0 2:1.0 3:2.0 4:2.0 5:4.0 6:2.0 7:1.0 172:1.0 
-0.0 -0.0 0.0 2.0 0.0 2:1.0 3:2.0 4:2.0 5:3.0 6:2.0 7:1.0 675:1.0 
-0.0 -0.0 0.33202961934990183 0.0997896239934968 0.0 2:1.0 3:2.0 4:2.0 5:11.0 6:9.0 7:1.0 14:1.0 41:1.0 706:1.0 780:1.0 
-0.0 -0.0 2.0 0.0 0.0 1:1.0 2:1.0 3:2.0 4:1.0 5:3.0 6:3.0 7:1.0 
-1.8439439523964625 -2.0 2.0 0.0 0.0 1:1.0 2:1.0 3:2.0 4:2.0 5:6.0 6:5.0 7:1.0 
-0.0 -0.006522282069273962 2.0 1.168474259759409 1.0962487578861515 1:1.0 2:1.0 3:2.0 4:3.0 5:8.0 6:4.0 7:1.0 53:2.0 
-0.0 -2.0 0.0 0.0 0.0 1:1.0 3:2.0 4:1.0 5:4.0 6:4.0 7:1.0 48:1.0 
-0.065151549990395 -0.0 2.0 0.0 2.0 1:1.0 2:1.0 3:2.0 4:5.0 5:12.0 6:6.0 7:3.0 
-0.0 -0.0 2.0 0.0 0.0 1:1.0 2:1.0 3:2.0 4:1.0 5:5.0 6:5.0 7:1.0 
-0.0 -0.0 0.0 2.0 0.0 2:1.0 3:2.0 4:1.0 5:3.0 6:3.0 7:1.0 675:1.0 
-0.08236787061868321 -0.18508062615156162 1.3078712374232218 0.0 0.22156243396010636 2:1.0 3:2.0 4:1.0 5:6.0 6:6.0 7:1.0 14:1.0 781:1.0 
-0.0 -0.13900893414920434 0.0 0.4611642719145134 0.0 1:1.0 2:1.0 3:2.0 4:1.0 5:2.0 6:1.0 7:1.0 38:1.0 
-0.0 -0.0 0.0 0.7147520561931588 0.0 2:1.0 3:2.0 4:1.0 5:5.0 6:5.0 7:1.0 675:1.0 
-2.0 -2.0 2.0 0.0 0.0 1:1.0 2:1.0 3:2.0 4:2.0 5:7.0 6:6.0 7:1.0 
-0.08158496039312392 -0.13834542156705465 0.708269758986922 0.0 0.1927725828026136 2:1.0 3:2.0 4:1.0 5:3.0 6:3.0 7:1.0 14:1.0 782:1.0 
-0.0 -0.0 2.0 0.0 0.0 1:1.0 2:1.0 3:2.0 4:1.0 5:4.0 6:4.0 7:1.0 
-0.0 -0.0 2.0 0.0 0.0 1:1.0 2:1.0 3:2.0 4:1.0 5:3.0 6:3.0 7:1.0 
-2.0 -2.0 2.0 0.0 2.0 1:1.0 2:1.0 3:2.0 4:4.0 5:9.0 6:6.0 7:1.0 
-2.0 -2.0 2.0 0.0 2.0 1:1.0 2:1.0 3:2.0 4:1.0 5:11.0 6:11.0 7:1.0 
-2.0 -2.0 2.0 0.0 2.0 1:1.0 2:1.0 3:2.0 4:3.0 5:9.0 6:7.0 7:1.0 
-0.0 -0.0 2.0 0.0 0.0 1:1.0 2:1.0 3:2.0 4:2.0 5:5.0 6:4.0 7:1.0 
-2.0 -2.0 2.0 0.0 0.0 1:1.0 2:1.0 3:2.0 4:2.0 5:7.0 6:6.0 7:1.0 
-2.0 -2.0 2.0 0.0 1.0900394334694494 1:1.0 2:1.0 3:2.0 4:1.0 5:10.0 6:10.0 7:1.0 
-0.0 -0.4745754923836679 2.0 0.11948126462592722 0.7149450443208616 2:1.0 3:2.0 4:5.0 5:10.0 6:5.0 7:1.0 14:1.0 21:1.0 287:1.0 783:1.0 
-0.7175247463844076 -0.0 2.0 0.0 0.0 3:2.0 4:1.0 5:12.0 6:12.0 7:1.0 11:1.0 661:1.0 
-0.0 -0.0 2.0 0.0 0.0 1:1.0 2:1.0 3:2.0 4:1.0 5:4.0 6:4.0 7:1.0 
-2.0 -0.0 2.0 0.0 0.0 1:1.0 2:1.0 3:2.0 4:1.0 5:7.0 6:7.0 7:1.0 
-0.0 -0.0 0.0 2.0 0.0 2:1.0 3:2.0 4:2.0 5:3.0 6:2.0 7:1.0 675:1.0 
-0.4673785547883961 -0.9518887117079253 1.9650146030870874 0.0 0.9551472904341821 2:1.0 3:2.0 4:2.0 5:13.0 6:10.0 7:2.0 41:1.0 706:1.0 784:1.0 
-0.0 -0.0 2.0 0.0 0.0 1:1.0 2:1.0 3:2.0 4:1.0 5:5.0 6:5.0 7:1.0 
-0.0 -0.0 2.0 0.0 0.0 1:1.0 2:1.0 3:2.0 4:3.0 5:4.0 6:2.0 7:1.0 
-0.0 -0.0 2.0 0.0 0.0 1:1.0 2:1.0 3:2.0 4:1.0 5:9.0 6:7.0 7:3.0 
-0.0 -0.0 2.0 0.0 0.0 1:1.0 2:1.0 3:2.0 4:1.0 5:3.0 6:3.0 7:1.0 
-0.04104798737011639 -0.0 0.3922981813411537 0.0 0.7218939091725426 2:1.0 3:2.0 4:2.0 5:12.0 6:8.0 7:4.0 14:1.0 785:1.0 786:1.0 
-0.0 -0.0 2.0 0.0 0.0 3:2.0 4:1.0 5:35.0 6:32.0 7:4.0 8:1.0 655:1.0 
-0.08221517798056308 -0.16950129562221464 1.1079572867139749 0.0 0.21186126930426014 2:1.0 3:2.0 4:1.0 5:5.0 6:5.0 7:1.0 14:1.0 787:1.0 
-1.712543963313765 -2.0 2.0 0.0 0.0 1:1.0 2:1.0 3:2.0 4:1.0 5:9.0 6:9.0 7:1.0 
-0.04140730719831921 -0.14689391722763584 0.9870219213847695 0.0 0.3160983424006482 2:1.0 3:2.0 4:3.0 5:10.0 6:8.0 7:1.0 14:1.0 788:1.0 789:1.0 
-0.11982199474716772 -0.34326548366754017 0.12516709173316257 0.0 0.45684596305634506 2:1.0 3:2.0 4:1.0 5:7.0 6:7.0 7:1.0 752:1.0 790:1.0 791:1.0 
-2.0 -2.0 2.0 0.0 0.0 1:1.0 2:1.0 3:2.0 4:2.0 5:6.0 6:5.0 7:1.0 
-0.0072491323006467585 -0.0 0.0 0.0 0.0 3:2.0 4:1.0 5:9.0 6:8.0 7:1.0 11:1.0 38:1.0 661:1.0 
-2.0 -0.0 2.0 0.0 2.0 1:1.0 2:1.0 3:2.0 4:3.0 5:11.0 6:8.0 7:2.0 
-0.0 -0.0 2.0 0.0 0.0 1:1.0 2:1.0 3:2.0 4:3.0 5:4.0 6:2.0 7:1.0 
-0.6869927124443914 -1.31092720430617 1.2628815212258142 0.0 1.4757909469258972 2:1.0 3:2.0 4:1.0 5:3.0 6:3.0 7:1.0 792:1.0 
-1.9618831035563213 -0.0 2.0 0.0 0.0 1:1.0 2:1.0 3:2.0 4:1.0 5:6.0 6:6.0 7:1.0 
-0.0 -2.0 2.0 0.0 0.3037055091827963 1:1.0 2:1.0 3:2.0 4:3.0 5:5.0 6:3.0 7:1.0 
-0.0 -0.0 2.0 0.0 0.0 1:1.0 2:1.0 3:2.0 4:1.0 5:5.0 6:5.0 7:1.0 
-1.783990908813251 -2.0 2.0 0.0 0.0 1:1.0 2:1.0 3:2.0 4:1.0 5:11.0 6:10.0 7:1.0 53:1.0 
-0.08222112173040706 -0.16952740730040686 1.1079823482217135 0.0 0.21186730246270266 2:1.0 3:2.0 4:1.0 5:5.0 6:5.0 7:1.0 14:1.0 793:1.0 
-0.0 -2.0 2.0 0.0 0.0 1:1.0 2:1.0 3:2.0 4:1.0 5:9.0 6:9.0 7:1.0 
-0.31874327688395254 -0.6825218945907229 1.1367492160532449 0.0 0.4057431444499042 2:1.0 3:2.0 4:1.0 5:9.0 6:8.0 7:2.0 61:1.0 152:1.0 208:1.0 794:1.0 
-0.08213510252347685 -0.23999256453753598 0.9077648190178208 0.0 0.2846493812598643 2:1.0 3:2.0 4:4.0 5:5.0 6:2.0 7:1.0 14:1.0 795:1.0 
-2.0 -2.0 2.0 0.0 2.0 1:1.0 2:1.0 3:2.0 4:3.0 5:7.0 6:5.0 7:1.0 
-0.0 -0.0 0.0 2.0 0.0 2:1.0 3:2.0 4:2.0 5:3.0 6:2.0 7:1.0 675:1.0 
-0.0 -0.12281546352922552 0.508538401836197 0.0 0.10861734702908529 2:1.0 3:2.0 4:1.0 5:2.0 6:2.0 7:1.0 14:1.0 741:1.0 
-0.0 -0.0 2.0 0.0 0.0 1:1.0 2:1.0 3:2.0 4:1.0 5:10.0 6:8.0 7:3.0 
-0.0 -0.0 0.0 2.0 0.0 1:1.0 2:1.0 3:2.0 4:1.0 5:6.0 6:5.0 7:1.0 21:1.0 
-2.0 -2.0 2.0 0.0 0.0 1:1.0 2:1.0 3:2.0 4:2.0 5:6.0 6:5.0 7:1.0 
-1.2278964497777336 -0.6475790613157086 2.0 0.0 1.1139900453517755 2:1.0 3:2.0 4:3.0 5:4.0 6:2.0 7:1.0 14:1.0 31:1.0 
-0.22938921992846983 -0.582912019553065 1.3230342414214906 0.0 0.6319301556154933 2:1.0 3:2.0 4:3.0 5:10.0 6:8.0 7:1.0 508:1.0 796:1.0 797:1.0 
-0.0 -0.0 2.0 0.0 0.0 1:1.0 2:1.0 3:2.0 4:1.0 5:4.0 6:4.0 7:1.0 
-0.0 -0.0 0.0 0.04942641926067842 0.0 1:1.0 2:1.0 3:2.0 4:1.0 5:2.0 6:2.0 7:1.0 
-1.6313291521383182 -2.0 2.0 0.0 0.0 1:1.0 2:1.0 3:2.0 4:1.0 5:9.0 6:9.0 7:1.0 
-2.0 -2.0 2.0 0.0 2.0 1:1.0 2:1.0 3:2.0 4:2.0 5:9.0 6:8.0 7:1.0 
-0.4827094721829729 -0.3466988107659803 0.16371490108806777 0.0 0.23254099403452627 2:1.0 3:2.0 4:3.0 5:9.0 6:5.0 7:2.0 14:1.0 41:1.0 153:1.0 173:1.0 
-0.0 -0.0 0.0 1.4676403453420872 0.0 2:1.0 3:2.0 4:2.0 5:5.0 6:4.0 7:1.0 675:1.0 
-0.0 -0.0 2.0 0.0 0.0 1:1.0 2:1.0 3:2.0 4:1.0 5:3.0 6:3.0 7:1.0 
-0.0 -0.0 0.15249417267192808 0.0 0.0 1:1.0 2:1.0 3:2.0 4:1.0 5:3.0 6:3.0 7:1.0 
-0.1140168070418363 -0.4250683682605848 0.6367124984112145 0.0 0.3308784802277052 2:1.0 3:2.0 4:1.0 5:8.0 6:8.0 7:1.0 14:1.0 66:1.0 798:1.0 799:1.0 
-0.0 -0.0 0.0 2.0 0.0 1:1.0 2:1.0 3:2.0 4:1.0 5:7.0 6:4.0 7:3.0 21:1.0 
-0.5078084362981646 -0.2705907269421269 0.5632192142229892 0.0 0.7793780609880702 2:1.0 3:2.0 4:3.0 5:9.0 6:5.0 7:2.0 14:1.0 17:1.0 800:1.0 801:1.0 
-0.0 -0.0 2.0 0.0 0.0 1:1.0 2:1.0 3:2.0 4:1.0 5:3.0 6:3.0 7:1.0 
-0.08201385476688527 -0.15393823737527532 0.9081884068742843 0.0 0.20239423198085366 2:1.0 3:2.0 4:1.0 5:4.0 6:4.0 7:1.0 14:1.0 802:1.0 
-0.0 -0.0 0.2783451037580934 0.0 0.0 2:1.0 3:2.0 4:4.0 5:12.0 6:8.0 7:2.0 14:1.0 100:1.0 803:1.0 804:1.0 805:1.0 
-0.0 -0.010605908126611975 0.0 0.0 0.0 3:2.0 4:1.0 5:20.0 6:17.0 7:1.0 11:1.0 21:3.0 661:1.0 
-0.0 -0.0 0.0 2.0 0.0 1:1.0 2:1.0 3:2.0 4:1.0 5:3.0 6:2.0 7:2.0 20:1.0 
-0.0 -0.0 0.0 2.0 0.0 2:1.0 3:2.0 4:1.0 5:4.0 6:4.0 7:1.0 675:1.0 
-0.37542175160743013 -0.0 0.058913749972346344 0.0 0.14253677381272906 2:1.0 3:2.0 4:1.0 5:8.0 6:6.0 7:3.0 14:1.0 61:1.0 100:1.0 806:1.0 
-0.0 -0.0 0.0 2.0 0.0 2:1.0 3:2.0 4:1.0 5:3.0 6:3.0 7:1.0 675:1.0 
-0.12622303003043533 -0.7831586142847956 0.8539247589334001 0.0 0.12053475883775326 2:1.0 3:2.0 4:1.0 5:8.0 6:8.0 7:1.0 14:1.0 184:1.0 201:1.0 
-0.4848163477726377 -0.36950489503358197 0.9314347150338095 0.0 0.5128354544454902 2:1.0 3:2.0 4:1.0 5:5.0 6:4.0 7:2.0 14:1.0 61:1.0 807:1.0 
-0.0 -0.0 2.0 0.0 0.0 1:1.0 2:1.0 3:2.0 4:1.0 5:7.0 6:5.0 7:3.0 20:1.0 
-0.3005699052054794 -0.03174233234320051 0.31111393208488797 0.0 0.1278541840339321 2:1.0 3:2.0 4:3.0 5:6.0 6:3.0 7:2.0 14:1.0 104:1.0 808:1.0 
-0.0 -0.0 2.0 0.0 0.0 1:1.0 2:1.0 3:2.0 4:1.0 5:3.0 6:3.0 7:1.0 
-2.0 -2.0 2.0 0.0 0.0 1:1.0 2:1.0 3:2.0 4:1.0 5:8.0 6:8.0 7:1.0 
-0.0 -0.0 0.0 2.0 0.0 1:1.0 2:1.0 3:2.0 4:1.0 5:5.0 6:4.0 7:1.0 21:1.0 
-0.0 -0.0 2.0 0.0 0.0 1:1.0 2:1.0 3:2.0 4:2.0 5:5.0 6:4.0 7:1.0 
-0.0 -0.0 2.0 0.0 0.0 1:1.0 2:1.0 3:2.0 4:1.0 5:3.0 6:3.0 7:1.0 
-0.0 -0.0 2.0 0.0 0.0 1:1.0 2:1.0 3:2.0 4:1.0 5:3.0 6:3.0 7:1.0 
-0.5347698540984316 -0.6709785060024144 1.6314280250756583 0.0 0.7499901891818124 2:1.0 3:2.0 4:1.0 5:7.0 6:6.0 7:1.0 53:1.0 142:1.0 809:1.0 
-2.0 -2.0 2.0 0.0 0.0 1:1.0 2:1.0 3:2.0 4:1.0 5:9.0 6:9.0 7:1.0 
-0.0 -0.0 0.0 0.7412699952313029 0.0 1:1.0 2:1.0 3:2.0 4:2.0 5:2.0 6:1.0 7:1.0 
-0.0 -1.389156329276967 0.0 1.6765916615677514 0.0 2:1.0 3:2.0 4:3.0 5:5.0 6:3.0 7:1.0 675:1.0 
-1.2105650510459716 -0.0 0.0 0.0 0.0 3:2.0 4:1.0 5:3.0 6:3.0 7:1.0 11:1.0 810:1.0 
-0.28187369764875364 -0.0 0.0 0.0 0.0 3:2.0 4:3.0 5:6.0 6:3.0 7:1.0 11:1.0 21:1.0 692:1.0 
-0.0 -0.0 2.0 0.0 0.0 1:1.0 2:1.0 3:2.0 4:1.0 5:3.0 6:3.0 7:1.0 
-0.284495788766461 -0.0 2.0 0.0 2.0 1:1.0 2:1.0 3:2.0 4:5.0 5:9.0 6:4.0 7:2.0 
-0.08775111032974775 -0.21735077518630713 -0.3209054112329861 0.0 0.3885699136873502 2:1.0 3:2.0 4:1.0 5:9.0 6:7.0 7:3.0 811:1.0 812:1.0 
-0.0 -0.36370108753342145 -0.5889335790877721 0.0 0.4245947469453407 2:1.0 3:2.0 4:3.0 5:7.0 6:4.0 7:2.0 14:1.0 122:1.0 813:1.0 
-0.0 -0.0 -0.0 0.0 0.38666101000999437 2:1.0 3:2.0 4:1.0 5:17.0 6:14.0 7:4.0 686:1.0 814:1.0 815:1.0 816:1.0 
-0.0 -0.033509536937204765 -0.0 0.0 0.1592697023562311 2:1.0 3:2.0 4:1.0 5:10.0 6:9.0 7:2.0 817:1.0 818:1.0 819:1.0 
-0.12548213341667258 -0.50458959017036 -0.0 0.0 0.133896738400911 2:1.0 3:2.0 4:1.0 5:10.0 6:8.0 7:2.0 14:1.0 38:1.0 42:1.0 66:1.0 822:1.0 
-0.0 -0.036452310875630056 -0.0 0.0 0.15093320048435427 2:1.0 3:2.0 4:6.0 5:13.0 6:8.0 7:1.0 14:1.0 823:1.0 824:1.0 825:1.0 
-0.0 -0.26179591452306644 -0.0 0.0 0.5697460301043216 2:1.0 3:2.0 4:1.0 5:17.0 6:16.0 7:2.0 14:1.0 277:1.0 291:1.0 372:1.0 826:1.0 827:1.0 
-0.0 -0.0 -0.0 0.0 0.8990174253087129 2:1.0 3:2.0 4:3.0 5:8.0 6:6.0 7:1.0 254:1.0 828:1.0 829:1.0 
-0.0 -0.0 -2.0 0.0 0.0 1:1.0 2:1.0 3:2.0 4:1.0 5:6.0 6:6.0 7:1.0 
-0.17979575451918622 -0.06624430632126933 -0.0 0.0 0.24359145877011565 2:1.0 3:2.0 4:5.0 5:15.0 6:9.0 7:1.0 17:1.0 38:1.0 174:1.0 830:1.0 831:1.0 832:1.0 
-0.0 -0.0 -2.0 0.0 0.0 1:1.0 2:1.0 3:2.0 4:1.0 5:5.0 6:5.0 7:1.0 
-0.008888472026751965 -0.0 -2.0 0.0 0.0 1:1.0 2:1.0 3:2.0 4:1.0 5:7.0 6:7.0 7:1.0 
-0.10747286240122228 -0.0 -2.0 0.0 0.0 1:1.0 2:1.0 3:2.0 4:1.0 5:7.0 6:7.0 7:1.0 
-0.0 -0.0 -0.0 0.0 0.38897653225936996 2:1.0 3:2.0 4:3.0 5:9.0 6:6.0 7:2.0 14:1.0 221:1.0 834:1.0 835:1.0 
-0.15149510220935106 -0.0 -0.0 0.0 0.6053849136685431 2:1.0 3:2.0 4:3.0 5:13.0 6:10.0 7:2.0 14:1.0 164:1.0 837:1.0 839:1.0 840:1.0 
-0.0 -0.059634021461834594 -0.1792768966306827 0.0 0.16269715361263115 2:1.0 3:2.0 4:3.0 5:5.0 6:3.0 7:1.0 836:1.0 841:1.0 
-2.0 -2.0 -2.0 0.0 0.002864768059913782 1:1.0 2:1.0 3:2.0 4:3.0 5:7.0 6:5.0 7:1.0 
-0.0 -0.1694442931775498 -2.0 0.0 2.0 1:1.0 2:1.0 3:2.0 4:4.0 5:6.0 6:3.0 7:1.0 
-0.087753804583288 -0.2176610735312571 -0.0 0.0 0.3429366381328402 2:1.0 3:2.0 4:1.0 5:7.0 6:7.0 7:1.0 842:1.0 843:1.0 
-0.0 -0.0 -0.22270028971921849 0.0 0.0 3:2.0 4:1.0 5:12.0 6:7.0 7:4.0 14:1.0 20:1.0 21:1.0 53:1.0 796:1.0 844:1.0 845:1.0 846:1.0 
-0.0 -0.012650280139594622 -0.11411203589474818 0.0 0.0 2:1.0 3:2.0 4:1.0 5:5.0 6:5.0 7:1.0 254:1.0 455:1.0 
-0.08751403681121643 -1.8592097850800295 -0.23546384681410684 0.0 0.3819811838455549 2:1.0 3:2.0 4:3.0 5:5.0 6:3.0 7:1.0 274:1.0 847:1.0 
-0.17380232106738505 -0.0 -0.3676627070013788 0.0 0.0 2:1.0 3:2.0 4:1.0 5:9.0 6:8.0 7:2.0 14:1.0 61:1.0 379:1.0 605:1.0 
-1.9985879777770406 -2.0 -2.0 0.0 2.0 1:1.0 2:1.0 3:2.0 4:4.0 5:11.0 6:8.0 7:1.0 
-0.06228548509619371 -0.0 -2.0 0.0 0.0 1:1.0 2:1.0 3:2.0 4:1.0 5:7.0 6:7.0 7:1.0 
-0.0 -0.0 -2.0 0.0 0.0 1:1.0 2:1.0 3:2.0 4:1.0 5:5.0 6:5.0 7:1.0 
-0.0 -0.0 -2.0 0.0 2.0 1:1.0 2:1.0 3:2.0 4:2.0 5:9.0 6:5.0 7:3.0 54:1.0 
-1.8436259140071327 -0.0 -2.0 0.014706007020304545 0.0 3:2.0 4:1.0 5:12.0 6:8.0 7:4.0 11:1.0 21:1.0 661:1.0 
-2.8505691566530676E-4 -0.10970148824852996 -2.0 0.0 0.05882801561423276 2:1.0 3:2.0 4:1.0 5:5.0 6:5.0 7:1.0 14:1.0 682:1.0 
-0.07232082585933094 -0.06507091642711721 -0.0 0.0 0.0 2:1.0 3:2.0 4:6.0 5:22.0 6:12.0 7:3.0 17:1.0 35:1.0 53:2.0 84:1.0 254:1.0 291:1.0 513:1.0 848:1.0 
-0.0 -0.28684865752561195 -0.20949371827072513 0.16665698373585094 1.2313143348697544 2:1.0 3:2.0 4:1.0 5:9.0 6:8.0 7:1.0 21:1.0 335:1.0 849:1.0 850:1.0 
-0.030825023550246536 -0.0 -0.0 0.0 0.0 2:1.0 3:2.0 4:1.0 5:7.0 6:7.0 7:1.0 67:1.0 189:1.0 851:1.0 
-0.0 -0.0 -0.7103469317372731 0.0 0.0 2:1.0 3:2.0 4:1.0 5:8.0 6:8.0 7:1.0 14:1.0 434:1.0 852:1.0 
-0.2804296039912552 -0.0 -0.915184882122379 0.0 0.7564247643142231 3:2.0 4:2.0 5:3.0 6:2.0 7:1.0 20:1.0 272:1.0 
-0.0 -0.0 -0.07972678995054001 0.0 0.02150870729339813 2:1.0 3:2.0 4:2.0 5:8.0 6:6.0 7:2.0 452:1.0 796:1.0 853:1.0 854:1.0 
-0.16731054813077462 -0.07672254697326149 -1.2834976132882179 0.49805102793991585 0.42488476753492016 3:2.0 4:1.0 5:7.0 6:6.0 7:1.0 20:1.0 21:1.0 717:1.0 855:1.0 
-0.2519226558431009 -0.943514466805484 -2.0 0.0 0.0 1:1.0 2:1.0 3:2.0 4:1.0 5:7.0 6:7.0 7:1.0 
-0.0 -0.0 -2.0 0.0 0.0 1:1.0 2:1.0 3:2.0 4:1.0 5:5.0 6:5.0 7:1.0 
-0.0 -0.2320471976273351 -0.0 0.0 0.0 2:1.0 3:2.0 4:4.0 5:11.0 6:6.0 7:2.0 38:1.0 326:1.0 336:1.0 558:1.0 856:1.0 
-0.0 -0.33374961580487505 -0.5221454292093057 0.0 0.14296707703095743 2:1.0 3:2.0 4:1.0 5:7.0 6:6.0 7:2.0 14:1.0 242:1.0 857:1.0 
-0.0 -0.0 -0.0 0.0 0.09207190257719987 2:1.0 3:2.0 4:1.0 5:15.0 6:12.0 7:3.0 20:1.0 53:1.0 88:1.0 242:1.0 858:1.0 
-0.0 -0.03928166404091361 -0.0 0.0 0.9108814191808903 3:2.0 4:1.0 5:6.0 6:5.0 7:1.0 54:1.0 299:1.0 859:1.0 860:1.0 
-0.14105530582522577 -0.0 -2.0 0.0 2.0 1:1.0 2:1.0 3:2.0 4:3.0 5:15.0 6:12.0 7:2.0 
-2.6931866951624958E-5 -0.054093202120287766 -0.7502662598789753 0.0 0.1514759392961583 2:1.0 3:2.0 4:1.0 5:13.0 6:9.0 7:5.0 14:1.0 861:1.0 862:1.0 
-0.3512735414075182 -0.0 -2.0 0.0 2.0 1:1.0 2:1.0 3:2.0 4:1.0 5:13.0 6:11.0 7:3.0 
-0.0 -0.24985995619847662 -0.24465020486978512 0.0 0.20187093885501267 2:1.0 3:2.0 4:3.0 5:10.0 6:8.0 7:1.0 323:1.0 695:1.0 863:1.0 
-0.0 -0.038529465970616135 -0.0 0.0 0.051371813679196646 2:1.0 3:2.0 4:1.0 5:8.0 6:8.0 7:1.0 14:1.0 227:1.0 864:1.0 
-0.0 -0.0 -0.0 0.0 0.29049510650897503 2:1.0 3:2.0 4:2.0 5:7.0 6:6.0 7:1.0 452:1.0 865:1.0 
-0.0 -0.059622394647730205 -0.11241212171277638 0.0 0.10841994150429338 2:1.0 3:2.0 4:2.0 5:5.0 6:4.0 7:1.0 836:1.0 866:1.0 
-0.07469359603766498 -0.003002402792010582 -0.0 0.0 0.0 2:1.0 3:2.0 4:1.0 5:10.0 6:9.0 7:1.0 14:1.0 17:1.0 818:1.0 867:1.0 868:1.0 869:1.0 
-0.05873197924667909 -0.0 -0.0 0.038266679681236995 0.19322326729026573 2:1.0 3:2.0 4:1.0 5:7.0 6:6.0 7:1.0 21:1.0 543:1.0 765:1.0 858:1.0 
-0.0 -0.0 -0.0 0.0 0.16365847785929172 3:2.0 4:1.0 5:10.0 6:10.0 7:1.0 299:1.0 870:1.0 871:1.0 
-0.0 -0.24803949383096544 -2.0 0.0 0.0 3:2.0 4:2.0 5:6.0 6:4.0 7:1.0 11:1.0 53:1.0 661:1.0 
-0.04171342270109214 -0.0 -2.0 0.0 0.0 1:1.0 2:1.0 3:2.0 4:1.0 5:10.0 6:10.0 7:1.0 
-0.0 -0.0025139083931427306 -0.0 0.0 2.0 2:1.0 3:2.0 4:3.0 5:5.0 6:3.0 7:1.0 434:1.0 872:1.0 
-0.0 -0.0 -0.0 0.0 0.1850908571407694 2:1.0 3:2.0 4:7.0 5:14.0 6:7.0 7:2.0 872:1.0 873:1.0 874:1.0 875:1.0 
-0.0 -0.00799797768667352 -0.12708656465705748 0.0 0.0 2:1.0 3:2.0 4:4.0 5:10.0 6:6.0 7:2.0 434:1.0 876:1.0 877:1.0 878:1.0 879:1.0 
-0.015588067914892447 -0.010201238488899459 -0.0 0.0 0.0 2:1.0 3:2.0 4:2.0 5:8.0 6:5.0 7:2.0 14:1.0 38:1.0 42:1.0 880:1.0 881:1.0 
-0.050058997521122715 -0.0 -0.27629179626646394 0.0 0.0 2:1.0 3:2.0 4:1.0 5:8.0 6:8.0 7:1.0 152:1.0 882:1.0 883:1.0 
-2.0306402416433452E-4 -0.05488993660943274 -0.17954397749587656 0.0 0.07947389011674717 2:1.0 3:2.0 4:2.0 5:8.0 6:7.0 7:1.0 14:1.0 884:1.0 885:1.0 
-0.0 -0.36011521182901934 -0.9739198467956267 0.0 0.46198562057838255 2:1.0 3:2.0 4:2.0 5:8.0 6:3.0 7:4.0 14:1.0 38:1.0 359:1.0 886:1.0 
-0.7398729880507093 -0.0 -0.6470386850480713 0.0 0.0 1:1.0 2:1.0 3:2.0 4:1.0 5:13.0 6:13.0 7:1.0 
-0.0 -0.0 -2.0 0.0 0.0 1:1.0 2:1.0 3:2.0 4:1.0 5:6.0 6:6.0 7:1.0 
-0.0 -0.0 -0.0 0.0 0.08353073750434228 2:1.0 3:2.0 4:3.0 5:16.0 6:12.0 7:3.0 14:1.0 887:1.0 888:1.0 889:1.0 890:1.0 891:1.0 
-0.031223402358255093 -0.08741188691339762 -0.19398031127052534 0.0 0.0 2:1.0 3:2.0 4:3.0 5:8.0 6:6.0 7:1.0 686:1.0 873:1.0 892:1.0 
-3.7163163643377773E-4 -0.10968415371916927 -0.8920424113650949 0.0 0.05878209794761498 2:1.0 3:2.0 4:1.0 5:5.0 6:5.0 7:1.0 14:1.0 893:1.0 
-0.08943089905305951 -0.0855800527001756 -2.0 0.0 0.0 1:1.0 2:1.0 3:2.0 4:1.0 5:10.0 6:10.0 7:1.0 
-0.05993185659676245 -0.562412257946574 -0.0 0.0 0.6269443130692749 2:1.0 3:2.0 4:1.0 5:9.0 6:9.0 7:1.0 108:1.0 242:1.0 894:1.0 
-1.1039993868742604 -0.0 -0.0 0.0 1.573184975602282 1:1.0 2:1.0 3:2.0 4:1.0 5:14.0 6:14.0 7:1.0 
-1.9999259777826959 -2.0 -2.0 0.0 2.0 1:1.0 2:1.0 3:2.0 4:4.0 5:8.0 6:5.0 7:1.0 
-2.0 -2.0 -2.0 0.0 0.0 1:1.0 2:1.0 3:2.0 4:1.0 5:8.0 6:8.0 7:1.0 
-0.0 -0.0 -0.0 0.0 0.18856479795671421 2:1.0 3:2.0 4:2.0 5:10.0 6:9.0 7:1.0 14:1.0 850:1.0 895:1.0 896:1.0 
-0.0174715542661178 -0.0 -0.2964347655614257 0.12588617797524604 0.13313612069118486 2:1.0 3:2.0 4:4.0 5:20.0 6:10.0 7:7.0 20:1.0 21:1.0 26:1.0 114:1.0 870:1.0 897:1.0 898:1.0 
-0.0 -0.0 -2.0 0.0 0.0 2:1.0 3:2.0 4:1.0 5:5.0 6:5.0 7:1.0 14:1.0 735:1.0 
-0.004398388709747578 -0.05124230915024299 -0.0 0.0 0.19374173355979846 2:1.0 3:2.0 4:3.0 5:7.0 6:5.0 7:1.0 238:1.0 899:1.0 900:1.0 
-1.7903495872071917 -0.0 -0.0 0.0 1.0433089722940512 1:1.0 2:1.0 3:2.0 4:3.0 5:17.0 6:13.0 7:1.0 17:1.0 53:1.0 
-0.17541412626010092 -0.4354911698934194 -2.0 2.0 0.7791549316561365 2:1.0 3:2.0 4:3.0 5:6.0 6:4.0 7:1.0 675:1.0 
-0.029167381933259608 -0.19425766050422863 -0.1546531318689561 0.0 0.19627464084810128 2:1.0 3:2.0 4:3.0 5:11.0 6:7.0 7:3.0 14:1.0 112:1.0 221:1.0 497:1.0 901:1.0 
-2.8493097415428526E-4 -0.10973713462477279 -0.9588244141814999 0.0 0.1131978463260745 2:1.0 3:2.0 4:2.0 5:5.0 6:4.0 7:1.0 14:1.0 905:1.0 
-0.24100022973575844 -1.3370957167063429 -2.0 0.0 0.0 1:1.0 2:1.0 3:2.0 4:1.0 5:9.0 6:9.0 7:1.0 
-0.0 -2.0 -2.0 0.0 2.0 1:1.0 2:1.0 3:2.0 4:4.0 5:7.0 6:4.0 7:1.0 
-0.0 -0.33227520766680296 -0.0 0.0 0.0 2:1.0 3:2.0 4:1.0 5:10.0 6:8.0 7:1.0 41:1.0 53:1.0 223:1.0 287:1.0 902:1.0 906:1.0 
-0.0 -0.1097005301679825 -0.6921301525972572 0.0 2.0 2:1.0 3:2.0 4:1.0 5:6.0 6:6.0 7:1.0 14:1.0 907:1.0 
-0.0 -0.0 -0.0 1.4564075360226125 1.341204804123249 1:1.0 2:1.0 3:2.0 4:4.0 5:15.0 6:9.0 7:2.0 21:1.0 53:1.0 
-0.0 -0.0 -2.0 0.0 0.0 1:1.0 2:1.0 3:2.0 4:1.0 5:5.0 6:5.0 7:1.0 
-0.7131259024711528 -0.0 -0.0 0.0 0.06169625565979866 2:1.0 3:2.0 4:1.0 5:9.0 6:7.0 7:2.0 14:1.0 41:1.0 42:1.0 84:1.0 910:1.0 
-2.0 -0.0 -0.3354444124472047 0.0 0.09259870134767893 3:2.0 4:5.0 5:8.0 6:4.0 7:1.0 14:1.0 20:1.0 106:1.0 107:1.0 
-0.0 -0.0 -0.5517170043593086 0.0 0.0 2:1.0 3:2.0 4:1.0 5:9.0 6:9.0 7:1.0 14:1.0 189:1.0 434:1.0 911:1.0 
-0.0 -0.0 -2.0 0.0 0.0 1:1.0 2:1.0 3:2.0 4:1.0 5:5.0 6:5.0 7:1.0 
-0.05745969702784668 -0.1332787994730546 -0.9203607749603013 0.0 0.4490335624527044 2:1.0 3:2.0 4:2.0 5:9.0 6:5.0 7:3.0 38:1.0 750:1.0 817:1.0 
-2.0 -0.2879969828704688 -0.2058822088917092 0.0 0.0 2:1.0 3:2.0 4:2.0 5:6.0 6:2.0 7:2.0 14:1.0 17:1.0 35:1.0 53:1.0 
-0.3230971819253368 -2.0 -2.0 0.0 0.0 1:1.0 2:1.0 3:2.0 4:1.0 5:7.0 6:7.0 7:1.0 
-0.0 -0.048845009194819586 -0.0 0.0 1.629096362164303 2:1.0 3:2.0 4:3.0 5:10.0 6:8.0 7:1.0 221:1.0 774:1.0 912:1.0 
-0.05933771761754231 -0.044538003575825276 -0.21811178032460043 0.12167027267599102 0.1332411458929148 2:1.0 3:2.0 4:1.0 5:12.0 6:9.0 7:3.0 21:1.0 108:1.0 316:1.0 915:1.0 916:1.0 
-0.10297281036563462 -0.3693697719505542 -0.0 0.0 0.0 2:1.0 3:2.0 4:7.0 5:13.0 6:6.0 7:2.0 14:1.0 61:1.0 218:1.0 254:1.0 917:1.0 
-0.01009864504515059 -0.17547568400629598 -2.0 0.0 0.0 1:1.0 2:1.0 3:2.0 4:1.0 5:6.0 6:6.0 7:1.0 
-0.0 -0.0 -0.02516374565237102 0.0 0.0 2:1.0 3:2.0 4:1.0 5:10.0 6:10.0 7:1.0 14:1.0 360:1.0 918:1.0 
-1.6231216716860894E-4 -0.05481655643052606 -0.44600315420246284 0.0 0.029393067193792827 2:1.0 3:2.0 4:1.0 5:5.0 6:5.0 7:1.0 14:1.0 919:1.0 920:1.0 
-0.0 -0.0 -0.0 0.0 0.0053768535638692525 2:1.0 3:2.0 4:3.0 5:19.0 6:15.0 7:2.0 14:1.0 31:1.0 54:1.0 221:1.0 265:1.0 536:1.0 921:1.0 
-0.0 -0.10960914887778395 -2.0 0.0 2.0 2:1.0 3:2.0 4:5.0 5:6.0 6:2.0 7:1.0 14:1.0 417:1.0 
-0.0 -0.003045791861241767 -0.07114267240230089 0.0 0.0 2:1.0 3:2.0 4:3.0 5:9.0 6:7.0 7:1.0 14:1.0 922:1.0 923:1.0 924:1.0 
-0.42599966891176766 -0.07628735640858772 -0.0 0.0 0.9896192959600844 2:1.0 3:2.0 4:3.0 5:14.0 6:11.0 7:1.0 23:1.0 82:1.0 273:1.0 522:1.0 925:1.0 
-0.04374023845049074 -0.04849792557266942 -0.147716823274073 0.25348711220224496 0.30397844285046444 2:1.0 3:2.0 4:1.0 5:9.0 6:8.0 7:1.0 20:1.0 21:1.0 26:1.0 928:1.0 929:1.0 930:1.0 
-0.08779336945696324 -0.1453159812534996 -0.47714532667263226 0.26099766197748414 1.6860552536584066 2:1.0 3:2.0 4:4.0 5:6.0 6:2.0 7:1.0 21:1.0 110:1.0 931:1.0 
-0.016389490260674308 -0.01029139012734853 -0.0 0.0 0.007390585301796237 2:1.0 3:2.0 4:1.0 5:7.0 6:6.0 7:2.0 14:1.0 42:1.0 932:1.0 933:1.0 
-0.0 -0.5229630875696321 -0.0 0.0 0.0 2:1.0 3:2.0 4:1.0 5:11.0 6:8.0 7:3.0 38:1.0 175:1.0 245:1.0 914:1.0 
-0.1720087692200503 -0.1565193718568455 -0.4705341423120559 0.0 0.21957413034341525 2:1.0 3:2.0 4:1.0 5:12.0 6:11.0 7:1.0 14:1.0 21:1.0 26:1.0 934:1.0 935:1.0 
-2.0 -0.0920472811756124 -2.0 0.0 0.0 1:1.0 2:1.0 3:2.0 4:1.0 5:12.0 6:12.0 7:1.0 
-0.0877987766101636 -0.2177540341965362 -0.00217464221823789 0.0 0.6307186800685419 2:1.0 3:2.0 4:2.0 5:7.0 6:6.0 7:1.0 938:1.0 939:1.0 
-0.9276885278039559 -0.0 -0.874279088570152 0.2035326663560048 0.9058256317600683 3:2.0 4:3.0 5:10.0 6:7.0 7:1.0 20:1.0 21:1.0 23:1.0 287:1.0 307:1.0 
-0.0 -0.0 -2.0 2.0 0.0 1:1.0 2:1.0 3:2.0 4:1.0 5:3.0 6:3.0 7:1.0 
-0.15800280192469887 -0.054870089150012735 -0.4128666964982335 0.0 0.34768874547505424 2:1.0 3:2.0 4:3.0 5:6.0 6:4.0 7:1.0 14:1.0 161:1.0 940:1.0 
-0.0 -0.23053205029859522 -0.0 0.0 0.0 2:1.0 3:2.0 4:4.0 5:9.0 6:5.0 7:1.0 14:1.0 17:1.0 186:1.0 199:1.0 238:1.0 796:1.0 
-0.09289400481803055 -0.14720166545133123 -0.0 0.0 0.0 2:1.0 3:2.0 4:2.0 5:8.0 6:3.0 7:3.0 14:1.0 35:2.0 42:1.0 53:2.0 61:1.0 
-0.0 -0.0 -0.5970581323924857 0.2690285674716809 0.0 2:1.0 3:2.0 4:1.0 5:5.0 6:4.0 7:1.0 14:1.0 21:1.0 765:1.0 941:1.0 
-0.019614874189412677 -0.0011231454977683123 -0.0 0.08604158900823247 0.0 2:1.0 3:2.0 4:1.0 5:11.0 6:10.0 7:1.0 21:1.0 488:1.0 873:1.0 942:1.0 943:1.0 
-0.43558790367371414 -0.002952557639772117 -0.0 0.0 0.028326928741473766 2:1.0 3:2.0 4:1.0 5:11.0 6:11.0 7:1.0 64:1.0 906:1.0 944:1.0 
-0.11113228558073865 -0.008258460253875798 -0.2827556918151943 0.0 0.22340056155433966 3:2.0 4:1.0 5:4.0 6:4.0 7:1.0 20:1.0 913:1.0 945:1.0 
-0.11145624700237687 -0.1005966467538975 -0.012528114710890081 0.2630064785160094 0.9766035691697393 3:2.0 4:3.0 5:11.0 6:8.0 7:1.0 20:1.0 21:1.0 924:1.0 947:1.0 948:1.0 
-0.0 -0.0 -0.0 0.0 0.26590655292921495 2:1.0 3:2.0 4:5.0 5:17.0 6:11.0 7:3.0 14:1.0 221:1.0 360:1.0 522:1.0 949:1.0 950:1.0 951:1.0 
-2.0 -2.0 -2.0 0.0 0.0 1:1.0 2:1.0 3:2.0 4:2.0 5:7.0 6:6.0 7:1.0 
-0.004161018802009968 -0.05119731429259584 -0.0 0.0 0.2557300740027338 2:1.0 3:2.0 4:5.0 5:8.0 6:4.0 7:1.0 238:1.0 952:1.0 953:1.0 
-0.0 -0.0 -0.11684915661233666 0.0 0.18446000187701145 2:1.0 3:2.0 4:2.0 5:8.0 6:7.0 7:1.0 31:1.0 796:1.0 954:1.0 
-0.0 -1.036289520358229 -2.0 0.0 0.0 1:1.0 2:1.0 3:2.0 4:3.0 5:7.0 6:4.0 7:1.0 53:1.0 
-0.0 -0.0 -0.0 0.0 0.1319294635929931 2:1.0 3:2.0 4:4.0 5:11.0 6:8.0 7:1.0 14:1.0 955:1.0 956:1.0 
-0.019057297425991646 -0.0 -2.0 0.0 0.0 1:1.0 2:1.0 3:2.0 4:1.0 5:6.0 6:6.0 7:1.0 
-0.0 -0.0 -0.0 0.0 0.10825288042356258 2:1.0 3:2.0 4:1.0 5:9.0 6:8.0 7:1.0 17:1.0 796:1.0 957:1.0 958:1.0 959:1.0 
-0.018816075062757218 -0.5970069699706496 -0.0 0.0 0.09245633928537146 2:1.0 3:2.0 4:3.0 5:9.0 6:7.0 7:1.0 329:1.0 960:1.0 961:1.0 
-2.8230434995917057E-4 -0.10976815231392156 -0.8257509568179131 0.0 0.1826978788289011 2:1.0 3:2.0 4:3.0 5:6.0 6:4.0 7:1.0 14:1.0 962:1.0 
-0.0 -2.0 -2.0 0.0 2.0 1:1.0 2:1.0 3:2.0 4:3.0 5:7.0 6:4.0 7:2.0 
-0.42381041884147874 -0.0353506730250926 -0.0 0.0 0.305951552862945 2:1.0 3:2.0 4:7.0 5:19.0 6:12.0 7:2.0 23:1.0 966:1.0 967:1.0 968:1.0 969:1.0 
-0.0 -0.0 -0.0 0.0 0.6594843163112508 2:1.0 3:2.0 4:3.0 5:8.0 6:6.0 7:1.0 435:1.0 796:1.0 970:1.0 
-0.00845653060215552 -2.0 -2.0 0.0 2.0 1:1.0 2:1.0 3:2.0 4:2.0 5:11.0 6:10.0 7:1.0 
-0.0 -0.0 -0.1975368915659126 0.09419499959149781 0.08582504138889349 2:1.0 3:2.0 4:3.0 5:14.0 6:7.0 7:4.0 14:1.0 17:1.0 21:1.0 221:1.0 971:1.0 972:1.0 973:1.0 
-0.0 -0.10807108314832445 -0.0 0.0 0.6919023321350924 2:1.0 3:2.0 4:3.0 5:9.0 6:7.0 7:1.0 859:1.0 974:1.0 975:1.0 
-0.0 -0.9840108962101545 -0.6936305880589578 0.0 0.16854928096943878 2:1.0 3:2.0 4:5.0 5:9.0 6:5.0 7:1.0 14:1.0 208:1.0 976:1.0 
-0.0 -0.0 -0.0 0.0 0.1584053997542372 2:1.0 3:2.0 4:2.0 5:12.0 6:11.0 7:1.0 221:1.0 677:1.0 977:1.0 
-0.0 -0.027727364782511983 -0.0 0.0 0.3155436357513824 2:1.0 3:2.0 4:1.0 5:10.0 6:10.0 7:1.0 604:2.0 620:1.0 978:1.0 
-0.0 -0.2992742458486383 -0.0 0.0 0.15469573671439193 2:1.0 3:2.0 4:2.0 5:7.0 6:6.0 7:1.0 651:1.0 796:1.0 979:1.0 
-0.0 -1.9021435359123364 -2.0 0.0 2.0 1:1.0 2:1.0 3:2.0 4:4.0 5:8.0 6:4.0 7:2.0 
-0.0013212340086367301 -0.37052844977075905 -2.0 0.0 0.0 1:1.0 2:1.0 3:2.0 4:1.0 5:9.0 6:9.0 7:1.0 
-0.09867310609318848 -0.0 -0.036793930518335204 0.0 0.0 2:1.0 3:2.0 4:2.0 5:16.0 6:10.0 7:6.0 20:1.0 64:1.0 815:1.0 980:1.0 981:1.0 
-0.3202513642219606 -0.0 -0.010615208020614348 0.0 0.04982736581423861 2:1.0 3:2.0 4:1.0 5:9.0 6:7.0 7:2.0 14:1.0 17:1.0 61:1.0 859:1.0 982:1.0 
-0.30981235321030776 -0.03440978509585439 -0.5429201868275774 0.0 0.0 2:1.0 3:2.0 4:1.0 5:11.0 6:10.0 7:2.0 14:1.0 112:1.0 572:1.0 677:1.0 983:1.0 
-1.4344321317380967E-4 -0.0546940486894647 -0.6555192242475685 0.0 0.07931395440161701 2:1.0 3:2.0 4:2.0 5:6.0 6:4.0 7:2.0 14:1.0 622:1.0 984:1.0 
-0.1669965715658901 -0.15206681404121322 -0.22441070888635037 0.0 0.40238967346045584 3:2.0 4:1.0 5:5.0 6:5.0 7:1.0 20:1.0 985:1.0 986:1.0 
-0.0 -0.058037943943127925 -2.0 0.0 0.0 1:1.0 2:1.0 3:2.0 4:1.0 5:6.0 6:6.0 7:1.0 
-0.0 -0.0 -0.6242964829525477 0.0 0.0 2:1.0 3:2.0 4:3.0 5:9.0 6:4.0 7:2.0 14:1.0 17:1.0 102:1.0 238:1.0 290:1.0 
-0.0 -0.0 -2.0 2.0 0.0 1:1.0 2:1.0 3:2.0 4:2.0 5:5.0 6:3.0 7:2.0 
-0.0 -0.0 -0.6147042637068749 0.0 0.0 2:1.0 3:2.0 4:1.0 5:8.0 6:7.0 7:2.0 14:1.0 42:1.0 152:1.0 987:1.0 
-0.26997806785016054 -0.9197757981404148 -0.4388039471530101 0.0 0.9037005391890619 2:1.0 3:2.0 4:2.0 5:7.0 6:6.0 7:1.0 66:1.0 988:1.0 
-0.0 -0.10967370702473389 -0.9588539501301567 0.0 2.0 2:1.0 3:2.0 4:2.0 5:5.0 6:4.0 7:1.0 14:1.0 445:1.0 
-0.07018222152025855 -0.04333327766393451 -1.1334543903602914 0.0 0.750688498243603 3:2.0 4:2.0 5:4.0 6:3.0 7:1.0 20:1.0 434:1.0 989:1.0 
-0.1493024085475301 -0.054827673732489396 -0.3606859495581882 0.0 0.11842359816326407 2:1.0 3:2.0 4:3.0 5:7.0 6:4.0 7:1.0 14:1.0 17:1.0 990:1.0 991:1.0 
-0.9976919918302093 -0.020796399566919314 -0.0 0.0 0.1353034946303247 2:1.0 3:2.0 4:3.0 5:15.0 6:13.0 7:1.0 14:1.0 23:1.0 61:1.0 370:1.0 992:1.0 
-0.0 -0.8322643274115643 -0.0 0.0 1.2430397611665718 2:1.0 3:2.0 4:5.0 5:13.0 6:5.0 7:2.0 17:1.0 38:1.0 53:1.0 287:1.0 329:1.0 993:1.0 
-0.010873725454379531 -0.34173406318806826 -0.0 0.0 0.05358714184697601 2:1.0 3:2.0 4:2.0 5:11.0 6:8.0 7:3.0 14:1.0 42:1.0 376:1.0 381:1.0 994:1.0 
-0.23693051976903098 -0.0 -0.1499103103900657 0.0 0.049701347626924845 2:1.0 3:2.0 4:2.0 5:6.0 6:4.0 7:1.0 17:1.0 995:1.0 996:1.0 
-2.0 -2.0 -2.0 0.0 0.0 1:1.0 2:1.0 3:2.0 4:1.0 5:8.0 6:8.0 7:1.0 
-2.807146509786883E-4 -0.10981151503068075 -0.8257331027370628 0.0 0.18272564616496084 2:1.0 3:2.0 4:3.0 5:6.0 6:4.0 7:1.0 14:1.0 997:1.0 
-0.0 -0.0 -0.0 0.0 0.14114718807856746 2:1.0 3:2.0 4:6.0 5:12.0 6:7.0 7:1.0 186:1.0 998:1.0 999:1.0 
-0.0 -0.0 -0.02031566412393737 0.0 0.0 2:1.0 3:2.0 4:1.0 5:4.0 6:4.0 7:1.0 682:1.0 902:1.0 
-0.9898039508794575 -2.0 -2.0 0.0 0.0 1:1.0 2:1.0 3:2.0 4:2.0 5:8.0 6:7.0 7:1.0 
-0.0 -0.1397471576022538 -0.0 0.0 0.10434877878562955 2:1.0 3:2.0 4:1.0 5:6.0 6:6.0 7:1.0 913:1.0 1000:1.0 
-0.47475621805673207 -0.30666809185821714 -0.7357027328137646 0.0 0.12623378608691432 2:1.0 3:2.0 4:2.0 5:7.0 6:5.0 7:2.0 14:1.0 61:1.0 1001:1.0 
-0.029524190556583025 -1.1166307357567127 -0.34850373618273495 0.0 0.0 2:1.0 3:2.0 4:1.0 5:8.0 6:7.0 7:2.0 61:1.0 66:1.0 1002:1.0 
-0.11762991530685342 -0.14428933416868742 -0.0 0.0 0.3569392867618435 2:1.0 3:2.0 4:3.0 5:12.0 6:9.0 7:1.0 17:1.0 294:1.0 1003:1.0 1004:1.0 
-0.0 -0.0 -2.0 0.0 0.0 1:1.0 2:1.0 3:2.0 4:1.0 5:7.0 6:7.0 7:1.0 
-0.0 -0.0 -0.7744224000706628 0.0 2.0 2:1.0 3:2.0 4:1.0 5:9.0 6:6.0 7:3.0 38:1.0 316:1.0 434:1.0 
-0.3865813721195118 -0.15327135067405576 -0.18224468659312443 0.0 0.07076590782372116 2:1.0 3:2.0 4:1.0 5:9.0 6:7.0 7:2.0 14:1.0 17:1.0 61:1.0 1005:1.0 1006:1.0 
-2.0 -2.0 -2.0 0.0 2.0 1:1.0 2:1.0 3:2.0 4:3.0 5:10.0 6:7.0 7:2.0 
-0.0351521027105926 -0.08145484459607263 -0.0 0.0 0.17639015940244063 2:1.0 3:2.0 4:2.0 5:13.0 6:12.0 7:1.0 1007:1.0 1008:1.0 1009:1.0 
