svm_type c_svc
kernel_type linear
nr_class 6
total_sv 3213
rho 0.5074630329124564 -0.23578870363573376 0.34350192139315583 -1.4959217190141323 -0.047142255284135404 -0.16869608680084097 0.30812142633271705 -1.0120490211898092 0.25316578909192444 0.10541497062514024 -1.7764200042351064 0.5775531245428105 -1.4367300999281691 0.272789428943284 1.9154384381956258
label 1 2 3 4 5 6
probA -2.1046354362612525 -2.79483726987281 -2.2304586271543414 -1.6000852246813635 -2.1836981791107064 -2.409648248140577 -2.1096804000346454 -1.6579202175437255 -2.1787060399068428 -1.430146536778669 -1.4796717431055264 -2.664410215004416 -1.8463522431446655 -1.7581703831379456 -1.710532641151591
probB -0.016616437929929485 -0.7549816636958634 -0.32159786069609325 -0.36634301711241596 0.592035811646026 -0.4385443359273441 -0.17675022112366473 -0.594572123915263 0.3646227845098379 0.36453160459063605 -0.9604080919468939 0.34603393650959696 -0.7946373997534371 0.07489487780516374 0.5773701046175366
nr_sv 307 501 663 1089 68 585
SV
0.5393681385488047 0.10062755860387734 0.8892989595610303 0.0 0.5002193897040237 1:1.0 2:1.0 3:1.0 4:1.0 5:2.0 6:3.0 7:7.0 8:4.0 9:1.0 10:1.0 
2.0 2.0 2.0 0.0 2.0 4:1.0 5:2.0 6:1.0 7:10.0 8:10.0 10:1.0 11:1.0 
0.0 0.0 0.0 0.0 2.0 5:2.0 6:5.0 7:13.0 8:7.0 10:3.0 12:1.0 13:1.0 
0.20575411276940417 0.0 0.0 0.0 0.0 5:2.0 6:3.0 7:4.0 8:2.0 10:1.0 15:1.0 16:1.0 
1.767921580812428 1.1028165963657632 2.0 0.0 2.0 4:1.0 5:2.0 6:1.0 7:6.0 8:6.0 10:1.0 17:1.0 
0.0 0.7840455919066432 1.3275394593840875 0.0 0.28538577118149294 4:1.0 5:2.0 6:2.0 7:10.0 8:8.0 9:1.0 10:1.0 20:1.0 21:1.0 22:1.0 
2.0 2.0 2.0 2.0 0.34474926966993824 4:1.0 5:2.0 6:2.0 7:5.0 8:4.0 10:1.0 11:1.0 
1.7614843365804975 0.7915311029969802 2.0 0.0 1.6008737043771581 5:2.0 6:5.0 7:9.0 8:4.0 10:2.0 24:1.0 25:1.0 26:1.0 
2.0 2.0 2.0 0.0 2.0 4:1.0 5:2.0 6:3.0 7:7.0 8:5.0 10:1.0 11:1.0 
0.0 2.0 2.0 0.20576964064186742 2.0 4:1.0 5:2.0 6:1.0 7:18.0 8:10.0 10:6.0 11:1.0 27:3.0 
0.0 0.0 0.0 2.0 0.0 5:2.0 6:4.0 7:13.0 8:8.0 10:1.0 12:1.0 13:1.0 19:2.0 
2.0 2.0 2.0 0.0 0.0 4:1.0 5:2.0 6:1.0 7:6.0 8:6.0 10:1.0 11:1.0 
2.0 2.0 2.0 0.0 2.0 4:1.0 5:2.0 6:4.0 7:10.0 8:6.0 10:2.0 11:1.0 
2.0 2.0 2.0 0.0 2.0 4:1.0 5:2.0 6:3.0 7:10.0 8:8.0 10:1.0 11:1.0 
0.0 0.11068756164657767 0.0 0.0 0.3199725316784047 5:2.0 6:5.0 7:14.0 8:7.0 10:3.0 19:1.0 26:1.0 31:1.0 32:1.0 33:1.0 34:1.0 
2.0 2.0 2.0 2.0 0.0 4:1.0 5:2.0 6:1.0 7:4.0 8:4.0 10:1.0 11:1.0 
2.0 2.0 2.0 0.0 0.0 4:1.0 5:2.0 6:1.0 7:6.0 8:6.0 10:1.0 11:1.0 
0.0 0.08553684098748246 0.1756604802252005 0.0 0.36682508051306356 1:1.0 4:1.0 5:2.0 6:3.0 7:17.0 8:11.0 10:5.0 20:1.0 36:1.0 37:1.0 38:1.0 39:1.0 40:1.0 41:1.0 
0.23966961772527157 0.0 0.10000227742340687 0.0 0.2078116057127553 4:1.0 5:2.0 6:7.0 7:10.0 8:4.0 10:1.0 31:1.0 42:1.0 43:1.0 
2.0 2.0 2.0 0.0 0.0 4:1.0 5:2.0 6:1.0 7:7.0 8:7.0 10:1.0 11:1.0 
2.0 0.005131569058337638 2.0 0.052238450478309405 2.0 1:1.0 4:1.0 5:2.0 6:2.0 7:6.0 8:2.0 9:1.0 10:2.0 27:1.0 39:1.0 
0.0 0.0 0.0 1.4174429103590291E-4 0.0 4:1.0 5:2.0 6:7.0 7:14.0 8:6.0 10:2.0 19:1.0 45:1.0 46:1.0 47:1.0 48:1.0 49:1.0 
0.5144226694396521 0.1701319408858873 0.9306682362669693 0.14058574682222075 0.47386855753857327 4:1.0 5:2.0 6:1.0 7:10.0 8:9.0 10:1.0 19:1.0 52:1.0 54:1.0 55:1.0 
0.5079025268124162 0.0 0.0 0.0 0.0 5:2.0 6:3.0 7:5.0 8:2.0 10:1.0 12:1.0 13:1.0 19:1.0 
2.0 2.0 2.0 0.0 2.0 4:1.0 5:2.0 6:5.0 7:9.0 8:4.0 10:2.0 11:1.0 
0.16092960069430487 2.0 2.0 0.0 0.0 4:1.0 5:2.0 6:1.0 7:16.0 8:14.0 10:1.0 11:1.0 27:2.0 
0.0 0.0 0.0 0.0 0.0024989875652545843 5:2.0 6:3.0 7:8.0 8:6.0 10:1.0 26:1.0 31:1.0 56:1.0 57:1.0 
0.10527216309009939 0.0 0.0 0.0 0.0 5:2.0 6:3.0 7:5.0 8:3.0 10:1.0 15:1.0 58:1.0 
1.241137937109209 1.2421339390870523 2.0 0.0 1.6684798520893078 5:2.0 6:3.0 7:11.0 8:9.0 10:1.0 26:1.0 59:1.0 60:1.0 
2.0 2.0 2.0 0.0 2.0 4:1.0 5:2.0 6:1.0 7:10.0 8:10.0 10:1.0 11:1.0 
2.0 2.0 2.0 2.0 2.0 4:1.0 5:2.0 6:3.0 7:6.0 8:4.0 10:1.0 11:1.0 
2.0 2.0 2.0 2.0 0.0 4:1.0 5:2.0 6:2.0 7:5.0 8:4.0 10:1.0 11:1.0 
2.0 2.0 2.0 0.0 0.0 4:1.0 5:2.0 6:1.0 7:7.0 8:7.0 10:1.0 11:1.0 
0.0 0.0 0.0475889580383467 0.0 0.7093303880847799 5:2.0 6:2.0 7:9.0 8:8.0 10:1.0 26:1.0 31:1.0 61:1.0 62:1.0 
2.0 2.0 2.0 2.0 1.099281661607437 4:1.0 5:2.0 6:2.0 7:5.0 8:4.0 10:1.0 11:1.0 
0.0 0.0 0.09962492343397548 0.0 0.5248007312237541 4:1.0 5:2.0 6:1.0 7:8.0 8:8.0 10:1.0 31:1.0 63:1.0 64:1.0 
0.0 0.0 0.0 0.0 0.5488764269948105 5:2.0 6:2.0 7:9.0 8:6.0 10:3.0 26:1.0 31:1.0 65:1.0 
1.881893169040734 2.0 2.0 0.0 2.0 4:1.0 5:2.0 6:9.0 7:24.0 8:8.0 10:9.0 11:1.0 
2.0 2.0 2.0 0.0 2.0 4:1.0 5:2.0 6:2.0 7:8.0 8:7.0 10:1.0 11:1.0 
2.0 2.0 2.0 0.0 0.0 4:1.0 5:2.0 6:1.0 7:7.0 8:7.0 10:1.0 11:1.0 
0.39387781216722106 0.1738315020016603 0.7661897332256229 0.013787375964593784 0.37319320200384454 4:1.0 5:2.0 6:7.0 7:14.0 8:6.0 10:2.0 19:1.0 45:1.0 46:1.0 47:1.0 48:1.0 49:1.0 
1.3341066128599877 0.0 0.9795023747116611 0.0 0.8054658345616975 4:1.0 5:2.0 6:4.0 7:9.0 8:6.0 10:1.0 17:1.0 66:1.0 67:1.0 
0.0 0.25688143321703316 0.44957520009742413 0.0 0.633568453995708 5:2.0 6:3.0 7:16.0 8:11.0 10:4.0 26:1.0 37:1.0 39:1.0 41:1.0 68:1.0 69:1.0 
2.0 2.0 2.0 2.0 0.0 4:1.0 5:2.0 6:1.0 7:5.0 8:5.0 10:1.0 11:1.0 
2.0 2.0 2.0 0.0 2.0 4:1.0 5:2.0 6:1.0 7:14.0 8:14.0 10:1.0 11:1.0 
2.0 2.0 2.0 0.0 0.0 4:1.0 5:2.0 6:1.0 7:7.0 8:7.0 10:1.0 11:1.0 
2.0 2.0 2.0 0.0 2.0 4:1.0 5:2.0 6:3.0 7:10.0 8:8.0 10:1.0 11:1.0 
0.0 1.0709010544650985 0.24760148268171014 0.0 0.0 5:2.0 6:2.0 7:3.0 8:2.0 10:1.0 15:1.0 58:1.0 
2.0 2.0 2.0 0.0 0.0 4:1.0 5:2.0 6:1.0 7:7.0 8:7.0 10:1.0 11:1.0 
2.0 2.0 2.0 0.0 0.0 4:1.0 5:2.0 6:1.0 7:6.0 8:6.0 10:1.0 11:1.0 
0.0 0.0 0.24508716149881832 0.0 0.0 5:2.0 6:3.0 7:18.0 8:15.0 10:2.0 15:1.0 80:1.0 
2.0 6.0859466513306034E-5 0.0 0.0 0.03007568903766652 5:2.0 6:1.0 7:9.0 8:8.0 10:1.0 72:1.0 81:1.0 82:1.0 83:1.0 84:1.0 
0.22030963183419122 0.6293105739595509 0.6742076686153313 0.0 0.738420369507605 4:1.0 5:2.0 6:1.0 7:9.0 8:8.0 10:2.0 20:1.0 85:1.0 86:1.0 87:1.0 
0.5526465766397767 1.6853562798011938 2.0 0.0 1.7045804524043264 1:1.0 4:1.0 5:2.0 6:1.0 7:11.0 8:9.0 10:3.0 88:1.0 89:1.0 
1.6928029386929329 0.8442540405408805 2.0 0.31377646032574136 1.5188594506288258 5:2.0 6:3.0 7:8.0 8:5.0 10:1.0 14:1.0 19:1.0 26:1.0 38:1.0 
0.0 0.0 0.0 0.0 2.0 5:2.0 6:6.0 7:10.0 8:2.0 10:4.0 12:1.0 13:1.0 
0.0 0.0 0.013746204905333261 0.0 0.2774490089466735 5:2.0 6:1.0 7:6.0 8:5.0 10:1.0 15:1.0 18:1.0 92:1.0 
2.0 2.0 2.0 0.0 2.0 4:1.0 5:2.0 6:3.0 7:10.0 8:8.0 10:1.0 11:1.0 
2.0 2.0 2.0 0.0 0.0 4:1.0 5:2.0 6:1.0 7:7.0 8:7.0 10:1.0 11:1.0 
2.0 2.0 2.0 2.0 2.0 4:1.0 5:2.0 6:2.0 7:7.0 8:5.0 10:1.0 11:1.0 72:1.0 
0.0 0.0 0.0 0.0 0.26591288925936873 5:2.0 6:1.0 7:12.0 8:12.0 10:1.0 26:1.0 94:1.0 95:1.0 96:1.0 97:1.0 
0.0 0.0 0.3231037481273305 0.0 0.2983472145241287 4:1.0 5:2.0 6:3.0 7:9.0 8:6.0 10:2.0 31:1.0 98:1.0 99:1.0 
9.87266624324996E-5 0.0 0.1574407841464259 0.0 0.22189316306750856 1:1.0 4:1.0 5:2.0 6:3.0 7:7.0 8:5.0 10:1.0 17:1.0 100:1.0 
0.0 0.0 0.3769849221104096 0.0 0.2565466907015387 4:1.0 5:2.0 6:2.0 7:4.0 8:3.0 10:1.0 31:1.0 101:1.0 
2.0 2.0 2.0 0.0 0.0 4:1.0 5:2.0 6:1.0 7:7.0 8:7.0 10:1.0 11:1.0 
0.0 0.0 0.0851909126447298 0.0 0.5406641420836349 4:1.0 5:2.0 6:5.0 7:13.0 8:6.0 10:4.0 26:1.0 31:1.0 102:1.0 103:1.0 104:1.0 
2.371270022883231E-4 0.37723762216894685 2.0 0.0 0.501002836553609 4:1.0 5:2.0 6:1.0 7:5.0 8:5.0 10:1.0 20:1.0 105:1.0 
0.04518108511603592 0.1868156980315188 1.2530618607673594 0.0 0.5181143871790796 4:1.0 5:2.0 6:2.0 7:17.0 8:15.0 10:2.0 36:1.0 106:1.0 107:1.0 108:1.0 
0.6750041415279995 2.0 2.0 0.0 0.0 4:1.0 5:2.0 6:1.0 7:16.0 8:15.0 10:1.0 11:1.0 27:1.0 
2.0 2.0 2.0 2.0 1.5871794879775183 4:1.0 5:2.0 6:2.0 7:5.0 8:4.0 10:1.0 11:1.0 
2.0 2.0 2.0 2.0 0.9521878883591476 4:1.0 5:2.0 6:1.0 7:11.0 8:10.0 10:1.0 11:1.0 19:1.0 
0.0 0.015443871253527933 0.0 0.0 0.35296769122033 5:2.0 6:4.0 7:9.0 8:6.0 10:1.0 26:1.0 31:1.0 109:1.0 110:1.0 111:1.0 
0.0 0.0 0.11714154500133939 0.0 0.17130424202417177 4:1.0 5:2.0 6:1.0 7:9.0 8:9.0 10:1.0 31:1.0 116:1.0 
0.7415663754881435 0.15782692037360643 0.4980280385612459 0.0 0.4760617177500365 4:1.0 5:2.0 6:3.0 7:12.0 8:9.0 10:1.0 70:1.0 117:1.0 118:1.0 119:1.0 120:1.0 
2.0 2.0 2.0 0.0 0.0 4:1.0 5:2.0 6:1.0 7:6.0 8:6.0 10:1.0 11:1.0 
0.9205459794785746 0.6162523904566478 0.9306148747191787 0.0 0.564603696681854 4:1.0 5:2.0 6:3.0 7:7.0 8:4.0 9:1.0 10:1.0 20:1.0 121:1.0 122:1.0 
2.0 2.0 2.0 0.0 0.0 4:1.0 5:2.0 6:2.0 7:7.0 8:7.0 11:1.0 
0.0 0.0 0.21827888835365902 0.0 1.3781971301408344 4:1.0 5:2.0 6:3.0 7:9.0 8:6.0 10:2.0 31:1.0 124:1.0 125:1.0 
0.0 0.6574341102911726 0.24088242256597908 0.0 0.0 5:2.0 6:1.0 7:4.0 8:4.0 10:1.0 15:1.0 71:1.0 
2.0 2.0 2.0 0.0 2.0 4:1.0 5:2.0 6:2.0 7:9.0 8:7.0 10:1.0 11:1.0 72:1.0 
2.0 2.0 2.0 0.0 2.0 4:1.0 5:2.0 6:1.0 7:9.0 8:9.0 10:1.0 11:1.0 
2.0 2.0 2.0 0.9886031901136828 2.0 4:1.0 5:2.0 6:3.0 7:7.0 8:4.0 10:2.0 11:1.0 
0.6689106569933689 0.943810425522274 1.5951085003554475 0.0 0.5954808479040378 4:1.0 5:2.0 6:4.0 7:11.0 8:8.0 10:1.0 20:1.0 126:1.0 127:1.0 
2.0 2.0 2.0 0.0 0.0 4:1.0 5:2.0 6:1.0 7:7.0 8:7.0 10:1.0 11:1.0 
0.0 0.024979036913253726 0.0 0.0 0.0 5:2.0 6:1.0 7:10.0 8:8.0 10:2.0 14:1.0 15:1.0 19:1.0 20:1.0 26:1.0 56:1.0 
2.0 2.0 2.0 0.0 2.0 4:1.0 5:2.0 6:4.0 7:11.0 8:8.0 10:1.0 11:1.0 
0.0 0.0 0.022209563634114346 0.0 0.23657353830844857 5:2.0 6:1.0 7:13.0 8:12.0 10:1.0 26:1.0 31:1.0 70:1.0 128:1.0 129:1.0 130:1.0 
0.0 0.0 0.0 0.0 2.0 5:2.0 6:8.0 7:13.0 8:4.0 10:3.0 12:1.0 13:1.0 
0.0 0.0 0.0 0.0 0.002781031720729844 4:1.0 5:2.0 6:1.0 7:13.0 8:13.0 10:1.0 20:1.0 50:1.0 51:1.0 52:1.0 53:1.0 
2.0 2.0 2.0 0.0 2.0 4:1.0 5:2.0 6:2.0 7:13.0 8:12.0 10:1.0 11:1.0 
2.0 2.0 2.0 0.0 2.0 4:1.0 5:2.0 6:1.0 7:10.0 8:10.0 10:1.0 11:1.0 
0.38320762611109604 0.6292619664862247 0.9554511171989308 0.0 0.37410612919840175 4:1.0 5:2.0 6:2.0 7:8.0 8:7.0 10:1.0 20:1.0 131:1.0 132:1.0 133:1.0 
0.0 0.0 0.4199856819062737 0.0 0.25655264226263613 4:1.0 5:2.0 6:2.0 7:4.0 8:3.0 10:1.0 31:1.0 134:1.0 
0.30453253678939746 0.629251013279325 0.8956120882722365 0.0 0.10581045988226949 4:1.0 5:2.0 6:1.0 7:10.0 8:10.0 10:1.0 20:1.0 95:1.0 96:1.0 97:1.0 
2.0 2.0 2.0 0.0 2.0 4:1.0 5:2.0 6:1.0 7:13.0 8:13.0 10:1.0 11:1.0 
0.6088709882950517 0.5656087147295039 0.8541203703784684 0.0 1.7465321836587382 5:2.0 6:3.0 7:9.0 8:5.0 10:3.0 26:1.0 135:1.0 136:1.0 
0.7066756969550624 1.0705076507962672 0.2470541396713545 0.0 0.0 5:2.0 6:3.0 7:5.0 8:3.0 10:1.0 15:1.0 137:1.0 
0.0251373783520149 0.0 0.0997328842896775 0.0 0.07990219695490808 4:1.0 5:2.0 6:3.0 7:7.0 8:5.0 10:1.0 31:1.0 138:1.0 139:1.0 
0.3978645756381239 0.6292429692295314 0.6742253921795176 0.0 0.3868198753072479 4:1.0 5:2.0 6:3.0 7:10.0 8:8.0 10:1.0 20:1.0 140:1.0 141:1.0 142:1.0 
1.3990048465529954 1.5605666929392286 2.0 0.0 1.7148993085082256 4:1.0 5:2.0 6:3.0 7:10.0 8:8.0 10:1.0 143:1.0 
0.0037145106578258414 0.0 0.0 0.0 0.0 5:2.0 6:3.0 7:4.0 8:2.0 10:1.0 15:1.0 28:1.0 
2.0 2.0 2.0 2.0 0.0 4:1.0 5:2.0 6:2.0 7:5.0 8:4.0 10:1.0 11:1.0 
2.0 2.0 2.0 0.10721115466940266 0.04337972680311301 4:1.0 5:2.0 6:1.0 7:8.0 8:7.0 10:1.0 11:1.0 72:1.0 
0.008758810860285907 0.016908328034215363 0.0 0.0 0.02561112178265422 4:1.0 5:2.0 6:2.0 7:12.0 8:8.0 10:2.0 20:1.0 27:1.0 72:1.0 77:1.0 144:1.0 145:1.0 146:1.0 
0.5169606872817512 0.7235438091026283 0.660211950962635 0.009639885806159007 1.121623247309089 4:1.0 5:2.0 6:2.0 7:11.0 8:8.0 10:2.0 20:1.0 27:1.0 114:1.0 147:1.0 148:1.0 149:1.0 
2.0 2.0 2.0 2.0 0.0 4:1.0 5:2.0 6:1.0 7:5.0 8:4.0 10:1.0 11:1.0 19:1.0 
0.0 1.1288473780922366 0.9371196686482015 0.0 0.0 5:2.0 6:3.0 7:5.0 8:2.0 10:1.0 12:1.0 13:1.0 91:1.0 
0.0 0.0 0.14613458319047384 0.0 0.0 5:2.0 6:1.0 7:10.0 8:10.0 10:1.0 15:1.0 151:1.0 
2.0 2.0 2.0 0.0 0.0 4:1.0 5:2.0 6:1.0 7:7.0 8:7.0 10:1.0 11:1.0 
0.0 1.070447068002833 0.0018937699027494733 0.0 0.0 5:2.0 6:2.0 7:6.0 8:4.0 10:2.0 15:1.0 80:1.0 
0.005377117605976155 0.0211347685435367 0.020139714247815996 0.003738234587598684 0.008137564098727217 4:1.0 5:2.0 6:1.0 7:8.0 8:6.0 9:1.0 10:1.0 20:1.0 72:1.0 152:1.0 153:1.0 
0.0 1.0701274510130128 0.10065541872117169 0.0 0.0 5:2.0 6:2.0 7:6.0 8:5.0 10:1.0 15:1.0 151:1.0 
0.0 0.45456997678527744 0.6142071374109882 0.3224288914213701 0.0 4:1.0 5:2.0 6:1.0 7:9.0 8:7.0 10:2.0 19:1.0 20:1.0 29:1.0 125:1.0 154:1.0 
2.0 2.0 2.0 0.0 2.0 4:1.0 5:2.0 6:4.0 7:8.0 8:5.0 10:1.0 11:1.0 
0.0 0.0 2.0 0.0 0.1935742989513211 4:1.0 5:2.0 6:5.0 7:12.0 8:8.0 10:1.0 31:1.0 73:1.0 75:1.0 
0.0 0.2762715778818463 0.0 0.0 0.0 4:1.0 5:2.0 6:1.0 7:10.0 8:10.0 10:1.0 31:1.0 155:1.0 156:1.0 
2.0 2.0 2.0 0.0 2.0 4:1.0 5:2.0 6:2.0 7:7.0 8:6.0 10:1.0 11:1.0 
2.0 2.0 2.0 0.0 2.0 4:1.0 5:2.0 6:5.0 7:15.0 8:11.0 10:1.0 11:1.0 
2.0 2.0 2.0 0.0 2.0 4:1.0 5:2.0 6:1.0 7:12.0 8:12.0 10:1.0 11:1.0 
2.0 2.0 2.0 0.0 0.0 4:1.0 5:2.0 6:1.0 7:7.0 8:7.0 10:1.0 11:1.0 
2.0 2.0 2.0 0.0 2.0 4:1.0 5:2.0 6:1.0 7:8.0 8:8.0 10:1.0 11:1.0 
0.0 0.07625052918418904 0.1405252184792266 0.0 0.11395374229122424 5:2.0 6:3.0 7:7.0 8:4.0 10:2.0 26:1.0 29:1.0 157:1.0 158:1.0 
0.0 1.0705138201685278 0.24699135833589775 0.0 0.0 5:2.0 6:1.0 7:4.0 8:4.0 10:1.0 15:1.0 35:1.0 
2.0 2.0 2.0 0.0 2.0 4:1.0 5:2.0 6:2.0 7:7.0 8:6.0 10:1.0 11:1.0 
0.0 0.0 0.5359607096090047 0.0 0.0 1:1.0 4:1.0 5:2.0 6:1.0 7:8.0 8:7.0 10:2.0 20:1.0 31:1.0 77:1.0 
0.5803514103047243 0.4478215390010448 1.3576177285158617 0.0 0.214630685689515 4:1.0 5:2.0 6:1.0 7:9.0 8:8.0 10:2.0 20:1.0 77:1.0 78:1.0 79:1.0 
0.0 0.0 0.09967982658720848 0.0 0.5865557971455513 4:1.0 5:2.0 6:2.0 7:11.0 8:8.0 10:3.0 31:1.0 159:1.0 160:1.0 
2.0 2.0 2.0 1.2222725002028854 2.0 4:1.0 5:2.0 6:1.0 7:16.0 8:15.0 10:1.0 11:1.0 19:1.0 
0.0 0.11418413535702097 0.15629454219647868 0.0 0.39097385468816426 5:2.0 6:1.0 7:12.0 8:11.0 10:2.0 17:1.0 26:1.0 161:1.0 162:1.0 163:1.0 
2.0 2.0 2.0 0.0 2.0 4:1.0 5:2.0 6:4.0 7:10.0 8:6.0 10:2.0 11:1.0 
2.0 2.0 2.0 0.0 2.0 4:1.0 5:2.0 6:3.0 7:7.0 8:4.0 10:2.0 11:1.0 
0.0 0.6850800248509902 0.41001116270630156 0.05790759185761332 1.1162242220556033 4:1.0 5:2.0 6:1.0 7:9.0 8:8.0 10:2.0 20:1.0 78:1.0 166:1.0 167:1.0 
0.0 2.0 2.0 0.0 1.2214364473560257 4:1.0 5:2.0 6:1.0 7:10.0 8:8.0 9:2.0 10:1.0 11:1.0 
0.0 0.38531231858962556 1.7018074303365611 0.0 0.0 5:2.0 6:1.0 7:7.0 8:7.0 10:1.0 12:1.0 13:1.0 26:1.0 
0.02798244690280426 0.0014615694664143722 0.0 0.0 0.08973849843040353 1:1.0 4:1.0 5:2.0 6:1.0 7:11.0 8:8.0 10:3.0 20:1.0 76:1.0 168:1.0 169:1.0 170:1.0 
2.0 2.0 2.0 2.0 2.0 4:1.0 5:2.0 6:3.0 7:6.0 8:3.0 10:2.0 11:1.0 
2.0 2.0 2.0 2.0 0.0 4:1.0 5:2.0 6:1.0 7:5.0 8:5.0 10:1.0 11:1.0 
2.0 2.0 2.0 0.0 2.0 4:1.0 5:2.0 6:4.0 7:10.0 8:6.0 10:2.0 11:1.0 
2.0 2.0 2.0 0.0 2.0 4:1.0 5:2.0 6:1.0 7:12.0 8:12.0 10:1.0 11:1.0 
2.0 2.0 2.0 2.0 2.0 4:1.0 5:2.0 6:3.0 7:6.0 8:4.0 10:1.0 11:1.0 
0.21969288348843252 0.22616528620994578 0.4371138674052328 0.0 0.48249359654825213 5:2.0 6:3.0 7:13.0 8:10.0 10:2.0 26:1.0 74:1.0 171:1.0 172:1.0 173:1.0 174:1.0 
0.0368217514397083 0.0 0.0 0.0 0.02021693680575615 4:1.0 5:2.0 6:2.0 7:8.0 8:7.0 10:1.0 45:1.0 175:1.0 176:1.0 
0.2325557181608166 0.0 2.0 0.0 1.034303602114703 4:1.0 5:2.0 6:1.0 7:6.0 8:6.0 10:1.0 31:1.0 177:1.0 
0.0 0.2445731243878726 0.1352137273022802 0.0 0.0 4:1.0 5:2.0 6:3.0 7:10.0 8:7.0 10:2.0 20:1.0 29:1.0 178:1.0 179:1.0 180:1.0 
2.0 2.0 2.0 0.0 0.0 4:1.0 5:2.0 6:1.0 7:7.0 8:7.0 10:1.0 11:1.0 
0.4308764499954569 0.5292321550516019 0.5909634255256783 0.0 0.4447795536969048 4:1.0 5:2.0 6:1.0 7:13.0 8:13.0 10:1.0 20:1.0 50:1.0 51:1.0 52:1.0 53:1.0 
2.0 2.0 2.0 0.0 2.0 4:1.0 5:2.0 6:1.0 7:10.0 8:10.0 10:1.0 11:1.0 
0.0 0.0 0.0 0.0 0.8643852542067607 5:2.0 7:8.0 8:7.0 10:2.0 19:1.0 26:1.0 29:1.0 125:1.0 154:1.0 
2.0 2.0 2.0 0.2811154303577026 2.0 4:1.0 5:2.0 6:3.0 7:7.0 8:4.0 10:2.0 11:1.0 
0.3476038258837219 0.24789260892850015 0.24287754971945305 0.0 0.0 4:1.0 5:2.0 6:4.0 7:9.0 8:6.0 10:1.0 31:1.0 182:1.0 183:1.0 
0.0 0.07565218973502805 2.0 0.0 0.7367307097080201 4:1.0 5:2.0 6:3.0 7:6.0 8:4.0 10:1.0 31:1.0 185:1.0 
0.460123944269563 0.0 0.09975713537483272 0.0 0.13593484734104938 4:1.0 5:2.0 6:2.0 7:6.0 8:5.0 10:1.0 31:1.0 186:1.0 187:1.0 
2.0 2.0 2.0 2.0 2.0 4:1.0 5:2.0 6:2.0 7:5.0 8:4.0 10:1.0 11:1.0 
0.3665524951082145 0.0 0.040094407706360254 0.0 0.0 4:1.0 5:2.0 6:3.0 7:14.0 8:10.0 10:3.0 37:1.0 39:1.0 41:1.0 68:1.0 189:1.0 
2.0 2.0 2.0 0.0 2.0 4:1.0 5:2.0 6:1.0 7:10.0 8:10.0 10:1.0 11:1.0 
2.0 2.0 2.0 0.0 2.0 4:1.0 5:2.0 6:4.0 7:14.0 8:11.0 10:1.0 11:1.0 
0.0 0.0 0.04408605983657697 0.0 0.0 4:1.0 5:2.0 6:1.0 7:8.0 8:8.0 10:1.0 29:1.0 190:1.0 191:1.0 
1.0913820860142371 0.3738542406303003 0.9745369577522791 0.0 0.6480781381408904 4:1.0 5:2.0 6:1.0 7:6.0 8:6.0 10:1.0 36:1.0 106:1.0 192:1.0 
0.0 0.0 0.0 0.0 0.015558149971988004 1:1.0 4:1.0 5:2.0 6:1.0 7:10.0 8:9.0 10:2.0 193:1.0 194:1.0 195:1.0 
0.0 0.0 0.0 0.0 0.5491068333275454 5:2.0 6:2.0 7:7.0 8:6.0 10:1.0 26:1.0 31:1.0 147:1.0 196:1.0 
0.0 1.0707891545549433 0.2474098470324956 0.0 0.0 5:2.0 6:1.0 7:3.0 8:3.0 10:1.0 15:1.0 112:1.0 
2.0 2.0 2.0 0.6188723218374045 0.0 4:1.0 5:2.0 6:1.0 7:6.0 8:6.0 10:1.0 11:1.0 
1.8724070410944151 0.056373324591858426 0.41472483283919254 0.0 0.317289272741656 4:1.0 5:2.0 6:3.0 7:8.0 8:4.0 10:3.0 20:1.0 166:1.0 197:1.0 198:1.0 199:1.0 
2.0 2.0 2.0 2.0 2.0 4:1.0 5:2.0 6:1.0 7:10.0 8:8.0 10:2.0 11:1.0 19:1.0 
2.0 2.0 2.0 0.0 2.0 4:1.0 5:2.0 6:1.0 7:9.0 8:9.0 10:1.0 11:1.0 
2.0 2.0 2.0 0.0 2.0 4:1.0 5:2.0 6:1.0 7:13.0 8:13.0 10:1.0 11:1.0 
0.0 0.0 0.19954149184167852 0.0 0.29431494952839243 4:1.0 5:2.0 6:3.0 7:6.0 8:4.0 10:1.0 31:1.0 200:1.0 
0.1723579624752293 0.6162288215479967 0.9305205712133899 0.0 0.7036614937709488 4:1.0 5:2.0 6:1.0 7:8.0 8:7.0 9:1.0 10:1.0 20:1.0 201:1.0 202:1.0 
0.0 0.23756795027804684 0.45551841917322483 0.0 0.14806339043868974 1:1.0 4:1.0 5:2.0 6:1.0 7:10.0 8:9.0 10:2.0 193:1.0 194:1.0 195:1.0 
0.019830763513614354 0.5524222984855245 0.0 0.0 0.0 5:2.0 6:3.0 7:4.0 8:2.0 10:1.0 15:1.0 23:1.0 
0.0 0.08420612194825451 0.17115573904475945 0.0 0.048184039870571786 5:2.0 6:4.0 7:23.0 8:20.0 10:1.0 26:1.0 29:1.0 203:1.0 204:1.0 205:1.0 206:1.0 207:1.0 
0.0 0.026361803133496307 0.0 0.0 0.0 1:1.0 4:1.0 5:2.0 6:7.0 7:23.0 8:16.0 10:2.0 31:1.0 114:1.0 208:1.0 209:1.0 210:1.0 211:1.0 212:1.0 
2.0 2.0 2.0 0.0 2.0 4:1.0 5:2.0 6:2.0 7:12.0 8:10.0 9:1.0 10:1.0 11:1.0 
0.0 0.0010716371030734513 0.006172469324351092 0.0 0.0 5:2.0 6:3.0 7:5.0 8:3.0 10:1.0 15:1.0 71:1.0 
2.0 2.0 2.0 0.0 0.0 4:1.0 5:2.0 6:1.0 7:7.0 8:7.0 10:1.0 11:1.0 
0.30464156311766843 0.17528022828855 0.5941862543433017 0.0 0.23970545849977848 1:1.0 5:2.0 6:3.0 7:9.0 8:7.0 10:1.0 26:1.0 180:1.0 213:1.0 214:1.0 
2.0 2.0 2.0 0.0 2.0 4:1.0 5:2.0 6:3.0 7:16.0 8:14.0 10:1.0 11:1.0 
0.0 0.0 0.045766394735782624 0.0 0.0 5:2.0 6:4.0 7:10.0 8:7.0 10:1.0 15:1.0 181:1.0 
2.0 2.0 2.0 0.0 2.0 4:1.0 5:2.0 6:3.0 7:7.0 8:5.0 10:1.0 11:1.0 
0.0 0.48075678679013367 0.44894537077761015 0.0 0.48482786698743013 1:1.0 4:1.0 5:2.0 6:1.0 7:16.0 8:12.0 10:5.0 20:1.0 77:1.0 218:1.0 219:1.0 220:1.0 221:1.0 
0.0 0.0 0.19929794049119978 0.2834182352961587 0.22526078828163484 4:1.0 5:2.0 6:1.0 7:6.0 8:5.0 10:1.0 19:1.0 31:1.0 222:1.0 
0.0 0.45797314083334445 0.1360391594453065 0.0 0.0 4:1.0 5:2.0 6:2.0 7:6.0 8:5.0 10:1.0 36:1.0 168:1.0 
2.0 2.0 2.0 2.0 0.0 4:1.0 5:2.0 6:1.0 7:5.0 8:4.0 10:1.0 11:1.0 19:1.0 
0.002820752934345535 0.0 0.19983804178060757 0.0 0.2866876186488298 4:1.0 5:2.0 6:3.0 7:5.0 8:3.0 10:1.0 31:1.0 225:1.0 
2.0 2.0 2.0 0.0 2.0 4:1.0 5:2.0 6:2.0 7:11.0 8:9.0 10:2.0 11:1.0 
0.0 0.0 0.0 0.0 0.21008561262197314 5:2.0 6:3.0 7:9.0 8:7.0 10:1.0 26:1.0 31:1.0 74:1.0 226:1.0 
2.0 2.0 2.0 1.031831762622135 0.0 4:1.0 5:2.0 6:1.0 7:6.0 8:6.0 10:1.0 11:1.0 
2.0 1.3830642348634063 2.0 0.0 2.0 4:1.0 5:2.0 6:4.0 7:11.0 8:8.0 10:1.0 143:1.0 
0.0 0.1887095555572843 0.0 0.0 0.8950721727916036 5:2.0 6:1.0 7:11.0 8:9.0 10:2.0 15:1.0 23:1.0 92:1.0 
0.20528545615151228 0.41193277998343103 0.0 0.0 0.0 5:2.0 6:3.0 7:6.0 8:3.0 10:1.0 15:1.0 19:1.0 71:1.0 
2.0 2.0 2.0 0.0 2.0 4:1.0 5:2.0 6:1.0 7:8.0 8:7.0 10:1.0 11:1.0 70:1.0 
2.0 2.0 2.0 2.0 2.0 4:1.0 5:2.0 6:2.0 7:5.0 8:4.0 10:1.0 11:1.0 
0.3935950902009889 0.9088867225951935 0.6526366964303679 0.06739476891836135 0.2704963670822421 4:1.0 5:2.0 6:2.0 7:9.0 8:7.0 10:2.0 20:1.0 166:1.0 228:1.0 229:1.0 
0.20792170708901853 0.14788786439934598 0.8925920789256304 0.0 0.2943669209783734 5:2.0 6:2.0 7:7.0 8:6.0 10:1.0 20:1.0 26:1.0 230:1.0 231:1.0 232:1.0 
2.0 2.0 2.0 0.0 2.0 4:1.0 5:2.0 6:3.0 7:13.0 8:11.0 10:1.0 11:1.0 
2.0 2.0 2.0 0.0 0.0 4:1.0 5:2.0 6:1.0 7:7.0 8:7.0 10:1.0 11:1.0 
2.0 2.0 2.0 0.0 2.0 4:1.0 5:2.0 6:3.0 7:7.0 8:5.0 10:1.0 11:1.0 
0.4377842634250283 0.6817991008015908 0.12767782780525924 0.0 0.5229481084234686 5:2.0 6:3.0 7:14.0 8:10.0 10:2.0 26:1.0 72:1.0 149:1.0 183:1.0 233:1.0 234:1.0 
0.11629879367600955 0.38841749032124906 0.37881709481259934 0.0 0.4415665042483928 5:2.0 6:1.0 7:13.0 8:9.0 10:3.0 26:1.0 27:1.0 55:1.0 236:1.0 237:1.0 238:1.0 
0.31555309176370694 0.34763258192539526 0.7283561042479251 0.0 0.4142967863639444 4:1.0 5:2.0 6:2.0 7:8.0 8:7.0 10:1.0 45:1.0 175:1.0 176:1.0 
0.0 0.0 0.020594306919198335 0.0 0.0 5:2.0 6:3.0 7:4.0 8:2.0 10:1.0 15:1.0 28:1.0 
2.0 2.0 2.0 2.0 2.0 4:1.0 5:2.0 6:4.0 7:17.0 8:8.0 10:5.0 11:1.0 19:2.0 
2.0 2.0 2.0 0.0 2.0 4:1.0 5:2.0 6:3.0 7:9.0 8:7.0 10:1.0 11:1.0 
2.0 2.0 2.0 0.0 2.0 4:1.0 5:2.0 6:3.0 7:16.0 8:11.0 10:2.0 11:1.0 19:1.0 70:1.0 
1.4275572679350093 1.7557954241872733 1.8417000894512046 0.5038537057882213 1.2401704757400722 4:1.0 5:2.0 6:1.0 7:3.0 8:2.0 10:1.0 20:1.0 240:1.0 
2.0 2.0 2.0 0.0 0.0 4:1.0 5:2.0 6:1.0 7:7.0 8:7.0 10:1.0 11:1.0 
2.0 2.0 2.0 0.0 0.0 4:1.0 5:2.0 6:1.0 7:7.0 8:7.0 10:1.0 11:1.0 
0.3228234249748486 0.41076326001538005 0.6224901647789438 0.0 0.38140356917666296 4:1.0 5:2.0 6:1.0 7:9.0 8:7.0 9:1.0 10:1.0 20:1.0 30:1.0 189:1.0 241:1.0 242:1.0 
0.226811983038485 1.192843968531841 2.0 0.2818342644638285 0.07502281067516776 4:1.0 5:2.0 6:2.0 7:6.0 8:4.0 10:2.0 20:1.0 166:1.0 197:1.0 199:1.0 
0.0 0.11921360576957922 0.3218738278077967 0.0 0.41171802018490306 4:1.0 5:2.0 6:3.0 7:7.0 8:4.0 10:2.0 29:1.0 243:1.0 244:1.0 
2.0 2.0 2.0 0.0 2.0 4:1.0 5:2.0 6:3.0 7:9.0 8:7.0 10:1.0 11:1.0 
0.8609678274992533 0.585000395572401 0.5288094410959694 0.0 0.4523436428845831 4:1.0 5:2.0 6:1.0 7:10.0 8:10.0 10:1.0 117:1.0 245:1.0 246:1.0 
2.0 2.0 2.0 2.0 2.0 4:1.0 5:2.0 6:3.0 7:6.0 8:3.0 10:2.0 11:1.0 
0.0 0.0 1.7994250197170045 0.0 0.43035914839260225 4:1.0 5:2.0 6:3.0 7:7.0 8:3.0 10:3.0 31:1.0 247:1.0 248:1.0 
0.0 0.0 0.0012430084701383103 1.3345537889099592 0.39195196124158477 5:2.0 6:1.0 7:27.0 8:18.0 10:5.0 15:1.0 18:1.0 19:5.0 26:1.0 249:1.0 
2.0 2.0 2.0 0.0 0.0 4:1.0 5:2.0 6:1.0 7:7.0 8:7.0 10:1.0 11:1.0 
1.2057835585569416 2.0 2.0 0.0 1.836869376260483 4:1.0 5:2.0 6:1.0 7:5.0 8:5.0 10:1.0 20:1.0 105:1.0 
2.0 2.0 2.0 2.0 0.0 4:1.0 5:2.0 6:1.0 7:5.0 8:5.0 10:1.0 11:1.0 
0.29010743190416277 1.4737446685132236 2.0 0.0 0.726455819433609 4:1.0 5:2.0 6:1.0 7:11.0 8:11.0 10:1.0 20:1.0 155:1.0 250:1.0 251:1.0 
0.7795248222098513 0.3769072046352168 0.6315613663086431 0.0 0.8167987839796433 5:2.0 6:3.0 7:10.0 8:8.0 10:1.0 26:1.0 252:1.0 253:1.0 254:1.0 
0.0 0.0 0.0 0.010297733045877066 0.0 5:2.0 6:1.0 7:4.0 8:3.0 10:1.0 12:1.0 13:1.0 19:1.0 
0.0 0.08974801548926052 0.2337478009288335 0.14058716082148984 0.2983342304259609 4:1.0 5:2.0 6:1.0 7:10.0 8:9.0 10:1.0 19:1.0 36:1.0 255:1.0 256:1.0 
2.0 2.0 2.0 0.0 2.0 4:1.0 5:2.0 6:1.0 7:8.0 8:8.0 10:1.0 11:1.0 
2.0 2.0 2.0 0.0 0.0 4:1.0 5:2.0 6:1.0 7:6.0 8:6.0 10:1.0 11:1.0 
2.0 2.0 2.0 0.38506742247299114 0.5403286180411914 4:1.0 5:2.0 6:1.0 7:14.0 8:9.0 10:2.0 11:1.0 27:3.0 70:1.0 
2.0 2.0 2.0 0.0 2.0 4:1.0 5:2.0 6:1.0 7:13.0 8:13.0 10:1.0 11:1.0 
2.0 2.0 2.0 0.0 0.0 4:1.0 5:2.0 6:1.0 7:7.0 8:7.0 10:1.0 11:1.0 
0.0 0.0 0.0 0.0 0.1842861047458154 5:2.0 6:2.0 7:10.0 8:8.0 10:1.0 12:1.0 13:1.0 70:1.0 
0.0 0.1009200314740797 0.08213357812002103 0.0 0.10098284667489349 4:1.0 5:2.0 6:1.0 7:10.0 8:10.0 10:1.0 36:1.0 116:1.0 257:1.0 
0.36927600433197805 0.0 0.2149488452217294 0.0 0.0 5:2.0 6:3.0 7:3.0 8:1.0 10:1.0 12:1.0 13:1.0 
0.0 0.0 5.080156425789433E-4 0.0 0.0 5:2.0 6:5.0 7:19.0 8:11.0 10:5.0 15:1.0 18:1.0 
2.0 2.0 2.0 0.0 2.0 4:1.0 5:2.0 6:4.0 7:9.0 8:4.0 10:2.0 11:1.0 70:1.0 
0.21619399913727239 0.9346643716817153 0.8065726713896026 0.0 0.6052593813402847 1:1.0 4:1.0 5:2.0 6:1.0 7:11.0 8:8.0 10:3.0 20:1.0 76:1.0 168:1.0 169:1.0 170:1.0 
2.0 2.0 2.0 2.0 2.0 4:1.0 5:2.0 6:3.0 7:6.0 8:3.0 10:2.0 11:1.0 
0.0 1.0708002318932337 0.24742520726464368 0.0 0.0 5:2.0 6:1.0 7:3.0 8:3.0 10:1.0 15:1.0 258:1.0 
0.0 0.0 0.19948334592164993 0.4264766086927458 0.21769233689519957 4:1.0 5:2.0 6:1.0 7:5.0 8:4.0 10:1.0 19:1.0 31:1.0 260:1.0 
2.0 2.0 2.0 0.0 2.0 4:1.0 5:2.0 6:1.0 7:14.0 8:14.0 10:1.0 11:1.0 
0.29596075449452125 0.09777274392617721 0.31501747640871364 0.0 0.14581558930454833 4:1.0 5:2.0 6:1.0 7:10.0 8:8.0 10:2.0 27:1.0 52:1.0 77:1.0 261:1.0 
2.0 2.0 2.0 0.0 0.0 4:1.0 5:2.0 6:1.0 7:8.0 8:8.0 10:1.0 11:1.0 
0.48486116753833425 0.5655164180401342 1.1647694679526464 0.3566391780398773 1.0963856449193683 5:2.0 7:7.0 8:7.0 10:1.0 19:1.0 26:1.0 262:1.0 263:1.0 
2.0 2.0 2.0 0.0 2.0 4:1.0 5:2.0 6:4.0 7:10.0 8:7.0 10:1.0 11:1.0 
0.0 0.0 0.1992489237047649 0.0 0.24915977105712073 4:1.0 5:2.0 6:1.0 7:6.0 8:6.0 10:1.0 31:1.0 264:1.0 
0.0 1.0704880471185279 0.24699113752895616 0.0 0.0 5:2.0 6:1.0 7:4.0 8:4.0 10:1.0 15:1.0 93:1.0 
0.03452323794369209 0.018073914364007546 0.008521463124985326 0.0 0.011916388375209452 4:1.0 5:2.0 6:3.0 7:10.0 8:8.0 10:1.0 20:1.0 265:1.0 266:1.0 
0.0 1.2743513585813762 0.0 0.0 0.0 5:2.0 6:1.0 7:15.0 8:11.0 10:3.0 15:1.0 18:1.0 27:1.0 238:1.0 
2.0 2.0 2.0 0.0 0.5330226842305615 4:1.0 5:2.0 6:1.0 7:8.0 8:7.0 10:1.0 11:1.0 72:1.0 
2.0 0.4002201823711233 0.5536004529381292 0.0 0.3616638195013756 5:2.0 6:1.0 7:9.0 8:8.0 10:1.0 72:1.0 81:1.0 82:1.0 83:1.0 84:1.0 
2.0 2.0 2.0 0.0 2.0 4:1.0 5:2.0 6:1.0 7:13.0 8:13.0 10:1.0 11:1.0 
2.0 2.0 2.0 0.0 2.0 4:1.0 5:2.0 6:1.0 7:11.0 8:11.0 10:1.0 11:1.0 
0.0 0.2729877871984152 2.0 0.0 2.0 4:1.0 5:2.0 6:4.0 7:13.0 8:10.0 10:1.0 143:1.0 
0.0 0.1884637642916805 0.0 0.0 0.0 5:2.0 6:2.0 7:6.0 8:5.0 10:1.0 26:1.0 31:1.0 114:1.0 
2.0 2.0 2.0 1.8331626781232593 2.0 4:1.0 5:2.0 6:3.0 7:9.0 8:5.0 10:2.0 11:1.0 72:1.0 
0.18587028746477918 0.3296379625483789 0.49752615943727047 0.0 0.09267868049469113 5:2.0 6:4.0 7:14.0 8:11.0 10:1.0 23:1.0 26:1.0 233:1.0 268:1.0 269:1.0 270:1.0 
2.0 2.0 2.0 0.0 2.0 4:1.0 5:2.0 6:4.0 7:8.0 8:5.0 10:1.0 11:1.0 
0.0 0.0 0.0 0.0 2.0 5:2.0 6:2.0 7:10.0 8:6.0 10:3.0 12:1.0 13:1.0 92:1.0 
0.0 0.0 0.0 0.0 0.12835908453213166 5:2.0 6:3.0 7:10.0 8:7.0 10:1.0 19:1.0 26:1.0 31:1.0 74:1.0 271:1.0 272:1.0 
2.0 2.0 2.0 0.0 2.0 4:1.0 5:2.0 6:3.0 7:8.0 8:5.0 10:2.0 11:1.0 
0.0 0.0 0.0 0.2036533805716668 0.0 4:1.0 5:2.0 6:2.0 7:5.0 8:2.0 10:2.0 19:1.0 20:1.0 275:1.0 276:1.0 
2.0 2.0 2.0 2.0 0.0 4:1.0 5:2.0 6:1.0 7:4.0 8:4.0 10:1.0 11:1.0 
2.0 2.0 2.0 0.0 0.0 4:1.0 5:2.0 6:1.0 7:6.0 8:6.0 10:1.0 11:1.0 
0.2725857809680708 0.6162945196899895 0.9305410005998378 0.005632123852009501 0.53826891910129 4:1.0 5:2.0 6:1.0 7:6.0 8:5.0 9:1.0 10:1.0 20:1.0 279:1.0 280:1.0 
1.6121242194678214 0.0 0.0 0.0 0.0 1:1.0 4:1.0 5:2.0 6:3.0 7:4.0 8:2.0 10:1.0 29:1.0 
0.34978689267463803 0.7774874412853309 0.8962185034235587 0.0 0.4799065326271866 4:1.0 5:2.0 6:3.0 7:10.0 8:7.0 10:2.0 20:1.0 281:1.0 282:1.0 283:1.0 
0.0 0.0 0.2317804914867157 0.0 0.0 5:2.0 6:4.0 7:22.0 8:19.0 10:1.0 15:1.0 18:1.0 
0.567487960487467 0.1256251179234682 0.5766470506967488 0.0 0.14920393533745227 1:1.0 4:1.0 5:2.0 6:2.0 7:11.0 8:9.0 10:2.0 36:1.0 106:1.0 284:1.0 285:1.0 
0.7314740949641432 0.5405176587338035 1.3025389729173142 0.1505303559280974 0.48710302459525257 1:1.0 5:2.0 6:4.0 7:9.0 8:5.0 10:1.0 19:1.0 26:1.0 286:1.0 287:1.0 
0.0 0.0 0.45067049046661395 0.0 0.23025929312075968 5:2.0 6:3.0 7:9.0 8:7.0 10:1.0 26:1.0 31:1.0 288:1.0 289:1.0 
0.44319478820070596 0.0 0.10946218232988429 0.0 0.5590927750007879 5:2.0 6:2.0 7:13.0 8:11.0 9:1.0 10:1.0 22:1.0 26:1.0 290:1.0 
2.0 2.0 2.0 2.0 2.0 4:1.0 5:2.0 6:3.0 7:7.0 8:4.0 10:2.0 11:1.0 
0.6571490366759739 1.3582951838374113 2.0 0.0 0.8231077573684206 4:1.0 5:2.0 6:3.0 7:9.0 8:7.0 10:1.0 20:1.0 195:1.0 230:1.0 
0.07435252762611874 0.9702872112047113 0.22542981389168695 0.0 0.0 5:2.0 6:3.0 7:4.0 8:2.0 10:1.0 15:1.0 28:1.0 
0.6614707883536036 1.1830997215457928 2.0 0.0 0.0 4:1.0 5:2.0 6:3.0 7:6.0 8:4.0 10:1.0 31:1.0 60:1.0 
2.0 2.0 2.0 0.0 0.0 4:1.0 5:2.0 6:1.0 7:7.0 8:7.0 10:1.0 11:1.0 
2.0 2.0 2.0 0.0029613943903636017 0.0 4:1.0 5:2.0 6:1.0 7:6.0 8:6.0 10:1.0 11:1.0 
0.0 0.0 2.0 0.0 0.0 4:1.0 5:2.0 6:1.0 7:14.0 8:12.0 9:1.0 10:1.0 72:1.0 143:1.0 
0.0 0.014799257685325811 0.0 0.0 0.16422819110928033 1:1.0 4:1.0 5:2.0 6:3.0 7:14.0 8:11.0 10:2.0 52:1.0 291:1.0 292:1.0 293:1.0 
0.0 0.0 0.0 0.0 0.6276341334114331 5:2.0 6:5.0 7:10.0 8:4.0 10:3.0 12:1.0 13:1.0 
0.0 1.069952288688583 0.20099775395806835 0.0 0.0 5:2.0 6:1.0 7:9.0 8:9.0 10:1.0 15:1.0 181:1.0 
0.0 2.0 2.0 0.0 2.0 4:1.0 5:2.0 6:1.0 7:14.0 8:13.0 10:2.0 143:1.0 
1.1013333355063986 0.9257750655597112 1.1286499173551325 0.0 0.7582885999512406 4:1.0 5:2.0 6:3.0 7:10.0 8:8.0 10:1.0 20:1.0 265:1.0 266:1.0 
2.0 2.0 2.0 0.0 2.0 4:1.0 5:2.0 6:2.0 7:8.0 8:7.0 10:1.0 11:1.0 
0.0 2.0 2.0 0.0 2.0 4:1.0 5:2.0 6:1.0 7:10.0 8:8.0 9:2.0 10:1.0 11:1.0 
0.0 1.070801937333903 0.24741720467566664 0.0 0.0 5:2.0 6:1.0 7:3.0 8:3.0 10:1.0 15:1.0 16:1.0 
2.0 2.0 2.0 0.0 2.0 4:1.0 5:2.0 6:3.0 7:9.0 8:7.0 10:1.0 11:1.0 
2.0 2.0 2.0 2.0 1.1026823728421478 4:1.0 5:2.0 6:2.0 7:5.0 8:4.0 10:1.0 11:1.0 
0.0 0.0 0.19942771357653175 0.0 0.3018920250754748 4:1.0 5:2.0 6:3.0 7:7.0 8:5.0 10:1.0 31:1.0 294:1.0 
0.0 0.0 0.0 0.0 0.03672563161909764 5:2.0 6:3.0 7:10.0 8:7.0 10:1.0 26:1.0 31:1.0 76:1.0 295:1.0 296:1.0 
2.0 2.0 2.0 0.0 0.3072694345242301 4:1.0 5:2.0 6:1.0 7:8.0 8:8.0 10:1.0 11:1.0 
0.0 0.0 0.09993431972661887 0.0 0.44552027443032893 4:1.0 5:2.0 6:4.0 7:8.0 8:3.0 10:3.0 31:1.0 298:1.0 299:1.0 
2.0 2.0 2.0 0.0 2.0 4:1.0 5:2.0 6:3.0 7:7.0 8:5.0 10:1.0 11:1.0 
1.235502833683173 0.9443080223549994 1.0115758740347394 0.5650073976296636 0.677379455501435 4:1.0 5:2.0 6:2.0 7:5.0 8:2.0 10:2.0 19:1.0 20:1.0 275:1.0 276:1.0 
2.0 0.0 0.0 0.0 0.0 5:2.0 6:4.0 7:5.0 8:2.0 10:1.0 12:1.0 13:1.0 
0.8278202628690152 0.6085987895501124 0.9606784925093924 0.0 0.826860212829264 4:1.0 5:2.0 6:2.0 7:5.0 8:4.0 10:1.0 301:1.0 302:1.0 
0.11748164820488778 0.0 0.09991308669424849 0.0 0.44505933889186816 4:1.0 5:2.0 6:6.0 7:10.0 8:5.0 10:1.0 31:1.0 303:1.0 304:1.0 
2.0 2.0 2.0 0.0 2.0 4:1.0 5:2.0 6:4.0 7:10.0 8:4.0 10:3.0 11:1.0 70:1.0 
0.12769413469033158 0.1004892697780682 0.0012784672935291213 0.0 0.06685976906164287 5:2.0 6:6.0 7:11.0 8:5.0 10:2.0 15:1.0 26:1.0 28:1.0 305:1.0 
2.0 2.0 2.0 0.0 0.0 4:1.0 5:2.0 6:1.0 7:8.0 8:8.0 10:1.0 11:1.0 
0.4139560528441865 0.4760267440211689 0.7788654199890211 0.0 0.22497899827265658 4:1.0 5:2.0 6:2.0 7:12.0 8:8.0 10:2.0 20:1.0 27:1.0 72:1.0 77:1.0 144:1.0 145:1.0 146:1.0 
1.363724137418433 0.0 1.5739164926022775 0.0 1.447545727382497 4:1.0 5:2.0 6:3.0 7:4.0 8:2.0 10:1.0 230:1.0 306:1.0 
0.24867441972861726 0.8827433949581934 0.8821801008246982 0.001844277155242964 0.5748231236995649 4:1.0 5:2.0 6:1.0 7:8.0 8:6.0 9:1.0 10:1.0 20:1.0 72:1.0 152:1.0 153:1.0 
0.0 0.2523916195077915 2.0 0.0 0.0 4:1.0 5:2.0 6:2.0 7:9.0 8:7.0 10:2.0 20:1.0 31:1.0 77:1.0 307:1.0 
0.44909198763097996 2.0 2.0 0.0 0.0 4:1.0 5:2.0 6:1.0 7:16.0 8:14.0 10:1.0 11:1.0 27:2.0 
0.3512825137384494 0.33893285578998694 0.5507844481442186 0.0 0.7725692082593459 5:2.0 6:1.0 7:10.0 8:9.0 10:2.0 26:1.0 161:1.0 191:1.0 308:1.0 
0.6247825538693422 0.9439828443241597 1.1886328777601383 0.0 0.8632161659824826 4:1.0 5:2.0 6:3.0 7:8.0 8:5.0 10:2.0 20:1.0 188:1.0 309:1.0 
0.0 0.4740857923758646 0.0 0.0 0.0 5:2.0 6:1.0 7:10.0 8:8.0 10:2.0 14:1.0 15:1.0 19:1.0 20:1.0 26:1.0 56:1.0 
2.0 2.0 2.0 0.0 2.0 4:1.0 5:2.0 6:3.0 7:8.0 8:5.0 10:2.0 11:1.0 
0.0 0.0 0.0 0.0 0.14216761198862954 1:1.0 4:1.0 5:2.0 6:5.0 7:14.0 8:7.0 10:3.0 19:1.0 31:1.0 138:1.0 164:1.0 310:1.0 311:1.0 
-0.042250409927035715 0.0554210998827351 0.0 0.0 0.8272266706264825 5:2.0 6:3.0 7:10.0 8:7.0 10:1.0 38:1.0 72:1.0 83:1.0 313:1.0 314:1.0 
-0.1769911789205942 0.026568074246899193 0.0 0.0 0.0 5:2.0 6:1.0 7:6.0 8:6.0 10:1.0 55:1.0 84:1.0 317:1.0 
-0.0 0.0515469967158806 0.0 0.0 0.0 5:2.0 6:3.0 7:4.0 8:2.0 10:1.0 84:1.0 318:1.0 
-0.0 0.27856150512672134 1.0358621760102584 0.0 0.9636118898425042 4:1.0 5:2.0 6:2.0 7:9.0 8:7.0 10:2.0 20:1.0 77:1.0 319:1.0 320:1.0 
-0.0 0.0 1.0827596833095763 0.0 0.1883797211434857 4:1.0 5:2.0 6:4.0 7:8.0 8:5.0 10:1.0 67:1.0 323:1.0 324:1.0 
-2.0 2.0 2.0 0.0 0.0 4:1.0 5:2.0 6:2.0 7:6.0 8:5.0 10:1.0 11:1.0 
-0.0 0.0 0.0 0.3191384499447433 0.0 5:2.0 6:1.0 7:6.0 8:4.0 10:1.0 19:2.0 54:1.0 84:1.0 325:1.0 326:1.0 
-0.0 0.04872443488793293 0.0 0.0 0.0 5:2.0 6:1.0 7:5.0 8:4.0 10:1.0 70:1.0 84:1.0 330:1.0 
-0.0 0.01378308832137125 1.5334757907922565 0.0 0.6826001342933865 4:1.0 5:2.0 6:3.0 7:10.0 8:8.0 10:1.0 73:1.0 331:1.0 332:1.0 
-2.0 2.0 2.0 0.0 2.0 4:1.0 5:2.0 6:1.0 7:10.0 8:10.0 10:1.0 11:1.0 
-2.0 2.0 2.0 0.0 2.0 4:1.0 5:2.0 6:3.0 7:11.0 8:9.0 10:1.0 11:1.0 
-2.0 2.0 2.0 2.0 2.0 4:1.0 5:2.0 6:5.0 7:15.0 8:7.0 10:4.0 11:1.0 19:1.0 
-0.23542742079151935 0.6129387579588292 0.6493438591502023 0.0 0.38536834954831245 4:1.0 5:2.0 6:3.0 7:9.0 8:7.0 10:1.0 20:1.0 337:1.0 338:1.0 339:1.0 
-2.0 2.0 2.0 2.0 2.0 4:1.0 5:2.0 6:3.0 7:11.0 8:8.0 10:1.0 11:1.0 19:1.0 
-0.0 0.010860019179353721 0.0 0.0 0.0 5:2.0 6:2.0 7:8.0 8:6.0 10:1.0 19:1.0 53:1.0 54:1.0 84:1.0 340:1.0 
-0.031195710559531915 0.41560736554695893 0.8820911712978234 0.0 0.44661183989579845 5:2.0 6:3.0 7:5.0 8:3.0 10:1.0 26:1.0 345:1.0 346:1.0 
-0.0 0.30305042438066143 1.2489434850609316 0.0 0.8372912264492431 4:1.0 5:2.0 6:2.0 7:9.0 8:7.0 10:2.0 20:1.0 166:1.0 344:1.0 352:1.0 353:1.0 
-0.0 0.056046873416930036 0.0 0.0 0.0 5:2.0 6:1.0 7:4.0 8:4.0 10:1.0 84:1.0 354:1.0 
-0.10060374371139132 0.0 0.9682293112659796 0.0 0.45021626447406804 4:1.0 5:2.0 6:1.0 7:7.0 8:6.0 10:1.0 72:1.0 355:1.0 356:1.0 
-2.0 2.0 2.0 0.0 2.0 4:1.0 5:2.0 6:1.0 7:9.0 8:9.0 10:1.0 11:1.0 
-0.0 0.9745934586719254 0.0 0.0 0.0 5:2.0 6:2.0 7:5.0 8:4.0 10:1.0 84:1.0 297:1.0 
-0.26518308493741677 0.21513596038520902 0.7647464506823064 0.0 0.09122334632159419 4:1.0 5:2.0 6:1.0 7:5.0 8:5.0 10:1.0 359:1.0 360:1.0 
-0.21928006314215395 0.0 0.502267708997882 0.0 0.4082741279845894 5:2.0 6:2.0 7:12.0 8:10.0 10:1.0 26:1.0 27:1.0 357:1.0 361:1.0 362:1.0 363:1.0 
-0.004665994236111429 0.016206440387829223 0.0 0.0 0.0 5:2.0 6:3.0 7:6.0 8:4.0 10:1.0 84:1.0 253:1.0 364:1.0 
-2.0 2.0 2.0 0.0 2.0 4:1.0 5:2.0 6:2.0 7:8.0 8:7.0 10:1.0 11:1.0 
-0.16793646508839452 0.0 0.0 0.0 0.12549746364245873 4:1.0 5:2.0 6:2.0 7:10.0 8:8.0 9:1.0 10:1.0 67:1.0 368:1.0 369:1.0 370:1.0 
-2.0 2.0 2.0 0.0 0.0 4:1.0 5:2.0 6:2.0 7:10.0 8:7.0 10:1.0 11:1.0 19:1.0 27:1.0 
-0.3712853082542517 1.5531025956012963 1.6234597922630283 0.0 1.049031068167409 4:1.0 5:2.0 6:2.0 7:13.0 8:11.0 10:2.0 20:1.0 284:1.0 352:1.0 371:1.0 
-0.0 0.0 0.0 0.0 1.0598613189735497 4:1.0 5:2.0 6:5.0 7:12.0 8:6.0 10:2.0 70:1.0 320:1.0 374:1.0 375:1.0 
-0.0 0.0 0.4923119269619572 0.0 0.0 4:1.0 5:2.0 6:4.0 7:8.0 8:5.0 10:1.0 67:1.0 224:1.0 376:1.0 
-2.0 2.0 2.0 0.0 2.0 4:1.0 5:2.0 6:1.0 7:9.0 8:9.0 10:1.0 11:1.0 
-0.0 0.05154352283343148 0.0 0.0 0.0 5:2.0 6:3.0 7:4.0 8:2.0 10:1.0 84:1.0 380:1.0 
-2.0 2.0 2.0 0.0 0.0 4:1.0 5:2.0 6:2.0 7:6.0 8:5.0 10:1.0 11:1.0 
-1.049161434708011 0.0 0.0 0.0 0.11224873167561186 5:2.0 6:1.0 7:10.0 8:8.0 10:3.0 65:1.0 84:1.0 230:1.0 
-2.0 2.0 2.0 0.0 2.0 4:1.0 5:2.0 6:2.0 7:11.0 8:10.0 10:1.0 11:1.0 
-0.0 0.04649258134549149 1.1586850286026082 0.0 0.0 4:1.0 5:2.0 6:1.0 7:11.0 8:11.0 10:1.0 20:1.0 62:1.0 327:1.0 387:1.0 
-0.0 0.1767954639568954 0.9655460510130327 0.0 0.0 4:1.0 5:2.0 6:6.0 7:10.0 8:5.0 10:1.0 20:1.0 67:1.0 388:1.0 
-2.0 2.0 2.0 0.0 2.0 4:1.0 5:2.0 6:2.0 7:8.0 8:7.0 10:1.0 11:1.0 
-0.20445473966740094 0.0 0.0 0.0 0.0 5:2.0 6:3.0 7:7.0 8:5.0 10:1.0 26:1.0 67:1.0 136:1.0 
-0.0 0.06860041595743678 2.0 0.0 2.0 4:1.0 5:2.0 6:5.0 7:10.0 8:4.0 10:3.0 381:1.0 388:1.0 
-0.26535180544626813 0.1449873910358518 1.2427917899381054 0.0 0.7495482202815793 4:1.0 5:2.0 6:1.0 7:8.0 8:7.0 10:1.0 391:1.0 392:1.0 393:1.0 
-0.07204445277149989 0.0 0.26155848534601306 0.0 0.626180515671696 4:1.0 5:2.0 6:2.0 7:8.0 8:6.0 10:1.0 72:1.0 391:1.0 394:1.0 395:1.0 
-2.0 2.0 2.0 0.0 2.0 4:1.0 5:2.0 6:1.0 7:10.0 8:8.0 9:1.0 10:1.0 11:1.0 72:1.0 
-0.0 0.0406896457784997 0.2940414159218302 0.0 0.44223035642218184 4:1.0 5:2.0 6:6.0 7:11.0 8:6.0 10:1.0 25:1.0 398:1.0 
-2.0 2.0 2.0 0.0 2.0 4:1.0 5:2.0 6:3.0 7:7.0 8:4.0 10:2.0 11:1.0 
-2.0 2.0 2.0 0.0 2.0 4:1.0 5:2.0 6:3.0 7:10.0 8:6.0 10:2.0 11:1.0 72:1.0 
-0.6980524177284794 0.30872150576865504 0.6302204387482514 0.0 0.5772344511669376 1:1.0 4:1.0 5:2.0 6:3.0 7:14.0 8:10.0 9:1.0 10:2.0 399:1.0 400:1.0 401:1.0 
-2.0 2.0 2.0 0.0 2.0 4:1.0 5:2.0 6:3.0 7:7.0 8:4.0 10:2.0 11:1.0 
-0.0 0.024305113615452872 0.0 0.0 0.0 5:2.0 6:3.0 7:6.0 8:4.0 10:1.0 84:1.0 403:1.0 404:1.0 
-0.0 0.12598709074389633 0.020242114899514687 0.0 0.0 5:2.0 6:1.0 7:6.0 8:5.0 10:1.0 70:1.0 84:1.0 407:1.0 408:1.0 
-0.0 0.0 0.16116192727021808 0.0 0.34408459814280845 4:1.0 5:2.0 6:7.0 7:13.0 8:5.0 10:3.0 121:1.0 409:1.0 410:1.0 411:1.0 412:1.0 
-2.0 2.0 2.0 2.0 2.0 4:1.0 5:2.0 6:1.0 7:7.0 8:6.0 10:2.0 11:1.0 
-0.0 2.0 0.8433253523152073 0.0 0.0 4:1.0 5:2.0 6:3.0 7:7.0 8:5.0 10:1.0 20:1.0 67:1.0 413:1.0 
-0.26876470662100543 0.5338032131423744 0.5450583365507804 0.0 0.31327440698562187 4:1.0 5:2.0 6:3.0 7:10.0 8:8.0 10:1.0 20:1.0 414:1.0 415:1.0 416:1.0 
-2.0 2.0 2.0 0.0 2.0 4:1.0 5:2.0 6:3.0 7:8.0 8:6.0 10:1.0 11:1.0 
-0.0 0.004752795006242222 0.0 0.0 0.0 5:2.0 6:4.0 7:11.0 8:6.0 10:2.0 19:1.0 53:1.0 54:1.0 84:1.0 421:1.0 422:1.0 423:1.0 
-2.0 2.0 2.0 0.0 0.0 4:1.0 5:2.0 6:2.0 7:6.0 8:5.0 10:1.0 11:1.0 
-0.017687928059583177 0.0 0.19214124010670589 0.0 0.2625645661384345 2:1.0 4:1.0 5:2.0 6:5.0 7:9.0 8:5.0 10:1.0 424:1.0 425:1.0 
-0.0 0.0 0.0 0.0 0.00939380649473095 5:2.0 6:4.0 7:10.0 8:6.0 10:2.0 26:1.0 67:1.0 426:1.0 427:1.0 
-0.04026255502668879 0.0 0.0 0.0 0.03297403796643366 5:2.0 6:2.0 7:5.0 8:4.0 10:1.0 26:1.0 390:1.0 431:1.0 
-0.0 0.0 0.0 0.0 1.3745603661875554 4:1.0 5:2.0 6:2.0 7:6.0 8:4.0 10:1.0 72:1.0 182:1.0 436:1.0 
-0.0 0.0 2.0 0.0 1.3169829941622009 4:1.0 5:2.0 6:7.0 7:12.0 8:6.0 10:1.0 105:1.0 106:1.0 440:1.0 
-0.0 0.0 0.0 0.2697354511458159 0.0 5:2.0 6:1.0 7:6.0 8:4.0 10:2.0 19:1.0 84:1.0 166:1.0 441:1.0 
-2.0 2.0 2.0 2.0 0.0 4:1.0 5:2.0 6:1.0 7:7.0 8:6.0 10:1.0 11:1.0 72:1.0 
-1.9730213594182806 0.5692436392244766 0.2118811261173713 0.10226256301673096 0.0 4:1.0 5:2.0 6:2.0 7:6.0 8:4.0 10:2.0 20:1.0 117:1.0 166:1.0 198:1.0 
-2.0 2.0 2.0 2.0 0.0 4:1.0 5:2.0 6:2.0 7:5.0 8:4.0 10:1.0 11:1.0 
-2.0 2.0 2.0 2.0 2.0 4:1.0 5:2.0 6:6.0 7:14.0 8:5.0 10:3.0 11:1.0 19:2.0 
-0.11634331833024943 0.6165560895335064 1.2154347115702748 0.10482933861951839 0.40637136044357514 4:1.0 5:2.0 6:2.0 7:4.0 8:3.0 10:1.0 20:1.0 448:1.0 449:1.0 
-0.23704258003798892 0.8961846680292747 0.0 0.0 0.0 5:2.0 6:1.0 7:9.0 8:8.0 10:1.0 20:1.0 26:1.0 62:1.0 72:1.0 187:1.0 
-0.49362788015983405 0.2453782190117818 1.1110523044215606 0.2419330866872066 1.4932624189069652 5:2.0 6:1.0 7:3.0 8:3.0 10:1.0 26:1.0 374:1.0 
-0.0 0.0 0.0 0.0 0.1593445953679873 4:1.0 5:2.0 6:4.0 7:8.0 8:4.0 10:1.0 67:1.0 72:1.0 451:1.0 452:1.0 
-0.0 0.0 0.0 1.1140601672232535 0.0 4:1.0 5:2.0 6:2.0 7:14.0 8:5.0 10:2.0 19:6.0 27:1.0 38:1.0 327:1.0 453:1.0 454:1.0 455:1.0 
-0.0 0.055278305233819686 0.0 0.0 0.0 5:2.0 6:2.0 7:3.0 8:2.0 10:1.0 84:1.0 405:1.0 
-0.30307901203287035 0.9200524276813561 0.9740060051529006 0.0 0.5710366772415577 4:1.0 5:2.0 6:3.0 7:8.0 8:6.0 10:1.0 20:1.0 456:1.0 457:1.0 
-0.10647205581086444 0.0069509254147526135 1.1865894938367183 0.0 0.9681576088168508 4:1.0 5:2.0 6:2.0 7:4.0 8:3.0 10:1.0 345:1.0 458:1.0 
-2.0 2.0 2.0 0.0 2.0 4:1.0 5:2.0 6:2.0 7:7.0 8:6.0 10:1.0 11:1.0 
-0.0 0.45970491059747987 0.0 0.0 0.0 4:1.0 5:2.0 6:3.0 7:9.0 8:7.0 10:1.0 20:1.0 182:2.0 
-2.0 2.0 2.0 0.0 2.0 4:1.0 5:2.0 6:2.0 7:7.0 8:6.0 10:1.0 11:1.0 
-0.0 0.0 0.3014383402964044 0.0 0.0 4:1.0 5:2.0 6:2.0 7:5.0 8:4.0 10:1.0 187:1.0 462:1.0 
-0.0 0.057281206603944666 0.21182941084326423 0.0 0.1319298050236003 4:1.0 5:2.0 6:4.0 7:8.0 8:5.0 10:1.0 419:1.0 464:1.0 465:1.0 
-2.0 2.0 2.0 0.0 2.0 4:1.0 5:2.0 6:3.0 7:6.0 8:4.0 10:1.0 11:1.0 
-2.0 2.0 2.0 0.0 2.0 4:1.0 5:2.0 6:3.0 7:6.0 8:4.0 10:1.0 11:1.0 
-0.31881528243106944 0.0 0.4563567950261767 0.0 0.6986445445864905 4:1.0 5:2.0 6:3.0 7:12.0 8:9.0 10:1.0 72:1.0 467:1.0 468:1.0 
-2.0 2.0 2.0 0.0 0.0 4:1.0 5:2.0 6:1.0 7:8.0 8:8.0 10:1.0 11:1.0 
-2.0 2.0 2.0 0.0 0.5902517074059572 4:1.0 5:2.0 6:1.0 7:14.0 8:13.0 10:1.0 11:1.0 72:1.0 
-2.0 2.0 2.0 0.0 2.0 4:1.0 5:2.0 6:2.0 7:9.0 8:8.0 10:1.0 11:1.0 
-0.0 0.24075944440844113 0.0011224110259250859 0.0 0.0 4:1.0 5:2.0 6:4.0 7:11.0 8:8.0 10:1.0 20:1.0 125:1.0 390:1.0 469:1.0 470:1.0 
-0.0 0.19842736185955392 0.0 0.0 0.0 5:2.0 6:2.0 7:4.0 8:3.0 10:1.0 84:1.0 473:1.0 474:1.0 
-0.003872294036556636 0.0 0.0 0.0 0.0 4:1.0 5:2.0 6:1.0 7:10.0 8:8.0 10:1.0 27:1.0 72:1.0 187:1.0 475:1.0 476:1.0 
-2.0 2.0 2.0 0.0 2.0 4:1.0 5:2.0 6:2.0 7:14.0 8:13.0 10:1.0 11:1.0 
-0.3100930161522531 0.2849641019190055 0.9448536778326915 0.0 0.9045840942998999 2:1.0 4:1.0 5:2.0 6:4.0 7:12.0 8:7.0 10:3.0 53:1.0 450:1.0 472:1.0 
-0.4057237612391469 1.8429563041579047 2.0 0.0 1.6790657828178805 4:1.0 5:2.0 6:3.0 7:6.0 8:4.0 10:1.0 20:1.0 438:1.0 
-2.0 2.0 2.0 0.0 2.0 4:1.0 5:2.0 6:2.0 7:7.0 8:6.0 10:1.0 11:1.0 
-0.0 0.0 0.14184745277342883 0.0 0.04610074091903991 4:1.0 5:2.0 6:2.0 7:7.0 8:6.0 10:1.0 424:1.0 438:1.0 479:1.0 480:1.0 
-2.0 2.0 2.0 2.0 0.0 4:1.0 5:2.0 6:1.0 7:6.0 8:6.0 10:1.0 11:1.0 
-0.0 0.0 0.0 0.17809322832047975 0.0 5:2.0 6:1.0 7:8.0 8:6.0 10:1.0 19:2.0 54:1.0 84:1.0 481:1.0 482:1.0 
-0.20107285783461518 0.9806588428535025 1.5695785403578524 0.0 0.7492368128037015 4:1.0 5:2.0 6:3.0 7:10.0 8:8.0 10:1.0 155:1.0 316:1.0 486:1.0 
-0.0 0.14233345613075682 0.5268633166345795 0.0 0.19470712466947665 4:1.0 5:2.0 6:2.0 7:4.0 8:3.0 10:1.0 488:1.0 489:1.0 
-0.0 0.30219995244213166 0.31561715441174465 0.0 0.0 4:1.0 5:2.0 6:1.0 7:8.0 8:6.0 10:2.0 20:1.0 70:1.0 106:1.0 166:1.0 374:1.0 
-2.0 2.0 2.0 0.22847303798806012 0.0 4:1.0 5:2.0 6:2.0 7:6.0 8:5.0 10:1.0 11:1.0 
-0.6573049403624514 0.037277211159290856 0.2993162902471555 0.0 1.0450228528749184 4:1.0 5:2.0 6:1.0 7:27.0 8:22.0 10:6.0 237:1.0 388:1.0 490:1.0 491:1.0 492:1.0 
-0.0 0.6066434651566737 0.6488446694128843 0.0 0.2557068641432437 4:1.0 5:2.0 6:4.0 7:7.0 8:4.0 10:1.0 20:1.0 429:1.0 493:1.0 
-0.0 0.16713685219269914 0.10682391207914183 0.0 0.39944845237556814 4:1.0 5:2.0 6:4.0 7:7.0 8:4.0 10:1.0 495:1.0 496:1.0 
-0.0 0.057501791949988224 0.0 0.0 0.0 5:2.0 6:1.0 7:3.0 8:3.0 10:1.0 84:1.0 497:1.0 
-0.0 0.0 0.0011297089659966881 0.0 0.09931772764051901 4:1.0 5:2.0 6:2.0 7:7.0 8:6.0 10:1.0 187:1.0 498:1.0 
-0.0 0.0 0.15661959323744773 0.0 0.2666009823477445 4:1.0 5:2.0 6:3.0 7:6.0 8:4.0 10:1.0 438:1.0 499:1.0 
-0.0 0.0 0.0 0.0 0.07394212511713166 5:2.0 6:2.0 7:6.0 8:4.0 10:1.0 67:1.0 70:1.0 285:1.0 314:1.0 500:1.0 
-2.0 2.0 0.0 0.0 0.0 5:2.0 6:3.0 7:11.0 8:9.0 10:1.0 11:1.0 84:1.0 
-0.06611624568901014 0.1987984840276124 1.2669644329791165 0.0 0.32628253822435777 4:1.0 5:2.0 6:4.0 7:13.0 8:9.0 10:2.0 20:1.0 46:1.0 166:1.0 352:1.0 501:1.0 502:1.0 
-0.0 0.05751574235308264 0.0 0.0 0.0 5:2.0 6:1.0 7:3.0 8:3.0 10:1.0 84:1.0 503:1.0 
-2.0 2.0 2.0 2.0 0.0 4:1.0 5:2.0 6:2.0 7:5.0 8:4.0 10:1.0 11:1.0 
-0.09828318764688262 0.0 0.0 0.0 0.0 4:1.0 5:2.0 6:1.0 7:8.0 8:5.0 10:2.0 27:2.0 187:1.0 308:1.0 506:1.0 
-0.0 0.0 0.0 0.0 0.11196041265576111 4:1.0 5:2.0 6:2.0 7:5.0 8:4.0 10:1.0 390:1.0 508:1.0 
-0.1826959676276689 0.0 0.3410959796643321 0.0 0.0 4:1.0 5:2.0 6:1.0 7:10.0 8:8.0 10:1.0 27:2.0 39:1.0 308:1.0 331:1.0 509:1.0 
-0.0 0.0 0.21072624329761075 0.0 0.2486308046258733 4:1.0 5:2.0 6:3.0 7:7.0 8:4.0 10:2.0 511:1.0 512:1.0 513:1.0 
-2.0 2.0 2.0 0.0 2.0 4:1.0 5:2.0 6:1.0 7:10.0 8:9.0 10:2.0 11:1.0 
-2.0 2.0 2.0 2.0 2.0 4:1.0 5:2.0 6:2.0 7:5.0 8:3.0 10:2.0 11:1.0 
-0.0 0.0 0.0 0.0 0.08198989765378181 4:1.0 5:2.0 6:3.0 7:7.0 8:5.0 10:1.0 390:1.0 514:1.0 515:1.0 
-0.0 0.0 0.0 0.0 2.0 4:1.0 5:2.0 6:2.0 7:8.0 8:6.0 10:1.0 72:1.0 110:1.0 117:1.0 
-0.723736668349438 0.6953039560246609 2.0 0.0 1.533427329018133 5:2.0 6:2.0 7:11.0 8:10.0 10:1.0 26:1.0 88:1.0 516:1.0 
-0.2650019131649374 0.42166586734609524 0.7032119485901857 0.0 0.38685632637075895 1:1.0 4:1.0 5:2.0 6:5.0 7:10.0 8:4.0 10:2.0 20:1.0 30:1.0 517:1.0 518:1.0 519:1.0 
-0.161941200635153 0.022793880677524987 0.0 0.0 0.0 5:2.0 6:1.0 7:12.0 8:12.0 10:1.0 84:1.0 522:1.0 523:1.0 
-2.0 2.0 2.0 2.0 0.0 4:1.0 5:2.0 6:2.0 7:4.0 8:3.0 10:1.0 11:1.0 
-0.13308866455813687 0.0 0.026940211296944808 0.0 0.0 5:2.0 6:2.0 7:11.0 8:10.0 10:1.0 52:1.0 67:1.0 215:1.0 314:1.0 525:1.0 
-2.0 2.0 2.0 0.0 2.0 4:1.0 5:2.0 6:2.0 7:9.0 8:8.0 10:1.0 11:1.0 
-0.0 0.46399614941595996 1.5543520501465267 0.0 0.0 4:1.0 5:2.0 6:2.0 7:7.0 8:5.0 10:2.0 20:1.0 77:1.0 519:1.0 531:1.0 
-2.0 2.0 2.0 0.0 2.0 4:1.0 5:2.0 6:3.0 7:8.0 8:6.0 10:1.0 11:1.0 
-0.32500432215493397 0.9225982987888476 1.4546628299341886 0.0 0.015127072275598683 4:1.0 5:2.0 6:2.0 7:6.0 8:5.0 10:1.0 20:1.0 348:1.0 375:1.0 
-0.0 0.0 0.2745999916880789 0.0 0.0 4:1.0 5:2.0 6:3.0 7:12.0 8:10.0 10:1.0 74:1.0 117:1.0 538:1.0 539:1.0 
-0.0 0.05605160379885922 0.0 0.0 0.0 5:2.0 6:3.0 7:8.0 8:5.0 10:1.0 84:1.0 91:1.0 540:1.0 541:1.0 
-0.0 0.0 0.0013020782116800345 0.0 0.0 5:2.0 6:3.0 7:13.0 8:9.0 9:1.0 10:1.0 19:1.0 53:1.0 54:1.0 84:1.0 543:1.0 544:1.0 545:1.0 546:1.0 
-0.34528063405469284 2.0 2.0 0.0 2.0 4:1.0 5:2.0 6:4.0 7:7.0 8:3.0 10:1.0 11:1.0 92:1.0 
-0.0 0.13941368026508 0.0 0.00950226065195628 0.0 5:2.0 6:1.0 7:17.0 8:14.0 10:1.0 19:3.0 20:1.0 54:3.0 84:1.0 544:1.0 550:1.0 551:1.0 
-0.178305606746439 0.7995188742931926 1.146266311179995 0.0 1.5641178345151585 5:2.0 6:3.0 7:6.0 8:4.0 10:1.0 26:1.0 552:1.0 553:1.0 
-2.0 2.0 2.0 0.0 2.0 4:1.0 5:2.0 6:2.0 7:9.0 8:8.0 10:1.0 11:1.0 
-0.0 2.0 0.0 0.0 0.0 5:2.0 6:1.0 7:5.0 8:5.0 10:1.0 11:1.0 84:1.0 
-2.0 2.0 2.0 0.0 0.0 4:1.0 5:2.0 6:1.0 7:7.0 8:7.0 10:1.0 11:1.0 
-2.0 2.0 2.0 0.6246738286171307 2.0 4:1.0 5:2.0 6:3.0 7:21.0 8:16.0 10:1.0 11:1.0 19:2.0 70:1.0 
-0.0 0.012250746834492475 0.0 0.0 0.0 5:2.0 6:2.0 7:7.0 8:5.0 10:1.0 19:1.0 53:1.0 54:1.0 84:1.0 557:1.0 
-0.0 0.0 0.42106734959271563 0.0 0.008330144878281298 4:1.0 5:2.0 6:3.0 7:5.0 8:3.0 10:1.0 511:1.0 558:1.0 
-2.0 2.0 2.0 0.0 1.1233150926364601 4:1.0 5:2.0 6:1.0 7:9.0 8:8.0 10:1.0 11:1.0 27:1.0 
-2.0 2.0 2.0 0.0 2.0 4:1.0 5:2.0 6:3.0 7:8.0 8:6.0 10:1.0 11:1.0 
-0.0 0.17035612825594906 1.9624005053747513 0.0 0.0 4:1.0 5:2.0 6:2.0 7:7.0 8:5.0 10:2.0 20:1.0 77:1.0 390:1.0 560:1.0 
-0.0 0.0 0.3354146565202338 0.0 0.006118619452719283 4:1.0 5:2.0 6:2.0 7:7.0 8:6.0 10:1.0 511:1.0 561:1.0 562:1.0 
-0.4609376245468385 0.49920449260680594 0.0 0.0 0.0 4:1.0 5:2.0 6:2.0 7:7.0 8:5.0 10:2.0 20:1.0 77:1.0 285:1.0 390:1.0 
-0.0 0.013777681965666292 0.0 0.0 0.14226854242703257 5:2.0 6:5.0 7:8.0 8:4.0 10:1.0 84:1.0 110:1.0 243:1.0 528:1.0 
-0.4131133384457124 0.0 0.0 0.0 0.0 5:2.0 6:2.0 7:5.0 8:4.0 10:1.0 26:1.0 197:1.0 529:1.0 
-0.09206761203350498 0.0 0.0 0.0 0.0 5:2.0 6:3.0 7:7.0 8:2.0 9:1.0 10:3.0 84:1.0 216:1.0 566:1.0 
-0.0 0.0 0.0 0.0 0.28562454183289043 4:1.0 5:2.0 6:4.0 7:10.0 8:6.0 10:1.0 27:1.0 67:1.0 567:1.0 568:1.0 
-0.0 0.0 0.3714789643603297 0.0 0.0 5:2.0 6:2.0 7:7.0 8:6.0 10:1.0 26:1.0 106:1.0 409:1.0 569:1.0 
-1.7908474599456674 0.0 0.0 0.0 0.0 4:1.0 5:2.0 6:1.0 7:9.0 8:7.0 10:2.0 17:1.0 27:1.0 39:1.0 327:1.0 
-2.0 2.0 2.0 0.0 0.0 4:1.0 5:2.0 6:2.0 7:6.0 8:5.0 10:1.0 11:1.0 
-2.0 2.0 2.0 2.0 0.0 4:1.0 5:2.0 6:1.0 7:4.0 8:4.0 10:1.0 11:1.0 
-2.0 2.0 2.0 0.0 2.0 4:1.0 5:2.0 6:2.0 7:8.0 8:7.0 10:1.0 11:1.0 
-0.004770371767100603 0.016208464082594132 0.0 0.0 0.0 5:2.0 6:3.0 7:6.0 8:4.0 10:1.0 84:1.0 253:1.0 576:1.0 
-0.32501785770624747 0.9226026496292293 1.2328144958870382 0.0 0.544994919302492 4:1.0 5:2.0 6:2.0 7:6.0 8:5.0 10:1.0 20:1.0 57:1.0 577:1.0 
-2.0 2.0 2.0 0.0 2.0 4:1.0 5:2.0 6:4.0 7:12.0 8:8.0 10:2.0 11:1.0 
-0.04362433727408589 0.12414620121605308 0.8056958918570263 0.0 0.16383543183643812 4:1.0 5:2.0 6:1.0 7:6.0 8:6.0 10:1.0 419:1.0 578:1.0 
-0.0 0.0 0.6241206784247895 0.0 0.0 5:2.0 6:1.0 7:4.0 8:4.0 10:1.0 84:1.0 357:1.0 579:1.0 
-0.0 2.0 0.0 0.0 0.0 5:2.0 6:3.0 7:8.0 8:6.0 10:1.0 11:1.0 84:1.0 
-0.0 0.34425364373570216 0.0 0.0 0.0 5:2.0 6:3.0 7:10.0 8:6.0 10:3.0 53:1.0 84:1.0 580:1.0 
-0.0 0.0 0.6365442732302593 0.0 0.0 4:1.0 5:2.0 6:2.0 7:10.0 8:9.0 10:1.0 327:1.0 407:1.0 581:1.0 
-0.0 0.034854956683117395 0.0 0.0 0.03152104562905495 5:2.0 6:3.0 7:8.0 8:4.0 10:3.0 84:1.0 583:1.0 584:1.0 
-0.42636731090794605 0.07574979311049057 0.6291244973512407 0.0 0.84544104828652 5:2.0 6:2.0 7:14.0 8:12.0 10:2.0 230:1.0 314:1.0 586:1.0 587:1.0 588:1.0 
-2.0 2.0 2.0 0.1664479061110471 2.0 4:1.0 5:2.0 6:3.0 7:7.0 8:4.0 10:2.0 11:1.0 
-0.0 0.6177420301683293 0.0 0.0 0.0 4:1.0 5:2.0 6:3.0 7:5.0 8:3.0 10:1.0 406:1.0 511:1.0 
-0.0 0.030713466096770288 0.0 0.0 0.0 5:2.0 6:2.0 7:7.0 8:5.0 10:2.0 84:1.0 589:1.0 590:1.0 
-0.0 0.04494169239637006 0.0 0.0 0.0 5:2.0 6:4.0 7:7.0 8:4.0 10:1.0 84:1.0 591:1.0 
-2.0 2.0 2.0 0.0 2.0 4:1.0 5:2.0 6:3.0 7:13.0 8:11.0 10:1.0 11:1.0 
-0.5856209189223727 0.0 0.19607427034562933 0.0 0.0 4:1.0 5:2.0 6:1.0 7:6.0 8:6.0 10:1.0 82:1.0 592:1.0 
-2.0 2.0 2.0 2.0 2.0 4:1.0 5:2.0 6:3.0 7:7.0 8:4.0 10:2.0 11:1.0 
-0.0 0.0 0.0 0.0 0.4248384703076724 4:1.0 5:2.0 6:5.0 7:8.0 8:4.0 10:1.0 67:1.0 329:1.0 
-2.0 2.0 2.0 0.0 2.0 4:1.0 5:2.0 6:4.0 7:9.0 8:5.0 9:1.0 10:1.0 143:1.0 
-0.0 0.014517275750977028 0.0 0.0 0.0 5:2.0 6:1.0 7:7.0 8:6.0 10:1.0 19:1.0 53:1.0 54:1.0 84:1.0 593:1.0 
-2.0 2.0 2.0 0.0 0.0 4:1.0 5:2.0 6:2.0 7:6.0 8:5.0 10:1.0 11:1.0 
-0.0 0.0 0.8637843106455901 0.0 0.0 4:1.0 5:2.0 6:1.0 7:5.0 8:5.0 10:1.0 117:1.0 
-0.04101379737019457 0.04915674050773352 0.29425275938966927 0.0 0.3519244437380295 4:1.0 5:2.0 6:4.0 7:8.0 8:5.0 10:1.0 25:1.0 594:1.0 
-0.0 0.0 0.0 0.0 0.5654931309405707 1:1.0 4:1.0 5:2.0 6:1.0 7:7.0 8:5.0 10:2.0 92:1.0 327:1.0 344:1.0 595:1.0 
-0.0 0.0 0.0 0.0 0.03997917475214081 4:1.0 5:2.0 6:4.0 7:11.0 8:6.0 10:3.0 106:1.0 327:1.0 596:1.0 597:1.0 
-0.0 0.0 0.696007001882013 0.0 0.0 4:1.0 5:2.0 6:2.0 7:6.0 8:5.0 10:1.0 511:1.0 598:1.0 
-0.09999375058838514 0.0 0.0 0.0 0.6407429160479601 4:1.0 5:2.0 6:3.0 7:9.0 8:6.0 10:1.0 67:1.0 91:1.0 110:1.0 287:1.0 
-0.09448730354921149 0.4343658561327524 1.1081791864901689 0.0 0.5211725235223602 5:2.0 6:3.0 7:7.0 8:5.0 10:1.0 26:1.0 409:1.0 548:1.0 569:1.0 
-2.0 2.0 2.0 0.0 2.0 4:1.0 5:2.0 6:3.0 7:6.0 8:4.0 10:1.0 11:1.0 
-0.0 1.0723559988266114 0.0 0.0 0.0 5:2.0 6:3.0 7:3.0 8:1.0 10:1.0 84:1.0 486:1.0 
-0.0 0.05606440926676079 0.0 0.0 0.0 5:2.0 6:1.0 7:4.0 8:4.0 10:1.0 84:1.0 602:1.0 
-2.0 2.0 2.0 0.0 2.0 4:1.0 5:2.0 6:3.0 7:8.0 8:6.0 10:1.0 11:1.0 
-2.0 2.0 2.0 0.0 2.0 4:1.0 5:2.0 6:3.0 7:11.0 8:9.0 10:1.0 11:1.0 
-0.0 0.0 0.0 0.0 0.010587753977028975 5:2.0 6:5.0 7:14.0 8:7.0 10:3.0 19:1.0 54:1.0 84:1.0 270:1.0 477:1.0 603:1.0 604:1.0 
-0.0 0.0 0.11870937756362122 0.0 0.0 5:2.0 6:3.0 7:11.0 8:9.0 10:1.0 67:1.0 269:1.0 314:1.0 409:1.0 605:1.0 
-0.15006247247594878 0.32597613141611664 0.6776203435948969 0.0 0.8473613369978057 4:1.0 5:2.0 6:2.0 7:7.0 8:6.0 10:1.0 381:1.0 409:1.0 607:1.0 
-0.3839730182707831 0.3626606798699794 0.7106894202643744 0.0 0.3364694182432892 5:2.0 6:1.0 7:6.0 8:6.0 10:1.0 83:1.0 314:1.0 608:1.0 
-0.0 0.24594394638429762 0.0 0.0 0.3794467780227753 4:1.0 5:2.0 6:5.0 7:12.0 8:7.0 9:1.0 10:1.0 20:1.0 327:1.0 609:1.0 610:1.0 
-0.34121016590346864 0.0 0.0 0.0 0.0 5:2.0 6:5.0 7:22.0 8:16.0 10:3.0 74:1.0 81:1.0 84:1.0 270:1.0 492:1.0 611:1.0 612:1.0 613:1.0 
-1.5706151694049104 1.0347114604481655 0.2810720381650208 0.0 0.0 1:1.0 5:2.0 6:4.0 7:11.0 8:8.0 10:1.0 26:1.0 83:1.0 106:1.0 
-0.08941424995278026 0.1703110474809441 0.8015821919215969 0.0 1.188486657874399 4:1.0 5:2.0 6:6.0 7:14.0 8:9.0 10:1.0 615:1.0 616:1.0 617:1.0 
-0.05804983097629696 0.2958529923604292 0.4075698632136129 0.0 0.0 4:1.0 5:2.0 6:1.0 7:13.0 8:12.0 9:1.0 10:1.0 20:1.0 67:1.0 106:1.0 183:1.0 618:1.0 
-0.0 0.053774204064259895 0.0 0.0 0.0 5:2.0 6:2.0 7:4.0 8:3.0 10:1.0 84:1.0 620:1.0 
-0.0 0.633037047951388 1.066578104147203 0.0 0.0779343220123503 4:1.0 5:2.0 6:4.0 7:7.0 8:4.0 10:1.0 331:1.0 622:1.0 
-0.0 0.0 0.4255305034016025 0.0 0.0 2:1.0 5:2.0 6:4.0 7:6.0 8:3.0 10:1.0 26:1.0 74:1.0 438:1.0 
-2.0 2.0 2.0 0.0 2.0 4:1.0 5:2.0 6:4.0 7:8.0 8:5.0 10:1.0 11:1.0 
-0.0 0.0 1.3796175866320817 0.0 0.24799273623382376 4:1.0 5:2.0 6:3.0 7:7.0 8:5.0 10:1.0 388:1.0 495:1.0 
-0.0 0.249437335178293 0.0 0.0 0.021707339591463152 5:2.0 6:3.0 7:12.0 8:9.0 10:2.0 84:1.0 387:1.0 623:1.0 
-0.0 1.3099558192895586 0.4173434693712659 0.0 0.0 4:1.0 5:2.0 6:3.0 7:6.0 8:4.0 10:1.0 20:1.0 197:1.0 529:1.0 
-0.0 0.10392904208600794 0.9848118934768623 0.0 2.0 4:1.0 5:2.0 6:5.0 7:7.0 8:3.0 10:1.0 367:1.0 625:1.0 
-0.4849709959162772 0.009005948279492975 0.0 0.0 0.0 5:2.0 6:1.0 7:10.0 8:9.0 10:1.0 26:1.0 27:1.0 187:1.0 413:1.0 
-2.0 2.0 2.0 0.0 2.0 4:1.0 5:2.0 6:3.0 7:11.0 8:9.0 10:1.0 11:1.0 
-0.0 0.05173725954817175 0.0 0.0 0.0 5:2.0 6:1.0 7:7.0 8:7.0 10:1.0 84:1.0 626:1.0 
-0.0 0.017907835807723104 0.5974937896653425 0.0 0.3522374454286012 5:2.0 6:1.0 7:5.0 8:5.0 10:1.0 314:1.0 488:1.0 627:1.0 
-0.07664843176852348 0.0 0.0 0.0 0.0 5:2.0 6:1.0 7:11.0 8:10.0 10:1.0 19:1.0 54:1.0 83:1.0 84:1.0 564:1.0 628:1.0 
-0.0 0.05153997689320644 0.0 0.0 0.0 5:2.0 6:3.0 7:4.0 8:2.0 10:1.0 84:1.0 630:1.0 
-2.0 2.0 2.0 2.0 0.0 4:1.0 5:2.0 6:1.0 7:8.0 8:6.0 10:1.0 11:1.0 19:1.0 27:1.0 
-2.0 2.0 2.0 2.0 0.0 4:1.0 5:2.0 6:2.0 7:5.0 8:4.0 10:1.0 11:1.0 
-0.0 0.0 0.0010917598235393575 0.0 0.0 4:1.0 5:2.0 6:3.0 7:5.0 8:3.0 10:1.0 187:1.0 631:1.0 
-0.10011099721806907 0.2121421664504287 1.0522038963245628 0.0 0.8387287312835269 4:1.0 5:2.0 6:3.0 7:6.0 8:4.0 10:1.0 633:1.0 634:1.0 
-0.15116331535739796 0.5314858255361783 1.5480694147330416 0.0 1.0244737508970219 4:1.0 5:2.0 6:2.0 7:5.0 8:4.0 10:1.0 532:1.0 640:1.0 
-0.11541448197382037 0.0 0.10117031339669522 0.0 0.1489516353135513 4:1.0 5:2.0 6:2.0 7:4.0 8:3.0 10:1.0 197:1.0 641:1.0 
-0.0 2.0 0.0 0.0 0.0 5:2.0 6:1.0 7:4.0 8:4.0 10:1.0 11:1.0 84:1.0 
-0.0 2.0 0.0 0.0 0.0 5:2.0 6:1.0 7:4.0 8:4.0 10:1.0 11:1.0 84:1.0 
-0.6936441567824074 1.8503664386111436 1.948852789584892 0.2688694923567115 1.0380388368860143 4:1.0 5:2.0 6:1.0 7:4.0 8:4.0 10:1.0 20:1.0 642:1.0 
-0.13823976352288442 0.0 0.0 0.0 0.0 5:2.0 6:1.0 7:12.0 8:10.0 10:2.0 19:1.0 52:1.0 54:1.0 84:1.0 643:1.0 644:1.0 
-2.0 2.0 2.0 2.0 0.0 4:1.0 5:2.0 6:2.0 7:4.0 8:3.0 10:1.0 11:1.0 
-0.3412772922049925 0.14721213296995944 0.8002866058790966 0.0 0.8907422837321184 4:1.0 5:2.0 6:4.0 7:15.0 8:8.0 9:1.0 10:3.0 27:1.0 648:1.0 649:1.0 650:1.0 651:1.0 652:1.0 
-0.8826526021974885 0.0 1.8981270405586688 0.0 2.0 5:2.0 6:1.0 7:7.0 8:7.0 10:1.0 26:1.0 199:1.0 352:1.0 653:1.0 
-0.23931570522381582 0.0 0.047780977338849825 0.0 0.20983842593183175 4:1.0 5:2.0 6:2.0 7:10.0 8:5.0 9:1.0 10:2.0 27:1.0 117:1.0 123:1.0 655:1.0 656:1.0 
-0.0 0.0 0.502650340863398 0.0 0.0 4:1.0 5:2.0 6:2.0 7:9.0 8:8.0 10:1.0 319:1.0 388:1.0 
-0.0 0.0 0.0010898577975369363 0.0 0.0 4:1.0 5:2.0 6:3.0 7:5.0 8:3.0 10:1.0 187:1.0 658:1.0 
-0.04105440869496677 0.04915112008573733 2.0 0.0 0.3519395527044999 4:1.0 5:2.0 6:4.0 7:8.0 8:5.0 10:1.0 25:1.0 659:1.0 
-0.0 0.0 0.0 0.0 0.10412823265067858 4:1.0 5:2.0 6:3.0 7:11.0 8:8.0 10:2.0 67:1.0 305:1.0 347:1.0 660:1.0 
-2.0 2.0 2.0 0.0 2.0 4:1.0 5:2.0 6:3.0 7:9.0 8:6.0 10:2.0 11:1.0 
-2.0 2.0 2.0 0.0 1.320268195716957 4:1.0 5:2.0 6:1.0 7:8.0 8:8.0 10:1.0 11:1.0 
-2.0 2.0 2.0 2.0 2.0 4:1.0 5:2.0 6:3.0 7:7.0 8:4.0 10:2.0 11:1.0 
-0.0 0.055284461623312305 0.0 0.0 0.0 5:2.0 6:2.0 7:3.0 8:2.0 10:1.0 84:1.0 661:1.0 
-2.0 2.0 2.0 0.0 2.0 4:1.0 5:2.0 6:1.0 7:13.0 8:11.0 10:3.0 11:1.0 
-0.29639863195671473 0.08634989358120493 0.05168674860443944 0.0 0.3719699114775971 4:1.0 5:2.0 6:1.0 7:8.0 8:8.0 10:1.0 495:1.0 666:1.0 667:1.0 
-0.01513694402976971 0.0 2.0 0.0 0.13491349618546844 4:1.0 5:2.0 6:2.0 7:3.0 8:2.0 10:1.0 197:1.0 629:1.0 
-0.011895142505049664 0.024612254536424828 0.0 0.0 0.0 5:2.0 6:1.0 7:9.0 8:9.0 10:1.0 84:1.0 670:1.0 671:1.0 
-0.0 2.0 0.0 0.0 0.0 5:2.0 6:1.0 7:4.0 8:4.0 10:1.0 11:1.0 84:1.0 
-0.0 0.0 0.0 0.0 0.007330350576303409 4:1.0 5:2.0 6:4.0 7:10.0 8:5.0 10:2.0 72:1.0 187:1.0 672:1.0 673:1.0 
-2.0 2.0 2.0 0.0 2.0 4:1.0 5:2.0 6:3.0 7:6.0 8:4.0 10:1.0 11:1.0 
-0.0881950175800476 0.0 0.0 0.0 0.5696552598592761 4:1.0 5:2.0 6:3.0 7:7.0 8:4.0 10:1.0 266:1.0 308:1.0 675:1.0 
-0.0 0.6057794532195024 0.0 0.0 0.0 5:2.0 6:3.0 7:6.0 8:3.0 10:2.0 84:1.0 357:1.0 369:1.0 677:1.0 
-0.7898512002924303 0.0 0.34667758925379055 0.0 0.5016077354303256 4:1.0 5:2.0 6:1.0 7:7.0 8:7.0 10:1.0 182:1.0 290:1.0 
-0.0 1.5333393999184708 0.0 0.0 0.0 5:2.0 6:3.0 7:7.0 8:5.0 10:1.0 84:1.0 316:1.0 678:1.0 
-0.0 0.024305894502364304 0.0 0.0 0.0 5:2.0 6:3.0 7:6.0 8:4.0 10:1.0 84:1.0 679:1.0 680:1.0 
-0.0 0.0 0.0276999384373767 0.0 0.0 4:1.0 5:2.0 6:3.0 7:6.0 8:4.0 10:1.0 187:1.0 681:1.0 
-0.0 0.0 0.0 0.0 0.7184874811879577 4:1.0 5:2.0 6:5.0 7:15.0 8:7.0 9:1.0 10:3.0 27:1.0 39:1.0 125:1.0 331:1.0 682:1.0 
-0.0 0.0 0.0 0.0 1.482901148874742 5:2.0 6:5.0 7:8.0 8:4.0 10:1.0 26:1.0 74:1.0 88:1.0 187:1.0 
-0.0 0.02557436974750796 0.48923371669557997 0.0 0.0 4:1.0 5:2.0 6:1.0 7:9.0 8:9.0 10:1.0 327:1.0 475:1.0 684:1.0 685:1.0 
-2.0 2.0 2.0 0.0 2.0 4:1.0 5:2.0 6:1.0 7:8.0 8:8.0 10:1.0 11:1.0 
-2.0 2.0 2.0 0.0 0.0 4:1.0 5:2.0 6:1.0 7:7.0 8:7.0 10:1.0 11:1.0 
-0.5130982725302871 0.0 0.0 0.0 0.0 5:2.0 6:1.0 7:10.0 8:10.0 10:1.0 26:1.0 81:1.0 327:1.0 544:1.0 
-2.0 2.0 2.0 0.0 2.0 4:1.0 5:2.0 6:1.0 7:9.0 8:9.0 10:1.0 11:1.0 
-0.3296375212840301 1.9527314769862185 2.0 0.0 2.0 5:2.0 6:4.0 7:9.0 8:6.0 10:1.0 20:1.0 26:1.0 551:1.0 689:1.0 
-0.0 0.0 0.9638425035764712 0.0 0.4351801638395784 4:1.0 5:2.0 6:3.0 7:12.0 8:10.0 10:1.0 106:1.0 680:1.0 691:1.0 
-0.29740632933993394 0.0 0.0 0.0 0.0 4:1.0 5:2.0 6:3.0 7:8.0 8:6.0 10:1.0 82:1.0 622:1.0 
-0.0 0.38519130591418954 2.0 0.0 0.7796794504420226 4:1.0 5:2.0 6:1.0 7:9.0 8:8.0 10:2.0 20:1.0 77:1.0 106:1.0 692:1.0 
-0.0 0.0 0.0 0.0 0.12646450769732395 5:2.0 6:2.0 7:8.0 8:6.0 10:2.0 314:1.0 327:1.0 693:1.0 694:1.0 
-0.027856086109281857 0.0 0.0 0.0 0.788036330370307 5:2.0 6:5.0 7:19.0 8:10.0 10:5.0 19:1.0 54:1.0 84:1.0 325:1.0 378:1.0 695:1.0 696:1.0 
-2.0 2.0 2.0 0.00954527466749797 0.0 4:1.0 5:2.0 6:2.0 7:6.0 8:5.0 10:1.0 11:1.0 
-0.0 0.05313828887793185 0.0 0.0 0.0 5:2.0 6:1.0 7:6.0 8:6.0 10:1.0 84:1.0 420:1.0 
-0.0 0.0 0.0 0.0 0.12138562957493947 5:2.0 6:3.0 7:7.0 8:2.0 9:1.0 10:3.0 84:1.0 216:1.0 566:1.0 
-0.2477387123444147 0.5396315407075837 1.7063806557223231 0.0 1.2224911516210961 4:1.0 5:2.0 6:1.0 7:8.0 8:8.0 10:1.0 88:1.0 138:1.0 698:1.0 
-0.0 0.0 0.10299339015017235 0.0 0.0 4:1.0 5:2.0 6:4.0 7:14.0 8:11.0 10:1.0 187:1.0 702:1.0 703:1.0 704:1.0 705:1.0 
-0.0 0.0 0.0 0.0 0.006043248155849582 4:1.0 5:2.0 6:1.0 7:7.0 8:6.0 10:2.0 327:1.0 367:1.0 706:1.0 
-0.004585789966929593 0.0 1.0220212829977549 0.0 0.0 4:1.0 5:2.0 6:3.0 7:7.0 8:4.0 10:1.0 91:1.0 187:1.0 287:1.0 
-2.0 2.0 2.0 0.0 2.0 4:1.0 5:2.0 6:2.0 7:11.0 8:10.0 10:1.0 11:1.0 
-0.3165069768895292 0.0 0.0 0.0 0.0 4:1.0 5:2.0 6:1.0 7:12.0 8:11.0 10:1.0 72:1.0 114:1.0 187:1.0 355:1.0 
-2.0 2.0 2.0 0.0 2.0 4:1.0 5:2.0 6:3.0 7:7.0 8:3.0 10:2.0 11:1.0 70:1.0 
-0.0 0.0 0.9299508682980879 0.0 0.8956368979505127 4:1.0 5:2.0 6:3.0 7:12.0 8:8.0 10:3.0 67:1.0 352:1.0 450:1.0 712:1.0 
-0.0 0.0 2.0 0.0 2.0 4:1.0 5:2.0 6:1.0 7:10.0 8:10.0 10:1.0 88:1.0 516:1.0 
-0.19634042881361352 0.21024147142233918 0.5441468942953984 0.0 1.361425167722621 4:1.0 5:2.0 6:3.0 7:7.0 8:3.0 10:3.0 665:1.0 714:1.0 715:1.0 
-0.0 0.008813490321731756 0.0 0.0 0.0 5:2.0 6:4.0 7:14.0 8:10.0 10:1.0 27:1.0 84:1.0 270:1.0 308:1.0 452:1.0 718:1.0 719:1.0 
-0.0 0.0 0.32616710500370233 0.0 0.0 4:1.0 5:2.0 6:3.0 7:8.0 8:6.0 10:1.0 474:1.0 511:1.0 720:1.0 
-0.21803246242799654 0.0 0.21436457653525617 0.0 0.25338994484616517 1:1.0 4:1.0 5:2.0 6:3.0 7:8.0 8:4.0 10:2.0 70:1.0 488:1.0 721:1.0 722:1.0 
-2.0 2.0 2.0 0.0 2.0 4:1.0 5:2.0 6:1.0 7:8.0 8:8.0 10:1.0 11:1.0 
-2.0 2.0 2.0 0.0 2.0 4:1.0 5:2.0 6:3.0 7:10.0 8:8.0 10:1.0 11:1.0 
-0.0 0.025420186449251477 0.0 0.0 0.0 5:2.0 6:2.0 7:6.0 8:5.0 10:1.0 84:1.0 724:1.0 725:1.0 
-0.0 0.0 0.0 0.0 0.09806403880241713 4:1.0 5:2.0 6:2.0 7:4.0 8:3.0 10:1.0 390:1.0 432:1.0 
-0.0 0.0 0.0 0.0 0.006524904611558113 4:1.0 5:2.0 6:2.0 7:6.0 8:5.0 10:1.0 327:1.0 688:1.0 729:1.0 
-0.0 0.013199181210071527 0.0 0.0 0.0 5:2.0 6:1.0 7:8.0 8:7.0 10:1.0 19:1.0 53:1.0 54:1.0 84:1.0 730:1.0 
-0.05865352326954834 0.12296466958964244 1.269527161392662 0.0 0.5213685707356027 4:1.0 5:2.0 6:2.0 7:7.0 8:6.0 10:1.0 427:1.0 440:1.0 732:1.0 
-2.0 2.0 2.0 0.0 1.2547200534189555 4:1.0 5:2.0 6:1.0 7:8.0 8:8.0 10:1.0 11:1.0 
-0.0 0.0 0.0 0.0 0.19356855009117 4:1.0 5:2.0 6:4.0 7:9.0 8:6.0 10:1.0 424:1.0 438:1.0 733:1.0 
-2.0 2.0 2.0 0.0 2.0 4:1.0 5:2.0 6:2.0 7:10.0 8:9.0 10:1.0 11:1.0 
-0.10074575207889867 0.32817807130051263 0.21184584566457973 0.10221942230162456 0.0 4:1.0 5:2.0 6:2.0 7:6.0 8:4.0 10:2.0 20:1.0 117:1.0 166:1.0 333:1.0 
-0.0 0.05528530774471129 0.0 0.0 0.0 5:2.0 6:2.0 7:3.0 8:2.0 10:1.0 84:1.0 734:1.0 
-0.0 0.045783344529728 0.0 0.0 0.0 5:2.0 6:3.0 7:8.0 8:6.0 10:1.0 84:1.0 736:1.0 
-0.9897411361643921 0.2125471441226035 1.4967753462115687 0.0 0.8936825676588669 4:1.0 5:2.0 6:3.0 7:9.0 8:6.0 10:1.0 27:1.0 51:1.0 266:1.0 
-0.0 0.05693413791500057 0.0 0.0 0.0 5:2.0 6:1.0 7:16.0 8:11.0 10:3.0 19:1.0 54:1.0 84:1.0 123:2.0 450:1.0 564:1.0 737:1.0 
-0.2946796677865199 0.46475828384261414 0.996787779089516 0.0 0.43005640486829605 4:1.0 5:2.0 6:2.0 7:8.0 8:6.0 9:1.0 10:1.0 20:1.0 320:1.0 331:1.0 739:1.0 
-0.2630297297792852 0.14245299170658446 0.5199261458790623 0.0 0.3824827367569015 4:1.0 5:2.0 6:1.0 7:7.0 8:7.0 10:1.0 740:1.0 741:1.0 
-0.0 0.0 0.608222560970177 0.0 0.0 1:1.0 4:1.0 5:2.0 6:1.0 7:8.0 8:6.0 10:2.0 20:1.0 70:1.0 106:1.0 438:1.0 
-2.0 2.0 2.0 0.10073250853913064 2.0 5:2.0 6:1.0 7:4.0 8:4.0 10:1.0 26:1.0 60:1.0 
-0.0 0.19898953313761808 0.0 0.0 0.0 5:2.0 6:2.0 7:6.0 8:5.0 10:1.0 84:1.0 155:1.0 746:1.0 
-0.0 0.057504001950483455 0.0 0.0 0.0 5:2.0 6:1.0 7:3.0 8:3.0 10:1.0 84:1.0 478:1.0 
-0.0 0.05006970461386409 0.0 0.0 0.0 5:2.0 6:3.0 7:5.0 8:3.0 10:1.0 84:1.0 748:1.0 
-0.0 2.0 0.0 0.0 0.0 5:2.0 6:3.0 7:8.0 8:6.0 10:1.0 11:1.0 84:1.0 
-0.0 0.02318987804813587 0.11107386783786821 0.0 0.0 4:1.0 5:2.0 6:2.0 7:11.0 8:10.0 10:1.0 327:1.0 684:1.0 749:1.0 750:1.0 
-0.039883317880267284 0.0 0.0 0.0 0.0 4:1.0 5:2.0 6:4.0 7:16.0 8:13.0 10:1.0 67:1.0 155:1.0 753:1.0 754:1.0 
-0.10744291586880504 0.0 1.5196371711166268 0.0 0.6115553445814613 5:2.0 6:1.0 7:10.0 8:8.0 9:1.0 10:1.0 72:1.0 314:1.0 355:1.0 756:1.0 757:1.0 
-0.0 0.0 0.0013988786639625018 0.0 0.0 4:1.0 5:2.0 6:2.0 7:5.0 8:4.0 10:1.0 187:1.0 759:1.0 
-0.7295272621161822 0.0 0.14873188245892796 0.0 0.4413851628609718 1:1.0 4:1.0 5:2.0 6:5.0 7:12.0 8:7.0 10:2.0 25:1.0 760:1.0 
-2.0 2.0 2.0 0.0 2.0 4:1.0 5:2.0 6:2.0 7:7.0 8:6.0 10:1.0 11:1.0 
-0.0 0.0 0.0 0.0 0.17130884887111453 4:1.0 5:2.0 6:3.0 7:10.0 8:8.0 10:1.0 182:1.0 763:1.0 764:1.0 
-0.05190235737818629 0.0 0.0 0.0 0.0 5:2.0 6:1.0 7:16.0 8:10.0 10:5.0 19:2.0 54:2.0 84:1.0 765:1.0 
-0.0 0.0 0.6483791701728191 0.0 0.0 5:2.0 6:1.0 7:12.0 8:9.0 10:1.0 19:1.0 27:2.0 54:1.0 84:1.0 564:1.0 766:1.0 
-2.0 2.0 2.0 2.0 2.0 4:1.0 5:2.0 6:1.0 7:7.0 8:6.0 10:2.0 11:1.0 
-2.0 2.0 2.0 0.0 2.0 4:1.0 5:2.0 6:3.0 7:16.0 8:14.0 10:1.0 11:1.0 
-0.0 0.06635323082853702 0.0 0.0 0.0 5:2.0 6:5.0 7:14.0 8:9.0 10:1.0 19:1.0 54:1.0 84:1.0 372:1.0 533:1.0 767:1.0 768:1.0 
-0.0 0.0 0.16716533437354275 0.0 0.23330455160487076 4:1.0 5:2.0 6:5.0 7:11.0 8:6.0 9:1.0 10:1.0 187:1.0 461:1.0 769:1.0 
-0.9075479861817637 0.9278617272781537 1.328404155887288 0.0 0.6104394882531026 4:1.0 5:2.0 6:2.0 7:7.0 8:5.0 10:2.0 20:1.0 121:1.0 772:1.0 
-2.0 2.0 2.0 2.0 0.0 4:1.0 5:2.0 6:2.0 7:5.0 8:4.0 10:1.0 11:1.0 
-2.0 2.0 2.0 0.0 2.0 4:1.0 5:2.0 6:2.0 7:11.0 8:10.0 10:1.0 11:1.0 
-0.21671779346642325 0.6150495847517192 1.215180393854102 0.0 0.24919460597087537 4:1.0 5:2.0 6:2.0 7:5.0 8:4.0 10:1.0 20:1.0 449:1.0 763:1.0 
-0.0 0.0 0.6271590982288628 0.0 0.0 4:1.0 5:2.0 6:2.0 7:16.0 8:14.0 10:2.0 20:1.0 67:1.0 166:1.0 352:1.0 514:1.0 544:1.0 775:1.0 
-2.0 2.0 2.0 0.0 0.0 4:1.0 5:2.0 6:2.0 7:6.0 8:5.0 10:1.0 11:1.0 
-0.0 0.0 0.0 0.0 2.0 4:1.0 5:2.0 6:4.0 7:8.0 8:4.0 10:2.0 388:1.0 390:1.0 
-0.11665737961069927 0.0 0.0 0.0 0.0 4:1.0 5:2.0 6:3.0 7:15.0 8:13.0 10:1.0 187:1.0 230:1.0 347:1.0 476:1.0 511:1.0 697:1.0 
-0.34439392942000163 0.20134934527536577 1.346908687994518 0.0 1.9131501035770717 4:1.0 5:2.0 6:5.0 7:15.0 8:7.0 9:1.0 10:3.0 27:1.0 39:1.0 125:1.0 331:1.0 682:1.0 
-0.0 0.0 0.2104664320383975 0.0 0.032204435765687996 4:1.0 5:2.0 6:3.0 7:9.0 8:7.0 10:1.0 312:1.0 511:1.0 777:1.0 
-2.0 2.0 2.0 0.0 2.0 4:1.0 5:2.0 6:3.0 7:8.0 8:6.0 10:1.0 11:1.0 
-0.0 0.0027613861868099956 0.0 0.0 0.0 5:2.0 6:1.0 7:12.0 8:11.0 10:1.0 19:1.0 53:1.0 54:1.0 84:1.0 780:1.0 781:1.0 782:1.0 
-0.11570003322806734 0.14101910592406156 0.3768307317407482 0.0 0.8540586374116291 4:1.0 5:2.0 6:1.0 7:6.0 8:4.0 10:1.0 70:1.0 308:1.0 675:1.0 783:1.0 
-0.6494928942505445 2.0 2.0 0.0 2.0 1:1.0 4:1.0 5:2.0 6:4.0 7:7.0 8:4.0 10:1.0 20:1.0 367:1.0 
-0.0 0.0 8.816375902864538E-4 0.0 0.0 4:1.0 5:2.0 6:3.0 7:6.0 8:4.0 10:1.0 187:1.0 784:1.0 
-0.0 0.013536430657975246 0.10028463189815608 0.0 0.2069064580523981 4:1.0 5:2.0 6:2.0 7:5.0 8:4.0 10:1.0 531:1.0 786:1.0 787:1.0 
-2.0 2.0 2.0 0.0 2.0 4:1.0 5:2.0 6:2.0 7:8.0 8:7.0 10:1.0 11:1.0 
-2.0 2.0 2.0 0.0 2.0 4:1.0 5:2.0 6:1.0 7:9.0 8:8.0 10:1.0 11:1.0 70:1.0 
-0.22364192637561978 0.0 0.5842934190456217 1.0478380835838847 0.4228356280844105 4:1.0 5:2.0 6:2.0 7:17.0 8:8.0 10:4.0 19:5.0 48:1.0 316:1.0 765:1.0 788:1.0 789:1.0 
-2.0 2.0 2.0 0.0 2.0 4:1.0 5:2.0 6:3.0 7:11.0 8:7.0 10:3.0 11:1.0 
-0.0 0.16229120177690323 0.0 0.0 0.3804058253828829 4:1.0 5:2.0 6:5.0 7:18.0 8:12.0 9:1.0 10:1.0 20:1.0 92:1.0 224:1.0 327:1.0 791:1.0 792:1.0 
-0.0 0.0 0.3554166251657724 0.0 0.33375618201542573 4:1.0 5:2.0 6:2.0 7:14.0 8:12.0 10:2.0 291:1.0 352:1.0 399:1.0 488:1.0 
-0.0 0.0 0.0 0.0 0.17304421179234944 4:1.0 5:2.0 6:3.0 7:4.0 8:2.0 10:1.0 197:1.0 529:1.0 
-0.0 0.0 1.5463066076574319 0.0 0.0 5:2.0 6:2.0 7:9.0 8:7.0 10:1.0 19:1.0 54:1.0 84:1.0 434:1.0 435:1.0 
-0.0 0.0 0.2942576592068045 0.0 0.0 4:1.0 5:2.0 6:2.0 7:9.0 8:7.0 10:2.0 20:1.0 77:1.0 117:1.0 718:1.0 
-2.0 2.0 2.0 0.0 2.0 4:1.0 5:2.0 6:1.0 7:17.0 8:17.0 10:1.0 11:1.0 
-0.0 0.0 0.0 0.0 0.19215448095971088 4:1.0 5:2.0 6:7.0 7:15.0 8:6.0 10:2.0 27:1.0 67:1.0 123:1.0 797:1.0 798:1.0 
-2.0 2.0 2.0 0.5587892592250011 0.0 4:1.0 5:2.0 6:1.0 7:8.0 8:7.0 10:1.0 11:1.0 72:1.0 
-0.0 0.06706263128033675 0.0 0.0 0.0 5:2.0 6:1.0 7:13.0 8:12.0 10:2.0 38:1.0 53:1.0 84:1.0 388:1.0 799:1.0 
-0.0 0.28861633630124495 0.0 0.0 0.3465293451769465 5:2.0 6:6.0 7:13.0 8:6.0 10:3.0 84:1.0 88:1.0 800:1.0 801:1.0 
-0.0 0.2695809656889239 0.0 0.0 0.0 5:2.0 6:1.0 7:9.0 8:8.0 10:1.0 26:1.0 70:1.0 327:1.0 802:1.0 803:1.0 
-2.0 2.0 2.0 0.0 0.0 4:1.0 5:2.0 6:2.0 7:9.0 8:7.0 10:1.0 11:1.0 72:1.0 
-2.0 2.0 2.0 2.0 0.0 4:1.0 5:2.0 6:2.0 7:5.0 8:4.0 10:1.0 11:1.0 
-2.0 2.0 2.0 0.0 2.0 4:1.0 5:2.0 6:3.0 7:8.0 8:6.0 10:1.0 11:1.0 
-2.0 2.0 2.0 2.0 0.0 4:1.0 5:2.0 6:1.0 7:7.0 8:6.0 10:1.0 11:1.0 19:1.0 
-0.0 0.0 0.0 0.0 0.07421337198642496 4:1.0 5:2.0 6:3.0 7:8.0 8:6.0 10:1.0 319:1.0 424:1.0 812:1.0 
-0.0 0.05636793011484331 0.0 0.0 0.0 5:2.0 6:2.0 7:10.0 8:8.0 10:1.0 19:1.0 53:1.0 54:1.0 84:1.0 382:1.0 813:1.0 
-0.0 0.06104024818567604 0.0 0.0 0.0 5:2.0 6:1.0 7:4.0 8:3.0 10:1.0 27:1.0 84:1.0 567:1.0 
-2.0 2.0 2.0 0.0 0.0 4:1.0 5:2.0 6:1.0 7:7.0 8:7.0 10:1.0 11:1.0 
-2.0 2.0 2.0 2.0 0.0 4:1.0 5:2.0 6:2.0 7:5.0 8:4.0 10:1.0 11:1.0 
-0.01699858698337612 0.8700272179453328 1.468140049128084 0.1756936061459178 1.173514817703428 4:1.0 5:2.0 6:1.0 7:8.0 8:6.0 10:3.0 20:1.0 106:1.0 166:1.0 524:1.0 
-2.0 2.0 2.0 0.07541724274561178 0.0 4:1.0 5:2.0 6:2.0 7:6.0 8:5.0 10:1.0 11:1.0 
-0.0 0.19181024188442689 0.0 0.0 0.0 5:2.0 6:3.0 7:7.0 8:5.0 10:1.0 84:1.0 474:1.0 820:1.0 
-0.09176695804349234 0.30453828242007647 0.08901449130891764 0.0 0.0 4:1.0 5:2.0 6:3.0 7:11.0 8:9.0 10:1.0 20:1.0 305:1.0 374:1.0 519:1.0 
-2.0 2.0 2.0 2.0 0.0 4:1.0 5:2.0 6:2.0 7:5.0 8:4.0 10:1.0 11:1.0 
-0.0 0.05604083597840195 0.0 0.0 0.0 5:2.0 6:1.0 7:4.0 8:4.0 10:1.0 84:1.0 822:1.0 
-0.0 0.0 0.0 0.4842585388090681 0.0 4:1.0 5:2.0 6:1.0 7:6.0 8:4.0 10:1.0 19:1.0 72:1.0 187:1.0 823:1.0 
-0.04206437739764976 0.0 0.0 0.0 0.0 5:2.0 6:4.0 7:12.0 8:7.0 10:1.0 19:1.0 27:1.0 54:1.0 59:1.0 84:1.0 372:1.0 532:1.0 824:1.0 
-0.0 0.11807269950229216 0.1565598493006033 0.06851131359512602 0.11517866661660375 4:1.0 5:2.0 6:5.0 7:12.0 8:6.0 10:2.0 19:1.0 20:1.0 53:1.0 77:1.0 414:2.0 825:1.0 
-0.0 0.7147017720151837 0.0 0.0 0.0 5:2.0 6:3.0 7:5.0 8:3.0 10:1.0 84:1.0 462:1.0 
-2.0 2.0 2.0 0.0 2.0 4:1.0 5:2.0 6:3.0 7:7.0 8:3.0 10:2.0 11:1.0 70:1.0 
-0.0 1.860846477928845 1.7514971830702268 0.0 0.008332806414899321 4:1.0 5:2.0 6:3.0 7:5.0 8:3.0 10:1.0 406:1.0 511:1.0 
-0.2082519249528267 0.0 0.4552416160593194 0.0 0.5431374462118966 4:1.0 5:2.0 6:4.0 7:13.0 8:9.0 10:1.0 27:1.0 40:1.0 97:1.0 197:1.0 297:1.0 828:1.0 
-2.0 2.0 2.0 0.0 2.0 4:1.0 5:2.0 6:3.0 7:17.0 8:14.0 10:1.0 11:1.0 70:1.0 
-0.0 0.05377397137882764 0.0 0.0 0.0 5:2.0 6:2.0 7:4.0 8:3.0 10:1.0 84:1.0 829:1.0 
-0.0 0.6470781534045009 1.026132316704809 0.0 1.581638677525896 4:1.0 5:2.0 6:4.0 7:8.0 8:4.0 10:2.0 60:1.0 82:1.0 149:1.0 
-0.0 0.0 0.40029742453399386 0.13483004152812653 0.0 4:1.0 5:2.0 6:2.0 7:8.0 8:6.0 10:1.0 19:1.0 25:1.0 766:1.0 835:1.0 
-2.0 2.0 2.0 2.0 0.0 4:1.0 5:2.0 6:1.0 7:7.0 8:6.0 10:1.0 11:1.0 72:1.0 
-0.05713140228229191 0.3664287940686526 0.5650543372754903 0.0 0.44817185420427613 4:1.0 5:2.0 6:4.0 7:15.0 8:11.0 10:1.0 20:1.0 76:1.0 190:1.0 611:1.0 837:1.0 838:1.0 839:1.0 
-2.0 1.102233418127208 2.0 1.1714596589612711 2.0 5:2.0 6:2.0 7:13.0 8:11.0 10:2.0 12:1.0 13:1.0 
-0.18979257835722696 0.0 0.037326935638067577 0.0 0.22520984790271473 5:2.0 6:3.0 7:17.0 8:12.0 10:4.0 26:2.0 31:1.0 62:1.0 327:1.0 761:1.0 795:1.0 840:1.0 841:1.0 
-0.8183083350943767 0.0 2.0 0.0 0.0 4:1.0 5:2.0 6:1.0 7:6.0 8:6.0 10:1.0 82:1.0 177:1.0 
-0.0 0.0 0.0 0.0 0.18776958227789695 4:1.0 5:2.0 6:6.0 7:13.0 8:6.0 10:2.0 19:1.0 38:1.0 327:1.0 843:1.0 844:1.0 
-0.894100618139853 1.8474668110095533 1.9486202060496705 0.0 1.0659138920582187 4:1.0 5:2.0 6:1.0 7:6.0 8:6.0 10:1.0 20:1.0 742:1.0 
-0.0 2.0 0.0 0.0 0.0 5:2.0 6:2.0 7:3.0 8:2.0 10:1.0 84:1.0 
-0.0 0.45335728579530865 0.0 0.0 0.0 5:2.0 6:5.0 7:9.0 8:6.0 53:1.0 84:1.0 155:1.0 847:1.0 
-0.0 0.055283297953573285 0.0 0.0 0.0 5:2.0 6:2.0 7:3.0 8:2.0 10:1.0 84:1.0 471:1.0 
-0.0 0.0 0.07830633231804987 0.0 0.40737653231615456 4:1.0 5:2.0 6:3.0 7:8.0 8:6.0 10:1.0 438:1.0 821:1.0 848:1.0 
-0.0 0.0 0.0 0.0 0.0022628878253982965 4:1.0 5:2.0 6:2.0 7:9.0 8:8.0 10:1.0 327:1.0 474:1.0 849:1.0 850:1.0 
-0.0 0.0 0.1927639966074785 0.0 0.0 4:1.0 5:2.0 6:3.0 7:6.0 8:4.0 10:1.0 82:1.0 852:1.0 
-0.0 0.0 0.07205946972721002 0.0 0.1989990063305454 4:1.0 5:2.0 6:4.0 7:14.0 8:10.0 10:1.0 27:1.0 106:1.0 740:1.0 853:1.0 854:1.0 
-0.12847305959990638 0.006529466512129014 0.1875614336179933 0.0 0.48054370646804057 4:1.0 5:2.0 6:4.0 7:9.0 8:4.0 10:3.0 346:1.0 855:1.0 856:1.0 857:1.0 
-0.0 0.0 0.00159632776405473 0.0 0.0 4:1.0 5:2.0 6:1.0 7:7.0 8:7.0 10:1.0 187:1.0 858:1.0 
-0.0 0.0 0.2103158467508393 0.0 0.040622565714301145 4:1.0 5:2.0 6:1.0 7:10.0 8:7.0 10:2.0 27:2.0 106:1.0 308:1.0 860:1.0 861:1.0 
-2.0 2.0 2.0 0.0 2.0 4:1.0 5:2.0 6:2.0 7:7.0 8:6.0 10:1.0 11:1.0 
-0.0 0.1220522490921471 0.0 0.0 0.0 5:2.0 6:1.0 7:5.0 8:5.0 10:1.0 84:1.0 477:1.0 862:1.0 
-0.4712005741857498 0.4207099796224086 1.6224673394932412 0.0 1.6840781396473459 5:2.0 6:2.0 7:9.0 8:8.0 10:1.0 26:1.0 441:1.0 864:1.0 
-0.11713436597920356 0.8687438444908112 1.4682617253996804 0.0347972454950577 0.5862699682972801 4:1.0 5:2.0 6:1.0 7:9.0 8:7.0 10:3.0 20:1.0 106:1.0 166:1.0 865:1.0 
-0.0 0.10227061018412993 0.0 0.0 0.0986547592632989 5:2.0 6:5.0 7:12.0 8:6.0 10:3.0 84:1.0 310:1.0 474:1.0 867:1.0 
-0.0 0.21927386476185912 0.0017041862358179987 0.0 0.0 5:2.0 6:2.0 7:10.0 8:9.0 10:1.0 84:1.0 649:1.0 762:1.0 868:1.0 
-0.0 0.05006865505708733 0.0 0.0 0.0 5:2.0 6:3.0 7:5.0 8:3.0 10:1.0 84:1.0 871:1.0 
-0.3687920972986345 0.05619266773066421 0.0 0.0 0.13245022400880732 4:1.0 5:2.0 6:2.0 7:13.0 8:11.0 10:2.0 168:1.0 319:1.0 440:1.0 872:1.0 
-0.0 0.0 0.0 0.0 0.27575938009279927 4:1.0 5:2.0 6:4.0 7:14.0 8:9.0 10:2.0 19:1.0 48:1.0 67:1.0 297:1.0 873:1.0 
-0.0 0.3223412750351958 0.0 0.0 0.0 4:1.0 5:2.0 6:2.0 7:14.0 8:12.0 9:1.0 10:1.0 20:1.0 155:1.0 327:1.0 874:1.0 875:1.0 
-0.0589470339389428 0.039976692001664066 0.0 0.0 0.1630175873820929 5:2.0 6:5.0 7:18.0 8:12.0 10:3.0 84:1.0 477:1.0 876:1.0 877:1.0 878:1.0 
-0.0 0.0 0.015191847320441092 0.0 0.0 5:2.0 6:1.0 7:11.0 8:10.0 10:1.0 19:1.0 54:1.0 84:1.0 544:1.0 879:1.0 880:1.0 881:1.0 
-0.0 0.0 0.0 0.0 0.5214882575985441 4:1.0 5:2.0 6:3.0 7:11.0 8:9.0 10:1.0 367:1.0 438:1.0 703:1.0 883:1.0 
-0.0 1.2179056670886617 0.0 0.0 2.0 4:1.0 5:2.0 6:4.0 7:12.0 8:7.0 10:3.0 155:1.0 388:1.0 531:1.0 
-0.0 0.0 0.45100540202863737 0.0 0.0 4:1.0 5:2.0 6:3.0 7:9.0 8:6.0 10:2.0 20:1.0 77:1.0 438:1.0 885:1.0 
-3.186554132376185E-4 0.0 0.968236554702451 0.0 0.4363419723414344 4:1.0 5:2.0 6:1.0 7:6.0 8:5.0 10:1.0 72:1.0 355:1.0 886:1.0 
-0.0 0.0515400159652391 0.0 0.0 0.0 5:2.0 6:3.0 7:4.0 8:2.0 10:1.0 84:1.0 890:1.0 
-2.0 2.0 2.0 0.0 0.0 4:1.0 5:2.0 6:1.0 7:7.0 8:7.0 10:1.0 11:1.0 
-0.18159903321295368 0.0 0.33303541511184415 0.0 0.034229545924410125 4:1.0 5:2.0 6:2.0 7:11.0 8:10.0 10:1.0 511:1.0 891:1.0 892:1.0 
-0.3695340432850487 0.6806293534889801 0.7613795794034348 0.0 0.0017067522678377838 4:1.0 5:2.0 6:1.0 7:8.0 8:7.0 10:2.0 20:1.0 77:1.0 531:1.0 893:1.0 
-2.0 2.0 2.0 0.0 2.0 4:1.0 5:2.0 6:1.0 7:9.0 8:9.0 10:1.0 11:1.0 
-0.2854122274440791 0.051601621948649645 0.29463740477867895 0.0 0.3278427495295437 4:1.0 5:2.0 6:3.0 7:8.0 8:6.0 10:1.0 25:1.0 894:1.0 
-0.0 0.0 0.0 0.0 0.09906679449809791 4:1.0 5:2.0 6:2.0 7:10.0 8:8.0 10:2.0 67:1.0 106:1.0 897:1.0 
-0.5116292977240147 2.0 2.0 0.9709870415203343 0.24658510732711145 4:1.0 5:2.0 6:2.0 7:5.0 8:3.0 10:2.0 11:1.0 26:1.0 644:1.0 
-0.11194030834475899 0.02339882042434682 0.0 0.0 0.0 5:2.0 6:1.0 7:11.0 8:11.0 10:1.0 84:1.0 898:1.0 899:1.0 
-0.0 0.0 2.0 0.0 0.0 4:1.0 5:2.0 6:1.0 7:12.0 8:11.0 10:1.0 76:1.0 331:1.0 372:1.0 900:1.0 
-0.052153379577918546 0.14250621624715964 0.5438006257032971 0.0 0.6439567472401205 4:1.0 5:2.0 6:5.0 7:9.0 8:4.0 10:2.0 901:1.0 902:1.0 903:1.0 
-2.0 2.0 2.0 0.0 2.0 4:1.0 5:2.0 6:1.0 7:14.0 8:12.0 10:3.0 11:1.0 
-0.0 0.0 0.0 0.0 0.09402506496396792 4:1.0 5:2.0 6:4.0 7:7.0 8:4.0 10:1.0 390:1.0 601:1.0 904:1.0 
-2.0 2.0 2.0 0.0 2.0 4:1.0 5:2.0 6:3.0 7:6.0 8:4.0 10:1.0 11:1.0 
-0.0 0.05230404181518471 0.0 0.0 0.0 5:2.0 6:2.0 7:5.0 8:4.0 10:1.0 84:1.0 293:1.0 
-2.0 2.0 2.0 0.0 2.0 4:1.0 5:2.0 6:3.0 7:9.0 8:7.0 10:1.0 11:1.0 
-0.7798483975886684 0.7043346071684015 0.5895915065041263 0.0 0.041622946358203836 4:1.0 5:2.0 6:2.0 7:12.0 8:10.0 10:2.0 20:1.0 25:1.0 77:1.0 905:1.0 
-0.10083602824273327 0.32820099823271376 0.21183992527010348 0.10221858687483512 0.0 4:1.0 5:2.0 6:2.0 7:6.0 8:4.0 10:2.0 20:1.0 117:1.0 166:1.0 908:1.0 
-0.0 0.0 0.004833413319851331 0.0 0.0 4:1.0 5:2.0 6:4.0 7:8.0 8:5.0 10:1.0 67:1.0 910:1.0 911:1.0 
-1.1273953975425315 0.0 0.09805830902460563 0.0 0.0 4:1.0 5:2.0 6:1.0 7:8.0 8:8.0 10:1.0 82:1.0 189:1.0 252:1.0 
-0.17212938208276052 0.21400284910433576 0.8158050768303444 0.0 0.671368156718063 4:1.0 5:2.0 6:2.0 7:5.0 8:4.0 10:1.0 912:1.0 913:1.0 
-0.0 0.0 0.0 0.0 0.17601320181609856 5:2.0 6:3.0 7:5.0 8:3.0 10:1.0 38:1.0 84:1.0 253:1.0 
-0.0 0.02729579921108089 0.0 0.0 0.0 5:2.0 6:1.0 7:5.0 8:5.0 10:1.0 84:1.0 917:1.0 918:1.0 
-0.0 0.0 9.109247455628994E-4 0.0 0.0 4:1.0 5:2.0 6:3.0 7:6.0 8:4.0 10:1.0 187:1.0 919:1.0 
-0.11889410952539231 0.13887363672784286 0.6711716079183746 0.0 0.486952862029771 4:1.0 5:2.0 6:4.0 7:10.0 8:7.0 10:1.0 128:1.0 833:1.0 925:1.0 
-0.0 0.18187338369766715 0.3245464886344501 0.0 0.0 5:2.0 6:2.0 7:8.0 8:7.0 10:1.0 84:1.0 251:1.0 927:1.0 
-0.0 0.0 0.0 0.0 0.11193354892352358 4:1.0 5:2.0 6:2.0 7:5.0 8:4.0 10:1.0 390:1.0 930:1.0 
-0.0 0.3120332342769153 0.0 0.0 0.0 5:2.0 6:3.0 7:8.0 8:6.0 10:1.0 60:1.0 84:1.0 474:1.0 931:1.0 
-0.0 0.0 0.08948556580857044 0.28413521635246036 0.15799751389125574 4:1.0 5:2.0 6:4.0 7:6.0 8:2.0 10:1.0 19:1.0 197:1.0 933:1.0 
-2.0 2.0 2.0 0.0 2.0 4:1.0 5:2.0 6:3.0 7:13.0 8:11.0 10:1.0 11:1.0 
-0.0 0.05750726644668843 0.0 0.0 0.0 5:2.0 6:1.0 7:3.0 8:3.0 10:1.0 84:1.0 934:1.0 
-0.04080086656644651 0.31228973970305907 0.6316184657284193 0.0 1.513953490579888 4:1.0 5:2.0 6:4.0 7:8.0 8:4.0 10:2.0 553:1.0 938:1.0 939:1.0 
-2.0 2.0 2.0 2.0 0.0 4:1.0 5:2.0 6:1.0 7:4.0 8:4.0 10:1.0 11:1.0 
-0.0 0.02730969436579912 0.0 0.0 0.0 5:2.0 6:1.0 7:5.0 8:5.0 10:1.0 84:1.0 940:1.0 941:1.0 
-0.0 0.0 8.734300869184161E-4 0.0 0.0 4:1.0 5:2.0 6:3.0 7:6.0 8:4.0 10:1.0 187:1.0 942:1.0 
-0.0 0.0 0.0 0.0 0.004058681279247904 4:1.0 5:2.0 6:2.0 7:16.0 8:14.0 9:1.0 10:1.0 327:1.0 943:1.0 944:1.0 945:1.0 946:1.0 947:1.0 
-2.0 2.0 2.0 0.0 2.0 4:1.0 5:2.0 6:1.0 7:9.0 8:9.0 10:1.0 11:1.0 
-0.13718533011240977 0.09559894818784136 0.0 0.0 0.0 5:2.0 6:1.0 7:17.0 8:17.0 10:1.0 84:1.0 643:1.0 954:1.0 955:1.0 956:1.0 957:1.0 
-0.0 0.1687393848331848 0.5685972854769479 0.0 0.11673545934377566 4:1.0 5:2.0 6:3.0 7:9.0 8:7.0 10:1.0 111:1.0 174:1.0 686:1.0 716:1.0 
-0.40568358695085854 1.8429607630937024 2.0 0.0 1.1141182092415944 4:1.0 5:2.0 6:3.0 7:6.0 8:4.0 10:1.0 20:1.0 210:1.0 
-0.06437002856343894 0.12690744391865338 0.0 0.020774041799091838 0.0 5:2.0 6:2.0 7:4.0 8:3.0 10:1.0 26:1.0 488:1.0 569:1.0 
-2.0 2.0 2.0 0.0 0.0 4:1.0 5:2.0 6:1.0 7:7.0 8:7.0 10:1.0 11:1.0 
-0.34288207641080576 0.0 0.23180476701571268 0.0 0.0 4:1.0 5:2.0 6:1.0 7:7.0 8:7.0 10:1.0 82:1.0 420:1.0 970:1.0 
-2.0 2.0 2.0 2.0 0.0 4:1.0 5:2.0 6:1.0 7:6.0 8:6.0 10:1.0 11:1.0 
-0.0 0.0 0.0 0.0 0.08690754359684963 5:2.0 6:4.0 7:18.0 8:10.0 9:1.0 10:3.0 19:2.0 53:1.0 54:2.0 84:1.0 971:1.0 972:1.0 
-0.0 0.27339144435908674 0.0 0.0 0.0 5:2.0 6:1.0 7:11.0 8:9.0 10:1.0 84:1.0 92:1.0 123:1.0 201:1.0 474:1.0 973:1.0 
-1.4255039758729717 0.0 0.6137771092539712 0.0 1.4379898076975857 4:1.0 5:2.0 6:1.0 7:11.0 8:11.0 10:1.0 81:1.0 106:1.0 686:1.0 
-0.9288642801000258 0.052079044364474365 0.10265682640400273 0.0 0.035992563825647916 4:1.0 5:2.0 6:1.0 7:14.0 8:14.0 10:1.0 20:1.0 38:1.0 197:1.0 835:1.0 
-0.0 0.0 0.10103206368166708 0.0 0.17304416769751538 4:1.0 5:2.0 6:3.0 7:4.0 8:2.0 10:1.0 197:1.0 747:1.0 
-0.14380966869846043 0.4309536227190969 1.6320876446645463 0.0 1.3147631614627877 4:1.0 5:2.0 6:2.0 7:3.0 8:2.0 10:1.0 975:1.0 
-0.2724305517827945 0.21253519580730965 0.8157234718038536 0.0 0.6853077446620952 4:1.0 5:2.0 6:2.0 7:7.0 8:6.0 10:1.0 384:1.0 771:1.0 
-0.0 0.05749983377614129 0.0 0.0 0.0 5:2.0 6:1.0 7:3.0 8:3.0 10:1.0 84:1.0 979:1.0 
-0.2927777141367379 0.0 0.7494017251767517 0.0 0.0 4:1.0 5:2.0 6:1.0 7:6.0 8:6.0 10:1.0 82:1.0 980:1.0 981:1.0 
-0.0 0.0 0.7989328311936696 0.6875928506518253 2.0 4:1.0 5:2.0 6:2.0 7:7.0 8:4.0 10:2.0 19:1.0 26:1.0 67:1.0 164:1.0 
-0.0 0.06718783450848619 0.0 0.0 0.0 5:2.0 6:2.0 7:3.0 8:1.0 10:2.0 84:1.0 983:1.0 
-0.09599095305582263 0.015923530186333485 0.0 0.0 0.0 5:2.0 6:4.0 7:14.0 8:10.0 10:2.0 84:1.0 175:1.0 985:1.0 986:1.0 
-0.0 0.035212220427506 1.0671705588790514 0.0 0.015805550126226576 4:1.0 5:2.0 6:2.0 7:6.0 8:5.0 10:1.0 331:1.0 987:1.0 
-1.484180342997638 0.0 0.0 0.0 0.0 1:1.0 4:1.0 5:2.0 6:4.0 7:11.0 8:7.0 10:2.0 67:1.0 83:1.0 149:1.0 
-0.04852888227857361 0.19579992897034132 0.09412063658175679 0.0 0.0 4:1.0 5:2.0 6:2.0 7:9.0 8:8.0 10:1.0 20:1.0 67:1.0 988:1.0 
-0.3656276430252486 0.9205706506882083 0.7984235926181238 0.0 1.0085683338653926 4:1.0 5:2.0 6:2.0 7:9.0 8:8.0 10:1.0 20:1.0 362:1.0 573:1.0 
-2.0 2.0 2.0 2.0 0.0 4:1.0 5:2.0 6:1.0 7:7.0 8:6.0 10:1.0 11:1.0 19:1.0 
-2.0 2.0 2.0 0.0 0.0 4:1.0 5:2.0 6:2.0 7:6.0 8:5.0 10:1.0 11:1.0 
-0.024274632685634057 0.0986929986581829 0.0 0.0 0.0 5:2.0 6:1.0 7:9.0 8:9.0 10:1.0 84:1.0 155:1.0 989:1.0 990:1.0 
-2.0 2.0 2.0 2.0 0.0 4:1.0 5:2.0 6:1.0 7:4.0 8:4.0 10:1.0 11:1.0 
-0.0 0.04579471869100062 0.0 0.0 0.0 5:2.0 6:3.0 7:7.0 8:4.0 10:2.0 26:1.0 84:1.0 991:1.0 992:1.0 
-0.0 0.0 0.0 0.0 1.529349516106185 4:1.0 5:2.0 6:1.0 7:6.0 8:6.0 10:1.0 327:1.0 996:1.0 
-0.0 0.0 0.9385060182660236 0.0 0.0 4:1.0 5:2.0 6:1.0 7:8.0 8:7.0 10:1.0 20:1.0 72:1.0 182:1.0 355:1.0 
-0.0 0.0 0.012601520793493288 0.0 0.0 5:2.0 6:4.0 7:10.0 8:7.0 10:1.0 60:1.0 67:1.0 314:1.0 997:1.0 
-0.0 0.03609719466237084 0.0 0.0 0.4903320213079645 5:2.0 6:3.0 7:8.0 8:3.0 10:3.0 84:1.0 92:1.0 998:1.0 999:1.0 
-0.0 0.0 2.0 0.0 0.0 4:1.0 5:2.0 6:2.0 7:4.0 8:3.0 10:1.0 511:1.0 
-0.0 0.0 0.0 0.0 0.3474612976156778 4:1.0 5:2.0 6:1.0 7:9.0 8:8.0 10:2.0 164:1.0 297:1.0 327:1.0 
-0.0 0.10007441977058176 0.0 0.0 0.0 5:2.0 6:4.0 7:8.0 8:4.0 10:2.0 84:1.0 474:1.0 1002:1.0 1003:1.0 
-0.6014061411279099 0.12318078811339514 0.18981855866961692 0.0 0.8731410435341961 4:1.0 5:2.0 6:2.0 7:12.0 8:8.0 10:2.0 70:1.0 76:1.0 137:1.0 419:1.0 
-0.5470096177325396 1.1710630563195443 1.8457504614215088 0.0 0.4334305506584368 4:1.0 5:2.0 6:1.0 7:14.0 8:14.0 10:1.0 20:1.0 38:1.0 197:1.0 835:1.0 
-2.0 2.0 2.0 0.0 2.0 4:1.0 5:2.0 6:3.0 7:12.0 8:9.0 10:2.0 11:1.0 
-0.2974139845307063 0.0 0.002700768868147809 0.0 0.0 4:1.0 5:2.0 6:3.0 7:8.0 8:6.0 10:1.0 82:1.0 852:1.0 
-0.0 0.024844990345232923 0.04888116673382062 0.0 0.3262979557795538 4:1.0 5:2.0 6:3.0 7:5.0 8:3.0 10:1.0 531:1.0 1005:1.0 
-0.0 0.020097746633345848 0.0 0.0 0.0 5:2.0 6:4.0 7:9.0 8:5.0 10:1.0 19:1.0 84:1.0 1006:1.0 1007:1.0 
-0.18848481401922734 0.5403345664531192 0.7959475788884302 0.0 0.8879845782871696 4:1.0 5:2.0 6:2.0 7:7.0 8:5.0 10:2.0 20:1.0 77:1.0 424:1.0 1008:1.0 
-0.0 0.0 0.4097973870864357 0.0 0.101639568846455 4:1.0 5:2.0 6:5.0 7:13.0 8:8.0 10:1.0 19:1.0 511:1.0 1009:1.0 
-2.0 2.0 2.0 0.0 0.0 4:1.0 5:2.0 6:1.0 7:8.0 8:8.0 10:1.0 11:1.0 
-2.0 2.0 2.0 0.0 2.0 4:1.0 5:2.0 6:2.0 7:9.0 8:8.0 10:1.0 11:1.0 
-0.0 0.0039252401321999125 0.0 0.0 1.1155141576365852 5:2.0 6:6.0 7:17.0 8:8.0 10:5.0 20:1.0 25:1.0 26:1.0 352:1.0 511:1.0 1010:1.0 
-0.05809809149043513 0.0 0.10228362116705823 0.0 1.1361700543386253 4:1.0 5:2.0 6:2.0 7:7.0 8:5.0 10:1.0 72:1.0 335:1.0 359:1.0 
-0.4385708427938075 0.5162460723173427 0.0 0.0 0.16519452295433096 5:2.0 6:1.0 7:14.0 8:9.0 10:5.0 19:1.0 54:1.0 84:1.0 183:1.0 351:1.0 1011:1.0 
-0.9647614268574891 0.625992414846684 0.6501363086668868 0.1343525887378947 0.6406778443582329 4:1.0 5:2.0 6:2.0 7:5.0 8:3.0 10:2.0 20:1.0 275:1.0 493:1.0 
-0.0 0.8029415551813017 1.2622139889125927 0.0 0.0 4:1.0 5:2.0 6:3.0 7:10.0 8:6.0 10:2.0 20:1.0 72:1.0 77:1.0 313:1.0 355:1.0 
-2.0 2.0 2.0 2.0 0.0 4:1.0 5:2.0 6:2.0 7:5.0 8:4.0 10:1.0 11:1.0 
-0.018709589986077833 0.14021468821927707 1.0360549864152648 0.0 0.47294849721494897 4:1.0 5:2.0 6:4.0 7:7.0 8:4.0 10:1.0 1013:1.0 1014:1.0 1015:1.0 
-0.3413507557301436 0.0 0.19567587260803357 0.0 0.0 4:1.0 5:2.0 6:2.0 7:6.0 8:5.0 10:1.0 82:1.0 1017:1.0 
-0.2652572620209683 0.0 1.7509559240349382 0.0 0.0 1:1.0 5:2.0 6:1.0 7:7.0 8:6.0 10:2.0 38:1.0 84:1.0 579:1.0 
-0.28378748244146873 0.0 0.0 0.0 0.318093015916153 1:1.0 4:1.0 5:2.0 6:3.0 7:13.0 8:10.0 10:2.0 511:1.0 619:1.0 680:1.0 1019:1.0 
-0.5575836275185282 2.0 2.0 0.0 1.1446122725690824 4:1.0 5:2.0 6:1.0 7:7.0 8:7.0 10:1.0 20:1.0 53:1.0 895:1.0 
-0.0 0.0 1.2624908333311216 0.0 1.6155894808819562 4:1.0 5:2.0 6:2.0 7:9.0 8:6.0 10:2.0 20:1.0 72:1.0 77:1.0 355:1.0 1020:1.0 
-2.0 2.0 2.0 0.0 2.0 4:1.0 5:2.0 6:3.0 7:7.0 8:5.0 10:1.0 11:1.0 
-0.0 0.12780721445358417 0.5018571615125398 0.0 0.25799068349056925 4:1.0 5:2.0 6:4.0 7:7.0 8:4.0 10:1.0 492:1.0 1023:1.0 1024:1.0 
-0.26299358851957544 0.1424865702451145 0.5199456392549697 0.0 0.38259572230742617 4:1.0 5:2.0 6:1.0 7:7.0 8:7.0 10:1.0 740:1.0 1025:1.0 
-0.0 0.0 0.0 0.0 0.21774297849635404 4:1.0 5:2.0 6:6.0 7:16.0 8:8.0 10:3.0 27:1.0 67:1.0 1028:1.0 1029:1.0 1030:1.0 1031:1.0 1032:1.0 
-0.4971915456835425 0.9230269324913974 1.230953874581408 0.0 0.5399468551829595 4:1.0 5:2.0 6:1.0 7:7.0 8:7.0 10:1.0 20:1.0 1033:1.0 1034:1.0 
-2.0 2.0 2.0 2.0 0.0 4:1.0 5:2.0 6:2.0 7:5.0 8:4.0 10:1.0 11:1.0 
-0.0 0.0 0.22295503356222454 0.0 0.07990530093314828 5:2.0 6:5.0 7:9.0 8:5.0 10:1.0 26:1.0 67:1.0 74:1.0 689:1.0 
-0.0 -0.0 0.13493170489648568 0.0 0.0 4:1.0 5:2.0 6:1.0 7:9.0 8:6.0 10:2.0 19:1.0 20:1.0 70:1.0 114:1.0 166:1.0 1035:1.0 1036:1.0 
-0.0 -0.0 2.0 0.0 0.0 4:1.0 5:2.0 6:1.0 7:4.0 8:4.0 10:1.0 11:1.0 
-2.0 -2.0 2.0 0.0 0.0 4:1.0 5:2.0 6:2.0 7:7.0 8:6.0 10:1.0 11:1.0 
-0.5012387300452391 -2.0 1.5992642783077047 0.0 0.0 5:2.0 6:3.0 7:9.0 8:7.0 10:1.0 11:1.0 84:1.0 
-0.5346174063895613 -0.24192584126659353 1.6945366725906117 0.0 0.5722549917970862 4:1.0 5:2.0 6:1.0 7:12.0 8:10.0 10:1.0 11:1.0 76:2.0 
-0.3837889885738923 -0.2014564524180346 1.2292809584201583 0.0 0.2377142075215716 4:1.0 5:2.0 6:3.0 7:8.0 8:5.0 9:1.0 10:1.0 20:1.0 1038:1.0 1039:1.0 
-0.6961144702766937 -0.14668432938053622 0.5890907439440076 0.0 0.17614323346167202 4:1.0 5:2.0 6:1.0 7:2.0 8:2.0 10:1.0 20:1.0 245:1.0 
-0.0 -0.0 2.0 0.0 0.0 4:1.0 5:2.0 6:1.0 7:9.0 8:7.0 10:3.0 11:1.0 
-0.05613820274233621 -1.0679768579344988 1.132701567412686 0.0 0.2648527963940817 4:1.0 5:2.0 6:5.0 7:9.0 8:5.0 10:1.0 20:1.0 313:1.0 553:1.0 
-0.2557970093414981 -0.12764313778871295 0.543787654241729 0.0 0.2680463664489658 4:1.0 5:2.0 6:3.0 7:11.0 8:6.0 9:1.0 10:3.0 20:1.0 1041:1.0 1042:1.0 1043:1.0 
-0.0 -0.0 2.0 0.0 0.0 4:1.0 5:2.0 6:1.0 7:4.0 8:4.0 10:1.0 11:1.0 
-0.44653142608818824 -2.0 2.0 0.0 0.0 4:1.0 5:2.0 6:1.0 7:8.0 8:8.0 10:1.0 11:1.0 
-0.2691655369719428 -0.01827730223389765 0.2868902263659578 0.0 0.17229502420746517 4:1.0 5:2.0 6:1.0 7:6.0 8:5.0 10:2.0 20:1.0 37:1.0 205:1.0 
-0.0 -0.5315462701253774 2.0 0.0 0.9385920690479489 4:1.0 5:2.0 6:1.0 7:3.0 8:2.0 10:1.0 11:1.0 70:1.0 
-2.0 -2.0 2.0 0.0 2.0 4:1.0 5:2.0 6:1.0 7:11.0 8:11.0 10:1.0 11:1.0 
-0.0 -0.0 2.0 0.0 0.0 4:1.0 5:2.0 6:2.0 7:4.0 8:3.0 10:1.0 11:1.0 
-2.0 -2.0 2.0 0.0 2.0 4:1.0 5:2.0 6:3.0 7:6.0 8:4.0 10:1.0 11:1.0 
-0.0 -0.0 2.0 0.0 0.0 4:1.0 5:2.0 6:1.0 7:4.0 8:4.0 10:1.0 11:1.0 
-0.05591131489464817 -0.07436678093663338 0.319073653827357 0.0 0.100517553080657 4:1.0 5:2.0 6:4.0 7:7.0 8:3.0 10:2.0 20:1.0 1048:1.0 1049:1.0 
-0.11174611760398388 -0.1496240914924682 0.9852022800536588 0.0 0.1806891538563581 4:1.0 5:2.0 6:1.0 7:4.0 8:4.0 10:1.0 20:1.0 1050:1.0 
-0.0 -0.37803840790160836 0.0 0.0 0.0 5:2.0 6:3.0 7:9.0 8:6.0 10:1.0 15:1.0 72:1.0 1047:1.0 
-0.03713809046296501 -0.0455762945997053 0.04762138850237278 0.0 0.06523725043440497 4:1.0 5:2.0 6:4.0 7:7.0 8:2.0 10:3.0 20:1.0 222:1.0 1051:1.0 1052:1.0 
-2.0 -2.0 2.0 0.0 0.0 4:1.0 5:2.0 6:1.0 7:8.0 8:8.0 10:1.0 11:1.0 
-0.037347532278081505 -0.0492789732448239 0.6512529562653699 0.0 0.06576531162466139 4:1.0 5:2.0 6:3.0 7:8.0 8:5.0 10:2.0 20:1.0 1053:1.0 1054:1.0 1055:1.0 
-0.0 -0.0 2.0 0.0 0.0 4:1.0 5:2.0 6:2.0 7:4.0 8:3.0 10:1.0 11:1.0 
-0.11109658612280524 -0.1466909858839236 0.5890824546832506 0.0 0.17614462163043149 4:1.0 5:2.0 6:1.0 7:2.0 8:2.0 10:1.0 20:1.0 1056:1.0 
-0.0 -0.0 2.0 0.0 0.0 4:1.0 5:2.0 6:1.0 7:4.0 8:4.0 10:1.0 11:1.0 
-0.0 -0.0 0.0 2.0 0.0 4:1.0 5:2.0 6:1.0 7:5.0 8:4.0 10:1.0 11:1.0 19:1.0 
-0.0 -2.0 0.0 0.0 0.0 4:1.0 5:2.0 6:3.0 7:4.0 8:2.0 10:1.0 11:1.0 
-0.05580749862971074 -0.06502656311275828 0.2946236349518668 0.0 0.08870184830124299 4:1.0 5:2.0 6:1.0 7:7.0 8:5.0 10:3.0 20:1.0 1057:1.0 1058:1.0 
-0.6803664710029239 -2.0 1.1208044739945793 0.0 0.36610760285518024 4:1.0 5:2.0 6:4.0 7:9.0 8:3.0 10:4.0 20:1.0 197:1.0 678:1.0 
-0.0 -0.0 2.0 0.0 0.0 4:1.0 5:2.0 6:1.0 7:9.0 8:7.0 10:3.0 11:1.0 
-0.0 -0.0 0.3180653691541607 0.0 0.0 4:1.0 5:2.0 6:3.0 7:9.0 8:7.0 10:1.0 20:1.0 1059:1.0 1060:1.0 1061:1.0 
-0.09347571251532998 -0.027940553781065233 0.0 0.0 0.0 4:1.0 5:2.0 6:1.0 7:2.0 8:2.0 10:1.0 20:1.0 571:1.0 
-0.15400764641493794 -0.0 0.0 0.0 0.0 5:2.0 6:2.0 7:11.0 8:10.0 10:1.0 15:1.0 1045:1.0 
-0.14584568868305198 -0.14635523718473156 1.9160324360076963 0.0 0.6718807533731058 4:1.0 5:2.0 6:3.0 7:11.0 8:8.0 10:1.0 20:1.0 27:1.0 39:1.0 477:1.0 1062:1.0 
-0.0 -0.0 1.8824499186092043 0.0 0.1188804743560672 5:2.0 6:2.0 7:17.0 8:14.0 10:1.0 15:1.0 72:1.0 92:1.0 1063:1.0 
-0.0 -1.0229761960586634 2.0 0.0 0.4646986930806194 4:1.0 5:2.0 6:2.0 7:8.0 8:6.0 9:1.0 10:1.0 20:1.0 67:1.0 1064:1.0 1065:1.0 
-0.1110928125099357 -0.14669287981197382 0.5890867199356378 0.0 0.176141813437322 4:1.0 5:2.0 6:1.0 7:2.0 8:2.0 10:1.0 20:1.0 1066:1.0 
-0.0 -0.0 2.0 0.0 0.09054537893067933 5:2.0 6:2.0 7:18.0 8:16.0 10:1.0 15:1.0 19:1.0 1044:1.0 
-0.14199745567615932 -0.4716470195430342 0.31431880013047653 0.0 0.0 4:1.0 5:2.0 6:6.0 7:11.0 8:4.0 10:2.0 20:1.0 72:1.0 166:1.0 1067:1.0 1068:1.0 
-1.327876650385594 -2.0 2.0 0.0 0.0 4:1.0 5:2.0 6:2.0 7:7.0 8:6.0 10:1.0 11:1.0 
-0.0 -0.0 2.0 0.0 0.0 4:1.0 5:2.0 6:1.0 7:5.0 8:5.0 10:1.0 11:1.0 
-0.0997549673243079 -1.115313283402778 1.5289570062392739 0.0 1.0499763492981957 4:1.0 5:2.0 6:2.0 7:8.0 8:6.0 10:2.0 20:1.0 53:1.0 166:1.0 352:1.0 1070:1.0 
-0.0 -2.0 2.0 0.0 2.0 4:1.0 5:2.0 6:2.0 7:26.0 8:23.0 10:3.0 11:1.0 
-0.0 -0.0 0.8798210095513868 0.0 0.0 5:2.0 6:1.0 7:19.0 8:18.0 10:1.0 15:1.0 19:1.0 1047:1.0 
-0.03834016137054353 -0.0 2.0 0.0 0.0 4:1.0 5:2.0 6:1.0 7:7.0 8:7.0 10:1.0 11:1.0 
-0.0 -0.0 2.0 0.0 2.0 4:1.0 5:2.0 6:1.0 7:5.0 8:5.0 10:1.0 20:1.0 684:1.0 
-0.0 -0.0 0.30199420647735886 0.0 0.0 4:1.0 5:2.0 6:1.0 7:8.0 8:6.0 10:3.0 11:1.0 
-0.0 -0.0 2.0 0.0 0.0 4:1.0 5:2.0 6:1.0 7:4.0 8:4.0 10:1.0 11:1.0 
-0.17531390352057907 -0.703750100961409 1.5662840723944644 0.0 0.8676864337215922 4:1.0 5:2.0 6:1.0 7:7.0 8:6.0 10:1.0 92:1.0 474:1.0 684:1.0 1071:1.0 
-0.0 -0.0 2.0 0.0 0.0 4:1.0 5:2.0 6:1.0 7:10.0 8:10.0 10:1.0 1072:1.0 
-0.0 -2.0 2.0 0.0 0.0 4:1.0 5:2.0 6:1.0 7:9.0 8:9.0 10:1.0 11:1.0 
-0.0 -2.0 0.0 0.0 0.0 4:1.0 5:2.0 6:3.0 7:4.0 8:2.0 10:1.0 11:1.0 
-0.056018702992777836 -0.10442218554964615 0.6908082890915989 0.0 0.09272104599114346 4:1.0 5:2.0 6:1.0 7:6.0 8:6.0 10:1.0 20:1.0 813:1.0 1073:1.0 
-0.0 -0.0 0.0 0.13346714189274955 0.0 4:1.0 5:2.0 6:2.0 7:5.0 8:4.0 10:1.0 1072:1.0 
-0.0 -0.0 0.0 2.0 0.0 4:1.0 5:2.0 6:1.0 7:4.0 8:4.0 10:1.0 1072:1.0 
-0.0 -0.0 2.0 0.0 0.0 4:1.0 5:2.0 6:1.0 7:4.0 8:4.0 10:1.0 11:1.0 
-0.0 -2.0 0.0 0.0 0.0 5:2.0 6:1.0 7:10.0 8:8.0 10:3.0 11:1.0 84:1.0 
-0.0 -0.0 1.32591836299387 0.0 0.0 5:2.0 6:1.0 7:22.0 8:22.0 10:1.0 12:1.0 1037:1.0 
-0.0 -0.0 2.0 0.0 2.0 4:1.0 5:2.0 6:9.0 7:17.0 8:6.0 10:4.0 11:1.0 
-0.0 -2.0 2.0 0.0 0.0 4:1.0 5:2.0 6:1.0 7:9.0 8:9.0 10:1.0 11:1.0 
-2.0 -2.0 2.0 0.0 0.0 4:1.0 5:2.0 6:1.0 7:8.0 8:8.0 10:1.0 11:1.0 
-0.1322281004818152 -0.0 0.0 2.0 0.03232836886978103 4:1.0 5:2.0 6:1.0 7:3.0 8:2.0 10:1.0 11:1.0 1074:1.0 
-0.0 -0.0 2.0 0.0 0.0 4:1.0 5:2.0 6:1.0 7:4.0 8:4.0 10:1.0 11:1.0 
-0.053330730884352376 -0.0 2.0 0.0 0.0 4:1.0 5:2.0 6:1.0 7:9.0 8:8.0 10:2.0 20:1.0 53:1.0 166:1.0 504:1.0 
-0.11136473094178241 -0.14814874247230927 0.7872750785725529 0.0 0.1784752840631213 4:1.0 5:2.0 6:1.0 7:3.0 8:3.0 10:1.0 20:1.0 1075:1.0 
-0.0 -0.0 2.0 0.0 0.0 4:1.0 5:2.0 6:1.0 7:4.0 8:4.0 10:1.0 11:1.0 
-0.03772161578242767 -0.0 1.4675407434927183 0.0 0.148896716334006 4:1.0 5:2.0 6:5.0 7:14.0 8:9.0 10:1.0 20:1.0 123:1.0 1076:1.0 1077:1.0 1078:1.0 
-0.0 -0.0 0.0 2.0 0.0 4:1.0 5:2.0 6:2.0 7:3.0 8:2.0 10:1.0 1072:1.0 
-0.27768501599045287 -0.24069252389868281 1.7454557947783733 0.4292421209745976 0.9826203098861729 4:1.0 5:2.0 6:4.0 7:14.0 8:6.0 9:1.0 10:2.0 19:2.0 20:1.0 27:1.0 38:1.0 164:1.0 1079:1.0 
-0.0 -0.0 0.0021215237861924685 0.0 0.0 4:1.0 5:2.0 6:1.0 7:2.0 8:1.0 10:1.0 11:1.0 70:1.0 
-0.6720277393886155 -0.3156176265777978 0.7635407352336314 0.11737014862918427 0.19263422231085914 1:1.0 4:1.0 5:2.0 6:4.0 7:12.0 8:6.0 10:3.0 19:1.0 20:1.0 166:1.0 251:1.0 825:1.0 1080:1.0 
-0.0 -0.576776116426422 2.0 0.0 0.16223410058804852 4:1.0 5:2.0 6:1.0 7:11.0 8:11.0 10:1.0 20:1.0 53:1.0 106:1.0 1081:1.0 
-2.0 -2.0 2.0 0.0 2.0 4:1.0 5:2.0 6:1.0 7:12.0 8:12.0 10:1.0 11:1.0 
-0.1653879291478023 -0.0 1.223694021053583 0.0 0.0 4:1.0 5:2.0 6:2.0 7:5.0 8:3.0 10:2.0 20:1.0 33:1.0 77:1.0 
-0.2718198326585345 -0.14448154768738622 0.0 0.0 0.04552773471941896 5:2.0 6:3.0 7:9.0 8:5.0 10:1.0 15:1.0 30:2.0 1045:1.0 
-0.0 -0.0 0.0 2.0 0.0 4:1.0 5:2.0 6:1.0 7:3.0 8:3.0 10:1.0 1072:1.0 
-0.017611820781255793 -0.11875668870375213 0.5890821972944384 0.0 0.17614995597966962 4:1.0 5:2.0 6:1.0 7:2.0 8:2.0 10:1.0 20:1.0 571:1.0 
-0.0 -0.0 2.0 0.0 0.0 4:1.0 5:2.0 6:1.0 7:5.0 8:5.0 10:1.0 11:1.0 
-0.1117477784099604 -2.0 0.9852269900753902 0.0 0.695049308330481 4:1.0 5:2.0 6:1.0 7:4.0 8:4.0 10:1.0 20:1.0 486:1.0 
-0.11135652667657384 -0.14815135013098688 2.0 0.0 0.17848155631912413 4:1.0 5:2.0 6:1.0 7:3.0 8:3.0 10:1.0 20:1.0 1083:1.0 
-0.0 -0.0 0.0 2.0 0.0 4:1.0 5:2.0 6:1.0 7:3.0 8:2.0 10:2.0 11:1.0 26:1.0 
-0.7113233654500702 -0.3192429126987678 0.7270157059865453 0.0 0.36562515231624637 4:1.0 5:2.0 6:1.0 7:6.0 8:4.0 9:2.0 10:1.0 20:1.0 223:1.0 1084:1.0 
-0.0 -2.0 0.0 0.0 0.0 4:1.0 5:2.0 6:3.0 7:4.0 8:2.0 10:1.0 11:1.0 
-2.0 -2.0 2.0 0.0 0.0 4:1.0 5:2.0 6:1.0 7:10.0 8:10.0 10:1.0 11:1.0 
-0.0 -0.0 2.0 0.0 0.0 4:1.0 5:2.0 6:2.0 7:13.0 8:9.0 10:4.0 11:1.0 26:1.0 
-2.0 -2.0 2.0 0.0 2.0 4:1.0 5:2.0 6:1.0 7:15.0 8:15.0 10:1.0 11:1.0 
-0.0 -0.0 0.0 2.0 0.0 4:1.0 5:2.0 6:1.0 7:4.0 8:3.0 10:1.0 11:1.0 19:1.0 
-0.13055831120670758 -0.2641238759982719 0.6852356412407161 0.0 0.2834937147374884 4:1.0 5:2.0 6:3.0 7:13.0 8:11.0 10:1.0 1085:1.0 1086:2.0 1087:1.0 
-0.0 -0.0 0.0 2.0 0.0 4:1.0 5:2.0 6:2.0 7:5.0 8:4.0 10:1.0 1072:1.0 
-0.11110283692303773 -0.14669013290913505 0.5890877308563285 0.0 0.17614875267277136 4:1.0 5:2.0 6:1.0 7:2.0 8:2.0 10:1.0 20:1.0 1088:1.0 
-0.18856218928193824 -0.45804885219208535 0.0 0.4053182323342888 0.0 4:1.0 5:2.0 6:1.0 7:8.0 8:5.0 10:2.0 20:1.0 72:2.0 114:1.0 166:1.0 1089:1.0 
-0.0 -0.0 2.0 0.0 2.0 4:1.0 5:2.0 6:2.0 7:7.0 8:5.0 10:1.0 11:1.0 92:1.0 
-0.22236919337239286 -0.11350163327258961 0.4533907620723058 0.0 0.14899208476205683 4:1.0 5:2.0 6:3.0 7:11.0 8:7.0 9:1.0 10:1.0 20:1.0 91:1.0 1059:1.0 1060:1.0 1090:1.0 
-2.0 -2.0 2.0 0.0 0.0 4:1.0 5:2.0 6:1.0 7:8.0 8:8.0 10:1.0 11:1.0 
-0.0 -0.0 2.0 0.0 0.0 5:2.0 6:1.0 7:13.0 8:11.0 10:1.0 15:1.0 27:2.0 1044:1.0 
-0.0 -2.0 0.0 0.0 2.0 4:1.0 5:2.0 6:4.0 7:5.0 8:2.0 10:1.0 11:1.0 
-0.0 -0.0 2.0 0.0 0.0 4:1.0 5:2.0 6:1.0 7:7.0 8:7.0 10:1.0 11:1.0 
-0.0 -0.0 2.0 0.0 0.0 4:1.0 5:2.0 6:1.0 7:5.0 8:5.0 10:1.0 11:1.0 
-0.021991772654160982 -0.009380347523730377 0.17652884790249146 0.0 0.0 4:1.0 5:2.0 6:3.0 7:15.0 8:10.0 10:4.0 20:1.0 53:1.0 60:1.0 166:1.0 1091:2.0 
-0.36401627942318104 -0.9414373830889606 0.18509685613486104 0.0 1.1256855609563252 4:1.0 5:2.0 6:3.0 7:5.0 8:3.0 10:1.0 33:1.0 400:1.0 
-0.0 -0.004156987413798765 0.5231637145900091 0.0 0.004012938351954309 4:1.0 5:2.0 6:1.0 7:9.0 8:9.0 10:1.0 20:1.0 155:1.0 1094:1.0 1095:1.0 
-0.0 -0.0 0.0 2.0 0.0 4:1.0 5:2.0 6:1.0 7:4.0 8:3.0 10:1.0 11:1.0 19:1.0 
-0.0 -0.0 2.0 0.0 0.0 4:1.0 5:2.0 6:1.0 7:9.0 8:7.0 10:3.0 11:1.0 
-0.0 -2.0 0.0 0.0 0.0 4:1.0 5:2.0 6:3.0 7:4.0 8:2.0 10:1.0 11:1.0 
-0.0 -0.10402851172416486 0.6518739201990342 0.0 0.00979046521397243 4:1.0 5:2.0 6:2.0 7:10.0 8:9.0 10:1.0 20:1.0 205:1.0 615:1.0 1096:1.0 
-0.0 -0.0 0.4824781775971209 0.0 0.0 5:2.0 6:1.0 7:15.0 8:15.0 10:1.0 15:1.0 1082:1.0 
-0.0 -0.0 2.0 0.0 0.0 4:1.0 5:2.0 6:1.0 7:6.0 8:6.0 10:1.0 11:1.0 
-0.0 -0.0 2.0 0.0 0.0 4:1.0 5:2.0 6:1.0 7:6.0 8:6.0 10:1.0 11:1.0 
-0.0 -0.0 0.8183084017230645 0.0 0.0 4:1.0 5:2.0 6:1.0 7:7.0 8:7.0 10:1.0 20:1.0 387:1.0 1097:1.0 
-0.0 -0.0 0.0 2.0 0.0 4:1.0 5:2.0 6:1.0 7:7.0 8:3.0 10:3.0 11:1.0 19:1.0 27:1.0 
-0.0 -0.0 0.0 0.9736522141304859 0.0 4:1.0 5:2.0 6:1.0 7:2.0 8:2.0 10:1.0 11:1.0 
-0.0 -0.0 2.0 0.0 0.0 4:1.0 5:2.0 6:1.0 7:6.0 8:6.0 10:1.0 11:1.0 
-0.11193910915482001 -0.0 0.23753645724281602 0.0 0.0 4:1.0 5:2.0 6:1.0 7:5.0 8:5.0 10:1.0 20:1.0 643:1.0 
-0.04704939472515116 -0.0 0.0 0.0 0.0 5:2.0 6:1.0 7:5.0 8:5.0 10:1.0 15:1.0 1098:1.0 
-0.0 -0.0 2.0 0.0 0.0 4:1.0 5:2.0 6:1.0 7:7.0 8:7.0 10:1.0 11:1.0 
-0.11109402440519935 -0.14668392624610962 2.0 0.0 0.17614288537681663 4:1.0 5:2.0 6:1.0 7:2.0 8:2.0 10:1.0 20:1.0 1099:1.0 
-0.0 -0.0 2.0 0.0 0.0 4:1.0 5:2.0 6:2.0 7:5.0 8:4.0 10:1.0 11:1.0 
-0.11214767482077294 -0.9142065245506933 2.0 0.0 1.3640007164046806 4:1.0 5:2.0 6:1.0 7:7.0 8:7.0 10:1.0 20:1.0 409:1.0 
-0.0 -2.0 2.0 0.0 1.7165424360979114 4:1.0 5:2.0 6:3.0 7:5.0 8:3.0 10:1.0 11:1.0 
-0.08280791960990794 -0.06666136953708239 1.063868050735058 0.0 0.15947497478944828 4:1.0 5:2.0 6:5.0 7:21.0 8:13.0 9:2.0 10:2.0 20:1.0 27:1.0 38:1.0 187:1.0 208:1.0 544:1.0 684:1.0 1100:1.0 
-0.8678645246273775 -1.1450346169012235 1.571828175131975 0.0 1.4840631816213123 5:2.0 6:1.0 7:1.0 8:1.0 10:1.0 26:1.0 1101:1.0 
-0.0 -0.0 2.0 0.0 0.0 4:1.0 5:2.0 6:1.0 7:6.0 8:6.0 10:1.0 11:1.0 
-0.11154844533494845 -0.14685084032231027 0.9544718011859948 0.0 0.1832575023923006 4:1.0 5:2.0 6:2.0 7:4.0 8:2.0 10:1.0 20:1.0 27:1.0 525:1.0 
-2.0 -2.0 2.0 0.0 2.0 4:1.0 5:2.0 6:3.0 7:7.0 8:5.0 10:1.0 11:1.0 
-0.0 -0.0 2.0 0.0 0.0 4:1.0 5:2.0 6:2.0 7:4.0 8:3.0 10:1.0 11:1.0 
-0.1116168057832159 -0.1391477920307814 0.6881710711648702 0.0 0.17782374461321948 4:1.0 5:2.0 6:1.0 7:5.0 8:4.0 10:2.0 20:1.0 1102:1.0 
-0.0 -0.0 2.0 0.0 1.3023312248090178 4:1.0 5:2.0 6:1.0 7:8.0 8:7.0 10:2.0 20:1.0 155:1.0 
-1.0479287071328884 -0.0 1.5408378668683196 0.0 0.0 4:1.0 5:2.0 6:1.0 7:10.0 8:9.0 9:1.0 10:1.0 20:1.0 31:1.0 1064:1.0 1065:1.0 
-2.0 -2.0 2.0 0.0 2.0 4:1.0 5:2.0 6:3.0 7:9.0 8:7.0 10:1.0 11:1.0 
-0.41857226975032336 -2.0 1.2611231581306208 0.0 2.0 4:1.0 5:2.0 6:3.0 7:5.0 8:2.0 10:2.0 20:1.0 77:1.0 531:1.0 
-7.621901296917218E-4 -0.036900878017289154 1.0113544450420233 0.0 0.006905788322891532 4:1.0 5:2.0 6:3.0 7:7.0 8:5.0 10:1.0 20:1.0 60:1.0 1103:1.0 
-0.0 -0.005859271130204375 0.050533402269658204 0.0 0.2615739737929692 4:1.0 5:2.0 6:3.0 7:11.0 8:8.0 10:2.0 20:1.0 77:1.0 208:1.0 797:1.0 1100:1.0 
-0.027882649264179073 -0.03509043821599272 0.048102397295583986 0.0 0.051049908389457554 4:1.0 5:2.0 6:5.0 7:8.0 8:2.0 10:3.0 20:1.0 1104:1.0 1105:1.0 1106:1.0 1107:1.0 
-0.0 -0.0 0.059866115474044135 0.0 0.0 4:1.0 5:2.0 6:1.0 7:3.0 8:3.0 10:1.0 11:1.0 
-0.0 -0.0 2.0 0.0 0.0 5:2.0 6:2.0 7:17.0 8:16.0 10:1.0 15:1.0 1044:1.0 
-0.11111748272245561 -0.14668441010650743 0.589083429817868 0.0 0.1761435327679308 4:1.0 5:2.0 6:1.0 7:2.0 8:2.0 10:1.0 20:1.0 1108:1.0 
-0.0 -0.0 2.0 0.0 0.0 4:1.0 5:2.0 6:1.0 7:7.0 8:7.0 10:1.0 11:1.0 
-0.0 -2.0 0.0 0.0 0.0 5:2.0 6:1.0 7:8.0 8:5.0 10:3.0 11:1.0 27:1.0 84:1.0 
-0.8678316451232954 -1.1473387246113658 1.4230021800538504 0.0 2.0 5:2.0 6:2.0 7:1.0 10:1.0 26:1.0 1109:1.0 
-0.04960533324907598 -2.0 2.0 0.0 0.0 4:1.0 5:2.0 6:1.0 7:7.0 8:7.0 10:1.0 11:1.0 
-0.007876305429775283 -0.0 0.0 0.4176092963023183 0.0 4:1.0 5:2.0 6:1.0 7:3.0 8:2.0 10:1.0 123:1.0 1072:1.0 
-0.2728748449591913 -2.0 2.0 0.0 0.0 4:1.0 5:2.0 6:2.0 7:7.0 8:6.0 10:1.0 11:1.0 
-1.9967776503724197 -2.0 2.0 0.0 2.0 4:1.0 5:2.0 6:2.0 7:5.0 8:3.0 10:1.0 11:1.0 70:1.0 
-2.0 -2.0 2.0 0.0 2.0 4:1.0 5:2.0 6:1.0 7:5.0 8:4.0 10:1.0 11:1.0 70:1.0 
-0.39154884664610196 -0.7855785812607297 1.044869652485047 0.0 0.83551842528183 4:1.0 5:2.0 6:1.0 7:6.0 8:6.0 10:1.0 1112:1.0 1113:1.0 
-0.11023111101503161 -0.027865839323780665 0.0 0.0 0.0 4:1.0 5:2.0 6:1.0 7:2.0 8:1.0 10:1.0 20:1.0 92:1.0 1114:1.0 
-0.0 -0.0 2.0 0.0 0.0 4:1.0 5:2.0 6:1.0 7:9.0 8:7.0 10:3.0 11:1.0 
-0.0 -0.0 2.0 0.0 0.0 4:1.0 5:2.0 6:1.0 7:3.0 8:3.0 10:1.0 11:1.0 
-0.11138909520433198 -0.14815642289229336 0.7872799333415531 0.0 0.1784763835256387 4:1.0 5:2.0 6:1.0 7:3.0 8:3.0 10:1.0 20:1.0 1115:1.0 
-1.2867936369832482 -2.0 2.0 0.0 0.0 4:1.0 5:2.0 6:1.0 7:9.0 8:9.0 10:1.0 11:1.0 
-0.09448479247118828 -0.16295575954152158 0.3756377094200434 0.0 0.24257876445185847 5:2.0 6:3.0 7:10.0 8:8.0 10:1.0 26:1.0 1116:1.0 1117:1.0 1118:1.0 
-0.0 -0.11635211491584864 1.02602985566459 0.0 0.4228770971677906 4:1.0 5:2.0 6:1.0 7:2.0 8:1.0 10:1.0 20:1.0 92:1.0 1114:1.0 
-0.9299543367495284 -0.0 0.0 0.0 0.05594317811437465 5:2.0 6:1.0 7:7.0 8:7.0 10:1.0 15:1.0 1119:1.0 
-2.0 -2.0 2.0 0.0 2.0 4:1.0 5:2.0 6:3.0 7:8.0 8:6.0 10:1.0 11:1.0 
-1.0320588737126437 -0.38638176733529117 0.0 0.0 0.0 5:2.0 6:4.0 7:12.0 8:7.0 10:1.0 15:1.0 19:1.0 72:1.0 1044:1.0 
