svm_type c_svc
kernel_type linear
nr_class 6
total_sv 3255
rho 1.7725893802349253 1.4370052002201394 1.9152594248816392 1.010799500763819 1.4981264223099056 0.10542599576369863 0.5776643054894031 0.1693612329352474 0.23483698385181498 0.2727723307610593 -0.31040003494913665 -0.34457754289419423 -0.2535769258122217 0.044826324786535636 -0.5081363177655194
label 1 2 3 4 5 6
probA -1.4183824126619873 -1.7731722709545872 -1.5503954856708424 -1.4603226049290698 -1.436156366112126 -1.4026518003385868 -2.6679710548009203 -2.321242594103405 -2.765399507668352 -1.7294115805807515 -1.993702745557114 -2.2810847100210427 -2.0634986442462324 -2.2841307130734885 -2.193256431432976
probB 1.1411017526773797 0.8683449869462831 0.6854876871602377 0.8466559367472566 0.540787697565554 0.3224918668265076 0.3627848242640181 0.39496844185272 0.7372217463005374 0.06470779029908984 0.10117074596847596 0.333677519713871 -0.3245834621341626 -0.6929733174784194 -0.07578733691493936
nr_sv 67 680 1093 586 504 325
SV
2.0 0.2946175421572532 1.605977733459432 2.0 2.0 1:1.0 2:1.0 3:2.0 4:4.0 5:9.0 6:4.0 7:3.0 
2.0 0.0 0.0 0.0 0.0 1:1.0 2:1.0 3:2.0 4:1.0 5:5.0 6:4.0 7:2.0 8:1.0 
0.0 1.2438388196211936 0.778425628872872 0.0 0.0 2:1.0 3:2.0 4:1.0 5:13.0 6:9.0 7:3.0 9:1.0 10:2.0 
2.0 2.0 2.0 2.0 2.0 2:1.0 3:2.0 4:2.0 5:10.0 6:6.0 7:2.0 9:1.0 11:2.0 
1.1224744114706187 0.8415577464251598 0.5478587424399572 0.5213362782052214 0.3900636369614715 2:1.0 3:2.0 4:1.0 5:5.0 6:4.0 7:2.0 8:1.0 12:1.0 13:1.0 14:1.0 
2.0 0.0 0.0 0.0 0.0 1:1.0 2:1.0 3:2.0 4:2.0 5:10.0 6:7.0 7:2.0 10:1.0 
2.0 0.0 0.0 0.0 0.0 1:1.0 2:1.0 3:2.0 4:1.0 5:4.0 6:3.0 7:1.0 11:1.0 
2.0 2.0 2.0 2.0 2.0 2:1.0 3:2.0 4:3.0 5:6.0 6:4.0 7:1.0 9:1.0 
0.9415659672850676 0.5920927744474733 0.42276399059902553 0.46363480211889385 0.43045465161750135 2:1.0 3:2.0 4:1.0 5:6.0 6:5.0 7:2.0 12:1.0 15:1.0 16:1.0 17:1.0 
2.0 2.0 2.0 2.0 2.0 2:1.0 3:2.0 4:1.0 5:5.0 6:4.0 7:1.0 9:1.0 10:1.0 
2.0 2.0 2.0 2.0 2.0 2:1.0 3:2.0 4:4.0 5:10.0 6:7.0 7:1.0 9:1.0 
2.0 0.3117407832633288 0.301591056402714 0.1391905288132216 0.19632078908355638 1:1.0 2:1.0 3:2.0 4:1.0 5:11.0 6:8.0 7:3.0 18:1.0 
2.0 2.0 2.0 2.0 2.0 2:1.0 3:2.0 4:1.0 5:9.0 6:6.0 7:3.0 9:1.0 10:1.0 
2.0 0.0 0.0 0.0 0.0 1:1.0 2:1.0 3:2.0 4:1.0 5:4.0 6:3.0 7:1.0 11:1.0 
2.0 2.0 2.0 2.0 2.0 2:1.0 3:2.0 4:4.0 5:9.0 6:6.0 7:1.0 9:1.0 
2.0 2.0 2.0 2.0 2.0 2:1.0 3:2.0 4:4.0 5:11.0 6:8.0 7:1.0 9:1.0 
2.0 2.0 0.0 0.6772181561435276 0.0 2:1.0 3:2.0 4:1.0 5:2.0 6:1.0 7:1.0 9:1.0 10:1.0 
1.0201635826714748 0.7458219623171025 0.5572716392058328 0.6047501443818963 0.5732009400849312 2:1.0 3:2.0 4:1.0 5:7.0 6:6.0 7:2.0 12:1.0 15:1.0 16:1.0 19:1.0 
2.0 0.0 0.0 0.0 0.0 1:1.0 2:1.0 3:2.0 4:1.0 5:6.0 6:5.0 7:1.0 10:1.0 
2.0 2.0 2.0 2.0 2.0 2:1.0 3:2.0 4:4.0 5:9.0 6:6.0 7:1.0 9:1.0 
2.0 2.0 0.0 2.0 0.0 2:1.0 3:2.0 4:1.0 5:2.0 6:1.0 7:1.0 9:1.0 10:1.0 
2.0 0.0 0.0 0.0 0.0 1:1.0 2:1.0 3:2.0 4:1.0 5:8.0 6:7.0 7:1.0 10:1.0 
2.0 0.0 0.0 0.0 0.0 1:1.0 2:1.0 3:2.0 4:1.0 5:6.0 6:3.0 7:3.0 10:1.0 
2.0 2.0 1.0635712208477597 2.0 0.0 2:1.0 3:2.0 4:1.0 5:2.0 6:1.0 7:1.0 9:1.0 10:1.0 
2.0 2.0 2.0 2.0 2.0 2:1.0 3:2.0 4:1.0 5:5.0 6:5.0 7:1.0 9:1.0 
2.0 2.0 2.0 2.0 1.5888489797031229 2:1.0 3:2.0 4:1.0 5:2.0 6:1.0 7:1.0 9:1.0 10:1.0 
2.0 2.0 2.0 2.0 2.0 2:1.0 3:2.0 4:1.0 5:2.0 6:1.0 7:1.0 9:1.0 10:1.0 
2.0 0.0 0.0 0.0 0.0 1:1.0 2:1.0 3:2.0 4:1.0 5:6.0 6:5.0 7:1.0 10:1.0 
2.0 2.0 2.0 2.0 2.0 2:1.0 3:2.0 4:1.0 5:2.0 6:1.0 7:1.0 9:1.0 10:1.0 
0.20917359364593915 0.0 0.0 0.0 0.0 1:1.0 2:1.0 3:2.0 4:1.0 5:9.0 6:7.0 7:1.0 10:1.0 18:1.0 
2.0 0.0 0.0 0.0 0.0 1:1.0 2:1.0 3:2.0 4:1.0 5:6.0 6:5.0 7:1.0 10:1.0 
0.0 0.0 0.0 0.0 0.02186352877221413 3:2.0 5:5.0 6:5.0 7:1.0 8:1.0 10:1.0 12:1.0 16:1.0 20:1.0 
2.0 0.0 0.0 0.0 0.0 1:1.0 2:1.0 3:2.0 4:1.0 5:11.0 6:7.0 7:3.0 10:1.0 21:1.0 
1.245505350364929 1.3925980897547692 0.7362219009574308 0.12881136026421403 0.8857369317617411 3:2.0 4:1.0 5:7.0 6:5.0 7:2.0 8:1.0 10:1.0 12:1.0 22:1.0 
2.0 0.0 0.0 0.0 0.0 1:1.0 2:1.0 3:2.0 4:1.0 5:6.0 6:5.0 7:1.0 10:1.0 
2.0 2.0 1.934584208199085 2.0 2.0 2:1.0 3:2.0 4:1.0 5:2.0 6:1.0 7:1.0 9:1.0 10:1.0 
2.0 2.0 2.0 2.0 2.0 2:1.0 3:2.0 4:3.0 5:11.0 6:7.0 7:3.0 9:1.0 
2.0 2.0 2.0 2.0 2.0 2:1.0 3:2.0 4:4.0 5:7.0 6:4.0 7:1.0 9:1.0 
2.0 2.0 0.0 0.0 0.0 1:1.0 2:1.0 3:2.0 4:1.0 5:4.0 6:4.0 7:1.0 
0.02036968491005477 0.0 0.0 0.6097180644719673 0.0 1:1.0 2:1.0 3:2.0 4:2.0 5:11.0 6:7.0 7:2.0 11:2.0 
2.0 2.0 2.0 2.0 2.0 2:1.0 3:2.0 4:1.0 5:5.0 6:4.0 7:1.0 9:1.0 10:1.0 
2.0 2.0 2.0 1.9514649412513465 2.0 2:1.0 3:2.0 4:1.0 5:2.0 6:1.0 7:1.0 9:1.0 10:1.0 
2.0 2.0 1.8646132746051645 1.8156887106716342 2.0 2:1.0 3:2.0 4:1.0 5:2.0 6:1.0 7:1.0 9:1.0 10:1.0 
2.0 2.0 2.0 2.0 2.0 2:1.0 3:2.0 4:1.0 5:16.0 6:13.0 7:3.0 9:1.0 10:1.0 
2.0 2.0 2.0 2.0 2.0 2:1.0 3:2.0 4:1.0 5:14.0 6:14.0 7:1.0 9:1.0 
2.0 2.0 2.0 1.3447160895306276 1.7341037561979704 2:1.0 3:2.0 4:1.0 5:2.0 6:1.0 7:1.0 9:1.0 10:1.0 
2.0 0.0 0.0 0.0 0.0 1:1.0 2:1.0 3:2.0 4:1.0 5:4.0 6:3.0 7:1.0 11:1.0 
2.0 0.0 0.0 0.0 0.0 1:1.0 2:1.0 3:2.0 4:1.0 5:5.0 6:2.0 7:3.0 11:1.0 
2.0 0.0 0.0 0.0 0.0 1:1.0 2:1.0 3:2.0 4:1.0 5:5.0 6:4.0 7:1.0 10:1.0 
0.23946729510651446 0.0 0.0 0.0 0.0 1:1.0 2:1.0 3:2.0 4:1.0 5:4.0 6:3.0 7:1.0 10:1.0 
2.0 2.0 2.0 2.0 2.0 2:1.0 3:2.0 4:4.0 5:8.0 6:5.0 7:1.0 9:1.0 
2.0 2.0 2.0 2.0 2.0 2:1.0 3:2.0 4:3.0 5:7.0 6:4.0 7:2.0 9:1.0 
2.0 2.0 1.386245785032944 0.0 0.3160670643635015 1:1.0 2:1.0 3:2.0 4:1.0 5:8.0 6:6.0 7:3.0 
2.0 2.0 2.0 2.0 2.0 2:1.0 3:2.0 4:1.0 5:6.0 6:6.0 7:1.0 8:1.0 9:1.0 
2.0 0.0 0.0 0.0 0.0 1:1.0 2:1.0 3:2.0 4:1.0 5:4.0 6:3.0 7:1.0 23:1.0 
2.0 0.0 0.0 0.0 0.0 1:1.0 2:1.0 3:2.0 4:1.0 5:4.0 6:3.0 7:1.0 10:1.0 
2.0 0.0 0.0 0.0 0.0 1:1.0 2:1.0 3:2.0 4:1.0 5:4.0 6:3.0 7:1.0 10:1.0 
2.0 0.0 0.0 0.0 0.0 1:1.0 2:1.0 3:2.0 4:1.0 5:4.0 6:3.0 7:1.0 10:1.0 
2.0 2.0 2.0 2.0 2.0 2:1.0 3:2.0 4:1.0 5:10.0 6:8.0 7:2.0 9:1.0 21:1.0 
2.0 0.0 0.0 0.0 0.0 1:1.0 2:1.0 3:2.0 4:1.0 5:4.0 6:3.0 7:1.0 10:1.0 
2.0 2.0 2.0 2.0 2.0 2:1.0 3:2.0 4:1.0 5:11.0 6:11.0 7:1.0 9:1.0 
2.0 2.0 1.7679795162376053 1.5415364632620736 1.79448627044928 2:1.0 3:2.0 4:1.0 5:2.0 6:1.0 7:1.0 9:1.0 10:1.0 
2.0 2.0 2.0 2.0 2.0 3:2.0 4:1.0 5:11.0 6:8.0 7:3.0 10:1.0 25:1.0 26:1.0 
2.0 2.0 2.0 2.0 2.0 2:1.0 3:2.0 4:4.0 5:10.0 6:7.0 7:1.0 9:1.0 
2.0 0.0 0.0 0.0 0.0 1:1.0 2:1.0 3:2.0 4:1.0 5:4.0 6:3.0 7:1.0 10:1.0 
2.0 2.0 2.0 2.0 2.0 2:1.0 3:2.0 4:1.0 5:7.0 6:6.0 7:1.0 9:1.0 10:1.0 
2.0 0.0 0.0 0.0 0.0 1:1.0 2:1.0 3:2.0 4:1.0 5:5.0 6:4.0 7:1.0 10:1.0 
-0.0 0.0 0.0 2.0 0.0 3:2.0 4:1.0 5:8.0 6:5.0 7:3.0 9:1.0 21:1.0 29:1.0 
-0.0 0.23795121188577134 0.0 0.0 0.11150579378428321 2:1.0 3:2.0 4:1.0 5:5.0 6:5.0 7:1.0 12:1.0 30:1.0 
-0.0 2.0 0.0 0.0 0.0 2:1.0 3:2.0 4:1.0 5:9.0 6:7.0 7:3.0 9:1.0 
-0.0 0.6512690719646679 0.06580091590592907 0.0487417177087871 0.0371101077278647 2:1.0 3:2.0 4:3.0 5:8.0 6:5.0 7:2.0 12:1.0 32:1.0 33:1.0 34:1.0 
-0.0 2.0 0.0 0.0 0.0 2:1.0 3:2.0 4:1.0 5:4.0 6:4.0 7:1.0 9:1.0 
-0.0 2.0 2.0 0.0 0.03815748456285697 2:1.0 3:2.0 4:4.0 5:13.0 6:8.0 7:3.0 9:1.0 
-0.0 0.0 0.37198208680598444 0.0 1.5877541049197978 3:2.0 4:3.0 5:19.0 6:15.0 7:1.0 10:1.0 28:1.0 36:1.0 37:1.0 
-0.0 0.0 0.0 0.0 2.0 2:1.0 3:2.0 4:2.0 5:2.0 6:1.0 7:1.0 9:1.0 
-0.0 0.0 0.0 2.0 0.0 3:2.0 4:1.0 5:4.0 6:4.0 7:1.0 9:1.0 29:1.0 
-2.0 0.0 0.0 0.0 0.0 1:1.0 2:1.0 3:2.0 4:2.0 5:3.0 6:2.0 7:1.0 
-0.0 0.0 0.0 0.0 2.0 2:1.0 3:2.0 4:2.0 5:2.0 6:1.0 7:1.0 9:1.0 
-0.0 2.0 0.0 0.0 0.0 2:1.0 3:2.0 4:1.0 5:7.0 6:7.0 7:1.0 9:1.0 
-0.0 2.0 0.0 0.0 0.0 2:1.0 3:2.0 4:1.0 5:6.0 6:6.0 7:1.0 9:1.0 
-0.0 2.0 0.0 0.0 0.0 2:1.0 3:2.0 4:1.0 5:7.0 6:6.0 7:2.0 9:1.0 
-0.0 0.0 0.0 2.0 0.0 3:2.0 4:1.0 5:4.0 6:4.0 7:1.0 9:1.0 29:1.0 
-0.0 2.0 0.0 0.0 0.0 2:1.0 3:2.0 4:1.0 5:7.0 6:7.0 7:1.0 9:1.0 
-0.0 0.7650430694775904 0.16320440663426042 0.10005462549011934 0.16625931460500215 2:1.0 3:2.0 4:5.0 5:17.0 6:10.0 7:3.0 12:1.0 39:1.0 40:1.0 41:1.0 42:1.0 43:1.0 
-0.0 0.1055153872022162 0.0 0.0 0.0 2:1.0 3:2.0 4:1.0 5:8.0 6:6.0 7:3.0 9:1.0 
-0.0 2.0 0.0 0.0 0.0 2:1.0 3:2.0 4:1.0 5:4.0 6:4.0 7:1.0 9:1.0 
-0.0 0.0 2.0 0.0 0.0 2:1.0 3:2.0 4:4.0 5:10.0 6:5.0 7:3.0 9:1.0 
-0.1269659644667798 0.0 0.13159207224995695 0.14111942455474538 0.0 2:1.0 3:2.0 4:4.0 5:12.0 6:5.0 7:4.0 10:1.0 12:1.0 45:1.0 46:1.0 47:1.0 48:1.0 
-2.0 0.0 0.0 0.0 0.0 2:1.0 3:2.0 4:1.0 5:4.0 6:3.0 7:1.0 9:1.0 10:1.0 
-0.0 0.5914850243540436 0.10735199956382382 0.08164735284962306 0.05609262818282207 2:1.0 3:2.0 4:5.0 5:8.0 6:4.0 7:1.0 12:1.0 49:1.0 50:1.0 
-0.0 0.27405857485886354 0.0 0.0 0.0 2:1.0 3:2.0 4:4.0 5:12.0 6:8.0 7:2.0 12:1.0 51:1.0 52:1.0 53:1.0 54:1.0 
-0.0 2.0 0.0 0.0 0.0 2:1.0 3:2.0 4:1.0 5:9.0 6:7.0 7:3.0 9:1.0 
-0.0 0.6876136659505123 0.1931742002287493 0.1540282483841872 0.11175876233329725 2:1.0 3:2.0 4:3.0 5:4.0 6:2.0 7:1.0 12:1.0 55:1.0 
-0.0 0.6118428794583906 0.0 0.0 0.0 3:2.0 4:2.0 5:19.0 6:17.0 7:2.0 8:1.0 28:1.0 35:1.0 56:1.0 57:1.0 
-0.0 2.0 0.0 0.0 0.0 3:2.0 4:2.0 5:17.0 6:16.0 7:1.0 28:1.0 35:1.0 
-0.0 2.0 2.0 2.0 2.0 2:1.0 3:2.0 4:1.0 5:11.0 6:11.0 7:1.0 9:1.0 
-0.0 2.0 0.0 2.0 0.0 2:1.0 3:2.0 4:3.0 5:5.0 6:3.0 7:1.0 9:1.0 
-0.0 0.7872815806928396 0.17843640360824045 0.1487075797788503 0.11148802766281062 2:1.0 3:2.0 4:1.0 5:3.0 6:3.0 7:1.0 12:1.0 58:1.0 
-0.0 1.1939707907217447 0.10257039290227454 0.07777931762043794 0.524076939844657 2:1.0 3:2.0 4:1.0 5:8.0 6:8.0 7:1.0 12:1.0 59:1.0 60:1.0 
-0.0 0.0 0.0 0.07672285936133394 0.0 2:1.0 3:2.0 4:3.0 5:4.0 6:2.0 7:1.0 9:1.0 
-0.0 2.0 0.0 0.0 0.0 2:1.0 3:2.0 4:2.0 5:5.0 6:4.0 7:1.0 9:1.0 
-0.0 0.0 0.04551177966764143 0.14462073220382254 0.27155941882601176 3:2.0 4:3.0 5:9.0 6:5.0 7:1.0 28:1.0 62:1.0 63:2.0 
-0.0 0.0 0.0 0.0 0.6449840141062553 3:2.0 4:2.0 5:11.0 6:10.0 7:1.0 28:1.0 62:1.0 
-0.0 2.0 2.0 2.0 2.0 2:1.0 3:2.0 4:3.0 5:10.0 6:8.0 7:1.0 9:1.0 
-0.06326285657057346 0.0 0.0 0.0 0.0 1:1.0 2:1.0 3:2.0 4:3.0 5:4.0 6:2.0 7:1.0 
-0.4894733253492497 0.0 0.0 0.0 0.0 1:1.0 2:1.0 3:2.0 4:3.0 5:4.0 6:2.0 7:1.0 
-0.0 2.0 2.0 0.789252097448184 0.0 2:1.0 3:2.0 4:2.0 5:9.0 6:6.0 7:1.0 9:1.0 64:2.0 
-0.0 2.0 2.0 2.0 2.0 2:1.0 3:2.0 4:3.0 5:9.0 6:7.0 7:1.0 9:1.0 
-0.0 0.3756368260615608 0.24257735403384964 0.16269402364599403 0.09467614217426955 3:2.0 4:3.0 5:10.0 6:8.0 7:1.0 8:1.0 65:1.0 66:1.0 67:1.0 
-0.0 2.0 2.0 0.0 0.0 2:1.0 3:2.0 4:5.0 5:12.0 6:6.0 7:3.0 9:1.0 
-0.0 0.3143404436432573 0.0 0.47141652667714046 0.14229600350063049 2:1.0 3:2.0 4:6.0 5:11.0 6:4.0 7:2.0 11:1.0 12:1.0 15:1.0 69:1.0 70:1.0 
-0.13696616052010635 2.0 1.3092557387138042 0.25026342283881037 0.0 2:1.0 3:2.0 4:5.0 5:10.0 6:5.0 7:1.0 10:1.0 12:1.0 71:1.0 72:1.0 
-0.0 1.5717700511200126 1.484057134101042 1.1455540912313176 0.8681945306410326 3:2.0 4:1.0 5:1.0 6:1.0 7:1.0 8:1.0 73:1.0 
-0.0 1.560922680677721 0.17844003217898458 0.14870221175695852 0.11152916660451669 2:1.0 3:2.0 4:1.0 5:3.0 6:3.0 7:1.0 12:1.0 74:1.0 
-0.0 1.449958203373676 1.5531693323239422 0.4891089724030649 0.6707366030748153 3:2.0 4:3.0 5:8.0 6:5.0 7:2.0 8:1.0 52:1.0 75:1.0 
-0.0 2.0 0.0 0.0 0.0 2:1.0 3:2.0 4:1.0 5:10.0 6:8.0 7:3.0 9:1.0 
-0.0 2.0 0.0 2.0 0.0 2:1.0 3:2.0 4:3.0 5:5.0 6:3.0 7:1.0 9:1.0 
-0.0 2.0 0.0 2.0 2.0 2:1.0 3:2.0 4:1.0 5:9.0 6:9.0 7:1.0 9:1.0 
-0.0 0.0 2.0 2.0 2.0 2:1.0 3:2.0 4:4.0 5:5.0 6:2.0 7:1.0 9:1.0 
-0.0 0.44025691522845906 0.1822456870760753 0.1495201513764606 0.11152765872966562 2:1.0 3:2.0 4:2.0 5:2.0 6:1.0 7:1.0 12:1.0 77:1.0 
-0.0 2.0 2.0 2.0 2.0 2:1.0 3:2.0 4:3.0 5:8.0 6:6.0 7:1.0 9:1.0 
-0.0 0.7872098301483784 0.17843212027230315 0.14869951150020916 0.11155074258604791 2:1.0 3:2.0 4:1.0 5:3.0 6:3.0 7:1.0 12:1.0 78:1.0 
-0.15497223212395816 0.047334817654303474 0.0 0.3101566321974027 0.3755638993695488 2:1.0 3:2.0 4:3.0 5:9.0 6:5.0 7:2.0 11:1.0 12:1.0 79:1.0 80:1.0 
-2.0 0.0 0.0 0.0 0.0 1:1.0 2:1.0 3:2.0 4:2.0 5:5.0 6:4.0 7:1.0 
-0.0 0.3092424556387031 0.14692199946523346 0.03734434912100839 0.03645609650163323 2:1.0 3:2.0 4:3.0 5:13.0 6:6.0 7:5.0 12:1.0 64:1.0 81:1.0 82:1.0 83:1.0 
-0.0 0.0 0.0 0.0 2.0 2:1.0 3:2.0 4:2.0 5:2.0 6:1.0 7:1.0 9:1.0 
-2.0 2.0 0.0 0.0 0.0 2:1.0 3:2.0 4:1.0 5:8.0 6:6.0 7:2.0 9:1.0 10:1.0 
-0.0 2.0 0.0 0.0 0.0 2:1.0 3:2.0 4:1.0 5:15.0 6:11.0 7:5.0 9:1.0 
-0.0 2.0 0.0 0.0 0.0 2:1.0 3:2.0 4:1.0 5:7.0 6:7.0 7:1.0 9:1.0 
-2.0 0.0 0.0 0.0 0.0 2:1.0 3:2.0 4:1.0 5:5.0 6:4.0 7:1.0 9:1.0 10:1.0 
-0.0 2.0 0.0 0.0 0.0 2:1.0 3:2.0 4:1.0 5:6.0 6:6.0 7:1.0 9:1.0 
-0.0 0.0 0.0 0.0 2.0 3:2.0 4:1.0 5:5.0 6:4.0 7:1.0 10:1.0 28:1.0 84:1.0 
-0.0 2.0 0.0 2.0 0.0 2:1.0 3:2.0 4:2.0 5:7.0 6:6.0 7:1.0 9:1.0 
-0.0 1.059918264624295 0.0 0.0 0.0 2:1.0 3:2.0 4:1.0 5:11.0 6:11.0 7:1.0 12:1.0 84:2.0 85:1.0 86:1.0 
-2.0 0.0 0.0 0.0 0.0 2:1.0 3:2.0 4:1.0 5:4.0 6:3.0 7:1.0 9:1.0 10:1.0 
-0.0 2.0 0.0 0.0 0.0 2:1.0 3:2.0 4:1.0 5:10.0 6:8.0 7:3.0 9:1.0 
-0.0 0.5198854202539076 0.16807403541969226 0.2157117745714585 0.11821775788648699 2:1.0 3:2.0 4:5.0 5:14.0 6:8.0 7:3.0 12:1.0 87:1.0 88:1.0 89:1.0 90:1.0 91:1.0 
-0.0 2.0 0.0 0.0 0.0 2:1.0 3:2.0 4:1.0 5:4.0 6:4.0 7:1.0 9:1.0 
-0.0 2.0 0.0 0.0 0.0 2:1.0 3:2.0 4:1.0 5:6.0 6:6.0 7:1.0 9:1.0 
-0.0 2.0 0.0 2.0 0.11864413270145453 2:1.0 3:2.0 4:1.0 5:8.0 6:8.0 7:1.0 12:1.0 92:1.0 93:1.0 
-0.6064020983971626 0.08434110064666579 0.0 0.1698247578498331 0.19891447903966322 2:1.0 3:2.0 4:1.0 5:6.0 6:4.0 7:2.0 10:1.0 12:1.0 15:1.0 94:1.0 95:1.0 
-0.0 2.0 0.0 0.0 0.0 2:1.0 3:2.0 4:1.0 5:4.0 6:4.0 7:1.0 9:1.0 
-0.0 0.787283230948879 0.17843397198705227 0.14872368535651492 0.11145713872079727 2:1.0 3:2.0 4:1.0 5:3.0 6:3.0 7:1.0 12:1.0 96:1.0 
-0.0 2.0 0.0 0.0 0.0 2:1.0 3:2.0 4:1.0 5:9.0 6:7.0 7:3.0 9:1.0 
-0.0 1.0113614181923567 0.006873821468417094 0.036764716903836876 0.0 2:1.0 3:2.0 4:3.0 5:7.0 6:5.0 7:1.0 12:1.0 97:1.0 98:1.0 
-0.0 0.0 0.0 0.0 0.06850516766213016 2:1.0 3:2.0 4:1.0 5:2.0 6:1.0 7:1.0 12:1.0 64:1.0 99:1.0 
-0.0 2.0 0.0 0.0 0.0 2:1.0 3:2.0 4:1.0 5:5.0 6:5.0 7:1.0 9:1.0 
-0.0 2.0 2.0 2.0 0.36384917699789565 2:1.0 3:2.0 4:3.0 5:7.0 6:5.0 7:1.0 9:1.0 
-0.0 0.7872754232826401 0.17843785741487578 0.14869813619907507 0.1114901408810092 2:1.0 3:2.0 4:1.0 5:3.0 6:3.0 7:1.0 12:1.0 100:1.0 
-0.0 2.0 0.0 0.0 0.0 2:1.0 3:2.0 4:1.0 5:6.0 6:6.0 7:1.0 9:1.0 
-0.0 2.0 0.0 0.0 0.0 2:1.0 3:2.0 4:1.0 5:4.0 6:4.0 7:1.0 9:1.0 
-0.0 2.0 2.0 0.0 2.0 2:1.0 3:2.0 4:9.0 5:17.0 6:6.0 7:4.0 9:1.0 
-0.0 2.0 0.17615643107469478 0.14752090086982036 0.11146719917758405 2:1.0 3:2.0 4:1.0 5:2.0 6:2.0 7:1.0 12:1.0 101:1.0 
-0.0 2.0 0.0 0.0 0.0 2:1.0 3:2.0 4:1.0 5:7.0 6:6.0 7:2.0 9:1.0 
-0.0 0.787277437593833 0.17843754317659133 0.14871352997356052 0.11152071750671029 2:1.0 3:2.0 4:1.0 5:3.0 6:3.0 7:1.0 12:1.0 102:1.0 
-0.4072577511044649 0.0 0.0 0.4602721519183254 0.18857586110724275 2:1.0 3:2.0 4:1.0 5:8.0 6:5.0 7:2.0 11:2.0 12:1.0 15:1.0 52:1.0 103:1.0 
-0.0 0.9387252324656347 0.9682780185275547 0.08122486554474183 0.056299531972044306 2:1.0 3:2.0 4:3.0 5:10.0 6:8.0 7:1.0 12:1.0 105:1.0 106:1.0 
-0.0 2.0 0.0 0.0 0.0 2:1.0 3:2.0 4:1.0 5:6.0 6:6.0 7:1.0 9:1.0 
-0.0 0.0 0.0 2.0 0.0 2:1.0 3:2.0 4:3.0 5:4.0 6:2.0 7:1.0 9:1.0 
-0.0 1.5406248741213684 0.0 0.0 1.0484706533689772 2:1.0 3:2.0 4:1.0 5:10.0 6:9.0 7:1.0 12:1.0 37:1.0 107:1.0 108:1.0 109:1.0 
-0.0 2.0 0.0 0.0 0.0 2:1.0 3:2.0 4:1.0 5:6.0 6:6.0 7:1.0 9:1.0 
-0.13464570887649338 0.03222020331671714 0.0 0.0 0.0 2:1.0 3:2.0 4:2.0 5:11.0 6:9.0 7:1.0 11:1.0 12:1.0 110:1.0 111:1.0 
-0.0 1.9160311682629871 0.6718664066177313 0.14659025945494922 0.14602226753862343 2:1.0 3:2.0 4:3.0 5:11.0 6:8.0 7:1.0 12:1.0 21:1.0 112:1.0 113:1.0 114:1.0 
-0.0 0.0 0.06897586002659872 0.0 0.9307677317834636 3:2.0 4:1.0 5:12.0 6:11.0 7:1.0 10:1.0 28:1.0 104:1.0 
-0.22381817708880974 0.0 0.0 0.0 0.0 2:1.0 3:2.0 4:1.0 5:2.0 6:2.0 7:1.0 9:1.0 
-0.0 0.5457116514114572 0.013164512850263634 0.0033959090460083034 0.0 2:1.0 3:2.0 4:2.0 5:9.0 6:8.0 7:1.0 12:1.0 61:1.0 84:1.0 115:1.0 116:1.0 
-0.0 2.0 0.21110013027127705 0.16285464689728382 0.11230956703248512 2:1.0 3:2.0 4:4.0 5:9.0 6:6.0 7:1.0 12:1.0 117:1.0 
-0.0 2.0 0.0 0.0 0.0 2:1.0 3:2.0 4:2.0 5:4.0 6:3.0 7:1.0 9:1.0 
-0.0 2.0 0.0 0.0 0.0 2:1.0 3:2.0 4:1.0 5:4.0 6:4.0 7:1.0 9:1.0 
-0.0 2.0 0.0 0.0 0.0 2:1.0 3:2.0 4:1.0 5:7.0 6:7.0 7:1.0 9:1.0 
-0.0 0.0 0.0 2.0 0.0 3:2.0 4:3.0 5:5.0 6:3.0 7:1.0 9:1.0 29:1.0 
-0.0 2.0 0.0 2.0 2.0 2:1.0 3:2.0 4:1.0 5:10.0 6:10.0 7:1.0 9:1.0 
-0.0 1.2416902213154095 0.5578225296875273 0.5241722480136422 0.26100554603787196 2:1.0 3:2.0 4:1.0 5:7.0 6:7.0 7:1.0 118:1.0 119:1.0 120:1.0 
-0.0 0.0 0.7820899416926475 0.0 0.0 2:1.0 3:2.0 4:3.0 5:5.0 6:3.0 7:1.0 12:1.0 121:1.0 
-0.0 2.0 0.0 0.0 0.0 2:1.0 3:2.0 4:1.0 5:5.0 6:5.0 7:1.0 9:1.0 
-0.0 0.6093105099321248 0.06632859651787598 0.05300331234339317 0.03743882719640165 2:1.0 3:2.0 4:2.0 5:9.0 6:8.0 7:1.0 12:1.0 122:1.0 123:1.0 124:1.0 
-2.0 0.0 0.0 0.0 0.0 2:1.0 3:2.0 4:1.0 5:7.0 6:3.0 7:3.0 9:1.0 10:1.0 21:1.0 
-0.0 2.0 2.0 2.0 0.104306535141586 2:1.0 3:2.0 4:1.0 5:5.0 6:4.0 7:1.0 9:1.0 43:1.0 
-0.0 0.3896138539781087 0.0 0.2256545213687719 0.09087135760079026 2:1.0 3:2.0 4:3.0 5:8.0 6:5.0 7:2.0 12:1.0 15:1.0 126:1.0 127:1.0 
-2.0 0.0 0.0 0.0 0.0 1:1.0 2:1.0 3:2.0 4:1.0 5:3.0 6:3.0 7:1.0 
-0.0 0.7872939942549807 0.17843499537426052 0.1486998111742467 0.11154945422372996 2:1.0 3:2.0 4:1.0 5:3.0 6:3.0 7:1.0 12:1.0 128:1.0 
-0.0 2.0 0.0 0.0 2.0 2:1.0 3:2.0 4:1.0 5:13.0 6:11.0 7:3.0 9:1.0 
-0.0 2.0 0.0 0.0 0.0 2:1.0 3:2.0 4:1.0 5:7.0 6:7.0 7:1.0 9:1.0 
-0.0 2.0 0.0 0.0 0.0 2:1.0 3:2.0 4:1.0 5:5.0 6:5.0 7:1.0 9:1.0 
-0.0 1.3816274760784684 0.18545887100082542 0.1525236270129405 0.11161002784806703 2:1.0 3:2.0 4:1.0 5:6.0 6:6.0 7:1.0 12:1.0 129:1.0 
-0.0 0.6909699523090652 0.10019293334698619 0.07815584330203112 0.05585855767134297 2:1.0 3:2.0 4:1.0 5:5.0 6:4.0 7:1.0 12:1.0 43:1.0 130:1.0 131:1.0 
-0.0 2.0 0.0 2.0 0.0 2:1.0 3:2.0 4:2.0 5:7.0 6:6.0 7:1.0 9:1.0 
-0.0 1.9376587480048644 0.0 0.0 0.0 2:1.0 3:2.0 4:1.0 5:5.0 6:3.0 7:3.0 12:1.0 132:1.0 
-0.0 2.0 2.0 2.0 2.0 2:1.0 3:2.0 4:7.0 5:15.0 6:6.0 7:3.0 10:1.0 133:1.0 
-0.0 2.0 0.0 0.0 0.0 2:1.0 3:2.0 4:1.0 5:6.0 6:6.0 7:1.0 9:1.0 
-0.0 1.4675291923240743 0.14888792133923684 0.0 0.03821264682207764 2:1.0 3:2.0 4:5.0 5:14.0 6:9.0 7:1.0 12:1.0 135:1.0 136:1.0 137:1.0 138:1.0 
-0.0 1.2610708297373736 2.0 2.0 0.4186465586204889 2:1.0 3:2.0 4:3.0 5:5.0 6:2.0 7:2.0 12:1.0 139:1.0 140:1.0 
-0.0 2.0 0.0 2.0 2.0 2:1.0 3:2.0 4:1.0 5:9.0 6:9.0 7:1.0 9:1.0 
-0.0 0.0 0.0 2.0 0.0 2:1.0 3:2.0 4:3.0 5:4.0 6:2.0 7:1.0 9:1.0 
-0.0 2.0 0.0 0.0 1.737985909685695 2:1.0 3:2.0 4:1.0 5:7.0 6:7.0 7:1.0 9:1.0 
-0.0 2.0 0.0 0.0 2.0 2:1.0 3:2.0 4:3.0 5:8.0 6:4.0 7:1.0 9:1.0 21:2.0 
-0.0 1.01569979970036 0.237708827531874 0.20142394525278923 0.38368705627551875 2:1.0 3:2.0 4:3.0 5:8.0 6:5.0 7:1.0 12:1.0 37:1.0 141:1.0 142:1.0 
-0.0 1.2919934545758198 0.09650932030867908 0.07627171221127584 0.055804460608780526 2:1.0 3:2.0 4:1.0 5:6.0 6:6.0 7:1.0 12:1.0 143:1.0 144:1.0 
-0.0 1.2079792496053583 0.06187803425335562 0.0 0.31047144269849836 2:1.0 3:2.0 4:3.0 5:10.0 6:7.0 7:1.0 12:1.0 80:1.0 145:1.0 146:1.0 147:1.0 
-0.0 0.5966087024715241 0.4820856413268943 0.005195074547446303 0.0 2:1.0 3:2.0 4:4.0 5:16.0 6:12.0 7:2.0 12:1.0 139:1.0 148:1.0 149:1.0 150:1.0 151:1.0 152:1.0 
-0.4292368433326657 1.7454985106227185 0.9826045533575576 0.24055985711119773 0.27776306231267067 2:1.0 3:2.0 4:4.0 5:14.0 6:6.0 7:2.0 10:2.0 12:1.0 21:1.0 37:1.0 72:1.0 153:1.0 154:1.0 
-0.0 2.0 0.0 0.0 0.0 2:1.0 3:2.0 4:1.0 5:4.0 6:4.0 7:1.0 9:1.0 
-2.0 0.0 0.0 0.0 0.0 1:1.0 2:1.0 3:2.0 4:2.0 5:3.0 6:2.0 7:1.0 
-0.0 2.0 0.0 0.0 0.0 2:1.0 3:2.0 4:1.0 5:5.0 6:5.0 7:1.0 9:1.0 
-0.0 2.0 0.0 0.0 0.0 2:1.0 3:2.0 4:2.0 5:7.0 6:5.0 7:2.0 9:1.0 
-0.0 2.0 0.0 0.0 0.0 2:1.0 3:2.0 4:1.0 5:9.0 6:7.0 7:3.0 8:1.0 9:1.0 
-0.0 2.0 2.0 2.0 2.0 2:1.0 3:2.0 4:1.0 5:17.0 6:16.0 7:2.0 9:1.0 
-0.0 2.0 0.0 0.0 0.0 2:1.0 3:2.0 4:1.0 5:4.0 6:4.0 7:1.0 9:1.0 
-0.0 0.26574615643108224 0.0 0.2232616234251923 0.09072404915627015 2:1.0 3:2.0 4:2.0 5:6.0 6:4.0 7:2.0 12:1.0 15:1.0 155:1.0 156:1.0 
-0.0 1.4716199083660828 0.5890104635561566 0.49361109237056366 0.1960584828788542 2:1.0 3:2.0 4:3.0 5:12.0 6:10.0 7:1.0 48:1.0 157:1.0 158:1.0 159:1.0 
-0.0 2.0 0.0 0.2877024569178367 2.0 2:1.0 3:2.0 4:1.0 5:11.0 6:10.0 7:1.0 9:1.0 21:1.0 
-0.0 0.04762042306132738 0.0652160891763961 0.04463186283095066 0.03687086754984031 2:1.0 3:2.0 4:4.0 5:7.0 6:2.0 7:3.0 12:1.0 160:1.0 161:1.0 162:1.0 
-0.0 2.0 0.0 2.0 0.0 2:1.0 3:2.0 4:3.0 5:5.0 6:3.0 7:1.0 9:1.0 
-0.0 0.5917083448659967 0.09153270450166408 0.07558252612278299 0.055756658695037625 2:1.0 3:2.0 4:1.0 5:5.0 6:5.0 7:1.0 12:1.0 163:1.0 164:1.0 
-0.0 1.2752331234198777 0.0 0.0 0.0 3:2.0 4:1.0 5:12.0 6:12.0 7:1.0 28:1.0 35:1.0 
-0.0 2.0 0.0 0.0 0.0 2:1.0 3:2.0 4:1.0 5:4.0 6:4.0 7:1.0 9:1.0 
-0.0 2.0 0.0 2.0 2.0 2:1.0 3:2.0 4:1.0 5:9.0 6:9.0 7:1.0 9:1.0 
-0.0 0.0 0.10326704636277895 0.0 0.0063607112690509185 3:2.0 4:5.0 5:16.0 6:12.0 7:1.0 28:1.0 38:1.0 
-0.0 1.0345816944401571 0.36531210214721244 0.15315510152127548 0.1116739625869216 2:1.0 3:2.0 4:2.0 5:5.0 6:4.0 7:1.0 12:1.0 165:1.0 
-0.0 2.0 0.0 0.0 0.0 2:1.0 3:2.0 4:1.0 5:4.0 6:4.0 7:1.0 9:1.0 
-0.0 1.8932945203770275 0.0 0.0 0.0 2:1.0 3:2.0 4:1.0 5:3.0 6:3.0 7:1.0 9:1.0 
-0.0 0.0 0.3595628529329688 0.20180844795250572 0.0 2:1.0 3:2.0 4:1.0 5:8.0 6:8.0 7:1.0 12:1.0 93:1.0 166:1.0 167:1.0 
-0.4174546586867361 0.0 0.0 0.0 0.09345369393116043 1:1.0 2:1.0 3:2.0 4:1.0 5:3.0 6:2.0 7:1.0 138:1.0 
-0.0 2.0 1.657219002639482 2.0 0.0 2:1.0 3:2.0 4:3.0 5:5.0 6:3.0 7:1.0 9:1.0 
-0.0 0.5890832363636637 0.17615781812342926 0.14751106530873165 0.11146475992463098 2:1.0 3:2.0 4:1.0 5:2.0 6:2.0 7:1.0 12:1.0 125:1.0 
-0.0 2.0 0.2797048246999907 0.0 2.0 2:1.0 3:2.0 4:3.0 5:14.0 6:7.0 7:3.0 9:1.0 21:3.0 
-0.0 2.0 0.0 0.0 0.0 2:1.0 3:2.0 4:1.0 5:3.0 6:3.0 7:1.0 9:1.0 
-0.0 1.1099984131079388 0.1870259106821038 0.0 0.4895664466915309 3:2.0 4:4.0 5:23.0 6:15.0 7:5.0 8:1.0 10:1.0 12:1.0 88:1.0 168:1.0 169:1.0 170:1.0 171:1.0 172:1.0 173:1.0 
-0.0 0.737021373362332 0.20165509271671725 0.1572654571383217 0.11186968927413671 2:1.0 3:2.0 4:4.0 5:5.0 6:2.0 7:1.0 12:1.0 174:1.0 
-0.0 2.0 0.0 0.0 0.0 2:1.0 3:2.0 4:2.0 5:4.0 6:3.0 7:1.0 9:1.0 
-0.0 0.7438746651775094 0.0 0.0 0.5093609408127839 1:1.0 2:1.0 3:2.0 4:3.0 5:11.0 6:8.0 7:1.0 21:1.0 
-0.0 2.0 2.0 0.0 0.0 2:1.0 3:2.0 4:3.0 5:10.0 6:6.0 7:3.0 9:1.0 
-0.0 2.0 0.0 2.0 0.0 2:1.0 3:2.0 4:2.0 5:7.0 6:6.0 7:1.0 9:1.0 
-0.0 0.0 0.0 2.0 0.0 3:2.0 4:1.0 5:6.0 6:4.0 7:3.0 9:1.0 29:1.0 
-0.0 2.0 0.0 0.0 0.0 2:1.0 3:2.0 4:1.0 5:3.0 6:3.0 7:1.0 9:1.0 
-0.0 2.0 2.0 2.0 2.0 2:1.0 3:2.0 4:2.0 5:9.0 6:8.0 7:1.0 9:1.0 
-0.0 1.0040484920753885 0.17269819993768581 0.12528363767388256 0.11031986226905861 2:1.0 3:2.0 4:1.0 5:5.0 6:3.0 7:3.0 12:1.0 175:1.0 
-0.0 2.0 0.0 2.0 2.0 2:1.0 3:2.0 4:1.0 5:10.0 6:10.0 7:1.0 9:1.0 
-2.0 0.0 0.0 0.0 0.0 1:1.0 2:1.0 3:2.0 4:1.0 5:4.0 6:4.0 7:1.0 
-0.0 2.0 2.0 2.0 2.0 2:1.0 3:2.0 4:1.0 5:11.0 6:11.0 7:1.0 9:1.0 
-0.0 2.0 0.0 0.0 2.0 2:1.0 3:2.0 4:1.0 5:7.0 6:7.0 7:1.0 9:1.0 
-0.0 2.0 0.0 0.0 0.0 2:1.0 3:2.0 4:1.0 5:4.0 6:4.0 7:1.0 9:1.0 
-2.0 0.0 0.0 0.0 0.0 1:1.0 2:1.0 3:2.0 4:1.0 5:3.0 6:3.0 7:1.0 
-0.0 1.5360488222439477 0.5873405246862343 0.6047609095288106 0.14662779293744801 2:1.0 3:2.0 4:5.0 5:19.0 6:15.0 7:1.0 134:1.0 177:1.0 178:1.0 179:1.0 180:1.0 
-0.0 2.0 0.0 0.0 0.0 2:1.0 3:2.0 4:2.0 5:4.0 6:3.0 7:1.0 9:1.0 
-2.0 2.0 0.0 2.0 2.0 2:1.0 3:2.0 4:1.0 5:9.0 6:8.0 7:1.0 9:1.0 10:1.0 
-0.0 0.27754739923487715 0.2091776837646812 0.008513415819373444 0.2353531856927229 3:2.0 4:4.0 5:10.0 6:7.0 7:1.0 8:1.0 65:1.0 79:1.0 181:1.0 
-0.9075555472217535 0.5053363579785308 0.0 0.0 0.0 2:1.0 3:2.0 4:2.0 5:16.0 6:11.0 7:2.0 10:3.0 12:1.0 15:1.0 52:1.0 182:1.0 183:1.0 184:1.0 
-0.0 2.0 0.0 0.0 0.0 2:1.0 3:2.0 4:1.0 5:4.0 6:4.0 7:1.0 9:1.0 
-0.0 0.508344158398452 0.06237402292921324 0.04351191472843358 0.3379870166950468 2:1.0 3:2.0 4:3.0 5:6.0 6:3.0 7:2.0 12:1.0 185:1.0 186:1.0 
-0.0 2.0 0.0 0.0 0.052885215807167846 2:1.0 3:2.0 4:1.0 5:9.0 6:8.0 7:2.0 12:1.0 15:1.0 94:1.0 177:1.0 
-1.0306467625794342 0.0 0.0 0.0 0.0 2:1.0 3:2.0 4:1.0 5:2.0 6:2.0 7:1.0 9:1.0 
-0.0 0.009218980521810112 0.0 0.0 2.0 2:1.0 3:2.0 4:1.0 5:2.0 6:1.0 7:1.0 9:1.0 43:1.0 
-0.0 0.3180985121829897 0.0 0.0 0.0 2:1.0 3:2.0 4:3.0 5:9.0 6:7.0 7:1.0 12:1.0 187:1.0 188:1.0 189:1.0 
-0.0 1.223667058164442 0.0 0.0 0.16456239125859887 2:1.0 3:2.0 4:2.0 5:5.0 6:3.0 7:2.0 12:1.0 139:1.0 190:1.0 
-2.0 0.0 0.0 0.0 0.0 2:1.0 3:2.0 4:1.0 5:8.0 6:5.0 7:3.0 9:1.0 10:1.0 
-0.0 1.8825807480090584 0.11899248398437039 0.0 0.0 3:2.0 4:2.0 5:17.0 6:14.0 7:1.0 11:1.0 27:1.0 28:1.0 64:1.0 
-0.0 2.0 0.0 2.0 0.0 2:1.0 3:2.0 4:2.0 5:6.0 6:5.0 7:1.0 9:1.0 
-0.0 2.0 0.0 0.0 0.0 2:1.0 3:2.0 4:1.0 5:3.0 6:3.0 7:1.0 9:1.0 
-0.0 0.3647435405728483 0.0 0.0 0.0 2:1.0 3:2.0 4:1.0 5:8.0 6:6.0 7:3.0 9:1.0 
-0.0 2.0 0.0 0.0 2.0 2:1.0 3:2.0 4:1.0 5:6.0 6:5.0 7:1.0 9:1.0 21:1.0 
-0.0 2.0 2.0 0.0 0.21005455956741537 2:1.0 3:2.0 4:3.0 5:13.0 6:9.0 7:3.0 9:1.0 
-0.0 2.0 0.0 0.0 0.0 2:1.0 3:2.0 4:1.0 5:6.0 6:6.0 7:1.0 9:1.0 
-0.0 2.0 0.0 0.0 2.0 2:1.0 3:2.0 4:1.0 5:7.0 6:7.0 7:1.0 9:1.0 
-0.0 0.44470372987879403 0.06172855774094648 0.03808471413502108 0.02806462300600315 2:1.0 3:2.0 4:3.0 5:12.0 6:9.0 7:2.0 12:1.0 191:1.0 192:1.0 193:1.0 194:1.0 
-0.0 2.0 2.0 0.0 2.0 2:1.0 3:2.0 4:3.0 5:11.0 6:8.0 7:2.0 9:1.0 
-0.0 2.0 0.0 0.0 0.0 2:1.0 3:2.0 4:1.0 5:5.0 6:5.0 7:1.0 9:1.0 
-0.0 2.0 0.0 0.0 0.0 2:1.0 3:2.0 4:2.0 5:9.0 6:6.0 7:3.0 9:1.0 
-0.0 0.0 2.0 2.0 1.945083586912668 2:1.0 3:2.0 4:4.0 5:4.0 6:1.0 7:1.0 9:1.0 
-0.0 2.0 2.0 0.0 2.0 2:1.0 3:2.0 4:1.0 5:13.0 6:12.0 7:2.0 9:1.0 
-0.0 2.0 0.0 2.0 2.0 2:1.0 3:2.0 4:1.0 5:8.0 6:8.0 7:1.0 9:1.0 
-0.0 1.8609356186675676 0.8449061152425879 1.025737406591886 0.4428245585064278 2:1.0 3:2.0 4:2.0 5:13.0 6:10.0 7:2.0 11:1.0 111:1.0 195:1.0 
-0.0 2.0 1.304704916740046 1.858017343383296 0.8801578794778545 2:1.0 3:2.0 4:1.0 5:9.0 6:7.0 7:2.0 12:1.0 37:1.0 139:1.0 167:1.0 196:1.0 
-0.0 2.0 0.0 2.0 2.0 2:1.0 3:2.0 4:1.0 5:9.0 6:9.0 7:1.0 9:1.0 
-0.0 2.0 0.0 2.0 2.0 2:1.0 3:2.0 4:1.0 5:8.0 6:8.0 7:1.0 9:1.0 
-1.359973489607967 0.0 0.0 0.0 0.0 3:2.0 4:2.0 5:15.0 6:11.0 7:1.0 10:3.0 28:1.0 35:1.0 
-2.0 2.0 2.0 0.0 0.01893450330074516 2:1.0 3:2.0 4:5.0 5:16.0 6:8.0 7:4.0 9:1.0 10:1.0 
-0.0 2.0 2.0 2.0 2.0 2:1.0 3:2.0 4:4.0 5:8.0 6:5.0 7:1.0 9:1.0 
-0.0 0.8182468418541752 0.0 0.0 0.0 2:1.0 3:2.0 4:1.0 5:7.0 6:7.0 7:1.0 12:1.0 75:1.0 197:1.0 
-0.0 2.0 0.0 2.0 0.0 2:1.0 3:2.0 4:2.0 5:7.0 6:6.0 7:1.0 9:1.0 
-0.0 2.0 0.0 0.0 0.0 2:1.0 3:2.0 4:1.0 5:4.0 6:4.0 7:1.0 9:1.0 
-0.0 2.0 0.0 0.0 0.0 2:1.0 3:2.0 4:1.0 5:3.0 6:3.0 7:1.0 9:1.0 
-0.0 2.0 0.0 2.0 0.0 2:1.0 3:2.0 4:3.0 5:5.0 6:3.0 7:1.0 9:1.0 
-0.9878772709882669 0.0 0.0 0.0 0.0 2:1.0 3:2.0 4:1.0 5:2.0 6:2.0 7:1.0 9:1.0 
-0.0 2.0 2.0 2.0 0.0 2:1.0 3:2.0 4:3.0 5:6.0 6:4.0 7:1.0 9:1.0 
-0.0 2.0 1.3640533913976634 0.9136349723313838 0.11179236452850164 2:1.0 3:2.0 4:1.0 5:7.0 6:7.0 7:1.0 12:1.0 198:1.0 
-2.0 2.0 1.249751410674357 0.0 2.0 2:1.0 3:2.0 4:1.0 5:14.0 6:11.0 7:3.0 9:1.0 10:1.0 
-0.0 0.1765272553805162 0.0 0.009264302798478704 0.021980723652671227 2:1.0 3:2.0 4:3.0 5:15.0 6:10.0 7:4.0 12:1.0 15:1.0 94:1.0 98:1.0 199:2.0 
-0.0 1.0432456976065516 0.6305386419324072 0.3368532900292953 0.4716810414425712 2:1.0 3:2.0 4:1.0 5:5.0 6:4.0 7:2.0 12:1.0 88:1.0 200:1.0 
-0.0 0.0 0.0 2.0 0.0 2:1.0 3:2.0 4:3.0 5:4.0 6:2.0 7:1.0 9:1.0 
-0.0 0.0 0.0 0.0 2.0 2:1.0 3:2.0 4:2.0 5:2.0 6:1.0 7:1.0 9:1.0 
-0.0 2.0 0.0 0.0 0.0 2:1.0 3:2.0 4:1.0 5:11.0 6:9.0 7:3.0 9:1.0 
-0.0 2.0 2.0 2.0 0.8231268884287405 2:1.0 3:2.0 4:2.0 5:5.0 6:3.0 7:1.0 9:1.0 43:1.0 
-0.0 0.0 0.0 0.0 0.13633982947584727 2:1.0 3:2.0 4:2.0 5:2.0 6:1.0 7:1.0 9:1.0 
-0.0 0.2564266866340057 0.0 0.0 0.0 2:1.0 3:2.0 4:1.0 5:11.0 6:11.0 7:1.0 12:1.0 84:2.0 201:1.0 202:1.0 
-0.0 1.0448716635358906 0.8355528170743549 0.7855558945483652 0.39139598815264787 2:1.0 3:2.0 4:1.0 5:6.0 6:6.0 7:1.0 203:1.0 204:1.0 
-0.0 2.0 0.0 0.0 0.0 3:2.0 4:1.0 5:35.0 6:32.0 7:4.0 25:1.0 31:1.0 
-0.0 2.0 2.0 0.0 2.0 2:1.0 3:2.0 4:1.0 5:14.0 6:12.0 7:3.0 9:1.0 
-0.0 0.0 0.21580107404111337 0.0 1.5847647689308255 3:2.0 4:2.0 5:7.0 6:5.0 7:1.0 27:1.0 28:1.0 37:1.0 
-0.0 2.0 0.0 0.0 2.0 2:1.0 3:2.0 4:1.0 5:7.0 6:7.0 7:1.0 9:1.0 
-0.0 0.0 0.066144336989717 0.0 0.0 3:2.0 4:3.0 5:6.0 6:3.0 7:1.0 10:1.0 28:1.0 68:1.0 
-0.0 1.0432588817511537 0.6305139026329339 0.3368669116140247 0.47168735805786227 2:1.0 3:2.0 4:1.0 5:5.0 6:4.0 7:2.0 12:1.0 88:1.0 205:1.0 
-0.0 1.4087034328139072 2.0 0.14987863090796613 0.11146737936982232 2:1.0 3:2.0 4:1.0 5:4.0 6:4.0 7:1.0 12:1.0 206:1.0 
-0.0 0.6098110580183469 0.5964683206849133 0.19564962804814365 0.3833947173616132 2:1.0 3:2.0 4:3.0 5:9.0 6:5.0 7:2.0 12:1.0 37:1.0 207:1.0 208:1.0 
-0.0 2.0 2.0 2.0 2.0 2:1.0 3:2.0 4:5.0 5:10.0 6:6.0 7:1.0 9:1.0 
-0.0 2.0 0.0 0.0 0.0 2:1.0 3:2.0 4:2.0 5:10.0 6:7.0 7:3.0 9:1.0 
-0.0 2.0 2.0 0.0 2.0 2:1.0 3:2.0 4:2.0 5:14.0 6:11.0 7:3.0 9:1.0 
-0.0 2.0 0.0 0.0 2.0 2:1.0 3:2.0 4:2.0 5:7.0 6:5.0 7:1.0 9:1.0 21:1.0 
-0.11743169742288455 0.7635509592069218 0.19261683467814125 0.31599279915503525 0.6722068012574726 2:1.0 3:2.0 4:4.0 5:12.0 6:6.0 7:3.0 10:1.0 12:1.0 15:1.0 88:1.0 209:1.0 210:1.0 211:1.0 
-0.0 0.0 0.0 0.0 0.2552960263824978 3:2.0 4:3.0 5:13.0 6:9.0 7:2.0 8:1.0 11:1.0 65:1.0 80:1.0 213:1.0 
-0.0 2.0 0.0 2.0 2.0 2:1.0 3:2.0 4:1.0 5:9.0 6:9.0 7:1.0 9:1.0 
-0.0 2.0 0.16228149871081723 0.5779372847523954 0.0 2:1.0 3:2.0 4:1.0 5:11.0 6:11.0 7:1.0 12:1.0 94:1.0 167:1.0 214:1.0 
-0.0 2.0 0.0 0.0 0.0 2:1.0 3:2.0 4:1.0 5:4.0 6:4.0 7:1.0 9:1.0 
-0.0 2.0 2.0 0.0 0.0 2:1.0 3:2.0 4:1.0 5:5.0 6:5.0 7:1.0 12:1.0 215:1.0 
-0.0 2.0 0.0 0.0 0.0 2:1.0 3:2.0 4:1.0 5:4.0 6:4.0 7:1.0 9:1.0 
-0.0 0.7370552059090397 0.20164742911923877 0.15723553726100006 0.11187023234680538 2:1.0 3:2.0 4:4.0 5:5.0 6:2.0 7:1.0 12:1.0 216:1.0 
-0.0 2.0 0.0 2.0 0.0 2:1.0 3:2.0 4:2.0 5:7.0 6:6.0 7:1.0 9:1.0 
-0.0 0.726984844685874 0.365638338940528 0.31984278709201847 0.7111185623317143 2:1.0 3:2.0 4:1.0 5:6.0 6:4.0 7:1.0 12:1.0 37:2.0 217:1.0 218:1.0 
-0.0 0.18510377855904722 1.1256991146055482 0.9410164551818592 0.36440030134713325 2:1.0 3:2.0 4:3.0 5:5.0 6:3.0 7:1.0 190:1.0 219:1.0 
-2.0 0.3664555558680029 0.0 1.3492795651593177 0.0 2:1.0 3:2.0 4:1.0 5:5.0 6:4.0 7:1.0 9:1.0 10:1.0 
-0.0 0.4824388453243257 0.0 0.0 0.9254055195820079 3:2.0 4:1.0 5:15.0 6:15.0 7:1.0 28:1.0 38:1.0 
-0.0 2.0 0.656117848590076 2.0 1.7652353429388024 2:1.0 3:2.0 4:3.0 5:4.0 6:2.0 7:1.0 12:1.0 98:1.0 
-2.0 2.0 0.0 2.0 0.0 2:1.0 3:2.0 4:1.0 5:6.0 6:5.0 7:1.0 9:1.0 10:1.0 
-0.0 2.0 2.0 0.0 0.0 2:1.0 3:2.0 4:2.0 5:7.0 6:5.0 7:1.0 9:1.0 64:1.0 
-0.0 2.0 0.0 0.0 0.0 2:1.0 3:2.0 4:1.0 5:6.0 6:6.0 7:1.0 9:1.0 
-2.0 0.0 0.0 0.0 0.0 1:1.0 2:1.0 3:2.0 4:2.0 5:3.0 6:2.0 7:1.0 
-0.0 2.0 0.0 0.0 0.0 2:1.0 3:2.0 4:1.0 5:3.0 6:3.0 7:1.0 9:1.0 
-0.0 2.0 0.0 2.0 2.0 2:1.0 3:2.0 4:1.0 5:8.0 6:8.0 7:1.0 9:1.0 
-0.0 0.3256039655654115 0.0 0.0 0.2837803097276464 2:1.0 3:2.0 4:1.0 5:2.0 6:1.0 7:1.0 9:1.0 43:1.0 
-0.0 0.04808739156240981 0.05107389716923234 0.034351715794606975 0.027712571329880375 2:1.0 3:2.0 4:5.0 5:8.0 6:2.0 7:3.0 12:1.0 220:1.0 221:1.0 222:1.0 223:1.0 
-0.0 0.0 0.04766048553442205 0.0 0.0140684299030549 3:2.0 4:5.0 5:12.0 6:8.0 7:1.0 28:1.0 62:1.0 
-0.0 2.0 2.0 0.0 0.0 2:1.0 3:2.0 4:3.0 5:9.0 6:6.0 7:2.0 9:1.0 
-0.0 0.5762615134521083 0.675029794765262 0.04747040891726135 0.02238035276930792 2:1.0 3:2.0 4:3.0 5:10.0 6:8.0 7:1.0 12:1.0 113:1.0 224:1.0 225:1.0 
-0.0 2.0 0.0 0.0 0.0 2:1.0 3:2.0 4:1.0 5:9.0 6:7.0 7:3.0 9:1.0 
-0.0 2.0 2.0 2.0 2.0 2:1.0 3:2.0 4:1.0 5:11.0 6:11.0 7:1.0 9:1.0 
-2.0 0.0 0.0 2.0 0.0 2:1.0 3:2.0 4:2.0 5:5.0 6:3.0 7:1.0 9:1.0 10:1.0 
-0.0 2.0 0.0 0.0 0.0 2:1.0 3:2.0 4:1.0 5:4.0 6:4.0 7:1.0 9:1.0 
-0.0 0.6876443981737717 0.2737236280055333 0.154017713421713 0.11179669452358922 2:1.0 3:2.0 4:3.0 5:4.0 6:2.0 7:1.0 12:1.0 226:1.0 
-0.0 1.1834070193649548 0.1830656003620768 0.1511700892257673 0.11149978915529847 2:1.0 3:2.0 4:1.0 5:5.0 6:5.0 7:1.0 12:1.0 227:1.0 
-0.0 1.1327045514464111 0.2648713662746146 1.0686203641991843 0.05615811124181717 2:1.0 3:2.0 4:5.0 5:9.0 6:5.0 7:1.0 12:1.0 228:1.0 229:1.0 
-0.0 1.1456834624943044 0.5877325433466648 0.3142438576143108 0.1864027785965085 2:1.0 3:2.0 4:1.0 5:7.0 6:7.0 7:1.0 230:1.0 231:1.0 232:1.0 
-0.0 2.0 0.0 0.0 0.0 2:1.0 3:2.0 4:1.0 5:4.0 6:4.0 7:1.0 9:1.0 
-0.0 0.0 0.0 2.0 0.0 3:2.0 4:1.0 5:8.0 6:5.0 7:3.0 9:1.0 21:1.0 29:1.0 
-0.0 2.0 0.0 2.0 2.0 2:1.0 3:2.0 4:1.0 5:9.0 6:9.0 7:1.0 9:1.0 
-0.0 2.0 0.0 0.0 0.0 2:1.0 3:2.0 4:1.0 5:3.0 6:3.0 7:1.0 9:1.0 
-0.0 0.6162554031835547 0.22775726725794637 0.0833800730626811 0.0562245049506546 2:1.0 3:2.0 4:6.0 5:9.0 6:4.0 7:1.0 12:1.0 233:1.0 234:1.0 
-0.0 2.0 2.0 2.0 2.0 2:1.0 3:2.0 4:8.0 5:15.0 6:7.0 7:2.0 9:1.0 
-0.0 2.0 0.0 0.0 0.0 2:1.0 3:2.0 4:1.0 5:9.0 6:7.0 7:3.0 9:1.0 
-0.0 2.0 0.0 0.0 0.0 2:1.0 3:2.0 4:1.0 5:3.0 6:3.0 7:1.0 9:1.0 
-0.0 0.0 0.0 2.0 0.0 2:1.0 3:2.0 4:3.0 5:4.0 6:2.0 7:1.0 9:1.0 
-0.0 2.0 0.0 2.0 2.0 2:1.0 3:2.0 4:1.0 5:8.0 6:8.0 7:1.0 9:1.0 
-0.0 2.0 0.0 0.0 0.0 2:1.0 3:2.0 4:1.0 5:3.0 6:3.0 7:1.0 9:1.0 
-0.0 0.6908131564304131 0.09273008177224232 0.10434015189958958 0.05580601843863842 2:1.0 3:2.0 4:1.0 5:6.0 6:6.0 7:1.0 12:1.0 235:1.0 236:1.0 
-0.0 2.0 0.0 0.0 0.0 2:1.0 3:2.0 4:1.0 5:9.0 6:7.0 7:3.0 9:1.0 
-0.0 2.0 0.17543633934971115 2.0 0.0 2:1.0 3:2.0 4:3.0 5:5.0 6:3.0 7:1.0 9:1.0 
-2.0 0.0 0.0 0.0 0.0 1:1.0 2:1.0 3:2.0 4:1.0 5:4.0 6:4.0 7:1.0 
-0.0 2.0 0.0 0.0 0.0 2:1.0 3:2.0 4:1.0 5:3.0 6:3.0 7:1.0 9:1.0 
-0.0 0.6815905518228755 0.0 0.0 0.0 2:1.0 3:2.0 4:3.0 5:12.0 6:10.0 7:1.0 12:1.0 65:1.0 237:1.0 238:1.0 
-0.0 2.0 0.0 0.0 2.0 2:1.0 3:2.0 4:3.0 5:6.0 6:2.0 7:1.0 9:1.0 21:2.0 
-0.0 2.0 2.0 2.0 2.0 2:1.0 3:2.0 4:2.0 5:9.0 6:8.0 7:1.0 9:1.0 
-0.0 2.0 0.18306807103266357 2.0 0.11150294547633294 2:1.0 3:2.0 4:1.0 5:5.0 6:5.0 7:1.0 12:1.0 239:1.0 
-0.0 0.5437693490959631 0.26802781133838466 0.12705058355671567 0.25552359562194404 2:1.0 3:2.0 4:3.0 5:11.0 6:6.0 7:3.0 12:1.0 37:1.0 240:1.0 241:1.0 242:1.0 
-0.0 0.0 0.0 0.0 1.7279524577121252 2:1.0 3:2.0 4:3.0 5:3.0 6:1.0 7:1.0 9:1.0 
-0.0 2.0 0.0 0.0 0.0 2:1.0 3:2.0 4:1.0 5:3.0 6:3.0 7:1.0 9:1.0 
-2.0 0.0 0.0 0.0 0.0 1:1.0 2:1.0 3:2.0 4:2.0 5:3.0 6:2.0 7:1.0 
-0.0 1.5799386750576703 0.18785864812018382 0.15395768412428945 0.11178900888482257 2:1.0 3:2.0 4:1.0 5:7.0 6:7.0 7:1.0 12:1.0 243:1.0 
-0.0 1.477298365219648 0.09782443039878534 0.18517239087862736 0.05634869412459347 2:1.0 3:2.0 4:1.0 5:10.0 6:10.0 7:1.0 12:1.0 244:1.0 245:1.0 
-0.0 0.0 0.0 2.0 0.0 3:2.0 4:1.0 5:10.0 6:8.0 7:3.0 9:1.0 29:1.0 
-0.0 2.0 0.0 0.0 0.0 2:1.0 3:2.0 4:1.0 5:3.0 6:3.0 7:1.0 9:1.0 
-0.0 2.0 0.0 1.4331769323454178 0.18110775969769533 1:1.0 2:1.0 3:2.0 4:1.0 5:10.0 6:10.0 7:1.0 
-0.0 2.0 0.0 0.0 0.0 2:1.0 3:2.0 4:1.0 5:5.0 6:5.0 7:1.0 9:1.0 
-0.0 2.0 0.0 2.0 2.0 2:1.0 3:2.0 4:1.0 5:10.0 6:10.0 7:1.0 9:1.0 
-0.0 2.0 0.0 0.0 0.0 2:1.0 3:2.0 4:1.0 5:3.0 6:3.0 7:1.0 9:1.0 
-0.02334290725813515 0.0 0.0 0.0 0.0 2:1.0 3:2.0 4:1.0 5:2.0 6:2.0 7:1.0 9:1.0 
-0.0 0.5890924949654956 0.1761610408270765 0.1475172474266529 0.1115427958948501 2:1.0 3:2.0 4:1.0 5:2.0 6:2.0 7:1.0 12:1.0 44:1.0 
-0.0 0.6058536972732161 0.1101501033873119 0.0 0.38346486262408697 2:1.0 3:2.0 4:4.0 5:16.0 6:12.0 7:2.0 12:1.0 246:1.0 247:1.0 248:1.0 249:1.0 
-0.0 2.0 0.0 0.0 0.0 2:1.0 3:2.0 4:1.0 5:5.0 6:5.0 7:1.0 9:1.0 
-0.0 2.0 0.0 0.0 0.0 2:1.0 3:2.0 4:1.0 5:5.0 6:5.0 7:1.0 9:1.0 
-0.0 2.0 2.0 2.0 2.0 2:1.0 3:2.0 4:2.0 5:9.0 6:8.0 7:1.0 9:1.0 
-2.0 0.0 0.0 0.0 0.0 2:1.0 3:2.0 4:1.0 5:3.0 6:2.0 7:2.0 8:1.0 9:1.0 
-0.0 0.0 0.0 0.0 2.0 2:1.0 3:2.0 4:3.0 5:3.0 6:1.0 7:1.0 9:1.0 
-0.0 0.0 0.04331050797054988 0.0 0.8291175122274634 3:2.0 4:4.0 5:9.0 6:5.0 7:1.0 28:1.0 147:1.0 250:1.0 
-0.0 1.59135899595392 0.0 0.0 0.0 3:2.0 4:1.0 5:3.0 6:3.0 7:1.0 8:1.0 12:1.0 59:1.0 
-0.0 2.0 0.0 0.0 0.0 2:1.0 3:2.0 4:1.0 5:4.0 6:4.0 7:1.0 9:1.0 
-0.0 0.16345104084263065 0.05904178726251234 0.039238849346332115 0.03675813784053095 2:1.0 3:2.0 4:1.0 5:9.0 6:6.0 7:4.0 12:1.0 251:1.0 252:1.0 253:1.0 
-0.0 2.0 2.0 2.0 2.0 2:1.0 3:2.0 4:2.0 5:11.0 6:10.0 7:1.0 9:1.0 
-0.0 2.0 0.0 0.0 0.0 3:2.0 4:1.0 5:16.0 6:16.0 7:1.0 28:1.0 35:1.0 
-0.0 2.0 0.0 0.0 0.0 2:1.0 3:2.0 4:1.0 5:4.0 6:4.0 7:1.0 9:1.0 
-0.0 2.0 0.0 0.0 2.0 2:1.0 3:2.0 4:1.0 5:7.0 6:7.0 7:1.0 9:1.0 
-0.0 2.0 0.0 2.0 2.0 2:1.0 3:2.0 4:1.0 5:8.0 6:8.0 7:1.0 9:1.0 
-0.0 2.0 0.0 2.0 0.0 2:1.0 3:2.0 4:2.0 5:7.0 6:6.0 7:1.0 9:1.0 
-0.0 2.0 0.0 2.0 2.0 2:1.0 3:2.0 4:1.0 5:9.0 6:9.0 7:1.0 9:1.0 
-0.0 2.0 0.0695830497905883 0.0 0.0 2:1.0 3:2.0 4:1.0 5:7.0 6:4.0 7:3.0 8:1.0 9:1.0 43:1.0 
-0.0 0.26365474713745485 0.4092056584394241 0.31424849386163767 0.14915876275855267 2:1.0 3:2.0 4:1.0 5:7.0 6:7.0 7:1.0 230:1.0 254:1.0 255:1.0 
-0.0 2.0 0.0 0.0 0.0 2:1.0 3:2.0 4:1.0 5:3.0 6:3.0 7:1.0 9:1.0 
-0.0 0.2869195322134254 0.17229546996358977 0.017436979748345273 0.2682047828288801 2:1.0 3:2.0 4:1.0 5:6.0 6:5.0 7:2.0 12:1.0 256:1.0 257:1.0 
-0.0 2.0 0.0 2.0 0.0 2:1.0 3:2.0 4:2.0 5:7.0 6:6.0 7:1.0 9:1.0 
-0.0 0.6495676129320302 0.00284096180315457 0.0054099597529408214 0.0 2:1.0 3:2.0 4:1.0 5:7.0 6:7.0 7:1.0 12:1.0 84:1.0 258:1.0 
-0.0 2.0 0.0 0.0 0.0 2:1.0 3:2.0 4:1.0 5:3.0 6:3.0 7:1.0 9:1.0 
-0.0 2.0 2.0 2.0 2.0 2:1.0 3:2.0 4:2.0 5:26.0 6:23.0 7:3.0 9:1.0 
-0.0 2.0 0.0 0.0 0.0 2:1.0 3:2.0 4:1.0 5:6.0 6:6.0 7:1.0 9:1.0 
-2.0 0.19141915662524167 0.0 0.0 0.0 2:1.0 3:2.0 4:1.0 5:5.0 6:4.0 7:1.0 9:1.0 10:1.0 
-0.0 2.0 0.0 0.0 0.0 2:1.0 3:2.0 4:1.0 5:6.0 6:6.0 7:1.0 9:1.0 
-0.0 1.3610385764472288 0.0 0.0 0.0 2:1.0 3:2.0 4:1.0 5:3.0 6:3.0 7:1.0 9:1.0 
-2.0 2.0 1.4064329211905184 2.0 2.0 2:1.0 3:2.0 4:1.0 5:10.0 6:9.0 7:1.0 9:1.0 11:1.0 
-0.0 0.5172971065153423 0.09469045891022039 0.07659640409302317 0.4445936193455097 2:1.0 3:2.0 4:2.0 5:5.0 6:4.0 7:1.0 12:1.0 259:1.0 260:1.0 
-2.0 2.0 2.0 2.0 2.0 2:1.0 3:2.0 4:1.0 5:11.0 6:10.0 7:1.0 9:1.0 10:1.0 
-0.0 2.0 2.0 2.0 2.0 2:1.0 3:2.0 4:1.0 5:29.0 6:27.0 7:3.0 9:1.0 
-0.0 1.3442772725697867 0.7137742833036201 0.74141147260876 0.7673921055129654 2:1.0 3:2.0 4:3.0 5:7.0 6:5.0 7:1.0 261:1.0 262:1.0 263:1.0 
-0.0 1.4596819491261037 0.0 0.0 0.0 2:1.0 3:2.0 4:1.0 5:3.0 6:3.0 7:1.0 9:1.0 
-0.0 2.0 0.0 0.0 0.0 2:1.0 3:2.0 4:1.0 5:3.0 6:3.0 7:1.0 9:1.0 
-0.0 2.0 0.0 0.0 0.0 2:1.0 3:2.0 4:1.0 5:3.0 6:3.0 7:1.0 9:1.0 
-0.0 0.5231469837692114 0.004002632880851898 0.004237707692337362 0.0 2:1.0 3:2.0 4:1.0 5:9.0 6:9.0 7:1.0 12:1.0 84:1.0 264:1.0 265:1.0 
-2.0 0.0 0.0 0.0 0.0 1:1.0 2:1.0 3:2.0 4:1.0 5:3.0 6:3.0 7:1.0 
-0.0 1.0640353250242371 0.1594945888490369 0.06771417376474027 0.08353152421673572 2:1.0 3:2.0 4:5.0 5:21.0 6:13.0 7:2.0 12:1.0 21:1.0 37:2.0 72:1.0 148:1.0 149:1.0 215:1.0 266:1.0 267:1.0 
-0.0 2.0 2.0 0.0 0.7082964178256228 2:1.0 3:2.0 4:5.0 5:19.0 6:10.0 7:6.0 9:1.0 
-2.0 0.0 0.0 0.0 0.0 2:1.0 3:2.0 4:1.0 5:2.0 6:2.0 7:1.0 9:1.0 
-0.0 0.40830109712875995 0.0 0.0 0.0 2:1.0 3:2.0 4:1.0 5:3.0 6:3.0 7:1.0 9:1.0 
-0.2723405795186836 1.2599431913571968 1.0223250798014547 0.5752670198170972 0.43413574547435035 3:2.0 4:1.0 5:5.0 6:5.0 7:1.0 8:1.0 16:1.0 268:1.0 
-0.0 1.4255960021103884 2.0 1.1521904105830074 0.8683161789135888 3:2.0 4:3.0 5:3.0 6:1.0 7:1.0 8:1.0 269:1.0 
-2.0 2.0 0.0 2.0 0.0 2:1.0 3:2.0 4:1.0 5:6.0 6:5.0 7:1.0 9:1.0 10:1.0 
-0.0 2.0 0.0 0.0 0.0 2:1.0 3:2.0 4:1.0 5:5.0 6:5.0 7:1.0 9:1.0 
-0.0 2.0 0.0 0.0 0.0 2:1.0 3:2.0 4:2.0 5:10.0 6:7.0 7:3.0 9:1.0 
-0.0 0.0 0.0 2.0 0.0 2:1.0 3:2.0 4:3.0 5:4.0 6:2.0 7:1.0 9:1.0 
-0.0 0.7872593408425692 0.178431386207314 0.14871353361707124 0.11145429347692853 2:1.0 3:2.0 4:1.0 5:3.0 6:3.0 7:1.0 12:1.0 270:1.0 
-0.0 0.0 0.046636935606054405 0.0 0.9291866193462597 3:2.0 4:1.0 5:3.0 6:3.0 7:1.0 28:1.0 271:1.0 
-0.0 2.0 1.302443980355215 0.0 0.0 2:1.0 3:2.0 4:1.0 5:8.0 6:7.0 7:2.0 12:1.0 84:1.0 
-1.14388849321255 0.0 0.0 0.0 0.0 2:1.0 3:2.0 4:1.0 5:2.0 6:2.0 7:1.0 9:1.0 
-0.0 0.0 0.0 0.3774502915312609 0.0 3:2.0 4:3.0 5:9.0 6:6.0 7:1.0 11:1.0 28:1.0 36:1.0 
-0.0 0.9140975119567939 0.0 0.19708286004578876 1.214577575463193 2:1.0 3:2.0 4:3.0 5:13.0 6:9.0 7:3.0 12:1.0 15:1.0 272:1.0 273:1.0 274:1.0 275:1.0 
-0.0 2.0 0.0 2.0 2.0 2:1.0 3:2.0 4:1.0 5:10.0 6:10.0 7:1.0 9:1.0 
-0.0 2.0 0.0 0.0 0.0 3:2.0 4:1.0 5:20.0 6:17.0 7:1.0 10:3.0 28:1.0 35:1.0 
-0.0 2.0 0.0 0.0 0.0 2:1.0 3:2.0 4:1.0 5:6.0 6:6.0 7:1.0 9:1.0 
-0.0 2.0 2.0 2.0 0.0 2:1.0 3:2.0 4:3.0 5:6.0 6:4.0 7:1.0 9:1.0 
-0.0 1.4116901043772396 0.32947220269602534 0.5297787843138769 0.45213874225270695 2:1.0 3:2.0 4:2.0 5:9.0 6:8.0 7:1.0 12:1.0 276:1.0 277:1.0 
-0.0 2.0 2.0 0.0 1.6893097352368542 2:1.0 3:2.0 4:1.0 5:10.0 6:8.0 7:2.0 9:1.0 43:1.0 
-0.0 0.0505032776826373 0.26159282544694296 0.006269992640104502 0.0 2:1.0 3:2.0 4:3.0 5:11.0 6:8.0 7:2.0 12:1.0 139:1.0 148:1.0 149:1.0 278:1.0 
-0.0 2.0 0.0 0.0 2.0 2:1.0 3:2.0 4:1.0 5:7.0 6:7.0 7:1.0 9:1.0 
-1.9882820194181774 0.0 0.0 0.0 0.0 1:1.0 2:1.0 3:2.0 4:2.0 5:5.0 6:4.0 7:1.0 
-0.0 0.2952982073214628 0.07068177413865269 0.24009588320369593 0.05613022162558788 2:1.0 3:2.0 4:5.0 5:9.0 6:4.0 7:2.0 12:1.0 279:1.0 280:1.0 281:1.0 
-0.0 2.0 0.0 0.0 0.0 2:1.0 3:2.0 4:2.0 5:4.0 6:3.0 7:1.0 9:1.0 
-0.0 2.0 0.9369779028800651 1.8272485769594156 0.0 2:1.0 3:2.0 4:1.0 5:3.0 6:2.0 7:1.0 9:1.0 43:1.0 
-2.0 0.0 0.0 0.0 0.0 1:1.0 2:1.0 3:2.0 4:1.0 5:3.0 6:3.0 7:1.0 
-0.0 2.0 0.0 0.0 0.0 2:1.0 3:2.0 4:1.0 5:3.0 6:3.0 7:1.0 9:1.0 
-2.0 0.0 0.0 0.0 0.0 2:1.0 3:2.0 4:1.0 5:7.0 6:4.0 7:3.0 9:1.0 10:1.0 
-0.0 2.0 2.0 2.0 0.0 2:1.0 3:2.0 4:3.0 5:6.0 6:4.0 7:1.0 9:1.0 
-2.0 0.0 0.0 0.0 0.0 1:1.0 2:1.0 3:2.0 4:1.0 5:5.0 6:5.0 7:1.0 
-2.0 0.0 0.0 0.0 0.0 1:1.0 2:1.0 3:2.0 4:1.0 5:5.0 6:5.0 7:1.0 
-2.0 0.0 0.0 0.14408136494567733 0.0 1:1.0 2:1.0 3:2.0 4:1.0 5:5.0 6:3.0 7:1.0 10:1.0 43:1.0 
-0.0 2.0 0.0 0.0 0.0 2:1.0 3:2.0 4:1.0 5:9.0 6:7.0 7:3.0 9:1.0 
-0.3007485810174894 0.0 0.0 0.0 0.0 3:2.0 4:1.0 5:6.0 6:4.0 7:1.0 10:2.0 28:1.0 36:1.0 
-0.0 2.0 0.0 0.0 0.0 2:1.0 3:2.0 4:1.0 5:4.0 6:4.0 7:1.0 9:1.0 
-2.0 0.0 0.0 0.002816600521346546 0.0 2:1.0 3:2.0 4:1.0 5:5.0 6:4.0 7:1.0 9:1.0 10:1.0 
-0.0 2.0 0.0 0.0 0.0 2:1.0 3:2.0 4:1.0 5:4.0 6:4.0 7:1.0 9:1.0 
-0.0 0.0 0.0 2.0 0.0 3:2.0 4:1.0 5:6.0 6:6.0 7:1.0 9:1.0 29:1.0 
-0.0 0.728890561728414 0.19437996004602429 0.20483612765264658 0.14076904613368424 2:1.0 3:2.0 4:4.0 5:16.0 6:12.0 7:2.0 282:1.0 283:1.0 284:1.0 285:1.0 286:1.0 
-0.0 2.0 0.0 0.0 0.0 3:2.0 4:1.0 5:13.0 6:11.0 7:1.0 21:2.0 28:1.0 35:1.0 
-0.0 2.0 0.0 0.0 0.0 2:1.0 3:2.0 4:1.0 5:3.0 6:3.0 7:1.0 9:1.0 
-0.0 2.0 0.0 0.0 0.0 2:1.0 3:2.0 4:1.0 5:6.0 6:6.0 7:1.0 9:1.0 
-0.0 0.4112504180938361 0.8447556344610162 0.0 0.0 2:1.0 3:2.0 4:7.0 5:14.0 6:5.0 7:3.0 9:1.0 147:1.0 
-0.0 2.0 0.0 0.0 0.0 2:1.0 3:2.0 4:1.0 5:10.0 6:8.0 7:3.0 9:1.0 
-0.0 1.5662738308986965 0.8676797107193948 0.7037572924956002 0.1749100237776262 2:1.0 3:2.0 4:1.0 5:7.0 6:6.0 7:1.0 64:1.0 215:1.0 287:1.0 288:1.0 
-0.0 2.0 0.0 0.0 0.0 2:1.0 3:2.0 4:1.0 5:3.0 6:3.0 7:1.0 9:1.0 
-0.0 1.6946293041580525 0.5721563057513604 0.2428516624159349 0.5347944625586494 2:1.0 3:2.0 4:1.0 5:12.0 6:10.0 7:1.0 9:1.0 176:2.0 
-0.0 0.3190954704757804 0.10048002577740724 0.0734648041431615 0.05559420578667501 2:1.0 3:2.0 4:4.0 5:7.0 6:3.0 7:2.0 12:1.0 289:1.0 290:1.0 
-0.0 0.0 0.05851639657206563 0.0 0.9298299784701854 3:2.0 4:1.0 5:8.0 6:8.0 7:1.0 28:1.0 212:1.0 
-0.0 0.6384438063759985 0.18465971940511147 0.15078840089976572 0.11168057908509195 2:1.0 3:2.0 4:2.0 5:3.0 6:2.0 7:1.0 12:1.0 291:1.0 
-0.0 2.0 0.0 0.0 0.0 2:1.0 3:2.0 4:1.0 5:6.0 6:6.0 7:1.0 9:1.0 
-0.0 2.0 0.0 0.0 0.0 2:1.0 3:2.0 4:2.0 5:5.0 6:4.0 7:1.0 9:1.0 
-0.0 2.0 0.0 0.0 2.0 2:1.0 3:2.0 4:1.0 5:7.0 6:7.0 7:1.0 9:1.0 
-0.0 2.0 0.0 0.0 2.0 2:1.0 3:2.0 4:1.0 5:7.0 6:7.0 7:1.0 9:1.0 
-0.0 2.0 0.0 0.0 0.0 2:1.0 3:2.0 4:1.0 5:3.0 6:3.0 7:1.0 9:1.0 
-2.0 2.0 2.0 2.0 2.0 2:1.0 3:2.0 4:2.0 5:10.0 6:7.0 7:2.0 9:1.0 11:1.0 
-0.0 2.0 0.0 0.0 1.9986318158951701 2:1.0 3:2.0 4:1.0 5:4.0 6:3.0 7:1.0 9:1.0 21:1.0 
-0.0 0.5890862027444229 0.17616001380048493 0.14751368305640145 0.696398249242742 2:1.0 3:2.0 4:1.0 5:2.0 6:2.0 7:1.0 12:1.0 292:1.0 
-0.0 0.0 0.0 2.0 0.0 3:2.0 4:1.0 5:9.0 6:7.0 7:3.0 9:1.0 29:1.0 
-0.0 2.0 0.0 0.0 0.0 2:1.0 3:2.0 4:1.0 5:3.0 6:3.0 7:1.0 9:1.0 
-0.0 0.78727962534691 0.17843535625671395 0.14869665656502337 0.11145758279958595 2:1.0 3:2.0 4:1.0 5:3.0 6:3.0 7:1.0 12:1.0 293:1.0 
-0.08166346748598403 0.0 0.0 0.0 0.0 1:1.0 2:1.0 3:2.0 4:1.0 5:5.0 6:3.0 7:3.0 
-0.0 0.030809960348056897 0.0 0.0 0.0 2:1.0 3:2.0 4:1.0 5:8.0 6:6.0 7:3.0 9:1.0 
-0.0 2.0 0.0 0.0 0.0 2:1.0 3:2.0 4:1.0 5:3.0 6:3.0 7:1.0 9:1.0 
-0.0 2.0 0.0 2.0 2.0 2:1.0 3:2.0 4:1.0 5:9.0 6:9.0 7:1.0 9:1.0 
-0.0 2.0 0.0 0.0 0.0 2:1.0 3:2.0 4:1.0 5:3.0 6:3.0 7:1.0 9:1.0 
-0.0 0.9314874745748949 0.5578351955983568 0.5462494684602628 0.2609972324108452 2:1.0 3:2.0 4:1.0 5:7.0 6:7.0 7:1.0 294:1.0 295:1.0 296:1.0 
-0.0 2.0 0.0 0.0 0.0 2:1.0 3:2.0 4:1.0 5:6.0 6:6.0 7:1.0 9:1.0 
-0.0 2.0 0.46469415054951047 1.0229395825610708 0.0 2:1.0 3:2.0 4:2.0 5:8.0 6:6.0 7:1.0 12:1.0 37:1.0 107:1.0 108:1.0 297:1.0 
-0.0 2.0 0.0 0.0 0.0 2:1.0 3:2.0 4:1.0 5:5.0 6:5.0 7:1.0 9:1.0 
-0.0 1.81110303886589 1.8655920393066023 0.7784368149210742 2.0 2:1.0 3:2.0 4:2.0 5:10.0 6:7.0 7:2.0 76:1.0 133:1.0 
-0.0 2.0 0.0 0.0 0.0 2:1.0 3:2.0 4:1.0 5:3.0 6:3.0 7:1.0 9:1.0 
-2.0 0.0 0.0 0.0 0.0 1:1.0 2:1.0 3:2.0 4:1.0 5:4.0 6:4.0 7:1.0 
-0.0 2.0 2.0 1.4715604102094906 2.0 2:1.0 3:2.0 4:3.0 5:13.0 6:10.0 7:2.0 9:1.0 
-0.0 0.5890846883134289 0.17615523404334074 0.14751717305833303 0.11146280863790951 2:1.0 3:2.0 4:1.0 5:2.0 6:2.0 7:1.0 12:1.0 299:1.0 
-0.0 0.5890855650847574 0.17615745038987404 0.1475036581829799 0.1115253591913958 2:1.0 3:2.0 4:1.0 5:2.0 6:2.0 7:1.0 12:1.0 300:1.0 
-0.0 0.6658836983043016 0.18752268721875062 0.23716711330083956 0.056011191988952054 2:1.0 3:2.0 4:4.0 5:8.0 6:5.0 7:1.0 12:1.0 301:1.0 302:1.0 
-0.0 0.0 0.0 1.6262570256635276 0.0 2:1.0 3:2.0 4:1.0 5:3.0 6:3.0 7:1.0 12:1.0 84:1.0 
-0.0 0.37563483161425526 0.6540504850679039 0.6651806640495266 0.09466842394652046 3:2.0 4:3.0 5:10.0 6:8.0 7:1.0 8:1.0 65:1.0 304:1.0 305:1.0 
-0.0 2.0 0.0 0.0 0.0 2:1.0 3:2.0 4:1.0 5:4.0 6:4.0 7:1.0 9:1.0 
-0.0 0.6876269176293373 0.1931821088208357 0.15403515675116014 0.11177191581440776 2:1.0 3:2.0 4:3.0 5:4.0 6:2.0 7:1.0 12:1.0 306:1.0 
-0.0 2.0 0.0 0.0 0.0 2:1.0 3:2.0 4:2.0 5:4.0 6:3.0 7:1.0 9:1.0 
-0.0 2.0 0.0 2.0 2.0 2:1.0 3:2.0 4:1.0 5:9.0 6:9.0 7:1.0 9:1.0 
-0.0 2.0 2.0 0.0 0.0 2:1.0 3:2.0 4:1.0 5:10.0 6:7.0 7:3.0 9:1.0 43:1.0 
-0.0 2.0 2.0 2.0 2.0 2:1.0 3:2.0 4:1.0 5:12.0 6:12.0 7:1.0 9:1.0 
-0.0 1.6891848915546297 0.4578985644879257 0.3420825535518773 0.0 2:1.0 3:2.0 4:1.0 5:8.0 6:8.0 7:1.0 12:1.0 179:1.0 307:1.0 
-0.0 2.0 0.0 2.0 2.0 2:1.0 3:2.0 4:1.0 5:9.0 6:9.0 7:1.0 9:1.0 
-0.0 0.0 0.0 0.38076980310232583 0.3229213428337458 2:1.0 3:2.0 4:3.0 5:14.0 6:7.0 7:3.0 10:1.0 12:1.0 21:1.0 37:1.0 40:1.0 72:1.0 148:1.0 149:1.0 308:1.0 
-0.0 0.6224136108617554 0.3829687640961246 0.14391946220127833 0.14982442371983684 3:2.0 4:5.0 5:21.0 6:14.0 7:4.0 8:1.0 309:1.0 310:2.0 311:1.0 312:1.0 313:1.0 
-0.0 2.0 0.0 0.0 2.0 2:1.0 3:2.0 4:1.0 5:7.0 6:7.0 7:1.0 9:1.0 
-0.0 2.0 0.0 0.0 0.0 2:1.0 3:2.0 4:1.0 5:3.0 6:3.0 7:1.0 9:1.0 
-0.0 2.0 0.0 2.0 0.0 2:1.0 3:2.0 4:3.0 5:5.0 6:3.0 7:1.0 9:1.0 
-0.0 2.0 0.0 0.0 0.0 2:1.0 3:2.0 4:1.0 5:4.0 6:4.0 7:1.0 9:1.0 
-0.0 0.8627684011557658 0.054046061242145595 0.10543735940621622 0.0 2:1.0 3:2.0 4:1.0 5:10.0 6:10.0 7:1.0 12:1.0 314:1.0 315:1.0 316:1.0 
-0.0 0.0 0.0 2.0 0.0 2:1.0 3:2.0 4:3.0 5:4.0 6:2.0 7:1.0 9:1.0 
-0.0 2.0 0.0 0.0 0.0 2:1.0 3:2.0 4:1.0 5:3.0 6:3.0 7:1.0 9:1.0 
-0.0 0.8063422132872882 0.8419940535356952 0.5282543094053415 0.26123859624802254 2:1.0 3:2.0 4:5.0 5:10.0 6:6.0 7:1.0 317:1.0 318:1.0 319:1.0 
-1.7872988442443145 0.0 0.0 0.0 0.0 1:1.0 2:1.0 3:2.0 4:2.0 5:5.0 6:4.0 7:1.0 
-0.0 0.5210017105413427 0.0 0.0 0.0 2:1.0 3:2.0 4:1.0 5:8.0 6:6.0 7:3.0 9:1.0 
-0.0 2.0 0.0 2.0 0.0 2:1.0 3:2.0 4:2.0 5:7.0 6:6.0 7:1.0 9:1.0 
-0.0 1.707335825838273 0.1958204959914564 0.9567880502518816 0.22371363280717832 2:1.0 3:2.0 4:1.0 5:9.0 6:8.0 7:2.0 88:1.0 213:1.0 237:1.0 320:1.0 
-0.0 2.0 0.0 0.0 0.0 2:1.0 3:2.0 4:1.0 5:3.0 6:3.0 7:1.0 9:1.0 
-0.0 0.991297036888533 0.5292210210944128 0.45676064710441244 0.35994322667871015 2:1.0 3:2.0 4:2.0 5:13.0 6:11.0 7:1.0 37:1.0 322:1.0 323:1.0 324:1.0 325:1.0 
-0.0 0.0 0.05624774927015779 0.0 0.9294129192602179 3:2.0 4:1.0 5:7.0 6:6.0 7:1.0 10:1.0 28:1.0 326:1.0 
-0.0 2.0 0.0 0.0 0.0 2:1.0 3:2.0 4:1.0 5:5.0 6:5.0 7:1.0 9:1.0 
-2.0 0.0 0.0 0.0 0.0 1:1.0 2:1.0 3:2.0 4:1.0 5:3.0 6:3.0 7:1.0 
-0.0 0.5917004660992489 0.09153891411241016 0.07558306277196046 0.055753784379242666 2:1.0 3:2.0 4:1.0 5:5.0 6:5.0 7:1.0 12:1.0 327:1.0 328:1.0 
-0.0 0.0 0.0 2.0 0.0 2:1.0 3:2.0 4:3.0 5:4.0 6:2.0 7:1.0 9:1.0 
-0.0 0.0 0.0 0.0 0.5681059045335861 2:1.0 3:2.0 4:1.0 5:2.0 6:2.0 7:1.0 9:1.0 
-2.0 2.0 0.0 2.0 1.9190031368208922 2:1.0 3:2.0 4:1.0 5:7.0 6:6.0 7:1.0 9:1.0 10:1.0 
-0.0 2.0 0.0 0.0 2.0 2:1.0 3:2.0 4:1.0 5:7.0 6:7.0 7:1.0 9:1.0 
-0.0 2.0 0.0 0.0 0.0 2:1.0 3:2.0 4:1.0 5:5.0 6:5.0 7:1.0 9:1.0 
-0.0 2.0 0.0 0.0 0.0 2:1.0 3:2.0 4:1.0 5:6.0 6:6.0 7:1.0 9:1.0 
-0.0 1.744651520518654 1.3111279853172553 1.034192690093501 0.7567292828466043 3:2.0 4:2.0 5:7.0 6:6.0 7:1.0 8:1.0 98:1.0 298:1.0 
-0.0 2.0 2.0 0.0 2.0 2:1.0 3:2.0 4:3.0 5:12.0 6:9.0 7:2.0 9:1.0 
-0.0 0.0 0.0 0.0 0.9298559290959496 3:2.0 4:2.0 5:1.0 6:1.0 28:1.0 68:1.0 
-0.0 0.33491819149179364 0.0 0.0 0.27416477319152055 2:1.0 3:2.0 4:1.0 5:8.0 6:6.0 7:3.0 12:1.0 52:1.0 88:1.0 331:1.0 
-0.0 1.5289732564473961 1.0499961606352108 1.116151507230379 0.0996815830393317 2:1.0 3:2.0 4:2.0 5:8.0 6:6.0 7:2.0 12:1.0 15:1.0 94:1.0 332:1.0 333:1.0 
-0.0 0.0 0.0 2.0 0.0 3:2.0 4:1.0 5:7.0 6:7.0 7:1.0 9:1.0 29:1.0 
-0.0 0.0 1.5253310162421971 0.0 1.8968582427519616 3:2.0 4:2.0 5:7.0 6:3.0 7:2.0 25:1.0 31:1.0 37:2.0 
-0.0 0.5241522511835495 0.45967463138651754 0.1551019575650698 0.3360781119347128 2:1.0 3:2.0 4:1.0 5:10.0 6:10.0 7:1.0 320:1.0 335:1.0 336:1.0 337:1.0 
-0.0 0.0 0.0 2.0 0.0 2:1.0 3:2.0 4:3.0 5:4.0 6:2.0 7:1.0 9:1.0 
-0.0 0.0 0.05149975905858321 0.0 0.929180073492378 3:2.0 4:1.0 5:5.0 6:4.0 7:1.0 10:1.0 28:1.0 338:1.0 
-0.0 2.0 0.0 0.0 0.0 2:1.0 3:2.0 4:1.0 5:5.0 6:5.0 7:1.0 9:1.0 
-2.0 0.0 0.0 0.0 0.0 1:1.0 2:1.0 3:2.0 4:2.0 5:5.0 6:4.0 7:1.0 
-0.0 2.0 2.0 2.0 2.0 2:1.0 3:2.0 4:1.0 5:17.0 6:17.0 7:1.0 9:1.0 
-0.0 0.4490318673926125 0.6250337447693638 0.3136001308406889 0.4706660244856655 2:1.0 3:2.0 4:1.0 5:7.0 6:4.0 7:4.0 12:1.0 88:1.0 340:1.0 
-0.0 2.0 2.0 2.0 2.0 2:1.0 3:2.0 4:4.0 5:15.0 6:11.0 7:2.0 9:1.0 
-0.0 2.0 0.1784395732123394 0.14870482609632943 0.11145785497983073 2:1.0 3:2.0 4:1.0 5:3.0 6:3.0 7:1.0 12:1.0 341:1.0 
-0.0 0.8935451094403044 0.09117647472198483 0.0653537974306782 0.055444126498118994 2:1.0 3:2.0 4:1.0 5:9.0 6:7.0 7:3.0 12:1.0 342:1.0 343:1.0 
-0.0 2.0 2.0 0.0 2.0 2:1.0 3:2.0 4:3.0 5:11.0 6:8.0 7:2.0 9:1.0 
-0.0 2.0 2.0 1.8596070859362692 1.055864278489212 2:1.0 3:2.0 4:1.0 5:3.0 6:2.0 7:1.0 9:1.0 43:1.0 
-2.0 0.0 0.0 0.0 0.0 1:1.0 2:1.0 3:2.0 4:2.0 5:3.0 6:2.0 7:1.0 
-0.0 2.0 0.0 0.0 0.0 2:1.0 3:2.0 4:1.0 5:3.0 6:3.0 7:1.0 9:1.0 
-0.0 0.5862007412105547 0.16702068894181957 1.5084152396298138 0.08567074922834478 2:1.0 3:2.0 4:7.0 5:15.0 6:9.0 7:1.0 12:1.0 344:1.0 345:2.0 346:1.0 
-0.0 0.589082430184618 0.17615843434994974 0.14751188207961258 0.11155242042870853 2:1.0 3:2.0 4:1.0 5:2.0 6:2.0 7:1.0 12:1.0 347:1.0 
-0.0 2.0 0.17843594767785873 0.14870242000914466 0.11151936289040337 2:1.0 3:2.0 4:1.0 5:3.0 6:3.0 7:1.0 12:1.0 348:1.0 
-0.0 2.0 0.0 0.0 0.0 2:1.0 3:2.0 4:1.0 5:4.0 6:4.0 7:1.0 9:1.0 
-0.0 0.9078872050882253 0.1000401789422928 0.3288315856357893 0.1185415361159285 2:1.0 3:2.0 4:3.0 5:7.0 6:5.0 7:1.0 12:1.0 349:1.0 350:1.0 
-0.0 0.0 0.27573927530663866 0.0 0.0 2:1.0 3:2.0 4:4.0 5:7.0 6:2.0 7:3.0 9:1.0 
-0.0 2.0 0.0 0.0 2.0 2:1.0 3:2.0 4:1.0 5:7.0 6:7.0 7:1.0 9:1.0 
-0.0 0.589089020633046 0.1761594704573633 0.14750720947656648 0.11153756483632518 2:1.0 3:2.0 4:1.0 5:2.0 6:2.0 7:1.0 12:1.0 351:1.0 
-0.0 0.787278891149915 0.17844169880463764 0.14871290755010277 0.11145588483685098 2:1.0 3:2.0 4:1.0 5:3.0 6:3.0 7:1.0 12:1.0 352:1.0 
-0.0 0.5882540881435632 0.22844016193426306 0.15940056773025665 0.11193686757138482 2:1.0 3:2.0 4:5.0 5:5.0 6:1.0 7:1.0 12:1.0 353:1.0 
-0.0 1.1972442417071016 0.4837768923578927 0.3218223220100967 0.4578860318765059 2:1.0 3:2.0 4:3.0 5:16.0 6:8.0 7:4.0 12:1.0 21:2.0 37:1.0 72:1.0 88:1.0 354:1.0 355:1.0 
-0.0 2.0 0.17615472403665153 0.14750658560649935 0.11147499431655825 2:1.0 3:2.0 4:1.0 5:2.0 6:2.0 7:1.0 12:1.0 356:1.0 
-0.0 2.0 0.0 2.0 2.0 2:1.0 3:2.0 4:1.0 5:8.0 6:8.0 7:1.0 9:1.0 
-0.0 2.0 0.0 0.0 0.0 2:1.0 3:2.0 4:1.0 5:6.0 6:6.0 7:1.0 9:1.0 
-0.0 2.0 0.0 0.0 0.0 2:1.0 3:2.0 4:1.0 5:5.0 6:5.0 7:1.0 9:1.0 
-0.0 1.0259469861517898 0.42286120795926363 0.1451290914132234 0.041918895803032964 2:1.0 3:2.0 4:1.0 5:2.0 6:1.0 7:1.0 12:1.0 64:1.0 99:1.0 
-0.0 2.0 0.0 0.0 0.0 2:1.0 3:2.0 4:2.0 5:10.0 6:7.0 7:3.0 9:1.0 
-0.0 0.9544971741812526 0.18321675860054565 0.14609657623934214 0.11171995540901919 2:1.0 3:2.0 4:2.0 5:4.0 6:2.0 7:1.0 12:1.0 21:1.0 357:1.0 
-0.0 2.0 0.0 2.0 2.0 2:1.0 3:2.0 4:1.0 5:8.0 6:8.0 7:1.0 9:1.0 
-0.0 1.4953696381323875 1.6641293195656117 1.5672882840713203 0.7826526546979311 2:1.0 3:2.0 4:1.0 5:3.0 6:3.0 7:1.0 358:1.0 
-0.0 0.0 0.0 2.0 0.0 2:1.0 3:2.0 4:3.0 5:4.0 6:2.0 7:1.0 9:1.0 
-0.0 0.5890794070218538 0.17615940231433577 0.14751373637477358 0.11146145492945254 2:1.0 3:2.0 4:1.0 5:2.0 6:2.0 7:1.0 12:1.0 359:1.0 
-0.0 1.069590364256814 0.8397858660583677 0.7871991353349126 0.3914850465922223 2:1.0 3:2.0 4:2.0 5:7.0 6:6.0 7:1.0 360:1.0 361:1.0 
-0.0 2.0 0.0 0.0 2.0 2:1.0 3:2.0 4:1.0 5:7.0 6:7.0 7:1.0 9:1.0 
-0.0 2.0 0.0677483574758505 0.056489614669654985 0.3387431782273568 2:1.0 3:2.0 4:3.0 5:6.0 6:4.0 7:1.0 12:1.0 186:1.0 362:1.0 
-0.0 0.0 0.0 0.0 1.6408724485476374 2:1.0 3:2.0 4:3.0 5:3.0 6:1.0 7:1.0 9:1.0 
-0.0 0.8365592896870384 0.18696198784964813 0.15196582204426137 0.1117127460445048 2:1.0 3:2.0 4:2.0 5:4.0 6:3.0 7:1.0 12:1.0 363:1.0 
-0.0 2.0 0.0 0.0 0.0 2:1.0 3:2.0 4:2.0 5:5.0 6:4.0 7:1.0 9:1.0 
-0.0 0.9852907228432927 0.18070010239285936 0.1498847761350103 0.11146132089156967 2:1.0 3:2.0 4:1.0 5:4.0 6:4.0 7:1.0 12:1.0 364:1.0 
-0.0 2.0 0.0 0.0 0.0 2:1.0 3:2.0 4:1.0 5:3.0 6:3.0 7:1.0 9:1.0 
-0.0 1.1455852958819768 0.09393549884740801 0.07698712397952615 0.055915932499245334 2:1.0 3:2.0 4:1.0 5:7.0 6:7.0 7:1.0 12:1.0 365:1.0 366:1.0 
-0.0 2.0 2.0 0.8332661255398474 2.0 2:1.0 3:2.0 4:1.0 5:3.0 6:2.0 7:1.0 9:1.0 43:1.0 
-0.0 0.7402896424085085 0.6126277839542243 0.07968220673945198 0.05602507712759566 2:1.0 3:2.0 4:3.0 5:8.0 6:6.0 7:1.0 12:1.0 367:1.0 368:1.0 
-0.0 0.28094610111240176 0.19077520495675468 0.0 0.0 2:1.0 3:2.0 4:1.0 5:12.0 6:12.0 7:1.0 12:1.0 369:1.0 370:1.0 371:1.0 
-0.0 2.0 2.0 2.0 2.0 2:1.0 3:2.0 4:3.0 5:7.0 6:5.0 7:1.0 9:1.0 
-2.0 0.0 0.0323107500456902 0.0 0.13269822066424067 2:1.0 3:2.0 4:1.0 5:3.0 6:2.0 7:1.0 9:1.0 18:1.0 
-0.0 0.0 0.0 2.0 0.0 2:1.0 3:2.0 4:3.0 5:4.0 6:2.0 7:1.0 9:1.0 
-0.0 2.0 2.0 2.0 0.0 2:1.0 3:2.0 4:3.0 5:5.0 6:3.0 7:1.0 9:1.0 
-0.0 0.5108315641765936 0.21026361132652724 0.33754768101380705 0.17358699605708552 3:2.0 4:5.0 5:13.0 6:8.0 7:2.0 8:1.0 287:1.0 372:1.0 373:1.0 374:1.0 
-0.0 2.0 0.0 0.0 2.0 2:1.0 3:2.0 4:1.0 5:7.0 6:7.0 7:1.0 9:1.0 
-0.0 2.0 0.0 0.0 2.0 2:1.0 3:2.0 4:1.0 5:7.0 6:7.0 7:1.0 9:1.0 
-0.0 2.0 0.0 0.0 0.0 3:2.0 4:1.0 5:14.0 6:13.0 7:1.0 10:1.0 28:1.0 35:1.0 
-0.0 2.0 0.0 0.0 2.0 2:1.0 3:2.0 4:1.0 5:7.0 6:7.0 7:1.0 9:1.0 
-0.0 0.7976504816603657 0.8007981627147771 0.062017187273983955 0.05544713292257933 2:1.0 3:2.0 4:2.0 5:12.0 6:8.0 7:4.0 12:1.0 375:1.0 376:1.0 
-0.0 0.2691965890840986 0.0 0.0 0.0 2:1.0 3:2.0 4:1.0 5:8.0 6:7.0 7:2.0 12:1.0 15:1.0 52:1.0 377:1.0 
-0.0 0.0 0.0 0.0 0.013986851930982692 2:1.0 3:2.0 4:1.0 5:2.0 6:2.0 7:1.0 9:1.0 
-0.42940324790152257 2.0 1.8122759655656764 0.4768037644315716 0.0 2:1.0 3:2.0 4:3.0 5:10.0 6:7.0 7:1.0 10:1.0 12:1.0 246:1.0 308:1.0 
-0.0 2.0 0.0 0.0 0.0 2:1.0 3:2.0 4:1.0 5:10.0 6:8.0 7:3.0 9:1.0 
-0.0 2.0 0.0 2.0 0.0 2:1.0 3:2.0 4:2.0 5:7.0 6:6.0 7:1.0 9:1.0 
-0.0 0.0 0.0 0.0 2.0 2:1.0 3:2.0 4:1.0 5:2.0 6:2.0 7:1.0 9:1.0 
-0.0 0.0 0.0 0.0 2.0 2:1.0 3:2.0 4:1.0 5:2.0 6:2.0 7:1.0 9:1.0 
-0.0 2.0 0.0 0.0 0.0 2:1.0 3:2.0 4:1.0 5:3.0 6:3.0 7:1.0 9:1.0 
-0.0 1.809181112745127 2.0 0.8972857717151954 0.8103269507601194 2:1.0 3:2.0 4:6.0 5:13.0 6:8.0 7:1.0 40:1.0 213:1.0 369:1.0 
-0.0 2.0 0.0 2.0 0.0 2:1.0 3:2.0 4:3.0 5:5.0 6:3.0 7:1.0 9:1.0 
-0.0 2.0 0.5279951288750104 0.4404720846035131 0.0 2:1.0 3:2.0 4:1.0 5:10.0 6:10.0 7:1.0 12:1.0 30:1.0 179:1.0 
-0.0 0.6384257341162268 0.1846605659126473 0.150808671190478 0.11152997829268564 2:1.0 3:2.0 4:2.0 5:3.0 6:2.0 7:1.0 12:1.0 378:1.0 
-0.0 2.0 0.0 0.0 2.0 2:1.0 3:2.0 4:1.0 5:7.0 6:7.0 7:1.0 9:1.0 
-0.0 2.0 0.0 0.0 0.0 2:1.0 3:2.0 4:1.0 5:7.0 6:6.0 7:2.0 9:1.0 
-0.0 2.0 2.0 2.0 2.0 2:1.0 3:2.0 4:1.0 5:12.0 6:12.0 7:1.0 9:1.0 
-0.12381908999081209 0.0 0.0 0.0 0.0 1:1.0 2:1.0 3:2.0 4:2.0 5:5.0 6:4.0 7:1.0 
-0.0 1.422966339045995 2.0 1.1475312840209477 0.8682628855973243 3:2.0 4:2.0 5:1.0 7:1.0 8:1.0 379:1.0 
-0.0 0.5890884822065718 0.17615192230418183 0.14752354709858653 0.11148362781206823 2:1.0 3:2.0 4:1.0 5:2.0 6:2.0 7:1.0 12:1.0 380:1.0 
-0.0 0.0 0.0 0.0 1.682959974101771 2:1.0 3:2.0 4:1.0 5:2.0 6:2.0 7:1.0 9:1.0 
-0.0 2.0 0.0 0.0 0.0 2:1.0 3:2.0 4:1.0 5:3.0 6:3.0 7:1.0 9:1.0 
-2.0 0.0 0.0 0.0 0.0 3:2.0 4:1.0 5:10.0 6:6.0 7:2.0 10:3.0 25:1.0 31:1.0 
-0.0 2.0 0.0 0.0 0.0 2:1.0 3:2.0 4:1.0 5:4.0 6:4.0 7:1.0 9:1.0 
-0.0 0.4533538783602319 0.1489819767583039 0.11370733185371934 0.22238949065901525 2:1.0 3:2.0 4:3.0 5:11.0 6:7.0 7:1.0 12:1.0 37:1.0 147:1.0 187:1.0 188:1.0 381:1.0 
-0.0 2.0 0.0 0.0 0.0 2:1.0 3:2.0 4:1.0 5:4.0 6:4.0 7:1.0 9:1.0 
-0.0 2.0 2.0 2.0 2.0 2:1.0 3:2.0 4:1.0 5:10.0 6:9.0 7:1.0 9:1.0 43:1.0 
-0.0 1.1205500286888088 0.3660361815720052 2.0 0.6796751074487537 2:1.0 3:2.0 4:4.0 5:9.0 6:3.0 7:4.0 12:1.0 382:1.0 383:1.0 
-0.0 0.0 0.0 2.0 0.0 3:2.0 4:1.0 5:6.0 6:6.0 7:1.0 9:1.0 29:1.0 
-0.0 2.0 0.0 0.0 0.0 2:1.0 3:2.0 4:1.0 5:5.0 6:5.0 7:1.0 9:1.0 
-0.0 0.6367269022469061 0.2126020426167497 0.5101843879004282 0.1574265219691937 2:1.0 3:2.0 4:1.0 5:8.0 6:7.0 7:2.0 12:1.0 88:1.0 384:1.0 385:1.0 386:1.0 
-0.0 0.04404514453045905 0.17884487399309623 0.1272682711463989 0.11039305686818875 2:1.0 3:2.0 4:2.0 5:5.0 6:2.0 7:3.0 12:1.0 387:1.0 
-0.0 1.5363353086122973 0.7390710417259524 0.7969096064375023 0.2612469426585764 2:1.0 3:2.0 4:3.0 5:10.0 6:8.0 7:1.0 388:1.0 389:1.0 390:1.0 
-0.0 2.0 0.0 0.0 0.0 2:1.0 3:2.0 4:1.0 5:3.0 6:3.0 7:1.0 9:1.0 
-0.0 0.0 0.0 0.0 0.1874550242435021 2:1.0 3:2.0 4:3.0 5:3.0 6:1.0 7:1.0 9:1.0 
-2.0 0.0 0.0 0.0 0.0 1:1.0 2:1.0 3:2.0 4:2.0 5:3.0 6:2.0 7:1.0 
-0.0 2.0 0.0 0.0 0.0 2:1.0 3:2.0 4:1.0 5:3.0 6:3.0 7:1.0 9:1.0 
-0.0 0.0 0.0 0.0 2.0 2:1.0 3:2.0 4:1.0 5:2.0 6:2.0 7:1.0 9:1.0 
-0.0 0.29461170802245146 0.08868788582037677 0.06394273071805624 0.05524214216754114 2:1.0 3:2.0 4:1.0 5:7.0 6:5.0 7:3.0 12:1.0 391:1.0 392:1.0 
-0.0 0.0 0.05598361482589352 0.0 0.9295302025687995 3:2.0 4:1.0 5:7.0 6:7.0 7:1.0 28:1.0 393:1.0 
-0.0 2.0 0.0 0.0 0.0 2:1.0 3:2.0 4:1.0 5:4.0 6:4.0 7:1.0 9:1.0 
-0.0 2.0 0.0 0.0 0.0 2:1.0 3:2.0 4:1.0 5:3.0 6:3.0 7:1.0 9:1.0 
-2.0 2.0 0.0 0.0 0.107230975535669 2:1.0 3:2.0 4:1.0 5:6.0 6:4.0 7:1.0 9:1.0 10:1.0 21:1.0 
-0.18321755586760494 0.0 1.9049613077056569 0.0 0.0 1:1.0 2:1.0 3:2.0 4:1.0 5:5.0 6:2.0 7:3.0 64:1.0 
-0.0 2.0 0.0 0.0 0.0 2:1.0 3:2.0 4:1.0 5:3.0 6:3.0 7:1.0 9:1.0 
-2.0 2.0 2.0 2.0 2.0 2:1.0 3:2.0 4:4.0 5:21.0 6:16.0 7:2.0 9:1.0 10:1.0 
-2.0 0.0 0.0 0.0 0.0 1:1.0 2:1.0 3:2.0 4:3.0 5:10.0 6:5.0 7:3.0 10:1.0 
-0.0 0.13494542630654818 0.0 0.0 0.0 2:1.0 3:2.0 4:1.0 5:9.0 6:6.0 7:2.0 10:1.0 12:1.0 15:1.0 43:1.0 52:1.0 394:1.0 395:1.0 
-0.0 2.0 0.0 2.0 0.0 2:1.0 3:2.0 4:2.0 5:6.0 6:5.0 7:1.0 9:1.0 
-0.0 1.5992912785628586 0.0 2.0 0.5874912821297481 3:2.0 4:3.0 5:9.0 6:7.0 7:1.0 9:1.0 29:1.0 
-0.0 2.0 2.0 2.0 2.0 2:1.0 3:2.0 4:4.0 5:9.0 6:6.0 7:1.0 9:1.0 
-2.0 0.0 0.0 0.0 0.0 2:1.0 3:2.0 4:1.0 5:3.0 6:2.0 7:2.0 8:1.0 9:1.0 
-0.0 0.3324484297280658 0.14708317544718139 0.05359765614254772 0.03741996786862982 2:1.0 3:2.0 4:3.0 5:9.0 6:7.0 7:1.0 12:1.0 238:1.0 396:1.0 397:1.0 
-0.0 0.0 0.0 0.38762413614027474 0.0 3:2.0 4:3.0 5:7.0 6:5.0 11:1.0 27:1.0 28:1.0 
-0.0 2.0 0.0 2.0 2.0 2:1.0 3:2.0 4:1.0 5:8.0 6:8.0 7:1.0 9:1.0 
-2.0 2.0 2.0 2.0 2.0 2:1.0 3:2.0 4:2.0 5:10.0 6:7.0 7:2.0 9:1.0 11:1.0 
-0.0 0.589091381750116 0.17614823833029633 0.1475069722655898 0.11146146668617272 2:1.0 3:2.0 4:1.0 5:2.0 6:2.0 7:1.0 12:1.0 398:1.0 
-0.0 0.9852467793519719 0.18070051060163012 0.14987121496125502 0.11155523211210272 2:1.0 3:2.0 4:1.0 5:4.0 6:4.0 7:1.0 12:1.0 399:1.0 
-0.0 0.8797447226649873 0.0 0.0 0.0 3:2.0 4:1.0 5:19.0 6:18.0 7:1.0 10:1.0 28:1.0 36:1.0 
-0.0 2.0 2.0 0.0 0.0 2:1.0 3:2.0 4:3.0 5:9.0 6:6.0 7:2.0 9:1.0 
-0.0 2.0 2.0 2.0 2.0 2:1.0 3:2.0 4:5.0 5:9.0 6:5.0 7:1.0 9:1.0 
-0.0 2.0 2.0 0.0 2.0 2:1.0 3:2.0 4:1.0 5:17.0 6:14.0 7:4.0 9:1.0 
-0.0 2.0 0.0 0.0 0.0 2:1.0 3:2.0 4:1.0 5:3.0 6:3.0 7:1.0 9:1.0 
-0.0 1.6789355867065092 0.2196175939337072 0.1643168564997253 0.11204500770726052 2:1.0 3:2.0 4:3.0 5:8.0 6:5.0 7:1.0 12:1.0 43:1.0 400:1.0 
-0.0 1.9412505423802555 0.00865829638624733 0.0 0.0 2:1.0 3:2.0 4:4.0 5:6.0 6:3.0 7:1.0 12:1.0 121:1.0 401:1.0 
-0.0 2.0 0.10859847158515125 2.0 2.0 2:1.0 3:2.0 4:1.0 5:10.0 6:10.0 7:1.0 9:1.0 
-0.0 2.0 0.0 0.0 0.0 2:1.0 3:2.0 4:1.0 5:3.0 6:3.0 7:1.0 9:1.0 
-0.24225540009083907 0.06560081567760627 0.40933675594804414 0.31553268626997377 0.1491348481994837 2:1.0 3:2.0 4:1.0 5:7.0 6:6.0 7:1.0 10:1.0 230:1.0 402:1.0 403:1.0 
-0.0 2.0 0.0 0.0 0.0 2:1.0 3:2.0 4:1.0 5:3.0 6:3.0 7:1.0 9:1.0 
-0.0 0.7139986249590996 0.0 0.0 0.0 2:1.0 3:2.0 4:3.0 5:7.0 6:5.0 7:1.0 12:1.0 158:1.0 230:1.0 
-0.0 2.0 2.0 2.0 2.0 2:1.0 3:2.0 4:3.0 5:8.0 6:6.0 7:1.0 9:1.0 
-0.0 2.0 0.09056407733291835 0.0 0.0 3:2.0 4:2.0 5:18.0 6:16.0 7:1.0 10:1.0 28:1.0 35:1.0 
-0.0 0.8757755889745279 2.0 1.7573264601162297 0.8683186616079286 3:2.0 4:3.0 5:2.0 7:1.0 8:1.0 404:1.0 
-0.0 2.0 2.0 2.0 2.0 2:1.0 3:2.0 4:1.0 5:15.0 6:15.0 7:1.0 9:1.0 
-0.0 2.0 0.0 0.0 0.0 2:1.0 3:2.0 4:1.0 5:3.0 6:3.0 7:1.0 9:1.0 
-0.0 2.0 0.0 0.0 2.0 2:1.0 3:2.0 4:1.0 5:7.0 6:7.0 7:1.0 9:1.0 
-0.0 0.685245980894167 0.2834878881074986 0.2642461274344574 0.1307575436094999 2:1.0 3:2.0 4:3.0 5:13.0 6:11.0 7:1.0 405:1.0 406:2.0 407:1.0 
-0.0 2.0 0.0 0.008803743746541179 2.0 2:1.0 3:2.0 4:1.0 5:7.0 6:7.0 7:1.0 9:1.0 
-0.0 2.0 2.0 2.0 2.0 2:1.0 3:2.0 4:3.0 5:9.0 6:7.0 7:1.0 9:1.0 
-0.0 0.07993182023494778 1.3058269759817043 0.7594066430992952 0.4341569415374934 3:2.0 4:3.0 5:3.0 6:1.0 7:1.0 8:1.0 121:1.0 408:1.0 
-0.0 0.0 0.0 0.724767137471101 0.0 3:2.0 4:1.0 5:8.0 6:5.0 7:3.0 9:1.0 29:1.0 138:1.0 
-0.35551102411870855 1.084298032663275 0.07700729441823397 0.045915861712688355 0.08152463209201743 2:1.0 3:2.0 4:1.0 5:6.0 6:4.0 7:1.0 12:1.0 21:1.0 23:1.0 409:1.0 410:1.0 
-0.0 2.0 0.0 0.0 0.0 2:1.0 3:2.0 4:1.0 5:5.0 6:5.0 7:1.0 9:1.0 
-0.0 0.5890839742835842 0.17615505376747181 0.14751994652645106 0.11146005658414126 2:1.0 3:2.0 4:1.0 5:2.0 6:2.0 7:1.0 12:1.0 411:1.0 
-0.0 2.0 2.0 2.0 2.0 2:1.0 3:2.0 4:2.0 5:9.0 6:8.0 7:1.0 9:1.0 
-0.0 0.6518557649207041 0.009801779953373363 0.10455851915672512 0.0 2:1.0 3:2.0 4:2.0 5:10.0 6:9.0 7:1.0 12:1.0 257:1.0 334:1.0 412:1.0 
-0.0 2.0 0.0 0.0 0.0 2:1.0 3:2.0 4:2.0 5:9.0 6:6.0 7:3.0 9:1.0 
-0.0 2.0 0.0 0.0 0.0 2:1.0 3:2.0 4:1.0 5:3.0 6:3.0 7:1.0 9:1.0 
-0.0 0.0 0.0 2.0 0.0 3:2.0 4:1.0 5:4.0 6:4.0 7:1.0 9:1.0 29:1.0 
-0.0 2.0 0.0 0.0 0.0 2:1.0 3:2.0 4:1.0 5:5.0 6:5.0 7:1.0 9:1.0 
-0.0 2.0 0.0 0.0 0.0 2:1.0 3:2.0 4:1.0 5:4.0 6:4.0 7:1.0 9:1.0 
-0.0 0.5463022996304733 0.31954557594642496 0.2544586346610767 0.24346170978621387 2:1.0 3:2.0 4:2.0 5:6.0 6:4.0 7:2.0 12:1.0 88:1.0 413:1.0 414:1.0 
-0.0 2.0 0.0 0.0 0.0 2:1.0 3:2.0 4:2.0 5:4.0 6:3.0 7:1.0 9:1.0 
-0.0 2.0 0.0 0.0 0.0 2:1.0 3:2.0 4:2.0 5:4.0 6:3.0 7:1.0 9:1.0 
-0.0 2.0 0.0 0.0 0.0 1:1.0 2:1.0 3:2.0 4:1.0 5:15.0 6:13.0 7:3.0 
-0.0 0.0 0.0 0.03388097563053 0.0 2:1.0 3:2.0 4:3.0 5:4.0 6:2.0 7:1.0 9:1.0 
-0.0 0.9853709361027064 0.6949680727501615 2.0 0.11146034650916241 2:1.0 3:2.0 4:1.0 5:4.0 6:4.0 7:1.0 12:1.0 415:1.0 
-0.0 1.325838956786956 0.0 0.0 0.0 3:2.0 4:1.0 5:22.0 6:22.0 7:1.0 25:1.0 31:1.0 
-0.0 2.0 0.0 0.0 0.0 2:1.0 3:2.0 4:1.0 5:3.0 6:3.0 7:1.0 9:1.0 
-0.0 2.0 0.0 0.0 0.0 2:1.0 3:2.0 4:1.0 5:8.0 6:7.0 7:2.0 9:1.0 
-0.0 2.0 0.0 0.0 0.0 2:1.0 3:2.0 4:1.0 5:3.0 6:3.0 7:1.0 9:1.0 
-0.0 0.7872778288140099 0.17843889425990905 0.14870542348854573 0.11151837449496851 2:1.0 3:2.0 4:1.0 5:3.0 6:3.0 7:1.0 12:1.0 416:1.0 
-0.0 2.0 2.0 2.0 2.0 2:1.0 3:2.0 4:4.0 5:8.0 6:5.0 7:1.0 9:1.0 
-0.0 2.0 0.0 0.0 0.0 2:1.0 3:2.0 4:1.0 5:3.0 6:3.0 7:1.0 9:1.0 
-0.0 2.0 2.0 2.0 2.0 2:1.0 3:2.0 4:1.0 5:15.0 6:15.0 7:1.0 9:1.0 
-0.0 1.183398440204227 0.18308179911246836 0.15115310899365508 0.11154014486744526 2:1.0 3:2.0 4:1.0 5:5.0 6:5.0 7:1.0 12:1.0 417:1.0 
-0.0 0.3590638611568167 0.1498584497166164 0.035559998719545585 0.0 2:1.0 3:2.0 4:6.0 5:14.0 6:9.0 7:1.0 12:1.0 113:1.0 418:1.0 419:1.0 420:1.0 
-0.0 0.5890908726201517 0.17615521220981736 0.1475229711474727 0.1114668000043244 2:1.0 3:2.0 4:1.0 5:2.0 6:2.0 7:1.0 12:1.0 421:1.0 
-0.0 1.0840451532943296 0.19783292617367046 0.15649275701935156 0.11176609744550836 2:1.0 3:2.0 4:3.0 5:6.0 6:4.0 7:1.0 12:1.0 422:1.0 
-0.0 2.0 0.0 0.0 0.0 2:1.0 3:2.0 4:2.0 5:13.0 6:9.0 7:4.0 8:1.0 9:1.0 
-2.0 0.0 0.0 0.06469531946552301 0.0 2:1.0 3:2.0 4:1.0 5:5.0 6:4.0 7:1.0 9:1.0 10:1.0 
-0.0 0.7596351263428167 0.7376494048384423 0.6808336748634775 0.5613477707537424 2:1.0 3:2.0 4:1.0 5:7.0 6:6.0 7:1.0 21:1.0 282:1.0 423:1.0 
-0.0 2.0 0.0 0.0 0.0 2:1.0 3:2.0 4:1.0 5:5.0 6:5.0 7:1.0 9:1.0 
-0.0 1.2292903614152726 0.23769489193494422 0.20143398798150627 0.38364540739873987 2:1.0 3:2.0 4:3.0 5:8.0 6:5.0 7:1.0 12:1.0 37:1.0 424:1.0 425:1.0 
-1.5657057387991191 0.0 0.0 0.0 0.0 1:1.0 2:1.0 3:2.0 4:2.0 5:5.0 6:4.0 7:1.0 
-0.0 0.0 0.0 1.388041998058583 0.0 3:2.0 4:3.0 5:9.0 6:6.0 7:1.0 11:1.0 25:1.0 31:1.0 
-0.0 2.0 0.0 0.0 2.0 2:1.0 3:2.0 4:1.0 5:7.0 6:7.0 7:1.0 9:1.0 
-0.0 0.0 0.0 0.0 2.0 2:1.0 3:2.0 4:2.0 5:2.0 6:1.0 7:1.0 9:1.0 
-0.0 0.0 0.0 0.38658975446695354 1.0325534275371213 3:2.0 4:4.0 5:12.0 6:7.0 7:1.0 10:1.0 11:1.0 28:1.0 35:1.0 
-0.0 2.0 0.0 0.0 0.0 2:1.0 3:2.0 4:1.0 5:3.0 6:3.0 7:1.0 9:1.0 
-0.7308061215219844 0.0 0.0 0.0 0.0 1:1.0 2:1.0 3:2.0 4:1.0 5:5.0 6:3.0 7:3.0 
-0.0 2.0 2.0 2.0 0.0 2:1.0 3:2.0 4:3.0 5:6.0 6:4.0 7:1.0 9:1.0 
-0.0 2.0 0.0 0.0 0.0 2:1.0 3:2.0 4:1.0 5:4.0 6:4.0 7:1.0 9:1.0 
-1.8648980911158886 0.0 2.0 2.0 1.8834910032706478 2:1.0 3:2.0 4:5.0 5:15.0 6:6.0 7:5.0 8:1.0 9:1.0 11:1.0 
-0.0 0.0 0.0 0.0 1.0875954878723293 2:1.0 3:2.0 4:2.0 5:2.0 6:1.0 7:1.0 9:1.0 
-0.0 2.0 0.0 0.0 0.0 2:1.0 3:2.0 4:1.0 5:3.0 6:3.0 7:1.0 9:1.0 
-0.0 0.0 0.0 0.27984560226487065 0.0 2:1.0 3:2.0 4:1.0 5:10.0 6:7.0 7:4.0 12:1.0 15:1.0 287:1.0 428:1.0 
-0.0 2.0 0.0 0.0 0.0 2:1.0 3:2.0 4:1.0 5:6.0 6:6.0 7:1.0 9:1.0 
-0.0 0.0 2.0 2.0 2.0 2:1.0 3:2.0 4:4.0 5:5.0 6:2.0 7:1.0 9:1.0 
-0.0 2.0 0.0 0.0 0.0 2:1.0 3:2.0 4:1.0 5:11.0 6:9.0 7:3.0 9:1.0 
-0.0 2.0 0.0 0.0 2.0 2:1.0 3:2.0 4:1.0 5:7.0 6:7.0 7:1.0 9:1.0 
-2.0 0.0 0.0 2.0 2.0 2:1.0 3:2.0 4:2.0 5:5.0 6:3.0 7:1.0 9:1.0 11:1.0 
-0.0 2.0 0.0 0.0 0.0 2:1.0 3:2.0 4:1.0 5:4.0 6:4.0 7:1.0 9:1.0 
-0.0 2.0 0.0 2.0 0.0 2:1.0 3:2.0 4:2.0 5:6.0 6:5.0 7:1.0 9:1.0 
-0.0 2.0 0.0 0.0 0.0 2:1.0 3:2.0 4:1.0 5:4.0 6:4.0 7:1.0 9:1.0 
-0.0 0.7872727437039361 0.17844274613224617 0.14871921398863933 0.11145010382243067 2:1.0 3:2.0 4:1.0 5:3.0 6:3.0 7:1.0 12:1.0 429:1.0 
-0.0 0.8328882640371794 0.35956799211925594 0.4254135804892125 0.0 2:1.0 3:2.0 4:1.0 5:8.0 6:8.0 7:1.0 12:1.0 167:1.0 430:1.0 431:1.0 
-0.0 1.3292384457402897 2.0 1.789487898738711 0.13784439148491323 2:1.0 3:2.0 4:5.0 5:10.0 6:7.0 84:1.0 94:1.0 432:1.0 433:1.0 434:1.0 
-0.0 2.0 0.0 2.0 2.0 2:1.0 3:2.0 4:1.0 5:9.0 6:9.0 7:1.0 9:1.0 
-0.0 2.0 0.17615148289413837 0.1475193436473176 0.11154880365004487 2:1.0 3:2.0 4:1.0 5:2.0 6:2.0 7:1.0 12:1.0 132:1.0 
-0.0 2.0 0.42343243844439116 0.15115968753546538 0.11155856328795401 2:1.0 3:2.0 4:1.0 5:5.0 6:5.0 7:1.0 12:1.0 435:1.0 
-0.0 0.688147278476798 0.1778108992443285 0.1381548516885908 0.11088074904704212 2:1.0 3:2.0 4:1.0 5:5.0 6:4.0 7:2.0 12:1.0 436:1.0 
-0.11159817955548601 1.043486401199003 0.9191231987230041 0.8176879796691088 0.26132541493899114 2:1.0 3:2.0 4:2.0 5:11.0 6:9.0 7:1.0 10:1.0 314:1.0 437:1.0 438:1.0 
-0.0 2.0 2.0 2.0 2.0 2:1.0 3:2.0 4:2.0 5:8.0 6:7.0 7:1.0 9:1.0 
-0.0 0.0 0.0 0.0 1.5955656080152343 2:1.0 3:2.0 4:3.0 5:3.0 6:1.0 7:1.0 9:1.0 
-0.0 0.6876157041165112 0.19316841612173952 0.1540102965184564 0.11179127428125868 2:1.0 3:2.0 4:3.0 5:4.0 6:2.0 7:1.0 12:1.0 439:1.0 
-2.0 0.0 0.0 0.0 0.0 1:1.0 2:1.0 3:2.0 4:2.0 5:12.0 6:9.0 7:2.0 10:1.0 
-0.0 2.0 0.0 0.0 0.0 2:1.0 3:2.0 4:2.0 5:5.0 6:4.0 7:1.0 9:1.0 
-0.0 2.0 0.0 0.0 0.0 2:1.0 3:2.0 4:1.0 5:6.0 6:6.0 7:1.0 9:1.0 
-0.0 2.0 2.0 2.0 2.0 2:1.0 3:2.0 4:3.0 5:9.0 6:7.0 7:1.0 9:1.0 
-0.0 2.0 0.0 0.0 0.0 2:1.0 3:2.0 4:1.0 5:6.0 6:6.0 7:1.0 9:1.0 
-0.0 2.0 2.0 0.0 0.0 2:1.0 3:2.0 4:5.0 5:9.0 6:4.0 7:2.0 9:1.0 
-0.0 2.0 0.0 0.0 0.0 2:1.0 3:2.0 4:2.0 5:4.0 6:3.0 7:1.0 9:1.0 
-0.0 2.0 2.0 2.0 2.0 2:1.0 3:2.0 4:3.0 5:12.0 6:10.0 7:1.0 9:1.0 
-0.0 -0.397684745817774 0.07557601200272716 0.0 0.0 2:1.0 3:2.0 4:4.0 5:23.0 6:14.0 7:6.0 8:1.0 10:1.0 12:1.0 113:1.0 308:1.0 313:1.0 440:1.0 441:1.0 442:1.0 443:1.0 
-0.0 -0.0 0.07052917704155218 0.04823667528836915 0.0 2:1.0 3:2.0 4:3.0 5:14.0 6:9.0 7:3.0 21:1.0 444:1.0 445:1.0 446:1.0 447:1.0 
-0.0 -0.0 0.31220010503637297 0.0 0.0 2:1.0 3:2.0 4:1.0 5:10.0 6:7.0 7:2.0 21:1.0 37:1.0 72:1.0 448:1.0 449:1.0 
-0.0 -0.0 0.47122712560997226 0.00837361151451884 0.0 2:1.0 3:2.0 4:3.0 5:6.0 6:4.0 7:1.0 450:1.0 451:1.0 
-0.0 -0.73004221599025 0.04686707793798263 0.024544120353497085 0.0 2:1.0 3:2.0 4:2.0 5:10.0 6:6.0 7:4.0 12:1.0 452:1.0 453:1.0 
-0.0 -2.0 2.0 2.0 2.0 2:1.0 3:2.0 4:4.0 5:8.0 6:4.0 7:2.0 9:1.0 
-0.22310727985560624 -0.6717039427053075 1.4438102022486188 0.17645357061585173 0.039628055666339895 2:1.0 3:2.0 4:4.0 5:6.0 6:2.0 7:1.0 10:1.0 154:1.0 454:1.0 
-0.0 -0.15441549526376172 0.1326683078037201 0.7367538440953516 0.0 2:1.0 3:2.0 4:2.0 5:8.0 6:6.0 7:1.0 37:1.0 107:1.0 108:1.0 297:1.0 455:1.0 
-1.2710437419380072 -2.0 2.0 2.0 2.0 2:1.0 3:2.0 4:2.0 5:10.0 6:8.0 7:1.0 9:1.0 11:1.0 
-0.13266119778672208 -0.2758774841601199 0.0 0.7937611468656706 0.0 2:1.0 3:2.0 4:1.0 5:7.0 6:5.0 7:2.0 10:1.0 183:1.0 346:1.0 428:1.0 
-0.0 -0.28850689084345266 0.07085682973495298 0.017072502087932234 0.0 2:1.0 3:2.0 4:4.0 5:12.0 6:7.0 7:3.0 12:1.0 456:1.0 457:1.0 458:1.0 
-0.0 -0.0 0.0 0.0 0.8675456189498384 2:1.0 3:2.0 4:2.0 5:8.0 6:7.0 7:1.0 109:1.0 388:1.0 459:1.0 
-0.0 -2.0 0.0 0.0 0.0 2:1.0 3:2.0 4:1.0 5:6.0 6:6.0 7:1.0 9:1.0 
-0.0 -0.0 1.2473979214785587 0.49294334421223834 0.0 2:1.0 3:2.0 4:3.0 5:14.0 6:11.0 7:2.0 40:1.0 150:1.0 215:1.0 460:1.0 
-0.0 -0.0 0.0 0.0 0.04694231866172409 2:1.0 3:2.0 4:3.0 5:17.0 6:13.0 7:2.0 43:1.0 75:1.0 461:1.0 462:1.0 463:1.0 464:1.0 
-0.0 -0.15786654997547206 0.0 0.0 0.06729053226882359 2:1.0 3:2.0 4:2.0 5:13.0 6:8.0 7:2.0 12:1.0 21:2.0 37:1.0 357:1.0 465:1.0 466:1.0 467:1.0 468:1.0 
-2.0 -2.0 0.0 0.0 0.44914882812422185 2:1.0 3:2.0 4:2.0 5:6.0 6:4.0 7:2.0 9:1.0 
-0.0 -0.1599691632670782 0.08132942418291539 0.0 0.0 2:1.0 3:2.0 4:3.0 5:11.0 6:7.0 7:3.0 12:1.0 15:1.0 332:1.0 469:1.0 470:1.0 
-0.0 -0.0 0.0 0.20647346004269257 0.0 2:1.0 3:2.0 4:1.0 5:8.0 6:7.0 7:2.0 460:1.0 473:1.0 474:1.0 
-0.0 -0.18492334556029488 0.0 0.022898376391400545 0.0 2:1.0 3:2.0 4:3.0 5:5.0 6:3.0 7:1.0 475:1.0 480:1.0 
-0.0 -0.0 0.0 0.0 0.07550080881212964 2:1.0 3:2.0 4:7.0 5:13.0 6:6.0 7:2.0 12:1.0 88:1.0 283:1.0 481:1.0 482:1.0 
-0.0 -0.3095358519600098 0.0 0.02136414754118727 0.0 2:1.0 3:2.0 4:1.0 5:11.0 6:8.0 7:3.0 12:1.0 43:1.0 94:1.0 483:1.0 484:1.0 
-0.0 -0.0 0.006714153794584142 0.0 9.020252945868502E-4 2:1.0 3:2.0 4:7.0 5:17.0 6:8.0 7:3.0 37:1.0 485:1.0 486:1.0 487:1.0 488:1.0 489:1.0 
-0.0 -1.312386024544096 1.3864763883473934 0.05244547688404255 0.0 2:1.0 3:2.0 4:3.0 5:4.0 6:2.0 7:1.0 12:1.0 490:1.0 
-0.0 -2.0 0.0 0.0 0.0 2:1.0 3:2.0 4:1.0 5:5.0 6:5.0 7:1.0 9:1.0 
-0.11053604858392023 -1.7127505477612452 2.0 2.0 1.4862360520100266 2:1.0 3:2.0 4:1.0 5:4.0 6:3.0 7:1.0 10:1.0 308:1.0 382:1.0 
-0.0 -2.0 0.0 0.0 0.0 2:1.0 3:2.0 4:1.0 5:5.0 6:5.0 7:1.0 9:1.0 
-0.22630214277574176 -2.0 2.0 0.0 0.4410574117448387 2:1.0 3:2.0 4:1.0 5:4.0 6:3.0 7:1.0 9:1.0 64:1.0 
-0.0 -0.0 0.0 0.36119669994833203 0.0 2:1.0 3:2.0 4:2.0 5:11.0 6:8.0 7:3.0 12:1.0 139:1.0 460:1.0 491:1.0 492:1.0 
-0.0 -0.0 0.0 0.02981672823397091 0.0 2:1.0 3:2.0 4:1.0 5:6.0 6:6.0 7:1.0 485:1.0 493:1.0 
-0.0 -0.0 0.45608873213347934 0.0 0.0 2:1.0 3:2.0 4:3.0 5:13.0 6:11.0 7:1.0 12:1.0 332:1.0 495:1.0 496:1.0 497:1.0 
-0.0 -2.0 0.0 0.0 0.0 2:1.0 3:2.0 4:1.0 5:5.0 6:5.0 7:1.0 9:1.0 
-0.0 -0.4582261076362102 1.1538921853203465 0.02987623051250338 0.0 2:1.0 3:2.0 4:3.0 5:11.0 6:6.0 7:4.0 12:1.0 498:1.0 499:1.0 500:1.0 
-0.0 -0.0 0.0 0.023069228576915728 0.0 2:1.0 3:2.0 4:2.0 5:7.0 6:6.0 7:1.0 57:1.0 501:1.0 502:1.0 
-0.0 -0.17834734494801366 0.42365298118558886 0.18494360819132935 0.03952495823074905 2:1.0 3:2.0 4:4.0 5:6.0 6:3.0 7:1.0 503:1.0 504:1.0 
-0.0 -0.0 1.2982927018065735 0.0 0.0 2:1.0 3:2.0 4:2.0 5:11.0 6:9.0 7:2.0 12:1.0 139:1.0 215:1.0 266:1.0 505:1.0 506:1.0 
-0.0 -0.0 0.06195723071197434 0.0 0.23365525211144292 2:1.0 3:2.0 4:4.0 5:14.0 6:11.0 7:1.0 98:2.0 312:1.0 509:1.0 
-0.0 -2.0 0.0 0.0 0.0 2:1.0 3:2.0 4:1.0 5:7.0 6:7.0 7:1.0 9:1.0 
-0.0 -2.0 0.0 0.0 0.0 2:1.0 3:2.0 4:1.0 5:5.0 6:5.0 7:1.0 9:1.0 
-0.0 -2.0 0.0 0.0 0.0 2:1.0 3:2.0 4:1.0 5:5.0 6:5.0 7:1.0 9:1.0 
-0.0 -0.0 0.6972795979862237 0.34657013095588163 0.0 2:1.0 3:2.0 4:3.0 5:8.0 6:6.0 7:1.0 510:1.0 511:1.0 
-0.0 -0.0 0.08665603593504834 0.0 0.0 2:1.0 3:2.0 4:1.0 5:7.0 6:6.0 7:1.0 21:1.0 114:1.0 215:1.0 512:1.0 
-0.0 -0.0 1.2111152384732522 0.13495796553267353 0.0 3:2.0 4:3.0 5:12.0 6:10.0 7:1.0 8:1.0 513:1.0 514:1.0 515:1.0 
-0.0 -2.0 0.0 0.0 0.0 2:1.0 3:2.0 4:1.0 5:10.0 6:10.0 7:1.0 9:1.0 
-0.036494401833814194 -0.029871134403892195 0.0 0.0 0.0 3:2.0 4:2.0 5:3.0 6:2.0 7:1.0 8:1.0 477:1.0 
-0.0 -0.0 0.0 0.0 0.354412128665622 2:1.0 3:2.0 4:1.0 5:16.0 6:13.0 7:2.0 21:2.0 72:1.0 215:1.0 516:1.0 517:1.0 518:1.0 519:1.0 
-0.0 -0.0 2.0 2.0 2.0 2:1.0 3:2.0 4:2.0 5:14.0 6:13.0 7:1.0 9:1.0 
-0.0 -0.0 0.3372222365650331 0.0 0.0 2:1.0 3:2.0 4:1.0 5:8.0 6:7.0 7:2.0 12:1.0 139:1.0 292:1.0 332:1.0 
-0.0 -0.0 0.08832058814277513 0.03999047476107814 0.008749181541142051 2:1.0 3:2.0 4:3.0 5:14.0 6:12.0 7:1.0 486:1.0 520:1.0 521:1.0 522:1.0 523:1.0 
-0.14938556334652792 -2.0 0.0 0.0 0.0 2:1.0 3:2.0 4:2.0 5:7.0 6:4.0 7:2.0 9:1.0 138:1.0 
-0.0 -0.0 1.0313378192716947 0.17252568612487068 0.31710422014341566 3:2.0 4:1.0 5:10.0 6:8.0 7:3.0 84:1.0 494:1.0 524:1.0 525:1.0 
-0.0 -0.21095751158850992 0.12566443780269704 0.14221338673091488 0.1336053726770696 2:1.0 3:2.0 4:1.0 5:11.0 6:10.0 7:2.0 12:1.0 179:1.0 526:1.0 
-0.009505046370554552 -0.7936024269227454 0.0 0.08743556704538498 0.0 2:1.0 3:2.0 4:1.0 5:6.0 6:5.0 7:1.0 10:1.0 101:1.0 527:1.0 
-0.0 -2.0 2.0 0.05374695260803317 0.0 2:1.0 3:2.0 4:5.0 5:6.0 6:2.0 7:1.0 12:1.0 246:1.0 
-0.0 -0.0 0.0 0.6376545518476485 0.0 2:1.0 3:2.0 4:1.0 5:8.0 6:7.0 7:2.0 12:1.0 139:1.0 237:1.0 528:1.0 
-0.0 -2.0 0.0 0.0 0.0 2:1.0 3:2.0 4:1.0 5:6.0 6:6.0 7:1.0 9:1.0 
-0.0 -2.0 0.0 0.0 0.0 2:1.0 3:2.0 4:1.0 5:8.0 6:8.0 7:1.0 9:1.0 
-0.0 -0.3917791809285466 0.18226177177428213 0.0 0.0 2:1.0 3:2.0 4:3.0 5:7.0 6:5.0 7:1.0 215:1.0 531:1.0 
-0.0 -0.0 0.33643373563655027 0.012029637437146464 0.0 2:1.0 3:2.0 4:5.0 5:8.0 6:4.0 7:1.0 475:1.0 532:1.0 533:1.0 
-0.0 -0.4082982182165392 0.0 0.24533772801178477 0.2653897216292492 2:1.0 3:2.0 4:1.0 5:5.0 6:5.0 7:1.0 12:1.0 534:1.0 535:1.0 
-0.0 -0.6499318752353511 0.0 0.0 0.17533674485086329 2:1.0 3:2.0 4:1.0 5:8.0 6:6.0 7:2.0 12:1.0 15:1.0 43:1.0 177:1.0 536:1.0 
-0.0 -0.20158427172188362 0.0 0.0 2.8215841908457717E-4 3:2.0 4:2.0 5:4.0 6:3.0 7:1.0 8:1.0 450:1.0 537:1.0 
-0.0 -0.0 0.4792586357482934 0.0 0.0 2:1.0 3:2.0 4:1.0 5:8.0 6:8.0 7:1.0 261:1.0 538:1.0 539:1.0 
-0.0 -1.0146978163836924 0.075516968278751 0.08365892401859043 0.09525697331470176 3:2.0 4:1.0 5:9.0 6:9.0 7:1.0 8:1.0 12:1.0 27:1.0 541:1.0 
-0.0 -2.0 0.0 0.0 0.0 2:1.0 3:2.0 4:1.0 5:13.0 6:11.0 7:3.0 9:1.0 
-0.0 -2.0 0.0 0.0 2.0 2:1.0 3:2.0 4:1.0 5:13.0 6:13.0 7:1.0 9:1.0 
-0.0 -0.4797331017028504 0.0 2.0 0.7435424154586089 2:1.0 3:2.0 4:2.0 5:9.0 6:6.0 7:2.0 12:1.0 15:1.0 21:1.0 72:1.0 542:1.0 
-0.0 -0.43035785673850613 2.0 0.48444210987799524 0.29186510679471184 3:2.0 4:1.0 5:4.0 6:4.0 7:1.0 8:1.0 543:1.0 
-0.0 -0.0 0.11490758406420946 0.0 0.0 2:1.0 3:2.0 4:1.0 5:9.0 6:8.0 7:2.0 544:1.0 545:1.0 546:1.0 547:1.0 
-0.0 -0.3318759398676715 0.0 0.07492004674157267 0.0 2:1.0 3:2.0 4:1.0 5:9.0 6:7.0 7:3.0 12:1.0 548:1.0 549:1.0 
-0.0 -0.1453005144929021 0.0 0.0 0.0 2:1.0 3:2.0 4:3.0 5:23.0 6:14.0 7:8.0 8:1.0 215:1.0 266:1.0 550:1.0 551:1.0 552:1.0 
-0.0 -0.0362100938095626 0.0 0.022138321346286773 0.0 2:1.0 3:2.0 4:2.0 5:5.0 6:4.0 7:1.0 475:1.0 553:1.0 
-0.0 -2.0 0.0 0.0 0.0 2:1.0 3:2.0 4:1.0 5:7.0 6:7.0 7:1.0 9:1.0 
-0.0 -0.5964862792699969 8.452553761764363E-4 0.0 0.0 2:1.0 3:2.0 4:1.0 5:5.0 6:5.0 7:1.0 73:1.0 388:1.0 555:1.0 
-0.2383099627768743 -1.3192537821269956 2.0 1.7094747206646759 0.6948223687643038 2:1.0 3:2.0 4:1.0 5:5.0 6:3.0 7:2.0 12:1.0 15:1.0 43:1.0 556:1.0 
-0.0 -2.0 0.0 0.0 0.0 2:1.0 3:2.0 4:1.0 5:9.0 6:7.0 7:3.0 9:1.0 
-0.0 -2.0 0.0 0.0 0.0 2:1.0 3:2.0 4:1.0 5:6.0 6:6.0 7:1.0 9:1.0 
-0.0 -2.0 0.0 2.0 0.0 2:1.0 3:2.0 4:2.0 5:6.0 6:5.0 7:1.0 9:1.0 
-0.0 -0.0 0.04651557679570194 0.0 0.0 2:1.0 3:2.0 4:4.0 5:7.0 6:4.0 7:1.0 72:1.0 459:1.0 
-0.0 -2.0 2.0 2.0 2.0 2:1.0 3:2.0 4:3.0 5:6.0 6:4.0 7:1.0 9:1.0 
-0.0 -0.0 0.36945398719010325 0.2010639785058234 0.5963193345510966 2:1.0 3:2.0 4:1.0 5:8.0 6:6.0 7:1.0 37:2.0 98:1.0 557:1.0 
-0.0 -0.0 0.0 0.0 0.03595927006129841 2:1.0 3:2.0 4:4.0 5:11.0 6:7.0 7:1.0 37:1.0 513:1.0 558:1.0 559:1.0 560:1.0 
-0.0 -0.0 2.0 0.0 0.0 2:1.0 3:2.0 4:3.0 5:13.0 6:7.0 7:2.0 10:1.0 21:2.0 72:1.0 88:1.0 98:1.0 308:1.0 
-0.0 -0.0 0.34990602649918867 0.1837226028920312 0.039093663945666275 2:1.0 3:2.0 4:1.0 5:8.0 6:8.0 7:1.0 561:1.0 562:1.0 
-0.0 -2.0 2.0 0.0 0.0 2:1.0 3:2.0 4:2.0 5:11.0 6:9.0 7:2.0 9:1.0 
-0.0 -0.0 0.0 0.8691603312519444 0.0 2:1.0 3:2.0 4:1.0 5:7.0 6:7.0 7:1.0 94:1.0 459:1.0 563:1.0 
-0.0 -1.2798069883507175 0.0 1.986171737045841 0.0 2:1.0 3:2.0 4:1.0 5:8.0 6:8.0 7:1.0 12:1.0 92:1.0 
-0.0 -0.17854064510897116 1.1741837542797509 0.0 0.034678671398190454 2:1.0 3:2.0 4:4.0 5:16.0 6:11.0 7:3.0 88:1.0 148:1.0 206:1.0 448:1.0 567:1.0 568:1.0 
-0.0 -2.0 0.0 0.0 0.0 2:1.0 3:2.0 4:1.0 5:5.0 6:5.0 7:1.0 9:1.0 
-0.0 -0.7397279084213505 1.031782731972522 0.0 0.0 2:1.0 3:2.0 4:5.0 5:9.0 6:4.0 7:1.0 10:1.0 12:1.0 115:1.0 154:1.0 572:1.0 
-0.0 -2.0 0.0 2.0 0.0 2:1.0 3:2.0 4:2.0 5:7.0 6:6.0 7:1.0 9:1.0 
-0.0 -0.009982899711637632 0.0 0.0 0.0 2:1.0 3:2.0 4:5.0 5:11.0 6:6.0 7:2.0 98:1.0 574:1.0 575:1.0 576:1.0 
-0.0 -0.0 0.0 1.9330450624324038 2.0 2:1.0 3:2.0 4:1.0 5:16.0 6:16.0 7:1.0 9:1.0 
-0.0 -2.0 2.0 2.0 2.0 2:1.0 3:2.0 4:6.0 5:12.0 6:6.0 7:2.0 9:1.0 
-0.0 -0.0 0.8914302377223599 0.0784847246934373 0.0 3:2.0 4:5.0 5:9.0 6:5.0 7:1.0 8:1.0 72:1.0 167:1.0 577:1.0 
-0.0 -2.0 0.0 0.04732194890445611 0.5082123904274597 2:1.0 3:2.0 4:1.0 5:6.0 6:5.0 7:2.0 12:1.0 88:1.0 117:1.0 
-0.0 -0.0 0.6987720700251469 0.16184728457631667 0.10018982832821909 2:1.0 3:2.0 4:3.0 5:9.0 6:3.0 7:2.0 21:1.0 37:1.0 114:1.0 147:1.0 578:1.0 
-0.0 -0.0 2.0 0.6898523109815407 0.0 2:1.0 3:2.0 4:3.0 5:10.0 6:6.0 7:3.0 12:1.0 332:1.0 549:1.0 
-0.0 -0.941885767898804 0.6123928372474949 0.21706262794773545 0.09738764671640601 3:2.0 4:4.0 5:9.0 6:4.0 7:3.0 8:1.0 92:1.0 424:1.0 579:1.0 
-0.0 -0.0 0.0 0.0 0.3350028318467952 2:1.0 3:2.0 4:1.0 5:9.0 6:7.0 7:2.0 12:1.0 37:1.0 88:1.0 580:1.0 581:1.0 
-2.0 -1.4482829992942472 0.018743790219153254 0.0 0.0 2:1.0 3:2.0 4:1.0 5:11.0 6:1.0 7:2.0 10:8.0 12:1.0 21:1.0 72:1.0 584:1.0 585:1.0 
-0.0 -0.0 0.12342998062893687 0.05545769358870464 0.0 2:1.0 3:2.0 4:6.0 5:12.0 6:6.0 7:1.0 10:1.0 241:1.0 586:1.0 587:1.0 588:1.0 
-0.0 -0.0 0.0 0.4176049785114981 0.0 2:1.0 3:2.0 4:1.0 5:9.0 6:8.0 7:2.0 12:1.0 139:1.0 589:1.0 590:1.0 
-0.0 -0.06923552131864674 0.0446401258319907 0.016029237063417898 0.026300740299521945 2:1.0 3:2.0 4:5.0 5:10.0 6:5.0 7:2.0 591:1.0 592:1.0 593:1.0 
-0.0 -0.0 0.0 0.0 0.0014740407870903888 3:2.0 4:1.0 5:5.0 6:5.0 7:1.0 8:1.0 12:1.0 598:1.0 
-0.0 -1.202373339224295 1.0758817161472782 0.02426875255831474 0.0 2:1.0 3:2.0 4:1.0 5:11.0 6:8.0 7:4.0 12:1.0 144:1.0 599:1.0 
-0.0 -0.0 1.6324724343803454 0.33759664535830686 0.0 2:1.0 3:2.0 4:1.0 5:7.0 6:7.0 7:1.0 283:1.0 433:1.0 
-2.0 -2.0 0.0 2.0 2.0 2:1.0 3:2.0 4:1.0 5:3.0 6:3.0 7:1.0 9:1.0 
-0.0 -0.0 0.15856595727952386 0.04194498846439158 0.0 2:1.0 3:2.0 4:3.0 5:9.0 6:6.0 7:1.0 37:1.0 388:1.0 600:1.0 601:1.0 602:1.0 
-0.0 -0.0 0.23374360158450866 0.07570344495728744 0.0 3:2.0 4:1.0 5:4.0 6:4.0 7:1.0 494:1.0 603:1.0 604:1.0 
-0.0 -2.0 2.0 1.329829291985437 0.0 2:1.0 3:2.0 4:3.0 5:9.0 6:6.0 7:2.0 9:1.0 
-0.0 -0.0 0.5209579857535639 0.7177438125092972 0.0 2:1.0 3:2.0 4:5.0 5:18.0 6:10.0 7:2.0 11:1.0 21:1.0 37:1.0 114:1.0 229:1.0 388:1.0 605:1.0 606:1.0 
-0.0 -2.0 0.0 0.0 0.0 2:1.0 3:2.0 4:1.0 5:11.0 6:11.0 7:1.0 9:1.0 
-0.0 -0.13132007825408096 0.6505701712434974 0.1616133372110233 0.09721682507850896 3:2.0 4:2.0 5:9.0 6:8.0 7:1.0 8:1.0 317:1.0 607:1.0 608:1.0 
-0.0 -0.22578552452565434 0.0 0.0 0.0 2:1.0 3:2.0 4:3.0 5:7.0 6:5.0 7:1.0 12:1.0 507:1.0 508:1.0 609:1.0 
-0.0 -0.0 2.0 1.3829278993609977 0.0 2:1.0 3:2.0 4:3.0 5:10.0 6:8.0 7:1.0 47:1.0 332:1.0 610:1.0 
-0.0 -0.0 2.0 0.0 0.0 2:1.0 3:2.0 4:5.0 5:8.0 6:4.0 7:1.0 72:1.0 459:1.0 
-0.0 -2.0 0.0 2.0 2.0 2:1.0 3:2.0 4:2.0 5:5.0 6:4.0 7:1.0 9:1.0 
-0.0 -2.0 0.0 0.0 0.0 2:1.0 3:2.0 4:1.0 5:5.0 6:5.0 7:1.0 9:1.0 
-0.0 -1.0147010676776307 0.0 0.05103404276988248 0.0 2:1.0 3:2.0 4:1.0 5:4.0 6:4.0 7:1.0 12:1.0 613:1.0 
-0.0 -2.0 2.0 0.5314066213379205 0.0 2:1.0 3:2.0 4:3.0 5:10.0 6:7.0 7:2.0 9:1.0 
-0.0 -2.0 0.0 0.0 0.0 2:1.0 3:2.0 4:1.0 5:9.0 6:9.0 7:1.0 9:1.0 
-0.0 -0.0 0.17357448238318388 0.0 0.0 2:1.0 3:2.0 4:3.0 5:5.0 6:3.0 7:1.0 544:1.0 614:1.0 
-0.0 -0.23284600256000657 0.43535603197304046 0.280924459759753 0.8727182817323045 2:1.0 3:2.0 4:3.0 5:11.0 6:7.0 7:3.0 12:1.0 549:1.0 615:1.0 
-0.0 -1.0147571430006619 0.0 0.05103986889925421 0.0 2:1.0 3:2.0 4:1.0 5:4.0 6:4.0 7:1.0 12:1.0 616:1.0 
-0.0 -0.0 0.36105340152258175 0.08076529365867824 0.0 3:2.0 4:1.0 5:6.0 6:5.0 7:1.0 64:1.0 494:1.0 513:1.0 617:1.0 
-0.0 -0.009593195044653077 0.0 0.7788523660838712 0.0 2:1.0 3:2.0 4:1.0 5:8.0 6:8.0 7:1.0 167:1.0 198:1.0 618:1.0 
-0.0 -2.0 0.0 0.0 0.0 2:1.0 3:2.0 4:1.0 5:10.0 6:10.0 7:1.0 9:1.0 
-0.0 -2.0 2.0 0.0 0.0 2:1.0 3:2.0 4:2.0 5:10.0 6:7.0 7:3.0 9:1.0 
-0.0 -0.3347819358950575 0.8301086673424519 0.573021073035162 0.0 2:1.0 3:2.0 4:1.0 5:9.0 6:9.0 7:1.0 84:1.0 179:1.0 611:1.0 
-0.0 -1.0046465733290584 0.09562977829711919 0.14220309252149954 0.0 2:1.0 3:2.0 4:1.0 5:7.0 6:6.0 7:2.0 12:1.0 179:1.0 619:1.0 
-0.0 -0.0 0.33193930527979815 0.0 0.0 2:1.0 3:2.0 4:1.0 5:11.0 6:11.0 7:1.0 12:1.0 215:1.0 332:1.0 620:1.0 
-0.0 -0.17647254934905174 0.0 0.0 0.14525014001471143 2:1.0 3:2.0 4:4.0 5:9.0 6:5.0 7:2.0 12:1.0 621:1.0 622:1.0 623:1.0 
-0.0 -0.0 0.7413583785378102 0.0719673962860943 0.368442699100068 2:1.0 3:2.0 4:4.0 5:11.0 6:7.0 7:1.0 37:1.0 624:1.0 625:1.0 626:1.0 627:1.0 628:1.0 
-0.0 -0.10395943773330546 0.690902563847783 0.18459059941344255 0.33644736649078155 2:1.0 3:2.0 4:3.0 5:6.0 6:4.0 7:1.0 629:1.0 630:1.0 
-0.0 -2.0 0.0 0.0 2.0 2:1.0 3:2.0 4:1.0 5:12.0 6:12.0 7:1.0 9:1.0 
-0.0 -1.014718965077162 0.0 0.051032783554396784 0.0 2:1.0 3:2.0 4:1.0 5:4.0 6:4.0 7:1.0 12:1.0 631:1.0 
-0.0 -2.0 0.0 0.0 0.0 2:1.0 3:2.0 4:1.0 5:5.0 6:5.0 7:1.0 9:1.0 
-0.0 -0.1585862770116338 1.031222180674424 0.3709814868679849 0.0 2:1.0 3:2.0 4:1.0 5:17.0 6:14.0 7:4.0 188:1.0 209:1.0 432:1.0 633:1.0 
-0.0 -0.0 0.5217228006713138 0.25848202604058423 0.0 2:1.0 3:2.0 4:2.0 5:7.0 6:5.0 7:1.0 21:1.0 114:1.0 580:1.0 
-2.0 -2.0 0.0 2.0 1.0439685291341274 2:1.0 3:2.0 4:1.0 5:11.0 6:10.0 7:1.0 9:1.0 10:1.0 
-0.0 -0.0 0.1148093542753712 0.1917095197838375 0.0 2:1.0 3:2.0 4:5.0 5:17.0 6:13.0 7:1.0 634:1.0 635:1.0 636:1.0 637:1.0 638:1.0 
-0.0 -2.0 0.0 0.0 0.0 2:1.0 3:2.0 4:1.0 5:6.0 6:6.0 7:1.0 9:1.0 
-0.0 -2.0 0.0 0.0 0.0 2:1.0 3:2.0 4:1.0 5:8.0 6:8.0 7:1.0 9:1.0 
-0.0 -2.0 0.7931927173450509 0.0 2.0 2:1.0 3:2.0 4:3.0 5:6.0 6:4.0 7:1.0 133:1.0 
-0.0 -0.0 0.3163009078813234 0.1461931214412801 0.2271428951722932 2:1.0 3:2.0 4:3.0 5:8.0 6:5.0 7:1.0 23:1.0 98:1.0 640:1.0 
-0.0 -0.0 0.47346382205800724 0.0 0.0 2:1.0 3:2.0 4:3.0 5:9.0 6:7.0 7:1.0 388:1.0 641:1.0 642:1.0 
-0.0 -0.0 0.0 0.009065173026996236 0.0 2:1.0 3:2.0 4:2.0 5:10.0 6:8.0 7:1.0 43:1.0 461:1.0 643:1.0 644:1.0 
-0.0 -0.10395798424715041 0.9758600527411639 0.14779245854767778 0.03154870862000111 2:1.0 3:2.0 4:3.0 5:6.0 6:4.0 7:1.0 645:1.0 646:1.0 
-0.0 -2.0 0.0 0.0 0.0 2:1.0 3:2.0 4:1.0 5:5.0 6:5.0 7:1.0 9:1.0 
-0.0 -0.00940406121732264 0.0 0.0 0.09162886909825081 2:1.0 3:2.0 4:2.0 5:14.0 6:12.0 7:1.0 12:1.0 21:1.0 313:2.0 314:1.0 647:1.0 
-0.0 -2.0 0.0 0.0 0.0 2:1.0 3:2.0 4:1.0 5:7.0 6:7.0 7:1.0 9:1.0 
-0.0 -1.6069580731217545 0.19891626696020198 0.0 0.25400263459473754 2:1.0 3:2.0 4:1.0 5:9.0 6:8.0 7:2.0 12:1.0 86:1.0 88:1.0 198:1.0 
-0.18870256141798894 -0.39435012748209364 0.6953938071568231 0.4127991014928135 0.0 3:2.0 4:6.0 5:14.0 6:6.0 7:4.0 8:2.0 229:1.0 648:1.0 649:1.0 
-0.0 -2.0 0.0 0.0 0.0 2:1.0 3:2.0 4:1.0 5:6.0 6:6.0 7:1.0 9:1.0 
-0.0 -2.0 0.0 0.0 0.0 2:1.0 3:2.0 4:3.0 5:6.0 6:4.0 7:1.0 12:1.0 158:1.0 
-0.0 -0.0 0.0 0.008023423817094569 0.31035336461801344 2:1.0 3:2.0 4:4.0 5:6.0 6:3.0 7:1.0 558:1.0 650:1.0 
-0.0 -0.036519909314349855 0.22456261291800828 0.0 0.0 2:1.0 3:2.0 4:4.0 5:11.0 6:8.0 7:1.0 12:1.0 651:1.0 652:1.0 
-0.0 -0.0 0.6365420495147665 0.0 0.6191128397127463 2:1.0 3:2.0 4:2.0 5:9.0 6:5.0 7:2.0 21:2.0 109:1.0 332:1.0 653:1.0 654:1.0 
-0.0 -2.0 0.0 0.0 0.0 2:1.0 3:2.0 4:1.0 5:5.0 6:5.0 7:1.0 9:1.0 
-0.0 -0.8291318000564856 0.7760198727925862 0.38746226097575126 0.0 2:1.0 3:2.0 4:2.0 5:8.0 6:3.0 7:4.0 12:1.0 43:1.0 639:1.0 655:1.0 
-0.0 -0.0 2.0 0.0 0.0 3:2.0 4:1.0 5:8.0 6:8.0 7:1.0 215:1.0 494:1.0 
-0.0 -0.0 0.25148544264345896 0.015398300382697544 0.0065192835505634514 2:1.0 3:2.0 4:4.0 5:16.0 6:13.0 7:1.0 91:1.0 440:1.0 657:1.0 658:1.0 659:1.0 660:1.0 
-0.0 -0.0 0.4726669814073203 0.07948306803464561 0.0 2:1.0 3:2.0 4:8.0 5:13.0 6:6.0 7:1.0 167:1.0 241:1.0 662:1.0 
-0.0 -1.3123807378603762 0.0 0.052447554199078913 0.0 2:1.0 3:2.0 4:3.0 5:4.0 6:2.0 7:1.0 12:1.0 614:1.0 
-0.0 -0.0 0.20684627534796554 0.09198628651710274 0.019584970239391722 2:1.0 3:2.0 4:3.0 5:10.0 6:7.0 7:2.0 663:1.0 664:1.0 665:1.0 666:1.0 
-0.0 -2.0 2.0 2.0 2.0 2:1.0 3:2.0 4:4.0 5:8.0 6:5.0 7:1.0 9:1.0 
-0.0 -0.0 0.0 0.0 0.1490968302284424 2:1.0 3:2.0 4:6.0 5:11.0 6:6.0 7:1.0 209:1.0 529:1.0 669:1.0 670:1.0 
-0.0 -0.0 0.0 0.23517805950643766 0.03370346054074893 2:1.0 3:2.0 4:3.0 5:12.0 6:7.0 7:2.0 21:1.0 37:1.0 114:1.0 495:1.0 671:1.0 672:1.0 
-0.0 -0.0 0.0 0.1712351841605932 0.0 2:1.0 3:2.0 4:2.0 5:11.0 6:10.0 7:1.0 501:1.0 673:1.0 674:1.0 675:1.0 
-0.0 -1.3363980825717858 0.10626920281919451 2.0 2.0 3:2.0 4:1.0 5:3.0 6:3.0 7:1.0 8:1.0 12:1.0 676:1.0 
-0.0 -0.08338648603086896 0.06928685060398888 0.005110078468467628 0.09099839198225959 2:1.0 3:2.0 4:5.0 5:11.0 6:6.0 7:2.0 98:1.0 574:1.0 575:1.0 576:1.0 
-0.0 -0.0 0.8802503355295115 0.0 0.0 2:1.0 3:2.0 4:2.0 5:14.0 6:12.0 7:1.0 12:1.0 176:1.0 201:1.0 677:1.0 678:1.0 
-0.0 -2.0 2.0 2.0 2.0 2:1.0 3:2.0 4:4.0 5:6.0 6:3.0 7:1.0 9:1.0 
-0.0 -1.014770210218267 0.0 0.05103272143751049 0.0 2:1.0 3:2.0 4:1.0 5:4.0 6:4.0 7:1.0 12:1.0 680:1.0 
-0.10993480340041359 -0.2676981209497689 0.56362346402102 0.5346282085553697 0.6137426017948966 3:2.0 4:3.0 5:8.0 6:5.0 7:1.0 8:1.0 11:1.0 241:1.0 681:1.0 
-0.0 -0.0 0.5846685087453483 0.3015113713897233 0.0 3:2.0 4:5.0 5:7.0 6:3.0 7:1.0 304:1.0 494:1.0 682:1.0 
-0.0 -2.0 0.0 0.0 0.0 2:1.0 3:2.0 4:1.0 5:5.0 6:5.0 7:1.0 9:1.0 
-0.0 -0.0 0.27786488776990237 0.0 0.0 2:1.0 3:2.0 4:3.0 5:14.0 6:10.0 7:3.0 71:1.0 198:1.0 683:1.0 684:1.0 685:1.0 
-0.333223869723569 -0.5017519410904356 0.0 0.0 0.0 3:2.0 5:6.0 6:6.0 7:1.0 8:1.0 10:1.0 12:1.0 388:1.0 686:1.0 
-0.0 -2.0 0.0 0.0 0.0 2:1.0 3:2.0 4:1.0 5:8.0 6:8.0 7:1.0 9:1.0 
-0.0 -0.0 0.4290395673667441 0.0 0.0 2:1.0 3:2.0 4:3.0 5:11.0 6:9.0 7:1.0 12:1.0 98:1.0 193:1.0 332:1.0 
-0.0 -2.0 2.0 2.0 2.0 2:1.0 3:2.0 4:2.0 5:13.0 6:12.0 7:1.0 9:1.0 
-0.0 -0.9159858165772828 0.10472115268403932 0.0523758848747263 0.0 2:1.0 3:2.0 4:3.0 5:6.0 6:4.0 7:1.0 12:1.0 687:1.0 
-0.0 -0.06779919343249018 0.05417307803127609 0.016929880995556278 0.0 2:1.0 3:2.0 4:3.0 5:10.0 6:7.0 7:1.0 37:1.0 309:1.0 314:1.0 355:1.0 688:1.0 
-0.0 -2.0 0.0 0.0 0.0 2:1.0 3:2.0 4:1.0 5:6.0 6:6.0 7:1.0 9:1.0 
-0.0 -2.0 0.0 0.0 0.0 2:1.0 3:2.0 4:1.0 5:8.0 6:8.0 7:1.0 9:1.0 
-0.0 -0.0 0.8869432641330389 0.0 0.0 3:2.0 4:3.0 5:18.0 6:16.0 7:1.0 8:1.0 72:1.0 256:1.0 451:1.0 471:1.0 689:1.0 690:1.0 
-0.0 -0.6642409545933196 0.8838688387797637 0.20352834680849302 0.2729652665958521 2:1.0 3:2.0 4:3.0 5:6.0 6:4.0 7:1.0 98:1.0 158:1.0 
-0.0 -0.0 0.0 0.40173466773079014 0.0 2:1.0 3:2.0 4:1.0 5:10.0 6:8.0 7:2.0 12:1.0 43:1.0 139:1.0 167:1.0 691:1.0 
-0.0 -0.0 0.3963812635518114 0.0 0.0 2:1.0 3:2.0 4:4.0 5:18.0 6:13.0 7:2.0 12:1.0 37:1.0 332:1.0 692:1.0 693:1.0 694:1.0 695:1.0 696:1.0 
-0.0 -0.03753285285957095 0.2834028226604612 0.0 0.0 2:1.0 3:2.0 4:4.0 5:13.0 6:8.0 7:3.0 88:1.0 179:1.0 215:1.0 595:1.0 697:1.0 
-1.1310293111550986 -1.6489231815182714 2.0 2.0 2.0 3:2.0 4:1.0 5:12.0 6:10.0 7:3.0 25:1.0 26:1.0 
-0.0 -0.0 0.2326275056630896 0.0 0.0 2:1.0 3:2.0 4:3.0 5:7.0 6:5.0 7:1.0 388:1.0 451:1.0 700:1.0 
-0.0 -0.14852181134934267 1.0651984225310192 0.463275341713678 0.0 2:1.0 3:2.0 4:6.0 5:9.0 6:4.0 7:1.0 179:1.0 701:1.0 
-0.0 -0.40829130896433224 0.0 0.02546690006910633 0.0 2:1.0 3:2.0 4:1.0 5:5.0 6:5.0 7:1.0 12:1.0 702:1.0 703:1.0 
-0.0 -0.0 0.020727815567473162 0.0 0.06524236465950832 2:1.0 3:2.0 4:1.0 5:9.0 6:8.0 7:1.0 37:1.0 388:1.0 704:1.0 705:1.0 706:1.0 
-0.0 -0.15236699226670344 0.8083177760664758 0.21740261359599933 0.14599733809254214 3:2.0 4:3.0 5:5.0 6:3.0 7:1.0 8:1.0 450:1.0 707:1.0 
-0.0 -0.0 0.0 0.0 0.5182735016321128 3:2.0 4:3.0 5:16.0 6:12.0 7:3.0 8:1.0 88:1.0 448:1.0 498:1.0 499:1.0 558:2.0 
-0.0 -0.21001967453280873 0.00193171878869744 0.025368408612512324 0.0 2:1.0 3:2.0 4:1.0 5:7.0 6:7.0 7:1.0 12:1.0 708:1.0 709:1.0 
-0.0 -1.0147811945473628 0.0 0.0510358798204929 0.0 2:1.0 3:2.0 4:1.0 5:4.0 6:4.0 7:1.0 12:1.0 710:1.0 
-0.0 -0.03365447768832245 0.0 0.10375944807046218 0.0 2:1.0 3:2.0 4:1.0 5:10.0 6:7.0 7:4.0 12:1.0 15:1.0 332:1.0 549:1.0 711:1.0 
-0.0 -0.0 1.9033739303726709 0.18939512637913172 0.0 3:2.0 4:1.0 5:6.0 6:6.0 7:1.0 8:1.0 332:1.0 598:1.0 
-0.0 -0.3381009755287653 0.0 0.0 0.0 2:1.0 3:2.0 4:1.0 5:5.0 6:3.0 7:3.0 501:1.0 712:1.0 
-0.0 -0.0 0.18111673277243734 0.0 0.0 2:1.0 3:2.0 4:2.0 5:7.0 6:6.0 7:1.0 582:1.0 713:1.0 
-0.0 -2.0 0.0 0.0 0.0 2:1.0 3:2.0 4:1.0 5:7.0 6:7.0 7:1.0 9:1.0 
-0.0 -2.0 2.0 2.0 1.0221772164952558 2:1.0 3:2.0 4:1.0 5:3.0 6:3.0 7:1.0 12:1.0 40:1.0 
-0.0 -0.0 0.012133156301746433 0.020720121776073828 0.04342495883697213 2:1.0 3:2.0 4:1.0 5:17.0 6:13.0 7:2.0 37:3.0 141:1.0 348:3.0 714:1.0 715:1.0 716:1.0 
-0.0 -0.3209743293128093 0.4352525809154634 0.22727980442404278 0.1633244505094139 2:1.0 3:2.0 4:3.0 5:11.0 6:8.0 7:2.0 84:1.0 554:1.0 717:1.0 
-0.0 -0.0 1.8197290663869243 0.0 0.0 2:1.0 3:2.0 4:3.0 5:9.0 6:6.0 7:2.0 12:1.0 332:1.0 558:1.0 718:1.0 
-0.0 -0.0 1.7579022778221365 0.43861582337912686 0.0 2:1.0 3:2.0 4:1.0 5:9.0 6:8.0 7:1.0 10:1.0 40:1.0 719:1.0 720:1.0 
-0.0 -2.0 2.0 2.0 0.0 2:1.0 3:2.0 4:3.0 5:11.0 6:9.0 7:1.0 9:1.0 
-0.0 -0.0 0.3434392562046436 0.18853807815391233 0.0 2:1.0 3:2.0 4:3.0 5:13.0 6:11.0 7:1.0 151:1.0 495:1.0 576:1.0 721:1.0 
-0.0 -2.0 0.0 0.0 0.0 2:1.0 3:2.0 4:1.0 5:6.0 6:6.0 7:1.0 9:1.0 
-0.0 -0.15304843954766384 0.35808362503026825 0.18299209096540414 0.03904830933996167 2:1.0 3:2.0 4:1.0 5:9.0 6:7.0 7:3.0 722:1.0 723:1.0 
-0.0 -2.0 2.0 2.0 1.067074689574929 2:1.0 3:2.0 4:4.0 5:11.0 6:8.0 7:1.0 9:1.0 
-2.0 -2.0 0.0 1.974177758874076 2.0 2:1.0 3:2.0 4:1.0 5:4.0 6:4.0 7:1.0 9:1.0 
-0.0 -2.0 2.0 0.0 2.0 2:1.0 3:2.0 4:2.0 5:13.0 6:11.0 7:2.0 9:1.0 
-0.0 -2.0 2.0 2.0 2.0 2:1.0 3:2.0 4:4.0 5:6.0 6:3.0 7:1.0 9:1.0 
-0.0 -0.0 0.0 0.0 2.0 2:1.0 3:2.0 4:1.0 5:15.0 6:14.0 7:2.0 133:1.0 
-0.0 -0.0 0.19737302864329712 0.0 0.0 2:1.0 3:2.0 4:3.0 5:9.0 6:6.0 7:2.0 12:1.0 332:1.0 724:1.0 725:1.0 
-0.0 -2.0 0.0 0.0 0.0 2:1.0 3:2.0 4:1.0 5:6.0 6:6.0 7:1.0 9:1.0 
-0.0 -0.03579397952125583 0.0 0.017374128713872197 1.433428229555042 2:1.0 3:2.0 4:3.0 5:9.0 6:4.0 7:4.0 461:1.0 499:1.0 726:1.0 
-0.0 -0.0 1.271825487317414 0.12250450894497826 0.02607400258080008 2:1.0 3:2.0 4:1.0 5:7.0 6:7.0 7:1.0 729:1.0 730:1.0 731:1.0 
-2.0 -2.0 2.0 2.0 2.0 2:1.0 3:2.0 4:4.0 5:13.0 6:9.0 7:1.0 9:1.0 10:1.0 
-0.0 -0.0 0.0 0.0 0.20331661325511097 2:1.0 3:2.0 4:3.0 5:10.0 6:8.0 7:1.0 12:1.0 732:1.0 733:1.0 734:1.0 
-0.0 -0.12172904584139187 0.0 0.0 0.0 2:1.0 3:2.0 4:1.0 5:9.0 6:8.0 7:1.0 12:1.0 59:1.0 138:1.0 736:1.0 
-0.0 -0.0 0.0 0.0731457801475425 0.0 2:1.0 3:2.0 4:1.0 5:8.0 6:7.0 7:2.0 12:1.0 139:1.0 737:1.0 
-0.0 -2.0 0.0 0.0 0.0 2:1.0 3:2.0 4:1.0 5:7.0 6:7.0 7:1.0 9:1.0 
-0.0 -1.246867917181938 0.20151273074595913 1.333097193969412 0.12727101670878374 2:1.0 3:2.0 4:2.0 5:8.0 6:6.0 7:1.0 9:1.0 740:1.0 
-0.0 -2.0 0.0 0.0 0.0 2:1.0 3:2.0 4:1.0 5:9.0 6:9.0 7:1.0 9:1.0 
-0.0 -1.1421894965427914 0.6193139445677109 0.026375393428075163 0.9887378884633284 2:1.0 3:2.0 4:4.0 5:10.0 6:7.0 7:1.0 12:1.0 71:1.0 275:1.0 
-0.0 -0.0 0.0 0.3920405201352422 0.0 3:2.0 4:1.0 5:8.0 6:8.0 7:1.0 40:1.0 494:1.0 529:1.0 530:1.0 
-0.0 -0.0 0.5474549763328584 0.1732648216414572 0.03910771898309906 2:1.0 3:2.0 4:1.0 5:7.0 6:7.0 7:1.0 255:1.0 744:1.0 
-0.0 -2.0 0.0 0.0 0.0 2:1.0 3:2.0 4:1.0 5:10.0 6:10.0 7:1.0 9:1.0 
-0.0 -0.5070778777840581 0.0 0.0 0.0 2:1.0 3:2.0 4:1.0 5:9.0 6:7.0 7:3.0 12:1.0 748:1.0 749:1.0 
-0.0 -0.30919324539929 0.9982514490558468 0.0 0.0 2:1.0 3:2.0 4:1.0 5:6.0 6:6.0 7:1.0 12:1.0 750:1.0 751:1.0 
-0.0 -0.0 0.0 0.015477854489711175 0.0 2:1.0 3:2.0 4:3.0 5:19.0 6:15.0 7:2.0 12:1.0 64:1.0 98:1.0 332:1.0 725:1.0 752:1.0 753:1.0 
-0.0 -0.9159668834810917 0.10472283780754157 0.052363401446628544 0.0 2:1.0 3:2.0 4:3.0 5:6.0 6:4.0 7:1.0 12:1.0 754:1.0 
-0.15334447961020675 -0.22738429092915416 0.9397953761046872 0.1659169871465459 0.039533115613643276 2:1.0 3:2.0 4:4.0 5:9.0 6:3.0 7:2.0 10:1.0 43:1.0 755:1.0 756:1.0 
-0.0 -0.0 0.06985387474042508 0.5388226264356917 0.6645910331629065 2:1.0 3:2.0 4:5.0 5:15.0 6:9.0 7:1.0 11:1.0 12:1.0 37:1.0 186:1.0 634:1.0 757:1.0 758:1.0 
-0.0 -0.0 0.23518827197112682 0.0 0.0 2:1.0 3:2.0 4:5.0 5:29.0 6:21.0 7:5.0 8:1.0 113:1.0 171:1.0 759:1.0 760:1.0 761:1.0 762:1.0 763:1.0 764:1.0 
-0.0 -2.0 0.0 0.0 0.0 2:1.0 3:2.0 4:1.0 5:5.0 6:5.0 7:1.0 9:1.0 
-0.0 -0.0 2.0 2.0 2.0 2:1.0 3:2.0 4:2.0 5:17.0 6:15.0 7:1.0 9:1.0 10:1.0 
-0.0 -2.0 0.0 0.0 0.0 2:1.0 3:2.0 4:1.0 5:5.0 6:5.0 7:1.0 9:1.0 
-0.0 -0.0 0.15578212757474974 0.0 0.0 2:1.0 3:2.0 4:3.0 5:13.0 6:9.0 7:1.0 21:1.0 64:1.0 215:1.0 765:1.0 766:1.0 767:1.0 
-0.0 -0.034657810761282506 0.0 0.0 0.0 2:1.0 3:2.0 4:2.0 5:17.0 6:13.0 7:4.0 12:1.0 419:1.0 544:1.0 765:1.0 769:1.0 
-0.011032775077537508 -0.7793374542527122 0.04638901126916807 0.0 0.6181954619292735 2:1.0 3:2.0 4:2.0 5:16.0 6:10.0 7:6.0 8:1.0 169:1.0 209:1.0 244:1.0 770:1.0 
-0.0 -0.04278014799611523 0.21475960538513214 0.06223545943614017 0.0 2:1.0 3:2.0 4:1.0 5:5.0 6:5.0 7:1.0 771:1.0 772:1.0 
-0.0 -2.0 2.0 2.0 2.0 2:1.0 3:2.0 4:3.0 5:6.0 6:4.0 7:1.0 9:1.0 
-0.0 -0.0 0.3059736959756455 0.12230158248441793 0.08014412465442443 2:1.0 3:2.0 4:4.0 5:11.0 6:5.0 7:1.0 21:1.0 37:1.0 64:1.0 773:1.0 774:1.0 775:1.0 
-0.0 -2.0 0.0 0.0 0.0 2:1.0 3:2.0 4:1.0 5:9.0 6:9.0 7:1.0 9:1.0 
-0.0 -2.0 0.0 0.0 0.0 2:1.0 3:2.0 4:1.0 5:10.0 6:10.0 7:1.0 9:1.0 
-0.0 -2.0 0.0 0.0 0.0 2:1.0 3:2.0 4:1.0 5:8.0 6:6.0 7:3.0 9:1.0 
-0.0 -2.0 0.0 0.0 0.0 2:1.0 3:2.0 4:1.0 5:6.0 6:6.0 7:1.0 9:1.0 
-0.0 -2.0 0.0 0.0 0.0 2:1.0 3:2.0 4:1.0 5:9.0 6:9.0 7:1.0 9:1.0 
-0.0 -1.014693800074269 0.0 0.051032676493455796 0.0 2:1.0 3:2.0 4:1.0 5:4.0 6:4.0 7:1.0 12:1.0 776:1.0 
-0.0 -0.0 0.0 0.4497810346471003 0.0 2:1.0 3:2.0 4:1.0 5:9.0 6:8.0 7:2.0 12:1.0 139:1.0 167:1.0 780:1.0 
-0.0 -1.4368803678449293 0.08037141891992887 0.06736427960243797 0.0 2:1.0 3:2.0 4:6.0 5:10.0 6:4.0 7:2.0 12:1.0 120:1.0 139:1.0 
-0.0 -2.0 0.0 0.0 0.0 2:1.0 3:2.0 4:1.0 5:7.0 6:7.0 7:1.0 9:1.0 
-0.0 -0.0 0.7127142778864124 0.0 0.3100391218074211 3:2.0 4:3.0 5:11.0 6:9.0 7:1.0 8:1.0 209:1.0 471:1.0 782:1.0 
-0.0 -0.0 2.0 0.0 1.6570609525535898 2:1.0 3:2.0 4:2.0 5:13.0 6:11.0 7:1.0 9:1.0 43:1.0 
-0.0 -1.014732771934488 0.0 0.051037107051414086 0.0 2:1.0 3:2.0 4:1.0 5:4.0 6:4.0 7:1.0 12:1.0 783:1.0 
-0.0 -0.0 0.0 0.0 0.27001761492313364 2:1.0 3:2.0 4:1.0 5:9.0 6:7.0 7:2.0 12:1.0 37:1.0 88:1.0 513:1.0 784:1.0 
-0.0 -2.0 0.0 0.0 1.9999777858116634 2:1.0 3:2.0 4:1.0 5:12.0 6:12.0 7:1.0 9:1.0 
-0.0 -2.0 0.0 0.0 0.0 2:1.0 3:2.0 4:1.0 5:5.0 6:5.0 7:1.0 9:1.0 
-0.0 -0.7761587214326585 0.0 0.0 0.0 2:1.0 3:2.0 4:2.0 5:8.0 6:7.0 7:1.0 12:1.0 113:1.0 785:1.0 786:1.0 
-0.0 -0.7598905697383798 1.702798590685354 0.12114538250715547 0.026081695582993187 2:1.0 3:2.0 4:2.0 5:8.0 6:5.0 7:3.0 149:1.0 787:1.0 788:1.0 
-0.0 -0.15334735249335862 0.33504485041097565 0.18391739192449594 0.03931476477642782 2:1.0 3:2.0 4:1.0 5:4.0 6:4.0 7:1.0 789:1.0 790:1.0 
-0.0 -0.0 0.23292774244971687 0.0 0.0 2:1.0 3:2.0 4:1.0 5:11.0 6:11.0 7:1.0 177:1.0 281:1.0 791:2.0 
-0.0 -0.0 0.1810352751560281 0.0 0.0 2:1.0 3:2.0 4:3.0 5:6.0 6:4.0 7:1.0 544:1.0 792:1.0 
-0.0 -2.0 0.0 0.0 0.0 2:1.0 3:2.0 4:1.0 5:7.0 6:7.0 7:1.0 9:1.0 
-0.0 -0.40829720771826045 0.0 0.0 0.20785998835530145 2:1.0 3:2.0 4:1.0 5:5.0 6:5.0 7:1.0 12:1.0 529:1.0 793:1.0 
-0.0 -0.0 0.9062327618400605 0.10934706738599698 0.004155786421747428 2:1.0 3:2.0 4:2.0 5:7.0 6:6.0 7:1.0 678:1.0 794:1.0 
-0.17973442222195982 -0.0 1.022538587947217 0.0 0.0 3:2.0 4:3.0 5:10.0 6:6.0 7:2.0 8:1.0 10:1.0 151:1.0 154:1.0 461:1.0 
-0.0 -2.0 0.0 0.0 0.0 2:1.0 3:2.0 4:1.0 5:5.0 6:5.0 7:1.0 9:1.0 
-0.0 -2.0 0.0 0.0 0.0 2:1.0 3:2.0 4:1.0 5:5.0 6:5.0 7:1.0 9:1.0 
-2.0 -2.0 0.7932015104883079 0.3690908021819642 0.07875717571749213 1:1.0 2:1.0 3:2.0 4:3.0 5:6.0 6:4.0 7:1.0 
-0.0 -0.0 0.057571250163106304 0.022254739227517563 0.0 2:1.0 3:2.0 4:1.0 5:10.0 6:10.0 7:1.0 795:2.0 796:1.0 
-0.0 -0.03834661759439187 0.5360698254589106 0.18397411261572388 0.0 2:1.0 3:2.0 4:1.0 5:3.0 6:3.0 7:1.0 798:1.0 799:1.0 
-0.0 -0.0 1.0091127154777726 0.371404829941285 0.07147315103346646 2:1.0 3:2.0 4:3.0 5:9.0 6:6.0 7:1.0 11:1.0 498:1.0 544:1.0 800:1.0 
-0.0 -0.0 0.0 0.06966504961219688 0.0 2:1.0 3:2.0 4:2.0 5:9.0 6:8.0 7:1.0 506:1.0 801:1.0 802:1.0 
-0.0 -2.0 0.0 0.0 0.0 2:1.0 3:2.0 4:1.0 5:5.0 6:5.0 7:1.0 9:1.0 
-0.0 -0.0 0.2627760824599081 0.09207059119345316 0.16918991209488665 2:1.0 3:2.0 4:2.0 5:7.0 6:6.0 7:1.0 734:1.0 803:1.0 804:1.0 805:1.0 
-0.0 -0.0 0.1442189524853056 0.0 0.0 2:1.0 3:2.0 4:2.0 5:9.0 6:8.0 7:1.0 459:1.0 808:1.0 809:1.0 810:1.0 
-0.0 -2.0 0.0 0.0 0.0 2:1.0 3:2.0 4:1.0 5:7.0 6:7.0 7:1.0 9:1.0 
-0.0 -0.0 0.4159884535326005 0.204664119682926 0.1457841048251429 3:2.0 4:1.0 5:8.0 6:8.0 7:1.0 8:1.0 548:1.0 811:1.0 
-0.0 -1.077831084951168 0.8545232199764698 0.0 0.0 2:1.0 3:2.0 4:3.0 5:9.0 6:5.0 7:3.0 12:1.0 88:1.0 332:1.0 435:1.0 812:1.0 
-0.0 -0.08474743238986984 0.8644577893532125 0.0032216980741637184 0.0 2:1.0 3:2.0 4:3.0 5:10.0 6:8.0 7:1.0 149:1.0 813:1.0 814:1.0 
-0.0 -2.0 2.0 0.0 0.0 2:1.0 3:2.0 4:3.0 5:10.0 6:7.0 7:2.0 9:1.0 
-0.0 -0.0 0.685003403263648 0.36768642025212417 0.07825590397458988 2:1.0 3:2.0 4:1.0 5:6.0 6:6.0 7:1.0 815:1.0 
-0.0 -0.0 0.10453286402609842 0.0 0.0 2:1.0 3:2.0 4:4.0 5:18.0 6:13.0 7:3.0 12:1.0 88:1.0 272:1.0 816:1.0 817:1.0 818:1.0 819:1.0 
-0.0 -0.5068064014570598 0.4221154925314356 0.4094166802805143 0.049219532273128634 2:1.0 3:2.0 4:1.0 5:4.0 6:4.0 7:1.0 94:1.0 820:1.0 
-0.0 -0.0 0.0 0.0 2.0 2:1.0 3:2.0 4:1.0 5:16.0 6:15.0 7:2.0 9:1.0 
-0.0 -0.0 2.0 0.22645954396415097 0.0 3:2.0 4:1.0 5:7.0 6:7.0 7:1.0 86:1.0 314:1.0 494:1.0 
-0.0 -0.0 0.194751310060493 0.0 0.07002096712924819 2:1.0 3:2.0 4:2.0 5:8.0 6:6.0 7:1.0 43:1.0 564:1.0 678:1.0 822:1.0 
-0.0 -2.0 0.538123100649246 0.0 0.47493301752786365 3:2.0 4:3.0 5:8.0 6:4.0 7:3.0 28:1.0 35:1.0 
-0.0 -2.0 0.0 0.0 0.0 2:1.0 3:2.0 4:1.0 5:9.0 6:9.0 7:1.0 9:1.0 
-0.0 -0.0 0.10352971791934033 0.1742951287264875 0.015834406328536867 2:1.0 3:2.0 4:5.0 5:15.0 6:10.0 7:2.0 496:1.0 823:1.0 824:1.0 825:1.0 826:1.0 
