svm_type c_svc
kernel_type linear
nr_class 6
total_sv 3265
rho 0.4786264916950808 -0.11296660636336955 0.3654135181699331 -1.0711198210530848 0.005573208682677772 -0.09676718985644676 0.33199870188419567 -0.7225342146581862 0.14763439836549505 0.06710474449980258 -1.7738528174385273 0.5886607792108278 -1.2130967536692046 0.2503896363044997 1.3834442907853997
label 1 2 3 4 5 6
probA -2.212546764777389 -2.87265551023237 -2.4649759535792044 -1.7643396607190382 -2.429705981047312 -2.569486041160191 -2.2301502156006197 -1.985908842120907 -2.303020913950304 -1.550912569455681 -1.7573922557173158 -2.6795171437614225 -2.329859317305284 -1.873319023239547 -1.8616117386700373
probB 0.015254016246330245 -0.7500530995417405 -0.5232120275933066 -0.26378399998373714 0.6680916084694484 -0.5150850359125605 -0.2454843353093099 -0.35177499673250046 0.41272242954791105 0.3662778256996256 -0.7786552680518951 0.38851245566838305 -0.5748389187539713 0.09461659924286915 0.49545787348430664
nr_sv 325 492 672 1107 76 593
SV
0.5261480014314878 0.20583519839442616 0.9541585081589338 0.0 0.6566105291621649 1:1.0 2:1.0 3:1.0 4:1.0 5:2.0 6:3.0 7:7.0 8:4.0 9:1.0 10:1.0 
1.0 1.0 1.0 0.0 1.0 4:1.0 5:2.0 6:1.0 7:10.0 8:10.0 10:1.0 11:1.0 
0.0 0.0 0.0 0.0 1.0 5:2.0 6:5.0 7:13.0 8:7.0 10:3.0 12:1.0 13:1.0 
0.17560054570504055 0.004662833290463427 0.0 0.0 0.0 5:2.0 6:3.0 7:4.0 8:2.0 10:1.0 15:1.0 16:1.0 
1.0 1.0 1.0 0.0 1.0 4:1.0 5:2.0 6:1.0 7:6.0 8:6.0 10:1.0 17:1.0 
0.0 0.8742367923876343 1.0 0.0 0.32584633381726386 4:1.0 5:2.0 6:2.0 7:10.0 8:8.0 9:1.0 10:1.0 20:1.0 21:1.0 22:1.0 
1.0 1.0 1.0 1.0 1.0 4:1.0 5:2.0 6:2.0 7:5.0 8:4.0 10:1.0 11:1.0 
1.0 0.7790767701474843 1.0 0.0 1.0 5:2.0 6:5.0 7:9.0 8:4.0 10:2.0 24:1.0 25:1.0 26:1.0 
1.0 1.0 1.0 0.0 1.0 4:1.0 5:2.0 6:3.0 7:7.0 8:5.0 10:1.0 11:1.0 
0.0 1.0 1.0 0.250326182567181 1.0 4:1.0 5:2.0 6:1.0 7:18.0 8:10.0 10:6.0 11:1.0 27:3.0 
0.0 0.0 0.0 0.489167845249256 0.0 5:2.0 6:4.0 7:13.0 8:8.0 10:1.0 12:1.0 13:1.0 19:2.0 
1.0 1.0 1.0 0.0 0.0 4:1.0 5:2.0 6:1.0 7:6.0 8:6.0 10:1.0 11:1.0 
1.0 1.0 1.0 0.0 1.0 4:1.0 5:2.0 6:4.0 7:10.0 8:6.0 10:2.0 11:1.0 
1.0 1.0 1.0 0.0 1.0 4:1.0 5:2.0 6:3.0 7:10.0 8:8.0 10:1.0 11:1.0 
0.0 0.1258659987264887 0.010142182765613472 0.0 0.28232885700265054 5:2.0 6:5.0 7:14.0 8:7.0 10:3.0 19:1.0 26:1.0 31:1.0 32:1.0 33:1.0 34:1.0 
0.0 0.001792334737634633 0.0 0.0 0.0 5:2.0 6:1.0 7:5.0 8:5.0 10:1.0 15:1.0 35:1.0 
1.0 1.0 1.0 1.0 0.0 4:1.0 5:2.0 6:1.0 7:4.0 8:4.0 10:1.0 11:1.0 
1.0 1.0 1.0 0.0 0.0 4:1.0 5:2.0 6:1.0 7:6.0 8:6.0 10:1.0 11:1.0 
0.0 0.01307179190739283 0.2955783269779841 0.0 0.26509595719097856 1:1.0 4:1.0 5:2.0 6:3.0 7:17.0 8:11.0 10:5.0 20:1.0 36:1.0 37:1.0 38:1.0 39:1.0 40:1.0 41:1.0 
0.18232093681492095 0.0 0.1484079625661215 0.0 0.30046575922538493 4:1.0 5:2.0 6:7.0 7:10.0 8:4.0 10:1.0 31:1.0 42:1.0 43:1.0 
0.0 0.0 0.03059147924378176 0.0 0.06327889368934177 5:2.0 6:3.0 7:7.0 8:5.0 10:1.0 26:1.0 31:1.0 44:1.0 
1.0 1.0 1.0 0.0 0.0 4:1.0 5:2.0 6:1.0 7:7.0 8:7.0 10:1.0 11:1.0 
1.0 0.44155010762655034 1.0 0.08804315587555163 1.0 1:1.0 4:1.0 5:2.0 6:2.0 7:6.0 8:2.0 9:1.0 10:2.0 27:1.0 39:1.0 
0.34675250646203243 0.1476815313709908 0.8257499155559583 0.13307615038989226 0.4536578298010417 4:1.0 5:2.0 6:1.0 7:10.0 8:9.0 10:1.0 19:1.0 52:1.0 54:1.0 55:1.0 
1.0 1.0 1.0 0.0 1.0 4:1.0 5:2.0 6:5.0 7:9.0 8:4.0 10:2.0 11:1.0 
0.7383278284501302 1.0 1.0 0.0 0.0 4:1.0 5:2.0 6:1.0 7:16.0 8:14.0 10:1.0 11:1.0 27:2.0 
0.0 0.0 0.0 0.0 0.013205701082697774 5:2.0 6:3.0 7:8.0 8:6.0 10:1.0 26:1.0 31:1.0 56:1.0 57:1.0 
0.08954605187412418 0.0 0.0 0.0 0.0 5:2.0 6:3.0 7:5.0 8:3.0 10:1.0 15:1.0 58:1.0 
1.0 1.0 1.0 0.0 1.0 5:2.0 6:3.0 7:11.0 8:9.0 10:1.0 26:1.0 59:1.0 60:1.0 
1.0 1.0 1.0 0.0 1.0 4:1.0 5:2.0 6:1.0 7:10.0 8:10.0 10:1.0 11:1.0 
1.0 1.0 1.0 0.7918846248759035 1.0 4:1.0 5:2.0 6:3.0 7:6.0 8:4.0 10:1.0 11:1.0 
1.0 1.0 1.0 1.0 1.0 4:1.0 5:2.0 6:2.0 7:5.0 8:4.0 10:1.0 11:1.0 
1.0 1.0 1.0 0.0 0.0 4:1.0 5:2.0 6:1.0 7:7.0 8:7.0 10:1.0 11:1.0 
0.0 0.0 0.14500864082161147 0.0 0.7088681717664757 5:2.0 6:2.0 7:9.0 8:8.0 10:1.0 26:1.0 31:1.0 61:1.0 62:1.0 
1.0 1.0 1.0 1.0 1.0 4:1.0 5:2.0 6:2.0 7:5.0 8:4.0 10:1.0 11:1.0 
0.0 0.0 0.14817613379301012 0.0 0.42202676191720956 4:1.0 5:2.0 6:1.0 7:8.0 8:8.0 10:1.0 31:1.0 63:1.0 64:1.0 
0.12579359276478438 0.0 0.030357062878222346 0.0 0.32758475755566135 5:2.0 6:2.0 7:9.0 8:6.0 10:3.0 26:1.0 31:1.0 65:1.0 
1.0 1.0 1.0 0.0 1.0 4:1.0 5:2.0 6:9.0 7:24.0 8:8.0 10:9.0 11:1.0 
1.0 1.0 1.0 0.0 1.0 4:1.0 5:2.0 6:2.0 7:8.0 8:7.0 10:1.0 11:1.0 
1.0 1.0 1.0 0.0 0.0 4:1.0 5:2.0 6:1.0 7:7.0 8:7.0 10:1.0 11:1.0 
0.34960582256521705 0.17846521866810638 0.5580515975984711 0.0 0.41240006402601914 4:1.0 5:2.0 6:7.0 7:14.0 8:6.0 10:2.0 19:1.0 45:1.0 46:1.0 47:1.0 48:1.0 49:1.0 
1.0 0.04257226170162647 1.0 0.0 0.9593673119504609 4:1.0 5:2.0 6:4.0 7:9.0 8:6.0 10:1.0 17:1.0 66:1.0 67:1.0 
0.0 0.22029779735449675 0.41016111978460373 0.0 0.5111856876328875 5:2.0 6:3.0 7:16.0 8:11.0 10:4.0 26:1.0 37:1.0 39:1.0 41:1.0 68:1.0 69:1.0 
1.0 1.0 1.0 1.0 0.0 4:1.0 5:2.0 6:1.0 7:5.0 8:5.0 10:1.0 11:1.0 
1.0 1.0 1.0 0.0 1.0 4:1.0 5:2.0 6:1.0 7:14.0 8:14.0 10:1.0 11:1.0 
1.0 1.0 1.0 0.0 0.0 4:1.0 5:2.0 6:1.0 7:7.0 8:7.0 10:1.0 11:1.0 
1.0 1.0 1.0 0.0 1.0 4:1.0 5:2.0 6:3.0 7:10.0 8:8.0 10:1.0 11:1.0 
0.0 1.0 0.23333030371034713 0.0 0.0 5:2.0 6:2.0 7:3.0 8:2.0 10:1.0 15:1.0 58:1.0 
1.0 1.0 1.0 0.0 0.0 4:1.0 5:2.0 6:1.0 7:7.0 8:7.0 10:1.0 11:1.0 
1.0 1.0 1.0 0.5476751337036787 0.0 4:1.0 5:2.0 6:1.0 7:6.0 8:6.0 10:1.0 11:1.0 
0.0 0.0 0.046533281798209314 0.0 0.0 5:2.0 6:5.0 7:11.0 8:7.0 10:1.0 26:1.0 31:1.0 73:1.0 74:1.0 75:1.0 
0.0032598217485201187 0.0 0.23316975187121675 0.0 2.665103111398931E-4 4:1.0 5:2.0 6:1.0 7:9.0 8:8.0 10:2.0 20:1.0 77:1.0 78:1.0 79:1.0 
0.0 0.0012606227785637272 0.23291396806603124 0.0 0.025794492991235297 5:2.0 6:3.0 7:18.0 8:15.0 10:2.0 15:1.0 80:1.0 
1.0 0.0 0.0 0.0 0.0 5:2.0 6:1.0 7:9.0 8:8.0 10:1.0 72:1.0 81:1.0 82:1.0 83:1.0 84:1.0 
0.29138360763520277 0.6287793690368509 0.666429583228564 0.0 0.6725963147872746 4:1.0 5:2.0 6:1.0 7:9.0 8:8.0 10:2.0 20:1.0 85:1.0 86:1.0 87:1.0 
0.7694667030309804 1.0 1.0 0.0 1.0 1:1.0 4:1.0 5:2.0 6:1.0 7:11.0 8:9.0 10:3.0 88:1.0 89:1.0 
0.0 0.22692706330721985 0.0 0.0 0.0 5:2.0 6:3.0 7:7.0 8:4.0 10:1.0 12:1.0 13:1.0 91:1.0 
1.0 0.7899826933778713 1.0 0.2711201767353165 1.0 5:2.0 6:3.0 7:8.0 8:5.0 10:1.0 14:1.0 19:1.0 26:1.0 38:1.0 
0.0 0.0 0.0 0.0 1.0 5:2.0 6:6.0 7:10.0 8:2.0 10:4.0 12:1.0 13:1.0 
0.23500322062168716 0.22206851880921455 0.10310586957853882 0.0 0.5274129060108 5:2.0 6:1.0 7:6.0 8:5.0 10:1.0 15:1.0 18:1.0 92:1.0 
1.0 1.0 1.0 0.0 1.0 4:1.0 5:2.0 6:3.0 7:10.0 8:8.0 10:1.0 11:1.0 
1.0 1.0 1.0 0.0 0.0 4:1.0 5:2.0 6:1.0 7:7.0 8:7.0 10:1.0 11:1.0 
1.0 1.0 1.0 1.0 1.0 4:1.0 5:2.0 6:2.0 7:7.0 8:5.0 10:1.0 11:1.0 72:1.0 
0.0 0.0 0.0 0.0 0.3291917923563071 5:2.0 6:1.0 7:12.0 8:12.0 10:1.0 26:1.0 94:1.0 95:1.0 96:1.0 97:1.0 
0.0 0.0 0.3564842471852858 0.0 0.2424645095908917 4:1.0 5:2.0 6:3.0 7:9.0 8:6.0 10:2.0 31:1.0 98:1.0 99:1.0 
0.10977643093491884 0.0 0.5023134956563664 0.0 0.5872688832095068 1:1.0 4:1.0 5:2.0 6:3.0 7:7.0 8:5.0 10:1.0 17:1.0 100:1.0 
0.016626257451834003 0.0 0.594587856911291 0.0 0.20484427270514316 4:1.0 5:2.0 6:2.0 7:4.0 8:3.0 10:1.0 31:1.0 101:1.0 
1.0 1.0 1.0 0.0 0.0 4:1.0 5:2.0 6:1.0 7:7.0 8:7.0 10:1.0 11:1.0 
0.0 0.001360148154506218 0.13948654147010764 0.0 0.4049206267733702 4:1.0 5:2.0 6:5.0 7:13.0 8:6.0 10:4.0 26:1.0 31:1.0 102:1.0 103:1.0 104:1.0 
0.3635659186082334 1.0 1.0 0.0 1.0 4:1.0 5:2.0 6:1.0 7:5.0 8:5.0 10:1.0 20:1.0 105:1.0 
0.062132169492745325 0.190835381619664 0.8313347032292216 0.0 0.47114311095807576 4:1.0 5:2.0 6:2.0 7:17.0 8:15.0 10:2.0 36:1.0 106:1.0 107:1.0 108:1.0 
1.0 1.0 1.0 0.0 0.0 4:1.0 5:2.0 6:1.0 7:16.0 8:15.0 10:1.0 11:1.0 27:1.0 
1.0 1.0 1.0 1.0 1.0 4:1.0 5:2.0 6:2.0 7:5.0 8:4.0 10:1.0 11:1.0 
1.0 1.0 1.0 1.0 0.8880856336186198 4:1.0 5:2.0 6:1.0 7:11.0 8:10.0 10:1.0 11:1.0 19:1.0 
0.0 0.020751481052023776 0.03136016259689175 0.0 0.3772952896349506 5:2.0 6:4.0 7:9.0 8:6.0 10:1.0 26:1.0 31:1.0 109:1.0 110:1.0 111:1.0 
0.0 0.0 0.2570225475600512 0.0 0.13905340825465454 4:1.0 5:2.0 6:1.0 7:9.0 8:9.0 10:1.0 31:1.0 116:1.0 
0.6576353450340856 0.16220946474937273 0.5383624000475294 0.0 0.4372649920401721 4:1.0 5:2.0 6:3.0 7:12.0 8:9.0 10:1.0 70:1.0 117:1.0 118:1.0 119:1.0 120:1.0 
1.0 1.0 1.0 0.0 0.0 4:1.0 5:2.0 6:1.0 7:6.0 8:6.0 10:1.0 11:1.0 
0.8700504682327485 0.7014639264013038 0.919382008477874 0.0 0.5831397065932757 4:1.0 5:2.0 6:3.0 7:7.0 8:4.0 9:1.0 10:1.0 20:1.0 121:1.0 122:1.0 
0.0 0.0 0.10850571979612708 0.0 0.0 5:2.0 6:2.0 7:9.0 8:7.0 10:1.0 14:1.0 15:1.0 123:1.0 
1.0 1.0 1.0 0.0 0.0 4:1.0 5:2.0 6:2.0 7:7.0 8:7.0 11:1.0 
0.0010101107057564123 0.0 0.27226823604674627 0.0 0.9259306761392406 4:1.0 5:2.0 6:3.0 7:9.0 8:6.0 10:2.0 31:1.0 124:1.0 125:1.0 
0.0 0.7445835063988425 0.08986967189729736 0.0 0.0 5:2.0 6:1.0 7:4.0 8:4.0 10:1.0 15:1.0 71:1.0 
1.0 1.0 1.0 0.0 1.0 4:1.0 5:2.0 6:2.0 7:9.0 8:7.0 10:1.0 11:1.0 72:1.0 
1.0 1.0 1.0 0.0 1.0 4:1.0 5:2.0 6:1.0 7:9.0 8:9.0 10:1.0 11:1.0 
1.0 1.0 1.0 0.18970115364762064 1.0 4:1.0 5:2.0 6:3.0 7:7.0 8:4.0 10:2.0 11:1.0 
0.6361017177855942 0.9430386708781712 1.0 0.0 0.6468756665097436 4:1.0 5:2.0 6:4.0 7:11.0 8:8.0 10:1.0 20:1.0 126:1.0 127:1.0 
1.0 1.0 1.0 0.0 0.0 4:1.0 5:2.0 6:1.0 7:7.0 8:7.0 10:1.0 11:1.0 
1.0 1.0 1.0 0.0 1.0 4:1.0 5:2.0 6:4.0 7:11.0 8:8.0 10:1.0 11:1.0 
0.0 0.0 0.044506701909459746 0.0 0.17037922872899458 5:2.0 6:1.0 7:13.0 8:12.0 10:1.0 26:1.0 31:1.0 70:1.0 128:1.0 129:1.0 130:1.0 
0.0 0.0 0.0 0.0 1.0 5:2.0 6:8.0 7:13.0 8:4.0 10:3.0 12:1.0 13:1.0 
1.0 1.0 1.0 0.0 1.0 4:1.0 5:2.0 6:2.0 7:13.0 8:12.0 10:1.0 11:1.0 
1.0 1.0 1.0 0.0 1.0 4:1.0 5:2.0 6:1.0 7:10.0 8:10.0 10:1.0 11:1.0 
0.38933346189369605 0.6287468715661281 0.9639347145926598 0.0 0.37572864281980084 4:1.0 5:2.0 6:2.0 7:8.0 8:7.0 10:1.0 20:1.0 131:1.0 132:1.0 133:1.0 
0.016626896592923473 0.0 0.5678069535371247 0.0 0.20485211775260548 4:1.0 5:2.0 6:2.0 7:4.0 8:3.0 10:1.0 31:1.0 134:1.0 
0.35892191973825693 0.6287418246288717 0.8459144723476534 0.0 0.03441423786351208 4:1.0 5:2.0 6:1.0 7:10.0 8:10.0 10:1.0 20:1.0 95:1.0 96:1.0 97:1.0 
1.0 1.0 1.0 0.0 1.0 4:1.0 5:2.0 6:1.0 7:13.0 8:13.0 10:1.0 11:1.0 
0.8449807215793541 0.5558361152017485 0.8250129762279842 0.0 1.0 5:2.0 6:3.0 7:9.0 8:5.0 10:3.0 26:1.0 135:1.0 136:1.0 
0.5763964867841733 1.0 0.23276406769601402 0.0 0.0 5:2.0 6:3.0 7:5.0 8:3.0 10:1.0 15:1.0 137:1.0 
0.11641176692495799 0.0 0.14818253960332553 0.0 0.08729929564707901 4:1.0 5:2.0 6:3.0 7:7.0 8:5.0 10:1.0 31:1.0 138:1.0 139:1.0 
0.38971150059984094 0.6287109374406833 0.666446237278583 0.0 0.40570916515165745 4:1.0 5:2.0 6:3.0 7:10.0 8:8.0 10:1.0 20:1.0 140:1.0 141:1.0 142:1.0 
1.0 0.793615817489157 1.0 0.0 1.0 4:1.0 5:2.0 6:3.0 7:10.0 8:8.0 10:1.0 143:1.0 
1.0 1.0 1.0 1.0 1.0 4:1.0 5:2.0 6:2.0 7:5.0 8:4.0 10:1.0 11:1.0 
1.0 1.0 1.0 0.2618709649637897 0.0 4:1.0 5:2.0 6:1.0 7:8.0 8:7.0 10:1.0 11:1.0 72:1.0 
0.010481361523637094 0.0 1.0841881456560516E-4 0.0 0.04178521419809021 4:1.0 5:2.0 6:2.0 7:12.0 8:8.0 10:2.0 20:1.0 27:1.0 72:1.0 77:1.0 144:1.0 145:1.0 146:1.0 
0.3634193809473717 0.7234680243039552 0.6291230607695693 0.039906679463221434 0.9123981870448037 4:1.0 5:2.0 6:2.0 7:11.0 8:8.0 10:2.0 20:1.0 27:1.0 114:1.0 147:1.0 148:1.0 149:1.0 
0.0 0.0 0.0307966154592742 0.0 0.0 5:2.0 6:2.0 7:5.0 8:4.0 10:1.0 26:1.0 31:1.0 150:1.0 
1.0 1.0 1.0 1.0 0.0 4:1.0 5:2.0 6:1.0 7:5.0 8:4.0 10:1.0 11:1.0 19:1.0 
0.7705785083129099 0.0 0.0 0.0 0.0 5:2.0 6:3.0 7:3.0 8:1.0 10:1.0 12:1.0 13:1.0 
0.0 1.0 0.8124140247839745 0.0 0.0 5:2.0 6:3.0 7:5.0 8:2.0 10:1.0 12:1.0 13:1.0 91:1.0 
0.0 0.0013314239749664175 0.0013744531563359883 0.0 0.0 5:2.0 6:1.0 7:10.0 8:10.0 10:1.0 15:1.0 151:1.0 
1.0 1.0 1.0 0.0 0.0 4:1.0 5:2.0 6:1.0 7:7.0 8:7.0 10:1.0 11:1.0 
0.0 1.0 0.0 0.0 0.0 5:2.0 6:2.0 7:6.0 8:4.0 10:2.0 15:1.0 80:1.0 
0.002547465381054772 0.06108986557429963 0.2240558698956895 0.0013611627461897298 0.06750096240082598 4:1.0 5:2.0 6:1.0 7:8.0 8:6.0 9:1.0 10:1.0 20:1.0 72:1.0 152:1.0 153:1.0 
0.0 1.0 0.23117254766346446 0.0 0.0 5:2.0 6:2.0 7:6.0 8:5.0 10:1.0 15:1.0 151:1.0 
0.0 0.45534885698400335 0.5235956608415998 0.34089089940397865 0.0 4:1.0 5:2.0 6:1.0 7:9.0 8:7.0 10:2.0 19:1.0 20:1.0 29:1.0 125:1.0 154:1.0 
1.0 1.0 1.0 0.0 1.0 4:1.0 5:2.0 6:4.0 7:8.0 8:5.0 10:1.0 11:1.0 
0.0 0.0 1.0 0.0 0.25055009161358166 4:1.0 5:2.0 6:5.0 7:12.0 8:8.0 10:1.0 31:1.0 73:1.0 75:1.0 
0.0 0.07603983789679966 0.19390000024562187 0.0 0.0 4:1.0 5:2.0 6:1.0 7:10.0 8:10.0 10:1.0 31:1.0 155:1.0 156:1.0 
1.0 1.0 1.0 0.0 1.0 4:1.0 5:2.0 6:2.0 7:7.0 8:6.0 10:1.0 11:1.0 
1.0 1.0 1.0 0.0 1.0 4:1.0 5:2.0 6:5.0 7:15.0 8:11.0 10:1.0 11:1.0 
0.0 0.0 0.1429943736969373 0.0 0.0 5:2.0 6:1.0 7:16.0 8:15.0 10:1.0 15:1.0 27:1.0 71:1.0 
1.0 1.0 1.0 0.0 1.0 4:1.0 5:2.0 6:1.0 7:12.0 8:12.0 10:1.0 11:1.0 
1.0 1.0 1.0 0.0 0.0 4:1.0 5:2.0 6:1.0 7:7.0 8:7.0 10:1.0 11:1.0 
1.0 1.0 1.0 0.0 0.0 4:1.0 5:2.0 6:1.0 7:8.0 8:8.0 10:1.0 11:1.0 
0.07243532758837957 0.06807154628013351 0.09938365053673219 0.0 0.15847191664009164 5:2.0 6:3.0 7:7.0 8:4.0 10:2.0 26:1.0 29:1.0 157:1.0 158:1.0 
0.0 1.0 0.23285830077720168 0.0 0.0 5:2.0 6:1.0 7:4.0 8:4.0 10:1.0 15:1.0 35:1.0 
1.0 1.0 1.0 0.0 1.0 4:1.0 5:2.0 6:2.0 7:7.0 8:6.0 10:1.0 11:1.0 
0.0 0.0 1.0 0.0 0.0 1:1.0 4:1.0 5:2.0 6:1.0 7:8.0 8:7.0 10:2.0 20:1.0 31:1.0 77:1.0 
0.5672916609329535 0.4575679535745287 1.0 0.0 0.2685244540268902 4:1.0 5:2.0 6:1.0 7:9.0 8:8.0 10:2.0 20:1.0 77:1.0 78:1.0 79:1.0 
0.0 0.0 0.148189435682156 0.0 0.437923235989049 4:1.0 5:2.0 6:2.0 7:11.0 8:8.0 10:3.0 31:1.0 159:1.0 160:1.0 
1.0 1.0 1.0 0.0 1.0 4:1.0 5:2.0 6:1.0 7:16.0 8:15.0 10:1.0 11:1.0 19:1.0 
0.0 0.12130227743989908 0.17358760329993603 0.0 0.41198726992833656 5:2.0 6:1.0 7:12.0 8:11.0 10:2.0 17:1.0 26:1.0 161:1.0 162:1.0 163:1.0 
1.0 1.0 1.0 0.0 1.0 4:1.0 5:2.0 6:4.0 7:10.0 8:6.0 10:2.0 11:1.0 
1.0 1.0 1.0 1.0 1.0 4:1.0 5:2.0 6:3.0 7:7.0 8:4.0 10:2.0 11:1.0 
0.04465845141400787 0.6508854287332246 0.5545864108921822 0.059181261339775845 1.0 4:1.0 5:2.0 6:1.0 7:9.0 8:8.0 10:2.0 20:1.0 78:1.0 166:1.0 167:1.0 
0.0 1.0 1.0 0.0 0.1460353351297912 4:1.0 5:2.0 6:1.0 7:10.0 8:8.0 9:2.0 10:1.0 11:1.0 
0.0 0.0 1.0 0.0 0.0 5:2.0 6:1.0 7:7.0 8:7.0 10:1.0 12:1.0 13:1.0 26:1.0 
0.03189953341303875 0.0 0.0 0.0 0.02712971285732938 1:1.0 4:1.0 5:2.0 6:1.0 7:11.0 8:8.0 10:3.0 20:1.0 76:1.0 168:1.0 169:1.0 170:1.0 
1.0 1.0 1.0 1.0 1.0 4:1.0 5:2.0 6:3.0 7:6.0 8:3.0 10:2.0 11:1.0 
0.0 0.0019841055974335374 0.0 0.0 0.0 5:2.0 6:1.0 7:4.0 8:4.0 10:1.0 15:1.0 112:1.0 
1.0 1.0 1.0 1.0 0.0 4:1.0 5:2.0 6:1.0 7:5.0 8:5.0 10:1.0 11:1.0 
1.0 1.0 1.0 0.0 1.0 4:1.0 5:2.0 6:4.0 7:10.0 8:6.0 10:2.0 11:1.0 
1.0 1.0 1.0 0.0 1.0 4:1.0 5:2.0 6:1.0 7:12.0 8:12.0 10:1.0 11:1.0 
1.0 1.0 1.0 0.18793647988641649 1.0 4:1.0 5:2.0 6:3.0 7:6.0 8:4.0 10:1.0 11:1.0 
0.2245047208724342 0.22228689742928084 0.43281750425019966 0.0 0.4786604995902707 5:2.0 6:3.0 7:13.0 8:10.0 10:2.0 26:1.0 74:1.0 171:1.0 172:1.0 173:1.0 174:1.0 
0.04165560265003335 0.0 0.0 0.0 0.02328228736670606 4:1.0 5:2.0 6:2.0 7:8.0 8:7.0 10:1.0 45:1.0 175:1.0 176:1.0 
0.0 0.0 1.0 0.0 0.8173619985653667 4:1.0 5:2.0 6:1.0 7:6.0 8:6.0 10:1.0 31:1.0 177:1.0 
0.0 0.24678949709986364 0.11489052645794363 0.0 0.0 4:1.0 5:2.0 6:3.0 7:10.0 8:7.0 10:2.0 20:1.0 29:1.0 178:1.0 179:1.0 180:1.0 
1.0 1.0 1.0 0.0 0.0 4:1.0 5:2.0 6:1.0 7:7.0 8:7.0 10:1.0 11:1.0 
0.0 0.03394816491302186 0.0 0.0 0.0 5:2.0 6:1.0 7:4.0 8:4.0 10:1.0 15:1.0 93:1.0 
0.5058047245255903 0.5513789909258211 0.5579692957910711 0.0 0.4218336017069788 4:1.0 5:2.0 6:1.0 7:13.0 8:13.0 10:1.0 20:1.0 50:1.0 51:1.0 52:1.0 53:1.0 
1.0 1.0 1.0 0.0 1.0 4:1.0 5:2.0 6:1.0 7:10.0 8:10.0 10:1.0 11:1.0 
0.0 0.0 0.0 0.0 0.6183911960600145 5:2.0 7:8.0 8:7.0 10:2.0 19:1.0 26:1.0 29:1.0 125:1.0 154:1.0 
0.0 0.0 0.030610816699738568 0.0 0.0 5:2.0 6:2.0 7:6.0 8:5.0 10:1.0 26:1.0 31:1.0 57:1.0 
1.0 1.0 1.0 0.9932817199039277 1.0 4:1.0 5:2.0 6:3.0 7:7.0 8:4.0 10:2.0 11:1.0 
0.5626730800854525 0.23084127691917133 0.30711104743294704 0.0 0.0 4:1.0 5:2.0 6:4.0 7:9.0 8:6.0 10:1.0 31:1.0 182:1.0 183:1.0 
0.017245949205445033 0.1769992484505445 1.0 0.0 0.6705526317085923 4:1.0 5:2.0 6:3.0 7:6.0 8:4.0 10:1.0 31:1.0 185:1.0 
0.5682581100160047 0.022453895546650424 0.14826376494493973 0.0 0.1156406345508546 4:1.0 5:2.0 6:2.0 7:6.0 8:5.0 10:1.0 31:1.0 186:1.0 187:1.0 
1.0 1.0 1.0 1.0 1.0 4:1.0 5:2.0 6:2.0 7:5.0 8:4.0 10:1.0 11:1.0 
0.011743130705780157 0.0 0.0 0.0 0.0 5:2.0 6:3.0 7:4.0 8:2.0 10:1.0 15:1.0 28:1.0 
0.41766109980405824 0.0 0.01821049333365857 0.0 0.11981182201392393 4:1.0 5:2.0 6:3.0 7:14.0 8:10.0 10:3.0 37:1.0 39:1.0 41:1.0 68:1.0 189:1.0 
1.0 1.0 1.0 0.0 1.0 4:1.0 5:2.0 6:1.0 7:10.0 8:10.0 10:1.0 11:1.0 
1.0 1.0 1.0 0.0 1.0 4:1.0 5:2.0 6:4.0 7:14.0 8:11.0 10:1.0 11:1.0 
0.0 0.0 0.04749071374698686 0.0 0.0 4:1.0 5:2.0 6:1.0 7:8.0 8:8.0 10:1.0 29:1.0 190:1.0 191:1.0 
0.9303003719099648 0.38196602798037116 0.6522185489548256 0.0 0.5808506313363622 4:1.0 5:2.0 6:1.0 7:6.0 8:6.0 10:1.0 36:1.0 106:1.0 192:1.0 
0.0 0.0 0.0 0.0 0.007618230086294803 1:1.0 4:1.0 5:2.0 6:1.0 7:10.0 8:9.0 10:2.0 193:1.0 194:1.0 195:1.0 
0.0 0.0 0.0 0.0 0.06667063209312762 5:2.0 6:2.0 7:7.0 8:6.0 10:1.0 26:1.0 31:1.0 147:1.0 196:1.0 
0.0 1.0 0.2332945329472661 0.0 0.0 5:2.0 6:1.0 7:3.0 8:3.0 10:1.0 15:1.0 112:1.0 
1.0 1.0 1.0 0.22389190370029058 0.0 4:1.0 5:2.0 6:1.0 7:6.0 8:6.0 10:1.0 11:1.0 
1.0 0.16346469134176245 0.5794465318223304 0.0 0.2401303345190269 4:1.0 5:2.0 6:3.0 7:8.0 8:4.0 10:3.0 20:1.0 166:1.0 197:1.0 198:1.0 199:1.0 
1.0 1.0 1.0 1.0 1.0 4:1.0 5:2.0 6:1.0 7:10.0 8:8.0 10:2.0 11:1.0 19:1.0 
1.0 1.0 1.0 0.0 1.0 4:1.0 5:2.0 6:1.0 7:9.0 8:9.0 10:1.0 11:1.0 
1.0 1.0 1.0 0.0 1.0 4:1.0 5:2.0 6:1.0 7:13.0 8:13.0 10:1.0 11:1.0 
0.017387307089075356 0.0 0.2966373186834502 0.0 0.2945121521731908 4:1.0 5:2.0 6:3.0 7:6.0 8:4.0 10:1.0 31:1.0 200:1.0 
0.23864100598145443 0.7013955696984224 0.9193311114727296 0.0 0.6599514380943188 4:1.0 5:2.0 6:1.0 7:8.0 8:7.0 9:1.0 10:1.0 20:1.0 201:1.0 202:1.0 
0.0 0.2750491163112281 0.6024579317304094 0.0 0.13743227570510338 1:1.0 4:1.0 5:2.0 6:1.0 7:10.0 8:9.0 10:2.0 193:1.0 194:1.0 195:1.0 
0.006372535941918539 0.5925458799915402 0.0 0.0 0.0 5:2.0 6:3.0 7:4.0 8:2.0 10:1.0 15:1.0 23:1.0 
0.0 0.06864982426124559 0.11902597776253504 0.0 0.11857012671292322 5:2.0 6:4.0 7:23.0 8:20.0 10:1.0 26:1.0 29:1.0 203:1.0 204:1.0 205:1.0 206:1.0 207:1.0 
0.0 0.0 0.0 0.13909798433249856 0.0 5:2.0 6:1.0 7:4.0 8:3.0 10:1.0 12:1.0 13:1.0 19:1.0 
0.0 0.012957199451731504 0.0 0.0 0.03924125131085381 1:1.0 4:1.0 5:2.0 6:7.0 7:23.0 8:16.0 10:2.0 31:1.0 114:1.0 208:1.0 209:1.0 210:1.0 211:1.0 212:1.0 
1.0 1.0 1.0 0.0 1.0 4:1.0 5:2.0 6:2.0 7:12.0 8:10.0 9:1.0 10:1.0 11:1.0 
0.08954349507267585 0.0 0.0 0.0 0.0 5:2.0 6:3.0 7:5.0 8:3.0 10:1.0 15:1.0 71:1.0 
1.0 1.0 1.0 0.0 0.0 4:1.0 5:2.0 6:1.0 7:7.0 8:7.0 10:1.0 11:1.0 
0.2802624712712371 0.17013754443068757 0.6056190727162029 0.0 0.36865917676972493 1:1.0 5:2.0 6:3.0 7:9.0 8:7.0 10:1.0 26:1.0 180:1.0 213:1.0 214:1.0 
1.0 1.0 1.0 0.0 1.0 4:1.0 5:2.0 6:3.0 7:16.0 8:14.0 10:1.0 11:1.0 
0.0 0.0011928180978938768 0.04058213005314859 0.0 0.0 5:2.0 6:4.0 7:10.0 8:7.0 10:1.0 15:1.0 181:1.0 
1.0 1.0 1.0 0.0 1.0 4:1.0 5:2.0 6:3.0 7:7.0 8:5.0 10:1.0 11:1.0 
0.015698347019328006 0.47301122233121695 0.43396428850747415 0.0 0.37972895186550126 1:1.0 4:1.0 5:2.0 6:1.0 7:16.0 8:12.0 10:5.0 20:1.0 77:1.0 218:1.0 219:1.0 220:1.0 221:1.0 
0.0 0.001984243159784364 0.0 0.0 0.0 5:2.0 6:1.0 7:4.0 8:4.0 10:1.0 15:1.0 58:1.0 
0.0 0.0 0.33192088174111967 0.28564932116595276 0.13249542297000405 4:1.0 5:2.0 6:1.0 7:6.0 8:5.0 10:1.0 19:1.0 31:1.0 222:1.0 
0.07538172822330676 0.3281300231566672 0.10268635306685832 0.0 0.0 4:1.0 5:2.0 6:2.0 7:6.0 8:5.0 10:1.0 36:1.0 168:1.0 
1.0 1.0 1.0 1.0 0.0 4:1.0 5:2.0 6:1.0 7:5.0 8:4.0 10:1.0 11:1.0 19:1.0 
0.10307835399810808 0.0 0.2968310736772883 0.0 0.2813762040290315 4:1.0 5:2.0 6:3.0 7:5.0 8:3.0 10:1.0 31:1.0 225:1.0 
1.0 1.0 1.0 0.0 1.0 4:1.0 5:2.0 6:2.0 7:11.0 8:9.0 10:2.0 11:1.0 
0.0 0.0 0.02768252924973133 0.0 0.2540716173521931 5:2.0 6:3.0 7:9.0 8:7.0 10:1.0 26:1.0 31:1.0 74:1.0 226:1.0 
1.0 1.0 1.0 0.0 0.0 4:1.0 5:2.0 6:1.0 7:6.0 8:6.0 10:1.0 11:1.0 
1.0 0.8762450079534843 1.0 0.0 1.0 4:1.0 5:2.0 6:4.0 7:11.0 8:8.0 10:1.0 143:1.0 
0.0 0.0 0.0305753147609005 0.0 0.0 5:2.0 6:2.0 7:7.0 8:6.0 10:1.0 26:1.0 31:1.0 227:1.0 
0.0 0.0 0.0 0.0 0.660769595281513 5:2.0 6:1.0 7:11.0 8:9.0 10:2.0 15:1.0 23:1.0 92:1.0 
0.0 0.25727306900124464 0.0 0.0 0.0 5:2.0 6:3.0 7:6.0 8:3.0 10:1.0 15:1.0 19:1.0 71:1.0 
1.0 1.0 1.0 0.0 1.0 4:1.0 5:2.0 6:1.0 7:8.0 8:7.0 10:1.0 11:1.0 70:1.0 
1.0 1.0 1.0 1.0 1.0 4:1.0 5:2.0 6:2.0 7:5.0 8:4.0 10:1.0 11:1.0 
0.4162684564149354 0.879609161266706 0.7239546420001184 0.05911058034335321 0.2731206447109724 4:1.0 5:2.0 6:2.0 7:9.0 8:7.0 10:2.0 20:1.0 166:1.0 228:1.0 229:1.0 
0.0 0.048594358143931066 0.0 0.0 0.0 5:2.0 6:2.0 7:7.0 8:4.0 10:1.0 15:1.0 23:1.0 72:1.0 91:1.0 
0.2351842989240507 0.2495186125277809 0.7687020542459789 0.0 0.32550427313746766 5:2.0 6:2.0 7:7.0 8:6.0 10:1.0 20:1.0 26:1.0 230:1.0 231:1.0 232:1.0 
1.0 1.0 1.0 0.0 1.0 4:1.0 5:2.0 6:3.0 7:13.0 8:11.0 10:1.0 11:1.0 
1.0 1.0 1.0 0.0 0.0 4:1.0 5:2.0 6:1.0 7:7.0 8:7.0 10:1.0 11:1.0 
1.0 1.0 1.0 0.0 1.0 4:1.0 5:2.0 6:3.0 7:7.0 8:5.0 10:1.0 11:1.0 
0.29926723907509506 0.6434509222623622 0.2557981564068069 0.0 0.5316485098355368 5:2.0 6:3.0 7:14.0 8:10.0 10:2.0 26:1.0 72:1.0 149:1.0 183:1.0 233:1.0 234:1.0 
0.0 0.0 0.03060217758645365 0.0 0.0 5:2.0 6:1.0 7:6.0 8:6.0 10:1.0 26:1.0 31:1.0 235:1.0 
0.19549645943967717 0.3214734491804664 0.47673634938842346 0.0 0.3793620105248477 5:2.0 6:1.0 7:13.0 8:9.0 10:3.0 26:1.0 27:1.0 55:1.0 236:1.0 237:1.0 238:1.0 
0.33177121157877004 0.3568726465603239 0.846192734350827 0.0 0.3971791327213144 4:1.0 5:2.0 6:2.0 7:8.0 8:7.0 10:1.0 45:1.0 175:1.0 176:1.0 
0.0 0.0 0.05131885013346606 0.0 0.0 1:1.0 4:1.0 5:2.0 6:2.0 7:7.0 8:5.0 10:1.0 27:1.0 31:1.0 39:1.0 
0.0 0.1351985631332869 0.0 0.0 0.0 5:2.0 6:3.0 7:4.0 8:2.0 10:1.0 15:1.0 28:1.0 
1.0 1.0 1.0 1.0 1.0 4:1.0 5:2.0 6:4.0 7:17.0 8:8.0 10:5.0 11:1.0 19:2.0 
1.0 1.0 1.0 0.0 1.0 4:1.0 5:2.0 6:3.0 7:9.0 8:7.0 10:1.0 11:1.0 
1.0 1.0 1.0 0.23801202273895294 1.0 4:1.0 5:2.0 6:3.0 7:16.0 8:11.0 10:2.0 11:1.0 19:1.0 70:1.0 
1.0 1.0 1.0 0.5798056094079838 1.0 4:1.0 5:2.0 6:1.0 7:3.0 8:2.0 10:1.0 20:1.0 240:1.0 
1.0 1.0 1.0 0.0 0.0 4:1.0 5:2.0 6:1.0 7:7.0 8:7.0 10:1.0 11:1.0 
1.0 1.0 1.0 0.0 0.0 4:1.0 5:2.0 6:1.0 7:7.0 8:7.0 10:1.0 11:1.0 
0.3164139048328123 0.46756799050558634 0.6353338392427713 0.0 0.31647580830769984 4:1.0 5:2.0 6:1.0 7:9.0 8:7.0 9:1.0 10:1.0 20:1.0 30:1.0 189:1.0 241:1.0 242:1.0 
1.0 1.0 1.0 0.28967298494345295 0.18110107094362662 4:1.0 5:2.0 6:2.0 7:6.0 8:4.0 10:2.0 20:1.0 166:1.0 197:1.0 199:1.0 
0.17595481703310709 0.1368710330171518 0.30996047241241587 0.0 0.4172611425169151 4:1.0 5:2.0 6:3.0 7:7.0 8:4.0 10:2.0 29:1.0 243:1.0 244:1.0 
1.0 1.0 1.0 0.0 1.0 4:1.0 5:2.0 6:3.0 7:9.0 8:7.0 10:1.0 11:1.0 
0.8100933441762213 0.5997381325084907 0.5850519266584062 0.0 0.47293844564042026 4:1.0 5:2.0 6:1.0 7:10.0 8:10.0 10:1.0 117:1.0 245:1.0 246:1.0 
1.0 1.0 1.0 1.0 1.0 4:1.0 5:2.0 6:3.0 7:6.0 8:3.0 10:2.0 11:1.0 
0.0 0.0 1.0 0.0 0.3044928268037011 4:1.0 5:2.0 6:3.0 7:7.0 8:3.0 10:3.0 31:1.0 247:1.0 248:1.0 
0.0 0.048539913161923465 0.045838511926768695 1.0 0.08573150943640222 5:2.0 6:1.0 7:27.0 8:18.0 10:5.0 15:1.0 18:1.0 19:5.0 26:1.0 249:1.0 
1.0 1.0 1.0 0.0 0.0 4:1.0 5:2.0 6:1.0 7:7.0 8:7.0 10:1.0 11:1.0 
0.0 0.0 0.0 0.003208076322123986 0.0 5:2.0 7:5.0 8:5.0 10:1.0 19:1.0 26:1.0 31:1.0 154:1.0 
0.8892724844135244 1.0 1.0 0.03469834079991615 1.0 4:1.0 5:2.0 6:1.0 7:5.0 8:5.0 10:1.0 20:1.0 105:1.0 
1.0 1.0 1.0 1.0 0.0 4:1.0 5:2.0 6:1.0 7:5.0 8:5.0 10:1.0 11:1.0 
0.3711052636985236 1.0 1.0 0.0 0.6776830647830957 4:1.0 5:2.0 6:1.0 7:11.0 8:11.0 10:1.0 20:1.0 155:1.0 250:1.0 251:1.0 
0.7343350117688295 0.37048548494321226 0.6226156656340596 0.0 0.8709741680414058 5:2.0 6:3.0 7:10.0 8:8.0 10:1.0 26:1.0 252:1.0 253:1.0 254:1.0 
0.0 0.0 0.0 0.5605538747949662 0.0 5:2.0 6:1.0 7:4.0 8:3.0 10:1.0 12:1.0 13:1.0 19:1.0 
0.0 0.13721203413759436 0.22343800797132424 0.13306304197529792 0.27231243011164574 4:1.0 5:2.0 6:1.0 7:10.0 8:9.0 10:1.0 19:1.0 36:1.0 255:1.0 256:1.0 
1.0 1.0 1.0 0.0 0.0 4:1.0 5:2.0 6:1.0 7:8.0 8:8.0 10:1.0 11:1.0 
1.0 1.0 1.0 0.8106112998312295 0.0 4:1.0 5:2.0 6:1.0 7:6.0 8:6.0 10:1.0 11:1.0 
1.0 1.0 1.0 0.0 0.8441629622208371 4:1.0 5:2.0 6:1.0 7:14.0 8:9.0 10:2.0 11:1.0 27:3.0 70:1.0 
1.0 1.0 1.0 0.0 1.0 4:1.0 5:2.0 6:1.0 7:13.0 8:13.0 10:1.0 11:1.0 
1.0 1.0 1.0 0.0 0.0 4:1.0 5:2.0 6:1.0 7:7.0 8:7.0 10:1.0 11:1.0 
0.0 0.13713629858220377 0.03940130878763394 0.0 0.1574844689760751 4:1.0 5:2.0 6:1.0 7:10.0 8:10.0 10:1.0 36:1.0 116:1.0 257:1.0 
0.7965946985684097 0.0 0.0 0.0 0.0 5:2.0 6:3.0 7:3.0 8:1.0 10:1.0 12:1.0 13:1.0 
0.0 0.06320424432285901 0.0 0.0 0.0037086023179794627 5:2.0 6:5.0 7:19.0 8:11.0 10:5.0 15:1.0 18:1.0 
1.0 1.0 1.0 0.0 1.0 4:1.0 5:2.0 6:4.0 7:9.0 8:4.0 10:2.0 11:1.0 70:1.0 
0.26149297010272926 0.8765067385236611 0.799621240147375 0.0 0.6051118752230935 1:1.0 4:1.0 5:2.0 6:1.0 7:11.0 8:8.0 10:3.0 20:1.0 76:1.0 168:1.0 169:1.0 170:1.0 
1.0 1.0 1.0 1.0 1.0 4:1.0 5:2.0 6:3.0 7:6.0 8:3.0 10:2.0 11:1.0 
0.0 1.0 0.23328544701573606 0.0 0.0 5:2.0 6:1.0 7:3.0 8:3.0 10:1.0 15:1.0 258:1.0 
0.0 0.0 0.2963660215690016 0.4395332166017945 0.11930817468459975 4:1.0 5:2.0 6:1.0 7:5.0 8:4.0 10:1.0 19:1.0 31:1.0 260:1.0 
1.0 1.0 1.0 0.0 1.0 4:1.0 5:2.0 6:1.0 7:14.0 8:14.0 10:1.0 11:1.0 
0.3482272591798168 0.10318572844862685 0.3298244482178577 0.0 0.20231320297826588 4:1.0 5:2.0 6:1.0 7:10.0 8:8.0 10:2.0 27:1.0 52:1.0 77:1.0 261:1.0 
1.0 1.0 1.0 0.0 0.0 4:1.0 5:2.0 6:1.0 7:8.0 8:8.0 10:1.0 11:1.0 
0.484631706877466 0.5558694131371382 1.0 0.3481441032032993 1.0 5:2.0 7:7.0 8:7.0 10:1.0 19:1.0 26:1.0 262:1.0 263:1.0 
0.0 0.02201550011737519 0.0 0.0 0.0 5:2.0 6:1.0 7:5.0 8:5.0 10:1.0 15:1.0 18:1.0 
1.0 1.0 1.0 0.0 1.0 4:1.0 5:2.0 6:4.0 7:10.0 8:7.0 10:1.0 11:1.0 
0.0 0.0 0.2965918172272986 0.0 0.16802089045484964 4:1.0 5:2.0 6:1.0 7:6.0 8:6.0 10:1.0 31:1.0 264:1.0 
0.0 0.9680302260554949 0.23287075868486087 0.0 0.0 5:2.0 6:1.0 7:4.0 8:4.0 10:1.0 15:1.0 93:1.0 
0.15998766385774518 0.014884753117018328 0.12154000161237416 0.0 0.07107820072004342 4:1.0 5:2.0 6:3.0 7:10.0 8:8.0 10:1.0 20:1.0 265:1.0 266:1.0 
0.0 0.6458903705622278 0.0 0.0 0.0 5:2.0 6:1.0 7:15.0 8:11.0 10:3.0 15:1.0 18:1.0 27:1.0 238:1.0 
1.0 1.0 1.0 0.14420918031954977 0.0 4:1.0 5:2.0 6:1.0 7:8.0 8:7.0 10:1.0 11:1.0 72:1.0 
1.0 0.42445191061036197 0.5834301147039278 0.0 0.42190391648281955 5:2.0 6:1.0 7:9.0 8:8.0 10:1.0 72:1.0 81:1.0 82:1.0 83:1.0 84:1.0 
1.0 1.0 1.0 0.0 1.0 4:1.0 5:2.0 6:1.0 7:13.0 8:13.0 10:1.0 11:1.0 
1.0 1.0 1.0 0.0 1.0 4:1.0 5:2.0 6:1.0 7:11.0 8:11.0 10:1.0 11:1.0 
0.2938734639470079 0.5790920364336233 1.0 0.0 1.0 4:1.0 5:2.0 6:4.0 7:13.0 8:10.0 10:1.0 143:1.0 
0.0 0.38960741713148117 0.0 0.0 0.0 5:2.0 6:2.0 7:6.0 8:5.0 10:1.0 26:1.0 31:1.0 114:1.0 
1.0 1.0 1.0 0.8083997937971683 1.0 4:1.0 5:2.0 6:3.0 7:9.0 8:5.0 10:2.0 11:1.0 72:1.0 
0.16914737736242558 0.36101499536695186 0.4701268406214975 0.0 0.1736807732091943 5:2.0 6:4.0 7:14.0 8:11.0 10:1.0 23:1.0 26:1.0 233:1.0 268:1.0 269:1.0 270:1.0 
1.0 1.0 1.0 0.0 1.0 4:1.0 5:2.0 6:4.0 7:8.0 8:5.0 10:1.0 11:1.0 
0.0 0.0 0.0 0.0 1.0 5:2.0 6:2.0 7:10.0 8:6.0 10:3.0 12:1.0 13:1.0 92:1.0 
0.0 0.0 0.013625939799346754 0.0 0.11597556776538633 5:2.0 6:3.0 7:10.0 8:7.0 10:1.0 19:1.0 26:1.0 31:1.0 74:1.0 271:1.0 272:1.0 
1.0 1.0 1.0 0.0 1.0 4:1.0 5:2.0 6:3.0 7:8.0 8:5.0 10:2.0 11:1.0 
0.23490916825650576 0.0 0.0 0.0715397387257046 4.3878190364839056E-4 4:1.0 5:2.0 6:2.0 7:5.0 8:2.0 10:2.0 19:1.0 20:1.0 275:1.0 276:1.0 
1.0 1.0 1.0 1.0 0.0 4:1.0 5:2.0 6:1.0 7:4.0 8:4.0 10:1.0 11:1.0 
0.0 0.0 0.13673789091172803 0.0 0.0 4:1.0 5:2.0 6:2.0 7:7.0 8:5.0 9:1.0 10:1.0 31:1.0 60:1.0 277:1.0 
1.0 1.0 1.0 0.0 0.0 4:1.0 5:2.0 6:1.0 7:6.0 8:6.0 10:1.0 11:1.0 
0.32445195537790267 0.7015210336698906 0.9193777021082011 0.007552311097145404 0.5132842540317676 4:1.0 5:2.0 6:1.0 7:6.0 8:5.0 9:1.0 10:1.0 20:1.0 279:1.0 280:1.0 
1.0 0.0 0.23694262601839794 0.0 0.0 1:1.0 4:1.0 5:2.0 6:3.0 7:4.0 8:2.0 10:1.0 29:1.0 
0.37792607141707246 0.777134368325846 0.8805052556085908 0.0 0.45585967447263476 4:1.0 5:2.0 6:3.0 7:10.0 8:7.0 10:2.0 20:1.0 281:1.0 282:1.0 283:1.0 
0.0 0.0 0.08460195096345743 0.0 0.0 5:2.0 6:4.0 7:22.0 8:19.0 10:1.0 15:1.0 18:1.0 
0.460442403108651 0.14933530756900806 0.4356180717368438 0.0 0.17430660043336121 1:1.0 4:1.0 5:2.0 6:2.0 7:11.0 8:9.0 10:2.0 36:1.0 106:1.0 284:1.0 285:1.0 
0.5789567394004624 0.5395537987219656 1.0 0.1001633418251831 0.7716062681366957 1:1.0 5:2.0 6:4.0 7:9.0 8:5.0 10:1.0 19:1.0 26:1.0 286:1.0 287:1.0 
0.0 0.0 0.372428900253352 0.0 0.21514044144271738 5:2.0 6:3.0 7:9.0 8:7.0 10:1.0 26:1.0 31:1.0 288:1.0 289:1.0 
0.5530893098999169 0.0 0.2447865797989279 0.0 0.5798041757193862 5:2.0 6:2.0 7:13.0 8:11.0 9:1.0 10:1.0 22:1.0 26:1.0 290:1.0 
1.0 1.0 1.0 0.800764131185226 1.0 4:1.0 5:2.0 6:3.0 7:7.0 8:4.0 10:2.0 11:1.0 
0.6785259441175666 1.0 1.0 0.0 0.9350808744061149 4:1.0 5:2.0 6:3.0 7:9.0 8:7.0 10:1.0 20:1.0 195:1.0 230:1.0 
0.10953026400860208 0.0 0.0 0.0 0.0500934243892103 5:2.0 6:3.0 7:7.0 8:5.0 10:1.0 26:1.0 31:1.0 57:1.0 
0.0030739159780790158 0.8196386757527918 0.18597889876239043 0.0 0.0 5:2.0 6:3.0 7:4.0 8:2.0 10:1.0 15:1.0 28:1.0 
0.017301151723701957 0.9091697539439944 1.0 0.0 0.1579098935639647 4:1.0 5:2.0 6:3.0 7:6.0 8:4.0 10:1.0 31:1.0 60:1.0 
1.0 1.0 1.0 0.0 0.0 4:1.0 5:2.0 6:1.0 7:7.0 8:7.0 10:1.0 11:1.0 
1.0 1.0 1.0 0.8776416138651315 0.0 4:1.0 5:2.0 6:1.0 7:6.0 8:6.0 10:1.0 11:1.0 
0.0 0.0 1.0 0.0 0.6816676680253207 4:1.0 5:2.0 6:1.0 7:14.0 8:12.0 9:1.0 10:1.0 72:1.0 143:1.0 
0.0 0.02314186238532375 0.0 0.0 0.21527307744713162 1:1.0 4:1.0 5:2.0 6:3.0 7:14.0 8:11.0 10:2.0 52:1.0 291:1.0 292:1.0 293:1.0 
0.0 0.0 0.0 0.0 0.8489730714027006 5:2.0 6:5.0 7:10.0 8:4.0 10:3.0 12:1.0 13:1.0 
0.0 0.0 0.0 0.0 0.0295296302653001 5:2.0 6:5.0 7:13.0 8:6.0 10:3.0 15:1.0 19:1.0 28:1.0 
0.0 1.0 0.1919328799012443 0.0 0.0 5:2.0 6:1.0 7:9.0 8:9.0 10:1.0 15:1.0 181:1.0 
0.0 1.0 1.0 0.0 1.0 4:1.0 5:2.0 6:1.0 7:14.0 8:13.0 10:2.0 143:1.0 
1.0 0.9281724765399818 1.0 0.0 0.7412415625124115 4:1.0 5:2.0 6:3.0 7:10.0 8:8.0 10:1.0 20:1.0 265:1.0 266:1.0 
1.0 1.0 1.0 0.0 1.0 4:1.0 5:2.0 6:2.0 7:8.0 8:7.0 10:1.0 11:1.0 
0.0 1.0 1.0 0.0 0.7372353337294454 4:1.0 5:2.0 6:1.0 7:10.0 8:8.0 9:2.0 10:1.0 11:1.0 
0.0 0.9974789095008201 0.23329250670042742 0.0 0.0 5:2.0 6:1.0 7:3.0 8:3.0 10:1.0 15:1.0 16:1.0 
1.0 1.0 1.0 0.0 1.0 4:1.0 5:2.0 6:3.0 7:9.0 8:7.0 10:1.0 11:1.0 
1.0 1.0 1.0 1.0 1.0 4:1.0 5:2.0 6:2.0 7:5.0 8:4.0 10:1.0 11:1.0 
0.0 0.0 0.2963844971295932 0.0 0.30786821082609966 4:1.0 5:2.0 6:3.0 7:7.0 8:5.0 10:1.0 31:1.0 294:1.0 
0.0 0.0 0.0150872119098025 0.0 0.030043165337399196 5:2.0 6:3.0 7:10.0 8:7.0 10:1.0 26:1.0 31:1.0 76:1.0 295:1.0 296:1.0 
1.0 1.0 1.0 0.0 0.0 4:1.0 5:2.0 6:1.0 7:8.0 8:8.0 10:1.0 11:1.0 
0.0 0.0 0.14829076061829013 0.0 0.34269769612183054 4:1.0 5:2.0 6:4.0 7:8.0 8:3.0 10:3.0 31:1.0 298:1.0 299:1.0 
1.0 1.0 1.0 0.0 1.0 4:1.0 5:2.0 6:3.0 7:7.0 8:5.0 10:1.0 11:1.0 
0.9341155391248258 0.943568674172575 0.9997608469771226 0.7148056029976707 0.600802313143939 4:1.0 5:2.0 6:2.0 7:5.0 8:2.0 10:2.0 19:1.0 20:1.0 275:1.0 276:1.0 
0.23763610064611596 0.0 0.0 0.0 0.0 5:2.0 6:4.0 7:5.0 8:2.0 10:1.0 12:1.0 13:1.0 
0.8173701600176841 0.624774161554133 0.9581517523037262 0.0 0.8170369289366888 4:1.0 5:2.0 6:2.0 7:5.0 8:4.0 10:1.0 301:1.0 302:1.0 
0.09603780809583323 0.0 0.14834592310150355 0.0 0.5332640111964663 4:1.0 5:2.0 6:6.0 7:10.0 8:5.0 10:1.0 31:1.0 303:1.0 304:1.0 
1.0 1.0 1.0 0.0 1.0 4:1.0 5:2.0 6:4.0 7:10.0 8:4.0 10:3.0 11:1.0 70:1.0 
0.16061563335393508 0.0473143579516681 0.047087036932876365 0.0 0.17007832625192648 5:2.0 6:6.0 7:11.0 8:5.0 10:2.0 15:1.0 26:1.0 28:1.0 305:1.0 
1.0 1.0 1.0 0.0 0.0 4:1.0 5:2.0 6:1.0 7:8.0 8:8.0 10:1.0 11:1.0 
0.3869843553485581 0.4999017392387424 0.7893615513074629 0.0 0.24554322797710762 4:1.0 5:2.0 6:2.0 7:12.0 8:8.0 10:2.0 20:1.0 27:1.0 72:1.0 77:1.0 144:1.0 145:1.0 146:1.0 
1.0 1.9190470629625074E-4 1.0 0.0 1.0 4:1.0 5:2.0 6:3.0 7:4.0 8:2.0 10:1.0 230:1.0 306:1.0 
0.31527671861423723 0.9983956192720038 1.0 0.0060965694534508294 0.47289381208346654 4:1.0 5:2.0 6:1.0 7:8.0 8:6.0 9:1.0 10:1.0 20:1.0 72:1.0 152:1.0 153:1.0 
0.0 0.27255955190825987 1.0 0.0 0.0 4:1.0 5:2.0 6:2.0 7:9.0 8:7.0 10:2.0 20:1.0 31:1.0 77:1.0 307:1.0 
0.0 1.0 1.0 0.0 0.0 4:1.0 5:2.0 6:1.0 7:16.0 8:14.0 10:1.0 11:1.0 27:2.0 
0.44713985029179026 0.3300877743356794 0.5296826343279991 0.0 0.7104516999965319 5:2.0 6:1.0 7:10.0 8:9.0 10:2.0 26:1.0 161:1.0 191:1.0 308:1.0 
0.6526488013986244 0.9431773400149861 1.0 0.0 0.8035752071860128 4:1.0 5:2.0 6:3.0 7:8.0 8:5.0 10:2.0 20:1.0 188:1.0 309:1.0 
0.0 0.4483761393795904 0.0 0.0 0.0 5:2.0 6:1.0 7:10.0 8:8.0 10:2.0 14:1.0 15:1.0 19:1.0 20:1.0 26:1.0 56:1.0 
1.0 1.0 1.0 0.0 1.0 4:1.0 5:2.0 6:3.0 7:8.0 8:5.0 10:2.0 11:1.0 
0.0 0.0 0.0 0.0 0.13317590325632184 1:1.0 4:1.0 5:2.0 6:5.0 7:14.0 8:7.0 10:3.0 19:1.0 31:1.0 138:1.0 164:1.0 310:1.0 311:1.0 
-0.0 0.09345655758627412 0.0 0.0 0.7849474004695816 5:2.0 6:3.0 7:10.0 8:7.0 10:1.0 38:1.0 72:1.0 83:1.0 313:1.0 314:1.0 
-0.12132672597894395 0.0029304578477653614 0.0 0.0 0.0 5:2.0 6:1.0 7:6.0 8:6.0 10:1.0 55:1.0 84:1.0 317:1.0 
-0.0 0.006105131236511311 0.0 0.0 0.0 5:2.0 6:3.0 7:4.0 8:2.0 10:1.0 84:1.0 318:1.0 
-0.0 0.17840090023490246 0.5045887268852607 0.0 0.0 4:1.0 5:2.0 6:2.0 7:9.0 8:7.0 10:2.0 20:1.0 77:1.0 319:1.0 320:1.0 
-0.0 0.0 0.5275128272222566 0.0 0.20753440145730678 4:1.0 5:2.0 6:4.0 7:8.0 8:5.0 10:1.0 67:1.0 323:1.0 324:1.0 
-1.0 1.0 1.0 0.0 0.0 4:1.0 5:2.0 6:2.0 7:6.0 8:5.0 10:1.0 11:1.0 
-0.0 0.0 0.0 0.24465040786107448 0.0 5:2.0 6:1.0 7:6.0 8:4.0 10:1.0 19:2.0 54:1.0 84:1.0 325:1.0 326:1.0 
-0.0 0.009035833816942833 1.0 0.0 0.6251238667551782 4:1.0 5:2.0 6:3.0 7:10.0 8:8.0 10:1.0 73:1.0 331:1.0 332:1.0 
-1.0 1.0 1.0 0.0 1.0 4:1.0 5:2.0 6:1.0 7:10.0 8:10.0 10:1.0 11:1.0 
-1.0 1.0 1.0 0.0 1.0 4:1.0 5:2.0 6:3.0 7:11.0 8:9.0 10:1.0 11:1.0 
-1.0 1.0 1.0 1.0 1.0 4:1.0 5:2.0 6:5.0 7:15.0 8:7.0 10:4.0 11:1.0 19:1.0 
-0.24835383541143613 0.6107593150522652 0.6344125314030677 0.0 0.40127835157866043 4:1.0 5:2.0 6:3.0 7:9.0 8:7.0 10:1.0 20:1.0 337:1.0 338:1.0 339:1.0 
-1.0 1.0 1.0 1.0 1.0 4:1.0 5:2.0 6:3.0 7:11.0 8:8.0 10:1.0 11:1.0 19:1.0 
-0.0 0.01025178595342901 0.0 0.0 0.0 5:2.0 6:2.0 7:8.0 8:6.0 10:1.0 19:1.0 53:1.0 54:1.0 84:1.0 340:1.0 
-0.12121515773760164 0.383135123579778 0.9440335635346394 0.0 0.6398811664905263 5:2.0 6:3.0 7:5.0 8:3.0 10:1.0 26:1.0 345:1.0 346:1.0 
-0.0 0.3474126492816392 1.0 0.0 0.9270800361713778 4:1.0 5:2.0 6:2.0 7:9.0 8:7.0 10:2.0 20:1.0 166:1.0 344:1.0 352:1.0 353:1.0 
-0.0 0.019300037604878948 0.0 0.0 0.0 5:2.0 6:1.0 7:4.0 8:4.0 10:1.0 84:1.0 354:1.0 
-0.08477569890762454 0.0 0.8397926028152397 0.0 0.5638977148706096 4:1.0 5:2.0 6:1.0 7:7.0 8:6.0 10:1.0 72:1.0 355:1.0 356:1.0 
-1.0 1.0 1.0 0.0 1.0 4:1.0 5:2.0 6:1.0 7:9.0 8:9.0 10:1.0 11:1.0 
-0.0 0.8211338991413211 0.0 0.0 0.0 5:2.0 6:2.0 7:5.0 8:4.0 10:1.0 84:1.0 297:1.0 
-0.23241302076653314 0.28975520344024147 0.636087298096205 0.0 0.15349550306931262 4:1.0 5:2.0 6:1.0 7:5.0 8:5.0 10:1.0 359:1.0 360:1.0 
-0.22317362080822328 0.0 0.3693042404005757 0.0 0.4289503389592765 5:2.0 6:2.0 7:12.0 8:10.0 10:1.0 26:1.0 27:1.0 357:1.0 361:1.0 362:1.0 363:1.0 
-0.029903047282699022 0.0 0.0 0.0 0.0 5:2.0 6:3.0 7:6.0 8:4.0 10:1.0 84:1.0 253:1.0 364:1.0 
-1.0 1.0 1.0 0.0 1.0 4:1.0 5:2.0 6:2.0 7:8.0 8:7.0 10:1.0 11:1.0 
-0.1332913351296417 0.0 0.0 0.0 0.026396692275719592 4:1.0 5:2.0 6:2.0 7:10.0 8:8.0 9:1.0 10:1.0 67:1.0 368:1.0 369:1.0 370:1.0 
-1.0 1.0 1.0 0.0 0.8197406781615076 4:1.0 5:2.0 6:2.0 7:10.0 8:7.0 10:1.0 11:1.0 19:1.0 27:1.0 
-0.26930047085727943 1.0 1.0 0.0 0.989212221120952 4:1.0 5:2.0 6:2.0 7:13.0 8:11.0 10:2.0 20:1.0 284:1.0 352:1.0 371:1.0 
-0.0 0.0 0.0 0.0 1.0 4:1.0 5:2.0 6:5.0 7:12.0 8:6.0 10:2.0 70:1.0 320:1.0 374:1.0 375:1.0 
-0.0 0.0 0.2640975450322668 0.0 0.0 4:1.0 5:2.0 6:4.0 7:8.0 8:5.0 10:1.0 67:1.0 224:1.0 376:1.0 
-1.0 1.0 1.0 0.0 1.0 4:1.0 5:2.0 6:1.0 7:9.0 8:9.0 10:1.0 11:1.0 
-0.0 0.006118580101150439 0.0 0.0 0.0 5:2.0 6:3.0 7:4.0 8:2.0 10:1.0 84:1.0 380:1.0 
-1.0 1.0 1.0 0.0 0.0 4:1.0 5:2.0 6:2.0 7:6.0 8:5.0 10:1.0 11:1.0 
-0.816559222859584 0.0 0.0 0.0 0.0 5:2.0 6:1.0 7:10.0 8:8.0 10:3.0 65:1.0 84:1.0 230:1.0 
-1.0 1.0 1.0 0.0 1.0 4:1.0 5:2.0 6:2.0 7:11.0 8:10.0 10:1.0 11:1.0 
-0.0 0.0 0.9310834056056613 0.0 0.0 4:1.0 5:2.0 6:1.0 7:11.0 8:11.0 10:1.0 20:1.0 62:1.0 327:1.0 387:1.0 
-0.0 0.781263534010106 0.24547215032506498 0.0 0.0 4:1.0 5:2.0 6:6.0 7:10.0 8:5.0 10:1.0 20:1.0 67:1.0 388:1.0 
-1.0 1.0 1.0 0.0 1.0 4:1.0 5:2.0 6:2.0 7:8.0 8:7.0 10:1.0 11:1.0 
-0.5039218012673021 0.0 0.0 0.0 0.0 5:2.0 6:3.0 7:7.0 8:5.0 10:1.0 26:1.0 67:1.0 136:1.0 
-0.0 0.1684153550545761 1.0 0.0 1.0 4:1.0 5:2.0 6:5.0 7:10.0 8:4.0 10:3.0 381:1.0 388:1.0 
-0.22246214467191866 0.14994158574825325 1.0 0.0 0.6847356539612807 4:1.0 5:2.0 6:1.0 7:8.0 8:7.0 10:1.0 391:1.0 392:1.0 393:1.0 
-0.08058022786552028 0.15520246543535984 0.39388255145973555 0.0 0.5948804977966997 4:1.0 5:2.0 6:2.0 7:8.0 8:6.0 10:1.0 72:1.0 391:1.0 394:1.0 395:1.0 
-1.0 1.0 1.0 0.07667595984531235 1.0 4:1.0 5:2.0 6:1.0 7:10.0 8:8.0 9:1.0 10:1.0 11:1.0 72:1.0 
-0.0 0.07685949968445091 0.34166174050954 0.0 0.4675423794215755 4:1.0 5:2.0 6:6.0 7:11.0 8:6.0 10:1.0 25:1.0 398:1.0 
-1.0 1.0 1.0 0.0 1.0 4:1.0 5:2.0 6:3.0 7:7.0 8:4.0 10:2.0 11:1.0 
-1.0 1.0 1.0 0.0 1.0 4:1.0 5:2.0 6:3.0 7:10.0 8:6.0 10:2.0 11:1.0 72:1.0 
-0.644759821041899 0.3676323630052644 0.6858272231342359 0.0 0.5438186042279902 1:1.0 4:1.0 5:2.0 6:3.0 7:14.0 8:10.0 9:1.0 10:2.0 399:1.0 400:1.0 401:1.0 
-1.0 1.0 1.0 0.0 1.0 4:1.0 5:2.0 6:3.0 7:7.0 8:4.0 10:2.0 11:1.0 
-0.0 0.0 0.0 0.0 0.19057193704955014 4:1.0 5:2.0 6:2.0 7:8.0 8:6.0 10:1.0 70:1.0 117:1.0 406:1.0 
-0.0 0.08942936729558264 0.24476845197522595 0.0 0.0 5:2.0 6:1.0 7:6.0 8:5.0 10:1.0 70:1.0 84:1.0 407:1.0 408:1.0 
-0.011496067885007807 0.0 0.14417355198185403 0.0 0.2807737450189096 4:1.0 5:2.0 6:7.0 7:13.0 8:5.0 10:3.0 121:1.0 409:1.0 410:1.0 411:1.0 412:1.0 
-1.0 1.0 1.0 1.0 1.0 4:1.0 5:2.0 6:1.0 7:7.0 8:6.0 10:2.0 11:1.0 
-0.0 1.0 0.723203941806803 0.0 0.0 4:1.0 5:2.0 6:3.0 7:7.0 8:5.0 10:1.0 20:1.0 67:1.0 413:1.0 
-0.27691607907132365 0.5512385145589233 0.5119561847131053 0.0 0.3214831204240288 4:1.0 5:2.0 6:3.0 7:10.0 8:8.0 10:1.0 20:1.0 414:1.0 415:1.0 416:1.0 
-1.0 1.0 1.0 0.0 1.0 4:1.0 5:2.0 6:3.0 7:8.0 8:6.0 10:1.0 11:1.0 
-0.0 0.005349883713711218 0.0 0.0 0.0 5:2.0 6:4.0 7:11.0 8:6.0 10:2.0 19:1.0 53:1.0 54:1.0 84:1.0 421:1.0 422:1.0 423:1.0 
-1.0 1.0 1.0 0.0 0.0 4:1.0 5:2.0 6:2.0 7:6.0 8:5.0 10:1.0 11:1.0 
-0.08701302990585531 0.0 0.2656465101938181 0.0 0.2920498269809933 2:1.0 4:1.0 5:2.0 6:5.0 7:9.0 8:5.0 10:1.0 424:1.0 425:1.0 
-0.07149361876778558 0.06576338794592645 0.0 0.0 0.2513880624892416 5:2.0 6:2.0 7:5.0 8:4.0 10:1.0 26:1.0 390:1.0 431:1.0 
-0.0 0.0 0.06293869182982918 0.0 1.0 4:1.0 5:2.0 6:2.0 7:6.0 8:4.0 10:1.0 72:1.0 182:1.0 436:1.0 
-0.0 0.0 1.0 0.0 1.0 4:1.0 5:2.0 6:7.0 7:12.0 8:6.0 10:1.0 105:1.0 106:1.0 440:1.0 
-0.0 0.0 0.0 0.30291518719872224 0.0 5:2.0 6:1.0 7:6.0 8:4.0 10:2.0 19:1.0 84:1.0 166:1.0 441:1.0 
-1.0 1.0 1.0 1.0 0.0 4:1.0 5:2.0 6:1.0 7:7.0 8:6.0 10:1.0 11:1.0 72:1.0 
-1.0 0.5543670555231422 0.0854898083994826 0.08470276698440155 0.0 4:1.0 5:2.0 6:2.0 7:6.0 8:4.0 10:2.0 20:1.0 117:1.0 166:1.0 198:1.0 
-1.0 1.0 1.0 1.0 0.0 4:1.0 5:2.0 6:2.0 7:5.0 8:4.0 10:1.0 11:1.0 
-1.0 1.0 1.0 1.0 1.0 4:1.0 5:2.0 6:6.0 7:14.0 8:5.0 10:3.0 11:1.0 19:2.0 
-0.13936701501914125 0.6214678658455465 0.969740316556454 0.06623738404591153 0.4293450925221089 4:1.0 5:2.0 6:2.0 7:4.0 8:3.0 10:1.0 20:1.0 448:1.0 449:1.0 
-0.16937204172632706 1.0 0.0 0.0 0.0 5:2.0 6:1.0 7:9.0 8:8.0 10:1.0 20:1.0 26:1.0 62:1.0 72:1.0 187:1.0 
-0.45661516660847223 0.5978689953386886 1.0 0.23507622178479892 1.0 5:2.0 6:1.0 7:3.0 8:3.0 10:1.0 26:1.0 374:1.0 
-0.0 0.0 0.0 0.0 0.05332426364436643 4:1.0 5:2.0 6:4.0 7:8.0 8:4.0 10:1.0 67:1.0 72:1.0 451:1.0 452:1.0 
-0.0 0.0 0.0 0.821733660058326 0.07389632330447944 4:1.0 5:2.0 6:2.0 7:14.0 8:5.0 10:2.0 19:6.0 27:1.0 38:1.0 327:1.0 453:1.0 454:1.0 455:1.0 
-0.0 0.016952130754044482 0.0 0.0 0.0 5:2.0 6:2.0 7:3.0 8:2.0 10:1.0 84:1.0 405:1.0 
-0.3296567742151649 0.9181646043536426 0.9515783315067831 0.0 0.593465267072828 4:1.0 5:2.0 6:3.0 7:8.0 8:6.0 10:1.0 20:1.0 456:1.0 457:1.0 
-0.07895635000652117 0.09967849247036403 1.0 0.0 0.8878516532164709 4:1.0 5:2.0 6:2.0 7:4.0 8:3.0 10:1.0 345:1.0 458:1.0 
-1.0 1.0 1.0 0.0 1.0 4:1.0 5:2.0 6:2.0 7:7.0 8:6.0 10:1.0 11:1.0 
-0.0 0.458069068741418 0.0 0.0 0.0 4:1.0 5:2.0 6:3.0 7:9.0 8:7.0 10:1.0 20:1.0 182:2.0 
-1.0 1.0 1.0 0.0 1.0 4:1.0 5:2.0 6:2.0 7:7.0 8:6.0 10:1.0 11:1.0 
-0.0 0.0 0.1792592434919442 0.0 0.0 4:1.0 5:2.0 6:2.0 7:5.0 8:4.0 10:1.0 187:1.0 462:1.0 
-0.0 0.07185065449732816 0.1851935231780145 0.0 0.15538107350020253 4:1.0 5:2.0 6:4.0 7:8.0 8:5.0 10:1.0 419:1.0 464:1.0 465:1.0 
-1.0 1.0 1.0 0.0 1.0 4:1.0 5:2.0 6:3.0 7:6.0 8:4.0 10:1.0 11:1.0 
-1.0 1.0 1.0 0.0 1.0 4:1.0 5:2.0 6:3.0 7:6.0 8:4.0 10:1.0 11:1.0 
-0.31727003529274783 0.13673269678938318 0.5959559340536247 0.0 0.7891782283161913 4:1.0 5:2.0 6:3.0 7:12.0 8:9.0 10:1.0 72:1.0 467:1.0 468:1.0 
-1.0 1.0 1.0 0.0 0.08185334224896643 4:1.0 5:2.0 6:1.0 7:8.0 8:8.0 10:1.0 11:1.0 
-1.0 1.0 1.0 0.0 1.0 4:1.0 5:2.0 6:1.0 7:14.0 8:13.0 10:1.0 11:1.0 72:1.0 
-1.0 1.0 1.0 0.0 1.0 4:1.0 5:2.0 6:2.0 7:9.0 8:8.0 10:1.0 11:1.0 
-0.0 0.22569281934420926 0.0671329721961499 0.0 0.0 4:1.0 5:2.0 6:4.0 7:11.0 8:8.0 10:1.0 20:1.0 125:1.0 390:1.0 469:1.0 470:1.0 
-0.0 0.0 0.10625488832039333 0.0 0.0 2:1.0 4:1.0 5:2.0 6:4.0 7:12.0 8:7.0 10:3.0 53:1.0 450:1.0 472:1.0 
-0.0 0.167788228513347 0.0 0.0 0.0 5:2.0 6:2.0 7:4.0 8:3.0 10:1.0 84:1.0 473:1.0 474:1.0 
-0.01931172135417211 0.0 0.0 0.0 0.0 4:1.0 5:2.0 6:1.0 7:10.0 8:8.0 10:1.0 27:1.0 72:1.0 187:1.0 475:1.0 476:1.0 
-1.0 1.0 1.0 0.0 1.0 4:1.0 5:2.0 6:2.0 7:14.0 8:13.0 10:1.0 11:1.0 
-0.26399132371589706 0.3538768116232116 0.9992174800318387 0.0 0.7776017642607638 2:1.0 4:1.0 5:2.0 6:4.0 7:12.0 8:7.0 10:3.0 53:1.0 450:1.0 472:1.0 
-0.48761887454103 1.0 1.0 0.0 0.7936503989939321 4:1.0 5:2.0 6:3.0 7:6.0 8:4.0 10:1.0 20:1.0 438:1.0 
-1.0 1.0 1.0 0.0 1.0 4:1.0 5:2.0 6:2.0 7:7.0 8:6.0 10:1.0 11:1.0 
-0.0 5.271837609772633E-5 0.0 0.0 0.0 5:2.0 6:1.0 7:3.0 8:3.0 10:1.0 84:1.0 478:1.0 
-0.0 0.0 0.050923993671676306 0.0 0.0 4:1.0 5:2.0 6:2.0 7:7.0 8:6.0 10:1.0 424:1.0 438:1.0 479:1.0 480:1.0 
-1.0 1.0 1.0 1.0 0.0 4:1.0 5:2.0 6:1.0 7:6.0 8:6.0 10:1.0 11:1.0 
-0.0 0.0 0.0 0.12602187865192982 0.0 5:2.0 6:1.0 7:8.0 8:6.0 10:1.0 19:2.0 54:1.0 84:1.0 481:1.0 482:1.0 
-0.18942106934833344 1.0 1.0 0.0 0.9083250968745701 4:1.0 5:2.0 6:3.0 7:10.0 8:8.0 10:1.0 155:1.0 316:1.0 486:1.0 
-0.0 0.2182459789791403 0.4903156261868212 0.0 0.17708566599206932 4:1.0 5:2.0 6:2.0 7:4.0 8:3.0 10:1.0 488:1.0 489:1.0 
-0.0 0.0 0.3198709555877021 0.0 0.0 4:1.0 5:2.0 6:1.0 7:8.0 8:6.0 10:2.0 20:1.0 70:1.0 106:1.0 166:1.0 374:1.0 
-1.0 1.0 1.0 0.0 0.0 4:1.0 5:2.0 6:2.0 7:6.0 8:5.0 10:1.0 11:1.0 
-0.529410592325661 0.05670927784693911 0.32702278978981464 0.0 0.8396209940668266 4:1.0 5:2.0 6:1.0 7:27.0 8:22.0 10:6.0 237:1.0 388:1.0 490:1.0 491:1.0 492:1.0 
-0.0 0.593568028660227 0.6244345935276461 0.0 0.3362444968515544 4:1.0 5:2.0 6:4.0 7:7.0 8:4.0 10:1.0 20:1.0 429:1.0 493:1.0 
-0.0 0.21938070888241373 0.3701067174936364 0.0 0.23460279760560537 4:1.0 5:2.0 6:4.0 7:7.0 8:4.0 10:1.0 495:1.0 496:1.0 
-0.0 0.0 0.0 0.0 0.30581866503765787 4:1.0 5:2.0 6:3.0 7:7.0 8:5.0 10:1.0 82:1.0 320:1.0 
-0.0 0.023604324361717645 0.0 0.0 0.0 5:2.0 6:1.0 7:3.0 8:3.0 10:1.0 84:1.0 497:1.0 
-0.0 0.0 0.0 0.0 0.3099662768664788 4:1.0 5:2.0 6:2.0 7:7.0 8:6.0 10:1.0 187:1.0 498:1.0 
-0.0 0.0 0.21462792608600637 0.0 0.21354444231405562 4:1.0 5:2.0 6:3.0 7:6.0 8:4.0 10:1.0 438:1.0 499:1.0 
-0.0 0.0 0.0 0.0 0.08646306356415179 5:2.0 6:2.0 7:6.0 8:4.0 10:1.0 67:1.0 70:1.0 285:1.0 314:1.0 500:1.0 
-1.0 1.0 0.0 0.0 0.0 5:2.0 6:3.0 7:11.0 8:9.0 10:1.0 11:1.0 84:1.0 
-0.09907544085021709 0.22177898608471766 1.0 0.0 0.37008016142378297 4:1.0 5:2.0 6:4.0 7:13.0 8:9.0 10:2.0 20:1.0 46:1.0 166:1.0 352:1.0 501:1.0 502:1.0 
-0.0 0.0236144070563016 0.0 0.0 0.0 5:2.0 6:1.0 7:3.0 8:3.0 10:1.0 84:1.0 503:1.0 
-1.0 1.0 1.0 1.0 0.0 4:1.0 5:2.0 6:2.0 7:5.0 8:4.0 10:1.0 11:1.0 
-0.13772964056813813 0.0 0.0 0.0 0.0 4:1.0 5:2.0 6:1.0 7:8.0 8:5.0 10:2.0 27:2.0 187:1.0 308:1.0 506:1.0 
-0.0 0.0 0.0 0.0 0.1995480133366206 4:1.0 5:2.0 6:2.0 7:5.0 8:4.0 10:1.0 390:1.0 508:1.0 
-0.1903724364872246 0.0 0.4914037655306481 0.0 0.0 4:1.0 5:2.0 6:1.0 7:10.0 8:8.0 10:1.0 27:2.0 39:1.0 308:1.0 331:1.0 509:1.0 
-0.0 0.0 0.24161464338695202 0.0 0.1890306464594777 4:1.0 5:2.0 6:3.0 7:7.0 8:4.0 10:2.0 511:1.0 512:1.0 513:1.0 
-1.0 1.0 1.0 0.0 1.0 4:1.0 5:2.0 6:1.0 7:10.0 8:9.0 10:2.0 11:1.0 
-1.0 1.0 1.0 1.0 1.0 4:1.0 5:2.0 6:2.0 7:5.0 8:3.0 10:2.0 11:1.0 
-0.0 0.0 0.0 0.0 0.13343673576514345 4:1.0 5:2.0 6:3.0 7:7.0 8:5.0 10:1.0 390:1.0 514:1.0 515:1.0 
-0.0 0.0 0.0 0.0 1.0 4:1.0 5:2.0 6:2.0 7:8.0 8:6.0 10:1.0 72:1.0 110:1.0 117:1.0 
-0.7775911505479802 0.6974369997396979 1.0 0.0 1.0 5:2.0 6:2.0 7:11.0 8:10.0 10:1.0 26:1.0 88:1.0 516:1.0 
-0.27263517933641324 0.5591321312235144 0.6930298994605933 0.0 0.43211359514402176 1:1.0 4:1.0 5:2.0 6:5.0 7:10.0 8:4.0 10:2.0 20:1.0 30:1.0 517:1.0 518:1.0 519:1.0 
-0.10741808638001295 0.0 0.0 0.0 0.0 5:2.0 6:1.0 7:12.0 8:12.0 10:1.0 84:1.0 522:1.0 523:1.0 
-1.0 1.0 1.0 1.0 0.0 4:1.0 5:2.0 6:2.0 7:4.0 8:3.0 10:1.0 11:1.0 
-0.16776827145520723 0.0 0.0 0.0 0.009912725662533043 5:2.0 6:2.0 7:11.0 8:10.0 10:1.0 52:1.0 67:1.0 215:1.0 314:1.0 525:1.0 
-1.0 1.0 1.0 0.0 1.0 4:1.0 5:2.0 6:2.0 7:9.0 8:8.0 10:1.0 11:1.0 
-0.0 0.0 1.0 0.0 0.0 4:1.0 5:2.0 6:2.0 7:7.0 8:5.0 10:2.0 20:1.0 77:1.0 519:1.0 531:1.0 
-1.0 1.0 1.0 0.0 1.0 4:1.0 5:2.0 6:3.0 7:8.0 8:6.0 10:1.0 11:1.0 
-0.3302148882030683 0.9257024281578597 1.0 0.0 0.07591908247850056 4:1.0 5:2.0 6:2.0 7:6.0 8:5.0 10:1.0 20:1.0 348:1.0 375:1.0 
-0.09335371371825622 0.0 0.23032762876916155 0.0 0.16073795439377536 4:1.0 5:2.0 6:3.0 7:12.0 8:10.0 10:1.0 74:1.0 117:1.0 538:1.0 539:1.0 
-0.0 0.03451173189990482 0.0 0.0 0.0 5:2.0 6:3.0 7:8.0 8:5.0 10:1.0 84:1.0 91:1.0 540:1.0 541:1.0 
-0.0 0.0 0.048756084487848496 0.0 0.0 5:2.0 6:3.0 7:13.0 8:9.0 9:1.0 10:1.0 19:1.0 53:1.0 54:1.0 84:1.0 543:1.0 544:1.0 545:1.0 546:1.0 
-0.7645107507811993 1.0 1.0 0.0 1.0 4:1.0 5:2.0 6:4.0 7:7.0 8:3.0 10:1.0 11:1.0 92:1.0 
-0.0 0.13000774083355437 0.0 0.0 0.0 5:2.0 6:1.0 7:17.0 8:14.0 10:1.0 19:3.0 20:1.0 54:3.0 84:1.0 544:1.0 550:1.0 551:1.0 
-0.22880364768205577 0.7818919091593848 1.0 0.0 1.0 5:2.0 6:3.0 7:6.0 8:4.0 10:1.0 26:1.0 552:1.0 553:1.0 
-1.0 1.0 1.0 0.0 1.0 4:1.0 5:2.0 6:2.0 7:9.0 8:8.0 10:1.0 11:1.0 
-0.10490634219966109 1.0 0.0 0.0 0.0 5:2.0 6:1.0 7:5.0 8:5.0 10:1.0 11:1.0 84:1.0 
-1.0 1.0 1.0 0.6307312434598779 0.0 4:1.0 5:2.0 6:1.0 7:7.0 8:7.0 10:1.0 11:1.0 
-1.0 1.0 1.0 0.0 1.0 4:1.0 5:2.0 6:3.0 7:21.0 8:16.0 10:1.0 11:1.0 19:2.0 70:1.0 
-0.0 0.014411603904018789 0.0 0.0 0.0 5:2.0 6:2.0 7:7.0 8:5.0 10:1.0 19:1.0 53:1.0 54:1.0 84:1.0 557:1.0 
-0.0 0.0 0.4718234714268067 0.0 0.04880034529887359 4:1.0 5:2.0 6:3.0 7:5.0 8:3.0 10:1.0 511:1.0 558:1.0 
-1.0 1.0 1.0 0.0 0.0 4:1.0 5:2.0 6:1.0 7:9.0 8:8.0 10:1.0 11:1.0 27:1.0 
-1.0 1.0 1.0 0.0 1.0 4:1.0 5:2.0 6:3.0 7:8.0 8:6.0 10:1.0 11:1.0 
-0.0 0.11569795897025026 1.0 0.009634183884789111 0.0 4:1.0 5:2.0 6:2.0 7:7.0 8:5.0 10:2.0 20:1.0 77:1.0 390:1.0 560:1.0 
-0.0 0.0 0.44710804510330526 0.0 0.024684259217051654 4:1.0 5:2.0 6:2.0 7:7.0 8:6.0 10:1.0 511:1.0 561:1.0 562:1.0 
-0.42945343626323396 0.39087621469254996 0.5726085655659966 0.00961144210396304 0.0 4:1.0 5:2.0 6:2.0 7:7.0 8:5.0 10:2.0 20:1.0 77:1.0 285:1.0 390:1.0 
-0.0 0.0 0.0 0.0 0.2269231503015996 5:2.0 6:5.0 7:8.0 8:4.0 10:1.0 84:1.0 110:1.0 243:1.0 528:1.0 
-0.45167078394243243 0.0 0.0 0.0 0.2099548333372956 5:2.0 6:2.0 7:5.0 8:4.0 10:1.0 26:1.0 197:1.0 529:1.0 
-0.0 0.0 0.0 0.0 0.2146351106838832 4:1.0 5:2.0 6:4.0 7:10.0 8:6.0 10:1.0 27:1.0 67:1.0 567:1.0 568:1.0 
-0.0 0.0 0.3327215106126128 0.0 0.0 5:2.0 6:2.0 7:7.0 8:6.0 10:1.0 26:1.0 106:1.0 409:1.0 569:1.0 
-1.0 0.0 0.0 0.0 0.0 4:1.0 5:2.0 6:1.0 7:9.0 8:7.0 10:2.0 17:1.0 27:1.0 39:1.0 327:1.0 
-1.0 1.0 1.0 0.0 0.8684324052910344 4:1.0 5:2.0 6:2.0 7:6.0 8:5.0 10:1.0 11:1.0 
-1.0 1.0 1.0 1.0 0.0 4:1.0 5:2.0 6:1.0 7:4.0 8:4.0 10:1.0 11:1.0 
-1.0 1.0 1.0 0.0 1.0 4:1.0 5:2.0 6:2.0 7:8.0 8:7.0 10:1.0 11:1.0 
-0.029910424763915956 0.0 0.0 0.0 0.0 5:2.0 6:3.0 7:6.0 8:4.0 10:1.0 84:1.0 253:1.0 576:1.0 
-0.3849860590776488 0.92568516339345 1.0 0.0 0.5597273706763236 4:1.0 5:2.0 6:2.0 7:6.0 8:5.0 10:1.0 20:1.0 57:1.0 577:1.0 
-1.0 1.0 1.0 0.0 1.0 4:1.0 5:2.0 6:4.0 7:12.0 8:8.0 10:2.0 11:1.0 
-0.06836871684630041 0.1720403043681402 0.765977244134262 0.0 0.17623613930187051 4:1.0 5:2.0 6:1.0 7:6.0 8:6.0 10:1.0 419:1.0 578:1.0 
-0.0 0.0 0.46405036733411376 0.0 0.0 5:2.0 6:1.0 7:4.0 8:4.0 10:1.0 84:1.0 357:1.0 579:1.0 
-0.0 1.0 0.0 0.0 0.0 5:2.0 6:3.0 7:8.0 8:6.0 10:1.0 11:1.0 84:1.0 
-0.0 0.37716709296544115 0.0 0.0 0.0 5:2.0 6:3.0 7:10.0 8:6.0 10:3.0 53:1.0 84:1.0 580:1.0 
-0.0 0.0 0.5994750099748656 0.0 0.0 4:1.0 5:2.0 6:2.0 7:10.0 8:9.0 10:1.0 327:1.0 407:1.0 581:1.0 
-0.0 0.025910343527726004 0.0 0.0 0.0 5:2.0 6:3.0 7:8.0 8:4.0 10:3.0 84:1.0 583:1.0 584:1.0 
-0.4076326864472046 0.0897364067281478 0.6427224343946388 0.0 0.7864613841552811 5:2.0 6:2.0 7:14.0 8:12.0 10:2.0 230:1.0 314:1.0 586:1.0 587:1.0 588:1.0 
-1.0 1.0 1.0 0.434477156302979 1.0 4:1.0 5:2.0 6:3.0 7:7.0 8:4.0 10:2.0 11:1.0 
-0.0 0.714009549273742 0.5688757665492249 0.0 0.0 4:1.0 5:2.0 6:3.0 7:5.0 8:3.0 10:1.0 406:1.0 511:1.0 
-0.0 0.015612063901306577 0.0 0.0 0.0 5:2.0 6:2.0 7:7.0 8:5.0 10:2.0 84:1.0 589:1.0 590:1.0 
-1.0 1.0 1.0 0.0 1.0 4:1.0 5:2.0 6:3.0 7:13.0 8:11.0 10:1.0 11:1.0 
-0.30410425470066665 0.0 0.2248629763157699 0.0 0.0 4:1.0 5:2.0 6:1.0 7:6.0 8:6.0 10:1.0 82:1.0 592:1.0 
-1.0 1.0 1.0 1.0 1.0 4:1.0 5:2.0 6:3.0 7:7.0 8:4.0 10:2.0 11:1.0 
-0.0 0.0 0.0 0.0 0.3736384871702736 4:1.0 5:2.0 6:5.0 7:8.0 8:4.0 10:1.0 67:1.0 329:1.0 
-1.0 1.0 1.0 0.0 1.0 4:1.0 5:2.0 6:4.0 7:9.0 8:5.0 9:1.0 10:1.0 143:1.0 
-0.0 0.02106162976415854 0.0 0.0 0.0 5:2.0 6:1.0 7:7.0 8:6.0 10:1.0 19:1.0 53:1.0 54:1.0 84:1.0 593:1.0 
-1.0 1.0 1.0 0.0 1.0 4:1.0 5:2.0 6:2.0 7:6.0 8:5.0 10:1.0 11:1.0 
-0.0 0.0 1.0 0.0 0.0 4:1.0 5:2.0 6:1.0 7:5.0 8:5.0 10:1.0 117:1.0 
-0.0 0.10250588370031652 0.3536977473822038 0.0 0.3490880764104255 4:1.0 5:2.0 6:4.0 7:8.0 8:5.0 10:1.0 25:1.0 594:1.0 
-0.0 0.0 0.0 0.0 0.6405013639325344 1:1.0 4:1.0 5:2.0 6:1.0 7:7.0 8:5.0 10:2.0 92:1.0 327:1.0 344:1.0 595:1.0 
-0.0 0.0 0.8751528580702652 0.0 0.03233490365403397 4:1.0 5:2.0 6:2.0 7:6.0 8:5.0 10:1.0 511:1.0 598:1.0 
-0.0 0.0 0.0 0.0 0.8111392039960099 4:1.0 5:2.0 6:3.0 7:9.0 8:6.0 10:1.0 67:1.0 91:1.0 110:1.0 287:1.0 
-0.0 0.0 0.35719251261559226 0.0 0.0 5:2.0 6:3.0 7:9.0 8:6.0 10:1.0 19:1.0 38:1.0 84:1.0 230:1.0 
-0.11495820485552305 0.4871538301156773 0.8007374452877634 0.0 0.704978097555779 5:2.0 6:3.0 7:7.0 8:5.0 10:1.0 26:1.0 409:1.0 548:1.0 569:1.0 
-1.0 1.0 1.0 0.0 1.0 4:1.0 5:2.0 6:3.0 7:6.0 8:4.0 10:1.0 11:1.0 
-0.0 0.010444717864578743 0.0 0.0 0.0 5:2.0 6:3.0 7:3.0 8:1.0 10:1.0 84:1.0 486:1.0 
-0.0 0.019227436140672908 0.0 0.0 0.0 5:2.0 6:1.0 7:4.0 8:4.0 10:1.0 84:1.0 602:1.0 
-1.0 1.0 1.0 0.0 1.0 4:1.0 5:2.0 6:3.0 7:8.0 8:6.0 10:1.0 11:1.0 
-1.0 1.0 1.0 0.0 1.0 4:1.0 5:2.0 6:3.0 7:11.0 8:9.0 10:1.0 11:1.0 
-0.0 0.0 0.0 0.0 0.036003989113251575 5:2.0 6:5.0 7:14.0 8:7.0 10:3.0 19:1.0 54:1.0 84:1.0 270:1.0 477:1.0 603:1.0 604:1.0 
-0.13681339529470546 0.370367855855063 0.752935189650298 0.0 0.9910006532634528 4:1.0 5:2.0 6:2.0 7:7.0 8:6.0 10:1.0 381:1.0 409:1.0 607:1.0 
-0.1531012002412721 0.2804710023058233 0.6743977545655554 0.0 0.3668660352364666 5:2.0 6:1.0 7:6.0 8:6.0 10:1.0 83:1.0 314:1.0 608:1.0 
-0.0 0.2663383695471224 0.0 0.0 0.3717405263649504 4:1.0 5:2.0 6:5.0 7:12.0 8:7.0 9:1.0 10:1.0 20:1.0 327:1.0 609:1.0 610:1.0 
-0.15045704867533796 0.0 0.0 0.0 0.0 5:2.0 6:5.0 7:22.0 8:16.0 10:3.0 74:1.0 81:1.0 84:1.0 270:1.0 492:1.0 611:1.0 612:1.0 613:1.0 
-1.0 0.7124621382856466 0.3769773595332243 0.0 0.0 1:1.0 5:2.0 6:4.0 7:11.0 8:8.0 10:1.0 26:1.0 83:1.0 106:1.0 
-0.14897633530259194 0.21355479454494788 0.7536578171947421 0.0 1.0 4:1.0 5:2.0 6:6.0 7:14.0 8:9.0 10:1.0 615:1.0 616:1.0 617:1.0 
-0.2694242071782249 0.40888173841183545 0.3767055513301064 0.0 0.0 4:1.0 5:2.0 6:1.0 7:13.0 8:12.0 9:1.0 10:1.0 20:1.0 67:1.0 106:1.0 183:1.0 618:1.0 
-0.0 0.012584735643945919 0.0 0.0 0.0 5:2.0 6:2.0 7:4.0 8:3.0 10:1.0 84:1.0 620:1.0 
-0.0 0.6173558479315581 1.0 0.0 0.23242922515520953 4:1.0 5:2.0 6:4.0 7:7.0 8:4.0 10:1.0 331:1.0 622:1.0 
-0.0 0.0 0.09458474634657421 0.0 0.0 2:1.0 5:2.0 6:4.0 7:6.0 8:3.0 10:1.0 26:1.0 74:1.0 438:1.0 
-1.0 1.0 1.0 0.0 1.0 4:1.0 5:2.0 6:4.0 7:8.0 8:5.0 10:1.0 11:1.0 
-0.0 0.0 1.0 0.0 0.7126531615894846 4:1.0 5:2.0 6:3.0 7:7.0 8:5.0 10:1.0 388:1.0 495:1.0 
-0.0 0.27571096244129395 0.0 0.0 0.0 5:2.0 6:3.0 7:12.0 8:9.0 10:2.0 84:1.0 387:1.0 623:1.0 
-0.0 0.9843067543655504 0.35355134094394086 0.0 0.0 4:1.0 5:2.0 6:3.0 7:6.0 8:4.0 10:1.0 20:1.0 197:1.0 529:1.0 
-0.0 0.2749568239331296 1.0 0.0 1.0 4:1.0 5:2.0 6:5.0 7:7.0 8:3.0 10:1.0 367:1.0 625:1.0 
-0.5173714677426631 0.018116374705231877 0.0 0.0 0.0 5:2.0 6:1.0 7:10.0 8:9.0 10:1.0 26:1.0 27:1.0 187:1.0 413:1.0 
-1.0 1.0 1.0 0.0 1.0 4:1.0 5:2.0 6:3.0 7:11.0 8:9.0 10:1.0 11:1.0 
-0.0 0.006573767362117569 0.0 0.0 0.0 5:2.0 6:1.0 7:7.0 8:7.0 10:1.0 84:1.0 626:1.0 
-0.0 0.006773756758441452 0.6014812726767682 0.0 0.3801202750234214 5:2.0 6:1.0 7:5.0 8:5.0 10:1.0 314:1.0 488:1.0 627:1.0 
-0.0 0.006102167164974188 0.0 0.0 0.0 5:2.0 6:3.0 7:4.0 8:2.0 10:1.0 84:1.0 630:1.0 
-1.0 1.0 1.0 1.0 0.0 4:1.0 5:2.0 6:1.0 7:8.0 8:6.0 10:1.0 11:1.0 19:1.0 27:1.0 
-1.0 1.0 1.0 1.0 0.0 4:1.0 5:2.0 6:2.0 7:5.0 8:4.0 10:1.0 11:1.0 
-0.13922295248926211 0.28363935283935965 1.0 0.0 0.8606262863106311 4:1.0 5:2.0 6:3.0 7:6.0 8:4.0 10:1.0 633:1.0 634:1.0 
-0.13970097758291927 0.6229494603465762 1.0 0.0 0.9847466685065001 4:1.0 5:2.0 6:2.0 7:5.0 8:4.0 10:1.0 532:1.0 640:1.0 
-0.15836375633064786 0.0 0.06508565792147626 0.0 0.14112399775648765 4:1.0 5:2.0 6:2.0 7:4.0 8:3.0 10:1.0 197:1.0 641:1.0 
-0.0 1.0 0.0 0.0 0.0 5:2.0 6:1.0 7:4.0 8:4.0 10:1.0 11:1.0 84:1.0 
-0.0 1.0 0.0 0.0 0.0 5:2.0 6:1.0 7:4.0 8:4.0 10:1.0 11:1.0 84:1.0 
-0.6610824842953378 1.0 1.0 0.31022876590327364 1.0 4:1.0 5:2.0 6:1.0 7:4.0 8:4.0 10:1.0 20:1.0 642:1.0 
-0.13901359381997022 0.0 0.0 0.0 0.0 5:2.0 6:1.0 7:12.0 8:10.0 10:2.0 19:1.0 52:1.0 54:1.0 84:1.0 643:1.0 644:1.0 
-1.0 1.0 1.0 1.0 0.0 4:1.0 5:2.0 6:2.0 7:4.0 8:3.0 10:1.0 11:1.0 
-0.30676017061373595 0.20045742074979067 0.6941816932620339 0.0 0.6966113553581958 4:1.0 5:2.0 6:4.0 7:15.0 8:8.0 9:1.0 10:3.0 27:1.0 648:1.0 649:1.0 650:1.0 651:1.0 652:1.0 
-0.8493843778514785 0.06089573694392802 1.0 0.0 1.0 5:2.0 6:1.0 7:7.0 8:7.0 10:1.0 26:1.0 199:1.0 352:1.0 653:1.0 
-0.26027574939939546 0.0 0.12496571963455907 0.0 0.21759120297118162 4:1.0 5:2.0 6:2.0 7:10.0 8:5.0 9:1.0 10:2.0 27:1.0 117:1.0 123:1.0 655:1.0 656:1.0 
-0.0 0.0027452792442911986 1.0 0.0 1.0 4:1.0 5:2.0 6:2.0 7:9.0 8:8.0 10:1.0 319:1.0 388:1.0 
-0.0 0.22432595318613777 0.0 0.0 0.0 5:2.0 6:3.0 7:5.0 8:3.0 10:1.0 84:1.0 357:1.0 657:1.0 
-0.0 0.10248779235259255 1.0 0.0 0.3490596169397395 4:1.0 5:2.0 6:4.0 7:8.0 8:5.0 10:1.0 25:1.0 659:1.0 
-0.0 0.0 0.0 0.0 0.04639240336238272 4:1.0 5:2.0 6:3.0 7:11.0 8:8.0 10:2.0 67:1.0 305:1.0 347:1.0 660:1.0 
-1.0 1.0 1.0 0.0 1.0 4:1.0 5:2.0 6:3.0 7:9.0 8:6.0 10:2.0 11:1.0 
-1.0 1.0 1.0 0.0 0.0 4:1.0 5:2.0 6:1.0 7:8.0 8:8.0 10:1.0 11:1.0 
-1.0 1.0 1.0 0.9949852591062772 1.0 4:1.0 5:2.0 6:3.0 7:7.0 8:4.0 10:2.0 11:1.0 
-0.0 0.016958210702311103 0.0 0.0 0.0 5:2.0 6:2.0 7:3.0 8:2.0 10:1.0 84:1.0 661:1.0 
-1.0 1.0 1.0 0.07188804985598421 1.0 4:1.0 5:2.0 6:1.0 7:13.0 8:11.0 10:3.0 11:1.0 
-0.2650492138855624 0.11766986010528536 0.09551559282896441 0.0 0.2348868370392278 4:1.0 5:2.0 6:1.0 7:8.0 8:8.0 10:1.0 495:1.0 666:1.0 667:1.0 
-0.0 0.0 0.0 0.0 0.07218849931090869 5:2.0 6:2.0 7:6.0 8:3.0 10:1.0 19:1.0 54:1.0 84:1.0 92:1.0 668:1.0 
-0.07209208777438922 0.0 1.0 0.0 0.12422940732293572 4:1.0 5:2.0 6:2.0 7:3.0 8:2.0 10:1.0 197:1.0 629:1.0 
-0.0 1.0 0.0 0.0 0.0 5:2.0 6:1.0 7:4.0 8:4.0 10:1.0 11:1.0 84:1.0 
-0.0 0.0 0.0 0.0 0.004452534427427333 4:1.0 5:2.0 6:4.0 7:10.0 8:5.0 10:2.0 72:1.0 187:1.0 672:1.0 673:1.0 
-1.0 1.0 1.0 0.0 1.0 4:1.0 5:2.0 6:3.0 7:6.0 8:4.0 10:1.0 11:1.0 
-0.15093968433824356 0.0 0.0 0.0 0.2620812116979908 4:1.0 5:2.0 6:3.0 7:7.0 8:4.0 10:1.0 266:1.0 308:1.0 675:1.0 
-0.0 0.2682002084316909 0.0 0.0 0.0 5:2.0 6:3.0 7:6.0 8:3.0 10:2.0 84:1.0 357:1.0 369:1.0 677:1.0 
-0.8825532465780106 0.0 0.4863841629535708 0.0 0.5481019260635551 4:1.0 5:2.0 6:1.0 7:7.0 8:7.0 10:1.0 182:1.0 290:1.0 
-0.0 0.4849214497273115 0.0 0.0 0.0 5:2.0 6:3.0 7:7.0 8:5.0 10:1.0 84:1.0 316:1.0 678:1.0 
-0.017499668109304492 0.0 0.4266725730337263 0.0 0.9268383119084495 4:1.0 5:2.0 6:5.0 7:15.0 8:7.0 9:1.0 10:3.0 27:1.0 39:1.0 125:1.0 331:1.0 682:1.0 
-0.0 0.0 0.32714183608200903 0.0 1.0 5:2.0 6:5.0 7:8.0 8:4.0 10:1.0 26:1.0 74:1.0 88:1.0 187:1.0 
-0.0 0.04405055294873909 0.44909286864123865 0.0 0.0 4:1.0 5:2.0 6:1.0 7:9.0 8:9.0 10:1.0 327:1.0 475:1.0 684:1.0 685:1.0 
-1.0 1.0 1.0 0.0 0.173400241541047 4:1.0 5:2.0 6:1.0 7:8.0 8:8.0 10:1.0 11:1.0 
-1.0 1.0 1.0 0.0 0.0 4:1.0 5:2.0 6:1.0 7:7.0 8:7.0 10:1.0 11:1.0 
-0.29102922498178646 0.0 0.0 0.0 0.0 5:2.0 6:1.0 7:10.0 8:10.0 10:1.0 26:1.0 81:1.0 327:1.0 544:1.0 
-1.0 1.0 1.0 0.0 1.0 4:1.0 5:2.0 6:1.0 7:9.0 8:9.0 10:1.0 11:1.0 
-0.3898188905745865 1.0 1.0 0.0 1.0 5:2.0 6:4.0 7:9.0 8:6.0 10:1.0 20:1.0 26:1.0 551:1.0 689:1.0 
-0.0 0.06577873748261982 0.0 0.0 0.0 5:2.0 6:2.0 7:5.0 8:4.0 10:1.0 26:1.0 363:1.0 390:1.0 
-0.0 0.0 0.9339367506586087 0.0 0.45178315944781455 4:1.0 5:2.0 6:3.0 7:12.0 8:10.0 10:1.0 106:1.0 680:1.0 691:1.0 
-0.13044245378856803 0.0 0.0 0.0 0.0 4:1.0 5:2.0 6:3.0 7:8.0 8:6.0 10:1.0 82:1.0 622:1.0 
-0.0 0.26784698117723843 1.0 0.0 0.7711194106176184 4:1.0 5:2.0 6:1.0 7:9.0 8:8.0 10:2.0 20:1.0 77:1.0 106:1.0 692:1.0 
-0.0 0.0 0.0 0.0 0.09290156394961835 5:2.0 6:2.0 7:8.0 8:6.0 10:2.0 314:1.0 327:1.0 693:1.0 694:1.0 
-0.0 0.0 0.0 0.0 0.6492171899236205 5:2.0 6:5.0 7:19.0 8:10.0 10:5.0 19:1.0 54:1.0 84:1.0 325:1.0 378:1.0 695:1.0 696:1.0 
-1.0 1.0 1.0 0.0 0.0 4:1.0 5:2.0 6:2.0 7:6.0 8:5.0 10:1.0 11:1.0 
-0.0 0.010701922318392893 0.0 0.0 0.0 5:2.0 6:1.0 7:6.0 8:6.0 10:1.0 84:1.0 420:1.0 
-0.015019626314491994 0.0 0.0 0.0 0.0 5:2.0 6:3.0 7:7.0 8:2.0 9:1.0 10:3.0 84:1.0 216:1.0 566:1.0 
-0.301151708445815 0.5628828822753572 1.0 0.0 1.0 4:1.0 5:2.0 6:1.0 7:8.0 8:8.0 10:1.0 88:1.0 138:1.0 698:1.0 
-0.017079468455398917 0.0 0.07140905659637958 0.0 0.0 4:1.0 5:2.0 6:4.0 7:14.0 8:11.0 10:1.0 187:1.0 702:1.0 703:1.0 704:1.0 705:1.0 
-0.0 0.0 0.0 0.0 0.06531819796565072 4:1.0 5:2.0 6:1.0 7:7.0 8:6.0 10:2.0 327:1.0 367:1.0 706:1.0 
-0.0862025641781943 0.0 0.8755108060142138 0.0 0.0 4:1.0 5:2.0 6:3.0 7:7.0 8:4.0 10:1.0 91:1.0 187:1.0 287:1.0 
-1.0 1.0 1.0 0.0 1.0 4:1.0 5:2.0 6:2.0 7:11.0 8:10.0 10:1.0 11:1.0 
-0.1531128732965245 0.0 0.0 0.0 0.0 4:1.0 5:2.0 6:1.0 7:12.0 8:11.0 10:1.0 72:1.0 114:1.0 187:1.0 355:1.0 
-1.0 1.0 1.0 0.0746589433449903 1.0 4:1.0 5:2.0 6:3.0 7:7.0 8:3.0 10:2.0 11:1.0 70:1.0 
-0.0 0.0 0.780723758333487 0.0 0.7885170163586335 4:1.0 5:2.0 6:3.0 7:12.0 8:8.0 10:3.0 67:1.0 352:1.0 450:1.0 712:1.0 
-0.0 0.0 1.0 0.0 1.0 4:1.0 5:2.0 6:1.0 7:10.0 8:10.0 10:1.0 88:1.0 516:1.0 
-0.14503327136930497 0.2820461454528743 0.5437824711564695 0.0 1.0 4:1.0 5:2.0 6:3.0 7:7.0 8:3.0 10:3.0 665:1.0 714:1.0 715:1.0 
-0.0 0.0 0.3410073939053552 0.0 0.018033704024283156 4:1.0 5:2.0 6:3.0 7:8.0 8:6.0 10:1.0 474:1.0 511:1.0 720:1.0 
-0.21488450648723378 0.056812203448638715 0.28734806634525584 0.0 0.2926227133862364 1:1.0 4:1.0 5:2.0 6:3.0 7:8.0 8:4.0 10:2.0 70:1.0 488:1.0 721:1.0 722:1.0 
-1.0 1.0 1.0 0.0 0.06345623071438604 4:1.0 5:2.0 6:1.0 7:8.0 8:8.0 10:1.0 11:1.0 
-1.0 1.0 1.0 0.0 1.0 4:1.0 5:2.0 6:3.0 7:10.0 8:8.0 10:1.0 11:1.0 
-0.0 0.0019846763309165722 0.0 0.0 0.0 5:2.0 6:2.0 7:6.0 8:5.0 10:1.0 84:1.0 724:1.0 725:1.0 
-0.0 0.0 0.0 0.0 0.18233289018210871 4:1.0 5:2.0 6:2.0 7:4.0 8:3.0 10:1.0 390:1.0 432:1.0 
-0.0 0.017017207702324323 0.0 0.0 0.0 5:2.0 6:1.0 7:8.0 8:7.0 10:1.0 19:1.0 53:1.0 54:1.0 84:1.0 730:1.0 
-0.06292584692626493 0.14918617087894726 1.0 0.0 0.6014708112076644 4:1.0 5:2.0 6:2.0 7:7.0 8:6.0 10:1.0 427:1.0 440:1.0 732:1.0 
-1.0 1.0 1.0 0.0 0.0 4:1.0 5:2.0 6:1.0 7:8.0 8:8.0 10:1.0 11:1.0 
-0.0 0.0 0.0 0.0 0.10055312037465702 4:1.0 5:2.0 6:4.0 7:9.0 8:6.0 10:1.0 424:1.0 438:1.0 733:1.0 
-1.0 1.0 1.0 0.0 1.0 4:1.0 5:2.0 6:2.0 7:10.0 8:9.0 10:1.0 11:1.0 
-0.32311316872189616 0.31965316648394193 0.08548976130478993 0.0846875882566395 0.0 4:1.0 5:2.0 6:2.0 7:6.0 8:4.0 10:2.0 20:1.0 117:1.0 166:1.0 333:1.0 
-0.0 0.01693876813109804 0.0 0.0 0.0 5:2.0 6:2.0 7:3.0 8:2.0 10:1.0 84:1.0 734:1.0 
-1.0 0.2863879350905908 1.0 0.0 0.995444462959057 4:1.0 5:2.0 6:3.0 7:9.0 8:6.0 10:1.0 27:1.0 51:1.0 266:1.0 
-0.0 0.11210747647330846 0.0 0.0 0.0 5:2.0 6:1.0 7:16.0 8:11.0 10:3.0 19:1.0 54:1.0 84:1.0 123:2.0 450:1.0 564:1.0 737:1.0 
-0.28863828284265103 0.4898408937585077 1.0 0.0 0.2872417814102997 4:1.0 5:2.0 6:2.0 7:8.0 8:6.0 9:1.0 10:1.0 20:1.0 320:1.0 331:1.0 739:1.0 
-0.23646390364231887 0.19215521546110506 0.5184404903566342 0.0 0.3853911994714789 4:1.0 5:2.0 6:1.0 7:7.0 8:7.0 10:1.0 740:1.0 741:1.0 
-0.0 0.05868565542762689 1.0 0.0 0.025211917283863447 1:1.0 4:1.0 5:2.0 6:1.0 7:8.0 8:6.0 10:2.0 20:1.0 70:1.0 106:1.0 438:1.0 
-1.0 1.0 1.0 0.11652919687733035 1.0 5:2.0 6:1.0 7:4.0 8:4.0 10:1.0 26:1.0 60:1.0 
-0.0 0.12291699031488947 0.0 0.0 0.0 5:2.0 6:2.0 7:6.0 8:5.0 10:1.0 84:1.0 155:1.0 746:1.0 
-0.0 0.02354982721812638 0.0 0.0 0.0 5:2.0 6:1.0 7:3.0 8:3.0 10:1.0 84:1.0 478:1.0 
-0.0 0.001712540219589665 0.0 0.0 0.0 5:2.0 6:3.0 7:5.0 8:3.0 10:1.0 84:1.0 748:1.0 
-0.0 1.0 0.0 0.0 0.0 5:2.0 6:3.0 7:8.0 8:6.0 10:1.0 11:1.0 84:1.0 
-0.0 0.03675329171234843 0.07777104283979218 0.0 0.0 4:1.0 5:2.0 6:2.0 7:11.0 8:10.0 10:1.0 327:1.0 684:1.0 749:1.0 750:1.0 
-0.04110400275343557 0.0 0.0 0.0 0.0 4:1.0 5:2.0 6:4.0 7:16.0 8:13.0 10:1.0 67:1.0 155:1.0 753:1.0 754:1.0 
-0.0 0.0 0.0 0.0 0.03581145457165191 5:2.0 6:3.0 7:8.0 8:6.0 10:1.0 26:1.0 67:1.0 369:1.0 677:1.0 
-0.16730905903707133 0.0 1.0 0.0 0.578192854781865 5:2.0 6:1.0 7:10.0 8:8.0 9:1.0 10:1.0 72:1.0 314:1.0 355:1.0 756:1.0 757:1.0 
-0.587509771667131 0.01604609827938825 0.25870231882203193 0.0 0.529328292901124 1:1.0 4:1.0 5:2.0 6:5.0 7:12.0 8:7.0 10:2.0 25:1.0 760:1.0 
-1.0 1.0 1.0 0.0 1.0 4:1.0 5:2.0 6:2.0 7:7.0 8:6.0 10:1.0 11:1.0 
-0.01593676121276428 0.0 0.0 0.0 0.21989715145522298 4:1.0 5:2.0 6:3.0 7:10.0 8:8.0 10:1.0 182:1.0 763:1.0 764:1.0 
-0.03387053120311154 0.0 0.4008808628609077 0.0 0.0 5:2.0 6:1.0 7:12.0 8:9.0 10:1.0 19:1.0 27:2.0 54:1.0 84:1.0 564:1.0 766:1.0 
-1.0 1.0 1.0 1.0 1.0 4:1.0 5:2.0 6:1.0 7:7.0 8:6.0 10:2.0 11:1.0 
-1.0 1.0 1.0 0.0 1.0 4:1.0 5:2.0 6:3.0 7:16.0 8:14.0 10:1.0 11:1.0 
-0.0 0.028509595593357258 0.0 0.0 0.0 5:2.0 6:5.0 7:14.0 8:9.0 10:1.0 19:1.0 54:1.0 84:1.0 372:1.0 533:1.0 767:1.0 768:1.0 
-0.07832109192688322 0.0 0.16491684675002943 0.0 0.15184068415554686 4:1.0 5:2.0 6:5.0 7:11.0 8:6.0 9:1.0 10:1.0 187:1.0 461:1.0 769:1.0 
-0.8201559482749589 0.9393027222604743 1.0 0.06579370931825208 0.5754153069865823 4:1.0 5:2.0 6:2.0 7:7.0 8:5.0 10:2.0 20:1.0 121:1.0 772:1.0 
-1.0 1.0 1.0 1.0 0.0 4:1.0 5:2.0 6:2.0 7:5.0 8:4.0 10:1.0 11:1.0 
-1.0 1.0 1.0 0.0 1.0 4:1.0 5:2.0 6:2.0 7:11.0 8:10.0 10:1.0 11:1.0 
-0.0 0.0 0.05607270642769381 0.0 0.0 5:2.0 6:1.0 7:7.0 8:7.0 26:1.0 70:1.0 187:1.0 773:1.0 
-0.20962276289653767 0.6170862597139044 0.9697514323974409 0.0 0.22663587422819717 4:1.0 5:2.0 6:2.0 7:5.0 8:4.0 10:1.0 20:1.0 449:1.0 763:1.0 
-0.0 0.0 0.3918448877679072 0.0 0.0 4:1.0 5:2.0 6:2.0 7:16.0 8:14.0 10:2.0 20:1.0 67:1.0 166:1.0 352:1.0 514:1.0 544:1.0 775:1.0 
-1.0 1.0 1.0 0.0 1.0 4:1.0 5:2.0 6:2.0 7:6.0 8:5.0 10:1.0 11:1.0 
-0.0 0.0 0.0 0.0 1.0 4:1.0 5:2.0 6:4.0 7:8.0 8:4.0 10:2.0 388:1.0 390:1.0 
-0.11328990737470546 0.0 0.0 0.0 0.0 4:1.0 5:2.0 6:3.0 7:15.0 8:13.0 10:1.0 187:1.0 230:1.0 347:1.0 476:1.0 511:1.0 697:1.0 
-0.26013781268868874 0.27647181958357103 0.8918231743503562 0.0 0.9916522142362105 4:1.0 5:2.0 6:5.0 7:15.0 8:7.0 9:1.0 10:3.0 27:1.0 39:1.0 125:1.0 331:1.0 682:1.0 
-0.0 0.0 0.23598478257248512 0.0 0.05842204993079967 4:1.0 5:2.0 6:3.0 7:9.0 8:7.0 10:1.0 312:1.0 511:1.0 777:1.0 
-1.0 1.0 1.0 0.0 1.0 4:1.0 5:2.0 6:3.0 7:8.0 8:6.0 10:1.0 11:1.0 
-0.0 2.98659507256678E-4 0.0 0.0 0.0 5:2.0 6:1.0 7:12.0 8:11.0 10:1.0 19:1.0 53:1.0 54:1.0 84:1.0 780:1.0 781:1.0 782:1.0 
-0.07150256230942645 0.19866054655103757 0.49577030261940924 0.0 0.7112619201782778 4:1.0 5:2.0 6:1.0 7:6.0 8:4.0 10:1.0 70:1.0 308:1.0 675:1.0 783:1.0 
-0.817257046195047 1.0 1.0 0.0 1.0 1:1.0 4:1.0 5:2.0 6:4.0 7:7.0 8:4.0 10:1.0 20:1.0 367:1.0 
-3.775407432248824E-4 0.05926964119006824 0.1853302567492878 0.0 0.3610917938981148 4:1.0 5:2.0 6:2.0 7:5.0 8:4.0 10:1.0 531:1.0 786:1.0 787:1.0 
-1.0 1.0 1.0 0.0 1.0 4:1.0 5:2.0 6:2.0 7:8.0 8:7.0 10:1.0 11:1.0 
-1.0 1.0 1.0 0.0 1.0 4:1.0 5:2.0 6:1.0 7:9.0 8:8.0 10:1.0 11:1.0 70:1.0 
-0.27397762726460234 0.023293742390269965 0.49496416064365617 0.8359004131692866 0.4086018933021934 4:1.0 5:2.0 6:2.0 7:17.0 8:8.0 10:4.0 19:5.0 48:1.0 316:1.0 765:1.0 788:1.0 789:1.0 
-1.0 1.0 1.0 0.0 1.0 4:1.0 5:2.0 6:3.0 7:11.0 8:7.0 10:3.0 11:1.0 
-0.0 0.17196970289719674 0.0 0.0 0.3470065772749912 4:1.0 5:2.0 6:5.0 7:18.0 8:12.0 9:1.0 10:1.0 20:1.0 92:1.0 224:1.0 327:1.0 791:1.0 792:1.0 
-0.0 0.004883614359846274 0.0 0.0 0.0 5:2.0 6:3.0 7:7.0 8:4.0 10:1.0 19:1.0 53:1.0 54:1.0 55:1.0 84:1.0 
-0.0 0.0 0.34288392919417787 0.0 0.2717891686942123 4:1.0 5:2.0 6:2.0 7:14.0 8:12.0 10:2.0 291:1.0 352:1.0 399:1.0 488:1.0 
-0.0 0.0 0.7809846823694957 0.0 0.0 5:2.0 6:2.0 7:9.0 8:7.0 10:1.0 19:1.0 54:1.0 84:1.0 434:1.0 435:1.0 
-0.05468888072888464 0.0 0.3851240408570058 0.0 0.11762783241381829 4:1.0 5:2.0 6:2.0 7:9.0 8:7.0 10:2.0 20:1.0 77:1.0 117:1.0 718:1.0 
-1.0 1.0 1.0 0.0 1.0 4:1.0 5:2.0 6:1.0 7:17.0 8:17.0 10:1.0 11:1.0 
-0.0 0.0 0.0 0.0 0.10110960758593736 4:1.0 5:2.0 6:7.0 7:15.0 8:6.0 10:2.0 27:1.0 67:1.0 123:1.0 797:1.0 798:1.0 
-1.0 1.0 1.0 1.0 0.0 4:1.0 5:2.0 6:1.0 7:8.0 8:7.0 10:1.0 11:1.0 72:1.0 
-0.0 0.1468272316085244 0.0 0.0 0.3828798046516439 5:2.0 6:6.0 7:13.0 8:6.0 10:3.0 84:1.0 88:1.0 800:1.0 801:1.0 
-0.0 0.2705869548328164 0.0 0.0 0.3947326413394094 5:2.0 6:1.0 7:9.0 8:8.0 10:1.0 26:1.0 70:1.0 327:1.0 802:1.0 803:1.0 
-1.0 1.0 1.0 0.0 0.0 4:1.0 5:2.0 6:2.0 7:9.0 8:7.0 10:1.0 11:1.0 72:1.0 
-1.0 1.0 1.0 1.0 0.0 4:1.0 5:2.0 6:2.0 7:5.0 8:4.0 10:1.0 11:1.0 
-1.0 1.0 1.0 0.0 1.0 4:1.0 5:2.0 6:3.0 7:8.0 8:6.0 10:1.0 11:1.0 
-1.0 1.0 1.0 1.0 0.0 4:1.0 5:2.0 6:1.0 7:7.0 8:6.0 10:1.0 11:1.0 19:1.0 
-0.0 0.0 0.0 0.0 0.01828988418350075 4:1.0 5:2.0 6:3.0 7:8.0 8:6.0 10:1.0 319:1.0 424:1.0 812:1.0 
-0.0 0.04884916841805427 0.0 0.0 0.0 5:2.0 6:2.0 7:10.0 8:8.0 10:1.0 19:1.0 53:1.0 54:1.0 84:1.0 382:1.0 813:1.0 
-0.0 0.03733751183837026 0.0 0.0 0.0 5:2.0 6:1.0 7:4.0 8:3.0 10:1.0 27:1.0 84:1.0 567:1.0 
-1.0 1.0 1.0 0.0 0.0 4:1.0 5:2.0 6:1.0 7:7.0 8:7.0 10:1.0 11:1.0 
-1.0 1.0 1.0 1.0 0.0 4:1.0 5:2.0 6:2.0 7:5.0 8:4.0 10:1.0 11:1.0 
-0.20768325311934643 0.8327252539736917 1.0 0.25085104106754136 0.7347850829796968 4:1.0 5:2.0 6:1.0 7:8.0 8:6.0 10:3.0 20:1.0 106:1.0 166:1.0 524:1.0 
-1.0 1.0 1.0 0.0 0.0 4:1.0 5:2.0 6:2.0 7:6.0 8:5.0 10:1.0 11:1.0 
-0.0 0.14831623045384115 0.0 0.0 0.0 5:2.0 6:3.0 7:7.0 8:5.0 10:1.0 84:1.0 474:1.0 820:1.0 
-0.01621583705852428 0.0 0.0 0.0 0.0 5:2.0 6:4.0 7:17.0 8:11.0 10:2.0 19:1.0 54:1.0 70:1.0 84:1.0 126:1.0 320:1.0 821:1.0 
-0.11603850627801983 0.3468225808512088 0.09644898108531919 0.0 0.0 4:1.0 5:2.0 6:3.0 7:11.0 8:9.0 10:1.0 20:1.0 305:1.0 374:1.0 519:1.0 
-1.0 1.0 1.0 1.0 0.0 4:1.0 5:2.0 6:2.0 7:5.0 8:4.0 10:1.0 11:1.0 
-0.0 0.01923722401150937 0.0 0.0 0.0 5:2.0 6:1.0 7:4.0 8:4.0 10:1.0 84:1.0 822:1.0 
-0.0 0.0 0.0 0.46019640143574864 0.0 4:1.0 5:2.0 6:1.0 7:6.0 8:4.0 10:1.0 19:1.0 72:1.0 187:1.0 823:1.0 
-0.08576470703359704 0.0 0.0 0.0 0.0 5:2.0 6:4.0 7:12.0 8:7.0 10:1.0 19:1.0 27:1.0 54:1.0 59:1.0 84:1.0 372:1.0 532:1.0 824:1.0 
-0.0 0.0872968178875478 0.1838026502512902 0.0 0.12831946598373523 4:1.0 5:2.0 6:5.0 7:12.0 8:6.0 10:2.0 19:1.0 20:1.0 53:1.0 77:1.0 414:2.0 825:1.0 
-0.0 0.4912845278734285 0.0 0.0 0.0 5:2.0 6:3.0 7:5.0 8:3.0 10:1.0 84:1.0 462:1.0 
-1.0 1.0 1.0 0.030730126857293417 1.0 4:1.0 5:2.0 6:3.0 7:7.0 8:3.0 10:2.0 11:1.0 70:1.0 
-0.0 1.0 0.8866236162665555 0.0 0.0 4:1.0 5:2.0 6:3.0 7:5.0 8:3.0 10:1.0 406:1.0 511:1.0 
-0.2528254142260506 0.0 0.3628060536163765 0.0 0.5233832965552007 4:1.0 5:2.0 6:4.0 7:13.0 8:9.0 10:1.0 27:1.0 40:1.0 97:1.0 197:1.0 297:1.0 828:1.0 
-1.0 1.0 1.0 0.0 1.0 4:1.0 5:2.0 6:3.0 7:17.0 8:14.0 10:1.0 11:1.0 70:1.0 
-0.0 0.012587087761397919 0.0 0.0 0.0 5:2.0 6:2.0 7:4.0 8:3.0 10:1.0 84:1.0 829:1.0 
-0.0 0.6982406271333714 0.8480290683656116 0.0 1.0 4:1.0 5:2.0 6:4.0 7:8.0 8:4.0 10:2.0 60:1.0 82:1.0 149:1.0 
-0.0 0.0 0.047385968865546385 0.05967747755681567 0.0 4:1.0 5:2.0 6:2.0 7:8.0 8:6.0 10:1.0 19:1.0 25:1.0 766:1.0 835:1.0 
-1.0 1.0 1.0 1.0 0.0 4:1.0 5:2.0 6:1.0 7:7.0 8:6.0 10:1.0 11:1.0 72:1.0 
-0.1160064852323288 0.3622947419716958 0.5432403411584575 0.0 0.4657257087390962 4:1.0 5:2.0 6:4.0 7:15.0 8:11.0 10:1.0 20:1.0 76:1.0 190:1.0 611:1.0 837:1.0 838:1.0 839:1.0 
-1.0 1.0 1.0 0.440645050237846 1.0 5:2.0 6:2.0 7:13.0 8:11.0 10:2.0 12:1.0 13:1.0 
-0.24604270694724908 0.0 0.12588312350708938 0.0 0.20671411619956803 5:2.0 6:3.0 7:17.0 8:12.0 10:4.0 26:2.0 31:1.0 62:1.0 327:1.0 761:1.0 795:1.0 840:1.0 841:1.0 
-0.3041346570468971 0.0 1.0 0.0 0.0 4:1.0 5:2.0 6:1.0 7:6.0 8:6.0 10:1.0 82:1.0 177:1.0 
-0.0 0.0 0.0 0.0 0.18202346994358015 4:1.0 5:2.0 6:6.0 7:13.0 8:6.0 10:2.0 19:1.0 38:1.0 327:1.0 843:1.0 844:1.0 
-0.8329609616692583 1.0 1.0 0.07279100816934905 1.0 4:1.0 5:2.0 6:1.0 7:6.0 8:6.0 10:1.0 20:1.0 742:1.0 
-0.0 1.0 0.0 0.0 0.0 5:2.0 6:2.0 7:3.0 8:2.0 10:1.0 84:1.0 
-0.0 0.3924490855059132 0.0 0.0 0.0 5:2.0 6:5.0 7:9.0 8:6.0 53:1.0 84:1.0 155:1.0 847:1.0 
-0.0 0.016956934978914248 0.0 0.0 0.0 5:2.0 6:2.0 7:3.0 8:2.0 10:1.0 84:1.0 471:1.0 
-0.0 0.0 0.10736265788582043 0.0 0.3820833592691268 4:1.0 5:2.0 6:3.0 7:8.0 8:6.0 10:1.0 438:1.0 821:1.0 848:1.0 
-0.0 0.0 0.0 0.0 0.012974259166276007 4:1.0 5:2.0 6:2.0 7:9.0 8:8.0 10:1.0 327:1.0 474:1.0 849:1.0 850:1.0 
-0.0 0.0 0.20548616534669709 0.0 0.0 4:1.0 5:2.0 6:3.0 7:6.0 8:4.0 10:1.0 82:1.0 852:1.0 
-0.0 0.0 0.06542574418076197 0.0 0.16343848007228237 4:1.0 5:2.0 6:4.0 7:14.0 8:10.0 10:1.0 27:1.0 106:1.0 740:1.0 853:1.0 854:1.0 
-0.0782160889971361 0.05696997262094047 0.17035090374167927 0.0 0.35041323080579034 4:1.0 5:2.0 6:4.0 7:9.0 8:4.0 10:3.0 346:1.0 855:1.0 856:1.0 857:1.0 
-0.0 0.0 0.2681406408725783 0.0 0.08628691484592188 4:1.0 5:2.0 6:1.0 7:10.0 8:7.0 10:2.0 27:2.0 106:1.0 308:1.0 860:1.0 861:1.0 
-1.0 1.0 1.0 0.0 1.0 4:1.0 5:2.0 6:2.0 7:7.0 8:6.0 10:1.0 11:1.0 
-0.0 0.11263928771835961 0.0 0.0 0.0 5:2.0 6:1.0 7:5.0 8:5.0 10:1.0 84:1.0 477:1.0 862:1.0 
-0.009491165770842719 0.0 0.0 0.0 0.0 5:2.0 6:1.0 7:13.0 8:12.0 10:1.0 19:1.0 54:1.0 84:1.0 318:1.0 863:1.0 
-0.4577952414733059 0.4564837069563868 1.0 0.0 1.0 5:2.0 6:2.0 7:9.0 8:8.0 10:1.0 26:1.0 441:1.0 864:1.0 
-0.29351241893463215 0.8286387903239958 1.0 0.1324240014957162 0.5183801270500594 4:1.0 5:2.0 6:1.0 7:9.0 8:7.0 10:3.0 20:1.0 106:1.0 166:1.0 865:1.0 
-0.0 0.0 0.0 0.0 0.1986105935158585 4:1.0 5:2.0 6:4.0 7:6.0 8:2.0 10:1.0 72:1.0 187:1.0 367:1.0 
-0.0 0.08875827878626039 0.012364890674424573 0.0 0.016355014437432105 5:2.0 6:5.0 7:12.0 8:6.0 10:3.0 84:1.0 310:1.0 474:1.0 867:1.0 
-0.0 0.16866708422332738 0.06768501698794877 0.0 0.0 5:2.0 6:2.0 7:10.0 8:9.0 10:1.0 84:1.0 649:1.0 762:1.0 868:1.0 
-0.0 0.0017293378317165256 0.0 0.0 0.0 5:2.0 6:3.0 7:5.0 8:3.0 10:1.0 84:1.0 871:1.0 
-0.3481113588184522 0.12202931025070328 0.05459579270999157 0.0 0.13593429221479775 4:1.0 5:2.0 6:2.0 7:13.0 8:11.0 10:2.0 168:1.0 319:1.0 440:1.0 872:1.0 
-0.0 0.0 0.0 0.0 0.2503420592211134 4:1.0 5:2.0 6:4.0 7:14.0 8:9.0 10:2.0 19:1.0 48:1.0 67:1.0 297:1.0 873:1.0 
-0.1093578294397242 0.3319052267079151 0.0 0.0 0.0 4:1.0 5:2.0 6:2.0 7:14.0 8:12.0 9:1.0 10:1.0 20:1.0 155:1.0 327:1.0 874:1.0 875:1.0 
-0.02765413392168491 0.03184507893478068 0.0 0.0 0.0899954220098995 5:2.0 6:5.0 7:18.0 8:12.0 10:3.0 84:1.0 477:1.0 876:1.0 877:1.0 878:1.0 
-0.0 0.0 0.010717617744095246 0.0 0.0 5:2.0 6:1.0 7:11.0 8:10.0 10:1.0 19:1.0 54:1.0 84:1.0 544:1.0 879:1.0 880:1.0 881:1.0 
-0.0 0.0 0.0 0.0 0.6376479630825123 4:1.0 5:2.0 6:3.0 7:11.0 8:9.0 10:1.0 367:1.0 438:1.0 703:1.0 883:1.0 
-0.0 0.765944904945473 0.21595032832161834 0.0 1.0 4:1.0 5:2.0 6:4.0 7:12.0 8:7.0 10:3.0 155:1.0 388:1.0 531:1.0 
-0.0 0.0 0.521385900256652 0.0 0.0 4:1.0 5:2.0 6:3.0 7:9.0 8:6.0 10:2.0 20:1.0 77:1.0 438:1.0 885:1.0 
-0.0 0.0 0.8397674022800979 0.0 0.5470338997184482 4:1.0 5:2.0 6:1.0 7:6.0 8:5.0 10:1.0 72:1.0 355:1.0 886:1.0 
-6.562668143210448E-4 0.0 0.0 0.0 0.0 1:1.0 4:1.0 5:2.0 6:2.0 7:9.0 8:6.0 9:1.0 10:2.0 327:1.0 888:1.0 889:1.0 
-0.0 0.0060819713039288814 0.0 0.0 0.0 5:2.0 6:3.0 7:4.0 8:2.0 10:1.0 84:1.0 890:1.0 
-1.0 1.0 1.0 0.10953042816950576 0.0 4:1.0 5:2.0 6:1.0 7:7.0 8:7.0 10:1.0 11:1.0 
-0.16812769794359433 0.0 0.33867562538549245 0.0 0.058871045010483854 4:1.0 5:2.0 6:2.0 7:11.0 8:10.0 10:1.0 511:1.0 891:1.0 892:1.0 
-0.3640702027245961 0.5223759388445463 0.899602910390741 0.04403343913646425 0.28682440575501966 4:1.0 5:2.0 6:1.0 7:8.0 8:7.0 10:2.0 20:1.0 77:1.0 531:1.0 893:1.0 
-1.0 1.0 1.0 0.0 1.0 4:1.0 5:2.0 6:1.0 7:9.0 8:9.0 10:1.0 11:1.0 
-0.13792288356160287 0.1091384925477289 0.3598525310539565 0.0 0.315744569520557 4:1.0 5:2.0 6:3.0 7:8.0 8:6.0 10:1.0 25:1.0 894:1.0 
-0.4837614986105376 1.0 1.0 0.761182536969022 0.29799333066186007 4:1.0 5:2.0 6:2.0 7:5.0 8:3.0 10:2.0 11:1.0 26:1.0 644:1.0 
-0.06459418699335744 0.0 0.0 0.0 0.0 5:2.0 6:1.0 7:11.0 8:11.0 10:1.0 84:1.0 898:1.0 899:1.0 
-0.0 0.0024888121063060074 1.0 0.0 0.08657403688047188 4:1.0 5:2.0 6:1.0 7:12.0 8:11.0 10:1.0 76:1.0 331:1.0 372:1.0 900:1.0 
-0.07534300030651955 0.19094312440833222 0.5358972697682833 0.0 0.5932407674861521 4:1.0 5:2.0 6:5.0 7:9.0 8:4.0 10:2.0 901:1.0 902:1.0 903:1.0 
-1.0 1.0 1.0 0.0 1.0 4:1.0 5:2.0 6:1.0 7:14.0 8:12.0 10:3.0 11:1.0 
-0.0 0.0 0.0 0.0 0.15014717099136463 4:1.0 5:2.0 6:4.0 7:7.0 8:4.0 10:1.0 390:1.0 601:1.0 904:1.0 
-1.0 1.0 1.0 0.0 1.0 4:1.0 5:2.0 6:3.0 7:6.0 8:4.0 10:1.0 11:1.0 
-0.0 0.008249100760920343 0.0 0.0 0.0 5:2.0 6:2.0 7:5.0 8:4.0 10:1.0 84:1.0 293:1.0 
-1.0 1.0 1.0 0.0 1.0 4:1.0 5:2.0 6:3.0 7:9.0 8:7.0 10:1.0 11:1.0 
-0.5867075221367787 0.5095683536940893 0.6734861349484742 0.0 0.04557355574633746 4:1.0 5:2.0 6:2.0 7:12.0 8:10.0 10:2.0 20:1.0 25:1.0 77:1.0 905:1.0 
-0.3231403241080912 0.3195439572538883 0.08548980535924885 0.0846676574838327 0.0 4:1.0 5:2.0 6:2.0 7:6.0 8:4.0 10:2.0 20:1.0 117:1.0 166:1.0 908:1.0 
-0.9719843938043669 0.0 0.11248197337849065 0.0 0.0 4:1.0 5:2.0 6:1.0 7:8.0 8:8.0 10:1.0 82:1.0 189:1.0 252:1.0 
-0.18258806301315153 0.2890690742889632 0.807324564913079 0.0 0.6579536207790024 4:1.0 5:2.0 6:2.0 7:5.0 8:4.0 10:1.0 912:1.0 913:1.0 
-0.0 0.0 0.0 0.0 0.5028329153553185 5:2.0 6:3.0 7:5.0 8:3.0 10:1.0 38:1.0 84:1.0 253:1.0 
-0.0 0.00748571607969624 0.0 0.0 0.0 5:2.0 6:1.0 7:5.0 8:5.0 10:1.0 84:1.0 917:1.0 918:1.0 
-0.0 0.0 0.5209907022264769 0.0 0.0 4:1.0 5:2.0 6:3.0 7:9.0 8:7.0 10:1.0 106:1.0 210:1.0 284:1.0 
-0.14961046366389646 0.18133522625622428 0.6461394633621526 0.0 0.4893004222210445 4:1.0 5:2.0 6:4.0 7:10.0 8:7.0 10:1.0 128:1.0 833:1.0 925:1.0 
-0.03534830036681645 0.1334252498337539 0.49783237019144344 0.0 0.0 5:2.0 6:2.0 7:8.0 8:7.0 10:1.0 84:1.0 251:1.0 927:1.0 
-0.0 0.0 0.0 0.0 0.19953507388415834 4:1.0 5:2.0 6:2.0 7:5.0 8:4.0 10:1.0 390:1.0 930:1.0 
-0.0 0.24525912285930207 0.0 0.0 0.0 5:2.0 6:3.0 7:8.0 8:6.0 10:1.0 60:1.0 84:1.0 474:1.0 931:1.0 
-0.0 0.0 0.03737923300840378 0.030477367527605936 0.2529181984168706 4:1.0 5:2.0 6:4.0 7:6.0 8:2.0 10:1.0 19:1.0 197:1.0 933:1.0 
-1.0 1.0 1.0 0.0 1.0 4:1.0 5:2.0 6:3.0 7:13.0 8:11.0 10:1.0 11:1.0 
-0.0 0.0236144672481482 0.0 0.0 0.0 5:2.0 6:1.0 7:3.0 8:3.0 10:1.0 84:1.0 934:1.0 
-0.027983169688467282 0.35478340884954696 0.6403978704265955 0.0 1.0 4:1.0 5:2.0 6:4.0 7:8.0 8:4.0 10:2.0 553:1.0 938:1.0 939:1.0 
-1.0 1.0 1.0 1.0 0.0 4:1.0 5:2.0 6:1.0 7:4.0 8:4.0 10:1.0 11:1.0 
-0.0 0.00749268498753319 0.0 0.0 0.0 5:2.0 6:1.0 7:5.0 8:5.0 10:1.0 84:1.0 940:1.0 941:1.0 
-0.02989880128705135 0.0 0.0 0.0 0.0028109949776810236 4:1.0 5:2.0 6:2.0 7:16.0 8:14.0 9:1.0 10:1.0 327:1.0 943:1.0 944:1.0 945:1.0 946:1.0 947:1.0 
-1.0 1.0 1.0 0.0 1.0 4:1.0 5:2.0 6:1.0 7:9.0 8:9.0 10:1.0 11:1.0 
-0.10096801976453294 0.09839875017334196 0.11740513335071362 0.0 0.0 5:2.0 6:1.0 7:17.0 8:17.0 10:1.0 84:1.0 643:1.0 954:1.0 955:1.0 956:1.0 957:1.0 
-0.0 0.18877289525577978 0.49950076351998807 0.0 0.2078127177398752 4:1.0 5:2.0 6:3.0 7:9.0 8:7.0 10:1.0 111:1.0 174:1.0 686:1.0 716:1.0 
-0.005973813528476863 0.0 0.0 0.0 0.0 5:2.0 6:2.0 7:15.0 8:13.0 10:1.0 19:1.0 54:1.0 84:1.0 959:1.0 960:1.0 961:1.0 
-0.487620369973167 1.0 1.0 0.0 1.0 4:1.0 5:2.0 6:3.0 7:6.0 8:4.0 10:1.0 20:1.0 210:1.0 
-0.07825380616642448 0.08249653729838191 0.0 0.0 0.0 5:2.0 6:2.0 7:4.0 8:3.0 10:1.0 26:1.0 488:1.0 569:1.0 
-1.0 1.0 1.0 0.13693353087128857 0.0 4:1.0 5:2.0 6:1.0 7:7.0 8:7.0 10:1.0 11:1.0 
-0.19493150157873082 0.0 0.22936546055404963 0.0 0.05235752535128977 4:1.0 5:2.0 6:1.0 7:7.0 8:7.0 10:1.0 82:1.0 420:1.0 970:1.0 
-1.0 1.0 1.0 1.0 0.0 4:1.0 5:2.0 6:1.0 7:6.0 8:6.0 10:1.0 11:1.0 
-0.0 0.0 0.0 0.0 0.0016926853495885957 5:2.0 6:4.0 7:18.0 8:10.0 9:1.0 10:3.0 19:2.0 53:1.0 54:2.0 84:1.0 971:1.0 972:1.0 
-0.0 0.32049954352824434 0.0 0.0 0.03431512429596664 5:2.0 6:1.0 7:11.0 8:9.0 10:1.0 84:1.0 92:1.0 123:1.0 201:1.0 474:1.0 973:1.0 
-0.764400455166765 0.0 0.6104519977137453 0.0 1.0 4:1.0 5:2.0 6:1.0 7:11.0 8:11.0 10:1.0 81:1.0 106:1.0 686:1.0 
-0.3508408695433555 0.016095427262764018 0.7300416155805889 0.0 0.0 4:1.0 5:2.0 6:1.0 7:14.0 8:14.0 10:1.0 20:1.0 38:1.0 197:1.0 835:1.0 
-0.0 0.0 0.058893839718319956 0.0 0.1747481889052019 4:1.0 5:2.0 6:3.0 7:4.0 8:2.0 10:1.0 197:1.0 747:1.0 
-0.1928726988597885 0.5868446149096433 1.0 0.0 1.0 4:1.0 5:2.0 6:2.0 7:3.0 8:2.0 10:1.0 975:1.0 
-0.2684322150627358 0.28480659997465957 0.8073379253599552 0.0 0.6749075905518613 4:1.0 5:2.0 6:2.0 7:7.0 8:6.0 10:1.0 384:1.0 771:1.0 
-0.0 0.023651855167160906 0.0 0.0 0.0 5:2.0 6:1.0 7:3.0 8:3.0 10:1.0 84:1.0 979:1.0 
-0.15204431723044395 0.0 0.5497690267980959 0.0 0.0 4:1.0 5:2.0 6:1.0 7:6.0 8:6.0 10:1.0 82:1.0 980:1.0 981:1.0 
-0.0 0.0 1.0 0.4994550920193848 1.0 4:1.0 5:2.0 6:2.0 7:7.0 8:4.0 10:2.0 19:1.0 26:1.0 67:1.0 164:1.0 
-0.0 0.04846930056216191 0.0 0.0 0.0 5:2.0 6:2.0 7:3.0 8:1.0 10:2.0 84:1.0 983:1.0 
-0.09263911069007975 0.0 0.0 0.0 0.0 5:2.0 6:4.0 7:14.0 8:10.0 10:2.0 84:1.0 175:1.0 985:1.0 986:1.0 
-0.0 0.04112460546565871 1.0 0.0 0.14862718184261414 4:1.0 5:2.0 6:2.0 7:6.0 8:5.0 10:1.0 331:1.0 987:1.0 
-0.7917331623865663 0.0 0.0 0.0 0.0 1:1.0 4:1.0 5:2.0 6:4.0 7:11.0 8:7.0 10:2.0 67:1.0 83:1.0 149:1.0 
-0.005291381996702331 0.2892127546493076 0.08003905454304905 0.0 0.0 4:1.0 5:2.0 6:2.0 7:9.0 8:8.0 10:1.0 20:1.0 67:1.0 988:1.0 
-0.3472002878583317 0.9195755739628649 0.9035372710721162 0.0 1.0 4:1.0 5:2.0 6:2.0 7:9.0 8:8.0 10:1.0 20:1.0 362:1.0 573:1.0 
-1.0 1.0 1.0 1.0 0.0 4:1.0 5:2.0 6:1.0 7:7.0 8:6.0 10:1.0 11:1.0 19:1.0 
-1.0 1.0 1.0 0.0 0.5901953786861192 4:1.0 5:2.0 6:2.0 7:6.0 8:5.0 10:1.0 11:1.0 
-0.0 0.05865925383579728 0.0 0.0 0.0 5:2.0 6:1.0 7:9.0 8:9.0 10:1.0 84:1.0 155:1.0 989:1.0 990:1.0 
-1.0 1.0 1.0 1.0 0.0 4:1.0 5:2.0 6:1.0 7:4.0 8:4.0 10:1.0 11:1.0 
-0.0 0.05959865326883525 0.0 0.0 0.0 5:2.0 6:3.0 7:7.0 8:4.0 10:2.0 26:1.0 84:1.0 991:1.0 992:1.0 
-0.04414510639395062 0.0 0.5851426200093618 0.06860877636208701 0.0 4:1.0 5:2.0 6:1.0 7:8.0 8:7.0 10:1.0 20:1.0 72:1.0 182:1.0 355:1.0 
-0.0 0.0 0.04535220288049444 0.0 0.0 5:2.0 6:4.0 7:10.0 8:7.0 10:1.0 60:1.0 67:1.0 314:1.0 997:1.0 
-0.0 0.029685900899511432 0.0 0.0 0.38350406546990373 5:2.0 6:3.0 7:8.0 8:3.0 10:3.0 84:1.0 92:1.0 998:1.0 999:1.0 
-0.0 0.0 1.0 0.0 0.0 4:1.0 5:2.0 6:2.0 7:4.0 8:3.0 10:1.0 511:1.0 
-0.0 0.0 0.0 0.0 0.5100922059869325 4:1.0 5:2.0 6:1.0 7:9.0 8:8.0 10:2.0 164:1.0 297:1.0 327:1.0 
-0.0 0.08447731590971723 0.0 0.0 0.0 5:2.0 6:4.0 7:8.0 8:4.0 10:2.0 84:1.0 474:1.0 1002:1.0 1003:1.0 
-0.4868508498370494 0.164622198058552 0.2808209954642401 0.0 0.7913713226054425 4:1.0 5:2.0 6:2.0 7:12.0 8:8.0 10:2.0 70:1.0 76:1.0 137:1.0 419:1.0 
-0.8349626551588766 0.860061073403849 0.9416575497145208 0.0 0.43779299535253663 4:1.0 5:2.0 6:1.0 7:14.0 8:14.0 10:1.0 20:1.0 38:1.0 197:1.0 835:1.0 
-1.0 1.0 1.0 0.0 1.0 4:1.0 5:2.0 6:3.0 7:12.0 8:9.0 10:2.0 11:1.0 
-0.1304346289189194 0.0 0.007124852584488572 0.0 0.02109184153708365 4:1.0 5:2.0 6:3.0 7:8.0 8:6.0 10:1.0 82:1.0 852:1.0 
-0.0 0.11198875052953887 0.09455825346284316 0.0 0.6079806041035578 4:1.0 5:2.0 6:3.0 7:5.0 8:3.0 10:1.0 531:1.0 1005:1.0 
-0.19159760675570364 0.48974187926042856 0.8023828021532218 0.01443981298894515 0.8168003036839798 4:1.0 5:2.0 6:2.0 7:7.0 8:5.0 10:2.0 20:1.0 77:1.0 424:1.0 1008:1.0 
-0.0 0.0 0.4449456441382231 0.0 0.26313616020892383 4:1.0 5:2.0 6:5.0 7:13.0 8:8.0 10:1.0 19:1.0 511:1.0 1009:1.0 
-1.0 1.0 1.0 0.0 0.4246949758769846 4:1.0 5:2.0 6:1.0 7:8.0 8:8.0 10:1.0 11:1.0 
-1.0 1.0 1.0 0.0 1.0 4:1.0 5:2.0 6:2.0 7:9.0 8:8.0 10:1.0 11:1.0 
-0.0 0.1435664719093501 0.0 0.0 0.7335002220717204 5:2.0 6:6.0 7:17.0 8:8.0 10:5.0 20:1.0 25:1.0 26:1.0 352:1.0 511:1.0 1010:1.0 
-0.07292916454182574 0.005414595604998569 0.34861644751190474 0.0 0.9754126520765187 4:1.0 5:2.0 6:2.0 7:7.0 8:5.0 10:1.0 72:1.0 335:1.0 359:1.0 
-0.279854026562646 0.477100616819601 0.013586017759607681 0.0 0.054141267929065214 5:2.0 6:1.0 7:14.0 8:9.0 10:5.0 19:1.0 54:1.0 84:1.0 183:1.0 351:1.0 1011:1.0 
-0.8894670067139553 0.6468046751199995 0.6481107722441932 0.18440114378683578 0.5307537573679744 4:1.0 5:2.0 6:2.0 7:5.0 8:3.0 10:2.0 20:1.0 275:1.0 493:1.0 
-0.0 0.7990269456638465 1.0 0.0 0.0 4:1.0 5:2.0 6:3.0 7:10.0 8:6.0 10:2.0 20:1.0 72:1.0 77:1.0 313:1.0 355:1.0 
-1.0 1.0 1.0 1.0 0.0 4:1.0 5:2.0 6:2.0 7:5.0 8:4.0 10:1.0 11:1.0 
-0.06384605277167185 0.18548252357453734 1.0 0.0 0.47222799718377295 4:1.0 5:2.0 6:4.0 7:7.0 8:4.0 10:1.0 1013:1.0 1014:1.0 1015:1.0 
-0.1313852165758506 0.0 0.21873637887322195 0.0 0.0 4:1.0 5:2.0 6:2.0 7:6.0 8:5.0 10:1.0 82:1.0 1017:1.0 
-0.026179649011854985 0.0 1.0 0.0 0.0 1:1.0 5:2.0 6:1.0 7:7.0 8:6.0 10:2.0 38:1.0 84:1.0 579:1.0 
-0.26225676853580154 0.0 0.0498122762902285 0.0 0.3041594805689393 1:1.0 4:1.0 5:2.0 6:3.0 7:13.0 8:10.0 10:2.0 511:1.0 619:1.0 680:1.0 1019:1.0 
-0.580276377082471 1.0 1.0 0.0 1.0 4:1.0 5:2.0 6:1.0 7:7.0 8:7.0 10:1.0 20:1.0 53:1.0 895:1.0 
-0.016924140345380322 0.0 1.0 0.02491717589125 1.0 4:1.0 5:2.0 6:2.0 7:9.0 8:6.0 10:2.0 20:1.0 72:1.0 77:1.0 355:1.0 1020:1.0 
-1.0 1.0 1.0 0.0 1.0 4:1.0 5:2.0 6:3.0 7:7.0 8:5.0 10:1.0 11:1.0 
-0.0 0.16657366301635315 0.48334075008103283 0.0 0.3587732171634748 4:1.0 5:2.0 6:4.0 7:7.0 8:4.0 10:1.0 492:1.0 1023:1.0 1024:1.0 
-0.0 0.0 0.0 0.0 0.40413888416880134 5:2.0 6:3.0 7:6.0 8:4.0 10:1.0 25:1.0 314:1.0 524:1.0 
-0.23646744826004754 0.19210580504197414 0.5184491441377729 0.0 0.3854551086716399 4:1.0 5:2.0 6:1.0 7:7.0 8:7.0 10:1.0 740:1.0 1025:1.0 
-0.0 0.0 0.0 0.0 0.15266942708939263 4:1.0 5:2.0 6:6.0 7:16.0 8:8.0 10:3.0 27:1.0 67:1.0 1028:1.0 1029:1.0 1030:1.0 1031:1.0 1032:1.0 
-0.4593680892368074 0.9269719974521914 1.0 0.0 0.5513766035375953 4:1.0 5:2.0 6:1.0 7:7.0 8:7.0 10:1.0 20:1.0 1033:1.0 1034:1.0 
-1.0 1.0 1.0 1.0 0.0 4:1.0 5:2.0 6:2.0 7:5.0 8:4.0 10:1.0 11:1.0 
-0.0 0.0 0.1088609081718733 0.0 0.4353538809416482 5:2.0 6:5.0 7:9.0 8:5.0 10:1.0 26:1.0 67:1.0 74:1.0 689:1.0 
-0.0 0.0 0.08560095587990868 0.0 0.0 4:1.0 5:2.0 6:6.0 7:12.0 8:7.0 10:1.0 25:1.0 60:1.0 322:1.0 440:1.0 
-0.029747525002456556 -0.0 0.09685550019411046 0.0 0.0 4:1.0 5:2.0 6:1.0 7:9.0 8:6.0 10:2.0 19:1.0 20:1.0 70:1.0 114:1.0 166:1.0 1035:1.0 1036:1.0 
-0.0 -0.0 1.0 0.0 0.0 4:1.0 5:2.0 6:1.0 7:4.0 8:4.0 10:1.0 11:1.0 
-0.8299061862034065 -1.0 1.0 0.0 0.0 4:1.0 5:2.0 6:2.0 7:7.0 8:6.0 10:1.0 11:1.0 
-0.5606469470254283 -1.0 1.0 0.0 0.0 5:2.0 6:3.0 7:9.0 8:7.0 10:1.0 11:1.0 84:1.0 
-0.48258792159737707 -0.2533581391341698 1.0 0.0 0.5503912243437725 4:1.0 5:2.0 6:1.0 7:12.0 8:10.0 10:1.0 11:1.0 76:2.0 
-0.2986180304488573 -0.1579813380412294 1.0 0.0 0.2042082619681543 4:1.0 5:2.0 6:3.0 7:8.0 8:5.0 9:1.0 10:1.0 20:1.0 1038:1.0 1039:1.0 
-0.712335782913899 -0.12461807565517463 0.6671886818405903 0.0 0.15138551708386674 4:1.0 5:2.0 6:1.0 7:2.0 8:2.0 10:1.0 20:1.0 245:1.0 
-0.0 -0.0 1.0 0.0 0.0 4:1.0 5:2.0 6:1.0 7:9.0 8:7.0 10:3.0 11:1.0 
-0.0568988455258269 -1.0 1.0 0.0 0.29033679979843086 4:1.0 5:2.0 6:5.0 7:9.0 8:5.0 10:1.0 20:1.0 313:1.0 553:1.0 
-0.1990512005349474 -0.08840431015012575 0.5202774918158015 0.0 0.20852356412358697 4:1.0 5:2.0 6:3.0 7:11.0 8:6.0 9:1.0 10:3.0 20:1.0 1041:1.0 1042:1.0 1043:1.0 
-0.0 -0.0 1.0 0.0 0.0 4:1.0 5:2.0 6:1.0 7:4.0 8:4.0 10:1.0 11:1.0 
-0.4738031940867232 -1.0 1.0 0.0 0.0 4:1.0 5:2.0 6:1.0 7:8.0 8:8.0 10:1.0 11:1.0 
-0.20763077849369319 -0.0 0.322641542299116 0.0 0.16109069924550795 4:1.0 5:2.0 6:1.0 7:6.0 8:5.0 10:2.0 20:1.0 37:1.0 205:1.0 
-0.0 -0.0 1.0 0.0 1.0 4:1.0 5:2.0 6:1.0 7:3.0 8:2.0 10:1.0 11:1.0 70:1.0 
-1.0 -1.0 1.0 0.0 1.0 4:1.0 5:2.0 6:1.0 7:11.0 8:11.0 10:1.0 11:1.0 
-0.0 -0.0 1.0 0.0 0.0 4:1.0 5:2.0 6:2.0 7:4.0 8:3.0 10:1.0 11:1.0 
-0.5171021051638335 -1.0 1.0 0.0 1.0 4:1.0 5:2.0 6:3.0 7:6.0 8:4.0 10:1.0 11:1.0 
-0.0 -0.0 1.0 0.0 0.0 4:1.0 5:2.0 6:1.0 7:4.0 8:4.0 10:1.0 11:1.0 
-0.05673573042949414 -0.06725828194525024 0.3430617066280467 0.0 0.12438555027659606 4:1.0 5:2.0 6:4.0 7:7.0 8:3.0 10:2.0 20:1.0 1048:1.0 1049:1.0 
-0.11306086977617034 -0.13336059760421942 1.0 0.0 0.16743814785716493 4:1.0 5:2.0 6:1.0 7:4.0 8:4.0 10:1.0 20:1.0 1050:1.0 
-0.0 -0.2813375132682323 0.0 0.0 0.0 5:2.0 6:3.0 7:9.0 8:6.0 10:1.0 15:1.0 72:1.0 1047:1.0 
-0.03770767711716966 -0.03432168591918866 0.0912585950870318 0.0 0.07747247755355458 4:1.0 5:2.0 6:4.0 7:7.0 8:2.0 10:3.0 20:1.0 222:1.0 1051:1.0 1052:1.0 
-1.0 -1.0 1.0 0.0 0.0 4:1.0 5:2.0 6:1.0 7:8.0 8:8.0 10:1.0 11:1.0 
-0.03788699169405764 -0.04407734494333805 0.6211582919943044 0.0 0.07750385326186167 4:1.0 5:2.0 6:3.0 7:8.0 8:5.0 10:2.0 20:1.0 1053:1.0 1054:1.0 1055:1.0 
-0.0 -0.0 1.0 0.0 0.0 4:1.0 5:2.0 6:2.0 7:4.0 8:3.0 10:1.0 11:1.0 
-0.1125968420540649 -0.12462644252514828 0.6671863677357535 0.0 0.1513876716968055 4:1.0 5:2.0 6:1.0 7:2.0 8:2.0 10:1.0 20:1.0 1056:1.0 
-0.3235984299063918 -0.0 0.0 0.0 0.0 5:2.0 6:3.0 7:13.0 8:10.0 9:1.0 10:1.0 12:1.0 1037:1.0 
-0.0 -0.0 1.0 0.0 0.0 4:1.0 5:2.0 6:1.0 7:4.0 8:4.0 10:1.0 11:1.0 
-0.0 -0.0 0.05011411862370296 1.0 0.0 4:1.0 5:2.0 6:1.0 7:5.0 8:4.0 10:1.0 11:1.0 19:1.0 
-0.11201652700333023 -0.0 0.0 0.0 0.0 5:2.0 6:1.0 7:9.0 8:9.0 10:1.0 15:1.0 1045:1.0 
-0.0 -1.0 0.0 0.0 0.0 4:1.0 5:2.0 6:3.0 7:4.0 8:2.0 10:1.0 11:1.0 
-0.056687754252546935 -0.04164395987820172 0.35252278131976855 0.0 0.07953872045844428 4:1.0 5:2.0 6:1.0 7:7.0 8:5.0 10:3.0 20:1.0 1057:1.0 1058:1.0 
-0.638427008917216 -1.0 0.7867439692343153 0.0 0.5229511868414551 4:1.0 5:2.0 6:4.0 7:9.0 8:3.0 10:4.0 20:1.0 197:1.0 678:1.0 
-0.0 -0.0 1.0 0.0 0.0 4:1.0 5:2.0 6:1.0 7:9.0 8:7.0 10:3.0 11:1.0 
-0.0 -0.001373377802009941 0.32909042551417494 0.0 0.026299355868374785 4:1.0 5:2.0 6:3.0 7:9.0 8:7.0 10:1.0 20:1.0 1059:1.0 1060:1.0 1061:1.0 
-0.0691664985549873 -0.03935538202528041 0.0 0.0 0.0 4:1.0 5:2.0 6:1.0 7:2.0 8:2.0 10:1.0 20:1.0 571:1.0 
-0.5681235052791413 -0.0 0.0 0.0 0.0 5:2.0 6:2.0 7:11.0 8:10.0 10:1.0 15:1.0 1045:1.0 
-0.26300407932218517 -0.1684142570978285 1.0 0.0 0.6295057728279523 4:1.0 5:2.0 6:3.0 7:11.0 8:8.0 10:1.0 20:1.0 27:1.0 39:1.0 477:1.0 1062:1.0 
-7.557225444357952E-4 -0.0 1.0 0.0 0.3813444206051136 5:2.0 6:2.0 7:17.0 8:14.0 10:1.0 15:1.0 72:1.0 92:1.0 1063:1.0 
-0.0 -0.9294732376267629 1.0 0.0 0.3345103262870554 4:1.0 5:2.0 6:2.0 7:8.0 8:6.0 9:1.0 10:1.0 20:1.0 67:1.0 1064:1.0 1065:1.0 
-0.11259578829336156 -0.12462800343036928 0.667189595017922 0.0 0.15138288417812248 4:1.0 5:2.0 6:1.0 7:2.0 8:2.0 10:1.0 20:1.0 1066:1.0 
-0.0 -0.0 1.0 0.0 0.0 5:2.0 6:2.0 7:18.0 8:16.0 10:1.0 15:1.0 19:1.0 1044:1.0 
-0.15332158148259958 -0.40168288420688336 0.27873929358990446 0.0 0.0 4:1.0 5:2.0 6:6.0 7:11.0 8:4.0 10:2.0 20:1.0 72:1.0 166:1.0 1067:1.0 1068:1.0 
-0.27747760282550005 -1.0 1.0 0.0 0.0 4:1.0 5:2.0 6:2.0 7:7.0 8:6.0 10:1.0 11:1.0 
-0.0 -0.0 1.0 0.0 0.0 4:1.0 5:2.0 6:1.0 7:5.0 8:5.0 10:1.0 11:1.0 
-0.09937642862271813 -0.9677999430780887 1.0 0.0 1.0 4:1.0 5:2.0 6:2.0 7:8.0 8:6.0 10:2.0 20:1.0 53:1.0 166:1.0 352:1.0 1070:1.0 
-0.0020412872645406365 -1.0 1.0 0.0 1.0 4:1.0 5:2.0 6:2.0 7:26.0 8:23.0 10:3.0 11:1.0 
-0.0 -0.0 0.9711085573770893 0.0 0.0 5:2.0 6:1.0 7:19.0 8:18.0 10:1.0 15:1.0 19:1.0 1047:1.0 
-0.05324003347795063 -0.0 1.0 0.0 0.0 4:1.0 5:2.0 6:1.0 7:7.0 8:7.0 10:1.0 11:1.0 
-0.0 -0.0 1.0 0.0 1.0 4:1.0 5:2.0 6:1.0 7:5.0 8:5.0 10:1.0 20:1.0 684:1.0 
-0.0 -0.0 1.0 0.0 0.0 4:1.0 5:2.0 6:1.0 7:8.0 8:6.0 10:3.0 11:1.0 
-0.0 -0.0 1.0 0.0 0.0 4:1.0 5:2.0 6:1.0 7:4.0 8:4.0 10:1.0 11:1.0 
-0.15983939401444 -0.6194885592113668 1.0 0.0 0.8906900758803173 4:1.0 5:2.0 6:1.0 7:7.0 8:6.0 10:1.0 92:1.0 474:1.0 684:1.0 1071:1.0 
-0.0 -0.3658931486927972 1.0 0.0 0.0 4:1.0 5:2.0 6:1.0 7:10.0 8:10.0 10:1.0 1072:1.0 
-0.0 -1.0 1.0 0.0 0.0 4:1.0 5:2.0 6:1.0 7:9.0 8:9.0 10:1.0 11:1.0 
-0.0 -1.0 0.0 0.0 0.0 4:1.0 5:2.0 6:3.0 7:4.0 8:2.0 10:1.0 11:1.0 
-0.05678179365180422 -0.09537707148123528 0.6787287110940551 0.0 0.091863253501015 4:1.0 5:2.0 6:1.0 7:6.0 8:6.0 10:1.0 20:1.0 813:1.0 1073:1.0 
-0.0 -0.0 0.0 1.0 0.0 4:1.0 5:2.0 6:2.0 7:5.0 8:4.0 10:1.0 1072:1.0 
-0.0 -0.0 0.0 1.0 0.0 4:1.0 5:2.0 6:1.0 7:4.0 8:4.0 10:1.0 1072:1.0 
-0.0 -0.0 1.0 0.0 0.0 4:1.0 5:2.0 6:1.0 7:4.0 8:4.0 10:1.0 11:1.0 
-0.0 -1.0 0.0 0.0 0.0 5:2.0 6:1.0 7:10.0 8:8.0 10:3.0 11:1.0 84:1.0 
-0.0 -0.0 1.0 0.0 0.0 5:2.0 6:1.0 7:22.0 8:22.0 10:1.0 12:1.0 1037:1.0 
-0.0 -0.391992118016646 1.0 0.0 1.0 4:1.0 5:2.0 6:9.0 7:17.0 8:6.0 10:4.0 11:1.0 
-0.0 -1.0 1.0 0.0 0.0 4:1.0 5:2.0 6:1.0 7:9.0 8:9.0 10:1.0 11:1.0 
-1.0 -1.0 1.0 0.0 0.0 4:1.0 5:2.0 6:1.0 7:8.0 8:8.0 10:1.0 11:1.0 
-0.0876950617529526 -0.0 0.0 1.0 0.0 4:1.0 5:2.0 6:1.0 7:3.0 8:2.0 10:1.0 11:1.0 1074:1.0 
-0.0 -0.0 1.0 0.0 0.0 4:1.0 5:2.0 6:1.0 7:4.0 8:4.0 10:1.0 11:1.0 
-0.06070243887023561 -0.0 1.0 0.0 0.0 4:1.0 5:2.0 6:1.0 7:9.0 8:8.0 10:2.0 20:1.0 53:1.0 166:1.0 504:1.0 
-0.11279690951933799 -0.12896597740112628 0.8397873598565585 0.0 0.15952442688758395 4:1.0 5:2.0 6:1.0 7:3.0 8:3.0 10:1.0 20:1.0 1075:1.0 
-0.0 -0.0 1.0 0.0 0.0 4:1.0 5:2.0 6:1.0 7:4.0 8:4.0 10:1.0 11:1.0 
-0.03818098021402914 -0.0 1.0 0.0 0.20393571059025914 4:1.0 5:2.0 6:5.0 7:14.0 8:9.0 10:1.0 20:1.0 123:1.0 1076:1.0 1077:1.0 1078:1.0 
-0.0 -0.0 0.0 1.0 0.0 4:1.0 5:2.0 6:2.0 7:3.0 8:2.0 10:1.0 1072:1.0 
-0.23533258738806523 -0.19774493114905975 1.0 0.4719041107581624 0.9326827805051758 4:1.0 5:2.0 6:4.0 7:14.0 8:6.0 9:1.0 10:2.0 19:2.0 20:1.0 27:1.0 38:1.0 164:1.0 1079:1.0 
-0.0 -0.0 1.0 0.0 0.0 4:1.0 5:2.0 6:1.0 7:2.0 8:1.0 10:1.0 11:1.0 70:1.0 
-0.5316172059368646 -0.2711170856894617 0.5934519927355875 0.08238160045001622 0.1547940067044617 1:1.0 4:1.0 5:2.0 6:4.0 7:12.0 8:6.0 10:3.0 19:1.0 20:1.0 166:1.0 251:1.0 825:1.0 1080:1.0 
-0.0 -0.5389143008501124 1.0 0.0 0.30993852088917434 4:1.0 5:2.0 6:1.0 7:11.0 8:11.0 10:1.0 20:1.0 53:1.0 106:1.0 1081:1.0 
-1.0 -1.0 1.0 0.0 1.0 4:1.0 5:2.0 6:1.0 7:12.0 8:12.0 10:1.0 11:1.0 
-0.2422565271877388 -0.2277434612063372 1.0 0.0 0.20207590462287311 4:1.0 5:2.0 6:2.0 7:5.0 8:3.0 10:2.0 20:1.0 33:1.0 77:1.0 
-0.2780087799660633 -0.21294125644859063 0.0 0.0 0.0 5:2.0 6:3.0 7:9.0 8:5.0 10:1.0 15:1.0 30:2.0 1045:1.0 
-0.0 -0.0 0.0 1.0 0.0 4:1.0 5:2.0 6:1.0 7:3.0 8:3.0 10:1.0 1072:1.0 
-0.04343549235140605 -0.08526288543912067 0.6671879802911752 0.0 0.1513808786640408 4:1.0 5:2.0 6:1.0 7:2.0 8:2.0 10:1.0 20:1.0 571:1.0 
-0.0 -0.0 1.0 0.0 0.0 4:1.0 5:2.0 6:1.0 7:5.0 8:5.0 10:1.0 11:1.0 
-0.11308687557797664 -1.0 1.0 0.0 0.718982233049778 4:1.0 5:2.0 6:1.0 7:4.0 8:4.0 10:1.0 20:1.0 486:1.0 
-0.0 -0.0 0.0 1.0 0.0 4:1.0 5:2.0 6:2.0 7:5.0 8:4.0 10:1.0 1072:1.0 
-0.11278689393639962 -0.128969927090372 1.0 0.0 0.15953238182872873 4:1.0 5:2.0 6:1.0 7:3.0 8:3.0 10:1.0 20:1.0 1083:1.0 
-0.0 -0.0 0.0 1.0 0.0 4:1.0 5:2.0 6:1.0 7:3.0 8:2.0 10:2.0 11:1.0 26:1.0 
-0.5401083995176691 -0.22320014066279745 0.615814256052334 0.0 0.2514078357476848 4:1.0 5:2.0 6:1.0 7:6.0 8:4.0 9:2.0 10:1.0 20:1.0 223:1.0 1084:1.0 
-1.0 -1.0 1.0 0.0 0.0 4:1.0 5:2.0 6:1.0 7:10.0 8:10.0 10:1.0 11:1.0 
-0.0 -0.0 1.0 0.0 0.6310918089731306 4:1.0 5:2.0 6:2.0 7:13.0 8:9.0 10:4.0 11:1.0 26:1.0 
-0.0645981575739325 -0.0 0.0 0.0 0.0 5:2.0 6:3.0 7:16.0 8:11.0 10:3.0 15:1.0 72:1.0 1047:1.0 
-1.0 -1.0 1.0 0.0 1.0 4:1.0 5:2.0 6:1.0 7:15.0 8:15.0 10:1.0 11:1.0 
-0.0 -0.0 0.0 1.0 0.0 4:1.0 5:2.0 6:1.0 7:4.0 8:3.0 10:1.0 11:1.0 19:1.0 
-0.12517867495273577 -0.24355681786706146 0.6087087843493677 0.0 0.28982159482047126 4:1.0 5:2.0 6:3.0 7:13.0 8:11.0 10:1.0 1085:1.0 1086:2.0 1087:1.0 
-0.0 -0.0 0.0 0.7312709532791759 0.0 4:1.0 5:2.0 6:2.0 7:5.0 8:4.0 10:1.0 1072:1.0 
-0.1125976536022347 -0.1246168269908937 0.6671862045067892 0.0 0.15139261368379395 4:1.0 5:2.0 6:1.0 7:2.0 8:2.0 10:1.0 20:1.0 1088:1.0 
-0.19083471186687376 -0.23967646791169828 0.0 0.4473604764443373 0.0 4:1.0 5:2.0 6:1.0 7:8.0 8:5.0 10:2.0 20:1.0 72:2.0 114:1.0 166:1.0 1089:1.0 
-0.0 -0.0 1.0 0.0 1.0 4:1.0 5:2.0 6:2.0 7:7.0 8:5.0 10:1.0 11:1.0 92:1.0 
-0.1768699300162248 -0.08175396348062756 0.39987891341374543 0.0 0.08922392998260109 4:1.0 5:2.0 6:3.0 7:11.0 8:7.0 9:1.0 10:1.0 20:1.0 91:1.0 1059:1.0 1060:1.0 1090:1.0 
-1.0 -1.0 1.0 0.0 0.0 4:1.0 5:2.0 6:1.0 7:8.0 8:8.0 10:1.0 11:1.0 
-0.0 -0.0 1.0 0.0 0.0 5:2.0 6:1.0 7:13.0 8:11.0 10:1.0 15:1.0 27:2.0 1044:1.0 
-0.0 -1.0 0.0 0.0 1.0 4:1.0 5:2.0 6:4.0 7:5.0 8:2.0 10:1.0 11:1.0 
-0.0 -0.0 1.0 0.0 0.0 4:1.0 5:2.0 6:1.0 7:7.0 8:7.0 10:1.0 11:1.0 
-0.0 -0.0 1.0 0.0 0.0 4:1.0 5:2.0 6:1.0 7:5.0 8:5.0 10:1.0 11:1.0 
-0.0387068722964157 -0.008266985806196217 0.24333246651738863 0.0 0.0 4:1.0 5:2.0 6:3.0 7:15.0 8:10.0 10:4.0 20:1.0 53:1.0 60:1.0 166:1.0 1091:2.0 
-0.056418508551900955 -0.0 0.0 0.0 0.0 4:1.0 5:2.0 6:2.0 7:10.0 8:5.0 10:4.0 20:1.0 238:1.0 1092:1.0 1093:1.0 
-0.3170435950303283 -0.7841345035111221 0.27994646628996545 0.0 1.0 4:1.0 5:2.0 6:3.0 7:5.0 8:3.0 10:1.0 33:1.0 400:1.0 
-0.0 -0.017609959268060634 0.4964030925023264 0.0 0.024485555801109827 4:1.0 5:2.0 6:1.0 7:9.0 8:9.0 10:1.0 20:1.0 155:1.0 1094:1.0 1095:1.0 
-0.0 -0.0 0.0 1.0 0.0 4:1.0 5:2.0 6:1.0 7:4.0 8:3.0 10:1.0 11:1.0 19:1.0 
-0.0 -0.0 1.0 0.0 0.0 4:1.0 5:2.0 6:1.0 7:9.0 8:7.0 10:3.0 11:1.0 
-0.0 -0.41984652761095875 0.0 0.0 0.0 4:1.0 5:2.0 6:3.0 7:4.0 8:2.0 10:1.0 11:1.0 
-0.0 -0.1261650587443565 0.5841920229530353 0.0 0.02675880797708862 4:1.0 5:2.0 6:2.0 7:10.0 8:9.0 10:1.0 20:1.0 205:1.0 615:1.0 1096:1.0 
-0.011537033030194386 -0.0 0.6249415860449952 0.0 0.0 5:2.0 6:1.0 7:15.0 8:15.0 10:1.0 15:1.0 1082:1.0 
-0.0 -0.0 1.0 0.0 0.0 4:1.0 5:2.0 6:1.0 7:6.0 8:6.0 10:1.0 11:1.0 
-0.0 -0.0 1.0 0.0 0.0 4:1.0 5:2.0 6:1.0 7:6.0 8:6.0 10:1.0 11:1.0 
-0.0 -0.0 0.91245916080056 0.0 0.0 4:1.0 5:2.0 6:1.0 7:7.0 8:7.0 10:1.0 20:1.0 387:1.0 1097:1.0 
-0.0 -0.0 0.0 1.0 0.0 4:1.0 5:2.0 6:1.0 7:7.0 8:3.0 10:3.0 11:1.0 19:1.0 27:1.0 
-0.0 -0.0 0.0 7.47774560248412E-5 0.0 4:1.0 5:2.0 6:1.0 7:2.0 8:2.0 10:1.0 11:1.0 
-0.0 -0.0 1.0 0.0 0.0 4:1.0 5:2.0 6:1.0 7:6.0 8:6.0 10:1.0 11:1.0 
-0.11340903956194152 -0.0 1.0 0.0 0.0 4:1.0 5:2.0 6:1.0 7:5.0 8:5.0 10:1.0 20:1.0 643:1.0 
-0.3879671784812888 -0.0 0.0 0.0 0.0 5:2.0 6:1.0 7:5.0 8:5.0 10:1.0 15:1.0 1098:1.0 
-0.0 -0.0 1.0 0.0 0.0 4:1.0 5:2.0 6:1.0 7:7.0 8:7.0 10:1.0 11:1.0 
-0.11260373211890232 -0.12462221449365214 1.0 0.0 0.15138923691729844 4:1.0 5:2.0 6:1.0 7:2.0 8:2.0 10:1.0 20:1.0 1099:1.0 
-0.0 -0.0 1.0 0.0 0.0 4:1.0 5:2.0 6:2.0 7:5.0 8:4.0 10:1.0 11:1.0 
-0.11366966570985425 -1.0 1.0 0.0 0.6826477510067177 4:1.0 5:2.0 6:1.0 7:7.0 8:7.0 10:1.0 20:1.0 409:1.0 
-0.0 -1.0 1.0 0.0 0.0 4:1.0 5:2.0 6:3.0 7:5.0 8:3.0 10:1.0 11:1.0 
-0.08877067318806953 -0.10289714989619277 0.9901020804221364 0.0 0.15961436341697793 4:1.0 5:2.0 6:5.0 7:21.0 8:13.0 9:2.0 10:2.0 20:1.0 27:1.0 38:1.0 187:1.0 208:1.0 544:1.0 684:1.0 1100:1.0 
-0.8872263759018723 -1.0 1.0 0.0 1.0 5:2.0 6:1.0 7:1.0 8:1.0 10:1.0 26:1.0 1101:1.0 
-0.0 -0.0 1.0 0.0 0.0 4:1.0 5:2.0 6:1.0 7:6.0 8:6.0 10:1.0 11:1.0 
-0.11320760392903144 -0.12182431179037885 1.0 0.0 0.16710832272305826 4:1.0 5:2.0 6:2.0 7:4.0 8:2.0 10:1.0 20:1.0 27:1.0 525:1.0 
-1.0 -1.0 1.0 0.0 1.0 4:1.0 5:2.0 6:3.0 7:7.0 8:5.0 10:1.0 11:1.0 
-0.0 -0.0 1.0 0.0 0.0 4:1.0 5:2.0 6:2.0 7:4.0 8:3.0 10:1.0 11:1.0 
-0.11306283748751637 -0.10623162209325263 0.7724445335068258 0.0 0.1591752573298186 4:1.0 5:2.0 6:1.0 7:5.0 8:4.0 10:2.0 20:1.0 1102:1.0 
-0.0 -0.7092416405790567 1.0 0.0 1.0 4:1.0 5:2.0 6:1.0 7:8.0 8:7.0 10:2.0 20:1.0 155:1.0 
-0.9452751036824332 -0.0 1.0 0.0 0.0 4:1.0 5:2.0 6:1.0 7:10.0 8:9.0 9:1.0 10:1.0 20:1.0 31:1.0 1064:1.0 1065:1.0 
-1.0 -1.0 1.0 0.0 1.0 4:1.0 5:2.0 6:3.0 7:9.0 8:7.0 10:1.0 11:1.0 
-0.4333767799311944 -1.0 1.0 0.0 1.0 4:1.0 5:2.0 6:3.0 7:5.0 8:2.0 10:2.0 20:1.0 77:1.0 531:1.0 
-0.0 -0.0 0.3359226645117807 0.0 0.0 4:1.0 5:2.0 6:1.0 7:3.0 8:3.0 10:1.0 11:1.0 
-0.06978983126680932 -0.05838050938032824 1.0 0.0 0.024218568195820623 4:1.0 5:2.0 6:3.0 7:7.0 8:5.0 10:1.0 20:1.0 60:1.0 1103:1.0 
-0.0 -0.16878476540675574 0.1319782104045333 0.0 0.36671139373136585 4:1.0 5:2.0 6:3.0 7:11.0 8:8.0 10:2.0 20:1.0 77:1.0 208:1.0 797:1.0 1100:1.0 
-0.028328386526555803 -0.02844041362549487 0.07565384909195595 0.0 0.06629121200507326 4:1.0 5:2.0 6:5.0 7:8.0 8:2.0 10:3.0 20:1.0 1104:1.0 1105:1.0 1106:1.0 1107:1.0 
-0.0 -0.0 1.0 0.0 0.0 4:1.0 5:2.0 6:1.0 7:3.0 8:3.0 10:1.0 11:1.0 
-0.0 -0.0 1.0 0.0 0.0 5:2.0 6:2.0 7:17.0 8:16.0 10:1.0 15:1.0 1044:1.0 
-0.11260284355527764 -0.12461816785532041 0.6671859482125913 0.0 0.15138620286143215 4:1.0 5:2.0 6:1.0 7:2.0 8:2.0 10:1.0 20:1.0 1108:1.0 
-0.0 -0.0 1.0 0.0 0.0 4:1.0 5:2.0 6:1.0 7:7.0 8:7.0 10:1.0 11:1.0 
-0.0 -1.0 0.0 0.0 0.0 5:2.0 6:1.0 7:8.0 8:5.0 10:3.0 11:1.0 27:1.0 84:1.0 
-0.8872119313198166 -1.0 1.0 0.0 1.0 5:2.0 6:2.0 7:1.0 10:1.0 26:1.0 1109:1.0 
-0.0 -1.0 1.0 0.0 0.0 4:1.0 5:2.0 6:1.0 7:7.0 8:7.0 10:1.0 11:1.0 
-0.0 -0.0 0.0 0.4738863623285781 0.0 4:1.0 5:2.0 6:1.0 7:3.0 8:2.0 10:1.0 123:1.0 1072:1.0 
-0.1564217681918018 -1.0 1.0 0.0 0.0 4:1.0 5:2.0 6:2.0 7:7.0 8:6.0 10:1.0 11:1.0 
-0.9697950527796267 -1.0 1.0 0.0 1.0 4:1.0 5:2.0 6:2.0 7:5.0 8:3.0 10:1.0 11:1.0 70:1.0 
-1.0 -1.0 1.0 0.0 1.0 4:1.0 5:2.0 6:1.0 7:5.0 8:4.0 10:1.0 11:1.0 70:1.0 
-0.37534179556984437 -0.7097373782639027 1.0 0.0 0.8160032305261046 4:1.0 5:2.0 6:1.0 7:6.0 8:6.0 10:1.0 1112:1.0 1113:1.0 
-0.09086137422253628 -0.0 0.0 0.0 0.0 4:1.0 5:2.0 6:1.0 7:2.0 8:1.0 10:1.0 20:1.0 92:1.0 1114:1.0 
-0.0 -0.0 1.0 0.0 0.0 4:1.0 5:2.0 6:1.0 7:9.0 8:7.0 10:3.0 11:1.0 
-0.0 -0.0 1.0 0.0 0.0 4:1.0 5:2.0 6:1.0 7:3.0 8:3.0 10:1.0 11:1.0 
-0.1127995409958351 -0.12901548043231226 0.8397995730468002 0.0 0.15952555933949655 4:1.0 5:2.0 6:1.0 7:3.0 8:3.0 10:1.0 20:1.0 1115:1.0 
-1.0 -1.0 1.0 0.0 0.0 4:1.0 5:2.0 6:1.0 7:9.0 8:9.0 10:1.0 11:1.0 
-0.07634078800483003 -0.17052448103747858 0.36557760747605156 0.0 0.2608700070269863 5:2.0 6:3.0 7:10.0 8:8.0 10:1.0 26:1.0 1116:1.0 1117:1.0 1118:1.0 
-0.021537645359205146 -0.11724030862365917 0.7591638043546183 0.0 0.3717175797574351 4:1.0 5:2.0 6:1.0 7:2.0 8:1.0 10:1.0 20:1.0 92:1.0 1114:1.0 
-0.9985800753519911 -0.0 0.0 0.0 0.029015460375866477 5:2.0 6:1.0 7:7.0 8:7.0 10:1.0 15:1.0 1119:1.0 
-1.0 -1.0 1.0 0.0 1.0 4:1.0 5:2.0 6:3.0 7:8.0 8:6.0 10:1.0 11:1.0 
-1.0 -0.30468118445264597 0.0 0.0 0.17514850799987816 5:2.0 6:4.0 7:12.0 8:7.0 10:1.0 15:1.0 19:1.0 72:1.0 1044:1.0 
-0.0 -0.0 1.0 0.0 0.0 4:1.0 5:2.0 6:1.0 7:6.0 8:6.0 10:1.0 11:1.0 
-1.0 -1.0 1.0 1.0 1.0 4:1.0 5:2.0 6:1.0 7:11.0 8:10.0 10:1.0 11:1.0 19:1.0 
