svm_type c_svc
kernel_type linear
nr_class 6
total_sv 1805
rho 0.3517761027676989 -0.09641221322035723 0.32971559247224136 -0.3766559620111655 0.2354084456121665 -0.22387397828712832 0.3743516048923967 0.36392490628188295 0.028931276458672762 0.052905180663647425 -1.242640583486606 0.5808440117725111 -0.9157103737702539 0.06640873262176306 0.4860374505984548
label 1 2 3 4 5 6
probA -2.393256684034409 -2.731319526586023 -2.4141151781862944 -1.6742666211701103 -2.53099202590295 -2.5906935431956293 -2.3560621370732453 -1.829189948250069 -2.3551837605217574 -1.5798662369257075 -1.915565941717963 -2.8314343131206257 -1.6532532152874038 -1.9355043794694444 -1.9870781913210227
probB 0.371558357605632 -0.7083351321702276 -0.4484226504962127 -0.4311718936712042 0.5987519877489504 -0.5144624040251529 -0.29296328313093967 -0.5761128696707379 0.3307220828772696 0.3887955066538676 -0.8371271901135018 0.5362499826342956 -1.3094719389301341 0.07996311758634177 0.2964374444956467
nr_sv 190 307 357 584 37 330
SV
0.33813505444810976 0.2329113503858609 0.586738374289146 0.0 0.621688545087092 1:1.0 2:1.0 3:1.0 4:1.0 5:2.0 6:3.0 7:7.0 8:4.0 9:1.0 10:1.0 
1.0 0.992831391737541 1.0 0.0 1.0 4:1.0 5:2.0 6:1.0 7:6.0 8:6.0 10:1.0 15:1.0 
1.0 1.0 1.0 1.0 1.0 4:1.0 5:2.0 6:2.0 7:5.0 8:4.0 10:1.0 17:1.0 
0.0 1.0 1.0 0.38597130360192283 0.0 4:1.0 5:2.0 6:1.0 7:18.0 8:10.0 10:6.0 17:1.0 20:3.0 
0.0 0.0 0.0 0.0 0.007937881773130121 5:2.0 6:4.0 7:7.0 8:4.0 10:1.0 14:1.0 21:1.0 
1.0 1.0 1.0 0.0 0.0 4:1.0 5:2.0 6:1.0 7:6.0 8:6.0 10:1.0 17:1.0 
0.0 0.10370653365075591 0.01464755791562626 0.0 0.11420892708170767 5:2.0 6:5.0 7:14.0 8:7.0 10:3.0 16:1.0 23:1.0 25:1.0 26:1.0 27:1.0 28:1.0 
1.0 1.0 1.0 1.0 0.0 4:1.0 5:2.0 6:1.0 7:4.0 8:4.0 10:1.0 17:1.0 
0.0 0.020825376090919914 0.1924641381262607 0.0 0.20329396263881686 1:1.0 4:1.0 5:2.0 6:3.0 7:17.0 8:11.0 10:5.0 29:1.0 30:1.0 31:1.0 32:1.0 33:1.0 34:1.0 35:1.0 
0.09440220000609507 0.0 0.13629397758609438 0.0 0.25792374454552264 4:1.0 5:2.0 6:7.0 7:10.0 8:4.0 10:1.0 25:1.0 36:1.0 37:1.0 
1.0 1.0 1.0 0.0 0.0 4:1.0 5:2.0 6:1.0 7:7.0 8:7.0 10:1.0 17:1.0 
1.0 0.7638485466595062 1.0 0.10303663975391678 1.0 1:1.0 4:1.0 5:2.0 6:2.0 7:6.0 8:2.0 9:1.0 10:2.0 20:1.0 33:1.0 
0.0 1.0 1.0 0.0 0.0 4:1.0 5:2.0 6:1.0 7:16.0 8:14.0 10:1.0 17:1.0 20:2.0 
0.18197993532109086 0.0 0.0 0.0 0.0 5:2.0 6:3.0 7:5.0 8:3.0 10:1.0 14:1.0 47:1.0 
1.0 1.0 1.0 0.0 1.0 4:1.0 5:2.0 6:3.0 7:6.0 8:4.0 10:1.0 17:1.0 
1.0 1.0 1.0 0.0 0.0 4:1.0 5:2.0 6:1.0 7:7.0 8:7.0 10:1.0 17:1.0 
0.0 0.0 0.3389736109563115 0.0 0.7508841803985336 5:2.0 6:2.0 7:9.0 8:8.0 10:1.0 23:1.0 25:1.0 48:1.0 49:1.0 
0.0 0.0 0.13625055600437888 0.0 0.13454561422274863 4:1.0 5:2.0 6:1.0 7:8.0 8:8.0 10:1.0 25:1.0 50:1.0 51:1.0 
0.7373668683243063 1.0 1.0 0.0 1.0 4:1.0 5:2.0 6:9.0 7:24.0 8:8.0 10:9.0 17:1.0 
1.0 1.0 1.0 0.0 0.0 4:1.0 5:2.0 6:1.0 7:7.0 8:7.0 10:1.0 17:1.0 
0.3605058142002845 0.1468473744646889 0.2942349224342759 0.0 0.3243719282278537 4:1.0 5:2.0 6:7.0 7:14.0 8:6.0 10:2.0 16:1.0 38:1.0 39:1.0 40:1.0 41:1.0 42:1.0 
1.0 0.03448606546956412 0.8328721487629022 0.0 0.8178508745961572 4:1.0 5:2.0 6:4.0 7:9.0 8:6.0 10:1.0 15:1.0 52:1.0 53:1.0 
1.0 1.0 1.0 1.0 0.0 4:1.0 5:2.0 6:1.0 7:5.0 8:5.0 10:1.0 17:1.0 
1.0 1.0 1.0 0.0 0.0 4:1.0 5:2.0 6:1.0 7:7.0 8:7.0 10:1.0 17:1.0 
1.0 1.0 1.0 0.0 1.0 4:1.0 5:2.0 6:3.0 7:10.0 8:8.0 10:1.0 17:1.0 
0.0 0.9911269898360742 0.25676279926473994 0.0 0.0 5:2.0 6:2.0 7:3.0 8:2.0 10:1.0 14:1.0 47:1.0 
1.0 0.0 0.0 0.0 0.45327502369026035 5:2.0 6:5.0 7:16.0 8:11.0 10:1.0 11:1.0 12:1.0 54:1.0 
1.0 1.0 1.0 0.0 0.0 4:1.0 5:2.0 6:1.0 7:7.0 8:7.0 10:1.0 17:1.0 
0.0 0.0 0.08449969652653315 0.0 0.30727341766142224 5:2.0 6:5.0 7:11.0 8:7.0 10:1.0 23:1.0 25:1.0 55:1.0 56:1.0 57:1.0 
0.0 0.0 0.0 0.0 0.15325759310364073 5:2.0 6:3.0 7:14.0 8:8.0 10:3.0 14:1.0 19:1.0 58:1.0 59:1.0 
0.0 0.9901990244757678 0.25621854387201276 0.0 0.08201443104970482 5:2.0 6:3.0 7:18.0 8:15.0 10:2.0 14:1.0 60:1.0 
0.46483999114902513 0.523737933924304 1.0 0.0 1.0 1:1.0 4:1.0 5:2.0 6:1.0 7:11.0 8:9.0 10:3.0 61:1.0 62:1.0 
0.0 0.41300318790165463 0.5081594747427609 0.0 0.09907343623308171 5:2.0 6:3.0 7:7.0 8:4.0 10:1.0 11:1.0 12:1.0 63:1.0 
1.0 0.7393995598484828 1.0 0.0 1.0 5:2.0 6:3.0 7:8.0 8:5.0 10:1.0 13:1.0 16:1.0 23:1.0 32:1.0 
0.0 0.0 0.0 0.0 1.0 5:2.0 6:6.0 7:10.0 8:2.0 10:4.0 11:1.0 12:1.0 
1.0 1.0 1.0 0.0 0.0 4:1.0 5:2.0 6:1.0 7:7.0 8:7.0 10:1.0 17:1.0 
0.0 0.0 0.3387546173365791 0.0 0.1934314454299314 4:1.0 5:2.0 6:3.0 7:9.0 8:6.0 10:2.0 25:1.0 64:1.0 65:1.0 
0.0 0.0 0.27296439317358917 0.0 0.28057546779703046 4:1.0 5:2.0 6:2.0 7:4.0 8:3.0 10:1.0 25:1.0 66:1.0 
0.0 0.0 0.14247037163967377 0.0 0.22790694543175818 4:1.0 5:2.0 6:5.0 7:13.0 8:6.0 10:4.0 23:1.0 25:1.0 67:1.0 68:1.0 69:1.0 
0.7683426498317991 1.0 1.0 0.0 0.0 4:1.0 5:2.0 6:1.0 7:16.0 8:15.0 10:1.0 17:1.0 20:1.0 
1.0 1.0 1.0 0.41878016302800886 1.0 4:1.0 5:2.0 6:1.0 7:11.0 8:10.0 10:1.0 16:1.0 17:1.0 
0.0 1.4826896038855878E-4 0.0 0.0 0.0 5:2.0 6:2.0 7:8.0 8:7.0 10:1.0 23:1.0 25:1.0 66:1.0 70:1.0 71:1.0 
0.1977176489859505 0.0 0.25652043098864996 0.0 0.0 5:2.0 6:2.0 7:4.0 8:4.0 14:1.0 72:1.0 
1.0 1.0 1.0 0.003395259644226352 0.0 4:1.0 5:2.0 6:1.0 7:6.0 8:6.0 10:1.0 17:1.0 
1.0 1.0 1.0 0.0 0.0 4:1.0 5:2.0 6:2.0 7:7.0 8:7.0 17:1.0 
0.0 0.0 0.07235270842106892 0.0 0.4733875546160768 4:1.0 5:2.0 6:3.0 7:9.0 8:6.0 10:2.0 25:1.0 73:1.0 74:1.0 
0.0 0.9908162578714875 0.25645443492037556 0.0 0.0 5:2.0 6:1.0 7:4.0 8:4.0 10:1.0 14:1.0 75:1.0 
1.0 1.0 1.0 0.0 1.0 4:1.0 5:2.0 6:1.0 7:9.0 8:9.0 10:1.0 17:1.0 
1.0 1.0 1.0 0.9992639570743533 1.0 4:1.0 5:2.0 6:3.0 7:7.0 8:4.0 10:2.0 17:1.0 
0.0 0.14815504708453525 0.0 0.0 0.0 5:2.0 6:1.0 7:14.0 8:11.0 10:4.0 13:1.0 14:1.0 23:1.0 
1.0 1.0 1.0 0.0 0.0 4:1.0 5:2.0 6:1.0 7:7.0 8:7.0 10:1.0 17:1.0 
1.0 1.0 1.0 0.0 1.0 4:1.0 5:2.0 6:4.0 7:11.0 8:8.0 10:1.0 17:1.0 
0.0 0.0 0.01938845226205165 0.0 0.11491076630704469 5:2.0 6:1.0 7:13.0 8:12.0 10:1.0 23:1.0 25:1.0 58:1.0 76:1.0 77:1.0 78:1.0 
0.0 0.0 0.0 1.0 0.0 5:2.0 6:1.0 7:6.0 8:4.0 10:2.0 11:1.0 12:1.0 16:1.0 
1.0 1.0 1.0 0.0 1.0 4:1.0 5:2.0 6:1.0 7:10.0 8:10.0 10:1.0 17:1.0 
0.4001846888267884 0.6094650927799529 0.8947408164709508 0.0 0.4003725709985773 4:1.0 5:2.0 6:2.0 7:8.0 8:7.0 10:1.0 29:1.0 79:1.0 80:1.0 81:1.0 
1.0 1.0 1.0 0.0 1.0 4:1.0 5:2.0 6:1.0 7:13.0 8:13.0 10:1.0 17:1.0 
0.5694938430442112 0.5255752798987334 0.8250663723164633 0.0 1.0 5:2.0 6:3.0 7:9.0 8:5.0 10:3.0 23:1.0 82:1.0 83:1.0 
0.007377306060569324 0.0 0.13622287425067517 0.0 0.1666102478636425 4:1.0 5:2.0 6:3.0 7:7.0 8:5.0 10:1.0 25:1.0 84:1.0 85:1.0 
1.0 0.8041603369931754 1.0 0.0 0.6880881435909665 4:1.0 5:2.0 6:3.0 7:10.0 8:8.0 10:1.0 86:1.0 
1.0 1.0 1.0 1.0 0.0 4:1.0 5:2.0 6:1.0 7:8.0 8:7.0 10:1.0 17:1.0 54:1.0 
0.06972291044728957 0.0 0.0 0.0 0.0 5:2.0 6:3.0 7:7.0 8:5.0 10:1.0 14:1.0 75:1.0 
1.0 1.0 1.0 1.0 0.0 4:1.0 5:2.0 6:1.0 7:5.0 8:4.0 10:1.0 16:1.0 17:1.0 
0.0 0.20556887762707504 0.1393528275326098 0.0 0.0 5:2.0 6:1.0 7:10.0 8:10.0 10:1.0 14:1.0 87:1.0 
1.0 1.0 1.0 0.0 0.0 4:1.0 5:2.0 6:1.0 7:7.0 8:7.0 10:1.0 17:1.0 
0.0 0.7847954021828559 0.11659621125553636 0.0 0.0 5:2.0 6:2.0 7:6.0 8:5.0 10:1.0 14:1.0 87:1.0 
0.3327741917897565 0.46845249613344475 0.5125959648700964 0.3076799171268115 0.37701100308549773 4:1.0 5:2.0 6:1.0 7:9.0 8:7.0 10:2.0 16:1.0 22:1.0 29:1.0 74:1.0 88:1.0 
1.0 1.0 1.0 0.0 1.0 4:1.0 5:2.0 6:4.0 7:8.0 8:5.0 10:1.0 17:1.0 
1.0 1.0 1.0 0.0 1.0 4:1.0 5:2.0 6:5.0 7:15.0 8:11.0 10:1.0 17:1.0 
0.2992567430094636 0.07959337355340765 0.2107587758484555 0.0 0.28982178778958373 5:2.0 6:3.0 7:7.0 8:4.0 10:2.0 22:1.0 23:1.0 89:1.0 90:1.0 
0.0 0.0 0.7750065426850806 0.0 0.0 1:1.0 4:1.0 5:2.0 6:1.0 7:8.0 8:7.0 10:2.0 25:1.0 29:1.0 91:1.0 
0.0 0.0 0.13612938846956174 0.0 0.3030144069020749 4:1.0 5:2.0 6:2.0 7:11.0 8:8.0 10:3.0 25:1.0 92:1.0 93:1.0 
0.0 0.0 0.26226915661444816 0.0 0.4106095583012077 5:2.0 6:1.0 7:12.0 8:11.0 10:2.0 15:1.0 23:1.0 94:1.0 95:1.0 96:1.0 
1.0 1.0 1.0 1.0 1.0 4:1.0 5:2.0 6:3.0 7:7.0 8:4.0 10:2.0 17:1.0 
0.0 0.11943463468245882 0.0 0.0 0.0 5:2.0 6:3.0 7:16.0 8:13.0 10:1.0 14:1.0 16:1.0 19:1.0 
0.0 0.0 1.0 0.0 0.0 5:2.0 6:1.0 7:7.0 8:7.0 10:1.0 11:1.0 12:1.0 23:1.0 
0.0068500238918704996 0.6748813401170917 0.6075240445477198 0.013692367907477302 0.1834505866067115 1:1.0 4:1.0 5:2.0 6:1.0 7:11.0 8:8.0 10:3.0 29:1.0 59:1.0 97:1.0 98:1.0 99:1.0 
1.0 1.0 1.0 1.0 1.0 4:1.0 5:2.0 6:3.0 7:6.0 8:3.0 10:2.0 17:1.0 
1.0 1.0 1.0 0.0 1.0 4:1.0 5:2.0 6:4.0 7:10.0 8:6.0 10:2.0 17:1.0 
1.0 1.0 1.0 0.0 1.0 4:1.0 5:2.0 6:3.0 7:6.0 8:4.0 10:1.0 17:1.0 
0.3280349508083135 0.2934512579832767 0.6373236500809396 0.0 0.43891738119240403 4:1.0 5:2.0 6:2.0 7:8.0 8:7.0 10:1.0 38:1.0 100:1.0 101:1.0 
0.12421180854081136 0.31210737874929884 0.2420324033321675 0.0 0.11840951526941057 4:1.0 5:2.0 6:3.0 7:10.0 8:7.0 10:2.0 22:1.0 29:1.0 102:1.0 103:1.0 104:1.0 
1.0 1.0 1.0 0.0 0.0 4:1.0 5:2.0 6:1.0 7:7.0 8:7.0 10:1.0 17:1.0 
0.04562405360224531 0.9901125479073278 0.2557751347583596 0.0 0.02599104942331312 5:2.0 6:4.0 7:10.0 8:7.0 10:1.0 14:1.0 105:1.0 
0.0 0.9907479472674836 0.2564660607907887 0.0 0.0 5:2.0 6:1.0 7:4.0 8:4.0 10:1.0 14:1.0 106:1.0 
0.1921134245563685 0.5336977775630912 0.45114327036758595 0.0 0.37893733398128254 4:1.0 5:2.0 6:1.0 7:13.0 8:13.0 10:1.0 29:1.0 43:1.0 44:1.0 45:1.0 46:1.0 
1.0 1.0 1.0 0.0 1.0 4:1.0 5:2.0 6:1.0 7:10.0 8:10.0 10:1.0 17:1.0 
1.0 1.0 1.0 0.05466079206171335 1.0 4:1.0 5:2.0 6:3.0 7:7.0 8:4.0 10:2.0 17:1.0 
0.8025341458126357 0.0 0.13616648565658288 0.0 0.3020768191243395 4:1.0 5:2.0 6:4.0 7:9.0 8:6.0 10:1.0 25:1.0 107:1.0 108:1.0 
0.0 2.116894064891352E-4 0.0 0.0 0.0 5:2.0 6:5.0 7:15.0 8:7.0 10:5.0 13:1.0 14:1.0 23:1.0 109:1.0 
0.0 0.6869096662104497 0.7373769514806177 0.0 0.2194892078832929 4:1.0 5:2.0 6:2.0 7:11.0 8:9.0 9:1.0 10:1.0 29:1.0 110:1.0 111:1.0 112:1.0 
0.0 0.08122026163663233 0.0 0.0 0.0 5:2.0 6:3.0 7:4.0 8:2.0 10:1.0 14:1.0 21:1.0 
1.0 1.0 1.0 0.0 1.0 4:1.0 5:2.0 6:1.0 7:10.0 8:10.0 10:1.0 17:1.0 
1.0 1.0 1.0 0.0 1.0 4:1.0 5:2.0 6:4.0 7:14.0 8:11.0 10:1.0 17:1.0 
0.0 0.0 0.090558269884477 0.0 0.0 4:1.0 5:2.0 6:1.0 7:8.0 8:8.0 10:1.0 22:1.0 113:1.0 114:1.0 
0.7518333805853369 0.37875398432323476 0.5950723390941275 0.0 0.4180718242398432 4:1.0 5:2.0 6:1.0 7:6.0 8:6.0 10:1.0 30:1.0 115:1.0 116:1.0 
0.0 0.19701320396839203 0.09920048489553607 0.0 0.1284765228126371 5:2.0 6:3.0 7:8.0 8:6.0 10:1.0 23:1.0 25:1.0 70:1.0 71:1.0 
1.0 1.0 1.0 0.0 0.0 4:1.0 5:2.0 6:1.0 7:6.0 8:6.0 10:1.0 17:1.0 
1.0 1.0 1.0 0.0 1.0 4:1.0 5:2.0 6:1.0 7:9.0 8:9.0 10:1.0 17:1.0 
1.0 1.0 1.0 0.0 1.0 4:1.0 5:2.0 6:1.0 7:13.0 8:13.0 10:1.0 17:1.0 
0.09509977012167467 0.28726885932072654 0.5986574320043936 0.0 0.3812966166342065 1:1.0 4:1.0 5:2.0 6:1.0 7:10.0 8:9.0 10:2.0 117:1.0 118:1.0 119:1.0 
0.0 0.03183237458297036 0.17280781273406678 0.0 0.14963123384362859 5:2.0 6:4.0 7:23.0 8:20.0 10:1.0 22:1.0 23:1.0 120:1.0 121:1.0 122:1.0 123:1.0 124:1.0 
0.0 0.0 0.0 0.002072321425780573 0.0 5:2.0 6:1.0 7:4.0 8:3.0 10:1.0 11:1.0 12:1.0 16:1.0 
0.0 0.0 0.0 0.0 0.01710878358149845 1:1.0 4:1.0 5:2.0 6:7.0 7:23.0 8:16.0 10:2.0 25:1.0 70:1.0 125:1.0 126:1.0 127:1.0 128:1.0 129:1.0 
0.04185876175136682 1.0 1.0 0.0 1.0 4:1.0 5:2.0 6:2.0 7:12.0 8:10.0 9:1.0 10:1.0 17:1.0 
1.0 1.0 1.0 0.0 1.0 4:1.0 5:2.0 6:1.0 7:7.0 8:7.0 10:1.0 17:1.0 
0.0 0.0 0.01446904990325518 0.0 0.0502188560248349 5:2.0 6:4.0 7:12.0 8:9.0 10:1.0 23:1.0 25:1.0 130:1.0 131:1.0 132:1.0 133:1.0 
0.0 0.0751249395042635 0.0 0.0 0.0 5:2.0 6:2.0 7:6.0 8:4.0 10:1.0 14:1.0 16:1.0 18:1.0 
0.4880868287164206 0.06115183122518117 0.0 0.0 0.36360408323098975 4:1.0 5:2.0 6:2.0 7:6.0 8:5.0 10:1.0 30:1.0 97:1.0 
1.0 1.0 1.0 1.0 0.17875909321385453 4:1.0 5:2.0 6:1.0 7:5.0 8:4.0 10:1.0 16:1.0 17:1.0 
1.0 1.0 1.0 0.0 1.0 4:1.0 5:2.0 6:2.0 7:11.0 8:9.0 10:2.0 17:1.0 
1.0 1.0 1.0 8.190552910840924E-4 0.0 4:1.0 5:2.0 6:1.0 7:6.0 8:6.0 10:1.0 17:1.0 
0.0 0.0 0.057923710744119054 0.0 0.10040154543580414 5:2.0 6:2.0 7:7.0 8:6.0 10:1.0 23:1.0 25:1.0 134:1.0 
0.002668318030132366 0.0 0.10867126826222887 0.0 1.0 5:2.0 6:1.0 7:11.0 8:9.0 10:2.0 14:1.0 18:1.0 135:1.0 
0.5523103859607967 0.9837149138346674 0.864355593729447 0.008522676062553521 0.5520510783985857 4:1.0 5:2.0 6:2.0 7:9.0 8:7.0 10:2.0 29:1.0 136:1.0 137:1.0 138:1.0 
0.392442639527613 0.512375382657693 0.0 0.0 0.0 5:2.0 6:2.0 7:7.0 8:4.0 10:1.0 14:1.0 18:1.0 54:1.0 63:1.0 
0.49312117051635207 0.6174010711332112 0.7894563978707309 0.0 0.549837572428381 5:2.0 6:2.0 7:7.0 8:6.0 10:1.0 23:1.0 29:1.0 139:1.0 140:1.0 141:1.0 
1.0 1.0 1.0 0.0 0.8815592733653509 4:1.0 5:2.0 6:1.0 7:7.0 8:7.0 10:1.0 17:1.0 
1.0 1.0 1.0 0.0 1.0 4:1.0 5:2.0 6:3.0 7:7.0 8:5.0 10:1.0 17:1.0 
0.0 0.0 0.05801940405795512 0.0 0.05971595218222148 5:2.0 6:1.0 7:6.0 8:6.0 10:1.0 23:1.0 25:1.0 142:1.0 
0.13613801327331373 0.2886890507401485 0.4161244320003694 0.0 0.4172014116529313 5:2.0 6:1.0 7:13.0 8:9.0 10:3.0 20:1.0 23:1.0 143:1.0 144:1.0 145:1.0 146:1.0 
0.23800951778023327 0.9096943106711695 0.2566029551492941 0.0 0.0 5:2.0 6:3.0 7:4.0 8:2.0 10:1.0 14:1.0 21:1.0 
0.07231787193980956 0.17052897644721451 0.19716803738291028 0.0 0.12991927491118332 4:1.0 5:2.0 6:2.0 7:6.0 8:5.0 10:1.0 30:1.0 147:1.0 148:1.0 
1.0 1.0 1.0 0.0 1.0 4:1.0 5:2.0 6:3.0 7:16.0 8:11.0 10:2.0 16:1.0 17:1.0 58:1.0 
1.0 1.0 1.0 0.829592487071602 1.0 4:1.0 5:2.0 6:1.0 7:3.0 8:2.0 10:1.0 29:1.0 149:1.0 
1.0 1.0 1.0 0.0 0.0 4:1.0 5:2.0 6:1.0 7:7.0 8:7.0 10:1.0 17:1.0 
1.0 1.0 1.0 0.0 0.0 4:1.0 5:2.0 6:1.0 7:7.0 8:7.0 10:1.0 17:1.0 
1.0 1.0 1.0 0.0 1.0 4:1.0 5:2.0 6:3.0 7:9.0 8:7.0 10:1.0 17:1.0 
0.859913237355595 0.342400613532249 0.6399282291997423 0.0 0.7086301910455052 4:1.0 5:2.0 6:1.0 7:10.0 8:10.0 10:1.0 151:1.0 152:1.0 153:1.0 
0.0 0.0 0.3222168618367154 0.0 0.2084134887804973 4:1.0 5:2.0 6:3.0 7:7.0 8:3.0 10:3.0 25:1.0 154:1.0 155:1.0 
0.0 0.0024677401141306164 0.0 0.9039814263239029 0.10723085755180602 5:2.0 6:1.0 7:27.0 8:18.0 10:5.0 14:1.0 16:5.0 19:1.0 23:1.0 156:1.0 
0.0 0.0 0.0 0.0 0.18322223285381647 5:2.0 6:5.0 7:8.0 8:3.0 10:2.0 11:1.0 12:1.0 
0.0 0.0 0.0 0.752601884753146 0.0 5:2.0 7:5.0 8:5.0 10:1.0 16:1.0 23:1.0 25:1.0 88:1.0 
1.0 1.0 1.0 0.16847116108383248 1.0 4:1.0 5:2.0 6:1.0 7:5.0 8:5.0 10:1.0 29:1.0 157:1.0 
0.0 0.004944766833452157 0.0 0.0 0.0 5:2.0 6:1.0 7:8.0 8:7.0 10:2.0 14:1.0 19:1.0 
0.41490833740460453 1.0 1.0 0.0 0.6917329938070305 4:1.0 5:2.0 6:1.0 7:11.0 8:11.0 10:1.0 29:1.0 158:1.0 159:1.0 160:1.0 
0.0 0.006412800051660284 0.0 0.39952145478344514 0.0 5:2.0 6:1.0 7:4.0 8:3.0 10:1.0 11:1.0 12:1.0 16:1.0 
0.0 0.17066745789459464 0.2889796254862697 5.473215133616558E-4 0.13011170108320222 4:1.0 5:2.0 6:1.0 7:10.0 8:9.0 10:1.0 16:1.0 30:1.0 161:1.0 162:1.0 
1.0 1.0 1.0 0.0 1.0 4:1.0 5:2.0 6:1.0 7:8.0 8:8.0 10:1.0 17:1.0 
0.0 1.0 1.0 0.0 0.5396837576278419 4:1.0 5:2.0 6:1.0 7:14.0 8:9.0 10:2.0 17:1.0 20:3.0 58:1.0 
1.0 1.0 1.0 0.0 0.0 4:1.0 5:2.0 6:1.0 7:7.0 8:7.0 10:1.0 17:1.0 
0.0 0.17046008854198788 0.19710218155273 0.0 0.12443582792747464 4:1.0 5:2.0 6:1.0 7:10.0 8:10.0 10:1.0 30:1.0 163:1.0 164:1.0 
0.0 0.5983284446394672 0.286206331043657 0.0 0.0 5:2.0 6:3.0 7:3.0 8:1.0 10:1.0 11:1.0 12:1.0 
1.0 1.0 1.0 0.0 1.0 4:1.0 5:2.0 6:4.0 7:9.0 8:4.0 10:2.0 17:1.0 58:1.0 
0.006237777727229704 0.9910417141777318 0.2567113879641575 0.0 0.0 5:2.0 6:1.0 7:3.0 8:3.0 10:1.0 14:1.0 165:1.0 
1.0 1.0 1.0 0.0 1.0 4:1.0 5:2.0 6:1.0 7:14.0 8:14.0 10:1.0 17:1.0 
0.5642665829886498 0.13919351883146935 0.7092910969030974 0.0 0.360750461647876 4:1.0 5:2.0 6:1.0 7:10.0 8:8.0 10:2.0 20:1.0 45:1.0 91:1.0 167:1.0 
1.0 1.0 1.0 0.0 1.0 4:1.0 5:2.0 6:1.0 7:8.0 8:8.0 10:1.0 17:1.0 
0.0 0.10063452118315883 0.0 0.0 0.0 5:2.0 6:1.0 7:4.0 8:4.0 10:1.0 13:1.0 14:1.0 
0.0 0.0 0.14550068350975226 0.0 0.0 5:2.0 6:1.0 7:15.0 8:15.0 10:1.0 14:1.0 18:1.0 
0.0 0.0 0.27267332255849264 0.0 0.2572134076528668 4:1.0 5:2.0 6:1.0 7:6.0 8:6.0 10:1.0 25:1.0 168:1.0 
0.040878639787255144 0.0 0.07299325012185057 0.0 0.03325500111811927 4:1.0 5:2.0 6:3.0 7:10.0 8:8.0 10:1.0 29:1.0 169:1.0 170:1.0 
1.0 1.0 1.0 1.0 0.0 4:1.0 5:2.0 6:1.0 7:8.0 8:7.0 10:1.0 17:1.0 54:1.0 
0.3527765510223109 0.22293853486939905 1.0 0.0 1.0 4:1.0 5:2.0 6:4.0 7:13.0 8:10.0 10:1.0 86:1.0 
1.0 1.0 1.0 1.0 1.0 4:1.0 5:2.0 6:3.0 7:9.0 8:5.0 10:2.0 17:1.0 54:1.0 
1.0 1.0 1.0 0.0 1.0 4:1.0 5:2.0 6:3.0 7:8.0 8:5.0 10:2.0 17:1.0 
0.0 0.05290014222151945 0.0 0.0 0.0 5:2.0 6:2.0 7:4.0 8:3.0 10:1.0 14:1.0 72:1.0 
0.0 0.9378957547539207 0.0 0.0 0.0 5:2.0 6:1.0 7:4.0 8:4.0 10:1.0 14:1.0 72:1.0 
0.0 0.23675304105872774 0.0 0.0 0.0 5:2.0 6:1.0 7:6.0 8:6.0 10:1.0 14:1.0 19:1.0 
1.0 1.0 1.0 0.0 0.0 4:1.0 5:2.0 6:1.0 7:6.0 8:6.0 10:1.0 17:1.0 
0.33850877388920747 0.9137890737909525 0.9327302180921458 0.01983873121428925 0.6436923621395823 4:1.0 5:2.0 6:1.0 7:6.0 8:5.0 9:1.0 10:1.0 29:1.0 172:1.0 173:1.0 
0.37631489509961724 0.7655839981168179 0.8278522965564776 0.0 0.4300077108834847 4:1.0 5:2.0 6:3.0 7:10.0 8:7.0 10:2.0 29:1.0 174:1.0 175:1.0 176:1.0 
0.0 0.6267651864394016 0.25637340791654545 0.0 0.0 5:2.0 6:4.0 7:22.0 8:19.0 10:1.0 14:1.0 19:1.0 
0.6083817314115507 0.24547710701013206 0.734762012609124 0.0 0.7232653203468593 1:1.0 5:2.0 6:4.0 7:9.0 8:5.0 10:1.0 16:1.0 23:1.0 177:1.0 178:1.0 
0.7434627755816428 0.18151159903035982 0.41164527912075183 0.0 0.693848434440385 5:2.0 6:2.0 7:13.0 8:11.0 9:1.0 10:1.0 23:1.0 112:1.0 179:1.0 
1.0 1.0 1.0 0.5204414159435837 1.0 4:1.0 5:2.0 6:3.0 7:7.0 8:4.0 10:2.0 17:1.0 
0.0 0.0 0.05783670530326008 0.0 0.1354129111152918 5:2.0 6:3.0 7:7.0 8:5.0 10:1.0 23:1.0 25:1.0 180:1.0 
0.837073476995151 0.544674055520737 1.0 0.0 0.880006238157559 4:1.0 5:2.0 6:3.0 7:6.0 8:4.0 10:1.0 25:1.0 181:1.0 
1.0 1.0 1.0 0.0 0.0 4:1.0 5:2.0 6:1.0 7:6.0 8:6.0 10:1.0 17:1.0 
0.0 0.0 0.025724886651266664 0.0 0.16079619624832783 1:1.0 4:1.0 5:2.0 6:3.0 7:14.0 8:11.0 10:2.0 45:1.0 182:1.0 183:1.0 184:1.0 
0.8784668720698309 0.9141144666737174 1.0 0.0 0.8093272860750503 4:1.0 5:2.0 6:3.0 7:10.0 8:8.0 10:1.0 29:1.0 169:1.0 170:1.0 
1.0 1.0 1.0 0.0 1.0 4:1.0 5:2.0 6:2.0 7:8.0 8:7.0 10:1.0 17:1.0 
1.0 1.0 1.0 0.0 1.0 4:1.0 5:2.0 6:3.0 7:9.0 8:7.0 10:1.0 17:1.0 
1.0 1.0 1.0 1.0 1.0 4:1.0 5:2.0 6:2.0 7:5.0 8:4.0 10:1.0 17:1.0 
0.0 0.0 0.2724786247140549 0.0 0.3331145276476923 4:1.0 5:2.0 6:3.0 7:7.0 8:5.0 10:1.0 25:1.0 185:1.0 
0.0 0.0 0.02872022635338382 0.0 0.03613605008089113 5:2.0 6:3.0 7:10.0 8:7.0 10:1.0 23:1.0 25:1.0 59:1.0 186:1.0 187:1.0 
0.0 0.0 0.13619024736906454 0.0 0.2287667431033228 4:1.0 5:2.0 6:4.0 7:8.0 8:3.0 10:3.0 25:1.0 188:1.0 189:1.0 
0.0 0.0 0.0 0.0 0.004107025793339739 5:2.0 6:2.0 7:11.0 8:9.0 10:2.0 14:1.0 190:1.0 
1.0 0.9146215909697726 0.970919809923919 0.8348327482314537 0.6183412114487613 4:1.0 5:2.0 6:2.0 7:5.0 8:2.0 10:2.0 16:1.0 29:1.0 193:1.0 194:1.0 
0.7301510074407813 0.0 0.0 0.0 0.0 5:2.0 6:4.0 7:5.0 8:2.0 10:1.0 11:1.0 12:1.0 
0.0 0.4031923056645768 0.002231387285131308 0.0 0.0 5:2.0 6:1.0 7:4.0 8:4.0 10:1.0 14:1.0 18:1.0 
0.0 0.002350703279848989 0.0 0.0 0.0 5:2.0 6:2.0 7:4.0 8:3.0 10:1.0 13:1.0 14:1.0 
0.022366694091844785 0.0 0.1362557720433094 0.0 0.4297887238947415 4:1.0 5:2.0 6:6.0 7:10.0 8:5.0 10:1.0 25:1.0 195:1.0 196:1.0 
1.0 1.0 1.0 0.0 1.0 4:1.0 5:2.0 6:4.0 7:10.0 8:4.0 10:3.0 17:1.0 58:1.0 
0.0 0.9903789474933196 0.25598913292268444 0.0 0.0 5:2.0 6:1.0 7:6.0 8:6.0 10:1.0 14:1.0 190:1.0 
0.4975005232249285 0.5374965838656586 0.4755379366296165 0.0 0.28703221322058314 4:1.0 5:2.0 6:2.0 7:12.0 8:8.0 10:2.0 20:1.0 29:1.0 54:1.0 91:1.0 197:1.0 198:1.0 199:1.0 
0.0 0.38410405493412714 0.6014990796587724 0.0 0.0 4:1.0 5:2.0 6:2.0 7:9.0 8:7.0 10:2.0 25:1.0 29:1.0 91:1.0 200:1.0 
0.0 1.0 1.0 0.0 0.0 4:1.0 5:2.0 6:1.0 7:16.0 8:14.0 10:1.0 17:1.0 20:2.0 
0.5007129703848144 0.3503298167197085 0.4552631125686087 0.0 0.6735321748761446 5:2.0 6:1.0 7:10.0 8:9.0 10:2.0 23:1.0 94:1.0 114:1.0 201:1.0 
1.0 1.0 1.0 0.0 1.0 4:1.0 5:2.0 6:3.0 7:8.0 8:5.0 10:2.0 17:1.0 
-0.0 0.0 0.0 0.0 0.4664204976267986 5:2.0 6:3.0 7:10.0 8:7.0 10:1.0 32:1.0 54:1.0 204:1.0 205:1.0 206:1.0 
-0.0 0.028810483605053148 0.0 0.0 0.0 5:2.0 6:1.0 7:6.0 8:6.0 10:1.0 144:1.0 207:1.0 208:1.0 
-0.05546402121233496 0.4466076251973136 0.19085525853426397 0.0 0.0 4:1.0 5:2.0 6:2.0 7:9.0 8:7.0 10:2.0 29:1.0 91:1.0 209:1.0 210:1.0 
-0.0 0.0 0.6903551205972995 0.0 0.3319074938523592 4:1.0 5:2.0 6:4.0 7:8.0 8:5.0 10:1.0 53:1.0 211:1.0 212:1.0 
-0.0 0.0 0.0 0.3014343457556365 0.0 5:2.0 6:1.0 7:6.0 8:4.0 10:1.0 16:2.0 192:1.0 208:1.0 213:1.0 214:1.0 
-0.0 0.05945609217348484 0.0 0.0 0.0 5:2.0 6:1.0 7:5.0 8:4.0 10:1.0 58:1.0 208:1.0 215:1.0 
-1.0 1.0 1.0 0.0 1.0 4:1.0 5:2.0 6:1.0 7:10.0 8:10.0 10:1.0 17:1.0 
-1.0 1.0 1.0 0.0 1.0 4:1.0 5:2.0 6:3.0 7:11.0 8:9.0 10:1.0 17:1.0 
-1.0 1.0 1.0 0.0 1.0 4:1.0 5:2.0 6:5.0 7:15.0 8:7.0 10:4.0 16:1.0 17:1.0 
-1.0 1.0 1.0 0.0 0.0 4:1.0 5:2.0 6:3.0 7:11.0 8:8.0 10:1.0 16:1.0 17:1.0 
-0.21474318148208027 0.3245208474605503 0.9212071656109497 0.0 0.7215592545354448 5:2.0 6:3.0 7:5.0 8:3.0 10:1.0 23:1.0 220:1.0 221:1.0 
-0.0 0.060675417237280226 0.0 0.0 0.0 5:2.0 6:1.0 7:4.0 8:4.0 10:1.0 208:1.0 225:1.0 
-1.0 1.0 1.0 0.0 1.0 4:1.0 5:2.0 6:1.0 7:9.0 8:9.0 10:1.0 17:1.0 
-0.0 0.2188689381687139 0.0 0.0 0.0 5:2.0 6:2.0 7:5.0 8:4.0 10:1.0 208:1.0 226:1.0 
-0.1893741647883046 0.0 0.4834860575746427 0.0 0.26945909589800676 5:2.0 6:2.0 7:12.0 8:10.0 10:1.0 20:1.0 23:1.0 227:1.0 228:1.0 229:1.0 230:1.0 
-0.0 0.017605530028206952 0.0 0.0 0.01766753103291073 5:2.0 6:3.0 7:6.0 8:4.0 10:1.0 208:1.0 231:1.0 232:1.0 
-1.0 1.0 1.0 0.0 1.0 4:1.0 5:2.0 6:2.0 7:8.0 8:7.0 10:1.0 17:1.0 
-0.20652277030289648 0.0 0.033888743861237594 0.0 0.037641585045493454 4:1.0 5:2.0 6:2.0 7:10.0 8:8.0 9:1.0 10:1.0 53:1.0 233:1.0 234:1.0 235:1.0 
-0.27191602294709066 0.9043427567956793 1.0 0.0 0.7416852485002928 4:1.0 5:2.0 6:2.0 7:13.0 8:11.0 10:2.0 29:1.0 236:1.0 237:1.0 238:1.0 
-0.1858252747515362 0.0 0.6012712050770613 0.0 0.9264080612520551 4:1.0 5:2.0 6:5.0 7:12.0 8:6.0 10:2.0 58:1.0 210:1.0 239:1.0 240:1.0 
-1.0 1.0 1.0 0.0 1.0 4:1.0 5:2.0 6:1.0 7:9.0 8:9.0 10:1.0 17:1.0 
-0.0 0.05589821245310767 0.0 0.0 0.0 5:2.0 6:3.0 7:4.0 8:2.0 10:1.0 208:1.0 241:1.0 
-0.2504428498119604 0.0 0.0 0.0 0.0 1:1.0 4:1.0 5:2.0 6:3.0 7:8.0 8:5.0 10:2.0 53:1.0 243:1.0 244:1.0 
-0.0 0.3959335994960241 1.0 0.0 0.0 4:1.0 5:2.0 6:1.0 7:11.0 8:11.0 10:1.0 29:1.0 49:1.0 216:1.0 246:1.0 
-1.0 1.0 1.0 0.0 1.0 4:1.0 5:2.0 6:2.0 7:8.0 8:7.0 10:1.0 17:1.0 
-0.0 0.0 0.008724558247922641 0.0 0.0 5:2.0 6:2.0 7:2.0 8:1.0 10:1.0 208:1.0 230:1.0 247:1.0 
-0.12718906556699303 0.2655811274621524 1.0 0.0 1.0 4:1.0 5:2.0 6:5.0 7:10.0 8:4.0 10:3.0 242:1.0 248:1.0 
-0.0 0.0 0.0 0.0 0.036201532700642566 4:1.0 5:2.0 6:5.0 7:10.0 8:6.0 10:1.0 53:1.0 250:1.0 251:1.0 
-0.0 0.11207365610474383 0.18317433405039976 0.0 0.7620610858796119 4:1.0 5:2.0 6:6.0 7:11.0 8:6.0 10:1.0 252:1.0 253:1.0 
-1.0 1.0 1.0 0.0 0.9802318615608213 4:1.0 5:2.0 6:3.0 7:10.0 8:6.0 10:2.0 17:1.0 54:1.0 
-0.0 0.02639314751866089 0.0 0.0 0.0 5:2.0 6:3.0 7:6.0 8:4.0 10:1.0 208:1.0 256:1.0 257:1.0 
-0.1309106150832575 0.0 0.06312143803100322 0.0 0.18669412699962448 4:1.0 5:2.0 6:2.0 7:8.0 8:6.0 10:1.0 58:1.0 151:1.0 258:1.0 
-0.0 0.0 0.0 0.0 0.3156254112573303 4:1.0 5:2.0 6:7.0 7:13.0 8:5.0 10:3.0 259:1.0 260:1.0 261:1.0 262:1.0 263:1.0 
-0.0 1.0 0.7929660041438081 0.0 0.0 4:1.0 5:2.0 6:3.0 7:7.0 8:5.0 10:1.0 29:1.0 53:1.0 264:1.0 
-1.0 1.0 1.0 0.0 1.0 4:1.0 5:2.0 6:3.0 7:8.0 8:6.0 10:1.0 17:1.0 
-1.0 1.0 1.0 0.0 0.0 4:1.0 5:2.0 6:2.0 7:6.0 8:5.0 10:1.0 17:1.0 
-0.01492157626787584 0.0 0.0 0.0 0.02666429606238417 5:2.0 6:4.0 7:10.0 8:6.0 10:2.0 23:1.0 53:1.0 266:1.0 267:1.0 
-0.0 0.0 0.0 0.0 0.9818511124425907 4:1.0 5:2.0 6:2.0 7:6.0 8:4.0 10:1.0 54:1.0 107:1.0 272:1.0 
-0.02897558958536357 0.0020153699609345792 0.8186069674063635 0.0 0.832493512367513 4:1.0 5:2.0 6:7.0 7:12.0 8:6.0 10:1.0 115:1.0 157:1.0 273:1.0 
-1.0 1.0 1.0 1.0 0.0 4:1.0 5:2.0 6:1.0 7:7.0 8:6.0 10:1.0 17:1.0 54:1.0 
-1.0 1.0 1.0 1.0 0.0 4:1.0 5:2.0 6:2.0 7:5.0 8:4.0 10:1.0 17:1.0 
-0.0 0.0 0.06073673584801394 0.0 0.0 5:2.0 6:2.0 7:6.0 8:5.0 10:1.0 23:1.0 56:1.0 216:1.0 276:1.0 
-1.0 1.0 1.0 0.7453334819900784 1.0 4:1.0 5:2.0 6:6.0 7:14.0 8:5.0 10:3.0 16:2.0 17:1.0 
-0.0 0.6632231364249797 0.0 0.0 0.0 5:2.0 6:1.0 7:9.0 8:8.0 10:1.0 23:1.0 29:1.0 49:1.0 54:1.0 254:1.0 
-0.0 0.5030193990130456 0.0 0.0 0.0 4:1.0 5:2.0 6:6.0 7:9.0 8:4.0 10:1.0 29:1.0 53:1.0 243:1.0 
-0.0 0.05983160827545878 0.0 0.0 0.0 5:2.0 6:2.0 7:3.0 8:2.0 10:1.0 208:1.0 278:1.0 
-0.3277603751003284 0.8648765628862102 0.9101039238426462 0.0 0.5490784645170185 4:1.0 5:2.0 6:3.0 7:8.0 8:6.0 10:1.0 29:1.0 279:1.0 280:1.0 
-0.0791035495406377 0.4321190754952661 0.07847768358516637 0.0 0.0 4:1.0 5:2.0 6:3.0 7:9.0 8:7.0 10:1.0 29:1.0 107:2.0 
-0.0 0.030292559510930215 0.6191811067045816 0.0 0.0 4:1.0 5:2.0 6:2.0 7:5.0 8:4.0 10:1.0 254:1.0 282:1.0 
-0.12250032760280401 0.16411947095710835 0.4632880623747857 0.0 0.4744995643108951 4:1.0 5:2.0 6:4.0 7:8.0 8:5.0 10:1.0 283:1.0 284:1.0 285:1.0 
-1.0 1.0 1.0 0.0 1.0 4:1.0 5:2.0 6:3.0 7:6.0 8:4.0 10:1.0 17:1.0 
-0.12755941233517382 0.2117603609344727 0.14295640079405053 0.0 0.5440901954452967 4:1.0 5:2.0 6:3.0 7:12.0 8:9.0 10:1.0 54:1.0 286:1.0 287:1.0 
-1.0 1.0 1.0 0.0 0.0 4:1.0 5:2.0 6:1.0 7:14.0 8:13.0 10:1.0 17:1.0 54:1.0 
-0.08867764383317331 0.3398237174610929 0.0856281600070937 0.0 0.23280461600687943 4:1.0 5:2.0 6:4.0 7:11.0 8:8.0 10:1.0 29:1.0 74:1.0 270:1.0 288:1.0 289:1.0 
-0.32334611928556833 0.34089029786518416 0.9627967093984502 0.0 0.8054323370591192 2:1.0 4:1.0 5:2.0 6:4.0 7:12.0 8:7.0 10:3.0 46:1.0 277:1.0 290:1.0 
-1.0 1.0 1.0 0.0 1.0 4:1.0 5:2.0 6:2.0 7:7.0 8:6.0 10:1.0 17:1.0 
-0.0 0.0 0.22841507838425498 0.0 0.1360795765687394 4:1.0 5:2.0 6:2.0 7:7.0 8:6.0 10:1.0 294:1.0 295:1.0 296:1.0 297:1.0 
-0.0 0.0 0.0 0.11289616857856696 0.0 5:2.0 6:1.0 7:8.0 8:6.0 10:1.0 16:2.0 192:1.0 208:1.0 298:1.0 299:1.0 
-0.22439745957509963 0.3643940216829267 1.0 0.0 1.0 4:1.0 5:2.0 6:3.0 7:10.0 8:8.0 10:1.0 158:1.0 300:1.0 301:1.0 
-0.14977819594865593 0.170498225274696 0.548421868884563 0.0 0.3834582938237815 4:1.0 5:2.0 6:2.0 7:4.0 8:3.0 10:1.0 302:1.0 303:1.0 
-1.0 1.0 1.0 0.0 0.0 4:1.0 5:2.0 6:2.0 7:6.0 8:5.0 10:1.0 17:1.0 
-0.0 0.5711373365678766 0.4892029915352671 0.0 0.34038581919387795 4:1.0 5:2.0 6:4.0 7:7.0 8:4.0 10:1.0 29:1.0 268:1.0 304:1.0 
-0.1141562926699281 0.0 0.5125291405798729 0.0 0.26808122109238763 4:1.0 5:2.0 6:4.0 7:7.0 8:4.0 10:1.0 305:1.0 306:1.0 
-0.0 0.0 1.0 0.0 0.0 4:1.0 5:2.0 6:3.0 7:7.0 8:5.0 10:1.0 210:1.0 307:1.0 
-0.0 0.0 0.0 0.0 0.05232684905196754 4:1.0 5:2.0 6:2.0 7:7.0 8:6.0 10:1.0 254:1.0 308:1.0 
-0.0 0.0 0.11933056113876699 0.0 0.21233776424938652 5:2.0 6:2.0 7:6.0 8:4.0 10:1.0 53:1.0 58:1.0 206:1.0 309:1.0 310:1.0 
-0.18426126974596133 0.29201653533378774 0.8802082790112756 0.0 0.4387954245534726 4:1.0 5:2.0 6:4.0 7:13.0 8:9.0 10:2.0 29:1.0 39:1.0 136:1.0 236:1.0 311:1.0 312:1.0 
-1.0 1.0 1.0 0.0 0.0 4:1.0 5:2.0 6:2.0 7:5.0 8:4.0 10:1.0 17:1.0 
-0.07327403162047152 0.02661650541879954 0.6366831560024654 0.0 0.0 4:1.0 5:2.0 6:1.0 7:10.0 8:8.0 10:1.0 20:2.0 33:1.0 201:1.0 318:1.0 319:1.0 
-0.008357061487217765 3.920045176162053E-4 0.1299045436709844 0.0 0.18001104907373838 4:1.0 5:2.0 6:3.0 7:7.0 8:4.0 10:2.0 320:1.0 321:1.0 322:1.0 
-1.0 1.0 1.0 1.0 1.0 4:1.0 5:2.0 6:2.0 7:5.0 8:3.0 10:2.0 17:1.0 
-0.0 0.0 0.0 0.0 1.0 4:1.0 5:2.0 6:2.0 7:8.0 8:6.0 10:1.0 54:1.0 151:1.0 323:1.0 
-0.5701990124924802 0.32120776084744496 1.0 0.0 1.0 5:2.0 6:2.0 7:11.0 8:10.0 10:1.0 23:1.0 61:1.0 324:1.0 
-1.0 1.0 1.0 1.0 0.0 4:1.0 5:2.0 6:2.0 7:4.0 8:3.0 10:1.0 17:1.0 
-0.1964013313524056 0.0 0.0 0.0 0.04936468029950875 5:2.0 6:2.0 7:11.0 8:10.0 10:1.0 45:1.0 53:1.0 130:1.0 206:1.0 327:1.0 
-0.0 0.32314679966581006 0.0 0.0 0.0 5:2.0 6:3.0 7:6.0 8:3.0 9:1.0 10:1.0 208:1.0 328:1.0 
-0.24865003664965382 0.5926421118687691 1.0 0.0 0.03365005324389307 4:1.0 5:2.0 6:2.0 7:7.0 8:5.0 10:2.0 29:1.0 91:1.0 330:1.0 331:1.0 
-1.0 1.0 1.0 0.0 1.0 4:1.0 5:2.0 6:3.0 7:8.0 8:6.0 10:1.0 17:1.0 
-0.0 0.0 0.008738315851835302 0.0 0.0 5:2.0 6:2.0 7:3.0 8:2.0 10:1.0 208:1.0 230:1.0 332:1.0 
-0.034752667263906946 0.0 0.15507793274509707 0.0 0.21934075636708322 4:1.0 5:2.0 6:3.0 7:12.0 8:10.0 10:1.0 56:1.0 151:1.0 333:1.0 334:1.0 
-0.0 0.05692941693380856 0.0 0.0 0.0 5:2.0 6:3.0 7:8.0 8:5.0 10:1.0 63:1.0 208:1.0 335:1.0 336:1.0 
-0.0 0.0804231521527708 0.17049543443707563 0.0 0.027818658855186033 5:2.0 6:3.0 7:13.0 8:9.0 9:1.0 10:1.0 16:1.0 46:1.0 192:1.0 208:1.0 337:1.0 338:1.0 339:1.0 340:1.0 
-0.9008817823080189 1.0 1.0 0.0 1.0 4:1.0 5:2.0 6:4.0 7:7.0 8:3.0 10:1.0 17:1.0 135:1.0 
-0.0 0.005358465329936552 0.0 0.0 0.0 5:2.0 6:1.0 7:17.0 8:14.0 10:1.0 16:3.0 29:1.0 192:3.0 208:1.0 338:1.0 341:1.0 342:1.0 
-1.0 1.0 1.0 0.0 1.0 4:1.0 5:2.0 6:2.0 7:9.0 8:8.0 10:1.0 17:1.0 
-1.0 1.0 0.0 0.0 0.0 5:2.0 6:1.0 7:5.0 8:5.0 10:1.0 17:1.0 208:1.0 
-1.0 1.0 1.0 0.0 1.0 4:1.0 5:2.0 6:3.0 7:21.0 8:16.0 10:1.0 16:2.0 17:1.0 58:1.0 
-0.0 0.0 0.18061599642391513 0.0 0.07065958024661206 4:1.0 5:2.0 6:3.0 7:5.0 8:3.0 10:1.0 320:1.0 343:1.0 
-1.0 1.0 1.0 0.0 1.0 4:1.0 5:2.0 6:3.0 7:8.0 8:6.0 10:1.0 17:1.0 
-0.18544751222376094 0.3059560908377571 0.2585266918857492 0.0 0.0 4:1.0 5:2.0 6:2.0 7:7.0 8:5.0 10:2.0 29:1.0 91:1.0 270:1.0 344:1.0 
-0.028616530756566293 0.0 0.20177817958395114 0.0 0.035509659572830435 4:1.0 5:2.0 6:2.0 7:7.0 8:6.0 10:1.0 320:1.0 345:1.0 346:1.0 
-0.0 0.0 0.008729423059822442 0.0 0.0 5:2.0 6:2.0 7:2.0 8:1.0 10:1.0 208:1.0 230:1.0 347:1.0 
-0.0 0.0 0.0 0.0 0.4330609949840649 5:2.0 6:2.0 7:5.0 8:4.0 10:1.0 23:1.0 313:1.0 348:1.0 
-0.0 0.17508165154420247 0.0 0.0 0.13879634468266694 5:2.0 6:3.0 7:7.0 8:2.0 9:1.0 10:3.0 131:1.0 208:1.0 349:1.0 
-0.0 0.5020379436087256 0.5821586863519458 0.0 0.4780962706170493 5:2.0 6:2.0 7:7.0 8:6.0 10:1.0 23:1.0 115:1.0 259:1.0 350:1.0 
-1.0 0.0 0.0 0.0 0.0 4:1.0 5:2.0 6:1.0 7:9.0 8:7.0 10:2.0 15:1.0 20:1.0 33:1.0 216:1.0 
-1.0 1.0 1.0 0.0 0.7368369339664295 4:1.0 5:2.0 6:2.0 7:6.0 8:5.0 10:1.0 17:1.0 
-1.0 1.0 1.0 0.0 1.0 4:1.0 5:2.0 6:2.0 7:8.0 8:7.0 10:1.0 17:1.0 
-0.0 0.017595309468131527 0.0 0.0 0.017725333540325645 5:2.0 6:3.0 7:6.0 8:4.0 10:1.0 208:1.0 232:1.0 355:1.0 
-1.0 1.0 1.0 0.0 1.0 4:1.0 5:2.0 6:4.0 7:12.0 8:8.0 10:2.0 17:1.0 
-0.0 0.3820693597770747 0.0 0.0 0.17230198737889374 5:2.0 6:3.0 7:10.0 8:6.0 10:3.0 46:1.0 208:1.0 357:1.0 
-0.0 0.03263812812791235 0.0 0.0 0.25792092670488637 5:2.0 6:3.0 7:8.0 8:4.0 10:3.0 208:1.0 359:1.0 360:1.0 
-0.3091061822862734 0.10877898145627314 0.4622651208852209 0.0 0.6933140403637492 5:2.0 6:2.0 7:14.0 8:12.0 10:2.0 139:1.0 206:1.0 361:1.0 362:1.0 363:1.0 
-0.0 0.0 0.1176758911281214 0.0 0.0 4:1.0 5:2.0 6:3.0 7:5.0 8:3.0 10:1.0 258:1.0 320:1.0 
-0.0 0.0490048322399149 0.0 0.0 0.01122118080719748 5:2.0 6:4.0 7:7.0 8:4.0 10:1.0 208:1.0 364:1.0 
-0.2595673755150181 0.0664756599757092 0.7175327732463088 0.0 0.23202575457863123 4:1.0 5:2.0 6:1.0 7:6.0 8:6.0 10:1.0 307:1.0 365:1.0 
-0.0 0.0 0.0 0.0 0.8090843756174243 4:1.0 5:2.0 6:5.0 7:8.0 8:4.0 10:1.0 53:1.0 366:1.0 
-0.0 0.056336025727204773 0.0 0.0 0.0 5:2.0 6:1.0 7:7.0 8:6.0 10:1.0 16:1.0 46:1.0 192:1.0 208:1.0 367:1.0 
-0.8935816963639088 0.0 0.8596416833350365 0.0 0.0 4:1.0 5:2.0 6:1.0 7:5.0 8:5.0 10:1.0 151:1.0 
-0.0 0.0 0.040778977371707166 0.0 0.5266777488493464 1:1.0 4:1.0 5:2.0 6:1.0 7:7.0 8:5.0 10:2.0 135:1.0 216:1.0 369:1.0 370:1.0 
-0.0010304379503820733 0.0 0.5719212392751737 0.0 0.047310933197615986 4:1.0 5:2.0 6:2.0 7:6.0 8:5.0 10:1.0 320:1.0 371:1.0 
-0.0 0.0 0.0 0.16879314673723733 0.0 5:2.0 6:1.0 7:6.0 8:4.0 10:1.0 16:1.0 54:1.0 192:1.0 208:1.0 373:1.0 
-1.0 1.0 1.0 0.0 1.0 4:1.0 5:2.0 6:3.0 7:8.0 8:6.0 10:1.0 17:1.0 
-0.1573836146237823 0.24364736590414726 0.03573559399471471 0.0 0.821491200054564 4:1.0 5:2.0 6:2.0 7:7.0 8:6.0 10:1.0 242:1.0 259:1.0 378:1.0 
-0.0 0.04498062634872638 0.6032712043044904 0.0 0.41951850641338906 5:2.0 6:1.0 7:6.0 8:6.0 10:1.0 205:1.0 206:1.0 379:1.0 
-0.0 0.0061558189596160225 0.0 0.0 0.0815021805858847 5:2.0 6:5.0 7:22.0 8:16.0 10:3.0 56:1.0 208:1.0 380:1.0 381:1.0 382:1.0 383:1.0 384:1.0 385:1.0 
-0.4409384543172359 0.3504080416497807 0.4997756876197933 0.0 0.08425383409081297 1:1.0 5:2.0 6:4.0 7:11.0 8:8.0 10:1.0 23:1.0 115:1.0 205:1.0 
-0.49205563815640846 0.19638670094271302 0.12348204596396596 0.0 0.0 4:1.0 5:2.0 6:1.0 7:13.0 8:12.0 9:1.0 10:1.0 29:1.0 53:1.0 108:1.0 115:1.0 386:1.0 
-0.0 0.058293825057914805 0.0 0.0 0.0 5:2.0 6:2.0 7:4.0 8:3.0 10:1.0 208:1.0 387:1.0 
-0.0 0.3316942232618665 1.0 0.0 0.505859078622412 4:1.0 5:2.0 6:4.0 7:7.0 8:4.0 10:1.0 318:1.0 388:1.0 
-1.0 1.0 1.0 0.0 1.0 4:1.0 5:2.0 6:4.0 7:8.0 8:5.0 10:1.0 17:1.0 
-0.08312544074002971 0.5027547018809683 0.7321940326411641 0.0 0.8634342739205406 4:1.0 5:2.0 6:3.0 7:7.0 8:5.0 10:1.0 248:1.0 305:1.0 
-0.0 0.6739416954839205 0.9100743234221657 0.0 0.0 4:1.0 5:2.0 6:3.0 7:6.0 8:4.0 10:1.0 29:1.0 313:1.0 348:1.0 
-0.38752140936135393 0.0 0.0 0.0 0.029842005150502976 5:2.0 6:1.0 7:10.0 8:9.0 10:1.0 20:1.0 23:1.0 254:1.0 264:1.0 
-0.0 0.05614842072469372 0.0 0.0 0.0 5:2.0 6:1.0 7:7.0 8:7.0 10:1.0 208:1.0 389:1.0 
-0.0 0.05590268126713702 0.0 0.0 0.0 5:2.0 6:3.0 7:4.0 8:2.0 10:1.0 208:1.0 392:1.0 
-0.0 0.0 0.0 0.0 0.04194136674324152 4:1.0 5:2.0 6:3.0 7:5.0 8:3.0 10:1.0 254:1.0 393:1.0 
-0.19961928845487764 0.24877074418764097 0.9993639761189571 0.0 0.6643532502390445 4:1.0 5:2.0 6:3.0 7:6.0 8:4.0 10:1.0 394:1.0 395:1.0 
-0.047731357119283814 0.0 0.01472990876222751 0.0 0.0 4:1.0 5:2.0 6:1.0 7:6.0 8:6.0 10:1.0 53:1.0 129:1.0 
-0.0 0.0 0.0 0.0 0.11068861250737463 5:2.0 6:3.0 7:4.0 8:1.0 10:2.0 208:1.0 230:1.0 396:1.0 397:1.0 
-0.2435313112213046 0.5022671504765623 0.9844578355506353 0.0 0.8385749210068152 4:1.0 5:2.0 6:2.0 7:5.0 8:4.0 10:1.0 398:1.0 399:1.0 
-0.05205870051473832 1.0 0.8735173722130368 0.006062001981020468 0.0 5:2.0 6:1.0 7:4.0 8:4.0 10:1.0 17:1.0 208:1.0 
-0.7189923248957583 1.0 1.0 0.46338151252171617 0.9090901121993835 4:1.0 5:2.0 6:1.0 7:4.0 8:4.0 10:1.0 29:1.0 400:1.0 
-0.0 0.026395840535884462 0.0 0.0 0.0 5:2.0 6:3.0 7:6.0 8:4.0 10:1.0 208:1.0 234:1.0 401:1.0 
-0.21025044102534113 0.0 0.28691826743900395 0.0 0.2083178660312711 4:1.0 5:2.0 6:1.0 7:7.0 8:6.0 10:1.0 53:1.0 58:1.0 402:1.0 
-0.0 0.0 0.0 0.0 0.8087298935403554 4:1.0 5:2.0 6:5.0 7:8.0 8:3.0 10:1.0 54:1.0 61:1.0 254:1.0 
-0.09544672335078576 0.0 0.7980959249133706 0.0 1.0 5:2.0 6:1.0 7:7.0 8:7.0 10:1.0 23:1.0 236:1.0 403:1.0 404:1.0 
-0.27155177747014614 0.19265342687737405 0.14478125042694034 0.0 0.13219468203731624 4:1.0 5:2.0 6:2.0 7:10.0 8:5.0 9:1.0 10:2.0 20:1.0 151:1.0 405:1.0 406:1.0 407:1.0 
-0.04764581758357354 0.0 1.0 0.0 0.9885759661966165 4:1.0 5:2.0 6:2.0 7:9.0 8:8.0 10:1.0 209:1.0 248:1.0 
-0.0 0.0 0.0 0.0 0.04190378640504813 4:1.0 5:2.0 6:3.0 7:5.0 8:3.0 10:1.0 254:1.0 408:1.0 
-0.04782754191440134 0.0 0.0 0.0 0.08130172456326189 4:1.0 5:2.0 6:3.0 7:11.0 8:8.0 10:2.0 53:1.0 275:1.0 409:1.0 410:1.0 
-1.0 1.0 1.0 0.0 0.06898157903974989 4:1.0 5:2.0 6:1.0 7:8.0 8:8.0 10:1.0 17:1.0 
-0.0 0.0598184379721868 0.0 0.0 0.0 5:2.0 6:2.0 7:3.0 8:2.0 10:1.0 208:1.0 411:1.0 
-0.0 0.007480757246669766 0.0 0.0 0.037955438632128226 5:2.0 6:3.0 7:4.0 8:2.0 10:1.0 208:1.0 412:1.0 
-1.0 1.0 1.0 0.0 1.0 4:1.0 5:2.0 6:1.0 7:13.0 8:11.0 10:3.0 17:1.0 
-0.0 0.0 0.0 0.0 0.046735461030913625 5:2.0 6:2.0 7:6.0 8:3.0 10:1.0 16:1.0 135:1.0 192:1.0 208:1.0 413:1.0 
-0.0 0.0 0.008725983698376004 0.0 0.0 5:2.0 6:2.0 7:2.0 8:1.0 10:1.0 208:1.0 230:1.0 414:1.0 
-0.0 0.0 0.035741474127247576 0.0 0.0 5:2.0 6:1.0 7:10.0 8:8.0 10:1.0 20:2.0 32:1.0 115:1.0 208:1.0 291:1.0 
-0.0 0.0 0.0 0.0 0.03298344207003149 4:1.0 5:2.0 6:4.0 7:10.0 8:5.0 10:2.0 54:1.0 254:1.0 415:1.0 416:1.0 
-1.0 1.0 1.0 0.0 1.0 4:1.0 5:2.0 6:3.0 7:6.0 8:4.0 10:1.0 17:1.0 
-1.0 0.0 0.753217052397318 0.0 0.638233470838318 4:1.0 5:2.0 6:1.0 7:7.0 8:7.0 10:1.0 107:1.0 179:1.0 
-0.0 0.001521393439876478 0.0 0.0 0.0 5:2.0 6:3.0 7:6.0 8:4.0 10:1.0 208:1.0 418:1.0 419:1.0 
-0.3488251051446265 0.055443149036879136 1.0 0.0 1.0 4:1.0 5:2.0 6:5.0 7:15.0 8:7.0 9:1.0 10:3.0 20:1.0 33:1.0 74:1.0 318:1.0 420:1.0 
-1.0 1.0 1.0 0.0 0.0 4:1.0 5:2.0 6:1.0 7:7.0 8:7.0 10:1.0 17:1.0 
-1.0 1.0 1.0 0.0 1.0 4:1.0 5:2.0 6:1.0 7:9.0 8:9.0 10:1.0 17:1.0 
-0.3269844799453873 1.0 1.0 0.0 1.0 5:2.0 6:4.0 7:9.0 8:6.0 10:1.0 23:1.0 29:1.0 342:1.0 423:1.0 
-0.0 0.0027977650667059643 0.0 0.0 0.03723006173569934 5:2.0 6:2.0 7:5.0 8:4.0 10:1.0 23:1.0 229:1.0 270:1.0 
-0.08397408028726912 0.25263277291194325 0.0 0.0 0.0 4:1.0 5:2.0 6:3.0 7:8.0 8:6.0 10:1.0 307:1.0 388:1.0 
-0.0 0.0 0.11322143897699825 0.0 0.10208229076116357 5:2.0 6:2.0 7:8.0 8:6.0 10:2.0 206:1.0 216:1.0 425:1.0 426:1.0 
-1.0 1.0 1.0 0.0 1.0 4:1.0 5:2.0 6:2.0 7:6.0 8:5.0 10:1.0 17:1.0 
-0.0 0.11328900406799575 0.0 0.0 0.0 4:1.0 5:2.0 6:3.0 7:12.0 8:9.0 10:2.0 29:1.0 53:1.0 115:1.0 429:1.0 
-0.2337579907962559 0.08876831014380787 1.0 0.0 1.0 4:1.0 5:2.0 6:1.0 7:8.0 8:8.0 10:1.0 61:1.0 84:1.0 430:1.0 
-0.0 0.0 0.11385925440262837 0.0 0.0 4:1.0 5:2.0 6:4.0 7:14.0 8:11.0 10:1.0 254:1.0 431:1.0 432:1.0 433:1.0 434:1.0 
-0.0 0.0 0.8003937218333916 0.0 0.0 4:1.0 5:2.0 6:1.0 7:8.0 8:7.0 10:2.0 29:1.0 91:1.0 115:1.0 270:1.0 
-0.3393996467380301 0.0 0.41649015086985247 0.0 0.160373629562888 4:1.0 5:2.0 6:3.0 7:7.0 8:4.0 10:1.0 63:1.0 178:1.0 254:1.0 
-0.0 0.06430724163101932 0.37009021430021805 0.0 0.0 4:1.0 5:2.0 6:1.0 7:12.0 8:11.0 10:1.0 54:1.0 70:1.0 254:1.0 316:1.0 
-0.0 0.0 0.213037047233474 0.0 0.0033955594671408766 4:1.0 5:2.0 6:3.0 7:12.0 8:8.0 10:3.0 53:1.0 236:1.0 277:1.0 438:1.0 
-0.0 0.0 0.27167393808399753 0.0 0.0 4:1.0 5:2.0 6:2.0 7:4.0 8:3.0 10:1.0 320:1.0 440:1.0 
-0.0 0.007813483851712315 0.0 0.0 0.0 5:2.0 6:4.0 7:14.0 8:10.0 10:1.0 20:1.0 201:1.0 208:1.0 380:1.0 441:1.0 442:1.0 443:1.0 
-0.6062027492954365 0.11886789790780729 0.4819556963854615 0.0 1.0 4:1.0 5:2.0 6:4.0 7:7.0 8:4.0 10:1.0 170:1.0 294:1.0 
-1.0 1.0 1.0 0.0 0.22388352898540145 4:1.0 5:2.0 6:1.0 7:8.0 8:8.0 10:1.0 17:1.0 
-0.0 0.027576043165529536 0.0 0.0 0.0 5:2.0 6:2.0 7:6.0 8:5.0 10:1.0 208:1.0 445:1.0 446:1.0 
-0.033623600237322124 0.0 0.142586799911709 0.0 0.313537058420731 4:1.0 5:2.0 6:2.0 7:4.0 8:3.0 10:1.0 270:1.0 271:1.0 
-0.0 0.05498365660165891 0.0 0.0 0.0 5:2.0 6:1.0 7:8.0 8:7.0 10:1.0 16:1.0 46:1.0 192:1.0 208:1.0 449:1.0 
-1.0 1.0 1.0 0.0 1.0 4:1.0 5:2.0 6:1.0 7:8.0 8:8.0 10:1.0 17:1.0 
-1.0 1.0 1.0 0.0 1.0 4:1.0 5:2.0 6:2.0 7:10.0 8:9.0 10:1.0 17:1.0 
-0.0 0.059817701097332976 0.0 0.0 0.0 5:2.0 6:2.0 7:3.0 8:2.0 10:1.0 208:1.0 451:1.0 
-0.0 0.04997466477936266 0.0 0.0 0.0 5:2.0 6:3.0 7:8.0 8:6.0 10:1.0 208:1.0 452:1.0 
-0.0 0.057897697099076266 0.44388692178658384 0.0 0.39699003291603097 4:1.0 5:2.0 6:4.0 7:7.0 8:4.0 10:1.0 307:1.0 453:1.0 
-0.24775388767702902 0.16701209880398993 0.549524436788658 0.0 0.3703657976094237 4:1.0 5:2.0 6:1.0 7:7.0 8:7.0 10:1.0 456:1.0 457:1.0 
-1.0 1.0 1.0 0.163227078643651 1.0 5:2.0 6:1.0 7:4.0 8:4.0 10:1.0 23:1.0 181:1.0 
-0.0 0.06219996131903746 0.0 0.0 0.0 5:2.0 6:1.0 7:3.0 8:3.0 10:1.0 208:1.0 293:1.0 
-0.0 0.0543220404089561 0.0 0.0 0.0 5:2.0 6:3.0 7:5.0 8:3.0 10:1.0 208:1.0 459:1.0 
-0.0 0.0 0.15455621109246404 0.0 0.08551942355981593 4:1.0 5:2.0 6:2.0 7:11.0 8:10.0 10:1.0 216:1.0 460:1.0 461:1.0 462:1.0 
-0.0 0.025653031738487868 0.0 0.0 0.0 5:2.0 6:3.0 7:7.0 8:5.0 10:1.0 183:1.0 208:1.0 463:1.0 
-0.0 0.0 0.0 0.0 0.18133199813988415 5:2.0 6:3.0 7:8.0 8:6.0 10:1.0 23:1.0 53:1.0 234:1.0 464:1.0 
-0.18583818744285066 0.0708570245028637 1.0 0.0 0.6698399377454735 5:2.0 6:1.0 7:10.0 8:8.0 9:1.0 10:1.0 54:1.0 206:1.0 316:1.0 465:1.0 466:1.0 
-0.0 0.0 0.05009373676654806 0.0 0.0 5:2.0 6:2.0 7:8.0 8:7.0 10:1.0 208:1.0 226:1.0 468:1.0 469:1.0 
-0.0 0.0 0.0 0.0 0.0157580813504018 5:2.0 6:1.0 7:16.0 8:10.0 10:5.0 16:2.0 192:2.0 208:1.0 470:1.0 
-1.0 1.0 1.0 1.0 1.0 4:1.0 5:2.0 6:1.0 7:7.0 8:6.0 10:2.0 17:1.0 
-0.4234982701005841 0.8705568771930213 0.995260061548089 0.0329860449750501 0.4767612760805071 4:1.0 5:2.0 6:2.0 7:7.0 8:5.0 10:2.0 29:1.0 260:1.0 475:1.0 
-1.0 1.0 1.0 1.0 0.0 4:1.0 5:2.0 6:2.0 7:5.0 8:4.0 10:1.0 17:1.0 
-1.0 1.0 1.0 0.0 1.0 4:1.0 5:2.0 6:2.0 7:11.0 8:10.0 10:1.0 17:1.0 
-0.31556169925503846 0.8682272745116161 0.9556545789459245 0.0 0.4899999508544492 4:1.0 5:2.0 6:2.0 7:5.0 8:4.0 10:1.0 29:1.0 476:1.0 477:1.0 
-1.0 1.0 1.0 0.0 0.8319149048898693 4:1.0 5:2.0 6:2.0 7:6.0 8:5.0 10:1.0 17:1.0 
-0.01269931050752171 0.0 0.09040530115039476 0.0 0.0829006216096123 4:1.0 5:2.0 6:3.0 7:9.0 8:7.0 10:1.0 203:1.0 320:1.0 479:1.0 
-1.0 1.0 1.0 0.0 1.0 4:1.0 5:2.0 6:3.0 7:8.0 8:6.0 10:1.0 17:1.0 
-0.3243805951339936 0.1668937015950532 0.46740983074377146 0.07209503918149662 0.5131331941303803 4:1.0 5:2.0 6:1.0 7:6.0 8:4.0 10:1.0 58:1.0 201:1.0 480:1.0 481:1.0 
-0.0 0.0 0.0 0.0 0.0656725045001313 4:1.0 5:2.0 6:3.0 7:6.0 8:4.0 10:1.0 254:1.0 482:1.0 
-0.07646021292447878 0.0 0.5125637941465125 0.0 0.5202224519659914 4:1.0 5:2.0 6:2.0 7:5.0 8:4.0 10:1.0 330:1.0 483:1.0 484:1.0 
-0.23383764703736684 0.02127492791360477 0.4174831620947846 0.8355570749860195 0.1329433374520264 4:1.0 5:2.0 6:2.0 7:17.0 8:8.0 10:4.0 16:5.0 41:1.0 301:1.0 470:1.0 485:1.0 486:1.0 
-0.0 0.2409690963076546 0.010307626379760407 0.0 0.368957701776052 4:1.0 5:2.0 6:5.0 7:18.0 8:12.0 9:1.0 10:1.0 29:1.0 135:1.0 216:1.0 328:1.0 487:1.0 488:1.0 
-0.08709525060843665 0.0 0.4752488294971917 0.0 0.4673312035773623 4:1.0 5:2.0 6:2.0 7:14.0 8:12.0 10:2.0 182:1.0 236:1.0 302:1.0 489:1.0 
-0.0 0.0 0.8200260178827976 0.0 0.0 5:2.0 6:2.0 7:9.0 8:7.0 10:1.0 16:1.0 192:1.0 208:1.0 490:1.0 491:1.0 
-0.06395099324481583 0.031736817192287964 0.024783031180728762 0.0 0.0 4:1.0 5:2.0 6:2.0 7:9.0 8:7.0 10:2.0 29:1.0 91:1.0 151:1.0 441:1.0 
-1.0 1.0 1.0 0.0 1.0 4:1.0 5:2.0 6:1.0 7:17.0 8:17.0 10:1.0 17:1.0 
-0.0 0.00700970523699031 0.0 0.0 0.17441364068037948 4:1.0 5:2.0 6:7.0 7:15.0 8:6.0 10:2.0 20:1.0 53:1.0 407:1.0 492:1.0 493:1.0 
-0.0 0.09848819329485405 0.14124026843159324 0.0 0.0 5:2.0 6:1.0 7:13.0 8:12.0 10:2.0 32:1.0 46:1.0 208:1.0 248:1.0 494:1.0 
-0.0 0.008060714764665139 0.0 0.0 0.49758978199882326 5:2.0 6:6.0 7:13.0 8:6.0 10:3.0 61:1.0 208:1.0 495:1.0 496:1.0 
-1.0 1.0 1.0 0.0 0.0 4:1.0 5:2.0 6:2.0 7:9.0 8:7.0 10:1.0 17:1.0 54:1.0 
-1.0 1.0 1.0 0.0 1.0 4:1.0 5:2.0 6:3.0 7:8.0 8:6.0 10:1.0 17:1.0 
-0.0 0.025001841109633913 0.0 0.0 0.0 5:2.0 6:2.0 7:10.0 8:8.0 10:1.0 16:1.0 46:1.0 192:1.0 208:1.0 437:1.0 499:1.0 
-0.0 0.14211851911156093 0.0 0.0 0.0 5:2.0 6:1.0 7:4.0 8:3.0 10:1.0 20:1.0 208:1.0 500:1.0 
-1.0 1.0 1.0 0.16992736077395804 0.0 4:1.0 5:2.0 6:2.0 7:5.0 8:4.0 10:1.0 17:1.0 
-0.33557523846200477 1.0 1.0 0.48356700421621734 0.8582589218944273 4:1.0 5:2.0 6:1.0 7:8.0 8:6.0 10:3.0 29:1.0 115:1.0 136:1.0 501:1.0 
-0.0 0.15308940326812692 0.0 0.0 0.0 5:2.0 6:3.0 7:7.0 8:5.0 10:1.0 208:1.0 351:1.0 504:1.0 
-0.0 0.0 0.0 0.0 0.11071067952548817 5:2.0 6:4.0 7:17.0 8:11.0 10:2.0 16:1.0 58:1.0 192:1.0 208:1.0 210:1.0 505:1.0 506:1.0 
-1.0 1.0 1.0 0.5908235856735513 0.0 4:1.0 5:2.0 6:2.0 7:5.0 8:4.0 10:1.0 17:1.0 
-0.0 0.0 0.0 0.6950518122607721 0.0 4:1.0 5:2.0 6:1.0 7:6.0 8:4.0 10:1.0 16:1.0 54:1.0 254:1.0 507:1.0 
-0.03538820477059673 0.2967917560030425 0.2859883627141129 0.0 0.17297567701530864 4:1.0 5:2.0 6:5.0 7:12.0 8:6.0 10:2.0 16:1.0 29:1.0 46:1.0 91:1.0 508:2.0 509:1.0 
-1.0 1.0 1.0 0.015560309509525042 1.0 4:1.0 5:2.0 6:3.0 7:7.0 8:3.0 10:2.0 17:1.0 58:1.0 
-0.0 0.060682307672250864 0.0 0.0 0.0 5:2.0 6:1.0 7:4.0 8:4.0 10:1.0 208:1.0 369:1.0 
-0.0 0.05830486372280712 0.0 0.0 0.0 5:2.0 6:2.0 7:4.0 8:3.0 10:1.0 208:1.0 512:1.0 
-0.0 0.0 0.0 0.004714070953940409 0.0 4:1.0 5:2.0 6:2.0 7:8.0 8:6.0 10:1.0 16:1.0 252:1.0 515:1.0 516:1.0 
-1.0 1.0 1.0 1.0 0.0 4:1.0 5:2.0 6:1.0 7:7.0 8:6.0 10:1.0 17:1.0 54:1.0 
-1.0 0.8924168126818648 1.0 0.0 1.0 5:2.0 6:2.0 7:13.0 8:11.0 10:2.0 11:1.0 12:1.0 
-0.0 0.0 0.0 0.0 0.1952211510612888 4:1.0 5:2.0 6:6.0 7:13.0 8:6.0 10:2.0 16:1.0 32:1.0 216:1.0 518:1.0 519:1.0 
-0.0 1.0 0.0 0.0 0.0 5:2.0 6:2.0 7:3.0 8:2.0 10:1.0 208:1.0 
-0.0 0.05982183472314196 0.0 0.0 0.0 5:2.0 6:2.0 7:3.0 8:2.0 10:1.0 208:1.0 511:1.0 
-0.044383411308827045 0.16210236445696768 0.0 0.0 0.0 4:1.0 5:2.0 6:3.0 7:8.0 8:6.0 10:1.0 239:1.0 302:1.0 
-0.0 0.33382729491496355 0.027589944126236273 0.0 0.0 5:2.0 6:2.0 7:3.0 8:2.0 10:1.0 208:1.0 230:1.0 522:1.0 
-0.0 0.0 0.014612270833652775 0.0 0.15217872856992307 4:1.0 5:2.0 6:4.0 7:14.0 8:10.0 10:1.0 20:1.0 115:1.0 456:1.0 523:1.0 524:1.0 
-0.008163132855036951 0.0 0.07177307500350391 0.0 0.0 4:1.0 5:2.0 6:1.0 7:7.0 8:7.0 10:1.0 254:1.0 525:1.0 
-0.0 0.05075500774596284 0.0 0.0 0.0 5:2.0 6:1.0 7:9.0 8:8.0 10:1.0 16:1.0 111:1.0 192:1.0 208:1.0 455:1.0 
-0.205589881183764 0.021761494341713355 0.3346377478566823 0.0 0.22577354763370827 4:1.0 5:2.0 6:1.0 7:10.0 8:7.0 10:2.0 20:2.0 115:1.0 201:1.0 526:1.0 527:1.0 
-0.0 0.12033213261259564 0.1691678795815043 0.0 0.0 5:2.0 6:1.0 7:5.0 8:5.0 10:1.0 208:1.0 528:1.0 529:1.0 
-0.39885986616262087 0.32289916475832703 0.989644012177896 0.0 1.0 5:2.0 6:2.0 7:9.0 8:8.0 10:1.0 23:1.0 531:1.0 532:1.0 
-0.0 0.07850830490526838 0.0 0.0 0.20378844534844276 5:2.0 6:5.0 7:12.0 8:6.0 10:3.0 208:1.0 351:1.0 533:1.0 534:1.0 
-0.0 0.0 0.2622868230995084 0.37494583572082335 0.1835939118516934 4:1.0 5:2.0 6:1.0 7:9.0 8:4.0 10:3.0 20:3.0 216:1.0 267:1.0 
-0.3503092065106643 0.05846188646356768 0.0488536769735742 0.0 0.14324835959287255 4:1.0 5:2.0 6:2.0 7:13.0 8:11.0 10:2.0 97:1.0 209:1.0 273:1.0 537:1.0 
-0.1313087818868965 0.5429662859504648 0.0724311174186123 0.0 0.0 4:1.0 5:2.0 6:2.0 7:14.0 8:12.0 9:1.0 10:1.0 29:1.0 158:1.0 216:1.0 538:1.0 539:1.0 
-0.0 0.0 0.13375210616562525 0.0 0.0 5:2.0 6:1.0 7:11.0 8:10.0 10:1.0 16:1.0 192:1.0 208:1.0 338:1.0 540:1.0 541:1.0 542:1.0 
-0.018277476929822737 0.25601041288672216 0.4113196210129647 0.0 0.4147879817210401 4:1.0 5:2.0 6:3.0 7:11.0 8:9.0 10:1.0 294:1.0 432:1.0 543:1.0 544:1.0 
-0.29177129250927564 0.0 0.14859620449934544 0.0 0.15475894931956793 1:1.0 4:1.0 5:2.0 6:2.0 7:9.0 8:6.0 9:1.0 10:2.0 216:1.0 546:1.0 547:1.0 
-0.14055330677268119 0.0 0.1981226863055789 0.0 0.13237422197762783 4:1.0 5:2.0 6:2.0 7:11.0 8:10.0 10:1.0 320:1.0 548:1.0 549:1.0 
-1.0 1.0 1.0 0.0 1.0 4:1.0 5:2.0 6:1.0 7:9.0 8:9.0 10:1.0 17:1.0 
-0.0 0.026841218073820394 0.0 0.0 0.0 5:2.0 6:1.0 7:9.0 8:9.0 10:1.0 208:1.0 550:1.0 551:1.0 
-0.9656670646301732 1.0 1.0 0.5234920652310014 0.23035759232898884 4:1.0 5:2.0 6:2.0 7:5.0 8:3.0 10:2.0 17:1.0 23:1.0 552:1.0 
-0.14133802600520964 0.021054935791417945 1.0 0.0 0.4530405554888439 4:1.0 5:2.0 6:1.0 7:12.0 8:11.0 10:1.0 59:1.0 318:1.0 455:1.0 553:1.0 
-1.0 1.0 1.0 0.0 1.0 4:1.0 5:2.0 6:1.0 7:14.0 8:12.0 10:3.0 17:1.0 
-0.0 0.05666352675459353 0.0 0.0 0.0 5:2.0 6:2.0 7:5.0 8:4.0 10:1.0 184:1.0 208:1.0 
-0.43120441730794506 0.5765020639111417 0.6641850034977403 0.0 0.0 4:1.0 5:2.0 6:2.0 7:12.0 8:10.0 10:2.0 29:1.0 91:1.0 252:1.0 554:1.0 
-0.0 0.0 0.008722502417929467 0.0 0.0 5:2.0 6:2.0 7:3.0 8:2.0 10:1.0 208:1.0 230:1.0 556:1.0 
-0.09613202744627679 0.6878827073193033 0.4160222748640119 0.21137018161604754 0.0 4:1.0 5:2.0 6:2.0 7:6.0 8:4.0 10:2.0 29:1.0 136:1.0 151:1.0 557:1.0 
-0.24352526884404524 0.25074387107880797 0.7860650559799601 0.0 0.6290685824528431 4:1.0 5:2.0 6:2.0 7:5.0 8:4.0 10:1.0 561:1.0 562:1.0 
-0.0 0.029583391671204846 0.0 0.0 0.0 5:2.0 6:1.0 7:5.0 8:5.0 10:1.0 208:1.0 566:1.0 567:1.0 
-0.0 0.0 0.0 0.0 0.06566948736091441 4:1.0 5:2.0 6:3.0 7:6.0 8:4.0 10:1.0 254:1.0 568:1.0 
-0.15983897703002298 0.1632315848005248 0.5268749083194366 0.0 0.4903777436903656 4:1.0 5:2.0 6:4.0 7:10.0 8:7.0 10:1.0 76:1.0 514:1.0 570:1.0 
-0.0 0.14175498607167172 0.11104038069263637 0.0 0.0 5:2.0 6:2.0 7:8.0 8:7.0 10:1.0 160:1.0 208:1.0 571:1.0 
-0.08965751256892818 0.0 0.1425605390301951 0.0 0.3372433323029238 4:1.0 5:2.0 6:2.0 7:5.0 8:4.0 10:1.0 270:1.0 572:1.0 
-0.0 0.1241494380230074 0.0 0.0 0.0 5:2.0 6:4.0 7:8.0 8:4.0 10:1.0 16:1.0 192:1.0 208:1.0 543:1.0 573:1.0 
-1.0 1.0 1.0 0.0 1.0 4:1.0 5:2.0 6:3.0 7:13.0 8:11.0 10:1.0 17:1.0 
-0.0 0.0 0.0 0.0 0.024254165625497214 4:1.0 5:2.0 6:5.0 7:9.0 8:5.0 10:1.0 53:1.0 574:1.0 575:1.0 
-1.0 1.0 1.0 1.0 0.0 4:1.0 5:2.0 6:1.0 7:4.0 8:4.0 10:1.0 17:1.0 
-0.0 0.0 0.0 0.0 0.06566849355756127 4:1.0 5:2.0 6:3.0 7:6.0 8:4.0 10:1.0 254:1.0 576:1.0 
-0.0 0.0 0.0 0.0 0.04940665458887085 4:1.0 5:2.0 6:4.0 7:10.0 8:7.0 10:1.0 216:1.0 577:1.0 578:1.0 579:1.0 
-0.0 0.0 0.027873587631278996 0.0 0.0 5:2.0 6:2.0 7:15.0 8:13.0 10:1.0 16:1.0 192:1.0 208:1.0 583:1.0 584:1.0 585:1.0 
-0.0 0.0 0.06929035875619523 0.0 0.22118925904050185 4:1.0 5:2.0 6:4.0 7:12.0 8:7.0 10:2.0 54:1.0 294:1.0 316:1.0 586:1.0 587:1.0 
-0.543229045702102 1.0 1.0 0.0 1.0 4:1.0 5:2.0 6:3.0 7:6.0 8:4.0 10:1.0 29:1.0 127:1.0 
-1.0 1.0 1.0 0.3176333870424468 0.0 4:1.0 5:2.0 6:1.0 7:7.0 8:7.0 10:1.0 17:1.0 
-1.0 1.0 1.0 1.0 0.0 4:1.0 5:2.0 6:1.0 7:6.0 8:6.0 10:1.0 17:1.0 
-0.0 0.29305546973777 0.0 0.0 7.077695663647501E-4 5:2.0 6:1.0 7:11.0 8:9.0 10:1.0 135:1.0 208:1.0 351:1.0 407:1.0 591:1.0 592:1.0 
-0.6427198218119249 0.3846966597643538 1.0 0.0 0.5944377837978267 4:1.0 5:2.0 6:1.0 7:14.0 8:14.0 10:1.0 29:1.0 32:1.0 313:1.0 516:1.0 
-0.37503788871772265 0.5045882552337986 1.0 0.0 1.0 4:1.0 5:2.0 6:2.0 7:3.0 8:2.0 10:1.0 593:1.0 
-0.17445544271685995 0.0 0.7860469042718217 0.0 0.6527868913830898 4:1.0 5:2.0 6:2.0 7:7.0 8:6.0 10:1.0 243:1.0 594:1.0 
-0.0 0.062215829930184305 0.0 0.0 0.0 5:2.0 6:1.0 7:3.0 8:3.0 10:1.0 208:1.0 595:1.0 
-0.0 0.0 0.9126986627089456 0.36293328898437305 0.4887647188491418 4:1.0 5:2.0 6:2.0 7:7.0 8:4.0 10:2.0 16:1.0 23:1.0 53:1.0 596:1.0 
-0.0 0.06739778289419704 0.0 0.0 0.0 5:2.0 6:2.0 7:3.0 8:1.0 10:2.0 208:1.0 597:1.0 
-0.0 0.015851345213610677 0.0 0.0 0.009025555509337606 5:2.0 6:4.0 7:14.0 8:10.0 10:2.0 100:1.0 208:1.0 598:1.0 599:1.0 
-0.129293509094387 0.0 0.0 0.0 0.08120265575805348 1:1.0 4:1.0 5:2.0 6:4.0 7:11.0 8:7.0 10:2.0 53:1.0 205:1.0 600:1.0 
-0.3330066761380129 0.8654469655723458 0.9074229729148342 0.0 0.6430850578214392 4:1.0 5:2.0 6:2.0 7:9.0 8:8.0 10:1.0 29:1.0 228:1.0 353:1.0 
-1.0 1.0 1.0 0.0 0.20973467512336175 4:1.0 5:2.0 6:2.0 7:6.0 8:5.0 10:1.0 17:1.0 
-0.0 0.0484205130597269 0.0 0.0 0.02571468211943768 5:2.0 6:3.0 7:4.0 8:2.0 10:1.0 208:1.0 412:1.0 
-0.0 0.02314729304445322 0.0 0.0 0.0 5:2.0 6:3.0 7:7.0 8:4.0 10:2.0 23:1.0 208:1.0 601:1.0 602:1.0 
-0.0 0.0 0.0 0.0 0.7804465678126392 4:1.0 5:2.0 6:1.0 7:6.0 8:6.0 10:1.0 216:1.0 604:1.0 
-0.0 0.0 0.09409921204828658 0.0 0.07176774351045963 5:2.0 6:4.0 7:10.0 8:7.0 10:1.0 53:1.0 181:1.0 206:1.0 605:1.0 
-0.0 0.14598959318341434 1.0 0.0 0.1784105407185874 4:1.0 5:2.0 6:2.0 7:4.0 8:3.0 10:1.0 320:1.0 
-0.0 0.0 0.008661222824580034 0.0 0.0 5:2.0 6:2.0 7:3.0 8:2.0 10:1.0 208:1.0 230:1.0 606:1.0 
-0.0 0.07850914453143812 0.0 0.0 0.0 5:2.0 6:4.0 7:8.0 8:4.0 10:2.0 208:1.0 351:1.0 607:1.0 608:1.0 
-0.0 0.0 0.44041944360642354 0.0 0.0 5:2.0 6:3.0 7:7.0 8:5.0 10:1.0 32:1.0 208:1.0 
-0.08396444580110031 0.05883709833027146 0.535064976669153 0.0 0.373609809411134 4:1.0 5:2.0 6:3.0 7:8.0 8:6.0 10:1.0 307:1.0 610:1.0 
-0.00903083515409706 0.0 0.42380683349418813 0.0 0.7506575640589385 4:1.0 5:2.0 6:3.0 7:5.0 8:3.0 10:1.0 330:1.0 611:1.0 
-0.2913599565932655 0.47719735005910635 0.7298226492981947 0.0 0.32659668539249254 4:1.0 5:2.0 6:2.0 7:7.0 8:5.0 10:2.0 29:1.0 91:1.0 295:1.0 612:1.0 
-1.0 1.0 1.0 0.0 1.0 4:1.0 5:2.0 6:1.0 7:8.0 8:8.0 10:1.0 17:1.0 
-0.0 0.30682244566312694 0.0 0.0 0.40078983442341365 5:2.0 6:6.0 7:17.0 8:8.0 10:5.0 23:1.0 29:1.0 236:1.0 252:1.0 320:1.0 613:1.0 
-0.14215125749871116 0.0 0.0 0.07263131326591242 0.09533267369622815 5:2.0 6:1.0 7:14.0 8:9.0 10:5.0 16:1.0 108:1.0 192:1.0 208:1.0 224:1.0 614:1.0 
-0.8673603400846874 0.5865315597072838 0.7506528462928035 0.22159447775569133 0.4407033657289804 4:1.0 5:2.0 6:2.0 7:5.0 8:3.0 10:2.0 29:1.0 193:1.0 304:1.0 
-1.0 1.0 1.0 0.6496499705106983 0.0 4:1.0 5:2.0 6:2.0 7:5.0 8:4.0 10:1.0 17:1.0 
-0.3501110509751732 0.0 0.4635752733326714 0.0 0.0 1:1.0 5:2.0 6:1.0 7:7.0 8:6.0 10:2.0 32:1.0 208:1.0 356:1.0 
-0.35079869446015016 0.049738528147798965 0.2205133726027768 0.0 0.31013298479575013 1:1.0 4:1.0 5:2.0 6:3.0 7:13.0 8:10.0 10:2.0 320:1.0 419:1.0 616:1.0 617:1.0 
-0.01446130310783654 0.37513336882395093 1.0 0.10362218797645745 0.5613214494368095 4:1.0 5:2.0 6:2.0 7:9.0 8:6.0 10:2.0 29:1.0 54:1.0 91:1.0 316:1.0 618:1.0 
-1.0 1.0 1.0 0.0 1.0 4:1.0 5:2.0 6:3.0 7:7.0 8:5.0 10:1.0 17:1.0 
-0.10380298165427752 0.16252673382426358 0.5406800894434244 0.0 0.7123167145607192 4:1.0 5:2.0 6:4.0 7:7.0 8:4.0 10:1.0 385:1.0 619:1.0 620:1.0 
-0.24775292188377693 0.16694594073574523 0.5495355772322739 0.0 0.37033295413344175 4:1.0 5:2.0 6:1.0 7:7.0 8:7.0 10:1.0 456:1.0 621:1.0 
-0.04398150992361459 0.0 0.0 0.0 0.14828059828420487 4:1.0 5:2.0 6:6.0 7:16.0 8:8.0 10:3.0 20:1.0 53:1.0 622:1.0 623:1.0 624:1.0 625:1.0 626:1.0 
-1.0 1.0 1.0 1.0 0.0 4:1.0 5:2.0 6:2.0 7:5.0 8:4.0 10:1.0 17:1.0 
-0.0 0.01677029977031567 0.17754018312271544 0.0 0.179865951961276 4:1.0 5:2.0 6:6.0 7:12.0 8:7.0 10:1.0 181:1.0 252:1.0 273:1.0 627:1.0 
-0.0 -1.0 1.0 0.0 0.0 4:1.0 5:2.0 6:2.0 7:7.0 8:6.0 10:1.0 17:1.0 
-0.0 -1.0 1.0 0.0 0.0 5:2.0 6:3.0 7:9.0 8:7.0 10:1.0 17:1.0 208:1.0 
-0.08628091385815065 -0.0 0.8556445113088509 0.0 0.16758000510498733 4:1.0 5:2.0 6:3.0 7:8.0 8:5.0 9:1.0 10:1.0 29:1.0 629:1.0 630:1.0 
-0.085841947063725 -0.13815288179742577 0.71033486806583 0.0 0.25693698747644933 4:1.0 5:2.0 6:5.0 7:9.0 8:5.0 10:1.0 29:1.0 204:1.0 631:1.0 
-1.0 -1.0 1.0 0.0 1.0 4:1.0 5:2.0 6:1.0 7:11.0 8:11.0 10:1.0 17:1.0 
-0.0 -0.0 1.0 0.0 0.0 4:1.0 5:2.0 6:2.0 7:4.0 8:3.0 10:1.0 17:1.0 
-0.0 -0.0 1.0 0.0 0.0 4:1.0 5:2.0 6:1.0 7:4.0 8:4.0 10:1.0 17:1.0 
-0.17108358507848848 -0.2595532352861948 1.0 0.0 0.26731162356685456 4:1.0 5:2.0 6:1.0 7:4.0 8:4.0 10:1.0 29:1.0 635:1.0 
-0.05719807272604229 -0.08753643493781225 0.6041393342538656 0.0 0.099038516785379 4:1.0 5:2.0 6:3.0 7:8.0 8:5.0 10:2.0 29:1.0 637:1.0 638:1.0 639:1.0 
-0.912295034601901 -0.0 0.0 0.0 0.2216993463286495 5:2.0 6:3.0 7:13.0 8:10.0 9:1.0 10:1.0 11:1.0 628:1.0 
-0.0 -0.0 1.0 0.0 0.0 4:1.0 5:2.0 6:1.0 7:4.0 8:4.0 10:1.0 17:1.0 
-0.027241753517777943 -0.0 0.0 0.0 0.0 5:2.0 6:1.0 7:9.0 8:9.0 10:1.0 14:1.0 636:1.0 
-0.08570072282345717 -0.12440393200837395 0.4102947582468351 0.0 0.16292100977029017 4:1.0 5:2.0 6:1.0 7:7.0 8:5.0 10:3.0 29:1.0 640:1.0 641:1.0 
-0.057232371343917676 -0.09051967335732995 0.5381391455883876 0.0 0.11255032542821851 4:1.0 5:2.0 6:3.0 7:9.0 8:7.0 10:1.0 29:1.0 642:1.0 643:1.0 644:1.0 
-0.3189744337956421 -0.10684799907692492 1.0 0.0 0.5318987611384001 4:1.0 5:2.0 6:3.0 7:11.0 8:8.0 10:1.0 20:1.0 29:1.0 33:1.0 528:1.0 645:1.0 
-0.06902226376313514 -0.6013930417625428 1.0 0.0 0.16869079649180108 4:1.0 5:2.0 6:2.0 7:8.0 8:6.0 9:1.0 10:1.0 29:1.0 53:1.0 646:1.0 647:1.0 
-0.1705562125275397 -0.2565375987076519 0.7134754480973206 0.0987794625279819 0.25729614824782365 4:1.0 5:2.0 6:1.0 7:2.0 8:2.0 10:1.0 29:1.0 648:1.0 
-0.016663870566458294 -0.24118707733568637 0.2611389596726088 0.0 0.04270234118594694 4:1.0 5:2.0 6:6.0 7:11.0 8:4.0 10:2.0 29:1.0 54:1.0 136:1.0 649:1.0 650:1.0 
-4.6606377167773073E-4 -0.0 0.0 0.0 0.0 5:2.0 6:1.0 7:9.0 8:8.0 9:1.0 10:1.0 11:1.0 628:1.0 
-0.060335557711808416 -0.7931937743011889 1.0 0.0 1.0 4:1.0 5:2.0 6:2.0 7:8.0 8:6.0 10:2.0 29:1.0 46:1.0 136:1.0 236:1.0 652:1.0 
-0.0 -1.0 1.0 0.0 1.0 4:1.0 5:2.0 6:2.0 7:26.0 8:23.0 10:3.0 17:1.0 
-0.0167744352651156 -0.0 1.0 0.0 0.0 4:1.0 5:2.0 6:1.0 7:7.0 8:7.0 10:1.0 17:1.0 
-0.0 -0.0 1.0 0.0 0.0 4:1.0 5:2.0 6:1.0 7:4.0 8:4.0 10:1.0 17:1.0 
-0.0 -0.7305859367577014 1.0 0.0 0.0 4:1.0 5:2.0 6:1.0 7:10.0 8:10.0 10:1.0 653:1.0 
-0.0 -1.0 0.0 0.0 0.0 4:1.0 5:2.0 6:3.0 7:4.0 8:2.0 10:1.0 17:1.0 
-0.0 -0.0 0.0 0.9209472529707311 0.0 4:1.0 5:2.0 6:2.0 7:5.0 8:4.0 10:1.0 653:1.0 
-0.0 -0.0 1.0 0.0 0.0 4:1.0 5:2.0 6:1.0 7:4.0 8:4.0 10:1.0 17:1.0 
-0.0 -0.05311016050885955 1.0 0.0 0.011759393094312103 5:2.0 6:1.0 7:22.0 8:22.0 10:1.0 11:1.0 628:1.0 
-0.35893774603790274 -1.0 0.0 0.0 1.0 4:1.0 5:2.0 6:9.0 7:17.0 8:6.0 10:4.0 17:1.0 
-1.0 -1.0 1.0 0.0 0.0 4:1.0 5:2.0 6:1.0 7:8.0 8:8.0 10:1.0 17:1.0 
-0.0 -0.0 1.0 0.0 0.0 4:1.0 5:2.0 6:1.0 7:4.0 8:4.0 10:1.0 17:1.0 
-0.17078324487822116 -0.2579760007186308 0.8670491134885916 0.03406191102931342 0.2623278248397235 4:1.0 5:2.0 6:1.0 7:3.0 8:3.0 10:1.0 29:1.0 654:1.0 
-0.0 -0.0 1.0 0.0 0.0 4:1.0 5:2.0 6:1.0 7:4.0 8:4.0 10:1.0 17:1.0 
-0.0 -0.0 0.0 1.0 0.0 4:1.0 5:2.0 6:2.0 7:3.0 8:2.0 10:1.0 653:1.0 
-0.11656589232947691 -0.10342701620272246 1.0 0.3003058516212129 0.4619170433833192 4:1.0 5:2.0 6:4.0 7:14.0 8:6.0 9:1.0 10:2.0 16:2.0 20:1.0 29:1.0 32:1.0 596:1.0 655:1.0 
-0.5308711086921438 -0.23111716321546472 0.6060762672562052 0.20897462094868632 0.2513722083243169 1:1.0 4:1.0 5:2.0 6:4.0 7:12.0 8:6.0 10:3.0 16:1.0 29:1.0 136:1.0 160:1.0 509:1.0 656:1.0 
-0.7609304981404715 -1.0 1.0 0.0 1.0 4:1.0 5:2.0 6:1.0 7:12.0 8:12.0 10:1.0 17:1.0 
-0.4894279274270371 -1.0 1.0 0.0 0.1958116800830643 4:1.0 5:2.0 6:2.0 7:5.0 8:3.0 10:2.0 27:1.0 29:1.0 91:1.0 
-0.03683430597609214 -0.0 0.0 0.0 0.020263867598430414 5:2.0 6:3.0 7:9.0 8:5.0 10:1.0 14:1.0 24:2.0 636:1.0 
-0.0 -0.0 1.0 0.0 0.0 4:1.0 5:2.0 6:1.0 7:5.0 8:5.0 10:1.0 17:1.0 
-0.0 -0.0 0.0 1.0 0.0 4:1.0 5:2.0 6:2.0 7:5.0 8:4.0 10:1.0 653:1.0 
-0.0 -0.0 0.0 1.0 0.0 4:1.0 5:2.0 6:1.0 7:3.0 8:2.0 10:2.0 17:1.0 23:1.0 
-0.0 -1.0 0.0 0.0 0.0 4:1.0 5:2.0 6:3.0 7:4.0 8:2.0 10:1.0 17:1.0 
-0.0 -0.25955655505865916 1.0 0.0 0.0 4:1.0 5:2.0 6:2.0 7:13.0 8:9.0 10:4.0 17:1.0 23:1.0 
-1.0 -1.0 1.0 0.0 1.0 4:1.0 5:2.0 6:1.0 7:15.0 8:15.0 10:1.0 17:1.0 
-0.1621477531925877 -0.2519376748362556 0.46389935917648195 0.0 0.2953537955804675 4:1.0 5:2.0 6:3.0 7:13.0 8:11.0 10:1.0 658:1.0 659:2.0 660:1.0 
-0.1705632554831569 -0.25653868987541517 0.7134670455001306 0.09882654861880996 0.2572983699444976 4:1.0 5:2.0 6:1.0 7:2.0 8:2.0 10:1.0 29:1.0 661:1.0 
-0.016606064796039887 -0.5076286588495961 1.0 0.0 1.0 4:1.0 5:2.0 6:2.0 7:7.0 8:5.0 10:1.0 17:1.0 135:1.0 
-1.0 -1.0 1.0 0.0 0.0 4:1.0 5:2.0 6:1.0 7:8.0 8:8.0 10:1.0 17:1.0 
-1.0 -0.0 0.0 0.0 0.0 5:2.0 6:1.0 7:13.0 8:11.0 10:1.0 14:1.0 20:2.0 633:1.0 
-0.0 -1.0 0.0 0.0 1.0 4:1.0 5:2.0 6:4.0 7:5.0 8:2.0 10:1.0 17:1.0 
-0.0 -0.0 1.0 0.0 0.0 4:1.0 5:2.0 6:1.0 7:5.0 8:5.0 10:1.0 17:1.0 
-0.17792778578740934 -0.0 0.13893276922786327 0.0 0.09489207411395362 4:1.0 5:2.0 6:2.0 7:10.0 8:5.0 10:4.0 29:1.0 146:1.0 662:1.0 663:1.0 
-0.0 -0.004341976206298917 0.46116714333956293 0.0 0.015419138176250563 4:1.0 5:2.0 6:1.0 7:9.0 8:9.0 10:1.0 29:1.0 158:1.0 664:1.0 665:1.0 
-0.0 -1.0 0.0 0.0 0.0 4:1.0 5:2.0 6:3.0 7:4.0 8:2.0 10:1.0 17:1.0 
-0.0 -0.0 1.0 0.0 0.0 4:1.0 5:2.0 6:1.0 7:6.0 8:6.0 10:1.0 17:1.0 
-0.04507925601308592 -0.0 0.0 1.0 0.0 4:1.0 5:2.0 6:1.0 7:7.0 8:3.0 10:3.0 16:1.0 17:1.0 20:1.0 
-0.0 -0.0 1.0 0.0 0.0 4:1.0 5:2.0 6:1.0 7:6.0 8:6.0 10:1.0 17:1.0 
-0.17138770315785082 -0.17164213751179497 1.0 0.0 0.0 4:1.0 5:2.0 6:1.0 7:5.0 8:5.0 10:1.0 29:1.0 666:1.0 
-1.0 -0.0 1.0 0.0 0.0 4:1.0 5:2.0 6:1.0 7:7.0 8:7.0 10:1.0 17:1.0 
-0.0 -0.0 1.0 0.0 0.0 4:1.0 5:2.0 6:2.0 7:5.0 8:4.0 10:1.0 17:1.0 
-0.17155974762361947 -1.0 1.0 0.0 0.4549228427096429 4:1.0 5:2.0 6:1.0 7:7.0 8:7.0 10:1.0 29:1.0 259:1.0 
-0.0 -1.0 1.0 0.0 0.0 4:1.0 5:2.0 6:3.0 7:5.0 8:3.0 10:1.0 17:1.0 
-0.17145242879040865 -0.18054175268170175 1.0 0.0 0.24847184433109135 4:1.0 5:2.0 6:2.0 7:4.0 8:2.0 10:1.0 20:1.0 29:1.0 327:1.0 
-1.0 -1.0 1.0 0.0 1.0 4:1.0 5:2.0 6:3.0 7:7.0 8:5.0 10:1.0 17:1.0 
-0.17119251987003925 -0.2534939600779637 0.8436064551614937 0.0 0.25990362716578175 4:1.0 5:2.0 6:1.0 7:5.0 8:4.0 10:2.0 29:1.0 667:1.0 
-0.0 -0.06207268024684577 1.0 0.0 1.0 4:1.0 5:2.0 6:1.0 7:8.0 8:7.0 10:2.0 29:1.0 158:1.0 
-0.0 -0.0 0.10665144334050979 0.0 0.0 4:1.0 5:2.0 6:1.0 7:3.0 8:3.0 10:1.0 17:1.0 
-2.1224819077355427E-4 -0.2364939641211339 0.20979491792430388 0.0 0.0 4:1.0 5:2.0 6:3.0 7:11.0 8:8.0 10:2.0 29:1.0 91:1.0 125:1.0 492:1.0 668:1.0 
-0.0 -0.0 1.0 0.0 0.0 4:1.0 5:2.0 6:1.0 7:3.0 8:3.0 10:1.0 17:1.0 
-0.0 -0.0 1.0 0.0 0.0 5:2.0 6:2.0 7:17.0 8:16.0 10:1.0 14:1.0 633:1.0 
-1.0 -0.0 1.0 0.0 0.0 4:1.0 5:2.0 6:1.0 7:7.0 8:7.0 10:1.0 17:1.0 
-1.0 -0.0 1.0 0.0 0.0 4:1.0 5:2.0 6:1.0 7:7.0 8:7.0 10:1.0 17:1.0 
-0.33836934254627826 -1.0 1.0 0.0 0.0 4:1.0 5:2.0 6:2.0 7:7.0 8:6.0 10:1.0 17:1.0 
-1.0 -0.0 1.0 0.0 1.0 4:1.0 5:2.0 6:1.0 7:5.0 8:4.0 10:1.0 17:1.0 58:1.0 
-0.4863191605605436 -0.7488607532757802 0.9712681602386917 0.0 0.8568712681959774 4:1.0 5:2.0 6:1.0 7:6.0 8:6.0 10:1.0 669:1.0 670:1.0 
-0.0 -0.0 1.0 0.0 0.0 4:1.0 5:2.0 6:1.0 7:3.0 8:3.0 10:1.0 17:1.0 
-0.005834720461243556 -1.0 1.0 0.0 0.0 4:1.0 5:2.0 6:1.0 7:9.0 8:9.0 10:1.0 17:1.0 
-0.1898301952736135 -0.26749211929749533 0.2549209421498901 0.0 0.3334629413633697 5:2.0 6:3.0 7:10.0 8:8.0 10:1.0 23:1.0 673:1.0 674:1.0 675:1.0 
-1.0 -0.0967601494704948 0.0 0.0 0.0986276075532511 5:2.0 6:1.0 7:7.0 8:7.0 10:1.0 14:1.0 676:1.0 
-5.285982599339275E-4 -0.0 0.0 0.0 0.0 5:2.0 6:4.0 7:12.0 8:7.0 10:1.0 14:1.0 16:1.0 54:1.0 633:1.0 
-0.0 -0.12312244808342242 0.0 0.7430640835981286 0.0 5:2.0 6:1.0 7:16.0 8:14.0 10:1.0 14:1.0 16:2.0 634:1.0 
-0.0 -0.0 1.0 0.0 0.0 4:1.0 5:2.0 6:1.0 7:3.0 8:3.0 10:1.0 17:1.0 
-1.0 -1.0 1.0 0.0 0.0 4:1.0 5:2.0 6:2.0 7:7.0 8:6.0 10:1.0 17:1.0 
-0.3384648728814602 -0.0 0.6859303100714497 0.0 0.1643145803601346 5:2.0 6:1.0 7:10.0 8:6.0 10:3.0 14:1.0 58:2.0 651:1.0 
-0.3949164516195063 -0.20084531955097523 0.5434075736000323 0.0 0.1171131299666101 4:1.0 5:2.0 6:3.0 7:13.0 8:9.0 10:3.0 29:1.0 62:1.0 97:1.0 119:1.0 136:1.0 290:1.0 
-0.0 -0.0 1.0 0.0 0.0 4:1.0 5:2.0 6:1.0 7:6.0 8:6.0 10:1.0 17:1.0 
-0.1186074575871933 -0.17100339733756567 0.45867232244912187 0.0 0.22550769888132777 5:2.0 6:5.0 7:21.0 8:14.0 10:4.0 23:1.0 380:1.0 677:1.0 678:2.0 679:1.0 680:1.0 
-0.17081049487830652 -0.257979430729329 0.867017153308191 0.03405813840268484 0.26235329028602744 4:1.0 5:2.0 6:1.0 7:3.0 8:3.0 10:1.0 29:1.0 681:1.0 
-0.0 -1.0 0.0 0.0 1.0 4:1.0 5:2.0 6:4.0 7:5.0 8:2.0 10:1.0 17:1.0 
-0.7482730538850301 -0.0 0.7612456516143847 0.0 0.2341356988929867 4:1.0 5:2.0 6:1.0 7:6.0 8:3.0 10:3.0 17:1.0 59:1.0 
-0.17088268601866619 -0.26190437151467794 1.0 0.0 0.6330194079509986 4:1.0 5:2.0 6:3.0 7:5.0 8:3.0 10:1.0 29:1.0 682:1.0 
-0.0 -0.0 1.0 0.0 0.0 4:1.0 5:2.0 6:1.0 7:6.0 8:6.0 10:1.0 17:1.0 
-0.1707421098965445 -0.2604288991142299 0.7137389617601213 0.0 0.2733705580350765 4:1.0 5:2.0 6:2.0 7:3.0 8:2.0 10:1.0 29:1.0 683:1.0 
-0.26525843990394504 -0.7760528612080839 0.8002938953678908 0.0 0.6679091247822826 4:1.0 5:2.0 6:5.0 7:10.0 8:7.0 46:1.0 158:1.0 342:1.0 543:1.0 684:1.0 
-0.08582626720333457 -0.1362938095959785 0.5878072587711765 0.0 0.22973044687934507 4:1.0 5:2.0 6:4.0 7:8.0 8:5.0 10:1.0 29:1.0 685:1.0 686:1.0 
-0.4232068991812208 -0.13266637539103102 1.0 0.0 0.1439163679963177 4:1.0 5:2.0 6:1.0 7:8.0 8:8.0 10:1.0 29:1.0 99:1.0 687:1.0 
-0.18981279312074195 -0.26871921863608356 0.1782116156320942 0.0 0.280765272664671 5:2.0 6:4.0 7:10.0 8:7.0 10:1.0 23:1.0 377:1.0 673:1.0 688:1.0 
-0.0 -0.0 1.0 0.0 0.0 4:1.0 5:2.0 6:1.0 7:3.0 8:3.0 10:1.0 17:1.0 
-1.0 -0.0 1.0 0.0 1.0 4:1.0 5:2.0 6:1.0 7:13.0 8:12.0 10:2.0 17:1.0 
-0.0 -0.0 1.0 0.0 0.0 4:1.0 5:2.0 6:1.0 7:3.0 8:3.0 10:1.0 17:1.0 
-0.0 -0.0 1.0 0.0 0.0 4:1.0 5:2.0 6:1.0 7:3.0 8:3.0 10:1.0 17:1.0 
-1.0 -1.0 1.0 1.0 0.0 4:1.0 5:2.0 6:2.0 7:10.0 8:7.0 10:2.0 17:1.0 54:1.0 
-0.41487867767074615 -0.388402817179824 0.8782401730200559 0.0 0.43365158254952046 4:1.0 5:2.0 6:1.0 7:10.0 8:10.0 10:1.0 111:1.0 689:1.0 690:1.0 691:1.0 
-0.0 -0.0 1.0 0.0 0.0 4:1.0 5:2.0 6:1.0 7:3.0 8:3.0 10:1.0 17:1.0 
-1.0 -0.0 1.0 0.0 0.0 4:1.0 5:2.0 6:1.0 7:7.0 8:7.0 10:1.0 17:1.0 
-0.0 -0.0 1.0 0.0 0.0 4:1.0 5:2.0 6:1.0 7:4.0 8:4.0 10:1.0 17:1.0 
-1.0 -1.0 1.0 0.0 1.0 4:1.0 5:2.0 6:3.0 7:9.0 8:7.0 10:1.0 17:1.0 
-0.0 -0.2858800369468625 0.21891406170620786 0.0 0.0 4:1.0 5:2.0 6:1.0 7:10.0 8:7.0 10:4.0 29:1.0 136:1.0 351:1.0 692:1.0 
-0.17091369484384739 -0.26429643485483695 0.7140255110426663 0.0 0.28942939708961535 4:1.0 5:2.0 6:3.0 7:4.0 8:2.0 10:1.0 29:1.0 693:1.0 
-0.0 -0.0 0.0 1.0 0.0 4:1.0 5:2.0 6:2.0 7:5.0 8:4.0 10:1.0 653:1.0 
-0.0 -1.0 1.0 0.0 0.0 4:1.0 5:2.0 6:3.0 7:5.0 8:3.0 10:1.0 17:1.0 
-0.0 -0.0 1.0 0.0 0.0 5:2.0 6:1.0 7:16.0 8:16.0 10:1.0 14:1.0 633:1.0 
-1.0 -0.0 1.0 0.0 0.0 4:1.0 5:2.0 6:1.0 7:7.0 8:7.0 10:1.0 17:1.0 
-0.9457132988055404 -0.1129068261532302 0.0 0.0 0.14835276850793133 5:2.0 6:5.0 7:12.0 8:8.0 10:1.0 14:1.0 636:1.0 
-0.11479040526259512 -0.0 1.0 0.0 0.0 4:1.0 5:2.0 6:1.0 7:4.0 8:3.0 10:1.0 17:1.0 20:1.0 
-1.0 -1.0 1.0 0.0 1.0 4:1.0 5:2.0 6:3.0 7:11.0 8:8.0 10:2.0 17:1.0 
-0.0 -0.0 0.8451739128358747 0.0 0.0 4:1.0 5:2.0 6:3.0 7:12.0 8:10.0 10:1.0 29:1.0 318:1.0 673:1.0 694:1.0 
-1.0 -0.0 1.0 0.0 0.0 4:1.0 5:2.0 6:2.0 7:7.0 8:5.0 10:1.0 17:1.0 20:1.0 
-0.0 -0.0 0.0 1.0 0.0 4:1.0 5:2.0 6:1.0 7:6.0 8:6.0 10:1.0 653:1.0 
-0.0 -0.0 0.11127269355728554 0.0 0.0 5:2.0 6:2.0 7:6.0 8:5.0 10:1.0 23:1.0 29:1.0 695:1.0 
-0.08580824474728428 -0.1393282635346689 0.5113034502814703 0.0 0.27956481973287584 4:1.0 5:2.0 6:6.0 7:9.0 8:4.0 10:1.0 29:1.0 696:1.0 697:1.0 
-0.1271844585051968 -0.0 1.0 0.0 0.0 4:1.0 5:2.0 6:2.0 7:10.0 8:7.0 10:3.0 17:1.0 
-0.17079988188831796 -0.2579747004160762 1.0 0.03415454827768702 0.26233266306002057 4:1.0 5:2.0 6:1.0 7:3.0 8:3.0 10:1.0 29:1.0 698:1.0 
-0.0 -1.0 1.0 1.0 0.523024853747763 4:1.0 5:2.0 6:1.0 7:9.0 8:8.0 10:1.0 16:1.0 17:1.0 
-1.0 -1.0 1.0 0.0 1.0 4:1.0 5:2.0 6:1.0 7:12.0 8:12.0 10:1.0 17:1.0 
-0.11996109131929453 -0.08526219912461781 0.836213495575655 0.8982470571037583 0.0 4:1.0 5:2.0 6:1.0 7:6.0 8:4.0 10:2.0 16:1.0 29:1.0 46:1.0 136:1.0 699:1.0 
-0.23726968019269523 -0.41907511292988286 0.45662456844582566 0.0 0.41261329981591405 5:2.0 6:5.0 7:13.0 8:8.0 10:2.0 23:1.0 351:1.0 700:1.0 701:1.0 702:1.0 
-0.0 -0.0 1.0 0.0 1.0 4:1.0 5:2.0 6:1.0 7:3.0 8:2.0 10:1.0 17:1.0 58:1.0 
-1.0 -1.0 1.0 0.0 1.0 4:1.0 5:2.0 6:4.0 7:8.0 8:5.0 10:1.0 17:1.0 
-0.2432317044039903 -0.5031325916854371 1.0 0.0 0.5506869580028004 4:1.0 5:2.0 6:3.0 7:12.0 8:10.0 10:1.0 398:1.0 703:1.0 704:1.0 705:1.0 
-0.1705653702435045 -0.2565295201739515 0.7134687237188453 0.09882453286125371 0.25729632245275186 4:1.0 5:2.0 6:1.0 7:2.0 8:2.0 10:1.0 29:1.0 706:1.0 
-0.17141409059147056 -0.261088831697811 1.0 0.0 0.2724026804826719 4:1.0 5:2.0 6:1.0 7:5.0 8:5.0 10:1.0 29:1.0 707:1.0 
-0.5729988042446806 -0.9040343291012707 1.0 0.0 1.0 5:2.0 6:3.0 7:8.0 8:5.0 10:2.0 23:1.0 70:1.0 246:1.0 
-0.0 -0.0 1.0 0.0 0.0 4:1.0 5:2.0 6:1.0 7:3.0 8:3.0 10:1.0 17:1.0 
-0.09477680955790015 -1.0 1.0 0.0 0.0 4:1.0 5:2.0 6:1.0 7:9.0 8:9.0 10:1.0 17:1.0 
-1.0 -0.0 1.0 0.0 0.0 4:1.0 5:2.0 6:3.0 7:14.0 8:7.0 10:3.0 17:1.0 20:3.0 
-0.6278792781281404 -0.0 0.0 0.0 0.0 5:2.0 6:2.0 7:7.0 8:5.0 9:1.0 10:1.0 14:1.0 651:1.0 
-0.4346124233094429 -0.0 1.0 0.0 0.0 4:1.0 5:2.0 6:2.0 7:9.0 8:6.0 10:3.0 17:1.0 
-1.0 -1.0 1.0 0.0 1.0 4:1.0 5:2.0 6:3.0 7:12.0 8:10.0 10:1.0 17:1.0 
-0.17216210445731295 -0.2698339684384191 1.0 0.0 0.3472976995155153 4:1.0 5:2.0 6:3.0 7:8.0 8:5.0 10:1.0 29:1.0 58:1.0 708:1.0 
-1.0 -0.0 1.0 1.0 0.0 4:1.0 5:2.0 6:1.0 7:6.0 8:4.0 10:1.0 16:1.0 17:1.0 20:1.0 
-0.0 -0.0 1.0 0.0 0.0 4:1.0 5:2.0 6:1.0 7:3.0 8:3.0 10:1.0 17:1.0 
-0.08581315350950296 -0.13511211164391068 0.664485501194698 0.0 0.15480393805131243 4:1.0 5:2.0 6:3.0 7:8.0 8:6.0 10:1.0 29:1.0 709:1.0 710:1.0 
-0.17148328216487504 -0.26740623436939376 1.0 0.0 0.29958381858336947 4:1.0 5:2.0 6:3.0 7:6.0 8:4.0 10:1.0 29:1.0 711:1.0 
-0.0 -0.0 1.0 0.0 0.0 4:1.0 5:2.0 6:1.0 7:3.0 8:3.0 10:1.0 17:1.0 
-0.0 -1.0 1.0 0.0 0.6944197014359852 4:1.0 5:2.0 6:3.0 7:5.0 8:3.0 10:1.0 17:1.0 
-0.057234787930122016 -0.08970110893118506 0.5453391025105832 0.0 0.10130776591313238 4:1.0 5:2.0 6:2.0 7:9.0 8:8.0 10:1.0 29:1.0 712:1.0 713:1.0 714:1.0 
-0.17140989043605484 -1.0 1.0 0.0 0.2723994798078454 4:1.0 5:2.0 6:1.0 7:5.0 8:5.0 10:1.0 29:1.0 264:1.0 
-0.24343949608543003 -0.306434404700411 0.6757406180898309 0.0 0.44670726286456414 4:1.0 5:2.0 6:2.0 7:13.0 8:11.0 9:1.0 10:1.0 715:1.0 716:1.0 717:1.0 718:1.0 
-1.0 -0.0 1.0 0.0 0.0 4:1.0 5:2.0 6:1.0 7:7.0 8:7.0 10:1.0 17:1.0 
-1.0 -0.3118106712109558 1.0 0.0 0.0 4:1.0 5:2.0 6:1.0 7:7.0 8:7.0 10:1.0 17:1.0 
-0.17050552146202635 -0.25888223470796534 0.5600597162777053 0.0 0.2681651888125078 4:1.0 5:2.0 6:2.0 7:2.0 8:1.0 10:1.0 29:1.0 719:1.0 
-1.0 -0.042843582288060233 0.0 0.0 0.07670451043742925 5:2.0 6:4.0 7:9.0 8:5.0 10:1.0 14:1.0 63:1.0 720:1.0 
-1.0 -0.0 1.0 0.0 0.0 4:1.0 5:2.0 6:2.0 7:7.0 8:5.0 10:2.0 17:1.0 
-1.0 -0.0 1.0 0.0 0.0 4:1.0 5:2.0 6:1.0 7:7.0 8:7.0 10:1.0 17:1.0 
-0.0 -0.0 1.0 0.0 0.0 4:1.0 5:2.0 6:1.0 7:3.0 8:3.0 10:1.0 17:1.0 
-0.0 -0.0 1.0 0.0 0.0 4:1.0 5:2.0 6:1.0 7:3.0 8:3.0 10:1.0 17:1.0 
-0.18564928885251641 -0.09588980946641366 0.4560631102660468 0.0 0.24255817990227418 4:1.0 5:2.0 6:3.0 7:14.0 8:7.0 9:1.0 10:3.0 16:1.0 20:1.0 29:1.0 32:1.0 61:1.0 125:1.0 192:1.0 668:1.0 
-0.0 -1.0 1.0 1.0 0.0 4:1.0 5:2.0 6:1.0 7:5.0 8:4.0 10:1.0 16:1.0 17:1.0 
-0.0 -1.0 1.0 1.0 0.0 4:1.0 5:2.0 6:1.0 7:6.0 8:5.0 10:1.0 16:1.0 17:1.0 
-1.0 -1.0 1.0 0.0 1.0 4:1.0 5:2.0 6:2.0 7:9.0 8:8.0 10:1.0 17:1.0 
-1.0 -0.0 1.0 0.0 0.18133805066749864 4:1.0 5:2.0 6:3.0 7:10.0 8:6.0 10:3.0 17:1.0 
-0.0 -0.02376875324580606 0.0 0.0 0.0 5:2.0 6:4.0 7:9.0 8:4.0 10:1.0 14:1.0 54:1.0 63:1.0 651:1.0 
-0.0 -0.0 1.0 0.0 0.0 4:1.0 5:2.0 6:1.0 7:6.0 8:6.0 10:1.0 17:1.0 
-0.0 -0.0 1.0 0.0 0.0 4:1.0 5:2.0 6:1.0 7:6.0 8:6.0 10:1.0 17:1.0 
-0.9480569165460163 -1.0 1.0 0.0 1.0 5:2.0 6:3.0 7:3.0 8:1.0 10:1.0 23:1.0 721:1.0 
-0.08578041325108775 -0.13203014627324394 0.7408741649530011 0.0 0.14131014952339865 4:1.0 5:2.0 6:1.0 7:7.0 8:7.0 10:1.0 29:1.0 722:1.0 723:1.0 
-0.0 -0.8694474992741115 0.0 0.0 0.0 5:2.0 6:1.0 7:8.0 8:5.0 10:3.0 17:1.0 208:1.0 407:1.0 
-0.3973207811234045 -0.0 1.0 0.0 0.2760413071977359 1:1.0 4:1.0 5:2.0 6:3.0 7:16.0 8:8.0 9:1.0 10:4.0 20:2.0 29:1.0 32:1.0 724:1.0 725:1.0 
-0.0 -0.0 1.0 0.0 0.0 4:1.0 5:2.0 6:1.0 7:5.0 8:5.0 10:1.0 17:1.0 
-0.24397596068290717 -0.23089201983944196 0.5083087141037466 0.0 0.15004690048943226 1:1.0 4:1.0 5:2.0 6:1.0 7:8.0 8:7.0 10:2.0 29:1.0 331:1.0 726:1.0 727:1.0 
-1.0 -1.0 1.0 0.0 1.0 4:1.0 5:2.0 6:1.0 7:10.0 8:9.0 10:1.0 17:1.0 58:1.0 
-0.0 -0.0 1.0 0.0 0.0 4:1.0 5:2.0 6:1.0 7:3.0 8:3.0 10:1.0 17:1.0 
-0.0 -0.08946600403896668 1.0 0.0 0.3009606471905757 4:1.0 5:2.0 6:1.0 7:10.0 8:10.0 10:1.0 29:1.0 248:1.0 666:1.0 
-0.008635258414785085 -0.0 0.0 0.0 0.09166840810732294 5:2.0 6:2.0 7:1.0 8:1.0 14:1.0 728:1.0 
-0.0 -0.0 1.0 0.0 0.0 4:1.0 5:2.0 6:1.0 7:9.0 8:7.0 10:3.0 17:1.0 
-0.0 -0.0 1.0 0.0 0.0 4:1.0 5:2.0 6:1.0 7:15.0 8:13.0 10:3.0 653:1.0 
-0.009870448308568818 -0.0 0.0 0.0 0.10183379875936824 5:2.0 6:1.0 7:6.0 8:4.0 10:1.0 14:1.0 58:2.0 633:1.0 
-0.04292656325072568 -0.0669239804382478 0.40338138365275655 0.0 0.09492237372317176 4:1.0 5:2.0 6:3.0 7:12.0 8:9.0 10:2.0 29:1.0 427:1.0 729:1.0 730:1.0 731:1.0 
-0.46078117615095715 -0.11055350273449875 0.16476643971537533 0.0 0.12667723092138522 5:2.0 6:1.0 7:12.0 8:11.0 10:1.0 14:1.0 16:1.0 732:1.0 
-0.0 -0.0 1.0 0.0 0.0 4:1.0 5:2.0 6:1.0 7:7.0 8:6.0 10:2.0 17:1.0 
-0.5001833567292222 -0.0 1.0 0.0 0.8845552811120385 4:1.0 5:2.0 6:1.0 7:14.0 8:12.0 10:3.0 17:1.0 
-1.0 -0.0 1.0 0.0 0.0 4:1.0 5:2.0 6:1.0 7:7.0 8:7.0 10:1.0 17:1.0 
-0.0 -1.0 0.0 0.0 0.0 5:2.0 6:1.0 7:6.0 8:6.0 10:1.0 17:1.0 208:1.0 
-0.0 -0.0 1.0 0.0 0.0 4:1.0 5:2.0 6:1.0 7:7.0 8:6.0 10:2.0 17:1.0 
-0.0 -0.0 1.0 0.0 0.0 4:1.0 5:2.0 6:2.0 7:5.0 8:4.0 10:1.0 17:1.0 
-0.0 -0.0 0.0 0.42285910484674955 0.0 4:1.0 5:2.0 6:1.0 7:8.0 8:8.0 10:1.0 653:1.0 
-0.08575788398540618 -0.1313273885746285 1.0 0.0 0.2563273795602259 4:1.0 5:2.0 6:1.0 7:6.0 8:6.0 10:1.0 29:1.0 733:1.0 734:1.0 
-0.07129070018839354 -1.0 0.0 0.0 0.0 5:2.0 6:2.0 7:8.0 8:6.0 10:1.0 11:1.0 54:1.0 628:1.0 
-0.0 -0.0 0.0 0.2761507529420975 0.0 5:2.0 6:1.0 7:4.0 8:3.0 10:1.0 14:1.0 16:1.0 23:1.0 633:1.0 
-0.17074046910748808 -0.26043260321599343 0.7136852722119353 0.0 0.2733691304606246 4:1.0 5:2.0 6:2.0 7:3.0 8:2.0 10:1.0 29:1.0 735:1.0 
-0.0 -0.3191529319737289 0.4919923026505832 0.03415046953827082 0.1707239110650968 4:1.0 5:2.0 6:1.0 7:3.0 8:3.0 10:1.0 29:1.0 158:1.0 
-1.0 -0.0 1.0 0.0 0.0 4:1.0 5:2.0 6:1.0 7:7.0 8:7.0 10:1.0 17:1.0 
-1.0 -0.0 1.0 0.0 0.0 4:1.0 5:2.0 6:1.0 7:7.0 8:7.0 10:1.0 17:1.0 
-0.04551471750371269 -0.0 1.0 0.0 0.0 4:1.0 5:2.0 6:1.0 7:13.0 8:11.0 10:3.0 17:1.0 
-1.0 -1.0 1.0 0.0 1.0 4:1.0 5:2.0 6:3.0 7:8.0 8:6.0 10:1.0 17:1.0 
-1.0 -0.0 0.0 0.0 0.0 5:2.0 6:1.0 7:5.0 8:4.0 10:1.0 14:1.0 16:1.0 158:1.0 
-0.0 -0.0 1.0 0.0 0.0 4:1.0 5:2.0 6:1.0 7:3.0 8:3.0 10:1.0 17:1.0 
-0.0 -0.0 0.1197668865298218 0.0 0.0 4:1.0 5:2.0 6:1.0 7:3.0 8:3.0 10:1.0 17:1.0 
-1.0 -0.0 0.0 0.0 1.0 4:1.0 5:2.0 6:4.0 7:10.0 8:5.0 10:3.0 17:1.0 
-0.0 -1.0 1.0 1.0 0.0 4:1.0 5:2.0 6:1.0 7:5.0 8:4.0 10:1.0 16:1.0 17:1.0 
-1.0 -1.0 1.0 0.0 0.0 4:1.0 5:2.0 6:1.0 7:8.0 8:8.0 10:1.0 17:1.0 
-0.11845341873752104 -0.0 0.0 0.0 0.0 5:2.0 6:1.0 7:8.0 8:7.0 10:1.0 14:1.0 58:1.0 634:1.0 
-0.732095587627108 -1.0 1.0 0.0 1.0 4:1.0 5:2.0 6:8.0 7:15.0 8:7.0 10:2.0 17:1.0 
-0.3240861935452326 -0.5021661214801754 0.6991813636848432 0.3729822383226458 0.5735265324625182 4:1.0 5:2.0 6:1.0 7:7.0 8:6.0 10:1.0 16:1.0 736:1.0 737:1.0 738:1.0 
-0.9766620405403125 -1.0 1.0 0.0 1.0 4:1.0 5:2.0 6:1.0 7:17.0 8:16.0 10:2.0 17:1.0 
-0.0 -1.0 0.0 0.0 0.0 4:1.0 5:2.0 6:3.0 7:4.0 8:2.0 10:1.0 17:1.0 
-1.0 -1.0 0.0 1.0 0.0 4:1.0 5:2.0 6:2.0 7:5.0 8:3.0 10:1.0 17:1.0 54:1.0 
-0.17169518036215256 -0.607778006626617 1.0 0.0 0.32573072058917657 4:1.0 5:2.0 6:4.0 7:9.0 8:6.0 10:1.0 29:1.0 522:1.0 
-1.0 -0.0 1.0 0.0 0.0 4:1.0 5:2.0 6:1.0 7:6.0 8:6.0 10:1.0 17:1.0 
-1.0 -0.10118318091849013 0.0 0.0 0.09017686910402435 5:2.0 6:1.0 7:5.0 8:4.0 10:1.0 14:1.0 16:1.0 739:1.0 
-0.0 -0.0 1.0 0.0 0.0 4:1.0 5:2.0 6:1.0 7:4.0 8:4.0 10:1.0 17:1.0 
-0.0 -0.0 1.0 0.0 0.0 4:1.0 5:2.0 6:1.0 7:5.0 8:5.0 10:1.0 17:1.0 
-0.0 -0.0 0.0 0.0 1.0 5:2.0 6:5.0 7:25.0 8:14.0 9:1.0 10:5.0 11:1.0 16:2.0 628:1.0 
-0.0 -0.0 1.0 0.0 0.0 4:1.0 5:2.0 6:1.0 7:4.0 8:4.0 10:1.0 17:1.0 
-0.0 -0.0 1.0 0.0 0.0 4:1.0 5:2.0 6:1.0 7:8.0 8:6.0 10:3.0 17:1.0 
-0.3494897077112399 -1.0 1.0 0.0 0.48088180838106753 4:1.0 5:2.0 6:1.0 7:9.0 8:7.0 9:1.0 10:2.0 29:1.0 91:1.0 115:1.0 740:1.0 
-0.1945831484374914 -0.3020478382986747 0.8179924277370988 0.0 0.3572488218066598 4:1.0 5:2.0 6:4.0 7:16.0 8:12.0 10:2.0 741:1.0 742:1.0 743:1.0 744:1.0 745:1.0 
-0.0 -0.8764144156363504 0.0 0.0 0.0 4:1.0 5:2.0 6:3.0 7:4.0 8:2.0 10:1.0 17:1.0 
-0.4969427523541909 -0.1179246951070035 0.26405927509121624 0.0 0.189546529019109 5:2.0 6:5.0 7:16.0 8:12.0 10:1.0 14:1.0 657:1.0 
-0.0 -0.0 0.0 1.0 0.0 4:1.0 5:2.0 6:3.0 7:10.0 8:5.0 10:3.0 16:1.0 653:1.0 
-0.17094899687360926 -0.2702933321859699 0.5610603155719364 0.0 0.3164335392886443 4:1.0 5:2.0 6:5.0 7:5.0 8:1.0 10:1.0 29:1.0 746:1.0 
-0.0 -0.0 0.4419551497266225 0.0 0.0 4:1.0 5:2.0 6:1.0 7:3.0 8:3.0 10:1.0 17:1.0 
-0.0 -0.0 0.0 1.0 0.0 4:1.0 5:2.0 6:1.0 7:3.0 8:3.0 10:1.0 653:1.0 
-0.18982111218461303 -0.28669551899912676 0.39967882067519955 0.0 0.46054859500122 5:2.0 6:3.0 7:10.0 8:8.0 10:1.0 23:1.0 282:1.0 496:1.0 673:1.0 
-1.0 -1.0 1.0 1.0 0.0 4:1.0 5:2.0 6:2.0 7:10.0 8:7.0 10:2.0 17:1.0 54:1.0 
-1.0 -0.0 1.0 0.0 0.0 4:1.0 5:2.0 6:1.0 7:6.0 8:6.0 10:1.0 17:1.0 
-0.0 -0.15119724058733064 0.0 0.0 0.0 4:1.0 5:2.0 6:3.0 7:4.0 8:2.0 10:1.0 17:1.0 
-1.0 -0.0 1.0 0.0 0.0 4:1.0 5:2.0 6:1.0 7:8.0 8:7.0 10:2.0 17:1.0 
-0.0 -1.0 1.0 0.0 0.8774547627574064 4:1.0 5:2.0 6:3.0 7:5.0 8:3.0 10:1.0 17:1.0 
-1.0 -1.0 1.0 0.0 1.0 4:1.0 5:2.0 6:1.0 7:10.0 8:10.0 10:1.0 17:1.0 
-0.0 -0.0 1.0 0.0 0.0 4:1.0 5:2.0 6:1.0 7:5.0 8:5.0 10:1.0 17:1.0 
-1.0 -0.0996150077847628 0.0 0.0 0.0 5:2.0 6:1.0 7:4.0 8:3.0 10:1.0 14:1.0 16:1.0 728:1.0 
-0.28603209803673585 -0.06879290220243506 0.5189465904906873 0.0 0.11564081099317239 4:1.0 5:2.0 6:4.0 7:16.0 8:12.0 10:2.0 29:1.0 30:1.0 747:1.0 748:1.0 749:1.0 
-0.17056590957657894 -0.2565324028367724 0.7134751375875164 0.09879101913872552 0.2572984438413498 4:1.0 5:2.0 6:1.0 7:2.0 8:2.0 10:1.0 29:1.0 750:1.0 
-1.0 -0.0 0.0 0.0 0.0 4:1.0 5:2.0 6:3.0 7:6.0 8:2.0 10:1.0 17:1.0 20:2.0 
-1.0 -0.0 1.0 0.0 1.0 4:1.0 5:2.0 6:2.0 7:14.0 8:11.0 10:3.0 17:1.0 
-0.0 -0.0 0.9330107038607615 0.0 0.0 4:1.0 5:2.0 6:1.0 7:3.0 8:3.0 10:1.0 17:1.0 
-0.8633291981224127 -0.0 0.7724066568432307 0.0 0.21069530712875623 5:2.0 6:3.0 7:19.0 8:15.0 9:1.0 10:1.0 14:1.0 16:1.0 634:1.0 
-0.3242575378027498 -0.5013122671660438 0.9888618515360906 0.0 0.7051904080685565 4:1.0 5:2.0 6:3.0 7:7.0 8:5.0 10:1.0 95:1.0 600:1.0 751:1.0 
-0.7354570000821513 -0.0 0.0 0.0 0.0 5:2.0 6:1.0 7:5.0 8:5.0 10:1.0 14:1.0 752:1.0 
-0.0 -0.2932157402857664 0.0 0.0 0.0 4:1.0 5:2.0 6:3.0 7:4.0 8:2.0 10:1.0 17:1.0 
-0.1707859994529323 -0.2579778116965831 0.8670595941740221 0.03405020112961625 0.26231977760493963 4:1.0 5:2.0 6:1.0 7:3.0 8:3.0 10:1.0 29:1.0 753:1.0 
-0.17966527035965568 -1.0 1.0 0.0 0.0 4:1.0 5:2.0 6:1.0 7:9.0 8:9.0 10:1.0 17:1.0 
-0.0 -0.0 0.20415855288067106 0.0 0.0 4:1.0 5:2.0 6:1.0 7:3.0 8:3.0 10:1.0 17:1.0 
-0.17099143959016735 -0.2619647318445191 0.8672593607078297 0.0 0.2784563287552268 4:1.0 5:2.0 6:2.0 7:4.0 8:3.0 10:1.0 29:1.0 754:1.0 
-0.007068547276637336 -0.07941767348730558 0.44891458491831404 0.0 0.25533566910299305 4:1.0 5:2.0 6:4.0 7:16.0 8:12.0 10:2.0 29:1.0 34:1.0 91:1.0 125:1.0 668:1.0 755:1.0 756:1.0 
-0.0 -0.0 1.0 0.0 0.0 4:1.0 5:2.0 6:1.0 7:15.0 8:11.0 10:5.0 17:1.0 
-0.08572686556525562 -0.1257947110847902 0.7803475607260819 0.0 0.13386448623022384 4:1.0 5:2.0 6:1.0 7:9.0 8:7.0 10:3.0 29:1.0 292:1.0 757:1.0 
-0.0 -0.0 0.0 1.0 0.0 4:1.0 5:2.0 6:1.0 7:3.0 8:3.0 10:1.0 653:1.0 
-0.0 -0.0 0.7449584971633211 0.0 0.8670251957850417 4:1.0 5:2.0 6:7.0 7:14.0 8:5.0 10:3.0 17:1.0 63:1.0 
-1.0 -1.0 1.0 0.0 0.0 4:1.0 5:2.0 6:1.0 7:9.0 8:9.0 10:1.0 17:1.0 
-0.7305000333569944 -1.0 1.0 0.0 0.0 4:1.0 5:2.0 6:2.0 7:7.0 8:6.0 10:1.0 17:1.0 
-1.0 -1.0 1.0 1.0 0.9773316549394123 4:1.0 5:2.0 6:1.0 7:10.0 8:9.0 10:1.0 17:1.0 54:1.0 
-0.0 -0.07464565532230621 0.3140713678411219 0.0 0.059370824521311545 4:1.0 5:2.0 6:6.0 7:14.0 8:9.0 10:1.0 29:1.0 528:1.0 758:1.0 759:1.0 760:1.0 
-0.0858010863763411 -0.13392228013298835 0.9990083304410621 0.0 0.14915425297312876 4:1.0 5:2.0 6:1.0 7:10.0 8:10.0 10:1.0 29:1.0 761:1.0 762:1.0 
-0.512951650859352 -0.0 0.0 0.0 0.0 5:2.0 6:4.0 7:10.0 8:7.0 10:1.0 14:1.0 657:1.0 
-1.0 -1.0 1.0 0.0 1.0 4:1.0 5:2.0 6:1.0 7:10.0 8:10.0 10:1.0 17:1.0 
-0.0 -1.0 0.0 0.0 0.0 5:2.0 6:1.0 7:4.0 8:4.0 10:1.0 17:1.0 208:1.0 
-0.0 -0.0 1.0 0.0 0.0 4:1.0 5:2.0 6:1.0 7:4.0 8:4.0 10:1.0 17:1.0 
-0.0 -0.0 1.0 0.0 0.0 4:1.0 5:2.0 6:1.0 7:4.0 8:4.0 10:1.0 17:1.0 
-0.0 -0.0 0.0 0.0 0.06705324128333569 5:2.0 6:1.0 7:9.0 8:7.0 10:1.0 14:1.0 16:1.0 407:1.0 633:1.0 
-0.5487769834166755 -0.0 0.0 0.0 0.0 5:2.0 6:1.0 7:8.0 8:8.0 10:1.0 14:1.0 732:1.0 
-0.0 -0.0 0.6872305264885195 0.0 0.0 4:1.0 5:2.0 6:2.0 7:4.0 8:3.0 10:1.0 17:1.0 
-0.0 -0.0 0.0 1.0 0.0 4:1.0 5:2.0 6:1.0 7:5.0 8:5.0 10:1.0 653:1.0 
-0.0 -0.0 0.6426089331485181 0.0 0.0 4:1.0 5:2.0 6:1.0 7:3.0 8:3.0 10:1.0 17:1.0 
-0.08570783421103967 -0.13055025045408594 0.5870891554730967 0.0 0.1361971133777579 4:1.0 5:2.0 6:1.0 7:5.0 8:5.0 10:1.0 29:1.0 763:1.0 764:1.0 
-0.9734163394344403 -0.0 0.301207313214122 0.0 0.0 4:1.0 5:2.0 6:3.0 7:11.0 8:8.0 10:1.0 20:1.0 653:1.0 
-0.1708092210861387 -0.2579850746075604 0.8670495365994354 0.034054506485968375 0.2623209686675083 4:1.0 5:2.0 6:1.0 7:3.0 8:3.0 10:1.0 29:1.0 765:1.0 
-0.0 -0.07090630462757551 0.0 1.0 0.0 5:2.0 6:1.0 7:10.0 8:6.0 10:2.0 11:1.0 16:3.0 628:1.0 
-0.05720969578085431 -0.1622537473345415 0.8634472504677676 0.0 0.26623228626679224 4:1.0 5:2.0 6:1.0 7:10.0 8:10.0 10:1.0 29:1.0 226:1.0 766:1.0 767:1.0 
-1.0 -1.0 1.0 0.0 1.0 4:1.0 5:2.0 6:3.0 7:6.0 8:4.0 10:1.0 17:1.0 
-0.17077822937842602 -0.2579784057154713 0.8670506686185125 0.03407476372378421 0.26232610272346696 4:1.0 5:2.0 6:1.0 7:3.0 8:3.0 10:1.0 29:1.0 768:1.0 
-0.0 -0.7724727291018285 0.0 1.0 0.9954779138118766 4:1.0 5:2.0 6:1.0 7:5.0 8:3.0 10:1.0 16:1.0 58:1.0 653:1.0 
-1.0 -0.0 1.0 0.0 0.0 4:1.0 5:2.0 6:1.0 7:7.0 8:7.0 10:1.0 17:1.0 
-0.0 -0.0 0.0 0.005372548829590825 0.0 4:1.0 5:2.0 6:1.0 7:2.0 8:2.0 10:1.0 17:1.0 
-0.0 -0.0 0.09578280479799897 0.0 0.0 4:1.0 5:2.0 6:2.0 7:4.0 8:3.0 10:1.0 17:1.0 
-0.044285804127442645 -0.0 0.0 0.0 0.0 5:2.0 6:1.0 7:7.0 8:6.0 10:1.0 14:1.0 407:1.0 651:1.0 
-0.0 -0.0 1.0 0.0 0.0 4:1.0 5:2.0 6:1.0 7:5.0 8:5.0 10:1.0 17:1.0 
-0.0 -1.0 0.0 0.0 0.0 5:2.0 6:1.0 7:6.0 8:4.0 10:3.0 17:1.0 208:1.0 
-2.6824593595650963E-4 -0.0038848668066430673 0.3008876052312266 0.0 0.016020045685270407 4:1.0 5:2.0 6:4.0 7:6.0 8:3.0 10:1.0 29:1.0 130:1.0 682:1.0 
-1.0 -0.0 0.0 0.0 0.0 4:1.0 5:2.0 6:3.0 7:8.0 8:4.0 10:3.0 17:1.0 
-1.0 -1.0 1.0 0.0 1.0 4:1.0 5:2.0 6:1.0 7:10.0 8:10.0 10:1.0 17:1.0 
-0.6468003119371842 -0.0 1.0 0.0 1.0 4:1.0 5:2.0 6:4.0 7:13.0 8:8.0 10:3.0 17:1.0 
-1.0 -0.7831401005753316 1.0 0.0 1.0 4:1.0 5:2.0 6:3.0 7:9.0 8:6.0 10:2.0 17:1.0 
-0.0 -0.0 1.0 0.0 0.0 4:1.0 5:2.0 6:1.0 7:8.0 8:6.0 10:3.0 17:1.0 
-1.0 -0.0 1.0 0.0 0.0 4:1.0 5:2.0 6:1.0 7:6.0 8:5.0 10:1.0 17:1.0 20:1.0 
-0.08580277923379677 -0.13443943535365993 0.5875884832132686 0.0 0.15228488682731117 4:1.0 5:2.0 6:3.0 7:7.0 8:5.0 10:1.0 29:1.0 309:1.0 769:1.0 
-0.17090753340260134 -0.2642956751414458 0.713954356824496 0.0 0.2894243025159396 4:1.0 5:2.0 6:3.0 7:4.0 8:2.0 10:1.0 29:1.0 770:1.0 
-1.0 -1.0 1.0 0.0 1.0 4:1.0 5:2.0 6:5.0 7:10.0 8:6.0 10:1.0 17:1.0 
-1.0 -0.0 1.0 0.0 0.0 4:1.0 5:2.0 6:1.0 7:6.0 8:6.0 10:1.0 17:1.0 
-0.576052231171285 -0.0 0.0 0.0 0.0 4:1.0 5:2.0 6:3.0 7:7.0 8:3.0 10:3.0 17:1.0 
-0.0 -0.08517081594827039 0.0 0.0 0.0 5:2.0 6:3.0 7:7.0 8:4.0 10:1.0 14:1.0 16:1.0 651:1.0 
-0.08589600537469531 -0.1303549278958644 0.8153817906795592 0.0 0.15511584797901512 4:1.0 5:2.0 6:1.0 7:5.0 8:4.0 10:1.0 29:1.0 58:1.0 771:1.0 772:1.0 
-0.0 -0.22786967585828338 0.34261731842854537 0.0 0.0 5:2.0 6:2.0 7:19.0 8:17.0 10:2.0 14:1.0 23:1.0 328:1.0 633:1.0 662:1.0 
-0.0 -0.0 1.0 0.0 0.0 4:1.0 5:2.0 6:1.0 7:3.0 8:3.0 10:1.0 17:1.0 
-0.0 -0.0 1.0 0.0 0.0 4:1.0 5:2.0 6:1.0 7:4.0 8:4.0 10:1.0 17:1.0 
-0.0 -0.0 1.0 0.0 0.0 4:1.0 5:2.0 6:1.0 7:5.0 8:5.0 10:1.0 17:1.0 
-0.057111188156530934 -0.08132765762544998 0.21316230949777218 0.0 0.11667298377473775 4:1.0 5:2.0 6:3.0 7:13.0 8:6.0 10:5.0 29:1.0 135:1.0 773:1.0 774:1.0 775:1.0 
-0.0 -0.0037186612821509153 0.5129372027833583 0.0 0.14531393631870418 4:1.0 5:2.0 6:2.0 7:9.0 8:8.0 10:1.0 29:1.0 158:1.0 255:1.0 776:1.0 777:1.0 
-0.0 -1.0 0.0 0.0 0.0 5:2.0 6:1.0 7:4.0 8:4.0 10:1.0 17:1.0 208:1.0 
-0.2262201583881076 -0.0 1.0 0.0 1.0 4:1.0 5:2.0 6:3.0 7:13.0 8:9.0 10:3.0 17:1.0 
-0.46843199102385485 -0.13177784449471136 0.5104606965826817 0.0 0.14167645982534807 4:1.0 5:2.0 6:2.0 7:5.0 8:4.0 10:1.0 29:1.0 174:1.0 778:1.0 
-0.28461134434826213 -0.0 0.7364140225644201 0.0 0.143065379668038 1:1.0 5:2.0 6:4.0 7:23.0 8:15.0 10:5.0 16:1.0 23:1.0 29:1.0 157:1.0 484:1.0 490:1.0 779:1.0 780:1.0 781:1.0 
-0.0 -0.0 1.0 0.0 0.0 4:1.0 5:2.0 6:1.0 7:8.0 8:6.0 10:3.0 17:1.0 
-0.0 -0.0 1.0 0.0 0.0 4:1.0 5:2.0 6:1.0 7:10.0 8:8.0 10:3.0 17:1.0 
-0.17135209426361733 -0.2635599658204652 1.0 0.0 0.28334498759479715 4:1.0 5:2.0 6:2.0 7:5.0 8:4.0 10:1.0 29:1.0 782:1.0 
-0.0 -0.0 0.0 0.17683323873343165 0.0 4:1.0 5:2.0 6:1.0 7:2.0 8:2.0 10:1.0 17:1.0 
-0.0 -0.0 0.0 1.0 0.0 4:1.0 5:2.0 6:1.0 7:5.0 8:3.0 10:3.0 653:1.0 
-1.0 -1.0 1.0 0.0 0.0 4:1.0 5:2.0 6:1.0 7:9.0 8:9.0 10:1.0 17:1.0 
-0.3242948792772604 -0.5042335752306187 0.7057473894349203 0.0 0.7639681662460183 4:1.0 5:2.0 6:5.0 7:10.0 8:6.0 10:1.0 783:1.0 784:1.0 785:1.0 
-0.0 -0.0 0.0 0.9219711981530087 0.0 4:1.0 5:2.0 6:1.0 7:2.0 8:2.0 10:1.0 17:1.0 
-0.0 -0.0 0.8884632616869376 0.0 0.0 5:2.0 6:1.0 7:16.0 8:15.0 10:2.0 11:1.0 628:1.0 
-0.1707786448955564 -0.2579811301933176 0.8670535082312124 0.034345446999660315 0.262328196839557 4:1.0 5:2.0 6:1.0 7:3.0 8:3.0 10:1.0 29:1.0 786:1.0 
-1.0 -0.0 1.0 0.0 1.0 4:1.0 5:2.0 6:1.0 7:10.0 8:8.0 10:2.0 17:1.0 58:1.0 
-0.2740784668919398 -0.09808605444058535 0.0 0.0 0.1038433479875816 5:2.0 6:1.0 7:8.0 8:8.0 10:1.0 14:1.0 752:1.0 
-0.06692956075560884 -0.7852047117715039 0.9173071683758351 0.0 0.26899459591384794 4:1.0 5:2.0 6:1.0 7:8.0 8:8.0 10:1.0 29:1.0 115:1.0 238:1.0 787:1.0 
-0.0 -0.0 1.0 0.0 0.0 4:1.0 5:2.0 6:1.0 7:3.0 8:3.0 10:1.0 17:1.0 
-0.1945602258790267 -0.525403803038508 1.0 0.0 0.45713354084608226 4:1.0 5:2.0 6:5.0 7:19.0 8:15.0 10:1.0 248:1.0 314:1.0 388:1.0 632:1.0 788:1.0 
-0.7316790121443043 -0.09581823134000562 1.0 0.0 0.434723691654547 1:1.0 4:1.0 5:2.0 6:1.0 7:5.0 8:4.0 10:2.0 29:1.0 789:1.0 
-0.7468116847905631 -1.0 1.0 0.0 1.0 5:2.0 6:2.0 7:7.0 8:6.0 10:1.0 23:1.0 181:1.0 695:1.0 
-0.0 -0.0 0.0 0.3234274778283608 0.7526749868529253 4:1.0 5:2.0 6:1.0 7:5.0 8:2.0 10:3.0 135:1.0 653:1.0 
-0.17153547537649885 -0.2640831643375738 1.0 0.0 0.28260201240161825 4:1.0 5:2.0 6:1.0 7:7.0 8:7.0 10:1.0 29:1.0 790:1.0 
-0.0 -0.0 1.0 0.0 0.49149217688151464 4:1.0 5:2.0 6:1.0 7:7.0 8:4.0 10:3.0 17:1.0 23:1.0 58:1.0 
-0.0 -0.0 1.0 0.0 0.0 4:1.0 5:2.0 6:1.0 7:10.0 8:8.0 10:3.0 17:1.0 
-1.0 -0.0 1.0 0.0 0.0 4:1.0 5:2.0 6:1.0 7:6.0 8:6.0 10:1.0 17:1.0 
-0.17078787338503487 -0.25799175198739005 0.8670358196848799 0.034137971164026865 0.2623242822048371 4:1.0 5:2.0 6:1.0 7:3.0 8:3.0 10:1.0 29:1.0 791:1.0 
-0.0 -0.0 0.08162709210554527 0.0 0.0 4:1.0 5:2.0 6:1.0 7:3.0 8:3.0 10:1.0 17:1.0 
-0.0 -1.0 0.0 0.0 0.0 5:2.0 6:1.0 7:6.0 8:6.0 10:1.0 17:1.0 208:1.0 
-1.0 -0.0 1.0 0.0 0.0 4:1.0 5:2.0 6:1.0 7:6.0 8:6.0 10:1.0 17:1.0 
-0.08572769593892215 -0.13369272372435737 1.0 0.0 0.14977955156461922 4:1.0 5:2.0 6:3.0 7:6.0 8:4.0 10:1.0 29:1.0 792:1.0 793:1.0 
-0.0818563908435697 -0.04233059534497534 0.7285464348062315 0.0 0.08702555824878955 4:1.0 5:2.0 6:1.0 7:6.0 8:4.0 10:1.0 20:1.0 29:1.0 794:1.0 795:1.0 796:1.0 
-0.028463411823792837 -0.0 0.0 0.0 0.0 5:2.0 6:1.0 7:13.0 8:10.0 10:2.0 14:1.0 16:1.0 407:1.0 634:1.0 
-1.0 -1.0 1.0 0.0 1.0 4:1.0 5:2.0 6:3.0 7:13.0 8:10.0 10:2.0 17:1.0 
-1.0 -0.0 1.0 0.0 0.0 4:1.0 5:2.0 6:1.0 7:6.0 8:6.0 10:1.0 17:1.0 
-0.05721882760067391 -0.09052271864535275 0.212527679576909 0.0 0.20088972434971855 4:1.0 5:2.0 6:3.0 7:9.0 8:7.0 10:1.0 29:1.0 694:1.0 797:1.0 798:1.0 
-0.0 -0.0 1.0 0.0 0.0 4:1.0 5:2.0 6:1.0 7:3.0 8:3.0 10:1.0 17:1.0 
-0.0 -0.4467052753576069 1.0 0.0 1.0 4:1.0 5:2.0 6:2.0 7:9.0 8:6.0 10:1.0 17:1.0 135:2.0 
-0.0 -0.0 0.0 0.08445294235359013 0.0 4:1.0 5:2.0 6:1.0 7:2.0 8:2.0 10:1.0 17:1.0 
-0.17055248241330725 -0.2565313752747288 0.7134750512057247 0.09884637749019776 0.25729517583031475 4:1.0 5:2.0 6:1.0 7:2.0 8:2.0 10:1.0 29:1.0 799:1.0 
-0.08585244365211049 -0.6406325979873774 0.8179841134687134 0.0 0.21295144177412814 4:1.0 5:2.0 6:2.0 7:9.0 8:8.0 10:1.0 29:1.0 252:1.0 800:1.0 
-0.0 -0.0 1.0 1.0 0.0 4:1.0 5:2.0 6:1.0 7:8.0 8:5.0 10:3.0 16:1.0 17:1.0 
-1.0 -0.0 1.0 0.0 0.0 4:1.0 5:2.0 6:1.0 7:7.0 8:7.0 10:1.0 17:1.0 
-0.0 -0.2586744744456077 1.0 0.0 0.2904426065195443 4:1.0 5:2.0 6:1.0 7:8.0 8:8.0 10:1.0 29:1.0 248:1.0 801:1.0 
-1.0 -0.0 1.0 0.0 0.0 4:1.0 5:2.0 6:1.0 7:7.0 8:7.0 10:1.0 17:1.0 
-1.0 -1.0 1.0 0.0 0.0 4:1.0 5:2.0 6:2.0 7:7.0 8:6.0 10:1.0 17:1.0 
-0.0 -0.0 0.18146933963629855 0.0 0.0 4:1.0 5:2.0 6:1.0 7:11.0 8:11.0 10:1.0 29:1.0 158:2.0 802:1.0 803:1.0 
-1.0 -1.0 1.0 0.0 0.0 4:1.0 5:2.0 6:1.0 7:7.0 8:7.0 10:1.0 17:1.0 
-0.15855149298182872 -0.0 1.0 0.0 0.0 4:1.0 5:2.0 6:1.0 7:5.0 8:5.0 10:1.0 17:1.0 
-0.0 -0.0 1.0 0.0 0.0 4:1.0 5:2.0 6:1.0 7:3.0 8:3.0 10:1.0 17:1.0 
-0.0 -0.0 0.0 0.8403473100766786 0.0 4:1.0 5:2.0 6:2.0 7:5.0 8:2.0 10:3.0 653:1.0 
-0.0 -1.0 1.0 0.0 0.0 4:1.0 5:2.0 6:3.0 7:5.0 8:3.0 10:1.0 17:1.0 
-0.10394347378751934 -0.0 1.0 0.0 0.0 4:1.0 5:2.0 6:2.0 7:10.0 8:7.0 10:3.0 17:1.0 
-0.03427463580150719 -1.0 0.0 0.5085495864570363 1.0 4:1.0 5:2.0 6:5.0 7:15.0 8:6.0 10:5.0 17:1.0 23:1.0 54:1.0 
-0.0 -1.0 1.0 0.0 0.0 4:1.0 5:2.0 6:3.0 7:5.0 8:3.0 10:1.0 17:1.0 
-0.0 -0.0 1.0 0.0 0.0 4:1.0 5:2.0 6:1.0 7:7.0 8:6.0 10:2.0 17:1.0 
-0.2556932906583881 -0.0 -0.1430242124760058 0.0 0.511860699904842 1:1.0 4:1.0 5:2.0 6:2.0 7:8.0 8:6.0 10:2.0 29:1.0 236:1.0 804:1.0 
-0.012061272539822573 -0.0 -0.0 0.0 0.23845641623106492 4:1.0 5:2.0 6:3.0 7:7.0 8:4.0 10:1.0 58:1.0 805:1.0 806:1.0 807:1.0 
-0.0 -1.0 -0.0 0.0 0.0 4:1.0 5:2.0 6:1.0 7:8.0 8:8.0 10:1.0 29:1.0 301:1.0 
-1.0 -1.0 -1.0 0.0 1.0 4:1.0 5:2.0 6:2.0 7:7.0 8:5.0 10:2.0 17:1.0 
-0.026985583474398913 -0.28550618295364966 -0.0 0.0 0.16147109473611895 4:1.0 5:2.0 6:2.0 7:9.0 8:8.0 10:1.0 455:1.0 808:1.0 809:1.0 
-1.0 -0.0 -1.0 0.0 1.0 4:1.0 5:2.0 6:2.0 7:11.0 8:8.0 10:3.0 17:1.0 
-0.0 -0.0 -0.5089419684481888 0.0 0.19480464794775953 4:1.0 5:2.0 6:2.0 7:7.0 8:5.0 9:1.0 10:1.0 646:1.0 647:1.0 810:1.0 
-0.04489819289461514 -0.1798222137343138 -1.0 0.0 0.6972314750991819 4:1.0 5:2.0 6:3.0 7:6.0 8:4.0 10:1.0 29:1.0 704:1.0 
-0.5706103184534518 -0.0 -0.0 0.0 0.0 4:1.0 5:2.0 6:1.0 7:10.0 8:8.0 10:2.0 15:1.0 29:1.0 58:1.0 91:1.0 811:1.0 
-0.013406906627204196 -0.03838698887560666 -0.06902386013790238 0.0 0.05414234824428986 4:1.0 5:2.0 6:2.0 7:6.0 8:5.0 10:1.0 515:1.0 812:1.0 813:1.0 
-0.0 -0.0329525225633763 -1.0 0.0 0.0 4:1.0 5:2.0 6:1.0 7:4.0 8:4.0 10:1.0 17:1.0 
-0.8682104008262302 -1.0 -1.0 0.0 1.0 4:1.0 5:2.0 6:5.0 7:11.0 8:7.0 10:1.0 17:1.0 
-0.16403076152994997 -0.6328973593549264 -0.34653033722601845 0.0 0.06706515686327848 4:1.0 5:2.0 6:2.0 7:8.0 8:6.0 9:1.0 10:1.0 53:1.0 646:1.0 647:1.0 814:1.0 
-1.0 -0.0 -1.0 0.0 0.0 4:1.0 5:2.0 6:1.0 7:7.0 8:7.0 10:1.0 17:1.0 
-0.0 -1.0 -1.0 1.0 0.0 4:1.0 5:2.0 6:2.0 7:4.0 8:3.0 10:1.0 17:1.0 
-0.14132887478220071 -0.8888662341468978 -0.0 0.13526517325848358 0.7167516930311996 4:1.0 5:2.0 6:1.0 7:8.0 8:7.0 10:1.0 54:1.0 74:1.0 316:1.0 742:1.0 
-0.0326934522729157 -0.48349573606952534 -0.0 0.0 0.6800742183782836 4:1.0 5:2.0 6:2.0 7:7.0 8:5.0 10:1.0 20:1.0 33:1.0 815:1.0 
-0.017780151067131697 -0.04378153219231887 -0.500827209343936 0.0 0.0 4:1.0 5:2.0 6:3.0 7:8.0 8:5.0 10:2.0 29:1.0 816:1.0 817:1.0 
-0.0 -0.019926493762779267 -0.11995624837644502 0.10024306803744636 0.6939444883619131 4:1.0 5:2.0 6:3.0 7:7.0 8:4.0 10:1.0 16:1.0 461:1.0 565:1.0 
-0.04443493612953454 -0.0 -0.9794381305707175 0.0 0.0 4:1.0 5:2.0 6:1.0 7:4.0 8:4.0 10:1.0 29:1.0 818:1.0 
-0.0 -0.1236350333985104 -0.0 0.0 0.09145847127954235 5:2.0 6:1.0 7:14.0 8:13.0 10:1.0 58:1.0 206:1.0 220:1.0 549:1.0 819:1.0 820:1.0 821:1.0 
-0.044465109699168226 -0.0 -0.9794529960688428 0.0 0.0 4:1.0 5:2.0 6:1.0 7:4.0 8:4.0 10:1.0 29:1.0 822:1.0 
-0.0 -0.010652042605722053 -0.8731820503731779 0.0 0.42144958871901067 4:1.0 5:2.0 6:3.0 7:8.0 8:4.0 10:3.0 29:1.0 314:1.0 582:1.0 
-0.09885234719084277 -0.7505568039146149 -0.0 0.0 0.2421687362591056 4:1.0 5:2.0 6:2.0 7:8.0 8:6.0 10:1.0 20:1.0 296:1.0 307:1.0 823:1.0 
-0.0 -0.0756826232826746 -0.0 0.0 0.033704090500931004 4:1.0 5:2.0 6:2.0 7:7.0 8:6.0 10:1.0 328:1.0 579:1.0 824:1.0 
-0.0 -0.0 -0.0 0.0 0.2753363768202376 4:1.0 5:2.0 6:3.0 7:13.0 8:9.0 10:1.0 20:1.0 135:1.0 461:1.0 825:1.0 826:1.0 827:1.0 
-0.0 -0.22081963529024604 -0.672865877627731 0.0 0.0 4:1.0 5:2.0 6:1.0 7:6.0 8:5.0 10:2.0 29:1.0 91:1.0 828:1.0 
-0.04425285406603053 -0.021509909634068455 -0.19736629944932615 0.0 0.0 4:1.0 5:2.0 6:5.0 7:13.0 8:6.0 9:1.0 10:1.0 29:1.0 63:2.0 829:1.0 830:1.0 831:1.0 
-0.026185851016394937 -0.03563179077538727 -0.06362842607887643 0.0 0.08953217732859481 4:1.0 5:2.0 6:1.0 7:8.0 8:6.0 10:3.0 832:1.0 833:2.0 
-0.0 -0.0 -0.0 0.0 0.11295924279689655 4:1.0 5:2.0 6:3.0 7:13.0 8:11.0 10:1.0 29:1.0 236:1.0 834:1.0 835:1.0 836:1.0 
-0.015065588350851273 -0.0371772481661682 -0.29015802118267736 0.0 0.09571953445795371 4:1.0 5:2.0 6:4.0 7:12.0 8:7.0 10:3.0 29:1.0 222:1.0 837:1.0 838:1.0 
-0.0 -0.053698813010967864 -0.0 0.0 0.46944458700234176 4:1.0 5:2.0 6:4.0 7:18.0 8:15.0 10:1.0 29:1.0 366:1.0 702:1.0 839:1.0 840:1.0 841:1.0 
-0.0 -0.0 -0.5248959627211748 0.0 0.5623849708909587 4:1.0 5:2.0 6:2.0 7:8.0 8:7.0 10:1.0 29:1.0 46:1.0 842:1.0 
-0.0338064068052352 -0.06987165008040151 -0.0 0.0 0.6168809292710032 4:1.0 5:2.0 6:3.0 7:16.0 8:11.0 10:4.0 381:1.0 535:1.0 843:1.0 844:1.0 
-0.0 -0.0 -0.0 0.0 0.9591376543222732 5:2.0 6:1.0 7:6.0 8:5.0 10:2.0 56:1.0 206:1.0 847:1.0 
-1.0 -0.5191031832205353 -0.3640374220545715 0.0 0.8739916863935653 4:1.0 5:2.0 6:3.0 7:6.0 8:4.0 10:1.0 86:1.0 
-0.06752404866746842 -0.30505385525971007 -0.10489102150758588 0.0 0.5074506685329236 4:1.0 5:2.0 6:4.0 7:8.0 8:5.0 10:1.0 848:1.0 849:1.0 
-0.01691591361989362 -0.0 -0.0 0.0 0.10684103261805003 4:1.0 5:2.0 6:1.0 7:7.0 8:6.0 10:1.0 58:1.0 824:1.0 850:1.0 851:1.0 
-0.02230921605207051 -0.08993090022050966 -0.5662032544731227 0.0 0.05719079902430164 4:1.0 5:2.0 6:3.0 7:5.0 8:3.0 10:1.0 29:1.0 854:1.0 855:1.0 
-0.06746564649510361 -0.0 -0.2635208177918836 0.0 0.3100012149323345 4:1.0 5:2.0 6:2.0 7:9.0 8:7.0 9:1.0 10:1.0 29:1.0 368:1.0 856:1.0 
-0.549909114192476 -0.0 -0.0 0.0 0.0 4:1.0 5:2.0 6:1.0 7:9.0 8:9.0 10:1.0 86:1.0 
-0.0 -0.06573446082740042 -0.14938756243456952 0.0 0.0 4:1.0 5:2.0 6:1.0 7:6.0 8:6.0 10:1.0 226:1.0 852:1.0 
-0.0 -0.0 -1.0 0.0 0.0 4:1.0 5:2.0 6:1.0 7:7.0 8:6.0 10:1.0 17:1.0 58:1.0 
-0.3331375936445112 -0.02110156864300286 -0.0 0.0 0.45205056815590056 5:2.0 6:1.0 7:8.0 8:8.0 10:1.0 61:1.0 121:1.0 176:1.0 206:1.0 
-1.0 -1.0 -1.0 0.0 1.0 4:1.0 5:2.0 6:4.0 7:8.0 8:5.0 10:1.0 17:1.0 
-0.13448567866843536 -1.0 -0.5183033713138895 0.0 1.0 4:1.0 5:2.0 6:2.0 7:4.0 8:3.0 10:1.0 423:1.0 
-0.0 -0.018886720629960045 -0.09133035764586227 0.0 0.0 4:1.0 5:2.0 6:1.0 7:14.0 8:10.0 10:5.0 127:1.0 522:1.0 680:1.0 858:1.0 859:1.0 860:1.0 
-0.016008906148920924 -0.23688994602964195 -0.4357710143401823 0.016526052838785596 0.47577682937205845 4:1.0 5:2.0 6:3.0 7:7.0 8:3.0 10:3.0 426:1.0 861:1.0 
-0.0 -0.0 -1.0 0.0 0.0 4:1.0 5:2.0 6:1.0 7:5.0 8:5.0 10:1.0 17:1.0 
-0.19807638384630968 -0.16179017292105816 -0.10973409836780215 0.0 0.3949495412190222 1:1.0 4:1.0 5:2.0 6:8.0 7:15.0 8:7.0 10:2.0 145:1.0 528:1.0 862:1.0 863:1.0 864:1.0 
-0.0 -0.006864493874343951 -1.0 0.0 0.0 4:1.0 5:2.0 6:1.0 7:6.0 8:6.0 10:1.0 17:1.0 
-1.2189689349280721E-4 -0.0 -1.0 0.0 1.0 4:1.0 5:2.0 6:1.0 7:29.0 8:22.0 10:8.0 17:1.0 
-0.0 -0.12215635459662436 -0.0 0.0 0.7498909923723895 4:1.0 5:2.0 6:3.0 7:8.0 8:6.0 10:1.0 430:1.0 534:1.0 865:1.0 
-0.08388984995114346 -0.09314534323110767 -0.0 0.2654062804235548 0.17221392836684524 1:1.0 5:2.0 6:1.0 7:12.0 8:5.0 10:3.0 16:5.0 206:1.0 866:1.0 867:1.0 868:1.0 869:1.0 
-0.0 -0.0 -1.0 0.0 0.0 4:1.0 5:2.0 6:1.0 7:10.0 8:10.0 10:1.0 17:1.0 
-0.0 -0.0 -1.0 0.0 0.0 4:1.0 5:2.0 6:1.0 7:9.0 8:9.0 10:1.0 17:1.0 
-1.0 -1.0 -1.0 0.0 1.0 4:1.0 5:2.0 6:3.0 7:6.0 8:4.0 10:1.0 17:1.0 
-0.0 -0.0 -1.0 0.0 0.0 4:1.0 5:2.0 6:1.0 7:4.0 8:4.0 10:1.0 17:1.0 
-1.0 -0.12880137818751514 -1.0 0.0 0.0 4:1.0 5:2.0 6:1.0 7:7.0 8:7.0 10:1.0 17:1.0 
-0.0 -0.3002945361680246 -0.0 0.0 0.42849498535204894 4:1.0 5:2.0 6:1.0 7:15.0 8:14.0 10:1.0 16:1.0 61:1.0 371:1.0 461:1.0 873:1.0 
-1.0 -0.0 -1.0 0.0 0.0 4:1.0 5:2.0 6:1.0 7:8.0 8:7.0 10:2.0 17:1.0 
-0.030467140452953588 -0.0 -0.13085258926441673 0.0 0.894471187004273 4:1.0 5:2.0 6:2.0 7:9.0 8:8.0 10:1.0 29:1.0 31:1.0 878:1.0 
-0.044406776981575774 -0.0 -0.9794521900574155 0.0 0.0 4:1.0 5:2.0 6:1.0 7:4.0 8:4.0 10:1.0 29:1.0 879:1.0 
-0.0 -0.14515520391029074 -0.0 0.0 0.49857867103544046 5:2.0 6:2.0 7:9.0 8:8.0 10:1.0 206:1.0 880:1.0 881:1.0 
-0.033787903068375945 -0.10985074569676616 -0.01988424014913999 0.0 0.22480027582865414 4:1.0 5:2.0 6:3.0 7:10.0 8:7.0 10:2.0 882:1.0 883:1.0 884:1.0 885:1.0 
-0.0 -0.0 -1.0 0.0 0.0 4:1.0 5:2.0 6:1.0 7:5.0 8:5.0 10:1.0 17:1.0 
-0.0 -0.0 -1.0 0.0 0.0 4:1.0 5:2.0 6:1.0 7:8.0 8:8.0 10:1.0 17:1.0 
-0.0 -0.0 -1.0 0.0 0.0 4:1.0 5:2.0 6:1.0 7:8.0 8:8.0 10:1.0 17:1.0 
-0.0 -0.0 -0.0 0.0 0.3182751107910459 4:1.0 5:2.0 6:4.0 7:18.0 8:13.0 9:1.0 10:2.0 29:1.0 66:1.0 236:1.0 886:1.0 887:1.0 888:1.0 889:1.0 
-0.07422878136342362 -0.21838289045885384 -0.07734486184486329 0.09165253776637612 0.3069370424214214 4:1.0 5:2.0 6:1.0 7:6.0 8:5.0 10:1.0 16:1.0 892:1.0 893:1.0 
-0.014966160249226918 -0.21151008062935842 -0.2742595955222759 0.0 0.2669384038643023 4:1.0 5:2.0 6:8.0 7:12.0 8:5.0 10:1.0 29:1.0 894:1.0 895:1.0 896:1.0 
-0.06747381546276 -0.16829795466141106 -0.0 0.0 0.31159563431311094 4:1.0 5:2.0 6:1.0 7:7.0 8:7.0 10:1.0 897:1.0 898:1.0 
-0.0 -0.16468792831231377 -0.0 0.04758200647593632 0.19132548731252536 5:2.0 6:1.0 7:10.0 8:8.0 10:2.0 16:1.0 23:1.0 192:1.0 901:1.0 902:1.0 
-0.17656685538187175 -0.2864478066923909 -0.054757401023028625 0.0 0.2218813554625518 1:1.0 4:1.0 5:2.0 6:2.0 7:12.0 8:10.0 10:2.0 553:1.0 761:1.0 878:1.0 904:1.0 
-0.0 -0.0 -0.0 0.0 0.5533686529843208 4:1.0 5:2.0 6:3.0 7:13.0 8:9.0 10:2.0 20:1.0 236:1.0 805:1.0 880:1.0 905:1.0 
-0.0 -0.7059913296245317 -1.0 0.0 0.0 4:1.0 5:2.0 6:1.0 7:6.0 8:6.0 10:1.0 17:1.0 
-0.11664008468285489 -0.3363292001781173 -0.5453788993189626 0.04608536990926796 0.3910447376488903 5:2.0 6:4.0 7:9.0 8:4.0 10:3.0 23:1.0 301:1.0 629:1.0 906:1.0 
-0.0 -0.23941441704735525 -0.18702450835258985 0.0 0.16534138427573433 4:1.0 5:2.0 6:2.0 7:7.0 8:5.0 10:2.0 29:1.0 91:1.0 236:1.0 907:1.0 
-0.17601215429184475 -0.0 -0.8436332468534566 0.04387527561838532 0.0 4:1.0 5:2.0 6:2.0 7:6.0 8:2.0 9:1.0 10:2.0 20:1.0 29:1.0 33:1.0 815:1.0 
-0.0 -1.0 -0.0 0.0 1.0 4:1.0 5:2.0 6:3.0 7:10.0 8:6.0 10:3.0 29:1.0 236:1.0 277:1.0 
-0.0 -0.0 -1.0 0.14074873219007408 1.0 4:1.0 5:2.0 6:1.0 7:4.0 8:3.0 10:1.0 17:1.0 135:1.0 
-0.015011973288608836 -0.026653099771567976 -0.43252356248672263 0.0 0.02062178067014894 4:1.0 5:2.0 6:3.0 7:9.0 8:7.0 10:1.0 29:1.0 292:1.0 908:1.0 909:1.0 
-0.021854830740293086 -1.0 -1.0 0.0 0.0 4:1.0 5:2.0 6:2.0 7:7.0 8:6.0 10:1.0 17:1.0 
-0.030279987894602067 -0.0 -0.9794520072895959 0.0 0.0 4:1.0 5:2.0 6:1.0 7:4.0 8:4.0 10:1.0 29:1.0 911:1.0 
-0.056117555642961045 -0.0 -1.0 0.0 0.0 4:1.0 5:2.0 6:1.0 7:8.0 8:8.0 10:1.0 17:1.0 
-0.09255505198899243 -0.21887235300592695 -0.011650206453141817 0.0 0.5113118528912527 4:1.0 5:2.0 6:4.0 7:6.0 8:3.0 10:1.0 159:1.0 912:1.0 
-0.1747997375084037 -0.2860472946850419 -0.1113134999850675 0.010556397082991926 0.5102594088855256 5:2.0 6:3.0 7:6.0 8:4.0 10:1.0 23:1.0 382:1.0 913:1.0 
-1.0 -1.0 -1.0 0.0 0.4772148648859103 4:1.0 5:2.0 6:2.0 7:7.0 8:5.0 10:2.0 17:1.0 
-0.0 -0.0 -0.0 0.0 0.3803951801795418 5:2.0 6:2.0 7:17.0 8:9.0 10:5.0 20:3.0 32:2.0 33:1.0 56:1.0 206:1.0 914:1.0 915:1.0 
-0.0 -0.0 -0.07567569576922306 0.0 0.0 4:1.0 5:2.0 6:3.0 7:9.0 8:6.0 10:1.0 16:1.0 29:1.0 32:1.0 56:1.0 916:1.0 
-0.0057380707440716034 -0.0 -0.0 0.0 0.3650726870219479 4:1.0 5:2.0 6:1.0 7:10.0 8:9.0 9:1.0 10:1.0 29:1.0 917:1.0 918:1.0 919:1.0 
-0.042638068259772226 -0.0 -0.3118918600221758 0.0 0.23503498649795085 4:1.0 5:2.0 6:3.0 7:10.0 8:7.0 9:1.0 10:1.0 226:1.0 677:1.0 725:1.0 920:1.0 
-0.43603640698599433 -0.1347321560381163 -0.8751163453630657 0.024751877682959944 0.3730090181388929 4:1.0 5:2.0 6:2.0 7:6.0 8:3.0 10:3.0 111:1.0 921:1.0 
-0.0 -0.0 -0.33741158526175613 0.0 0.0 4:1.0 5:2.0 6:1.0 7:16.0 8:16.0 10:1.0 17:1.0 
-0.07299000589263023 -0.0 -0.04015942363694741 0.0 0.44104724473810214 1:1.0 4:1.0 5:2.0 6:4.0 7:16.0 8:11.0 10:3.0 366:1.0 668:1.0 874:1.0 922:1.0 923:1.0 
-0.033753235009666295 -0.15227576349814712 -0.0 0.0 0.18048192954064887 4:1.0 5:2.0 6:4.0 7:12.0 8:9.0 10:1.0 887:1.0 924:1.0 925:1.0 926:1.0 
-0.06750076026638176 -0.1682546668265957 -0.0 0.0 0.31471191050141745 4:1.0 5:2.0 6:1.0 7:8.0 8:8.0 10:1.0 927:1.0 928:1.0 
-1.0 -0.2695557925398602 -1.0 0.0 0.0 4:1.0 5:2.0 6:1.0 7:7.0 8:7.0 10:1.0 17:1.0 
-0.0 -0.0 -0.014888905555302274 0.0 0.0 4:1.0 5:2.0 6:1.0 7:6.0 8:6.0 10:1.0 123:1.0 158:1.0 742:1.0 
-0.008435303962401615 -0.0 -0.0037571495652398115 0.0 0.04653198124676226 4:1.0 5:2.0 6:4.0 7:14.0 8:9.0 10:1.0 20:1.0 63:1.0 528:1.0 805:1.0 931:1.0 932:1.0 933:1.0 
-0.08049079095330691 -0.0 -0.0 0.0 0.3177819849333753 1:1.0 4:1.0 5:2.0 6:5.0 7:21.0 8:15.0 10:2.0 16:1.0 32:1.0 588:1.0 934:1.0 935:1.0 936:1.0 937:1.0 
-0.0 -0.031012380748638057 -0.0 0.0 0.41287620870919417 4:1.0 5:2.0 6:1.0 7:12.0 8:12.0 10:1.0 236:1.0 660:1.0 938:1.0 939:1.0 940:1.0 
-0.0 -1.0 -0.0 0.0 1.0 4:1.0 5:2.0 6:2.0 7:19.0 8:18.0 10:1.0 17:1.0 
-0.0 -0.6695187822092571 -0.0 0.0 0.0 4:1.0 5:2.0 6:1.0 7:11.0 8:11.0 10:1.0 29:1.0 39:1.0 56:1.0 318:1.0 331:1.0 
-0.05398517138326944 -0.16865846184848293 -0.0 0.0 0.5445392877628041 4:1.0 5:2.0 6:2.0 7:7.0 8:6.0 10:1.0 941:1.0 942:1.0 
-0.027044166640467462 -0.09037003298553993 -0.12902688119047145 0.0 0.33980791911611796 4:1.0 5:2.0 6:3.0 7:8.0 8:5.0 10:2.0 941:1.0 943:1.0 944:1.0 
