svm_type c_svc
kernel_type linear
nr_class 6
total_sv 1704
rho 1.548439684336491 0.9335709767281863 1.047321407230698 0.251405626699435 1.8681659527146373 0.061589250498365514 0.5151802695923356 0.1528256135991843 4.947809875809737E-4 0.2237161247534921 -0.338243927551833 -0.2674550631225548 -0.040509985194343234 0.34941996843283624 -0.43031718178714756
label 1 2 3 4 5 6
probA -1.748415328710255 -1.6804855437680428 -1.6960714367520944 -2.115397013943925 -1.6111598179118447 -1.4085170287228048 -2.4890707120970075 -2.4122854304273758 -2.8485945972086455 -1.9636169521885887 -2.201239201380788 -2.4185791551883042 -1.993646537543566 -2.0512942016579916 -2.413721740981794
probB 1.0402333822567627 1.312338014687824 1.0882373603671938 0.6378572675749662 0.9200639800752751 0.2674603150407083 0.49579186936773245 0.6290523546148209 0.7501909518466598 0.16258203649776845 0.29759801962140303 0.3239660563402268 -0.30153946868421505 -0.3798629428893711 0.6521657958977921
nr_sv 31 338 574 316 274 171
SV
2.0 1.4402998273695067 2.0 2.0 0.9498190273539808 1:1.0 2:1.0 3:2.0 4:4.0 5:9.0 6:4.0 7:3.0 
0.0 2.0 2.0 2.0 0.0 2:1.0 3:2.0 4:1.0 5:13.0 6:9.0 7:3.0 8:1.0 9:2.0 
1.4084968471378108 0.8377462681641717 0.8947664964944417 0.6124391282701735 0.803178511803728 2:1.0 3:2.0 4:1.0 5:5.0 6:4.0 7:2.0 10:1.0 11:1.0 12:1.0 13:1.0 
2.0 0.0 0.0 0.0 0.0 1:1.0 2:1.0 3:2.0 4:2.0 5:10.0 6:7.0 7:2.0 9:1.0 
2.0 0.0 0.0 0.0 0.0 1:1.0 2:1.0 3:2.0 4:1.0 5:3.0 6:2.0 7:1.0 9:1.0 
2.0 2.0 2.0 2.0 2.0 2:1.0 3:2.0 4:1.0 5:5.0 6:4.0 7:1.0 8:1.0 9:1.0 
1.774368239184985 0.09667649778141711 0.094848144382212 0.0 0.0 1:1.0 2:1.0 3:2.0 4:1.0 5:11.0 6:8.0 7:3.0 14:1.0 
1.999593587119298 0.0 0.0 0.0 0.0 1:1.0 2:1.0 3:2.0 4:1.0 5:3.0 6:2.0 7:1.0 9:1.0 
2.0 2.0 2.0 2.0 2.0 2:1.0 3:2.0 4:4.0 5:11.0 6:8.0 7:1.0 8:1.0 
2.0 2.0 2.0 2.0 2.0 2:1.0 3:2.0 4:4.0 5:9.0 6:6.0 7:1.0 8:1.0 
1.1125832351857343 0.0 0.0 0.0 0.0 1:1.0 2:1.0 3:2.0 4:1.0 5:8.0 6:7.0 7:1.0 9:1.0 
2.0 2.0 2.0 2.0 1.4988085026700315 2:1.0 3:2.0 4:1.0 5:2.0 6:1.0 7:1.0 8:1.0 9:1.0 
2.0 2.0 2.0 2.0 2.0 2:1.0 3:2.0 4:1.0 5:2.0 6:1.0 7:1.0 8:1.0 9:1.0 
2.0 2.0 2.0 2.0 2.0 2:1.0 3:2.0 4:1.0 5:2.0 6:1.0 7:1.0 8:1.0 9:1.0 
0.4658767807066855 0.8127114439408345 0.6749038410119568 0.23938974796039908 0.2275880960286762 3:2.0 5:5.0 6:5.0 7:1.0 9:1.0 10:1.0 13:1.0 15:1.0 16:1.0 
2.0 0.0 0.0 0.0 0.0 1:1.0 2:1.0 3:2.0 4:1.0 5:11.0 6:7.0 7:3.0 9:1.0 17:1.0 
0.9951700636791918 2.0 1.1031381072881337 0.5435627964882076 0.4553126988597183 3:2.0 4:1.0 5:7.0 6:5.0 7:2.0 9:1.0 10:1.0 13:1.0 18:1.0 
2.0 2.0 2.0 2.0 2.0 2:1.0 3:2.0 4:3.0 5:11.0 6:7.0 7:3.0 8:1.0 
2.0 0.502452178392449 0.0 0.0 0.2937430796622381 1:1.0 2:1.0 3:2.0 4:1.0 5:4.0 6:4.0 7:1.0 
1.9996601211312368 2.0 2.0 2.0 2.0 2:1.0 3:2.0 4:1.0 5:2.0 6:1.0 7:1.0 8:1.0 9:1.0 
2.0 2.0 2.0 2.0 2.0 2:1.0 3:2.0 4:1.0 5:16.0 6:13.0 7:3.0 8:1.0 9:1.0 
2.0 0.0 0.0 0.0 0.07020306617561668 1:1.0 2:1.0 3:2.0 4:1.0 5:4.0 6:3.0 7:1.0 19:1.0 
2.0 2.0 2.0 2.0 2.0 2:1.0 3:2.0 4:4.0 5:8.0 6:5.0 7:1.0 8:1.0 
2.0 0.0 0.0 0.0 0.0024239931658584174 1:1.0 2:1.0 3:2.0 4:1.0 5:8.0 6:6.0 7:3.0 
0.3772551364611243 0.04573583822598564 0.40206062160292655 0.1549264189661888 1.1769737442980968 1:1.0 2:1.0 3:2.0 4:1.0 5:11.0 6:8.0 7:2.0 19:2.0 
0.648981637249679 0.0 0.0 0.0 0.0 1:1.0 2:1.0 3:2.0 4:1.0 5:4.0 6:3.0 7:1.0 9:1.0 
2.0 2.0 2.0 2.0 2.0 2:1.0 3:2.0 4:1.0 5:10.0 6:8.0 7:2.0 8:1.0 17:1.0 
2.0 2.0 2.0 2.0 2.0 2:1.0 3:2.0 4:1.0 5:11.0 6:11.0 7:1.0 8:1.0 
1.3998291772126878 0.8819266688520888 2.0 0.4931426228876035 2.0 3:2.0 4:1.0 5:11.0 6:8.0 7:3.0 9:1.0 20:1.0 21:1.0 
1.9903531600789317 0.0 0.0 0.0 0.0 1:1.0 2:1.0 3:2.0 4:1.0 5:4.0 6:3.0 7:1.0 9:1.0 
1.0 0.0 0.0 0.0 0.0 1:1.0 2:1.0 3:2.0 4:1.0 5:5.0 6:4.0 7:1.0 9:1.0 
-0.0 0.0 0.0 0.0 0.22338723938040916 2:1.0 3:2.0 4:1.0 5:5.0 6:5.0 7:1.0 10:1.0 24:1.0 
-0.0 0.6548336375046463 0.12374189938603239 0.03761061857218844 0.07439297873126437 2:1.0 3:2.0 4:3.0 5:8.0 6:5.0 7:2.0 10:1.0 26:1.0 27:1.0 28:1.0 
-0.0 2.0 0.0 0.0 0.0 2:1.0 3:2.0 4:1.0 5:4.0 6:4.0 7:1.0 8:1.0 
-0.0 2.0 2.0 0.0 1.9889164938480222 2:1.0 3:2.0 4:4.0 5:13.0 6:8.0 7:3.0 8:1.0 
-0.0 0.0 0.0 2.0 0.0 3:2.0 4:1.0 5:4.0 6:4.0 7:1.0 8:1.0 31:1.0 
-0.0 0.0 0.0 0.0 2.0 2:1.0 3:2.0 4:2.0 5:2.0 6:1.0 7:1.0 8:1.0 
-0.0 2.0 0.0 0.0 0.0 2:1.0 3:2.0 4:1.0 5:7.0 6:7.0 7:1.0 8:1.0 
-0.0 2.0 0.0 0.0 0.0 2:1.0 3:2.0 4:1.0 5:6.0 6:6.0 7:1.0 8:1.0 
-0.0 0.0 0.0 2.0 0.02796728898538926 3:2.0 4:1.0 5:4.0 6:4.0 7:1.0 8:1.0 31:1.0 
-0.0 0.9437357141286554 0.35466294840239276 0.16013990415810278 0.29244087712952227 2:1.0 3:2.0 4:5.0 5:17.0 6:10.0 7:3.0 10:1.0 32:1.0 33:1.0 34:1.0 35:1.0 36:1.0 
-0.0 2.0 0.0 0.0 0.0 2:1.0 3:2.0 4:1.0 5:4.0 6:4.0 7:1.0 8:1.0 
-2.0 2.0 0.0 2.0 0.0 2:1.0 3:2.0 4:1.0 5:4.0 6:3.0 7:1.0 8:1.0 9:1.0 
-0.0 0.2556553077498672 0.1412151019979364 0.0 0.050231106934398514 2:1.0 3:2.0 4:4.0 5:12.0 6:8.0 7:2.0 10:1.0 38:1.0 39:1.0 40:1.0 41:1.0 
-0.0 0.764237783122569 0.31989060899143074 0.18618117152081826 0.22322737855982838 2:1.0 3:2.0 4:3.0 5:4.0 6:2.0 7:1.0 10:1.0 42:1.0 
-0.0 0.7284371346628609 0.0 0.0 0.0 3:2.0 4:2.0 5:19.0 6:17.0 7:2.0 13:1.0 23:1.0 43:1.0 44:1.0 45:1.0 
-0.0 2.0 2.0 2.0 2.0 2:1.0 3:2.0 4:1.0 5:11.0 6:11.0 7:1.0 8:1.0 
-0.0 0.7644250830940983 0.19067739582641458 0.11412241689084514 0.22321935055384468 2:1.0 3:2.0 4:1.0 5:3.0 6:3.0 7:1.0 10:1.0 46:1.0 
-0.0 0.0 0.0 0.018887076642023694 0.0027891438931714183 2:1.0 3:2.0 4:1.0 5:9.0 6:8.0 7:2.0 10:1.0 39:1.0 47:1.0 48:2.0 
-0.0 0.0 0.0 0.0 0.9859653372738744 3:2.0 4:2.0 5:11.0 6:10.0 7:1.0 23:1.0 49:1.0 
-0.20543321828526112 0.0 0.0 0.0 0.0 1:1.0 2:1.0 3:2.0 4:3.0 5:4.0 6:2.0 7:1.0 
-0.0 2.0 2.0 2.0 2.0 2:1.0 3:2.0 4:3.0 5:9.0 6:7.0 7:1.0 8:1.0 
-0.0 0.0 0.0 0.0 0.244562318146826 3:2.0 4:1.0 5:5.0 6:5.0 7:1.0 23:1.0 50:1.0 
-0.2832589847704527 1.5414949161699334 1.0714238298341145 0.5195991518023618 0.23934503090781875 2:1.0 3:2.0 4:5.0 5:10.0 6:5.0 7:1.0 9:1.0 10:1.0 51:1.0 52:1.0 
-0.0 0.7644784783198447 0.19067834973556813 0.11411948922494006 0.22323892051210972 2:1.0 3:2.0 4:1.0 5:3.0 6:3.0 7:1.0 10:1.0 53:1.0 
-0.0 2.0 0.0 0.0 0.0 2:1.0 3:2.0 4:1.0 5:10.0 6:8.0 7:3.0 8:1.0 
-0.0 2.0 0.0 2.0 0.0 2:1.0 3:2.0 4:3.0 5:5.0 6:3.0 7:1.0 8:1.0 
-0.0 2.0 2.0 2.0 1.9701293477141775 2:1.0 3:2.0 4:4.0 5:5.0 6:2.0 7:1.0 8:1.0 
-0.0 2.0 2.0 2.0 0.0 2:1.0 3:2.0 4:3.0 5:8.0 6:6.0 7:1.0 8:1.0 
-0.0 0.4070572896832179 0.494889913302898 0.07153837644620317 0.04799887550318917 2:1.0 3:2.0 4:3.0 5:13.0 6:6.0 7:5.0 10:1.0 55:1.0 56:1.0 57:1.0 58:1.0 
-2.0 2.0 0.0 2.0 0.0 2:1.0 3:2.0 4:1.0 5:8.0 6:6.0 7:2.0 8:1.0 9:1.0 
-0.0 2.0 0.0 0.0 0.0 2:1.0 3:2.0 4:1.0 5:7.0 6:7.0 7:1.0 8:1.0 
-0.0 0.0 0.0 0.0 2.0 3:2.0 4:1.0 5:5.0 6:4.0 7:1.0 9:1.0 23:1.0 59:1.0 
-0.0 2.0 0.0 2.0 0.0 2:1.0 3:2.0 4:2.0 5:7.0 6:6.0 7:1.0 8:1.0 
-0.0 2.0 0.0 0.0 0.3053179409306033 2:1.0 3:2.0 4:1.0 5:10.0 6:8.0 7:3.0 8:1.0 
-0.029098287532066752 2.0 0.0 0.0 0.0 2:1.0 3:2.0 4:1.0 5:6.0 6:6.0 7:1.0 8:1.0 
-0.016272638976384958 0.0 0.0 0.2411431527738712 0.13469012286759088 2:1.0 3:2.0 4:1.0 5:6.0 6:4.0 7:2.0 9:1.0 10:1.0 47:1.0 60:1.0 61:1.0 
-0.0 0.7644433639319713 0.1906777404290196 0.11413500671777642 0.22321119909477774 2:1.0 3:2.0 4:1.0 5:3.0 6:3.0 7:1.0 10:1.0 62:1.0 
-0.0 0.0 0.0 0.0 0.14423436535577966 2:1.0 3:2.0 4:1.0 5:2.0 6:1.0 7:1.0 10:1.0 58:1.0 63:1.0 
-0.23662018672585314 2.0 0.0 0.0 0.0 2:1.0 3:2.0 4:1.0 5:5.0 6:5.0 7:1.0 8:1.0 
-0.0 0.7644258354909033 0.19068165013162194 0.11413260002529416 0.22324744975647226 2:1.0 3:2.0 4:1.0 5:3.0 6:3.0 7:1.0 10:1.0 64:1.0 
-0.0 2.0 0.0 0.0 0.0 2:1.0 3:2.0 4:1.0 5:4.0 6:4.0 7:1.0 8:1.0 
-0.0 2.0 0.0 0.0 0.0 2:1.0 3:2.0 4:1.0 5:7.0 6:6.0 7:2.0 8:1.0 
-0.0 0.0 0.0 0.0 0.40849763789767385 3:2.0 4:1.0 5:8.0 6:8.0 7:1.0 23:1.0 65:1.0 
-0.0 0.0 0.0 2.0 0.0 2:1.0 3:2.0 4:3.0 5:4.0 6:2.0 7:1.0 8:1.0 
-0.07531438095223024 0.41921180588509666 0.0 0.012757863493775999 0.09718090887675876 2:1.0 3:2.0 4:2.0 5:11.0 6:9.0 7:1.0 10:1.0 19:1.0 66:1.0 67:1.0 
-0.0 1.7727842099651048 0.6676053786207031 0.11973535538632545 0.41608955570953815 2:1.0 3:2.0 4:3.0 5:11.0 6:8.0 7:1.0 10:1.0 17:1.0 68:1.0 69:1.0 70:1.0 
-0.0 0.0 0.0 0.0 0.5774358914310682 3:2.0 4:1.0 5:12.0 6:11.0 7:1.0 9:1.0 23:1.0 65:1.0 
-0.0 0.43760099331534935 0.09840665753377882 0.016434048872575987 0.0 2:1.0 3:2.0 4:2.0 5:9.0 6:8.0 7:1.0 10:1.0 48:1.0 59:1.0 71:1.0 72:1.0 
-0.0 2.0 0.0 0.0 0.0 2:1.0 3:2.0 4:2.0 5:4.0 6:3.0 7:1.0 8:1.0 
-0.0 2.0 0.0 0.0 0.0 2:1.0 3:2.0 4:1.0 5:4.0 6:4.0 7:1.0 8:1.0 
-0.0 0.0 0.0 2.0 0.1224889189539366 3:2.0 4:3.0 5:5.0 6:3.0 7:1.0 8:1.0 31:1.0 
-0.0 1.012373115989338 0.5420943373669644 0.4404535186311867 0.2508510213041871 2:1.0 3:2.0 4:1.0 5:7.0 6:7.0 7:1.0 73:1.0 74:1.0 75:1.0 
-0.0 0.0 0.003441032223991285 0.0 0.0 2:1.0 3:2.0 4:3.0 5:5.0 6:3.0 7:1.0 10:1.0 76:1.0 
-0.0 2.0 0.0 0.0 0.0 2:1.0 3:2.0 4:1.0 5:5.0 6:5.0 7:1.0 8:1.0 
-2.0 0.0 0.0 0.0 2.0 2:1.0 3:2.0 4:1.0 5:7.0 6:3.0 7:3.0 8:1.0 9:1.0 17:1.0 
-0.0 0.49017324901954623 0.011266695046597242 0.3363244303469435 0.0420049439725767 2:1.0 3:2.0 4:3.0 5:8.0 6:5.0 7:2.0 10:1.0 47:1.0 77:1.0 78:1.0 
-0.0 2.0 0.24987882206866088 0.0 2.0 2:1.0 3:2.0 4:1.0 5:13.0 6:11.0 7:3.0 8:1.0 
-0.0 2.0 0.0 0.0 0.0 2:1.0 3:2.0 4:1.0 5:5.0 6:5.0 7:1.0 8:1.0 
-0.0 1.0339075481827376 0.21121145713222217 0.10752899086422361 0.11172545197110283 2:1.0 3:2.0 4:1.0 5:5.0 6:4.0 7:1.0 10:1.0 36:1.0 79:1.0 80:1.0 
-0.7309924133333533 2.0 2.0 1.5079906301975687 0.7525495643180292 2:1.0 3:2.0 4:7.0 5:15.0 6:6.0 7:3.0 9:1.0 81:1.0 
-0.0 2.0 0.0 0.0 0.0 2:1.0 3:2.0 4:1.0 5:6.0 6:6.0 7:1.0 8:1.0 
-0.0 2.0 0.0 2.0 2.0 2:1.0 3:2.0 4:1.0 5:9.0 6:9.0 7:1.0 8:1.0 
-0.0 0.0 0.0 0.0 0.9877206197689286 3:2.0 4:1.0 5:23.0 6:19.0 7:5.0 23:1.0 29:1.0 
-0.0 2.0 0.0 0.0 0.0 2:1.0 3:2.0 4:1.0 5:7.0 6:7.0 7:1.0 8:1.0 
-0.0 0.6527240396279516 0.31006028978011546 0.0 0.07067973396790041 2:1.0 3:2.0 4:3.0 5:10.0 6:7.0 7:1.0 10:1.0 82:1.0 83:1.0 84:1.0 85:1.0 
-0.5519551910857146 2.0 1.1602767028585317 0.5101729431209909 0.6194931899230113 2:1.0 3:2.0 4:4.0 5:14.0 6:6.0 7:2.0 9:2.0 10:1.0 17:1.0 52:1.0 54:1.0 86:1.0 87:1.0 
-0.4874519411416137 2.0 0.0 0.0 0.0 2:1.0 3:2.0 4:1.0 5:5.0 6:5.0 7:1.0 8:1.0 
-0.0058386358526514946 0.0 0.0 0.0 0.0 2:1.0 3:2.0 4:1.0 5:2.0 6:2.0 7:1.0 8:1.0 
-0.0 2.0 2.0 2.0 2.0 2:1.0 3:2.0 4:1.0 5:17.0 6:16.0 7:2.0 8:1.0 
-0.0 0.32045344003254805 0.0 0.3074621607119102 0.041885622732413884 2:1.0 3:2.0 4:2.0 5:6.0 6:4.0 7:2.0 10:1.0 47:1.0 88:1.0 89:1.0 
-0.0 2.0 1.2604195793773763 2.0 2.0 2:1.0 3:2.0 4:1.0 5:11.0 6:10.0 7:1.0 8:1.0 17:1.0 
-0.0 0.03508898608890633 0.11521481119722624 0.0 0.07431032180629363 2:1.0 3:2.0 4:4.0 5:7.0 6:2.0 7:3.0 10:1.0 90:1.0 91:1.0 92:1.0 
-1.067649394970013E-4 0.0 0.0 0.0 0.0 2:1.0 3:2.0 4:1.0 5:3.0 6:3.0 7:1.0 8:1.0 
-0.0 2.0 1.5052731770739223 2.0 2.0 2:1.0 3:2.0 4:1.0 5:9.0 6:9.0 7:1.0 8:1.0 
-0.0 0.06417658888353932 0.07278958710539335 0.0 0.0 3:2.0 4:5.0 5:16.0 6:12.0 7:1.0 23:1.0 29:1.0 
-0.013412669865193577 2.0 0.0 0.0 0.0 2:1.0 3:2.0 4:1.0 5:4.0 6:4.0 7:1.0 8:1.0 
-0.0 0.8134061130215088 0.40541710678116694 0.5033694540449054 0.03435660858941945 2:1.0 3:2.0 4:1.0 5:8.0 6:8.0 7:1.0 10:1.0 93:1.0 94:1.0 95:1.0 
-0.0 2.0 0.37239238431915656 2.0 0.0 2:1.0 3:2.0 4:3.0 5:5.0 6:3.0 7:1.0 8:1.0 
-0.0 0.538231516572957 0.16521037788018736 0.09970587473824027 0.2233062691708203 2:1.0 3:2.0 4:1.0 5:2.0 6:2.0 7:1.0 10:1.0 96:1.0 
-0.11587365628528294 0.7229979276636449 0.24133107047668345 0.0 0.4535291409776191 3:2.0 4:4.0 5:23.0 6:15.0 7:5.0 9:1.0 10:1.0 13:1.0 97:1.0 98:1.0 99:1.0 100:1.0 101:1.0 102:1.0 103:1.0 
-0.0 2.0 0.0 1.1628510867511404 1.4194832396552362 1:1.0 2:1.0 3:2.0 4:3.0 5:11.0 6:8.0 7:1.0 17:1.0 
-0.0 2.0 0.0 2.0 0.0 2:1.0 3:2.0 4:2.0 5:7.0 6:6.0 7:1.0 8:1.0 
-0.0 0.5411481008430198 0.13922840585491936 0.0 0.22282027565557652 2:1.0 3:2.0 4:1.0 5:5.0 6:3.0 7:3.0 10:1.0 104:1.0 
-1.4799015514295017 0.0 0.0 0.0 0.0 1:1.0 2:1.0 3:2.0 4:1.0 5:4.0 6:4.0 7:1.0 
-0.2262356312232244 1.690274690264501 0.34103109157730516 0.0 0.1124844886058998 2:1.0 3:2.0 4:1.0 5:6.0 6:3.0 7:3.0 8:1.0 105:1.0 
-0.0 1.2892967100948103 0.6911180592158437 0.6017945379902844 0.15090733148248642 2:1.0 3:2.0 4:5.0 5:19.0 6:15.0 7:1.0 106:1.0 107:1.0 108:1.0 109:1.0 110:1.0 
-0.0 0.2843009806674824 0.2632036324254557 0.10439088896211828 0.15679504445094175 3:2.0 4:4.0 5:10.0 6:7.0 7:1.0 13:1.0 111:1.0 112:1.0 113:1.0 
-1.0075926163017275 0.5316196518397766 0.0 0.23920666222849984 0.0036416880609360575 2:1.0 3:2.0 4:2.0 5:16.0 6:11.0 7:2.0 9:3.0 10:1.0 39:1.0 47:1.0 114:1.0 115:1.0 116:1.0 
-0.0018110334251801423 0.0 0.0 0.0 0.0 2:1.0 3:2.0 4:1.0 5:2.0 6:2.0 7:1.0 8:1.0 
-0.0 2.0 1.9142568124164197 0.43865358892789225 0.0 2:1.0 3:2.0 4:1.0 5:2.0 6:1.0 7:1.0 8:1.0 36:1.0 
-2.0 0.0 0.0 0.0 0.0 2:1.0 3:2.0 4:1.0 5:8.0 6:5.0 7:3.0 8:1.0 9:1.0 
-0.0 2.0 1.3514487972953704 0.8956202336932493 0.0 3:2.0 4:2.0 5:17.0 6:14.0 7:1.0 19:1.0 22:1.0 23:1.0 58:1.0 
-0.733222578753008 2.0 0.0 2.0 0.0 2:1.0 3:2.0 4:2.0 5:6.0 6:5.0 7:1.0 8:1.0 
-1.4229723785765858 2.0 0.0 1.7955008492347002 2.0 2:1.0 3:2.0 4:1.0 5:6.0 6:5.0 7:1.0 8:1.0 17:1.0 
-0.0 2.0 2.0 0.0 2.0 2:1.0 3:2.0 4:3.0 5:11.0 6:8.0 7:2.0 8:1.0 
-0.0 0.0 2.0 2.0 1.6776009563561047 2:1.0 3:2.0 4:4.0 5:4.0 6:1.0 7:1.0 8:1.0 
-0.0 2.0 2.0 0.0 2.0 2:1.0 3:2.0 4:1.0 5:13.0 6:12.0 7:2.0 8:1.0 
-0.0 1.8121873295698783 1.0252806693001242 1.0604556574094406 0.6262703260412802 2:1.0 3:2.0 4:2.0 5:13.0 6:10.0 7:2.0 19:1.0 67:1.0 117:1.0 
-0.0 2.0 2.0 2.0 2.0 2:1.0 3:2.0 4:1.0 5:9.0 6:9.0 7:1.0 8:1.0 
-0.0 2.0 0.0 2.0 0.31016719920777713 2:1.0 3:2.0 4:1.0 5:8.0 6:8.0 7:1.0 8:1.0 
-2.0 2.0 2.0 2.0 1.33451918343289 2:1.0 3:2.0 4:5.0 5:16.0 6:8.0 7:4.0 8:1.0 9:1.0 
-0.0 0.9111912863513183 0.40462151689032494 0.2417474039151893 0.11174999696308137 2:1.0 3:2.0 4:1.0 5:7.0 6:7.0 7:1.0 10:1.0 118:1.0 119:1.0 
-0.0 2.0 0.0 2.0 0.0 2:1.0 3:2.0 4:2.0 5:7.0 6:6.0 7:1.0 8:1.0 
-0.0013358106399132222 0.0 0.0 0.0 0.0 2:1.0 3:2.0 4:1.0 5:3.0 6:3.0 7:1.0 8:1.0 
-0.0032269366675921414 0.0 0.0 0.0 0.0 2:1.0 3:2.0 4:1.0 5:2.0 6:2.0 7:1.0 8:1.0 
-0.0 2.0 2.0 2.0 0.0 2:1.0 3:2.0 4:3.0 5:6.0 6:4.0 7:1.0 8:1.0 
-2.0 2.0 2.0 1.21401311243384 0.6214220668699305 2:1.0 3:2.0 4:1.0 5:14.0 6:11.0 7:3.0 8:1.0 9:1.0 
-0.0 0.0 0.0 0.0 2.0 2:1.0 3:2.0 4:2.0 5:2.0 6:1.0 7:1.0 8:1.0 
-0.0 2.0 2.0 2.0 0.11022652557162281 2:1.0 3:2.0 4:2.0 5:5.0 6:3.0 7:1.0 8:1.0 36:1.0 
-0.0 0.5913592810125841 0.0967135144064663 0.0 0.0 2:1.0 3:2.0 4:1.0 5:11.0 6:11.0 7:1.0 10:1.0 59:2.0 120:1.0 121:1.0 
-0.0 2.0 0.0 0.0 0.0 3:2.0 4:1.0 5:35.0 6:32.0 7:4.0 20:1.0 25:1.0 
-0.07240469357022442 2.0 0.0 2.0 0.0 2:1.0 3:2.0 4:1.0 5:7.0 6:7.0 7:1.0 8:1.0 
-0.0 2.0 2.0 0.0 2.0 2:1.0 3:2.0 4:2.0 5:14.0 6:11.0 7:3.0 8:1.0 
-0.0 0.9318129810375604 0.29377777646519393 0.3585027603262096 0.6909715477322255 2:1.0 3:2.0 4:4.0 5:12.0 6:6.0 7:3.0 9:1.0 10:1.0 47:1.0 98:1.0 122:1.0 123:1.0 124:1.0 
-0.0 0.3725740574457217 0.3493406509662881 0.569705856221064 0.822887718164121 3:2.0 4:3.0 5:13.0 6:9.0 7:2.0 13:1.0 19:1.0 84:1.0 113:1.0 125:1.0 
-0.0 1.6755072233272308 0.35006585423404357 0.546740104689274 0.12052626457051376 2:1.0 3:2.0 4:1.0 5:11.0 6:11.0 7:1.0 10:1.0 60:1.0 94:1.0 126:1.0 
-0.0 2.0 0.0 0.0 0.0 2:1.0 3:2.0 4:1.0 5:4.0 6:4.0 7:1.0 8:1.0 
-0.0 2.0 0.5985432123677967 0.14299802919678506 0.22329156844058462 2:1.0 3:2.0 4:1.0 5:5.0 6:5.0 7:1.0 10:1.0 127:1.0 
-0.3529258359049741 0.0 0.0 0.0 0.0 1:1.0 2:1.0 3:2.0 4:1.0 5:4.0 6:3.0 7:1.0 36:1.0 
-0.0 2.0 0.0 2.0 0.0 2:1.0 3:2.0 4:2.0 5:7.0 6:6.0 7:1.0 8:1.0 
-0.0 0.0 0.0 1.4412661023684064 2.0 2:1.0 3:2.0 4:3.0 5:3.0 6:1.0 7:1.0 8:1.0 
-0.0 2.0 0.0 1.8960321448534179 1.0969914619573944 2:1.0 3:2.0 4:3.0 5:4.0 6:2.0 7:1.0 10:1.0 128:1.0 
-0.37619402327851204 2.0 0.0 0.0 0.0 2:1.0 3:2.0 4:1.0 5:6.0 6:6.0 7:1.0 8:1.0 
-9.740669884832549E-5 0.0 0.0 0.0 0.0 2:1.0 3:2.0 4:1.0 5:3.0 6:3.0 7:1.0 8:1.0 
-0.0 2.0 1.9703371086536403 0.0 1.3051563026606956 2:1.0 3:2.0 4:1.0 5:2.0 6:1.0 7:1.0 8:1.0 36:1.0 
-0.0 2.0 2.0 0.0 0.0 2:1.0 3:2.0 4:3.0 5:9.0 6:6.0 7:2.0 8:1.0 
-0.0 2.0 2.0 2.0 2.0 2:1.0 3:2.0 4:1.0 5:11.0 6:11.0 7:1.0 8:1.0 
-0.0 0.0 0.0 0.0 2.0 2:1.0 3:2.0 4:2.0 5:2.0 6:1.0 7:1.0 8:1.0 
-0.0 0.7641969988743529 0.3198685508340897 0.1860841297818217 0.22324731371713336 2:1.0 3:2.0 4:3.0 5:4.0 6:2.0 7:1.0 10:1.0 129:1.0 
-0.0 0.8346686590583459 0.33715985283701677 0.15810254157942577 0.11181770515957824 2:1.0 3:2.0 4:5.0 5:9.0 6:5.0 7:1.0 10:1.0 130:1.0 131:1.0 
-7.361960223181205E-5 2.0 0.0 0.0 0.0 2:1.0 3:2.0 4:1.0 5:4.0 6:4.0 7:1.0 8:1.0 
-0.0 2.0 2.0 2.0 2.0 2:1.0 3:2.0 4:1.0 5:9.0 6:9.0 7:1.0 8:1.0 
-0.0 0.7780736675605329 0.43586698218529113 0.17251189949715678 0.11182411932487415 2:1.0 3:2.0 4:6.0 5:9.0 6:4.0 7:1.0 10:1.0 132:1.0 133:1.0 
-0.0 2.0 0.0 0.0 0.0 2:1.0 3:2.0 4:1.0 5:9.0 6:7.0 7:3.0 8:1.0 
-0.0 2.0 0.0 2.0 2.0 2:1.0 3:2.0 4:1.0 5:8.0 6:8.0 7:1.0 8:1.0 
-0.0 2.0 0.0 0.0 0.0 2:1.0 3:2.0 4:1.0 5:9.0 6:7.0 7:3.0 8:1.0 
-2.0 0.0 0.0 0.0 0.0 1:1.0 2:1.0 3:2.0 4:1.0 5:4.0 6:4.0 7:1.0 
-0.0 0.7024591588928369 0.0 0.09751041618864599 0.0 2:1.0 3:2.0 4:3.0 5:12.0 6:10.0 7:1.0 10:1.0 113:1.0 134:1.0 135:1.0 
-0.0 2.0 2.0 2.0 2.0 2:1.0 3:2.0 4:2.0 5:9.0 6:8.0 7:1.0 8:1.0 
-0.0 1.6700442368828254 0.29360349240583933 0.17195228883921446 0.22351282659203367 2:1.0 3:2.0 4:1.0 5:7.0 6:7.0 7:1.0 10:1.0 137:1.0 
-0.0 2.0 0.0 0.0 0.0 2:1.0 3:2.0 4:1.0 5:5.0 6:5.0 7:1.0 8:1.0 
-6.340413352553333E-5 0.0 0.0 0.0 0.0 2:1.0 3:2.0 4:1.0 5:2.0 6:2.0 7:1.0 8:1.0 
-0.0 0.5382330172889409 0.16513539867112967 0.09969950290766796 0.2233417533763497 2:1.0 3:2.0 4:1.0 5:2.0 6:2.0 7:1.0 10:1.0 37:1.0 
-0.0 0.0 0.0 0.0 1.862204051658939 2:1.0 3:2.0 4:1.0 5:2.0 6:2.0 7:1.0 8:1.0 
-2.0 1.0556604286813724 0.0 1.1291087470021903 0.23898908844770472 2:1.0 3:2.0 4:1.0 5:3.0 6:2.0 7:2.0 8:1.0 13:1.0 
-0.0 2.0 0.0 0.0 0.0 2:1.0 3:2.0 4:1.0 5:4.0 6:4.0 7:1.0 8:1.0 
-0.0 0.09531364345266338 0.06361184510950275 0.0 0.07428504170633826 2:1.0 3:2.0 4:1.0 5:9.0 6:6.0 7:4.0 10:1.0 138:1.0 139:1.0 140:1.0 
-0.0 2.0 0.0 0.0 0.0 3:2.0 4:1.0 5:16.0 6:16.0 7:1.0 23:1.0 43:1.0 
-0.0 2.0 0.0 0.0 0.0 2:1.0 3:2.0 4:1.0 5:4.0 6:4.0 7:1.0 8:1.0 
-0.0 2.0 0.0 2.0 2.0 2:1.0 3:2.0 4:1.0 5:8.0 6:8.0 7:1.0 8:1.0 
-0.0 2.0 2.0 2.0 2.0 2:1.0 3:2.0 4:1.0 5:9.0 6:9.0 7:1.0 8:1.0 
-0.8937157046668706 0.0 0.0 0.0 0.0 3:2.0 4:1.0 5:9.0 6:7.0 7:1.0 9:2.0 23:1.0 30:1.0 
-0.0 0.2468611108744739 0.04520679146378532 0.0 0.36977545311072557 2:1.0 3:2.0 4:1.0 5:6.0 6:5.0 7:2.0 10:1.0 141:1.0 142:1.0 
-0.0 2.0 0.0 2.0 0.0 2:1.0 3:2.0 4:2.0 5:7.0 6:6.0 7:1.0 8:1.0 
-0.0 0.0 0.0 0.0 2.0 2:1.0 3:2.0 4:1.0 5:2.0 6:2.0 7:1.0 8:1.0 
-0.0 0.5518988296770074 0.14687644851330808 0.08584615453366563 0.489256540114882 2:1.0 3:2.0 4:2.0 5:5.0 6:4.0 7:1.0 10:1.0 143:1.0 144:1.0 
-0.0 2.0 2.0 2.0 2.0 2:1.0 3:2.0 4:1.0 5:29.0 6:27.0 7:3.0 8:1.0 
-0.0 0.7132365607478084 0.12174994354542525 0.02925316263167841 0.0 2:1.0 3:2.0 4:1.0 5:9.0 6:9.0 7:1.0 10:1.0 59:1.0 145:1.0 146:1.0 
-2.0 0.0 0.0 0.0 0.0 1:1.0 2:1.0 3:2.0 4:1.0 5:3.0 6:3.0 7:1.0 
-0.6271236756906586 2.0 1.685141236954743 0.0 1.9487505121583434E-4 2:1.0 3:2.0 4:1.0 5:7.0 6:5.0 7:3.0 8:1.0 13:1.0 
-0.0 1.1656017085324102 0.0 0.0 0.0 2:1.0 3:2.0 4:1.0 5:3.0 6:3.0 7:1.0 8:1.0 
-0.0 0.9295422666390525 1.3481196175982286 1.4758322533759243 0.7752788301611679 3:2.0 4:3.0 5:3.0 6:1.0 7:1.0 13:1.0 147:1.0 
-0.0 2.0 0.0 0.0 0.0 2:1.0 3:2.0 4:2.0 5:10.0 6:7.0 7:3.0 8:1.0 
-0.0 0.0 0.0 2.0 0.0 2:1.0 3:2.0 4:3.0 5:4.0 6:2.0 7:1.0 8:1.0 
-0.0 0.0 0.0 0.0 0.9854755019847747 3:2.0 4:1.0 5:3.0 6:3.0 7:1.0 23:1.0 148:1.0 
-0.0 0.011759484463021259 0.0 0.0 0.0 1:1.0 2:1.0 3:2.0 4:1.0 5:8.0 6:8.0 7:1.0 
-0.0 0.0 0.0 0.3844911762080201 0.0 3:2.0 4:3.0 5:9.0 6:6.0 7:1.0 19:1.0 23:1.0 30:1.0 
-0.0 0.3752187765909174 0.025070700293232287 0.15374146870923155 0.8244941895758673 2:1.0 3:2.0 4:3.0 5:13.0 6:9.0 7:3.0 10:1.0 47:1.0 149:1.0 150:1.0 151:1.0 152:1.0 
-0.0 2.0 0.0 0.0 0.0 2:1.0 3:2.0 4:1.0 5:6.0 6:6.0 7:1.0 8:1.0 
-0.0 1.04695240812471 0.3330390953865175 0.6482777808405524 0.5573726634012283 2:1.0 3:2.0 4:2.0 5:9.0 6:8.0 7:1.0 10:1.0 153:1.0 154:1.0 
-0.0 0.9139537579991139 1.0781702746696442 0.3823877813911094 0.22605752172263036 2:1.0 3:2.0 4:3.0 5:11.0 6:8.0 7:2.0 10:1.0 155:1.0 156:1.0 157:1.0 158:1.0 
-0.07418487577539944 0.0 0.0 0.0 0.0 1:1.0 2:1.0 3:2.0 4:2.0 5:5.0 6:4.0 7:1.0 
-0.0 0.0 0.0 0.0 2.0 2:1.0 3:2.0 4:1.0 5:2.0 6:2.0 7:1.0 8:1.0 
-2.0 0.0 0.0 0.0 0.0 1:1.0 2:1.0 3:2.0 4:1.0 5:3.0 6:3.0 7:1.0 
-0.0 2.0 0.0 0.0 0.0 2:1.0 3:2.0 4:1.0 5:3.0 6:3.0 7:1.0 8:1.0 
-0.0 2.0 2.0 2.0 0.0 2:1.0 3:2.0 4:3.0 5:6.0 6:4.0 7:1.0 8:1.0 
-1.4593665802137465 0.0 0.0 0.0 0.0 1:1.0 2:1.0 3:2.0 4:1.0 5:5.0 6:5.0 7:1.0 
-1.6545713873154502 0.0 0.0 0.0 0.0 1:1.0 2:1.0 3:2.0 4:1.0 5:5.0 6:5.0 7:1.0 
-0.0 2.0 0.0 0.0 0.0 2:1.0 3:2.0 4:1.0 5:9.0 6:7.0 7:3.0 8:1.0 
-0.0 2.0 0.0 0.0 0.0 2:1.0 3:2.0 4:1.0 5:4.0 6:4.0 7:1.0 8:1.0 
-2.0 2.0 0.0 2.0 0.0 2:1.0 3:2.0 4:1.0 5:5.0 6:4.0 7:1.0 8:1.0 9:1.0 
-0.0 0.0012479215641401774 0.0 2.0 0.11463272596587859 3:2.0 4:1.0 5:6.0 6:6.0 7:1.0 8:1.0 31:1.0 
-0.0 1.1814610485306818 0.0 0.0 2.0 3:2.0 4:1.0 5:13.0 6:11.0 7:1.0 17:2.0 23:1.0 43:1.0 
-6.833146885682484E-4 2.0 0.0 0.0 0.0 2:1.0 3:2.0 4:1.0 5:6.0 6:6.0 7:1.0 8:1.0 
-0.9164514868531611 0.0 0.010930832046350156 0.0 0.0 3:2.0 4:5.0 5:25.0 6:14.0 7:5.0 9:2.0 20:1.0 25:1.0 54:1.0 
-0.0 2.0 0.0 0.0 1.097006308974036 2:1.0 3:2.0 4:1.0 5:10.0 6:8.0 7:3.0 8:1.0 
-0.0 2.0 0.0 0.0 0.0 2:1.0 3:2.0 4:1.0 5:3.0 6:3.0 7:1.0 8:1.0 
-0.0 0.35873260371177074 0.19859754739716892 0.06357347396684765 0.11155133905096887 2:1.0 3:2.0 4:4.0 5:7.0 6:3.0 7:2.0 10:1.0 159:1.0 160:1.0 
-0.0 0.6511755722190087 0.24255327878781968 0.14297985419030879 0.2232203234669397 2:1.0 3:2.0 4:2.0 5:3.0 6:2.0 7:1.0 10:1.0 161:1.0 
-0.022714117392264588 2.0 0.0 0.0 0.0 2:1.0 3:2.0 4:2.0 5:5.0 6:4.0 7:1.0 8:1.0 
-0.0 0.0 0.0 0.0 0.26899845732923167 3:2.0 4:3.0 5:11.0 6:7.0 7:2.0 17:1.0 20:1.0 25:1.0 
-0.3777168108821487 2.0 0.0 0.0 2.0 2:1.0 3:2.0 4:1.0 5:4.0 6:3.0 7:1.0 8:1.0 17:1.0 
-0.0 0.0 0.0 2.0 0.0 3:2.0 4:1.0 5:9.0 6:7.0 7:3.0 8:1.0 31:1.0 
-0.0 2.0 0.0 0.0 0.0 2:1.0 3:2.0 4:1.0 5:3.0 6:3.0 7:1.0 8:1.0 
-0.0 2.0 0.0 0.0 0.0 2:1.0 3:2.0 4:1.0 5:6.0 6:6.0 7:1.0 8:1.0 
-0.0 2.0 0.0 0.0 0.0 2:1.0 3:2.0 4:1.0 5:5.0 6:5.0 7:1.0 8:1.0 
-2.0 0.0 0.0 0.0 0.0 1:1.0 2:1.0 3:2.0 4:1.0 5:4.0 6:4.0 7:1.0 
-0.0 0.5382161223079364 0.16513550010608605 0.09969939218558041 0.22336335960270323 2:1.0 3:2.0 4:1.0 5:2.0 6:2.0 7:1.0 10:1.0 163:1.0 
-0.0 0.0 0.17330558542394925 0.017132450742154734 0.11198248216554585 2:1.0 3:2.0 4:2.0 5:10.0 6:5.0 7:4.0 10:1.0 44:1.0 164:1.0 165:1.0 
-0.0 0.4730019485058137 0.4411293734346325 0.09003488042044462 0.0 3:2.0 4:3.0 5:10.0 6:8.0 7:1.0 13:1.0 113:1.0 166:1.0 167:1.0 
-0.0 0.7641883322865389 0.31988079921097845 0.186155924662424 0.2232675860440207 2:1.0 3:2.0 4:3.0 5:4.0 6:2.0 7:1.0 10:1.0 168:1.0 
-0.0 2.0 2.0 2.0 2.0 2:1.0 3:2.0 4:1.0 5:12.0 6:12.0 7:1.0 8:1.0 
-0.0 2.0 0.4399788825096656 2.0 2.0 2:1.0 3:2.0 4:1.0 5:9.0 6:9.0 7:1.0 8:1.0 
-0.0 0.4527583034927961 0.3418695114383078 0.10840976601311574 0.1294785229492863 3:2.0 4:5.0 5:21.0 6:14.0 7:4.0 13:1.0 169:1.0 170:2.0 171:1.0 172:1.0 173:1.0 
-0.0 2.0 0.0 0.0 0.0 2:1.0 3:2.0 4:1.0 5:3.0 6:3.0 7:1.0 8:1.0 
-0.0 2.0 0.8486281510380942 2.0 0.0 2:1.0 3:2.0 4:3.0 5:5.0 6:3.0 7:1.0 8:1.0 
-0.0 0.9429491510124332 0.14099961142558462 0.09371692675636203 0.0 2:1.0 3:2.0 4:1.0 5:10.0 6:10.0 7:1.0 10:1.0 174:1.0 175:1.0 176:1.0 
-0.0 0.7891254987120109 0.0 2.0 0.0 2:1.0 3:2.0 4:3.0 5:4.0 6:2.0 7:1.0 8:1.0 
-0.0 2.0 0.0 0.0 0.0 2:1.0 3:2.0 4:1.0 5:3.0 6:3.0 7:1.0 8:1.0 
-0.0 2.0 0.0 2.0 0.0 2:1.0 3:2.0 4:2.0 5:7.0 6:6.0 7:1.0 8:1.0 
-0.0 0.0 0.0 0.0 2.0 2:1.0 3:2.0 4:2.0 5:2.0 6:1.0 7:1.0 8:1.0 
-0.0 0.0 0.0 0.0 0.9852604748800133 3:2.0 4:1.0 5:7.0 6:6.0 7:1.0 9:1.0 23:1.0 178:1.0 
-0.005371036464646569 0.0 0.0 0.0 0.0 1:1.0 2:1.0 3:2.0 4:3.0 5:5.0 6:3.0 7:1.0 
-0.0 2.0 0.0 0.0 0.0 2:1.0 3:2.0 4:1.0 5:5.0 6:5.0 7:1.0 8:1.0 
-2.0 0.0 0.0 0.0 0.0 1:1.0 2:1.0 3:2.0 4:1.0 5:3.0 6:3.0 7:1.0 
-0.0 2.0 0.0 2.0 0.0 2:1.0 3:2.0 4:3.0 5:4.0 6:2.0 7:1.0 8:1.0 
-0.0 2.0 0.0 0.0 0.0 2:1.0 3:2.0 4:1.0 5:5.0 6:5.0 7:1.0 8:1.0 
-0.0 1.491640963740955 0.9637843875364682 0.7829482330725044 0.5523306534075336 3:2.0 4:2.0 5:7.0 6:6.0 7:1.0 13:1.0 128:1.0 162:1.0 
-0.0 2.0 2.0 1.6423840127080027 2.0 2:1.0 3:2.0 4:3.0 5:12.0 6:9.0 7:2.0 8:1.0 
-0.8939717874112337 0.0 0.0 0.0 0.0 3:2.0 4:1.0 5:7.0 6:5.0 7:1.0 9:2.0 23:1.0 43:1.0 
-0.0 0.8175194226823633 0.9067556042863656 0.3520670447447024 0.06760623255926364 2:1.0 3:2.0 4:2.0 5:8.0 6:6.0 7:2.0 10:1.0 47:1.0 60:1.0 179:1.0 180:1.0 
-0.0 0.0 2.0 0.0 1.1006254147019645 3:2.0 4:2.0 5:7.0 6:3.0 7:2.0 20:1.0 25:1.0 54:2.0 
-0.0 1.0176833715944578 0.5167261925282993 0.34138158780326877 0.42125798228408223 2:1.0 3:2.0 4:1.0 5:10.0 6:10.0 7:1.0 181:1.0 182:1.0 183:1.0 184:1.0 
-0.0 0.0 0.0 0.0 0.9851512418904389 3:2.0 4:1.0 5:5.0 6:4.0 7:1.0 9:1.0 23:1.0 185:1.0 
-0.0 2.0 0.0 0.0 0.0 2:1.0 3:2.0 4:1.0 5:5.0 6:5.0 7:1.0 8:1.0 
-0.0 2.0 2.0 2.0 2.0 2:1.0 3:2.0 4:1.0 5:17.0 6:17.0 7:1.0 8:1.0 
-0.0 0.4901775670554141 0.011270129603684379 0.3363315430140839 0.04199728698308046 2:1.0 3:2.0 4:3.0 5:8.0 6:5.0 7:2.0 10:1.0 47:1.0 186:1.0 187:1.0 
-0.0 2.0 2.0 2.0 2.0 2:1.0 3:2.0 4:4.0 5:15.0 6:11.0 7:2.0 8:1.0 
-0.0 0.0 0.0 0.0 1.473144459195551 2:1.0 3:2.0 4:1.0 5:2.0 6:2.0 7:1.0 8:1.0 
-0.0 2.0 2.0 0.0 2.0 2:1.0 3:2.0 4:3.0 5:11.0 6:8.0 7:2.0 8:1.0 
-2.0 0.0 0.0 0.0 0.0 1:1.0 2:1.0 3:2.0 4:2.0 5:3.0 6:2.0 7:1.0 
-0.0 0.6429092618573718 0.2251035272751703 1.2279803628413462 0.0778627304719104 2:1.0 3:2.0 4:7.0 5:15.0 6:9.0 7:1.0 10:1.0 188:1.0 189:2.0 190:1.0 
-0.0 0.5382312720546165 0.16520686233980542 0.09968288323886407 0.22329672121132282 2:1.0 3:2.0 4:1.0 5:2.0 6:2.0 7:1.0 10:1.0 191:1.0 
-0.0 0.0 1.0908660932896326 0.0 0.0 2:1.0 3:2.0 4:4.0 5:7.0 6:2.0 7:3.0 8:1.0 
-0.0 0.5382242803392302 0.16521322758460674 0.09968518062214042 0.22324012353372427 2:1.0 3:2.0 4:1.0 5:2.0 6:2.0 7:1.0 10:1.0 192:1.0 
-0.0 0.7638762148961797 0.4488923406840494 0.2582678293581115 0.223389068347469 2:1.0 3:2.0 4:5.0 5:5.0 6:1.0 7:1.0 10:1.0 193:1.0 
-0.21886266385883965 0.0 0.0 0.0 0.0 3:2.0 4:2.0 5:14.0 6:10.0 7:2.0 9:2.0 20:2.0 25:2.0 
-0.0 1.4064025218602587 0.1651333019946307 0.09969733729568786 0.22333780732868305 2:1.0 3:2.0 4:1.0 5:2.0 6:2.0 7:1.0 10:1.0 194:1.0 
-1.5646195733966124 0.4145085362045384 0.0 0.0 0.0 1:1.0 2:1.0 3:2.0 4:1.0 5:8.0 6:8.0 7:1.0 
-0.0 2.0 0.0 0.0 0.0 2:1.0 3:2.0 4:1.0 5:6.0 6:6.0 7:1.0 8:1.0 
-0.0 1.4064551449983156 1.3039241536899155 0.5218522847261243 0.0 2:1.0 3:2.0 4:1.0 5:2.0 6:1.0 7:1.0 10:1.0 58:1.0 63:1.0 
-0.0 2.0 0.0 0.0 0.0 2:1.0 3:2.0 4:2.0 5:10.0 6:7.0 7:3.0 8:1.0 
-0.0 2.0 0.0 2.0 0.0 2:1.0 3:2.0 4:1.0 5:8.0 6:8.0 7:1.0 8:1.0 
-0.0 1.2939357627734562 1.523341112883507 1.2635794859589196 0.7523706664746715 2:1.0 3:2.0 4:1.0 5:3.0 6:3.0 7:1.0 195:1.0 
-0.0 1.8491617908217681 0.0 2.0 0.0 2:1.0 3:2.0 4:3.0 5:4.0 6:2.0 7:1.0 8:1.0 
-0.0 2.0 0.0 0.0 0.0 2:1.0 3:2.0 4:1.0 5:7.0 6:7.0 7:1.0 8:1.0 
-0.0 0.0 0.0 0.0 2.0 2:1.0 3:2.0 4:3.0 5:3.0 6:1.0 7:1.0 8:1.0 
-0.0 0.9908470513963592 0.21634723255302066 0.1285690121701794 0.2232690547242754 2:1.0 3:2.0 4:1.0 5:4.0 6:4.0 7:1.0 10:1.0 196:1.0 
-0.0 2.0 2.0 2.0 0.0 2:1.0 3:2.0 4:1.0 5:3.0 6:2.0 7:1.0 8:1.0 36:1.0 
-0.0 0.8348223113620643 0.513276000714551 0.12201925791427852 0.11177856837779841 2:1.0 3:2.0 4:3.0 5:8.0 6:6.0 7:1.0 10:1.0 197:1.0 198:1.0 
-0.0 1.0859410392353313 0.1729950223864729 0.144198878334329 0.07474629711804656 2:1.0 3:2.0 4:1.0 5:12.0 6:12.0 7:1.0 10:1.0 199:1.0 200:1.0 201:1.0 
-0.0 2.0 2.0 2.0 0.0 2:1.0 3:2.0 4:3.0 5:7.0 6:5.0 7:1.0 8:1.0 
-0.0 2.0 0.0 2.0 0.0 2:1.0 3:2.0 4:3.0 5:4.0 6:2.0 7:1.0 8:1.0 
-0.0 2.0 0.0 0.7352052069642923 0.0 2:1.0 3:2.0 4:1.0 5:7.0 6:7.0 7:1.0 8:1.0 
-0.0 2.0 0.0 0.0 0.0 2:1.0 3:2.0 4:1.0 5:7.0 6:7.0 7:1.0 8:1.0 
-0.0 0.12418663986864409 0.0 0.09369645178650932 0.010994310811863257 2:1.0 3:2.0 4:1.0 5:8.0 6:7.0 7:2.0 10:1.0 39:1.0 47:1.0 202:1.0 
-0.5594326928609442 2.0 1.5361328323461152 0.627823079869876 0.29270045689781915 2:1.0 3:2.0 4:3.0 5:10.0 6:7.0 7:1.0 9:1.0 10:1.0 203:1.0 204:1.0 
-0.0 0.0 0.1353381975713318 0.0 1.5831304738172645 3:2.0 4:3.0 5:16.0 6:11.0 7:3.0 19:1.0 23:1.0 30:1.0 
-0.0 0.0 0.0 0.0 0.016744971369941245 2:1.0 3:2.0 4:1.0 5:2.0 6:2.0 7:1.0 8:1.0 
-0.0 2.0 0.0 0.0 0.0 2:1.0 3:2.0 4:1.0 5:3.0 6:3.0 7:1.0 8:1.0 
-0.0 2.0 2.0 2.0 0.0 2:1.0 3:2.0 4:3.0 5:5.0 6:3.0 7:1.0 8:1.0 
-0.0 1.684657926112858 0.6291933813071358 0.6139873257925945 0.0 2:1.0 3:2.0 4:1.0 5:10.0 6:10.0 7:1.0 10:1.0 24:1.0 109:1.0 
-0.0 2.0 0.0 1.0105150534551515 0.0 2:1.0 3:2.0 4:1.0 5:7.0 6:7.0 7:1.0 8:1.0 
-0.0 2.0 2.0 2.0 2.0 2:1.0 3:2.0 4:1.0 5:12.0 6:12.0 7:1.0 8:1.0 
-0.0 1.0685725788047242 2.0 0.882273431824554 0.7753092311909021 3:2.0 4:2.0 5:1.0 7:1.0 13:1.0 205:1.0 
-0.0 0.0 0.0 0.0 1.3261463885313585 2:1.0 3:2.0 4:1.0 5:2.0 6:2.0 7:1.0 8:1.0 
-0.0 2.0 0.0 0.0 0.0 2:1.0 3:2.0 4:1.0 5:4.0 6:4.0 7:1.0 8:1.0 
-0.0 2.0 0.0 0.0 0.0 2:1.0 3:2.0 4:1.0 5:4.0 6:4.0 7:1.0 8:1.0 
-0.0 0.0 0.43677019904213965 0.7905038591613921 0.5169038885514601 2:1.0 3:2.0 4:4.0 5:9.0 6:3.0 7:4.0 10:1.0 206:1.0 207:1.0 
-0.0 0.8352364739316903 0.0 2.0 0.0 3:2.0 4:1.0 5:6.0 6:6.0 7:1.0 8:1.0 31:1.0 
-0.0 2.0 0.0 0.0 0.0 2:1.0 3:2.0 4:1.0 5:5.0 6:5.0 7:1.0 8:1.0 
-0.0 0.0 0.1908792470834309 0.0 0.2228259495268826 2:1.0 3:2.0 4:2.0 5:5.0 6:2.0 7:3.0 10:1.0 208:1.0 
-0.0 2.0 0.0 0.0 0.0 2:1.0 3:2.0 4:1.0 5:3.0 6:3.0 7:1.0 8:1.0 
-0.0 0.0 0.0 0.0 0.7409906751024945 3:2.0 4:2.0 5:5.0 6:4.0 7:1.0 23:1.0 50:1.0 
-0.0 2.0 0.0 0.0 0.0 2:1.0 3:2.0 4:1.0 5:3.0 6:3.0 7:1.0 8:1.0 
-0.0 0.2226382517426324 0.09532962563306287 0.0 0.11149208185666067 2:1.0 3:2.0 4:1.0 5:7.0 6:5.0 7:3.0 10:1.0 209:1.0 210:1.0 
-0.0 2.0 0.0 0.0 0.0 2:1.0 3:2.0 4:1.0 5:4.0 6:4.0 7:1.0 8:1.0 
-0.0 2.0 0.0 0.0 0.0 2:1.0 3:2.0 4:1.0 5:3.0 6:3.0 7:1.0 8:1.0 
-0.2263441406375995 0.0 2.0 0.2893490483261379 0.0 1:1.0 2:1.0 3:2.0 4:1.0 5:5.0 6:2.0 7:3.0 58:1.0 
-0.0 0.49997450910784097 0.0 0.16978250218324914 0.005337816215074572 2:1.0 3:2.0 4:1.0 5:9.0 6:6.0 7:2.0 9:1.0 10:1.0 36:1.0 39:1.0 47:1.0 211:1.0 212:1.0 
-0.0 2.0 2.0 2.0 2.0 2:1.0 3:2.0 4:4.0 5:9.0 6:6.0 7:1.0 8:1.0 
-0.0 0.3979031374632982 0.3145982489275995 0.053729806927267455 0.07453883826810684 2:1.0 3:2.0 4:3.0 5:9.0 6:7.0 7:1.0 10:1.0 135:1.0 213:1.0 214:1.0 
-0.0 0.0 0.0 0.0 1.5825216572022942 3:2.0 4:3.0 5:7.0 6:5.0 19:1.0 22:1.0 23:1.0 
-2.0 2.0 2.0 2.0 2.0 2:1.0 3:2.0 4:2.0 5:10.0 6:7.0 7:2.0 8:1.0 19:1.0 
-0.0 0.5381744286846479 0.1651340841026073 0.09970377177338349 0.22327368345653062 2:1.0 3:2.0 4:1.0 5:2.0 6:2.0 7:1.0 10:1.0 215:1.0 
-0.0 0.9964274059171502 0.0 0.0 0.0 3:2.0 4:1.0 5:19.0 6:18.0 7:1.0 9:1.0 23:1.0 30:1.0 
-0.0 2.0 2.0 2.0 2.0 2:1.0 3:2.0 4:5.0 5:9.0 6:5.0 7:1.0 8:1.0 
-0.0 2.0 0.0 0.0 0.0 2:1.0 3:2.0 4:1.0 5:3.0 6:3.0 7:1.0 8:1.0 
-0.0 1.924776990074457 0.07758616851429707 0.0 0.0 2:1.0 3:2.0 4:4.0 5:6.0 6:3.0 7:1.0 10:1.0 76:1.0 216:1.0 
-0.0 2.0 0.0 0.0 0.0 2:1.0 3:2.0 4:1.0 5:3.0 6:3.0 7:1.0 8:1.0 
-0.0 2.0 0.0 0.0 0.0 2:1.0 3:2.0 4:1.0 5:3.0 6:3.0 7:1.0 8:1.0 
-0.0 2.0 2.0 2.0 0.7528251168891286 2:1.0 3:2.0 4:3.0 5:8.0 6:6.0 7:1.0 8:1.0 
-0.0 0.7031693667988321 1.842305184457442 1.3921323145493052 0.7753341010661061 3:2.0 4:3.0 5:2.0 7:1.0 13:1.0 217:1.0 
-0.0 2.0 0.0 0.0 0.0 2:1.0 3:2.0 4:1.0 5:3.0 6:3.0 7:1.0 8:1.0 
-0.0 2.0 0.0 2.0 0.0 2:1.0 3:2.0 4:1.0 5:7.0 6:7.0 7:1.0 8:1.0 
-0.0 0.0 0.0 0.0 2.0 2:1.0 3:2.0 4:1.0 5:2.0 6:2.0 7:1.0 8:1.0 
-0.0 0.0 1.002699161138281 0.6064658703080026 0.3876370155105349 3:2.0 4:3.0 5:3.0 6:1.0 7:1.0 13:1.0 76:1.0 218:1.0 
-0.0 0.5717279112413175 0.15599564695901416 0.12416433411352498 0.33427320875046257 2:1.0 3:2.0 4:1.0 5:6.0 6:4.0 7:1.0 10:1.0 17:1.0 219:1.0 220:1.0 221:1.0 
-0.0 0.5381711098575291 0.16521130830984002 0.09968640648011312 0.2232441073133659 2:1.0 3:2.0 4:1.0 5:2.0 6:2.0 7:1.0 10:1.0 222:1.0 
-0.0 2.0 2.0 2.0 2.0 2:1.0 3:2.0 4:2.0 5:9.0 6:8.0 7:1.0 8:1.0 
-0.0 0.6631771971640855 0.12592292892317877 0.08162876811024691 0.006289237092786092 2:1.0 3:2.0 4:2.0 5:10.0 6:9.0 7:1.0 10:1.0 142:1.0 223:1.0 224:1.0 
-0.0 2.0 0.0 0.0 0.0 2:1.0 3:2.0 4:1.0 5:3.0 6:3.0 7:1.0 8:1.0 
-0.0 2.0 0.0 0.0 0.0 2:1.0 3:2.0 4:1.0 5:5.0 6:5.0 7:1.0 8:1.0 
-0.0 0.8322920287181435 0.5221994828527365 0.02279798270427623 0.34843049951656235 2:1.0 3:2.0 4:2.0 5:6.0 6:4.0 7:2.0 10:1.0 98:1.0 225:1.0 226:1.0 
-0.0 2.0 0.0 0.0 0.0 2:1.0 3:2.0 4:2.0 5:4.0 6:3.0 7:1.0 8:1.0 
-0.0 2.0 0.0 0.0 0.0 2:1.0 3:2.0 4:2.0 5:4.0 6:3.0 7:1.0 8:1.0 
-0.0 0.0 0.0 0.0 1.05340515108487 2:1.0 3:2.0 4:1.0 5:2.0 6:2.0 7:1.0 8:1.0 
-0.0 0.034228251946830726 0.0 2.0 0.32468202307493754 2:1.0 3:2.0 4:3.0 5:4.0 6:2.0 7:1.0 8:1.0 
-0.0 0.9909134879584522 0.216343560051292 2.0 0.22324192616509575 2:1.0 3:2.0 4:1.0 5:4.0 6:4.0 7:1.0 10:1.0 227:1.0 
-0.0 2.0 0.0 0.0 0.0 2:1.0 3:2.0 4:1.0 5:3.0 6:3.0 7:1.0 8:1.0 
-0.0 2.0 0.0 0.0 0.0 2:1.0 3:2.0 4:1.0 5:8.0 6:7.0 7:2.0 8:1.0 
-1.4589585425733744 0.0 0.0 0.0 0.0 1:1.0 2:1.0 3:2.0 4:2.0 5:5.0 6:4.0 7:1.0 
-0.0 2.0 0.0 0.0 0.0 2:1.0 3:2.0 4:1.0 5:3.0 6:3.0 7:1.0 8:1.0 
-0.0 2.0 2.0 2.0 2.0 2:1.0 3:2.0 4:1.0 5:15.0 6:15.0 7:1.0 8:1.0 
-0.0 1.2170996543278747 0.24208518697716308 0.14301244879570893 0.22328980674994786 2:1.0 3:2.0 4:1.0 5:5.0 6:5.0 7:1.0 10:1.0 228:1.0 
-0.0 0.5382148406031247 0.16515467290431807 0.09969233261005524 0.22333768268160753 2:1.0 3:2.0 4:1.0 5:2.0 6:2.0 7:1.0 10:1.0 229:1.0 
-0.0 1.1176988455918027 0.7873447012362288 0.6680028387056532 0.7094932617227203 2:1.0 3:2.0 4:1.0 5:7.0 6:6.0 7:1.0 17:1.0 230:1.0 231:1.0 
-0.0 2.0 0.0 0.0 0.0 2:1.0 3:2.0 4:1.0 5:5.0 6:5.0 7:1.0 8:1.0 
-1.2811182150629898 0.0 0.0 0.0 0.0 1:1.0 2:1.0 3:2.0 4:2.0 5:6.0 6:5.0 7:1.0 
-0.0 0.0 0.0 0.0 3.146608185417855E-4 3:2.0 4:3.0 5:5.0 6:3.0 7:1.0 13:2.0 23:1.0 49:1.0 232:1.0 
-0.0 0.0 0.0 0.8323212714162801 0.0 3:2.0 4:3.0 5:9.0 6:6.0 7:1.0 19:1.0 20:1.0 25:1.0 
-0.0 2.0 0.0 0.0 0.0 2:1.0 3:2.0 4:1.0 5:7.0 6:7.0 7:1.0 8:1.0 
-0.0 0.0 0.0 0.0 0.6423245555731415 2:1.0 3:2.0 4:2.0 5:2.0 6:1.0 7:1.0 8:1.0 
-0.0 2.0 0.0 0.0 0.0 2:1.0 3:2.0 4:1.0 5:4.0 6:4.0 7:1.0 8:1.0 
-0.0 0.40571077673812245 0.0 0.19102016552370937 0.041864260573369456 2:1.0 3:2.0 4:1.0 5:10.0 6:7.0 7:4.0 10:1.0 47:1.0 233:1.0 234:1.0 
-0.0 2.0 2.0 2.0 2.0 2:1.0 3:2.0 4:4.0 5:5.0 6:2.0 7:1.0 8:1.0 
-0.2209947835034032 2.0 0.0 1.8571126170439927 0.0 2:1.0 3:2.0 4:1.0 5:7.0 6:7.0 7:1.0 8:1.0 
-0.0 2.0 0.0 2.0 0.0 2:1.0 3:2.0 4:2.0 5:6.0 6:5.0 7:1.0 8:1.0 
-0.0 0.7644483345141534 0.1906785552040585 0.11414275947722366 0.22321923200607474 2:1.0 3:2.0 4:1.0 5:3.0 6:3.0 7:1.0 10:1.0 235:1.0 
-0.0 1.345183210467481 1.449735982670741 1.0270343727462123 0.08000343291997972 2:1.0 3:2.0 4:5.0 5:10.0 6:7.0 59:1.0 60:1.0 236:1.0 237:1.0 238:1.0 
-0.0 2.0 0.3129719314711319 0.09970120717870556 0.22323985209372363 2:1.0 3:2.0 4:1.0 5:2.0 6:2.0 7:1.0 10:1.0 239:1.0 
-0.28628010594885367 1.1634735836843964 0.8353602792870808 0.7698210451636048 0.250878252780604 2:1.0 3:2.0 4:2.0 5:11.0 6:9.0 7:1.0 9:1.0 174:1.0 240:1.0 241:1.0 
-0.0 0.0 0.0 0.0 0.16202339967073662 2:1.0 3:2.0 4:3.0 5:3.0 6:1.0 7:1.0 8:1.0 
-0.0 0.7642281406469735 0.3199375604242861 0.18611996481287219 0.2232720631543853 2:1.0 3:2.0 4:3.0 5:4.0 6:2.0 7:1.0 10:1.0 242:1.0 
-0.0 2.0 0.0 0.0 0.0 2:1.0 3:2.0 4:2.0 5:5.0 6:4.0 7:1.0 8:1.0 
-0.0 2.0 0.0 0.0 0.0 2:1.0 3:2.0 4:1.0 5:6.0 6:6.0 7:1.0 8:1.0 
-0.0 2.0 0.0 0.0 0.0 2:1.0 3:2.0 4:1.0 5:6.0 6:6.0 7:1.0 8:1.0 
-0.0 2.0 2.0 2.0 1.235778220014115 2:1.0 3:2.0 4:5.0 5:9.0 6:4.0 7:2.0 8:1.0 
-0.0240104791757298 -0.3147011660928338 0.09796010422612875 0.09092806297184283 0.0 2:1.0 3:2.0 4:4.0 5:23.0 6:14.0 7:6.0 9:1.0 10:1.0 13:1.0 69:1.0 173:1.0 203:1.0 243:1.0 244:1.0 245:1.0 246:1.0 
-0.0 -0.0 0.8830215486151533 0.0 0.0 2:1.0 3:2.0 4:1.0 5:10.0 6:7.0 7:2.0 17:1.0 52:1.0 54:1.0 247:1.0 248:1.0 
-0.02028750952917155 -0.8005087186560287 0.0720951946651771 0.04385455398003382 0.04337115077470473 2:1.0 3:2.0 4:2.0 5:10.0 6:6.0 7:4.0 10:1.0 249:1.0 250:1.0 
-0.04122673409444887 -0.909949710673961 0.6225271770245345 0.4170248542373528 0.0 2:1.0 3:2.0 4:4.0 5:6.0 6:2.0 7:1.0 9:1.0 87:1.0 251:1.0 
-0.0 -2.0 2.0 2.0 2.0 2:1.0 3:2.0 4:2.0 5:10.0 6:8.0 7:1.0 8:1.0 19:1.0 
-0.0 -0.2541506986499932 0.06902582627591851 0.02978328986476433 0.028931615808207762 2:1.0 3:2.0 4:4.0 5:12.0 6:7.0 7:3.0 10:1.0 252:1.0 253:1.0 254:1.0 
-0.0 -2.0 0.0 0.0 0.0 2:1.0 3:2.0 4:1.0 5:6.0 6:6.0 7:1.0 8:1.0 
-0.0 -0.0 0.5454817267936124 0.0 0.0 2:1.0 3:2.0 4:3.0 5:17.0 6:13.0 7:2.0 36:1.0 119:1.0 255:1.0 256:1.0 257:1.0 258:1.0 
-2.0 -2.0 0.0 0.0 2.0 2:1.0 3:2.0 4:2.0 5:6.0 6:4.0 7:2.0 8:1.0 
-0.0 -0.0 0.6465427599767559 0.0 0.0 3:2.0 4:5.0 5:10.0 6:6.0 7:1.0 13:1.0 166:1.0 247:1.0 259:1.0 260:1.0 
-0.0 -0.0 0.0 0.0 0.02889813966824291 2:1.0 3:2.0 4:7.0 5:13.0 6:6.0 7:2.0 10:1.0 98:1.0 266:1.0 267:1.0 268:1.0 
-0.0 -0.0 0.24518442423167583 0.0 0.0 2:1.0 3:2.0 4:7.0 5:17.0 6:8.0 7:3.0 54:1.0 269:1.0 270:1.0 271:1.0 272:1.0 273:1.0 
-0.0 -2.0 0.0 0.0 0.0 2:1.0 3:2.0 4:1.0 5:5.0 6:5.0 7:1.0 8:1.0 
-0.0 -2.0 0.0 0.0 0.0 2:1.0 3:2.0 4:1.0 5:5.0 6:5.0 7:1.0 8:1.0 
-0.0 -0.0 0.0 0.4156842822379162 0.007656231283033714 2:1.0 3:2.0 4:2.0 5:11.0 6:8.0 7:3.0 10:1.0 155:1.0 274:1.0 275:1.0 276:1.0 
-0.0 -0.0 0.0 0.08665723744144639 0.0 3:2.0 4:1.0 5:7.0 6:6.0 7:1.0 9:1.0 270:1.0 277:1.0 278:1.0 
-0.0 -2.0 0.0 0.0 0.0 2:1.0 3:2.0 4:1.0 5:5.0 6:5.0 7:1.0 8:1.0 
-0.0 -0.0 0.11373771702911706 0.0 0.0 2:1.0 3:2.0 4:2.0 5:7.0 6:6.0 7:1.0 45:1.0 279:1.0 280:1.0 
-0.0 -0.0 0.0 0.06077744604258512 0.0 2:1.0 3:2.0 4:4.0 5:14.0 6:11.0 7:1.0 128:2.0 172:1.0 284:1.0 
-0.0 -2.0 0.0 1.3214112130501043 0.0 2:1.0 3:2.0 4:1.0 5:5.0 6:5.0 7:1.0 8:1.0 
-0.0 -0.0 0.2920236912152875 0.21468030353364928 0.0 2:1.0 3:2.0 4:3.0 5:8.0 6:6.0 7:1.0 285:1.0 286:1.0 
-0.0 -0.0 0.3864979997804536 0.1504202373693132 0.07211181787105751 3:2.0 4:3.0 5:12.0 6:10.0 7:1.0 13:1.0 287:1.0 288:1.0 289:1.0 
-0.2904913541046208 -0.9571277986270007 0.8557154141997321 1.7958758269551724 0.42049039407185934 3:2.0 4:2.0 5:3.0 6:2.0 7:1.0 13:1.0 263:1.0 
-0.0 -0.0 2.0 2.0 0.6863799259827608 2:1.0 3:2.0 4:2.0 5:14.0 6:13.0 7:1.0 8:1.0 
-0.0 -0.0 0.45782788440570615 0.0 0.0 2:1.0 3:2.0 4:1.0 5:8.0 6:7.0 7:2.0 10:1.0 155:1.0 179:1.0 290:1.0 
-0.0 -1.5843537700723644 0.0 0.0 0.0 2:1.0 3:2.0 4:2.0 5:7.0 6:4.0 7:2.0 8:1.0 136:1.0 
-0.0 -0.7012020033889586 0.7426088538689208 0.5393476620721517 0.043976801213455236 2:1.0 3:2.0 4:1.0 5:11.0 6:10.0 7:2.0 10:1.0 109:1.0 291:1.0 
-0.0 -2.0 2.0 1.0631667468181392 0.08675261816258531 2:1.0 3:2.0 4:5.0 5:6.0 6:2.0 7:1.0 10:1.0 204:1.0 
-0.0 -2.0 0.0 0.0 0.0 2:1.0 3:2.0 4:1.0 5:8.0 6:8.0 7:1.0 8:1.0 
-0.0 -0.0 0.8417293555903953 0.06493199229301029 0.0 2:1.0 3:2.0 4:5.0 5:8.0 6:4.0 7:1.0 261:1.0 294:1.0 295:1.0 
-0.0 -0.0 0.0 0.0 0.13231212861253444 2:1.0 3:2.0 4:1.0 5:8.0 6:6.0 7:2.0 10:1.0 36:1.0 47:1.0 107:1.0 296:1.0 
-0.0 -0.0 0.433607002405267 0.0 0.0 2:1.0 3:2.0 4:1.0 5:8.0 6:8.0 7:1.0 297:1.0 298:1.0 299:1.0 
-0.05229601112564698 -1.0072846313027917 0.06685878509621783 0.05523716770045324 0.17393603369982633 3:2.0 4:1.0 5:9.0 6:9.0 7:1.0 10:1.0 13:1.0 22:1.0 300:1.0 
-0.0 -0.0 0.0 0.0 1.1915796536656236 2:1.0 3:2.0 4:1.0 5:13.0 6:13.0 7:1.0 8:1.0 
-0.23961585030013077 -0.6174806691695925 1.6154392672229922 0.5102524122011082 0.42017785161248294 3:2.0 4:1.0 5:4.0 6:4.0 7:1.0 13:1.0 301:1.0 
-0.0 -0.3313372216348069 0.0 0.0 0.0 2:1.0 3:2.0 4:1.0 5:9.0 6:7.0 7:3.0 10:1.0 302:1.0 303:1.0 
-0.0 -0.11599609753327847 0.0 0.12819120085224825 0.0 2:1.0 3:2.0 4:2.0 5:5.0 6:4.0 7:1.0 261:1.0 304:1.0 
-0.0 -2.0 0.0 0.0 0.0 2:1.0 3:2.0 4:1.0 5:7.0 6:7.0 7:1.0 8:1.0 
-0.0 -0.621301618552745 2.0 2.0 0.3974046571740044 2:1.0 3:2.0 4:1.0 5:5.0 6:3.0 7:2.0 10:1.0 36:1.0 47:1.0 305:1.0 
-0.0 -2.0 0.0 0.0 0.0 2:1.0 3:2.0 4:1.0 5:6.0 6:6.0 7:1.0 8:1.0 
-0.0 -0.5271133641550348 0.0 0.0 0.0 2:1.0 3:2.0 4:4.0 5:7.0 6:4.0 7:1.0 52:1.0 306:1.0 
-0.0 -0.0 0.24919842123752645 0.14827015873423313 0.012589725008276586 2:1.0 3:2.0 4:1.0 5:8.0 6:6.0 7:1.0 54:2.0 128:1.0 307:1.0 
-0.0 -0.46916885941856834 1.0739471383460135 0.6792478870616662 1.6503022311637117 2:1.0 3:2.0 4:3.0 5:13.0 6:7.0 7:2.0 9:1.0 17:2.0 52:1.0 98:1.0 128:1.0 203:1.0 
-0.0 -2.0 2.0 0.0 0.0 2:1.0 3:2.0 4:2.0 5:11.0 6:9.0 7:2.0 8:1.0 
-0.0 -0.0 0.20877621157014747 8.725912285394919E-4 0.0 2:1.0 3:2.0 4:7.0 5:14.0 6:7.0 7:2.0 310:1.0 311:1.0 312:1.0 313:1.0 
-0.0 -0.0 0.04940336616632072 0.0 0.0 2:1.0 3:2.0 4:3.0 5:8.0 6:6.0 7:1.0 314:1.0 316:1.0 317:1.0 
-0.0 -2.0 0.0 2.0 0.0 2:1.0 3:2.0 4:2.0 5:7.0 6:6.0 7:1.0 8:1.0 
-0.0 -0.059754814461863565 0.0 0.0 0.0 2:1.0 3:2.0 4:5.0 5:11.0 6:6.0 7:2.0 128:1.0 318:1.0 319:1.0 320:1.0 
-0.0 -2.0 2.0 2.0 2.0 2:1.0 3:2.0 4:6.0 5:12.0 6:6.0 7:2.0 8:1.0 
-0.0 -0.3832622800192718 0.054722960037736385 0.0 0.3041232927755996 2:1.0 3:2.0 4:1.0 5:6.0 6:5.0 7:2.0 10:1.0 98:1.0 321:1.0 
-0.0 -0.0 1.509256797613218 0.0 0.0 2:1.0 3:2.0 4:3.0 5:10.0 6:6.0 7:3.0 10:1.0 179:1.0 303:1.0 
-0.0 -0.0 0.0 0.0 0.15204587434383887 2:1.0 3:2.0 4:1.0 5:9.0 6:7.0 7:2.0 10:1.0 54:1.0 98:1.0 322:1.0 323:1.0 
-0.9588175215244181 -1.0026605441185548 0.0 0.0 0.0 2:1.0 3:2.0 4:1.0 5:11.0 6:1.0 7:2.0 9:8.0 10:1.0 17:1.0 52:1.0 324:1.0 325:1.0 
-0.0 -0.0 0.0013856184415374996 0.10064087586758746 0.017886713044431592 2:1.0 3:2.0 4:1.0 5:9.0 6:8.0 7:2.0 10:1.0 155:1.0 326:1.0 327:1.0 
-0.0 -0.0 0.40378937821953775 0.21497023107053542 0.04354925415342718 2:1.0 3:2.0 4:6.0 5:13.0 6:8.0 7:1.0 119:1.0 328:1.0 329:1.0 
-0.0 -0.0 0.0 0.0 0.11078356682283935 2:1.0 3:2.0 4:1.0 5:11.0 6:9.0 7:2.0 9:1.0 10:1.0 155:1.0 308:1.0 330:1.0 331:1.0 
-0.0 -0.6303963412707115 0.40791948065731387 0.04357607695344964 0.043303276470565234 2:1.0 3:2.0 4:1.0 5:11.0 6:8.0 7:4.0 10:1.0 332:1.0 333:1.0 
-2.0 -2.0 0.0 2.0 2.0 2:1.0 3:2.0 4:1.0 5:3.0 6:3.0 7:1.0 8:1.0 
-0.0 -0.14020886365310845 0.24269239674044757 0.09380253743334688 0.0 3:2.0 4:1.0 5:4.0 6:4.0 7:1.0 278:1.0 334:1.0 335:1.0 
-0.0 -0.0 0.09450584793525961 0.14649545573114905 0.013559959080830589 2:1.0 3:2.0 4:5.0 5:18.0 6:10.0 7:2.0 17:1.0 19:1.0 54:1.0 70:1.0 131:1.0 314:1.0 336:1.0 337:1.0 
-0.00893753472541853 -0.0 0.28971368466567804 0.1502131322956062 0.13991201270012585 3:2.0 4:2.0 5:9.0 6:8.0 7:1.0 13:1.0 338:1.0 339:1.0 340:1.0 
-0.0 -0.0 1.5816959560527561 0.9090598659691281 0.0 2:1.0 3:2.0 4:3.0 5:10.0 6:8.0 7:1.0 179:1.0 341:1.0 342:1.0 
-0.0 -0.0 1.0480184091357119 0.21524834055515532 0.0 2:1.0 3:2.0 4:5.0 5:8.0 6:4.0 7:1.0 52:1.0 306:1.0 
-0.0 -2.0 0.0 2.0 0.0 2:1.0 3:2.0 4:1.0 5:5.0 6:5.0 7:1.0 8:1.0 
-0.0 -2.0 2.0 1.666159752451945 0.0 2:1.0 3:2.0 4:3.0 5:10.0 6:7.0 7:2.0 8:1.0 
-0.0 -0.0 0.16551671388661687 0.0 0.0 2:1.0 3:2.0 4:3.0 5:5.0 6:3.0 7:1.0 343:1.0 344:1.0 
-0.0 -1.0091528221552772 0.08612757065048265 0.0890037019370622 0.08604349020310505 2:1.0 3:2.0 4:1.0 5:4.0 6:4.0 7:1.0 10:1.0 345:1.0 
-0.0 -0.0 0.6153369142282 0.515507143871179 0.0 2:1.0 3:2.0 4:1.0 5:8.0 6:8.0 7:1.0 94:1.0 346:1.0 347:1.0 
-0.0 -2.0 2.0 0.0 2.0 2:1.0 3:2.0 4:2.0 5:10.0 6:7.0 7:3.0 8:1.0 
-0.0 -1.607566636862692 0.7331905859545477 0.5394820426713017 0.011634269108928714 2:1.0 3:2.0 4:1.0 5:7.0 6:6.0 7:2.0 10:1.0 109:1.0 348:1.0 
-0.0 -0.16064708392982635 0.0 0.0 0.28299551354508784 2:1.0 3:2.0 4:4.0 5:9.0 6:5.0 7:2.0 10:1.0 349:1.0 350:1.0 351:1.0 
-0.0 -0.12685456988720095 0.6441866644663314 0.2147985842196517 0.4590219923680196 2:1.0 3:2.0 4:3.0 5:6.0 6:4.0 7:1.0 352:1.0 353:1.0 
-0.0 -1.0091462476531972 0.08611863997612118 0.08899959735993973 0.08623426365562906 2:1.0 3:2.0 4:1.0 5:4.0 6:4.0 7:1.0 10:1.0 354:1.0 
-0.0 -0.23625425855638033 0.19302199700239267 0.0 0.0 2:1.0 3:2.0 4:3.0 5:9.0 6:6.0 7:1.0 9:1.0 10:1.0 52:1.0 259:1.0 355:1.0 
-0.0 -0.0 0.7282147753753582 0.4027533466561664 0.0 2:1.0 3:2.0 4:2.0 5:7.0 6:5.0 7:1.0 17:1.0 70:1.0 322:1.0 
-0.0 -0.0 0.2278616338081967 0.15011184315754136 0.0016830653163191968 2:1.0 3:2.0 4:5.0 5:17.0 6:13.0 7:1.0 356:1.0 357:1.0 358:1.0 359:1.0 360:1.0 
-0.0 -2.0 0.0 0.0 0.0 2:1.0 3:2.0 4:1.0 5:8.0 6:8.0 7:1.0 8:1.0 
-0.0 -0.1268763478090966 0.34594462347691085 0.17227882195306396 0.07007140903435875 2:1.0 3:2.0 4:3.0 5:6.0 6:4.0 7:1.0 364:1.0 365:1.0 
-0.0 -0.0 0.0 0.0 0.13734119963597313 2:1.0 3:2.0 4:2.0 5:14.0 6:12.0 7:1.0 10:1.0 17:1.0 173:2.0 174:1.0 366:1.0 
-0.0 -0.0 0.0 0.0 0.15188774833574487 2:1.0 3:2.0 4:1.0 5:9.0 6:8.0 7:2.0 10:1.0 98:1.0 346:1.0 367:1.0 
-0.0 -2.0 0.0 0.0 0.0 2:1.0 3:2.0 4:1.0 5:6.0 6:6.0 7:1.0 8:1.0 
-0.0 -0.0 0.6985210168211731 0.14128718359988454 0.6164730220777463 2:1.0 3:2.0 4:4.0 5:6.0 6:3.0 7:1.0 368:1.0 369:1.0 
-0.0 -0.0 0.47619502712565315 0.0 1.069741185982204 2:1.0 3:2.0 4:2.0 5:9.0 6:5.0 7:2.0 17:2.0 179:1.0 370:1.0 371:1.0 372:1.0 
-0.0 -0.4225737833135407 0.6982490423516876 0.2051702285020766 0.043492064391652735 2:1.0 3:2.0 4:2.0 5:8.0 6:3.0 7:4.0 10:1.0 36:1.0 361:1.0 373:1.0 
-0.0 -0.0 2.0 0.0 0.0 3:2.0 4:1.0 5:8.0 6:8.0 7:1.0 127:1.0 278:1.0 
-0.0 -0.0 0.1473640243167531 0.0 0.058739752525341596 2:1.0 3:2.0 4:3.0 5:11.0 6:9.0 7:1.0 92:1.0 127:1.0 374:1.0 375:1.0 
-0.013730794245550558 -1.2358475683860546 0.0 0.09018151233090053 0.08658993085334045 2:1.0 3:2.0 4:3.0 5:4.0 6:2.0 7:1.0 10:1.0 344:1.0 
-0.0 -2.0 2.0 2.0 4.439936630183632E-5 2:1.0 3:2.0 4:4.0 5:8.0 6:5.0 7:1.0 8:1.0 
-0.0 -0.0 0.0 0.0 0.1326444924533705 2:1.0 3:2.0 4:6.0 5:11.0 6:6.0 7:1.0 122:1.0 292:1.0 376:1.0 377:1.0 
-0.0 -0.0 0.005974324703929454 0.13775562537302233 0.0 2:1.0 3:2.0 4:2.0 5:11.0 6:10.0 7:1.0 279:1.0 378:1.0 379:1.0 380:1.0 
-0.0 -0.07927257193223189 0.14624977984853316 0.09191780380126857 0.0042732777527393585 2:1.0 3:2.0 4:5.0 5:11.0 6:6.0 7:2.0 128:1.0 318:1.0 319:1.0 320:1.0 
-0.0 -2.0 2.0 2.0 2.0 2:1.0 3:2.0 4:4.0 5:6.0 6:3.0 7:1.0 8:1.0 
-0.0 -1.0091521971940063 0.08612302619871458 0.0889997604166989 0.0860500105553734 2:1.0 3:2.0 4:1.0 5:4.0 6:4.0 7:1.0 10:1.0 381:1.0 
-0.0 -0.26383243881950696 0.13228521262298476 0.17863612641971838 0.0 3:2.0 4:5.0 5:7.0 6:3.0 7:1.0 166:1.0 278:1.0 382:1.0 
-0.0 -0.2415339237087482 0.2968193221487007 0.0 0.0 2:1.0 3:2.0 4:3.0 5:14.0 6:10.0 7:3.0 51:1.0 346:1.0 383:1.0 384:1.0 385:1.0 
-0.0 -2.0 0.0 0.0 0.0 2:1.0 3:2.0 4:1.0 5:8.0 6:8.0 7:1.0 8:1.0 
-0.0 -0.0 2.0 2.0 0.0 2:1.0 3:2.0 4:2.0 5:13.0 6:12.0 7:1.0 8:1.0 
-0.0 -2.0 0.0 0.0 0.0 2:1.0 3:2.0 4:1.0 5:8.0 6:8.0 7:1.0 8:1.0 
-0.0 -0.7103776408756262 0.3603900887039946 0.2754187261497689 0.012584612785805268 2:1.0 3:2.0 4:3.0 5:6.0 6:4.0 7:1.0 128:1.0 388:1.0 
-0.0 -0.0 0.12964201178162038 0.0 0.0 2:1.0 3:2.0 4:4.0 5:18.0 6:13.0 7:2.0 10:1.0 54:1.0 179:1.0 389:1.0 390:1.0 391:1.0 392:1.0 393:1.0 
-0.0 -0.0 0.020887814004016327 0.0 0.0 2:1.0 3:2.0 4:1.0 5:6.0 6:6.0 7:1.0 266:1.0 394:1.0 395:1.0 
-0.0 -0.0 0.5013333360192286 0.0 0.0 2:1.0 3:2.0 4:3.0 5:7.0 6:5.0 7:1.0 311:1.0 314:1.0 396:1.0 
-0.0 -0.39144049069951214 0.0441805045535515 0.04438010316235988 0.04293291380085566 2:1.0 3:2.0 4:1.0 5:5.0 6:5.0 7:1.0 10:1.0 397:1.0 398:1.0 
-0.10484441819181706 -0.25198205648527505 0.0 0.15795110344405777 0.21024363407011845 3:2.0 4:3.0 5:5.0 6:3.0 7:1.0 13:1.0 310:1.0 399:1.0 
-0.0 -0.16498321470373697 0.046313781915113456 0.044280743764051604 0.042826159853244124 2:1.0 3:2.0 4:1.0 5:7.0 6:7.0 7:1.0 10:1.0 400:1.0 401:1.0 
-0.0 -0.43902127724434925 0.0 0.0 0.0 2:1.0 3:2.0 4:1.0 5:10.0 6:7.0 7:4.0 10:1.0 47:1.0 179:1.0 303:1.0 402:1.0 
-0.03460398648040425 -0.7122384073995759 0.008176253626077875 0.0 0.0 2:1.0 3:2.0 4:1.0 5:5.0 6:3.0 7:3.0 279:1.0 403:1.0 
-0.0 -2.0 0.0 0.0 0.0 2:1.0 3:2.0 4:1.0 5:7.0 6:7.0 7:1.0 8:1.0 
-0.0 -0.0 0.013715637064804841 0.007647284928410854 0.009891989002305451 2:1.0 3:2.0 4:1.0 5:17.0 6:13.0 7:2.0 54:3.0 404:1.0 405:3.0 406:1.0 407:1.0 408:1.0 
-0.0 -0.0 0.022008201386081977 0.0 0.0 2:1.0 3:2.0 4:3.0 5:9.0 6:6.0 7:2.0 10:1.0 179:1.0 368:1.0 409:1.0 
-0.0 -2.0 2.0 2.0 0.0 2:1.0 3:2.0 4:3.0 5:11.0 6:9.0 7:1.0 8:1.0 
-0.0 -2.0 0.0 0.0 0.0 2:1.0 3:2.0 4:1.0 5:6.0 6:6.0 7:1.0 8:1.0 
-0.0 -2.0 2.0 2.0 0.0 2:1.0 3:2.0 4:4.0 5:11.0 6:8.0 7:1.0 8:1.0 
-0.0 -2.0 2.0 0.0 0.43376475145073756 2:1.0 3:2.0 4:2.0 5:13.0 6:11.0 7:2.0 8:1.0 
-0.0 -0.0 0.820591127213937 0.0 0.15824682944894272 2:1.0 3:2.0 4:1.0 5:15.0 6:14.0 7:2.0 81:1.0 
-0.0 -2.0 0.0 0.0 0.0 2:1.0 3:2.0 4:1.0 5:6.0 6:6.0 7:1.0 8:1.0 
-1.0892118805700677 -2.0 2.0 2.0 1.8145640475314224 2:1.0 3:2.0 4:4.0 5:13.0 6:9.0 7:1.0 8:1.0 9:1.0 
-0.0 -0.0 4.3177200432131243E-4 0.24867850194364674 0.03575550681071634 2:1.0 3:2.0 4:1.0 5:8.0 6:7.0 7:2.0 10:1.0 155:1.0 414:1.0 
-0.0 -0.0 0.018551172710498293 0.0 0.0 2:1.0 3:2.0 4:2.0 5:8.0 6:7.0 7:1.0 279:1.0 415:1.0 416:1.0 
-0.0 -2.0 0.0 0.0 0.0 2:1.0 3:2.0 4:1.0 5:9.0 6:9.0 7:1.0 8:1.0 
-0.0 -0.0 0.5123096139002491 0.0 0.0 2:1.0 3:2.0 4:1.0 5:6.0 6:5.0 7:2.0 10:1.0 98:1.0 179:1.0 417:1.0 
-0.0 -0.0 0.6926911237017951 0.16950686417416913 0.35222355159229635 3:2.0 4:1.0 5:8.0 6:8.0 7:1.0 33:1.0 278:1.0 292:1.0 293:1.0 
-0.0 -0.5508427927426531 0.0 0.0012626543938935818 0.03423944648047489 2:1.0 3:2.0 4:1.0 5:9.0 6:7.0 7:3.0 10:1.0 421:1.0 422:1.0 
-0.0 -0.0 0.27851885525031783 0.0 0.0 2:1.0 3:2.0 4:3.0 5:19.0 6:15.0 7:2.0 10:1.0 58:1.0 128:1.0 179:1.0 423:1.0 424:1.0 425:1.0 
-0.0 -0.0 0.43916879789603014 0.22098617296957612 0.07925264434117003 2:1.0 3:2.0 4:4.0 5:9.0 6:3.0 7:2.0 9:1.0 36:1.0 426:1.0 427:1.0 
-0.0 -0.0 0.20592863834176922 0.03069165348995223 0.0 2:1.0 3:2.0 4:5.0 5:29.0 6:21.0 7:5.0 13:1.0 69:1.0 101:1.0 428:1.0 429:1.0 430:1.0 431:1.0 432:1.0 433:1.0 
-0.0 -0.0 0.0 2.0 2.0 2:1.0 3:2.0 4:2.0 5:17.0 6:15.0 7:1.0 8:1.0 9:1.0 
-0.0 -0.0 0.22727638552350954 0.0 0.027255851724955624 2:1.0 3:2.0 4:3.0 5:13.0 6:9.0 7:1.0 17:1.0 58:1.0 127:1.0 434:1.0 435:1.0 436:1.0 
-0.0 -0.1265967734096923 0.396295640437048 0.21424597473769694 0.07882288428480627 2:1.0 3:2.0 4:1.0 5:5.0 6:5.0 7:1.0 439:1.0 440:1.0 
-0.0 -0.0 0.3885066383542068 0.12179379450345544 0.07283930414550101 2:1.0 3:2.0 4:4.0 5:11.0 6:5.0 7:1.0 17:1.0 54:1.0 58:1.0 441:1.0 442:1.0 443:1.0 
-0.0 -2.0 0.0 0.0 0.0 2:1.0 3:2.0 4:1.0 5:10.0 6:10.0 7:1.0 8:1.0 
-0.0 -2.0 0.0 0.0 0.0 2:1.0 3:2.0 4:1.0 5:6.0 6:6.0 7:1.0 8:1.0 
-0.0 -1.0091128695328782 0.08612665028695149 0.08899839286044443 0.08604466829630524 2:1.0 3:2.0 4:1.0 5:4.0 6:4.0 7:1.0 10:1.0 444:1.0 
-0.0 -0.0 0.0 0.2292259309306851 0.0 2:1.0 3:2.0 4:1.0 5:9.0 6:8.0 7:2.0 10:1.0 94:1.0 155:1.0 445:1.0 
-0.0 -0.8373349621094482 0.16187937108526584 0.20443719970918034 0.036802386801539924 2:1.0 3:2.0 4:6.0 5:10.0 6:4.0 7:2.0 10:1.0 75:1.0 155:1.0 
-0.0 -0.0 0.09046545388852106 0.0 0.40003735618971475 3:2.0 4:3.0 5:11.0 6:9.0 7:1.0 13:1.0 122:1.0 259:1.0 446:1.0 
-0.0 -1.009154063903185 0.08612791956660669 0.0889907054439 0.0860431089035861 2:1.0 3:2.0 4:1.0 5:4.0 6:4.0 7:1.0 10:1.0 447:1.0 
-0.0 -0.5583243004275982 0.23137051530537864 0.0 0.0037049986469086336 2:1.0 3:2.0 4:2.0 5:8.0 6:7.0 7:1.0 10:1.0 69:1.0 448:1.0 449:1.0 
-0.0 -0.23981020500510328 0.395172481493403 0.21427134843424311 0.07893104792218315 2:1.0 3:2.0 4:1.0 5:4.0 6:4.0 7:1.0 450:1.0 451:1.0 
-0.0 -0.0 0.16772285628179245 0.044077021300137284 0.0 2:1.0 3:2.0 4:3.0 5:6.0 6:4.0 7:1.0 343:1.0 452:1.0 
-0.0 -0.39144171279087325 0.0 0.0 0.1513951854795619 2:1.0 3:2.0 4:1.0 5:5.0 6:5.0 7:1.0 10:1.0 292:1.0 453:1.0 
-0.14116806996726924 -0.09788864042220237 0.7307523762443144 0.13025159112799606 0.20779539300023459 3:2.0 4:3.0 5:10.0 6:6.0 7:2.0 9:1.0 13:1.0 87:1.0 255:1.0 454:1.0 
-0.0 -2.0 0.0 2.0 0.0 2:1.0 3:2.0 4:1.0 5:5.0 6:5.0 7:1.0 8:1.0 
-0.0 -0.0 0.17945086724895717 0.0 0.0 2:1.0 3:2.0 4:1.0 5:10.0 6:10.0 7:1.0 455:2.0 456:1.0 
-0.0 -0.3530235375264984 0.38759927233446706 0.15766066764331335 0.0529007901417458 2:1.0 3:2.0 4:1.0 5:3.0 6:3.0 7:1.0 457:1.0 458:1.0 
-0.0 -0.0 0.7783861413643863 0.10053438314963953 0.023967099655246238 2:1.0 3:2.0 4:3.0 5:9.0 6:6.0 7:1.0 19:1.0 343:1.0 459:1.0 460:1.0 
-0.0 -2.0 0.0 2.0 0.0 2:1.0 3:2.0 4:1.0 5:5.0 6:5.0 7:1.0 8:1.0 
-0.0 -2.0 0.0 0.0 0.0 2:1.0 3:2.0 4:1.0 5:7.0 6:7.0 7:1.0 8:1.0 
-0.0 -0.09410271792662284 0.40426774125483395 0.0 0.0 2:1.0 3:2.0 4:3.0 5:9.0 6:5.0 7:3.0 10:1.0 98:1.0 179:1.0 464:1.0 465:1.0 
-0.0 -2.0 2.0 2.0 0.0 2:1.0 3:2.0 4:3.0 5:10.0 6:7.0 7:2.0 8:1.0 
-0.0 -0.0 0.0 0.0 0.03690462261566203 2:1.0 3:2.0 4:4.0 5:18.0 6:13.0 7:3.0 10:1.0 98:1.0 149:1.0 466:1.0 467:1.0 468:1.0 469:1.0 
-0.0 -0.06512297943531443 2.0 0.3022896032214978 0.0 3:2.0 4:1.0 5:7.0 6:7.0 7:1.0 174:1.0 278:1.0 367:1.0 
-0.0034494363974283595 -2.0 0.5506979276193646 0.20210949938898018 0.0 3:2.0 4:3.0 5:8.0 6:4.0 7:3.0 23:1.0 43:1.0 
-0.0 -0.0 0.18908613903520577 0.20430408895883542 0.0317064680106634 2:1.0 3:2.0 4:5.0 5:15.0 6:10.0 7:2.0 471:1.0 472:1.0 473:1.0 474:1.0 475:1.0 
-0.0 -0.0 0.27841792381516894 0.5893264417063034 0.18303764512338772 2:1.0 3:2.0 4:2.0 5:8.0 6:5.0 7:1.0 19:1.0 54:1.0 476:1.0 477:1.0 478:1.0 
-0.0 -2.0 0.0 0.0 0.0 2:1.0 3:2.0 4:1.0 5:8.0 6:8.0 7:1.0 8:1.0 
-0.0 -2.0 0.0 2.0 0.0 2:1.0 3:2.0 4:1.0 5:5.0 6:5.0 7:1.0 8:1.0 
-0.0 -0.025752485409281458 0.2882738652462296 1.0935335928184517 0.0 2:1.0 3:2.0 4:1.0 5:12.0 6:10.0 7:2.0 10:1.0 19:1.0 119:1.0 179:1.0 337:1.0 
-0.3957170925721892 -2.0 0.0 1.9999951770659263 2.0 2:1.0 3:2.0 4:1.0 5:4.0 6:4.0 7:1.0 8:1.0 
-0.0 -2.0 0.0 0.025297303149076054 0.36005883140795286 2:1.0 3:2.0 4:1.0 5:11.0 6:11.0 7:1.0 10:1.0 59:1.0 60:1.0 216:1.0 
-0.0 -0.0 0.46939659177670534 0.14266397995046742 0.02118944426254486 2:1.0 3:2.0 4:2.0 5:9.0 6:7.0 7:1.0 58:1.0 479:1.0 480:1.0 481:1.0 
-0.0 -0.0 0.41637859256509036 0.21429222892811162 0.07874065534566226 2:1.0 3:2.0 4:2.0 5:9.0 6:8.0 7:1.0 482:1.0 483:1.0 
-0.07268063342211357 -0.4516351008408036 0.3045288529643891 0.0838270172685628 0.0 3:2.0 4:2.0 5:9.0 6:7.0 7:1.0 9:1.0 13:1.0 60:1.0 203:1.0 343:1.0 484:1.0 
-0.0 -0.0 2.0 0.3401002637017892 0.03662908055726507 2:1.0 3:2.0 4:2.0 5:8.0 6:3.0 7:2.0 9:1.0 17:1.0 54:1.0 70:1.0 485:1.0 
-0.0 -0.19322737218601133 0.0 0.07524901056808556 0.0 2:1.0 3:2.0 4:1.0 5:10.0 6:9.0 7:1.0 9:1.0 10:1.0 87:1.0 486:1.0 
-0.0 -0.8681751676553672 0.0 0.09259689954817803 0.01987658989392312 2:1.0 3:2.0 4:1.0 5:7.0 6:7.0 7:1.0 10:1.0 194:1.0 487:1.0 
-0.0 -0.0 0.19686619258010377 0.011585733409104161 0.4285409554890155 2:1.0 3:2.0 4:7.0 5:13.0 6:7.0 7:1.0 150:1.0 343:1.0 488:1.0 489:1.0 490:1.0 
-0.0 -0.0 0.8900434132071527 0.018225515823625145 0.04402505192762071 2:1.0 3:2.0 4:1.0 5:11.0 6:8.0 7:3.0 36:1.0 173:1.0 356:1.0 491:1.0 
-0.21675401319703788 -0.7312965367756723 2.0 2.0 1.941231985478005 3:2.0 4:4.0 5:5.0 6:2.0 7:1.0 13:1.0 492:1.0 
-0.0 -2.0 0.0 2.0 0.0 2:1.0 3:2.0 4:1.0 5:5.0 6:5.0 7:1.0 8:1.0 
-0.33160445222817864 -0.0 0.7327322229820588 0.14300641972928693 0.0 3:2.0 4:1.0 5:5.0 6:4.0 7:1.0 18:1.0 36:1.0 259:1.0 278:1.0 
-0.0 -0.0 0.9878917165944902 0.0 0.0 2:1.0 3:2.0 4:4.0 5:8.0 6:5.0 7:1.0 467:1.0 497:1.0 
-0.0 -0.0 0.4106620022957531 0.1242248952225068 0.0 3:2.0 4:4.0 5:7.0 6:4.0 7:1.0 259:1.0 278:1.0 498:1.0 499:1.0 
-0.0 -0.0 0.5579132684589208 0.0 0.0 2:1.0 3:2.0 4:1.0 5:5.0 6:5.0 7:1.0 500:1.0 501:1.0 
-0.0 -0.0 0.26099333236670663 0.0 0.0 2:1.0 3:2.0 4:2.0 5:18.0 6:16.0 7:1.0 10:1.0 54:1.0 142:1.0 179:1.0 216:1.0 259:1.0 502:1.0 503:1.0 
-0.0 -2.0 0.0 0.0 0.0 2:1.0 3:2.0 4:1.0 5:8.0 6:8.0 7:1.0 8:1.0 
-0.2271284218927763 -0.0 0.15220094046438315 0.021182596989568127 0.05015088845683981 3:2.0 4:1.0 5:12.0 6:5.0 7:3.0 9:5.0 98:1.0 278:1.0 504:1.0 505:1.0 506:1.0 507:1.0 
-0.0 -0.0 0.09106083925110023 0.0 0.0 2:1.0 3:2.0 4:4.0 5:26.0 6:18.0 7:6.0 13:1.0 466:1.0 508:1.0 509:1.0 510:1.0 511:1.0 
-0.0 -2.0 0.0 0.0 2.0 2:1.0 3:2.0 4:1.0 5:10.0 6:8.0 7:2.0 8:1.0 17:1.0 
-0.0 -2.0 0.0 2.0 2.0 2:1.0 3:2.0 4:2.0 5:5.0 6:4.0 7:1.0 8:1.0 
-0.0 -2.0 2.0 2.0 2.0 2:1.0 3:2.0 4:3.0 5:5.0 6:3.0 7:1.0 8:1.0 
-0.0 -0.07248327227747407 0.0 0.0 0.0 2:1.0 3:2.0 4:5.0 5:13.0 6:6.0 7:4.0 122:1.0 247:1.0 513:1.0 514:1.0 
-0.0 -0.0 0.0 0.10071327288272339 0.017970312835238082 2:1.0 3:2.0 4:1.0 5:7.0 6:6.0 7:2.0 10:1.0 155:1.0 515:1.0 516:1.0 
-0.0 -0.0 0.25677487958724304 0.17669739204533066 0.0 3:2.0 4:1.0 5:14.0 6:13.0 7:1.0 36:1.0 278:1.0 379:1.0 517:1.0 518:1.0 519:1.0 520:1.0 
-0.0 -2.0 0.0 2.0 0.0 2:1.0 3:2.0 4:1.0 5:5.0 6:5.0 7:1.0 8:1.0 
-0.0 -2.0 2.0 2.0 2.0 2:1.0 3:2.0 4:4.0 5:7.0 6:4.0 7:1.0 8:1.0 
-0.0 -0.0 0.20491310693152467 0.1631196108436307 5.185855683658562E-4 2:1.0 3:2.0 4:1.0 5:17.0 6:16.0 7:2.0 10:1.0 200:1.0 379:1.0 521:1.0 522:1.0 523:1.0 
-0.0 -2.0 0.0 0.0 0.0 2:1.0 3:2.0 4:1.0 5:6.0 6:6.0 7:1.0 8:1.0 
-0.0 -2.0 2.0 2.0 1.5431861780363048 2:1.0 3:2.0 4:3.0 5:6.0 6:4.0 7:1.0 8:1.0 
-0.0 -2.0 0.0 0.0 0.0 2:1.0 3:2.0 4:1.0 5:10.0 6:10.0 7:1.0 8:1.0 
-0.0 -2.0 0.0 2.0 2.0 2:1.0 3:2.0 4:2.0 5:5.0 6:4.0 7:1.0 8:1.0 
-0.0 -0.062169014544796376 0.2319428303809546 0.0 0.0 2:1.0 3:2.0 4:3.0 5:9.0 6:6.0 7:2.0 10:1.0 179:1.0 423:1.0 524:1.0 
-0.0 -0.0 0.8131465035299114 0.07183080192075224 0.05354289907748666 2:1.0 3:2.0 4:2.0 5:7.0 6:5.0 7:1.0 17:1.0 525:1.0 526:1.0 
-0.0 -2.0 0.0 0.0 0.0 2:1.0 3:2.0 4:1.0 5:7.0 6:7.0 7:1.0 8:1.0 
-0.0 -0.05163219460483886 0.0 0.04424415903149864 0.04279450842705912 2:1.0 3:2.0 4:1.0 5:8.0 6:8.0 7:1.0 10:1.0 527:1.0 528:1.0 
-0.0 -0.0 0.1031486012106904 0.0 0.0 3:2.0 4:1.0 5:10.0 6:10.0 7:1.0 278:1.0 343:1.0 529:1.0 
-0.0 -2.0 0.0 0.25241719101443666 2.0 2:1.0 3:2.0 4:3.0 5:7.0 6:4.0 7:1.0 8:1.0 17:1.0 
-0.0 -0.453591604000169 0.20506058604889252 1.7515884647295785 0.21554117989057792 3:2.0 4:1.0 5:6.0 6:6.0 7:1.0 28:1.0 31:1.0 530:1.0 
-0.0 -0.0 0.012845283897498895 0.11329669450193139 0.0522941954567157 2:1.0 3:2.0 4:2.0 5:8.0 6:7.0 7:1.0 457:1.0 531:1.0 
-0.0 -0.0 2.0 0.43045694433743525 0.0 2:1.0 3:2.0 4:4.0 5:14.0 6:10.0 7:1.0 9:1.0 81:1.0 
-0.0 -0.0 0.2656234099907219 0.14272163972056928 0.052477427811969235 2:1.0 3:2.0 4:1.0 5:7.0 6:7.0 7:1.0 532:1.0 533:1.0 534:1.0 
-0.0 -0.14434769433138564 0.0 0.0 0.0 2:1.0 3:2.0 4:2.0 5:7.0 6:6.0 7:1.0 10:1.0 423:1.0 535:1.0 
-0.0 -0.0 0.0 0.0 0.007769041220128934 2:1.0 3:2.0 4:4.0 5:12.0 6:8.0 7:2.0 98:1.0 247:1.0 536:1.0 537:1.0 
-0.0 -0.18577743630850027 0.0 0.6163334228326701 0.02006517386945054 2:1.0 3:2.0 4:4.0 5:11.0 6:6.0 7:3.0 10:1.0 47:1.0 349:1.0 538:1.0 539:1.0 540:1.0 
-0.0 -0.0 0.0 0.3797783761791592 0.0 2:1.0 3:2.0 4:1.0 5:16.0 6:14.0 7:3.0 10:1.0 134:1.0 541:1.0 542:1.0 543:1.0 544:1.0 
-0.043773912145812416 -1.235577153915612 0.08381823556861967 0.0890344319824716 0.08633390070556622 2:1.0 3:2.0 4:1.0 5:3.0 6:3.0 7:1.0 10:1.0 545:1.0 
-0.0 -2.0 0.0 0.0 0.0 2:1.0 3:2.0 4:1.0 5:8.0 6:7.0 7:1.0 8:1.0 36:1.0 
-0.0 -0.32993493908419264 0.09261915136638811 0.08856585577945261 0.08562399721635541 2:1.0 3:2.0 4:1.0 5:7.0 6:7.0 7:1.0 10:1.0 546:1.0 
-0.0 -0.0 0.18365525595108684 0.0 0.0 2:1.0 3:2.0 4:5.0 5:24.0 6:14.0 7:5.0 9:2.0 52:1.0 101:1.0 528:1.0 547:1.0 548:1.0 549:1.0 550:1.0 
-0.0 -0.0 0.17829702023711855 0.0 0.0 2:1.0 3:2.0 4:2.0 5:12.0 6:11.0 7:1.0 107:1.0 179:1.0 551:1.0 
-0.0 -2.0 0.0 0.0 0.0 2:1.0 3:2.0 4:1.0 5:7.0 6:7.0 7:1.0 8:1.0 
-0.0 -2.0 0.0 0.0 0.0 2:1.0 3:2.0 4:1.0 5:7.0 6:7.0 7:1.0 8:1.0 
-0.0 -0.0 0.004199115449335364 0.0 0.04885868515269013 2:1.0 3:2.0 4:1.0 5:8.0 6:8.0 7:1.0 125:1.0 553:1.0 554:1.0 
-0.0 -0.0 0.0 0.06103860545650475 0.04686872925898155 2:1.0 3:2.0 4:3.0 5:12.0 6:9.0 7:1.0 17:1.0 418:1.0 555:1.0 556:1.0 557:1.0 
-0.0 -2.0 0.0 2.0 0.0 2:1.0 3:2.0 4:2.0 5:8.0 6:7.0 7:1.0 8:1.0 
-0.0 -0.0 0.0 0.0 2.0 2:1.0 3:2.0 4:2.0 5:8.0 6:3.0 7:3.0 10:1.0 17:2.0 70:2.0 98:1.0 155:1.0 
-0.0 -0.5513469707097519 0.0 0.0 0.0 2:1.0 3:2.0 4:2.0 5:8.0 6:6.0 7:2.0 10:1.0 47:1.0 179:1.0 558:1.0 
-0.0 -2.0 0.0 2.0 0.0 2:1.0 3:2.0 4:2.0 5:8.0 6:7.0 7:1.0 8:1.0 
-0.0 -0.0 0.025908470382589595 0.0 0.11083940316703328 2:1.0 3:2.0 4:5.0 5:10.0 6:5.0 7:2.0 98:1.0 261:1.0 559:1.0 
-0.0 -0.1377244696137704 0.2887387728073664 0.1429384146434068 0.052698728281309955 2:1.0 3:2.0 4:3.0 5:8.0 6:5.0 7:2.0 560:1.0 561:1.0 562:1.0 
-0.0 -0.0 0.0 0.0 1.9985768988610118 2:1.0 3:2.0 4:1.0 5:14.0 6:14.0 7:1.0 8:1.0 
-0.0 -0.6698634284622733 0.044736665748006 0.0 0.0 2:1.0 3:2.0 4:2.0 5:6.0 6:5.0 7:1.0 10:1.0 563:1.0 
-0.0 -2.0 0.0 0.0 0.0 2:1.0 3:2.0 4:1.0 5:9.0 6:9.0 7:1.0 8:1.0 
-0.0 -0.0 0.06540042021363374 0.19942893908385087 0.0 2:1.0 3:2.0 4:3.0 5:13.0 6:10.0 7:2.0 10:1.0 33:1.0 47:1.0 179:1.0 564:1.0 565:1.0 
-0.0 -0.0 0.6804230026408674 0.1437352545114319 0.012852145457370987 2:1.0 3:2.0 4:1.0 5:10.0 6:4.0 7:2.0 10:1.0 36:2.0 54:3.0 109:1.0 566:1.0 
-0.08363567452383223 -0.2401477965086269 0.31377470364706844 0.31927371544227506 0.0 2:1.0 3:2.0 4:3.0 5:14.0 6:8.0 7:4.0 9:1.0 13:1.0 169:1.0 203:1.0 257:1.0 567:1.0 
-0.0 -2.0 0.0 0.0 0.0 2:1.0 3:2.0 4:1.0 5:10.0 6:10.0 7:1.0 8:1.0 
-0.07408066281231317 -0.27912797142822127 0.05188532696760116 0.0 0.4618929145766658 3:2.0 4:3.0 5:6.0 6:4.0 7:1.0 13:1.0 122:1.0 568:1.0 
-0.0 -0.3916300007095798 0.29208451002019903 0.04502506101223957 0.04311848367466927 2:1.0 3:2.0 4:3.0 5:6.0 6:4.0 7:1.0 10:1.0 569:1.0 570:1.0 
-0.0 -1.0091030718767167 0.08612122663800578 0.08899455748681817 0.08604473291154094 2:1.0 3:2.0 4:1.0 5:4.0 6:4.0 7:1.0 10:1.0 571:1.0 
-0.0 -0.0 0.0 0.0 0.30979119428585805 2:1.0 3:2.0 4:2.0 5:9.0 6:8.0 7:1.0 10:1.0 141:1.0 563:1.0 
-0.0 -0.27841068556406573 0.0776196901213026 0.044938529216374166 0.04300975918690875 2:1.0 3:2.0 4:3.0 5:7.0 6:5.0 7:1.0 10:1.0 572:1.0 573:1.0 
-0.0 -0.0 0.1811236617065593 0.0 0.0 2:1.0 3:2.0 4:3.0 5:13.0 6:9.0 7:2.0 17:1.0 179:1.0 343:1.0 574:1.0 575:1.0 
-0.004022251196389759 -0.20340110505859738 0.5987960731369207 0.0 0.0 2:1.0 3:2.0 4:3.0 5:9.0 6:6.0 7:1.0 9:1.0 60:1.0 485:1.0 578:1.0 
-0.0 -0.0 0.039987405582268036 0.04999960211678341 0.02128958295342777 2:1.0 3:2.0 4:2.0 5:15.0 6:13.0 7:1.0 10:1.0 105:1.0 579:1.0 580:1.0 581:1.0 582:1.0 
-0.0 -1.0091533679984837 0.08612645648388356 0.08899544488105855 0.0860501029955857 2:1.0 3:2.0 4:1.0 5:4.0 6:4.0 7:1.0 10:1.0 583:1.0 
-0.0 -0.013377559458336907 0.39730524881633894 0.21411716712854165 0.07879113308872471 2:1.0 3:2.0 4:1.0 5:6.0 6:6.0 7:1.0 584:1.0 585:1.0 
-0.0 -0.05650575599261765 0.007299738672051457 0.0 0.0 2:1.0 3:2.0 4:1.0 5:10.0 6:7.0 7:4.0 266:1.0 586:1.0 587:1.0 
-0.03175760420782702 -0.18782690325242832 0.15308200800892724 0.08574516982071397 0.03148939213208304 2:1.0 3:2.0 4:1.0 5:7.0 6:6.0 7:1.0 9:1.0 115:1.0 234:1.0 588:1.0 
-0.0 -2.0 0.0 2.0 2.0 2:1.0 3:2.0 4:1.0 5:4.0 6:4.0 7:1.0 8:1.0 
-0.0 -0.0 0.04173430395981519 0.0 0.0 2:1.0 3:2.0 4:1.0 5:6.0 6:6.0 7:1.0 266:1.0 589:1.0 
-0.0 -0.0 0.057144479646531604 0.0 0.3035611657413937 2:1.0 3:2.0 4:1.0 5:9.0 6:9.0 7:1.0 10:1.0 98:1.0 590:1.0 
-0.0 -2.0 2.0 2.0 0.48514755477313265 2:1.0 3:2.0 4:5.0 5:11.0 6:7.0 7:1.0 8:1.0 
-0.0 -0.0 0.5506357917938423 0.12173588712090473 0.018781184631641953 2:1.0 3:2.0 4:1.0 5:9.0 6:8.0 7:1.0 54:1.0 591:1.0 592:1.0 593:1.0 
-0.0 -0.0 0.16554047484542816 0.0850855155025133 0.017831514402942367 2:1.0 3:2.0 4:2.0 5:13.0 6:12.0 7:1.0 365:1.0 421:1.0 594:1.0 
-0.0 -0.0 0.6291444565787391 0.040668862911419315 0.03169524103929422 2:1.0 3:2.0 4:3.0 5:18.0 6:14.0 7:2.0 54:1.0 521:1.0 595:1.0 596:1.0 597:1.0 598:1.0 
-2.0 -2.0 0.0 1.3572485652517638 0.0 2:1.0 3:2.0 4:1.0 5:12.0 6:11.0 7:1.0 8:1.0 9:1.0 
-0.0 -2.0 0.0 0.0 0.0 2:1.0 3:2.0 4:1.0 5:11.0 6:11.0 7:1.0 8:1.0 
-0.0 -2.0 2.0 0.0 2.0 2:1.0 3:2.0 4:2.0 5:11.0 6:8.0 7:3.0 8:1.0 
-0.0 -0.0 0.036216966345992675 0.006596126963400354 0.021652726259571462 2:1.0 3:2.0 4:3.0 5:12.0 6:8.0 7:2.0 10:1.0 54:1.0 599:1.0 600:1.0 601:1.0 602:1.0 
-0.0 -0.3608363650229245 0.029318905689634876 0.0 0.0 2:1.0 3:2.0 4:5.0 5:13.0 6:4.0 7:4.0 10:1.0 17:1.0 52:1.0 54:1.0 603:1.0 604:1.0 
-0.0 -0.056166708573142814 0.21953065014277137 0.821332915681656 0.007279517990279005 2:1.0 3:2.0 4:3.0 5:9.0 6:7.0 7:1.0 190:1.0 610:1.0 611:1.0 
-0.0 -0.38331987634827375 0.05472651264454342 0.0 0.3041581995246587 2:1.0 3:2.0 4:1.0 5:6.0 6:5.0 7:2.0 10:1.0 98:1.0 612:1.0 
-0.0 -0.8962907600471252 0.1196634733678246 0.08950691523371498 0.0860704065887754 2:1.0 3:2.0 4:2.0 5:5.0 6:4.0 7:1.0 10:1.0 613:1.0 
-0.0 -0.39141535064150357 0.0 0.0 0.004699555577962427 2:1.0 3:2.0 4:1.0 5:5.0 6:5.0 7:1.0 10:1.0 614:1.0 615:1.0 
-0.0 -0.0 0.5626707633999084 0.0 0.019549122267440322 2:1.0 3:2.0 4:3.0 5:13.0 6:10.0 7:2.0 10:1.0 256:1.0 362:1.0 616:1.0 617:1.0 
-0.0 -0.15923868474032962 0.42648295290153565 0.11613621991549877 0.0 2:1.0 3:2.0 4:2.0 5:8.0 6:7.0 7:1.0 60:1.0 618:1.0 619:1.0 
-0.0 -0.0 0.3529599114256836 0.0 1.8320829288768392 2:1.0 3:2.0 4:2.0 5:9.0 6:8.0 7:1.0 10:1.0 371:1.0 622:1.0 
-0.0 -2.0 2.0 1.9998890797192483 0.0 2:1.0 3:2.0 4:2.0 5:10.0 6:9.0 7:1.0 8:1.0 
-0.0 -2.0 0.0 2.0 0.0 2:1.0 3:2.0 4:1.0 5:5.0 6:5.0 7:1.0 8:1.0 
-0.0 -0.0 0.4937911026131745 0.0 0.0 2:1.0 3:2.0 4:2.0 5:10.0 6:8.0 7:2.0 10:1.0 155:1.0 179:1.0 625:1.0 
-0.0 -0.03546605895014415 0.47527000655524076 0.22924777209704927 0.017331144539842545 2:1.0 3:2.0 4:5.0 5:9.0 6:5.0 7:1.0 94:1.0 626:1.0 627:1.0 
-0.0 -2.0 0.0 0.0 0.0 2:1.0 3:2.0 4:1.0 5:9.0 6:9.0 7:1.0 8:1.0 
-0.0 -0.0 0.2845991482212209 0.0 0.0 2:1.0 3:2.0 4:5.0 5:19.0 6:13.0 7:3.0 10:1.0 179:1.0 282:1.0 467:1.0 485:1.0 628:1.0 629:1.0 
-0.0 -2.0 0.0 2.0 0.0 2:1.0 3:2.0 4:1.0 5:5.0 6:4.0 7:1.0 8:1.0 105:1.0 
-2.0 -2.0 0.0 2.0 2.0 2:1.0 3:2.0 4:2.0 5:5.0 6:3.0 7:2.0 8:1.0 
-0.0 -0.0 0.6189557000730267 0.030368861174137802 0.017363315450818435 2:1.0 3:2.0 4:4.0 5:18.0 6:15.0 7:1.0 10:1.0 630:1.0 631:1.0 632:1.0 633:1.0 634:1.0 
-0.26923840711565233 -0.3129493490077824 1.3533229499582535 1.0071925275972167 0.1579132707845865 3:2.0 4:3.0 5:8.0 6:5.0 7:1.0 9:1.0 10:1.0 13:1.0 134:1.0 635:1.0 
-0.0 -0.0 0.4855863236991432 1.407739012463323 0.2183106137643332 2:1.0 3:2.0 4:1.0 5:8.0 6:7.0 7:1.0 19:1.0 248:1.0 266:1.0 337:1.0 
-0.0 -0.05165600336404082 0.04746524955923386 0.027269053573692314 0.04279723591136879 2:1.0 3:2.0 4:1.0 5:8.0 6:8.0 7:1.0 10:1.0 636:1.0 637:1.0 
-0.08288949456822589 -0.13462010699831792 0.0 0.1076618813510962 0.15464776421328158 3:2.0 4:3.0 5:6.0 6:4.0 7:1.0 13:1.0 261:1.0 638:1.0 
-0.0 -2.0 2.0 2.0 0.0011248454260197097 2:1.0 3:2.0 4:3.0 5:9.0 6:6.0 7:2.0 8:1.0 
-0.0 -1.4231886717581732 2.0 1.8250151504437861 0.0 2:1.0 3:2.0 4:3.0 5:9.0 6:6.0 7:1.0 8:1.0 58:1.0 
-0.0 -2.0 0.0 2.0 0.7243474560038399 2:1.0 3:2.0 4:1.0 5:5.0 6:5.0 7:1.0 8:1.0 
-0.0 -0.0 0.17178608440519613 0.08203641717454503 0.02491533388493698 3:2.0 4:3.0 5:9.0 6:5.0 7:2.0 17:1.0 259:1.0 278:1.0 639:1.0 640:1.0 641:1.0 
-0.0 -0.0 0.16208005535007183 0.04589730998405339 0.028583534491985595 2:1.0 3:2.0 4:4.0 5:13.0 6:7.0 7:2.0 10:1.0 54:1.0 105:1.0 642:1.0 643:1.0 644:1.0 
-0.0 -0.0 0.30503916877923876 0.04921894602453936 0.047012193064865745 3:2.0 4:4.0 5:17.0 6:14.0 7:1.0 13:1.0 60:1.0 259:1.0 645:1.0 646:1.0 647:1.0 
-0.0 -2.0 0.0 2.0 2.0 2:1.0 3:2.0 4:1.0 5:5.0 6:5.0 7:1.0 8:1.0 
-0.0 -2.0 0.0 0.0 0.0 2:1.0 3:2.0 4:1.0 5:8.0 6:8.0 7:1.0 8:1.0 
-0.0 -0.0 0.07812061473839998 0.009566142003890388 0.02893127734352174 2:1.0 3:2.0 4:6.0 5:12.0 6:6.0 7:1.0 10:1.0 54:1.0 648:1.0 649:1.0 650:1.0 
-0.0 -0.0 0.0 0.06271173163920654 0.004059515968097331 2:1.0 3:2.0 4:1.0 5:8.0 6:7.0 7:2.0 10:1.0 155:1.0 651:1.0 652:1.0 
-0.0 -0.0 0.3779122193885285 0.0 0.0 2:1.0 3:2.0 4:3.0 5:12.0 6:10.0 7:1.0 39:1.0 179:1.0 445:1.0 541:1.0 
-0.0 -0.33985138075462207 0.0 0.24204841392232176 0.06893004373659539 2:1.0 3:2.0 4:2.0 5:9.0 6:7.0 7:2.0 10:1.0 47:1.0 293:1.0 455:1.0 
-0.0 -0.0 0.17936940657682063 0.0 2.0 2:1.0 3:2.0 4:3.0 5:15.0 6:13.0 7:1.0 10:1.0 98:1.0 371:1.0 653:1.0 654:1.0 
-0.0 -2.0 2.0 2.0 0.0 2:1.0 3:2.0 4:3.0 5:10.0 6:7.0 7:2.0 8:1.0 
-0.0 -0.18319096705915008 0.0 0.22952993829944934 0.07629191990756092 2:1.0 3:2.0 4:1.0 5:7.0 6:3.0 7:2.0 10:1.0 17:2.0 52:1.0 54:1.0 655:1.0 656:1.0 
-0.0 -0.0 1.0151211702446123 0.0 2.0 2:1.0 3:2.0 4:1.0 5:18.0 6:16.0 7:3.0 8:1.0 
-0.013746098109008328 -1.235805283082815 0.14867213789899003 0.09018478278041235 0.08658733515420357 2:1.0 3:2.0 4:3.0 5:4.0 6:2.0 7:1.0 10:1.0 657:1.0 
-0.0 -0.0 0.0 1.0973370244983822 0.0 2:1.0 3:2.0 4:3.0 5:9.0 6:6.0 7:2.0 10:1.0 134:1.0 155:1.0 658:1.0 
-0.0 -0.1836731134985479 0.8517695783229756 2.0 0.03407023129860379 2:1.0 3:2.0 4:2.0 5:7.0 6:6.0 7:1.0 94:1.0 659:1.0 
-0.0 -2.0 2.0 0.0 2.0 2:1.0 3:2.0 4:3.0 5:13.0 6:9.0 7:3.0 8:1.0 
-0.10135775835440586 -0.40224887433585893 0.0 0.0 0.547263940223466 3:2.0 4:2.0 5:5.0 6:4.0 7:1.0 13:1.0 125:1.0 247:1.0 
-0.0 -2.0 2.0 2.0 2.0 2:1.0 3:2.0 4:3.0 5:16.0 6:12.0 7:2.0 8:1.0 9:1.0 
-0.0 -0.013389930142021982 0.39730444860323383 0.2141709440439496 0.0835852673536298 2:1.0 3:2.0 4:1.0 5:6.0 6:6.0 7:1.0 660:1.0 661:1.0 
-0.0 -2.0 0.0 0.0 0.0 2:1.0 3:2.0 4:1.0 5:7.0 6:7.0 7:1.0 8:1.0 
-0.0 -0.16383294468300344 0.0 0.20151932449488305 0.03612356648603669 2:1.0 3:2.0 4:1.0 5:6.0 6:5.0 7:2.0 10:1.0 155:1.0 662:1.0 
-0.0 -0.04868880706296546 0.19437939496814619 0.7688946792408917 0.007191204246099763 2:1.0 3:2.0 4:1.0 5:10.0 6:9.0 7:1.0 36:1.0 108:1.0 190:1.0 663:1.0 
-0.0 -1.0095768951042092 0.15097383205577808 0.09011469991930426 0.08649322135243609 2:1.0 3:2.0 4:3.0 5:5.0 6:3.0 7:1.0 10:1.0 664:1.0 
-0.0 -2.0 0.0 0.0 0.0 2:1.0 3:2.0 4:1.0 5:8.0 6:8.0 7:1.0 8:1.0 
-0.0 -0.0 0.2614308830255276 0.214984593395728 0.0 2:1.0 3:2.0 4:4.0 5:8.0 6:5.0 7:1.0 267:1.0 665:1.0 
-0.0 -0.0 0.0 2.0 2.0 2:1.0 3:2.0 4:1.0 5:17.0 6:17.0 7:1.0 8:1.0 
-1.739922359023441E-5 -0.7100254713450119 0.06230185111237905 0.043393784203094504 0.043525928272917964 2:1.0 3:2.0 4:1.0 5:13.0 6:9.0 7:5.0 10:1.0 666:1.0 667:1.0 
-0.08641571919789229 -0.6606705839487503 0.48447597586197605 0.0 0.02177651589340289 2:1.0 3:2.0 4:3.0 5:7.0 6:4.0 7:1.0 9:1.0 127:1.0 668:1.0 
-0.0 -0.0 0.7471491763976348 0.15241317947875338 0.48295738307350167 2:1.0 3:2.0 4:3.0 5:14.0 6:11.0 7:1.0 136:1.0 371:1.0 669:1.0 670:1.0 671:1.0 
-0.0 -0.0 0.0 0.43035381593250455 0.0 2:1.0 3:2.0 4:1.0 5:11.0 6:10.0 7:2.0 109:1.0 269:1.0 491:1.0 
-0.0 -0.3724834727225726 0.29710810215962713 0.1425001290720166 0.05299715074870153 2:1.0 3:2.0 4:3.0 5:13.0 6:7.0 7:5.0 672:1.0 673:1.0 674:1.0 
-0.3245935318494426 -1.1469755148939964 0.0 0.15405282571941212 0.3484514083624875 3:2.0 4:1.0 5:4.0 6:4.0 7:1.0 10:1.0 13:1.0 417:1.0 
-0.0 -0.0 0.3317796204930544 0.4148572851269609 0.02183080841427496 2:1.0 3:2.0 4:2.0 5:7.0 6:6.0 7:1.0 675:1.0 676:1.0 
-0.0 -0.0 0.29039688171406713 0.1223387793233667 0.05274342611738084 2:1.0 3:2.0 4:4.0 5:10.0 6:6.0 7:1.0 54:1.0 679:1.0 680:1.0 681:1.0 
-0.011706520299004685 -0.0 0.0 0.0 0.10191644575104533 3:2.0 4:2.0 5:11.0 6:10.0 7:1.0 10:1.0 13:1.0 288:1.0 289:1.0 
-0.0 -2.0 0.0 0.0 0.0 2:1.0 3:2.0 4:1.0 5:8.0 6:7.0 7:1.0 8:1.0 36:1.0 
-1.8697307195441297 -2.0 0.0 2.0 2.0 2:1.0 3:2.0 4:1.0 5:4.0 6:4.0 7:1.0 8:1.0 
-0.0 -0.3283922693473676 0.11316855904928559 0.13149319430320583 0.05001267701257661 2:1.0 3:2.0 4:1.0 5:8.0 6:8.0 7:1.0 39:1.0 682:1.0 683:1.0 
-0.0 -2.0 2.0 0.0 0.0 2:1.0 3:2.0 4:2.0 5:9.0 6:8.0 7:1.0 8:1.0 
-0.0 -0.0 0.3105542859141866 0.053847515447458895 0.47637787543670684 2:1.0 3:2.0 4:7.0 5:19.0 6:12.0 7:2.0 371:1.0 684:1.0 685:1.0 686:1.0 687:1.0 
-0.0 -2.0 0.0 0.0 0.0 2:1.0 3:2.0 4:1.0 5:7.0 6:7.0 7:1.0 8:1.0 
-0.0 -0.0 1.7687481064028547 0.0 0.0 3:2.0 4:3.0 5:6.0 6:3.0 7:2.0 13:1.0 98:1.0 179:1.0 688:1.0 
-0.0 -2.0 2.0 2.0 0.0 2:1.0 3:2.0 4:3.0 5:7.0 6:5.0 7:1.0 8:1.0 
-0.0 -0.0 0.5480589929647267 0.0 0.0 2:1.0 3:2.0 4:2.0 5:8.0 6:6.0 7:2.0 10:1.0 98:1.0 179:1.0 689:1.0 
-0.0 -0.0 0.0 0.39505425078740974 0.0 2:1.0 3:2.0 4:2.0 5:9.0 6:7.0 7:2.0 134:1.0 279:1.0 412:1.0 690:1.0 
-0.0 -0.0 0.0 0.0 0.008133275807719938 2:1.0 3:2.0 4:1.0 5:10.0 6:8.0 7:2.0 10:1.0 36:1.0 155:1.0 362:1.0 691:1.0 
-0.0 -0.0 0.4286840618183231 0.20162079438660263 0.028583398807914787 2:1.0 3:2.0 4:11.0 5:19.0 6:6.0 7:3.0 54:1.0 356:1.0 692:1.0 693:1.0 694:1.0 
-0.0 -0.0 0.0 0.009839704041343876 0.0 2:1.0 3:2.0 4:1.0 5:9.0 6:9.0 7:1.0 255:1.0 686:1.0 695:1.0 
-0.0 -2.0 2.0 2.0 2.0 2:1.0 3:2.0 4:3.0 5:5.0 6:3.0 7:1.0 8:1.0 
-0.0 -0.0 0.2239317681595385 0.02229675918504814 0.0 2:1.0 3:2.0 4:4.0 5:14.0 6:9.0 7:1.0 17:1.0 69:1.0 85:1.0 343:1.0 696:1.0 697:1.0 698:1.0 
-0.05751747442101133 -0.0 0.9414622638812151 0.15775264158616306 0.2098991263432232 3:2.0 4:2.0 5:7.0 6:6.0 7:1.0 13:1.0 699:1.0 700:1.0 
-0.0 -1.009098131342984 1.2188305143946356 0.0 0.05084223656098011 2:1.0 3:2.0 4:1.0 5:4.0 6:4.0 7:1.0 10:1.0 456:1.0 
-0.0 -2.0 0.0 0.0 0.0 2:1.0 3:2.0 4:1.0 5:6.0 6:6.0 7:1.0 8:1.0 
-0.0 -2.0 2.0 2.0 2.0 2:1.0 3:2.0 4:3.0 5:7.0 6:4.0 7:2.0 8:1.0 
-0.0 -0.16518514417100533 0.07874701790887902 0.04486848077704875 0.04295167566771294 2:1.0 3:2.0 4:3.0 5:8.0 6:6.0 7:1.0 10:1.0 701:1.0 702:1.0 
-0.0 -0.08215853899346048 0.0 0.0 0.0 2:1.0 3:2.0 4:1.0 5:7.0 6:7.0 7:1.0 174:1.0 255:1.0 703:1.0 
-0.0 -0.4572578129853067 2.0 0.41689064394253234 0.0 2:1.0 3:2.0 4:4.0 5:8.0 6:4.0 7:1.0 9:1.0 87:1.0 362:1.0 
-0.0 -2.0 0.0 0.0 0.0 2:1.0 3:2.0 4:1.0 5:7.0 6:7.0 7:1.0 8:1.0 
-0.0 -0.0 0.8027999199615398 0.1435096957779773 0.03422704555854459 2:1.0 3:2.0 4:3.0 5:7.0 6:5.0 7:1.0 586:1.0 704:1.0 
-0.0 -2.0 0.0 2.0 2.0 2:1.0 3:2.0 4:1.0 5:5.0 6:5.0 7:1.0 8:1.0 
-0.0 -0.0 1.080135730066467 0.0 0.0 2:1.0 3:2.0 4:2.0 5:12.0 6:9.0 7:3.0 314:1.0 460:1.0 705:1.0 706:1.0 
-2.0 -2.0 2.0 2.0 2.0 2:1.0 3:2.0 4:5.0 5:14.0 6:8.0 7:2.0 8:1.0 9:1.0 
-0.0 -0.0 0.8161080570480822 0.10047279024006027 0.022438459355874702 2:1.0 3:2.0 4:3.0 5:15.0 6:10.0 7:2.0 9:1.0 82:1.0 85:1.0 707:1.0 708:1.0 709:1.0 
-0.0 -0.0 0.4870622825230215 0.0 0.0 2:1.0 3:2.0 4:2.0 5:7.0 6:5.0 7:2.0 10:1.0 155:1.0 179:1.0 710:1.0 
-0.0 -2.0 0.0 0.3910291759392552 2.0 2:1.0 3:2.0 4:1.0 5:5.0 6:5.0 7:1.0 8:1.0 
-0.0 -0.11396009199127977 2.0 0.13493194741699782 0.0 2:1.0 3:2.0 4:3.0 5:5.0 6:3.0 7:1.0 310:1.0 311:1.0 
-0.0 -2.0 0.0 0.0 0.0 2:1.0 3:2.0 4:1.0 5:10.0 6:10.0 7:1.0 8:1.0 
-0.0 -0.0020126305095581457 0.0 0.12289136986874112 0.0 2:1.0 3:2.0 4:1.0 5:8.0 6:7.0 7:2.0 255:1.0 711:1.0 712:1.0 
-0.0 -0.0 0.0 0.0 1.8314010326913057 2:1.0 3:2.0 4:1.0 5:9.0 6:7.0 7:1.0 8:1.0 54:2.0 
-0.0 -0.0 0.7279153455525192 0.12325063408805559 0.0 3:2.0 4:1.0 5:7.0 6:7.0 7:1.0 259:1.0 278:1.0 713:1.0 714:1.0 
-0.0 -0.0 0.19840361059082418 0.0 0.0 2:1.0 3:2.0 4:4.0 5:11.0 6:7.0 7:1.0 54:1.0 157:1.0 247:1.0 715:1.0 
-0.0 -0.5487076498806494 0.04519907699822909 0.0443821853727073 0.04290781221407394 2:1.0 3:2.0 4:1.0 5:6.0 6:6.0 7:1.0 10:1.0 104:1.0 716:1.0 
-0.6999835285660162 -2.0 2.0 2.0 2.0 2:1.0 3:2.0 4:1.0 5:4.0 6:4.0 7:1.0 10:1.0 
-0.0 -0.5977374994726822 0.8117866868905 0.1425034417829687 0.03504818171560795 2:1.0 3:2.0 4:3.0 5:7.0 6:3.0 7:3.0 586:1.0 717:1.0 
-0.0 -0.05355140613313962 0.025966014912820162 0.0 0.0 2:1.0 3:2.0 4:2.0 5:3.0 6:2.0 7:1.0 279:1.0 718:1.0 
-0.0 -0.05231333554483359 0.0 0.0 0.0 2:1.0 3:2.0 4:1.0 5:6.0 6:6.0 7:1.0 10:1.0 343:1.0 719:1.0 
-0.0 -0.0 0.0 0.04437568275221055 0.0 2:1.0 3:2.0 4:2.0 5:8.0 6:6.0 7:2.0 10:1.0 155:1.0 531:1.0 720:1.0 
-0.0 -0.0 0.0 0.0 0.10133411829513486 2:1.0 3:2.0 4:4.0 5:16.0 6:11.0 7:2.0 54:1.0 128:1.0 314:1.0 591:1.0 723:1.0 724:1.0 
-0.0 -0.0 0.7315379312864198 0.3400028331242526 0.2192834663489356 2:1.0 3:2.0 4:1.0 5:10.0 6:9.0 7:1.0 33:1.0 36:1.0 725:1.0 726:1.0 
-0.0 -0.12685047524169923 0.42869774657268656 0.21479987778941625 0.07901829025353244 2:1.0 3:2.0 4:3.0 5:6.0 6:4.0 7:1.0 727:1.0 728:1.0 
-0.0 -0.3299653736060643 1.563613012449636 0.08856441026231004 0.08562755615753823 2:1.0 3:2.0 4:1.0 5:7.0 6:7.0 7:1.0 10:1.0 729:1.0 
-0.0 -0.23981410940573472 0.1146933666027747 0.0 0.0 2:1.0 3:2.0 4:1.0 5:4.0 6:4.0 7:1.0 297:1.0 730:1.0 
-0.0 -0.2784086881289568 0.0 0.0 0.0 2:1.0 3:2.0 4:3.0 5:7.0 6:5.0 7:1.0 10:1.0 731:1.0 732:1.0 
-0.0 -2.0 0.0 0.0 0.25351150040654274 2:1.0 3:2.0 4:1.0 5:5.0 6:4.0 7:1.0 8:1.0 36:1.0 
-0.0 -2.0 0.0 0.0 0.0 2:1.0 3:2.0 4:1.0 5:8.0 6:7.0 7:1.0 8:1.0 36:1.0 
-0.003412895051089266 -0.561281639868606 0.05869909184010869 0.04481343108222697 0.04321284942945519 2:1.0 3:2.0 4:2.0 5:4.0 6:3.0 7:1.0 10:1.0 733:1.0 734:1.0 
-0.0 -0.3677362189243131 0.10970894354891648 0.852200418190674 0.48471371772131555 2:1.0 3:2.0 4:1.0 5:7.0 6:4.0 7:2.0 17:2.0 52:1.0 466:1.0 735:1.0 
-0.0 -0.25286040917752456 0.2929946122896384 0.3347634485809954 0.0 3:2.0 4:1.0 5:10.0 6:7.0 7:4.0 278:1.0 554:1.0 736:1.0 737:1.0 
-0.0 -0.0 0.0 0.033960911090341515 0.0 2:1.0 3:2.0 4:4.0 5:15.0 6:10.0 7:1.0 136:2.0 637:1.0 738:1.0 739:1.0 740:1.0 741:1.0 
-0.0 -0.0 0.0 0.0 0.13687115469471484 2:1.0 3:2.0 4:3.0 5:13.0 6:11.0 7:1.0 10:1.0 45:1.0 282:1.0 413:1.0 742:1.0 
-0.0 -2.0 2.0 0.0 0.0 2:1.0 3:2.0 4:3.0 5:9.0 6:6.0 7:1.0 8:1.0 36:1.0 
-0.0 -0.0 0.3253809018968068 0.20217019354973065 0.0 2:1.0 3:2.0 4:4.0 5:9.0 6:6.0 17:1.0 70:1.0 383:1.0 743:1.0 
-0.178553345276749 -0.35812031706705777 1.1962400329618543 0.694815443466181 0.0 2:1.0 3:2.0 4:2.0 5:7.0 6:3.0 7:4.0 13:1.0 361:1.0 744:1.0 
-0.0 -1.009161526628933 0.08611188251081278 0.08900081285223367 0.08604977991484994 2:1.0 3:2.0 4:1.0 5:4.0 6:4.0 7:1.0 10:1.0 745:1.0 
-0.0 -2.0 0.0 0.0 0.0 2:1.0 3:2.0 4:1.0 5:8.0 6:8.0 7:1.0 8:1.0 
-0.0 -0.0 0.6209181667463297 0.0 0.8646353454918689 2:1.0 3:2.0 4:1.0 5:8.0 6:7.0 7:2.0 98:1.0 279:1.0 746:1.0 
-0.0 -0.0 0.2208223572510809 0.0 0.0 2:1.0 3:2.0 4:4.0 5:13.0 6:9.0 7:2.0 10:1.0 179:1.0 747:1.0 748:1.0 749:1.0 
-0.0 -2.0 0.0 0.0 2.0 2:1.0 3:2.0 4:1.0 5:16.0 6:14.0 7:3.0 8:1.0 
-0.0 -0.0 0.19963627649930588 0.0 0.0 2:1.0 3:2.0 4:4.0 5:11.0 6:6.0 7:2.0 36:1.0 466:1.0 750:1.0 751:1.0 752:1.0 
-0.0 -0.08429164265959813 0.45734637621083846 0.7106711127398996 0.6592673953930991 2:1.0 3:2.0 4:2.0 5:10.0 6:9.0 7:1.0 122:1.0 154:1.0 753:1.0 
-0.0 -0.0 0.0 0.42604285055240854 0.05455103312694502 3:2.0 4:5.0 5:20.0 6:12.0 7:5.0 13:1.0 98:1.0 190:1.0 257:2.0 314:1.0 497:1.0 620:1.0 
-0.9730328379995848 -2.0 0.0 0.0 2.0 2:1.0 3:2.0 4:2.0 5:6.0 6:4.0 7:1.0 8:1.0 17:1.0 
-0.0 -0.1838385016922216 0.018350055003345155 0.0 0.0 2:1.0 3:2.0 4:1.0 5:8.0 6:6.0 7:3.0 266:1.0 754:1.0 755:1.0 756:1.0 
-0.0 -0.0 0.27680635056938996 0.14287934505172414 0.4092261255986762 2:1.0 3:2.0 4:2.0 5:8.0 6:7.0 7:1.0 732:1.0 757:1.0 758:1.0 
-0.0 -0.0 0.5675797416725615 0.14014225323650242 0.030546955393073717 2:1.0 3:2.0 4:1.0 5:10.0 6:10.0 7:1.0 404:1.0 759:1.0 760:1.0 
-0.0 -0.0 0.9644729797437801 0.0 0.01618098011077494 2:1.0 3:2.0 4:4.0 5:10.0 6:5.0 7:1.0 10:1.0 36:1.0 85:1.0 248:1.0 762:1.0 
-0.0 -0.35216700868782524 0.23566273689792205 0.2069806362673322 0.0 2:1.0 3:2.0 4:2.0 5:9.0 6:7.0 7:2.0 200:1.0 308:1.0 763:1.0 
-0.0 -0.0 1.2834989999503215 0.0 0.0 2:1.0 3:2.0 4:2.0 5:6.0 6:5.0 7:1.0 179:1.0 764:1.0 
-0.0 -0.1264873995251545 0.24693983797619082 0.07592748040575875 0.027648691552304726 2:1.0 3:2.0 4:4.0 5:12.0 6:8.0 7:2.0 119:1.0 378:1.0 651:1.0 765:1.0 
-0.0 -0.33038440295727284 0.15748979141325778 0.08974983337038905 0.08590246996738778 2:1.0 3:2.0 4:3.0 5:8.0 6:6.0 7:1.0 10:1.0 766:1.0 
-0.0 -0.12659634982716766 0.7873671325184785 0.13531853506140504 0.0 2:1.0 3:2.0 4:1.0 5:5.0 6:5.0 7:1.0 699:1.0 768:1.0 
-0.0 -2.0 0.0 0.0 1.9233282852858682 3:2.0 4:2.0 5:6.0 6:4.0 7:1.0 17:1.0 23:1.0 43:1.0 
-0.0 -0.0 2.0 0.2551857879065838 2.0 2:1.0 3:2.0 4:1.0 5:25.0 6:23.0 7:3.0 8:1.0 
-2.0 -2.0 0.0 0.0 1.4009967840859923 2:1.0 3:2.0 4:1.0 5:8.0 6:6.0 7:3.0 8:1.0 
-0.0 -0.05757243920852361 0.15036479894608187 0.021768492865113932 0.03146702534567742 2:1.0 3:2.0 4:3.0 5:7.0 6:5.0 7:1.0 169:1.0 769:1.0 770:1.0 
-0.09792182192691504 -0.19553025485650305 0.4145045554512771 0.2252138540103215 0.20994568275056832 3:2.0 4:1.0 5:5.0 6:5.0 7:1.0 13:1.0 771:1.0 772:1.0 
-0.05769337689113009 -1.4621184312690068 0.1463258319510952 0.09021199015916835 0.08663149889425902 2:1.0 3:2.0 4:3.0 5:3.0 6:1.0 7:1.0 10:1.0 773:1.0 
-0.0 -0.0 0.4936966208133004 0.21415182431529767 0.09785870839456588 2:1.0 3:2.0 4:1.0 5:6.0 6:6.0 7:1.0 125:1.0 774:1.0 
-0.0 -0.0 0.0027544659649461874 0.20127250016037174 0.035770796842093125 2:1.0 3:2.0 4:1.0 5:9.0 6:8.0 7:2.0 10:1.0 155:1.0 775:1.0 
-0.0 -0.0 0.24950903898157603 0.10080778679553945 0.05265424282910866 2:1.0 3:2.0 4:1.0 5:9.0 6:7.0 7:1.0 54:2.0 776:1.0 777:1.0 778:1.0 
-0.0 -2.0 2.0 2.0 0.0 2:1.0 3:2.0 4:3.0 5:9.0 6:7.0 7:1.0 8:1.0 
-0.0 -0.16188077533214495 0.23526106922103576 0.0 0.0 2:1.0 3:2.0 4:4.0 5:7.0 6:4.0 7:1.0 10:1.0 349:1.0 779:1.0 
-0.0 -0.7829036845559869 0.6225143330073828 0.0888054704782004 0.08587260246145673 2:1.0 3:2.0 4:1.0 5:5.0 6:5.0 7:1.0 10:1.0 780:1.0 
-0.0 -2.0 0.0 0.0 0.08429154859915712 2:1.0 3:2.0 4:1.0 5:10.0 6:8.0 7:3.0 8:1.0 
-0.0 -0.0 0.32529305595586294 0.9543379674923235 0.02298269809944112 2:1.0 3:2.0 4:1.0 5:8.0 6:7.0 7:1.0 36:1.0 127:1.0 274:1.0 
-0.0 -1.3217343389582783 0.0 1.5066392824771166 0.3313477434609019 2:1.0 3:2.0 4:1.0 5:7.0 6:6.0 7:1.0 10:1.0 19:1.0 101:1.0 128:1.0 
-0.0 -0.47535356142874574 0.4971471908383853 1.2039764082950197 0.05132532634042963 2:1.0 3:2.0 4:2.0 5:6.0 6:5.0 7:1.0 189:1.0 781:1.0 782:1.0 
-0.0 -2.0 0.0 0.0 2.0 2:1.0 3:2.0 4:1.0 5:5.0 6:5.0 7:1.0 8:1.0 
-0.0 -0.0 0.06689744131540833 0.0 0.04295086350874239 2:1.0 3:2.0 4:2.0 5:7.0 6:5.0 7:1.0 10:1.0 36:1.0 783:1.0 784:1.0 
-0.0 -2.0 0.0 0.0 2.0 2:1.0 3:2.0 4:2.0 5:8.0 6:6.0 7:1.0 8:1.0 17:1.0 
-0.04298593818291208 -0.5068892715281971 0.23196987876904196 0.1476295193362476 0.6856538070961843 3:2.0 4:4.0 5:10.0 6:5.0 7:3.0 13:1.0 59:1.0 368:1.0 785:1.0 786:1.0 
-0.0 -0.0 0.36002452265718266 0.05883489568168468 0.10576462778657007 2:1.0 3:2.0 4:6.0 5:21.0 6:12.0 7:3.0 9:1.0 54:1.0 98:1.0 299:1.0 787:1.0 788:1.0 789:1.0 790:1.0 791:1.0 
-0.0 -0.06711540787906471 0.3951571746010611 0.0 0.0 2:1.0 3:2.0 4:5.0 5:11.0 6:7.0 7:1.0 60:1.0 169:1.0 792:1.0 
-0.0 -2.0 2.0 2.0 2.0 2:1.0 3:2.0 4:5.0 5:10.0 6:6.0 7:1.0 8:1.0 
-0.0 -0.16519831651840186 0.15823987674321752 0.0 0.0895086281835969 2:1.0 3:2.0 4:3.0 5:8.0 6:6.0 7:1.0 10:1.0 713:1.0 796:1.0 
-0.0 -0.0 0.023075862024953552 0.0 0.0 2:1.0 3:2.0 4:1.0 5:8.0 6:8.0 7:1.0 266:1.0 797:1.0 798:1.0 
-0.0 -0.5365581247226119 0.0 0.0 0.0 2:1.0 3:2.0 4:1.0 5:6.0 6:6.0 7:1.0 10:1.0 107:1.0 799:1.0 
-0.38561767779354406 -0.0 0.0 0.0 0.0 2:1.0 3:2.0 4:3.0 5:14.0 6:7.0 7:4.0 9:1.0 10:1.0 18:1.0 54:1.0 179:1.0 800:1.0 801:1.0 
-0.0 -0.8962731831345659 0.11966289688121272 0.08953319536669913 0.08606515755052273 2:1.0 3:2.0 4:2.0 5:5.0 6:4.0 7:1.0 10:1.0 802:1.0 
-0.0 -2.0 0.0 0.0 0.0 2:1.0 3:2.0 4:1.0 5:7.0 6:7.0 7:1.0 8:1.0 
-0.0 -0.0 0.48692416893332574 0.04877318109910353 0.7782614372952912 2:1.0 3:2.0 4:1.0 5:10.0 6:8.0 7:2.0 10:1.0 36:1.0 155:1.0 803:1.0 804:1.0 
-0.0 -0.0 0.7250855548754516 0.2466012947094647 0.0 3:2.0 4:1.0 5:6.0 6:6.0 7:1.0 259:1.0 278:1.0 805:1.0 
-0.0 -2.0 0.0 0.0 0.0 2:1.0 3:2.0 4:1.0 5:11.0 6:11.0 7:1.0 8:1.0 
-0.2876378621582849 -1.034134818633635 0.15605764133098574 0.11154123319298141 0.3483610506504014 3:2.0 4:2.0 5:5.0 6:4.0 7:1.0 10:1.0 13:1.0 806:1.0 
-0.03174180773017449 -0.18783013011729535 0.15308161635291626 0.08574238725853217 0.03148949768668491 2:1.0 3:2.0 4:1.0 5:7.0 6:6.0 7:1.0 9:1.0 115:1.0 234:1.0 807:1.0 
-0.0 -0.0 0.4504503264846453 0.0 0.0 3:2.0 4:1.0 5:8.0 6:7.0 7:2.0 94:1.0 98:1.0 278:1.0 418:1.0 
-0.0 -0.0 0.0 1.3162130395343283 0.1139075334304951 2:1.0 3:2.0 4:2.0 5:9.0 6:6.0 7:1.0 10:1.0 17:2.0 525:1.0 675:1.0 
-0.27463432346658084 -0.08193419961958899 0.0 0.10078958137820172 0.018084442433121704 2:1.0 3:2.0 4:1.0 5:6.0 6:5.0 7:2.0 10:1.0 16:1.0 155:1.0 810:1.0 
-0.0 -0.5564349209645624 0.5244919175428977 0.08866004154958665 2.0 2:1.0 3:2.0 4:1.0 5:6.0 6:6.0 7:1.0 10:1.0 375:1.0 
-0.0 -0.0 0.011057121074072378 0.4285424401075689 0.07404097023931754 3:2.0 4:1.0 5:11.0 6:10.0 7:2.0 13:1.0 149:1.0 190:1.0 282:1.0 811:1.0 
-0.0 -0.4536038945417787 0.20506084589939574 0.3384665168055861 0.21569734866698081 3:2.0 4:1.0 5:6.0 6:6.0 7:1.0 28:1.0 31:1.0 812:1.0 
-0.0 -0.0 0.20326957955013436 0.28852148191543125 0.03150992870214122 2:1.0 3:2.0 4:2.0 5:9.0 6:8.0 7:1.0 813:1.0 814:1.0 815:1.0 
-0.0 -0.5564080867287206 0.09038685917382713 0.08870725464487121 0.08573378595323347 2:1.0 3:2.0 4:1.0 5:6.0 6:6.0 7:1.0 10:1.0 816:1.0 
-0.0 -0.0 0.03826219422779722 0.34059319491652024 0.2692274619803575 3:2.0 4:1.0 5:9.0 6:9.0 7:1.0 278:1.0 297:1.0 820:1.0 821:1.0 822:1.0 
-0.0 -0.2663476558438568 0.3538797591615624 0.0 0.16301804324748145 2:1.0 3:2.0 4:3.0 5:9.0 6:5.0 7:3.0 269:1.0 823:1.0 824:1.0 
-0.0 -0.0 0.3916871795976965 0.02190231959042353 0.0 2:1.0 3:2.0 4:4.0 5:10.0 6:6.0 7:1.0 58:1.0 343:1.0 825:1.0 826:1.0 
-0.0 -1.0227906723287357 0.42187997909213104 0.04349306461273925 0.0 2:1.0 3:2.0 4:1.0 5:9.0 6:6.0 7:3.0 10:1.0 58:1.0 117:1.0 827:1.0 
-0.0 -0.0 0.05208481239978938 0.12932867731200673 0.22267471913516232 2:1.0 3:2.0 4:1.0 5:7.0 6:7.0 7:1.0 292:1.0 828:1.0 
-0.0 -0.0 0.0 0.2489537647842727 0.0 2:1.0 3:2.0 4:2.0 5:11.0 6:9.0 7:1.0 10:1.0 54:1.0 282:1.0 492:1.0 829:1.0 830:1.0 831:1.0 
-0.0 -0.0 0.0 0.0 0.018110159782431617 2:1.0 3:2.0 4:2.0 5:8.0 6:5.0 7:2.0 10:1.0 36:1.0 155:1.0 470:1.0 832:1.0 
-0.0 -2.0 0.0 0.0 1.9956702743269472 2:1.0 3:2.0 4:1.0 5:5.0 6:5.0 7:1.0 8:1.0 
-0.0 -0.03459506619564579 0.2487684330890001 0.02987542608659363 0.028635463698910735 2:1.0 3:2.0 4:3.0 5:9.0 6:7.0 7:1.0 10:1.0 833:1.0 834:1.0 835:1.0 
-0.0 -0.0 0.5343186870243541 0.13052025534781983 0.19701131826812704 2:1.0 3:2.0 4:5.0 5:11.0 6:6.0 7:1.0 19:1.0 122:1.0 836:1.0 837:1.0 838:1.0 
-0.0 -0.32569503893643337 0.1608525676208638 0.17768003566220567 0.10737158681480062 2:1.0 3:2.0 4:3.0 5:22.0 6:14.0 7:7.0 60:1.0 98:1.0 122:1.0 141:1.0 236:1.0 839:1.0 840:1.0 841:1.0 
-0.0 -0.7461527648304734 0.413947884381538 0.8006582418338664 0.032397612413249455 2:1.0 3:2.0 4:5.0 5:11.0 6:4.0 7:4.0 10:1.0 76:1.0 98:1.0 134:1.0 155:1.0 608:1.0 
-0.0 -0.0 0.615316139690585 0.21407832426121692 0.07871471327579965 2:1.0 3:2.0 4:1.0 5:7.0 6:7.0 7:1.0 842:1.0 843:1.0 
-0.0 -0.0 0.41712188088917457 0.0 0.0 2:1.0 3:2.0 4:3.0 5:11.0 6:8.0 7:2.0 127:1.0 179:1.0 531:1.0 844:1.0 
-0.0 -2.0 0.0 0.0 0.0 2:1.0 3:2.0 4:1.0 5:6.0 6:6.0 7:1.0 8:1.0 
-0.0 -0.006401572101147606 0.2649738734740252 0.043009630633102244 0.0 2:1.0 3:2.0 4:6.0 5:12.0 6:7.0 7:1.0 124:1.0 467:1.0 638:1.0 845:1.0 846:1.0 
-0.0 -0.0 0.0 0.9925259306475657 0.0 2:1.0 3:2.0 4:1.0 5:7.0 6:5.0 7:2.0 10:1.0 36:1.0 134:1.0 155:1.0 847:1.0 
-0.0 -0.0 0.05165709298144732 0.0 0.0 2:1.0 3:2.0 4:1.0 5:6.0 6:5.0 7:1.0 36:1.0 266:1.0 848:1.0 
-0.023419928581391036 -0.0 0.31092027407633893 0.18696168424609902 0.1369531818853401 2:1.0 3:2.0 4:1.0 5:12.0 6:9.0 7:3.0 9:1.0 59:1.0 303:1.0 558:1.0 849:1.0 
-1.7539206481820646 -2.0 0.0 2.0 2.0 2:1.0 3:2.0 4:1.0 5:4.0 6:4.0 7:1.0 8:1.0 
-0.0 -0.5048111770930359 0.07548645234992717 0.04505224985768614 0.04324405463360143 2:1.0 3:2.0 4:3.0 5:5.0 6:3.0 7:1.0 10:1.0 850:1.0 851:1.0 
-0.0 -2.0 0.0 2.0 2.0 2:1.0 3:2.0 4:2.0 5:5.0 6:4.0 7:1.0 8:1.0 
-1.833468704454435 -2.0 0.0 0.0 2.0 2:1.0 3:2.0 4:1.0 5:13.0 6:9.0 7:5.0 8:1.0 
-0.0 -0.0 0.7907966998026464 0.48628453165876956 0.0 2:1.0 3:2.0 4:5.0 5:9.0 6:5.0 7:1.0 247:1.0 852:1.0 853:1.0 
-0.0 -2.0 0.0 0.0 1.2541019087760943 2:1.0 3:2.0 4:1.0 5:5.0 6:5.0 7:1.0 8:1.0 
-0.0 -0.0 0.028497964645862888 0.9044791275419028 0.0 2:1.0 3:2.0 4:4.0 5:8.0 6:5.0 7:1.0 134:1.0 297:1.0 854:1.0 
-0.0 -0.0 0.08173130439491011 0.03361337907465925 0.016956868136288293 2:1.0 3:2.0 4:3.0 5:21.0 6:17.0 7:2.0 39:1.0 54:1.0 751:1.0 855:1.0 856:1.0 857:1.0 858:1.0 859:1.0 
-0.0 -0.0 0.16460054143100175 0.28293478644955755 0.0 2:1.0 3:2.0 4:6.0 5:13.0 6:8.0 7:1.0 60:1.0 676:1.0 860:1.0 861:1.0 862:1.0 
-0.24174625673117728 -0.06983571457316716 0.6786304485161666 0.18207981176522986 0.20986104765532168 3:2.0 4:1.0 5:7.0 6:6.0 7:1.0 9:1.0 13:1.0 277:1.0 863:1.0 
-0.0 -2.0 2.0 1.4545213709177895 0.0 2:1.0 3:2.0 4:2.0 5:10.0 6:9.0 7:1.0 8:1.0 
-0.0 -0.896261189806061 0.11966349648252111 0.08954966315374116 0.08606508953071144 2:1.0 3:2.0 4:2.0 5:5.0 6:4.0 7:1.0 10:1.0 864:1.0 
-0.0 -2.0 0.0 0.0 0.0 2:1.0 3:2.0 4:1.0 5:6.0 6:6.0 7:1.0 8:1.0 
-0.0 -0.0 0.047810483757651207 0.10276012478052654 0.12430411026337794 3:2.0 4:2.0 5:10.0 6:9.0 7:1.0 13:1.0 418:1.0 865:1.0 866:1.0 
-0.0 -0.0 0.2938575456767316 0.1674160526182917 0.4587417742960239 2:1.0 3:2.0 4:2.0 5:8.0 6:7.0 7:1.0 334:1.0 867:1.0 
-0.0 -0.0 0.2224976157223047 0.0 0.0 2:1.0 3:2.0 4:4.0 5:10.0 6:7.0 7:1.0 157:1.0 247:1.0 868:1.0 
-0.017683426704940376 -0.28267653568110934 0.0 0.0 0.0 2:1.0 3:2.0 4:3.0 5:18.0 6:11.0 7:6.0 10:1.0 13:1.0 45:1.0 122:1.0 869:1.0 870:1.0 871:1.0 
-0.0 -0.0 0.2021371207006824 0.0 0.054282960824034804 2:1.0 3:2.0 4:1.0 5:20.0 6:14.0 7:7.0 98:1.0 173:1.0 586:1.0 872:1.0 873:1.0 874:1.0 875:1.0 876:1.0 
-0.0 -2.0 0.0 0.0 0.0 2:1.0 3:2.0 4:1.0 5:6.0 6:6.0 7:1.0 8:1.0 
-0.0 -2.0 2.0 2.0 1.8366073113397559 2:1.0 3:2.0 4:3.0 5:6.0 6:4.0 7:1.0 8:1.0 
-0.0 -0.16495945378060684 0.0463135950463856 0.044283589060991606 0.042823634934924554 2:1.0 3:2.0 4:1.0 5:7.0 6:7.0 7:1.0 10:1.0 877:1.0 878:1.0 
-2.0 -2.0 0.3523669547662773 2.0 0.0 2:1.0 3:2.0 4:3.0 5:9.0 6:6.0 7:1.0 8:1.0 9:1.0 
-0.0 -0.0 0.22293585826698648 1.3764926027770503 0.06299677557232096 2:1.0 3:2.0 4:2.0 5:9.0 6:8.0 7:1.0 549:1.0 813:1.0 
-0.0 -0.0 0.3440918594876451 0.0 0.03443696938719858 2:1.0 3:2.0 4:3.0 5:13.0 6:10.0 7:1.0 9:1.0 539:1.0 879:1.0 880:1.0 881:1.0 
-0.0 -1.2802984709811667 2.0 0.0 0.0 2:1.0 3:2.0 4:3.0 5:13.0 6:10.0 7:2.0 81:1.0 
-0.0 -2.0 2.0 0.07852622410619167 0.0 2:1.0 3:2.0 4:2.0 5:12.0 6:11.0 7:1.0 8:1.0 
-0.0 -0.18823902153824842 0.277687771461022 0.08124575527845836 0.0 2:1.0 3:2.0 4:4.0 5:7.0 6:3.0 7:2.0 418:1.0 740:1.0 741:1.0 882:1.0 
-0.0 -2.0 0.0 0.0 0.9727240944017413 2:1.0 3:2.0 4:1.0 5:5.0 6:5.0 7:1.0 8:1.0 
-0.0 -0.0 0.5166488055937415 0.19430246665740813 0.17085706814747129 2:1.0 3:2.0 4:5.0 5:12.0 6:6.0 7:1.0 19:1.0 54:1.0 467:1.0 883:1.0 884:1.0 
-0.0 -0.10269570001594526 0.2490709970453297 0.20748564714186854 0.052354462413309946 2:1.0 3:2.0 4:3.0 5:9.0 6:7.0 7:1.0 200:1.0 885:1.0 886:1.0 
-0.053925721910598884 -0.3947232066345819 0.33624368051264575 0.2960866427209711 0.2741193543528786 3:2.0 4:1.0 5:7.0 6:7.0 7:1.0 13:1.0 128:1.0 887:1.0 
-0.08289946135727949 -0.09255033758220645 0.2953276501169388 0.22580100213921972 0.21009336598229736 3:2.0 4:3.0 5:6.0 6:4.0 7:1.0 13:1.0 423:1.0 888:1.0 
-0.0 -0.0 0.0 0.09153732181739196 0.0 2:1.0 3:2.0 4:5.0 5:10.0 6:5.0 7:2.0 255:1.0 257:1.0 465:1.0 
-0.0 -0.0 0.027194239085928877 0.0 0.0 2:1.0 3:2.0 4:1.0 5:9.0 6:8.0 7:1.0 54:1.0 269:1.0 889:1.0 890:1.0 
-0.0 -2.0 0.0 0.0 0.0 2:1.0 3:2.0 4:1.0 5:6.0 6:6.0 7:1.0 8:1.0 
-0.0 -0.0 0.0 0.04474493561256207 0.06336500190967785 2:1.0 3:2.0 4:5.0 5:9.0 6:5.0 7:1.0 169:1.0 258:1.0 
-0.0 -0.0 0.32986677067150455 0.0 0.0 2:1.0 3:2.0 4:3.0 5:15.0 6:12.0 7:2.0 10:1.0 94:1.0 179:1.0 891:1.0 892:1.0 
-0.0 -0.0 0.3962796222317883 0.21423219202513144 0.07646891249662792 2:1.0 3:2.0 4:1.0 5:5.0 6:5.0 7:1.0 614:1.0 893:1.0 
-0.0 -2.0 0.0 2.0 0.0 2:1.0 3:2.0 4:2.0 5:7.0 6:6.0 7:1.0 8:1.0 
-0.0 -0.0 0.15347099628362845 0.10585506418041099 0.0 2:1.0 3:2.0 4:2.0 5:8.0 6:6.0 7:1.0 54:1.0 128:1.0 470:1.0 894:1.0 
-0.0 -0.16019899454107725 0.0 0.14359002384425573 0.05289354014359065 2:1.0 3:2.0 4:3.0 5:5.0 6:3.0 7:1.0 705:1.0 896:1.0 
-0.0 -2.0 2.0 0.0 0.0 2:1.0 3:2.0 4:1.0 5:5.0 6:4.0 7:1.0 8:1.0 58:1.0 
-0.0 -0.08949088612371665 0.35986547043300326 0.460607060707127 0.42761439078267544 2:1.0 3:2.0 4:2.0 5:6.0 6:3.0 7:2.0 10:1.0 19:1.0 155:1.0 897:1.0 
-0.0 -0.47500489120702727 0.45656706047059414 0.11463363776192609 0.32500067592125187 2:1.0 3:2.0 4:1.0 5:5.0 6:5.0 7:1.0 59:1.0 542:1.0 898:1.0 
-0.0 -0.0 0.0 0.02664621044773185 0.0 2:1.0 3:2.0 4:1.0 5:8.0 6:7.0 7:1.0 10:1.0 136:1.0 899:1.0 900:1.0 
-0.0 -0.0 0.751090393276901 0.0 0.08582539317943381 2:1.0 3:2.0 4:1.0 5:6.0 6:5.0 7:1.0 10:1.0 36:1.0 901:1.0 
-0.0 -0.0 0.22474503852372416 0.11222227335896873 0.0525549381521631 2:1.0 3:2.0 4:3.0 5:9.0 6:6.0 7:1.0 36:1.0 703:1.0 752:1.0 902:1.0 
-0.0 -0.5664180477160377 0.019544505173546695 0.22280436206741688 0.06790529154921701 2:1.0 3:2.0 4:3.0 5:5.0 6:3.0 7:1.0 82:1.0 903:1.0 
-0.01619178977568546 -1.1913671912960768 0.9470477438054915 0.21400494621657687 0.680996234481857 2:1.0 3:2.0 4:2.0 5:6.0 6:3.0 7:3.0 183:1.0 904:1.0 
-0.0 -2.0 0.0 0.0 0.0 2:1.0 3:2.0 4:1.0 5:6.0 6:6.0 7:1.0 8:1.0 
-0.0 -0.0 0.1701238253596726 0.1044622905390124 0.0 2:1.0 3:2.0 4:1.0 5:8.0 6:8.0 7:1.0 10:1.0 257:1.0 905:1.0 
-0.0 -2.0 0.0 0.0 0.0 2:1.0 3:2.0 4:1.0 5:10.0 6:10.0 7:1.0 8:1.0 
-0.0 -0.0 0.0578944397337548 0.01190978805467677 0.15928815771897373 2:1.0 3:2.0 4:3.0 5:11.0 6:6.0 7:2.0 10:1.0 19:1.0 54:1.0 831:1.0 906:1.0 907:1.0 
-0.0 -2.0 0.0 2.0 0.0 2:1.0 3:2.0 4:2.0 5:7.0 6:6.0 7:1.0 8:1.0 
-0.0 -0.0 0.39402810605101035 0.015161952143790597 0.07466583521598318 2:1.0 3:2.0 4:8.0 5:15.0 6:7.0 7:2.0 69:1.0 98:1.0 908:1.0 909:1.0 910:1.0 911:1.0 
-0.0 -2.0 2.0 2.0 0.0 2:1.0 3:2.0 4:4.0 5:12.0 6:9.0 7:1.0 8:1.0 
-0.0 -2.0 0.16669059097037517 0.3504293059599465 0.0 2:1.0 3:2.0 4:2.0 5:6.0 6:2.0 7:2.0 10:1.0 17:1.0 54:1.0 70:1.0 
-0.018166495671339454 -1.2822414786539533 2.0 0.0 0.05591819564107313 2:1.0 3:2.0 4:2.0 5:6.0 6:4.0 7:2.0 10:1.0 759:1.0 
-0.0 -0.1835422690843885 0.44439508116619714 0.21510323109733992 0.07915798943416294 2:1.0 3:2.0 4:4.0 5:6.0 6:3.0 7:1.0 912:1.0 913:1.0 
-0.0 -2.0 1.956635361438776 2.0 0.27370937439917803 2:1.0 3:2.0 4:1.0 5:9.0 6:7.0 7:3.0 10:1.0 47:1.0 94:1.0 237:1.0 
-2.0 -2.0 0.0 2.0 0.0 2:1.0 3:2.0 4:1.0 5:12.0 6:11.0 7:1.0 8:1.0 9:1.0 
-0.0 -0.3531024429522822 0.42644612014069583 0.2148821275808371 0.07916902367506187 2:1.0 3:2.0 4:3.0 5:4.0 6:2.0 7:1.0 914:1.0 915:1.0 
-0.0 -0.0 0.07714610044946396 0.1914471424529529 0.0037060753295727502 2:1.0 3:2.0 4:2.0 5:12.0 6:10.0 7:2.0 98:1.0 563:1.0 781:1.0 916:1.0 917:1.0 
-0.0 -0.2272092242929039 0.3783418875667893 0.12232748916040448 0.0 3:2.0 4:1.0 5:12.0 6:8.0 7:5.0 259:1.0 278:1.0 918:1.0 919:1.0 
-0.0 -0.7728318259763988 0.0 0.0 0.0 2:1.0 3:2.0 4:1.0 5:9.0 6:9.0 7:1.0 10:1.0 127:1.0 174:1.0 920:1.0 
-0.0 -2.0 2.0 0.08848899163130274 0.08560999699284812 2:1.0 3:2.0 4:1.0 5:8.0 6:8.0 7:1.0 10:1.0 239:1.0 
-0.0 -2.0 0.0 2.0 0.9110013543485358 2:1.0 3:2.0 4:1.0 5:5.0 6:5.0 7:1.0 8:1.0 
-0.0 -0.0 0.2776754504248318 0.0 0.33506487620577124 2:1.0 3:2.0 4:5.0 5:14.0 6:9.0 7:1.0 10:1.0 36:1.0 285:1.0 921:1.0 922:1.0 923:1.0 
-0.0 -0.00668343492874588 0.10441158158694384 0.0 0.0 2:1.0 3:2.0 4:3.0 5:6.0 6:4.0 7:1.0 266:1.0 924:1.0 
-0.0 -0.4795880512915325 0.19908565297581346 0.4278187831648796 0.7449956786845863 2:1.0 3:2.0 4:1.0 5:4.0 6:4.0 7:1.0 500:1.0 
-0.0 -0.06501135417929686 0.033338751359878745 0.022258826888727764 0.5214536318839886 2:1.0 3:2.0 4:2.0 5:11.0 6:10.0 7:1.0 10:1.0 99:1.0 925:1.0 926:1.0 927:1.0 
-0.0 -0.0 0.03333094451113517 6.578634854790758E-4 0.0 2:1.0 3:2.0 4:2.0 5:5.0 6:4.0 7:1.0 500:1.0 928:1.0 
-0.0 -0.0 2.0 0.7774674640445776 0.0 2:1.0 3:2.0 4:6.0 5:16.0 6:7.0 7:4.0 36:1.0 107:1.0 109:1.0 
-0.0 -0.0 0.6878367185904304 0.1803702731553237 0.03538476629754966 2:1.0 3:2.0 4:5.0 5:12.0 6:7.0 7:1.0 105:1.0 456:1.0 494:1.0 929:1.0 
-0.0 -0.0 0.2920904062156172 0.0 1.7826139584507699 2:1.0 3:2.0 4:3.0 5:10.0 6:7.0 7:2.0 10:1.0 155:1.0 371:1.0 930:1.0 
-0.0 -0.0 0.06448626292890358 0.013589638918650265 0.04328097293756851 2:1.0 3:2.0 4:3.0 5:7.0 6:4.0 7:1.0 10:1.0 54:1.0 931:1.0 932:1.0 
-0.0 -0.7726367282865332 0.0 0.0 0.13225546339398492 2:1.0 3:2.0 4:1.0 5:8.0 6:7.0 7:2.0 10:1.0 47:1.0 107:1.0 280:1.0 
-0.0 -0.0 0.029417088386394147 0.0 0.0 2:1.0 3:2.0 4:2.0 5:10.0 6:9.0 7:1.0 10:1.0 169:1.0 179:1.0 933:1.0 
-0.0 -2.0 1.8889904615137607 0.0 0.0 2:1.0 3:2.0 4:2.0 5:9.0 6:8.0 7:1.0 8:1.0 
-0.0 -0.6006540097232893 0.05542275331362895 0.0 0.15249554890698852 2:1.0 3:2.0 4:2.0 5:11.0 6:6.0 7:5.0 10:1.0 98:1.0 934:1.0 935:1.0 
-0.0 -2.0 0.0 1.9527925074670203 0.0 2:1.0 3:2.0 4:2.0 5:8.0 6:7.0 7:1.0 8:1.0 
-0.0 -0.0 0.4479070134643337 0.0 0.0 3:2.0 4:1.0 5:8.0 6:7.0 7:1.0 13:1.0 58:1.0 282:1.0 287:1.0 577:1.0 
-0.0 -2.0 0.0 0.0 0.0 2:1.0 3:2.0 4:1.0 5:6.0 6:6.0 7:1.0 8:1.0 
-0.0 -0.008096742456738542 0.0 0.0 0.0 2:1.0 3:2.0 4:1.0 5:8.0 6:8.0 7:1.0 10:1.0 127:1.0 306:1.0 
-0.0 -2.0 0.0 2.0 2.0 2:1.0 3:2.0 4:1.0 5:5.0 6:5.0 7:1.0 8:1.0 
-0.0 -0.0 0.10353678786006658 0.15171860631363432 0.0 2:1.0 3:2.0 4:1.0 5:12.0 6:11.0 7:1.0 9:1.0 10:1.0 203:1.0 937:1.0 938:1.0 
-0.0 -0.47843043467400836 0.28698251042446066 0.0 0.0 2:1.0 3:2.0 4:2.0 5:5.0 6:4.0 7:1.0 205:1.0 314:1.0 939:1.0 
-0.0 -2.0 0.0 0.0 0.0 2:1.0 3:2.0 4:1.0 5:9.0 6:9.0 7:1.0 8:1.0 
-0.09790411909285862 -0.6674007249581972 2.0 0.9353531304595581 0.49013215900319806 3:2.0 4:1.0 5:5.0 6:5.0 7:1.0 13:1.0 33:1.0 282:1.0 
-0.0 -2.0 0.0 0.0 0.0 2:1.0 3:2.0 4:1.0 5:7.0 6:7.0 7:1.0 8:1.0 
-0.08846687437370063 -0.34745559871873655 0.5250616695901446 0.0 0.09067408351108382 3:2.0 4:5.0 5:8.0 6:4.0 7:1.0 10:1.0 13:1.0 525:1.0 942:1.0 
-0.0 -0.16126616181956202 0.18232717210935467 0.9801093177889706 0.2371131710303193 2:1.0 3:2.0 4:2.0 5:8.0 6:6.0 7:1.0 17:1.0 226:1.0 943:1.0 944:1.0 
-0.0 -2.0 0.0 0.0 0.0 2:1.0 3:2.0 4:1.0 5:6.0 6:6.0 7:1.0 8:1.0 
-0.0 -0.0 2.0 2.0 2.0 2:1.0 3:2.0 4:1.0 5:27.0 6:27.0 7:1.0 8:1.0 
-0.0 -2.0 0.0 0.0 0.0 2:1.0 3:2.0 4:1.0 5:9.0 6:9.0 7:1.0 8:1.0 
-0.0 -2.0 0.0 0.0 2.0 2:1.0 3:2.0 4:1.0 5:5.0 6:5.0 7:1.0 8:1.0 
-0.0 -2.0 0.0 0.0 0.0 2:1.0 3:2.0 4:1.0 5:7.0 6:7.0 7:1.0 8:1.0 
-0.0 -0.5929313794766962 2.0 2.0 0.0 2:1.0 3:2.0 4:2.0 5:4.0 6:3.0 7:1.0 671:1.0 
-0.0 -0.2702826323979063 0.08826174228939489 0.0 0.3040679465025087 2:1.0 3:2.0 4:2.0 5:7.0 6:5.0 7:2.0 10:1.0 98:1.0 946:1.0 
-0.0 -1.1192044878458394 2.0 2.0 2.0 2:1.0 3:2.0 4:1.0 5:11.0 6:10.0 7:1.0 8:1.0 19:1.0 
-0.0 -0.0 0.0 0.0 0.0427964171458194 2:1.0 3:2.0 4:1.0 5:8.0 6:8.0 7:1.0 10:1.0 383:1.0 947:1.0 
-0.0 -0.0 0.06059940647734223 0.0 0.0 2:1.0 3:2.0 4:1.0 5:7.0 6:7.0 7:1.0 297:1.0 949:1.0 950:1.0 
-0.0 -2.0 1.847818287962685 0.0 0.0 2:1.0 3:2.0 4:2.0 5:7.0 6:5.0 7:2.0 8:1.0 
-0.0 -0.0 0.10788765504770999 0.030900049031712104 0.029015553763214748 2:1.0 3:2.0 4:8.0 5:12.0 6:5.0 7:1.0 10:1.0 951:1.0 952:1.0 953:1.0 
-0.0 -0.3611684092726345 0.9554680804331285 0.04385684865403978 0.0 2:1.0 3:2.0 4:1.0 5:12.0 6:10.0 7:3.0 174:2.0 454:1.0 707:1.0 
-2.0 -2.0 0.0 2.0 2.0 2:1.0 3:2.0 4:1.0 5:3.0 6:3.0 7:1.0 8:1.0 
-0.0 -0.0 0.3546210602597344 0.2384605101664652 0.005829953078347867 2:1.0 3:2.0 4:1.0 5:10.0 6:9.0 7:1.0 10:1.0 54:1.0 109:1.0 954:1.0 955:1.0 
-0.0 -0.0 0.10563077435063183 0.011232856176745753 0.05613051503695288 2:1.0 3:2.0 4:3.0 5:15.0 6:8.0 7:2.0 17:2.0 36:1.0 52:1.0 54:1.0 956:1.0 957:1.0 958:1.0 959:1.0 
-0.0 -0.15972523208880532 0.0 0.14244213235831504 0.0524626919369257 2:1.0 3:2.0 4:1.0 5:4.0 6:4.0 7:1.0 705:1.0 960:1.0 
-0.0 -0.11998752752592573 1.4274224645648024 0.05911757526232935 1.5738017230929142 2:1.0 3:2.0 4:3.0 5:5.0 6:3.0 7:1.0 359:2.0 
-0.0 -2.0 0.0 2.0 0.0 2:1.0 3:2.0 4:2.0 5:7.0 6:6.0 7:1.0 8:1.0 
-0.0 -0.0 1.6471641127355934 0.0 0.23972334655535182 2:1.0 3:2.0 4:3.0 5:10.0 6:6.0 7:3.0 303:1.0 368:1.0 961:1.0 
-0.0 -0.06028620246986091 0.0 0.0 0.0 2:1.0 3:2.0 4:2.0 5:6.0 6:2.0 7:2.0 10:1.0 17:1.0 54:1.0 70:1.0 322:1.0 
-0.0 -2.0 0.0 2.0 0.7388921465969205 2:1.0 3:2.0 4:1.0 5:5.0 6:5.0 7:1.0 8:1.0 
-0.0 -0.0 0.09438395019363605 0.0 0.0 3:2.0 4:2.0 5:6.0 6:5.0 7:1.0 269:1.0 278:1.0 962:1.0 
-0.0 -2.0 0.0 0.0 0.0 2:1.0 3:2.0 4:1.0 5:10.0 6:10.0 7:1.0 8:1.0 
-0.0 -0.05849030508718016 0.05100966090632596 0.013113693617420994 0.477595729070321 2:1.0 3:2.0 4:2.0 5:9.0 6:7.0 7:1.0 10:1.0 54:1.0 84:1.0 963:1.0 
-0.0 -0.12658079935821487 0.0 0.0 0.05691171975362165 2:1.0 3:2.0 4:1.0 5:5.0 6:5.0 7:1.0 491:1.0 964:1.0 
-0.0 -2.0 0.0 0.0 0.0 2:1.0 3:2.0 4:1.0 5:6.0 6:6.0 7:1.0 8:1.0 
-0.0 -0.0 0.8120457758936109 0.10111360519492908 0.024204700604357393 2:1.0 3:2.0 4:4.0 5:10.0 6:6.0 7:1.0 19:1.0 343:1.0 460:1.0 965:1.0 
-0.0 -0.1263972250377062 0.10460821331881141 0.0 0.005512546479174272 2:1.0 3:2.0 4:4.0 5:10.0 6:6.0 7:2.0 127:1.0 966:1.0 967:1.0 968:1.0 969:1.0 
-0.0 -2.0 0.0 0.0 0.0 2:1.0 3:2.0 4:1.0 5:7.0 6:7.0 7:1.0 8:1.0 
-0.0 -0.0 0.26491653050519376 0.2161572402664661 0.045876795820230694 2:1.0 3:2.0 4:1.0 5:6.0 6:6.0 7:1.0 487:1.0 970:1.0 971:1.0 
-0.0354804595350411 -0.0 0.4334222360650533 0.22532585271317168 0.20987921017382752 3:2.0 4:2.0 5:8.0 6:7.0 7:1.0 13:1.0 972:1.0 973:1.0 
-0.0 -0.0 0.3702178424348332 0.0 0.9520811273520521 2:1.0 3:2.0 4:1.0 5:10.0 6:9.0 7:1.0 54:1.0 371:1.0 665:1.0 974:1.0 
-0.0 -2.0 0.0 2.0 0.0 2:1.0 3:2.0 4:1.0 5:5.0 6:5.0 7:1.0 8:1.0 
-0.0 -2.0 1.7284181843214945 2.0 2.0 2:1.0 3:2.0 4:1.0 5:9.0 6:8.0 7:1.0 8:1.0 19:1.0 
-0.0 -0.6813374738763441 -0.6786180560909842 0.12455612295271039 0.0 3:2.0 4:4.0 5:8.0 6:4.0 7:1.0 13:1.0 36:1.0 51:1.0 975:1.0 
